~o
<STREAMINFO> 1 22
<VECSIZE> 22<NULLD><MFCC_0><DIAGC>
~h "SIL"
<BEGINHMM>
<NUMSTATES> 5
<STATE> 2
<NUMMIXES> 4
<MIXTURE> 1 2.500000e-01
<MEAN> 22
 1.439130e+01 1.545981e+01 9.364216e+00 8.358487e+00 7.056805e+01 8.973984e+01 1.034535e+02 1.028538e+02 7.162930e+01 7.198872e+01 1.856943e+02 1.723158e+02 1.188886e+02 1.163185e+02 6.501611e+00 4.606002e+00 6.366353e+00 5.856893e+00 5.852156e+00 5.450307e+00 3.319161e+00 3.571899e+00
<VARIANCE> 22
 4.801635e+02 4.063120e+02 3.300595e+02 2.164982e+02 4.956268e+03 5.429985e+03 9.837579e+02 1.115179e+03 2.936362e+02 3.515820e+02 3.745738e+03 4.440754e+03 4.183320e+02 3.870127e+02 6.504288e+00 1.793316e+00 2.326111e+00 1.170389e+00 2.082489e+00 5.618803e+00 6.153808e+00 6.060927e+00
<GCONST> 1.445108e+02
<MIXTURE> 2 2.500000e-01
<MEAN> 22
 5.626247e+00 7.396933e+00 2.097200e+00 2.472937e+00 4.240775e+01 6.026447e+01 9.090754e+01 8.949603e+01 6.477496e+01 6.448850e+01 1.612133e+02 1.456602e+02 1.107074e+02 1.084495e+02 5.481472e+00 4.070344e+00 5.756289e+00 5.424155e+00 5.274922e+00 4.502147e+00 2.326887e+00 2.587141e+00
<VARIANCE> 22
 4.801635e+02 4.063120e+02 3.300595e+02 2.164982e+02 4.956268e+03 5.429985e+03 9.837579e+02 1.115179e+03 2.936362e+02 3.515820e+02 3.745738e+03 4.440754e+03 4.183320e+02 3.870127e+02 6.504288e+00 1.793316e+00 2.326111e+00 1.170389e+00 2.082489e+00 5.618803e+00 6.153808e+00 6.060927e+00
<GCONST> 1.445108e+02
<MIXTURE> 3 2.500000e-01
<MEAN> 22
 5.626243e+00 7.396934e+00 2.097200e+00 2.472936e+00 4.240775e+01 6.026447e+01 9.090754e+01 8.949604e+01 6.477497e+01 6.448850e+01 1.612133e+02 1.456602e+02 1.107074e+02 1.084495e+02 5.481471e+00 4.070343e+00 5.756289e+00 5.424155e+00 5.274922e+00 4.502147e+00 2.326887e+00 2.587141e+00
<VARIANCE> 22
 4.801635e+02 4.063120e+02 3.300595e+02 2.164982e+02 4.956268e+03 5.429985e+03 9.837579e+02 1.115179e+03 2.936362e+02 3.515820e+02 3.745738e+03 4.440754e+03 4.183320e+02 3.870127e+02 6.504288e+00 1.793316e+00 2.326111e+00 1.170389e+00 2.082489e+00 5.618803e+00 6.153808e+00 6.060927e+00
<GCONST> 1.445108e+02
<MIXTURE> 4 2.500000e-01
<MEAN> 22
 -3.138807e+00 -6.659405e-01 -5.169816e+00 -3.412614e+00 1.424744e+01 3.078909e+01 7.836158e+01 7.613832e+01 5.792064e+01 5.698830e+01 1.367323e+02 1.190046e+02 1.025262e+02 1.005805e+02 4.461331e+00 3.534686e+00 5.146225e+00 4.991417e+00 4.697689e+00 3.553987e+00 1.334613e+00 1.602383e+00
<VARIANCE> 22
 4.801635e+02 4.063120e+02 3.300595e+02 2.164982e+02 4.956268e+03 5.429985e+03 9.837579e+02 1.115179e+03 2.936362e+02 3.515820e+02 3.745738e+03 4.440754e+03 4.183320e+02 3.870127e+02 6.504288e+00 1.793316e+00 2.326111e+00 1.170389e+00 2.082489e+00 5.618803e+00 6.153808e+00 6.060927e+00
<GCONST> 1.445108e+02
<STATE> 3
<NUMMIXES> 4
<MIXTURE> 1 2.500000e-01
<MEAN> 22
 1.439130e+01 1.545981e+01 9.364216e+00 8.358487e+00 7.056805e+01 8.973984e+01 1.034535e+02 1.028538e+02 7.162930e+01 7.198872e+01 1.856943e+02 1.723158e+02 1.188886e+02 1.163185e+02 6.501611e+00 4.606002e+00 6.366353e+00 5.856893e+00 5.852156e+00 5.450307e+00 3.319161e+00 3.571899e+00
<VARIANCE> 22
 4.801635e+02 4.063120e+02 3.300595e+02 2.164982e+02 4.956268e+03 5.429985e+03 9.837579e+02 1.115179e+03 2.936362e+02 3.515820e+02 3.745738e+03 4.440754e+03 4.183320e+02 3.870127e+02 6.504288e+00 1.793316e+00 2.326111e+00 1.170389e+00 2.082489e+00 5.618803e+00 6.153808e+00 6.060927e+00
<GCONST> 1.445108e+02
<MIXTURE> 2 2.500000e-01
<MEAN> 22
 5.626247e+00 7.396933e+00 2.097200e+00 2.472937e+00 4.240775e+01 6.026447e+01 9.090754e+01 8.949603e+01 6.477496e+01 6.448850e+01 1.612133e+02 1.456602e+02 1.107074e+02 1.084495e+02 5.481472e+00 4.070344e+00 5.756289e+00 5.424155e+00 5.274922e+00 4.502147e+00 2.326887e+00 2.587141e+00
<VARIANCE> 22
 4.801635e+02 4.063120e+02 3.300595e+02 2.164982e+02 4.956268e+03 5.429985e+03 9.837579e+02 1.115179e+03 2.936362e+02 3.515820e+02 3.745738e+03 4.440754e+03 4.183320e+02 3.870127e+02 6.504288e+00 1.793316e+00 2.326111e+00 1.170389e+00 2.082489e+00 5.618803e+00 6.153808e+00 6.060927e+00
<GCONST> 1.445108e+02
<MIXTURE> 3 2.500000e-01
<MEAN> 22
 5.626243e+00 7.396934e+00 2.097200e+00 2.472936e+00 4.240775e+01 6.026447e+01 9.090754e+01 8.949604e+01 6.477497e+01 6.448850e+01 1.612133e+02 1.456602e+02 1.107074e+02 1.084495e+02 5.481471e+00 4.070343e+00 5.756289e+00 5.424155e+00 5.274922e+00 4.502147e+00 2.326887e+00 2.587141e+00
<VARIANCE> 22
 4.801635e+02 4.063120e+02 3.300595e+02 2.164982e+02 4.956268e+03 5.429985e+03 9.837579e+02 1.115179e+03 2.936362e+02 3.515820e+02 3.745738e+03 4.440754e+03 4.183320e+02 3.870127e+02 6.504288e+00 1.793316e+00 2.326111e+00 1.170389e+00 2.082489e+00 5.618803e+00 6.153808e+00 6.060927e+00
<GCONST> 1.445108e+02
<MIXTURE> 4 2.500000e-01
<MEAN> 22
 -3.138807e+00 -6.659405e-01 -5.169816e+00 -3.412614e+00 1.424744e+01 3.078909e+01 7.836158e+01 7.613832e+01 5.792064e+01 5.698830e+01 1.367323e+02 1.190046e+02 1.025262e+02 1.005805e+02 4.461331e+00 3.534686e+00 5.146225e+00 4.991417e+00 4.697689e+00 3.553987e+00 1.334613e+00 1.602383e+00
<VARIANCE> 22
 4.801635e+02 4.063120e+02 3.300595e+02 2.164982e+02 4.956268e+03 5.429985e+03 9.837579e+02 1.115179e+03 2.936362e+02 3.515820e+02 3.745738e+03 4.440754e+03 4.183320e+02 3.870127e+02 6.504288e+00 1.793316e+00 2.326111e+00 1.170389e+00 2.082489e+00 5.618803e+00 6.153808e+00 6.060927e+00
<GCONST> 1.445108e+02
<STATE> 4
<NUMMIXES> 4
<MIXTURE> 1 2.500000e-01
<MEAN> 22
 1.439130e+01 1.545981e+01 9.364216e+00 8.358487e+00 7.056805e+01 8.973984e+01 1.034535e+02 1.028538e+02 7.162930e+01 7.198872e+01 1.856943e+02 1.723158e+02 1.188886e+02 1.163185e+02 6.501611e+00 4.606002e+00 6.366353e+00 5.856893e+00 5.852156e+00 5.450307e+00 3.319161e+00 3.571899e+00
<VARIANCE> 22
 4.801635e+02 4.063120e+02 3.300595e+02 2.164982e+02 4.956268e+03 5.429985e+03 9.837579e+02 1.115179e+03 2.936362e+02 3.515820e+02 3.745738e+03 4.440754e+03 4.183320e+02 3.870127e+02 6.504288e+00 1.793316e+00 2.326111e+00 1.170389e+00 2.082489e+00 5.618803e+00 6.153808e+00 6.060927e+00
<GCONST> 1.445108e+02
<MIXTURE> 2 2.500000e-01
<MEAN> 22
 5.626247e+00 7.396933e+00 2.097200e+00 2.472937e+00 4.240775e+01 6.026447e+01 9.090754e+01 8.949603e+01 6.477496e+01 6.448850e+01 1.612133e+02 1.456602e+02 1.107074e+02 1.084495e+02 5.481472e+00 4.070344e+00 5.756289e+00 5.424155e+00 5.274922e+00 4.502147e+00 2.326887e+00 2.587141e+00
<VARIANCE> 22
 4.801635e+02 4.063120e+02 3.300595e+02 2.164982e+02 4.956268e+03 5.429985e+03 9.837579e+02 1.115179e+03 2.936362e+02 3.515820e+02 3.745738e+03 4.440754e+03 4.183320e+02 3.870127e+02 6.504288e+00 1.793316e+00 2.326111e+00 1.170389e+00 2.082489e+00 5.618803e+00 6.153808e+00 6.060927e+00
<GCONST> 1.445108e+02
<MIXTURE> 3 2.500000e-01
<MEAN> 22
 5.626243e+00 7.396934e+00 2.097200e+00 2.472936e+00 4.240775e+01 6.026447e+01 9.090754e+01 8.949604e+01 6.477497e+01 6.448850e+01 1.612133e+02 1.456602e+02 1.107074e+02 1.084495e+02 5.481471e+00 4.070343e+00 5.756289e+00 5.424155e+00 5.274922e+00 4.502147e+00 2.326887e+00 2.587141e+00
<VARIANCE> 22
 4.801635e+02 4.063120e+02 3.300595e+02 2.164982e+02 4.956268e+03 5.429985e+03 9.837579e+02 1.115179e+03 2.936362e+02 3.515820e+02 3.745738e+03 4.440754e+03 4.183320e+02 3.870127e+02 6.504288e+00 1.793316e+00 2.326111e+00 1.170389e+00 2.082489e+00 5.618803e+00 6.153808e+00 6.060927e+00
<GCONST> 1.445108e+02
<MIXTURE> 4 2.500000e-01
<MEAN> 22
 -3.138807e+00 -6.659405e-01 -5.169816e+00 -3.412614e+00 1.424744e+01 3.078909e+01 7.836158e+01 7.613832e+01 5.792064e+01 5.698830e+01 1.367323e+02 1.190046e+02 1.025262e+02 1.005805e+02 4.461331e+00 3.534686e+00 5.146225e+00 4.991417e+00 4.697689e+00 3.553987e+00 1.334613e+00 1.602383e+00
<VARIANCE> 22
 4.801635e+02 4.063120e+02 3.300595e+02 2.164982e+02 4.956268e+03 5.429985e+03 9.837579e+02 1.115179e+03 2.936362e+02 3.515820e+02 3.745738e+03 4.440754e+03 4.183320e+02 3.870127e+02 6.504288e+00 1.793316e+00 2.326111e+00 1.170389e+00 2.082489e+00 5.618803e+00 6.153808e+00 6.060927e+00
<GCONST> 1.445108e+02
<TRANSP> 5
 0.000000e+00 1.000000e+00 0.000000e+00 0.000000e+00 0.000000e+00
 0.000000e+00 4.800000e-01 3.200000e-01 2.000000e-01 0.000000e+00
 0.000000e+00 0.000000e+00 6.000000e-01 4.000000e-01 0.000000e+00
 0.000000e+00 2.000000e-01 0.000000e+00 5.600000e-01 2.400000e-01
 0.000000e+00 0.000000e+00 0.000000e+00 0.000000e+00 0.000000e+00
<ENDHMM>
~h "oov"
<BEGINHMM>
<NUMSTATES> 5
<STATE> 2
<NUMMIXES> 4
<MIXTURE> 1 3.542444e-01
<MEAN> 22
 2.360949e+01 2.413748e+01 1.758402e+01 1.514907e+01 8.509646e+01 1.041409e+02 1.018544e+02 1.023960e+02 7.039462e+01 7.373191e+01 1.755780e+02 1.475294e+02 1.169474e+02 1.129976e+02 5.566874e+00 4.063035e+00 5.873684e+00 5.245313e+00 5.407021e+00 4.498223e+00 2.927674e+00 3.210545e+00
<VARIANCE> 22
 8.012785e+03 5.811471e+03 6.732831e+03 4.275910e+03 2.238429e+04 1.446044e+04 9.658231e+02 1.333523e+03 3.617224e+02 5.266533e+02 3.138179e+03 4.223346e+03 2.821486e+02 2.483051e+02 6.639313e+00 1.476877e+00 2.248124e+00 1.035766e+00 1.934349e+00 5.075113e+00 6.831890e+00 6.234177e+00
<GCONST> 1.578073e+02
<MIXTURE> 2 4.791628e-02
<MEAN> 22
 2.958569e+00 3.012727e+00 8.440468e-01 7.654897e-01 1.597719e+02 1.507701e+02 5.622189e+01 5.549594e+01 5.878758e+01 5.584970e+01 5.279640e+01 5.190333e+01 8.947109e+01 9.000066e+01 1.719080e+00 1.789909e+00 5.157904e+00 5.062146e+00 3.053423e+00 5.636964e-01 1.933632e+00 1.902549e+00
<VARIANCE> 22
 1.770769e+01 1.851145e+01 3.300595e+00 2.164982e+00 1.587476e+04 9.770172e+03 1.150347e+03 1.063656e+03 4.714597e+02 4.368496e+02 9.155360e+02 8.291425e+02 1.077781e+03 9.982222e+02 8.786964e-01 7.826097e-01 5.268764e+00 3.947243e+00 1.477988e+00 3.254403e-01 4.539604e+00 4.593759e+00
<GCONST> 1.256990e+02
<MIXTURE> 3 4.276012e-01
<MEAN> 22
 2.120501e+01 2.087987e+01 1.524310e+01 1.311329e+01 5.967727e+01 9.623000e+01 8.282597e+01 8.392596e+01 6.297375e+01 6.591055e+01 1.298880e+02 9.754160e+01 1.007988e+02 9.700800e+01 4.464760e+00 3.229943e+00 5.342389e+00 4.934165e+00 4.715520e+00 3.111460e+00 2.242421e+00 2.585166e+00
<VARIANCE> 22
 7.112292e+03 5.057431e+03 5.773056e+03 3.721290e+03 5.796191e+03 5.743238e+03 1.121590e+03 1.451609e+03 4.034361e+02 4.782021e+02 4.140072e+03 4.077387e+03 5.344415e+02 5.171948e+02 8.324505e+00 1.998883e+00 4.182384e+00 2.009724e+00 3.103278e+00 6.510762e+00 5.598394e+00 5.379142e+00
<GCONST> 1.590309e+02
<MIXTURE> 4 1.702448e-01
<MEAN> 22
 2.327561e-04 2.540946e-04 9.684265e-05 9.267032e-05 1.981782e+02 1.538734e+02 1.012993e-02 9.912491e-03 1.249123e-02 1.162052e-02 1.300526e-02 1.274300e-02 1.947403e-02 1.926613e-02 3.851354e-04 3.269613e-04 1.119256e-03 1.178861e-03 6.935596e-04 7.127970e-05 1.788437e-04 1.777112e-04
<VARIANCE> 22
 4.801635e+00 4.063120e+00 3.300595e+00 2.164982e+00 6.293803e+04 3.796035e+04 9.837578e+00 1.115179e+01 2.936362e+00 3.515820e+00 3.745738e+01 4.440754e+01 4.183320e+00 3.870127e+00 6.504288e-02 1.793316e-02 2.326111e-02 1.170389e-02 2.082489e-02 5.618803e-02 6.153808e-02 6.060927e-02
<GCONST> 5.689351e+01
<STATE> 3
<NUMMIXES> 4
<MIXTURE> 1 1.920357e-01
<MEAN> 22
 1.456242e+01 1.355172e+01 4.122221e+00 4.080363e+00 9.453009e+01 6.220889e+01 1.159112e+02 1.069483e+02 8.711488e+01 7.169574e+01 1.495068e+02 1.769865e+02 1.200825e+02 1.216172e+02 3.703952e+00 4.396560e+00 5.200750e+00 5.467167e+00 4.467983e+00 5.030799e+00 3.447596e+00 3.169001e+00
<VARIANCE> 22
 3.402571e+02 4.225609e+02 3.378022e+01 3.878378e+01 7.070886e+03 5.401601e+03 2.150062e+03 1.194918e+03 5.452724e+02 4.493958e+02 6.630645e+03 3.498203e+03 6.576863e+02 2.684902e+02 8.746702e+00 1.036942e+00 6.125066e+00 6.593444e-01 3.381902e+00 3.613782e+00 6.584339e+00 6.211811e+00
<GCONST> 1.429698e+02
<MIXTURE> 2 3.067246e-01
<MEAN> 22
 2.617422e+00 7.724289e+00 8.008788e-01 1.995769e+00 3.482347e+01 1.434649e+02 8.866134e+01 1.020411e+02 6.241883e+01 8.204827e+01 1.675580e+02 7.718159e+01 1.127986e+02 1.015304e+02 5.710190e+00 2.782379e+00 6.175830e+00 4.664453e+00 5.496464e+00 2.188205e+00 2.367319e+00 3.402366e+00
<VARIANCE> 22
 1.760024e+01 7.074525e+01 3.300595e+00 4.318403e+00 2.621468e+03 4.714497e+03 5.544554e+02 2.076075e+03 1.110926e+02 6.166100e+02 2.886224e+03 2.281501e+03 1.604739e+02 2.113521e+02 5.889949e+00 1.086259e+00 1.852511e-01 1.530888e+00 1.404516e+00 4.339786e+00 6.512117e+00 5.775278e+00
<GCONST> 1.238005e+02
<MIXTURE> 3 2.646334e-01
<MEAN> 22
 2.151091e+00 4.350357e+00 6.149520e-01 1.101126e+00 4.818105e+01 1.204281e+02 6.830860e+01 7.583088e+01 5.888540e+01 6.726159e+01 1.241344e+02 6.009924e+01 1.025538e+02 9.374117e+01 4.491796e+00 2.309623e+00 6.095152e+00 5.028344e+00 4.801137e+00 1.354631e+00 1.806024e+00 2.478947e+00
<VARIANCE> 22
 1.512760e+01 4.073190e+01 3.300595e+00 2.164982e+00 3.091426e+03 3.118132e+03 6.585183e+02 1.515410e+03 9.017646e+01 3.015310e+02 3.413270e+03 1.242899e+03 8.950697e+01 1.662162e+02 7.184053e+00 8.415356e-01 1.944678e-01 1.631278e+00 1.918821e+00 2.901973e+00 5.528360e+00 5.926757e+00
<GCONST> 1.196547e+02
<MIXTURE> 4 2.365008e-01
<MEAN> 22
 1.117701e+01 8.541675e+00 2.972265e+00 2.809001e+00 1.157159e+02 5.920387e+01 1.003871e+02 8.408480e+01 7.907349e+01 6.109148e+01 7.955626e+01 1.400348e+02 9.710231e+01 1.072592e+02 2.261371e+00 3.986440e+00 3.938893e+00 5.476825e+00 3.353868e+00 4.303784e+00 2.911374e+00 2.334448e+00
<VARIANCE> 22
 2.022690e+02 2.108040e+02 1.668514e+01 2.229930e+01 5.111936e+03 4.251702e+03 1.852925e+03 1.116901e+03 4.849228e+02 2.412656e+02 3.087136e+03 3.623840e+03 4.480469e+02 2.299209e+02 4.002823e+00 1.599461e+00 8.038049e+00 7.612795e-01 2.361091e+00 5.996016e+00 5.924066e+00 5.537860e+00
<GCONST> 1.377019e+02
<STATE> 4
<NUMMIXES> 4
<MIXTURE> 1 3.239618e-01
<MEAN> 22
 3.096679e+00 3.669305e+00 1.150151e+00 1.395160e+00 1.231435e+01 1.405291e+01 1.087882e+02 1.055024e+02 6.827425e+01 6.378872e+01 2.114193e+02 2.088434e+02 1.261934e+02 1.247264e+02 6.998597e+00 5.000016e+00 6.198509e+00 5.877829e+00 6.002035e+00 5.998219e+00 2.568405e+00 2.532543e+00
<VARIANCE> 22
 2.286693e+01 3.161371e+01 3.300595e+00 4.408456e+00 1.725671e+02 2.706079e+02 2.335881e+02 1.823399e+02 7.067642e+01 6.024698e+01 3.732927e+02 3.525611e+02 1.337492e+02 1.010039e+02 6.504288e-02 1.793316e-02 1.590866e-01 1.072197e-01 2.082489e-02 5.618803e-02 6.325817e+00 6.284575e+00
<GCONST> 8.686745e+01
<MIXTURE> 2 1.502896e-01
<MEAN> 22
 9.013573e+00 1.640439e+01 2.148895e+00 3.779026e+00 4.724432e+01 7.190711e+01 8.785117e+01 8.209517e+01 6.705115e+01 7.041537e+01 1.677262e+02 1.411501e+02 1.132951e+02 1.094557e+02 5.364708e+00 4.166294e+00 6.113797e+00 5.377687e+00 5.551198e+00 4.979965e+00 2.862355e+00 3.463717e+00
<VARIANCE> 22
 1.775591e+02 2.914189e+02 1.279109e+01 2.092678e+01 3.222221e+03 3.470799e+03 9.079911e+02 1.238712e+03 2.316949e+02 3.219876e+02 2.233315e+03 2.789819e+03 1.864435e+02 1.641031e+02 7.619039e+00 1.097943e+00 1.121489e+00 5.559222e-01 1.312685e+00 4.800745e+00 6.211756e+00 5.532641e+00
<GCONST> 1.312632e+02
<MIXTURE> 3 3.990112e-01
<MEAN> 22
 1.378044e+00 2.340084e+00 4.969882e-01 8.040325e-01 6.737645e+00 9.806881e+00 8.819205e+01 8.707300e+01 5.684251e+01 5.502686e+01 1.831227e+02 1.820771e+02 1.103877e+02 1.099233e+02 6.998567e+00 5.000000e+00 6.024176e+00 5.913712e+00 6.000016e+00 5.999695e+00 1.736812e+00 1.971693e+00
<VARIANCE> 22
 6.711924e+00 1.535136e+01 3.300595e+00 2.164982e+00 6.363310e+01 1.400097e+02 1.143065e+02 1.299582e+02 3.670746e+01 5.354584e+01 2.201723e+02 2.337591e+02 6.535036e+01 6.948851e+01 6.504288e-02 1.793316e-02 2.358736e-02 7.883109e-02 2.082489e-02 5.618803e-02 5.192870e+00 5.580945e+00
<GCONST> 7.616367e+01
<MIXTURE> 4 1.267364e-01
<MEAN> 22
 5.312200e+00 9.632585e+00 1.088965e+00 2.056873e+00 5.073997e+01 7.915656e+01 6.995098e+01 6.647678e+01 6.090181e+01 6.314499e+01 1.330509e+02 1.047974e+02 1.020487e+02 9.864886e+01 4.509513e+00 3.600142e+00 5.883364e+00 5.358879e+00 5.052104e+00 3.900689e+00 2.041773e+00 2.528722e+00
<VARIANCE> 22
 8.250922e+01 1.417903e+02 3.607715e+00 8.389052e+00 3.632421e+03 3.558719e+03 8.374139e+02 1.078656e+03 1.654504e+02 2.309890e+02 2.716490e+03 2.569122e+03 1.487475e+02 1.560360e+02 8.558571e+00 1.756373e+00 1.674457e+00 8.531089e-01 1.810004e+00 7.676136e+00 5.288022e+00 5.202662e+00
<GCONST> 1.286738e+02
<TRANSP> 5
 0.000000e+00 1.000000e+00 0.000000e+00 0.000000e+00 0.000000e+00
 0.000000e+00 2.599402e-01 7.400599e-01 0.000000e+00 0.000000e+00
 0.000000e+00 0.000000e+00 8.660443e-01 1.339557e-01 0.000000e+00
 0.000000e+00 0.000000e+00 0.000000e+00 9.183769e-01 8.162308e-02
 0.000000e+00 0.000000e+00 0.000000e+00 0.000000e+00 0.000000e+00
<ENDHMM>
