~o
<STREAMINFO> 1 39
<VECSIZE> 39<NULLD><MFCC_D_A_C_K_0><DIAGC>
~s "silst"
<NUMMIXES> 4
<MIXTURE> 1 1.094989e-01
<MEAN> 39
 -1.456599e+01 -8.319011e+00 -1.082908e+01 -1.409326e+01 -9.302477e+00 -1.679848e+01 -9.605217e+00 -8.773623e+00 -3.762129e+00 -3.434220e+00 -3.609745e+00 -5.644631e-01 6.500527e+01 -3.260514e-02 1.158404e-01 1.606550e-01 4.271896e-02 2.856447e-01 2.171454e-01 3.637377e-01 3.964226e-01 4.269491e-01 3.419605e-01 4.562880e-01 3.056644e-01 2.538906e-01 4.583083e-02 1.197336e-02 3.457139e-02 3.811077e-02 3.466640e-02 4.595813e-02 4.091635e-02 5.221090e-02 4.867902e-02 5.772761e-02 4.095497e-02 3.690338e-02 2.399970e-02
<VARIANCE> 39
 5.003672e+01 3.649211e+01 4.538327e+01 4.206772e+01 6.189855e+01 5.394504e+01 5.751667e+01 5.848207e+01 5.382963e+01 5.039197e+01 4.816907e+01 3.965512e+01 4.344188e+01 1.790269e+00 1.503422e+00 1.995473e+00 2.387995e+00 2.975448e+00 2.967953e+00 3.352926e+00 3.554782e+00 3.359284e+00 3.214077e+00 3.078924e+00 2.602397e+00 1.468794e+00 2.530448e-01 2.359804e-01 3.289175e-01 4.108671e-01 5.067748e-01 5.411971e-01 6.169810e-01 6.766434e-01 6.480237e-01 6.244596e-01 5.943828e-01 5.097427e-01 2.153582e-01
<GCONST> 1.236393e+02
<MIXTURE> 2 3.864230e-01
<MEAN> 39
 -1.381435e+01 -9.027412e+00 -1.148526e+01 -1.074350e+01 -1.039313e+01 -1.687435e+01 -1.255848e+01 -1.200736e+01 -7.485184e+00 -4.482184e+00 -7.826561e+00 -2.491225e+00 5.751468e+01 5.847030e-02 9.448860e-02 1.306441e-01 1.705140e-01 1.794988e-01 2.152837e-01 2.190883e-01 2.443023e-01 2.636126e-01 2.853144e-01 2.571747e-01 2.115543e-01 -6.365888e-04 9.741815e-03 2.660152e-02 2.553842e-02 1.013161e-02 3.605510e-02 2.760791e-02 4.566614e-02 5.171902e-02 5.749384e-02 4.524950e-02 6.220029e-02 4.065701e-02 3.105231e-02
<VARIANCE> 39
 6.146836e+00 5.621830e+00 7.907850e+00 1.121427e+01 1.311136e+01 1.517377e+01 1.821110e+01 2.087766e+01 2.320173e+01 1.996783e+01 1.987492e+01 1.757528e+01 3.390853e+00 2.239859e-01 3.623721e-01 5.707106e-01 8.015175e-01 1.035853e+00 1.281721e+00 1.532080e+00 1.780560e+00 1.900033e+00 1.843641e+00 1.724203e+00 1.598831e+00 8.034757e-02 4.174867e-02 7.213286e-02 1.152404e-01 1.641604e-01 2.139481e-01 2.656794e-01 3.197924e-01 3.730721e-01 4.007622e-01 3.900765e-01 3.649296e-01 3.354726e-01 1.460923e-02
<GCONST> 7.894516e+01
<MIXTURE> 3 3.834566e-01
<MEAN> 39
 -1.365866e+01 -9.120521e+00 -1.163976e+01 -1.074298e+01 -1.068309e+01 -1.724571e+01 -1.308471e+01 -1.260464e+01 -8.224382e+00 -4.974748e+00 -8.554516e+00 -2.994836e+00 5.723079e+01 -4.783937e-02 -9.165121e-02 -1.169766e-01 -1.290239e-01 -2.009877e-01 -2.064125e-01 -2.521344e-01 -2.686628e-01 -2.840065e-01 -2.663491e-01 -2.902055e-01 -2.214696e-01 -6.616482e-02 -2.394957e-02 -1.792267e-02 -2.234108e-02 -3.763783e-02 -2.044759e-02 -2.511267e-02 -1.666810e-02 -1.722056e-02 -1.953636e-02 -2.826065e-02 -1.881594e-02 -2.140019e-02 4.758449e-03
<VARIANCE> 39
 5.213248e+00 5.179324e+00 7.551559e+00 1.066846e+01 1.241690e+01 1.474901e+01 1.789697e+01 2.052509e+01 2.258786e+01 1.966519e+01 1.925032e+01 1.697046e+01 2.695042e+00 2.109199e-01 3.530706e-01 5.554307e-01 7.807578e-01 1.011503e+00 1.252605e+00 1.511313e+00 1.752804e+00 1.876034e+00 1.820538e+00 1.693395e+00 1.569828e+00 7.340638e-02 3.938319e-02 7.112446e-02 1.133747e-01 1.622945e-01 2.115326e-01 2.635311e-01 3.175126e-01 3.712041e-01 3.995080e-01 3.885490e-01 3.621742e-01 3.333065e-01 1.263599e-02
<GCONST> 7.748083e+01
<MIXTURE> 4 1.200729e-01
<MEAN> 39
 -1.460013e+01 -8.209160e+00 -1.113380e+01 -1.365485e+01 -9.337185e+00 -1.712815e+01 -1.035354e+01 -9.693730e+00 -4.811546e+00 -4.306750e+00 -4.537287e+00 -1.257351e+00 6.333793e+01 -8.795434e-02 -8.158045e-02 -1.542324e-01 -1.136208e-01 -1.547223e-01 -2.419523e-01 -2.985690e-01 -3.651887e-01 -3.698705e-01 -3.841570e-01 -3.495536e-01 -2.893110e-01 -9.420716e-02 3.457211e-02 -3.826582e-02 -2.038306e-02 1.726910e-02 -7.511497e-02 -4.833806e-02 -9.533498e-02 -9.328545e-02 -1.113782e-01 -7.436376e-02 -1.208599e-01 -7.593900e-02 -5.684265e-02
<VARIANCE> 39
 3.958606e+01 2.628187e+01 3.795427e+01 3.381095e+01 4.971690e+01 4.606387e+01 4.813694e+01 5.166732e+01 4.969302e+01 4.523651e+01 4.224408e+01 3.458755e+01 2.769007e+01 1.315840e+00 1.123293e+00 1.625601e+00 2.012238e+00 2.419466e+00 2.561559e+00 2.899985e+00 3.126667e+00 3.069389e+00 2.909280e+00 2.742147e+00 2.334613e+00 1.164083e+00 2.053154e-01 1.925299e-01 2.840445e-01 3.617113e-01 4.432193e-01 4.906672e-01 5.606598e-01 6.232893e-01 6.130822e-01 5.920811e-01 5.514864e-01 4.755732e-01 1.515552e-01
<GCONST> 1.171435e+02
~h "sp"
<BEGINHMM>
<NUMSTATES> 3
<STATE> 2
~s "silst"
<TRANSP> 3
 0.000000e+00 4.670902e-01 5.329098e-01
 0.000000e+00 9.919186e-01 8.081377e-03
 0.000000e+00 0.000000e+00 0.000000e+00
<ENDHMM>
~h "oov"
<BEGINHMM>
<NUMSTATES> 3
<STATE> 2
<NUMMIXES> 4
<MIXTURE> 1 1.783624e-01
<MEAN> 39
 -1.211850e+01 -8.299823e+00 -8.661287e+00 -1.538026e+01 -9.896287e+00 -1.869864e+01 -9.614804e+00 -6.347551e+00 -1.495078e+00 -2.161070e+00 -1.396111e+00 -3.744966e-01 7.107695e+01 6.698817e-02 -2.714678e-01 3.208092e-01 -4.975795e-01 2.261022e-01 2.732629e-01 8.085551e-01 1.252883e+00 1.034922e+00 5.520421e-01 9.496137e-01 5.245338e-01 1.376051e+00 5.516244e-02 -4.148895e-02 -4.405229e-02 -8.383647e-03 4.505214e-02 1.450529e-01 1.167675e-01 4.504029e-02 2.228861e-02 6.554644e-02 3.334004e-02 4.691863e-02 4.734018e-02
<VARIANCE> 39
 6.651187e+01 6.430121e+01 7.511380e+01 6.382713e+01 9.900897e+01 9.706623e+01 8.750945e+01 8.599030e+01 7.729758e+01 7.407870e+01 7.106173e+01 5.877752e+01 5.773386e+01 5.643354e+00 4.389008e+00 5.170018e+00 5.169480e+00 7.566498e+00 6.851499e+00 6.627097e+00 6.823731e+00 6.149824e+00 5.841336e+00 5.508651e+00 4.618721e+00 3.012360e+00 6.943843e-01 6.106306e-01 7.128249e-01 8.521501e-01 1.114577e+00 1.093039e+00 1.096135e+00 1.248025e+00 1.105975e+00 1.008573e+00 9.747452e-01 8.088679e-01 5.972953e-01
<GCONST> 1.483420e+02
<MIXTURE> 2 3.258563e-01
<MEAN> 39
 -9.676946e+00 -1.078024e+01 -1.042306e+01 -1.699348e+01 -1.005040e+01 -1.575771e+01 -8.027546e+00 -5.655153e+00 -1.850270e+00 -2.042142e+00 -1.490658e+00 -6.771548e-01 7.267057e+01 -5.546078e-03 2.897439e-01 4.079915e-02 4.119427e-01 2.120292e-01 2.373101e-01 1.049101e-01 -8.820604e-02 4.153712e-02 2.316261e-01 5.870390e-02 1.884773e-01 -4.803823e-01 -1.889403e-02 6.862759e-02 6.827278e-02 7.887896e-02 4.127517e-02 -7.335059e-03 3.926016e-03 4.314329e-02 7.375965e-02 6.220745e-02 6.579251e-02 5.932599e-02 -4.515155e-02
<VARIANCE> 39
 7.426777e+01 7.439795e+01 9.318626e+01 7.495615e+01 1.248399e+02 1.168101e+02 1.008658e+02 1.034274e+02 8.993403e+01 8.135730e+01 8.530512e+01 7.610871e+01 4.688562e+01 7.846785e-01 1.237273e+00 1.709941e+00 1.989983e+00 2.526659e+00 2.967865e+00 3.247371e+00 3.520317e+00 3.356386e+00 3.149111e+00 2.973860e+00 2.676716e+00 8.018579e-01 1.473847e-01 2.050261e-01 2.865433e-01 3.603326e-01 4.539767e-01 5.285713e-01 5.973908e-01 6.794062e-01 6.423771e-01 6.063229e-01 5.803272e-01 5.209990e-01 1.195531e-01
<GCONST> 1.270059e+02
<MIXTURE> 3 2.867763e-01
<MEAN> 39
 -9.051722e+00 -1.025576e+01 -1.057146e+01 -1.614382e+01 -1.021493e+01 -1.622042e+01 -8.941652e+00 -6.274306e+00 -2.878657e+00 -2.656110e+00 -2.715573e+00 -1.252875e+00 7.076201e+01 -2.004367e-01 1.623959e-01 -2.736795e-01 2.567764e-01 -1.410282e-01 -1.708152e-01 -4.629241e-01 -8.245356e-01 -7.018451e-01 -4.297373e-01 -6.520527e-01 -3.291056e-01 -8.404130e-01 -8.208147e-02 -1.012563e-02 -6.754696e-05 -1.741412e-02 -6.679147e-02 -1.304368e-01 -1.323009e-01 -9.904408e-02 -8.091217e-02 -9.537209e-02 -8.024140e-02 -6.857979e-02 -5.251129e-02
<VARIANCE> 39
 5.699463e+01 5.870258e+01 8.938692e+01 6.488634e+01 1.097261e+02 1.050460e+02 9.251701e+01 9.811073e+01 8.696815e+01 7.582610e+01 8.114220e+01 6.840720e+01 4.620551e+01 8.856157e-01 1.242510e+00 1.826280e+00 2.070850e+00 2.633890e+00 3.081983e+00 3.318604e+00 3.694457e+00 3.527529e+00 3.303667e+00 3.092139e+00 2.753577e+00 9.079981e-01 1.467925e-01 1.975139e-01 2.903683e-01 3.588575e-01 4.533524e-01 5.273300e-01 5.981866e-01 6.922314e-01 6.573569e-01 6.174191e-01 5.858022e-01 5.246401e-01 1.186747e-01
<GCONST> 1.263724e+02
<MIXTURE> 4 2.070591e-01
<MEAN> 39
 -1.181220e+01 -8.060959e+00 -8.486988e+00 -1.554789e+01 -1.027120e+01 -1.943510e+01 -1.037152e+01 -6.867640e+00 -2.265354e+00 -2.688819e+00 -1.721540e+00 -1.013674e+00 7.114365e+01 4.014552e-01 -5.452969e-01 -7.269479e-02 -7.404520e-01 -4.315901e-01 -3.527512e-01 -7.849865e-02 3.633514e-01 9.722755e-02 -2.434552e-01 4.468488e-02 -2.201999e-01 9.681559e-01 2.950250e-02 -5.553336e-02 -1.132416e-01 -6.619751e-03 -2.427290e-02 6.868437e-02 7.576644e-04 -1.104724e-01 -1.433344e-01 -9.128131e-02 -1.425431e-01 -7.945298e-02 -9.855718e-02
<VARIANCE> 39
 6.946009e+01 6.258074e+01 8.085046e+01 6.571854e+01 1.019402e+02 9.896274e+01 8.960549e+01 9.028971e+01 8.032304e+01 7.589523e+01 7.311120e+01 5.983896e+01 4.892781e+01 4.937342e+00 3.830945e+00 4.927863e+00 5.082131e+00 7.018499e+00 6.813078e+00 6.455381e+00 6.950257e+00 5.962085e+00 5.768889e+00 5.315762e+00 4.542192e+00 2.848886e+00 7.010597e-01 5.941855e-01 7.316626e-01 8.598845e-01 1.139704e+00 1.135179e+00 1.120339e+00 1.285500e+00 1.113235e+00 1.030904e+00 9.619893e-01 8.148079e-01 5.299610e-01
<GCONST> 1.479823e+02
<TRANSP> 3
 0.000000e+00 1.000000e+00 0.000000e+00
 0.000000e+00 9.844401e-01 1.555988e-02
 0.000000e+00 0.000000e+00 0.000000e+00
<ENDHMM>
~h "sil"
<BEGINHMM>
<NUMSTATES> 3
<STATE> 2
~s "silst"
<TRANSP> 3
 0.000000e+00 1.000000e+00 0.000000e+00
 0.000000e+00 9.975690e-01 2.430955e-03
 0.000000e+00 0.000000e+00 0.000000e+00
<ENDHMM>
~h "noise"
<BEGINHMM>
<NUMSTATES> 3
<STATE> 2
~s "silst"
<TRANSP> 3
 0.000000e+00 1.000000e+00 0.000000e+00
 0.000000e+00 9.864331e-01 1.356689e-02
 0.000000e+00 0.000000e+00 0.000000e+00
<ENDHMM>
