~o
<STREAMINFO> 1 22
<VECSIZE> 22<NULLD><MFCC_0><DIAGC>
~h "BN_2"
<BEGINHMM>
<NUMSTATES> 5
<STATE> 2
<MEAN> 22
 1.320105e+000 5.129634e+000 4.815765e-001 1.488913e+000 1.759978e+001 1.762581e+002 9.257549e+001 1.245237e+002 5.972560e+001 9.272156e+001 1.829722e+002 3.991697e+001 1.134995e+002 9.978263e+001 6.750997e+000 2.163825e+000 5.838774e+000 3.658222e+000 5.848278e+000 1.251584e+000 1.465000e+000 2.525939e+000
<VARIANCE> 22
 1.070132e+001 6.987778e+001 3.300596e+000 6.981155e+000 1.892821e+003 2.339275e+003 3.558952e+002 4.199629e+002 1.318385e+002 3.908788e+002 1.533870e+003 1.105260e+003 1.863219e+002 1.703062e+002 1.254127e+000 3.656887e-001 1.256733e+000 5.938850e-001 4.503022e-001 1.043682e+000 5.334737e+000 5.818501e+000
<GCONST> 1.145725e+002
<STATE> 3
<MEAN> 22
 2.277192e+000 5.833377e+000 8.300914e-001 1.606688e+000 8.237575e+001 1.434183e+002 9.843649e+001 1.163483e+002 7.532743e+001 8.789419e+001 1.491463e+002 7.418636e+001 1.110011e+002 1.054100e+002 4.784618e+000 2.739815e+000 5.028336e+000 4.144869e+000 5.135097e+000 2.371223e+000 1.859992e+000 2.532806e+000
<VARIANCE> 22
 2.561407e+001 1.541396e+002 3.300596e+000 6.791341e+000 1.516602e+004 8.445199e+003 1.083482e+003 9.734542e+002 5.113543e+002 7.152828e+002 5.521227e+003 4.392211e+003 5.335441e+002 2.733040e+002 8.319062e+000 1.543090e+000 5.685407e+000 1.312060e+000 1.855244e+000 4.986043e+000 5.834568e+000 6.499464e+000
<GCONST> 1.364868e+002
<STATE> 4
<MEAN> 22
 4.958834e+000 3.510955e+000 1.722787e+000 1.157907e+000 1.407977e+002 5.715772e+001 1.129383e+002 9.025729e+001 8.308974e+001 6.186215e+001 6.921185e+001 1.548300e+002 9.818312e+001 1.090311e+002 2.963928e+000 4.243376e+000 2.262430e+000 5.312757e+000 3.517339e+000 4.935807e+000 2.828779e+000 2.211668e+000
<VARIANCE> 22
 9.370028e+001 8.495946e+001 1.265279e+001 6.000687e+000 1.176590e+004 8.363547e+003 1.193967e+003 1.062993e+003 6.621385e+002 3.759936e+002 4.509559e+003 4.577994e+003 6.323932e+002 5.641107e+002 4.810439e+000 1.691830e+000 7.071239e+000 1.631480e+000 2.213406e+000 4.826578e+000 6.761924e+000 6.287295e+000
<GCONST> 1.389172e+002
<TRANSP> 5
 0.000000e+000 1.000000e+000 0.000000e+000 0.000000e+000 0.000000e+000
 0.000000e+000 8.631575e-001 1.368425e-001 0.000000e+000 0.000000e+000
 0.000000e+000 0.000000e+000 2.758596e-001 7.241403e-001 0.000000e+000
 0.000000e+000 0.000000e+000 0.000000e+000 7.941456e-001 2.058543e-001
 0.000000e+000 0.000000e+000 0.000000e+000 0.000000e+000 0.000000e+000
<ENDHMM>
~h "BS_2"
<BEGINHMM>
<NUMSTATES> 5
<STATE> 2
<MEAN> 22
 1.424385e+001 1.416306e+001 2.851372e+000 2.914122e+000 1.234790e+002 1.171814e+002 9.954272e+001 9.600542e+001 7.469080e+001 6.719872e+001 1.211938e+002 1.218825e+002 1.057153e+002 1.054757e+002 1.217909e+000 3.267492e+000 4.647477e+000 5.078880e+000 2.845877e+000 3.058600e+000 2.657366e+000 3.217504e+000
<VARIANCE> 22
 2.781004e+002 2.666489e+002 1.316092e+001 1.454293e+001 6.619024e+003 3.140911e+003 2.842955e+003 2.412755e+003 3.072196e+002 2.044008e+002 1.745090e+003 1.714450e+003 1.884797e+002 1.805300e+002 2.819241e+000 1.057643e+000 8.760421e+000 6.280106e-001 5.602412e+000 4.199310e+000 5.924449e+000 5.570280e+000
<GCONST> 1.353388e+002
<STATE> 3
<MEAN> 22
 1.920870e+001 1.929026e+001 5.424456e+000 5.424836e+000 1.116830e+002 1.101379e+002 1.246516e+002 1.233847e+002 7.874342e+001 7.171519e+001 1.571119e+002 1.560148e+002 1.129526e+002 1.119583e+002 3.724227e-001 3.849092e+000 6.326940e+000 4.959518e+000 2.836112e+000 4.083474e+000 2.551966e+000 3.848599e+000
<VARIANCE> 22
 7.798964e+002 8.075518e+002 3.870519e+002 2.614485e+002 2.081792e+003 1.488726e+003 1.840475e+003 1.659257e+003 2.626908e+002 2.571398e+002 1.905768e+003 1.518781e+003 2.686592e+002 2.063076e+002 1.248565e+000 3.665349e-001 3.851218e+000 1.320029e-001 9.513015e+000 1.266070e+000 7.033073e+000 5.136480e+000
<GCONST> 1.367289e+002
<STATE> 4
<MEAN> 22
 5.934005e+000 5.389341e+000 1.879289e+000 1.642118e+000 9.110347e+001 8.797080e+001 1.183272e+002 1.177644e+002 7.016509e+001 6.486709e+001 1.632256e+002 1.625126e+002 1.085344e+002 1.077528e+002 1.211320e+000 4.128075e+000 6.849209e+000 5.072464e+000 3.452173e+000 4.498109e+000 3.061047e+000 3.568031e+000
<VARIANCE> 22
 7.633640e+001 5.151635e+001 7.968910e+000 4.944653e+000 1.418623e+003 1.163561e+003 7.828314e+002 6.742413e+002 1.354172e+002 1.479234e+002 8.415367e+002 8.127182e+002 1.246510e+002 1.182347e+002 6.717336e+000 2.023364e-001 4.205052e-001 1.034373e-001 1.078657e+001 7.699206e-001 5.989707e+000 7.869619e+000
<GCONST> 1.159579e+002
<TRANSP> 5
 0.000000e+000 1.000000e+000 0.000000e+000 0.000000e+000 0.000000e+000
 0.000000e+000 7.113738e-001 2.886262e-001 0.000000e+000 0.000000e+000
 0.000000e+000 0.000000e+000 4.054919e-001 5.945081e-001 0.000000e+000
 0.000000e+000 0.000000e+000 0.000000e+000 8.525966e-001 1.474034e-001
 0.000000e+000 0.000000e+000 0.000000e+000 0.000000e+000 0.000000e+000
<ENDHMM>
~h "SP_2"
<BEGINHMM>
<NUMSTATES> 5
<STATE> 2
<MEAN> 22
 1.307115e+000 4.240071e+000 5.210779e-001 1.976057e+000 1.840307e+001 1.911056e+002 9.588373e+001 1.404405e+002 6.296967e+001 9.213282e+001 1.811614e+002 5.536158e+001 1.109877e+002 9.043587e+001 6.558854e+000 2.210762e+000 5.923004e+000 3.242173e+000 5.835395e+000 1.648457e+000 1.483122e+000 2.502183e+000
<VARIANCE> 22
 1.556139e+001 6.024741e+001 3.300596e+000 1.312934e+001 2.149706e+003 3.200918e+003 5.703625e+002 7.295755e+002 2.178563e+002 5.383325e+002 1.613227e+003 1.141792e+003 2.734652e+002 2.461824e+002 2.398067e+000 4.316262e-001 1.241730e+000 5.161999e-001 5.517659e-001 1.200884e+000 5.366294e+000 6.246336e+000
<GCONST> 1.196347e+002
<STATE> 3
<MEAN> 22
 5.860692e+000 1.137397e+001 2.748111e+000 4.261481e+000 9.703859e+001 1.272019e+002 1.030237e+002 1.041613e+002 6.964719e+001 7.153602e+001 1.388792e+002 1.070388e+002 9.649763e+001 9.181577e+001 5.001961e+000 3.258979e+000 4.380646e+000 4.167844e+000 4.680594e+000 3.475175e+000 2.222059e+000 2.955478e+000
<VARIANCE> 22
 6.181115e+002 5.524586e+002 3.826088e+002 2.146880e+002 2.164698e+004 1.351421e+004 1.822331e+003 2.034301e+003 8.888797e+002 8.566831e+002 5.511281e+003 5.277949e+003 1.111051e+003 1.013522e+003 7.379431e+000 2.482274e+000 6.425888e+000 2.830092e+000 3.856619e+000 5.873875e+000 6.391160e+000 6.635074e+000
<GCONST> 1.564497e+002
<STATE> 4
<MEAN> 22
 5.212023e+000 2.546596e+000 1.856086e+000 1.208855e+000 1.306865e+002 4.417120e+001 1.292995e+002 9.144941e+001 9.228000e+001 6.287828e+001 9.247058e+001 1.542416e+002 9.423362e+001 1.086021e+002 3.056631e+000 4.247308e+000 2.836613e+000 5.378791e+000 3.680805e+000 4.681340e+000 2.908247e+000 2.003918e+000
<VARIANCE> 22
 8.549245e+001 2.932956e+001 9.926607e+000 7.028515e+000 8.220920e+003 5.064738e+003 1.503687e+003 1.195307e+003 6.357584e+002 2.671364e+002 3.848925e+003 3.528040e+003 3.797306e+002 2.298096e+002 5.359473e+000 1.343533e+000 6.660083e+000 1.047060e+000 2.535758e+000 5.393513e+000 6.909855e+000 5.775208e+000
<GCONST> 1.345137e+002
<TRANSP> 5
 0.000000e+000 1.000000e+000 0.000000e+000 0.000000e+000 0.000000e+000
 0.000000e+000 8.541147e-001 1.458854e-001 0.000000e+000 0.000000e+000
 0.000000e+000 0.000000e+000 4.513346e-001 5.486654e-001 0.000000e+000
 0.000000e+000 0.000000e+000 0.000000e+000 7.664966e-001 2.335034e-001
 0.000000e+000 0.000000e+000 0.000000e+000 0.000000e+000 0.000000e+000
<ENDHMM>
~h "ST_2"
<BEGINHMM>
<NUMSTATES> 5
<STATE> 2
<MEAN> 22
 1.408032e+000 6.180431e+000 5.021290e-001 1.010943e+000 1.642451e+001 1.343753e+002 9.068426e+001 7.227662e+001 5.977535e+001 8.488326e+001 1.840315e+002 5.017251e+001 1.133158e+002 1.038263e+002 6.774342e+000 2.145738e+000 6.071059e+000 5.884638e+000 5.885790e+000 6.972002e-001 1.500513e+000 2.532531e+000
<VARIANCE> 22
 1.111144e+001 8.602893e+001 3.300596e+000 2.164982e+000 1.282492e+003 1.669053e+003 2.284511e+002 4.848793e+002 1.042822e+002 3.149691e+002 1.272953e+003 1.167157e+003 1.399032e+002 1.357065e+002 1.112634e+000 3.994170e-001 1.096692e-001 4.317709e-001 2.976355e-001 1.567640e+000 5.106036e+000 6.159741e+000
<GCONST> 1.087417e+002
<STATE> 3
<MEAN> 22
 3.523222e+000 9.402915e+000 1.289594e+000 1.985621e+000 4.679623e+001 1.093841e+002 9.079513e+001 7.997277e+001 6.991482e+001 7.888814e+001 1.581612e+002 8.726720e+001 1.145112e+002 1.101891e+002 5.170059e+000 2.844308e+000 6.188864e+000 5.831726e+000 5.323059e+000 2.231958e+000 2.104208e+000 2.973568e+000
<VARIANCE> 22
 3.838253e+001 3.106545e+002 1.712431e+001 1.450239e+001 4.226184e+003 4.672354e+003 8.157960e+002 6.371976e+002 2.861392e+002 4.161636e+002 4.978647e+003 4.398941e+003 4.942752e+002 2.331929e+002 6.816083e+000 1.797370e+000 3.965387e-001 4.450283e-001 1.418022e+000 6.536544e+000 5.968801e+000 6.343071e+000
<GCONST> 1.321702e+002
<STATE> 4
<MEAN> 22
 6.186493e+000 2.403341e+000 1.241922e+000 7.840051e-001 1.049706e+002 4.771027e+001 7.848251e+001 8.707479e+001 8.205503e+001 6.200313e+001 8.160811e+001 1.624151e+002 1.065434e+002 1.132875e+002 2.947330e+000 4.359221e+000 5.992000e+000 5.845555e+000 4.027070e+000 4.967438e+000 2.816919e+000 2.075376e+000
<VARIANCE> 22
 7.942536e+001 2.462910e+001 3.894739e+000 2.164982e+000 8.594270e+003 5.434398e+003 6.022896e+002 7.117493e+002 4.789325e+002 2.309116e+002 4.500373e+003 4.062560e+003 3.088824e+002 2.468469e+002 4.974477e+000 1.390233e+000 1.302352e+000 3.820301e-001 1.655258e+000 5.089626e+000 6.951748e+000 6.010676e+000
<GCONST> 1.274481e+002
<TRANSP> 5
 0.000000e+000 1.000000e+000 0.000000e+000 0.000000e+000 0.000000e+000
 0.000000e+000 8.542032e-001 1.457968e-001 0.000000e+000 0.000000e+000
 0.000000e+000 0.000000e+000 4.354929e-001 5.645071e-001 0.000000e+000
 0.000000e+000 0.000000e+000 0.000000e+000 7.589061e-001 2.410939e-001
 0.000000e+000 0.000000e+000 0.000000e+000 0.000000e+000 0.000000e+000
<ENDHMM>
~h "TH_LD"
<BEGINHMM>
<NUMSTATES> 5
<STATE> 2
<MEAN> 22
 7.208059e+000 7.159927e+000 1.874665e+000 1.933403e+000 9.474911e+001 8.336848e+001 9.380645e+001 9.248428e+001 6.895889e+001 6.223174e+001 1.382703e+002 1.438855e+002 1.050695e+002 1.046663e+002 1.875560e+000 3.976092e+000 6.109663e+000 5.165261e+000 3.178835e+000 4.406549e+000 3.310795e+000 3.420841e+000
<VARIANCE> 22
 1.152774e+002 1.137662e+002 8.837976e+000 9.569551e+000 8.358528e+003 4.456091e+003 2.021688e+003 1.852513e+003 2.490993e+002 2.128107e+002 1.855276e+003 1.559681e+003 3.470679e+002 3.342529e+002 7.671823e+000 1.387011e+000 3.593163e+000 7.767397e-001 7.691979e+000 3.650828e+000 6.278158e+000 7.693415e+000
<GCONST> 1.349428e+002
<STATE> 3
<MEAN> 22
 1.175786e+001 1.122669e+001 2.559382e+000 2.391695e+000 5.792306e+001 5.449338e+001 9.031467e+001 9.221878e+001 6.911572e+001 6.513705e+001 1.635371e+002 1.642958e+002 1.096608e+002 1.093845e+002 3.102900e+000 4.392211e+000 6.728539e+000 5.219944e+000 6.225718e+000 5.451339e+000 4.277613e+000 4.407064e+000
<VARIANCE> 22
 1.556822e+002 1.112896e+002 1.072246e+001 9.451190e+000 1.132838e+003 8.118676e+002 1.108978e+003 8.920057e+002 1.413848e+002 1.399125e+002 1.383199e+003 1.141961e+003 2.542207e+002 1.979602e+002 1.195105e+001 3.258755e-001 3.084637e-001 1.938494e-001 7.105163e-001 7.646887e-001 4.609227e+000 6.720063e+000
<GCONST> 1.187055e+002
<STATE> 4
<MEAN> 22
 6.401840e+000 6.344247e+000 1.879103e+000 1.797716e+000 3.213830e+001 3.027526e+001 9.627121e+001 9.437943e+001 6.396100e+001 5.908332e+001 1.892148e+002 1.882101e+002 1.149980e+002 1.143011e+002 6.863854e+000 4.974190e+000 6.294247e+000 5.651013e+000 5.975115e+000 5.924686e+000 3.838941e+000 3.492230e+000
<VARIANCE> 22
 3.755087e+001 4.048876e+001 4.104333e+000 3.745300e+000 1.237755e+003 8.250619e+002 4.872223e+002 3.632265e+002 9.614124e+001 8.338765e+001 7.081548e+002 6.095709e+002 1.662500e+002 1.377677e+002 7.794423e-001 8.264940e-002 2.641506e-001 2.402652e-001 2.127755e-001 2.271253e-001 5.293588e+000 7.158878e+000
<GCONST> 1.035221e+002
<TRANSP> 5
 0.000000e+000 1.000000e+000 0.000000e+000 0.000000e+000 0.000000e+000
 0.000000e+000 6.201873e-001 3.798127e-001 0.000000e+000 0.000000e+000
 0.000000e+000 0.000000e+000 7.311624e-001 2.688375e-001 0.000000e+000
 0.000000e+000 0.000000e+000 0.000000e+000 8.423360e-001 1.576640e-001
 0.000000e+000 0.000000e+000 0.000000e+000 0.000000e+000 0.000000e+000
<ENDHMM>
~h "TH_LU"
<BEGINHMM>
<NUMSTATES> 5
<STATE> 2
<MEAN> 22
 1.456499e+001 1.266840e+001 4.627408e+000 4.324214e+000 4.726573e+001 4.352169e+001 8.652943e+001 8.450709e+001 6.947099e+001 6.496055e+001 1.725741e+002 1.716739e+002 1.192344e+002 1.179025e+002 5.433547e+000 4.491035e+000 6.209274e+000 5.744907e+000 5.532017e+000 5.270324e+000 2.885900e+000 2.673602e+000
<VARIANCE> 22
 1.158105e+003 8.067131e+002 8.614359e+002 5.508261e+002 3.002756e+003 2.287737e+003 1.174392e+003 1.015999e+003 1.692675e+002 1.572438e+002 2.749068e+003 2.615976e+003 3.962631e+002 2.965722e+002 7.113027e+000 1.254417e+000 6.819876e-001 3.329086e-001 1.117323e+000 3.968809e+000 4.458024e+000 4.952374e+000
<GCONST> 1.399276e+002
<STATE> 3
<MEAN> 22
 1.311682e+001 1.359667e+001 2.551951e+000 2.579129e+000 5.541116e+001 5.299549e+001 6.288153e+001 6.409970e+001 6.580035e+001 6.198882e+001 1.401748e+002 1.405270e+002 1.058926e+002 1.057410e+002 3.946586e+000 4.219586e+000 6.344711e+000 5.582437e+000 5.461015e+000 5.039110e+000 3.022925e+000 2.858336e+000
<VARIANCE> 22
 1.424307e+002 1.531341e+002 7.329938e+000 7.583569e+000 1.425216e+003 1.208411e+003 7.507643e+002 8.089079e+002 1.196553e+002 1.173611e+002 1.346235e+003 1.382669e+003 1.197663e+002 1.128272e+002 1.011370e+001 1.348527e+000 3.263437e-001 2.834879e-001 1.004784e+000 5.097151e+000 4.651782e+000 4.210253e+000
<GCONST> 1.204562e+002
<STATE> 4
<MEAN> 22
 1.807073e+001 1.845486e+001 3.702255e+000 3.550200e+000 1.175171e+002 1.146603e+002 9.409680e+001 9.559174e+001 7.180665e+001 6.783576e+001 1.252687e+002 1.274067e+002 1.050477e+002 1.046101e+002 1.400121e+000 3.276086e+000 5.708777e+000 5.153939e+000 3.166785e+000 3.258332e+000 2.491849e+000 3.155795e+000
<VARIANCE> 22
 4.174572e+002 4.401346e+002 2.018724e+001 1.714744e+001 7.459181e+003 4.965135e+003 2.465026e+003 2.462115e+003 4.152213e+002 4.346578e+002 2.892090e+003 2.849300e+003 5.286757e+002 4.696103e+002 4.360090e+000 1.700938e+000 5.056516e+000 1.312267e+000 6.494197e+000 4.868509e+000 5.888545e+000 4.425049e+000
<GCONST> 1.425079e+002
<TRANSP> 5
 0.000000e+000 1.000000e+000 0.000000e+000 0.000000e+000 0.000000e+000
 0.000000e+000 4.024747e-001 5.975254e-001 0.000000e+000 0.000000e+000
 0.000000e+000 0.000000e+000 8.527204e-001 1.472796e-001 0.000000e+000
 0.000000e+000 0.000000e+000 0.000000e+000 6.933891e-001 3.066109e-001
 0.000000e+000 0.000000e+000 0.000000e+000 0.000000e+000 0.000000e+000
<ENDHMM>
~h "CF_2"
<BEGINHMM>
<NUMSTATES> 5
<STATE> 2
<MEAN> 22
 9.237749e+000 3.968020e+000 2.957735e+000 2.047410e+000 7.879755e+001 1.288183e+002 9.790119e+001 1.123173e+002 7.397894e+001 8.273222e+001 1.326108e+002 9.736492e+001 1.034600e+002 9.968842e+001 4.357396e+000 3.086479e+000 4.861423e+000 4.045847e+000 4.659739e+000 2.827620e+000 2.707108e+000 2.589384e+000
<VARIANCE> 22
 2.892761e+002 5.533611e+001 2.423542e+001 1.292991e+001 8.439306e+003 9.037607e+003 1.272381e+003 1.365616e+003 5.650259e+002 9.113018e+002 5.886611e+003 6.262553e+003 7.445270e+002 6.809210e+002 7.863727e+000 2.079173e+000 5.544904e+000 2.621204e+000 3.054698e+000 5.703228e+000 6.689459e+000 5.714274e+000
<GCONST> 1.440620e+002
<STATE> 3
<MEAN> 22
 1.286087e+000 4.758303e+000 6.264678e-001 2.049234e+000 1.695711e+001 1.897618e+002 9.487292e+001 1.316672e+002 6.071820e+001 1.016588e+002 1.813929e+002 4.381522e+001 1.114221e+002 8.506396e+001 6.721902e+000 2.209391e+000 5.895240e+000 2.961342e+000 5.841244e+000 1.287756e+000 1.640991e+000 2.523141e+000
<VARIANCE> 22
 6.802101e+000 8.240138e+001 3.300596e+000 1.251222e+001 1.676102e+003 2.701074e+003 3.926018e+002 5.002307e+002 1.695883e+002 4.763442e+002 1.651517e+003 1.441689e+003 2.242292e+002 3.437014e+002 1.347075e+000 4.702499e-001 1.022984e+000 1.261696e+000 4.689173e-001 1.306764e+000 5.866495e+000 6.129210e+000
<GCONST> 1.181226e+002
<STATE> 4
<MEAN> 22
 6.677389e+000 5.465962e+000 2.560044e+000 1.892103e+000 1.199336e+002 5.073307e+001 1.144510e+002 9.539507e+001 8.748311e+001 6.417937e+001 8.390897e+001 1.636511e+002 9.381985e+001 1.092805e+002 3.271837e+000 4.412612e+000 3.567752e+000 5.323863e+000 3.866490e+000 5.122671e+000 2.956156e+000 2.457492e+000
<VARIANCE> 22
 1.175029e+002 1.622396e+002 1.741854e+001 1.576515e+001 7.512422e+003 4.061517e+003 1.178445e+003 8.523939e+002 5.852693e+002 3.453047e+002 5.294176e+003 3.257179e+003 6.058640e+002 2.195830e+002 5.391970e+000 1.258274e+000 5.978221e+000 1.039455e+000 1.964691e+000 3.684196e+000 6.933084e+000 6.491612e+000
<GCONST> 1.371633e+002
<TRANSP> 5
 0.000000e+000 1.000000e+000 0.000000e+000 0.000000e+000 0.000000e+000
 0.000000e+000 4.263547e-001 5.736453e-001 0.000000e+000 0.000000e+000
 0.000000e+000 0.000000e+000 8.436042e-001 1.563958e-001 0.000000e+000
 0.000000e+000 0.000000e+000 0.000000e+000 8.028115e-001 1.971885e-001
 0.000000e+000 0.000000e+000 0.000000e+000 0.000000e+000 0.000000e+000
<ENDHMM>
~h "CN_2"
<BEGINHMM>
<NUMSTATES> 5
<STATE> 2
<MEAN> 22
 5.953003e+000 6.609423e+000 9.768134e-001 8.512491e-001 1.494398e+002 1.446890e+002 7.703830e+001 7.507594e+001 6.591280e+001 6.396377e+001 3.708463e+001 3.888879e+001 1.029094e+002 1.043846e+002 2.018033e+000 1.975691e+000 5.800606e+000 5.931571e+000 3.078378e+000 9.075133e-001 3.082760e+000 3.000865e+000
<VARIANCE> 22
 6.523510e+001 8.954189e+001 3.300596e+000 2.164982e+000 1.719601e+003 1.437880e+003 4.070371e+002 4.664692e+002 6.574960e+001 9.737888e+001 2.543300e+002 3.204267e+002 1.104922e+002 1.175364e+002 6.504287e-002 8.207867e-002 8.798164e-001 2.938275e-001 9.483372e-002 1.962227e-001 6.143205e+000 6.097586e+000
<GCONST> 1.005453e+002
<STATE> 3
<MEAN> 22
 7.726600e+000 7.972469e+000 1.220402e+000 1.074562e+000 1.385548e+002 1.333404e+002 6.451687e+001 6.096566e+001 6.730876e+001 6.577784e+001 6.056150e+001 6.048601e+001 1.032831e+002 1.050798e+002 2.300585e+000 1.778858e+000 5.729909e+000 6.054999e+000 3.500454e+000 5.379841e-001 3.115151e+000 3.219552e+000
<VARIANCE> 22
 1.592059e+002 1.652862e+002 3.300596e+000 2.164982e+000 1.731121e+003 1.463406e+003 6.526688e+002 8.113075e+002 2.290480e+002 1.905447e+002 7.363002e+002 6.772292e+002 2.510224e+002 1.590739e+002 5.379533e-001 4.602006e-001 7.938219e-001 9.489748e-001 3.114847e-001 5.371491e-001 6.379921e+000 6.309206e+000
<GCONST> 1.151288e+002
<STATE> 4
<MEAN> 22
 1.164401e+001 1.131297e+001 2.343613e+000 2.192539e+000 1.184227e+002 1.069274e+002 7.471201e+001 6.952171e+001 7.060660e+001 6.597588e+001 1.056554e+002 1.063127e+002 1.117680e+002 1.102644e+002 3.357161e+000 3.210345e+000 6.171834e+000 5.773918e+000 4.205387e+000 2.740875e+000 3.670799e+000 3.448964e+000
<VARIANCE> 22
 2.600844e+002 2.595872e+002 1.230172e+001 1.545289e+001 6.950958e+003 5.784353e+003 1.369321e+003 1.461595e+003 1.858854e+002 1.340933e+002 4.430409e+003 3.864994e+003 3.256803e+002 1.954206e+002 6.028363e+000 2.992808e+000 7.239429e-001 4.988482e-001 2.329828e+000 7.369232e+000 6.927949e+000 5.538435e+000
<GCONST> 1.350251e+002
<TRANSP> 5
 0.000000e+000 1.000000e+000 0.000000e+000 0.000000e+000 0.000000e+000
 0.000000e+000 8.810973e-001 1.189026e-001 0.000000e+000 0.000000e+000
 0.000000e+000 0.000000e+000 7.503921e-001 2.496080e-001 0.000000e+000
 0.000000e+000 0.000000e+000 0.000000e+000 6.245524e-001 3.754476e-001
 0.000000e+000 0.000000e+000 0.000000e+000 0.000000e+000 0.000000e+000
<ENDHMM>
~h "TH_D"
<BEGINHMM>
<NUMSTATES> 5
<STATE> 2
<MEAN> 22
 8.569205e+000 8.802876e+000 1.348917e+000 1.284144e+000 1.239953e+002 1.219282e+002 5.801641e+001 5.768893e+001 6.551707e+001 6.254227e+001 6.435029e+001 6.542883e+001 1.033408e+002 1.038779e+002 1.989345e+000 2.117329e+000 6.026138e+000 5.802887e+000 3.490608e+000 8.179190e-001 3.683417e+000 3.571763e+000
<VARIANCE> 22
 1.431101e+002 1.455773e+002 5.142373e+000 4.000857e+000 2.600134e+003 1.938977e+003 7.699221e+002 7.604847e+002 1.223619e+002 1.131760e+002 8.883675e+002 9.055897e+002 2.067276e+002 1.777409e+002 1.049798e+000 8.245249e-001 7.445485e-001 5.272088e-001 5.283058e-001 1.498584e+000 6.869319e+000 6.851477e+000
<GCONST> 1.182992e+002
<STATE> 3
<MEAN> 22
 2.169194e+001 2.163823e+001 3.594594e+000 3.657797e+000 8.998564e+001 8.217094e+001 5.084330e+001 5.422532e+001 6.862400e+001 6.346880e+001 1.236505e+002 1.283384e+002 1.070652e+002 1.071283e+002 3.338504e+000 4.038740e+000 6.175624e+000 5.768934e+000 4.778562e+000 4.782802e+000 4.693893e+000 4.561242e+000
<VARIANCE> 22
 4.574482e+002 4.483910e+002 2.831560e+001 2.859799e+001 6.685059e+003 4.557587e+003 1.080637e+003 1.117444e+003 1.462961e+002 1.373706e+002 1.764598e+003 1.736789e+003 2.156065e+002 1.878548e+002 8.625554e+000 2.195668e+000 2.312740e-001 2.609158e-001 1.292309e+000 7.606793e+000 6.131400e+000 4.294567e+000
<GCONST> 1.317403e+002
<STATE> 4
<MEAN> 22
 1.031281e+001 9.835985e+000 2.813510e+000 2.547438e+000 2.938831e+001 2.751935e+001 8.890646e+001 8.697746e+001 6.396042e+001 5.946041e+001 1.828671e+002 1.817084e+002 1.134065e+002 1.128380e+002 6.737864e+000 4.942571e+000 6.220453e+000 5.795581e+000 5.844655e+000 5.911760e+000 4.091516e+000 3.949871e+000
<VARIANCE> 22
 9.701324e+001 9.154083e+001 8.733206e+000 7.478350e+000 1.036737e+003 7.978694e+002 6.984749e+002 5.976226e+002 9.847380e+001 8.168912e+001 1.129904e+003 1.071450e+003 1.825072e+002 1.512160e+002 1.095976e+000 3.319063e-001 2.068235e-001 1.739943e-001 2.989043e-001 8.888263e-001 7.202519e+000 4.730848e+000
<GCONST> 1.113637e+002
<TRANSP> 5
 0.000000e+000 1.000000e+000 0.000000e+000 0.000000e+000 0.000000e+000
 0.000000e+000 8.316121e-001 1.683879e-001 0.000000e+000 0.000000e+000
 0.000000e+000 0.000000e+000 6.307901e-001 3.692099e-001 0.000000e+000
 0.000000e+000 0.000000e+000 0.000000e+000 8.288809e-001 1.711191e-001
 0.000000e+000 0.000000e+000 0.000000e+000 0.000000e+000 0.000000e+000
<ENDHMM>
~h "TH_U"
<BEGINHMM>
<NUMSTATES> 5
<STATE> 2
<MEAN> 22
 1.114779e+001 1.102715e+001 3.249875e+000 3.080289e+000 4.160302e+001 4.242830e+001 8.263547e+001 8.030171e+001 6.401856e+001 5.971508e+001 1.680043e+002 1.652280e+002 1.140409e+002 1.130063e+002 5.979270e+000 4.613623e+000 6.124341e+000 5.783419e+000 5.580409e+000 5.398813e+000 2.675910e+000 2.217721e+000
<VARIANCE> 22
 5.747038e+002 4.376585e+002 4.036241e+002 2.605375e+002 3.401361e+003 2.720274e+003 7.981249e+002 6.698052e+002 1.227122e+002 9.275502e+001 2.421598e+003 2.354187e+003 2.809516e+002 2.364134e+002 5.028499e+000 9.547910e-001 5.178366e-001 3.734950e-001 1.012265e+000 3.217029e+000 3.209337e+000 3.893934e+000
<GCONST> 1.332932e+002
<STATE> 3
<MEAN> 22
 1.762540e+001 1.686602e+001 2.660423e+000 2.759148e+000 9.535667e+001 8.892189e+001 4.113761e+001 4.282232e+001 6.508062e+001 6.197498e+001 9.523376e+001 9.817480e+001 1.035257e+002 1.036227e+002 2.014751e+000 3.139550e+000 6.117179e+000 5.758676e+000 4.209617e+000 2.696053e+000 2.584044e+000 2.070876e+000
<VARIANCE> 22
 2.742451e+002 2.326714e+002 1.316006e+001 1.098621e+001 1.642496e+003 1.450727e+003 4.666088e+002 4.879481e+002 8.619867e+001 8.994563e+001 7.978201e+002 8.887023e+002 1.477209e+002 1.168178e+002 4.341149e+000 1.575801e+000 5.499548e-001 2.839783e-001 9.137833e-001 9.465783e+000 2.709109e+000 2.881238e+000
<GCONST> 1.199522e+002
<STATE> 4
<MEAN> 22
 1.043929e+001 1.093440e+001 1.972802e+000 2.001321e+000 1.444889e+002 1.405414e+002 7.575923e+001 7.448182e+001 6.651016e+001 6.357892e+001 4.928072e+001 5.174020e+001 1.021789e+002 1.034078e+002 1.871051e+000 2.194698e+000 5.654751e+000 5.541781e+000 3.084108e+000 1.068349e+000 2.934802e+000 2.784936e+000
<VARIANCE> 22
 1.657067e+002 2.027017e+002 7.347166e+000 8.623450e+000 2.891295e+003 2.226795e+003 6.606429e+002 6.339047e+002 1.306313e+002 1.379581e+002 5.846899e+002 6.252117e+002 2.212712e+002 1.764356e+002 5.007778e-001 4.295061e-001 3.223596e+000 9.042459e-001 4.091263e-001 8.451251e-001 4.810697e+000 4.947486e+000
<GCONST> 1.184486e+002
<TRANSP> 5
 0.000000e+000 1.000000e+000 0.000000e+000 0.000000e+000 0.000000e+000
 0.000000e+000 7.299741e-001 2.700259e-001 0.000000e+000 0.000000e+000
 0.000000e+000 0.000000e+000 7.208067e-001 2.791933e-001 0.000000e+000
 0.000000e+000 0.000000e+000 0.000000e+000 8.401127e-001 1.598873e-001
 0.000000e+000 0.000000e+000 0.000000e+000 0.000000e+000 0.000000e+000
<ENDHMM>
~h "CP_2"
<BEGINHMM>
<NUMSTATES> 5
<STATE> 2
<MEAN> 22
 1.172323e+001 1.133989e+001 3.933711e+000 3.327087e+000 9.429902e+001 8.161617e+001 7.434516e+001 7.714874e+001 6.414812e+001 6.191475e+001 1.381878e+002 1.401006e+002 1.019277e+002 1.007367e+002 3.002326e+000 3.960896e+000 5.884292e+000 4.847477e+000 4.915741e+000 4.795094e+000 3.325135e+000 3.201875e+000
<VARIANCE> 22
 7.015826e+002 4.955101e+002 4.989886e+002 2.992921e+002 1.480044e+004 8.116772e+003 1.346788e+003 1.298113e+003 4.917781e+002 4.729048e+002 2.793591e+003 2.928665e+003 1.071975e+003 1.023795e+003 1.134847e+001 1.774311e+000 4.750536e+000 2.175410e+000 4.994285e+000 4.164143e+000 5.769202e+000 5.526252e+000
<GCONST> 1.521021e+002
<STATE> 3
<MEAN> 22
 1.197298e+001 1.152566e+001 3.102819e+000 2.801570e+000 6.317270e+001 5.592376e+001 7.840343e+001 8.192245e+001 7.213304e+001 6.830968e+001 1.499146e+002 1.524348e+002 1.130140e+002 1.118567e+002 2.653056e+000 4.255642e+000 6.705960e+000 5.260976e+000 5.515014e+000 5.267251e+000 3.642781e+000 3.360976e+000
<VARIANCE> 22
 1.277910e+002 1.118819e+002 1.351448e+001 1.028748e+001 1.195555e+003 9.947883e+002 8.899326e+002 9.723610e+002 1.519155e+002 1.583500e+002 1.850236e+003 1.765104e+003 3.051839e+002 2.429772e+002 1.099790e+001 4.866013e-001 2.627941e-001 2.313815e-001 2.277904e+000 2.941190e+000 5.247770e+000 5.307469e+000
<GCONST> 1.230030e+002
<STATE> 4
<MEAN> 22
 6.895974e+000 6.822213e+000 1.516942e+000 1.657962e+000 4.464288e+001 4.191368e+001 7.473038e+001 7.720830e+001 6.449586e+001 6.225307e+001 1.571079e+002 1.594034e+002 1.072918e+002 1.074661e+002 4.652523e+000 4.632849e+000 6.470860e+000 5.396283e+000 5.939671e+000 5.882903e+000 3.502226e+000 3.278716e+000
<VARIANCE> 22
 4.514117e+001 4.845566e+001 3.300596e+000 4.125020e+000 7.837443e+002 5.718699e+002 4.147525e+002 4.814975e+002 9.721437e+001 1.180637e+002 8.292759e+002 8.581392e+002 1.399767e+002 1.402019e+002 1.084177e+001 2.948032e-001 3.005594e-001 2.663003e-001 3.466899e-001 4.269046e-001 5.288868e+000 5.575502e+000
<GCONST> 1.087707e+002
<TRANSP> 5
 0.000000e+000 1.000000e+000 0.000000e+000 0.000000e+000 0.000000e+000
 0.000000e+000 2.211980e-001 7.788020e-001 0.000000e+000 0.000000e+000
 0.000000e+000 0.000000e+000 7.631238e-001 2.368762e-001 0.000000e+000
 0.000000e+000 0.000000e+000 0.000000e+000 8.335906e-001 1.664094e-001
 0.000000e+000 0.000000e+000 0.000000e+000 0.000000e+000 0.000000e+000
<ENDHMM>
~h "CV_2"
<BEGINHMM>
<NUMSTATES> 5
<STATE> 2
<MEAN> 22
 5.332956e+000 6.008940e+000 1.472272e+000 1.579329e+000 1.416435e+002 1.401671e+002 8.227831e+001 8.194819e+001 6.514967e+001 6.193512e+001 4.974581e+001 5.247720e+001 1.046127e+002 1.049255e+002 1.509778e+000 2.522963e+000 5.962756e+000 4.977143e+000 2.782318e+000 1.383756e+000 3.489112e+000 3.399448e+000
<VARIANCE> 22
 5.514216e+001 6.223213e+001 4.630257e+000 6.641379e+000 2.296621e+003 1.659158e+003 5.920886e+002 6.613419e+002 1.108556e+002 1.031404e+002 4.035490e+002 4.109220e+002 2.280378e+002 1.836572e+002 4.470496e-001 3.311118e-001 5.466401e+000 4.531065e-001 3.545167e-001 5.869238e-001 5.706500e+000 6.113718e+000
<GCONST> 1.130157e+002
<STATE> 3
<MEAN> 22
 1.297435e+001 1.143139e+001 3.221107e+000 3.333228e+000 1.261731e+002 1.164088e+002 6.735580e+001 6.657569e+001 6.229490e+001 6.047363e+001 6.222439e+001 6.525902e+001 1.026380e+002 1.032839e+002 1.651716e+000 2.516503e+000 6.144073e+000 5.400230e+000 3.210780e+000 1.233142e+000 3.570252e+000 3.649536e+000
<VARIANCE> 22
 4.579783e+002 4.279626e+002 2.996020e+002 1.985902e+002 1.985011e+003 2.163757e+003 6.534128e+002 7.596360e+002 8.130053e+001 8.408517e+001 7.564275e+002 8.167253e+002 1.431245e+002 1.288855e+002 1.084003e+000 6.376377e-001 2.666198e+000 8.571322e-001 7.171897e-001 1.728432e+000 5.913261e+000 6.155334e+000
<GCONST> 1.282539e+002
<STATE> 4
<MEAN> 22
 1.031724e+001 1.011056e+001 2.340580e+000 2.442978e+000 8.592295e+001 7.805382e+001 7.299091e+001 7.475253e+001 6.706532e+001 5.951373e+001 1.155808e+002 1.247078e+002 1.096099e+002 1.084256e+002 3.410032e+000 3.806758e+000 6.249611e+000 5.542865e+000 4.433828e+000 3.820647e+000 3.923580e+000 3.732976e+000
<VARIANCE> 22
 1.689888e+002 1.574234e+002 8.391047e+000 1.183502e+001 4.620049e+003 4.071802e+003 1.124981e+003 1.101265e+003 1.263052e+002 8.189252e+001 4.250797e+003 3.877022e+003 2.153355e+002 1.606144e+002 7.854854e+000 1.511679e+000 1.402244e+000 3.877411e-001 2.040676e+000 6.848227e+000 6.272721e+000 5.973848e+000
<GCONST> 1.304389e+002
<TRANSP> 5
 0.000000e+000 1.000000e+000 0.000000e+000 0.000000e+000 0.000000e+000
 0.000000e+000 8.619819e-001 1.380182e-001 0.000000e+000 0.000000e+000
 0.000000e+000 0.000000e+000 5.162970e-001 4.837030e-001 0.000000e+000
 0.000000e+000 0.000000e+000 0.000000e+000 6.577526e-001 3.422474e-001
 0.000000e+000 0.000000e+000 0.000000e+000 0.000000e+000 0.000000e+000
<ENDHMM>
~h "SIL"
<BEGINHMM>
<NUMSTATES> 5
<STATE> 2
<MEAN> 22
 7.970769e+001 6.740150e+001 7.241393e+001 5.807017e+001 3.086819e+001 2.516565e+001 6.676766e+000 6.555989e+000 4.735946e+000 4.505020e+000 1.297265e+001 1.242587e+001 8.307384e+000 8.187032e+000 4.604565e-001 3.333309e-001 4.455543e-001 4.255648e-001 4.163947e-001 3.870711e-001 7.649648e-001 7.654440e-001
<VARIANCE> 22
 3.366380e+004 2.389325e+004 2.771731e+004 1.785883e+004 1.537325e+004 1.013627e+004 6.141846e+002 5.965289e+002 2.944629e+002 2.736963e+002 2.264434e+003 2.114823e+003 8.835174e+002 8.574608e+002 2.919932e+000 1.505535e+000 2.538828e+000 2.305158e+000 2.243824e+000 2.146503e+000 3.631660e+000 3.637805e+000
<GCONST> 1.602521e+002
<STATE> 3
<MEAN> 22
 5.368706e+000 4.849460e+000 1.630342e+000 1.534439e+000 3.728846e+001 3.422856e+001 9.630524e+001 9.440673e+001 7.121885e+001 6.211201e+001 1.738808e+002 1.786533e+002 1.169378e+002 1.163507e+002 5.572667e+000 4.578033e+000 6.063657e+000 5.748530e+000 5.415434e+000 5.302949e+000 2.434923e+000 2.347062e+000
<VARIANCE> 22
 1.048256e+002 9.770255e+001 9.693115e+000 8.037466e+000 2.108703e+003 1.924213e+003 1.358234e+003 9.037867e+002 2.163149e+002 1.456434e+002 3.877566e+003 2.886728e+003 5.456927e+002 2.498658e+002 6.294203e+000 1.068344e+000 1.553210e+000 3.057023e-001 1.481259e+000 3.335456e+000 5.656323e+000 5.629864e+000
<GCONST> 1.278907e+002
<STATE> 4
<MEAN> 22
 1.681777e+000 2.840598e+000 5.752142e-001 9.291226e-001 8.105344e+000 1.224939e+001 9.526990e+001 9.323051e+001 6.084564e+001 5.902943e+001 1.928590e+002 1.892199e+002 1.164035e+002 1.156991e+002 6.900693e+000 4.926641e+000 6.057086e+000 5.897537e+000 5.970644e+000 5.894131e+000 1.824816e+000 1.944536e+000
<VARIANCE> 22
 1.930729e+001 4.038523e+001 3.300596e+000 3.268522e+000 2.627559e+002 5.400275e+002 2.696441e+002 2.922563e+002 7.496943e+001 8.328922e+001 6.347843e+002 9.433521e+002 1.412767e+002 1.504911e+002 6.106344e-001 1.690162e-001 9.686942e-002 1.107294e-001 9.046861e-002 6.224514e-001 5.359397e+000 5.454695e+000
<GCONST> 9.830742e+001
<TRANSP> 5
 0.000000e+000 1.000000e+000 0.000000e+000 0.000000e+000 0.000000e+000
 0.000000e+000 9.081889e-001 9.181106e-002 0.000000e+000 0.000000e+000
 0.000000e+000 0.000000e+000 9.911125e-001 8.887489e-003 0.000000e+000
 0.000000e+000 0.000000e+000 0.000000e+000 9.974483e-001 2.551686e-003
 0.000000e+000 0.000000e+000 0.000000e+000 0.000000e+000 0.000000e+000
<ENDHMM>
~h "TT_2"
<BEGINHMM>
<NUMSTATES> 5
<STATE> 2
<MEAN> 22
 1.298469e+001 4.913643e+000 5.340065e+000 2.014331e+000 1.332942e+002 7.677207e+001 1.398543e+002 1.067526e+002 1.026915e+002 7.539345e+001 1.222115e+002 1.551433e+002 1.025977e+002 1.105267e+002 2.834672e+000 4.077756e+000 3.196980e+000 5.104754e+000 3.619469e+000 4.256357e+000 3.352032e+000 2.566573e+000
<VARIANCE> 22
 3.162531e+002 7.934163e+001 6.768800e+001 1.119374e+001 1.026867e+004 8.755867e+003 3.333220e+003 2.772828e+003 1.368218e+003 1.027288e+003 2.693789e+003 3.304812e+003 4.276232e+002 3.068669e+002 6.700607e+000 1.403786e+000 7.523499e+000 1.550457e+000 3.138750e+000 6.126464e+000 6.130593e+000 6.071007e+000
<GCONST> 1.447612e+002
<STATE> 3
<MEAN> 22
 1.831875e+000 9.509586e+000 8.035788e-001 3.105253e+000 2.326537e+001 2.163356e+002 9.927772e+001 1.717127e+002 6.286069e+001 1.248023e+002 1.865282e+002 9.529273e+001 1.137029e+002 9.481545e+001 6.607625e+000 2.529405e+000 5.901066e+000 3.268050e+000 5.815195e+000 1.918593e+000 1.930675e+000 3.445784e+000
<VARIANCE> 22
 1.136051e+001 1.603139e+002 3.300596e+000 2.437198e+001 2.546650e+003 3.856413e+003 7.306660e+002 1.283873e+003 3.308183e+002 7.027339e+002 1.206518e+003 1.152385e+003 2.328445e+002 3.841235e+002 2.138126e+000 5.755812e-001 1.253797e+000 6.088005e-001 6.271090e-001 1.656515e+000 6.127985e+000 6.192202e+000
<GCONST> 1.236944e+002
<STATE> 4
<MEAN> 22
 6.124540e+000 5.416475e+000 2.185368e+000 2.234917e+000 1.587595e+002 6.475116e+001 1.393933e+002 1.008551e+002 9.807981e+001 6.660496e+001 1.152924e+002 1.615153e+002 9.753967e+001 1.063377e+002 2.958093e+000 4.289135e+000 2.742515e+000 5.253437e+000 3.433316e+000 4.895100e+000 3.075099e+000 2.604662e+000
<VARIANCE> 22
 7.528783e+001 1.246533e+002 1.295480e+001 3.225599e+001 1.330381e+004 9.565854e+003 3.028795e+003 1.811560e+003 1.487235e+003 9.342311e+002 3.230666e+003 3.147442e+003 6.448376e+002 5.821320e+002 6.560305e+000 1.764221e+000 6.625490e+000 1.952280e+000 3.253551e+000 4.529500e+000 6.281435e+000 6.976210e+000
<GCONST> 1.443890e+002
<TRANSP> 5
 0.000000e+000 1.000000e+000 0.000000e+000 0.000000e+000 0.000000e+000
 0.000000e+000 6.416502e-001 3.583498e-001 0.000000e+000 0.000000e+000
 0.000000e+000 0.000000e+000 8.446943e-001 1.553057e-001 0.000000e+000
 0.000000e+000 0.000000e+000 0.000000e+000 7.332762e-001 2.667239e-001
 0.000000e+000 0.000000e+000 0.000000e+000 0.000000e+000 0.000000e+000
<ENDHMM>
~h "DC_2"
<BEGINHMM>
<NUMSTATES> 5
<STATE> 2
<MEAN> 22
 1.408536e+001 1.604932e+001 2.570013e+000 3.015098e+000 1.491599e+002 1.438851e+002 7.132559e+001 7.222193e+001 6.931091e+001 6.729022e+001 5.883857e+001 5.839738e+001 9.823872e+001 9.879562e+001 2.058726e+000 2.207509e+000 5.706338e+000 5.662882e+000 3.435106e+000 9.886655e-001 2.568264e+000 2.494678e+000
<VARIANCE> 22
 2.854007e+002 3.955953e+002 1.979846e+001 2.727850e+001 3.056527e+003 2.045351e+003 7.691112e+002 7.997678e+002 1.341459e+002 1.586768e+002 8.135486e+002 9.053743e+002 3.072648e+002 2.988490e+002 8.675521e-001 6.615725e-001 1.153124e+000 9.103585e-001 5.966556e-001 1.771363e+000 5.023072e+000 5.590879e+000
<GCONST> 1.251243e+002
<STATE> 3
<MEAN> 22
 8.705338e+000 8.620620e+000 1.036980e+000 1.299213e+000 1.124309e+002 1.094106e+002 3.803394e+001 4.040754e+001 6.264738e+001 6.001653e+001 7.635464e+001 7.702058e+001 9.870595e+001 9.911588e+001 1.920508e+000 2.121713e+000 6.023779e+000 5.960174e+000 3.894420e+000 3.024256e-001 2.511548e+000 2.438975e+000
<VARIANCE> 22
 1.605651e+002 1.409338e+002 3.300596e+000 3.684700e+000 1.033826e+003 9.030527e+002 2.691571e+002 2.836620e+002 7.550045e+001 1.040922e+002 3.339460e+002 3.483477e+002 1.036320e+002 1.145169e+002 7.613056e-001 8.581758e-001 1.369485e-001 2.231506e-001 1.859884e-001 9.799103e-001 5.615961e+000 5.843368e+000
<GCONST> 1.058385e+002
<STATE> 4
<MEAN> 22
 1.181858e+001 1.209041e+001 2.818654e+000 3.091206e+000 1.007435e+002 9.122094e+001 5.467282e+001 5.702230e+001 6.828807e+001 6.259601e+001 1.165017e+002 1.199368e+002 1.085488e+002 1.070097e+002 3.364496e+000 3.448743e+000 6.111750e+000 5.798455e+000 4.555834e+000 3.676091e+000 3.218664e+000 3.043698e+000
<VARIANCE> 22
 1.980293e+002 2.113209e+002 2.072775e+001 3.206689e+001 6.897084e+003 5.549147e+003 1.144565e+003 1.025332e+003 1.433186e+002 1.160587e+002 2.663680e+003 2.706783e+003 3.244032e+002 2.493254e+002 7.133859e+000 2.578358e+000 2.777660e-001 3.561462e-001 1.143669e+000 9.448053e+000 6.713309e+000 5.727563e+000
<GCONST> 1.324491e+002
<TRANSP> 5
 0.000000e+000 1.000000e+000 0.000000e+000 0.000000e+000 0.000000e+000
 0.000000e+000 7.379268e-001 2.620732e-001 0.000000e+000 0.000000e+000
 0.000000e+000 0.000000e+000 8.420895e-001 1.579105e-001 0.000000e+000
 0.000000e+000 0.000000e+000 0.000000e+000 6.823663e-001 3.176338e-001
 0.000000e+000 0.000000e+000 0.000000e+000 0.000000e+000 0.000000e+000
<ENDHMM>
~h "MC_2"
<BEGINHMM>
<NUMSTATES> 5
<STATE> 2
<MEAN> 22
 4.642480e+000 8.278389e+000 1.697369e+000 2.699801e+000 3.374073e+001 8.846682e+001 8.029549e+001 5.481148e+001 6.456804e+001 7.765270e+001 1.625652e+002 9.599285e+001 1.073240e+002 1.016847e+002 5.476733e+000 3.216766e+000 6.164474e+000 5.661566e+000 5.584926e+000 3.319288e+000 2.412724e+000 2.782593e+000
<VARIANCE> 22
 5.678881e+001 7.227956e+001 1.169482e+001 1.160161e+001 2.046556e+003 2.428307e+003 6.223597e+002 9.342909e+002 2.843055e+002 3.932361e+002 2.222707e+003 2.301389e+003 2.010887e+002 1.843916e+002 6.993478e+000 1.407488e+000 2.114563e-001 3.596317e-001 8.615007e-001 1.004343e+001 6.396017e+000 5.427966e+000
<GCONST> 1.253641e+002
<STATE> 3
<MEAN> 22
 1.322085e+000 6.629246e+000 6.029765e-001 1.895363e+000 1.275161e+001 1.254068e+002 9.229197e+001 6.393713e+001 5.764193e+001 8.390382e+001 1.852523e+002 6.373037e+001 1.127979e+002 9.554062e+001 6.774282e+000 2.493807e+000 6.089480e+000 5.552195e+000 5.909799e+000 1.000939e+000 1.771510e+000 3.081696e+000
<VARIANCE> 22
 5.618445e+000 3.735280e+001 3.300596e+000 5.153219e+000 8.235541e+002 1.699370e+003 3.734379e+002 9.263164e+002 1.364317e+002 4.937947e+002 1.126181e+003 9.687851e+002 2.050821e+002 2.746068e+002 1.226262e+000 5.254956e-001 1.027935e-001 4.775825e-001 2.337270e-001 3.409214e+000 5.743361e+000 5.321017e+000
<GCONST> 1.112175e+002
<STATE> 4
<MEAN> 22
 6.460382e+000 4.877610e+000 2.160415e+000 1.429132e+000 8.748781e+001 4.670189e+001 6.358402e+001 7.743143e+001 7.437301e+001 6.216298e+001 9.718951e+001 1.501767e+002 1.038706e+002 1.075491e+002 2.659868e+000 4.155875e+000 6.154379e+000 5.705799e+000 4.193257e+000 4.805767e+000 2.872158e+000 2.632668e+000
<VARIANCE> 22
 7.181104e+001 2.104087e+002 1.397716e+001 5.991172e+000 6.106019e+003 4.449561e+003 7.019533e+002 1.103296e+003 4.973481e+002 2.958522e+002 3.224222e+003 3.796762e+003 3.629233e+002 3.211397e+002 5.513133e+000 1.492621e+000 5.890321e-001 4.392501e-001 1.342933e+000 6.315731e+000 6.289838e+000 6.173998e+000
<GCONST> 1.316001e+002
<TRANSP> 5
 0.000000e+000 1.000000e+000 0.000000e+000 0.000000e+000 0.000000e+000
 0.000000e+000 5.783625e-001 4.216375e-001 0.000000e+000 0.000000e+000
 0.000000e+000 0.000000e+000 8.568564e-001 1.431436e-001 0.000000e+000
 0.000000e+000 0.000000e+000 0.000000e+000 7.778443e-001 2.221558e-001
 0.000000e+000 0.000000e+000 0.000000e+000 0.000000e+000 0.000000e+000
<ENDHMM>
~h "VA_2"
<BEGINHMM>
<NUMSTATES> 5
<STATE> 2
<MEAN> 22
 7.521679e+000 1.322667e+001 4.232312e+000 5.805906e+000 6.734595e+001 1.654862e+002 1.052327e+002 1.349179e+002 7.164309e+001 9.695781e+001 1.541275e+002 9.643566e+001 1.021398e+002 8.683656e+001 5.250858e+000 2.869383e+000 5.069857e+000 4.012077e+000 5.019132e+000 2.584752e+000 2.763083e+000 2.837089e+000
<VARIANCE> 22
 2.314140e+002 2.832572e+002 7.497345e+001 4.912142e+001 9.561504e+003 8.811183e+003 1.861477e+003 2.530487e+003 8.248171e+002 9.393462e+002 3.814451e+003 2.933678e+003 5.669885e+002 5.641497e+002 6.782802e+000 1.318636e+000 4.958052e+000 1.905208e+000 2.673477e+000 4.215030e+000 6.179585e+000 4.767453e+000
<GCONST> 1.460581e+002
<STATE> 3
<MEAN> 22
 2.299973e+000 6.315133e+000 1.004007e+000 2.622577e+000 3.968632e+001 2.060102e+002 9.382548e+001 1.518447e+002 5.905219e+001 1.069082e+002 1.740425e+002 7.995523e+001 1.075826e+002 7.875858e+001 6.229825e+000 2.429036e+000 5.580528e+000 3.472551e+000 5.536443e+000 1.873255e+000 2.075204e+000 3.172638e+000
<VARIANCE> 22
 1.763002e+001 6.422659e+001 3.386693e+000 1.048967e+001 9.095765e+003 5.852510e+003 1.214179e+003 2.635246e+003 4.843183e+002 1.053977e+003 2.429096e+003 2.023353e+003 5.970175e+002 5.850842e+002 4.021490e+000 7.917365e-001 2.515499e+000 1.625491e+000 1.756896e+000 1.919847e+000 6.299466e+000 6.268902e+000
<GCONST> 1.325771e+002
<STATE> 4
<MEAN> 22
 8.943801e+000 6.641253e+000 3.235260e+000 2.592658e+000 1.313271e+002 5.369613e+001 1.340611e+002 9.462916e+001 9.695092e+001 6.362383e+001 1.192744e+002 1.591479e+002 9.461626e+001 1.079294e+002 3.159977e+000 4.275312e+000 3.398789e+000 5.379774e+000 3.611032e+000 4.885149e+000 3.265383e+000 2.795551e+000
<VARIANCE> 22
 1.762355e+002 2.723639e+002 2.600972e+001 2.184793e+001 1.004491e+004 5.594542e+003 3.415569e+003 1.377626e+003 1.058203e+003 5.374700e+002 4.127980e+003 2.994676e+003 5.655144e+002 3.102105e+002 6.418004e+000 1.242622e+000 7.580413e+000 8.549258e-001 3.528012e+000 4.332991e+000 6.666284e+000 6.472538e+000
<GCONST> 1.428565e+002
<TRANSP> 5
 0.000000e+000 1.000000e+000 0.000000e+000 0.000000e+000 0.000000e+000
 0.000000e+000 4.420158e-001 5.579842e-001 0.000000e+000 0.000000e+000
 0.000000e+000 0.000000e+000 7.815237e-001 2.184763e-001 0.000000e+000
 0.000000e+000 0.000000e+000 0.000000e+000 7.898577e-001 2.101423e-001
 0.000000e+000 0.000000e+000 0.000000e+000 0.000000e+000 0.000000e+000
<ENDHMM>
~h "VQ_2"
<BEGINHMM>
<NUMSTATES> 5
<STATE> 2
<MEAN> 22
 9.498789e+000 6.690101e+000 3.586672e+000 2.756518e+000 7.601584e+001 1.120703e+002 9.723524e+001 1.064014e+002 6.712157e+001 6.579419e+001 1.332659e+002 1.035648e+002 1.018156e+002 9.687132e+001 4.378970e+000 3.411707e+000 4.802598e+000 4.656643e+000 4.586743e+000 3.319871e+000 2.988398e+000 2.901409e+000
<VARIANCE> 22
 3.625476e+002 8.783089e+001 3.339973e+001 1.720568e+001 1.153819e+004 8.392987e+003 1.222936e+003 1.062118e+003 3.685928e+002 3.059170e+002 4.534657e+003 4.753128e+003 4.694549e+002 4.317276e+002 8.376416e+000 1.556406e+000 6.571340e+000 1.313900e+000 3.381465e+000 4.294412e+000 6.562874e+000 5.798685e+000
<GCONST> 1.413979e+002
<STATE> 3
<MEAN> 22
 1.919369e+000 8.018162e+000 8.070072e-001 3.624444e+000 2.002154e+001 1.645206e+002 9.271311e+001 1.213975e+002 5.705310e+001 7.643191e+001 1.812380e+002 6.265299e+001 1.116473e+002 8.691950e+001 6.625664e+000 2.605942e+000 5.841794e+000 4.106122e+000 5.762073e+000 2.211908e+000 1.832166e+000 3.359771e+000
<VARIANCE> 22
 1.234565e+001 1.619776e+002 3.300596e+000 3.706190e+001 2.365619e+003 4.027275e+003 5.290931e+002 1.212283e+003 1.562268e+002 3.415576e+002 1.793326e+003 2.034196e+003 2.838106e+002 3.967942e+002 1.974808e+000 7.541332e-001 1.551725e+000 8.928594e-001 8.595191e-001 1.804206e+000 5.769065e+000 6.193759e+000
<GCONST> 1.246472e+002
<STATE> 4
<MEAN> 22
 7.851543e+000 3.605699e+000 3.244486e+000 1.739677e+000 1.225813e+002 6.016222e+001 1.071123e+002 8.663497e+001 7.463977e+001 5.456049e+001 8.697755e+001 1.531686e+002 9.300716e+001 1.040510e+002 2.792973e+000 4.217167e+000 3.157101e+000 5.327955e+000 3.248673e+000 4.942177e+000 3.378234e+000 2.598347e+000
<VARIANCE> 22
 1.756041e+002 6.083047e+001 2.742555e+001 8.538828e+000 1.269065e+004 8.437392e+003 1.746725e+003 1.090752e+003 6.735321e+002 2.772131e+002 4.381879e+003 3.922434e+003 7.292565e+002 6.145408e+002 5.954259e+000 1.829512e+000 8.968789e+000 1.598389e+000 3.106283e+000 4.135135e+000 6.696278e+000 6.608450e+000
<GCONST> 1.413186e+002
<TRANSP> 5
 0.000000e+000 1.000000e+000 0.000000e+000 0.000000e+000 0.000000e+000
 0.000000e+000 3.421158e-001 6.578841e-001 0.000000e+000 0.000000e+000
 0.000000e+000 0.000000e+000 8.041502e-001 1.958498e-001 0.000000e+000
 0.000000e+000 0.000000e+000 0.000000e+000 7.637855e-001 2.362145e-001
 0.000000e+000 0.000000e+000 0.000000e+000 0.000000e+000 0.000000e+000
<ENDHMM>
~h "NU_2"
<BEGINHMM>
<NUMSTATES> 5
<STATE> 2
<MEAN> 22
 1.407470e+000 3.616249e+000 4.703912e-001 1.582377e+000 1.509470e+001 1.188274e+002 9.014571e+001 7.419230e+001 5.821167e+001 6.429256e+001 1.815146e+002 7.081168e+001 1.110839e+002 1.017987e+002 6.683193e+000 2.822211e+000 6.062768e+000 5.123176e+000 5.827769e+000 1.563360e+000 1.465274e+000 2.726578e+000
<VARIANCE> 22
 1.355332e+001 6.427852e+001 3.300596e+000 5.900470e+000 1.521749e+003 2.103756e+003 3.238317e+002 7.839662e+002 8.010905e+001 1.407196e+002 1.234734e+003 1.123924e+003 1.850392e+002 1.855547e+002 1.753536e+000 4.407537e-001 4.086121e-001 4.277917e-001 5.194664e-001 1.945403e+000 5.004440e+000 5.981794e+000
<GCONST> 1.129211e+002
<STATE> 3
<MEAN> 22
 2.640088e+000 4.309456e+000 1.027185e+000 1.980527e+000 5.942495e+001 6.628844e+001 7.693708e+001 7.053806e+001 6.467216e+001 5.857322e+001 1.255336e+002 1.164734e+002 1.084061e+002 1.047980e+002 3.503777e+000 3.614041e+000 6.386303e+000 5.470454e+000 4.448552e+000 3.517840e+000 2.435388e+000 2.745964e+000
<VARIANCE> 22
 1.626635e+001 5.475854e+001 3.454656e+000 1.271805e+001 3.726445e+003 3.690913e+003 9.249236e+002 8.730180e+002 1.582580e+002 1.047138e+002 4.301075e+003 3.274036e+003 2.709462e+002 2.329677e+002 8.640585e+000 1.376887e+000 7.907894e-001 4.167424e-001 2.554661e+000 6.767551e+000 6.310579e+000 6.416580e+000
<GCONST> 1.261927e+002
<STATE> 4
<MEAN> 22
 5.724404e+000 6.066756e+000 1.641190e+000 1.515518e+000 1.209173e+002 9.888182e+001 8.405487e+001 8.222688e+001 6.628891e+001 5.602568e+001 1.218775e+002 1.352814e+002 1.032888e+002 1.041162e+002 3.391611e+000 3.709150e+000 5.316301e+000 5.128153e+000 3.943785e+000 3.785149e+000 2.585877e+000 2.687928e+000
<VARIANCE> 22
 7.642864e+001 3.880599e+002 7.021436e+000 6.196942e+000 2.329100e+004 1.460495e+004 1.598325e+003 1.421591e+003 6.146473e+002 3.694263e+002 5.407255e+003 5.447453e+003 1.334671e+003 1.108882e+003 8.811308e+000 2.559578e+000 6.172056e+000 2.572141e+000 4.461176e+000 6.552017e+000 7.419410e+000 6.629504e+000
<GCONST> 1.456754e+002
<TRANSP> 5
 0.000000e+000 1.000000e+000 0.000000e+000 0.000000e+000 0.000000e+000
 0.000000e+000 8.140540e-001 1.859460e-001 0.000000e+000 0.000000e+000
 0.000000e+000 0.000000e+000 6.941905e-001 3.058095e-001 0.000000e+000
 0.000000e+000 0.000000e+000 0.000000e+000 6.453471e-001 3.546529e-001
 0.000000e+000 0.000000e+000 0.000000e+000 0.000000e+000 0.000000e+000
<ENDHMM>
~h "FM_2"
<BEGINHMM>
<NUMSTATES> 5
<STATE> 2
<MEAN> 22
 4.941784e+000 3.393282e+000 1.027192e+000 8.825707e-001 5.489091e+001 2.857495e+001 6.436961e+001 8.098824e+001 8.872920e+001 6.776842e+001 1.418401e+002 1.675884e+002 1.109453e+002 1.118543e+002 2.577218e+000 4.584661e+000 6.445447e+000 5.646447e+000 5.331796e+000 6.127013e+000 2.530554e+000 2.065407e+000
<VARIANCE> 22
 4.458013e+001 4.249933e+001 3.300596e+000 2.615403e+000 1.545700e+003 1.083459e+003 7.496339e+002 8.383766e+002 6.007458e+002 3.650856e+002 1.318891e+003 1.936938e+003 2.483839e+002 2.308861e+002 1.079164e+001 3.418395e-001 3.285919e-001 2.868118e-001 3.977381e-001 7.727678e-001 6.154696e+000 5.755415e+000
<GCONST> 1.171575e+002
<STATE> 3
<MEAN> 22
 1.255427e+000 5.494983e+000 5.812091e-001 9.459797e-001 1.411103e+001 6.280337e+001 9.339020e+001 5.919332e+001 5.899900e+001 9.040581e+001 1.894229e+002 1.298216e+002 1.143354e+002 1.050613e+002 6.729852e+000 4.137973e+000 6.062232e+000 5.292753e+000 5.949270e+000 6.583030e+000 1.601893e+000 2.963172e+000
<VARIANCE> 22
 6.804693e+000 3.883039e+001 3.662648e+000 2.164982e+000 8.041767e+002 6.770950e+002 3.243206e+002 4.252704e+002 1.559719e+002 3.299955e+002 6.922938e+002 6.262156e+002 1.759924e+002 1.548673e+002 1.775731e+000 2.138481e-001 1.113685e-001 2.449170e-001 9.683027e-002 4.706453e-001 5.535267e+000 5.968060e+000
<GCONST> 1.030034e+002
<STATE> 4
<MEAN> 22
 3.205092e+000 4.410179e+000 8.173916e-001 1.109596e+000 7.951055e+001 8.693385e+001 7.421165e+001 5.626291e+001 6.591280e+001 7.295216e+001 1.553895e+002 1.206876e+002 1.054287e+002 1.001618e+002 4.642519e+000 3.538291e+000 5.743545e+000 5.100502e+000 5.145385e+000 4.225540e+000 1.942348e+000 2.472839e+000
<VARIANCE> 22
 3.929380e+001 5.090990e+001 3.300596e+000 4.315098e+000 2.084882e+004 1.049244e+004 1.503511e+003 1.205515e+003 8.107863e+002 8.774942e+002 3.791947e+003 2.827527e+003 1.157560e+003 1.019790e+003 1.023570e+001 2.000041e+000 3.127177e+000 2.361654e+000 2.712593e+000 9.259460e+000 5.926342e+000 6.455075e+000
<GCONST> 1.398350e+002
<TRANSP> 5
 0.000000e+000 1.000000e+000 0.000000e+000 0.000000e+000 0.000000e+000
 0.000000e+000 7.565941e-001 2.434059e-001 0.000000e+000 0.000000e+000
 0.000000e+000 0.000000e+000 8.418052e-001 1.581948e-001 0.000000e+000
 0.000000e+000 0.000000e+000 0.000000e+000 4.490360e-001 5.509639e-001
 0.000000e+000 0.000000e+000 0.000000e+000 0.000000e+000 0.000000e+000
<ENDHMM>
~h "FN_2"
<BEGINHMM>
<NUMSTATES> 5
<STATE> 2
<MEAN> 22
 1.488980e+000 8.041605e+000 6.034222e-001 2.312882e+000 1.541275e+001 1.659739e+002 9.266457e+001 1.096093e+002 5.887225e+001 6.814419e+001 1.822300e+002 3.659416e+001 1.113866e+002 9.624844e+001 6.719316e+000 2.239290e+000 5.914220e+000 4.249372e+000 5.837960e+000 1.515085e+000 1.519345e+000 3.181541e+000
<VARIANCE> 22
 1.503269e+001 1.011837e+002 3.300596e+000 9.765705e+000 1.644684e+003 2.523397e+003 3.413116e+002 6.289897e+002 8.518763e+001 1.823300e+002 1.647839e+003 1.576602e+003 1.902064e+002 2.393223e+002 1.383849e+000 4.677464e-001 8.775620e-001 1.458773e+000 4.906221e-001 1.300689e+000 5.427734e+000 5.809169e+000
<GCONST> 1.167097e+002
<STATE> 3
<MEAN> 22
 3.629855e+000 1.308633e+001 1.272838e+000 3.989013e+000 3.876283e+001 9.895234e+001 9.491253e+001 9.409560e+001 6.300164e+001 6.557091e+001 1.662209e+002 1.100020e+002 1.102251e+002 1.038700e+002 5.959671e+000 3.430824e+000 5.685675e+000 5.019067e+000 5.487463e+000 3.387911e+000 2.392515e+000 3.861861e+000
<VARIANCE> 22
 4.299387e+001 2.806948e+002 5.150822e+000 3.649442e+001 4.353354e+003 5.087561e+003 5.424452e+002 1.332410e+003 1.931023e+002 1.929855e+002 3.685573e+003 5.002337e+003 2.622658e+002 2.845002e+002 4.584571e+000 1.763536e+000 2.338520e+000 1.193945e+000 1.303084e+000 5.873173e+000 6.408544e+000 5.917371e+000
<GCONST> 1.327352e+002
<STATE> 4
<MEAN> 22
 7.306826e+000 3.724705e+000 2.121861e+000 1.186193e+000 1.196187e+002 5.473109e+001 9.594065e+001 8.573140e+001 7.156200e+001 5.837540e+001 8.624891e+001 1.506083e+002 9.990593e+001 1.100319e+002 3.074419e+000 4.100667e+000 4.301397e+000 5.474977e+000 3.826084e+000 4.587211e+000 3.040003e+000 2.372513e+000
<VARIANCE> 22
 1.462965e+002 5.329880e+001 1.115167e+001 4.922485e+000 1.071427e+004 7.067292e+003 1.790547e+003 1.120262e+003 2.841494e+002 1.370378e+002 5.381371e+003 4.748323e+003 5.820641e+002 3.464305e+002 5.265419e+000 1.989936e+000 7.047505e+000 1.000073e+000 2.327849e+000 5.888255e+000 7.103122e+000 6.582422e+000
<GCONST> 1.366595e+002
<TRANSP> 5
 0.000000e+000 1.000000e+000 0.000000e+000 0.000000e+000 0.000000e+000
 0.000000e+000 8.276684e-001 1.723315e-001 0.000000e+000 0.000000e+000
 0.000000e+000 0.000000e+000 5.343359e-001 4.656642e-001 0.000000e+000
 0.000000e+000 0.000000e+000 0.000000e+000 7.775944e-001 2.224056e-001
 0.000000e+000 0.000000e+000 0.000000e+000 0.000000e+000 0.000000e+000
<ENDHMM>
~h "FU_2"
<BEGINHMM>
<NUMSTATES> 5
<STATE> 2
<MEAN> 22
 1.280277e+000 3.903148e+000 6.178823e-001 1.267423e+000 3.052753e+001 1.701458e+002 8.939724e+001 1.061120e+002 5.533418e+001 5.993926e+001 1.736095e+002 3.096656e+001 1.069333e+002 9.269132e+001 6.542572e+000 2.157281e+000 5.719250e+000 4.074096e+000 5.683215e+000 1.586015e+000 1.527184e+000 2.357803e+000
<VARIANCE> 22
 1.058862e+001 7.549416e+001 3.300596e+000 7.365018e+000 8.009346e+003 3.673714e+003 5.289941e+002 7.193945e+002 1.585023e+002 2.548302e+002 2.661716e+003 1.762067e+003 5.019326e+002 3.671517e+002 2.399373e+000 6.400052e-001 1.933937e+000 2.584924e+000 1.293692e+000 1.594557e+000 5.280573e+000 6.606824e+000
<GCONST> 1.247607e+002
<STATE> 3
<MEAN> 22
 3.665935e+000 2.969267e+000 1.421760e+000 1.174144e+000 1.187562e+002 4.305973e+001 1.060723e+002 9.014665e+001 6.129771e+001 5.506869e+001 6.614948e+001 1.615286e+002 9.905925e+001 1.073856e+002 3.213562e+000 4.531778e+000 3.376862e+000 5.570581e+000 3.524407e+000 5.318369e+000 2.768915e+000 2.257324e+000
<VARIANCE> 22
 4.954515e+001 3.764094e+001 4.968696e+000 4.512600e+000 6.897636e+003 3.682433e+003 6.732452e+002 4.894165e+002 1.753046e+002 8.857419e+001 5.344517e+003 3.583776e+003 2.714317e+002 2.052594e+002 4.843274e+000 1.129591e+000 7.494085e+000 7.708769e-001 2.185748e+000 2.962945e+000 6.662560e+000 5.850130e+000
<GCONST> 1.271607e+002
<STATE> 4
<MEAN> 22
 7.837067e+000 8.853391e+000 2.738356e+000 3.563792e+000 7.618678e+001 1.085452e+002 9.611908e+001 9.557665e+001 6.063887e+001 6.105569e+001 1.400425e+002 1.126791e+002 1.075958e+002 1.000173e+002 5.274287e+000 3.643815e+000 5.184703e+000 5.049116e+000 4.930550e+000 3.895696e+000 2.775515e+000 2.822834e+000
<VARIANCE> 22
 7.002790e+002 6.287483e+002 4.170440e+002 2.907321e+002 1.087937e+004 8.506668e+003 6.602752e+002 9.531403e+002 1.785284e+002 2.693531e+002 5.870881e+003 6.497489e+003 2.979273e+002 4.918916e+002 5.783322e+000 2.502077e+000 4.151900e+000 1.866127e+000 2.367158e+000 6.050963e+000 7.533372e+000 6.205411e+000
<GCONST> 1.481888e+002
<TRANSP> 5
 0.000000e+000 1.000000e+000 0.000000e+000 0.000000e+000 0.000000e+000
 0.000000e+000 8.371427e-001 1.628573e-001 0.000000e+000 0.000000e+000
 0.000000e+000 0.000000e+000 7.846619e-001 2.153381e-001 0.000000e+000
 0.000000e+000 0.000000e+000 0.000000e+000 3.728302e-001 6.271698e-001
 0.000000e+000 0.000000e+000 0.000000e+000 0.000000e+000 0.000000e+000
<ENDHMM>
~h "OH_D"
<BEGINHMM>
<NUMSTATES> 5
<STATE> 2
<MEAN> 22
 6.852782e+000 3.786562e+000 2.149080e+000 1.328156e+000 9.448581e+001 8.548794e+001 8.811473e+001 9.074954e+001 7.478120e+001 6.686327e+001 1.131843e+002 1.312843e+002 1.034625e+002 1.043516e+002 3.224930e+000 3.639634e+000 4.885813e+000 5.085335e+000 4.113864e+000 3.847536e+000 2.998536e+000 2.376295e+000
<VARIANCE> 22
 1.357017e+002 5.943424e+001 1.554213e+001 6.830371e+000 1.187973e+004 1.019609e+004 2.182522e+003 2.056873e+003 6.470803e+002 6.642983e+002 4.641353e+003 4.663747e+003 6.250796e+002 5.302090e+002 7.432173e+000 2.384815e+000 6.282309e+000 1.984589e+000 2.939825e+000 6.889962e+000 7.538924e+000 6.611147e+000
<GCONST> 1.429111e+002
<STATE> 3
<MEAN> 22
 4.967748e+000 1.532395e+001 1.569276e+000 4.409983e+000 1.663488e+001 1.213099e+002 8.921719e+001 8.739692e+001 6.014573e+001 7.640789e+001 1.815927e+002 8.239783e+001 1.119719e+002 1.020818e+002 6.425448e+000 2.946328e+000 6.080430e+000 5.001563e+000 5.860398e+000 2.273705e+000 2.023568e+000 4.394458e+000
<VARIANCE> 22
 2.429608e+002 3.991738e+002 6.657602e+001 5.888356e+001 1.250810e+003 3.689014e+003 4.804818e+002 1.377349e+003 1.568113e+002 3.892923e+002 1.217709e+003 2.907941e+003 2.083754e+002 2.440029e+002 3.307328e+000 1.089102e+000 3.196898e-001 9.829321e-001 3.958029e-001 5.237420e+000 6.626309e+000 5.502247e+000
<GCONST> 1.303218e+002
<STATE> 4
<MEAN> 22
 4.471355e+000 1.124356e+001 1.428261e+000 2.904786e+000 1.971385e+001 3.154192e+001 9.380377e+001 8.566208e+001 6.204182e+001 6.311812e+001 1.893190e+002 1.770060e+002 1.151788e+002 1.124150e+002 6.742268e+000 4.828933e+000 6.134031e+000 5.709147e+000 5.922987e+000 6.005112e+000 2.669112e+000 3.732351e+000
<VARIANCE> 22
 5.588271e+001 1.888892e+002 6.323431e+000 1.339027e+001 9.479998e+002 9.589586e+002 4.874982e+002 6.454495e+002 1.315815e+002 1.831205e+002 9.037308e+002 1.267811e+003 1.952068e+002 1.690056e+002 1.471224e+000 2.875302e-001 2.554244e-001 2.485284e-001 2.061111e-001 6.229132e-001 6.737088e+000 6.363246e+000
<GCONST> 1.130494e+002
<TRANSP> 5
 0.000000e+000 1.000000e+000 0.000000e+000 0.000000e+000 0.000000e+000
 0.000000e+000 7.510656e-001 2.489344e-001 0.000000e+000 0.000000e+000
 0.000000e+000 0.000000e+000 7.352403e-001 2.647597e-001 0.000000e+000
 0.000000e+000 0.000000e+000 0.000000e+000 8.168426e-001 1.831573e-001
 0.000000e+000 0.000000e+000 0.000000e+000 0.000000e+000 0.000000e+000
<ENDHMM>
~h "OH_U"
<BEGINHMM>
<NUMSTATES> 5
<STATE> 2
<MEAN> 22
 1.225203e+001 1.353985e+001 6.820087e+000 6.239497e+000 4.688506e+001 5.933199e+001 8.923454e+001 8.666014e+001 6.608266e+001 6.393883e+001 1.573163e+002 1.458929e+002 1.107512e+002 1.091090e+002 5.346532e+000 4.138186e+000 5.724621e+000 5.462439e+000 5.214392e+000 4.608471e+000 2.397171e+000 2.380241e+000
<VARIANCE> 22
 2.279697e+003 1.755468e+003 1.868659e+003 1.184314e+003 6.197060e+003 5.387976e+003 9.731622e+002 9.371943e+002 3.059095e+002 2.781408e+002 3.802342e+003 4.210994e+003 4.061077e+002 3.591513e+002 6.943508e+000 1.614070e+000 2.695005e+000 9.566391e-001 2.064865e+000 5.384777e+000 5.771917e+000 4.782945e+000
<GCONST> 1.502136e+002
<STATE> 3
<MEAN> 22
 2.883584e+000 1.316887e+001 8.794432e-001 3.678631e+000 1.705175e+001 9.773354e+001 8.954167e+001 8.631513e+001 5.997749e+001 7.106272e+001 1.826217e+002 1.037863e+002 1.125604e+002 1.032529e+002 6.670872e+000 3.455374e+000 6.050498e+000 5.057465e+000 5.871764e+000 3.483378e+000 1.985497e+000 2.495942e+000
<VARIANCE> 22
 2.919429e+001 2.317441e+002 3.300596e+000 2.249364e+001 1.194777e+003 4.652063e+003 4.578152e+002 1.184761e+003 1.068217e+002 3.290591e+002 1.081402e+003 3.982462e+003 1.707090e+002 2.384475e+002 1.810942e+000 1.608657e+000 3.719818e-001 1.097713e+000 3.165068e-001 6.599066e+000 5.546492e+000 4.015293e+000
<GCONST> 1.226653e+002
<STATE> 4
<MEAN> 22
 9.680276e+000 4.522255e+000 3.132742e+000 1.825287e+000 1.080692e+002 8.021193e+001 9.940509e+001 9.504130e+001 7.740514e+001 6.749572e+001 1.021204e+002 1.375813e+002 1.008408e+002 1.045824e+002 3.068182e+000 3.847770e+000 4.403679e+000 5.040519e+000 3.951065e+000 4.194977e+000 2.484151e+000 2.469390e+000
<VARIANCE> 22
 2.043420e+002 6.909089e+001 2.326053e+001 1.032185e+001 1.192099e+004 1.014840e+004 1.937479e+003 1.901274e+003 7.001780e+002 7.119736e+002 5.091614e+003 4.707379e+003 6.570670e+002 5.694391e+002 7.039118e+000 1.970079e+000 7.477067e+000 2.113668e+000 2.964375e+000 6.250706e+000 5.077537e+000 5.561466e+000
<GCONST> 1.437940e+002
<TRANSP> 5
 0.000000e+000 1.000000e+000 0.000000e+000 0.000000e+000 0.000000e+000
 0.000000e+000 1.855161e-001 8.144838e-001 0.000000e+000 0.000000e+000
 0.000000e+000 0.000000e+000 8.513945e-001 1.486054e-001 0.000000e+000
 0.000000e+000 0.000000e+000 0.000000e+000 7.650377e-001 2.349622e-001
 0.000000e+000 0.000000e+000 0.000000e+000 0.000000e+000 0.000000e+000
<ENDHMM>
~h "OK_2"
<BEGINHMM>
<NUMSTATES> 5
<STATE> 2
<MEAN> 22
 9.190840e+000 8.610618e+000 2.910803e+000 2.631379e+000 5.635390e+001 7.637193e+001 9.492570e+001 9.236148e+001 6.658945e+001 6.208914e+001 1.486808e+002 1.355804e+002 1.108979e+002 1.094722e+002 5.039518e+000 3.967776e+000 5.571692e+000 5.297505e+000 4.999928e+000 4.302125e+000 3.042967e+000 3.038243e+000
<VARIANCE> 22
 2.037035e+002 2.198480e+002 2.998842e+001 1.454186e+001 4.599201e+003 5.280473e+003 6.229848e+002 6.536605e+002 2.022430e+002 2.057280e+002 4.663083e+003 4.954202e+003 3.003530e+002 1.896071e+002 7.518128e+000 1.662881e+000 4.003031e+000 7.587551e-001 2.501161e+000 5.239172e+000 6.598021e+000 6.027423e+000
<GCONST> 1.355775e+002
<STATE> 3
<MEAN> 22
 1.368934e+000 5.592822e+000 7.207937e-001 2.074728e+000 2.019069e+001 1.305650e+002 9.249388e+001 1.019955e+002 5.764404e+001 7.023226e+001 1.818424e+002 7.727927e+001 1.130518e+002 1.041944e+002 6.604145e+000 2.953227e+000 5.918641e+000 4.702822e+000 5.760802e+000 2.479908e+000 1.871094e+000 3.024242e+000
<VARIANCE> 22
 5.294458e+000 6.853838e+001 3.300596e+000 7.907789e+000 1.810108e+003 4.103700e+003 2.935509e+002 7.047612e+002 1.069324e+002 2.415161e+002 1.718281e+003 3.659287e+003 1.935717e+002 2.208742e+002 2.095315e+000 1.223457e+000 1.114262e+000 6.909340e-001 8.033074e-001 3.608012e+000 5.863298e+000 6.006079e+000
<GCONST> 1.194320e+002
<STATE> 4
<MEAN> 22
 6.433634e+000 4.416623e+000 1.966293e+000 1.445421e+000 1.116797e+002 5.914576e+001 9.686652e+001 8.346268e+001 6.973969e+001 5.733602e+001 8.894586e+001 1.496402e+002 1.029865e+002 1.085350e+002 2.912296e+000 4.131399e+000 4.150971e+000 5.435966e+000 3.479024e+000 4.841609e+000 2.931686e+000 2.433775e+000
<VARIANCE> 22
 1.312238e+002 1.008498e+002 1.165075e+001 9.770519e+000 1.064715e+004 7.436957e+003 1.166289e+003 1.066996e+003 3.987248e+002 2.774143e+002 4.851270e+003 4.480604e+003 7.392213e+002 6.033820e+002 6.533364e+000 1.751409e+000 9.463325e+000 1.449778e+000 3.184298e+000 5.071124e+000 7.003805e+000 6.602994e+000
<GCONST> 1.400684e+002
<TRANSP> 5
 0.000000e+000 1.000000e+000 0.000000e+000 0.000000e+000 0.000000e+000
 0.000000e+000 5.294659e-001 4.705341e-001 0.000000e+000 0.000000e+000
 0.000000e+000 0.000000e+000 7.749594e-001 2.250406e-001 0.000000e+000
 0.000000e+000 0.000000e+000 0.000000e+000 7.018474e-001 2.981526e-001
 0.000000e+000 0.000000e+000 0.000000e+000 0.000000e+000 0.000000e+000
<ENDHMM>
~h "PF_2"
<BEGINHMM>
<NUMSTATES> 5
<STATE> 2
<MEAN> 22
 3.898732e+000 8.970205e+000 1.881989e+000 3.885797e+000 5.884225e+001 1.547633e+002 9.786502e+001 1.240230e+002 6.520053e+001 7.793997e+001 1.555846e+002 7.454224e+001 1.047943e+002 9.340852e+001 5.480510e+000 2.739540e+000 5.216142e+000 3.990104e+000 5.194995e+000 2.387704e+000 2.269390e+000 2.861134e+000
<VARIANCE> 22
 5.524715e+001 1.851818e+002 1.797680e+001 3.847120e+001 9.881090e+003 6.564471e+003 1.117109e+003 1.093317e+003 3.326433e+002 3.489225e+002 3.377933e+003 3.781688e+003 3.193531e+002 3.537360e+002 6.365717e+000 1.284258e+000 4.041386e+000 1.516399e+000 2.274193e+000 3.403840e+000 6.634981e+000 3.818470e+000
<GCONST> 1.370612e+002
<STATE> 3
<MEAN> 22
 1.737819e+000 9.828931e+000 7.554114e-001 2.939499e+000 1.795819e+001 1.840944e+002 9.559466e+001 1.424575e+002 6.019117e+001 8.837083e+001 1.852036e+002 7.351048e+001 1.133188e+002 9.318606e+001 6.644745e+000 2.663304e+000 5.913603e+000 3.587295e+000 5.825030e+000 2.158481e+000 1.751951e+000 3.449386e+000
<VARIANCE> 22
 1.649532e+001 2.242541e+002 3.300596e+000 1.317303e+001 2.000316e+003 3.526603e+003 4.688880e+002 8.866746e+002 1.487858e+002 3.031986e+002 1.246354e+003 2.039570e+003 1.849702e+002 2.401639e+002 1.989427e+000 6.546750e-001 1.181013e+000 7.276264e-001 6.191187e-001 1.526305e+000 6.329880e+000 4.399181e+000
<GCONST> 1.206780e+002
<STATE> 4
<MEAN> 22
 7.134463e+000 4.366559e+000 2.529042e+000 1.711784e+000 1.188943e+002 5.772337e+001 1.253868e+002 9.683218e+001 8.038266e+001 6.161663e+001 1.249545e+002 1.651201e+002 1.038402e+002 1.110648e+002 3.466007e+000 4.416354e+000 3.362566e+000 5.355468e+000 3.705980e+000 5.089419e+000 3.024589e+000 2.736984e+000
<VARIANCE> 22
 1.234974e+002 6.240122e+001 1.717731e+001 8.997956e+000 1.171498e+004 7.352238e+003 2.252213e+003 1.191638e+003 5.167687e+002 2.474734e+002 4.215704e+003 3.104046e+003 4.367563e+002 2.903308e+002 7.757026e+000 1.184058e+000 7.997406e+000 9.333968e-001 3.804927e+000 3.548898e+000 7.929992e+000 6.185592e+000
<GCONST> 1.381177e+002
<TRANSP> 5
 0.000000e+000 1.000000e+000 0.000000e+000 0.000000e+000 0.000000e+000
 0.000000e+000 3.289475e-001 6.710525e-001 0.000000e+000 0.000000e+000
 0.000000e+000 0.000000e+000 8.276947e-001 1.723053e-001 0.000000e+000
 0.000000e+000 0.000000e+000 0.000000e+000 7.890621e-001 2.109379e-001
 0.000000e+000 0.000000e+000 0.000000e+000 0.000000e+000 0.000000e+000
<ENDHMM>
~h "PR_2"
<BEGINHMM>
<NUMSTATES> 5
<STATE> 2
<MEAN> 22
 6.297634e+000 7.755189e+000 2.030037e+000 2.909664e+000 4.017475e+001 7.819337e+001 9.317299e+001 9.367691e+001 6.890012e+001 6.403918e+001 1.595690e+002 1.309701e+002 1.124811e+002 1.058678e+002 4.766733e+000 3.813284e+000 6.204297e+000 5.185105e+000 5.084976e+000 3.986007e+000 2.736499e+000 2.923623e+000
<VARIANCE> 22
 8.823026e+001 1.458467e+002 9.697322e+000 1.854189e+001 3.166375e+003 4.335002e+003 6.929670e+002 8.049604e+002 2.839167e+002 1.931710e+002 3.589350e+003 3.434433e+003 3.640739e+002 4.271279e+002 9.112848e+000 1.104009e+000 1.799990e+000 6.893246e-001 2.878595e+000 4.236052e+000 6.729947e+000 6.231863e+000
<GCONST> 1.327099e+002
<STATE> 3
<MEAN> 22
 1.184460e+000 4.974401e+000 5.510095e-001 2.453033e+000 1.492818e+001 1.107205e+002 9.178249e+001 9.012394e+001 5.864880e+001 6.430962e+001 1.829469e+002 9.076900e+001 1.117108e+002 1.015025e+002 6.689009e+000 3.191775e+000 6.107369e+000 4.939779e+000 5.844702e+000 2.706474e+000 1.648632e+000 3.293870e+000
<VARIANCE> 22
 5.905229e+000 4.432026e+001 3.300596e+000 1.151267e+001 1.110461e+003 2.185168e+003 2.891672e+002 6.803666e+002 8.369899e+001 1.907497e+002 1.119569e+003 1.735150e+003 1.828377e+002 2.270248e+002 1.759540e+000 5.345265e-001 1.908698e-001 3.458590e-001 5.627140e-001 2.752645e+000 5.866174e+000 7.170535e+000
<GCONST> 1.127187e+002
<STATE> 4
<MEAN> 22
 6.421880e+000 3.008933e+000 2.192091e+000 1.212891e+000 9.006284e+001 5.298361e+001 8.192771e+001 8.046264e+001 6.817361e+001 5.621009e+001 1.016385e+002 1.507877e+002 1.016474e+002 1.048444e+002 2.335724e+000 4.164459e+000 6.092374e+000 5.370142e+000 3.458881e+000 4.852747e+000 2.884171e+000 2.224914e+000
<VARIANCE> 22
 9.825587e+001 4.953426e+001 1.359732e+001 5.053035e+000 9.311475e+003 6.210594e+003 9.488788e+002 1.046789e+003 3.809393e+002 2.127540e+002 3.151277e+003 3.292699e+003 6.119219e+002 5.743094e+002 6.703655e+000 1.410484e+000 3.593337e+000 1.343223e+000 3.780214e+000 4.537847e+000 6.619620e+000 6.308062e+000
<GCONST> 1.354576e+002
<TRANSP> 5
 0.000000e+000 1.000000e+000 0.000000e+000 0.000000e+000 0.000000e+000
 0.000000e+000 4.759773e-001 5.240226e-001 0.000000e+000 0.000000e+000
 0.000000e+000 0.000000e+000 8.293958e-001 1.706042e-001 0.000000e+000
 0.000000e+000 0.000000e+000 0.000000e+000 7.186092e-001 2.813908e-001
 0.000000e+000 0.000000e+000 0.000000e+000 0.000000e+000 0.000000e+000
<ENDHMM>
