~o
<STREAMINFO> 1 22
<VECSIZE> 22<NULLD><MFCC_0><DIAGC>
~h "BN"
<BEGINHMM>
<NUMSTATES> 5
<STATE> 2
<NUMMIXES> 2
<MIXTURE> 1 5.000000e-001
<MEAN> 22
 1.200598e+001 1.834329e+001 7.571491e+000 8.079165e+000 1.264588e+002 1.386476e+002 8.856344e+001 9.050772e+001 7.045596e+001 7.248148e+001 1.601992e+002 1.233383e+002 1.098872e+002 1.060943e+002 5.313735e+000 3.726612e+000 5.734992e+000 5.017629e+000 5.225706e+000 4.203992e+000 2.645122e+000 2.663515e+000
<VARIANCE> 22
 8.203121e+002 7.508781e+002 6.066014e+002 3.923501e+002 2.600588e+004 1.512998e+004 1.684108e+003 1.833561e+003 6.683911e+002 7.872560e+002 5.425734e+003 4.787474e+003 1.344252e+003 1.035588e+003 8.682878e+000 2.684908e+000 4.768703e+000 2.870825e+000 3.152369e+000 7.126506e+000 5.784634e+000 4.468939e+000
<GCONST> 1.574002e+002
<MIXTURE> 2 5.000000e-001
<MEAN> 22
 5.495428e-001 7.382429e+000 -2.280221e+000 1.560332e-001 6.195340e+001 8.944600e+001 7.214828e+001 7.337968e+001 6.011466e+001 6.125824e+001 1.307354e+002 9.566168e+001 9.522159e+001 9.322203e+001 4.135066e+000 3.071184e+000 4.861498e+000 4.339889e+000 4.515510e+000 3.136172e+000 1.683072e+000 1.817921e+000
<VARIANCE> 22
 8.203121e+002 7.508781e+002 6.066014e+002 3.923501e+002 2.600588e+004 1.512998e+004 1.684108e+003 1.833561e+003 6.683911e+002 7.872560e+002 5.425734e+003 4.787474e+003 1.344252e+003 1.035588e+003 8.682878e+000 2.684908e+000 4.768703e+000 2.870825e+000 3.152369e+000 7.126506e+000 5.784634e+000 4.468939e+000
<GCONST> 1.574002e+002
<STATE> 3
<NUMMIXES> 2
<MIXTURE> 1 5.000000e-001
<MEAN> 22
 1.628174e+000 1.114727e+001 8.214436e-001 3.430843e+000 1.339382e+001 1.805838e+002 9.465000e+001 1.222618e+002 6.013050e+001 9.376182e+001 1.939538e+002 4.460955e+001 1.166048e+002 1.035988e+002 7.053047e+000 2.279571e+000 6.129225e+000 4.033934e+000 6.027895e+000 1.261077e+000 1.924075e+000 3.355830e+000
<VARIANCE> 22
 6.638690e+000 1.497860e+002 3.300596e+000 1.439196e+001 4.383136e+002 1.808228e+003 2.506823e+002 6.400455e+002 7.099945e+001 3.662492e+002 6.338810e+002 6.269882e+002 1.560521e+002 1.589476e+002 2.519745e-001 2.374852e-001 1.931972e-001 6.579036e-001 7.736136e-002 4.621347e-001 5.089839e+000 5.876153e+000
<GCONST> 1.051307e+002
<MIXTURE> 2 5.000000e-001
<MEAN> 22
 5.975479e-001 6.251788e+000 9.474184e-002 1.913373e+000 5.019440e+000 1.635744e+002 8.831683e+001 1.121422e+002 5.676006e+001 8.610676e+001 1.838830e+002 3.459366e+001 1.116080e+002 9.855581e+001 6.852259e+000 2.084641e+000 5.953409e+000 3.709488e+000 5.916639e+000 9.891550e-001 1.021649e+000 2.386199e+000
<VARIANCE> 22
 6.638690e+000 1.497860e+002 3.300596e+000 1.439196e+001 4.383136e+002 1.808228e+003 2.506823e+002 6.400455e+002 7.099945e+001 3.662492e+002 6.338810e+002 6.269882e+002 1.560521e+002 1.589476e+002 2.519745e-001 2.374852e-001 1.931972e-001 6.579036e-001 7.736136e-002 4.621347e-001 5.089839e+000 5.876153e+000
<GCONST> 1.051307e+002
<STATE> 4
<NUMMIXES> 2
<MIXTURE> 1 5.000000e-001
<MEAN> 22
 1.114869e+001 9.004435e+000 3.316841e+000 2.293394e+000 1.188578e+002 3.000833e+001 1.127084e+002 9.222192e+001 8.427066e+001 6.141353e+001 1.129713e+002 1.874455e+002 1.099251e+002 1.169675e+002 4.156359e+000 4.895360e+000 4.143335e+000 5.869672e+000 4.415579e+000 6.044401e+000 3.630232e+000 3.159924e+000
<VARIANCE> 22
 1.757806e+002 1.703979e+002 1.712842e+001 9.156897e+000 6.751079e+003 8.751115e+002 9.156361e+002 7.097986e+002 4.180898e+002 9.214200e+001 5.822189e+003 1.523708e+003 2.932025e+002 1.620855e+002 6.643606e+000 4.053642e-001 8.590884e+000 1.939287e-001 2.402988e+000 1.791030e+000 6.316746e+000 6.763790e+000
<GCONST> 1.288141e+002
<MIXTURE> 2 5.000000e-001
<MEAN> 22
 5.845398e+000 3.782973e+000 1.661381e+000 1.082980e+000 8.599181e+001 1.817541e+001 1.006046e+002 8.156511e+001 7.609177e+001 5.757391e+001 8.245003e+001 1.718316e+002 1.030759e+002 1.118749e+002 3.125351e+000 4.640687e+000 2.970927e+000 5.693522e+000 3.795516e+000 5.509083e+000 2.624906e+000 2.119632e+000
<VARIANCE> 22
 1.757806e+002 1.703979e+002 1.712842e+001 9.156897e+000 6.751079e+003 8.751115e+002 9.156361e+002 7.097986e+002 4.180898e+002 9.214200e+001 5.822189e+003 1.523708e+003 2.932025e+002 1.620855e+002 6.643606e+000 4.053642e-001 8.590884e+000 1.939287e-001 2.402988e+000 1.791030e+000 6.316746e+000 6.763790e+000
<GCONST> 1.288141e+002
<TRANSP> 5
 0.000000e+000 1.000000e+000 0.000000e+000 0.000000e+000 0.000000e+000
 0.000000e+000 8.181726e-001 1.818274e-001 0.000000e+000 0.000000e+000
 0.000000e+000 0.000000e+000 9.501238e-001 4.987624e-002 0.000000e+000
 0.000000e+000 0.000000e+000 0.000000e+000 9.373378e-001 6.266218e-002
 0.000000e+000 0.000000e+000 0.000000e+000 0.000000e+000 0.000000e+000
<ENDHMM>
~h "BS"
<BEGINHMM>
<NUMSTATES> 5
<STATE> 2
<NUMMIXES> 2
<MIXTURE> 1 5.000000e-001
<MEAN> 22
 2.202052e+001 2.118666e+001 8.903612e+000 7.926335e+000 1.049013e+002 8.888029e+001 7.155933e+001 6.877332e+001 6.563697e+001 6.225326e+001 1.615822e+002 1.572735e+002 1.119049e+002 1.114364e+002 6.064019e+000 4.828106e+000 6.184111e+000 5.955364e+000 5.474018e+000 5.841870e+000 3.064291e+000 2.395067e+000
<VARIANCE> 22
 8.876793e+002 7.094335e+002 6.205820e+002 4.165945e+002 1.586442e+004 8.492488e+003 1.218102e+003 1.092400e+003 1.306372e+002 1.332016e+002 1.854066e+003 1.881215e+003 3.080253e+002 2.752854e+002 5.921950e+000 1.727409e+000 5.655859e-001 4.927081e-001 1.745796e+000 4.721168e+000 3.308026e+000 3.936383e+000
<GCONST> 1.409696e+002
<MIXTURE> 2 5.000000e-001
<MEAN> 22
 1.010294e+001 1.053258e+001 -1.060981e+000 -2.379233e-001 5.451968e+001 5.201841e+001 5.759881e+001 5.555273e+001 6.106511e+001 5.763674e+001 1.443586e+002 1.399243e+002 1.048847e+002 1.047998e+002 5.090617e+000 4.302382e+000 5.883289e+000 5.674592e+000 4.945504e+000 4.972740e+000 2.336772e+000 1.601455e+000
<VARIANCE> 22
 8.876793e+002 7.094335e+002 6.205820e+002 4.165945e+002 1.586442e+004 8.492488e+003 1.218102e+003 1.092400e+003 1.306372e+002 1.332016e+002 1.854066e+003 1.881215e+003 3.080253e+002 2.752854e+002 5.921950e+000 1.727409e+000 5.655859e-001 4.927081e-001 1.745796e+000 4.721168e+000 3.308026e+000 3.936383e+000
<GCONST> 1.409696e+002
<STATE> 3
<NUMMIXES> 2
<MIXTURE> 1 5.000000e-001
<MEAN> 22
 2.414284e+001 2.461164e+001 4.762906e+000 4.529075e+000 1.170814e+002 1.148722e+002 9.280278e+001 9.137851e+001 7.666565e+001 6.993771e+001 1.187337e+002 1.222451e+002 1.078602e+002 1.076968e+002 1.746876e+000 3.313421e+000 5.711908e+000 5.507668e+000 3.594970e+000 3.263062e+000 3.128707e+000 3.640425e+000
<VARIANCE> 22
 4.089768e+002 4.263108e+002 2.274347e+001 1.875300e+001 2.007628e+003 1.587367e+003 2.754920e+003 2.454642e+003 2.734344e+002 2.471168e+002 1.719455e+003 1.744439e+003 1.692717e+002 1.424949e+002 2.639891e+000 1.505036e+000 6.190515e+000 5.981133e-001 4.356413e+000 5.510415e+000 5.825898e+000 4.669692e+000
<GCONST> 1.345552e+002
<MIXTURE> 2 5.000000e-001
<MEAN> 22
 1.605356e+001 1.635272e+001 2.855302e+000 2.796885e+000 9.915879e+001 9.893545e+001 7.180785e+001 7.156078e+001 7.005132e+001 6.364973e+001 1.021471e+002 1.055385e+002 1.026560e+002 1.029220e+002 1.096966e+000 2.822701e+000 4.716678e+000 5.198317e+000 2.760090e+000 2.324091e+000 2.163231e+000 2.776047e+000
<VARIANCE> 22
 4.089768e+002 4.263108e+002 2.274347e+001 1.875300e+001 2.007628e+003 1.587367e+003 2.754920e+003 2.454642e+003 2.734344e+002 2.471168e+002 1.719455e+003 1.744439e+003 1.692717e+002 1.424949e+002 2.639891e+000 1.505036e+000 6.190515e+000 5.981133e-001 4.356413e+000 5.510415e+000 5.825898e+000 4.669692e+000
<GCONST> 1.345552e+002
<STATE> 4
<NUMMIXES> 2
<MIXTURE> 1 5.000000e-001
<MEAN> 22
 9.139261e+000 8.878971e+000 2.564160e+000 2.314395e+000 7.799506e+001 7.672894e+001 1.192367e+002 1.179035e+002 7.124137e+001 6.606543e+001 1.805090e+002 1.787056e+002 1.133729e+002 1.124997e+002 3.514528e+000 4.501967e+000 6.851191e+000 5.297576e+000 5.103058e+000 5.160908e+000 3.938706e+000 4.328376e+000
<VARIANCE> 22
 7.169305e+001 6.668475e+001 6.431520e+000 5.113854e+000 1.829806e+003 1.666671e+003 8.262947e+002 7.254818e+002 1.417449e+002 1.435458e+002 9.535078e+002 8.626879e+002 1.652734e+002 1.391261e+002 1.165472e+001 2.893806e-001 1.967085e-001 1.908898e-001 8.660551e+000 8.696496e-001 5.707909e+000 7.869357e+000
<GCONST> 1.179746e+002
<MIXTURE> 2 5.000000e-001
<MEAN> 22
 5.752391e+000 5.612542e+000 1.549742e+000 1.409841e+000 6.088457e+001 6.039898e+001 1.077385e+002 1.071295e+002 6.647910e+001 6.127301e+001 1.681574e+002 1.669570e+002 1.082305e+002 1.077817e+002 2.148968e+000 4.286791e+000 6.673783e+000 5.122812e+000 3.925906e+000 4.787888e+000 2.983056e+000 3.206281e+000
<VARIANCE> 22
 7.169305e+001 6.668475e+001 6.431520e+000 5.113854e+000 1.829806e+003 1.666671e+003 8.262947e+002 7.254818e+002 1.417449e+002 1.435458e+002 9.535078e+002 8.626879e+002 1.652734e+002 1.391261e+002 1.165472e+001 2.893806e-001 1.967085e-001 1.908898e-001 8.660551e+000 8.696496e-001 5.707909e+000 7.869357e+000
<GCONST> 1.179746e+002
<TRANSP> 5
 0.000000e+000 1.000000e+000 0.000000e+000 0.000000e+000 0.000000e+000
 0.000000e+000 7.810244e-001 2.189756e-001 0.000000e+000 0.000000e+000
 0.000000e+000 0.000000e+000 9.126022e-001 8.739786e-002 0.000000e+000
 0.000000e+000 0.000000e+000 0.000000e+000 9.518674e-001 4.813261e-002
 0.000000e+000 0.000000e+000 0.000000e+000 0.000000e+000 0.000000e+000
<ENDHMM>
~h "CF"
<BEGINHMM>
<NUMSTATES> 5
<STATE> 2
<NUMMIXES> 2
<MIXTURE> 1 5.000000e-001
<MEAN> 22
 1.417302e+001 1.377005e+001 7.625253e+000 6.361889e+000 9.810629e+001 7.993582e+001 9.864834e+001 8.364188e+001 8.158683e+001 6.854263e+001 1.306927e+002 1.448806e+002 1.068949e+002 1.115592e+002 4.521204e+000 4.116533e+000 5.226445e+000 5.549961e+000 4.760109e+000 4.855820e+000 3.335850e+000 2.966398e+000
<VARIANCE> 22
 5.920323e+002 4.498696e+002 3.816206e+002 2.309114e+002 8.716091e+003 5.718270e+003 1.790051e+003 1.458429e+003 6.827262e+002 3.997676e+002 5.100999e+003 4.141246e+003 5.688728e+002 4.391724e+002 7.185940e+000 2.259209e+000 5.313166e+000 1.472794e+000 2.559774e+000 6.823664e+000 6.513205e+000 4.922694e+000
<GCONST> 1.497957e+002
<MIXTURE> 2 5.000000e-001
<MEAN> 22
 4.440337e+000 5.285996e+000 -1.887915e-001 2.835812e-001 6.076228e+001 4.968813e+001 8.172474e+001 6.836612e+001 7.113522e+001 6.054496e+001 1.021242e+002 1.191396e+002 9.735449e+001 1.031766e+002 3.448940e+000 3.515307e+000 4.304433e+000 5.064527e+000 4.120137e+000 3.810934e+000 2.315010e+000 2.078912e+000
<VARIANCE> 22
 5.920323e+002 4.498696e+002 3.816206e+002 2.309114e+002 8.716091e+003 5.718270e+003 1.790051e+003 1.458429e+003 6.827262e+002 3.997676e+002 5.100999e+003 4.141246e+003 5.688728e+002 4.391724e+002 7.185940e+000 2.259209e+000 5.313166e+000 1.472794e+000 2.559774e+000 6.823664e+000 6.513205e+000 4.922694e+000
<GCONST> 1.497957e+002
<STATE> 3
<NUMMIXES> 2
<MIXTURE> 1 5.000000e-001
<MEAN> 22
 2.036165e+000 1.392301e+001 9.747891e-001 4.868274e+000 1.223055e+001 1.931238e+002 9.696269e+001 1.281744e+002 6.104636e+001 1.034982e+002 1.939876e+002 4.822354e+001 1.159145e+002 9.210512e+001 7.049189e+000 2.305905e+000 6.164589e+000 3.592455e+000 6.025675e+000 1.381886e+000 2.070766e+000 3.339813e+000
<VARIANCE> 22
 9.722264e+000 2.641076e+002 3.300596e+000 2.820083e+001 2.852212e+002 2.269927e+003 3.395991e+002 9.935659e+002 8.259106e+001 4.384085e+002 7.210119e+002 9.642084e+002 1.819484e+002 3.264509e+002 2.355648e-001 3.096938e-001 1.691017e-001 1.799581e+000 7.340148e-002 1.113164e+000 5.502645e+000 5.901313e+000
<GCONST> 1.110365e+002
<MIXTURE> 2 5.000000e-001
<MEAN> 22
 7.889431e-001 7.422453e+000 2.480874e-001 2.744096e+000 5.475148e+000 1.740663e+002 8.959140e+001 1.155660e+002 5.741118e+001 9.512287e+001 1.832470e+002 3.580286e+001 1.105189e+002 8.487793e+001 6.855049e+000 2.083305e+000 6.000101e+000 3.055861e+000 5.917305e+000 9.598598e-001 1.132458e+000 2.368109e+000
<VARIANCE> 22
 9.722264e+000 2.641076e+002 3.300596e+000 2.820083e+001 2.852212e+002 2.269927e+003 3.395991e+002 9.935659e+002 8.259106e+001 4.384085e+002 7.210119e+002 9.642084e+002 1.819484e+002 3.264509e+002 2.355648e-001 3.096938e-001 1.691017e-001 1.799581e+000 7.340148e-002 1.113164e+000 5.502645e+000 5.901313e+000
<GCONST> 1.110365e+002
<STATE> 4
<NUMMIXES> 2
<MIXTURE> 1 5.000000e-001
<MEAN> 22
 1.117838e+001 8.249116e+000 3.870446e+000 2.520591e+000 1.131194e+002 3.420900e+001 1.126328e+002 9.631109e+001 8.511419e+001 6.241343e+001 1.258193e+002 1.917850e+002 1.045563e+002 1.156962e+002 4.617635e+000 4.995049e+000 4.823432e+000 5.779233e+000 4.704906e+000 6.107578e+000 3.573684e+000 3.249243e+000
<VARIANCE> 22
 1.675289e+002 1.264861e+002 2.030642e+001 9.491282e+000 7.108578e+003 9.470118e+002 1.123519e+003 5.150881e+002 5.321575e+002 1.243172e+002 6.237278e+003 7.680386e+002 5.598094e+002 1.303245e+002 6.905462e+000 1.188777e-001 5.831427e+000 2.279159e-001 2.234933e+000 2.467358e-001 6.222635e+000 6.480992e+000
<GCONST> 1.255153e+002
<MIXTURE> 2 5.000000e-001
<MEAN> 22
 6.001060e+000 3.750474e+000 2.067940e+000 1.288274e+000 7.939446e+001 2.189958e+001 9.922521e+001 8.723287e+001 7.588677e+001 5.795352e+001 9.422871e+001 1.806996e+002 9.509219e+001 1.111298e+002 3.566505e+000 4.857135e+000 3.857498e+000 5.588271e+000 4.106918e+000 5.908888e+000 2.575876e+000 2.230931e+000
<VARIANCE> 22
 1.675289e+002 1.264861e+002 2.030642e+001 9.491282e+000 7.108578e+003 9.470118e+002 1.123519e+003 5.150881e+002 5.321575e+002 1.243172e+002 6.237278e+003 7.680386e+002 5.598094e+002 1.303245e+002 6.905462e+000 1.188777e-001 5.831427e+000 2.279159e-001 2.234933e+000 2.467358e-001 6.222635e+000 6.480992e+000
<GCONST> 1.255153e+002
<TRANSP> 5
 0.000000e+000 1.000000e+000 0.000000e+000 0.000000e+000 0.000000e+000
 0.000000e+000 8.571897e-001 1.428103e-001 0.000000e+000 0.000000e+000
 0.000000e+000 0.000000e+000 9.445818e-001 5.541813e-002 0.000000e+000
 0.000000e+000 0.000000e+000 0.000000e+000 9.357659e-001 6.423412e-002
 0.000000e+000 0.000000e+000 0.000000e+000 0.000000e+000 0.000000e+000
<ENDHMM>
~h "CN"
<BEGINHMM>
<NUMSTATES> 5
<STATE> 2
<NUMMIXES> 2
<MIXTURE> 1 5.000000e-001
<MEAN> 22
 1.985371e+001 1.903543e+001 5.527503e+000 5.294201e+000 6.667752e+001 6.376194e+001 7.441678e+001 7.250755e+001 6.725391e+001 6.295794e+001 1.589046e+002 1.574944e+002 1.155459e+002 1.138186e+002 5.595952e+000 4.552104e+000 6.174719e+000 5.984463e+000 5.397533e+000 5.403915e+000 3.055450e+000 2.324795e+000
<VARIANCE> 22
 4.702917e+002 4.030323e+002 1.834481e+002 1.376700e+002 2.961058e+003 2.477194e+003 1.164374e+003 9.873482e+002 1.089416e+002 8.844277e+001 2.987064e+003 2.711830e+003 2.457405e+002 1.945888e+002 7.395667e+000 1.459211e+000 1.448681e-001 2.547457e-001 1.037920e+000 6.252932e+000 2.628397e+000 3.386566e+000
<GCONST> 1.314772e+002
<MIXTURE> 2 5.000000e-001
<MEAN> 22
 1.117923e+001 1.100517e+001 1.097828e-001 6.008869e-001 4.491128e+001 4.385337e+001 6.076761e+001 5.993872e+001 6.307891e+001 5.919618e+001 1.370430e+002 1.366642e+002 1.092755e+002 1.082388e+002 4.508152e+000 4.068912e+000 6.022473e+000 5.782574e+000 4.990019e+000 4.403681e+000 2.406956e+000 1.588691e+000
<VARIANCE> 22
 4.702917e+002 4.030323e+002 1.834481e+002 1.376700e+002 2.961058e+003 2.477194e+003 1.164374e+003 9.873482e+002 1.089416e+002 8.844277e+001 2.987064e+003 2.711830e+003 2.457405e+002 1.945888e+002 7.395667e+000 1.459211e+000 1.448681e-001 2.547457e-001 1.037920e+000 6.252932e+000 2.628397e+000 3.386566e+000
<GCONST> 1.314772e+002
<STATE> 3
<NUMMIXES> 2
<MIXTURE> 1 5.000000e-001
<MEAN> 22
 9.903174e+000 1.071072e+001 1.580097e+000 1.353209e+000 1.529819e+002 1.469028e+002 7.591021e+001 7.395890e+001 6.825729e+001 6.617086e+001 4.753127e+001 5.031793e+001 1.052656e+002 1.065769e+002 2.096776e+000 2.001055e+000 5.958025e+000 6.085505e+000 3.291110e+000 8.600163e-001 3.662188e+000 3.584652e+000
<VARIANCE> 22
 1.134055e+002 1.415472e+002 3.300596e+000 2.164982e+000 1.760394e+003 1.485114e+003 5.340383e+002 5.972128e+002 9.483520e+001 1.163262e+002 3.618031e+002 4.373827e+002 1.374631e+002 1.236567e+002 7.972889e-002 1.288994e-001 7.606870e-001 5.529928e-001 1.808645e-001 2.162770e-001 6.018780e+000 6.021646e+000
<GCONST> 1.054593e+002
<MIXTURE> 2 5.000000e-001
<MEAN> 22
 5.643494e+000 5.951774e+000 8.533951e-001 7.646544e-001 1.361991e+002 1.314880e+002 6.666650e+001 6.418372e+001 6.436195e+001 6.185668e+001 3.992281e+001 4.195245e+001 1.005758e+002 1.021289e+002 1.983831e+000 1.857445e+000 5.609155e+000 5.788051e+000 3.120998e+000 6.739939e-001 2.680860e+000 2.603090e+000
<VARIANCE> 22
 1.134055e+002 1.415472e+002 3.300596e+000 2.164982e+000 1.760394e+003 1.485114e+003 5.340383e+002 5.972128e+002 9.483520e+001 1.163262e+002 3.618031e+002 4.373827e+002 1.374631e+002 1.236567e+002 7.972889e-002 1.288994e-001 7.606870e-001 5.529928e-001 1.808645e-001 2.162770e-001 6.018780e+000 6.021646e+000
<GCONST> 1.054593e+002
<STATE> 4
<NUMMIXES> 2
<MIXTURE> 1 5.000000e-001
<MEAN> 22
 1.807619e+001 1.677815e+001 3.273613e+000 3.312375e+000 8.798437e+001 8.137198e+001 8.074430e+001 7.770294e+001 6.984258e+001 6.612482e+001 1.610315e+002 1.569816e+002 1.150454e+002 1.137970e+002 5.558555e+000 4.399872e+000 6.277621e+000 5.967745e+000 5.354918e+000 4.944768e+000 4.593282e+000 4.401422e+000
<VARIANCE> 22
 3.077081e+002 2.604774e+002 1.033151e+001 1.271870e+001 5.868619e+003 4.632897e+003 1.435142e+003 1.361135e+003 1.987944e+002 1.357955e+002 2.710567e+003 2.868965e+003 2.882108e+002 1.801602e+002 6.226964e+000 2.858109e+000 3.524049e-001 2.770571e-001 1.509546e+000 7.345983e+000 7.282295e+000 4.895006e+000
<GCONST> 1.316664e+002
<MIXTURE> 2 5.000000e-001
<MEAN> 22
 1.105955e+001 1.032243e+001 1.987907e+000 1.885843e+000 5.734160e+001 5.414582e+001 6.559100e+001 6.294551e+001 6.420279e+001 6.146356e+001 1.402063e+002 1.355566e+002 1.082546e+002 1.084280e+002 4.560399e+000 3.723634e+000 6.040167e+000 5.757201e+000 4.863464e+000 3.860630e+000 3.513853e+000 3.516435e+000
<VARIANCE> 22
 3.077081e+002 2.604774e+002 1.033151e+001 1.271870e+001 5.868619e+003 4.632897e+003 1.435142e+003 1.361135e+003 1.987944e+002 1.357955e+002 2.710567e+003 2.868965e+003 2.882108e+002 1.801602e+002 6.226964e+000 2.858109e+000 3.524049e-001 2.770571e-001 1.509546e+000 7.345983e+000 7.282295e+000 4.895006e+000
<GCONST> 1.316664e+002
<TRANSP> 5
 0.000000e+000 1.000000e+000 0.000000e+000 0.000000e+000 0.000000e+000
 0.000000e+000 8.169649e-001 1.830351e-001 0.000000e+000 0.000000e+000
 0.000000e+000 0.000000e+000 9.652948e-001 3.470515e-002 0.000000e+000
 0.000000e+000 0.000000e+000 0.000000e+000 9.157666e-001 8.423335e-002
 0.000000e+000 0.000000e+000 0.000000e+000 0.000000e+000 0.000000e+000
<ENDHMM>
~h "CP"
<BEGINHMM>
<NUMSTATES> 5
<STATE> 2
<NUMMIXES> 2
<MIXTURE> 1 5.000000e-001
<MEAN> 22
 1.755755e+001 1.440332e+001 7.378842e+000 6.073447e+000 1.442925e+002 1.171715e+002 1.041884e+002 1.034243e+002 7.121595e+001 6.629127e+001 1.670754e+002 1.723260e+002 1.152322e+002 1.123349e+002 3.806099e+000 4.215539e+000 5.948530e+000 5.170579e+000 4.936241e+000 5.009972e+000 3.245129e+000 3.237111e+000
<VARIANCE> 22
 6.716606e+002 4.037375e+002 3.939321e+002 2.278308e+002 2.062067e+004 1.155715e+004 2.403372e+003 2.512664e+003 7.656512e+002 6.800766e+002 5.603705e+003 4.963031e+003 1.885466e+003 1.652042e+003 1.102434e+001 2.595536e+000 6.525323e+000 3.339135e+000 6.930798e+000 4.562925e+000 5.689676e+000 5.827746e+000
<GCONST> 1.578975e+002
<MIXTURE> 2 5.000000e-001
<MEAN> 22
 7.190988e+000 6.366036e+000 -5.602466e-001 3.582111e-002 8.685291e+001 7.416984e+001 8.457874e+001 8.337368e+001 6.014779e+001 5.585995e+001 1.371322e+002 1.441465e+002 9.786341e+001 9.607674e+001 2.477983e+000 3.571113e+000 4.926742e+000 4.439647e+000 3.883185e+000 4.155532e+000 2.291007e+000 2.271482e+000
<VARIANCE> 22
 6.716606e+002 4.037375e+002 3.939321e+002 2.278308e+002 2.062067e+004 1.155715e+004 2.403372e+003 2.512664e+003 7.656512e+002 6.800766e+002 5.603705e+003 4.963031e+003 1.885466e+003 1.652042e+003 1.102434e+001 2.595536e+000 6.525323e+000 3.339135e+000 6.930798e+000 4.562925e+000 5.689676e+000 5.827746e+000
<GCONST> 1.578975e+002
<STATE> 3
<NUMMIXES> 2
<MIXTURE> 1 5.000000e-001
<MEAN> 22
 1.113710e+001 1.143267e+001 2.848889e+000 2.825984e+000 5.856012e+001 5.437918e+001 6.931105e+001 7.261416e+001 6.906557e+001 6.591692e+001 1.429596e+002 1.453044e+002 1.063428e+002 1.060365e+002 3.306428e+000 4.398604e+000 6.719774e+000 5.432852e+000 5.880522e+000 5.798947e+000 3.913499e+000 3.734738e+000
<VARIANCE> 22
 8.547343e+001 8.495009e+001 9.117737e+000 8.429347e+000 6.767667e+002 6.454506e+002 3.983110e+002 5.047988e+002 1.365222e+002 1.480144e+002 7.891639e+002 8.498539e+002 1.097822e+002 1.145783e+002 1.087556e+001 5.271060e-001 2.526984e-001 2.325338e-001 1.110790e+000 2.596064e+000 5.265245e+000 5.115644e+000
<GCONST> 1.148981e+002
<MIXTURE> 2 5.000000e-001
<MEAN> 22
 7.439023e+000 7.745936e+000 1.641065e+000 1.664650e+000 4.815422e+001 4.421690e+001 6.132796e+001 6.362707e+001 6.439187e+001 6.105048e+001 1.317228e+002 1.336436e+002 1.021518e+002 1.017549e+002 1.987304e+000 4.108196e+000 6.518698e+000 5.239964e+000 5.458946e+000 5.154455e+000 2.995655e+000 2.830026e+000
<VARIANCE> 22
 8.547343e+001 8.495009e+001 9.117737e+000 8.429347e+000 6.767667e+002 6.454506e+002 3.983110e+002 5.047988e+002 1.365222e+002 1.480144e+002 7.891639e+002 8.498539e+002 1.097822e+002 1.145783e+002 1.087556e+001 5.271060e-001 2.526984e-001 2.325338e-001 1.110790e+000 2.596064e+000 5.265245e+000 5.115644e+000
<GCONST> 1.148981e+002
<STATE> 4
<NUMMIXES> 2
<MIXTURE> 1 5.000000e-001
<MEAN> 22
 9.683589e+000 9.114221e+000 2.616335e+000 2.694581e+000 4.363824e+001 3.704957e+001 9.456673e+001 9.491314e+001 6.877786e+001 6.500243e+001 1.887113e+002 1.893491e+002 1.194544e+002 1.186341e+002 7.015977e+000 4.994730e+000 6.406154e+000 5.695144e+000 6.042336e+000 6.011317e+000 4.272144e+000 4.060955e+000
<VARIANCE> 22
 6.876760e+001 6.170553e+001 6.156871e+000 6.334938e+000 1.103494e+003 6.175890e+002 4.938347e+002 3.817672e+002 1.108044e+002 1.079806e+002 6.886311e+002 5.854421e+002 1.803838e+002 1.409177e+002 1.445818e+000 8.079473e-002 2.468443e-001 2.519243e-001 9.311706e-002 1.734092e-001 5.595772e+000 5.766779e+000
<GCONST> 1.048925e+002
<MIXTURE> 2 5.000000e-001
<MEAN> 22
 6.366540e+000 5.972106e+000 1.623813e+000 1.687809e+000 3.035069e+001 2.710903e+001 8.567777e+001 8.709759e+001 6.456732e+001 6.084587e+001 1.782146e+002 1.796707e+002 1.140822e+002 1.138857e+002 6.535009e+000 4.881032e+000 6.207420e+000 5.494376e+000 5.920276e+000 5.844747e+000 3.325928e+000 3.100390e+000
<VARIANCE> 22
 6.876760e+001 6.170553e+001 6.156871e+000 6.334938e+000 1.103494e+003 6.175890e+002 4.938347e+002 3.817672e+002 1.108044e+002 1.079806e+002 6.886311e+002 5.854421e+002 1.803838e+002 1.409177e+002 1.445818e+000 8.079473e-002 2.468443e-001 2.519243e-001 9.311706e-002 1.734092e-001 5.595772e+000 5.766779e+000
<GCONST> 1.048925e+002
<TRANSP> 5
 0.000000e+000 1.000000e+000 0.000000e+000 0.000000e+000 0.000000e+000
 0.000000e+000 6.896078e-001 3.103922e-001 0.000000e+000 0.000000e+000
 0.000000e+000 0.000000e+000 9.419816e-001 5.801841e-002 0.000000e+000
 0.000000e+000 0.000000e+000 0.000000e+000 9.320229e-001 6.797706e-002
 0.000000e+000 0.000000e+000 0.000000e+000 0.000000e+000 0.000000e+000
<ENDHMM>
~h "CV"
<BEGINHMM>
<NUMSTATES> 5
<STATE> 2
<NUMMIXES> 2
<MIXTURE> 1 5.000000e-001
<MEAN> 22
 1.942747e+001 1.911034e+001 6.631374e+000 5.871267e+000 8.587426e+001 7.700906e+001 8.371204e+001 8.054178e+001 6.705707e+001 6.109517e+001 1.553417e+002 1.543733e+002 1.142269e+002 1.134026e+002 5.182014e+000 4.484185e+000 6.281335e+000 5.751031e+000 5.315318e+000 5.340838e+000 3.159686e+000 2.847385e+000
<VARIANCE> 22
 5.404931e+002 4.460836e+002 2.476079e+002 1.589042e+002 7.355368e+003 5.204999e+003 9.756284e+002 8.338173e+002 1.572775e+002 1.083889e+002 3.475363e+003 2.887587e+003 3.220772e+002 2.892339e+002 9.015407e+000 1.218452e+000 1.986318e+000 5.722551e-001 2.091141e+000 4.791190e+000 3.620485e+000 3.887964e+000
<GCONST> 1.392571e+002
<MIXTURE> 2 5.000000e-001
<MEAN> 22
 1.012807e+001 1.066206e+001 3.371497e-001 8.289787e-001 5.156889e+001 4.815079e+001 7.121802e+001 6.899142e+001 6.204065e+001 5.693077e+001 1.317609e+002 1.328788e+002 1.070483e+002 1.065998e+002 3.980988e+000 4.042651e+000 5.717587e+000 5.448441e+000 4.736887e+000 4.465287e+000 2.398584e+000 2.058669e+000
<VARIANCE> 22
 5.404931e+002 4.460836e+002 2.476079e+002 1.589042e+002 7.355368e+003 5.204999e+003 9.756284e+002 8.338173e+002 1.572775e+002 1.083889e+002 3.475363e+003 2.887587e+003 3.220772e+002 2.892339e+002 9.015407e+000 1.218452e+000 1.986318e+000 5.722551e-001 2.091141e+000 4.791190e+000 3.620485e+000 3.887964e+000
<GCONST> 1.392571e+002
<STATE> 3
<NUMMIXES> 2
<MIXTURE> 1 5.000000e-001
<MEAN> 22
 1.048646e+001 1.046463e+001 2.397695e+000 2.623774e+000 1.411564e+002 1.390519e+002 8.085660e+001 8.085692e+001 6.714169e+001 6.372418e+001 5.897577e+001 6.078394e+001 1.068777e+002 1.070841e+002 1.594289e+000 2.623522e+000 6.420123e+000 5.278442e+000 3.074644e+000 1.344784e+000 3.958143e+000 3.872623e+000
<VARIANCE> 22
 1.251971e+002 1.150806e+002 7.789110e+000 9.503443e+000 2.254149e+003 1.795640e+003 7.048254e+002 7.579768e+002 1.044351e+002 9.639630e+001 4.107411e+002 4.034258e+002 1.882222e+002 1.510892e+002 3.816546e-001 3.795025e-001 4.619938e+000 5.269729e-001 4.420159e-001 5.358535e-001 5.680336e+000 5.946961e+000
<GCONST> 1.152432e+002
<MIXTURE> 2 5.000000e-001
<MEAN> 22
 6.010798e+000 6.173602e+000 1.281335e+000 1.390668e+000 1.221652e+002 1.221019e+002 7.023718e+001 6.984436e+001 6.305395e+001 5.979692e+001 5.086907e+001 5.274976e+001 1.013899e+002 1.021673e+002 1.347177e+000 2.377106e+000 5.560361e+000 4.988070e+000 2.808706e+000 1.051976e+000 3.004805e+000 2.897167e+000
<VARIANCE> 22
 1.251971e+002 1.150806e+002 7.789110e+000 9.503443e+000 2.254149e+003 1.795640e+003 7.048254e+002 7.579768e+002 1.044351e+002 9.639630e+001 4.107411e+002 4.034258e+002 1.882222e+002 1.510892e+002 3.816546e-001 3.795025e-001 4.619938e+000 5.269729e-001 4.420159e-001 5.358535e-001 5.680336e+000 5.946961e+000
<GCONST> 1.152432e+002
<STATE> 4
<NUMMIXES> 2
<MIXTURE> 1 5.000000e-001
<MEAN> 22
 1.586912e+001 1.566360e+001 3.743713e+000 3.519346e+000 4.760052e+001 4.183737e+001 8.406946e+001 8.590767e+001 6.803536e+001 6.100943e+001 1.736521e+002 1.793199e+002 1.156058e+002 1.143353e+002 6.043999e+000 4.894632e+000 6.289318e+000 5.872531e+000 5.718838e+000 6.095861e+000 4.840789e+000 4.640998e+000
<VARIANCE> 22
 1.903876e+002 2.077178e+002 1.301215e+001 1.131991e+001 1.269265e+003 9.554582e+002 1.072238e+003 8.649479e+002 1.154057e+002 7.572449e+001 2.204518e+003 1.496773e+003 1.994034e+002 1.521822e+002 6.897843e+000 5.997067e-001 1.823580e-001 1.702468e-001 8.145956e-001 1.639058e+000 6.280845e+000 5.041874e+000
<GCONST> 1.198568e+002
<MIXTURE> 2 5.000000e-001
<MEAN> 22
 1.034988e+001 9.898637e+000 2.300819e+000 2.173544e+000 3.334982e+001 2.947317e+001 7.097144e+001 7.414368e+001 6.373828e+001 5.752864e+001 1.548711e+002 1.638447e+002 1.099574e+002 1.094009e+002 4.993449e+000 4.584869e+000 6.118504e+000 5.707487e+000 5.357818e+000 5.583758e+000 3.838325e+000 3.742834e+000
<VARIANCE> 22
 1.903876e+002 2.077178e+002 1.301215e+001 1.131991e+001 1.269265e+003 9.554582e+002 1.072238e+003 8.649479e+002 1.154057e+002 7.572449e+001 2.204518e+003 1.496773e+003 1.994034e+002 1.521822e+002 6.897843e+000 5.997067e-001 1.823580e-001 1.702468e-001 8.145956e-001 1.639058e+000 6.280845e+000 5.041874e+000
<GCONST> 1.198568e+002
<TRANSP> 5
 0.000000e+000 1.000000e+000 0.000000e+000 0.000000e+000 0.000000e+000
 0.000000e+000 8.263590e-001 1.736410e-001 0.000000e+000 0.000000e+000
 0.000000e+000 0.000000e+000 9.548081e-001 4.519188e-002 0.000000e+000
 0.000000e+000 0.000000e+000 0.000000e+000 8.979154e-001 1.020846e-001
 0.000000e+000 0.000000e+000 0.000000e+000 0.000000e+000 0.000000e+000
<ENDHMM>
~h "DC"
<BEGINHMM>
<NUMSTATES> 5
<STATE> 2
<NUMMIXES> 2
<MIXTURE> 1 5.000000e-001
<MEAN> 22
 1.732253e+001 1.660213e+001 7.318755e+000 6.772281e+000 1.069708e+002 9.809255e+001 7.313756e+001 7.228732e+001 6.877554e+001 6.425797e+001 1.471192e+002 1.479429e+002 1.140123e+002 1.119990e+002 4.647553e+000 4.271574e+000 6.237889e+000 5.812470e+000 5.243662e+000 5.311883e+000 2.932282e+000 2.465194e+000
<VARIANCE> 22
 4.793079e+002 3.887375e+002 3.427336e+002 2.273503e+002 1.128184e+004 7.766242e+003 1.246808e+003 1.092099e+003 2.121214e+002 1.671756e+002 3.091737e+003 2.818958e+003 5.309548e+002 4.474612e+002 9.451420e+000 1.943983e+000 1.174403e+000 8.856336e-001 1.862640e+000 6.505765e+000 3.173639e+000 3.451710e+000
<GCONST> 1.429184e+002
<MIXTURE> 2 5.000000e-001
<MEAN> 22
 8.565289e+000 8.715565e+000 -8.647116e-002 7.410251e-001 6.448441e+001 6.284204e+001 5.901349e+001 5.906855e+001 6.294979e+001 5.908611e+001 1.248778e+002 1.267053e+002 1.047953e+002 1.035376e+002 3.417827e+000 3.713866e+000 5.804410e+000 5.436038e+000 4.697748e+000 4.291627e+000 2.219694e+000 1.722042e+000
<VARIANCE> 22
 4.793079e+002 3.887375e+002 3.427336e+002 2.273503e+002 1.128184e+004 7.766242e+003 1.246808e+003 1.092099e+003 2.121214e+002 1.671756e+002 3.091737e+003 2.818958e+003 5.309548e+002 4.474612e+002 9.451420e+000 1.943983e+000 1.174403e+000 8.856336e-001 1.862640e+000 6.505765e+000 3.173639e+000 3.451710e+000
<GCONST> 1.429184e+002
<STATE> 3
<NUMMIXES> 2
<MIXTURE> 1 5.000000e-001
<MEAN> 22
 1.406360e+001 1.493924e+001 2.499101e+000 2.545616e+000 1.292173e+002 1.257006e+002 5.149117e+001 5.352341e+001 6.720273e+001 6.496793e+001 7.671304e+001 7.722318e+001 1.017254e+002 1.024668e+002 2.116452e+000 2.315074e+000 6.077754e+000 6.009154e+000 3.873252e+000 7.082170e-001 3.241779e+000 3.080424e+000
<VARIANCE> 22
 2.074395e+002 2.313763e+002 1.173145e+001 9.774470e+000 1.533333e+003 1.261833e+003 6.073575e+002 6.126482e+002 9.229950e+001 1.232847e+002 4.655679e+002 4.875469e+002 1.372355e+002 1.410121e+002 7.556627e-001 8.374959e-001 2.791767e-001 3.587053e-001 2.967600e-001 1.236133e+000 5.571922e+000 5.774266e+000
<GCONST> 1.145090e+002
<MIXTURE> 2 5.000000e-001
<MEAN> 22
 8.302498e+000 8.854818e+000 1.129053e+000 1.295050e+000 1.135541e+002 1.114916e+002 4.163332e+001 4.362271e+001 6.335982e+001 6.052658e+001 6.808222e+001 6.839099e+001 9.703954e+001 9.771683e+001 1.768736e+000 1.949014e+000 5.866406e+000 5.769586e+000 3.655350e+000 2.634910e-001 2.297583e+000 2.119236e+000
<VARIANCE> 22
 2.074395e+002 2.313763e+002 1.173145e+001 9.774470e+000 1.533333e+003 1.261833e+003 6.073575e+002 6.126482e+002 9.229950e+001 1.232847e+002 4.655679e+002 4.875469e+002 1.372355e+002 1.410121e+002 7.556627e-001 8.374959e-001 2.791767e-001 3.587053e-001 2.967600e-001 1.236133e+000 5.571922e+000 5.774266e+000
<GCONST> 1.145090e+002
<STATE> 4
<NUMMIXES> 2
<MIXTURE> 1 5.000000e-001
<MEAN> 22
 1.648655e+001 1.611246e+001 3.750224e+000 3.420766e+000 4.789062e+001 4.240749e+001 8.211718e+001 8.128999e+001 6.696954e+001 6.217929e+001 1.741831e+002 1.756634e+002 1.129182e+002 1.127557e+002 6.273857e+000 4.989859e+000 6.325658e+000 5.847875e+000 5.762828e+000 6.303043e+000 4.780350e+000 4.530458e+000
<VARIANCE> 22
 2.116809e+002 2.208897e+002 1.250270e+001 1.076266e+001 1.287736e+003 9.289551e+002 1.096590e+003 9.174279e+002 1.052744e+002 9.661108e+001 1.581155e+003 1.352003e+003 1.755288e+002 1.521561e+002 5.886496e+000 4.473850e-001 2.094968e-001 1.961875e-001 5.192093e-001 8.027419e-001 7.161193e+000 4.321361e+000
<GCONST> 1.182332e+002
<MIXTURE> 2 5.000000e-001
<MEAN> 22
 1.066685e+001 1.016752e+001 2.335858e+000 2.108506e+000 3.353661e+001 3.021599e+001 6.887125e+001 6.917436e+001 6.286541e+001 5.824765e+001 1.582776e+002 1.609556e+002 1.076188e+002 1.078217e+002 5.303373e+000 4.722311e+000 6.142574e+000 5.670702e+000 5.474603e+000 5.944660e+000 3.709934e+000 3.698943e+000
<VARIANCE> 22
 2.116809e+002 2.208897e+002 1.250270e+001 1.076266e+001 1.287736e+003 9.289551e+002 1.096590e+003 9.174279e+002 1.052744e+002 9.661108e+001 1.581155e+003 1.352003e+003 1.755288e+002 1.521561e+002 5.886496e+000 4.473850e-001 2.094968e-001 1.961875e-001 5.192093e-001 8.027419e-001 7.161193e+000 4.321361e+000
<GCONST> 1.182332e+002
<TRANSP> 5
 0.000000e+000 1.000000e+000 0.000000e+000 0.000000e+000 0.000000e+000
 0.000000e+000 8.798644e-001 1.201356e-001 0.000000e+000 0.000000e+000
 0.000000e+000 0.000000e+000 9.559542e-001 4.404584e-002 0.000000e+000
 0.000000e+000 0.000000e+000 0.000000e+000 8.982665e-001 1.017335e-001
 0.000000e+000 0.000000e+000 0.000000e+000 0.000000e+000 0.000000e+000
<ENDHMM>
~h "FM"
<BEGINHMM>
<NUMSTATES> 5
<STATE> 2
<NUMMIXES> 2
<MIXTURE> 1 5.000000e-001
<MEAN> 22
 1.226430e+001 8.549664e+000 6.409101e+000 4.677912e+000 6.483132e+001 2.465824e+001 7.959186e+001 1.017453e+002 9.964496e+001 6.779345e+001 1.612311e+002 2.001260e+002 1.214881e+002 1.230054e+002 3.505378e+000 4.941716e+000 6.670246e+000 5.877408e+000 5.518013e+000 6.107539e+000 3.600156e+000 2.577255e+000
<VARIANCE> 22
 4.206852e+002 4.127971e+002 3.029235e+002 1.966860e+002 1.322907e+003 7.837987e+002 1.054257e+003 5.353556e+002 5.356425e+002 2.680201e+002 1.818278e+003 1.260030e+003 3.180770e+002 1.916462e+002 1.126534e+001 2.649878e-001 3.476181e-001 1.998207e-001 4.483656e-001 7.460740e-001 6.720225e+000 5.647265e+000
<GCONST> 1.290934e+002
<MIXTURE> 2 5.000000e-001
<MEAN> 22
 4.060052e+000 4.227005e-001 -5.527774e-001 -9.318798e-001 5.028260e+001 1.345968e+001 6.660413e+001 9.249019e+001 9.038737e+001 6.124492e+001 1.441745e+002 1.859272e+002 1.143543e+002 1.174680e+002 2.162823e+000 4.735808e+000 6.434409e+000 5.698602e+000 5.250173e+000 5.762037e+000 2.563220e+000 1.626696e+000
<VARIANCE> 22
 4.206852e+002 4.127971e+002 3.029235e+002 1.966860e+002 1.322907e+003 7.837987e+002 1.054257e+003 5.353556e+002 5.356425e+002 2.680201e+002 1.818278e+003 1.260030e+003 3.180770e+002 1.916462e+002 1.126534e+001 2.649878e-001 3.476181e-001 1.998207e-001 4.483656e-001 7.460740e-001 6.720225e+000 5.647265e+000
<GCONST> 1.290934e+002
<STATE> 3
<NUMMIXES> 2
<MIXTURE> 1 5.000000e-001
<MEAN> 22
 1.999724e+000 8.860021e+000 9.490488e-001 2.670117e+000 1.388076e+001 6.179054e+001 9.808959e+001 6.966167e+001 5.949762e+001 8.995473e+001 1.966990e+002 1.452853e+002 1.170583e+002 1.088811e+002 7.055830e+000 4.377070e+000 6.105293e+000 5.431122e+000 6.023310e+000 6.594346e+000 2.201805e+000 3.687953e+000
<VARIANCE> 22
 8.213905e+000 5.805609e+001 3.300596e+000 9.388388e+000 3.430466e+002 6.296689e+002 2.421726e+002 5.771632e+002 7.123424e+001 3.527419e+002 4.819621e+002 9.551601e+002 1.637927e+002 1.572194e+002 1.649096e-001 2.773060e-001 6.634295e-002 2.345509e-001 2.082488e-002 5.660107e-001 5.661642e+000 5.757311e+000
<GCONST> 9.928809e+001
<MIXTURE> 2 5.000000e-001
<MEAN> 22
 8.533277e-001 5.812239e+000 2.223470e-001 1.444498e+000 6.472157e+000 5.175326e+001 9.186483e+001 6.005198e+001 5.612160e+001 8.244215e+001 1.879176e+002 1.329231e+002 1.119391e+002 1.038657e+002 6.893394e+000 4.166431e+000 6.002265e+000 5.237400e+000 5.965587e+000 6.293411e+000 1.250037e+000 2.728177e+000
<VARIANCE> 22
 8.213905e+000 5.805609e+001 3.300596e+000 9.388388e+000 3.430466e+002 6.296689e+002 2.421726e+002 5.771632e+002 7.123424e+001 3.527419e+002 4.819621e+002 9.551601e+002 1.637927e+002 1.572194e+002 1.649096e-001 2.773060e-001 6.634295e-002 2.345509e-001 2.082488e-002 5.660107e-001 5.661642e+000 5.757311e+000
<GCONST> 9.928809e+001
<STATE> 4
<NUMMIXES> 2
<MIXTURE> 1 5.000000e-001
<MEAN> 22
 7.158177e+000 5.538975e+000 1.880314e+000 1.888168e+000 1.040639e+002 7.854785e+001 6.229626e+001 6.613029e+001 7.710494e+001 6.277133e+001 1.383748e+002 1.441361e+002 1.046981e+002 1.039495e+002 3.632400e+000 4.185785e+000 6.291763e+000 5.655201e+000 5.271757e+000 5.324967e+000 2.970982e+000 2.850343e+000
<VARIANCE> 22
 7.056623e+001 4.781817e+001 5.742603e+000 7.211205e+000 1.478369e+004 9.034040e+003 1.014673e+003 1.119527e+003 6.788582e+002 3.768005e+002 2.193742e+003 2.801851e+003 6.988314e+002 6.915817e+002 1.070331e+001 2.220434e+000 2.395546e+000 1.883133e+000 1.958176e+000 7.116941e+000 5.964091e+000 6.353212e+000
<GCONST> 1.370497e+002
<MIXTURE> 2 5.000000e-001
<MEAN> 22
 3.798029e+000 2.772947e+000 9.217654e-001 8.140203e-001 5.542861e+001 4.052883e+001 4.955470e+001 5.274655e+001 6.668298e+001 5.500679e+001 1.196398e+002 1.229631e+002 9.412395e+001 9.343037e+001 2.323764e+000 3.589741e+000 5.672661e+000 5.106292e+000 4.712018e+000 4.257864e+000 1.994122e+000 1.842119e+000
<VARIANCE> 22
 7.056623e+001 4.781817e+001 5.742603e+000 7.211205e+000 1.478369e+004 9.034040e+003 1.014673e+003 1.119527e+003 6.788582e+002 3.768005e+002 2.193742e+003 2.801851e+003 6.988314e+002 6.915817e+002 1.070331e+001 2.220434e+000 2.395546e+000 1.883133e+000 1.958176e+000 7.116941e+000 5.964091e+000 6.353212e+000
<GCONST> 1.370497e+002
<TRANSP> 5
 0.000000e+000 1.000000e+000 0.000000e+000 0.000000e+000 0.000000e+000
 0.000000e+000 8.713133e-001 1.286867e-001 0.000000e+000 0.000000e+000
 0.000000e+000 0.000000e+000 9.537559e-001 4.624411e-002 0.000000e+000
 0.000000e+000 0.000000e+000 0.000000e+000 8.793220e-001 1.206780e-001
 0.000000e+000 0.000000e+000 0.000000e+000 0.000000e+000 0.000000e+000
<ENDHMM>
~h "FN"
<BEGINHMM>
<NUMSTATES> 5
<STATE> 2
<NUMMIXES> 2
<MIXTURE> 1 5.000000e-001
<MEAN> 22
 1.810362e+001 1.738700e+001 1.073389e+001 8.865061e+000 1.588832e+002 1.428792e+002 9.751926e+001 9.645229e+001 7.342891e+001 6.621310e+001 1.435266e+002 1.311081e+002 1.093063e+002 1.096730e+002 4.645278e+000 3.705698e+000 5.370690e+000 5.247118e+000 4.899426e+000 3.942433e+000 3.213444e+000 2.987104e+000
<VARIANCE> 22
 1.324080e+003 9.589650e+002 9.954703e+002 5.864034e+002 2.541659e+004 1.551625e+004 1.962137e+003 1.415698e+003 5.499803e+002 3.642995e+002 6.180893e+003 6.825084e+003 1.274834e+003 9.005901e+002 7.811536e+000 2.769623e+000 6.071702e+000 2.825196e+000 3.032150e+000 6.950666e+000 6.487715e+000 5.548947e+000
<GCONST> 1.586620e+002
<MIXTURE> 2 5.000000e-001
<MEAN> 22
 3.548458e+000 5.000138e+000 -1.886537e+000 -8.212456e-001 9.511284e+001 9.305345e+001 7.980086e+001 8.140199e+001 6.404825e+001 5.857845e+001 1.120792e+002 9.806248e+001 9.502434e+001 9.766903e+001 3.527313e+000 3.040010e+000 4.385057e+000 4.574786e+000 4.202904e+000 2.887869e+000 2.194604e+000 2.044856e+000
<VARIANCE> 22
 1.324080e+003 9.589650e+002 9.954703e+002 5.864034e+002 2.541659e+004 1.551625e+004 1.962137e+003 1.415698e+003 5.499803e+002 3.642995e+002 6.180893e+003 6.825084e+003 1.274834e+003 9.005901e+002 7.811536e+000 2.769623e+000 6.071702e+000 2.825196e+000 3.032150e+000 6.950666e+000 6.487715e+000 5.548947e+000
<GCONST> 1.586620e+002
<STATE> 3
<NUMMIXES> 2
<MIXTURE> 1 5.000000e-001
<MEAN> 22
 2.019382e+000 1.618146e+001 9.474416e-001 3.885693e+000 1.341895e+001 1.434165e+002 9.533148e+001 1.008744e+002 5.978357e+001 6.954969e+001 1.942227e+002 8.378728e+001 1.152374e+002 1.036801e+002 7.045523e+000 3.128294e+000 6.128190e+000 5.006875e+000 6.025363e+000 2.993021e+000 2.136697e+000 3.963924e+000
<VARIANCE> 22
 8.695551e+000 2.250706e+002 3.300596e+000 1.594434e+001 3.925498e+002 4.385382e+003 2.418213e+002 1.060827e+003 5.768159e+001 1.534146e+002 5.992512e+002 4.040190e+003 1.372262e+002 2.381672e+002 2.326512e-001 1.505082e+000 1.123743e-001 1.430733e+000 7.349533e-002 5.205630e+000 5.462437e+000 5.482153e+000
<GCONST> 1.125333e+002
<MIXTURE> 2 5.000000e-001
<MEAN> 22
 8.398536e-001 1.018052e+001 2.207399e-001 2.288479e+000 5.493800e+000 1.169277e+002 8.911124e+001 8.784629e+001 5.674563e+001 6.459527e+001 1.844309e+002 5.836229e+001 1.105516e+002 9.750706e+001 6.852587e+000 2.637568e+000 5.994100e+000 4.528422e+000 5.916923e+000 2.080387e+000 1.201823e+000 3.027364e+000
<VARIANCE> 22
 8.695551e+000 2.250706e+002 3.300596e+000 1.594434e+001 3.925498e+002 4.385382e+003 2.418213e+002 1.060827e+003 5.768159e+001 1.534146e+002 5.992512e+002 4.040190e+003 1.372262e+002 2.381672e+002 2.326512e-001 1.505082e+000 1.123743e-001 1.430733e+000 7.349533e-002 5.205630e+000 5.462437e+000 5.482153e+000
<GCONST> 1.125333e+002
<STATE> 4
<NUMMIXES> 2
<MIXTURE> 1 5.000000e-001
<MEAN> 22
 1.234577e+001 4.736712e+000 3.340873e+000 1.500963e+000 1.105099e+002 2.843673e+001 1.006790e+002 8.991429e+001 7.470692e+001 5.912733e+001 1.104140e+002 1.848361e+002 1.081906e+002 1.165872e+002 3.765212e+000 4.787485e+000 5.256800e+000 5.890608e+000 4.308187e+000 5.700933e+000 3.891122e+000 2.733527e+000
<VARIANCE> 22
 1.596374e+002 4.621775e+001 1.291042e+001 3.430554e+000 5.498898e+003 8.183514e+002 1.647941e+003 9.609852e+002 1.882900e+002 7.076357e+001 5.546157e+003 2.148542e+003 3.669636e+002 1.711604e+002 6.156231e+000 1.192465e+000 6.530202e+000 1.794290e-001 2.322918e+000 4.049060e+000 6.326600e+000 6.154199e+000
<GCONST> 1.276189e+002
<MIXTURE> 2 5.000000e-001
<MEAN> 22
 7.291859e+000 2.017367e+000 1.903630e+000 7.600929e-001 8.084813e+001 1.699399e+001 8.444103e+001 7.751439e+001 6.921817e+001 5.576249e+001 8.062494e+001 1.662951e+002 1.005280e+002 1.113540e+002 2.772742e+000 4.350685e+000 4.234630e+000 5.721172e+000 3.698543e+000 4.896043e+000 2.885012e+000 1.741221e+000
<VARIANCE> 22
 1.596374e+002 4.621775e+001 1.291042e+001 3.430554e+000 5.498898e+003 8.183514e+002 1.647941e+003 9.609852e+002 1.882900e+002 7.076357e+001 5.546157e+003 2.148542e+003 3.669636e+002 1.711604e+002 6.156231e+000 1.192465e+000 6.530202e+000 1.794290e-001 2.322918e+000 4.049060e+000 6.326600e+000 6.154199e+000
<GCONST> 1.276189e+002
<TRANSP> 5
 0.000000e+000 1.000000e+000 0.000000e+000 0.000000e+000 0.000000e+000
 0.000000e+000 7.331443e-001 2.668557e-001 0.000000e+000 0.000000e+000
 0.000000e+000 0.000000e+000 9.542687e-001 4.573130e-002 0.000000e+000
 0.000000e+000 0.000000e+000 0.000000e+000 9.217948e-001 7.820518e-002
 0.000000e+000 0.000000e+000 0.000000e+000 0.000000e+000 0.000000e+000
<ENDHMM>
~h "FU"
<BEGINHMM>
<NUMSTATES> 5
<STATE> 2
<NUMMIXES> 2
<MIXTURE> 1 5.000000e-001
<MEAN> 22
 1.214179e+001 4.668771e+000 3.098363e+000 1.396240e+000 1.290579e+002 3.235304e+001 1.066847e+002 9.320714e+001 6.725304e+001 5.713495e+001 8.962589e+001 1.884430e+002 1.044683e+002 1.139260e+002 3.686977e+000 4.960204e+000 4.416187e+000 5.891241e+000 3.996632e+000 6.034113e+000 3.614029e+000 2.539677e+000
<VARIANCE> 22
 2.175997e+002 4.616247e+001 1.332858e+001 3.006012e+000 6.209424e+003 1.288956e+003 9.552342e+002 4.268654e+002 1.806434e+002 6.408814e+001 5.363508e+003 1.267881e+003 2.676241e+002 1.558654e+002 5.345200e+000 3.528731e-001 7.640084e+000 2.161808e-001 2.226438e+000 9.880546e-001 6.301270e+000 5.467196e+000
<GCONST> 1.233445e+002
<MIXTURE> 2 5.000000e-001
<MEAN> 22
 6.241287e+000 1.951053e+000 1.638030e+000 7.027258e-001 9.753792e+001 1.799222e+001 9.432193e+001 8.494286e+001 6.187690e+001 5.393275e+001 6.033150e+001 1.742000e+002 9.792466e+001 1.089322e+002 2.762189e+000 4.722591e+000 3.310559e+000 5.705260e+000 3.399782e+000 5.636509e+000 2.609936e+000 1.604395e+000
<VARIANCE> 22
 2.175997e+002 4.616247e+001 1.332858e+001 3.006012e+000 6.209424e+003 1.288956e+003 9.552342e+002 4.268654e+002 1.806434e+002 6.408814e+001 5.363508e+003 1.267881e+003 2.676241e+002 1.558654e+002 5.345200e+000 3.528731e-001 7.640084e+000 2.161808e-001 2.226438e+000 9.880546e-001 6.301270e+000 5.467196e+000
<GCONST> 1.233445e+002
<STATE> 3
<NUMMIXES> 2
<MIXTURE> 1 5.000000e-001
<MEAN> 22
 1.987938e+000 1.153121e+001 9.556268e-001 2.627959e+000 1.140205e+001 1.717005e+002 9.309629e+001 1.076243e+002 5.781093e+001 6.526731e+001 1.908678e+002 3.792483e+001 1.132207e+002 9.809574e+001 7.050988e+000 2.278265e+000 6.120317e+000 4.584725e+000 6.027222e+000 1.602705e+000 2.082485e+000 3.312747e+000
<VARIANCE> 22
 9.598590e+000 1.895815e+002 3.300596e+000 8.298068e+000 3.253719e+002 1.917124e+003 2.594025e+002 7.207195e+002 7.019445e+001 1.666001e+002 6.366166e+002 1.032302e+003 1.777899e+002 1.669911e+002 2.339086e-001 3.054962e-001 8.943877e-002 2.042709e+000 7.633594e-002 1.061747e+000 5.453413e+000 6.399626e+000
<GCONST> 1.064944e+002
<MIXTURE> 2 5.000000e-001
<MEAN> 22
 7.486742e-001 6.023669e+000 2.289251e-001 1.475705e+000 4.186826e+000 1.541865e+002 8.665389e+001 9.688585e+001 5.445964e+001 6.010437e+001 1.807753e+002 2.507305e+001 1.078871e+002 9.292673e+001 6.857532e+000 2.057178e+000 6.000691e+000 4.013031e+000 5.916706e+000 1.190541e+000 1.148383e+000 2.300847e+000
<VARIANCE> 22
 9.598590e+000 1.895815e+002 3.300596e+000 8.298068e+000 3.253719e+002 1.917124e+003 2.594025e+002 7.207195e+002 7.019445e+001 1.666001e+002 6.366166e+002 1.032302e+003 1.777899e+002 1.669911e+002 2.339086e-001 3.054962e-001 8.943877e-002 2.042709e+000 7.633594e-002 1.061747e+000 5.453413e+000 6.399626e+000
<GCONST> 1.064944e+002
<STATE> 4
<NUMMIXES> 2
<MIXTURE> 1 5.000000e-001
<MEAN> 22
 7.393353e+000 1.760209e+001 3.573549e+000 5.256628e+000 1.004981e+002 9.958741e+001 9.305838e+001 7.984919e+001 6.190582e+001 6.210351e+001 1.762328e+002 1.553396e+002 1.135248e+002 1.070826e+002 6.135507e+000 4.481567e+000 5.946711e+000 5.623052e+000 5.535283e+000 5.425237e+000 3.085570e+000 4.035389e+000
<VARIANCE> 22
 1.933945e+002 3.927946e+002 9.660754e+001 8.135026e+001 2.026332e+004 1.178884e+004 1.326137e+003 1.327887e+003 3.462700e+002 3.992702e+002 5.147518e+003 4.032938e+003 1.101392e+003 9.886993e+002 5.912325e+000 2.562675e+000 2.751134e+000 2.310685e+000 2.668407e+000 5.639488e+000 6.770915e+000 5.977305e+000
<GCONST> 1.478792e+002
<MIXTURE> 2 5.000000e-001
<MEAN> 22
 1.830699e+000 9.674471e+000 -3.580166e-001 1.648852e+000 4.355843e+001 5.615684e+001 7.849191e+001 6.527311e+001 5.446249e+001 5.411081e+001 1.475344e+002 1.299374e+002 1.002500e+002 9.450518e+001 5.162897e+000 3.841233e+000 5.283249e+000 5.015014e+000 4.881873e+000 4.475333e+000 2.044730e+000 3.057448e+000
<VARIANCE> 22
 1.933945e+002 3.927946e+002 9.660754e+001 8.135026e+001 2.026332e+004 1.178884e+004 1.326137e+003 1.327887e+003 3.462700e+002 3.992702e+002 5.147518e+003 4.032938e+003 1.101392e+003 9.886993e+002 5.912325e+000 2.562675e+000 2.751134e+000 2.310685e+000 2.668407e+000 5.639488e+000 6.770915e+000 5.977305e+000
<GCONST> 1.478792e+002
<TRANSP> 5
 0.000000e+000 1.000000e+000 0.000000e+000 0.000000e+000 0.000000e+000
 0.000000e+000 9.292011e-001 7.079887e-002 0.000000e+000 0.000000e+000
 0.000000e+000 0.000000e+000 9.406562e-001 5.934375e-002 0.000000e+000
 0.000000e+000 0.000000e+000 0.000000e+000 8.601371e-001 1.398629e-001
 0.000000e+000 0.000000e+000 0.000000e+000 0.000000e+000 0.000000e+000
<ENDHMM>
~h "MC"
<BEGINHMM>
<NUMSTATES> 5
<STATE> 2
<NUMMIXES> 2
<MIXTURE> 1 5.000000e-001
<MEAN> 22
 1.461254e+001 1.680237e+001 8.476671e+000 6.460854e+000 7.849453e+001 6.273360e+001 8.713322e+001 8.666057e+001 8.073997e+001 6.868881e+001 1.567809e+002 1.666213e+002 1.201714e+002 1.185590e+002 4.682876e+000 4.397364e+000 6.473125e+000 5.917161e+000 5.151471e+000 5.069208e+000 3.447006e+000 2.917751e+000
<VARIANCE> 22
 5.934637e+002 9.156998e+002 4.862312e+002 2.853965e+002 3.523695e+003 3.277534e+003 1.539522e+003 1.160083e+003 3.967064e+002 1.914843e+002 4.917415e+003 3.630883e+003 5.886103e+002 2.742511e+002 8.482678e+000 1.780225e+000 4.196450e-001 2.270226e-001 1.403651e+000 6.812791e+000 6.157333e+000 5.326916e+000
<GCONST> 1.421767e+002
<MIXTURE> 2 5.000000e-001
<MEAN> 22
 4.868092e+000 4.698154e+000 -3.435890e-001 -2.966194e-001 5.475024e+001 3.983370e+001 7.143852e+001 7.303658e+001 7.277297e+001 6.315370e+001 1.287311e+002 1.425185e+002 1.104668e+002 1.119348e+002 3.517874e+000 3.863664e+000 6.214005e+000 5.726573e+000 4.677568e+000 4.025155e+000 2.454448e+000 1.994547e+000
<VARIANCE> 22
 5.934637e+002 9.156998e+002 4.862312e+002 2.853965e+002 3.523695e+003 3.277534e+003 1.539522e+003 1.160083e+003 3.967064e+002 1.914843e+002 4.917415e+003 3.630883e+003 5.886103e+002 2.742511e+002 8.482678e+000 1.780225e+000 4.196450e-001 2.270226e-001 1.403651e+000 6.812791e+000 6.157333e+000 5.326916e+000
<GCONST> 1.421767e+002
<STATE> 3
<NUMMIXES> 2
<MIXTURE> 1 5.000000e-001
<MEAN> 22
 2.162403e+000 1.159389e+001 1.019866e+000 3.554926e+000 1.008155e+001 1.109759e+002 9.544983e+001 6.602598e+001 5.828455e+001 8.366541e+001 1.930848e+002 9.764757e+001 1.148546e+002 1.023670e+002 7.038273e+000 3.323040e+000 6.094145e+000 5.749143e+000 6.022830e+000 2.989702e+000 2.335722e+000 3.687826e+000
<VARIANCE> 22
 8.656833e+000 9.256000e+001 3.300596e+000 1.183522e+001 1.341189e+002 2.294726e+003 2.374309e+002 8.372664e+002 7.505215e+001 4.246312e+002 4.759220e+002 2.303000e+003 1.401571e+002 2.394849e+002 7.155456e-002 1.277849e+000 5.096939e-002 3.543316e-001 2.082488e-002 8.514291e+000 5.795152e+000 5.146384e+000
<GCONST> 1.055790e+002
<MIXTURE> 2 5.000000e-001
<MEAN> 22
 9.855031e-001 7.745567e+000 2.931646e-001 2.178832e+000 5.449158e+000 9.181454e+001 8.928632e+001 5.445176e+001 5.481924e+001 7.542278e+001 1.843586e+002 7.845174e+001 1.101190e+002 9.617683e+001 6.931275e+000 2.870872e+000 6.003839e+000 5.511040e+000 5.965106e+000 1.822532e+000 1.372797e+000 2.780400e+000
<VARIANCE> 22
 8.656833e+000 9.256000e+001 3.300596e+000 1.183522e+001 1.341189e+002 2.294726e+003 2.374309e+002 8.372664e+002 7.505215e+001 4.246312e+002 4.759220e+002 2.303000e+003 1.401571e+002 2.394849e+002 7.155456e-002 1.277849e+000 5.096939e-002 3.543316e-001 2.082488e-002 8.514291e+000 5.795152e+000 5.146384e+000
<GCONST> 1.055790e+002
<STATE> 4
<NUMMIXES> 2
<MIXTURE> 1 5.000000e-001
<MEAN> 22
 9.270742e+000 6.167737e+000 2.838830e+000 2.142256e+000 9.443939e+001 5.175963e+001 6.637832e+001 8.109240e+001 7.788885e+001 6.287476e+001 1.218823e+002 1.660887e+002 1.084415e+002 1.112792e+002 3.563591e+000 4.485264e+000 6.312143e+000 5.834058e+000 4.763122e+000 5.485955e+000 3.558332e+000 3.227784e+000
<VARIANCE> 22
 7.907629e+001 5.997879e+001 9.349091e+000 7.411015e+000 6.159940e+003 3.832111e+003 8.703058e+002 1.075640e+003 3.897635e+002 1.995869e+002 3.203254e+003 3.001657e+003 3.290573e+002 2.566816e+002 7.271403e+000 1.508300e+000 5.610285e-001 4.539528e-001 1.457189e+000 5.608779e+000 6.077866e+000 6.188324e+000
<GCONST> 1.293025e+002
<MIXTURE> 2 5.000000e-001
<MEAN> 22
 5.713748e+000 3.069897e+000 1.615779e+000 1.053329e+000 6.304528e+001 2.699801e+001 5.457794e+001 6.797363e+001 6.999188e+001 5.722375e+001 9.924334e+001 1.441737e+002 1.011855e+002 1.048706e+002 2.484969e+000 3.994013e+000 6.012536e+000 5.564554e+000 4.280265e+000 4.538641e+000 2.572199e+000 2.232730e+000
<VARIANCE> 22
 7.907629e+001 5.997879e+001 9.349091e+000 7.411015e+000 6.159940e+003 3.832111e+003 8.703058e+002 1.075640e+003 3.897635e+002 1.995869e+002 3.203254e+003 3.001657e+003 3.290573e+002 2.566816e+002 7.271403e+000 1.508300e+000 5.610285e-001 4.539528e-001 1.457189e+000 5.608779e+000 6.077866e+000 6.188324e+000
<GCONST> 1.293025e+002
<TRANSP> 5
 0.000000e+000 1.000000e+000 0.000000e+000 0.000000e+000 0.000000e+000
 0.000000e+000 7.599274e-001 2.400726e-001 0.000000e+000 0.000000e+000
 0.000000e+000 0.000000e+000 9.607595e-001 3.924054e-002 0.000000e+000
 0.000000e+000 0.000000e+000 0.000000e+000 9.224884e-001 7.751159e-002
 0.000000e+000 0.000000e+000 0.000000e+000 0.000000e+000 0.000000e+000
<ENDHMM>
~h "NU"
<BEGINHMM>
<NUMSTATES> 5
<STATE> 2
<NUMMIXES> 2
<MIXTURE> 1 5.000000e-001
<MEAN> 22
 1.099595e+001 1.535791e+001 6.350140e+000 5.328995e+000 2.426460e+002 1.937825e+002 8.206875e+001 7.166168e+001 6.279032e+001 5.490799e+001 1.424617e+002 1.301392e+002 9.873779e+001 1.005635e+002 4.436038e+000 3.595698e+000 5.078635e+000 4.857087e+000 4.450621e+000 3.862089e+000 2.463216e+000 2.352634e+000
<VARIANCE> 22
 5.684074e+002 1.018506e+003 4.048611e+002 2.561714e+002 5.163550e+004 2.988666e+004 2.584232e+003 1.754632e+003 1.089468e+003 7.973463e+002 8.149652e+003 6.645563e+003 3.037664e+003 2.562272e+003 1.013969e+001 3.939070e+000 8.049127e+000 5.765794e+000 6.029845e+000 7.886104e+000 5.947972e+000 5.102212e+000
<GCONST> 1.638851e+002
<MIXTURE> 2 5.000000e-001
<MEAN> 22
 1.459430e+000 2.592296e+000 -1.698324e+000 -1.073147e+000 1.517522e+002 1.246315e+002 6.173461e+001 5.490635e+001 4.958748e+001 4.361306e+001 1.063515e+002 9.753104e+001 7.669178e+001 8.031598e+001 3.162323e+000 2.801814e+000 3.943795e+000 3.896605e+000 3.468391e+000 2.738801e+000 1.487678e+000 1.449111e+000
<VARIANCE> 22
 5.684074e+002 1.018506e+003 4.048611e+002 2.561714e+002 5.163550e+004 2.988666e+004 2.584232e+003 1.754632e+003 1.089468e+003 7.973463e+002 8.149652e+003 6.645563e+003 3.037664e+003 2.562272e+003 1.013969e+001 3.939070e+000 8.049127e+000 5.765794e+000 6.029845e+000 7.886104e+000 5.947972e+000 5.102212e+000
<GCONST> 1.638851e+002
<STATE> 3
<NUMMIXES> 2
<MIXTURE> 1 5.000000e-001
<MEAN> 22
 1.914311e+000 1.075771e+001 8.863893e-001 3.026035e+000 1.511723e+001 1.040197e+002 9.514697e+001 7.686617e+001 5.971152e+001 6.595620e+001 1.936063e+002 1.085319e+002 1.155455e+002 1.074020e+002 7.051767e+000 3.598356e+000 6.134480e+000 5.445559e+000 6.019278e+000 3.363161e+000 2.032081e+000 3.648691e+000
<VARIANCE> 22
 8.205683e+000 1.277264e+002 3.300596e+000 1.032331e+001 4.463944e+002 2.609012e+003 2.879197e+002 7.068266e+002 5.938713e+001 1.254661e+002 5.981041e+002 2.606365e+003 1.620215e+002 1.743597e+002 2.346230e-001 1.056756e+000 8.662606e-002 3.923011e-001 7.297164e-002 6.020090e+000 5.306053e+000 5.692636e+000
<GCONST> 1.083413e+002
<MIXTURE> 2 5.000000e-001
<MEAN> 22
 7.684888e-001 6.237068e+000 1.596875e-001 1.740839e+000 6.666010e+000 8.358826e+001 8.835969e+001 6.623168e+001 5.662900e+001 6.147573e+001 1.838239e+002 8.811090e+001 1.104539e+002 1.021202e+002 6.858016e+000 3.187162e+000 6.016751e+000 5.195023e+000 5.911224e+000 2.381727e+000 1.110687e+000 2.694321e+000
<VARIANCE> 22
 8.205683e+000 1.277264e+002 3.300596e+000 1.032331e+001 4.463944e+002 2.609012e+003 2.879197e+002 7.068266e+002 5.938713e+001 1.254661e+002 5.981041e+002 2.606365e+003 1.620215e+002 1.743597e+002 2.346230e-001 1.056756e+000 8.662606e-002 3.923011e-001 7.297164e-002 6.020090e+000 5.306053e+000 5.692636e+000
<GCONST> 1.083413e+002
<STATE> 4
<NUMMIXES> 2
<MIXTURE> 1 5.000000e-001
<MEAN> 22
 8.951313e+000 6.267016e+000 2.634053e+000 2.051982e+000 8.311900e+001 4.921992e+001 8.097628e+001 8.606300e+001 7.268854e+001 5.844612e+001 1.259127e+002 1.637781e+002 1.118663e+002 1.123580e+002 3.401397e+000 4.387344e+000 6.549399e+000 5.795311e+000 4.512240e+000 4.970263e+000 3.551906e+000 3.139766e+000
<VARIANCE> 22
 8.816711e+001 5.941071e+001 7.889043e+000 6.212162e+000 3.067692e+003 2.264031e+003 1.187200e+003 1.096906e+003 2.020313e+002 6.437168e+001 3.595741e+003 3.358091e+003 2.364279e+002 2.071950e+002 7.346693e+000 1.528909e+000 1.820895e+000 2.825764e-001 2.498731e+000 5.962005e+000 6.288632e+000 6.246837e+000
<GCONST> 1.274275e+002
<MIXTURE> 2 5.000000e-001
<MEAN> 22
 5.195419e+000 3.183882e+000 1.510555e+000 1.055014e+000 6.096431e+001 3.018718e+001 6.719398e+001 7.281516e+001 6.700304e+001 5.523684e+001 1.019269e+002 1.405985e+002 1.057159e+002 1.066003e+002 2.317205e+000 3.892748e+000 6.009637e+000 5.582680e+000 3.879946e+000 3.993574e+000 2.548820e+000 2.140019e+000
<VARIANCE> 22
 8.816711e+001 5.941071e+001 7.889043e+000 6.212162e+000 3.067692e+003 2.264031e+003 1.187200e+003 1.096906e+003 2.020313e+002 6.437168e+001 3.595741e+003 3.358091e+003 2.364279e+002 2.071950e+002 7.346693e+000 1.528909e+000 1.820895e+000 2.825764e-001 2.498731e+000 5.962005e+000 6.288632e+000 6.246837e+000
<GCONST> 1.274275e+002
<TRANSP> 5
 0.000000e+000 1.000000e+000 0.000000e+000 0.000000e+000 0.000000e+000
 0.000000e+000 6.609661e-001 3.390339e-001 0.000000e+000 0.000000e+000
 0.000000e+000 0.000000e+000 9.516349e-001 4.836509e-002 0.000000e+000
 0.000000e+000 0.000000e+000 0.000000e+000 9.146191e-001 8.538087e-002
 0.000000e+000 0.000000e+000 0.000000e+000 0.000000e+000 0.000000e+000
<ENDHMM>
~h "OK"
<BEGINHMM>
<NUMSTATES> 5
<STATE> 2
<NUMMIXES> 2
<MIXTURE> 1 5.000000e-001
<MEAN> 22
 1.818904e+001 7.297210e+000 6.918706e+000 3.910598e+000 1.166213e+002 3.861355e+001 1.061505e+002 9.246557e+001 7.971069e+001 5.764070e+001 1.038981e+002 1.866938e+002 1.119585e+002 1.173391e+002 3.218348e+000 4.797553e+000 5.179732e+000 5.889609e+000 3.991879e+000 5.865946e+000 3.979921e+000 2.834104e+000
<VARIANCE> 22
 4.575887e+002 2.255814e+002 2.141391e+002 1.249709e+002 4.728558e+003 1.807542e+003 1.116734e+003 7.312495e+002 2.220138e+002 7.641747e+001 4.242062e+003 2.332970e+003 3.186979e+002 1.627963e+002 6.100768e+000 7.568999e-001 8.747278e+000 2.613832e-001 2.624774e+000 2.562420e+000 6.097276e+000 5.979958e+000
<GCONST> 1.363091e+002
<MIXTURE> 2 5.000000e-001
<MEAN> 22
 9.632515e+000 1.289463e+000 1.065310e+000 -5.610177e-001 8.911550e+001 2.160747e+001 9.278350e+001 8.164892e+001 7.375064e+001 5.414402e+001 7.784563e+001 1.673734e+002 1.048177e+002 1.122355e+002 2.230358e+000 4.449553e+000 3.996700e+000 5.685106e+000 3.343833e+000 5.225644e+000 2.992215e+000 1.855946e+000
<VARIANCE> 22
 4.575887e+002 2.255814e+002 2.141391e+002 1.249709e+002 4.728558e+003 1.807542e+003 1.116734e+003 7.312495e+002 2.220138e+002 7.641747e+001 4.242062e+003 2.332970e+003 3.186979e+002 1.627963e+002 6.100768e+000 7.568999e-001 8.747278e+000 2.613832e-001 2.624774e+000 2.562420e+000 6.097276e+000 5.979958e+000
<GCONST> 1.363091e+002
<STATE> 3
<NUMMIXES> 2
<MIXTURE> 1 5.000000e-001
<MEAN> 22
 2.517673e+000 1.468692e+001 1.155398e+000 3.595958e+000 1.463982e+001 1.182205e+002 9.588981e+001 9.896035e+001 5.925866e+001 7.130254e+001 1.960993e+002 1.150367e+002 1.169323e+002 1.093489e+002 7.046175e+000 3.694481e+000 6.111553e+000 5.179882e+000 6.021879e+000 3.787183e+000 2.503182e+000 3.857479e+000
<VARIANCE> 22
 1.130392e+001 2.392352e+002 3.300596e+000 1.311889e+001 3.149901e+002 4.531558e+003 2.474222e+002 7.648656e+002 7.326568e+001 2.039456e+002 4.632978e+002 4.408159e+003 1.470236e+002 1.871491e+002 1.197278e-001 1.502587e+000 6.860477e-002 6.983477e-001 2.250922e-002 5.408950e+000 6.090832e+000 5.787223e+000
<GCONST> 1.094931e+002
<MIXTURE> 2 5.000000e-001
<MEAN> 22
 1.172821e+000 8.500024e+000 4.286968e-001 2.147158e+000 7.540638e+000 9.129373e+001 8.959794e+001 8.789787e+001 5.583484e+001 6.559016e+001 1.874895e+002 8.847910e+001 1.120821e+002 1.038769e+002 6.907769e+000 3.204161e+000 6.006783e+000 4.845613e+000 5.961867e+000 2.856897e+000 1.515998e+000 2.895213e+000
<VARIANCE> 22
 1.130392e+001 2.392352e+002 3.300596e+000 1.311889e+001 3.149901e+002 4.531558e+003 2.474222e+002 7.648656e+002 7.326568e+001 2.039456e+002 4.632978e+002 4.408159e+003 1.470236e+002 1.871491e+002 1.197278e-001 1.502587e+000 6.860477e-002 6.983477e-001 2.250922e-002 5.408950e+000 6.090832e+000 5.787223e+000
<GCONST> 1.094931e+002
<STATE> 4
<NUMMIXES> 2
<MIXTURE> 1 5.000000e-001
<MEAN> 22
 9.683488e+000 7.083710e+000 2.757873e+000 1.957215e+000 1.270199e+002 8.246259e+001 8.560631e+001 7.674574e+001 6.644253e+001 5.634029e+001 1.291758e+002 1.561263e+002 1.042584e+002 1.068497e+002 4.046606e+000 4.308485e+000 5.575200e+000 5.679947e+000 4.460311e+000 5.098804e+000 3.119305e+000 3.020561e+000
<VARIANCE> 22
 1.388644e+002 9.855149e+001 1.360254e+001 6.852740e+000 1.664434e+004 1.099529e+004 1.799494e+003 1.205597e+003 4.580951e+002 3.283229e+002 5.693243e+003 4.113413e+003 1.255287e+003 9.831295e+002 8.300335e+000 2.720196e+000 6.828592e+000 2.531539e+000 3.963426e+000 6.669468e+000 6.151385e+000 6.482810e+000
<GCONST> 1.439507e+002
<MIXTURE> 2 5.000000e-001
<MEAN> 22
 4.969858e+000 3.112786e+000 1.282608e+000 9.101053e-001 7.541471e+001 4.051921e+001 6.863814e+001 6.285706e+001 5.788127e+001 4.909241e+001 9.899438e+001 1.304719e+002 9.008640e+001 9.430772e+001 2.894194e+000 3.648764e+000 4.529936e+000 5.043515e+000 3.663977e+000 4.065792e+000 2.127225e+000 2.002107e+000
<VARIANCE> 22
 1.388644e+002 9.855149e+001 1.360254e+001 6.852740e+000 1.664434e+004 1.099529e+004 1.799494e+003 1.205597e+003 4.580951e+002 3.283229e+002 5.693243e+003 4.113413e+003 1.255287e+003 9.831295e+002 8.300335e+000 2.720196e+000 6.828592e+000 2.531539e+000 3.963426e+000 6.669468e+000 6.151385e+000 6.482810e+000
<GCONST> 1.439507e+002
<TRANSP> 5
 0.000000e+000 1.000000e+000 0.000000e+000 0.000000e+000 0.000000e+000
 0.000000e+000 8.779544e-001 1.220456e-001 0.000000e+000 0.000000e+000
 0.000000e+000 0.000000e+000 9.432624e-001 5.673759e-002 0.000000e+000
 0.000000e+000 0.000000e+000 0.000000e+000 7.940307e-001 2.059693e-001
 0.000000e+000 0.000000e+000 0.000000e+000 0.000000e+000 0.000000e+000
<ENDHMM>
~h "PF"
<BEGINHMM>
<NUMSTATES> 5
<STATE> 2
<NUMMIXES> 2
<MIXTURE> 1 5.000000e-001
<MEAN> 22
 1.632665e+001 1.826205e+001 1.050068e+001 9.350931e+000 1.692839e+002 1.811781e+002 9.667723e+001 1.190411e+002 7.513921e+001 7.783112e+001 1.595925e+002 1.264241e+002 1.089689e+002 1.049695e+002 4.779870e+000 3.624389e+000 5.843007e+000 4.938814e+000 5.281081e+000 3.822933e+000 3.015264e+000 3.203117e+000
<VARIANCE> 22
 1.184379e+003 1.030642e+003 9.283990e+002 6.078636e+002 3.277404e+004 1.814040e+004 1.807949e+003 2.745803e+003 5.161694e+002 6.729681e+002 4.867545e+003 5.264135e+003 9.474924e+002 6.681611e+002 9.291185e+000 2.309546e+000 4.383105e+000 2.389666e+000 2.630618e+000 5.946745e+000 6.269448e+000 5.317826e+000
<GCONST> 1.581600e+002
<MIXTURE> 2 5.000000e-001
<MEAN> 22
 2.560729e+000 5.420607e+000 -1.687181e+000 -5.110251e-001 9.686950e+001 1.273035e+002 7.966924e+001 9.808092e+001 6.605147e+001 6.745448e+001 1.316853e+002 9.740233e+001 9.665633e+001 9.463000e+001 3.560612e+000 3.016501e+000 5.005572e+000 4.320472e+000 4.632313e+000 2.847495e+000 2.013710e+000 2.280701e+000
<VARIANCE> 22
 1.184379e+003 1.030642e+003 9.283990e+002 6.078636e+002 3.277404e+004 1.814040e+004 1.807949e+003 2.745803e+003 5.161694e+002 6.729681e+002 4.867545e+003 5.264135e+003 9.474924e+002 6.681611e+002 9.291185e+000 2.309546e+000 4.383105e+000 2.389666e+000 2.630618e+000 5.946745e+000 6.269448e+000 5.317826e+000
<GCONST> 1.581600e+002
<STATE> 3
<NUMMIXES> 2
<MIXTURE> 1 5.000000e-001
<MEAN> 22
 2.123461e+000 1.776095e+001 1.036082e+000 4.925253e+000 1.524356e+001 1.597804e+002 9.610207e+001 1.265697e+002 5.988262e+001 8.289423e+001 1.943764e+002 1.003490e+002 1.159432e+002 1.009378e+002 7.050743e+000 3.291652e+000 6.142845e+000 4.420877e+000 6.027877e+000 3.218281e+000 2.345850e+000 3.932252e+000
<VARIANCE> 22
 8.800319e+000 2.827940e+002 3.300596e+000 2.138737e+001 5.123962e+002 5.552261e+003 2.538450e+002 1.311329e+003 6.170511e+001 3.140443e+002 5.864871e+002 3.544690e+003 1.289911e+002 2.617442e+002 2.633525e-001 1.288057e+000 1.916253e-001 1.297275e+000 8.479566e-002 4.047195e+000 5.972806e+000 4.856500e+000
<GCONST> 1.147576e+002
<MIXTURE> 2 5.000000e-001
<MEAN> 22
 9.368483e-001 1.103435e+001 3.093807e-001 3.075394e+000 6.189095e+000 1.299750e+002 8.972907e+001 1.120847e+002 5.674052e+001 7.580571e+001 1.846894e+002 7.653403e+001 1.114002e+002 9.446638e+001 6.845471e+000 2.837682e+000 5.967745e+000 3.965285e+000 5.911398e+000 2.413575e+000 1.368277e+000 3.050754e+000
<VARIANCE> 22
 8.800319e+000 2.827940e+002 3.300596e+000 2.138737e+001 5.123962e+002 5.552261e+003 2.538450e+002 1.311329e+003 6.170511e+001 3.140443e+002 5.864871e+002 3.544690e+003 1.289911e+002 2.617442e+002 2.633525e-001 1.288057e+000 1.916253e-001 1.297275e+000 8.479566e-002 4.047195e+000 5.972806e+000 4.856500e+000
<GCONST> 1.147576e+002
<STATE> 4
<NUMMIXES> 2
<MIXTURE> 1 5.000000e-001
<MEAN> 22
 1.299264e+001 4.331141e+000 4.044027e+000 1.628832e+000 1.259925e+002 2.845568e+001 1.276153e+002 9.295081e+001 8.464211e+001 5.850257e+001 1.259487e+002 1.884898e+002 1.078412e+002 1.172103e+002 3.637532e+000 4.846253e+000 4.175941e+000 5.863312e+000 4.033680e+000 5.798551e+000 3.767752e+000 2.972055e+000
<VARIANCE> 22
 1.927062e+002 3.809083e+001 1.980668e+001 4.437381e+000 6.709632e+003 8.248594e+002 2.332931e+003 8.126290e+002 4.189742e+002 6.654832e+001 4.399683e+003 1.716348e+003 3.701806e+002 1.537191e+002 6.890610e+000 8.484320e-001 8.119883e+000 1.871779e-001 3.450507e+000 3.213865e+000 6.791461e+000 6.215722e+000
<GCONST> 1.291474e+002
<MIXTURE> 2 5.000000e-001
<MEAN> 22
 7.439897e+000 1.862431e+000 2.263839e+000 7.862282e-001 9.322753e+001 1.696754e+001 1.082951e+002 8.154815e+001 7.645457e+001 5.523949e+001 9.941668e+001 1.719182e+002 1.001452e+002 1.122509e+002 2.587534e+000 4.477811e+000 3.036125e+000 5.690256e+000 3.290658e+000 5.081460e+000 2.725335e+000 1.974801e+000
<VARIANCE> 22
 1.927062e+002 3.809083e+001 1.980668e+001 4.437381e+000 6.709632e+003 8.248594e+002 2.332931e+003 8.126290e+002 4.189742e+002 6.654832e+001 4.399683e+003 1.716348e+003 3.701806e+002 1.537191e+002 6.890610e+000 8.484320e-001 8.119883e+000 1.871779e-001 3.450507e+000 3.213865e+000 6.791461e+000 6.215722e+000
<GCONST> 1.291474e+002
<TRANSP> 5
 0.000000e+000 1.000000e+000 0.000000e+000 0.000000e+000 0.000000e+000
 0.000000e+000 6.537715e-001 3.462285e-001 0.000000e+000 0.000000e+000
 0.000000e+000 0.000000e+000 9.535789e-001 4.642108e-002 0.000000e+000
 0.000000e+000 0.000000e+000 0.000000e+000 9.214252e-001 7.857476e-002
 0.000000e+000 0.000000e+000 0.000000e+000 0.000000e+000 0.000000e+000
<ENDHMM>
~h "PR"
<BEGINHMM>
<NUMSTATES> 5
<STATE> 2
<NUMMIXES> 2
<MIXTURE> 1 5.000000e-001
<MEAN> 22
 1.489981e+001 1.462550e+001 9.029059e+000 7.979415e+000 1.307962e+002 1.225821e+002 8.591419e+001 8.491656e+001 7.104207e+001 6.242371e+001 1.479715e+002 1.351017e+002 1.071559e+002 1.039797e+002 4.040303e+000 3.695510e+000 5.779923e+000 5.172082e+000 4.764420e+000 3.866368e+000 2.767955e+000 2.913966e+000
<VARIANCE> 22
 9.813900e+002 7.817441e+002 7.131387e+002 4.699299e+002 2.270152e+004 1.407041e+004 2.036455e+003 2.144052e+003 7.577288e+002 5.568232e+002 5.642527e+003 4.273884e+003 1.627775e+003 1.447451e+003 9.878865e+000 2.768229e+000 6.292542e+000 3.304370e+000 4.665700e+000 6.994020e+000 5.999367e+000 6.064322e+000
<GCONST> 1.596235e+002
<MIXTURE> 2 5.000000e-001
<MEAN> 22
 2.368948e+000 3.441622e+000 -1.652803e+000 -6.917313e-001 7.052815e+001 7.513454e+001 6.786335e+001 6.639500e+001 6.003132e+001 5.298487e+001 1.179248e+002 1.089517e+002 9.101765e+001 8.876152e+001 2.783077e+000 3.029990e+000 4.776525e+000 4.444966e+000 3.900410e+000 2.808520e+000 1.788211e+000 1.928932e+000
<VARIANCE> 22
 9.813900e+002 7.817441e+002 7.131387e+002 4.699299e+002 2.270152e+004 1.407041e+004 2.036455e+003 2.144052e+003 7.577288e+002 5.568232e+002 5.642527e+003 4.273884e+003 1.627775e+003 1.447451e+003 9.878865e+000 2.768229e+000 6.292542e+000 3.304370e+000 4.665700e+000 6.994020e+000 5.999367e+000 6.064322e+000
<GCONST> 1.596235e+002
<STATE> 3
<NUMMIXES> 2
<MIXTURE> 1 5.000000e-001
<MEAN> 22
 1.827631e+000 1.168769e+001 9.324473e-001 3.963298e+000 1.410082e+001 1.035736e+002 9.575083e+001 9.109105e+001 6.022054e+001 6.670725e+001 1.928339e+002 1.169325e+002 1.151783e+002 1.060936e+002 7.057200e+000 3.722857e+000 6.144217e+000 5.198585e+000 6.031477e+000 3.851154e+000 2.202694e+000 4.080890e+000
<VARIANCE> 22
 6.587620e+000 1.305477e+002 3.300596e+000 1.673101e+001 3.563982e+002 2.364237e+003 2.697253e+002 6.606791e+002 6.739409e+001 1.617225e+002 5.913356e+002 2.211415e+003 1.582298e+002 2.087044e+002 3.890910e-001 7.911884e-001 8.845214e-002 3.468620e-001 8.752620e-002 4.016079e+000 5.706683e+000 6.346788e+000
<GCONST> 1.086035e+002
<MIXTURE> 2 5.000000e-001
<MEAN> 22
 8.009768e-001 7.117386e+000 2.057455e-001 2.327156e+000 6.549417e+000 8.412427e+001 8.918151e+001 8.080957e+001 5.693678e+001 6.162045e+001 1.831069e+002 9.812226e+001 1.101467e+002 1.003150e+002 6.807692e+000 3.367062e+000 6.025254e+000 4.963005e+000 5.913137e+000 3.049548e+000 1.247148e+000 3.073176e+000
<VARIANCE> 22
 6.587620e+000 1.305477e+002 3.300596e+000 1.673101e+001 3.563982e+002 2.364237e+003 2.697253e+002 6.606791e+002 6.739409e+001 1.617225e+002 5.913356e+002 2.211415e+003 1.582298e+002 2.087044e+002 3.890910e-001 7.911884e-001 8.845214e-002 3.468620e-001 8.752620e-002 4.016079e+000 5.706683e+000 6.346788e+000
<GCONST> 1.086035e+002
<STATE> 4
<NUMMIXES> 2
<MIXTURE> 1 5.000000e-001
<MEAN> 22
 1.150628e+001 4.102027e+000 3.281673e+000 1.504632e+000 7.845453e+001 2.436655e+001 8.945478e+001 9.096116e+001 7.440814e+001 5.818163e+001 1.271488e+002 1.856310e+002 1.104044e+002 1.140683e+002 3.359243e+000 4.862040e+000 6.569599e+000 5.864123e+000 4.310347e+000 6.055515e+000 3.815787e+000 2.825835e+000
<VARIANCE> 22
 1.325541e+002 3.007315e+001 1.196732e+001 3.605931e+000 2.516318e+003 5.157795e+002 9.224576e+002 7.221075e+002 2.090097e+002 6.439408e+001 3.103840e+003 1.350621e+003 2.537735e+002 1.511749e+002 8.082219e+000 3.852228e-001 2.501939e+000 1.898344e-001 3.656439e+000 1.230137e+000 6.011981e+000 6.153155e+000
<GCONST> 1.207906e+002
<MIXTURE> 2 5.000000e-001
<MEAN> 22
 6.900994e+000 1.908467e+000 1.897921e+000 7.450602e-001 5.838936e+001 1.528223e+001 7.730599e+001 8.021233e+001 6.862527e+001 5.497179e+001 1.048640e+002 1.709306e+002 1.040322e+002 1.091501e+002 2.222073e+000 4.613774e+000 5.936898e+000 5.689843e+000 3.545474e+000 5.611869e+000 2.835013e+000 1.833613e+000
<VARIANCE> 22
 1.325541e+002 3.007315e+001 1.196732e+001 3.605931e+000 2.516318e+003 5.157795e+002 9.224576e+002 7.221075e+002 2.090097e+002 6.439408e+001 3.103840e+003 1.350621e+003 2.537735e+002 1.511749e+002 8.082219e+000 3.852228e-001 2.501939e+000 1.898344e-001 3.656439e+000 1.230137e+000 6.011981e+000 6.153155e+000
<GCONST> 1.207906e+002
<TRANSP> 5
 0.000000e+000 1.000000e+000 0.000000e+000 0.000000e+000 0.000000e+000
 0.000000e+000 7.197555e-001 2.802445e-001 0.000000e+000 0.000000e+000
 0.000000e+000 0.000000e+000 9.511076e-001 4.889242e-002 0.000000e+000
 0.000000e+000 0.000000e+000 0.000000e+000 9.082489e-001 9.175106e-002
 0.000000e+000 0.000000e+000 0.000000e+000 0.000000e+000 0.000000e+000
<ENDHMM>
~h "SP"
<BEGINHMM>
<NUMSTATES> 5
<STATE> 2
<NUMMIXES> 2
<MIXTURE> 1 5.000000e-001
<MEAN> 22
 1.674288e+001 1.879265e+001 1.232215e+001 1.116523e+001 1.385655e+002 1.570484e+002 9.241209e+001 1.025183e+002 7.012606e+001 7.480261e+001 1.610177e+002 1.279333e+002 1.083362e+002 1.026647e+002 4.760091e+000 3.653015e+000 5.666434e+000 4.593020e+000 5.189411e+000 3.930921e+000 2.477987e+000 2.601379e+000
<VARIANCE> 22
 1.862920e+003 1.310955e+003 1.502633e+003 9.104202e+002 3.164254e+004 1.858183e+004 2.367135e+003 2.693306e+003 9.414017e+002 1.444904e+003 6.941464e+003 5.767043e+003 2.053406e+003 1.679230e+003 1.071414e+001 3.192612e+000 6.322917e+000 4.139035e+000 4.644582e+000 6.930895e+000 5.739522e+000 4.886416e+000
<GCONST> 1.654150e+002
<MIXTURE> 2 5.000000e-001
<MEAN> 22
 -5.217416e-001 4.309808e+000 -3.183369e+000 -9.040370e-001 6.741210e+001 1.025224e+002 7.295080e+001 8.175946e+001 5.785315e+001 5.959785e+001 1.276915e+002 9.755689e+001 9.021036e+001 8.627335e+001 3.450793e+000 2.938299e+000 4.660618e+000 3.779236e+000 4.327359e+000 2.877857e+000 1.519695e+000 1.717169e+000
<VARIANCE> 22
 1.862920e+003 1.310955e+003 1.502633e+003 9.104202e+002 3.164254e+004 1.858183e+004 2.367135e+003 2.693306e+003 9.414017e+002 1.444904e+003 6.941464e+003 5.767043e+003 2.053406e+003 1.679230e+003 1.071414e+001 3.192612e+000 6.322917e+000 4.139035e+000 4.644582e+000 6.930895e+000 5.739522e+000 4.886416e+000
<GCONST> 1.654150e+002
<STATE> 3
<NUMMIXES> 2
<MIXTURE> 1 5.000000e-001
<MEAN> 22
 1.728466e+000 1.518912e+001 8.665807e-001 4.941090e+000 1.524568e+001 1.853969e+002 9.760821e+001 1.346333e+002 6.201860e+001 9.167969e+001 1.929096e+002 7.002091e+001 1.149864e+002 9.656551e+001 7.052409e+000 2.622664e+000 6.178822e+000 3.800550e+000 6.038919e+000 2.263453e+000 2.073548e+000 3.539464e+000
<VARIANCE> 22
 7.186150e+000 2.791241e+002 3.300596e+000 2.839283e+001 5.640073e+002 3.600336e+003 3.311842e+002 1.126173e+003 8.863535e+001 4.496624e+002 6.782023e+002 1.361632e+003 1.673316e+002 2.399613e+002 3.461176e-001 6.343703e-001 2.782700e-001 8.143105e-001 1.248319e-001 2.239801e+000 5.470413e+000 5.991875e+000
<GCONST> 1.140745e+002
<MIXTURE> 2 5.000000e-001
<MEAN> 22
 6.561860e-001 8.506318e+000 1.398789e-001 2.809693e+000 5.746142e+000 1.613957e+002 9.032882e+001 1.212099e+002 5.825274e+001 8.319759e+001 1.824926e+002 5.526079e+001 1.098122e+002 9.036924e+001 6.817082e+000 2.304074e+000 5.967816e+000 3.439594e+000 5.897593e+000 1.664815e+000 1.137992e+000 2.560332e+000
<VARIANCE> 22
 7.186150e+000 2.791241e+002 3.300596e+000 2.839283e+001 5.640073e+002 3.600336e+003 3.311842e+002 1.126173e+003 8.863535e+001 4.496624e+002 6.782023e+002 1.361632e+003 1.673316e+002 2.399613e+002 3.461176e-001 6.343703e-001 2.782700e-001 8.143105e-001 1.248319e-001 2.239801e+000 5.470413e+000 5.991875e+000
<GCONST> 1.140745e+002
<STATE> 4
<NUMMIXES> 2
<MIXTURE> 1 5.000000e-001
<MEAN> 22
 1.310433e+001 5.278588e+000 4.558096e+000 1.825732e+000 1.293338e+002 2.443899e+001 1.255096e+002 9.001242e+001 9.135731e+001 5.925309e+001 1.168774e+002 1.828508e+002 1.023668e+002 1.146309e+002 3.792690e+000 4.826371e+000 4.135091e+000 5.862379e+000 4.272225e+000 5.720878e+000 3.689380e+000 2.846074e+000
<VARIANCE> 22
 2.450651e+002 5.768795e+001 3.817985e+001 5.769423e+000 7.412880e+003 6.965462e+002 1.749274e+003 7.782870e+002 5.946208e+002 5.990730e+001 4.190296e+003 1.714384e+003 3.941352e+002 1.394595e+002 6.441720e+000 7.668784e-001 7.608351e+000 1.985381e-001 2.802029e+000 3.717793e+000 6.443325e+000 6.480685e+000
<GCONST> 1.302336e+002
<MIXTURE> 2 5.000000e-001
<MEAN> 22
 6.842511e+000 2.240484e+000 2.086502e+000 8.649476e-001 9.489458e+001 1.388213e+001 1.087798e+002 7.885330e+001 8.160337e+001 5.615709e+001 9.098440e+001 1.662888e+002 9.442565e+001 1.099071e+002 2.777468e+000 4.476085e+000 3.031761e+000 5.684149e+000 3.602655e+000 4.949615e+000 2.674032e+000 1.827786e+000
<VARIANCE> 22
 2.450651e+002 5.768795e+001 3.817985e+001 5.769423e+000 7.412880e+003 6.965462e+002 1.749274e+003 7.782870e+002 5.946208e+002 5.990730e+001 4.190296e+003 1.714384e+003 3.941352e+002 1.394595e+002 6.441720e+000 7.668784e-001 7.608351e+000 1.985381e-001 2.802029e+000 3.717793e+000 6.443325e+000 6.480685e+000
<GCONST> 1.302336e+002
<TRANSP> 5
 0.000000e+000 1.000000e+000 0.000000e+000 0.000000e+000 0.000000e+000
 0.000000e+000 7.004948e-001 2.995052e-001 0.000000e+000 0.000000e+000
 0.000000e+000 0.000000e+000 9.530704e-001 4.692958e-002 0.000000e+000
 0.000000e+000 0.000000e+000 0.000000e+000 9.342347e-001 6.576525e-002
 0.000000e+000 0.000000e+000 0.000000e+000 0.000000e+000 0.000000e+000
<ENDHMM>
~h "ST"
<BEGINHMM>
<NUMSTATES> 5
<STATE> 2
<NUMMIXES> 2
<MIXTURE> 1 5.000000e-001
<MEAN> 22
 1.180174e+001 1.455738e+001 6.722942e+000 6.085120e+000 1.117240e+002 1.120011e+002 9.258464e+001 8.690464e+001 7.553269e+001 7.518917e+001 1.621575e+002 1.347839e+002 1.169980e+002 1.158717e+002 5.036283e+000 3.762965e+000 6.379688e+000 5.802876e+000 5.214026e+000 3.878439e+000 3.331342e+000 3.162408e+000
<VARIANCE> 22
 5.090378e+002 5.732191e+002 3.978607e+002 2.433474e+002 1.645936e+004 1.000889e+004 1.440494e+003 1.039539e+003 3.522532e+002 4.197288e+002 5.191501e+003 5.076212e+003 8.170866e+002 5.004091e+002 8.314736e+000 2.381794e+000 1.482979e+000 1.027766e+000 2.507923e+000 7.678778e+000 6.586542e+000 5.850275e+000
<GCONST> 1.495658e+002
<MIXTURE> 2 5.000000e-001
<MEAN> 22
 2.776998e+000 4.980585e+000 -1.255636e+000 -1.547183e-001 6.040639e+001 7.198332e+001 7.740311e+001 7.400788e+001 6.802532e+001 6.699426e+001 1.333367e+002 1.062849e+002 1.055642e+002 1.069237e+002 3.882871e+000 3.145643e+000 5.892578e+000 5.397362e+000 4.580569e+000 2.770015e+000 2.304772e+000 2.194914e+000
<VARIANCE> 22
 5.090378e+002 5.732191e+002 3.978607e+002 2.433474e+002 1.645936e+004 1.000889e+004 1.440494e+003 1.039539e+003 3.522532e+002 4.197288e+002 5.191501e+003 5.076212e+003 8.170866e+002 5.004091e+002 8.314736e+000 2.381794e+000 1.482979e+000 1.027766e+000 2.507923e+000 7.678778e+000 6.586542e+000 5.850275e+000
<GCONST> 1.495658e+002
<STATE> 3
<NUMMIXES> 2
<MIXTURE> 1 5.000000e-001
<MEAN> 22
 1.869626e+000 1.326102e+001 8.754402e-001 2.782708e+000 1.278294e+001 1.225522e+002 9.477432e+001 7.276389e+001 5.993091e+001 8.312614e+001 1.942840e+002 8.721782e+001 1.161215e+002 1.076061e+002 7.050829e+000 2.989408e+000 6.112077e+000 5.962882e+000 6.020044e+000 2.367277e+000 1.991966e+000 3.486978e+000
<VARIANCE> 22
 7.820333e+000 1.578636e+002 3.300596e+000 8.854323e+000 2.925830e+002 2.684720e+003 2.188153e+002 6.084827e+002 5.386316e+001 3.223203e+002 4.810855e+002 2.920930e+003 1.266977e+002 1.336144e+002 1.636029e-001 1.491811e+000 6.341651e-002 3.620736e-001 2.545693e-002 6.612145e+000 5.136653e+000 5.820899e+000
<GCONST> 1.063862e+002
<MIXTURE> 2 5.000000e-001
<MEAN> 22
 7.510318e-001 8.235265e+000 1.487385e-001 1.592460e+000 5.940917e+000 1.018264e+002 8.885736e+001 6.289692e+001 5.699525e+001 7.594484e+001 1.855106e+002 6.559956e+001 1.116191e+002 1.029825e+002 6.889037e+000 2.500850e+000 6.011346e+000 5.722192e+000 5.956223e+000 1.338713e+000 1.085398e+000 2.521916e+000
<VARIANCE> 22
 7.820333e+000 1.578636e+002 3.300596e+000 8.854323e+000 2.925830e+002 2.684720e+003 2.188153e+002 6.084827e+002 5.386316e+001 3.223203e+002 4.810855e+002 2.920930e+003 1.266977e+002 1.336144e+002 1.636029e-001 1.491811e+000 6.341651e-002 3.620736e-001 2.545693e-002 6.612145e+000 5.136653e+000 5.820899e+000
<GCONST> 1.063862e+002
<STATE> 4
<NUMMIXES> 2
<MIXTURE> 1 5.000000e-001
<MEAN> 22
 1.222716e+001 4.042830e+000 2.799629e+000 1.503671e+000 1.040376e+002 2.631372e+001 8.230080e+001 9.468672e+001 8.586844e+001 5.905470e+001 1.066607e+002 1.934420e+002 1.120913e+002 1.181413e+002 3.561536e+000 4.960061e+000 6.250370e+000 5.947251e+000 4.475921e+000 6.128182e+000 3.620688e+000 2.654261e+000
<VARIANCE> 22
 1.340244e+002 3.575425e+001 8.809818e+000 4.591651e+000 4.067017e+003 8.149063e+002 7.977524e+002 6.816609e+002 3.719117e+002 5.489615e+001 4.618877e+003 1.253047e+003 2.613575e+002 1.533936e+002 5.958971e+000 1.945876e-001 1.350623e+000 1.242607e-001 1.540448e+000 8.152672e-001 6.078601e+000 5.993381e+000
<GCONST> 1.191089e+002
<MIXTURE> 2 5.000000e-001
<MEAN> 22
 7.596405e+000 1.651036e+000 1.612375e+000 6.465453e-001 7.852830e+001 1.489510e+001 7.100299e+001 8.424327e+001 7.815443e+001 5.609102e+001 7.947578e+001 1.792826e+002 1.056247e+002 1.131873e+002 2.585096e+000 4.783613e+000 5.785504e+000 5.806249e+000 3.979462e+000 5.767014e+000 2.634496e+000 1.675005e+000
<VARIANCE> 22
 1.340244e+002 3.575425e+001 8.809818e+000 4.591651e+000 4.067017e+003 8.149063e+002 7.977524e+002 6.816609e+002 3.719117e+002 5.489615e+001 4.618877e+003 1.253047e+003 2.613575e+002 1.533936e+002 5.958971e+000 1.945876e-001 1.350623e+000 1.242607e-001 1.540448e+000 8.152672e-001 6.078601e+000 5.993381e+000
<GCONST> 1.191089e+002
<TRANSP> 5
 0.000000e+000 1.000000e+000 0.000000e+000 0.000000e+000 0.000000e+000
 0.000000e+000 7.858119e-001 2.141881e-001 0.000000e+000 0.000000e+000
 0.000000e+000 0.000000e+000 9.564316e-001 4.356846e-002 0.000000e+000
 0.000000e+000 0.000000e+000 0.000000e+000 9.132159e-001 8.678412e-002
 0.000000e+000 0.000000e+000 0.000000e+000 0.000000e+000 0.000000e+000
<ENDHMM>
~h "TT"
<BEGINHMM>
<NUMSTATES> 5
<STATE> 2
<NUMMIXES> 2
<MIXTURE> 1 5.000000e-001
<MEAN> 22
 2.150968e+001 2.194354e+001 1.314644e+001 1.205382e+001 7.056004e+001 1.006501e+002 9.846302e+001 1.142969e+002 7.630298e+001 8.235692e+001 1.735407e+002 1.590193e+002 1.153897e+002 1.142954e+002 5.489251e+000 4.310182e+000 6.186407e+000 5.325992e+000 5.626207e+000 4.874859e+000 3.288183e+000 3.269974e+000
<VARIANCE> 22
 1.807824e+003 1.405655e+003 1.342967e+003 8.871297e+002 4.635364e+003 7.727187e+003 1.791711e+003 2.117190e+003 3.913604e+002 8.187161e+002 2.668929e+003 2.935308e+003 3.364648e+002 2.442585e+002 8.801641e+000 1.500457e+000 2.535344e+000 1.452903e+000 1.525230e+000 5.151696e+000 6.627248e+000 4.976352e+000
<GCONST> 1.510248e+002
<MIXTURE> 2 5.000000e-001
<MEAN> 22
 4.502277e+000 6.946717e+000 -1.512164e+000 1.399354e-001 4.332664e+001 6.548835e+001 8.153158e+001 9.589172e+001 6.838985e+001 7.091164e+001 1.528761e+002 1.373479e+002 1.080525e+002 1.080438e+002 4.302548e+000 3.820210e+000 5.549497e+000 4.843846e+000 5.132207e+000 3.966965e+000 2.258445e+000 2.377664e+000
<VARIANCE> 22
 1.807824e+003 1.405655e+003 1.342967e+003 8.871297e+002 4.635364e+003 7.727187e+003 1.791711e+003 2.117190e+003 3.913604e+002 8.187161e+002 2.668929e+003 2.935308e+003 3.364648e+002 2.442585e+002 8.801641e+000 1.500457e+000 2.535344e+000 1.452903e+000 1.525230e+000 5.151696e+000 6.627248e+000 4.976352e+000
<GCONST> 1.510248e+002
<STATE> 3
<NUMMIXES> 2
<MIXTURE> 1 5.000000e-001
<MEAN> 22
 2.389618e+000 2.096891e+001 1.129251e+000 7.135978e+000 1.543709e+001 1.925538e+002 9.921260e+001 1.594684e+002 6.194563e+001 1.146702e+002 1.961752e+002 1.175200e+002 1.174260e+002 1.029135e+002 7.051219e+000 3.196742e+000 6.167626e+000 3.995518e+000 6.029945e+000 3.031750e+000 2.427823e+000 4.174332e+000
<VARIANCE> 22
 1.119120e+001 3.443376e+002 3.300596e+000 4.931321e+001 4.428350e+002 7.078940e+003 3.975327e+002 2.001072e+003 1.275370e+002 1.028294e+003 6.697014e+002 1.963677e+003 1.876877e+002 3.336223e+002 2.561480e-001 1.059802e+000 2.266502e-001 1.100795e+000 9.070180e-002 3.334241e+000 5.803121e+000 5.421365e+000
<GCONST> 1.188060e+002
<MIXTURE> 2 5.000000e-001
<MEAN> 22
 1.051488e+000 1.354637e+001 4.025492e-001 4.327044e+000 7.019631e+000 1.588992e+002 9.123730e+001 1.415750e+002 5.742834e+001 1.018434e+002 1.858238e+002 9.979462e+001 1.119460e+002 9.560735e+001 6.848775e+000 2.784956e+000 5.977194e+000 3.575842e+000 5.909478e+000 2.301354e+000 1.464237e+000 3.242979e+000
<VARIANCE> 22
 1.119120e+001 3.443376e+002 3.300596e+000 4.931321e+001 4.428350e+002 7.078940e+003 3.975327e+002 2.001072e+003 1.275370e+002 1.028294e+003 6.697014e+002 1.963677e+003 1.876877e+002 3.336223e+002 2.561480e-001 1.059802e+000 2.266502e-001 1.100795e+000 9.070180e-002 3.334241e+000 5.803121e+000 5.421365e+000
<GCONST> 1.188060e+002
<STATE> 4
<NUMMIXES> 2
<MIXTURE> 1 5.000000e-001
<MEAN> 22
 1.754943e+001 4.409727e+000 6.280793e+000 1.843213e+000 1.642502e+002 4.296104e+001 1.431921e+002 9.269335e+001 1.045376e+002 5.861444e+001 1.280901e+002 1.871199e+002 1.057017e+002 1.159574e+002 3.165350e+000 4.834491e+000 3.843934e+000 5.905504e+000 3.907606e+000 5.725107e+000 3.818259e+000 2.819809e+000
<VARIANCE> 22
 3.284231e+002 3.865873e+001 5.280625e+001 6.699541e+000 1.105595e+004 3.736669e+003 3.290935e+003 1.020715e+003 1.309896e+003 1.395913e+002 3.055838e+003 2.236595e+003 5.853476e+002 4.339004e+002 6.381811e+000 1.210959e+000 8.129752e+000 8.679428e-001 3.535648e+000 3.783056e+000 5.816009e+000 6.197378e+000
<GCONST> 1.387908e+002
<MIXTURE> 2 5.000000e-001
<MEAN> 22
 1.030045e+001 1.922681e+000 3.374077e+000 8.078746e-001 1.221913e+002 1.850972e+001 1.202455e+002 7.991390e+001 9.006058e+001 5.388848e+001 1.059783e+002 1.682029e+002 9.602411e+001 1.076252e+002 2.154860e+000 4.394317e+000 2.703426e+000 5.532850e+000 3.155473e+000 4.947104e+000 2.853603e+000 1.824027e+000
<VARIANCE> 22
 3.284231e+002 3.865873e+001 5.280625e+001 6.699541e+000 1.105595e+004 3.736669e+003 3.290935e+003 1.020715e+003 1.309896e+003 1.395913e+002 3.055838e+003 2.236595e+003 5.853476e+002 4.339004e+002 6.381811e+000 1.210959e+000 8.129752e+000 8.679428e-001 3.535648e+000 3.783056e+000 5.816009e+000 6.197378e+000
<GCONST> 1.387908e+002
<TRANSP> 5
 0.000000e+000 1.000000e+000 0.000000e+000 0.000000e+000 0.000000e+000
 0.000000e+000 6.495401e-001 3.504599e-001 0.000000e+000 0.000000e+000
 0.000000e+000 0.000000e+000 9.521348e-001 4.786515e-002 0.000000e+000
 0.000000e+000 0.000000e+000 0.000000e+000 9.381543e-001 6.184570e-002
 0.000000e+000 0.000000e+000 0.000000e+000 0.000000e+000 0.000000e+000
<ENDHMM>
~h "VA"
<BEGINHMM>
<NUMSTATES> 5
<STATE> 2
<NUMMIXES> 2
<MIXTURE> 1 5.000000e-001
<MEAN> 22
 1.829719e+001 1.762964e+001 1.041083e+001 8.429694e+000 1.738750e+002 1.701849e+002 1.059270e+002 1.191775e+002 8.283512e+001 8.592067e+001 1.390804e+002 1.336023e+002 1.016343e+002 1.014055e+002 3.981794e+000 3.573484e+000 5.069527e+000 4.714877e+000 4.621035e+000 3.793039e+000 3.202051e+000 3.019595e+000
<VARIANCE> 22
 1.003440e+003 8.168576e+002 6.151134e+002 3.730522e+002 2.677805e+004 1.611346e+004 3.669380e+003 3.698431e+003 1.301960e+003 1.523660e+003 5.820663e+003 5.322782e+003 1.632703e+003 1.306131e+003 8.830667e+000 2.693425e+000 7.052117e+000 3.375180e+000 4.121715e+000 6.426845e+000 6.189242e+000 5.290189e+000
<GCONST> 1.621261e+002
<MIXTURE> 2 5.000000e-001
<MEAN> 22
 5.626346e+000 6.197356e+000 4.902341e-001 7.038702e-001 1.084190e+002 1.194093e+002 8.169684e+001 9.485155e+001 6.840205e+001 7.030704e+001 1.085630e+002 1.044193e+002 8.547157e+001 8.694932e+001 2.793136e+000 2.917018e+000 4.007294e+000 3.980011e+000 3.808955e+000 2.778990e+000 2.206923e+000 2.099579e+000
<VARIANCE> 22
 1.003440e+003 8.168576e+002 6.151134e+002 3.730522e+002 2.677805e+004 1.611346e+004 3.669380e+003 3.698431e+003 1.301960e+003 1.523660e+003 5.820663e+003 5.322782e+003 1.632703e+003 1.306131e+003 8.830667e+000 2.693425e+000 7.052117e+000 3.375180e+000 4.121715e+000 6.426845e+000 6.189242e+000 5.290189e+000
<GCONST> 1.621261e+002
<STATE> 3
<NUMMIXES> 2
<MIXTURE> 1 5.000000e-001
<MEAN> 22
 3.138955e+000 1.872702e+001 1.575515e+000 6.894234e+000 1.593280e+001 1.609408e+002 9.504811e+001 1.327450e+002 5.912911e+001 1.003983e+002 1.929510e+002 1.157706e+002 1.154534e+002 9.627393e+001 7.049539e+000 3.433588e+000 6.142757e+000 4.619644e+000 6.019751e+000 3.593487e+000 2.680845e+000 3.991164e+000
<VARIANCE> 22
 1.660201e+001 2.879253e+002 5.630326e+000 3.973956e+001 4.340951e+002 7.903698e+003 3.153905e+002 2.637995e+003 9.998394e+001 8.078149e+002 6.725301e+002 3.180418e+003 1.702250e+002 5.013867e+002 3.567245e-001 1.451937e+000 1.515406e-001 1.732324e+000 8.244726e-002 5.463632e+000 6.155706e+000 5.379391e+000
<GCONST> 1.209328e+002
<MIXTURE> 2 5.000000e-001
<MEAN> 22
 1.509133e+000 1.193968e+001 6.263829e-001 4.372661e+000 7.598820e+000 1.253797e+002 8.794441e+001 1.122004e+002 5.512943e+001 8.902950e+001 1.825778e+002 9.321256e+001 1.102346e+002 8.731727e+001 6.810633e+000 2.951602e+000 5.987044e+000 4.093173e+000 5.904896e+000 2.658511e+000 1.688417e+000 3.063424e+000
<VARIANCE> 22
 1.660201e+001 2.879253e+002 5.630326e+000 3.973956e+001 4.340951e+002 7.903698e+003 3.153905e+002 2.637995e+003 9.998394e+001 8.078149e+002 6.725301e+002 3.180418e+003 1.702250e+002 5.013867e+002 3.567245e-001 1.451937e+000 1.515406e-001 1.732324e+000 8.244726e-002 5.463632e+000 6.155706e+000 5.379391e+000
<GCONST> 1.209328e+002
<STATE> 4
<NUMMIXES> 2
<MIXTURE> 1 5.000000e-001
<MEAN> 22
 1.621004e+001 5.019926e+000 6.041228e+000 2.244228e+000 1.419189e+002 2.745633e+001 1.381431e+002 9.011176e+001 1.026295e+002 5.748867e+001 1.228375e+002 1.815265e+002 1.006110e+002 1.146661e+002 3.298414e+000 4.714959e+000 4.217207e+000 5.848129e+000 3.981260e+000 5.569490e+000 3.741507e+000 2.989457e+000
<VARIANCE> 22
 2.625476e+002 5.825023e+001 3.950485e+001 8.979369e+000 7.836462e+003 7.421661e+002 3.384847e+003 7.824911e+002 7.927818e+002 9.057748e+001 4.102828e+003 2.015997e+003 5.036756e+002 1.474161e+002 5.711948e+000 1.056394e+000 8.198676e+000 1.932904e-001 3.060360e+000 4.009029e+000 6.052725e+000 6.271592e+000
<GCONST> 1.330322e+002
<MIXTURE> 2 5.000000e-001
<MEAN> 22
 9.728716e+000 1.967052e+000 3.527112e+000 1.045604e+000 1.065093e+002 1.655923e+001 1.148713e+002 7.892253e+001 9.136691e+001 5.368179e+001 9.721614e+001 1.635665e+002 9.163395e+001 1.098095e+002 2.342426e+000 4.303835e+000 3.071874e+000 5.672269e+000 3.281504e+000 4.768588e+000 2.757415e+000 1.987731e+000
<VARIANCE> 22
 2.625476e+002 5.825023e+001 3.950485e+001 8.979369e+000 7.836462e+003 7.421661e+002 3.384847e+003 7.824911e+002 7.927818e+002 9.057748e+001 4.102828e+003 2.015997e+003 5.036756e+002 1.474161e+002 5.711948e+000 1.056394e+000 8.198676e+000 1.932904e-001 3.060360e+000 4.009029e+000 6.052725e+000 6.271592e+000
<GCONST> 1.330322e+002
<TRANSP> 5
 0.000000e+000 1.000000e+000 0.000000e+000 0.000000e+000 0.000000e+000
 0.000000e+000 7.417741e-001 2.582258e-001 0.000000e+000 0.000000e+000
 0.000000e+000 0.000000e+000 9.453900e-001 5.460994e-002 0.000000e+000
 0.000000e+000 0.000000e+000 0.000000e+000 9.173031e-001 8.269684e-002
 0.000000e+000 0.000000e+000 0.000000e+000 0.000000e+000 0.000000e+000
<ENDHMM>
~h "VQ"
<BEGINHMM>
<NUMSTATES> 5
<STATE> 2
<NUMMIXES> 2
<MIXTURE> 1 5.000000e-001
<MEAN> 22
 2.458413e+001 1.647044e+001 1.408025e+001 1.016935e+001 1.346855e+002 5.539543e+001 1.215520e+002 1.015352e+002 8.598323e+001 6.092017e+001 1.309343e+002 1.822536e+002 1.105226e+002 1.162480e+002 3.764682e+000 4.761445e+000 4.575218e+000 5.758088e+000 4.262561e+000 5.637955e+000 4.029884e+000 2.958559e+000
<VARIANCE> 22
 1.699772e+003 1.287086e+003 1.232176e+003 8.048911e+002 8.371718e+003 5.031848e+003 1.775748e+003 6.465815e+002 4.530982e+002 1.258932e+002 5.512724e+003 3.168126e+003 6.399321e+002 2.250603e+002 7.619265e+000 1.080007e+000 9.076382e+000 6.260529e-001 3.441890e+000 2.854345e+000 6.104610e+000 5.605501e+000
<GCONST> 1.495164e+002
<MIXTURE> 2 5.000000e-001
<MEAN> 22
 8.092813e+000 2.120046e+000 3.930093e-002 -1.178896e+000 9.808669e+001 2.702122e+001 1.046962e+002 9.136404e+001 7.746880e+001 5.643209e+001 1.012353e+002 1.597392e+002 1.004038e+002 1.102472e+002 2.660562e+000 4.345751e+000 3.370136e+000 5.441594e+000 3.520468e+000 4.962162e+000 3.041584e+000 2.011521e+000
<VARIANCE> 22
 1.699772e+003 1.287086e+003 1.232176e+003 8.048911e+002 8.371718e+003 5.031848e+003 1.775748e+003 6.465815e+002 4.530982e+002 1.258932e+002 5.512724e+003 3.168126e+003 6.399321e+002 2.250603e+002 7.619265e+000 1.080007e+000 9.076382e+000 6.260529e-001 3.441890e+000 2.854345e+000 6.104610e+000 5.605501e+000
<GCONST> 1.495164e+002
<STATE> 3
<NUMMIXES> 2
<MIXTURE> 1 5.000000e-001
<MEAN> 22
 2.788943e+000 1.552607e+001 1.179201e+000 5.438178e+000 1.413081e+001 1.409769e+002 9.429887e+001 1.115075e+002 5.816287e+001 7.561402e+001 1.936619e+002 1.006959e+002 1.157052e+002 9.823941e+001 7.051158e+000 3.412743e+000 6.147809e+000 4.857860e+000 6.026691e+000 3.488556e+000 2.477174e+000 4.064227e+000
<VARIANCE> 22
 1.413490e+001 2.237287e+002 3.300596e+000 3.477873e+001 3.817670e+002 5.553541e+003 2.950329e+002 1.381844e+003 7.711230e+001 2.915789e+002 5.760901e+002 3.573551e+003 1.683916e+002 3.870946e+002 1.839142e-001 1.367686e+000 1.108695e-001 1.124506e+000 5.265624e-002 4.499125e+000 5.918461e+000 5.651372e+000
<GCONST> 1.149715e+002
<MIXTURE> 2 5.000000e-001
<MEAN> 22
 1.285087e+000 9.543048e+000 4.524998e-001 3.079238e+000 6.315268e+000 1.111681e+002 8.742827e+001 9.663827e+001 5.465033e+001 6.878374e+001 1.840611e+002 7.678428e+001 1.105146e+002 9.036952e+001 6.879617e+000 2.944951e+000 6.014621e+000 4.433690e+000 5.934904e+000 2.640110e+000 1.504058e+000 3.113323e+000
<VARIANCE> 22
 1.413490e+001 2.237287e+002 3.300596e+000 3.477873e+001 3.817670e+002 5.553541e+003 2.950329e+002 1.381844e+003 7.711230e+001 2.915789e+002 5.760901e+002 3.573551e+003 1.683916e+002 3.870946e+002 1.839142e-001 1.367686e+000 1.108695e-001 1.124506e+000 5.265624e-002 4.499125e+000 5.918461e+000 5.651372e+000
<GCONST> 1.149715e+002
<STATE> 4
<NUMMIXES> 2
<MIXTURE> 1 5.000000e-001
<MEAN> 22
 1.202405e+001 5.035620e+000 4.830751e+000 2.186461e+000 1.433103e+002 7.352026e+001 1.019424e+002 8.390024e+001 7.539016e+001 5.442867e+001 9.672632e+001 1.670299e+002 9.645344e+001 1.094688e+002 2.967354e+000 4.477998e+000 4.444211e+000 5.661273e+000 3.716388e+000 5.288042e+000 3.730459e+000 3.042384e+000
<VARIANCE> 22
 1.601303e+002 4.454892e+001 2.948266e+001 8.718214e+000 1.541816e+004 9.076838e+003 2.041478e+003 1.107193e+003 5.874323e+002 2.130695e+002 3.827862e+003 3.401071e+003 7.953257e+002 7.075449e+002 5.518549e+000 2.131326e+000 9.239316e+000 1.788055e+000 3.376020e+000 5.082313e+000 6.234423e+000 6.286022e+000
<GCONST> 1.413831e+002
<MIXTURE> 2 5.000000e-001
<MEAN> 22
 6.962344e+000 2.365821e+000 2.658833e+000 1.005397e+000 9.364233e+001 3.541128e+001 8.386931e+001 7.059044e+001 6.569537e+001 4.858991e+001 7.197842e+001 1.437025e+002 8.517283e+001 9.882886e+001 2.027690e+000 3.894036e+000 3.228361e+000 5.126400e+000 2.981430e+000 4.386282e+000 2.731706e+000 2.039506e+000
<VARIANCE> 22
 1.601303e+002 4.454892e+001 2.948266e+001 8.718214e+000 1.541816e+004 9.076838e+003 2.041478e+003 1.107193e+003 5.874323e+002 2.130695e+002 3.827862e+003 3.401071e+003 7.953257e+002 7.075449e+002 5.518549e+000 2.131326e+000 9.239316e+000 1.788055e+000 3.376020e+000 5.082313e+000 6.234423e+000 6.286022e+000
<GCONST> 1.413831e+002
<TRANSP> 5
 0.000000e+000 1.000000e+000 0.000000e+000 0.000000e+000 0.000000e+000
 0.000000e+000 7.876825e-001 2.123175e-001 0.000000e+000 0.000000e+000
 0.000000e+000 0.000000e+000 9.467179e-001 5.328207e-002 0.000000e+000
 0.000000e+000 0.000000e+000 0.000000e+000 9.009671e-001 9.903293e-002
 0.000000e+000 0.000000e+000 0.000000e+000 0.000000e+000 0.000000e+000
<ENDHMM>
~h "SIL"
<BEGINHMM>
<NUMSTATES> 5
<STATE> 2
<NUMMIXES> 2
<MIXTURE> 1 5.000000e-001
<MEAN> 22
 1.159132e+002 9.795196e+001 1.051622e+002 8.436526e+001 5.798201e+001 4.722715e+001 1.236813e+001 1.223598e+001 8.679077e+000 8.375947e+000 2.388308e+001 2.281413e+001 1.516302e+001 1.496149e+001 8.504738e-001 6.127291e-001 8.150344e-001 7.736249e-001 7.602230e-001 7.196187e-001 1.158218e+000 1.162065e+000
<VARIANCE> 22
 3.346116e+004 2.375015e+004 2.755391e+004 1.775304e+004 1.612823e+004 1.061491e+004 6.604897e+002 6.482056e+002 3.150826e+002 2.978474e+002 2.430336e+003 2.254056e+003 9.483680e+002 9.234136e+002 3.122568e+000 1.603494e+000 2.736359e+000 2.461433e+000 2.400183e+000 2.295393e+000 3.654539e+000 3.671683e+000
<GCONST> 1.613303e+002
<MIXTURE> 2 5.000000e-001
<MEAN> 22
 4.274362e+001 3.630762e+001 3.876473e+001 3.106905e+001 7.183217e+000 6.015673e+000 2.088135e+000 2.052025e+000 1.578851e+000 1.472645e+000 4.163702e+000 3.823371e+000 2.844784e+000 2.806401e+000 1.436422e-001 1.062125e-001 1.533567e-001 1.460667e-001 1.405220e-001 1.135965e-001 3.935441e-001 3.955992e-001
<VARIANCE> 22
 3.346116e+004 2.375015e+004 2.755391e+004 1.775304e+004 1.612823e+004 1.061491e+004 6.604897e+002 6.482056e+002 3.150826e+002 2.978474e+002 2.430336e+003 2.254056e+003 9.483680e+002 9.234136e+002 3.122568e+000 1.603494e+000 2.736359e+000 2.461433e+000 2.400183e+000 2.295393e+000 3.654539e+000 3.671683e+000
<GCONST> 1.613303e+002
<STATE> 3
<NUMMIXES> 2
<MIXTURE> 1 5.000000e-001
<MEAN> 22
 5.981069e+000 6.259741e+000 1.780311e+000 1.855200e+000 3.398179e+001 3.463952e+001 1.034011e+002 9.997682e+001 7.049194e+001 6.330738e+001 1.922344e+002 1.915692e+002 1.208306e+002 1.187985e+002 6.541978e+000 4.884138e+000 6.300020e+000 5.892680e+000 5.851305e+000 5.841438e+000 2.740072e+000 2.695345e+000
<VARIANCE> 22
 7.773088e+001 8.232479e+001 6.636251e+000 6.402951e+000 1.505701e+003 1.520404e+003 9.148422e+002 6.835970e+002 1.720143e+002 1.301423e+002 2.562973e+003 2.192290e+003 3.669632e+002 2.035851e+002 4.412752e+000 7.347018e-001 9.476352e-001 2.432913e-001 9.634818e-001 2.381420e+000 5.614852e+000 5.512465e+000
<GCONST> 1.216874e+002
<MIXTURE> 2 5.000000e-001
<MEAN> 22
 2.454464e+000 2.630421e+000 7.498745e-001 8.430379e-001 1.846045e+001 1.904258e+001 9.130254e+001 8.951854e+001 6.524577e+001 5.874418e+001 1.719840e+002 1.728404e+002 1.131680e+002 1.130911e+002 5.701716e+000 4.541278e+000 5.910634e+000 5.695382e+000 5.458676e+000 5.224164e+000 1.792245e+000 1.756199e+000
<VARIANCE> 22
 7.773088e+001 8.232479e+001 6.636251e+000 6.402951e+000 1.505701e+003 1.520404e+003 9.148422e+002 6.835970e+002 1.720143e+002 1.301423e+002 2.562973e+003 2.192290e+003 3.669632e+002 2.035851e+002 4.412752e+000 7.347018e-001 9.476352e-001 2.432913e-001 9.634818e-001 2.381420e+000 5.614852e+000 5.512465e+000
<GCONST> 1.216874e+002
<STATE> 4
<NUMMIXES> 2
<MIXTURE> 1 5.000000e-001
<MEAN> 22
 1.812625e+000 3.518006e+000 8.331804e-001 1.182397e+000 7.892266e+000 1.360331e+001 9.700774e+001 9.563485e+001 6.121216e+001 6.045097e+001 1.980196e+002 1.959082e+002 1.184509e+002 1.182182e+002 7.057768e+000 5.016820e+000 6.056108e+000 5.975974e+000 6.021671e+000 6.060519e+000 2.192826e+000 2.359845e+000
<VARIANCE> 22
 8.776508e+000 3.018929e+001 3.300596e+000 2.761286e+000 1.005731e+002 3.489885e+002 2.080205e+002 2.367447e+002 6.131298e+001 7.323778e+001 5.122134e+002 7.722200e+002 1.301825e+002 1.496549e+002 2.162890e-001 1.092339e-001 2.634447e-002 8.747012e-002 2.500950e-002 4.022099e-001 5.280420e+000 5.480672e+000
<GCONST> 8.961578e+001
<MIXTURE> 2 5.000000e-001
<MEAN> 22
 6.276186e-001 1.320214e+000 1.064786e-001 5.177124e-001 3.880820e+000 6.130818e+000 9.123857e+001 8.948025e+001 5.808006e+001 5.702781e+001 1.889668e+002 1.847926e+002 1.138869e+002 1.133248e+002 6.871740e+000 4.884618e+000 5.991184e+000 5.857672e+000 5.958414e+000 5.806839e+000 1.273660e+000 1.423411e+000
<VARIANCE> 22
 8.776508e+000 3.018929e+001 3.300596e+000 2.761286e+000 1.005731e+002 3.489885e+002 2.080205e+002 2.367447e+002 6.131298e+001 7.323778e+001 5.122134e+002 7.722200e+002 1.301825e+002 1.496549e+002 2.162890e-001 1.092339e-001 2.634447e-002 8.747012e-002 2.500950e-002 4.022099e-001 5.280420e+000 5.480672e+000
<GCONST> 8.961578e+001
<TRANSP> 5
 0.000000e+000 1.000000e+000 0.000000e+000 0.000000e+000 0.000000e+000
 0.000000e+000 9.088276e-001 9.117240e-002 0.000000e+000 0.000000e+000
 0.000000e+000 0.000000e+000 9.953595e-001 4.640548e-003 0.000000e+000
 0.000000e+000 0.000000e+000 0.000000e+000 9.965380e-001 3.462036e-003
 0.000000e+000 0.000000e+000 0.000000e+000 0.000000e+000 0.000000e+000
<ENDHMM>
