~o
<STREAMINFO> 1 22
<VECSIZE> 22<NULLD><MFCC_0><DIAGC>
~h "BN_2"
<BEGINHMM>
<NUMSTATES> 5
<STATE> 2
<NUMMIXES> 2
<MIXTURE> 1 5.000000e-001
<MEAN> 22
 1.980357e+000 6.616684e+000 8.426102e-001 1.943712e+000 2.631337e+001 1.861571e+002 9.632740e+001 1.287553e+002 6.203038e+001 9.675747e+001 1.907687e+002 4.645089e+001 1.162274e+002 1.023911e+002 6.974423e+000 2.281714e+000 6.062440e+000 3.807810e+000 5.982080e+000 1.455763e+000 1.924058e+000 2.995218e+000
<VARIANCE> 22
 1.075426e+001 6.533168e+001 3.300596e+000 6.228730e+000 1.898819e+003 2.322788e+003 3.565157e+002 4.135391e+002 1.322029e+002 3.924475e+002 1.538567e+003 1.104225e+003 1.869727e+002 1.713854e+002 1.259007e+000 3.645747e-001 1.260860e+000 5.904555e-001 4.519527e-001 1.045027e+000 5.328973e+000 5.802340e+000
<GCONST> 1.143966e+002
<MIXTURE> 2 5.000000e-001
<MEAN> 22
 6.686093e-001 3.383564e+000 1.159085e-001 9.454155e-001 8.883192e+000 1.668789e+002 8.877476e+001 1.206211e+002 5.743120e+001 8.883335e+001 1.750789e+002 3.315893e+001 1.107578e+002 9.715454e+001 6.525601e+000 2.040194e+000 5.613288e+000 3.500446e+000 5.713170e+000 1.046857e+000 1.000676e+000 2.031696e+000
<VARIANCE> 22
 1.075426e+001 6.533168e+001 3.300596e+000 6.228730e+000 1.898819e+003 2.322788e+003 3.565157e+002 4.135391e+002 1.322029e+002 3.924475e+002 1.538567e+003 1.104225e+003 1.869727e+002 1.713854e+002 1.259007e+000 3.645747e-001 1.260860e+000 5.904555e-001 4.519527e-001 1.045027e+000 5.328973e+000 5.802340e+000
<GCONST> 1.143966e+002
<STATE> 3
<NUMMIXES> 2
<MIXTURE> 1 5.000000e-001
<MEAN> 22
 3.656246e+000 1.175061e+001 1.410162e+000 3.190561e+000 9.422224e+001 1.417942e+002 1.044046e+002 1.176943e+002 7.786749e+001 8.764025e+001 1.668126e+002 1.066560e+002 1.149489e+002 1.087349e+002 5.546163e+000 3.376168e+000 5.574245e+000 4.624659e+000 5.467097e+000 3.419157e+000 2.619612e+000 3.331363e+000
<VARIANCE> 22
 2.674439e+001 2.598610e+002 3.456185e+000 1.492310e+001 1.242211e+004 8.478765e+003 9.053056e+002 9.673492e+002 4.383647e+002 6.884386e+002 5.074003e+003 5.155747e+003 5.107872e+002 2.583192e+002 7.861101e+000 1.869139e+000 5.256405e+000 1.383643e+000 1.808328e+000 5.753471e+000 6.134034e+000 6.590996e+000
<GCONST> 1.375789e+002
<MIXTURE> 2 5.000000e-001
<MEAN> 22
 1.587646e+000 5.302531e+000 6.665297e-001 1.645343e+000 4.964044e+001 1.049622e+002 9.236925e+001 1.052535e+002 6.949262e+001 7.714501e+001 1.383198e+002 7.793462e+001 1.059087e+002 1.023059e+002 4.424657e+000 2.829302e+000 4.657171e+000 4.154145e+000 4.929201e+000 2.459701e+000 1.628932e+000 2.304445e+000
<VARIANCE> 22
 2.674439e+001 2.598610e+002 3.456185e+000 1.492310e+001 1.242211e+004 8.478765e+003 9.053056e+002 9.673492e+002 4.383647e+002 6.884386e+002 5.074003e+003 5.155747e+003 5.107872e+002 2.583192e+002 7.861101e+000 1.869139e+000 5.256405e+000 1.383643e+000 1.808328e+000 5.753471e+000 6.134034e+000 6.590996e+000
<GCONST> 1.375789e+002
<STATE> 4
<NUMMIXES> 2
<MIXTURE> 1 5.000000e-001
<MEAN> 22
 7.025111e+000 3.629739e+000 2.436865e+000 1.231321e+000 1.711114e+002 7.646120e+001 1.212560e+002 9.640732e+001 8.954152e+001 6.572740e+001 7.370618e+001 1.681908e+002 1.024080e+002 1.141398e+002 3.147684e+000 4.491783e+000 2.508250e+000 5.578924e+000 3.639647e+000 5.366798e+000 3.329388e+000 2.586589e+000
<VARIANCE> 22
 9.899447e+001 3.499051e+001 1.295985e+001 3.304366e+000 1.165862e+004 8.862746e+003 1.248690e+003 1.098909e+003 6.865953e+002 3.926152e+002 3.803654e+003 4.753618e+003 6.385920e+002 5.915878e+002 4.087784e+000 1.753387e+000 6.456114e+000 1.706042e+000 1.944467e+000 4.997102e+000 6.817528e+000 6.138885e+000
<GCONST> 1.373596e+002
<MIXTURE> 2 5.000000e-001
<MEAN> 22
 3.045273e+000 1.263628e+000 9.968731e-001 5.042044e-001 1.279214e+002 3.880434e+001 1.071212e+002 8.314740e+001 7.906033e+001 5.780159e+001 4.903667e+001 1.406122e+002 9.229980e+001 1.044108e+002 2.338954e+000 3.962121e+000 1.491894e+000 5.056462e+000 3.081871e+000 4.472630e+000 2.284972e+000 1.595518e+000
<VARIANCE> 22
 9.899447e+001 3.499051e+001 1.295985e+001 3.304366e+000 1.165862e+004 8.862746e+003 1.248690e+003 1.098909e+003 6.865953e+002 3.926152e+002 3.803654e+003 4.753618e+003 6.385920e+002 5.915878e+002 4.087784e+000 1.753387e+000 6.456114e+000 1.706042e+000 1.944467e+000 4.997102e+000 6.817528e+000 6.138885e+000
<GCONST> 1.373596e+002
<TRANSP> 5
 0.000000e+000 1.000000e+000 0.000000e+000 0.000000e+000 0.000000e+000
 0.000000e+000 8.626518e-001 1.373482e-001 0.000000e+000 0.000000e+000
 0.000000e+000 0.000000e+000 4.402637e-001 5.597363e-001 0.000000e+000
 0.000000e+000 0.000000e+000 0.000000e+000 7.767410e-001 2.232590e-001
 0.000000e+000 0.000000e+000 0.000000e+000 0.000000e+000 0.000000e+000
<ENDHMM>
~h "BS_2"
<BEGINHMM>
<NUMSTATES> 5
<STATE> 2
<NUMMIXES> 2
<MIXTURE> 1 5.000000e-001
<MEAN> 22
 1.717880e+001 1.702808e+001 3.480798e+000 3.651250e+000 1.403442e+002 1.285542e+002 1.122887e+002 1.078869e+002 7.883573e+001 7.085895e+001 1.314873e+002 1.322459e+002 1.085898e+002 1.083964e+002 1.516168e+000 3.504564e+000 5.220941e+000 5.221848e+000 3.245874e+000 3.532653e+000 3.181120e+000 3.724910e+000
<VARIANCE> 22
 2.652439e+002 2.564505e+002 1.177369e+001 1.410670e+001 6.429289e+003 3.092018e+003 2.907167e+003 2.497056e+003 3.087161e+002 2.151900e+002 1.755943e+003 1.753436e+003 1.836799e+002 1.773611e+002 2.783474e+000 1.040766e+000 8.863246e+000 6.222318e-001 5.669976e+000 4.167430e+000 5.888522e+000 5.675827e+000
<GCONST> 1.351546e+002
<MIXTURE> 2 5.000000e-001
<MEAN> 22
 1.066428e+001 1.062246e+001 2.108286e+000 2.148894e+000 1.082710e+002 1.063118e+002 9.072147e+001 8.789870e+001 7.180761e+001 6.499121e+001 1.147257e+002 1.154963e+002 1.031686e+002 1.030694e+002 8.488181e-001 3.096492e+000 4.030093e+000 4.906322e+000 2.293406e+000 2.716081e+000 2.210469e+000 2.771950e+000
<VARIANCE> 22
 2.652439e+002 2.564505e+002 1.177369e+001 1.410670e+001 6.429289e+003 3.092018e+003 2.907167e+003 2.497056e+003 3.087161e+002 2.151900e+002 1.755943e+003 1.753436e+003 1.836799e+002 1.773611e+002 2.783474e+000 1.040766e+000 8.863246e+000 6.222318e-001 5.669976e+000 4.167430e+000 5.888522e+000 5.675827e+000
<GCONST> 1.351546e+002
<STATE> 3
<NUMMIXES> 2
<MIXTURE> 1 5.000000e-001
<MEAN> 22
 2.595219e+001 2.590533e+001 9.709218e+000 8.845558e+000 1.170679e+002 1.143006e+002 1.298222e+002 1.278913e+002 8.125511e+001 7.366010e+001 1.654473e+002 1.631381e+002 1.167428e+002 1.151671e+002 8.507393e-001 3.984858e+000 6.841590e+000 5.069649e+000 3.715921e+000 4.336797e+000 3.163691e+000 4.321486e+000
<VARIANCE> 22
 8.052789e+002 8.244333e+002 3.974567e+002 2.672764e+002 2.086190e+003 1.587924e+003 1.827785e+003 1.620111e+003 2.636652e+002 2.382741e+002 2.099066e+003 1.651336e+003 2.876305e+002 2.202068e+002 2.261107e+000 4.343788e-001 2.656986e+000 1.218825e-001 9.556195e+000 1.444248e+000 7.273186e+000 5.106412e+000
<GCONST> 1.375838e+002
<MIXTURE> 2 5.000000e-001
<MEAN> 22
 1.460121e+001 1.442015e+001 1.734692e+000 2.306122e+000 9.879794e+001 9.836105e+001 1.127212e+002 1.117911e+002 7.476001e+001 6.748564e+001 1.471211e+002 1.468835e+002 1.099590e+002 1.092313e+002 2.492602e-001 3.721228e+000 6.189579e+000 4.930003e+000 2.479397e+000 3.856089e+000 2.084937e+000 3.417591e+000
<VARIANCE> 22
 8.052789e+002 8.244333e+002 3.974567e+002 2.672764e+002 2.086190e+003 1.587924e+003 1.827785e+003 1.620111e+003 2.636652e+002 2.382741e+002 2.099066e+003 1.651336e+003 2.876305e+002 2.202068e+002 2.261107e+000 4.343788e-001 2.656986e+000 1.218825e-001 9.556195e+000 1.444248e+000 7.273186e+000 5.106412e+000
<GCONST> 1.375838e+002
<STATE> 4
<NUMMIXES> 2
<MIXTURE> 1 5.000000e-001
<MEAN> 22
 7.461956e+000 6.675436e+000 2.391789e+000 2.044507e+000 9.861398e+001 9.512368e+001 1.239946e+002 1.231642e+002 7.226419e+001 6.718450e+001 1.688991e+002 1.680580e+002 1.106311e+002 1.097738e+002 1.695744e+000 4.212581e+000 6.982537e+000 5.133424e+000 4.094959e+000 4.656909e+000 3.516753e+000 4.114840e+000
<VARIANCE> 22
 7.225631e+001 4.949699e+001 7.673767e+000 4.733231e+000 1.414568e+003 1.147160e+003 7.578380e+002 6.518819e+002 1.315533e+002 1.478866e+002 8.261945e+002 7.969730e+002 1.216777e+002 1.158994e+002 6.598467e+000 1.968238e-001 4.219568e-001 1.013371e-001 1.083361e+001 7.463289e-001 5.986650e+000 7.854290e+000
<GCONST> 1.154953e+002
<MIXTURE> 2 5.000000e-001
<MEAN> 22
 4.061808e+000 3.861272e+000 1.283727e+000 1.174267e+000 8.356968e+001 8.157578e+001 1.129830e+002 1.129514e+002 6.767633e+001 6.232016e+001 1.574017e+002 1.567657e+002 1.062187e+002 1.054676e+002 6.682444e-001 4.035121e+000 6.722705e+000 5.006090e+000 2.778381e+000 4.311348e+000 2.538047e+000 2.993820e+000
<VARIANCE> 22
 7.225631e+001 4.949699e+001 7.673767e+000 4.733231e+000 1.414568e+003 1.147160e+003 7.578380e+002 6.518819e+002 1.315533e+002 1.478866e+002 8.261945e+002 7.969730e+002 1.216777e+002 1.158994e+002 6.598467e+000 1.968238e-001 4.219568e-001 1.013371e-001 1.083361e+001 7.463289e-001 5.986650e+000 7.854290e+000
<GCONST> 1.154953e+002
<TRANSP> 5
 0.000000e+000 1.000000e+000 0.000000e+000 0.000000e+000 0.000000e+000
 0.000000e+000 7.213613e-001 2.786386e-001 0.000000e+000 0.000000e+000
 0.000000e+000 0.000000e+000 3.924180e-001 6.075820e-001 0.000000e+000
 0.000000e+000 0.000000e+000 0.000000e+000 8.506595e-001 1.493405e-001
 0.000000e+000 0.000000e+000 0.000000e+000 0.000000e+000 0.000000e+000
<ENDHMM>
~h "SP_2"
<BEGINHMM>
<NUMSTATES> 5
<STATE> 2
<NUMMIXES> 2
<MIXTURE> 1 5.000000e-001
<MEAN> 22
 2.092678e+000 6.192770e+000 8.883756e-001 2.875955e+000 2.769606e+001 2.019303e+002 1.008075e+002 1.455714e+002 6.600783e+001 9.647292e+001 1.893822e+002 6.270351e+001 1.143600e+002 9.376064e+001 6.873928e+000 2.358481e+000 6.150653e+000 3.398549e+000 5.985703e+000 1.884995e+000 1.943293e+000 3.020571e+000
<VARIANCE> 22
 1.533114e+001 7.067580e+001 3.300596e+000 1.575874e+001 2.121563e+003 3.226607e+003 5.662529e+002 7.268012e+002 2.176080e+002 5.322997e+002 1.585060e+003 1.182099e+003 2.686446e+002 2.493941e+002 2.359316e+000 4.502574e-001 1.227167e+000 5.267921e-001 5.427378e-001 1.231077e+000 5.334313e+000 6.240125e+000
<GCONST> 1.199814e+002
<MIXTURE> 2 5.000000e-001
<MEAN> 22
 5.264779e-001 2.830014e+000 1.616739e-001 1.288064e+000 9.271885e+000 1.792091e+002 9.128906e+001 1.347878e+002 6.010721e+001 8.724427e+001 1.734571e+002 4.895084e+001 1.078038e+002 8.744376e+001 6.259525e+000 2.090076e+000 5.707543e+000 3.108227e+000 5.691021e+000 1.441179e+000 1.019447e+000 2.021361e+000
<VARIANCE> 22
 1.533114e+001 7.067580e+001 3.300596e+000 1.575874e+001 2.121563e+003 3.226607e+003 5.662529e+002 7.268012e+002 2.176080e+002 5.322997e+002 1.585060e+003 1.182099e+003 2.686446e+002 2.493941e+002 2.359316e+000 4.502574e-001 1.227167e+000 5.267921e-001 5.427378e-001 1.231077e+000 5.334313e+000 6.240125e+000
<GCONST> 1.199814e+002
<STATE> 3
<NUMMIXES> 2
<MIXTURE> 1 5.000000e-001
<MEAN> 22
 9.939232e+000 1.634793e+001 6.683844e+000 7.040107e+000 1.340690e+002 1.666921e+002 1.072547e+002 1.138633e+002 7.297897e+001 7.983711e+001 1.523812e+002 1.086005e+002 1.011285e+002 9.399831e+001 5.561045e+000 3.292369e+000 4.893147e+000 4.284181e+000 5.067051e+000 3.612584e+000 2.582150e+000 3.408453e+000
<VARIANCE> 22
 6.681937e+002 6.342740e+002 4.632880e+002 2.509014e+002 2.526375e+004 1.430164e+004 1.928609e+003 2.412557e+003 9.480205e+002 1.033044e+003 5.710685e+003 4.895445e+003 1.271615e+003 1.107606e+003 7.560792e+000 2.429989e+000 6.493821e+000 3.012749e+000 4.150390e+000 5.913926e+000 6.367503e+000 6.777398e+000
<GCONST> 1.580607e+002
<MIXTURE> 2 5.000000e-001
<MEAN> 22
 -4.005458e-001 6.274011e+000 -1.925806e+000 7.041605e-001 7.049065e+001 1.188563e+002 8.968831e+001 9.421615e+001 6.066299e+001 6.698071e+001 1.221536e+002 8.061351e+001 8.686461e+001 8.068602e+001 4.461169e+000 2.668832e+000 3.873828e+000 3.589890e+000 4.252151e+000 2.639842e+000 1.572794e+000 2.367115e+000
<VARIANCE> 22
 6.681937e+002 6.342740e+002 4.632880e+002 2.509014e+002 2.526375e+004 1.430164e+004 1.928609e+003 2.412557e+003 9.480205e+002 1.033044e+003 5.710685e+003 4.895445e+003 1.271615e+003 1.107606e+003 7.560792e+000 2.429989e+000 6.493821e+000 3.012749e+000 4.150390e+000 5.913926e+000 6.367503e+000 6.777398e+000
<GCONST> 1.580607e+002
<STATE> 4
<NUMMIXES> 2
<MIXTURE> 1 5.000000e-001
<MEAN> 22
 7.838956e+000 3.951277e+000 2.819122e+000 1.988508e+000 1.471412e+002 5.678222e+001 1.369686e+002 9.845202e+001 9.701459e+001 6.585734e+001 1.066558e+002 1.679738e+002 9.858616e+001 1.119090e+002 3.577148e+000 4.516748e+000 3.388197e+000 5.593750e+000 4.028916e+000 5.206866e+000 3.463009e+000 2.544590e+000
<VARIANCE> 22
 1.133071e+002 3.260367e+001 1.389542e+001 8.801554e+000 8.221105e+003 4.824278e+003 1.484333e+003 1.148734e+003 6.308254e+002 2.570091e+002 3.964696e+003 3.429191e+003 3.861104e+002 2.247853e+002 5.489852e+000 1.298980e+000 6.666836e+000 1.004879e+000 2.565765e+000 5.182783e+000 6.871148e+000 5.868649e+000
<GCONST> 1.352430e+002
<MIXTURE> 2 5.000000e-001
<MEAN> 22
 3.581124e+000 1.667292e+000 1.328060e+000 8.018117e-001 1.108730e+002 2.899941e+001 1.215578e+002 8.489483e+001 8.696809e+001 5.944474e+001 8.146949e+001 1.445500e+002 9.072628e+001 1.059118e+002 2.639930e+000 4.060856e+000 2.355389e+000 5.192776e+000 3.388196e+000 4.296237e+000 2.414495e+000 1.575578e+000
<VARIANCE> 22
 1.133071e+002 3.260367e+001 1.389542e+001 8.801554e+000 8.221105e+003 4.824278e+003 1.484333e+003 1.148734e+003 6.308254e+002 2.570091e+002 3.964696e+003 3.429191e+003 3.861104e+002 2.247853e+002 5.489852e+000 1.298980e+000 6.666836e+000 1.004879e+000 2.565765e+000 5.182783e+000 6.871148e+000 5.868649e+000
<GCONST> 1.352430e+002
<TRANSP> 5
 0.000000e+000 1.000000e+000 0.000000e+000 0.000000e+000 0.000000e+000
 0.000000e+000 8.564912e-001 1.435088e-001 0.000000e+000 0.000000e+000
 0.000000e+000 0.000000e+000 3.161367e-001 6.838633e-001 0.000000e+000
 0.000000e+000 0.000000e+000 0.000000e+000 7.792202e-001 2.207798e-001
 0.000000e+000 0.000000e+000 0.000000e+000 0.000000e+000 0.000000e+000
<ENDHMM>
~h "ST_2"
<BEGINHMM>
<NUMSTATES> 5
<STATE> 2
<NUMMIXES> 2
<MIXTURE> 1 5.000000e-001
<MEAN> 22
 2.083967e+000 8.052024e+000 8.699844e-001 1.308264e+000 2.362689e+001 1.425620e+002 9.377528e+001 7.670159e+001 6.187305e+001 8.842637e+001 1.912418e+002 5.700775e+001 1.157383e+002 1.061797e+002 6.985226e+000 2.271965e+000 6.139573e+000 6.016150e+000 5.995079e+000 9.476326e-001 1.954589e+000 3.029757e+000
<VARIANCE> 22
 1.116114e+001 8.608852e+001 3.300596e+000 2.164982e+000 1.282170e+003 1.666259e+003 2.300831e+002 4.844010e+002 1.049063e+002 3.142848e+002 1.273363e+003 1.164560e+003 1.408360e+002 1.356946e+002 1.116651e+000 3.990213e-001 1.111223e-001 4.319233e-001 2.968307e-001 1.563694e+000 5.110926e+000 6.162591e+000
<GCONST> 1.087718e+002
<MIXTURE> 2 5.000000e-001
<MEAN> 22
 7.476352e-001 4.340668e+000 1.432827e-001 7.197084e-001 9.303930e+000 1.262340e+002 8.770788e+001 6.789794e+001 5.777609e+001 8.133514e+001 1.769682e+002 4.335749e+001 1.109913e+002 1.015201e+002 6.562540e+000 2.019293e+000 6.006233e+000 5.753266e+000 5.777150e+000 4.474416e-001 1.050295e+000 2.036775e+000
<VARIANCE> 22
 1.116114e+001 8.608852e+001 3.300596e+000 2.164982e+000 1.282170e+003 1.666259e+003 2.300831e+002 4.844010e+002 1.049063e+002 3.142848e+002 1.273363e+003 1.164560e+003 1.408360e+002 1.356946e+002 1.116651e+000 3.990213e-001 1.111223e-001 4.319233e-001 2.968307e-001 1.563694e+000 5.110926e+000 6.162591e+000
<GCONST> 1.087718e+002
<STATE> 3
<NUMMIXES> 2
<MIXTURE> 1 5.000000e-001
<MEAN> 22
 4.755632e+000 1.304783e+001 2.119349e+000 2.746117e+000 6.205352e+001 1.232805e+002 9.649736e+001 8.468397e+001 7.329053e+001 8.305833e+001 1.713113e+002 9.996635e+001 1.185999e+002 1.131373e+002 5.639267e+000 3.101234e+000 6.310555e+000 5.963304e+000 5.532327e+000 2.718457e+000 2.609971e+000 3.477356e+000
<VARIANCE> 22
 3.843829e+001 3.158262e+002 1.717839e+001 1.460131e+001 4.635724e+003 4.792628e+003 8.166987e+002 6.456163e+002 2.866306e+002 4.194539e+002 5.000027e+003 4.356621e+003 5.113946e+002 2.366115e+002 6.940341e+000 1.773967e+000 4.094255e-001 4.442624e-001 1.556580e+000 6.497833e+000 5.985792e+000 6.323948e+000
<GCONST> 1.325054e+002
<MIXTURE> 2 5.000000e-001
<MEAN> 22
 2.275688e+000 5.939229e+000 4.614766e-001 1.217651e+000 3.481906e+001 9.558894e+001 8.506618e+001 7.452038e+001 6.651847e+001 7.486610e+001 1.430269e+002 7.356446e+001 1.095543e+002 1.069845e+002 4.585485e+000 2.568472e+000 6.054610e+000 5.696692e+000 5.033275e+000 1.698823e+000 1.631335e+000 2.471458e+000
<VARIANCE> 22
 3.843829e+001 3.158262e+002 1.717839e+001 1.460131e+001 4.635724e+003 4.792628e+003 8.166987e+002 6.456163e+002 2.866306e+002 4.194539e+002 5.000027e+003 4.356621e+003 5.113946e+002 2.366115e+002 6.940341e+000 1.773967e+000 4.094255e-001 4.442624e-001 1.556580e+000 6.497833e+000 5.985792e+000 6.323948e+000
<GCONST> 1.325054e+002
<STATE> 4
<NUMMIXES> 2
<MIXTURE> 1 5.000000e-001
<MEAN> 22
 7.972598e+000 3.297011e+000 1.632604e+000 1.078385e+000 1.228501e+002 6.213721e+001 8.327951e+001 9.255695e+001 8.642062e+001 6.495703e+001 9.516077e+001 1.755557e+002 1.101281e+002 1.164718e+002 3.410244e+000 4.602991e+000 6.219786e+000 5.969556e+000 4.295482e+000 5.434926e+000 3.337642e+000 2.565619e+000
<VARIANCE> 22
 7.951035e+001 2.253077e+001 3.896724e+000 2.164982e+000 8.506408e+003 5.372781e+003 5.994854e+002 7.077429e+002 4.804644e+002 2.287073e+002 4.519507e+003 4.033307e+003 3.033662e+002 2.459010e+002 5.002733e+000 1.379622e+000 1.297306e+000 3.820893e-001 1.634858e+000 5.027588e+000 6.953588e+000 6.015034e+000
<GCONST> 1.272680e+002
<MIXTURE> 2 5.000000e-001
<MEAN> 22
 4.405855e+000 1.398347e+000 8.429996e-001 4.898297e-001 8.595806e+001 3.281751e+001 7.348575e+001 8.191558e+001 7.765282e+001 5.890780e+001 6.826985e+001 1.501523e+002 1.031611e+002 1.101994e+002 2.515572e+000 4.133161e+000 5.764189e+000 5.722302e+000 3.784036e+000 4.538034e+000 2.282856e+000 1.584596e+000
<VARIANCE> 22
 7.951035e+001 2.253077e+001 3.896724e+000 2.164982e+000 8.506408e+003 5.372781e+003 5.994854e+002 7.077429e+002 4.804644e+002 2.287073e+002 4.519507e+003 4.033307e+003 3.033662e+002 2.459010e+002 5.002733e+000 1.379622e+000 1.297306e+000 3.820893e-001 1.634858e+000 5.027588e+000 6.953588e+000 6.015034e+000
<GCONST> 1.272680e+002
<TRANSP> 5
 0.000000e+000 1.000000e+000 0.000000e+000 0.000000e+000 0.000000e+000
 0.000000e+000 8.546213e-001 1.453787e-001 0.000000e+000 0.000000e+000
 0.000000e+000 0.000000e+000 4.303305e-001 5.696695e-001 0.000000e+000
 0.000000e+000 0.000000e+000 0.000000e+000 7.586925e-001 2.413075e-001
 0.000000e+000 0.000000e+000 0.000000e+000 0.000000e+000 0.000000e+000
<ENDHMM>
~h "TH_LD"
<BEGINHMM>
<NUMSTATES> 5
<STATE> 2
<NUMMIXES> 2
<MIXTURE> 1 5.000000e-001
<MEAN> 22
 9.407585e+000 9.351260e+000 2.480669e+000 2.554142e+000 1.133254e+002 9.661901e+001 1.028870e+002 1.008562e+002 7.199096e+001 6.493181e+001 1.468847e+002 1.517903e+002 1.087982e+002 1.082876e+002 2.471690e+000 4.217804e+000 6.477693e+000 5.343715e+000 3.676178e+000 4.783200e+000 3.812953e+000 3.974473e+000
<VARIANCE> 22
 1.171386e+002 1.150255e+002 8.918570e+000 9.561481e+000 8.496729e+003 4.509498e+003 2.030705e+003 1.840716e+003 2.495201e+002 2.103628e+002 1.868702e+003 1.563634e+003 3.514239e+002 3.373342e+002 7.764573e+000 1.412085e+000 3.643491e+000 7.883147e-001 7.630657e+000 3.683239e+000 6.272834e+000 7.686024e+000
<GCONST> 1.350836e+002
<MIXTURE> 2 5.000000e-001
<MEAN> 22
 5.078362e+000 5.061262e+000 1.286110e+000 1.317276e+000 7.645428e+001 6.975790e+001 8.486161e+001 8.369474e+001 6.567248e+001 5.913025e+001 1.295933e+002 1.359731e+002 1.012996e+002 1.009410e+002 1.357090e+000 3.742480e+000 5.714175e+000 4.988567e+000 2.571232e+000 4.015530e+000 2.811129e+000 2.865525e+000
<VARIANCE> 22
 1.171386e+002 1.150255e+002 8.918570e+000 9.561481e+000 8.496729e+003 4.509498e+003 2.030705e+003 1.840716e+003 2.495201e+002 2.103628e+002 1.868702e+003 1.563634e+003 3.514239e+002 3.373342e+002 7.764573e+000 1.412085e+000 3.643491e+000 7.883147e-001 7.630657e+000 3.683239e+000 6.272834e+000 7.686024e+000
<GCONST> 1.350836e+002
<STATE> 3
<NUMMIXES> 2
<MIXTURE> 1 5.000000e-001
<MEAN> 22
 1.401189e+001 1.309178e+001 3.163667e+000 2.949677e+000 6.535058e+001 6.111864e+001 9.701321e+001 9.843746e+001 7.166517e+001 6.769323e+001 1.705170e+002 1.706286e+002 1.128531e+002 1.122208e+002 3.682798e+000 4.487135e+000 6.844119e+000 5.304987e+000 6.398855e+000 5.617104e+000 4.671147e+000 4.895267e+000
<VARIANCE> 22
 1.549681e+002 1.106711e+002 1.065475e+001 9.300337e+000 1.136421e+003 8.366814e+002 1.138049e+003 9.256722e+002 1.443215e+002 1.429959e+002 1.422042e+003 1.171644e+003 2.619599e+002 2.023694e+002 1.185737e+001 3.233973e-001 3.060059e-001 1.924556e-001 7.218060e-001 7.904144e-001 4.698503e+000 6.782398e+000
<GCONST> 1.189634e+002
<MIXTURE> 2 5.000000e-001
<MEAN> 22
 9.032447e+000 8.883763e+000 1.858003e+000 1.729819e+000 5.186624e+001 4.954846e+001 8.351923e+001 8.626752e+001 6.685981e+001 6.291000e+001 1.554330e+002 1.569368e+002 1.063791e+002 1.065306e+002 2.305416e+000 4.259663e+000 6.622847e+000 5.129508e+000 6.059018e+000 5.261482e+000 3.804106e+000 3.853545e+000
<VARIANCE> 22
 1.549681e+002 1.106711e+002 1.065475e+001 9.300337e+000 1.136421e+003 8.366814e+002 1.138049e+003 9.256722e+002 1.443215e+002 1.429959e+002 1.422042e+003 1.171644e+003 2.619599e+002 2.023694e+002 1.185737e+001 3.233973e-001 3.060059e-001 1.924556e-001 7.218060e-001 7.904144e-001 4.698503e+000 6.782398e+000
<GCONST> 1.189634e+002
<STATE> 4
<NUMMIXES> 2
<MIXTURE> 1 5.000000e-001
<MEAN> 22
 7.804620e+000 7.786816e+000 2.315669e+000 2.225959e+000 3.921724e+001 3.603308e+001 1.006149e+002 9.816444e+001 6.593143e+001 6.093420e+001 1.943803e+002 1.930245e+002 1.174911e+002 1.165755e+002 7.040352e+000 5.031997e+000 6.399910e+000 5.745714e+000 6.069054e+000 6.017566e+000 4.318386e+000 4.049101e+000
<VARIANCE> 22
 3.959569e+001 4.240956e+001 4.201899e+000 3.927921e+000 1.230566e+003 8.195990e+002 4.793471e+002 3.605780e+002 9.535669e+001 8.318246e+001 6.923300e+002 6.000732e+002 1.618809e+002 1.357919e+002 7.722540e-001 8.217381e-002 2.647248e-001 2.411797e-001 2.124697e-001 2.258745e-001 5.270779e+000 7.164248e+000
<GCONST> 1.035469e+002
<MIXTURE> 2 5.000000e-001
<MEAN> 22
 5.287616e+000 5.181911e+000 1.495727e+000 1.433199e+000 2.518547e+001 2.458162e+001 9.185728e+001 9.056889e+001 6.202541e+001 5.728602e+001 1.838555e+002 1.832259e+002 1.124018e+002 1.119143e+002 6.688840e+000 4.917333e+000 6.194104e+000 5.549274e+000 5.884676e+000 5.827460e+000 3.400058e+000 2.978457e+000
<VARIANCE> 22
 3.959569e+001 4.240956e+001 4.201899e+000 3.927921e+000 1.230566e+003 8.195990e+002 4.793471e+002 3.605780e+002 9.535669e+001 8.318246e+001 6.923300e+002 6.000732e+002 1.618809e+002 1.357919e+002 7.722540e-001 8.217381e-002 2.647248e-001 2.411797e-001 2.124697e-001 2.258745e-001 5.270779e+000 7.164248e+000
<GCONST> 1.035469e+002
<TRANSP> 5
 0.000000e+000 1.000000e+000 0.000000e+000 0.000000e+000 0.000000e+000
 0.000000e+000 6.136497e-001 3.863503e-001 0.000000e+000 0.000000e+000
 0.000000e+000 0.000000e+000 7.297127e-001 2.702873e-001 0.000000e+000
 0.000000e+000 0.000000e+000 0.000000e+000 8.439230e-001 1.560770e-001
 0.000000e+000 0.000000e+000 0.000000e+000 0.000000e+000 0.000000e+000
<ENDHMM>
~h "TH_LU"
<BEGINHMM>
<NUMSTATES> 5
<STATE> 2
<NUMMIXES> 2
<MIXTURE> 1 5.000000e-001
<MEAN> 22
 2.136015e+001 1.842445e+001 1.041641e+001 8.960936e+000 5.870571e+001 5.324568e+001 9.318362e+001 9.138589e+001 7.235769e+001 6.763210e+001 1.830148e+002 1.822803e+002 1.233468e+002 1.214607e+002 5.932451e+000 4.711264e+000 6.384782e+000 5.848028e+000 5.743372e+000 5.664851e+000 3.348721e+000 3.150734e+000
<VARIANCE> 22
 1.123933e+003 7.853438e+002 8.339946e+002 5.334789e+002 2.974158e+003 2.252405e+003 1.164138e+003 1.013364e+003 1.696674e+002 1.555376e+002 2.714386e+003 2.583524e+003 3.868947e+002 2.903611e+002 7.262067e+000 1.227565e+000 6.701787e-001 3.348682e-001 1.104340e+000 3.896837e+000 4.525614e+000 4.977447e+000
<GCONST> 1.396687e+002
<MIXTURE> 2 5.000000e-001
<MEAN> 22
 7.950109e+000 7.214852e+000 -1.135180e+000 -2.779292e-001 3.689137e+001 3.426188e+001 7.953584e+001 7.865254e+001 6.714744e+001 6.264352e+001 1.621749e+002 1.619489e+002 1.154790e+002 1.146447e+002 4.854523e+000 4.268082e+000 6.057324e+000 5.616557e+000 5.323022e+000 4.875235e+000 2.497781e+000 2.258326e+000
<VARIANCE> 22
 1.123933e+003 7.853438e+002 8.339946e+002 5.334789e+002 2.974158e+003 2.252405e+003 1.164138e+003 1.013364e+003 1.696674e+002 1.555376e+002 2.714386e+003 2.583524e+003 3.868947e+002 2.903611e+002 7.262067e+000 1.227565e+000 6.701787e-001 3.348682e-001 1.104340e+000 3.896837e+000 4.525614e+000 4.977447e+000
<GCONST> 1.396687e+002
<STATE> 3
<NUMMIXES> 2
<MIXTURE> 1 5.000000e-001
<MEAN> 22
 1.485800e+001 1.514756e+001 3.013637e+000 3.081151e+000 5.956557e+001 5.638641e+001 7.032745e+001 7.161601e+001 6.807316e+001 6.428673e+001 1.509913e+002 1.515660e+002 1.084049e+002 1.081572e+002 4.739017e+000 4.575914e+000 6.474201e+000 5.667967e+000 5.752859e+000 5.749454e+000 3.474874e+000 3.280720e+000
<VARIANCE> 22
 1.308412e+002 1.337133e+002 6.864277e+000 7.375783e+000 1.318814e+003 1.095440e+003 7.228221e+002 7.792843e+002 1.196200e+002 1.181998e+002 1.196214e+003 1.199121e+003 1.173154e+002 1.107873e+002 1.041899e+001 9.950102e-001 3.326162e-001 2.808406e-001 9.020079e-001 3.788396e+000 4.642648e+000 4.247469e+000
<GCONST> 1.189362e+002
<MIXTURE> 2 5.000000e-001
<MEAN> 22
 1.028256e+001 1.052218e+001 1.965647e+000 1.994815e+000 4.503938e+001 4.314743e+001 5.957331e+001 6.044975e+001 6.369832e+001 5.993793e+001 1.371567e+002 1.377146e+002 1.040725e+002 1.039470e+002 3.447878e+000 4.176913e+000 6.243509e+000 5.455989e+000 5.372963e+000 4.970902e+000 2.613002e+000 2.456344e+000
<VARIANCE> 22
 1.308412e+002 1.337133e+002 6.864277e+000 7.375783e+000 1.318814e+003 1.095440e+003 7.228221e+002 7.792843e+002 1.196200e+002 1.181998e+002 1.196214e+003 1.199121e+003 1.173154e+002 1.107873e+002 1.041899e+001 9.950102e-001 3.326162e-001 2.808406e-001 9.020079e-001 3.788396e+000 4.642648e+000 4.247469e+000
<GCONST> 1.189362e+002
<STATE> 4
<NUMMIXES> 2
<MIXTURE> 1 5.000000e-001
<MEAN> 22
 2.223321e+001 2.314060e+001 4.489779e+000 4.258070e+000 1.306796e+002 1.252528e+002 9.639500e+001 9.781873e+001 7.459129e+001 7.072030e+001 1.306504e+002 1.320361e+002 1.086489e+002 1.080916e+002 1.898450e+000 3.406893e+000 6.187410e+000 5.469544e+000 3.782598e+000 3.421788e+000 2.989629e+000 3.504674e+000
<VARIANCE> 22
 3.950459e+002 4.246400e+002 1.907641e+001 1.608765e+001 6.688528e+003 4.469740e+003 2.569908e+003 2.572882e+003 3.814403e+002 3.979460e+002 2.686844e+003 2.694001e+003 4.718091e+002 4.198550e+002 4.168374e+000 1.814150e+000 4.436528e+000 1.226879e+000 5.820943e+000 5.369515e+000 5.698520e+000 4.340378e+000
<GCONST> 1.413972e+002
<MIXTURE> 2 5.000000e-001
<MEAN> 22
 1.428291e+001 1.489788e+001 2.742717e+000 2.653694e+000 9.796622e+001 9.851038e+001 7.611729e+001 7.752930e+001 6.677909e+001 6.274087e+001 1.099164e+002 1.112745e+002 9.996047e+001 9.989542e+001 1.081786e+000 2.868131e+000 5.344888e+000 5.026486e+000 2.817533e+000 2.494900e+000 2.034765e+000 2.671331e+000
<VARIANCE> 22
 3.950459e+002 4.246400e+002 1.907641e+001 1.608765e+001 6.688528e+003 4.469740e+003 2.569908e+003 2.572882e+003 3.814403e+002 3.979460e+002 2.686844e+003 2.694001e+003 4.718091e+002 4.198550e+002 4.168374e+000 1.814150e+000 4.436528e+000 1.226879e+000 5.820943e+000 5.369515e+000 5.698520e+000 4.340378e+000
<GCONST> 1.413972e+002
<TRANSP> 5
 0.000000e+000 1.000000e+000 0.000000e+000 0.000000e+000 0.000000e+000
 0.000000e+000 4.218219e-001 5.781781e-001 0.000000e+000 0.000000e+000
 0.000000e+000 0.000000e+000 8.396363e-001 1.603637e-001 0.000000e+000
 0.000000e+000 0.000000e+000 0.000000e+000 7.340034e-001 2.659966e-001
 0.000000e+000 0.000000e+000 0.000000e+000 0.000000e+000 0.000000e+000
<ENDHMM>
~h "CF_2"
<BEGINHMM>
<NUMSTATES> 5
<STATE> 2
<NUMMIXES> 2
<MIXTURE> 1 5.000000e-001
<MEAN> 22
 1.254384e+001 5.709501e+000 3.862490e+000 2.976767e+000 9.654590e+001 1.453342e+002 1.017452e+002 1.165233e+002 7.751406e+001 8.751074e+001 1.437040e+002 1.117671e+002 1.071594e+002 1.044634e+002 4.810596e+000 3.341477e+000 5.353510e+000 4.446277e+000 4.965793e+000 3.267295e+000 3.258662e+000 3.029867e+000
<VARIANCE> 22
 2.833728e+002 5.886156e+001 2.372168e+001 1.843538e+001 8.189522e+003 8.622601e+003 1.311477e+003 1.480267e+003 5.262986e+002 9.059183e+002 5.465446e+003 5.895313e+003 6.566010e+002 6.587076e+002 7.840315e+000 2.108211e+000 5.346061e+000 2.654212e+000 3.008943e+000 5.783317e+000 6.726393e+000 5.712272e+000
<GCONST> 1.440907e+002
<MIXTURE> 2 5.000000e-001
<MEAN> 22
 5.810369e+000 2.640649e+000 1.914294e+000 1.259309e+000 6.034750e+001 1.081910e+002 8.725948e+001 1.011337e+002 6.833758e+001 7.547136e+001 1.141326e+002 8.105476e+001 9.690975e+001 9.419724e+001 3.690573e+000 2.760689e+000 4.428648e+000 3.794607e+000 4.271941e+000 2.305353e+000 2.221250e+000 2.073853e+000
<VARIANCE> 22
 2.833728e+002 5.886156e+001 2.372168e+001 1.843538e+001 8.189522e+003 8.622601e+003 1.311477e+003 1.480267e+003 5.262986e+002 9.059183e+002 5.465446e+003 5.895313e+003 6.566010e+002 6.587076e+002 7.840315e+000 2.108211e+000 5.346061e+000 2.654212e+000 3.008943e+000 5.783317e+000 6.726393e+000 5.712272e+000
<GCONST> 1.440907e+002
<STATE> 3
<NUMMIXES> 2
<MIXTURE> 1 5.000000e-001
<MEAN> 22
 1.854539e+000 7.371734e+000 1.009940e+000 2.937789e+000 2.518662e+001 2.000075e+002 9.918513e+001 1.362399e+002 6.348137e+001 1.059629e+002 1.900042e+002 5.205855e+001 1.147271e+002 8.886044e+001 6.955905e+000 2.352682e+000 6.103623e+000 3.204858e+000 5.978977e+000 1.523073e+000 2.132912e+000 3.056745e+000
<VARIANCE> 22
 7.090816e+000 1.108577e+002 3.300596e+000 1.485761e+001 1.662249e+003 2.762532e+003 4.143157e+002 5.407900e+002 1.737458e+002 4.782410e+002 1.678116e+003 1.487282e+003 2.374399e+002 3.433982e+002 1.332521e+000 4.771776e-001 1.024848e+000 1.295292e+000 4.637617e-001 1.320723e+000 5.880934e+000 6.147749e+000
<GCONST> 1.189472e+002
<MIXTURE> 2 5.000000e-001
<MEAN> 22
 7.893953e-001 3.160174e+000 2.832384e-001 1.395967e+000 8.878343e+000 1.789835e+002 9.104324e+001 1.269379e+002 5.820887e+001 9.721546e+001 1.736182e+002 3.663243e+001 1.085635e+002 8.144804e+001 6.494165e+000 2.076370e+000 5.698685e+000 2.749614e+000 5.706577e+000 1.063383e+000 1.162886e+000 2.064959e+000
<VARIANCE> 22
 7.090816e+000 1.108577e+002 3.300596e+000 1.485761e+001 1.662249e+003 2.762532e+003 4.143157e+002 5.407900e+002 1.737458e+002 4.782410e+002 1.678116e+003 1.487282e+003 2.374399e+002 3.433982e+002 1.332521e+000 4.771776e-001 1.024848e+000 1.295292e+000 4.637617e-001 1.320723e+000 5.880934e+000 6.147749e+000
<GCONST> 1.189472e+002
<STATE> 4
<NUMMIXES> 2
<MIXTURE> 1 5.000000e-001
<MEAN> 22
 8.932147e+000 6.993583e+000 3.434231e+000 2.363380e+000 1.393965e+002 6.145494e+001 1.224461e+002 1.015865e+002 9.308727e+001 6.759490e+001 9.721789e+001 1.770947e+002 9.864158e+001 1.127138e+002 3.698150e+000 4.679403e+000 3.988824e+000 5.528567e+000 4.118241e+000 5.578126e+000 3.486719e+000 2.928465e+000
<VARIANCE> 22
 1.204239e+002 1.260246e+002 1.774696e+001 1.069533e+001 7.524911e+003 3.951641e+003 1.107781e+003 7.816321e+002 5.850776e+002 3.347581e+002 5.302686e+003 3.177933e+003 6.187984e+002 2.150979e+002 5.306657e+000 1.144420e+000 5.963739e+000 1.025552e+000 1.949021e+000 3.354032e+000 6.918741e+000 6.471686e+000
<GCONST> 1.361041e+002
<MIXTURE> 2 5.000000e-001
<MEAN> 22
 4.542634e+000 2.503156e+000 1.749145e+000 1.055232e+000 1.046981e+002 3.631012e+001 1.091327e+002 9.040345e+001 8.341191e+001 6.027634e+001 6.809007e+001 1.545455e+002 8.869132e+001 1.068474e+002 2.776702e+000 4.251493e+000 3.011994e+000 5.123489e+000 3.559811e+000 4.845565e+000 2.434579e+000 1.910885e+000
<VARIANCE> 22
 1.204239e+002 1.260246e+002 1.774696e+001 1.069533e+001 7.524911e+003 3.951641e+003 1.107781e+003 7.816321e+002 5.850776e+002 3.347581e+002 5.302686e+003 3.177933e+003 6.187984e+002 2.150979e+002 5.306657e+000 1.144420e+000 5.963739e+000 1.025552e+000 1.949021e+000 3.354032e+000 6.918741e+000 6.471686e+000
<GCONST> 1.361041e+002
<TRANSP> 5
 0.000000e+000 1.000000e+000 0.000000e+000 0.000000e+000 0.000000e+000
 0.000000e+000 4.345296e-001 5.654703e-001 0.000000e+000 0.000000e+000
 0.000000e+000 0.000000e+000 8.457838e-001 1.542162e-001 0.000000e+000
 0.000000e+000 0.000000e+000 0.000000e+000 7.982128e-001 2.017872e-001
 0.000000e+000 0.000000e+000 0.000000e+000 0.000000e+000 0.000000e+000
<ENDHMM>
~h "CN_2"
<BEGINHMM>
<NUMSTATES> 5
<STATE> 2
<NUMMIXES> 2
<MIXTURE> 1 5.000000e-001
<MEAN> 22
 7.661692e+000 8.556993e+000 1.345464e+000 1.150918e+000 1.581298e+002 1.531777e+002 8.166337e+001 8.029616e+001 6.742402e+001 6.583223e+001 4.002893e+001 4.157142e+001 1.052556e+002 1.066903e+002 2.070115e+000 2.039798e+000 5.988954e+000 6.028586e+000 3.126169e+000 1.015748e+000 3.572687e+000 3.485214e+000
<VARIANCE> 22
 6.708241e+001 9.004106e+001 3.300596e+000 2.164982e+000 1.741006e+003 1.456078e+003 4.017576e+002 4.563900e+002 6.586214e+001 9.721632e+001 2.586036e+002 3.069810e+002 1.117455e+002 1.177656e+002 6.664359e-002 7.348540e-002 9.076989e-001 2.909941e-001 8.471727e-002 1.813111e-001 6.122054e+000 6.087171e+000
<GCONST> 1.002942e+002
<MIXTURE> 2 5.000000e-001
<MEAN> 22
 4.385538e+000 4.761395e+000 6.187624e-001 5.623633e-001 1.414396e+002 1.379143e+002 7.364581e+001 7.175084e+001 6.417780e+001 6.188829e+001 3.359647e+001 3.456308e+001 1.010272e+002 1.023495e+002 1.966853e+000 1.931366e+000 5.607861e+000 5.812810e+000 3.009744e+000 8.454256e-001 2.582975e+000 2.498326e+000
<VARIANCE> 22
 6.708241e+001 9.004106e+001 3.300596e+000 2.164982e+000 1.741006e+003 1.456078e+003 4.017576e+002 4.563900e+002 6.586214e+001 9.721632e+001 2.586036e+002 3.069810e+002 1.117455e+002 1.177656e+002 6.664359e-002 7.348540e-002 9.076989e-001 2.909941e-001 8.471727e-002 1.813111e-001 6.122054e+000 6.087171e+000
<GCONST> 1.002942e+002
<STATE> 3
<NUMMIXES> 2
<MIXTURE> 1 5.000000e-001
<MEAN> 22
 9.920487e+000 1.001179e+001 1.691373e+000 1.326443e+000 1.479723e+002 1.398364e+002 6.890844e+001 6.523058e+001 7.100594e+001 6.870464e+001 6.507233e+001 6.624995e+001 1.070296e+002 1.077339e+002 2.425907e+000 1.894320e+000 5.924079e+000 6.264403e+000 3.604010e+000 6.460499e-001 3.600414e+000 3.691668e+000
<VARIANCE> 22
 1.536555e+002 1.533055e+002 4.327874e+000 2.164982e+000 1.730142e+003 1.418023e+003 6.166777e+002 7.416289e+002 2.336324e+002 1.814213e+002 7.081387e+002 6.584808e+002 2.746390e+002 1.626270e+002 4.983559e-001 4.441501e-001 6.538293e-001 8.689216e-001 3.050569e-001 5.044167e-001 6.413239e+000 6.347300e+000
<GCONST> 1.146595e+002
<MIXTURE> 2 5.000000e-001
<MEAN> 22
 4.962173e+000 5.059125e+000 8.592312e-001 7.378875e-001 1.313343e+002 1.247738e+002 5.897524e+001 5.433743e+001 6.489193e+001 6.331693e+001 5.442799e+001 5.598560e+001 1.004008e+002 1.026329e+002 2.143529e+000 1.627742e+000 5.600641e+000 5.891539e+000 3.383082e+000 3.619607e-001 2.587440e+000 2.683914e+000
<VARIANCE> 22
 1.536555e+002 1.533055e+002 4.327874e+000 2.164982e+000 1.730142e+003 1.418023e+003 6.166777e+002 7.416289e+002 2.336324e+002 1.814213e+002 7.081387e+002 6.584808e+002 2.746390e+002 1.626270e+002 4.983559e-001 4.441501e-001 6.538293e-001 8.689216e-001 3.050569e-001 5.044167e-001 6.413239e+000 6.347300e+000
<GCONST> 1.146595e+002
<STATE> 4
<NUMMIXES> 2
<MIXTURE> 1 5.000000e-001
<MEAN> 22
 1.506020e+001 1.516960e+001 2.905371e+000 3.067255e+000 1.326760e+002 1.217220e+002 8.323567e+001 7.848355e+001 7.233537e+001 6.800900e+001 1.203924e+002 1.196837e+002 1.139886e+002 1.125540e+002 3.892104e+000 3.637583e+000 6.341088e+000 5.885662e+000 4.538004e+000 3.406793e+000 4.266258e+000 3.980118e+000
<VARIANCE> 22
 2.563027e+002 2.699346e+002 1.078994e+001 1.596352e+001 7.002835e+003 5.931506e+003 1.398920e+003 1.515171e+003 1.588803e+002 1.355242e+002 4.561468e+003 3.993769e+003 2.879341e+002 1.912901e+002 6.242571e+000 2.935965e+000 9.132445e-001 5.217366e-001 2.414623e+000 7.316105e+000 6.856701e+000 5.405101e+000
<GCONST> 1.350986e+002
<MIXTURE> 2 5.000000e-001
<MEAN> 22
 8.656419e+000 8.597723e+000 1.591449e+000 1.469079e+000 9.920281e+001 9.091545e+001 6.827481e+001 6.291347e+001 6.729345e+001 6.335241e+001 9.337697e+001 9.440515e+001 1.072012e+002 1.070217e+002 2.892698e+000 2.952197e+000 5.958832e+000 5.596736e+000 3.916442e+000 2.324861e+000 3.218846e+000 3.050163e+000
<VARIANCE> 22
 2.563027e+002 2.699346e+002 1.078994e+001 1.596352e+001 7.002835e+003 5.931506e+003 1.398920e+003 1.515171e+003 1.588803e+002 1.355242e+002 4.561468e+003 3.993769e+003 2.879341e+002 1.912901e+002 6.242571e+000 2.935965e+000 9.132445e-001 5.217366e-001 2.414623e+000 7.316105e+000 6.856701e+000 5.405101e+000
<GCONST> 1.350986e+002
<TRANSP> 5
 0.000000e+000 1.000000e+000 0.000000e+000 0.000000e+000 0.000000e+000
 0.000000e+000 8.763960e-001 1.236040e-001 0.000000e+000 0.000000e+000
 0.000000e+000 0.000000e+000 7.744608e-001 2.255392e-001 0.000000e+000
 0.000000e+000 0.000000e+000 0.000000e+000 6.087384e-001 3.912616e-001
 0.000000e+000 0.000000e+000 0.000000e+000 0.000000e+000 0.000000e+000
<ENDHMM>
~h "TH_D"
<BEGINHMM>
<NUMSTATES> 5
<STATE> 2
<NUMMIXES> 2
<MIXTURE> 1 5.000000e-001
<MEAN> 22
 1.100610e+001 1.124741e+001 1.808655e+000 1.687245e+000 1.341378e+002 1.306717e+002 6.349908e+001 6.313438e+001 6.773815e+001 6.467627e+001 7.039229e+001 7.152850e+001 1.062170e+002 1.065447e+002 2.192634e+000 2.300334e+000 6.198593e+000 5.948184e+000 3.638210e+000 1.064131e+000 4.209578e+000 4.097940e+000
<VARIANCE> 22
 1.440906e+002 1.462100e+002 5.176198e+000 4.011607e+000 2.596385e+003 1.936771e+003 7.704260e+002 7.609979e+002 1.223187e+002 1.131794e+002 8.887342e+002 9.057738e+002 2.065277e+002 1.776812e+002 1.052362e+000 8.276667e-001 7.427914e-001 5.262823e-001 5.293530e-001 1.509673e+000 6.869383e+000 6.849541e+000
<GCONST> 1.183286e+002
<MIXTURE> 2 5.000000e-001
<MEAN> 22
 6.204588e+000 6.410721e+000 8.986048e-001 8.860850e-001 1.137560e+002 1.130682e+002 5.239646e+001 5.209990e+001 6.331424e+001 6.042083e+001 5.846763e+001 5.949006e+001 1.004686e+002 1.012129e+002 1.782296e+000 1.936430e+000 5.853851e+000 5.658003e+000 3.347184e+000 5.726564e-001 3.161198e+000 3.051075e+000
<VARIANCE> 22
 1.440906e+002 1.462100e+002 5.176198e+000 4.011607e+000 2.596385e+003 1.936771e+003 7.704260e+002 7.609979e+002 1.223187e+002 1.131794e+002 8.887342e+002 9.057738e+002 2.065277e+002 1.776812e+002 1.052362e+000 8.276667e-001 7.427914e-001 5.262823e-001 5.293530e-001 1.509673e+000 6.869383e+000 6.849541e+000
<GCONST> 1.183286e+002
<STATE> 3
<NUMMIXES> 2
<MIXTURE> 1 5.000000e-001
<MEAN> 22
 2.617142e+001 2.604523e+001 4.677585e+000 4.756673e+000 1.051428e+002 9.447821e+001 5.771510e+001 6.125310e+001 7.097799e+001 6.577876e+001 1.330613e+002 1.376891e+002 1.100468e+002 1.099146e+002 4.020755e+000 4.365955e+000 6.269474e+000 5.872583e+000 5.026062e+000 5.388345e+000 5.215428e+000 4.993981e+000
<VARIANCE> 22
 4.542747e+002 4.444081e+002 2.814869e+001 2.852297e+001 6.619615e+003 4.526082e+003 1.074447e+003 1.111079e+003 1.462685e+002 1.369470e+002 1.769020e+003 1.742196e+003 2.153203e+002 1.873288e+002 8.719819e+000 2.157795e+000 2.282986e-001 2.577465e-001 1.285661e+000 7.410811e+000 6.083270e+000 4.233553e+000
<GCONST> 1.316007e+002
<MIXTURE> 2 5.000000e-001
<MEAN> 22
 1.764593e+001 1.761283e+001 2.555371e+000 2.620397e+000 7.259842e+001 6.756775e+001 4.460360e+001 4.791996e+001 6.614033e+001 6.109778e+001 1.162375e+002 1.209933e+002 1.041772e+002 1.044398e+002 2.839581e+000 3.778377e+000 6.078352e+000 5.669508e+000 4.572514e+000 4.299433e+000 4.228857e+000 4.170957e+000
<VARIANCE> 22
 4.542747e+002 4.444081e+002 2.814869e+001 2.852297e+001 6.619615e+003 4.526082e+003 1.074447e+003 1.111079e+003 1.462685e+002 1.369470e+002 1.769020e+003 1.742196e+003 2.153203e+002 1.873288e+002 8.719819e+000 2.157795e+000 2.282986e-001 2.577465e-001 1.285661e+000 7.410811e+000 6.083270e+000 4.233553e+000
<GCONST> 1.316007e+002
<STATE> 4
<NUMMIXES> 2
<MIXTURE> 1 5.000000e-001
<MEAN> 22
 1.199863e+001 1.148961e+001 3.383932e+000 3.066057e+000 3.564447e+001 3.306271e+001 9.447664e+001 9.209117e+001 6.592192e+001 6.123038e+001 1.898588e+002 1.884697e+002 1.161631e+002 1.153437e+002 6.947697e+000 5.057017e+000 6.313354e+000 5.878147e+000 5.957389e+000 6.096042e+000 4.609825e+000 4.368963e+000
<VARIANCE> 22
 9.122386e+001 8.657270e+001 8.621316e+000 7.306661e+000 1.038929e+003 8.011744e+002 6.902635e+002 5.912398e+002 9.815915e+001 8.127054e+001 1.126981e+003 1.069042e+003 1.822028e+002 1.509293e+002 1.102700e+000 3.336082e-001 2.079774e-001 1.747247e-001 2.971827e-001 8.937566e-001 7.216136e+000 4.744850e+000
<GCONST> 1.112028e+002
<MIXTURE> 2 5.000000e-001
<MEAN> 22
 8.178186e+000 7.767828e+000 2.209448e+000 1.984823e+000 2.275150e+001 2.174071e+001 8.396750e+001 8.236501e+001 6.195891e+001 5.762437e+001 1.764306e+002 1.753913e+002 1.107637e+002 1.104295e+002 6.527659e+000 4.825982e+000 6.130936e+000 5.710947e+000 5.739331e+000 5.717887e+000 3.535311e+000 3.497656e+000
<VARIANCE> 22
 9.122386e+001 8.657270e+001 8.621316e+000 7.306661e+000 1.038929e+003 8.011744e+002 6.902635e+002 5.912398e+002 9.815915e+001 8.127054e+001 1.126981e+003 1.069042e+003 1.822028e+002 1.509293e+002 1.102700e+000 3.336082e-001 2.079774e-001 1.747247e-001 2.971827e-001 8.937566e-001 7.216136e+000 4.744850e+000
<GCONST> 1.112028e+002
<TRANSP> 5
 0.000000e+000 1.000000e+000 0.000000e+000 0.000000e+000 0.000000e+000
 0.000000e+000 8.321234e-001 1.678766e-001 0.000000e+000 0.000000e+000
 0.000000e+000 0.000000e+000 6.368739e-001 3.631261e-001 0.000000e+000
 0.000000e+000 0.000000e+000 0.000000e+000 8.270022e-001 1.729978e-001
 0.000000e+000 0.000000e+000 0.000000e+000 0.000000e+000 0.000000e+000
<ENDHMM>
~h "TH_U"
<BEGINHMM>
<NUMSTATES> 5
<STATE> 2
<NUMMIXES> 2
<MIXTURE> 1 5.000000e-001
<MEAN> 22
 1.623543e+001 1.548427e+001 7.180209e+000 6.239668e+000 5.401326e+001 5.350434e+001 8.652229e+001 8.405171e+001 6.620149e+001 6.159864e+001 1.753965e+002 1.726600e+002 1.167425e+002 1.154631e+002 6.376120e+000 4.794411e+000 6.273879e+000 5.898419e+000 5.758727e+000 5.767730e+000 3.026320e+000 2.594076e+000
<VARIANCE> 22
 5.546912e+002 4.245387e+002 3.800319e+002 2.452911e+002 3.275930e+003 2.629051e+003 8.237867e+002 6.909940e+002 1.211657e+002 9.139134e+001 2.398819e+003 2.373319e+003 2.774210e+002 2.348294e+002 5.313864e+000 9.540151e-001 4.994644e-001 3.657272e-001 1.034259e+000 3.263599e+000 3.138141e+000 3.783020e+000
<GCONST> 1.330315e+002
<MIXTURE> 2 5.000000e-001
<MEAN> 22
 6.814673e+000 7.242533e+000 -6.175534e-001 -2.504032e-002 3.111896e+001 3.299463e+001 7.504163e+001 7.353700e+001 6.179848e+001 5.777469e+001 1.558055e+002 1.531734e+002 1.100801e+002 1.093335e+002 5.454048e+000 4.403717e+000 5.991188e+000 5.656518e+000 5.351933e+000 5.045113e+000 2.317728e+000 1.816076e+000
<VARIANCE> 22
 5.546912e+002 4.245387e+002 3.800319e+002 2.452911e+002 3.275930e+003 2.629051e+003 8.237867e+002 6.909940e+002 1.211657e+002 9.139134e+001 2.398819e+003 2.373319e+003 2.774210e+002 2.348294e+002 5.313864e+000 9.540151e-001 4.994644e-001 3.657272e-001 1.034259e+000 3.263599e+000 3.138141e+000 3.783020e+000
<GCONST> 1.330315e+002
<STATE> 3
<NUMMIXES> 2
<MIXTURE> 1 5.000000e-001
<MEAN> 22
 2.032917e+001 1.935517e+001 3.040345e+000 3.144547e+000 1.068081e+002 1.001565e+002 4.403014e+001 4.559327e+001 6.688496e+001 6.392334e+001 9.612438e+001 9.923593e+001 1.054978e+002 1.053560e+002 2.154702e+000 3.206617e+000 6.252076e+000 5.892818e+000 4.287569e+000 2.880544e+000 2.888662e+000 2.424171e+000
<VARIANCE> 22
 2.710556e+002 2.264386e+002 1.035603e+001 9.318991e+000 1.469847e+003 1.340347e+003 4.078429e+002 4.199728e+002 8.383033e+001 9.220613e+001 6.795438e+002 7.434496e+002 1.431299e+002 1.151600e+002 3.071228e+000 1.482841e+000 4.455498e-001 2.779527e-001 7.453282e-001 8.875914e+000 2.808553e+000 2.984966e+000
<GCONST> 1.178110e+002
<MIXTURE> 2 5.000000e-001
<MEAN> 22
 1.374367e+001 1.333601e+001 1.753113e+000 1.923466e+000 9.147269e+001 8.551223e+001 3.595210e+001 3.739597e+001 6.322261e+001 6.008238e+001 8.569715e+001 8.832942e+001 1.007124e+002 1.010634e+002 1.453706e+000 2.719529e+000 5.985078e+000 5.681933e+000 3.942239e+000 1.688846e+000 2.218312e+000 1.733089e+000
<VARIANCE> 22
 2.710556e+002 2.264386e+002 1.035603e+001 9.318991e+000 1.469847e+003 1.340347e+003 4.078429e+002 4.199728e+002 8.383033e+001 9.220613e+001 6.795438e+002 7.434496e+002 1.431299e+002 1.151600e+002 3.071228e+000 1.482841e+000 4.455498e-001 2.779527e-001 7.453282e-001 8.875914e+000 2.808553e+000 2.984966e+000
<GCONST> 1.178110e+002
<STATE> 4
<NUMMIXES> 2
<MIXTURE> 1 5.000000e-001
<MEAN> 22
 1.305363e+001 1.386947e+001 2.629817e+000 2.682183e+000 1.570361e+002 1.515614e+002 8.265115e+001 8.119827e+001 6.896152e+001 6.610965e+001 5.315014e+001 5.604137e+001 1.053760e+002 1.063460e+002 2.015442e+000 2.337075e+000 5.995215e+000 5.709599e+000 3.174433e+000 1.310229e+000 3.410011e+000 3.264169e+000
<VARIANCE> 22
 1.672851e+002 2.084510e+002 8.277080e+000 9.364568e+000 2.956665e+003 2.261995e+003 6.265776e+002 6.069577e+002 1.333384e+002 1.389424e+002 5.985994e+002 6.580886e+002 2.287937e+002 1.800425e+002 5.260749e-001 4.380821e-001 3.412729e+000 9.298586e-001 4.065681e-001 8.821481e-001 4.858876e+000 4.995335e+000
<GCONST> 1.189956e+002
<MIXTURE> 2 5.000000e-001
<MEAN> 22
 7.880075e+000 8.094334e+000 1.479021e+000 1.458120e+000 1.352861e+002 1.325372e+002 7.263853e+001 7.134367e+001 6.434263e+001 6.139470e+001 4.336362e+001 4.578008e+001 9.932561e+001 1.009788e+002 1.725318e+000 2.072325e+000 5.256272e+000 5.323883e+000 2.919383e+000 9.345385e-001 2.528297e+000 2.370159e+000
<VARIANCE> 22
 1.672851e+002 2.084510e+002 8.277080e+000 9.364568e+000 2.956665e+003 2.261995e+003 6.265776e+002 6.069577e+002 1.333384e+002 1.389424e+002 5.985994e+002 6.580886e+002 2.287937e+002 1.800425e+002 5.260749e-001 4.380821e-001 3.412729e+000 9.298586e-001 4.065681e-001 8.821481e-001 4.858876e+000 4.995335e+000
<GCONST> 1.189956e+002
<TRANSP> 5
 0.000000e+000 1.000000e+000 0.000000e+000 0.000000e+000 0.000000e+000
 0.000000e+000 7.468546e-001 2.531454e-001 0.000000e+000 0.000000e+000
 0.000000e+000 0.000000e+000 7.240754e-001 2.759246e-001 0.000000e+000
 0.000000e+000 0.000000e+000 0.000000e+000 8.323563e-001 1.676437e-001
 0.000000e+000 0.000000e+000 0.000000e+000 0.000000e+000 0.000000e+000
<ENDHMM>
~h "CP_2"
<BEGINHMM>
<NUMSTATES> 5
<STATE> 2
<NUMMIXES> 2
<MIXTURE> 1 5.000000e-001
<MEAN> 22
 1.678476e+001 1.556487e+001 8.382944e+000 6.819203e+000 1.187764e+002 9.946152e+001 8.027757e+001 8.295273e+001 6.820949e+001 6.576825e+001 1.486859e+002 1.507980e+002 1.078161e+002 1.066750e+002 3.789551e+000 4.247751e+000 6.286070e+000 5.137932e+000 5.470908e+000 5.247428e+000 3.805528e+000 3.656440e+000
<VARIANCE> 22
 7.157321e+002 5.093543e+002 5.183783e+002 3.116789e+002 1.540808e+004 8.440047e+003 1.260203e+003 1.209688e+003 4.994679e+002 4.790889e+002 2.778961e+003 2.898506e+003 1.091833e+003 1.049598e+003 1.152025e+001 1.831963e+000 4.909635e+000 2.264973e+000 4.574318e+000 4.078798e+000 5.793221e+000 5.569719e+000
<GCONST> 1.522505e+002
<MIXTURE> 2 5.000000e-001
<MEAN> 22
 6.083496e+000 6.537314e+000 -7.242245e-001 -2.425690e-001 6.912469e+001 6.271362e+001 6.607783e+001 6.904050e+001 5.926997e+001 5.701301e+001 1.275995e+002 1.292630e+002 9.459892e+001 9.371600e+001 2.431891e+000 3.706351e+000 5.399762e+000 4.535940e+000 4.615402e+000 4.439587e+000 2.842764e+000 2.712430e+000
<VARIANCE> 22
 7.157321e+002 5.093543e+002 5.183783e+002 3.116789e+002 1.540808e+004 8.440047e+003 1.260203e+003 1.209688e+003 4.994679e+002 4.790889e+002 2.778961e+003 2.898506e+003 1.091833e+003 1.049598e+003 1.152025e+001 1.831963e+000 4.909635e+000 2.264973e+000 4.574318e+000 4.078798e+000 5.793221e+000 5.569719e+000
<GCONST> 1.522505e+002
<STATE> 3
<NUMMIXES> 2
<MIXTURE> 1 5.000000e-001
<MEAN> 22
 1.407601e+001 1.343402e+001 3.798289e+000 3.370055e+000 7.054050e+001 6.310303e+001 8.416028e+001 8.853803e+001 7.455254e+001 7.115386e+001 1.571938e+002 1.599021e+002 1.158217e+002 1.145099e+002 3.157569e+000 4.372284e+000 6.819248e+000 5.339364e+000 5.808882e+000 5.606603e+000 4.075570e+000 3.806873e+000
<VARIANCE> 22
 1.275567e+002 1.103810e+002 1.365961e+001 1.003933e+001 1.160703e+003 9.788770e+002 8.981801e+002 9.797013e+002 1.481940e+002 1.599407e+002 1.822049e+003 1.755633e+003 3.067444e+002 2.409972e+002 1.072155e+001 4.700616e-001 2.548321e-001 2.211870e-001 2.387382e+000 2.889290e+000 5.214960e+000 5.277393e+000
<GCONST> 1.227876e+002
<MIXTURE> 2 5.000000e-001
<MEAN> 22
 9.558370e+000 9.231524e+000 2.319933e+000 2.102659e+000 5.691287e+001 5.058823e+001 7.217242e+001 7.601797e+001 6.968314e+001 6.609516e+001 1.401196e+002 1.431420e+002 1.088161e+002 1.083003e+002 1.847818e+000 4.098040e+000 6.617324e+000 5.151242e+000 5.190836e+000 4.926687e+000 3.162118e+000 2.887970e+000
<VARIANCE> 22
 1.275567e+002 1.103810e+002 1.365961e+001 1.003933e+001 1.160703e+003 9.788770e+002 8.981801e+002 9.797013e+002 1.481940e+002 1.599407e+002 1.822049e+003 1.755633e+003 3.067444e+002 2.409972e+002 1.072155e+001 4.700616e-001 2.548321e-001 2.211870e-001 2.387382e+000 2.889290e+000 5.214960e+000 5.277393e+000
<GCONST> 1.227876e+002
<STATE> 4
<NUMMIXES> 2
<MIXTURE> 1 5.000000e-001
<MEAN> 22
 8.213811e+000 8.238069e+000 1.880199e+000 2.087563e+000 4.944245e+001 4.570067e+001 7.903634e+001 8.129266e+001 6.617574e+001 6.392654e+001 1.639577e+002 1.660777e+002 1.099984e+002 1.100198e+002 5.476045e+000 4.765326e+000 6.562604e+000 5.516387e+000 6.052669e+000 6.021426e+000 3.973751e+000 3.761613e+000
<VARIANCE> 22
 4.506386e+001 4.871804e+001 3.300596e+000 4.239866e+000 7.887209e+002 5.571941e+002 4.118879e+002 4.735602e+002 9.654710e+001 1.116091e+002 8.055547e+002 8.352297e+002 1.376062e+002 1.401578e+002 1.039869e+001 2.884147e-001 3.012685e-001 2.704753e-001 3.405544e-001 4.086421e-001 5.319854e+000 5.603205e+000
<GCONST> 1.085255e+002
<MIXTURE> 2 5.000000e-001
<MEAN> 22
 5.528626e+000 5.446136e+000 1.153497e+000 1.263925e+000 3.820877e+001 3.625869e+001 7.091833e+001 7.258808e+001 6.224540e+001 5.970074e+001 1.526048e+002 1.545175e+002 1.053062e+002 1.052842e+002 4.186165e+000 4.550508e+000 6.343052e+000 5.308358e+000 5.819241e+000 5.765726e+000 3.051159e+000 2.814769e+000
<VARIANCE> 22
 4.506386e+001 4.871804e+001 3.300596e+000 4.239866e+000 7.887209e+002 5.571941e+002 4.118879e+002 4.735602e+002 9.654710e+001 1.116091e+002 8.055547e+002 8.352297e+002 1.376062e+002 1.401578e+002 1.039869e+001 2.884147e-001 3.012685e-001 2.704753e-001 3.405544e-001 4.086421e-001 5.319854e+000 5.603205e+000
<GCONST> 1.085255e+002
<TRANSP> 5
 0.000000e+000 1.000000e+000 0.000000e+000 0.000000e+000 0.000000e+000
 0.000000e+000 1.869366e-001 8.130634e-001 0.000000e+000 0.000000e+000
 0.000000e+000 0.000000e+000 7.782521e-001 2.217479e-001 0.000000e+000
 0.000000e+000 0.000000e+000 0.000000e+000 8.268507e-001 1.731493e-001
 0.000000e+000 0.000000e+000 0.000000e+000 0.000000e+000 0.000000e+000
<ENDHMM>
~h "CV_2"
<BEGINHMM>
<NUMSTATES> 5
<STATE> 2
<NUMMIXES> 2
<MIXTURE> 1 5.000000e-001
<MEAN> 22
 6.515557e+000 7.270251e+000 1.906252e+000 2.081917e+000 1.518314e+002 1.489299e+002 8.806376e+001 8.797160e+001 6.753108e+001 6.417805e+001 5.342718e+001 5.647049e+001 1.079360e+002 1.079881e+002 1.636320e+000 2.654925e+000 6.425933e+000 5.068209e+000 2.881534e+000 1.560951e+000 3.969141e+000 3.895310e+000
<VARIANCE> 22
 4.895246e+001 5.648032e+001 4.640304e+000 6.602523e+000 2.367958e+003 1.681199e+003 5.820119e+002 6.485533e+002 1.128084e+002 1.038652e+002 4.052621e+002 4.158404e+002 2.326149e+002 1.828408e+002 4.472309e-001 3.198311e-001 5.673338e+000 3.935530e-001 3.464320e-001 5.843671e-001 5.706188e+000 6.101370e+000
<GCONST> 1.126915e+002
<MIXTURE> 2 5.000000e-001
<MEAN> 22
 3.716916e+000 4.264115e+000 1.044598e+000 1.054101e+000 1.323668e+002 1.325289e+002 7.841380e+001 7.778491e+001 6.328263e+001 6.010149e+001 4.537473e+001 4.831362e+001 1.018354e+002 1.025793e+002 1.368818e+000 2.428711e+000 5.473182e+000 4.817273e+000 2.646100e+000 1.255175e+000 3.013635e+000 2.907272e+000
<VARIANCE> 22
 4.895246e+001 5.648032e+001 4.640304e+000 6.602523e+000 2.367958e+003 1.681199e+003 5.820119e+002 6.485533e+002 1.128084e+002 1.038652e+002 4.052621e+002 4.158404e+002 2.326149e+002 1.828408e+002 4.472309e-001 3.198311e-001 5.673338e+000 3.935530e-001 3.464320e-001 5.843671e-001 5.706188e+000 6.101370e+000
<GCONST> 1.126915e+002
<STATE> 3
<NUMMIXES> 2
<MIXTURE> 1 5.000000e-001
<MEAN> 22
 1.655154e+001 1.533858e+001 6.157105e+000 5.733942e+000 1.338919e+002 1.254489e+002 7.049508e+001 7.019768e+001 6.361623e+001 6.170234e+001 6.742052e+001 6.967317e+001 1.042058e+002 1.045943e+002 1.844001e+000 2.623010e+000 6.469769e+000 5.646635e+000 3.401968e+000 1.396375e+000 4.052402e+000 4.118142e+000
<VARIANCE> 22
 4.127765e+002 3.863258e+002 2.566688e+002 1.708831e+002 1.844275e+003 2.050649e+003 6.191936e+002 7.323912e+002 7.405206e+001 8.148151e+001 6.945501e+002 7.502429e+002 1.361762e+002 1.333205e+002 1.006369e+000 6.301808e-001 2.330669e+000 8.962358e-001 6.768374e-001 1.529535e+000 5.904873e+000 6.221356e+000
<GCONST> 1.268673e+002
<MIXTURE> 2 5.000000e-001
<MEAN> 22
 8.424780e+000 7.476515e+000 -2.512492e-001 5.050508e-001 1.167139e+002 1.073353e+002 6.054164e+001 5.937259e+001 6.017409e+001 5.809165e+001 5.687880e+001 5.871695e+001 9.953801e+001 9.997572e+001 1.442729e+000 2.305474e+000 5.859107e+000 5.267955e+000 3.072888e+000 9.016773e-001 3.080404e+000 3.120436e+000
<VARIANCE> 22
 4.127765e+002 3.863258e+002 2.566688e+002 1.708831e+002 1.844275e+003 2.050649e+003 6.191936e+002 7.323912e+002 7.405206e+001 8.148151e+001 6.945501e+002 7.502429e+002 1.361762e+002 1.333205e+002 1.006369e+000 6.301808e-001 2.330669e+000 8.962358e-001 6.768374e-001 1.529535e+000 5.904873e+000 6.221356e+000
<GCONST> 1.268673e+002
<STATE> 4
<NUMMIXES> 2
<MIXTURE> 1 5.000000e-001
<MEAN> 22
 1.303967e+001 1.265788e+001 2.944431e+000 3.140977e+000 1.000472e+002 9.125218e+001 8.056751e+001 8.236019e+001 6.943654e+001 6.145717e+001 1.294223e+002 1.382147e+002 1.128674e+002 1.112015e+002 4.017911e+000 4.077017e+000 6.487736e+000 5.662475e+000 4.725926e+000 4.419353e+000 4.421119e+000 4.217731e+000
<VARIANCE> 22
 1.729505e+002 1.598289e+002 8.515582e+000 1.188319e+001 4.707481e+003 4.148368e+003 1.120047e+003 1.086176e+003 1.280970e+002 8.288756e+001 4.311927e+003 3.904822e+003 2.137246e+002 1.593273e+002 7.890038e+000 1.495193e+000 1.438869e+000 3.920031e-001 2.086159e+000 6.699175e+000 6.273071e+000 5.948482e+000
<GCONST> 1.305733e+002
<MIXTURE> 2 5.000000e-001
<MEAN> 22
 7.779247e+000 7.600941e+000 1.777173e+000 1.762097e+000 7.260274e+001 6.548904e+001 6.718067e+001 6.917731e+001 6.490935e+001 5.781547e+001 1.031563e+002 1.132193e+002 1.070196e+002 1.061525e+002 2.894343e+000 3.587905e+000 6.007924e+000 5.412035e+000 4.148184e+000 3.384043e+000 3.419275e+000 3.242151e+000
<VARIANCE> 22
 1.729505e+002 1.598289e+002 8.515582e+000 1.188319e+001 4.707481e+003 4.148368e+003 1.120047e+003 1.086176e+003 1.280970e+002 8.288756e+001 4.311927e+003 3.904822e+003 2.137246e+002 1.593273e+002 7.890038e+000 1.495193e+000 1.438869e+000 3.920031e-001 2.086159e+000 6.699175e+000 6.273071e+000 5.948482e+000
<GCONST> 1.305733e+002
<TRANSP> 5
 0.000000e+000 1.000000e+000 0.000000e+000 0.000000e+000 0.000000e+000
 0.000000e+000 8.560998e-001 1.439002e-001 0.000000e+000 0.000000e+000
 0.000000e+000 0.000000e+000 5.872067e-001 4.127933e-001 0.000000e+000
 0.000000e+000 0.000000e+000 0.000000e+000 6.507031e-001 3.492968e-001
 0.000000e+000 0.000000e+000 0.000000e+000 0.000000e+000 0.000000e+000
<ENDHMM>
~h "SIL"
<BEGINHMM>
<NUMSTATES> 5
<STATE> 2
<NUMMIXES> 2
<MIXTURE> 1 5.000000e-001
<MEAN> 22
 7.836722e+001 7.028006e+001 6.810487e+001 5.574397e+001 5.096804e+001 5.136919e+001 5.219294e+001 4.805523e+001 3.823173e+001 3.800435e+001 1.019314e+002 9.341599e+001 6.541851e+001 6.379301e+001 3.654089e+000 2.649851e+000 3.499168e+000 3.245270e+000 3.319804e+000 3.260622e+000 1.828726e+000 1.880098e+000
<VARIANCE> 22
 2.024195e+004 1.418452e+004 1.682948e+004 1.077557e+004 9.937271e+003 7.208743e+003 2.360859e+003 2.181499e+003 1.190106e+003 1.190996e+003 8.373200e+003 7.307672e+003 3.298085e+003 3.114524e+003 1.164667e+001 5.555218e+000 9.511735e+000 8.060094e+000 8.546626e+000 8.985325e+000 4.418169e+000 4.152524e+000
<GCONST> 1.764648e+002
<MIXTURE> 2 5.000000e-001
<MEAN> 22
 2.145754e+001 2.264054e+001 1.621348e+001 1.422179e+001 1.109370e+001 1.740746e+001 3.275747e+001 2.937262e+001 2.443257e+001 2.420003e+001 6.532927e+001 5.922202e+001 4.244693e+001 4.146985e+001 2.289001e+000 1.707071e+000 2.265524e+000 2.109658e+000 2.150420e+000 2.061600e+000 9.879482e-001 1.064988e+000
<VARIANCE> 22
 2.024195e+004 1.418452e+004 1.682948e+004 1.077557e+004 9.937271e+003 7.208743e+003 2.360859e+003 2.181499e+003 1.190106e+003 1.190996e+003 8.373200e+003 7.307672e+003 3.298085e+003 3.114524e+003 1.164667e+001 5.555218e+000 9.511735e+000 8.060094e+000 8.546626e+000 8.985325e+000 4.418169e+000 4.152524e+000
<GCONST> 1.764648e+002
<STATE> 3
<NUMMIXES> 2
<MIXTURE> 1 5.000000e-001
<MEAN> 22
 1.015340e+001 1.203763e+001 2.662231e+000 3.093234e+000 6.189056e+001 7.005311e+001 9.505508e+001 9.034725e+001 7.419403e+001 6.703278e+001 1.671031e+002 1.626727e+002 1.172629e+002 1.153450e+002 5.300725e+000 4.400131e+000 6.265404e+000 5.696700e+000 5.388112e+000 5.105912e+000 2.851820e+000 2.894948e+000
<VARIANCE> 22
 1.541900e+002 1.786118e+002 1.179424e+001 1.276254e+001 2.629239e+003 2.603183e+003 1.689774e+003 1.300666e+003 2.752246e+002 1.965877e+002 4.525501e+003 4.230292e+003 5.857397e+002 3.142975e+002 8.258108e+000 1.639987e+000 2.074959e+000 4.667842e-001 1.957416e+000 5.833496e+000 5.400368e+000 5.024205e+000
<GCONST> 1.341121e+002
<MIXTURE> 2 5.000000e-001
<MEAN> 22
 5.186472e+000 6.691802e+000 1.288521e+000 1.664246e+000 4.138012e+001 4.964455e+001 7.861233e+001 7.592135e+001 6.755807e+001 6.142440e+001 1.401943e+002 1.366565e+002 1.075821e+002 1.082536e+002 4.151248e+000 3.887883e+000 5.689215e+000 5.423413e+000 4.828482e+000 4.139806e+000 1.922272e+000 1.998358e+000
<VARIANCE> 22
 1.541900e+002 1.786118e+002 1.179424e+001 1.276254e+001 2.629239e+003 2.603183e+003 1.689774e+003 1.300666e+003 2.752246e+002 1.965877e+002 4.525501e+003 4.230292e+003 5.857397e+002 3.142975e+002 8.258108e+000 1.639987e+000 2.074959e+000 4.667842e-001 1.957416e+000 5.833496e+000 5.400368e+000 5.024205e+000
<GCONST> 1.341121e+002
<STATE> 4
<NUMMIXES> 2
<MIXTURE> 1 5.000000e-001
<MEAN> 22
 1.698678e+000 2.249334e+000 8.893142e-001 1.005121e+000 8.165928e+000 9.350414e+000 1.005474e+002 9.874435e+001 6.327038e+001 6.033248e+001 2.004335e+002 1.992547e+002 1.199195e+002 1.191489e+002 7.049796e+000 5.026500e+000 6.128675e+000 5.982626e+000 6.029870e+000 6.047308e+000 2.336241e+000 2.416650e+000
<VARIANCE> 22
 4.801635e+000 7.295845e+000 3.300596e+000 2.164982e+000 5.680316e+001 6.237592e+001 2.442034e+002 2.031553e+002 7.665103e+001 6.907195e+001 4.696595e+002 4.344193e+002 1.538447e+002 1.386724e+002 6.504287e-002 1.793315e-002 7.005889e-002 6.295174e-002 2.082488e-002 5.618803e-002 5.488442e+000 5.626143e+000
<GCONST> 8.021110e+001
<MIXTURE> 2 5.000000e-001
<MEAN> 22
 8.221723e-001 1.168902e+000 1.626125e-001 4.165661e-001 5.151213e+000 6.191278e+000 9.429655e+001 9.304304e+001 5.976836e+001 5.700810e+001 1.917649e+002 1.909176e+002 1.149581e+002 1.144385e+002 6.947782e+000 4.972934e+000 6.022800e+000 5.882266e+000 5.972147e+000 5.952492e+000 1.399143e+000 1.467870e+000
<VARIANCE> 22
 4.801635e+000 7.295845e+000 3.300596e+000 2.164982e+000 5.680316e+001 6.237592e+001 2.442034e+002 2.031553e+002 7.665103e+001 6.907195e+001 4.696595e+002 4.344193e+002 1.538447e+002 1.386724e+002 6.504287e-002 1.793315e-002 7.005889e-002 6.295174e-002 2.082488e-002 5.618803e-002 5.488442e+000 5.626143e+000
<GCONST> 8.021110e+001
<TRANSP> 5
 0.000000e+000 1.000000e+000 0.000000e+000 0.000000e+000 0.000000e+000
 0.000000e+000 5.389654e-001 3.550266e-001 1.060080e-001 0.000000e+000
 0.000000e+000 0.000000e+000 9.189895e-001 8.101054e-002 0.000000e+000
 0.000000e+000 1.921147e-002 0.000000e+000 9.783577e-001 2.430913e-003
 0.000000e+000 0.000000e+000 0.000000e+000 0.000000e+000 0.000000e+000
<ENDHMM>
~h "TT_2"
<BEGINHMM>
<NUMSTATES> 5
<STATE> 2
<NUMMIXES> 2
<MIXTURE> 1 5.000000e-001
<MEAN> 22
 1.596972e+001 6.447959e+000 6.743552e+000 2.563561e+000 1.550067e+002 9.006566e+001 1.505008e+002 1.137705e+002 1.102844e+002 8.004928e+001 1.295077e+002 1.663304e+002 1.063577e+002 1.138366e+002 3.223388e+000 4.325411e+000 3.722366e+000 5.421858e+000 3.902262e+000 4.744416e+000 3.858246e+000 3.000421e+000
<VARIANCE> 22
 2.994441e+002 7.391370e+001 6.357601e+001 1.034323e+001 1.007691e+004 8.313033e+003 3.486751e+003 2.779798e+003 1.345005e+003 9.679122e+002 2.585463e+003 3.261629e+003 4.080981e+002 2.927784e+002 6.319669e+000 1.445965e+000 7.477146e+000 1.481690e+000 2.977086e+000 6.363299e+000 6.081038e+000 6.002050e+000
<GCONST> 1.441312e+002
<MIXTURE> 2 5.000000e-001
<MEAN> 22
 9.047939e+000 3.009037e+000 3.554170e+000 1.277125e+000 1.148531e+002 5.359532e+001 1.268814e+002 9.268094e+001 9.561464e+001 6.760476e+001 1.091687e+002 1.434862e+002 9.827711e+001 1.069922e+002 2.217830e+000 3.844418e+000 2.628592e+000 4.934960e+000 3.212092e+000 3.735392e+000 2.871856e+000 2.020457e+000
<VARIANCE> 22
 2.994441e+002 7.391370e+001 6.357601e+001 1.034323e+001 1.007691e+004 8.313033e+003 3.486751e+003 2.779798e+003 1.345005e+003 9.679122e+002 2.585463e+003 3.261629e+003 4.080981e+002 2.927784e+002 6.319669e+000 1.445965e+000 7.477146e+000 1.481690e+000 2.977086e+000 6.363299e+000 6.081038e+000 6.002050e+000
<GCONST> 1.441312e+002
<STATE> 3
<NUMMIXES> 2
<MIXTURE> 1 5.000000e-001
<MEAN> 22
 2.489126e+000 1.268067e+001 1.169486e+000 4.389617e+000 3.325120e+001 2.276959e+002 1.046399e+002 1.783352e+002 6.642532e+001 1.297638e+002 1.935824e+002 1.027161e+002 1.167968e+002 9.883411e+001 6.903593e+000 2.694778e+000 6.125265e+000 3.443178e+000 5.975287e+000 2.207480e+000 2.423306e+000 3.963266e+000
<VARIANCE> 22
 1.118941e+001 1.868272e+002 3.300596e+000 3.201378e+001 2.507734e+003 3.996605e+003 7.168735e+002 1.325384e+003 3.259239e+002 7.176749e+002 1.200050e+003 1.198621e+003 2.321116e+002 3.865018e+002 2.108057e+000 5.949295e-001 1.259011e+000 6.311446e-001 6.268903e-001 1.732801e+000 6.133066e+000 6.190351e+000
<GCONST> 1.242855e+002
<MIXTURE> 2 5.000000e-001
<MEAN> 22
 1.151103e+000 7.213284e+000 4.427840e-001 2.126389e+000 1.322028e+001 2.024085e+002 9.393011e+001 1.637728e+002 5.920398e+001 1.190480e+002 1.797258e+002 8.886762e+001 1.107028e+002 9.097025e+001 6.322827e+000 2.386252e+000 5.676442e+000 3.125400e+000 5.658581e+000 1.680936e+000 1.432704e+000 2.968050e+000
<VARIANCE> 22
 1.118941e+001 1.868272e+002 3.300596e+000 3.201378e+001 2.507734e+003 3.996605e+003 7.168735e+002 1.325384e+003 3.259239e+002 7.176749e+002 1.200050e+003 1.198621e+003 2.321116e+002 3.865018e+002 2.108057e+000 5.949295e-001 1.259011e+000 6.311446e-001 6.268903e-001 1.732801e+000 6.133066e+000 6.190351e+000
<GCONST> 1.242855e+002
<STATE> 4
<NUMMIXES> 2
<MIXTURE> 1 5.000000e-001
<MEAN> 22
 7.888581e+000 6.447095e+000 2.869841e+000 2.916981e+000 1.847339e+002 8.848348e+001 1.518005e+002 1.120711e+002 1.059600e+002 7.350390e+001 1.274651e+002 1.735572e+002 1.022882e+002 1.111158e+002 3.515136e+000 4.570508e+000 3.189225e+000 5.489594e+000 3.799568e+000 5.364772e+000 3.568690e+000 3.136341e+000
<VARIANCE> 22
 7.595776e+001 7.408644e+001 1.309334e+001 1.959341e+001 1.364290e+004 1.026215e+004 2.907133e+003 1.776793e+003 1.514244e+003 1.003813e+003 3.317544e+003 3.166526e+003 6.788687e+002 6.140326e+002 6.683572e+000 1.758257e+000 6.518766e+000 2.088692e+000 3.354324e+000 4.201493e+000 6.283959e+000 7.035789e+000
<GCONST> 1.436827e+002
<MIXTURE> 2 5.000000e-001
<MEAN> 22
 4.402431e+000 3.004156e+000 1.422453e+000 1.146403e+000 1.380127e+002 4.796257e+001 1.302333e+002 9.521030e+001 9.039469e+001 6.083070e+001 1.044259e+002 1.510484e+002 9.186615e+001 1.012040e+002 2.481032e+000 4.040110e+000 2.167950e+000 4.911502e+000 3.066976e+000 4.544870e+000 2.565976e+000 2.075339e+000
<VARIANCE> 22
 7.595776e+001 7.408644e+001 1.309334e+001 1.959341e+001 1.364290e+004 1.026215e+004 2.907133e+003 1.776793e+003 1.514244e+003 1.003813e+003 3.317544e+003 3.166526e+003 6.788687e+002 6.140326e+002 6.683572e+000 1.758257e+000 6.518766e+000 2.088692e+000 3.354324e+000 4.201493e+000 6.283959e+000 7.035789e+000
<GCONST> 1.436827e+002
<TRANSP> 5
 0.000000e+000 1.000000e+000 0.000000e+000 0.000000e+000 0.000000e+000
 0.000000e+000 6.706764e-001 3.293236e-001 0.000000e+000 0.000000e+000
 0.000000e+000 0.000000e+000 8.460216e-001 1.539784e-001 0.000000e+000
 0.000000e+000 0.000000e+000 0.000000e+000 7.099544e-001 2.900456e-001
 0.000000e+000 0.000000e+000 0.000000e+000 0.000000e+000 0.000000e+000
<ENDHMM>
~h "DC_2"
<BEGINHMM>
<NUMSTATES> 5
<STATE> 2
<NUMMIXES> 2
<MIXTURE> 1 5.000000e-001
<MEAN> 22
 1.741004e+001 1.992117e+001 3.439368e+000 4.042054e+000 1.599873e+002 1.527543e+002 7.670007e+001 7.774906e+001 7.154869e+001 6.969278e+001 6.449168e+001 6.439769e+001 1.016494e+002 1.021458e+002 2.244887e+000 2.369683e+000 5.922848e+000 5.860274e+000 3.590389e+000 1.264476e+000 3.011322e+000 2.969678e+000
<VARIANCE> 22
 2.843214e+002 3.934963e+002 1.964236e+001 2.707267e+001 3.031302e+003 2.034162e+003 7.662346e+002 7.953306e+002 1.336740e+002 1.600379e+002 8.091970e+002 9.009710e+002 3.048116e+002 2.976485e+002 8.643218e-001 6.652377e-001 1.143696e+000 9.092129e-001 5.957184e-001 1.812705e+000 5.028048e+000 5.597312e+000
<GCONST> 1.250753e+002
<MIXTURE> 2 5.000000e-001
<MEAN> 22
 1.066530e+001 1.198647e+001 1.666580e+000 1.960798e+000 1.379643e+002 1.347137e+002 6.562770e+001 6.646842e+001 6.692400e+001 6.463254e+001 5.311312e+001 5.239122e+001 9.466590e+001 9.524479e+001 1.873011e+000 2.043435e+000 5.495074e+000 5.478864e+000 3.281658e+000 7.259288e-001 2.114390e+000 2.023332e+000
<VARIANCE> 22
 2.843214e+002 3.934963e+002 1.964236e+001 2.707267e+001 3.031302e+003 2.034162e+003 7.662346e+002 7.953306e+002 1.336740e+002 1.600379e+002 8.091970e+002 9.009710e+002 3.048116e+002 2.976485e+002 8.643218e-001 6.652377e-001 1.143696e+000 9.092129e-001 5.957184e-001 1.812705e+000 5.028048e+000 5.597312e+000
<GCONST> 1.250753e+002
<STATE> 3
<NUMMIXES> 2
<MIXTURE> 1 5.000000e-001
<MEAN> 22
 1.123318e+001 1.100429e+001 1.401773e+000 1.679895e+000 1.187291e+002 1.152849e+002 4.120161e+001 4.363591e+001 6.438583e+001 6.207823e+001 8.011025e+001 8.083544e+001 1.007738e+002 1.012983e+002 2.094097e+000 2.306697e+000 6.098351e+000 6.051898e+000 3.982470e+000 4.865538e-001 2.988882e+000 2.920551e+000
<VARIANCE> 22
 1.604915e+002 1.410854e+002 3.300596e+000 3.670662e+000 1.036464e+003 9.016708e+002 2.673671e+002 2.812001e+002 7.571055e+001 1.037185e+002 3.307770e+002 3.449073e+002 1.033106e+002 1.139062e+002 7.628915e-001 8.569345e-001 1.369490e-001 2.216133e-001 1.842386e-001 9.340890e-001 5.616126e+000 5.841037e+000
<GCONST> 1.057282e+002
<MIXTURE> 2 5.000000e-001
<MEAN> 22
 6.165769e+000 6.253116e+000 6.750711e-001 9.135365e-001 1.058515e+002 1.032737e+002 3.466107e+001 3.692830e+001 6.090536e+001 5.800454e+001 7.283533e+001 7.340678e+001 9.670816e+001 9.702925e+001 1.744723e+000 1.936414e+000 5.950325e+000 5.863595e+000 3.810778e+000 9.996074e-002 2.040948e+000 1.953821e+000
<VARIANCE> 22
 1.604915e+002 1.410854e+002 3.300596e+000 3.670662e+000 1.036464e+003 9.016708e+002 2.673671e+002 2.812001e+002 7.571055e+001 1.037185e+002 3.307770e+002 3.449073e+002 1.033106e+002 1.139062e+002 7.628915e-001 8.569345e-001 1.369490e-001 2.216133e-001 1.842386e-001 9.340890e-001 5.616126e+000 5.841037e+000
<GCONST> 1.057282e+002
<STATE> 4
<NUMMIXES> 2
<MIXTURE> 1 5.000000e-001
<MEAN> 22
 1.463381e+001 1.500245e+001 3.725728e+000 4.221970e+000 1.174063e+002 1.061486e+002 6.140987e+001 6.340153e+001 7.068784e+001 6.476283e+001 1.268075e+002 1.303312e+002 1.121777e+002 1.101896e+002 3.897270e+000 3.768996e+000 6.216625e+000 5.918275e+000 4.769026e+000 4.289495e+000 3.735458e+000 3.522381e+000
<VARIANCE> 22
 1.981584e+002 2.113341e+002 2.070111e+001 3.204717e+001 6.892625e+003 5.545612e+003 1.144552e+003 1.025184e+003 1.432334e+002 1.159612e+002 2.661059e+003 2.704048e+003 3.245878e+002 2.490533e+002 7.128277e+000 2.577930e+000 2.773180e-001 3.557300e-001 1.140766e+000 9.453055e+000 6.715587e+000 5.727020e+000
<GCONST> 1.324371e+002
<MIXTURE> 2 5.000000e-001
<MEAN> 22
 9.003055e+000 9.187513e+000 1.905789e+000 1.957561e+000 8.419753e+001 7.636102e+001 4.787737e+001 5.059413e+001 6.590064e+001 6.045541e+001 1.061733e+002 1.095310e+002 1.049711e+002 1.038770e+002 2.829317e+000 3.126759e+000 6.005981e+000 5.679703e+000 4.341799e+000 3.059663e+000 2.698880e+000 2.565133e+000
<VARIANCE> 22
 1.981584e+002 2.113341e+002 2.070111e+001 3.204717e+001 6.892625e+003 5.545612e+003 1.144552e+003 1.025184e+003 1.432334e+002 1.159612e+002 2.661059e+003 2.704048e+003 3.245878e+002 2.490533e+002 7.128277e+000 2.577930e+000 2.773180e-001 3.557300e-001 1.140766e+000 9.453055e+000 6.715587e+000 5.727020e+000
<GCONST> 1.324371e+002
<TRANSP> 5
 0.000000e+000 1.000000e+000 0.000000e+000 0.000000e+000 0.000000e+000
 0.000000e+000 7.406028e-001 2.593972e-001 0.000000e+000 0.000000e+000
 0.000000e+000 0.000000e+000 8.410255e-001 1.589745e-001 0.000000e+000
 0.000000e+000 0.000000e+000 0.000000e+000 6.826711e-001 3.173290e-001
 0.000000e+000 0.000000e+000 0.000000e+000 0.000000e+000 0.000000e+000
<ENDHMM>
~h "MC_2"
<BEGINHMM>
<NUMSTATES> 5
<STATE> 2
<NUMMIXES> 2
<MIXTURE> 1 5.000000e-001
<MEAN> 22
 6.820575e+000 1.045758e+001 2.507278e+000 3.268752e+000 5.213579e+001 9.640714e+001 8.214818e+001 6.357056e+001 7.163991e+001 7.923322e+001 1.645983e+002 1.083298e+002 1.105950e+002 1.054545e+002 5.514316e+000 3.421788e+000 6.306085e+000 5.783285e+000 5.613340e+000 3.614391e+000 3.043333e+000 3.236530e+000
<VARIANCE> 22
 6.354023e+001 7.994237e+001 1.216979e+001 1.055112e+001 2.398541e+003 2.829463e+003 9.213506e+002 9.229888e+002 3.229683e+002 3.924580e+002 2.990310e+003 2.586303e+003 2.694027e+002 2.060816e+002 8.069674e+000 1.714486e+000 2.379431e-001 3.647291e-001 1.099067e+000 9.561060e+000 6.382548e+000 5.392560e+000
<GCONST> 1.278146e+002
<MIXTURE> 2 5.000000e-001
<MEAN> 22
 3.632090e+000 6.881161e+000 1.111869e+000 1.969452e+000 3.254583e+001 7.513005e+001 7.000667e+001 5.141827e+001 6.445139e+001 7.130899e+001 1.427247e+002 8.798746e+001 1.040296e+002 9.971229e+001 4.378029e+000 2.898034e+000 6.110967e+000 5.541713e+000 5.193994e+000 2.377553e+000 2.032785e+000 2.307654e+000
<VARIANCE> 22
 6.354023e+001 7.994237e+001 1.216979e+001 1.055112e+001 2.398541e+003 2.829463e+003 9.213506e+002 9.229888e+002 3.229683e+002 3.924580e+002 2.990310e+003 2.586303e+003 2.694027e+002 2.060816e+002 8.069674e+000 1.714486e+000 2.379431e-001 3.647291e-001 1.099067e+000 9.561060e+000 6.382548e+000 5.392560e+000
<GCONST> 1.278146e+002
<STATE> 3
<NUMMIXES> 2
<MIXTURE> 1 5.000000e-001
<MEAN> 22
 1.756648e+000 7.705905e+000 9.776894e-001 2.408600e+000 1.667537e+001 1.317806e+002 9.562930e+001 6.870944e+001 5.924315e+001 8.816330e+001 1.913929e+002 7.128397e+001 1.150501e+002 9.864826e+001 7.001049e+000 2.683077e+000 6.139478e+000 5.700998e+000 6.007764e+000 1.617621e+000 2.250370e+000 3.550988e+000
<VARIANCE> 22
 5.258647e+000 3.635250e+001 3.300596e+000 5.757713e+000 6.615845e+002 1.707310e+003 3.436405e+002 9.528162e+002 1.199204e+002 4.922404e+002 1.031846e+003 9.891835e+002 1.852404e+002 2.611576e+002 1.163150e+000 5.595647e-001 9.295940e-002 4.690234e-001 2.154446e-001 4.447065e+000 5.765331e+000 5.364411e+000
<GCONST> 1.107026e+002
<MIXTURE> 2 5.000000e-001
<MEAN> 22
 8.393782e-001 5.294184e+000 2.509877e-001 1.448790e+000 6.386853e+000 1.152528e+002 8.821428e+001 5.636235e+001 5.486283e+001 7.928870e+001 1.785439e+002 5.870346e+001 1.096059e+002 9.218412e+001 6.569651e+000 2.383861e+000 6.017521e+000 5.427057e+000 5.822100e+000 7.740988e-001 1.289926e+000 2.624540e+000
<VARIANCE> 22
 5.258647e+000 3.635250e+001 3.300596e+000 5.757713e+000 6.615845e+002 1.707310e+003 3.436405e+002 9.528162e+002 1.199204e+002 4.922404e+002 1.031846e+003 9.891835e+002 1.852404e+002 2.611576e+002 1.163150e+000 5.595647e-001 9.295940e-002 4.690234e-001 2.154446e-001 4.447065e+000 5.765331e+000 5.364411e+000
<GCONST> 1.107026e+002
<STATE> 4
<NUMMIXES> 2
<MIXTURE> 1 5.000000e-001
<MEAN> 22
 8.164597e+000 7.694378e+000 2.923999e+000 1.852119e+000 1.052987e+002 6.029209e+001 6.998428e+001 8.576537e+001 7.892854e+001 6.598175e+001 1.086907e+002 1.645125e+002 1.080338e+002 1.115973e+002 3.159433e+000 4.451295e+000 6.308637e+000 5.828840e+000 4.411671e+000 5.373191e+000 3.369822e+000 3.097870e+000
<VARIANCE> 22
 7.150476e+001 2.176103e+002 1.426657e+001 5.577887e+000 6.344181e+003 4.643930e+003 6.572813e+002 1.054635e+003 5.069216e+002 3.101159e+002 3.303621e+003 3.823346e+003 3.775970e+002 3.275148e+002 5.597070e+000 1.306173e+000 6.170947e-001 4.541249e-001 1.360507e+000 5.967670e+000 6.271199e+000 6.154882e+000
<GCONST> 1.316171e+002
<MIXTURE> 2 5.000000e-001
<MEAN> 22
 4.782177e+000 1.793730e+000 1.413155e+000 9.074170e-001 7.343856e+001 3.303354e+001 5.972928e+001 7.277531e+001 6.992258e+001 5.893771e+001 8.569981e+001 1.397793e+002 1.002610e+002 1.043583e+002 2.213107e+000 3.994143e+000 5.994415e+000 5.559285e+000 3.945107e+000 4.396039e+000 2.368128e+000 2.105508e+000
<VARIANCE> 22
 7.150476e+001 2.176103e+002 1.426657e+001 5.577887e+000 6.344181e+003 4.643930e+003 6.572813e+002 1.054635e+003 5.069216e+002 3.101159e+002 3.303621e+003 3.823346e+003 3.775970e+002 3.275148e+002 5.597070e+000 1.306173e+000 6.170947e-001 4.541249e-001 1.360507e+000 5.967670e+000 6.271199e+000 6.154882e+000
<GCONST> 1.316171e+002
<TRANSP> 5
 0.000000e+000 1.000000e+000 0.000000e+000 0.000000e+000 0.000000e+000
 0.000000e+000 5.855420e-001 4.144580e-001 0.000000e+000 0.000000e+000
 0.000000e+000 0.000000e+000 8.615430e-001 1.384570e-001 0.000000e+000
 0.000000e+000 0.000000e+000 0.000000e+000 7.632465e-001 2.367535e-001
 0.000000e+000 0.000000e+000 0.000000e+000 0.000000e+000 0.000000e+000
<ENDHMM>
~h "VA_2"
<BEGINHMM>
<NUMSTATES> 5
<STATE> 2
<NUMMIXES> 2
<MIXTURE> 1 5.000000e-001
<MEAN> 22
 1.171746e+001 1.137772e+001 6.226268e+000 4.929414e+000 1.466863e+002 1.951435e+002 1.134763e+002 1.362544e+002 8.035509e+001 9.580129e+001 1.450829e+002 1.095900e+002 9.964232e+001 8.964273e+001 4.815859e+000 3.053452e+000 4.929792e+000 4.228916e+000 4.768293e+000 3.013087e+000 3.206599e+000 2.992345e+000
<VARIANCE> 22
 2.533647e+002 1.644365e+002 7.604770e+001 3.311525e+001 2.227542e+004 1.286691e+004 3.033408e+003 3.575043e+003 1.240947e+003 1.451059e+003 5.145136e+003 3.487700e+003 1.164413e+003 9.969687e+002 8.335694e+000 1.902051e+000 6.934850e+000 2.917122e+000 4.004536e+000 4.800913e+000 6.141659e+000 5.141558e+000
<GCONST> 1.518253e+002
<MIXTURE> 2 5.000000e-001
<MEAN> 22
 5.350484e+000 6.248412e+000 2.738055e+000 2.627580e+000 8.698650e+001 1.497705e+002 9.144572e+001 1.123378e+002 6.626426e+001 8.056419e+001 1.163911e+002 8.596727e+001 8.599292e+001 7.701280e+001 3.660995e+000 2.501792e+000 3.876428e+000 3.545732e+000 3.967840e+000 2.136647e+000 2.215304e+000 2.085345e+000
<VARIANCE> 22
 2.533647e+002 1.644365e+002 7.604770e+001 3.311525e+001 2.227542e+004 1.286691e+004 3.033408e+003 3.575043e+003 1.240947e+003 1.451059e+003 5.145136e+003 3.487700e+003 1.164413e+003 9.969687e+002 8.335694e+000 1.902051e+000 6.934850e+000 2.917122e+000 4.004536e+000 4.800913e+000 6.141659e+000 5.141558e+000
<GCONST> 1.518253e+002
<STATE> 3
<NUMMIXES> 2
<MIXTURE> 1 5.000000e-001
<MEAN> 22
 2.939249e+000 1.025345e+001 1.343620e+000 4.270041e+000 3.661821e+001 2.152021e+002 1.014207e+002 1.630547e+002 6.335720e+001 1.147115e+002 1.883929e+002 8.923877e+001 1.144310e+002 8.512138e+001 6.819788e+000 2.643659e+000 6.020930e+000 3.814888e+000 5.911703e+000 2.182098e+000 2.656850e+000 3.763488e+000
<VARIANCE> 22
 1.338925e+001 1.235900e+002 3.300596e+000 1.972703e+001 3.209791e+003 5.057083e+003 8.981719e+002 2.200497e+003 3.634100e+002 7.910944e+002 1.604740e+003 1.853184e+003 2.908848e+002 4.504102e+002 2.636328e+000 6.411122e-001 1.638285e+000 1.379619e+000 9.612156e-001 1.900348e+000 6.427211e+000 6.055613e+000
<GCONST> 1.279818e+002
<MIXTURE> 2 5.000000e-001
<MEAN> 22
 1.475596e+000 5.806610e+000 6.169184e-001 2.493437e+000 1.395621e+001 1.867569e+002 8.943285e+001 1.442909e+002 5.573188e+001 1.034609e+002 1.723693e+002 7.201932e+001 1.076088e+002 7.663223e+001 6.170316e+000 2.323381e+000 5.508948e+000 3.345060e+000 5.519537e+000 1.630686e+000 1.642772e+000 2.779162e+000
<VARIANCE> 22
 1.338925e+001 1.235900e+002 3.300596e+000 1.972703e+001 3.209791e+003 5.057083e+003 8.981719e+002 2.200497e+003 3.634100e+002 7.910944e+002 1.604740e+003 1.853184e+003 2.908848e+002 4.504102e+002 2.636328e+000 6.411122e-001 1.638285e+000 1.379619e+000 9.612156e-001 1.900348e+000 6.427211e+000 6.055613e+000
<GCONST> 1.279818e+002
<STATE> 4
<NUMMIXES> 2
<MIXTURE> 1 5.000000e-001
<MEAN> 22
 1.152872e+001 9.947115e+000 4.280874e+000 3.539680e+000 1.495616e+002 6.553380e+001 1.463752e+002 1.023367e+002 1.035424e+002 6.799556e+001 1.327630e+002 1.713144e+002 9.898021e+001 1.115318e+002 3.688290e+000 4.530104e+000 3.946236e+000 5.562392e+000 3.993776e+000 5.355086e+000 3.764646e+000 3.302911e+000
<VARIANCE> 22
 1.758601e+002 2.775098e+002 2.676330e+001 2.185743e+001 9.529924e+003 5.028375e+003 3.372233e+003 1.343637e+003 1.063600e+003 5.305007e+002 4.083311e+003 2.959820e+003 5.604660e+002 3.067545e+002 6.506306e+000 1.178720e+000 7.557250e+000 8.494922e-001 3.570951e+000 4.100252e+000 6.667126e+000 6.431455e+000
<GCONST> 1.425564e+002
<MIXTURE> 2 5.000000e-001
<MEAN> 22
 6.224229e+000 3.283665e+000 2.211544e+000 1.669603e+000 1.105130e+002 3.716938e+001 1.231468e+002 8.767442e+001 9.049725e+001 5.878252e+001 1.072026e+002 1.495527e+002 8.951054e+001 1.045260e+002 2.667992e+000 4.095828e+000 2.846618e+000 5.193720e+000 3.237898e+000 4.545123e+000 2.731814e+000 2.288499e+000
<VARIANCE> 22
 1.758601e+002 2.775098e+002 2.676330e+001 2.185743e+001 9.529924e+003 5.028375e+003 3.372233e+003 1.343637e+003 1.063600e+003 5.305007e+002 4.083311e+003 2.959820e+003 5.604660e+002 3.067545e+002 6.506306e+000 1.178720e+000 7.557250e+000 8.494922e-001 3.570951e+000 4.100252e+000 6.667126e+000 6.431455e+000
<GCONST> 1.425564e+002
<TRANSP> 5
 0.000000e+000 1.000000e+000 0.000000e+000 0.000000e+000 0.000000e+000
 0.000000e+000 4.355717e-001 5.644283e-001 0.000000e+000 0.000000e+000
 0.000000e+000 0.000000e+000 7.889711e-001 2.110289e-001 0.000000e+000
 0.000000e+000 0.000000e+000 0.000000e+000 7.834376e-001 2.165624e-001
 0.000000e+000 0.000000e+000 0.000000e+000 0.000000e+000 0.000000e+000
<ENDHMM>
~h "VQ_2"
<BEGINHMM>
<NUMSTATES> 5
<STATE> 2
<NUMMIXES> 2
<MIXTURE> 1 5.000000e-001
<MEAN> 22
 1.309193e+001 8.498177e+000 4.687476e+000 3.509754e+000 9.651009e+001 1.280112e+002 1.029585e+002 1.112000e+002 7.090113e+001 6.889346e+001 1.451259e+002 1.172193e+002 1.060260e+002 1.011896e+002 4.891846e+000 3.631737e+000 5.331885e+000 4.921750e+000 4.921616e+000 3.684307e+000 3.506283e+000 3.366349e+000
<VARIANCE> 22
 3.527513e+002 8.772359e+001 3.287684e+001 1.682449e+001 1.119498e+004 8.262975e+003 1.302538e+003 1.161186e+003 3.588103e+002 2.995965e+002 4.492916e+003 4.637691e+003 4.699589e+002 4.206205e+002 8.280114e+000 1.605586e+000 6.496913e+000 1.310812e+000 3.341796e+000 4.415990e+000 6.584152e+000 5.834944e+000
<GCONST> 1.413623e+002
<MIXTURE> 2 5.000000e-001
<MEAN> 22
 5.579264e+000 4.751741e+000 2.393942e+000 1.869048e+000 5.418756e+001 9.165082e+001 8.852225e+001 9.756956e+001 6.332421e+001 6.196991e+001 1.183142e+002 8.997908e+001 9.735459e+001 9.298598e+001 3.740838e+000 3.124890e+000 4.312323e+000 4.463787e+000 4.190392e+000 2.843737e+000 2.479899e+000 2.400124e+000
<VARIANCE> 22
 3.527513e+002 8.772359e+001 3.287684e+001 1.682449e+001 1.119498e+004 8.262975e+003 1.302538e+003 1.161186e+003 3.588103e+002 2.995965e+002 4.492916e+003 4.637691e+003 4.699589e+002 4.206205e+002 8.280114e+000 1.605586e+000 6.496913e+000 1.310812e+000 3.341796e+000 4.415990e+000 6.584152e+000 5.834944e+000
<GCONST> 1.413623e+002
<STATE> 3
<NUMMIXES> 2
<MIXTURE> 1 5.000000e-001
<MEAN> 22
 2.601868e+000 1.055284e+001 1.163754e+000 4.843922e+000 2.973080e+001 1.771082e+002 9.731082e+001 1.283573e+002 5.955542e+001 8.011813e+001 1.897233e+002 7.184403e+001 1.150321e+002 9.094538e+001 6.907126e+000 2.782229e+000 6.091146e+000 4.296524e+000 5.947748e+000 2.484258e+000 2.310769e+000 3.861492e+000
<VARIANCE> 22
 1.213855e+001 1.614994e+002 3.300596e+000 3.705882e+001 2.362906e+003 4.038954e+003 5.286769e+002 1.210328e+003 1.561570e+002 3.411811e+002 1.791268e+003 2.053143e+003 2.833384e+002 3.977133e+002 1.969705e+000 7.575030e-001 1.548508e+000 8.939478e-001 8.587980e-001 1.814000e+000 5.764792e+000 6.185665e+000
<GCONST> 1.246373e+002
<MIXTURE> 2 5.000000e-001
<MEAN> 22
 1.208252e+000 5.469545e+000 4.370519e-001 2.408884e+000 1.028690e+001 1.516870e+002 8.811363e+001 1.144413e+002 5.455690e+001 7.272970e+001 1.727939e+002 5.371939e+001 1.082991e+002 8.296828e+001 6.345741e+000 2.434091e+000 5.593390e+000 3.918329e+000 5.577062e+000 1.945518e+000 1.350369e+000 2.866652e+000
<VARIANCE> 22
 1.213855e+001 1.614994e+002 3.300596e+000 3.705882e+001 2.362906e+003 4.038954e+003 5.286769e+002 1.210328e+003 1.561570e+002 3.411811e+002 1.791268e+003 2.053143e+003 2.833384e+002 3.977133e+002 1.969705e+000 7.575030e-001 1.548508e+000 8.939478e-001 8.587980e-001 1.814000e+000 5.764792e+000 6.185665e+000
<GCONST> 1.246373e+002
<STATE> 4
<NUMMIXES> 2
<MIXTURE> 1 5.000000e-001
<MEAN> 22
 1.057226e+001 5.157616e+000 4.317160e+000 2.333346e+000 1.461563e+002 7.888135e+001 1.160947e+002 9.367155e+001 7.997116e+001 5.789411e+001 1.001359e+002 1.662569e+002 9.831264e+001 1.090199e+002 3.281284e+000 4.506478e+000 3.724010e+000 5.576943e+000 3.593405e+000 5.382650e+000 3.901829e+000 3.109592e+000
<VARIANCE> 22
 1.770090e+002 6.111353e+001 2.759268e+001 8.576302e+000 1.278192e+004 8.549580e+003 1.711023e+003 1.078218e+003 6.809086e+002 2.810923e+002 4.413574e+003 3.923668e+003 7.321813e+002 6.220935e+002 5.989710e+000 1.788300e+000 8.968193e+000 1.617253e+000 3.120178e+000 3.984634e+000 6.687666e+000 6.610558e+000
<GCONST> 1.413396e+002
<MIXTURE> 2 5.000000e-001
<MEAN> 22
 5.250474e+000 2.030610e+000 2.216010e+000 1.161934e+000 1.009335e+002 4.189577e+001 9.954890e+001 8.053706e+001 6.953348e+001 5.118779e+001 7.356196e+001 1.412013e+002 8.748911e+001 9.904314e+001 2.302328e+000 3.971569e+000 2.526132e+000 5.068258e+000 2.886843e+000 4.584188e+000 2.867409e+000 2.081152e+000
<VARIANCE> 22
 1.770090e+002 6.111353e+001 2.759268e+001 8.576302e+000 1.278192e+004 8.549580e+003 1.711023e+003 1.078218e+003 6.809086e+002 2.810923e+002 4.413574e+003 3.923668e+003 7.321813e+002 6.220935e+002 5.989710e+000 1.788300e+000 8.968193e+000 1.617253e+000 3.120178e+000 3.984634e+000 6.687666e+000 6.610558e+000
<GCONST> 1.413396e+002
<TRANSP> 5
 0.000000e+000 1.000000e+000 0.000000e+000 0.000000e+000 0.000000e+000
 0.000000e+000 3.660123e-001 6.339877e-001 0.000000e+000 0.000000e+000
 0.000000e+000 0.000000e+000 8.042388e-001 1.957612e-001 0.000000e+000
 0.000000e+000 0.000000e+000 0.000000e+000 7.604123e-001 2.395877e-001
 0.000000e+000 0.000000e+000 0.000000e+000 0.000000e+000 0.000000e+000
<ENDHMM>
~h "NU_2"
<BEGINHMM>
<NUMSTATES> 5
<STATE> 2
<NUMMIXES> 2
<MIXTURE> 1 5.000000e-001
<MEAN> 22
 2.145835e+000 5.095876e+000 8.471736e-001 2.170763e+000 2.308616e+001 1.285070e+002 9.425591e+001 7.969395e+001 6.031340e+001 6.661818e+001 1.890159e+002 7.721571e+001 1.142680e+002 1.048568e+002 6.948886e+000 2.940701e+000 6.199902e+000 5.256452e+000 5.972451e+000 1.820059e+000 1.960689e+000 3.223259e+000
<VARIANCE> 22
 1.311970e+001 5.875484e+001 3.300596e+000 6.846170e+000 1.514530e+003 2.086954e+003 3.545972e+002 7.925250e+002 8.498347e+001 1.405642e+002 1.244624e+003 1.106173e+003 1.960784e+002 1.933227e+002 1.722986e+000 4.312778e-001 4.096741e-001 4.474850e-001 5.110437e-001 1.860256e+000 5.115468e+000 5.977472e+000
<GCONST> 1.131536e+002
<MIXTURE> 2 5.000000e-001
<MEAN> 22
 6.969904e-001 2.029808e+000 1.204719e-001 1.124155e+000 7.519377e+000 1.102338e+002 8.672361e+001 6.843322e+001 5.662594e+001 6.187579e+001 1.749042e+002 6.391204e+001 1.086668e+002 9.929519e+001 6.423836e+000 2.678014e+000 5.943878e+000 4.988874e+000 5.686501e+000 1.274495e+000 1.055993e+000 2.245305e+000
<VARIANCE> 22
 1.311970e+001 5.875484e+001 3.300596e+000 6.846170e+000 1.514530e+003 2.086954e+003 3.545972e+002 7.925250e+002 8.498347e+001 1.405642e+002 1.244624e+003 1.106173e+003 1.960784e+002 1.933227e+002 1.722986e+000 4.312778e-001 4.096741e-001 4.474850e-001 5.110437e-001 1.860256e+000 5.115468e+000 5.977472e+000
<GCONST> 1.131536e+002
<STATE> 3
<NUMMIXES> 2
<MIXTURE> 1 5.000000e-001
<MEAN> 22
 5.517623e+000 6.698058e+000 1.854013e+000 2.444849e+000 8.171464e+001 6.548654e+001 8.305105e+001 8.269278e+001 6.984733e+001 6.005841e+001 1.319749e+002 1.480622e+002 1.126250e+002 1.103411e+002 3.737562e+000 4.176724e+000 6.611778e+000 5.694474e+000 4.579272e+000 4.614769e+000 3.164453e+000 3.236976e+000
<VARIANCE> 22
 4.021149e+001 8.494460e+001 5.122117e+000 1.023958e+001 3.817331e+003 3.226644e+003 8.414288e+002 9.182429e+002 2.109169e+002 9.175694e+001 3.944323e+003 3.853846e+003 2.614723e+002 2.357007e+002 8.179361e+000 1.421679e+000 6.857917e-001 3.715175e-001 2.717774e+000 6.409794e+000 6.627151e+000 6.336755e+000
<GCONST> 1.275310e+002
<MIXTURE> 2 5.000000e-001
<MEAN> 22
 2.981122e+000 3.011442e+000 9.487291e-001 1.164875e+000 5.700082e+001 4.276512e+001 7.144810e+001 7.057178e+001 6.403814e+001 5.622681e+001 1.068533e+002 1.232304e+002 1.061570e+002 1.042001e+002 2.593578e+000 3.699788e+000 6.280528e+000 5.450665e+000 3.919846e+000 3.602067e+000 2.134723e+000 2.230060e+000
<VARIANCE> 22
 4.021149e+001 8.494460e+001 5.122117e+000 1.023958e+001 3.817331e+003 3.226644e+003 8.414288e+002 9.182429e+002 2.109169e+002 9.175694e+001 3.944323e+003 3.853846e+003 2.614723e+002 2.357007e+002 8.179361e+000 1.421679e+000 6.857917e-001 3.715175e-001 2.717774e+000 6.409794e+000 6.627151e+000 6.336755e+000
<GCONST> 1.275310e+002
<STATE> 4
<NUMMIXES> 2
<MIXTURE> 1 5.000000e-001
<MEAN> 22
 5.368297e+000 1.048760e+001 1.588810e+000 1.987803e+000 1.693765e+002 1.645511e+002 9.433704e+001 8.314616e+001 6.703632e+001 6.008412e+001 1.452018e+002 1.197270e+002 1.055945e+002 1.052981e+002 4.506118e+000 3.442808e+000 5.177700e+000 5.110482e+000 4.497283e+000 3.264999e+000 2.647176e+000 3.191179e+000
<VARIANCE> 22
 6.329825e+001 5.112153e+002 5.491084e+000 6.071826e+000 3.351714e+004 1.723474e+004 2.048354e+003 1.694229e+003 7.159453e+002 5.339156e+002 6.520839e+003 4.881787e+003 1.785790e+003 1.478198e+003 9.384691e+000 2.596941e+000 7.842468e+000 3.355569e+000 5.241269e+000 6.131600e+000 7.056459e+000 6.954749e+000
<GCONST> 1.483020e+002
<MIXTURE> 2 5.000000e-001
<MEAN> 22
 2.185889e+000 1.443572e+000 6.514878e-001 1.002161e+000 9.614572e+001 1.120387e+002 7.623354e+001 6.668176e+001 5.633346e+001 5.084148e+001 1.129012e+002 9.177904e+001 8.869107e+001 8.991920e+001 3.280740e+000 2.798208e+000 4.057524e+000 4.377754e+000 3.581530e+000 2.274517e+000 1.584616e+000 2.136305e+000
<VARIANCE> 22
 6.329825e+001 5.112153e+002 5.491084e+000 6.071826e+000 3.351714e+004 1.723474e+004 2.048354e+003 1.694229e+003 7.159453e+002 5.339156e+002 6.520839e+003 4.881787e+003 1.785790e+003 1.478198e+003 9.384691e+000 2.596941e+000 7.842468e+000 3.355569e+000 5.241269e+000 6.131600e+000 7.056459e+000 6.954749e+000
<GCONST> 1.483020e+002
<TRANSP> 5
 0.000000e+000 1.000000e+000 0.000000e+000 0.000000e+000 0.000000e+000
 0.000000e+000 8.176809e-001 1.823191e-001 0.000000e+000 0.000000e+000
 0.000000e+000 0.000000e+000 7.577788e-001 2.422212e-001 0.000000e+000
 0.000000e+000 0.000000e+000 0.000000e+000 4.606920e-001 5.393080e-001
 0.000000e+000 0.000000e+000 0.000000e+000 0.000000e+000 0.000000e+000
<ENDHMM>
~h "FM_2"
<BEGINHMM>
<NUMSTATES> 5
<STATE> 2
<NUMMIXES> 2
<MIXTURE> 1 5.000000e-001
<MEAN> 22
 6.307264e+000 4.318528e+000 1.608468e+000 1.171029e+000 6.353412e+001 3.466155e+001 6.871186e+001 8.669400e+001 9.393906e+001 7.101007e+001 1.475145e+002 1.765113e+002 1.135393e+002 1.147438e+002 3.157473e+000 4.706320e+000 6.559815e+000 5.760823e+000 5.447628e+000 6.307365e+000 3.037089e+000 2.539703e+000
<VARIANCE> 22
 4.528189e+001 3.254275e+001 6.259862e+000 2.385812e+000 1.526812e+003 1.082459e+003 6.967300e+002 8.427036e+002 6.006571e+002 3.487030e+002 1.218943e+003 1.948223e+003 2.329858e+002 2.272212e+002 1.064911e+001 3.404498e-001 3.296661e-001 2.853586e-001 3.974358e-001 7.679139e-001 6.142830e+000 5.767742e+000
<GCONST> 1.171480e+002
<MIXTURE> 2 5.000000e-001
<MEAN> 22
 3.615591e+000 2.036678e+000 6.076796e-001 5.531861e-001 4.790434e+001 2.150125e+001 5.815360e+001 7.508226e+001 8.413573e+001 6.354063e+001 1.335491e+002 1.588559e+002 1.074337e+002 1.087142e+002 1.852154e+000 4.472928e+000 6.330149e+000 5.547147e+000 5.195458e+000 5.956842e+000 2.045699e+000 1.579058e+000
<VARIANCE> 22
 4.528189e+001 3.254275e+001 6.259862e+000 2.385812e+000 1.526812e+003 1.082459e+003 6.967300e+002 8.427036e+002 6.006571e+002 3.487030e+002 1.218943e+003 1.948223e+003 2.329858e+002 2.272212e+002 1.064911e+001 3.404498e-001 3.296661e-001 2.853586e-001 3.974358e-001 7.679139e-001 6.142830e+000 5.767742e+000
<GCONST> 1.171480e+002
<STATE> 3
<NUMMIXES> 2
<MIXTURE> 1 5.000000e-001
<MEAN> 22
 1.768998e+000 6.873927e+000 9.013627e-001 1.260800e+000 1.970646e+001 6.792476e+001 9.721644e+001 6.350736e+001 6.158450e+001 9.397461e+001 1.948568e+002 1.351187e+002 1.171521e+002 1.076496e+002 6.995697e+000 4.233571e+000 6.134124e+000 5.392136e+000 6.010638e+000 6.716443e+000 2.073221e+000 3.450360e+000
<VARIANCE> 22
 6.450831e+000 4.228851e+001 3.300596e+000 2.164982e+000 7.994122e+002 6.714078e+002 3.356898e+002 4.326621e+002 1.571292e+002 3.302567e+002 7.010551e+002 6.414216e+002 1.790961e+002 1.574498e+002 1.767374e+000 2.160429e-001 1.146257e-001 2.448149e-001 9.833077e-002 4.737619e-001 5.530001e+000 5.966685e+000
<GCONST> 1.031020e+002
<MIXTURE> 2 5.000000e-001
<MEAN> 22
 7.530583e-001 4.272742e+000 1.746609e-001 6.722450e-001 8.396914e+000 5.756014e+001 8.988770e+001 5.518715e+001 5.657046e+001 8.670543e+001 1.842658e+002 1.249881e+002 1.117991e+002 1.026304e+002 6.463926e+000 4.047649e+000 5.998698e+000 5.194221e+000 5.885207e+000 6.441122e+000 1.132583e+000 2.473288e+000
<VARIANCE> 22
 6.450831e+000 4.228851e+001 3.300596e+000 2.164982e+000 7.994122e+002 6.714078e+002 3.356898e+002 4.326621e+002 1.571292e+002 3.302567e+002 7.010551e+002 6.414216e+002 1.790961e+002 1.574498e+002 1.767374e+000 2.160429e-001 1.146257e-001 2.448149e-001 9.833077e-002 4.737619e-001 5.530001e+000 5.966685e+000
<GCONST> 1.031020e+002
<STATE> 4
<NUMMIXES> 2
<MIXTURE> 1 5.000000e-001
<MEAN> 22
 4.507587e+000 6.097037e+000 1.164305e+000 1.485630e+000 1.076235e+002 1.074858e+002 8.272749e+001 6.357418e+001 7.150155e+001 7.967427e+001 1.689355e+002 1.314735e+002 1.127678e+002 1.067995e+002 5.324513e+000 3.816387e+000 6.096075e+000 5.400380e+000 5.487043e+000 4.834816e+000 2.430081e+000 2.972581e+000
<VARIANCE> 22
 3.987416e+001 5.929129e+001 3.300596e+000 4.102361e+000 2.079531e+004 1.042590e+004 1.516573e+003 1.204784e+003 8.041876e+002 8.998190e+002 3.845577e+003 2.808458e+003 1.178631e+003 1.023952e+003 1.015614e+001 1.980182e+000 3.108705e+000 2.344519e+000 2.703687e+000 9.218677e+000 5.969523e+000 6.416113e+000
<GCONST> 1.399595e+002
<MIXTURE> 2 5.000000e-001
<MEAN> 22
 1.981747e+000 3.017004e+000 4.376034e-001 6.754583e-001 4.994122e+001 6.664291e+001 6.715021e+001 4.969018e+001 6.015827e+001 6.767548e+001 1.441305e+002 1.102755e+002 9.903536e+001 9.399985e+001 4.049765e+000 3.253511e+000 5.390813e+000 4.787908e+000 4.829327e+000 3.620326e+000 1.452777e+000 1.959379e+000
<VARIANCE> 22
 3.987416e+001 5.929129e+001 3.300596e+000 4.102361e+000 2.079531e+004 1.042590e+004 1.516573e+003 1.204784e+003 8.041876e+002 8.998190e+002 3.845577e+003 2.808458e+003 1.178631e+003 1.023952e+003 1.015614e+001 1.980182e+000 3.108705e+000 2.344519e+000 2.703687e+000 9.218677e+000 5.969523e+000 6.416113e+000
<GCONST> 1.399595e+002
<TRANSP> 5
 0.000000e+000 1.000000e+000 0.000000e+000 0.000000e+000 0.000000e+000
 0.000000e+000 7.532320e-001 2.467680e-001 0.000000e+000 0.000000e+000
 0.000000e+000 0.000000e+000 8.429555e-001 1.570445e-001 0.000000e+000
 0.000000e+000 0.000000e+000 0.000000e+000 4.519566e-001 5.480434e-001
 0.000000e+000 0.000000e+000 0.000000e+000 0.000000e+000 0.000000e+000
<ENDHMM>
~h "FN_2"
<BEGINHMM>
<NUMSTATES> 5
<STATE> 2
<NUMMIXES> 2
<MIXTURE> 1 5.000000e-001
<MEAN> 22
 2.322627e+000 1.038838e+001 9.870874e-001 3.218864e+000 2.324458e+001 1.747219e+002 9.635200e+001 1.140582e+002 6.057418e+001 7.065095e+001 1.905109e+002 4.561278e+001 1.141711e+002 9.925031e+001 6.960678e+000 2.391332e+000 6.104704e+000 4.514065e+000 5.980923e+000 1.742655e+000 2.024266e+000 3.710176e+000
<VARIANCE> 22
 1.524296e+001 1.061292e+002 3.300596e+000 1.242315e+001 1.595801e+003 2.614531e+003 3.365456e+002 6.740634e+002 8.485433e+001 1.831055e+002 1.606296e+003 1.588840e+003 1.854029e+002 2.373241e+002 1.331550e+000 4.682857e-001 8.538647e-001 1.474150e+000 4.762440e-001 1.298020e+000 5.536119e+000 5.807807e+000
<GCONST> 1.169544e+002
<MIXTURE> 2 5.000000e-001
<MEAN> 22
 7.609373e-001 6.267616e+000 2.603857e-001 1.809004e+000 7.265584e+000 1.542689e+002 8.901392e+001 1.036732e+002 5.688952e+001 6.523829e+001 1.744795e+002 2.966868e+001 1.087245e+002 9.308818e+001 6.499106e+000 2.117606e+000 5.735085e+000 4.028407e+000 5.704881e+000 1.286933e+000 1.083108e+000 2.746200e+000
<VARIANCE> 22
 1.524296e+001 1.061292e+002 3.300596e+000 1.242315e+001 1.595801e+003 2.614531e+003 3.365456e+002 6.740634e+002 8.485433e+001 1.831055e+002 1.606296e+003 1.588840e+003 1.854029e+002 2.373241e+002 1.331550e+000 4.682857e-001 8.538647e-001 1.474150e+000 4.762440e-001 1.298020e+000 5.536119e+000 5.807807e+000
<GCONST> 1.169544e+002
<STATE> 3
<NUMMIXES> 2
<MIXTURE> 1 5.000000e-001
<MEAN> 22
 5.308542e+000 1.558416e+001 1.872083e+000 4.517819e+000 5.141600e+001 1.068803e+002 1.010554e+002 1.032800e+002 6.712470e+001 6.854981e+001 1.803575e+002 1.353240e+002 1.145068e+002 1.096015e+002 6.363130e+000 3.907090e+000 6.025066e+000 5.275392e+000 5.737506e+000 4.287706e+000 2.867084e+000 4.227807e+000
<VARIANCE> 22
 4.697913e+001 2.752160e+002 5.806723e+000 3.098237e+001 3.928881e+003 5.057774e+003 5.863058e+002 1.234118e+003 1.973290e+002 1.812687e+002 3.686464e+003 5.425891e+003 2.711505e+002 2.792685e+002 4.851323e+000 1.789201e+000 2.392503e+000 1.120510e+000 1.312775e+000 5.775314e+000 6.188477e+000 6.134971e+000
<GCONST> 1.327304e+002
<MIXTURE> 2 5.000000e-001
<MEAN> 22
 2.566890e+000 8.948302e+000 9.081972e-001 2.291347e+000 2.634368e+001 7.843307e+001 9.136991e+001 8.922796e+001 6.150575e+001 6.316437e+001 1.560710e+002 1.058598e+002 1.079202e+002 1.029169e+002 5.482100e+000 3.372046e+000 5.406358e+000 4.851976e+000 5.279201e+000 3.326431e+000 1.872018e+000 3.237051e+000
<VARIANCE> 22
 4.697913e+001 2.752160e+002 5.806723e+000 3.098237e+001 3.928881e+003 5.057774e+003 5.863058e+002 1.234118e+003 1.973290e+002 1.812687e+002 3.686464e+003 5.425891e+003 2.711505e+002 2.792685e+002 4.851323e+000 1.789201e+000 2.392503e+000 1.120510e+000 1.312775e+000 5.775314e+000 6.188477e+000 6.134971e+000
<GCONST> 1.327304e+002
<STATE> 4
<NUMMIXES> 2
<MIXTURE> 1 5.000000e-001
<MEAN> 22
 9.691993e+000 5.238896e+000 2.751955e+000 1.652312e+000 1.432755e+002 7.304613e+001 1.039360e+002 9.165027e+001 7.488890e+001 6.063225e+001 9.688221e+001 1.620700e+002 1.039097e+002 1.132437e+002 3.431503e+000 4.335383e+000 4.773545e+000 5.669179e+000 4.058783e+000 4.991300e+000 3.588964e+000 2.880579e+000
<VARIANCE> 22
 1.481685e+002 5.644032e+001 1.111232e+001 5.162770e+000 1.086331e+004 7.311347e+003 1.810744e+003 1.135366e+003 2.886491e+002 1.411064e+002 5.074792e+003 4.827416e+003 5.782967e+002 3.553637e+002 4.966618e+000 2.083982e+000 7.077083e+000 1.029724e+000 2.223122e+000 6.139829e+000 7.151765e+000 6.587203e+000
<GCONST> 1.368923e+002
<MIXTURE> 2 5.000000e-001
<MEAN> 22
 4.823013e+000 2.233826e+000 1.418549e+000 7.434425e-001 1.015847e+002 3.884357e+001 8.691483e+001 7.817220e+001 6.809303e+001 5.588073e+001 6.838718e+001 1.342782e+002 9.429062e+001 1.057033e+002 2.540067e+000 3.757943e+000 3.709433e+000 5.263278e+000 3.462377e+000 4.000153e+000 2.519252e+000 1.853957e+000
<VARIANCE> 22
 1.481685e+002 5.644032e+001 1.111232e+001 5.162770e+000 1.086331e+004 7.311347e+003 1.810744e+003 1.135366e+003 2.886491e+002 1.411064e+002 5.074792e+003 4.827416e+003 5.782967e+002 3.553637e+002 4.966618e+000 2.083982e+000 7.077083e+000 1.029724e+000 2.223122e+000 6.139829e+000 7.151765e+000 6.587203e+000
<GCONST> 1.368923e+002
<TRANSP> 5
 0.000000e+000 1.000000e+000 0.000000e+000 0.000000e+000 0.000000e+000
 0.000000e+000 8.329977e-001 1.670023e-001 0.000000e+000 0.000000e+000
 0.000000e+000 0.000000e+000 5.129752e-001 4.870248e-001 0.000000e+000
 0.000000e+000 0.000000e+000 0.000000e+000 7.730010e-001 2.269990e-001
 0.000000e+000 0.000000e+000 0.000000e+000 0.000000e+000 0.000000e+000
<ENDHMM>
~h "FU_2"
<BEGINHMM>
<NUMSTATES> 5
<STATE> 2
<NUMMIXES> 2
<MIXTURE> 1 5.000000e-001
<MEAN> 22
 2.028118e+000 6.402506e+000 1.012425e+000 1.963409e+000 2.740102e+001 1.738421e+002 9.473341e+001 1.122026e+002 5.803607e+001 6.367433e+001 1.858718e+002 4.139507e+001 1.120865e+002 9.714683e+001 6.938251e+000 2.377093e+000 6.057943e+000 4.476548e+000 5.961740e+000 1.915185e+000 2.047081e+000 2.948199e+000
<VARIANCE> 22
 1.117391e+001 9.784948e+001 3.300596e+000 8.535439e+000 2.197353e+003 2.692459e+003 3.378264e+002 5.013539e+002 8.550069e+001 1.796774e+002 1.995705e+003 1.918094e+003 2.378201e+002 1.828188e+002 1.419945e+000 5.970384e-001 1.263069e+000 2.318655e+000 6.251618e-001 1.735135e+000 5.361288e+000 6.654242e+000
<GCONST> 1.184444e+002
<MIXTURE> 2 5.000000e-001
<MEAN> 22
 6.910220e-001 2.445750e+000 2.857235e-001 7.947905e-001 8.650642e+000 1.530865e+002 8.738139e+001 1.032462e+002 5.433741e+001 5.831257e+001 1.680024e+002 2.387665e+001 1.059179e+002 9.173841e+001 6.461605e+000 2.068020e+000 5.608398e+000 3.867463e+000 5.645472e+000 1.388287e+000 1.120903e+000 1.916367e+000
<VARIANCE> 22
 1.117391e+001 9.784948e+001 3.300596e+000 8.535439e+000 2.197353e+003 2.692459e+003 3.378264e+002 5.013539e+002 8.550069e+001 1.796774e+002 1.995705e+003 1.918094e+003 2.378201e+002 1.828188e+002 1.419945e+000 5.970384e-001 1.263069e+000 2.318655e+000 6.251618e-001 1.735135e+000 5.361288e+000 6.654242e+000
<GCONST> 1.184444e+002
<STATE> 3
<NUMMIXES> 2
<MIXTURE> 1 5.000000e-001
<MEAN> 22
 5.330156e+000 3.465200e+000 2.059475e+000 1.506169e+000 1.348745e+002 5.579048e+001 1.113372e+002 9.478408e+001 6.406097e+001 5.691055e+001 8.161875e+001 1.742094e+002 1.024384e+002 1.103644e+002 3.678840e+000 4.754860e+000 3.938619e+000 5.751283e+000 3.828416e+000 5.666587e+000 3.306500e+000 2.695730e+000
<VARIANCE> 22
 5.488512e+001 1.975407e+001 6.965008e+000 3.772827e+000 6.840549e+003 3.620892e+003 6.710709e+002 4.771635e+002 1.746732e+002 8.702778e+001 5.388323e+003 3.539265e+003 2.734089e+002 2.033315e+002 4.891080e+000 1.116802e+000 7.517536e+000 7.298732e-001 2.209994e+000 2.938183e+000 6.730070e+000 5.800107e+000
<GCONST> 1.266465e+002
<MIXTURE> 2 5.000000e-001
<MEAN> 22
 2.366776e+000 1.687378e+000 1.003823e+000 7.292187e-001 1.017915e+002 3.172094e+001 1.009752e+002 8.604646e+001 5.877441e+001 5.317901e+001 5.225668e+001 1.504128e+002 9.582435e+001 1.046606e+002 2.794208e+000 4.332145e+000 2.841894e+000 5.409553e+000 3.233774e+000 4.980942e+000 2.268806e+000 1.732394e+000
<VARIANCE> 22
