~h "SIL" 
    <BEGINHMM>
    <NUMSTATES> 5
    <STATE> 2
    <MEAN> 22
     5.626247e+000 7.396932e+000 2.097200e+000 2.472937e+000 4.240780e+001 6.026455e+001 9.090759e+001 8.949597e+001 6.477499e+001 6.448848e+001 1.612132e+002 1.456602e+002 1.107073e+002 1.084496e+002 5.481471e+000 4.070344e+000 5.756289e+000 5.424155e+000 5.274922e+000 4.502147e+000 2.326887e+000 2.587141e+000
    <VARIANCE> 22
     4.801633e+002 4.063125e+002 3.300596e+002 2.164982e+002 4.956259e+003 5.429972e+003 9.838196e+002 1.115232e+003 2.936353e+002 3.516743e+002 3.745900e+003 4.440890e+003 4.184655e+002 3.870682e+002 6.504287e+000 1.793315e+000 2.326111e+000 1.170389e+000 2.082488e+000 5.618803e+000 6.153808e+000 6.060927e+000
    <GCONST> 1.445117e+002
    <STATE> 3
    <MEAN> 22
     5.626247e+000 7.396932e+000 2.097200e+000 2.472937e+000 4.240780e+001 6.026455e+001 9.090759e+001 8.949597e+001 6.477499e+001 6.448848e+001 1.612132e+002 1.456602e+002 1.107073e+002 1.084496e+002 5.481471e+000 4.070344e+000 5.756289e+000 5.424155e+000 5.274922e+000 4.502147e+000 2.326887e+000 2.587141e+000
    <VARIANCE> 22
     4.801633e+002 4.063125e+002 3.300596e+002 2.164982e+002 4.956259e+003 5.429972e+003 9.838196e+002 1.115232e+003 2.936353e+002 3.516743e+002 3.745900e+003 4.440890e+003 4.184655e+002 3.870682e+002 6.504287e+000 1.793315e+000 2.326111e+000 1.170389e+000 2.082488e+000 5.618803e+000 6.153808e+000 6.060927e+000
    <GCONST> 1.445117e+002
    <STATE> 4
    <MEAN> 22
     5.626247e+000 7.396932e+000 2.097200e+000 2.472937e+000 4.240780e+001 6.026455e+001 9.090759e+001 8.949597e+001 6.477499e+001 6.448848e+001 1.612132e+002 1.456602e+002 1.107073e+002 1.084496e+002 5.481471e+000 4.070344e+000 5.756289e+000 5.424155e+000 5.274922e+000 4.502147e+000 2.326887e+000 2.587141e+000
    <VARIANCE> 22
     4.801633e+002 4.063125e+002 3.300596e+002 2.164982e+002 4.956259e+003 5.429972e+003 9.838196e+002 1.115232e+003 2.936353e+002 3.516743e+002 3.745900e+003 4.440890e+003 4.184655e+002 3.870682e+002 6.504287e+000 1.793315e+000 2.326111e+000 1.170389e+000 2.082488e+000 5.618803e+000 6.153808e+000 6.060927e+000
    <GCONST> 1.445117e+002
    <TRANSP> 5
     0.000000e+000 1.000000e+000 0.000000e+000 0.000000e+000 0.000000e+000
     0.000000e+000 6.000000e-001 4.000000e-001 0.000000e+000 0.000000e+000
     0.000000e+000 0.000000e+000 6.000000e-001 4.000000e-001 0.000000e+000
     0.000000e+000 0.000000e+000 0.000000e+000 7.000000e-001 3.000000e-001
     0.000000e+000 0.000000e+000 0.000000e+000 0.000000e+000 0.000000e+000
    <ENDHMM>
~h "BN" 
    <BEGINHMM>
    <NUMSTATES> 5
    <STATE> 2
    <MEAN> 22
     5.626247e+000 7.396932e+000 2.097200e+000 2.472937e+000 4.240780e+001 6.026455e+001 9.090759e+001 8.949597e+001 6.477499e+001 6.448848e+001 1.612132e+002 1.456602e+002 1.107073e+002 1.084496e+002 5.481471e+000 4.070344e+000 5.756289e+000 5.424155e+000 5.274922e+000 4.502147e+000 2.326887e+000 2.587141e+000
    <VARIANCE> 22
     4.801633e+002 4.063125e+002 3.300596e+002 2.164982e+002 4.956259e+003 5.429972e+003 9.838196e+002 1.115232e+003 2.936353e+002 3.516743e+002 3.745900e+003 4.440890e+003 4.184655e+002 3.870682e+002 6.504287e+000 1.793315e+000 2.326111e+000 1.170389e+000 2.082488e+000 5.618803e+000 6.153808e+000 6.060927e+000
    <GCONST> 1.445117e+002
    <STATE> 3
    <MEAN> 22
     5.626247e+000 7.396932e+000 2.097200e+000 2.472937e+000 4.240780e+001 6.026455e+001 9.090759e+001 8.949597e+001 6.477499e+001 6.448848e+001 1.612132e+002 1.456602e+002 1.107073e+002 1.084496e+002 5.481471e+000 4.070344e+000 5.756289e+000 5.424155e+000 5.274922e+000 4.502147e+000 2.326887e+000 2.587141e+000
    <VARIANCE> 22
     4.801633e+002 4.063125e+002 3.300596e+002 2.164982e+002 4.956259e+003 5.429972e+003 9.838196e+002 1.115232e+003 2.936353e+002 3.516743e+002 3.745900e+003 4.440890e+003 4.184655e+002 3.870682e+002 6.504287e+000 1.793315e+000 2.326111e+000 1.170389e+000 2.082488e+000 5.618803e+000 6.153808e+000 6.060927e+000
    <GCONST> 1.445117e+002
    <STATE> 4
    <MEAN> 22
     5.626247e+000 7.396932e+000 2.097200e+000 2.472937e+000 4.240780e+001 6.026455e+001 9.090759e+001 8.949597e+001 6.477499e+001 6.448848e+001 1.612132e+002 1.456602e+002 1.107073e+002 1.084496e+002 5.481471e+000 4.070344e+000 5.756289e+000 5.424155e+000 5.274922e+000 4.502147e+000 2.326887e+000 2.587141e+000
    <VARIANCE> 22
     4.801633e+002 4.063125e+002 3.300596e+002 2.164982e+002 4.956259e+003 5.429972e+003 9.838196e+002 1.115232e+003 2.936353e+002 3.516743e+002 3.745900e+003 4.440890e+003 4.184655e+002 3.870682e+002 6.504287e+000 1.793315e+000 2.326111e+000 1.170389e+000 2.082488e+000 5.618803e+000 6.153808e+000 6.060927e+000
    <GCONST> 1.445117e+002
    <TRANSP> 5
     0.000000e+000 1.000000e+000 0.000000e+000 0.000000e+000 0.000000e+000
     0.000000e+000 6.000000e-001 4.000000e-001 0.000000e+000 0.000000e+000
     0.000000e+000 0.000000e+000 6.000000e-001 4.000000e-001 0.000000e+000
     0.000000e+000 0.000000e+000 0.000000e+000 7.000000e-001 3.000000e-001
     0.000000e+000 0.000000e+000 0.000000e+000 0.000000e+000 0.000000e+000
    <ENDHMM>
~h "BS" 
    <BEGINHMM>
    <NUMSTATES> 5
    <STATE> 2
    <MEAN> 22
     5.626247e+000 7.396932e+000 2.097200e+000 2.472937e+000 4.240780e+001 6.026455e+001 9.090759e+001 8.949597e+001 6.477499e+001 6.448848e+001 1.612132e+002 1.456602e+002 1.107073e+002 1.084496e+002 5.481471e+000 4.070344e+000 5.756289e+000 5.424155e+000 5.274922e+000 4.502147e+000 2.326887e+000 2.587141e+000
    <VARIANCE> 22
     4.801633e+002 4.063125e+002 3.300596e+002 2.164982e+002 4.956259e+003 5.429972e+003 9.838196e+002 1.115232e+003 2.936353e+002 3.516743e+002 3.745900e+003 4.440890e+003 4.184655e+002 3.870682e+002 6.504287e+000 1.793315e+000 2.326111e+000 1.170389e+000 2.082488e+000 5.618803e+000 6.153808e+000 6.060927e+000
    <GCONST> 1.445117e+002
    <STATE> 3
    <MEAN> 22
     5.626247e+000 7.396932e+000 2.097200e+000 2.472937e+000 4.240780e+001 6.026455e+001 9.090759e+001 8.949597e+001 6.477499e+001 6.448848e+001 1.612132e+002 1.456602e+002 1.107073e+002 1.084496e+002 5.481471e+000 4.070344e+000 5.756289e+000 5.424155e+000 5.274922e+000 4.502147e+000 2.326887e+000 2.587141e+000
    <VARIANCE> 22
     4.801633e+002 4.063125e+002 3.300596e+002 2.164982e+002 4.956259e+003 5.429972e+003 9.838196e+002 1.115232e+003 2.936353e+002 3.516743e+002 3.745900e+003 4.440890e+003 4.184655e+002 3.870682e+002 6.504287e+000 1.793315e+000 2.326111e+000 1.170389e+000 2.082488e+000 5.618803e+000 6.153808e+000 6.060927e+000
    <GCONST> 1.445117e+002
    <STATE> 4
    <MEAN> 22
     5.626247e+000 7.396932e+000 2.097200e+000 2.472937e+000 4.240780e+001 6.026455e+001 9.090759e+001 8.949597e+001 6.477499e+001 6.448848e+001 1.612132e+002 1.456602e+002 1.107073e+002 1.084496e+002 5.481471e+000 4.070344e+000 5.756289e+000 5.424155e+000 5.274922e+000 4.502147e+000 2.326887e+000 2.587141e+000
    <VARIANCE> 22
     4.801633e+002 4.063125e+002 3.300596e+002 2.164982e+002 4.956259e+003 5.429972e+003 9.838196e+002 1.115232e+003 2.936353e+002 3.516743e+002 3.745900e+003 4.440890e+003 4.184655e+002 3.870682e+002 6.504287e+000 1.793315e+000 2.326111e+000 1.170389e+000 2.082488e+000 5.618803e+000 6.153808e+000 6.060927e+000
    <GCONST> 1.445117e+002
    <TRANSP> 5
     0.000000e+000 1.000000e+000 0.000000e+000 0.000000e+000 0.000000e+000
     0.000000e+000 6.000000e-001 4.000000e-001 0.000000e+000 0.000000e+000
     0.000000e+000 0.000000e+000 6.000000e-001 4.000000e-001 0.000000e+000
     0.000000e+000 0.000000e+000 0.000000e+000 7.000000e-001 3.000000e-001
     0.000000e+000 0.000000e+000 0.000000e+000 0.000000e+000 0.000000e+000
    <ENDHMM>
~h "CF" 
    <BEGINHMM>
    <NUMSTATES> 5
    <STATE> 2
    <MEAN> 22
     5.626247e+000 7.396932e+000 2.097200e+000 2.472937e+000 4.240780e+001 6.026455e+001 9.090759e+001 8.949597e+001 6.477499e+001 6.448848e+001 1.612132e+002 1.456602e+002 1.107073e+002 1.084496e+002 5.481471e+000 4.070344e+000 5.756289e+000 5.424155e+000 5.274922e+000 4.502147e+000 2.326887e+000 2.587141e+000
    <VARIANCE> 22
     4.801633e+002 4.063125e+002 3.300596e+002 2.164982e+002 4.956259e+003 5.429972e+003 9.838196e+002 1.115232e+003 2.936353e+002 3.516743e+002 3.745900e+003 4.440890e+003 4.184655e+002 3.870682e+002 6.504287e+000 1.793315e+000 2.326111e+000 1.170389e+000 2.082488e+000 5.618803e+000 6.153808e+000 6.060927e+000
    <GCONST> 1.445117e+002
    <STATE> 3
    <MEAN> 22
     5.626247e+000 7.396932e+000 2.097200e+000 2.472937e+000 4.240780e+001 6.026455e+001 9.090759e+001 8.949597e+001 6.477499e+001 6.448848e+001 1.612132e+002 1.456602e+002 1.107073e+002 1.084496e+002 5.481471e+000 4.070344e+000 5.756289e+000 5.424155e+000 5.274922e+000 4.502147e+000 2.326887e+000 2.587141e+000
    <VARIANCE> 22
     4.801633e+002 4.063125e+002 3.300596e+002 2.164982e+002 4.956259e+003 5.429972e+003 9.838196e+002 1.115232e+003 2.936353e+002 3.516743e+002 3.745900e+003 4.440890e+003 4.184655e+002 3.870682e+002 6.504287e+000 1.793315e+000 2.326111e+000 1.170389e+000 2.082488e+000 5.618803e+000 6.153808e+000 6.060927e+000
    <GCONST> 1.445117e+002
    <STATE> 4
    <MEAN> 22
     5.626247e+000 7.396932e+000 2.097200e+000 2.472937e+000 4.240780e+001 6.026455e+001 9.090759e+001 8.949597e+001 6.477499e+001 6.448848e+001 1.612132e+002 1.456602e+002 1.107073e+002 1.084496e+002 5.481471e+000 4.070344e+000 5.756289e+000 5.424155e+000 5.274922e+000 4.502147e+000 2.326887e+000 2.587141e+000
    <VARIANCE> 22
     4.801633e+002 4.063125e+002 3.300596e+002 2.164982e+002 4.956259e+003 5.429972e+003 9.838196e+002 1.115232e+003 2.936353e+002 3.516743e+002 3.745900e+003 4.440890e+003 4.184655e+002 3.870682e+002 6.504287e+000 1.793315e+000 2.326111e+000 1.170389e+000 2.082488e+000 5.618803e+000 6.153808e+000 6.060927e+000
    <GCONST> 1.445117e+002
    <TRANSP> 5
     0.000000e+000 1.000000e+000 0.000000e+000 0.000000e+000 0.000000e+000
     0.000000e+000 6.000000e-001 4.000000e-001 0.000000e+000 0.000000e+000
     0.000000e+000 0.000000e+000 6.000000e-001 4.000000e-001 0.000000e+000
     0.000000e+000 0.000000e+000 0.000000e+000 7.000000e-001 3.000000e-001
     0.000000e+000 0.000000e+000 0.000000e+000 0.000000e+000 0.000000e+000
    <ENDHMM>
~h "CN" 
    <BEGINHMM>
    <NUMSTATES> 5
    <STATE> 2
    <MEAN> 22
     5.626247e+000 7.396932e+000 2.097200e+000 2.472937e+000 4.240780e+001 6.026455e+001 9.090759e+001 8.949597e+001 6.477499e+001 6.448848e+001 1.612132e+002 1.456602e+002 1.107073e+002 1.084496e+002 5.481471e+000 4.070344e+000 5.756289e+000 5.424155e+000 5.274922e+000 4.502147e+000 2.326887e+000 2.587141e+000
    <VARIANCE> 22
     4.801633e+002 4.063125e+002 3.300596e+002 2.164982e+002 4.956259e+003 5.429972e+003 9.838196e+002 1.115232e+003 2.936353e+002 3.516743e+002 3.745900e+003 4.440890e+003 4.184655e+002 3.870682e+002 6.504287e+000 1.793315e+000 2.326111e+000 1.170389e+000 2.082488e+000 5.618803e+000 6.153808e+000 6.060927e+000
    <GCONST> 1.445117e+002
    <STATE> 3
    <MEAN> 22
     5.626247e+000 7.396932e+000 2.097200e+000 2.472937e+000 4.240780e+001 6.026455e+001 9.090759e+001 8.949597e+001 6.477499e+001 6.448848e+001 1.612132e+002 1.456602e+002 1.107073e+002 1.084496e+002 5.481471e+000 4.070344e+000 5.756289e+000 5.424155e+000 5.274922e+000 4.502147e+000 2.326887e+000 2.587141e+000
    <VARIANCE> 22
     4.801633e+002 4.063125e+002 3.300596e+002 2.164982e+002 4.956259e+003 5.429972e+003 9.838196e+002 1.115232e+003 2.936353e+002 3.516743e+002 3.745900e+003 4.440890e+003 4.184655e+002 3.870682e+002 6.504287e+000 1.793315e+000 2.326111e+000 1.170389e+000 2.082488e+000 5.618803e+000 6.153808e+000 6.060927e+000
    <GCONST> 1.445117e+002
    <STATE> 4
    <MEAN> 22
     5.626247e+000 7.396932e+000 2.097200e+000 2.472937e+000 4.240780e+001 6.026455e+001 9.090759e+001 8.949597e+001 6.477499e+001 6.448848e+001 1.612132e+002 1.456602e+002 1.107073e+002 1.084496e+002 5.481471e+000 4.070344e+000 5.756289e+000 5.424155e+000 5.274922e+000 4.502147e+000 2.326887e+000 2.587141e+000
    <VARIANCE> 22
     4.801633e+002 4.063125e+002 3.300596e+002 2.164982e+002 4.956259e+003 5.429972e+003 9.838196e+002 1.115232e+003 2.936353e+002 3.516743e+002 3.745900e+003 4.440890e+003 4.184655e+002 3.870682e+002 6.504287e+000 1.793315e+000 2.326111e+000 1.170389e+000 2.082488e+000 5.618803e+000 6.153808e+000 6.060927e+000
    <GCONST> 1.445117e+002
    <TRANSP> 5
     0.000000e+000 1.000000e+000 0.000000e+000 0.000000e+000 0.000000e+000
     0.000000e+000 6.000000e-001 4.000000e-001 0.000000e+000 0.000000e+000
     0.000000e+000 0.000000e+000 6.000000e-001 4.000000e-001 0.000000e+000
     0.000000e+000 0.000000e+000 0.000000e+000 7.000000e-001 3.000000e-001
     0.000000e+000 0.000000e+000 0.000000e+000 0.000000e+000 0.000000e+000
    <ENDHMM>
~h "CP" 
    <BEGINHMM>
    <NUMSTATES> 5
    <STATE> 2
    <MEAN> 22
     5.626247e+000 7.396932e+000 2.097200e+000 2.472937e+000 4.240780e+001 6.026455e+001 9.090759e+001 8.949597e+001 6.477499e+001 6.448848e+001 1.612132e+002 1.456602e+002 1.107073e+002 1.084496e+002 5.481471e+000 4.070344e+000 5.756289e+000 5.424155e+000 5.274922e+000 4.502147e+000 2.326887e+000 2.587141e+000
    <VARIANCE> 22
     4.801633e+002 4.063125e+002 3.300596e+002 2.164982e+002 4.956259e+003 5.429972e+003 9.838196e+002 1.115232e+003 2.936353e+002 3.516743e+002 3.745900e+003 4.440890e+003 4.184655e+002 3.870682e+002 6.504287e+000 1.793315e+000 2.326111e+000 1.170389e+000 2.082488e+000 5.618803e+000 6.153808e+000 6.060927e+000
    <GCONST> 1.445117e+002
    <STATE> 3
    <MEAN> 22
     5.626247e+000 7.396932e+000 2.097200e+000 2.472937e+000 4.240780e+001 6.026455e+001 9.090759e+001 8.949597e+001 6.477499e+001 6.448848e+001 1.612132e+002 1.456602e+002 1.107073e+002 1.084496e+002 5.481471e+000 4.070344e+000 5.756289e+000 5.424155e+000 5.274922e+000 4.502147e+000 2.326887e+000 2.587141e+000
    <VARIANCE> 22
     4.801633e+002 4.063125e+002 3.300596e+002 2.164982e+002 4.956259e+003 5.429972e+003 9.838196e+002 1.115232e+003 2.936353e+002 3.516743e+002 3.745900e+003 4.440890e+003 4.184655e+002 3.870682e+002 6.504287e+000 1.793315e+000 2.326111e+000 1.170389e+000 2.082488e+000 5.618803e+000 6.153808e+000 6.060927e+000
    <GCONST> 1.445117e+002
    <STATE> 4
    <MEAN> 22
     5.626247e+000 7.396932e+000 2.097200e+000 2.472937e+000 4.240780e+001 6.026455e+001 9.090759e+001 8.949597e+001 6.477499e+001 6.448848e+001 1.612132e+002 1.456602e+002 1.107073e+002 1.084496e+002 5.481471e+000 4.070344e+000 5.756289e+000 5.424155e+000 5.274922e+000 4.502147e+000 2.326887e+000 2.587141e+000
    <VARIANCE> 22
     4.801633e+002 4.063125e+002 3.300596e+002 2.164982e+002 4.956259e+003 5.429972e+003 9.838196e+002 1.115232e+003 2.936353e+002 3.516743e+002 3.745900e+003 4.440890e+003 4.184655e+002 3.870682e+002 6.504287e+000 1.793315e+000 2.326111e+000 1.170389e+000 2.082488e+000 5.618803e+000 6.153808e+000 6.060927e+000
    <GCONST> 1.445117e+002
    <TRANSP> 5
     0.000000e+000 1.000000e+000 0.000000e+000 0.000000e+000 0.000000e+000
     0.000000e+000 6.000000e-001 4.000000e-001 0.000000e+000 0.000000e+000
     0.000000e+000 0.000000e+000 6.000000e-001 4.000000e-001 0.000000e+000
     0.000000e+000 0.000000e+000 0.000000e+000 7.000000e-001 3.000000e-001
     0.000000e+000 0.000000e+000 0.000000e+000 0.000000e+000 0.000000e+000
    <ENDHMM>
~h "CV" 
    <BEGINHMM>
    <NUMSTATES> 5
    <STATE> 2
    <MEAN> 22
     5.626247e+000 7.396932e+000 2.097200e+000 2.472937e+000 4.240780e+001 6.026455e+001 9.090759e+001 8.949597e+001 6.477499e+001 6.448848e+001 1.612132e+002 1.456602e+002 1.107073e+002 1.084496e+002 5.481471e+000 4.070344e+000 5.756289e+000 5.424155e+000 5.274922e+000 4.502147e+000 2.326887e+000 2.587141e+000
    <VARIANCE> 22
     4.801633e+002 4.063125e+002 3.300596e+002 2.164982e+002 4.956259e+003 5.429972e+003 9.838196e+002 1.115232e+003 2.936353e+002 3.516743e+002 3.745900e+003 4.440890e+003 4.184655e+002 3.870682e+002 6.504287e+000 1.793315e+000 2.326111e+000 1.170389e+000 2.082488e+000 5.618803e+000 6.153808e+000 6.060927e+000
    <GCONST> 1.445117e+002
    <STATE> 3
    <MEAN> 22
     5.626247e+000 7.396932e+000 2.097200e+000 2.472937e+000 4.240780e+001 6.026455e+001 9.090759e+001 8.949597e+001 6.477499e+001 6.448848e+001 1.612132e+002 1.456602e+002 1.107073e+002 1.084496e+002 5.481471e+000 4.070344e+000 5.756289e+000 5.424155e+000 5.274922e+000 4.502147e+000 2.326887e+000 2.587141e+000
    <VARIANCE> 22
     4.801633e+002 4.063125e+002 3.300596e+002 2.164982e+002 4.956259e+003 5.429972e+003 9.838196e+002 1.115232e+003 2.936353e+002 3.516743e+002 3.745900e+003 4.440890e+003 4.184655e+002 3.870682e+002 6.504287e+000 1.793315e+000 2.326111e+000 1.170389e+000 2.082488e+000 5.618803e+000 6.153808e+000 6.060927e+000
    <GCONST> 1.445117e+002
    <STATE> 4
    <MEAN> 22
     5.626247e+000 7.396932e+000 2.097200e+000 2.472937e+000 4.240780e+001 6.026455e+001 9.090759e+001 8.949597e+001 6.477499e+001 6.448848e+001 1.612132e+002 1.456602e+002 1.107073e+002 1.084496e+002 5.481471e+000 4.070344e+000 5.756289e+000 5.424155e+000 5.274922e+000 4.502147e+000 2.326887e+000 2.587141e+000
    <VARIANCE> 22
     4.801633e+002 4.063125e+002 3.300596e+002 2.164982e+002 4.956259e+003 5.429972e+003 9.838196e+002 1.115232e+003 2.936353e+002 3.516743e+002 3.745900e+003 4.440890e+003 4.184655e+002 3.870682e+002 6.504287e+000 1.793315e+000 2.326111e+000 1.170389e+000 2.082488e+000 5.618803e+000 6.153808e+000 6.060927e+000
    <GCONST> 1.445117e+002
    <TRANSP> 5
     0.000000e+000 1.000000e+000 0.000000e+000 0.000000e+000 0.000000e+000
     0.000000e+000 6.000000e-001 4.000000e-001 0.000000e+000 0.000000e+000
     0.000000e+000 0.000000e+000 6.000000e-001 4.000000e-001 0.000000e+000
     0.000000e+000 0.000000e+000 0.000000e+000 7.000000e-001 3.000000e-001
     0.000000e+000 0.000000e+000 0.000000e+000 0.000000e+000 0.000000e+000
    <ENDHMM>
~h "DC" 
    <BEGINHMM>
    <NUMSTATES> 5
    <STATE> 2
    <MEAN> 22
     5.626247e+000 7.396932e+000 2.097200e+000 2.472937e+000 4.240780e+001 6.026455e+001 9.090759e+001 8.949597e+001 6.477499e+001 6.448848e+001 1.612132e+002 1.456602e+002 1.107073e+002 1.084496e+002 5.481471e+000 4.070344e+000 5.756289e+000 5.424155e+000 5.274922e+000 4.502147e+000 2.326887e+000 2.587141e+000
    <VARIANCE> 22
     4.801633e+002 4.063125e+002 3.300596e+002 2.164982e+002 4.956259e+003 5.429972e+003 9.838196e+002 1.115232e+003 2.936353e+002 3.516743e+002 3.745900e+003 4.440890e+003 4.184655e+002 3.870682e+002 6.504287e+000 1.793315e+000 2.326111e+000 1.170389e+000 2.082488e+000 5.618803e+000 6.153808e+000 6.060927e+000
    <GCONST> 1.445117e+002
    <STATE> 3
    <MEAN> 22
     5.626247e+000 7.396932e+000 2.097200e+000 2.472937e+000 4.240780e+001 6.026455e+001 9.090759e+001 8.949597e+001 6.477499e+001 6.448848e+001 1.612132e+002 1.456602e+002 1.107073e+002 1.084496e+002 5.481471e+000 4.070344e+000 5.756289e+000 5.424155e+000 5.274922e+000 4.502147e+000 2.326887e+000 2.587141e+000
    <VARIANCE> 22
     4.801633e+002 4.063125e+002 3.300596e+002 2.164982e+002 4.956259e+003 5.429972e+003 9.838196e+002 1.115232e+003 2.936353e+002 3.516743e+002 3.745900e+003 4.440890e+003 4.184655e+002 3.870682e+002 6.504287e+000 1.793315e+000 2.326111e+000 1.170389e+000 2.082488e+000 5.618803e+000 6.153808e+000 6.060927e+000
    <GCONST> 1.445117e+002
    <STATE> 4
    <MEAN> 22
     5.626247e+000 7.396932e+000 2.097200e+000 2.472937e+000 4.240780e+001 6.026455e+001 9.090759e+001 8.949597e+001 6.477499e+001 6.448848e+001 1.612132e+002 1.456602e+002 1.107073e+002 1.084496e+002 5.481471e+000 4.070344e+000 5.756289e+000 5.424155e+000 5.274922e+000 4.502147e+000 2.326887e+000 2.587141e+000
    <VARIANCE> 22
     4.801633e+002 4.063125e+002 3.300596e+002 2.164982e+002 4.956259e+003 5.429972e+003 9.838196e+002 1.115232e+003 2.936353e+002 3.516743e+002 3.745900e+003 4.440890e+003 4.184655e+002 3.870682e+002 6.504287e+000 1.793315e+000 2.326111e+000 1.170389e+000 2.082488e+000 5.618803e+000 6.153808e+000 6.060927e+000
    <GCONST> 1.445117e+002
    <TRANSP> 5
     0.000000e+000 1.000000e+000 0.000000e+000 0.000000e+000 0.000000e+000
     0.000000e+000 6.000000e-001 4.000000e-001 0.000000e+000 0.000000e+000
     0.000000e+000 0.000000e+000 6.000000e-001 4.000000e-001 0.000000e+000
     0.000000e+000 0.000000e+000 0.000000e+000 7.000000e-001 3.000000e-001
     0.000000e+000 0.000000e+000 0.000000e+000 0.000000e+000 0.000000e+000
    <ENDHMM>
~h "FM" 
    <BEGINHMM>
    <NUMSTATES> 5
    <STATE> 2
    <MEAN> 22
     5.626247e+000 7.396932e+000 2.097200e+000 2.472937e+000 4.240780e+001 6.026455e+001 9.090759e+001 8.949597e+001 6.477499e+001 6.448848e+001 1.612132e+002 1.456602e+002 1.107073e+002 1.084496e+002 5.481471e+000 4.070344e+000 5.756289e+000 5.424155e+000 5.274922e+000 4.502147e+000 2.326887e+000 2.587141e+000
    <VARIANCE> 22
     4.801633e+002 4.063125e+002 3.300596e+002 2.164982e+002 4.956259e+003 5.429972e+003 9.838196e+002 1.115232e+003 2.936353e+002 3.516743e+002 3.745900e+003 4.440890e+003 4.184655e+002 3.870682e+002 6.504287e+000 1.793315e+000 2.326111e+000 1.170389e+000 2.082488e+000 5.618803e+000 6.153808e+000 6.060927e+000
    <GCONST> 1.445117e+002
    <STATE> 3
    <MEAN> 22
     5.626247e+000 7.396932e+000 2.097200e+000 2.472937e+000 4.240780e+001 6.026455e+001 9.090759e+001 8.949597e+001 6.477499e+001 6.448848e+001 1.612132e+002 1.456602e+002 1.107073e+002 1.084496e+002 5.481471e+000 4.070344e+000 5.756289e+000 5.424155e+000 5.274922e+000 4.502147e+000 2.326887e+000 2.587141e+000
    <VARIANCE> 22
     4.801633e+002 4.063125e+002 3.300596e+002 2.164982e+002 4.956259e+003 5.429972e+003 9.838196e+002 1.115232e+003 2.936353e+002 3.516743e+002 3.745900e+003 4.440890e+003 4.184655e+002 3.870682e+002 6.504287e+000 1.793315e+000 2.326111e+000 1.170389e+000 2.082488e+000 5.618803e+000 6.153808e+000 6.060927e+000
    <GCONST> 1.445117e+002
    <STATE> 4
    <MEAN> 22
     5.626247e+000 7.396932e+000 2.097200e+000 2.472937e+000 4.240780e+001 6.026455e+001 9.090759e+001 8.949597e+001 6.477499e+001 6.448848e+001 1.612132e+002 1.456602e+002 1.107073e+002 1.084496e+002 5.481471e+000 4.070344e+000 5.756289e+000 5.424155e+000 5.274922e+000 4.502147e+000 2.326887e+000 2.587141e+000
    <VARIANCE> 22
     4.801633e+002 4.063125e+002 3.300596e+002 2.164982e+002 4.956259e+003 5.429972e+003 9.838196e+002 1.115232e+003 2.936353e+002 3.516743e+002 3.745900e+003 4.440890e+003 4.184655e+002 3.870682e+002 6.504287e+000 1.793315e+000 2.326111e+000 1.170389e+000 2.082488e+000 5.618803e+000 6.153808e+000 6.060927e+000
    <GCONST> 1.445117e+002
    <TRANSP> 5
     0.000000e+000 1.000000e+000 0.000000e+000 0.000000e+000 0.000000e+000
     0.000000e+000 6.000000e-001 4.000000e-001 0.000000e+000 0.000000e+000
     0.000000e+000 0.000000e+000 6.000000e-001 4.000000e-001 0.000000e+000
     0.000000e+000 0.000000e+000 0.000000e+000 7.000000e-001 3.000000e-001
     0.000000e+000 0.000000e+000 0.000000e+000 0.000000e+000 0.000000e+000
    <ENDHMM>
~h "FN" 
    <BEGINHMM>
    <NUMSTATES> 5
    <STATE> 2
    <MEAN> 22
     5.626247e+000 7.396932e+000 2.097200e+000 2.472937e+000 4.240780e+001 6.026455e+001 9.090759e+001 8.949597e+001 6.477499e+001 6.448848e+001 1.612132e+002 1.456602e+002 1.107073e+002 1.084496e+002 5.481471e+000 4.070344e+000 5.756289e+000 5.424155e+000 5.274922e+000 4.502147e+000 2.326887e+000 2.587141e+000
    <VARIANCE> 22
     4.801633e+002 4.063125e+002 3.300596e+002 2.164982e+002 4.956259e+003 5.429972e+003 9.838196e+002 1.115232e+003 2.936353e+002 3.516743e+002 3.745900e+003 4.440890e+003 4.184655e+002 3.870682e+002 6.504287e+000 1.793315e+000 2.326111e+000 1.170389e+000 2.082488e+000 5.618803e+000 6.153808e+000 6.060927e+000
    <GCONST> 1.445117e+002
    <STATE> 3
    <MEAN> 22
     5.626247e+000 7.396932e+000 2.097200e+000 2.472937e+000 4.240780e+001 6.026455e+001 9.090759e+001 8.949597e+001 6.477499e+001 6.448848e+001 1.612132e+002 1.456602e+002 1.107073e+002 1.084496e+002 5.481471e+000 4.070344e+000 5.756289e+000 5.424155e+000 5.274922e+000 4.502147e+000 2.326887e+000 2.587141e+000
    <VARIANCE> 22
     4.801633e+002 4.063125e+002 3.300596e+002 2.164982e+002 4.956259e+003 5.429972e+003 9.838196e+002 1.115232e+003 2.936353e+002 3.516743e+002 3.745900e+003 4.440890e+003 4.184655e+002 3.870682e+002 6.504287e+000 1.793315e+000 2.326111e+000 1.170389e+000 2.082488e+000 5.618803e+000 6.153808e+000 6.060927e+000
    <GCONST> 1.445117e+002
    <STATE> 4
    <MEAN> 22
     5.626247e+000 7.396932e+000 2.097200e+000 2.472937e+000 4.240780e+001 6.026455e+001 9.090759e+001 8.949597e+001 6.477499e+001 6.448848e+001 1.612132e+002 1.456602e+002 1.107073e+002 1.084496e+002 5.481471e+000 4.070344e+000 5.756289e+000 5.424155e+000 5.274922e+000 4.502147e+000 2.326887e+000 2.587141e+000
    <VARIANCE> 22
     4.801633e+002 4.063125e+002 3.300596e+002 2.164982e+002 4.956259e+003 5.429972e+003 9.838196e+002 1.115232e+003 2.936353e+002 3.516743e+002 3.745900e+003 4.440890e+003 4.184655e+002 3.870682e+002 6.504287e+000 1.793315e+000 2.326111e+000 1.170389e+000 2.082488e+000 5.618803e+000 6.153808e+000 6.060927e+000
    <GCONST> 1.445117e+002
    <TRANSP> 5
     0.000000e+000 1.000000e+000 0.000000e+000 0.000000e+000 0.000000e+000
     0.000000e+000 6.000000e-001 4.000000e-001 0.000000e+000 0.000000e+000
     0.000000e+000 0.000000e+000 6.000000e-001 4.000000e-001 0.000000e+000
     0.000000e+000 0.000000e+000 0.000000e+000 7.000000e-001 3.000000e-001
     0.000000e+000 0.000000e+000 0.000000e+000 0.000000e+000 0.000000e+000
    <ENDHMM>
~h "FU" 
    <BEGINHMM>
    <NUMSTATES> 5
    <STATE> 2
    <MEAN> 22
     5.626247e+000 7.396932e+000 2.097200e+000 2.472937e+000 4.240780e+001 6.026455e+001 9.090759e+001 8.949597e+001 6.477499e+001 6.448848e+001 1.612132e+002 1.456602e+002 1.107073e+002 1.084496e+002 5.481471e+000 4.070344e+000 5.756289e+000 5.424155e+000 5.274922e+000 4.502147e+000 2.326887e+000 2.587141e+000
    <VARIANCE> 22
     4.801633e+002 4.063125e+002 3.300596e+002 2.164982e+002 4.956259e+003 5.429972e+003 9.838196e+002 1.115232e+003 2.936353e+002 3.516743e+002 3.745900e+003 4.440890e+003 4.184655e+002 3.870682e+002 6.504287e+000 1.793315e+000 2.326111e+000 1.170389e+000 2.082488e+000 5.618803e+000 6.153808e+000 6.060927e+000
    <GCONST> 1.445117e+002
    <STATE> 3
    <MEAN> 22
     5.626247e+000 7.396932e+000 2.097200e+000 2.472937e+000 4.240780e+001 6.026455e+001 9.090759e+001 8.949597e+001 6.477499e+001 6.448848e+001 1.612132e+002 1.456602e+002 1.107073e+002 1.084496e+002 5.481471e+000 4.070344e+000 5.756289e+000 5.424155e+000 5.274922e+000 4.502147e+000 2.326887e+000 2.587141e+000
    <VARIANCE> 22
     4.801633e+002 4.063125e+002 3.300596e+002 2.164982e+002 4.956259e+003 5.429972e+003 9.838196e+002 1.115232e+003 2.936353e+002 3.516743e+002 3.745900e+003 4.440890e+003 4.184655e+002 3.870682e+002 6.504287e+000 1.793315e+000 2.326111e+000 1.170389e+000 2.082488e+000 5.618803e+000 6.153808e+000 6.060927e+000
    <GCONST> 1.445117e+002
    <STATE> 4
    <MEAN> 22
     5.626247e+000 7.396932e+000 2.097200e+000 2.472937e+000 4.240780e+001 6.026455e+001 9.090759e+001 8.949597e+001 6.477499e+001 6.448848e+001 1.612132e+002 1.456602e+002 1.107073e+002 1.084496e+002 5.481471e+000 4.070344e+000 5.756289e+000 5.424155e+000 5.274922e+000 4.502147e+000 2.326887e+000 2.587141e+000
    <VARIANCE> 22
     4.801633e+002 4.063125e+002 3.300596e+002 2.164982e+002 4.956259e+003 5.429972e+003 9.838196e+002 1.115232e+003 2.936353e+002 3.516743e+002 3.745900e+003 4.440890e+003 4.184655e+002 3.870682e+002 6.504287e+000 1.793315e+000 2.326111e+000 1.170389e+000 2.082488e+000 5.618803e+000 6.153808e+000 6.060927e+000
    <GCONST> 1.445117e+002
    <TRANSP> 5
     0.000000e+000 1.000000e+000 0.000000e+000 0.000000e+000 0.000000e+000
     0.000000e+000 6.000000e-001 4.000000e-001 0.000000e+000 0.000000e+000
     0.000000e+000 0.000000e+000 6.000000e-001 4.000000e-001 0.000000e+000
     0.000000e+000 0.000000e+000 0.000000e+000 7.000000e-001 3.000000e-001
     0.000000e+000 0.000000e+000 0.000000e+000 0.000000e+000 0.000000e+000
    <ENDHMM>
~h "MC" 
    <BEGINHMM>
    <NUMSTATES> 5
    <STATE> 2
    <MEAN> 22
     5.626247e+000 7.396932e+000 2.097200e+000 2.472937e+000 4.240780e+001 6.026455e+001 9.090759e+001 8.949597e+001 6.477499e+001 6.448848e+001 1.612132e+002 1.456602e+002 1.107073e+002 1.084496e+002 5.481471e+000 4.070344e+000 5.756289e+000 5.424155e+000 5.274922e+000 4.502147e+000 2.326887e+000 2.587141e+000
    <VARIANCE> 22
     4.801633e+002 4.063125e+002 3.300596e+002 2.164982e+002 4.956259e+003 5.429972e+003 9.838196e+002 1.115232e+003 2.936353e+002 3.516743e+002 3.745900e+003 4.440890e+003 4.184655e+002 3.870682e+002 6.504287e+000 1.793315e+000 2.326111e+000 1.170389e+000 2.082488e+000 5.618803e+000 6.153808e+000 6.060927e+000
    <GCONST> 1.445117e+002
    <STATE> 3
    <MEAN> 22
     5.626247e+000 7.396932e+000 2.097200e+000 2.472937e+000 4.240780e+001 6.026455e+001 9.090759e+001 8.949597e+001 6.477499e+001 6.448848e+001 1.612132e+002 1.456602e+002 1.107073e+002 1.084496e+002 5.481471e+000 4.070344e+000 5.756289e+000 5.424155e+000 5.274922e+000 4.502147e+000 2.326887e+000 2.587141e+000
    <VARIANCE> 22
     4.801633e+002 4.063125e+002 3.300596e+002 2.164982e+002 4.956259e+003 5.429972e+003 9.838196e+002 1.115232e+003 2.936353e+002 3.516743e+002 3.745900e+003 4.440890e+003 4.184655e+002 3.870682e+002 6.504287e+000 1.793315e+000 2.326111e+000 1.170389e+000 2.082488e+000 5.618803e+000 6.153808e+000 6.060927e+000
    <GCONST> 1.445117e+002
    <STATE> 4
    <MEAN> 22
     5.626247e+000 7.396932e+000 2.097200e+000 2.472937e+000 4.240780e+001 6.026455e+001 9.090759e+001 8.949597e+001 6.477499e+001 6.448848e+001 1.612132e+002 1.456602e+002 1.107073e+002 1.084496e+002 5.481471e+000 4.070344e+000 5.756289e+000 5.424155e+000 5.274922e+000 4.502147e+000 2.326887e+000 2.587141e+000
    <VARIANCE> 22
     4.801633e+002 4.063125e+002 3.300596e+002 2.164982e+002 4.956259e+003 5.429972e+003 9.838196e+002 1.115232e+003 2.936353e+002 3.516743e+002 3.745900e+003 4.440890e+003 4.184655e+002 3.870682e+002 6.504287e+000 1.793315e+000 2.326111e+000 1.170389e+000 2.082488e+000 5.618803e+000 6.153808e+000 6.060927e+000
    <GCONST> 1.445117e+002
    <TRANSP> 5
     0.000000e+000 1.000000e+000 0.000000e+000 0.000000e+000 0.000000e+000
     0.000000e+000 6.000000e-001 4.000000e-001 0.000000e+000 0.000000e+000
     0.000000e+000 0.000000e+000 6.000000e-001 4.000000e-001 0.000000e+000
     0.000000e+000 0.000000e+000 0.000000e+000 7.000000e-001 3.000000e-001
     0.000000e+000 0.000000e+000 0.000000e+000 0.000000e+000 0.000000e+000
    <ENDHMM>
~h "NU" 
    <BEGINHMM>
    <NUMSTATES> 5
    <STATE> 2
    <MEAN> 22
     5.626247e+000 7.396932e+000 2.097200e+000 2.472937e+000 4.240780e+001 6.026455e+001 9.090759e+001 8.949597e+001 6.477499e+001 6.448848e+001 1.612132e+002 1.456602e+002 1.107073e+002 1.084496e+002 5.481471e+000 4.070344e+000 5.756289e+000 5.424155e+000 5.274922e+000 4.502147e+000 2.326887e+000 2.587141e+000
    <VARIANCE> 22
     4.801633e+002 4.063125e+002 3.300596e+002 2.164982e+002 4.956259e+003 5.429972e+003 9.838196e+002 1.115232e+003 2.936353e+002 3.516743e+002 3.745900e+003 4.440890e+003 4.184655e+002 3.870682e+002 6.504287e+000 1.793315e+000 2.326111e+000 1.170389e+000 2.082488e+000 5.618803e+000 6.153808e+000 6.060927e+000
    <GCONST> 1.445117e+002
    <STATE> 3
    <MEAN> 22
     5.626247e+000 7.396932e+000 2.097200e+000 2.472937e+000 4.240780e+001 6.026455e+001 9.090759e+001 8.949597e+001 6.477499e+001 6.448848e+001 1.612132e+002 1.456602e+002 1.107073e+002 1.084496e+002 5.481471e+000 4.070344e+000 5.756289e+000 5.424155e+000 5.274922e+000 4.502147e+000 2.326887e+000 2.587141e+000
    <VARIANCE> 22
     4.801633e+002 4.063125e+002 3.300596e+002 2.164982e+002 4.956259e+003 5.429972e+003 9.838196e+002 1.115232e+003 2.936353e+002 3.516743e+002 3.745900e+003 4.440890e+003 4.184655e+002 3.870682e+002 6.504287e+000 1.793315e+000 2.326111e+000 1.170389e+000 2.082488e+000 5.618803e+000 6.153808e+000 6.060927e+000
    <GCONST> 1.445117e+002
    <STATE> 4
    <MEAN> 22
     5.626247e+000 7.396932e+000 2.097200e+000 2.472937e+000 4.240780e+001 6.026455e+001 9.090759e+001 8.949597e+001 6.477499e+001 6.448848e+001 1.612132e+002 1.456602e+002 1.107073e+002 1.084496e+002 5.481471e+000 4.070344e+000 5.756289e+000 5.424155e+000 5.274922e+000 4.502147e+000 2.326887e+000 2.587141e+000
    <VARIANCE> 22
     4.801633e+002 4.063125e+002 3.300596e+002 2.164982e+002 4.956259e+003 5.429972e+003 9.838196e+002 1.115232e+003 2.936353e+002 3.516743e+002 3.745900e+003 4.440890e+003 4.184655e+002 3.870682e+002 6.504287e+000 1.793315e+000 2.326111e+000 1.170389e+000 2.082488e+000 5.618803e+000 6.153808e+000 6.060927e+000
    <GCONST> 1.445117e+002
    <TRANSP> 5
     0.000000e+000 1.000000e+000 0.000000e+000 0.000000e+000 0.000000e+000
     0.000000e+000 6.000000e-001 4.000000e-001 0.000000e+000 0.000000e+000
     0.000000e+000 0.000000e+000 6.000000e-001 4.000000e-001 0.000000e+000
     0.000000e+000 0.000000e+000 0.000000e+000 7.000000e-001 3.000000e-001
     0.000000e+000 0.000000e+000 0.000000e+000 0.000000e+000 0.000000e+000
    <ENDHMM>
~h "OK" 
    <BEGINHMM>
    <NUMSTATES> 5
    <STATE> 2
    <MEAN> 22
     5.626247e+000 7.396932e+000 2.097200e+000 2.472937e+000 4.240780e+001 6.026455e+001 9.090759e+001 8.949597e+001 6.477499e+001 6.448848e+001 1.612132e+002 1.456602e+002 1.107073e+002 1.084496e+002 5.481471e+000 4.070344e+000 5.756289e+000 5.424155e+000 5.274922e+000 4.502147e+000 2.326887e+000 2.587141e+000
    <VARIANCE> 22
     4.801633e+002 4.063125e+002 3.300596e+002 2.164982e+002 4.956259e+003 5.429972e+003 9.838196e+002 1.115232e+003 2.936353e+002 3.516743e+002 3.745900e+003 4.440890e+003 4.184655e+002 3.870682e+002 6.504287e+000 1.793315e+000 2.326111e+000 1.170389e+000 2.082488e+000 5.618803e+000 6.153808e+000 6.060927e+000
    <GCONST> 1.445117e+002
    <STATE> 3
    <MEAN> 22
     5.626247e+000 7.396932e+000 2.097200e+000 2.472937e+000 4.240780e+001 6.026455e+001 9.090759e+001 8.949597e+001 6.477499e+001 6.448848e+001 1.612132e+002 1.456602e+002 1.107073e+002 1.084496e+002 5.481471e+000 4.070344e+000 5.756289e+000 5.424155e+000 5.274922e+000 4.502147e+000 2.326887e+000 2.587141e+000
    <VARIANCE> 22
     4.801633e+002 4.063125e+002 3.300596e+002 2.164982e+002 4.956259e+003 5.429972e+003 9.838196e+002 1.115232e+003 2.936353e+002 3.516743e+002 3.745900e+003 4.440890e+003 4.184655e+002 3.870682e+002 6.504287e+000 1.793315e+000 2.326111e+000 1.170389e+000 2.082488e+000 5.618803e+000 6.153808e+000 6.060927e+000
    <GCONST> 1.445117e+002
    <STATE> 4
    <MEAN> 22
     5.626247e+000 7.396932e+000 2.097200e+000 2.472937e+000 4.240780e+001 6.026455e+001 9.090759e+001 8.949597e+001 6.477499e+001 6.448848e+001 1.612132e+002 1.456602e+002 1.107073e+002 1.084496e+002 5.481471e+000 4.070344e+000 5.756289e+000 5.424155e+000 5.274922e+000 4.502147e+000 2.326887e+000 2.587141e+000
    <VARIANCE> 22
     4.801633e+002 4.063125e+002 3.300596e+002 2.164982e+002 4.956259e+003 5.429972e+003 9.838196e+002 1.115232e+003 2.936353e+002 3.516743e+002 3.745900e+003 4.440890e+003 4.184655e+002 3.870682e+002 6.504287e+000 1.793315e+000 2.326111e+000 1.170389e+000 2.082488e+000 5.618803e+000 6.153808e+000 6.060927e+000
    <GCONST> 1.445117e+002
    <TRANSP> 5
     0.000000e+000 1.000000e+000 0.000000e+000 0.000000e+000 0.000000e+000
     0.000000e+000 6.000000e-001 4.000000e-001 0.000000e+000 0.000000e+000
     0.000000e+000 0.000000e+000 6.000000e-001 4.000000e-001 0.000000e+000
     0.000000e+000 0.000000e+000 0.000000e+000 7.000000e-001 3.000000e-001
     0.000000e+000 0.000000e+000 0.000000e+000 0.000000e+000 0.000000e+000
    <ENDHMM>
~h "PF" 
    <BEGINHMM>
    <NUMSTATES> 5
    <STATE> 2
    <MEAN> 22
     5.626247e+000 7.396932e+000 2.097200e+000 2.472937e+000 4.240780e+001 6.026455e+001 9.090759e+001 8.949597e+001 6.477499e+001 6.448848e+001 1.612132e+002 1.456602e+002 1.107073e+002 1.084496e+002 5.481471e+000 4.070344e+000 5.756289e+000 5.424155e+000 5.274922e+000 4.502147e+000 2.326887e+000 2.587141e+000
    <VARIANCE> 22
     4.801633e+002 4.063125e+002 3.300596e+002 2.164982e+002 4.956259e+003 5.429972e+003 9.838196e+002 1.115232e+003 2.936353e+002 3.516743e+002 3.745900e+003 4.440890e+003 4.184655e+002 3.870682e+002 6.504287e+000 1.793315e+000 2.326111e+000 1.170389e+000 2.082488e+000 5.618803e+000 6.153808e+000 6.060927e+000
    <GCONST> 1.445117e+002
    <STATE> 3
    <MEAN> 22
     5.626247e+000 7.396932e+000 2.097200e+000 2.472937e+000 4.240780e+001 6.026455e+001 9.090759e+001 8.949597e+001 6.477499e+001 6.448848e+001 1.612132e+002 1.456602e+002 1.107073e+002 1.084496e+002 5.481471e+000 4.070344e+000 5.756289e+000 5.424155e+000 5.274922e+000 4.502147e+000 2.326887e+000 2.587141e+000
    <VARIANCE> 22
     4.801633e+002 4.063125e+002 3.300596e+002 2.164982e+002 4.956259e+003 5.429972e+003 9.838196e+002 1.115232e+003 2.936353e+002 3.516743e+002 3.745900e+003 4.440890e+003 4.184655e+002 3.870682e+002 6.504287e+000 1.793315e+000 2.326111e+000 1.170389e+000 2.082488e+000 5.618803e+000 6.153808e+000 6.060927e+000
    <GCONST> 1.445117e+002
    <STATE> 4
    <MEAN> 22
     5.626247e+000 7.396932e+000 2.097200e+000 2.472937e+000 4.240780e+001 6.026455e+001 9.090759e+001 8.949597e+001 6.477499e+001 6.448848e+001 1.612132e+002 1.456602e+002 1.107073e+002 1.084496e+002 5.481471e+000 4.070344e+000 5.756289e+000 5.424155e+000 5.274922e+000 4.502147e+000 2.326887e+000 2.587141e+000
    <VARIANCE> 22
     4.801633e+002 4.063125e+002 3.300596e+002 2.164982e+002 4.956259e+003 5.429972e+003 9.838196e+002 1.115232e+003 2.936353e+002 3.516743e+002 3.745900e+003 4.440890e+003 4.184655e+002 3.870682e+002 6.504287e+000 1.793315e+000 2.326111e+000 1.170389e+000 2.082488e+000 5.618803e+000 6.153808e+000 6.060927e+000
    <GCONST> 1.445117e+002
    <TRANSP> 5
     0.000000e+000 1.000000e+000 0.000000e+000 0.000000e+000 0.000000e+000
     0.000000e+000 6.000000e-001 4.000000e-001 0.000000e+000 0.000000e+000
     0.000000e+000 0.000000e+000 6.000000e-001 4.000000e-001 0.000000e+000
     0.000000e+000 0.000000e+000 0.000000e+000 7.000000e-001 3.000000e-001
     0.000000e+000 0.000000e+000 0.000000e+000 0.000000e+000 0.000000e+000
    <ENDHMM>
~h "PR" 
    <BEGINHMM>
    <NUMSTATES> 5
    <STATE> 2
    <MEAN> 22
     5.626247e+000 7.396932e+000 2.097200e+000 2.472937e+000 4.240780e+001 6.026455e+001 9.090759e+001 8.949597e+001 6.477499e+001 6.448848e+001 1.612132e+002 1.456602e+002 1.107073e+002 1.084496e+002 5.481471e+000 4.070344e+000 5.756289e+000 5.424155e+000 5.274922e+000 4.502147e+000 2.326887e+000 2.587141e+000
    <VARIANCE> 22
     4.801633e+002 4.063125e+002 3.300596e+002 2.164982e+002 4.956259e+003 5.429972e+003 9.838196e+002 1.115232e+003 2.936353e+002 3.516743e+002 3.745900e+003 4.440890e+003 4.184655e+002 3.870682e+002 6.504287e+000 1.793315e+000 2.326111e+000 1.170389e+000 2.082488e+000 5.618803e+000 6.153808e+000 6.060927e+000
    <GCONST> 1.445117e+002
    <STATE> 3
    <MEAN> 22
     5.626247e+000 7.396932e+000 2.097200e+000 2.472937e+000 4.240780e+001 6.026455e+001 9.090759e+001 8.949597e+001 6.477499e+001 6.448848e+001 1.612132e+002 1.456602e+002 1.107073e+002 1.084496e+002 5.481471e+000 4.070344e+000 5.756289e+000 5.424155e+000 5.274922e+000 4.502147e+000 2.326887e+000 2.587141e+000
    <VARIANCE> 22
     4.801633e+002 4.063125e+002 3.300596e+002 2.164982e+002 4.956259e+003 5.429972e+003 9.838196e+002 1.115232e+003 2.936353e+002 3.516743e+002 3.745900e+003 4.440890e+003 4.184655e+002 3.870682e+002 6.504287e+000 1.793315e+000 2.326111e+000 1.170389e+000 2.082488e+000 5.618803e+000 6.153808e+000 6.060927e+000
    <GCONST> 1.445117e+002
    <STATE> 4
    <MEAN> 22
     5.626247e+000 7.396932e+000 2.097200e+000 2.472937e+000 4.240780e+001 6.026455e+001 9.090759e+001 8.949597e+001 6.477499e+001 6.448848e+001 1.612132e+002 1.456602e+002 1.107073e+002 1.084496e+002 5.481471e+000 4.070344e+000 5.756289e+000 5.424155e+000 5.274922e+000 4.502147e+000 2.326887e+000 2.587141e+000
    <VARIANCE> 22
     4.801633e+002 4.063125e+002 3.300596e+002 2.164982e+002 4.956259e+003 5.429972e+003 9.838196e+002 1.115232e+003 2.936353e+002 3.516743e+002 3.745900e+003 4.440890e+003 4.184655e+002 3.870682e+002 6.504287e+000 1.793315e+000 2.326111e+000 1.170389e+000 2.082488e+000 5.618803e+000 6.153808e+000 6.060927e+000
    <GCONST> 1.445117e+002
    <TRANSP> 5
     0.000000e+000 1.000000e+000 0.000000e+000 0.000000e+000 0.000000e+000
     0.000000e+000 6.000000e-001 4.000000e-001 0.000000e+000 0.000000e+000
     0.000000e+000 0.000000e+000 6.000000e-001 4.000000e-001 0.000000e+000
     0.000000e+000 0.000000e+000 0.000000e+000 7.000000e-001 3.000000e-001
     0.000000e+000 0.000000e+000 0.000000e+000 0.000000e+000 0.000000e+000
    <ENDHMM>
~h "SP" 
    <BEGINHMM>
    <NUMSTATES> 5
    <STATE> 2
    <MEAN> 22
     5.626247e+000 7.396932e+000 2.097200e+000 2.472937e+000 4.240780e+001 6.026455e+001 9.090759e+001 8.949597e+001 6.477499e+001 6.448848e+001 1.612132e+002 1.456602e+002 1.107073e+002 1.084496e+002 5.481471e+000 4.070344e+000 5.756289e+000 5.424155e+000 5.274922e+000 4.502147e+000 2.326887e+000 2.587141e+000
    <VARIANCE> 22
     4.801633e+002 4.063125e+002 3.300596e+002 2.164982e+002 4.956259e+003 5.429972e+003 9.838196e+002 1.115232e+003 2.936353e+002 3.516743e+002 3.745900e+003 4.440890e+003 4.184655e+002 3.870682e+002 6.504287e+000 1.793315e+000 2.326111e+000 1.170389e+000 2.082488e+000 5.618803e+000 6.153808e+000 6.060927e+000
    <GCONST> 1.445117e+002
    <STATE> 3
    <MEAN> 22
     5.626247e+000 7.396932e+000 2.097200e+000 2.472937e+000 4.240780e+001 6.026455e+001 9.090759e+001 8.949597e+001 6.477499e+001 6.448848e+001 1.612132e+002 1.456602e+002 1.107073e+002 1.084496e+002 5.481471e+000 4.070344e+000 5.756289e+000 5.424155e+000 5.274922e+000 4.502147e+000 2.326887e+000 2.587141e+000
    <VARIANCE> 22
     4.801633e+002 4.063125e+002 3.300596e+002 2.164982e+002 4.956259e+003 5.429972e+003 9.838196e+002 1.115232e+003 2.936353e+002 3.516743e+002 3.745900e+003 4.440890e+003 4.184655e+002 3.870682e+002 6.504287e+000 1.793315e+000 2.326111e+000 1.170389e+000 2.082488e+000 5.618803e+000 6.153808e+000 6.060927e+000
    <GCONST> 1.445117e+002
    <STATE> 4
    <MEAN> 22
     5.626247e+000 7.396932e+000 2.097200e+000 2.472937e+000 4.240780e+001 6.026455e+001 9.090759e+001 8.949597e+001 6.477499e+001 6.448848e+001 1.612132e+002 1.456602e+002 1.107073e+002 1.084496e+002 5.481471e+000 4.070344e+000 5.756289e+000 5.424155e+000 5.274922e+000 4.502147e+000 2.326887e+000 2.587141e+000
    <VARIANCE> 22
     4.801633e+002 4.063125e+002 3.300596e+002 2.164982e+002 4.956259e+003 5.429972e+003 9.838196e+002 1.115232e+003 2.936353e+002 3.516743e+002 3.745900e+003 4.440890e+003 4.184655e+002 3.870682e+002 6.504287e+000 1.793315e+000 2.326111e+000 1.170389e+000 2.082488e+000 5.618803e+000 6.153808e+000 6.060927e+000
    <GCONST> 1.445117e+002
    <TRANSP> 5
     0.000000e+000 1.000000e+000 0.000000e+000 0.000000e+000 0.000000e+000
     0.000000e+000 6.000000e-001 4.000000e-001 0.000000e+000 0.000000e+000
     0.000000e+000 0.000000e+000 6.000000e-001 4.000000e-001 0.000000e+000
     0.000000e+000 0.000000e+000 0.000000e+000 7.000000e-001 3.000000e-001
     0.000000e+000 0.000000e+000 0.000000e+000 0.000000e+000 0.000000e+000
    <ENDHMM>
~h "ST" 
    <BEGINHMM>
    <NUMSTATES> 5
    <STATE> 2
    <MEAN> 22
     5.626247e+000 7.396932e+000 2.097200e+000 2.472937e+000 4.240780e+001 6.026455e+001 9.090759e+001 8.949597e+001 6.477499e+001 6.448848e+001 1.612132e+002 1.456602e+002 1.107073e+002 1.084496e+002 5.481471e+000 4.070344e+000 5.756289e+000 5.424155e+000 5.274922e+000 4.502147e+000 2.326887e+000 2.587141e+000
    <VARIANCE> 22
     4.801633e+002 4.063125e+002 3.300596e+002 2.164982e+002 4.956259e+003 5.429972e+003 9.838196e+002 1.115232e+003 2.936353e+002 3.516743e+002 3.745900e+003 4.440890e+003 4.184655e+002 3.870682e+002 6.504287e+000 1.793315e+000 2.326111e+000 1.170389e+000 2.082488e+000 5.618803e+000 6.153808e+000 6.060927e+000
    <GCONST> 1.445117e+002
    <STATE> 3
    <MEAN> 22
     5.626247e+000 7.396932e+000 2.097200e+000 2.472937e+000 4.240780e+001 6.026455e+001 9.090759e+001 8.949597e+001 6.477499e+001 6.448848e+001 1.612132e+002 1.456602e+002 1.107073e+002 1.084496e+002 5.481471e+000 4.070344e+000 5.756289e+000 5.424155e+000 5.274922e+000 4.502147e+000 2.326887e+000 2.587141e+000
    <VARIANCE> 22
     4.801633e+002 4.063125e+002 3.300596e+002 2.164982e+002 4.956259e+003 5.429972e+003 9.838196e+002 1.115232e+003 2.936353e+002 3.516743e+002 3.745900e+003 4.440890e+003 4.184655e+002 3.870682e+002 6.504287e+000 1.793315e+000 2.326111e+000 1.170389e+000 2.082488e+000 5.618803e+000 6.153808e+000 6.060927e+000
    <GCONST> 1.445117e+002
    <STATE> 4
    <MEAN> 22
     5.626247e+000 7.396932e+000 2.097200e+000 2.472937e+000 4.240780e+001 6.026455e+001 9.090759e+001 8.949597e+001 6.477499e+001 6.448848e+001 1.612132e+002 1.456602e+002 1.107073e+002 1.084496e+002 5.481471e+000 4.070344e+000 5.756289e+000 5.424155e+000 5.274922e+000 4.502147e+000 2.326887e+000 2.587141e+000
    <VARIANCE> 22
     4.801633e+002 4.063125e+002 3.300596e+002 2.164982e+002 4.956259e+003 5.429972e+003 9.838196e+002 1.115232e+003 2.936353e+002 3.516743e+002 3.745900e+003 4.440890e+003 4.184655e+002 3.870682e+002 6.504287e+000 1.793315e+000 2.326111e+000 1.170389e+000 2.082488e+000 5.618803e+000 6.153808e+000 6.060927e+000
    <GCONST> 1.445117e+002
    <TRANSP> 5
     0.000000e+000 1.000000e+000 0.000000e+000 0.000000e+000 0.000000e+000
     0.000000e+000 6.000000e-001 4.000000e-001 0.000000e+000 0.000000e+000
     0.000000e+000 0.000000e+000 6.000000e-001 4.000000e-001 0.000000e+000
     0.000000e+000 0.000000e+000 0.000000e+000 7.000000e-001 3.000000e-001
     0.000000e+000 0.000000e+000 0.000000e+000 0.000000e+000 0.000000e+000
    <ENDHMM>
~h "TT" 
    <BEGINHMM>
    <NUMSTATES> 5
    <STATE> 2
    <MEAN> 22
     5.626247e+000 7.396932e+000 2.097200e+000 2.472937e+000 4.240780e+001 6.026455e+001 9.090759e+001 8.949597e+001 6.477499e+001 6.448848e+001 1.612132e+002 1.456602e+002 1.107073e+002 1.084496e+002 5.481471e+000 4.070344e+000 5.756289e+000 5.424155e+000 5.274922e+000 4.502147e+000 2.326887e+000 2.587141e+000
    <VARIANCE> 22
     4.801633e+002 4.063125e+002 3.300596e+002 2.164982e+002 4.956259e+003 5.429972e+003 9.838196e+002 1.115232e+003 2.936353e+002 3.516743e+002 3.745900e+003 4.440890e+003 4.184655e+002 3.870682e+002 6.504287e+000 1.793315e+000 2.326111e+000 1.170389e+000 2.082488e+000 5.618803e+000 6.153808e+000 6.060927e+000
    <GCONST> 1.445117e+002
    <STATE> 3
    <MEAN> 22
     5.626247e+000 7.396932e+000 2.097200e+000 2.472937e+000 4.240780e+001 6.026455e+001 9.090759e+001 8.949597e+001 6.477499e+001 6.448848e+001 1.612132e+002 1.456602e+002 1.107073e+002 1.084496e+002 5.481471e+000 4.070344e+000 5.756289e+000 5.424155e+000 5.274922e+000 4.502147e+000 2.326887e+000 2.587141e+000
    <VARIANCE> 22
     4.801633e+002 4.063125e+002 3.300596e+002 2.164982e+002 4.956259e+003 5.429972e+003 9.838196e+002 1.115232e+003 2.936353e+002 3.516743e+002 3.745900e+003 4.440890e+003 4.184655e+002 3.870682e+002 6.504287e+000 1.793315e+000 2.326111e+000 1.170389e+000 2.082488e+000 5.618803e+000 6.153808e+000 6.060927e+000
    <GCONST> 1.445117e+002
    <STATE> 4
    <MEAN> 22
     5.626247e+000 7.396932e+000 2.097200e+000 2.472937e+000 4.240780e+001 6.026455e+001 9.090759e+001 8.949597e+001 6.477499e+001 6.448848e+001 1.612132e+002 1.456602e+002 1.107073e+002 1.084496e+002 5.481471e+000 4.070344e+000 5.756289e+000 5.424155e+000 5.274922e+000 4.502147e+000 2.326887e+000 2.587141e+000
    <VARIANCE> 22
     4.801633e+002 4.063125e+002 3.300596e+002 2.164982e+002 4.956259e+003 5.429972e+003 9.838196e+002 1.115232e+003 2.936353e+002 3.516743e+002 3.745900e+003 4.440890e+003 4.184655e+002 3.870682e+002 6.504287e+000 1.793315e+000 2.326111e+000 1.170389e+000 2.082488e+000 5.618803e+000 6.153808e+000 6.060927e+000
    <GCONST> 1.445117e+002
    <TRANSP> 5
     0.000000e+000 1.000000e+000 0.000000e+000 0.000000e+000 0.000000e+000
     0.000000e+000 6.000000e-001 4.000000e-001 0.000000e+000 0.000000e+000
     0.000000e+000 0.000000e+000 6.000000e-001 4.000000e-001 0.000000e+000
     0.000000e+000 0.000000e+000 0.000000e+000 7.000000e-001 3.000000e-001
     0.000000e+000 0.000000e+000 0.000000e+000 0.000000e+000 0.000000e+000
    <ENDHMM>
~h "VA" 
    <BEGINHMM>
    <NUMSTATES> 5
    <STATE> 2
    <MEAN> 22
     5.626247e+000 7.396932e+000 2.097200e+000 2.472937e+000 4.240780e+001 6.026455e+001 9.090759e+001 8.949597e+001 6.477499e+001 6.448848e+001 1.612132e+002 1.456602e+002 1.107073e+002 1.084496e+002 5.481471e+000 4.070344e+000 5.756289e+000 5.424155e+000 5.274922e+000 4.502147e+000 2.326887e+000 2.587141e+000
    <VARIANCE> 22
     4.801633e+002 4.063125e+002 3.300596e+002 2.164982e+002 4.956259e+003 5.429972e+003 9.838196e+002 1.115232e+003 2.936353e+002 3.516743e+002 3.745900e+003 4.440890e+003 4.184655e+002 3.870682e+002 6.504287e+000 1.793315e+000 2.326111e+000 1.170389e+000 2.082488e+000 5.618803e+000 6.153808e+000 6.060927e+000
    <GCONST> 1.445117e+002
    <STATE> 3
    <MEAN> 22
     5.626247e+000 7.396932e+000 2.097200e+000 2.472937e+000 4.240780e+001 6.026455e+001 9.090759e+001 8.949597e+001 6.477499e+001 6.448848e+001 1.612132e+002 1.456602e+002 1.107073e+002 1.084496e+002 5.481471e+000 4.070344e+000 5.756289e+000 5.424155e+000 5.274922e+000 4.502147e+000 2.326887e+000 2.587141e+000
    <VARIANCE> 22
     4.801633e+002 4.063125e+002 3.300596e+002 2.164982e+002 4.956259e+003 5.429972e+003 9.838196e+002 1.115232e+003 2.936353e+002 3.516743e+002 3.745900e+003 4.440890e+003 4.184655e+002 3.870682e+002 6.504287e+000 1.793315e+000 2.326111e+000 1.170389e+000 2.082488e+000 5.618803e+000 6.153808e+000 6.060927e+000
    <GCONST> 1.445117e+002
    <STATE> 4
    <MEAN> 22
     5.626247e+000 7.396932e+000 2.097200e+000 2.472937e+000 4.240780e+001 6.026455e+001 9.090759e+001 8.949597e+001 6.477499e+001 6.448848e+001 1.612132e+002 1.456602e+002 1.107073e+002 1.084496e+002 5.481471e+000 4.070344e+000 5.756289e+000 5.424155e+000 5.274922e+000 4.502147e+000 2.326887e+000 2.587141e+000
    <VARIANCE> 22
     4.801633e+002 4.063125e+002 3.300596e+002 2.164982e+002 4.956259e+003 5.429972e+003 9.838196e+002 1.115232e+003 2.936353e+002 3.516743e+002 3.745900e+003 4.440890e+003 4.184655e+002 3.870682e+002 6.504287e+000 1.793315e+000 2.326111e+000 1.170389e+000 2.082488e+000 5.618803e+000 6.153808e+000 6.060927e+000
    <GCONST> 1.445117e+002
    <TRANSP> 5
     0.000000e+000 1.000000e+000 0.000000e+000 0.000000e+000 0.000000e+000
     0.000000e+000 6.000000e-001 4.000000e-001 0.000000e+000 0.000000e+000
     0.000000e+000 0.000000e+000 6.000000e-001 4.000000e-001 0.000000e+000
     0.000000e+000 0.000000e+000 0.000000e+000 7.000000e-001 3.000000e-001
     0.000000e+000 0.000000e+000 0.000000e+000 0.000000e+000 0.000000e+000
    <ENDHMM>
~h "VQ" 
    <BEGINHMM>
    <NUMSTATES> 5
    <STATE> 2
    <MEAN> 22
     5.626247e+000 7.396932e+000 2.097200e+000 2.472937e+000 4.240780e+001 6.026455e+001 9.090759e+001 8.949597e+001 6.477499e+001 6.448848e+001 1.612132e+002 1.456602e+002 1.107073e+002 1.084496e+002 5.481471e+000 4.070344e+000 5.756289e+000 5.424155e+000 5.274922e+000 4.502147e+000 2.326887e+000 2.587141e+000
    <VARIANCE> 22
     4.801633e+002 4.063125e+002 3.300596e+002 2.164982e+002 4.956259e+003 5.429972e+003 9.838196e+002 1.115232e+003 2.936353e+002 3.516743e+002 3.745900e+003 4.440890e+003 4.184655e+002 3.870682e+002 6.504287e+000 1.793315e+000 2.326111e+000 1.170389e+000 2.082488e+000 5.618803e+000 6.153808e+000 6.060927e+000
    <GCONST> 1.445117e+002
    <STATE> 3
    <MEAN> 22
     5.626247e+000 7.396932e+000 2.097200e+000 2.472937e+000 4.240780e+001 6.026455e+001 9.090759e+001 8.949597e+001 6.477499e+001 6.448848e+001 1.612132e+002 1.456602e+002 1.107073e+002 1.084496e+002 5.481471e+000 4.070344e+000 5.756289e+000 5.424155e+000 5.274922e+000 4.502147e+000 2.326887e+000 2.587141e+000
    <VARIANCE> 22
     4.801633e+002 4.063125e+002 3.300596e+002 2.164982e+002 4.956259e+003 5.429972e+003 9.838196e+002 1.115232e+003 2.936353e+002 3.516743e+002 3.745900e+003 4.440890e+003 4.184655e+002 3.870682e+002 6.504287e+000 1.793315e+000 2.326111e+000 1.170389e+000 2.082488e+000 5.618803e+000 6.153808e+000 6.060927e+000
    <GCONST> 1.445117e+002
    <STATE> 4
    <MEAN> 22
     5.626247e+000 7.396932e+000 2.097200e+000 2.472937e+000 4.240780e+001 6.026455e+001 9.090759e+001 8.949597e+001 6.477499e+001 6.448848e+001 1.612132e+002 1.456602e+002 1.107073e+002 1.084496e+002 5.481471e+000 4.070344e+000 5.756289e+000 5.424155e+000 5.274922e+000 4.502147e+000 2.326887e+000 2.587141e+000
    <VARIANCE> 22
     4.801633e+002 4.063125e+002 3.300596e+002 2.164982e+002 4.956259e+003 5.429972e+003 9.838196e+002 1.115232e+003 2.936353e+002 3.516743e+002 3.745900e+003 4.440890e+003 4.184655e+002 3.870682e+002 6.504287e+000 1.793315e+000 2.326111e+000 1.170389e+000 2.082488e+000 5.618803e+000 6.153808e+000 6.060927e+000
    <GCONST> 1.445117e+002
    <TRANSP> 5
     0.000000e+000 1.000000e+000 0.000000e+000 0.000000e+000 0.000000e+000
     0.000000e+000 6.000000e-001 4.000000e-001 0.000000e+000 0.000000e+000
     0.000000e+000 0.000000e+000 6.000000e-001 4.000000e-001 0.000000e+000
     0.000000e+000 0.000000e+000 0.000000e+000 7.000000e-001 3.000000e-001
     0.000000e+000 0.000000e+000 0.000000e+000 0.000000e+000 0.000000e+000
    <ENDHMM>
