~o
<STREAMINFO> 1 576
<VECSIZE> 576<NULLD><MFCC_Z_0><DIAGC>
~h "prototype"
<BEGINHMM>
<NUMSTATES> 5
<STATE> 2
<MEAN> 576
 2.512374e-011 -1.271831e-011 6.914503e-011 9.143727e-012 -6.751809e-011 9.748354e-011 2.167431e-011 -3.389202e-011 -3.670006e-011 3.253884e-011 -3.754481e-013 -6.169865e-011 -7.415100e-011 -3.491668e-011 1.120400e-010 1.931994e-011 7.737360e-011 -2.645658e-010 -1.724558e-010 -3.360261e-011 1.773992e-010 7.824965e-011 1.742079e-010 -1.223335e-010 -2.437284e-011 4.752548e-011 -6.879461e-010 -8.682238e-011 2.202629e-011 2.302749e-011 -1.245236e-011 4.316089e-011 -3.636372e-011 3.973493e-012 5.002064e-011 2.039935e-011 2.288982e-010 -7.314981e-011 8.660337e-011 9.918088e-012 -1.924172e-010 2.615622e-011 -2.973862e-011 -1.186416e-010 -5.005975e-011 8.297404e-011 -9.561413e-011 -1.170147e-010 -1.397606e-010 3.585530e-011 1.189232e-010 -5.359522e-011 1.448291e-010 3.819559e-010 6.372606e-010 1.742705e-011 4.230049e-011 9.461293e-011 -2.521760e-011 -6.643867e-011 -9.473808e-011 3.248252e-010 -6.132320e-011 -1.887253e-010 2.262075e-011 2.675068e-012 7.399457e-012 -8.313047e-011 3.128734e-011 -5.395503e-011 1.158258e-010 6.670462e-011 -6.201152e-011 -4.718132e-011 2.491724e-010 -2.031174e-010 -2.425395e-010 2.532710e-011 -2.221402e-011 -1.144648e-010 -2.759544e-011 -2.539281e-010 1.319700e-010 8.488257e-010 8.291146e-011 -7.421358e-011 1.621310e-010 1.365380e-010 -4.367713e-011 -3.168782e-010 -5.788159e-010 2.719496e-010 -1.329086e-010 8.009560e-011 -2.629388e-010 4.843281e-011 -1.394164e-010 -5.124867e-011 2.057456e-010 2.790831e-011 5.594177e-011 1.483020e-011 1.595655e-012 9.814840e-011 -6.063487e-011 1.524945e-010 -2.177599e-011 -3.230106e-010 8.147225e-011 -4.039196e-011 -4.607062e-011 8.988854e-011 3.278914e-011 -1.318370e-011 -8.062749e-011 1.289039e-011 1.820923e-011 3.414075e-010 -9.323629e-012 2.759544e-011 -1.567496e-011 9.339272e-012 -2.795524e-011 1.905399e-011 7.529299e-011 3.106208e-010 5.537860e-011 -1.572502e-010 -3.460380e-011 3.932819e-011 1.582358e-011 1.040930e-010 -4.057969e-011 4.768191e-011 4.087379e-010 -5.637980e-011 2.440413e-011 -4.768191e-011 -1.070027e-011 2.279283e-011 -3.957067e-011 5.971972e-012 -2.929278e-011 8.916894e-011 6.079131e-011 -3.160022e-011 4.949658e-011 -4.754112e-011 -1.224900e-011 -1.268702e-011 -1.457990e-011 9.155459e-012 7.584052e-011 -5.131125e-012 2.916919e-010 1.244923e-010 7.895361e-011 -1.289039e-011 3.804541e-011 6.038457e-012 -1.003542e-010 -4.039822e-010 -1.415439e-010 -5.553504e-012 7.452645e-011 1.023096e-011 3.707550e-011 -1.959761e-011 9.553200e-011 -1.881934e-010 1.536834e-010 -3.619946e-011 -1.157632e-012 -1.365693e-011 -3.003585e-012 -3.652798e-011 4.376317e-012 -4.811994e-011 -8.053363e-011 7.533993e-011 -1.376643e-010 -5.525345e-011 5.060415e-010 3.388106e-010 -6.629788e-011 -3.222596e-011 -6.973949e-011 -3.821749e-011 -7.092841e-011 -1.238979e-010 3.211959e-010 -1.741454e-010 4.932137e-010 1.562803e-010 -5.375166e-011 2.242677e-010 1.999261e-011 4.051085e-010 -2.784574e-010 -2.227659e-010 9.430006e-011 -6.977078e-011 5.043520e-011 -6.025943e-011 -3.506685e-010 -1.038740e-010 1.228341e-010 -1.401673e-011 -2.969169e-011 7.462032e-012 2.635959e-011 2.710266e-010 5.763129e-011 -9.123390e-011 -1.314068e-010 -1.812163e-010 -1.276524e-010 7.487062e-011 -1.138859e-011 2.636897e-010 1.200808e-010 1.161543e-011 4.801043e-011 9.073330e-013 -8.097165e-011 -1.792139e-010 -1.312504e-010 -1.415127e-010 -1.447353e-010 2.506742e-010 1.228028e-011 -6.410777e-011 -5.368908e-011 -1.153877e-010 -7.471418e-011 2.097504e-010 6.770581e-011 8.722912e-011 8.799566e-011 -5.583227e-011 -1.269015e-010 2.205758e-010 -2.007396e-010 -5.831961e-011 7.640370e-011 1.717675e-010 8.572733e-011 1.842825e-011 -5.359522e-011 8.467920e-011 -1.757254e-010 -1.326583e-011 -1.426077e-010 -3.658273e-011 3.816274e-011 4.822944e-011 6.853493e-011 2.383314e-011 -1.132602e-011 -2.595285e-011 2.180728e-011 -4.420276e-010 9.273569e-011 -8.752635e-011 5.420532e-011 2.433999e-010 2.503770e-011 1.232408e-010 -1.450481e-010 -1.521816e-010 6.933275e-011 3.754481e-011 4.373971e-011 3.156893e-011 1.043120e-010 1.097404e-011 5.503444e-011 -2.690712e-010 2.762047e-010 1.483646e-010 -5.084193e-011 -2.033677e-012 -5.575405e-011 -1.386029e-011 1.345356e-011 3.407192e-011 -1.113438e-011 4.614883e-011 8.466355e-011 3.842086e-011 -1.234599e-010 -1.005888e-011 -6.726779e-012 8.855883e-011 -6.323955e-011 -3.045041e-011 -1.441721e-010 3.422836e-011 -4.380228e-012 5.888278e-011 -5.418968e-011 1.529325e-010 8.525802e-011 2.925993e-010 2.229223e-011 -8.597762e-011 2.992947e-010 3.003585e-012 4.743161e-011 -1.598783e-011 2.232352e-010 4.974688e-012 1.062205e-010 -2.449799e-011 1.616304e-010 9.010755e-011 1.483020e-011 -1.346920e-011 -1.303118e-011 1.924172e-011 2.354373e-011 8.100293e-011 2.599978e-011 6.116676e-011 1.016213e-010 8.666595e-011 5.052906e-011 -1.136200e-010 8.209800e-011 -1.642586e-011 -4.852667e-011 -7.400239e-011 -7.146030e-011 -1.381649e-010 2.156011e-010 1.733319e-011 1.488965e-010 -1.003072e-010 4.369278e-011 -1.752091e-012 -1.946073e-010 -1.546846e-010 -4.075490e-010 -3.745095e-011 -6.632917e-012 -1.880995e-010 -1.539337e-011 -2.154134e-010 -4.933389e-010 -2.452928e-010 -1.777121e-010 -1.936687e-010 1.967974e-011 4.195633e-011 3.217903e-011 -1.138859e-011 -7.064682e-011 -8.472613e-011 -2.444167e-010 -2.628137e-010 7.008365e-012 2.886258e-011 -1.179533e-010 3.537816e-010 -2.587463e-011 2.637523e-011 1.573753e-011 -9.145291e-011 -9.139033e-011 5.281304e-011 -5.018490e-011 -1.173275e-011 -6.351331e-011 5.437741e-011 3.228854e-011 2.302749e-011 -5.032569e-010 -5.781901e-011 -4.643042e-010 -9.154677e-011 6.119805e-011 1.643524e-010 -2.489221e-010 8.266116e-011 -3.592413e-010 -1.634451e-010 -2.240174e-010 -8.065878e-011 1.332841e-011 -4.877697e-011 -1.071592e-011 3.160022e-012 -2.238610e-010 -1.515559e-010 1.678253e-010 7.765519e-011 -9.961890e-011 8.854319e-011 6.706442e-011 -1.496513e-010 -4.422075e-011 7.939164e-013 -1.476763e-011 -5.444780e-011 -6.323173e-011 -6.313786e-011 -5.772515e-011 8.503900e-011 6.274677e-011 -8.338859e-011 4.974688e-012 -5.131125e-011 -4.630527e-012 -8.059620e-011 -1.477388e-010 1.019342e-010 -1.120713e-010 1.340350e-010 1.203311e-010 -4.887083e-011 -8.358414e-011 -2.002390e-011 -7.803064e-011 -9.630245e-011 3.504183e-011 -2.046192e-011 -8.244215e-012 7.372863e-011 -5.786594e-011 1.524632e-010 9.932168e-011 -1.785882e-010 4.868311e-011 2.180728e-011 -7.554329e-011 1.764997e-011 5.730277e-011 -5.984487e-011 -1.495926e-011 -1.926323e-011 1.090990e-010 2.331533e-010 6.590679e-011 1.282781e-011 -3.597262e-011 -3.457251e-011 -3.278914e-011 2.568691e-011 -1.457990e-011 -2.490473e-011 -9.874286e-011 -3.837393e-011 -4.095514e-011 -3.781076e-011 1.415752e-011 -1.666051e-011 -3.160960e-010 2.739520e-010 5.519088e-011 1.099437e-010 7.415101e-012 -4.802608e-012 -1.361782e-011 -1.344965e-010 -4.072048e-011 9.154677e-011 -6.901988e-011 1.265573e-011 -9.799196e-011 6.290321e-011 -1.129942e-010 -5.493901e-010 -8.165997e-012 7.483933e-011 -1.501793e-011 -5.556633e-011 -5.153026e-011 -7.821836e-011 3.272656e-011 2.228285e-010 -2.830879e-010 2.795994e-010 -7.411972e-011 -4.336426e-011 -2.595285e-010 -3.773254e-011 5.794416e-011 1.756784e-010 3.429093e-011 1.095057e-012 1.376017e-010 1.118835e-010 3.773880e-010 2.277719e-010 -2.150066e-010 1.798397e-010 3.973493e-011 -1.263070e-010 -4.882390e-011 1.600661e-010 -8.541445e-011 5.018490e-011 -1.254623e-011 4.060472e-010 -1.668241e-010 1.382118e-010 -1.423574e-012 -3.408756e-011 -4.851103e-011 1.424904e-010 -4.851103e-011 -1.426703e-011 5.143639e-011 8.772971e-011 -5.494058e-011 -1.188919e-011 2.158827e-010 3.527648e-011 7.515220e-011 1.541527e-010 3.039878e-010 1.570625e-010 -3.648104e-010 5.600435e-011 1.653223e-010 7.171060e-011 1.056261e-010 -2.533024e-010 -4.898660e-010 -1.492719e-010 1.772115e-010 1.421071e-010 -1.247739e-010 -7.346269e-011 -3.197567e-011 9.114003e-011 -9.160935e-011 1.877241e-012 -2.732167e-010 -4.359579e-010 -1.060641e-010 1.408713e-011 4.675503e-011 2.366105e-011 -9.755785e-011 6.077567e-012 -2.911288e-011 1.535896e-010 -7.674786e-011 1.744582e-010 -3.898403e-011 -2.966040e-011 1.382275e-010 2.628137e-011 -5.772515e-012 5.325888e-011 3.166279e-011 1.109449e-010 -1.737073e-010 1.646653e-010 4.993460e-011 -2.934753e-011 -1.432960e-011 3.066160e-012 1.192048e-011 -1.578055e-010 -2.044941e-010 1.380398e-010 -2.346551e-012 3.504183e-011 2.856535e-011 -9.855514e-012 6.883216e-012 8.645475e-011 7.108094e-011 1.428580e-010
<VARIANCE> 576
 1.167770e-003 2.973561e-004 7.007371e-004 2.086760e-004 8.041178e-004 1.352980e-004 3.265209e-004 1.884036e-004 1.118481e-003 4.351393e-003 1.176333e-003 2.239451e-003 6.341148e-004 2.290915e-003 6.552492e-004 1.732558e-003 9.376683e-004 4.245414e-003 4.516829e-003 1.003562e-003 1.866437e-003 5.195834e-004 2.191711e-003 7.207171e-004 2.146487e-003 1.068303e-003 4.356978e-003 1.419554e-003 2.057135e-004 3.454461e-004 1.095705e-004 8.417927e-004 1.762966e-004 1.037651e-003 3.656567e-004 1.414748e-003 3.041469e-003 1.253512e-003 2.536225e-003 1.789511e-003 2.752300e-003 7.973647e-004 1.168717e-003 8.185334e-004 2.769381e-003 4.911733e-003 3.606561e-003 5.006392e-003 3.050549e-003 4.469288e-003 2.651049e-003 3.851100e-003 3.178056e-003 4.857296e-003 4.893479e-003 3.029929e-003 4.040543e-003 2.324168e-003 4.359627e-003 2.948211e-003 4.288253e-003 3.707040e-003 4.859293e-003 3.342807e-003 8.619035e-004 1.264166e-003 6.695894e-004 2.437999e-003 1.095287e-003 2.766012e-003 1.902892e-003 3.727592e-003 2.074914e-003 9.908126e-004 2.075564e-003 2.721905e-003 3.302997e-003 1.015053e-003 1.371708e-003 9.113242e-004 1.892325e-003 5.147123e-003 3.529426e-003 4.334211e-003 4.001765e-003 4.591516e-003 2.953818e-003 3.151859e-003 2.962190e-003 5.000470e-003 5.235281e-003 3.276794e-003 3.465877e-003 2.900808e-003 4.280112e-003 3.234665e-003 3.467785e-003 3.711150e-003 5.412052e-003 2.902840e-003 1.143568e-003 1.386411e-003 9.250603e-004 2.467373e-003 1.183022e-003 1.960115e-003 1.900712e-003 3.454876e-003 8.813094e-004 2.277997e-004 3.257275e-004 4.804370e-004 1.219083e-003 3.052467e-004 6.660669e-004 4.121410e-004 1.000217e-003 3.136019e-003 1.285418e-003 1.364838e-003 1.468761e-003 2.378784e-003 1.142788e-003 1.757812e-003 1.572282e-003 3.395892e-003 3.593319e-003 1.499306e-003 1.582455e-003 1.054247e-003 2.039014e-003 1.084414e-003 1.425563e-003 1.567252e-003 3.912632e-003 1.268398e-003 4.786194e-004 7.034905e-004 2.776881e-004 9.260736e-004 2.560907e-004 3.993269e-004 4.068862e-004 1.502636e-003 9.810573e-004 3.031202e-004 6.805479e-004 4.086887e-004 8.078378e-004 1.725467e-004 2.591446e-004 1.741900e-004 8.822465e-004 3.363016e-003 1.183248e-003 2.030951e-003 1.070358e-003 1.874658e-003 7.708521e-004 1.324943e-003 9.124430e-004 3.302165e-003 3.532481e-003 8.980177e-004 1.396538e-003 6.532922e-004 1.760223e-003 8.712871e-004 1.792353e-003 1.213734e-003 3.534949e-003 1.571107e-003 1.779165e-004 2.824802e-004 1.313476e-004 8.286043e-004 2.371294e-004 1.023373e-003 4.894760e-004 1.509239e-003 1.821571e-003 9.414139e-004 1.922687e-003 2.484055e-003 3.323437e-003 9.210460e-004 1.271569e-003 8.145809e-004 1.743559e-003 4.807107e-003 3.178757e-003 3.875503e-003 3.853710e-003 4.590895e-003 2.822776e-003 3.010104e-003 2.843673e-003 4.700398e-003 5.085968e-003 3.058647e-003 3.213530e-003 2.872021e-003 4.238053e-003 3.076177e-003 3.242154e-003 3.466583e-003 5.240987e-003 2.596511e-003 9.709235e-004 1.225253e-003 8.486129e-004 2.416272e-003 1.147051e-003 1.828415e-003 1.718529e-003 3.104250e-003 2.767490e-003 9.223534e-004 1.304094e-003 2.014899e-003 3.764312e-003 1.190364e-003 2.051434e-003 1.582102e-003 3.085743e-003 5.443237e-003 3.513715e-003 3.472644e-003 3.652707e-003 4.962589e-003 3.118002e-003 3.940373e-003 4.068419e-003 5.329708e-003 5.504749e-003 3.800951e-003 3.832439e-003 3.100162e-003 4.509945e-003 3.176761e-003 3.639011e-003 4.138400e-003 5.508422e-003 3.874531e-003 1.436590e-003 1.970104e-003 1.045023e-003 2.591564e-003 1.097950e-003 1.609480e-003 1.674168e-003 4.425630e-003 1.247164e-003 2.420144e-004 3.077366e-004 2.351255e-004 1.129075e-003 2.903230e-004 7.249272e-004 5.386366e-004 1.344323e-003 4.296098e-003 1.362720e-003 1.579804e-003 9.186578e-004 2.585220e-003 1.077573e-003 2.214495e-003 2.471105e-003 4.971699e-003 4.611030e-003 1.601774e-003 2.006417e-003 8.913149e-004 2.272579e-003 9.723799e-004 1.640559e-003 2.111835e-003 5.272587e-003 1.457291e-003 4.117105e-004 7.491201e-004 2.234487e-004 9.704074e-004 2.316863e-004 3.643434e-004 4.501640e-004 1.874857e-003 1.064687e-003 2.929069e-004 6.127609e-004 1.660475e-004 6.580062e-004 1.781869e-004 3.556733e-004 2.051956e-004 9.981433e-004 4.067286e-003 1.090456e-003 1.766444e-003 5.521083e-004 2.105214e-003 6.719131e-004 1.883568e-003 9.277251e-004 3.945637e-003 4.197143e-003 1.012791e-003 1.422402e-003 4.728863e-004 2.386003e-003 6.686287e-004 3.009788e-003 1.287450e-003 4.072912e-003 1.257281e-003 1.934799e-004 2.668735e-004 1.011270e-004 9.293741e-004 1.817797e-004 1.253737e-003 3.497670e-004 1.158027e-003 2.666791e-003 1.092802e-003 1.865240e-003 1.047882e-003 2.015713e-003 9.935383e-004 1.403893e-003 9.651690e-004 2.628836e-003 4.834837e-003 2.771564e-003 3.592757e-003 2.218448e-003 4.329400e-003 2.865666e-003 4.267378e-003 3.544565e-003 4.781379e-003 5.099989e-003 2.684910e-003 3.325125e-003 2.011587e-003 4.961662e-003 2.933452e-003 5.362240e-003 4.562670e-003 5.037874e-003 3.525327e-003 8.224637e-004 1.198291e-003 6.185494e-004 3.373885e-003 1.224720e-003 4.164551e-003 2.023305e-003 3.845616e-003 2.043814e-003 9.967419e-004 1.560294e-003 1.535466e-003 2.073176e-003 1.197676e-003 1.370016e-003 1.040767e-003 1.992498e-003 5.092933e-003 2.886094e-003 3.140100e-003 2.696448e-003 4.237649e-003 3.164789e-003 3.535625e-003 3.646542e-003 5.321300e-003 5.056772e-003 2.930559e-003 3.272193e-003 2.561918e-003 4.783006e-003 3.292306e-003 4.560213e-003 4.642840e-003 5.403296e-003 3.047132e-003 1.142152e-003 1.668745e-003 9.631555e-004 3.775718e-003 1.592933e-003 3.379901e-003 2.167352e-003 3.544518e-003 8.067520e-004 2.758645e-004 3.395885e-004 3.455445e-004 7.093129e-004 3.654982e-004 5.931034e-004 4.141892e-004 8.837844e-004 3.183567e-003 1.314037e-003 1.505166e-003 1.007345e-003 2.079609e-003 1.191511e-003 1.539985e-003 1.482844e-003 3.574299e-003 3.610183e-003 1.527512e-003 2.067049e-003 1.024603e-003 2.771921e-003 1.065206e-003 1.792150e-003 1.686234e-003 3.996072e-003 1.262216e-003 4.628339e-004 8.527177e-004 2.791182e-004 1.348661e-003 3.244268e-004 5.649388e-004 4.166383e-004 1.291330e-003 9.561852e-004 2.969583e-004 5.476924e-004 2.767954e-004 5.404497e-004 2.325688e-004 3.120158e-004 2.100754e-004 8.987980e-004 3.283079e-003 9.295438e-004 1.352810e-003 7.093371e-004 1.738095e-003 9.027349e-004 1.577308e-003 1.087107e-003 3.276895e-003 3.386812e-003 8.355935e-004 1.115062e-003 5.385219e-004 2.361633e-003 9.356262e-004 2.756337e-003 1.708814e-003 3.416401e-003 1.618984e-003 1.776110e-004 2.715675e-004 1.184779e-004 1.192733e-003 2.791366e-004 1.610094e-003 5.502205e-004 1.573443e-003 1.888304e-003 9.660193e-004 1.524522e-003 1.549043e-003 2.001935e-003 1.110994e-003 1.175630e-003 9.140430e-004 1.836323e-003 4.908676e-003 2.817173e-003 3.021896e-003 2.705533e-003 4.185859e-003 3.073313e-003 3.306545e-003 3.394847e-003 5.147427e-003 4.983332e-003 2.918774e-003 3.288972e-003 2.565781e-003 4.744454e-003 3.302381e-003 4.180846e-003 4.237649e-003 5.243112e-003 2.822548e-003 9.168810e-004 1.483632e-003 8.428803e-004 3.659073e-003 1.587848e-003 3.029562e-003 2.103397e-003 3.262954e-003 2.632668e-003 1.092415e-003 1.353374e-003 1.380455e-003 2.308812e-003 1.206527e-003 1.638700e-003 1.397670e-003 2.965118e-003 5.424761e-003 3.550570e-003 3.825153e-003 3.023928e-003 4.508033e-003 3.162224e-003 3.512587e-003 3.880512e-003 5.463133e-003 5.740973e-003 3.666484e-003 4.177683e-003 3.026978e-003 5.029491e-003 3.318067e-003 4.116090e-003 4.407494e-003 5.587114e-003 3.486874e-003 1.291084e-003 2.192107e-003 1.005240e-003 3.438059e-003 1.405831e-003 2.226594e-003 1.858174e-003 3.946207e-003 1.072080e-003 2.926629e-004 3.894951e-004 2.368517e-004 8.051487e-004 3.182722e-004 6.127405e-004 5.084455e-004 1.284760e-003 4.180892e-003 1.455409e-003 1.919809e-003 8.795660e-004 2.316786e-003 1.062204e-003 1.638702e-003 1.907107e-003 4.849575e-003 4.189091e-003 1.396879e-003 2.086305e-003 8.406779e-004 2.780244e-003 9.997995e-004 1.509563e-003 1.836983e-003 4.936048e-003 1.199229e-003 3.358283e-004 6.302361e-004 1.907010e-004 1.017930e-003 2.549393e-004 3.753164e-004 3.970004e-004 1.577101e-003
<GCONST> -2.672810e+003
<STATE> 3
<MEAN> 576
 2.512374e-011 -1.271831e-011 6.914503e-011 9.143727e-012 -6.751809e-011 9.748354e-011 2.167431e-011 -3.389202e-011 -3.670006e-011 3.253884e-011 -3.754481e-013 -6.169865e-011 -7.415100e-011 -3.491668e-011 1.120400e-010 1.931994e-011 7.737360e-011 -2.645658e-010 -1.724558e-010 -3.360261e-011 1.773992e-010 7.824965e-011 1.742079e-010 -1.223335e-010 -2.437284e-011 4.752548e-011 -6.879461e-010 -8.682238e-011 2.202629e-011 2.302749e-011 -1.245236e-011 4.316089e-011 -3.636372e-011 3.973493e-012 5.002064e-011 2.039935e-011 2.288982e-010 -7.314981e-011 8.660337e-011 9.918088e-012 -1.924172e-010 2.615622e-011 -2.973862e-011 -1.186416e-010 -5.005975e-011 8.297404e-011 -9.561413e-011 -1.170147e-010 -1.397606e-010 3.585530e-011 1.189232e-010 -5.359522e-011 1.448291e-010 3.819559e-010 6.372606e-010 1.742705e-011 4.230049e-011 9.461293e-011 -2.521760e-011 -6.643867e-011 -9.473808e-011 3.248252e-010 -6.132320e-011 -1.887253e-010 2.262075e-011 2.675068e-012 7.399457e-012 -8.313047e-011 3.128734e-011 -5.395503e-011 1.158258e-010 6.670462e-011 -6.201152e-011 -4.718132e-011 2.491724e-010 -2.031174e-010 -2.425395e-010 2.532710e-011 -2.221402e-011 -1.144648e-010 -2.759544e-011 -2.539281e-010 1.319700e-010 8.488257e-010 8.291146e-011 -7.421358e-011 1.621310e-010 1.365380e-010 -4.367713e-011 -3.168782e-010 -5.788159e-010 2.719496e-010 -1.329086e-010 8.009560e-011 -2.629388e-010 4.843281e-011 -1.394164e-010 -5.124867e-011 2.057456e-010 2.790831e-011 5.594177e-011 1.483020e-011 1.595655e-012 9.814840e-011 -6.063487e-011 1.524945e-010 -2.177599e-011 -3.230106e-010 8.147225e-011 -4.039196e-011 -4.607062e-011 8.988854e-011 3.278914e-011 -1.318370e-011 -8.062749e-011 1.289039e-011 1.820923e-011 3.414075e-010 -9.323629e-012 2.759544e-011 -1.567496e-011 9.339272e-012 -2.795524e-011 1.905399e-011 7.529299e-011 3.106208e-010 5.537860e-011 -1.572502e-010 -3.460380e-011 3.932819e-011 1.582358e-011 1.040930e-010 -4.057969e-011 4.768191e-011 4.087379e-010 -5.637980e-011 2.440413e-011 -4.768191e-011 -1.070027e-011 2.279283e-011 -3.957067e-011 5.971972e-012 -2.929278e-011 8.916894e-011 6.079131e-011 -3.160022e-011 4.949658e-011 -4.754112e-011 -1.224900e-011 -1.268702e-011 -1.457990e-011 9.155459e-012 7.584052e-011 -5.131125e-012 2.916919e-010 1.244923e-010 7.895361e-011 -1.289039e-011 3.804541e-011 6.038457e-012 -1.003542e-010 -4.039822e-010 -1.415439e-010 -5.553504e-012 7.452645e-011 1.023096e-011 3.707550e-011 -1.959761e-011 9.553200e-011 -1.881934e-010 1.536834e-010 -3.619946e-011 -1.157632e-012 -1.365693e-011 -3.003585e-012 -3.652798e-011 4.376317e-012 -4.811994e-011 -8.053363e-011 7.533993e-011 -1.376643e-010 -5.525345e-011 5.060415e-010 3.388106e-010 -6.629788e-011 -3.222596e-011 -6.973949e-011 -3.821749e-011 -7.092841e-011 -1.238979e-010 3.211959e-010 -1.741454e-010 4.932137e-010 1.562803e-010 -5.375166e-011 2.242677e-010 1.999261e-011 4.051085e-010 -2.784574e-010 -2.227659e-010 9.430006e-011 -6.977078e-011 5.043520e-011 -6.025943e-011 -3.506685e-010 -1.038740e-010 1.228341e-010 -1.401673e-011 -2.969169e-011 7.462032e-012 2.635959e-011 2.710266e-010 5.763129e-011 -9.123390e-011 -1.314068e-010 -1.812163e-010 -1.276524e-010 7.487062e-011 -1.138859e-011 2.636897e-010 1.200808e-010 1.161543e-011 4.801043e-011 9.073330e-013 -8.097165e-011 -1.792139e-010 -1.312504e-010 -1.415127e-010 -1.447353e-010 2.506742e-010 1.228028e-011 -6.410777e-011 -5.368908e-011 -1.153877e-010 -7.471418e-011 2.097504e-010 6.770581e-011 8.722912e-011 8.799566e-011 -5.583227e-011 -1.269015e-010 2.205758e-010 -2.007396e-010 -5.831961e-011 7.640370e-011 1.717675e-010 8.572733e-011 1.842825e-011 -5.359522e-011 8.467920e-011 -1.757254e-010 -1.326583e-011 -1.426077e-010 -3.658273e-011 3.816274e-011 4.822944e-011 6.853493e-011 2.383314e-011 -1.132602e-011 -2.595285e-011 2.180728e-011 -4.420276e-010 9.273569e-011 -8.752635e-011 5.420532e-011 2.433999e-010 2.503770e-011 1.232408e-010 -1.450481e-010 -1.521816e-010 6.933275e-011 3.754481e-011 4.373971e-011 3.156893e-011 1.043120e-010 1.097404e-011 5.503444e-011 -2.690712e-010 2.762047e-010 1.483646e-010 -5.084193e-011 -2.033677e-012 -5.575405e-011 -1.386029e-011 1.345356e-011 3.407192e-011 -1.113438e-011 4.614883e-011 8.466355e-011 3.842086e-011 -1.234599e-010 -1.005888e-011 -6.726779e-012 8.855883e-011 -6.323955e-011 -3.045041e-011 -1.441721e-010 3.422836e-011 -4.380228e-012 5.888278e-011 -5.418968e-011 1.529325e-010 8.525802e-011 2.925993e-010 2.229223e-011 -8.597762e-011 2.992947e-010 3.003585e-012 4.743161e-011 -1.598783e-011 2.232352e-010 4.974688e-012 1.062205e-010 -2.449799e-011 1.616304e-010 9.010755e-011 1.483020e-011 -1.346920e-011 -1.303118e-011 1.924172e-011 2.354373e-011 8.100293e-011 2.599978e-011 6.116676e-011 1.016213e-010 8.666595e-011 5.052906e-011 -1.136200e-010 8.209800e-011 -1.642586e-011 -4.852667e-011 -7.400239e-011 -7.146030e-011 -1.381649e-010 2.156011e-010 1.733319e-011 1.488965e-010 -1.003072e-010 4.369278e-011 -1.752091e-012 -1.946073e-010 -1.546846e-010 -4.075490e-010 -3.745095e-011 -6.632917e-012 -1.880995e-010 -1.539337e-011 -2.154134e-010 -4.933389e-010 -2.452928e-010 -1.777121e-010 -1.936687e-010 1.967974e-011 4.195633e-011 3.217903e-011 -1.138859e-011 -7.064682e-011 -8.472613e-011 -2.444167e-010 -2.628137e-010 7.008365e-012 2.886258e-011 -1.179533e-010 3.537816e-010 -2.587463e-011 2.637523e-011 1.573753e-011 -9.145291e-011 -9.139033e-011 5.281304e-011 -5.018490e-011 -1.173275e-011 -6.351331e-011 5.437741e-011 3.228854e-011 2.302749e-011 -5.032569e-010 -5.781901e-011 -4.643042e-010 -9.154677e-011 6.119805e-011 1.643524e-010 -2.489221e-010 8.266116e-011 -3.592413e-010 -1.634451e-010 -2.240174e-010 -8.065878e-011 1.332841e-011 -4.877697e-011 -1.071592e-011 3.160022e-012 -2.238610e-010 -1.515559e-010 1.678253e-010 7.765519e-011 -9.961890e-011 8.854319e-011 6.706442e-011 -1.496513e-010 -4.422075e-011 7.939164e-013 -1.476763e-011 -5.444780e-011 -6.323173e-011 -6.313786e-011 -5.772515e-011 8.503900e-011 6.274677e-011 -8.338859e-011 4.974688e-012 -5.131125e-011 -4.630527e-012 -8.059620e-011 -1.477388e-010 1.019342e-010 -1.120713e-010 1.340350e-010 1.203311e-010 -4.887083e-011 -8.358414e-011 -2.002390e-011 -7.803064e-011 -9.630245e-011 3.504183e-011 -2.046192e-011 -8.244215e-012 7.372863e-011 -5.786594e-011 1.524632e-010 9.932168e-011 -1.785882e-010 4.868311e-011 2.180728e-011 -7.554329e-011 1.764997e-011 5.730277e-011 -5.984487e-011 -1.495926e-011 -1.926323e-011 1.090990e-010 2.331533e-010 6.590679e-011 1.282781e-011 -3.597262e-011 -3.457251e-011 -3.278914e-011 2.568691e-011 -1.457990e-011 -2.490473e-011 -9.874286e-011 -3.837393e-011 -4.095514e-011 -3.781076e-011 1.415752e-011 -1.666051e-011 -3.160960e-010 2.739520e-010 5.519088e-011 1.099437e-010 7.415101e-012 -4.802608e-012 -1.361782e-011 -1.344965e-010 -4.072048e-011 9.154677e-011 -6.901988e-011 1.265573e-011 -9.799196e-011 6.290321e-011 -1.129942e-010 -5.493901e-010 -8.165997e-012 7.483933e-011 -1.501793e-011 -5.556633e-011 -5.153026e-011 -7.821836e-011 3.272656e-011 2.228285e-010 -2.830879e-010 2.795994e-010 -7.411972e-011 -4.336426e-011 -2.595285e-010 -3.773254e-011 5.794416e-011 1.756784e-010 3.429093e-011 1.095057e-012 1.376017e-010 1.118835e-010 3.773880e-010 2.277719e-010 -2.150066e-010 1.798397e-010 3.973493e-011 -1.263070e-010 -4.882390e-011 1.600661e-010 -8.541445e-011 5.018490e-011 -1.254623e-011 4.060472e-010 -1.668241e-010 1.382118e-010 -1.423574e-012 -3.408756e-011 -4.851103e-011 1.424904e-010 -4.851103e-011 -1.426703e-011 5.143639e-011 8.772971e-011 -5.494058e-011 -1.188919e-011 2.158827e-010 3.527648e-011 7.515220e-011 1.541527e-010 3.039878e-010 1.570625e-010 -3.648104e-010 5.600435e-011 1.653223e-010 7.171060e-011 1.056261e-010 -2.533024e-010 -4.898660e-010 -1.492719e-010 1.772115e-010 1.421071e-010 -1.247739e-010 -7.346269e-011 -3.197567e-011 9.114003e-011 -9.160935e-011 1.877241e-012 -2.732167e-010 -4.359579e-010 -1.060641e-010 1.408713e-011 4.675503e-011 2.366105e-011 -9.755785e-011 6.077567e-012 -2.911288e-011 1.535896e-010 -7.674786e-011 1.744582e-010 -3.898403e-011 -2.966040e-011 1.382275e-010 2.628137e-011 -5.772515e-012 5.325888e-011 3.166279e-011 1.109449e-010 -1.737073e-010 1.646653e-010 4.993460e-011 -2.934753e-011 -1.432960e-011 3.066160e-012 1.192048e-011 -1.578055e-010 -2.044941e-010 1.380398e-010 -2.346551e-012 3.504183e-011 2.856535e-011 -9.855514e-012 6.883216e-012 8.645475e-011 7.108094e-011 1.428580e-010
<VARIANCE> 576
 1.167770e-003 2.973561e-004 7.007371e-004 2.086760e-004 8.041178e-004 1.352980e-004 3.265209e-004 1.884036e-004 1.118481e-003 4.351393e-003 1.176333e-003 2.239451e-003 6.341148e-004 2.290915e-003 6.552492e-004 1.732558e-003 9.376683e-004 4.245414e-003 4.516829e-003 1.003562e-003 1.866437e-003 5.195834e-004 2.191711e-003 7.207171e-004 2.146487e-003 1.068303e-003 4.356978e-003 1.419554e-003 2.057135e-004 3.454461e-004 1.095705e-004 8.417927e-004 1.762966e-004 1.037651e-003 3.656567e-004 1.414748e-003 3.041469e-003 1.253512e-003 2.536225e-003 1.789511e-003 2.752300e-003 7.973647e-004 1.168717e-003 8.185334e-004 2.769381e-003 4.911733e-003 3.606561e-003 5.006392e-003 3.050549e-003 4.469288e-003 2.651049e-003 3.851100e-003 3.178056e-003 4.857296e-003 4.893479e-003 3.029929e-003 4.040543e-003 2.324168e-003 4.359627e-003 2.948211e-003 4.288253e-003 3.707040e-003 4.859293e-003 3.342807e-003 8.619035e-004 1.264166e-003 6.695894e-004 2.437999e-003 1.095287e-003 2.766012e-003 1.902892e-003 3.727592e-003 2.074914e-003 9.908126e-004 2.075564e-003 2.721905e-003 3.302997e-003 1.015053e-003 1.371708e-003 9.113242e-004 1.892325e-003 5.147123e-003 3.529426e-003 4.334211e-003 4.001765e-003 4.591516e-003 2.953818e-003 3.151859e-003 2.962190e-003 5.000470e-003 5.235281e-003 3.276794e-003 3.465877e-003 2.900808e-003 4.280112e-003 3.234665e-003 3.467785e-003 3.711150e-003 5.412052e-003 2.902840e-003 1.143568e-003 1.386411e-003 9.250603e-004 2.467373e-003 1.183022e-003 1.960115e-003 1.900712e-003 3.454876e-003 8.813094e-004 2.277997e-004 3.257275e-004 4.804370e-004 1.219083e-003 3.052467e-004 6.660669e-004 4.121410e-004 1.000217e-003 3.136019e-003 1.285418e-003 1.364838e-003 1.468761e-003 2.378784e-003 1.142788e-003 1.757812e-003 1.572282e-003 3.395892e-003 3.593319e-003 1.499306e-003 1.582455e-003 1.054247e-003 2.039014e-003 1.084414e-003 1.425563e-003 1.567252e-003 3.912632e-003 1.268398e-003 4.786194e-004 7.034905e-004 2.776881e-004 9.260736e-004 2.560907e-004 3.993269e-004 4.068862e-004 1.502636e-003 9.810573e-004 3.031202e-004 6.805479e-004 4.086887e-004 8.078378e-004 1.725467e-004 2.591446e-004 1.741900e-004 8.822465e-004 3.363016e-003 1.183248e-003 2.030951e-003 1.070358e-003 1.874658e-003 7.708521e-004 1.324943e-003 9.124430e-004 3.302165e-003 3.532481e-003 8.980177e-004 1.396538e-003 6.532922e-004 1.760223e-003 8.712871e-004 1.792353e-003 1.213734e-003 3.534949e-003 1.571107e-003 1.779165e-004 2.824802e-004 1.313476e-004 8.286043e-004 2.371294e-004 1.023373e-003 4.894760e-004 1.509239e-003 1.821571e-003 9.414139e-004 1.922687e-003 2.484055e-003 3.323437e-003 9.210460e-004 1.271569e-003 8.145809e-004 1.743559e-003 4.807107e-003 3.178757e-003 3.875503e-003 3.853710e-003 4.590895e-003 2.822776e-003 3.010104e-003 2.843673e-003 4.700398e-003 5.085968e-003 3.058647e-003 3.213530e-003 2.872021e-003 4.238053e-003 3.076177e-003 3.242154e-003 3.466583e-003 5.240987e-003 2.596511e-003 9.709235e-004 1.225253e-003 8.486129e-004 2.416272e-003 1.147051e-003 1.828415e-003 1.718529e-003 3.104250e-003 2.767490e-003 9.223534e-004 1.304094e-003 2.014899e-003 3.764312e-003 1.190364e-003 2.051434e-003 1.582102e-003 3.085743e-003 5.443237e-003 3.513715e-003 3.472644e-003 3.652707e-003 4.962589e-003 3.118002e-003 3.940373e-003 4.068419e-003 5.329708e-003 5.504749e-003 3.800951e-003 3.832439e-003 3.100162e-003 4.509945e-003 3.176761e-003 3.639011e-003 4.138400e-003 5.508422e-003 3.874531e-003 1.436590e-003 1.970104e-003 1.045023e-003 2.591564e-003 1.097950e-003 1.609480e-003 1.674168e-003 4.425630e-003 1.247164e-003 2.420144e-004 3.077366e-004 2.351255e-004 1.129075e-003 2.903230e-004 7.249272e-004 5.386366e-004 1.344323e-003 4.296098e-003 1.362720e-003 1.579804e-003 9.186578e-004 2.585220e-003 1.077573e-003 2.214495e-003 2.471105e-003 4.971699e-003 4.611030e-003 1.601774e-003 2.006417e-003 8.913149e-004 2.272579e-003 9.723799e-004 1.640559e-003 2.111835e-003 5.272587e-003 1.457291e-003 4.117105e-004 7.491201e-004 2.234487e-004 9.704074e-004 2.316863e-004 3.643434e-004 4.501640e-004 1.874857e-003 1.064687e-003 2.929069e-004 6.127609e-004 1.660475e-004 6.580062e-004 1.781869e-004 3.556733e-004 2.051956e-004 9.981433e-004 4.067286e-003 1.090456e-003 1.766444e-003 5.521083e-004 2.105214e-003 6.719131e-004 1.883568e-003 9.277251e-004 3.945637e-003 4.197143e-003 1.012791e-003 1.422402e-003 4.728863e-004 2.386003e-003 6.686287e-004 3.009788e-003 1.287450e-003 4.072912e-003 1.257281e-003 1.934799e-004 2.668735e-004 1.011270e-004 9.293741e-004 1.817797e-004 1.253737e-003 3.497670e-004 1.158027e-003 2.666791e-003 1.092802e-003 1.865240e-003 1.047882e-003 2.015713e-003 9.935383e-004 1.403893e-003 9.651690e-004 2.628836e-003 4.834837e-003 2.771564e-003 3.592757e-003 2.218448e-003 4.329400e-003 2.865666e-003 4.267378e-003 3.544565e-003 4.781379e-003 5.099989e-003 2.684910e-003 3.325125e-003 2.011587e-003 4.961662e-003 2.933452e-003 5.362240e-003 4.562670e-003 5.037874e-003 3.525327e-003 8.224637e-004 1.198291e-003 6.185494e-004 3.373885e-003 1.224720e-003 4.164551e-003 2.023305e-003 3.845616e-003 2.043814e-003 9.967419e-004 1.560294e-003 1.535466e-003 2.073176e-003 1.197676e-003 1.370016e-003 1.040767e-003 1.992498e-003 5.092933e-003 2.886094e-003 3.140100e-003 2.696448e-003 4.237649e-003 3.164789e-003 3.535625e-003 3.646542e-003 5.321300e-003 5.056772e-003 2.930559e-003 3.272193e-003 2.561918e-003 4.783006e-003 3.292306e-003 4.560213e-003 4.642840e-003 5.403296e-003 3.047132e-003 1.142152e-003 1.668745e-003 9.631555e-004 3.775718e-003 1.592933e-003 3.379901e-003 2.167352e-003 3.544518e-003 8.067520e-004 2.758645e-004 3.395885e-004 3.455445e-004 7.093129e-004 3.654982e-004 5.931034e-004 4.141892e-004 8.837844e-004 3.183567e-003 1.314037e-003 1.505166e-003 1.007345e-003 2.079609e-003 1.191511e-003 1.539985e-003 1.482844e-003 3.574299e-003 3.610183e-003 1.527512e-003 2.067049e-003 1.024603e-003 2.771921e-003 1.065206e-003 1.792150e-003 1.686234e-003 3.996072e-003 1.262216e-003 4.628339e-004 8.527177e-004 2.791182e-004 1.348661e-003 3.244268e-004 5.649388e-004 4.166383e-004 1.291330e-003 9.561852e-004 2.969583e-004 5.476924e-004 2.767954e-004 5.404497e-004 2.325688e-004 3.120158e-004 2.100754e-004 8.987980e-004 3.283079e-003 9.295438e-004 1.352810e-003 7.093371e-004 1.738095e-003 9.027349e-004 1.577308e-003 1.087107e-003 3.276895e-003 3.386812e-003 8.355935e-004 1.115062e-003 5.385219e-004 2.361633e-003 9.356262e-004 2.756337e-003 1.708814e-003 3.416401e-003 1.618984e-003 1.776110e-004 2.715675e-004 1.184779e-004 1.192733e-003 2.791366e-004 1.610094e-003 5.502205e-004 1.573443e-003 1.888304e-003 9.660193e-004 1.524522e-003 1.549043e-003 2.001935e-003 1.110994e-003 1.175630e-003 9.140430e-004 1.836323e-003 4.908676e-003 2.817173e-003 3.021896e-003 2.705533e-003 4.185859e-003 3.073313e-003 3.306545e-003 3.394847e-003 5.147427e-003 4.983332e-003 2.918774e-003 3.288972e-003 2.565781e-003 4.744454e-003 3.302381e-003 4.180846e-003 4.237649e-003 5.243112e-003 2.822548e-003 9.168810e-004 1.483632e-003 8.428803e-004 3.659073e-003 1.587848e-003 3.029562e-003 2.103397e-003 3.262954e-003 2.632668e-003 1.092415e-003 1.353374e-003 1.380455e-003 2.308812e-003 1.206527e-003 1.638700e-003 1.397670e-003 2.965118e-003 5.424761e-003 3.550570e-003 3.825153e-003 3.023928e-003 4.508033e-003 3.162224e-003 3.512587e-003 3.880512e-003 5.463133e-003 5.740973e-003 3.666484e-003 4.177683e-003 3.026978e-003 5.029491e-003 3.318067e-003 4.116090e-003 4.407494e-003 5.587114e-003 3.486874e-003 1.291084e-003 2.192107e-003 1.005240e-003 3.438059e-003 1.405831e-003 2.226594e-003 1.858174e-003 3.946207e-003 1.072080e-003 2.926629e-004 3.894951e-004 2.368517e-004 8.051487e-004 3.182722e-004 6.127405e-004 5.084455e-004 1.284760e-003 4.180892e-003 1.455409e-003 1.919809e-003 8.795660e-004 2.316786e-003 1.062204e-003 1.638702e-003 1.907107e-003 4.849575e-003 4.189091e-003 1.396879e-003 2.086305e-003 8.406779e-004 2.780244e-003 9.997995e-004 1.509563e-003 1.836983e-003 4.936048e-003 1.199229e-003 3.358283e-004 6.302361e-004 1.907010e-004 1.017930e-003 2.549393e-004 3.753164e-004 3.970004e-004 1.577101e-003
<GCONST> -2.672810e+003
<STATE> 4
<MEAN> 576
 2.512374e-011 -1.271831e-011 6.914503e-011 9.143727e-012 -6.751809e-011 9.748354e-011 2.167431e-011 -3.389202e-011 -3.670006e-011 3.253884e-011 -3.754481e-013 -6.169865e-011 -7.415100e-011 -3.491668e-011 1.120400e-010 1.931994e-011 7.737360e-011 -2.645658e-010 -1.724558e-010 -3.360261e-011 1.773992e-010 7.824965e-011 1.742079e-010 -1.223335e-010 -2.437284e-011 4.752548e-011 -6.879461e-010 -8.682238e-011 2.202629e-011 2.302749e-011 -1.245236e-011 4.316089e-011 -3.636372e-011 3.973493e-012 5.002064e-011 2.039935e-011 2.288982e-010 -7.314981e-011 8.660337e-011 9.918088e-012 -1.924172e-010 2.615622e-011 -2.973862e-011 -1.186416e-010 -5.005975e-011 8.297404e-011 -9.561413e-011 -1.170147e-010 -1.397606e-010 3.585530e-011 1.189232e-010 -5.359522e-011 1.448291e-010 3.819559e-010 6.372606e-010 1.742705e-011 4.230049e-011 9.461293e-011 -2.521760e-011 -6.643867e-011 -9.473808e-011 3.248252e-010 -6.132320e-011 -1.887253e-010 2.262075e-011 2.675068e-012 7.399457e-012 -8.313047e-011 3.128734e-011 -5.395503e-011 1.158258e-010 6.670462e-011 -6.201152e-011 -4.718132e-011 2.491724e-010 -2.031174e-010 -2.425395e-010 2.532710e-011 -2.221402e-011 -1.144648e-010 -2.759544e-011 -2.539281e-010 1.319700e-010 8.488257e-010 8.291146e-011 -7.421358e-011 1.621310e-010 1.365380e-010 -4.367713e-011 -3.168782e-010 -5.788159e-010 2.719496e-010 -1.329086e-010 8.009560e-011 -2.629388e-010 4.843281e-011 -1.394164e-010 -5.124867e-011 2.057456e-010 2.790831e-011 5.594177e-011 1.483020e-011 1.595655e-012 9.814840e-011 -6.063487e-011 1.524945e-010 -2.177599e-011 -3.230106e-010 8.147225e-011 -4.039196e-011 -4.607062e-011 8.988854e-011 3.278914e-011 -1.318370e-011 -8.062749e-011 1.289039e-011 1.820923e-011 3.414075e-010 -9.323629e-012 2.759544e-011 -1.567496e-011 9.339272e-012 -2.795524e-011 1.905399e-011 7.529299e-011 3.106208e-010 5.537860e-011 -1.572502e-010 -3.460380e-011 3.932819e-011 1.582358e-011 1.040930e-010 -4.057969e-011 4.768191e-011 4.087379e-010 -5.637980e-011 2.440413e-011 -4.768191e-011 -1.070027e-011 2.279283e-011 -3.957067e-011 5.971972e-012 -2.929278e-011 8.916894e-011 6.079131e-011 -3.160022e-011 4.949658e-011 -4.754112e-011 -1.224900e-011 -1.268702e-011 -1.457990e-011 9.155459e-012 7.584052e-011 -5.131125e-012 2.916919e-010 1.244923e-010 7.895361e-011 -1.289039e-011 3.804541e-011 6.038457e-012 -1.003542e-010 -4.039822e-010 -1.415439e-010 -5.553504e-012 7.452645e-011 1.023096e-011 3.707550e-011 -1.959761e-011 9.553200e-011 -1.881934e-010 1.536834e-010 -3.619946e-011 -1.157632e-012 -1.365693e-011 -3.003585e-012 -3.652798e-011 4.376317e-012 -4.811994e-011 -8.053363e-011 7.533993e-011 -1.376643e-010 -5.525345e-011 5.060415e-010 3.388106e-010 -6.629788e-011 -3.222596e-011 -6.973949e-011 -3.821749e-011 -7.092841e-011 -1.238979e-010 3.211959e-010 -1.741454e-010 4.932137e-010 1.562803e-010 -5.375166e-011 2.242677e-010 1.999261e-011 4.051085e-010 -2.784574e-010 -2.227659e-010 9.430006e-011 -6.977078e-011 5.043520e-011 -6.025943e-011 -3.506685e-010 -1.038740e-010 1.228341e-010 -1.401673e-011 -2.969169e-011 7.462032e-012 2.635959e-011 2.710266e-010 5.763129e-011 -9.123390e-011 -1.314068e-010 -1.812163e-010 -1.276524e-010 7.487062e-011 -1.138859e-011 2.636897e-010 1.200808e-010 1.161543e-011 4.801043e-011 9.073330e-013 -8.097165e-011 -1.792139e-010 -1.312504e-010 -1.415127e-010 -1.447353e-010 2.506742e-010 1.228028e-011 -6.410777e-011 -5.368908e-011 -1.153877e-010 -7.471418e-011 2.097504e-010 6.770581e-011 8.722912e-011 8.799566e-011 -5.583227e-011 -1.269015e-010 2.205758e-010 -2.007396e-010 -5.831961e-011 7.640370e-011 1.717675e-010 8.572733e-011 1.842825e-011 -5.359522e-011 8.467920e-011 -1.757254e-010 -1.326583e-011 -1.426077e-010 -3.658273e-011 3.816274e-011 4.822944e-011 6.853493e-011 2.383314e-011 -1.132602e-011 -2.595285e-011 2.180728e-011 -4.420276e-010 9.273569e-011 -8.752635e-011 5.420532e-011 2.433999e-010 2.503770e-011 1.232408e-010 -1.450481e-010 -1.521816e-010 6.933275e-011 3.754481e-011 4.373971e-011 3.156893e-011 1.043120e-010 1.097404e-011 5.503444e-011 -2.690712e-010 2.762047e-010 1.483646e-010 -5.084193e-011 -2.033677e-012 -5.575405e-011 -1.386029e-011 1.345356e-011 3.407192e-011 -1.113438e-011 4.614883e-011 8.466355e-011 3.842086e-011 -1.234599e-010 -1.005888e-011 -6.726779e-012 8.855883e-011 -6.323955e-011 -3.045041e-011 -1.441721e-010 3.422836e-011 -4.380228e-012 5.888278e-011 -5.418968e-011 1.529325e-010 8.525802e-011 2.925993e-010 2.229223e-011 -8.597762e-011 2.992947e-010 3.003585e-012 4.743161e-011 -1.598783e-011 2.232352e-010 4.974688e-012 1.062205e-010 -2.449799e-011 1.616304e-010 9.010755e-011 1.483020e-011 -1.346920e-011 -1.303118e-011 1.924172e-011 2.354373e-011 8.100293e-011 2.599978e-011 6.116676e-011 1.016213e-010 8.666595e-011 5.052906e-011 -1.136200e-010 8.209800e-011 -1.642586e-011 -4.852667e-011 -7.400239e-011 -7.146030e-011 -1.381649e-010 2.156011e-010 1.733319e-011 1.488965e-010 -1.003072e-010 4.369278e-011 -1.752091e-012 -1.946073e-010 -1.546846e-010 -4.075490e-010 -3.745095e-011 -6.632917e-012 -1.880995e-010 -1.539337e-011 -2.154134e-010 -4.933389e-010 -2.452928e-010 -1.777121e-010 -1.936687e-010 1.967974e-011 4.195633e-011 3.217903e-011 -1.138859e-011 -7.064682e-011 -8.472613e-011 -2.444167e-010 -2.628137e-010 7.008365e-012 2.886258e-011 -1.179533e-010 3.537816e-010 -2.587463e-011 2.637523e-011 1.573753e-011 -9.145291e-011 -9.139033e-011 5.281304e-011 -5.018490e-011 -1.173275e-011 -6.351331e-011 5.437741e-011 3.228854e-011 2.302749e-011 -5.032569e-010 -5.781901e-011 -4.643042e-010 -9.154677e-011 6.119805e-011 1.643524e-010 -2.489221e-010 8.266116e-011 -3.592413e-010 -1.634451e-010 -2.240174e-010 -8.065878e-011 1.332841e-011 -4.877697e-011 -1.071592e-011 3.160022e-012 -2.238610e-010 -1.515559e-010 1.678253e-010 7.765519e-011 -9.961890e-011 8.854319e-011 6.706442e-011 -1.496513e-010 -4.422075e-011 7.939164e-013 -1.476763e-011 -5.444780e-011 -6.323173e-011 -6.313786e-011 -5.772515e-011 8.503900e-011 6.274677e-011 -8.338859e-011 4.974688e-012 -5.131125e-011 -4.630527e-012 -8.059620e-011 -1.477388e-010 1.019342e-010 -1.120713e-010 1.340350e-010 1.203311e-010 -4.887083e-011 -8.358414e-011 -2.002390e-011 -7.803064e-011 -9.630245e-011 3.504183e-011 -2.046192e-011 -8.244215e-012 7.372863e-011 -5.786594e-011 1.524632e-010 9.932168e-011 -1.785882e-010 4.868311e-011 2.180728e-011 -7.554329e-011 1.764997e-011 5.730277e-011 -5.984487e-011 -1.495926e-011 -1.926323e-011 1.090990e-010 2.331533e-010 6.590679e-011 1.282781e-011 -3.597262e-011 -3.457251e-011 -3.278914e-011 2.568691e-011 -1.457990e-011 -2.490473e-011 -9.874286e-011 -3.837393e-011 -4.095514e-011 -3.781076e-011 1.415752e-011 -1.666051e-011 -3.160960e-010 2.739520e-010 5.519088e-011 1.099437e-010 7.415101e-012 -4.802608e-012 -1.361782e-011 -1.344965e-010 -4.072048e-011 9.154677e-011 -6.901988e-011 1.265573e-011 -9.799196e-011 6.290321e-011 -1.129942e-010 -5.493901e-010 -8.165997e-012 7.483933e-011 -1.501793e-011 -5.556633e-011 -5.153026e-011 -7.821836e-011 3.272656e-011 2.228285e-010 -2.830879e-010 2.795994e-010 -7.411972e-011 -4.336426e-011 -2.595285e-010 -3.773254e-011 5.794416e-011 1.756784e-010 3.429093e-011 1.095057e-012 1.376017e-010 1.118835e-010 3.773880e-010 2.277719e-010 -2.150066e-010 1.798397e-010 3.973493e-011 -1.263070e-010 -4.882390e-011 1.600661e-010 -8.541445e-011 5.018490e-011 -1.254623e-011 4.060472e-010 -1.668241e-010 1.382118e-010 -1.423574e-012 -3.408756e-011 -4.851103e-011 1.424904e-010 -4.851103e-011 -1.426703e-011 5.143639e-011 8.772971e-011 -5.494058e-011 -1.188919e-011 2.158827e-010 3.527648e-011 7.515220e-011 1.541527e-010 3.039878e-010 1.570625e-010 -3.648104e-010 5.600435e-011 1.653223e-010 7.171060e-011 1.056261e-010 -2.533024e-010 -4.898660e-010 -1.492719e-010 1.772115e-010 1.421071e-010 -1.247739e-010 -7.346269e-011 -3.197567e-011 9.114003e-011 -9.160935e-011 1.877241e-012 -2.732167e-010 -4.359579e-010 -1.060641e-010 1.408713e-011 4.675503e-011 2.366105e-011 -9.755785e-011 6.077567e-012 -2.911288e-011 1.535896e-010 -7.674786e-011 1.744582e-010 -3.898403e-011 -2.966040e-011 1.382275e-010 2.628137e-011 -5.772515e-012 5.325888e-011 3.166279e-011 1.109449e-010 -1.737073e-010 1.646653e-010 4.993460e-011 -2.934753e-011 -1.432960e-011 3.066160e-012 1.192048e-011 -1.578055e-010 -2.044941e-010 1.380398e-010 -2.346551e-012 3.504183e-011 2.856535e-011 -9.855514e-012 6.883216e-012 8.645475e-011 7.108094e-011 1.428580e-010
<VARIANCE> 576
 1.167770e-003 2.973561e-004 7.007371e-004 2.086760e-004 8.041178e-004 1.352980e-004 3.265209e-004 1.884036e-004 1.118481e-003 4.351393e-003 1.176333e-003 2.239451e-003 6.341148e-004 2.290915e-003 6.552492e-004 1.732558e-003 9.376683e-004 4.245414e-003 4.516829e-003 1.003562e-003 1.866437e-003 5.195834e-004 2.191711e-003 7.207171e-004 2.146487e-003 1.068303e-003 4.356978e-003 1.419554e-003 2.057135e-004 3.454461e-004 1.095705e-004 8.417927e-004 1.762966e-004 1.037651e-003 3.656567e-004 1.414748e-003 3.041469e-003 1.253512e-003 2.536225e-003 1.789511e-003 2.752300e-003 7.973647e-004 1.168717e-003 8.185334e-004 2.769381e-003 4.911733e-003 3.606561e-003 5.006392e-003 3.050549e-003 4.469288e-003 2.651049e-003 3.851100e-003 3.178056e-003 4.857296e-003 4.893479e-003 3.029929e-003 4.040543e-003 2.324168e-003 4.359627e-003 2.948211e-003 4.288253e-003 3.707040e-003 4.859293e-003 3.342807e-003 8.619035e-004 1.264166e-003 6.695894e-004 2.437999e-003 1.095287e-003 2.766012e-003 1.902892e-003 3.727592e-003 2.074914e-003 9.908126e-004 2.075564e-003 2.721905e-003 3.302997e-003 1.015053e-003 1.371708e-003 9.113242e-004 1.892325e-003 5.147123e-003 3.529426e-003 4.334211e-003 4.001765e-003 4.591516e-003 2.953818e-003 3.151859e-003 2.962190e-003 5.000470e-003 5.235281e-003 3.276794e-003 3.465877e-003 2.900808e-003 4.280112e-003 3.234665e-003 3.467785e-003 3.711150e-003 5.412052e-003 2.902840e-003 1.143568e-003 1.386411e-003 9.250603e-004 2.467373e-003 1.183022e-003 1.960115e-003 1.900712e-003 3.454876e-003 8.813094e-004 2.277997e-004 3.257275e-004 4.804370e-004 1.219083e-003 3.052467e-004 6.660669e-004 4.121410e-004 1.000217e-003 3.136019e-003 1.285418e-003 1.364838e-003 1.468761e-003 2.378784e-003 1.142788e-003 1.757812e-003 1.572282e-003 3.395892e-003 3.593319e-003 1.499306e-003 1.582455e-003 1.054247e-003 2.039014e-003 1.084414e-003 1.425563e-003 1.567252e-003 3.912632e-003 1.268398e-003 4.786194e-004 7.034905e-004 2.776881e-004 9.260736e-004 2.560907e-004 3.993269e-004 4.068862e-004 1.502636e-003 9.810573e-004 3.031202e-004 6.805479e-004 4.086887e-004 8.078378e-004 1.725467e-004 2.591446e-004 1.741900e-004 8.822465e-004 3.363016e-003 1.183248e-003 2.030951e-003 1.070358e-003 1.874658e-003 7.708521e-004 1.324943e-003 9.124430e-004 3.302165e-003 3.532481e-003 8.980177e-004 1.396538e-003 6.532922e-004 1.760223e-003 8.712871e-004 1.792353e-003 1.213734e-003 3.534949e-003 1.571107e-003 1.779165e-004 2.824802e-004 1.313476e-004 8.286043e-004 2.371294e-004 1.023373e-003 4.894760e-004 1.509239e-003 1.821571e-003 9.414139e-004 1.922687e-003 2.484055e-003 3.323437e-003 9.210460e-004 1.271569e-003 8.145809e-004 1.743559e-003 4.807107e-003 3.178757e-003 3.875503e-003 3.853710e-003 4.590895e-003 2.822776e-003 3.010104e-003 2.843673e-003 4.700398e-003 5.085968e-003 3.058647e-003 3.213530e-003 2.872021e-003 4.238053e-003 3.076177e-003 3.242154e-003 3.466583e-003 5.240987e-003 2.596511e-003 9.709235e-004 1.225253e-003 8.486129e-004 2.416272e-003 1.147051e-003 1.828415e-003 1.718529e-003 3.104250e-003 2.767490e-003 9.223534e-004 1.304094e-003 2.014899e-003 3.764312e-003 1.190364e-003 2.051434e-003 1.582102e-003 3.085743e-003 5.443237e-003 3.513715e-003 3.472644e-003 3.652707e-003 4.962589e-003 3.118002e-003 3.940373e-003 4.068419e-003 5.329708e-003 5.504749e-003 3.800951e-003 3.832439e-003 3.100162e-003 4.509945e-003 3.176761e-003 3.639011e-003 4.138400e-003 5.508422e-003 3.874531e-003 1.436590e-003 1.970104e-003 1.045023e-003 2.591564e-003 1.097950e-003 1.609480e-003 1.674168e-003 4.425630e-003 1.247164e-003 2.420144e-004 3.077366e-004 2.351255e-004 1.129075e-003 2.903230e-004 7.249272e-004 5.386366e-004 1.344323e-003 4.296098e-003 1.362720e-003 1.579804e-003 9.186578e-004 2.585220e-003 1.077573e-003 2.214495e-003 2.471105e-003 4.971699e-003 4.611030e-003 1.601774e-003 2.006417e-003 8.913149e-004 2.272579e-003 9.723799e-004 1.640559e-003 2.111835e-003 5.272587e-003 1.457291e-003 4.117105e-004 7.491201e-004 2.234487e-004 9.704074e-004 2.316863e-004 3.643434e-004 4.501640e-004 1.874857e-003 1.064687e-003 2.929069e-004 6.127609e-004 1.660475e-004 6.580062e-004 1.781869e-004 3.556733e-004 2.051956e-004 9.981433e-004 4.067286e-003 1.090456e-003 1.766444e-003 5.521083e-004 2.105214e-003 6.719131e-004 1.883568e-003 9.277251e-004 3.945637e-003 4.197143e-003 1.012791e-003 1.422402e-003 4.728863e-004 2.386003e-003 6.686287e-004 3.009788e-003 1.287450e-003 4.072912e-003 1.257281e-003 1.934799e-004 2.668735e-004 1.011270e-004 9.293741e-004 1.817797e-004 1.253737e-003 3.497670e-004 1.158027e-003 2.666791e-003 1.092802e-003 1.865240e-003 1.047882e-003 2.015713e-003 9.935383e-004 1.403893e-003 9.651690e-004 2.628836e-003 4.834837e-003 2.771564e-003 3.592757e-003 2.218448e-003 4.329400e-003 2.865666e-003 4.267378e-003 3.544565e-003 4.781379e-003 5.099989e-003 2.684910e-003 3.325125e-003 2.011587e-003 4.961662e-003 2.933452e-003 5.362240e-003 4.562670e-003 5.037874e-003 3.525327e-003 8.224637e-004 1.198291e-003 6.185494e-004 3.373885e-003 1.224720e-003 4.164551e-003 2.023305e-003 3.845616e-003 2.043814e-003 9.967419e-004 1.560294e-003 1.535466e-003 2.073176e-003 1.197676e-003 1.370016e-003 1.040767e-003 1.992498e-003 5.092933e-003 2.886094e-003 3.140100e-003 2.696448e-003 4.237649e-003 3.164789e-003 3.535625e-003 3.646542e-003 5.321300e-003 5.056772e-003 2.930559e-003 3.272193e-003 2.561918e-003 4.783006e-003 3.292306e-003 4.560213e-003 4.642840e-003 5.403296e-003 3.047132e-003 1.142152e-003 1.668745e-003 9.631555e-004 3.775718e-003 1.592933e-003 3.379901e-003 2.167352e-003 3.544518e-003 8.067520e-004 2.758645e-004 3.395885e-004 3.455445e-004 7.093129e-004 3.654982e-004 5.931034e-004 4.141892e-004 8.837844e-004 3.183567e-003 1.314037e-003 1.505166e-003 1.007345e-003 2.079609e-003 1.191511e-003 1.539985e-003 1.482844e-003 3.574299e-003 3.610183e-003 1.527512e-003 2.067049e-003 1.024603e-003 2.771921e-003 1.065206e-003 1.792150e-003 1.686234e-003 3.996072e-003 1.262216e-003 4.628339e-004 8.527177e-004 2.791182e-004 1.348661e-003 3.244268e-004 5.649388e-004 4.166383e-004 1.291330e-003 9.561852e-004 2.969583e-004 5.476924e-004 2.767954e-004 5.404497e-004 2.325688e-004 3.120158e-004 2.100754e-004 8.987980e-004 3.283079e-003 9.295438e-004 1.352810e-003 7.093371e-004 1.738095e-003 9.027349e-004 1.577308e-003 1.087107e-003 3.276895e-003 3.386812e-003 8.355935e-004 1.115062e-003 5.385219e-004 2.361633e-003 9.356262e-004 2.756337e-003 1.708814e-003 3.416401e-003 1.618984e-003 1.776110e-004 2.715675e-004 1.184779e-004 1.192733e-003 2.791366e-004 1.610094e-003 5.502205e-004 1.573443e-003 1.888304e-003 9.660193e-004 1.524522e-003 1.549043e-003 2.001935e-003 1.110994e-003 1.175630e-003 9.140430e-004 1.836323e-003 4.908676e-003 2.817173e-003 3.021896e-003 2.705533e-003 4.185859e-003 3.073313e-003 3.306545e-003 3.394847e-003 5.147427e-003 4.983332e-003 2.918774e-003 3.288972e-003 2.565781e-003 4.744454e-003 3.302381e-003 4.180846e-003 4.237649e-003 5.243112e-003 2.822548e-003 9.168810e-004 1.483632e-003 8.428803e-004 3.659073e-003 1.587848e-003 3.029562e-003 2.103397e-003 3.262954e-003 2.632668e-003 1.092415e-003 1.353374e-003 1.380455e-003 2.308812e-003 1.206527e-003 1.638700e-003 1.397670e-003 2.965118e-003 5.424761e-003 3.550570e-003 3.825153e-003 3.023928e-003 4.508033e-003 3.162224e-003 3.512587e-003 3.880512e-003 5.463133e-003 5.740973e-003 3.666484e-003 4.177683e-003 3.026978e-003 5.029491e-003 3.318067e-003 4.116090e-003 4.407494e-003 5.587114e-003 3.486874e-003 1.291084e-003 2.192107e-003 1.005240e-003 3.438059e-003 1.405831e-003 2.226594e-003 1.858174e-003 3.946207e-003 1.072080e-003 2.926629e-004 3.894951e-004 2.368517e-004 8.051487e-004 3.182722e-004 6.127405e-004 5.084455e-004 1.284760e-003 4.180892e-003 1.455409e-003 1.919809e-003 8.795660e-004 2.316786e-003 1.062204e-003 1.638702e-003 1.907107e-003 4.849575e-003 4.189091e-003 1.396879e-003 2.086305e-003 8.406779e-004 2.780244e-003 9.997995e-004 1.509563e-003 1.836983e-003 4.936048e-003 1.199229e-003 3.358283e-004 6.302361e-004 1.907010e-004 1.017930e-003 2.549393e-004 3.753164e-004 3.970004e-004 1.577101e-003
<GCONST> -2.672810e+003
<TRANSP> 5
 0.000000e+000 1.000000e+000 0.000000e+000 0.000000e+000 0.000000e+000
 0.000000e+000 6.000000e-001 4.000000e-001 0.000000e+000 0.000000e+000
 0.000000e+000 0.000000e+000 6.000000e-001 4.000000e-001 0.000000e+000
 0.000000e+000 0.000000e+000 0.000000e+000 7.000000e-001 3.000000e-001
 0.000000e+000 0.000000e+000 0.000000e+000 0.000000e+000 0.000000e+000
<ENDHMM>
