~o
<STREAMINFO> 1 23
<VECSIZE> 23<NULLD><MFCC_0><DIAGC>
~h "BN"
<BEGINHMM>
<NUMSTATES> 5
<STATE> 2
<NUMMIXES> 2
<MIXTURE> 1 3.460793e-001
<MEAN> 23
 9.286695e+000 1.345162e+001 5.839233e+000 6.081131e+000 1.195730e+001 1.989265e+001 9.285205e+001 8.328423e+001 6.032409e+001 5.772459e+001 1.916571e+002 1.808470e+002 1.158593e+002 1.133378e+002 6.986071e+000 4.968160e+000 6.092901e+000 5.901371e+000 5.998296e+000 6.006748e+000 2.202878e+000 2.059546e+000 1.185645e+002
<VARIANCE> 23
 2.668104e+003 1.787653e+003 2.159354e+003 1.362507e+003 2.036594e+002 3.695461e+002 2.297537e+002 4.059260e+002 8.113439e+001 6.873777e+001 4.462694e+002 7.944570e+002 1.384718e+002 1.553844e+002 8.689970e-002 6.216303e-002 8.427012e-002 8.890100e-002 2.082488e-002 1.389370e-001 5.213949e+000 3.490553e+000 5.176105e+002
<GCONST> 1.197874e+002
<MIXTURE> 2 6.539208e-001
<MEAN> 23
 6.108614e+000 8.703070e+000 1.642744e+000 2.903988e+000 1.663436e+002 1.799335e+002 7.245558e+001 8.909114e+001 6.746047e+001 7.224295e+001 1.179600e+002 6.986857e+001 9.120545e+001 8.922998e+001 3.337464e+000 2.526431e+000 4.759933e+000 3.788203e+000 4.177702e+000 2.293521e+000 2.205125e+000 2.243965e+000 1.340652e+002
<VARIANCE> 23
 1.368897e+002 2.560533e+002 1.090865e+001 1.866225e+001 3.849960e+004 1.844896e+004 2.460228e+003 2.640226e+003 1.114546e+003 1.355786e+003 6.563607e+003 3.852183e+003 2.163210e+003 1.608428e+003 9.264720e+000 2.455252e+000 7.217526e+000 3.497435e+000 4.189808e+000 5.686970e+000 5.989393e+000 5.284348e+000 7.635454e+003
<GCONST> 1.623751e+002
<STATE> 3
<NUMMIXES> 2
<MIXTURE> 1 3.972110e-001
<MEAN> 23
 1.737469e+000 1.999545e+001 5.573426e-001 4.997280e+000 8.461697e+000 1.201611e+002 9.946341e+001 9.934580e+001 6.156964e+001 8.121590e+001 2.024482e+002 9.948991e+001 1.210589e+002 1.111471e+002 6.997137e+000 3.316689e+000 6.080941e+000 4.816637e+000 5.999450e+000 3.078472e+000 1.918495e+000 3.686214e+000 1.785484e+002
<VARIANCE> 23
 1.078624e+001 3.606055e+002 3.300596e+000 2.719637e+001 1.100123e+002 6.601676e+003 3.052063e+002 1.553154e+003 6.384119e+001 6.324617e+002 6.251569e+002 3.708404e+003 2.113959e+002 1.656982e+002 6.504287e-002 1.506962e+000 7.492864e-002 9.326900e-001 2.082488e-002 6.399548e+000 5.733576e+000 5.292551e+000 3.430058e+003
<GCONST> 1.218795e+002
<MIXTURE> 2 6.027912e-001
<MEAN> 23
 9.095867e-001 4.964981e+000 4.396246e-001 1.680772e+000 1.006834e+001 1.726878e+002 8.739587e+001 1.192077e+002 5.677179e+001 8.894144e+001 1.815708e+002 3.201971e+001 1.102547e+002 9.690958e+001 6.937082e+000 2.069311e+000 6.018718e+000 3.674542e+000 5.960683e+000 1.102996e+000 1.388259e+000 2.649077e+000 2.005193e+002
<VARIANCE> 23
 4.801632e+000 4.423072e+001 3.300596e+000 4.443546e+000 5.731170e+002 9.840386e+002 1.611462e+002 1.986525e+002 6.240240e+001 2.607798e+002 4.290798e+002 3.175304e+002 7.135811e+001 8.971046e+001 3.384702e-001 1.202000e-001 2.326620e-001 4.590007e-001 1.088672e-001 2.856508e-001 4.927691e+000 5.923769e+000 4.507300e+002
<GCONST> 1.047908e+002
<STATE> 4
<NUMMIXES> 2
<MIXTURE> 1 7.357132e-001
<MEAN> 23
 1.137729e+001 1.317785e+000 3.261711e+000 6.577489e-001 1.431515e+002 1.826301e+001 1.132487e+002 9.863574e+001 8.606996e+001 5.793133e+001 7.073618e+001 1.985207e+002 1.045627e+002 1.182443e+002 2.610921e+000 5.000000e+000 2.802970e+000 5.852253e+000 3.526003e+000 5.998756e+000 3.454454e+000 1.981172e+000 1.958022e+002
<VARIANCE> 23
 2.340235e+002 4.278434e+000 2.255194e+001 2.164982e+000 5.338571e+003 6.603998e+002 8.996926e+002 2.378587e+002 3.377942e+002 6.022084e+001 4.196688e+003 4.377404e+002 3.404433e+002 1.454492e+002 4.294599e+000 1.793315e-002 8.724845e+000 1.259161e-001 1.858206e+000 5.618803e-002 6.254894e+000 5.887214e+000 1.708964e+003
<GCONST> 1.218925e+002
<MIXTURE> 2 2.642872e-001
<MEAN> 23
 5.631731e+000 8.135938e+000 1.798914e+000 2.214514e+000 6.087696e+001 3.498076e+001 9.243484e+001 5.373977e+001 8.102545e+001 6.078027e+001 8.687471e+001 1.256546e+002 1.030883e+002 1.058687e+002 3.422792e+000 3.890805e+000 3.642902e+000 5.734992e+000 4.025438e+000 4.405812e+000 2.773299e+000 2.892014e+000 1.122468e+002
<VARIANCE> 23
 8.068355e+001 1.482060e+002 1.015756e+001 1.213104e+001 2.689274e+003 1.721713e+003 1.506169e+003 8.637484e+002 5.091153e+002 8.955318e+001 4.368869e+003 1.599482e+003 1.654065e+002 1.089118e+002 6.054029e+000 1.466418e+000 8.677657e+000 3.182894e-001 1.836216e+000 8.510240e+000 5.945114e+000 6.623642e+000 2.398682e+003
<GCONST> 1.395915e+002
<TRANSP> 5
 0.000000e+000 1.000000e+000 0.000000e+000 0.000000e+000 0.000000e+000
 0.000000e+000 7.721150e-001 2.278850e-001 0.000000e+000 0.000000e+000
 0.000000e+000 0.000000e+000 9.579800e-001 4.201998e-002 0.000000e+000
 0.000000e+000 0.000000e+000 0.000000e+000 9.249336e-001 7.506637e-002
 0.000000e+000 0.000000e+000 0.000000e+000 0.000000e+000 0.000000e+000
<ENDHMM>
~h "BS"
<BEGINHMM>
<NUMSTATES> 5
<STATE> 2
<NUMMIXES> 2
<MIXTURE> 1 4.844481e-001
<MEAN> 23
 1.280354e+001 1.245419e+001 5.018399e+000 4.457739e+000 2.387297e+001 2.375381e+001 8.215005e+001 8.066803e+001 6.348558e+001 5.933440e+001 1.810351e+002 1.794473e+002 1.144589e+002 1.137707e+002 6.963790e+000 5.000656e+000 6.076119e+000 5.906861e+000 5.885643e+000 6.079178e+000 2.874985e+000 1.899037e+000 1.067724e+002
<VARIANCE> 23
 1.402206e+003 1.062516e+003 1.220530e+003 7.989702e+002 4.395179e+002 4.052963e+002 5.645281e+002 4.770061e+002 8.440918e+001 6.730530e+001 6.939163e+002 6.766625e+002 1.675780e+002 1.462075e+002 1.416818e-001 5.768817e-002 7.032505e-002 8.446461e-002 1.268131e-001 1.320772e-001 2.985806e+000 3.773148e+000 8.796943e+002
<GCONST> 1.218595e+002
<MIXTURE> 2 5.155504e-001
<MEAN> 23
 2.316262e+001 2.279530e+001 4.057254e+000 4.302177e+000 1.656373e+002 1.533421e+002 6.495177e+001 6.353138e+001 7.313220e+001 7.012389e+001 1.043472e+002 9.921169e+001 1.097063e+002 1.087317e+002 2.221932e+000 2.895785e+000 5.792099e+000 5.561516e+000 3.878470e+000 2.364502e+000 2.416999e+000 2.616106e+000 8.435976e+001
<VARIANCE> 23
 5.714366e+002 4.954623e+002 4.112022e+001 3.609472e+001 2.125688e+004 9.476320e+003 1.510434e+003 1.436526e+003 2.895236e+002 3.342049e+002 2.674089e+003 2.118756e+003 4.699146e+002 4.132239e+002 4.507414e+000 2.051677e+000 2.456732e+000 1.081664e+000 2.661870e+000 7.124409e+000 4.777073e+000 4.380181e+000 5.998107e+003
<GCONST> 1.529295e+002
<STATE> 3
<NUMMIXES> 2
<MIXTURE> 1 4.504872e-001
<MEAN> 23
 1.307144e+001 1.332353e+001 3.266139e+000 3.147101e+000 1.288153e+002 1.198356e+002 1.468490e+002 1.421421e+002 8.804867e+001 7.768076e+001 1.584568e+002 1.657209e+002 1.161323e+002 1.149565e+002 3.805307e-001 3.781796e+000 4.742018e+000 4.760000e+000 1.938807e+000 3.958351e+000 3.074189e+000 3.968921e+000 2.710826e+002
<VARIANCE> 23
 3.349496e+002 3.539105e+002 1.595104e+001 1.618374e+001 1.529332e+003 1.688126e+003 9.125723e+002 7.994788e+002 1.742295e+002 2.411344e+002 1.817270e+003 1.094581e+003 1.617099e+002 1.227208e+002 3.055755e-001 3.179934e-001 1.058546e+001 2.350798e-001 7.061966e+000 7.782058e-001 6.500829e+000 5.863053e+000 3.071780e+003
<GCONST> 1.347715e+002
<MIXTURE> 2 5.495120e-001
<MEAN> 23
 2.047086e+001 2.124656e+001 3.299523e+000 3.237523e+000 8.340667e+001 8.489804e+001 4.401621e+001 4.461301e+001 6.293254e+001 5.895104e+001 1.002532e+002 9.875562e+001 9.879450e+001 9.968380e+001 2.564126e+000 3.165663e+000 6.158310e+000 5.768634e+000 4.333833e+000 3.085313e+000 2.742608e+000 2.738419e+000 6.005175e+001
<VARIANCE> 23
 3.012224e+002 3.261501e+002 1.486420e+001 1.465517e+001 1.139047e+003 9.664727e+002 5.687345e+002 5.440867e+002 8.600574e+001 8.542119e+001 8.347667e+002 7.232314e+002 7.182738e+001 6.560004e+001 5.707694e+000 2.609303e+000 3.105676e-001 3.179266e-001 1.811085e+000 9.167628e+000 5.128559e+000 4.458981e+000 2.060747e+003
<GCONST> 1.303308e+002
<STATE> 4
<NUMMIXES> 2
<MIXTURE> 1 4.491441e-001
<MEAN> 23
 9.129644e+000 8.753917e+000 2.497941e+000 2.137873e+000 3.353819e+001 3.490697e+001 1.025273e+002 9.977747e+001 6.527160e+001 6.010350e+001 1.943575e+002 1.919216e+002 1.154596e+002 1.147671e+002 6.925580e+000 4.945901e+000 6.429184e+000 5.530521e+000 6.044858e+000 5.850679e+000 3.859656e+000 3.642407e+000 1.476587e+002
<VARIANCE> 23
 8.269518e+001 7.893636e+001 7.334642e+000 5.509005e+000 1.077236e+003 8.487740e+002 5.711893e+002 4.119011e+002 1.029899e+002 8.783775e+001 7.481082e+002 6.384929e+002 1.875296e+002 1.443340e+002 2.926950e-001 1.285348e-001 2.838365e-001 2.497022e-001 1.718740e-001 2.846992e-001 4.476120e+000 8.344981e+000 1.894233e+003
<GCONST> 1.154639e+002
<MIXTURE> 2 5.508550e-001
<MEAN> 23
 6.372387e+000 6.068071e+000 1.734115e+000 1.617284e+000 8.856026e+001 8.737238e+001 1.147671e+002 1.160538e+002 6.746218e+001 6.295247e+001 1.551604e+002 1.543659e+002 1.046953e+002 1.042930e+002 7.985248e-003 4.010247e+000 6.996723e+000 5.001924e+000 3.582974e+000 4.356472e+000 3.013583e+000 3.771587e+000 2.277324e+002
<VARIANCE> 23
 6.707462e+001 6.125322e+001 5.949110e+000 5.045640e+000 6.683120e+002 6.610369e+002 5.228369e+002 4.651237e+002 8.371413e+001 1.157229e+002 3.821831e+002 4.026290e+002 6.951126e+001 7.545629e+001 6.504287e-002 1.793315e-002 2.326111e-002 1.170389e-002 1.188697e+001 2.918719e-001 6.426454e+000 7.396940e+000 1.704638e+003
<GCONST> 1.066654e+002
<TRANSP> 5
 0.000000e+000 1.000000e+000 0.000000e+000 0.000000e+000 0.000000e+000
 0.000000e+000 7.885932e-001 2.114069e-001 0.000000e+000 0.000000e+000
 0.000000e+000 0.000000e+000 9.257005e-001 7.429948e-002 0.000000e+000
 0.000000e+000 0.000000e+000 0.000000e+000 9.462231e-001 5.377686e-002
 0.000000e+000 0.000000e+000 0.000000e+000 0.000000e+000 0.000000e+000
<ENDHMM>
~h "CF"
<BEGINHMM>
<NUMSTATES> 5
<STATE> 2
<NUMMIXES> 2
<MIXTURE> 1 3.682952e-001
<MEAN> 23
 1.398934e+001 3.547672e+000 6.671600e+000 2.383670e+000 1.930592e+002 1.588684e+001 1.317029e+002 1.092487e+002 1.085188e+002 6.380758e+001 3.712846e+001 2.070005e+002 9.891898e+001 1.221601e+002 1.923286e+000 4.996564e+000 1.939597e+000 5.648316e+000 3.006168e+000 5.988887e+000 3.345989e+000 2.321580e+000 2.298572e+002
<VARIANCE> 23
 1.083821e+003 6.582941e+002 8.418025e+002 4.845760e+002 2.932173e+003 3.892363e+002 6.841304e+002 1.578576e+002 4.627327e+002 4.724985e+001 3.939395e+002 2.486655e+002 2.652621e+002 7.599566e+001 1.498622e-001 1.793315e-002 3.948989e+000 2.280038e-001 1.257595e-001 5.618803e-002 6.465042e+000 5.733316e+000 7.862670e+002
<GCONST> 1.249052e+002
<MIXTURE> 2 6.317047e-001
<MEAN> 23
 9.783612e+000 7.196537e+000 2.888963e+000 2.433260e+000 6.889700e+001 7.697285e+001 7.719232e+001 7.236255e+001 7.499976e+001 6.523644e+001 1.107386e+002 1.154979e+002 1.001666e+002 1.047711e+002 3.309886e+000 3.455051e+000 5.272048e+000 5.135228e+000 4.334405e+000 3.740129e+000 3.098190e+000 2.654742e+000 1.163015e+002
<VARIANCE> 23
 2.726117e+002 1.228595e+002 1.927744e+001 1.643869e+001 6.904523e+003 6.706177e+003 1.875222e+003 1.626082e+003 5.408572e+002 4.917251e+002 3.950468e+003 4.006849e+003 6.244535e+002 5.177486e+002 7.251984e+000 2.420771e+000 4.252185e+000 1.851917e+000 2.507334e+000 7.579440e+000 6.312250e+000 5.645387e+000 3.855959e+003
<GCONST> 1.524891e+002
<STATE> 3
<NUMMIXES> 2
<MIXTURE> 1 3.769853e-001
<MEAN> 23
 2.684948e+000 2.257014e+001 9.312991e-001 5.733090e+000 1.324923e+001 1.207301e+002 9.883098e+001 9.116324e+001 6.270214e+001 8.471987e+001 1.955405e+002 9.531839e+001 1.177097e+002 1.038121e+002 6.925198e+000 3.290339e+000 6.245346e+000 4.803433e+000 5.956200e+000 3.096912e+000 2.065442e+000 3.655217e+000 1.716012e+002
<VARIANCE> 23
 2.561201e+001 4.815079e+002 3.300596e+000 4.284433e+001 3.893387e+002 6.138452e+003 5.133502e+002 1.972084e+003 1.099256e+002 5.285114e+002 1.035678e+003 3.240742e+003 2.821800e+002 2.724395e+002 3.763804e-001 1.469438e+000 2.530861e-001 1.715259e+000 1.099031e-001 7.430520e+000 6.119880e+000 5.137486e+000 3.983688e+003
<GCONST> 1.325124e+002
<MIXTURE> 2 6.230152e-001
<MEAN> 23
 9.279917e-001 5.989450e+000 4.580127e-001 2.910642e+000 5.856246e+000 1.950227e+002 9.014925e+001 1.295633e+002 5.714518e+001 1.022263e+002 1.858133e+002 3.100181e+001 1.109275e+002 8.323601e+001 7.000000e+000 2.000000e+000 6.006179e+000 2.896620e+000 5.999975e+000 9.954592e-001 1.407818e+000 2.516092e+000 2.099584e+002
<VARIANCE> 23
 4.801632e+000 8.140256e+001 3.300596e+000 1.678345e+001 4.956259e+001 8.704894e+002 1.829880e+002 3.836849e+002 4.984918e+001 3.881028e+002 3.559853e+002 1.441777e+002 1.021525e+002 2.339354e+002 6.504287e-002 1.793315e-002 2.326111e-002 1.153605e+000 2.082488e-002 5.618803e-002 5.120794e+000 5.753358e+000 7.445146e+002
<GCONST> 9.775656e+001
<STATE> 4
<NUMMIXES> 2
<MIXTURE> 1 4.823555e-001
<MEAN> 23
 5.920500e+000 7.639890e+000 2.120616e+000 2.662186e+000 2.291937e+001 2.463013e+001 9.506248e+001 9.585176e+001 6.314236e+001 6.149367e+001 1.939844e+002 1.928170e+002 1.174201e+002 1.157624e+002 6.978491e+000 4.997327e+000 6.154156e+000 5.698360e+000 5.957740e+000 5.981673e+000 3.095544e+000 3.220256e+000 1.318101e+002
<VARIANCE> 23
 7.446285e+001 1.024755e+002 9.255439e+000 1.114153e+001 5.675081e+002 5.044855e+002 4.255302e+002 3.547529e+002 9.380294e+001 1.106521e+002 6.053250e+002 5.414656e+002 1.799134e+002 1.316849e+002 6.504287e-002 1.793315e-002 1.303910e-001 2.106551e-001 4.236865e-002 5.618803e-002 6.375729e+000 6.284184e+000 8.231200e+002
<GCONST> 1.063717e+002
<MIXTURE> 2 5.176434e-001
<MEAN> 23
 1.033992e+001 1.599155e+000 3.649657e+000 7.984735e-001 1.550752e+002 3.086923e+001 1.144935e+002 8.878053e+001 9.078452e+001 5.453354e+001 4.174571e+001 1.819000e+002 8.000879e+001 1.088441e+002 1.875776e+000 4.939803e+000 2.812575e+000 5.693265e+000 3.117056e+000 5.950843e+000 3.011713e+000 1.976968e+000 1.920804e+002
<VARIANCE> 23
 1.979983e+002 9.051440e+000 2.481027e+001 2.164982e+000 3.666717e+003 1.404396e+003 1.451253e+003 2.729797e+002 3.560420e+002 7.083007e+001 8.435536e+002 4.772808e+002 4.015324e+002 8.543485e+001 5.207890e-001 1.321671e-001 5.059469e+000 2.426568e-001 4.459248e-001 3.324126e-001 5.865604e+000 5.526121e+000 1.762566e+003
<GCONST> 1.221473e+002
<TRANSP> 5
 0.000000e+000 1.000000e+000 0.000000e+000 0.000000e+000 0.000000e+000
 0.000000e+000 8.816709e-001 1.183291e-001 0.000000e+000 0.000000e+000
 0.000000e+000 0.000000e+000 9.511227e-001 4.887733e-002 0.000000e+000
 0.000000e+000 0.000000e+000 0.000000e+000 9.145634e-001 8.543655e-002
 0.000000e+000 0.000000e+000 0.000000e+000 0.000000e+000 0.000000e+000
<ENDHMM>
~h "CN"
<BEGINHMM>
<NUMSTATES> 5
<STATE> 2
<NUMMIXES> 2
<MIXTURE> 1 4.112580e-001
<MEAN> 23
 8.705960e+000 8.181765e+000 2.880300e+000 2.758138e+000 2.121448e+001 2.365310e+001 9.291872e+001 8.882101e+001 6.389821e+001 5.945348e+001 1.921398e+002 1.886588e+002 1.189745e+002 1.170855e+002 6.999119e+000 5.000000e+000 6.132527e+000 5.934082e+000 5.999253e+000 6.015210e+000 2.756660e+000 1.962056e+000 1.170471e+002
<VARIANCE> 23
 5.295213e+002 4.147108e+002 3.710649e+002 2.728704e+002 3.556399e+002 5.106308e+002 5.960825e+002 3.975950e+002 9.213117e+001 6.774042e+001 8.139460e+002 6.522391e+002 2.503738e+002 1.903496e+002 6.504287e-002 1.793315e-002 1.149634e-001 6.157296e-002 2.082488e-002 5.618803e-002 3.250676e+000 3.991025e+000 7.119282e+002
<GCONST> 1.139502e+002
<MIXTURE> 2 5.887415e-001
<MEAN> 23
 2.010043e+001 1.999356e+001 2.512409e+000 2.764257e+000 9.618931e+001 9.046405e+001 4.377617e+001 4.586523e+001 6.550816e+001 6.167825e+001 9.968507e+001 9.894748e+001 1.056250e+002 1.044576e+002 3.026104e+000 3.319534e+000 6.020917e+000 5.890139e+000 4.290359e+000 3.052191e+000 2.671941e+000 2.083865e+000 5.434484e+001
<VARIANCE> 23
 3.277751e+002 3.088311e+002 8.885480e+000 1.048329e+001 3.032555e+003 2.608029e+003 4.515896e+002 6.287121e+002 1.266349e+002 1.115851e+002 1.427964e+003 1.669064e+003 1.682206e+002 1.392684e+002 6.030963e+000 2.167325e+000 1.976049e-001 4.383366e-001 7.592582e-001 9.779470e+000 2.417685e+000 3.267818e+000 1.643661e+003
<GCONST> 1.326729e+002
<STATE> 3
<NUMMIXES> 2
<MIXTURE> 1 4.391434e-001
<MEAN> 23
 8.732143e+000 8.427020e+000 1.111967e+000 9.956936e-001 1.657129e+002 1.592742e+002 8.604508e+001 8.231825e+001 6.811559e+001 6.592947e+001 3.683710e+001 4.252787e+001 1.066560e+002 1.081569e+002 2.036344e+000 1.839662e+000 5.548969e+000 5.835196e+000 3.068919e+000 8.386037e-001 2.951912e+000 2.866374e+000 3.081572e+001
<VARIANCE> 23
 1.483702e+002 1.757660e+002 3.300596e+000 2.164982e+000 2.024862e+003 1.820618e+003 4.231256e+002 5.597157e+002 1.518565e+002 1.581864e+002 3.069091e+002 5.502552e+002 2.198044e+002 1.774499e+002 8.856715e-002 2.161993e-001 1.622903e+000 1.224882e+000 9.871962e-002 2.161009e-001 5.965680e+000 6.009650e+000 4.437633e+002
<GCONST> 1.171556e+002
<MIXTURE> 2 5.608574e-001
<MEAN> 23
 6.477068e+000 7.611641e+000 1.251458e+000 1.000702e+000 1.332825e+002 1.274298e+002 6.167261e+001 5.993161e+001 6.537191e+001 6.255690e+001 4.511064e+001 4.692894e+001 1.012031e+002 1.019886e+002 2.006014e+000 2.000001e+000 6.000000e+000 6.000000e+000 3.236893e+000 7.535914e-001 3.369541e+000 3.299609e+000 1.004000e+001
<VARIANCE> 23
 6.359965e+001 9.524178e+001 3.724516e+000 2.164982e+000 1.180661e+003 9.434307e+002 2.986233e+002 3.381776e+002 5.968485e+001 6.662580e+001 2.386835e+002 2.911026e+002 6.254950e+001 6.394441e+001 6.504287e-002 1.793315e-002 2.326111e-002 1.170389e-002 1.807790e-001 1.856867e-001 5.997308e+000 5.975669e+000 7.359282e+001
<GCONST> 9.576537e+001
<STATE> 4
<NUMMIXES> 2
<MIXTURE> 1 3.875974e-001
<MEAN> 23
 1.057362e+001 9.619840e+000 3.181808e+000 2.754092e+000 3.826873e+001 3.075924e+001 9.931400e+001 9.544978e+001 6.504258e+001 6.060424e+001 1.954108e+002 1.929426e+002 1.163499e+002 1.154647e+002 6.990266e+000 4.999485e+000 6.279690e+000 5.778739e+000 6.013467e+000 5.978820e+000 3.789538e+000 3.701596e+000 1.309691e+002
<VARIANCE> 23
 1.186874e+002 9.734801e+001 8.612922e+000 7.200169e+000 6.743047e+003 4.175116e+003 4.307981e+002 3.458594e+002 9.314211e+001 6.447463e+001 5.001725e+002 4.625759e+002 1.479373e+002 1.169797e+002 6.504287e-002 1.793315e-002 2.014608e-001 1.723025e-001 2.082488e-002 5.618803e-002 7.968605e+000 4.568027e+000 1.269833e+003
<GCONST> 1.095052e+002
<MIXTURE> 2 6.124029e-001
<MEAN> 23
 1.660919e+001 1.585852e+001 2.162177e+000 2.477294e+000 9.449821e+001 9.359046e+001 5.602247e+001 5.442212e+001 6.766646e+001 6.635371e+001 1.148470e+002 1.073484e+002 1.053350e+002 1.067823e+002 3.555414e+000 3.205403e+000 5.967562e+000 5.941288e+000 4.413897e+000 2.966604e+000 4.146935e+000 4.045407e+000 7.205122e+001
<VARIANCE> 23
 4.085073e+002 3.485600e+002 1.029801e+001 1.601671e+001 2.881513e+003 2.467517e+003 1.313513e+003 1.341454e+003 2.213429e+002 1.848654e+002 1.794784e+003 2.030161e+003 3.464589e+002 1.975416e+002 5.637017e+000 3.680711e+000 5.665753e-001 4.069343e-001 1.450163e+000 9.305420e+000 6.925216e+000 5.318311e+000 4.674099e+003
<GCONST> 1.424873e+002
<TRANSP> 5
 0.000000e+000 1.000000e+000 0.000000e+000 0.000000e+000 0.000000e+000
 0.000000e+000 8.431370e-001 1.568630e-001 0.000000e+000 0.000000e+000
 0.000000e+000 0.000000e+000 9.630578e-001 3.694219e-002 0.000000e+000
 0.000000e+000 0.000000e+000 0.000000e+000 9.212910e-001 7.870906e-002
 0.000000e+000 0.000000e+000 0.000000e+000 0.000000e+000 0.000000e+000
<ENDHMM>
~h "CP"
<BEGINHMM>
<NUMSTATES> 5
<STATE> 2
<NUMMIXES> 2
<MIXTURE> 1 8.517238e-001
<MEAN> 23
 1.291007e+001 1.072282e+001 3.633824e+000 3.134643e+000 5.463253e+001 5.116915e+001 1.083769e+002 1.099366e+002 7.666154e+001 7.004132e+001 1.907364e+002 1.937190e+002 1.272287e+002 1.235328e+002 4.399863e+000 4.640367e+000 6.703690e+000 5.427910e+000 5.645163e+000 5.492154e+000 3.283744e+000 3.220980e+000 1.820372e+002
<VARIANCE> 23
 4.826446e+002 3.195455e+002 3.022495e+002 1.746137e+002 1.504419e+003 1.285000e+003 1.066581e+003 1.022868e+003 1.632041e+002 1.571862e+002 1.834729e+003 1.008876e+003 3.571057e+002 2.072452e+002 1.108289e+001 2.833773e-001 2.110355e-001 2.448025e-001 2.980607e+000 7.293019e-001 5.462482e+000 5.532396e+000 4.025752e+003
<GCONST> 1.399309e+002
<MIXTURE> 2 1.482765e-001
<MEAN> 23
 6.813224e+000 4.035071e+000 1.022628e+000 1.066087e+000 3.166864e+002 2.329997e+002 5.822051e+001 4.871479e+001 3.518902e+001 3.280557e+001 5.031282e+001 6.426469e+001 5.228342e+001 5.397918e+001 9.839223e-001 1.645521e+000 1.354549e+000 2.608282e+000 1.192708e+000 1.500373e+000 1.469616e+000 1.573458e+000 8.586736e+001
<VARIANCE> 23
 4.036460e+002 7.334609e+001 4.245759e+000 4.844695e+000 3.142388e+004 2.029370e+004 4.846258e+003 3.723043e+003 1.494258e+003 1.250080e+003 4.236953e+003 5.681817e+003 3.098097e+003 3.144127e+003 2.419999e+000 3.576122e+000 5.925249e+000 7.485094e+000 2.691787e+000 4.955439e+000 5.465289e+000 5.716866e+000 1.362090e+004
<GCONST> 1.616032e+002
<STATE> 3
<NUMMIXES> 2
<MIXTURE> 1 5.360108e-001
<MEAN> 23
 1.104012e+001 1.127104e+001 2.615477e+000 2.955903e+000 5.399076e+001 4.606833e+001 8.141077e+001 8.602908e+001 7.269405e+001 6.884889e+001 1.673719e+002 1.710002e+002 1.150752e+002 1.151298e+002 4.604200e+000 4.583487e+000 6.541923e+000 5.309792e+000 5.958677e+000 5.827433e+000 3.674405e+000 3.491047e+000 1.419171e+002
<VARIANCE> 23
 9.664493e+001 1.076313e+002 8.266074e+000 1.069992e+001 1.097919e+003 6.583431e+002 3.857964e+002 4.021575e+002 1.433633e+002 1.471250e+002 5.645757e+002 6.239236e+002 1.090006e+002 1.033950e+002 1.098609e+001 2.536394e-001 2.482418e-001 2.138164e-001 2.178639e-001 2.788025e-001 5.153928e+000 4.912521e+000 1.077753e+003
<GCONST> 1.190069e+002
<MIXTURE> 2 4.639901e-001
<MEAN> 23
 1.097409e+001 1.155109e+001 3.344643e+000 3.135516e+000 6.849969e+001 5.985366e+001 5.521863e+001 5.795052e+001 7.102905e+001 6.675838e+001 1.101128e+002 1.113192e+002 1.022243e+002 1.020681e+002 3.986346e-001 3.645612e+000 6.738264e+000 5.231316e+000 4.972998e+000 4.507156e+000 3.289881e+000 3.031888e+000 1.050578e+002
<VARIANCE> 23
 1.285357e+002 1.178771e+002 1.790151e+001 1.446303e+001 8.614548e+002 1.003819e+003 2.689115e+002 3.214300e+002 1.125157e+002 1.705913e+002 3.478558e+002 3.566782e+002 1.006446e+002 9.860248e+001 8.221766e-001 5.801878e-001 2.966152e-001 2.094584e-001 2.205277e+000 6.610497e+000 5.141633e+000 4.987365e+000 1.130999e+003
<GCONST> 1.227204e+002
<STATE> 4
<NUMMIXES> 2
<MIXTURE> 1 6.640126e-001
<MEAN> 23
 7.123379e+000 6.981431e+000 1.897377e+000 2.026911e+000 3.046658e+001 2.916342e+001 8.650127e+001 8.706902e+001 6.336228e+001 6.036608e+001 1.794333e+002 1.803607e+002 1.129004e+002 1.127811e+002 6.995891e+000 4.999273e+000 6.243071e+000 5.666100e+000 5.998493e+000 5.985904e+000 3.890025e+000 3.703655e+000 1.265100e+002
<VARIANCE> 23
 4.935421e+001 4.750467e+001 4.330555e+000 4.799970e+000 6.578769e+002 4.903642e+002 3.397002e+002 3.028180e+002 7.977478e+001 8.576808e+001 5.226735e+002 4.975735e+002 1.265441e+002 1.171076e+002 6.504287e-002 1.793315e-002 1.839937e-001 2.224065e-001 2.082488e-002 5.618803e-002 5.583134e+000 5.780180e+000 5.868055e+002
<GCONST> 1.013422e+002
<MIXTURE> 2 3.359870e-001
<MEAN> 23
 7.237669e+000 7.322819e+000 1.261399e+000 1.169011e+000 4.909647e+001 4.553286e+001 6.025840e+001 6.185641e+001 6.106142e+001 5.896074e+001 1.354280e+002 1.369353e+002 9.941032e+001 9.868846e+001 2.712165e+000 4.376795e+000 6.586054e+000 5.364915e+000 5.911522e+000 5.936089e+000 3.303290e+000 3.107217e+000 1.112188e+002
<VARIANCE> 23
 5.111609e+001 4.753502e+001 3.300596e+000 2.190033e+000 4.343026e+002 3.520342e+002 2.696628e+002 3.545897e+002 6.511768e+001 9.043345e+001 2.658110e+002 3.109732e+002 5.087493e+001 6.232507e+001 1.132838e+001 3.531161e-001 3.028932e-001 2.565348e-001 4.234888e-001 5.445917e-001 5.218153e+000 5.114233e+000 1.248639e+003
<GCONST> 1.112939e+002
<TRANSP> 5
 0.000000e+000 1.000000e+000 0.000000e+000 0.000000e+000 0.000000e+000
 0.000000e+000 7.990376e-001 2.009624e-001 0.000000e+000 0.000000e+000
 0.000000e+000 0.000000e+000 9.084681e-001 9.153188e-002 0.000000e+000
 0.000000e+000 0.000000e+000 0.000000e+000 9.480985e-001 5.190150e-002
 0.000000e+000 0.000000e+000 0.000000e+000 0.000000e+000 0.000000e+000
<ENDHMM>
~h "CV"
<BEGINHMM>
<NUMSTATES> 5
<STATE> 2
<NUMMIXES> 2
<MIXTURE> 1 4.019244e-001
<MEAN> 23
 8.920785e+000 9.623440e+000 3.151980e+000 2.973929e+000 2.046534e+001 2.144695e+001 9.028650e+001 8.593844e+001 6.240761e+001 5.809690e+001 1.868119e+002 1.832902e+002 1.154941e+002 1.151224e+002 6.987735e+000 4.993867e+000 6.146345e+000 5.907031e+000 5.993846e+000 6.010733e+000 2.742589e+000 2.273613e+000 1.167853e+002
<VARIANCE> 23
 5.384428e+002 4.738531e+002 5.216736e+002 3.240092e+002 3.743392e+002 3.690343e+002 4.898853e+002 4.391240e+002 7.407661e+001 5.548059e+001 6.634421e+002 6.722687e+002 1.612513e+002 1.391317e+002 6.504287e-002 2.040507e-002 1.249277e-001 8.637026e-002 2.082488e-002 8.829258e-002 3.269886e+000 4.068641e+000 6.080897e+002
<GCONST> 1.137671e+002
<MIXTURE> 2 5.980760e-001
<MEAN> 23
 1.930111e+001 1.888108e+001 3.341968e+000 3.147360e+000 1.016182e+002 9.559525e+001 6.676360e+001 6.721928e+001 6.908195e+001 6.046329e+001 1.046492e+002 1.136503e+002 1.097791e+002 1.079978e+002 2.440994e+000 3.547729e+000 6.022809e+000 5.393719e+000 4.146573e+000 3.558077e+000 2.733791e+000 2.625699e+000 1.061921e+002
<VARIANCE> 23
 4.489722e+002 4.075847e+002 1.506123e+001 1.312201e+001 8.504541e+003 5.879341e+003 1.047068e+003 1.010294e+003 2.311229e+002 1.296706e+002 3.120163e+003 2.650771e+003 3.890802e+002 3.321993e+002 6.839244e+000 1.389550e+000 2.713146e+000 7.116688e-001 2.138628e+000 6.930587e+000 4.013147e+000 3.944453e+000 3.582770e+003
<GCONST> 1.458313e+002
<STATE> 3
<NUMMIXES> 2
<MIXTURE> 1 3.899845e-001
<MEAN> 23
 8.976454e+000 8.894533e+000 2.675217e+000 2.939124e+000 1.676543e+002 1.624555e+002 9.957276e+001 9.840446e+001 7.233542e+001 6.909007e+001 4.803251e+001 5.288430e+001 1.132683e+002 1.132285e+002 1.677993e+000 2.423827e+000 4.487337e+000 4.785649e+000 2.653796e+000 1.494870e+000 3.397361e+000 3.298443e+000 7.403793e+001
<VARIANCE> 23
 1.475819e+002 1.407056e+002 1.530378e+001 2.047089e+001 1.832631e+003 1.471471e+003 5.412777e+002 6.755391e+002 1.365890e+002 1.020871e+002 4.993807e+002 4.860706e+002 2.960411e+002 1.966837e+002 3.822126e-001 3.088143e-001 1.014450e+001 7.373641e-001 3.629652e-001 4.532042e-001 5.525522e+000 5.713737e+000 1.143066e+003
<GCONST> 1.270552e+002
<MIXTURE> 2 6.100160e-001
<MEAN> 23
 5.966965e+000 6.421513e+000 1.261708e+000 1.330405e+000 1.205840e+002 1.215961e+002 6.964342e+001 6.986908e+001 6.076622e+001 5.758508e+001 5.228794e+001 5.261362e+001 9.880752e+001 9.954531e+001 1.342574e+000 2.560052e+000 6.892572e+000 5.172192e+000 2.869842e+000 1.212786e+000 3.488683e+000 3.356331e+000 5.815371e+001
<VARIANCE> 23
 5.806463e+001 5.818409e+001 3.300596e+000 2.671937e+000 1.246598e+003 8.852157e+002 2.342246e+002 2.765383e+002 3.282193e+001 4.435706e+001 1.996106e+002 2.164661e+002 6.005003e+001 6.324522e+001 2.361787e-001 2.969036e-001 9.596898e-002 2.640687e-001 2.307709e-001 2.860066e-001 5.611527e+000 5.960653e+000 3.171265e+002
<GCONST> 1.039837e+002
<STATE> 4
<NUMMIXES> 2
<MIXTURE> 1 4.859074e-001
<MEAN> 23
 1.068614e+001 9.644151e+000 3.066589e+000 2.612773e+000 2.296040e+001 2.310056e+001 9.474648e+001 9.244420e+001 6.401825e+001 5.841097e+001 1.911114e+002 1.904036e+002 1.154869e+002 1.146790e+002 6.993729e+000 5.000720e+000 6.222611e+000 5.833513e+000 6.020063e+000 5.991802e+000 4.235487e+000 4.050920e+000 1.282204e+002
<VARIANCE> 23
 1.099307e+002 1.018876e+002 9.645143e+000 7.352638e+000 4.824856e+002 4.539048e+002 4.395808e+002 3.379044e+002 8.833743e+001 6.620961e+001 6.474673e+002 5.735715e+002 1.752880e+002 1.410689e+002 6.504287e-002 1.793315e-002 1.730579e-001 1.387715e-001 2.082488e-002 5.618803e-002 6.761096e+000 5.024296e+000 9.222209e+002
<GCONST> 1.047952e+002
<MIXTURE> 2 5.140936e-001
<MEAN> 23
 1.571620e+001 1.576720e+001 2.633320e+000 3.013518e+000 7.770994e+001 6.820437e+001 4.418364e+001 4.957583e+001 6.495995e+001 5.992001e+001 1.049312e+002 1.131578e+002 1.036730e+002 1.041072e+002 2.499673e+000 3.533849e+000 6.133958e+000 5.774603e+000 4.439149e+000 3.452227e+000 4.313654e+000 4.240683e+000 6.726274e+001
<VARIANCE> 23
 2.755850e+002 2.564959e+002 1.576658e+001 1.646194e+001 1.383225e+003 1.404736e+003 5.067061e+002 6.753486e+002 1.046609e+002 8.994918e+001 1.235091e+003 1.631693e+003 1.462224e+002 1.149771e+002 6.363390e+000 2.007589e+000 2.168574e-001 2.454581e-001 9.384794e-001 9.557660e+000 5.830550e+000 5.567701e+000 2.212774e+003
<GCONST> 1.326055e+002
<TRANSP> 5
 0.000000e+000 1.000000e+000 0.000000e+000 0.000000e+000 0.000000e+000
 0.000000e+000 8.459522e-001 1.540478e-001 0.000000e+000 0.000000e+000
 0.000000e+000 0.000000e+000 9.472034e-001 5.279664e-002 0.000000e+000
 0.000000e+000 0.000000e+000 0.000000e+000 9.183714e-001 8.162860e-002
 0.000000e+000 0.000000e+000 0.000000e+000 0.000000e+000 0.000000e+000
<ENDHMM>
~h "DC"
<BEGINHMM>
<NUMSTATES> 5
<STATE> 2
<NUMMIXES> 2
<MIXTURE> 1 4.169954e-001
<MEAN> 23
 9.721403e+000 9.245611e+000 3.801143e+000 3.339118e+000 4.243614e+001 4.018391e+001 9.037072e+001 8.692603e+001 6.354715e+001 5.947228e+001 1.884096e+002 1.855938e+002 1.179377e+002 1.169760e+002 6.976775e+000 4.993350e+000 6.180856e+000 5.861562e+000 5.967614e+000 6.006657e+000 2.482189e+000 2.111279e+000 1.195726e+002
<VARIANCE> 23
 9.030406e+002 6.535320e+002 8.409498e+002 5.180527e+002 1.067586e+004 6.695812e+003 6.734323e+002 4.632242e+002 9.937527e+001 6.134506e+001 8.604203e+002 7.386365e+002 2.300454e+002 1.785365e+002 1.307214e-001 1.793315e-002 1.481462e-001 1.192725e-001 7.891222e-002 1.090655e-001 3.105439e+000 3.493733e+000 9.227980e+002
<GCONST> 1.263448e+002
<MIXTURE> 2 5.830045e-001
<MEAN> 23
 1.397516e+001 1.351870e+001 2.749439e+000 2.895760e+000 1.066246e+002 9.914037e+001 4.567841e+001 4.644958e+001 6.500650e+001 6.157001e+001 1.105036e+002 1.135742e+002 1.045960e+002 1.026681e+002 2.047270e+000 3.463730e+000 6.063207e+000 5.555350e+000 4.504289e+000 4.219248e+000 2.541534e+000 2.011949e+000 7.432658e+001
<VARIANCE> 23
 1.579851e+002 1.374420e+002 1.260098e+001 1.434198e+001 1.065959e+004 7.274042e+003 6.829222e+002 7.494812e+002 2.771853e+002 2.185949e+002 1.278404e+003 1.358352e+003 6.296440e+002 5.220094e+002 7.037437e+000 2.062476e+000 1.481255e+000 1.226537e+000 2.032234e+000 9.301416e+000 2.853577e+000 3.159587e+000 2.627618e+003
<GCONST> 1.431324e+002
<STATE> 3
<NUMMIXES> 2
<MIXTURE> 1 4.898351e-001
<MEAN> 23
 1.384304e+001 1.532669e+001 2.850806e+000 3.225114e+000 1.367097e+002 1.343914e+002 6.686906e+001 6.820771e+001 6.824025e+001 6.534552e+001 5.995996e+001 6.039415e+001 9.860557e+001 9.910329e+001 1.919491e+000 2.215485e+000 5.870656e+000 5.723073e+000 3.412335e+000 8.402889e-001 2.723336e+000 2.681511e+000 3.881203e+001
<VARIANCE> 23
 2.718544e+002 3.487622e+002 2.642357e+001 3.062273e+001 2.324747e+003 1.700324e+003 6.081411e+002 6.303329e+002 1.123181e+002 1.610678e+002 5.266424e+002 5.725237e+002 1.968409e+002 2.086538e+002 5.170779e-001 5.085085e-001 7.905641e-001 7.201743e-001 3.453509e-001 1.039063e+000 5.484946e+000 5.495283e+000 7.543354e+002
<GCONST> 1.286240e+002
<MIXTURE> 2 5.101640e-001
<MEAN> 23
 8.800848e+000 9.043368e+000 1.079929e+000 1.154425e+000 1.114127e+002 1.076079e+002 3.103115e+001 3.367607e+001 6.318132e+001 6.077179e+001 7.985046e+001 8.084627e+001 9.955048e+001 1.002802e+002 2.001953e+000 2.004863e+000 6.000038e+000 6.004853e+000 4.000234e+000 2.790348e-002 2.767069e+000 2.440866e+000 2.476577e+001
<VARIANCE> 23
 1.359630e+002 1.266979e+002 3.300596e+000 2.279307e+000 4.762421e+002 5.206050e+002 1.196598e+002 1.307444e+002 6.833044e+001 8.692519e+001 1.719459e+002 1.809315e+002 9.741145e+001 9.427039e+001 5.987532e-001 8.857405e-001 2.326111e-002 9.660841e-002 2.082488e-002 5.618803e-002 5.403504e+000 5.830542e+000 2.871697e+002
<GCONST> 9.990923e+001
<STATE> 4
<NUMMIXES> 2
<MIXTURE> 1 5.459999e-001
<MEAN> 23
 9.897868e+000 9.113129e+000 3.185853e+000 2.829252e+000 2.244289e+001 2.210130e+001 9.641724e+001 9.394145e+001 6.425863e+001 5.979169e+001 1.913848e+002 1.906697e+002 1.147878e+002 1.147836e+002 6.996803e+000 5.001494e+000 6.308497e+000 5.719994e+000 6.013418e+000 5.996276e+000 4.083444e+000 3.899439e+000 1.318650e+002
<VARIANCE> 23
 8.419610e+001 8.005360e+001 8.501673e+000 7.161418e+000 3.618195e+002 3.729409e+002 3.744939e+002 3.312861e+002 9.071120e+001 7.868867e+001 5.002689e+002 4.590601e+002 1.508141e+002 1.239277e+002 6.504287e-002 1.793315e-002 2.133285e-001 2.015996e-001 2.082488e-002 5.618803e-002 7.152350e+000 4.421193e+000 8.980427e+002
<GCONST> 1.033936e+002
<MIXTURE> 2 4.540003e-001
<MEAN> 23
 1.844213e+001 1.822284e+001 2.891298e+000 2.667194e+000 7.459765e+001 6.670652e+001 3.998161e+001 4.352169e+001 6.644060e+001 6.148066e+001 1.223851e+002 1.272708e+002 1.038130e+002 1.039621e+002 3.542021e+000 4.244052e+000 6.109196e+000 5.811707e+000 4.890474e+000 5.574944e+000 4.279853e+000 4.211535e+000 5.936283e+001
<VARIANCE> 23
 3.624910e+002 3.538408e+002 2.242657e+001 1.720285e+001 1.417263e+003 1.175589e+003 4.938669e+002 4.809450e+002 1.271514e+002 1.225897e+002 7.770886e+002 8.441111e+002 1.622050e+002 1.253967e+002 8.903091e+000 2.138292e+000 1.627450e-001 2.059942e-001 7.071108e-001 5.963968e+000 7.313715e+000 4.747082e+000 1.447497e+003
<GCONST> 1.314757e+002
<TRANSP> 5
 0.000000e+000 1.000000e+000 0.000000e+000 0.000000e+000 0.000000e+000
 0.000000e+000 8.698465e-001 1.301536e-001 0.000000e+000 0.000000e+000
 0.000000e+000 0.000000e+000 9.549950e-001 4.500502e-002 0.000000e+000
 0.000000e+000 0.000000e+000 0.000000e+000 9.087107e-001 9.128928e-002
 0.000000e+000 0.000000e+000 0.000000e+000 0.000000e+000 0.000000e+000
<ENDHMM>
~h "FM"
<BEGINHMM>
<NUMSTATES> 5
<STATE> 2
<NUMMIXES> 2
<MIXTURE> 1 4.377467e-001
<MEAN> 23
 9.381153e+000 3.136817e+000 3.611923e+000 1.719736e+000 6.778288e+001 1.024569e+001 6.837979e+001 1.075203e+002 1.028962e+002 6.090148e+001 1.471062e+002 2.102992e+002 1.206635e+002 1.246849e+002 2.026616e+000 4.994705e+000 6.598707e+000 5.874426e+000 5.299049e+000 5.998951e+000 3.296759e+000 1.954679e+000 1.504187e+002
<VARIANCE> 23
 5.661973e+002 4.865360e+002 4.262851e+002 2.736069e+002 8.058527e+002 1.208187e+002 8.201082e+002 1.356332e+002 3.627234e+002 6.243276e+001 1.116551e+003 2.394420e+002 1.177169e+002 7.326395e+001 9.689807e+000 1.793315e-002 2.402587e-001 1.107717e-001 3.207363e-001 5.618803e-002 6.529230e+000 5.774275e+000 4.726490e+002
<GCONST> 1.215517e+002
<MIXTURE> 2 5.622525e-001
<MEAN> 23
 5.688995e+000 4.215487e+000 1.479149e+000 1.253925e+000 4.808405e+001 2.633979e+001 5.677281e+001 6.191130e+001 7.929836e+001 6.165354e+001 1.279787e+002 1.411221e+002 1.011321e+002 1.015261e+002 2.655108e+000 4.383452e+000 6.438990e+000 5.641958e+000 5.307691e+000 5.797051e+000 2.620128e+000 2.255221e+000 1.034221e+002
<VARIANCE> 23
 5.587981e+001 4.714275e+001 4.612692e+000 5.034689e+000 9.888995e+002 7.720195e+002 4.386823e+002 5.308931e+002 3.969026e+002 2.422968e+002 7.549037e+002 1.080284e+003 1.072406e+002 8.314783e+001 1.067050e+001 6.345288e-001 3.570578e-001 2.637596e-001 4.849789e-001 2.976088e+000 6.153202e+000 5.789579e+000 8.371813e+002
<GCONST> 1.235978e+002
<STATE> 3
<NUMMIXES> 2
<MIXTURE> 1 4.397835e-001
<MEAN> 23
 2.289848e+000 8.761480e+000 8.717302e-001 3.110631e+000 1.554234e+001 5.287807e+001 1.060317e+002 8.227380e+001 6.385852e+001 9.204690e+001 2.072704e+002 1.622150e+002 1.214896e+002 1.168990e+002 6.992521e+000 4.470021e+000 6.121033e+000 5.266277e+000 5.993418e+000 6.312017e+000 2.244523e+000 3.268128e+000 1.503921e+002
<VARIANCE> 23
 1.605405e+001 7.274303e+001 3.300596e+000 1.706475e+001 6.835491e+002 1.025300e+003 2.968342e+002 4.807801e+002 6.377592e+001 5.522059e+002 5.200986e+002 9.601263e+002 2.459161e+002 1.228444e+002 6.504287e-002 2.802065e-001 1.411729e-001 2.202304e-001 3.709804e-002 3.141846e-001 6.329028e+000 5.689740e+000 5.247372e+002
<GCONST> 1.105191e+002
<MIXTURE> 2 5.602165e-001
<MEAN> 23
 7.920603e-001 5.974701e+000 3.405814e-001 1.238568e+000 5.693352e+000 6.177700e+001 8.804057e+001 5.018480e+001 5.300513e+001 8.158381e+001 1.827556e+002 1.200399e+002 1.101085e+002 9.863155e+001 6.961123e+000 4.062324e+000 6.003216e+000 5.424984e+000 5.995370e+000 6.295104e+000 1.343668e+000 3.146224e+000 1.229041e+002
<VARIANCE> 23
 4.801632e+000 3.821899e+001 3.300596e+000 2.164982e+000 4.956259e+001 2.681256e+002 5.724402e+001 2.699990e+002 3.713328e+001 1.358977e+002 1.259198e+002 3.931810e+002 3.776354e+001 4.923780e+001 2.627910e-001 2.767812e-001 2.326111e-002 2.443754e-001 2.082488e-002 2.448938e+000 4.885056e+000 5.854004e+000 2.335760e+002
<GCONST> 9.349466e+001
<STATE> 4
<NUMMIXES> 2
<MIXTURE> 1 8.641015e-001
<MEAN> 23
 5.759992e+000 8.298801e+000 1.492290e+000 2.423363e+000 6.389309e+001 6.943198e+001 7.496274e+001 7.677603e+001 6.974001e+001 7.079134e+001 1.672552e+002 1.539590e+002 1.145256e+002 1.131443e+002 5.360403e+000 3.943843e+000 6.153300e+000 5.589849e+000 5.400401e+000 4.817120e+000 2.554254e+000 3.022076e+000 1.165341e+002
<VARIANCE> 23
 1.035164e+002 2.117183e+002 7.954400e+000 1.540747e+001 1.454755e+004 8.429315e+003 2.067732e+003 1.379850e+003 3.275856e+002 4.468256e+002 2.817739e+003 2.377531e+003 5.141836e+002 2.784375e+002 6.485930e+000 2.506575e+000 4.998469e-001 2.955848e-001 8.894942e-001 5.883693e+000 5.786212e+000 6.336531e+000 3.878046e+003
<GCONST> 1.444428e+002
<MIXTURE> 2 1.358985e-001
<MEAN> 23
 0.000000e+000 0.000000e+000 0.000000e+000 0.000000e+000 4.789706e+002 3.648941e+002 0.000000e+000 0.000000e+000 0.000000e+000 0.000000e+000 0.000000e+000 0.000000e+000 0.000000e+000 0.000000e+000 0.000000e+000 0.000000e+000 0.000000e+000 0.000000e+000 0.000000e+000 0.000000e+000 0.000000e+000 0.000000e+000 0.000000e+000
<VARIANCE> 23
 4.801632e+000 4.063125e+000 3.300596e+000 2.164982e+000 3.044994e+003 4.031176e+002 9.838196e+000 1.115232e+001 2.936353e+000 3.516743e+000 3.745900e+001 4.440890e+001 4.184655e+000 3.870682e+000 6.504287e-002 1.793315e-002 2.326111e-002 1.170389e-002 2.082488e-002 5.618803e-002 6.153807e-002 6.060927e-002 3.735746e+001
<GCONST> 5.477909e+001
<TRANSP> 5
 0.000000e+000 1.000000e+000 0.000000e+000 0.000000e+000 0.000000e+000
 0.000000e+000 9.201303e-001 7.986975e-002 0.000000e+000 0.000000e+000
 0.000000e+000 0.000000e+000 9.542192e-001 4.578081e-002 0.000000e+000
 0.000000e+000 0.000000e+000 0.000000e+000 6.986254e-001 3.013746e-001
 0.000000e+000 0.000000e+000 0.000000e+000 0.000000e+000 0.000000e+000
<ENDHMM>
~h "FN"
<BEGINHMM>
<NUMSTATES> 5
<STATE> 2
<NUMMIXES> 2
<MIXTURE> 1 2.849175e-001
<MEAN> 23
 1.685855e+001 1.749990e+001 1.182686e+001 9.320682e+000 9.932084e+001 8.809312e+001 9.832007e+001 8.879740e+001 6.365127e+001 6.191149e+001 1.954986e+002 1.814842e+002 1.165673e+002 1.151907e+002 6.896211e+000 4.854854e+000 6.179280e+000 5.731032e+000 5.985168e+000 5.956335e+000 3.052161e+000 2.362533e+000 1.294967e+002
<VARIANCE> 23
 4.653467e+003 3.052771e+003 4.023084e+003 2.340809e+003 3.762519e+004 2.262855e+004 4.059899e+002 5.207364e+002 8.669324e+001 8.419808e+001 6.835607e+002 1.297416e+003 2.341666e+002 1.464251e+002 5.439169e-001 2.431295e-001 1.590044e-001 2.381544e-001 2.082488e-002 6.077888e-001 6.880170e+000 5.490163e+000 1.017064e+003
<GCONST> 1.415459e+002
<MIXTURE> 2 7.150824e-001
<MEAN> 23
 7.276433e+000 1.183554e+001 1.834674e+000 3.040931e+000 1.152397e+002 1.621140e+002 8.062370e+001 9.395493e+001 6.686447e+001 6.428358e+001 1.297186e+002 6.368704e+001 9.647637e+001 9.389651e+001 3.853379e+000 2.494656e+000 5.199576e+000 4.165660e+000 4.599554e+000 1.945161e+000 2.350707e+000 2.786622e+000 1.431475e+002
<VARIANCE> 23
 2.051869e+002 2.512083e+002 1.145637e+001 1.910785e+001 2.586444e+004 1.162832e+004 1.997926e+003 1.748365e+003 7.021244e+002 5.504448e+002 6.096231e+003 4.301686e+003 1.778756e+003 1.092140e+003 8.472500e+000 1.806273e+000 5.343818e+000 3.477830e+000 3.316586e+000 4.012342e+000 5.767430e+000 5.479536e+000 5.957290e+003
<GCONST> 1.579091e+002
<STATE> 3
<NUMMIXES> 2
<MIXTURE> 1 4.463385e-001
<MEAN> 23
 2.012998e+000 1.709812e+001 7.023658e-001 3.565141e+000 1.465704e+001 6.992490e+001 9.399628e+001 7.501291e+001 5.956692e+001 6.557767e+001 1.887779e+002 1.313914e+002 1.141112e+002 1.074726e+002 6.882094e+000 4.046605e+000 6.083568e+000 5.520347e+000 5.936296e+000 4.253567e+000 2.030660e+000 3.948690e+000 1.390464e+002
<VARIANCE> 23
 1.316523e+001 2.936849e+002 3.300596e+000 2.022913e+001 8.795590e+002 2.566034e+003 2.774651e+002 1.062443e+003 7.857816e+001 1.685935e+002 8.577500e+002 2.984800e+003 1.339887e+002 1.652930e+002 5.638531e-001 1.159166e+000 3.611817e-001 4.620486e-001 1.800936e-001 6.667308e+000 5.981854e+000 5.287599e+000 1.728424e+003
<GCONST> 1.250850e+002
<MIXTURE> 2 5.536607e-001
<MEAN> 23
 9.240876e-001 9.802080e+000 4.589173e-001 2.655727e+000 5.396990e+000 1.761581e+002 9.113875e+001 1.097219e+002 5.743538e+001 6.827135e+001 1.897857e+002 2.544732e+001 1.121067e+002 9.567399e+001 7.000000e+000 2.000001e+000 6.024432e+000 4.189718e+000 5.999590e+000 1.245909e+000 1.377138e+000 3.115648e+000 1.932470e+002
<VARIANCE> 23
 4.801632e+000 1.392349e+002 3.300596e+000 1.266814e+001 4.956259e+001 9.713627e+002 1.993563e+002 4.927320e+002 4.298150e+001 1.395204e+002 4.269812e+002 1.480637e+002 1.391842e+002 2.380572e+002 6.504287e-002 1.793315e-002 2.383609e-002 1.420551e+000 2.082488e-002 1.985822e-001 4.843404e+000 5.345668e+000 8.889808e+002
<GCONST> 9.936465e+001
<STATE> 4
<NUMMIXES> 2
<MIXTURE> 1 7.307285e-001
<MEAN> 23
 1.135480e+001 1.893200e+000 2.988215e+000 8.537459e-001 1.210042e+002 1.815510e+001 1.061865e+002 9.929044e+001 7.521236e+001 5.764412e+001 9.374619e+001 1.999165e+002 1.057437e+002 1.187569e+002 3.168952e+000 4.998614e+000 4.238434e+000 5.827638e+000 3.883552e+000 5.987421e+000 3.626166e+000 2.048122e+000 1.806395e+002
<VARIANCE> 23
 1.830469e+002 9.561147e+000 1.433668e+001 2.164982e+000 5.708362e+003 7.219747e+002 1.263942e+003 2.442557e+002 2.182610e+002 7.277990e+001 6.324737e+003 4.400397e+002 4.433555e+002 1.436480e+002 6.161920e+000 1.793315e-002 7.817274e+000 1.426586e-001 2.671952e+000 5.618803e-002 6.158432e+000 5.953975e+000 2.239709e+003
<GCONST> 1.239458e+002
<MIXTURE> 2 2.692721e-001
<MEAN> 23
 6.780432e+000 7.290123e+000 1.825802e+000 1.766016e+000 4.724679e+001 3.741102e+001 5.641470e+001 3.979506e+001 6.453476e+001 5.652023e+001 8.592502e+001 1.062469e+002 9.943473e+001 1.006548e+002 3.070206e+000 3.228373e+000 5.657462e+000 5.782842e+000 3.996536e+000 3.136016e+000 2.793941e+000 2.695568e+000 6.175584e+001
<VARIANCE> 23
 1.244115e+002 1.951941e+002 1.041576e+001 7.827088e+000 1.318365e+003 1.126833e+003 1.272443e+003 4.756822e+002 8.498136e+001 4.865845e+001 2.519104e+003 1.105390e+003 1.372662e+002 9.131033e+001 4.754764e+000 2.674498e+000 2.600492e+000 2.547644e-001 1.053746e+000 1.035297e+001 6.431658e+000 6.293147e+000 1.486870e+003
<GCONST> 1.324234e+002
<TRANSP> 5
 0.000000e+000 1.000000e+000 0.000000e+000 0.000000e+000 0.000000e+000
 0.000000e+000 6.839003e-001 3.160996e-001 0.000000e+000 0.000000e+000
 0.000000e+000 0.000000e+000 9.543790e-001 4.562101e-002 0.000000e+000
 0.000000e+000 0.000000e+000 0.000000e+000 9.249125e-001 7.508747e-002
 0.000000e+000 0.000000e+000 0.000000e+000 0.000000e+000 0.000000e+000
<ENDHMM>
~h "FU"
<BEGINHMM>
<NUMSTATES> 5
<STATE> 2
<NUMMIXES> 2
<MIXTURE> 1 7.985376e-001
<MEAN> 23
 9.799871e+000 1.310385e+000 2.367954e+000 6.931160e-001 1.389484e+002 1.900449e+001 1.031050e+002 9.425826e+001 6.516051e+001 5.468546e+001 5.057499e+001 1.917395e+002 9.888121e+001 1.126506e+002 2.510580e+000 5.000000e+000 3.269106e+000 5.847776e+000 3.218629e+000 5.996308e+000 3.223350e+000 1.949656e+000 1.815354e+002
<VARIANCE> 23
 2.418511e+002 4.063125e+000 1.051309e+001 2.164982e+000 4.815003e+003 7.430628e+002 9.617483e+002 1.744243e+002 2.001127e+002 5.468997e+001 3.083663e+003 3.199786e+002 2.196742e+002 1.350849e+002 3.088501e+000 1.793315e-002 7.842543e+000 1.290492e-001 1.403533e+000 5.618803e-002 6.238386e+000 5.687967e+000 1.644409e+003
<GCONST> 1.183605e+002
<MIXTURE> 2 2.014632e-001
<MEAN> 23
 8.621168e+000 9.173850e+000 2.710935e+000 2.389768e+000 5.503514e+001 5.556340e+001 7.806943e+001 5.795713e+001 6.222289e+001 5.692302e+001 9.038114e+001 1.144082e+002 9.864833e+001 1.000699e+002 3.461253e+000 3.685479e+000 5.262983e+000 5.531358e+000 4.124127e+000 4.155910e+000 2.902666e+000 2.844051e+000 1.031010e+002
<VARIANCE> 23
 1.960377e+002 1.532451e+002 2.741883e+001 1.347998e+001 2.939413e+003 2.874151e+003 1.394363e+003 8.973829e+002 1.282422e+002 9.428698e+001 4.149006e+003 2.285539e+003 2.523986e+002 1.426430e+002 5.892120e+000 2.184180e+000 4.044560e+000 6.112354e-001 1.957524e+000 7.650476e+000 5.981725e+000 5.133487e+000 3.564856e+003
<GCONST> 1.422095e+002
<STATE> 3
<NUMMIXES> 2
<MIXTURE> 1 4.316865e-001
<MEAN> 23
 2.128477e+000 1.875456e+001 7.021182e-001 3.347987e+000 7.731265e+000 1.382645e+002 1.027360e+002 9.162395e+001 6.238498e+001 6.969014e+001 2.049080e+002 7.306179e+001 1.214490e+002 1.073364e+002 6.997041e+000 2.905240e+000 6.153979e+000 4.858664e+000 5.997603e+000 2.608612e+000 2.039290e+000 3.216803e+000 1.789035e+002
<VARIANCE> 23
 2.132157e+001 3.722698e+002 3.300596e+000 1.470446e+001 1.035535e+002 5.778754e+003 3.966788e+002 1.697688e+003 8.812531e+001 1.773054e+002 7.853716e+002 3.273178e+003 2.709803e+002 1.823324e+002 6.504287e-002 1.463153e+000 1.302731e-001 1.548351e+000 2.082488e-002 5.800622e+000 6.285823e+000 5.655567e+000 3.204133e+003
<GCONST> 1.226556e+002
<MIXTURE> 2 5.683126e-001
<MEAN> 23
 9.847428e-001 3.838763e+000 5.282302e-001 1.319906e+000 7.603798e+000 1.625636e+002 8.242237e+001 1.032487e+002 5.243774e+001 5.786090e+001 1.745380e+002 2.027877e+001 1.043215e+002 8.947051e+001 6.933928e+000 2.035002e+000 6.015584e+000 4.157870e+000 5.962668e+000 1.305734e+000 1.382691e+000 2.638624e+000 1.772155e+002
<VARIANCE> 23
 4.801632e+000 3.333370e+001 3.300596e+000 2.668077e+000 4.354158e+002 7.542016e+002 8.511549e+001 2.184284e+002 3.495282e+001 9.416869e+001 3.025346e+002 3.262786e+002 5.942809e+001 7.020790e+001 3.605715e-001 9.226417e-002 6.433346e-002 2.203208e+000 1.084286e-001 4.182352e-001 4.880251e+000 6.673725e+000 3.536519e+002
<GCONST> 1.008912e+002
<STATE> 4
<NUMMIXES> 2
<MIXTURE> 1 6.958501e-001
<MEAN> 23
 4.660002e+000 1.118763e+001 2.019087e+000 3.278707e+000 1.534675e+001 2.399393e+001 9.797726e+001 9.038663e+001 6.073027e+001 5.803980e+001 1.961526e+002 1.880809e+002 1.167513e+002 1.136816e+002 6.991908e+000 5.000461e+000 6.117879e+000 5.834294e+000 5.998893e+000 6.005332e+000 2.882503e+000 3.645824e+000 1.240961e+002
<VARIANCE> 23
 2.310532e+002 3.220963e+002 1.588112e+002 1.050124e+002 1.723660e+002 4.748004e+002 2.594927e+002 3.062470e+002 7.642681e+001 8.419868e+001 4.160263e+002 4.953664e+002 1.416082e+002 1.233618e+002 6.504287e-002 1.793315e-002 1.039837e-001 1.382496e-001 2.082488e-002 5.618803e-002 6.726812e+000 5.514903e+000 4.716678e+002
<GCONST> 1.086030e+002
<MIXTURE> 2 3.041490e-001
<MEAN> 23
 6.148367e+000 7.374576e+000 1.458884e+000 2.871786e+000 2.255569e+002 1.908016e+002 6.442432e+001 6.462402e+001 5.126449e+001 5.232814e+001 1.189922e+002 9.139268e+001 8.314670e+001 7.404818e+001 3.824053e+000 2.918103e+000 4.449612e+000 3.876836e+000 4.009444e+000 3.350126e+000 2.221710e+000 2.179659e+000 1.024062e+002
<VARIANCE> 23
 1.535272e+002 2.049944e+002 8.096654e+000 5.807725e+001 4.524918e+004 2.365032e+004 2.314397e+003 2.565698e+003 9.809586e+002 1.143506e+003 7.677894e+003 6.280205e+003 2.605061e+003 2.367660e+003 9.486634e+000 4.528471e+000 7.112631e+000 5.965928e+000 5.934172e+000 8.208438e+000 6.737164e+000 6.380809e+000 6.757513e+003
<GCONST> 1.663992e+002
<TRANSP> 5
 0.000000e+000 1.000000e+000 0.000000e+000 0.000000e+000 0.000000e+000
 0.000000e+000 9.247828e-001 7.521730e-002 0.000000e+000 0.000000e+000
 0.000000e+000 0.000000e+000 9.467301e-001 5.326985e-002 0.000000e+000
 0.000000e+000 0.000000e+000 0.000000e+000 8.349345e-001 1.650656e-001
 0.000000e+000 0.000000e+000 0.000000e+000 0.000000e+000 0.000000e+000
<ENDHMM>
~h "MC"
<BEGINHMM>
<NUMSTATES> 5
<STATE> 2
<NUMMIXES> 2
<MIXTURE> 1 1.225502e-001
<MEAN> 23
 2.054015e+001 2.710890e+001 1.439873e+001 8.377677e+000 2.680505e+002 2.170211e+002 7.042000e+001 5.294630e+001 5.604206e+001 6.405596e+001 1.150314e+002 8.630730e+001 8.976812e+001 8.914114e+001 3.441760e+000 2.655848e+000 4.943230e+000 4.653640e+000 3.898210e+000 2.702459e+000 2.384076e+000 2.365248e+000 9.136889e+001
<VARIANCE> 23
 3.449082e+003 4.524841e+003 3.139388e+003 1.847306e+003 5.047380e+004 2.718065e+004 1.918091e+003 1.917563e+003 8.202310e+002 1.032991e+003 7.073312e+003 3.923465e+003 2.403492e+003 1.898938e+003 8.488571e+000 2.464003e+000 5.579045e+000 4.699732e+000 4.573470e+000 9.131817e+000 6.402163e+000 5.897247e+000 3.933831e+003
<GCONST> 1.786349e+002
<MIXTURE> 2 8.774497e-001
<MEAN> 23
 4.166965e+000 8.932014e+000 1.239809e+000 2.821377e+000 4.378459e+001 6.885920e+001 7.255024e+001 6.174440e+001 7.115633e+001 7.100254e+001 1.572015e+002 1.104197e+002 1.058433e+002 1.038960e+002 5.218480e+000 3.483496e+000 6.298434e+000 5.621849e+000 5.695871e+000 3.318690e+000 2.624930e+000 2.681508e+000 1.094072e+002
<VARIANCE> 23
 3.560759e+001 7.541703e+001 3.300596e+000 1.142981e+001 1.451050e+003 1.941758e+003 6.191815e+002 8.306055e+002 3.034490e+002 3.093524e+002 1.228582e+003 2.843338e+003 1.704556e+002 1.567697e+002 8.364471e+000 1.619811e+000 2.302427e-001 2.627919e-001 4.481148e-001 8.846945e+000 5.958017e+000 5.145243e+000 1.571463e+003
<GCONST> 1.304696e+002
<STATE> 3
<NUMMIXES> 2
<MIXTURE> 1 2.681665e-001
<MEAN> 23
 2.213462e+000 1.423185e+001 6.711524e-001 4.318272e+000 9.711099e+000 1.214831e+002 1.124025e+002 8.019984e+001 6.719598e+001 9.325392e+001 2.172476e+002 1.020005e+002 1.292564e+002 1.147117e+002 6.890798e+000 3.261723e+000 6.220100e+000 5.306944e+000 5.966420e+000 2.416685e+000 2.069155e+000 3.461116e+000 1.745153e+002
<VARIANCE> 23
 1.675985e+001 1.715082e+002 3.300596e+000 2.457414e+001 4.118790e+002 4.023065e+003 4.241506e+002 1.288327e+003 7.756321e+001 6.538464e+002 8.137225e+002 3.170523e+003 2.142455e+002 1.589502e+002 6.312554e-001 1.358150e+000 1.896731e-001 5.785722e-001 7.258166e-002 7.581643e+000 5.961838e+000 5.165871e+000 1.737554e+003
<GCONST> 1.261221e+002
<MIXTURE> 2 7.318330e-001
<MEAN> 23
 1.055071e+000 8.398755e+000 5.776689e-001 2.396792e+000 6.088107e+000 1.003017e+002 8.726651e+001 5.138292e+001 5.306808e+001 7.610639e+001 1.810566e+002 7.799547e+001 1.079891e+002 9.358331e+001 6.999981e+000 2.923839e+000 6.002308e+000 5.742348e+000 6.000000e+000 2.201857e+000 1.664788e+000 3.169059e+000 1.296521e+002
<VARIANCE> 23
 4.801632e+000 6.112266e+001 3.300596e+000 6.618490e+000 4.956259e+001 1.291383e+003 8.721833e+001 4.302921e+002 4.507253e+001 2.419400e+002 1.514076e+002 1.370010e+003 5.057280e+001 1.696967e+002 6.504287e-002 1.112268e+000 2.326111e-002 2.312804e-001 2.082488e-002 8.544030e+000 5.533007e+000 5.090383e+000 5.407849e+002
<GCONST> 1.032868e+002
<STATE> 4
<NUMMIXES> 2
<MIXTURE> 1 7.355979e-001
<MEAN> 23
 8.689800e+000 2.728588e+000 2.735332e+000 1.060496e+000 8.013763e+001 1.611417e+001 6.547341e+001 9.789424e+001 7.606584e+001 5.622403e+001 1.199259e+002 1.966452e+002 1.098223e+002 1.162651e+002 3.250604e+000 4.999999e+000 6.251811e+000 5.807315e+000 4.624760e+000 5.994451e+000 3.275308e+000 2.630389e+000 1.385602e+002
<VARIANCE> 23
 7.899315e+001 1.482578e+001 1.237018e+001 2.545959e+000 2.722475e+003 3.038405e+002 8.805616e+002 2.482358e+002 4.522752e+002 5.885581e+001 3.430622e+003 4.343012e+002 2.691245e+002 1.232378e+002 7.915643e+000 1.793315e-002 2.353407e-001 1.555529e-001 1.328428e+000 5.618803e-002 5.942051e+000 6.281478e+000 9.299382e+002
<GCONST> 1.161203e+002
<MIXTURE> 2 2.644022e-001
<MEAN> 23
 7.979333e+000 7.690535e+000 1.908638e+000 2.304085e+000 5.051204e+001 4.176853e+001 5.230299e+001 3.796976e+001 6.956349e+001 6.240428e+001 7.805035e+001 1.069252e+002 9.907681e+001 9.918848e+001 2.393866e+000 3.360654e+000 6.048449e+000 5.825907e+000 3.901809e+000 4.296601e+000 3.129900e+000 2.897589e+000 6.383622e+001
<VARIANCE> 23
 9.559775e+001 2.861147e+002 5.577781e+000 1.677399e+001 1.386477e+003 1.463980e+003 8.067442e+002 3.834253e+002 1.139860e+002 1.419255e+002 1.834652e+003 7.704111e+002 1.480538e+002 1.165630e+002 3.304452e+000 1.789778e+000 3.312783e-001 2.040371e-001 7.346593e-001 1.017751e+001 6.034567e+000 6.015234e+000 1.183059e+003
<GCONST> 1.295634e+002
<TRANSP> 5
 0.000000e+000 1.000000e+000 0.000000e+000 0.000000e+000 0.000000e+000
 0.000000e+000 7.990525e-001 2.009475e-001 0.000000e+000 0.000000e+000
 0.000000e+000 0.000000e+000 9.587100e-001 4.129005e-002 0.000000e+000
 0.000000e+000 0.000000e+000 0.000000e+000 9.251227e-001 7.487730e-002
 0.000000e+000 0.000000e+000 0.000000e+000 0.000000e+000 0.000000e+000
<ENDHMM>
~h "NU"
<BEGINHMM>
<NUMSTATES> 5
<STATE> 2
<NUMMIXES> 2
<MIXTURE> 1 7.914681e-001
<MEAN> 23
 7.671982e+000 1.286761e+001 2.982609e+000 3.166222e+000 8.936960e+001 9.718768e+001 9.228500e+001 8.051633e+001 6.936173e+001 6.404723e+001 1.735320e+002 1.390484e+002 1.138694e+002 1.148572e+002 5.444993e+000 3.985673e+000 6.264400e+000 5.525986e+000 5.389094e+000 4.017641e+000 2.605375e+000 2.621997e+000 1.394577e+002
<VARIANCE> 23
 6.511451e+002 1.208608e+003 4.776557e+002 3.037618e+002 2.209719e+004 1.344539e+004 1.413678e+003 1.016449e+003 1.775699e+002 1.341195e+002 3.722007e+003 3.598652e+003 9.856912e+002 2.642499e+002 6.558150e+000 1.332898e+000 3.311090e-001 4.049542e-001 1.543581e+000 6.329621e+000 5.993195e+000 4.914679e+000 4.242714e+003
<GCONST> 1.545525e+002
<MIXTURE> 2 2.085316e-001
<MEAN> 23
 0.000000e+000 0.000000e+000 0.000000e+000 0.000000e+000 5.315967e+002 4.080164e+002 0.000000e+000 0.000000e+000 0.000000e+000 0.000000e+000 0.000000e+000 0.000000e+000 0.000000e+000 0.000000e+000 0.000000e+000 0.000000e+000 0.000000e+000 0.000000e+000 0.000000e+000 0.000000e+000 0.000000e+000 0.000000e+000 0.000000e+000
<VARIANCE> 23
 4.801632e+000 4.063125e+000 3.300596e+000 2.164982e+000 3.309086e+003 2.711520e+003 9.838196e+000 1.115232e+001 2.936353e+000 3.516743e+000 3.745900e+001 4.440890e+001 4.184655e+000 3.870682e+000 6.504287e-002 1.793315e-002 2.326111e-002 1.170389e-002 2.082488e-002 5.618803e-002 6.153807e-002 6.060927e-002 3.735746e+001
<GCONST> 5.676830e+001
<STATE> 3
<NUMMIXES> 2
<MIXTURE> 1 5.640548e-001
<MEAN> 23
 1.407940e+000 1.343255e+001 5.130097e-001 3.313014e+000 7.053041e+000 8.650562e+001 9.831252e+001 7.344528e+001 6.018408e+001 6.638322e+001 1.985673e+002 1.163805e+002 1.181454e+002 1.097287e+002 6.998800e+000 3.778009e+000 6.078876e+000 5.402406e+000 5.999794e+000 3.869136e+000 1.709918e+000 3.487122e+000 1.492599e+002
<VARIANCE> 23
 8.109204e+000 1.664137e+002 3.300596e+000 1.369566e+001 5.403320e+001 3.363888e+003 2.771368e+002 9.360708e+002 6.562167e+001 1.578515e+002 5.522848e+002 2.620257e+003 1.999876e+002 1.735822e+002 6.504287e-002 1.106212e+000 7.265341e-002 4.268979e-001 2.082488e-002 6.694019e+000 5.614376e+000 5.012858e+000 1.816616e+003
<GCONST> 1.145187e+002
<MIXTURE> 2 4.359449e-001
<MEAN> 23
 7.997234e-001 2.358073e+000 4.004870e-001 1.079590e+000 1.149045e+001 1.120978e+002 8.626167e+001 6.707273e+001 5.535434e+001 6.152181e+001 1.784163e+002 6.655880e+001 1.072030e+002 9.791898e+001 6.887127e+000 2.760919e+000 6.073930e+000 5.184289e+000 5.943569e+000 1.256402e+000 1.206353e+000 2.805448e+000 1.512368e+002
<VARIANCE> 23
 4.801632e+000 6.583259e+000 3.300596e+000 2.164982e+000 8.059450e+002 9.433299e+002 1.448919e+002 4.250753e+002 4.803600e+001 7.155389e+001 4.143536e+002 6.282228e+002 6.439994e+001 9.966204e+001 6.397994e-001 2.759270e-001 1.231239e-001 3.201878e-001 1.714270e-001 9.632290e-001 4.412544e+000 6.155813e+000 5.016442e+002
<GCONST> 1.043908e+002
<STATE> 4
<NUMMIXES> 2
<MIXTURE> 1 5.659217e-001
<MEAN> 23
 8.321699e+000 3.265326e+000 2.516232e+000 1.200820e+000 8.265124e+001 1.308880e+001 8.549759e+001 9.862375e+001 7.172564e+001 5.614721e+001 1.295115e+002 1.982385e+002 1.128688e+002 1.174171e+002 3.673377e+000 5.000000e+000 6.100502e+000 5.911252e+000 4.449516e+000 5.996087e+000 3.317238e+000 2.501384e+000 1.532342e+002
<VARIANCE> 23
 1.012492e+002 2.342850e+001 9.905773e+000 2.830631e+000 3.570914e+003 1.895687e+002 7.934263e+002 2.301713e+002 2.473889e+002 6.311347e+001 4.130509e+003 3.879114e+002 2.564156e+002 1.183570e+002 8.946751e+000 1.793315e-002 2.838126e+000 8.087029e-002 2.874092e+000 5.618803e-002 6.228624e+000 6.318546e+000 1.592102e+003
<GCONST> 1.191007e+002
<MIXTURE> 2 4.340780e-001
<MEAN> 23
 4.820155e+000 6.367398e+000 1.282618e+000 2.138547e+000 5.385134e+001 6.875430e+001 5.854855e+001 5.582575e+001 6.601729e+001 5.703831e+001 1.008897e+002 9.483433e+001 1.026282e+002 9.899526e+001 2.513501e+000 3.091423e+000 6.270235e+000 5.400715e+000 4.108092e+000 2.706923e+000 2.602660e+000 2.817689e+000 8.552832e+001
<VARIANCE> 23
 5.832248e+001 9.942474e+001 3.797799e+000 1.246702e+001 2.034822e+003 2.668390e+003 1.076835e+003 9.084188e+002 1.278355e+002 5.418132e+001 2.244034e+003 1.148259e+003 1.007641e+002 1.296165e+002 5.865848e+000 1.351080e+000 1.184183e+000 3.925836e-001 1.870640e+000 6.936970e+000 6.172175e+000 6.384795e+000 3.349929e+003
<GCONST> 1.328353e+002
<TRANSP> 5
 0.000000e+000 1.000000e+000 0.000000e+000 0.000000e+000 0.000000e+000
 0.000000e+000 6.824831e-001 3.175169e-001 0.000000e+000 0.000000e+000
 0.000000e+000 0.000000e+000 9.481366e-001 5.186341e-002 0.000000e+000
 0.000000e+000 0.000000e+000 0.000000e+000 9.225226e-001 7.747742e-002
 0.000000e+000 0.000000e+000 0.000000e+000 0.000000e+000 0.000000e+000
<ENDHMM>
~h "OK"
<BEGINHMM>
<NUMSTATES> 5
<STATE> 2
<NUMMIXES> 2
<MIXTURE> 1 5.963274e-001
<MEAN> 23
 1.534621e+001 3.351876e+000 4.784849e+000 1.675397e+000 1.252644e+002 1.788185e+001 1.070516e+002 9.968455e+001 8.238319e+001 5.549340e+001 8.556403e+001 2.036521e+002 1.117790e+002 1.203762e+002 2.493373e+000 4.997270e+000 4.331067e+000 5.897539e+000 3.520622e+000 5.993167e+000 3.538417e+000 2.312465e+000 1.890992e+002
<VARIANCE> 23
 6.091057e+002 2.783568e+002 3.356748e+002 1.930081e+002 4.703245e+003 4.425647e+002 9.421317e+002 2.010566e+002 2.157638e+002 5.617966e+001 4.278331e+003 3.065164e+002 3.556273e+002 1.016938e+002 5.452113e+000 1.793315e-002 9.700830e+000 9.196437e-002 2.285338e+000 5.618803e-002 5.954431e+000 6.113351e+000 1.627062e+003
<GCONST> 1.325738e+002
<MIXTURE> 2 4.036727e-001
<MEAN> 23
 8.610665e+000 7.037781e+000 2.028430e+000 1.893976e+000 5.350516e+001 5.662563e+001 7.549754e+001 5.179208e+001 6.945972e+001 5.977466e+001 9.165166e+001 1.020455e+002 9.824918e+001 1.010171e+002 2.812648e+000 3.306651e+000 4.672647e+000 5.531478e+000 3.932801e+000 3.763200e+000 3.030530e+000 2.605544e+000 1.023199e+002
<VARIANCE> 23
 1.744761e+002 1.512797e+002 1.523000e+001 1.448412e+001 1.938501e+003 3.086578e+003 1.759240e+003 9.824745e+002 1.343122e+002 1.099558e+002 2.892054e+003 1.520018e+003 3.854241e+002 1.328080e+002 5.309261e+000 1.625806e+000 7.017595e+000 6.103841e-001 2.221721e+000 8.848008e+000 6.558438e+000 5.896191e+000 3.640678e+003
<GCONST> 1.419990e+002
<STATE> 3
<NUMMIXES> 2
<MIXTURE> 1 5.205233e-001
<MEAN> 23
 2.069682e+000 1.896449e+001 7.362431e-001 4.000068e+000 1.090650e+001 9.368907e+001 1.013019e+002 9.000887e+001 6.167196e+001 7.362579e+001 2.035136e+002 1.236355e+002 1.209241e+002 1.135015e+002 6.997297e+000 3.845397e+000 6.111150e+000 5.180558e+000 5.998695e+000 4.033975e+000 2.103998e+000 3.732311e+000 1.637845e+002
<VARIANCE> 23
 1.707233e+001 3.780743e+002 3.300596e+000 1.991706e+001 2.260582e+002 5.404454e+003 3.633746e+002 1.230734e+003 8.447971e+001 2.768553e+002 6.882531e+002 3.582856e+003 2.456699e+002 1.993981e+002 6.504287e-002 1.228720e+000 9.947266e-002 6.206031e-001 2.082488e-002 6.008365e+000 6.346931e+000 5.341980e+000 2.906985e+003
<GCONST> 1.219417e+002
<MIXTURE> 2 4.794765e-001
<MEAN> 23
 9.948804e-001 6.352889e+000 6.374909e-001 2.130987e+000 7.868771e+000 1.461323e+002 8.481883e+001 9.778986e+001 5.253523e+001 6.830100e+001 1.812323e+002 4.556802e+001 1.087548e+002 9.698544e+001 6.939904e+000 2.441275e+000 6.015937e+000 4.509549e+000 5.978380e+000 1.543168e+000 1.581626e+000 3.144033e+000 1.800333e+002
<VARIANCE> 23
 4.801632e+000 6.595854e+001 3.300596e+000 6.844920e+000 3.697922e+002 1.035688e+003 9.255000e+001 4.517585e+002 3.836187e+001 8.349038e+001 2.235193e+002 2.936653e+002 5.148165e+001 8.120987e+001 3.525842e-001 2.802683e-001 7.724541e-002 4.255041e-001 6.806066e-002 3.977027e-001 5.399385e+000 5.886739e+000 5.800754e+002
<GCONST> 1.026284e+002
<STATE> 4
<NUMMIXES> 2
<MIXTURE> 1 9.398784e-001
<MEAN> 23
 7.601350e+000 4.117893e+000 2.203367e+000 1.383336e+000 5.752257e+001 2.502242e+001 9.141849e+001 8.989433e+001 6.297147e+001 5.356075e+001 1.523092e+002 1.880450e+002 1.096723e+002 1.127735e+002 5.183217e+000 4.999362e+000 5.861988e+000 5.892799e+000 5.012827e+000 6.007061e+000 3.037642e+000 2.697646e+000 1.373571e+002
<VARIANCE> 23
 1.174857e+002 4.921256e+001 8.441904e+000 4.066184e+000 3.322656e+003 1.088633e+003 4.636762e+002 1.765108e+002 9.408092e+001 6.046741e+001 4.046157e+003 3.058680e+002 1.926704e+002 8.822221e+001 7.496518e+000 1.793315e-002 2.799968e+000 9.570950e-002 2.825083e+000 5.618803e-002 5.937142e+000 6.350320e+000 1.098666e+003
<GCONST> 1.187667e+002
<MIXTURE> 2 6.012168e-002
<MEAN> 23
 1.115432e+000 1.619963e+000 3.237762e-001 5.295192e-001 4.353007e+002 3.448353e+002 9.267405e+000 7.087583e+000 1.014911e+001 1.032309e+001 2.110393e+001 1.362769e+001 1.718639e+001 1.600448e+001 6.022528e-001 4.557039e-001 9.875916e-001 8.748371e-001 7.843844e-001 3.442136e-001 4.165549e-001 5.383413e-001 1.391148e+001
<VARIANCE> 23
 2.427848e+001 3.822061e+001 3.724571e+000 5.681638e+000 3.180860e+004 1.548709e+004 6.792180e+002 4.836600e+002 5.555574e+002 5.768502e+002 2.819295e+003 1.100437e+003 1.590907e+003 1.363219e+003 3.125158e+000 1.433228e+000 5.169846e+000 4.150966e+000 3.431966e+000 1.964589e+000 1.761125e+000 2.637694e+000 1.792384e+003
<GCONST> 1.425900e+002
<TRANSP> 5
 0.000000e+000 1.000000e+000 0.000000e+000 0.000000e+000 0.000000e+000
 0.000000e+000 8.829628e-001 1.170371e-001 0.000000e+000 0.000000e+000
 0.000000e+000 0.000000e+000 9.337589e-001 6.624115e-002 0.000000e+000
 0.000000e+000 0.000000e+000 0.000000e+000 8.578149e-001 1.421851e-001
 0.000000e+000 0.000000e+000 0.000000e+000 0.000000e+000 0.000000e+000
<ENDHMM>
~h "PF"
<BEGINHMM>
<NUMSTATES> 5
<STATE> 2
<NUMMIXES> 2
<MIXTURE> 1 1.653504e-001
<MEAN> 23
 2.278671e+001 3.161910e+001 1.704091e+001 1.626273e+001 3.859264e+002 3.209655e+002 1.072049e+002 1.060368e+002 6.642914e+001 7.617175e+001 1.989682e+002 1.364373e+002 1.139398e+002 1.132524e+002 6.617745e+000 3.930702e+000 6.204083e+000 4.972331e+000 5.795247e+000 4.235914e+000 3.054462e+000 3.089875e+000 1.711045e+002
<VARIANCE> 23
 6.284969e+003 5.182406e+003 5.352252e+003 3.495324e+003 5.906826e+004 2.367607e+004 7.426539e+002 1.276681e+003 7.189332e+001 2.112549e+002 2.475208e+003 5.771818e+003 4.643612e+002 3.433975e+002 1.684796e+000 1.920764e+000 8.013518e-001 1.095785e+000 6.115592e-001 5.839312e+000 6.372217e+000 6.462949e+000 3.210037e+003
<GCONST> 1.633274e+002
<MIXTURE> 2 8.346493e-001
<MEAN> 23
 6.062184e+000 8.064572e+000 1.402308e+000 2.194507e+000 7.967718e+001 1.278894e+002 8.305815e+001 1.107386e+002 7.009497e+001 7.257402e+001 1.372307e+002 1.035709e+002 1.014160e+002 9.668525e+001 3.871324e+000 3.155051e+000 5.365844e+000 4.501043e+000 4.885386e+000 3.090385e+000 2.405739e+000 2.610018e+000 1.580655e+002
<VARIANCE> 23
 1.106534e+002 1.249022e+002 7.608662e+000 7.546024e+000 1.214379e+004 1.009030e+004 1.675611e+003 2.961602e+003 5.381518e+002 7.549213e+002 4.760482e+003 5.033541e+003 9.933164e+002 6.918048e+002 9.578555e+000 2.181899e+000 4.617151e+000 2.606846e+000 2.716322e+000 5.572350e+000 6.168166e+000 4.931594e+000 6.580895e+003
<GCONST> 1.536956e+002
<STATE> 3
<NUMMIXES> 2
<MIXTURE> 1 3.394524e-001
<MEAN> 23
 2.405470e+000 2.044359e+001 9.368334e-001 4.410038e+000 1.212660e+001 4.695206e+001 9.400028e+001 8.587695e+001 5.910603e+001 6.470966e+001 1.931473e+002 1.652754e+002 1.154585e+002 1.113053e+002 6.993776e+000 4.559784e+000 6.049486e+000 5.544960e+000 5.998953e+000 5.408855e+000 2.354907e+000 3.743784e+000 1.356571e+002
<VARIANCE> 23
 1.340146e+001 4.129681e+002 3.300596e+000 2.025923e+001 1.858480e+002 1.278031e+003 2.127408e+002 6.111961e+002 4.279454e+001 1.659761e+002 3.847430e+002 1.733439e+003 1.190286e+002 1.352645e+002 6.504287e-002 4.901118e-001 4.703604e-002 2.482307e-001 2.082488e-002 2.587008e+000 6.144296e+000 5.805367e+000 7.713208e+002
<GCONST> 1.106166e+002
<MIXTURE> 2 6.605477e-001
<MEAN> 23
 1.328390e+000 1.068043e+001 6.271262e-001 3.653221e+000 1.035370e+001 1.868916e+002 9.261839e+001 1.350066e+002 5.805546e+001 8.542085e+001 1.882466e+002 5.623837e+001 1.130847e+002 9.206242e+001 6.925841e+000 2.429511e+000 6.059307e+000 3.608134e+000 5.958714e+000 1.702128e+000 1.696906e+000 3.345238e+000 2.231174e+002
<VARIANCE> 23
 7.876320e+000 1.697830e+002 3.300596e+000 2.084350e+001 6.477083e+002 1.738195e+003 2.672610e+002 8.144252e+002 7.005209e+001 2.600597e+002 6.700699e+002 9.482596e+002 1.316327e+002 2.154146e+002 3.826128e-001 3.148140e-001 2.644187e-001 6.607855e-001 1.203010e-001 5.110886e-001 5.860650e+000 4.397881e+000 1.271027e+003
<GCONST> 1.170971e+002
<STATE> 4
<NUMMIXES> 2
<MIXTURE> 1 7.449348e-001
<MEAN> 23
 1.205132e+001 1.494372e+000 3.578598e+000 7.381718e-001 1.382132e+002 2.103265e+001 1.319629e+002 9.945806e+001 8.406927e+001 5.653781e+001 1.096209e+002 1.990454e+002 1.039543e+002 1.181144e+002 2.759491e+000 5.000000e+000 3.096213e+000 5.819364e+000 3.357916e+000 5.999085e+000 3.403854e+000 2.302857e+000 2.101249e+002
<VARIANCE> 23
 2.264816e+002 4.444864e+000 2.317962e+001 2.164982e+000 6.348048e+003 9.039783e+002 1.661616e+003 2.053574e+002 4.287054e+002 6.860252e+001 4.503485e+003 3.904292e+002 4.080549e+002 1.290988e+002 6.437848e+000 1.793315e-002 8.483842e+000 1.480064e-001 3.674460e+000 5.618803e-002 6.888911e+000 6.103467e+000 3.744298e+003
<GCONST> 1.254031e+002
<MIXTURE> 2 2.550653e-001
<MEAN> 23
 6.810308e+000 7.341109e+000 2.616329e+000 2.338769e+000 5.654448e+001 2.744492e+001 8.412540e+001 4.823602e+001 7.714174e+001 5.786337e+001 9.439108e+001 1.191673e+002 9.894789e+001 1.035644e+002 2.852735e+000 3.525100e+000 4.294235e+000 5.627292e+000 3.774872e+000 3.556589e+000 2.728964e+000 2.801108e+000 9.968038e+001
<VARIANCE> 23
 1.349442e+002 1.313479e+002 2.281128e+001 1.217579e+001 2.200162e+003 7.243889e+002 3.240618e+003 8.369755e+002 3.695204e+002 6.704459e+001 2.591474e+003 1.285186e+003 2.725175e+002 8.801763e+001 5.045268e+000 2.074125e+000 6.381327e+000 2.923273e-001 1.814651e+000 9.422157e+000 6.514280e+000 6.321213e+000 4.356444e+003
<GCONST> 1.399047e+002
<TRANSP> 5
 0.000000e+000 1.000000e+000 0.000000e+000 0.000000e+000 0.000000e+000
 0.000000e+000 6.516387e-001 3.483613e-001 0.000000e+000 0.000000e+000
 0.000000e+000 0.000000e+000 9.554420e-001 4.455807e-002 0.000000e+000
 0.000000e+000 0.000000e+000 0.000000e+000 9.155670e-001 8.443301e-002
 0.000000e+000 0.000000e+000 0.000000e+000 0.000000e+000 0.000000e+000
<ENDHMM>
~h "PR"
<BEGINHMM>
<NUMSTATES> 5
<STATE> 2
<NUMMIXES> 2
<MIXTURE> 1 8.336151e-001
<MEAN> 23
 9.181182e+000 1.151809e+001 4.316195e+000 4.836582e+000 3.603064e+001 6.377776e+001 8.887062e+001 9.424146e+001 7.358105e+001 6.621697e+001 1.716116e+002 1.476071e+002 1.127944e+002 1.123591e+002 4.870843e+000 4.127963e+000 6.423357e+000 5.333723e+000 5.576376e+000 4.520790e+000 2.448714e+000 2.934247e+000 1.547012e+002
<VARIANCE> 23
 1.286255e+003 9.969971e+002 9.845369e+002 6.413453e+002 1.489922e+003 3.317510e+003 1.329140e+003 1.040581e+003 2.924276e+002 2.133880e+002 3.228522e+003 2.513409e+003 8.603332e+002 3.010364e+002 9.266673e+000 1.022011e+000 3.432157e-001 4.866959e-001 1.363403e+000 3.805605e+000 5.949696e+000 5.720981e+000 3.317492e+003
<GCONST> 1.523991e+002
<MIXTURE> 2 1.663848e-001
<MEAN> 23
 1.401523e+000 2.111565e+000 3.809184e-001 6.670492e-001 4.372234e+002 3.332750e+002 3.186145e+001 1.965673e+001 1.864464e+001 1.758557e+001 4.578334e+001 3.438612e+001 2.929660e+001 2.881676e+001 1.454312e+000 1.019990e+000 1.215783e+000 1.531640e+000 1.351887e+000 9.102895e-001 6.699402e-001 8.107372e-001 4.684297e+001
<VARIANCE> 23
 3.292127e+001 3.352293e+001 3.300596e+000 4.773023e+000 1.317928e+004 1.046937e+004 2.737307e+003 1.210256e+003 9.493698e+002 8.272314e+002 6.852746e+003 3.887270e+003 2.315865e+003 2.190631e+003 7.436340e+000 3.107493e+000 5.651063e+000 6.222524e+000 5.591208e+000 4.203890e+000 2.670597e+000 3.392849e+000 6.102000e+003
<GCONST> 1.526795e+002
<STATE> 3
<NUMMIXES> 2
<MIXTURE> 1 7.711231e-001
<MEAN> 23
 1.321893e+000 1.183096e+001 5.878688e-001 3.800251e+000 7.746742e+000 9.196010e+001 9.526791e+001 8.569840e+001 5.906875e+001 6.614610e+001 1.926598e+002 1.140775e+002 1.145178e+002 1.049057e+002 6.999439e+000 3.657420e+000 6.056890e+000 5.084715e+000 5.999572e+000 3.731201e+000 1.872905e+000 3.804556e+000 1.643848e+002
<VARIANCE> 23
 6.016477e+000 1.572056e+002 3.300596e+000 2.084327e+001 7.390733e+001 2.492545e+003 2.506239e+002 7.926418e+002 6.019276e+001 1.728784e+002 4.922787e+002 1.876990e+003 1.569995e+002 2.259252e+002 6.504287e-002 7.545771e-001 5.365419e-002 3.819891e-001 2.082488e-002 4.140086e+000 6.048804e+000 5.851616e+000 1.727644e+003
<GCONST> 1.128090e+002
<MIXTURE> 2 2.288777e-001
<MEAN> 23
 8.594461e-001 2.249613e+000 4.130979e-001 1.148674e+000 1.646847e+001 1.129937e+002 8.240865e+001 8.657535e+001 5.566806e+001 5.844316e+001 1.708232e+002 7.176838e+001 1.053191e+002 9.385403e+001 6.698529e+000 2.936799e+000 6.119457e+000 4.914842e+000 5.855342e+000 2.136958e+000 1.029349e+000 2.950292e+000 1.668165e+002
<VARIANCE> 23
 4.801632e+000 6.847208e+000 3.300596e+000 2.164982e+000 1.218010e+003 1.465559e+003 1.509053e+002 3.695599e+002 6.868039e+001 8.432355e+001 5.196674e+002 1.185824e+003 7.003175e+001 1.295341e+002 1.712464e+000 3.801059e-001 3.509643e-001 2.875007e-001 5.168471e-001 1.304260e+000 3.724971e+000 7.462744e+000 6.167252e+002
<GCONST> 1.107949e+002
<STATE> 4
<NUMMIXES> 2
<MIXTURE> 1 7.009051e-001
<MEAN> 23
 8.854918e+000 2.201637e+000 2.570229e+000 9.968897e-001 7.110799e+001 1.583130e+001 8.422130e+001 9.613751e+001 6.952948e+001 5.544799e+001 1.267221e+002 1.951276e+002 1.094286e+002 1.156300e+002 3.215371e+000 5.000207e+000 6.610734e+000 5.844879e+000 4.215470e+000 5.998023e+000 3.566405e+000 2.254024e+000 1.537422e+002
<VARIANCE> 23
 1.177216e+002 1.132935e+001 1.113226e+001 2.164982e+000 2.559932e+003 2.815339e+002 6.131443e+002 1.900187e+002 2.215478e+002 6.176465e+001 3.569886e+003 3.415187e+002 2.349036e+002 1.061778e+002 9.059010e+000 1.793315e-002 2.385161e-001 1.310572e-001 3.805924e+000 5.618803e-002 5.826021e+000 6.020173e+000 1.167312e+003
<GCONST> 1.152594e+002
<MIXTURE> 2 2.990953e-001
<MEAN> 23
 9.627615e+000 4.835579e+000 2.540048e+000 1.456209e+000 5.684608e+001 2.946891e+001 8.089897e+001 5.460038e+001 7.543521e+001 5.924918e+001 9.334615e+001 1.292457e+002 1.035031e+002 1.012976e+002 1.912516e+000 3.787907e+000 5.088512e+000 5.639021e+000 3.264781e+000 4.624320e+000 2.670767e+000 2.444106e+000 1.213464e+002
<VARIANCE> 23
 1.747336e+002 7.124543e+001 1.287329e+001 7.354780e+000 2.283821e+003 8.884271e+002 1.812212e+003 1.079524e+003 1.491558e+002 5.520176e+001 1.293740e+003 1.459481e+003 1.226959e+002 1.052251e+002 4.441201e+000 1.193368e+000 7.636632e+000 2.806464e-001 2.365987e+000 7.300143e+000 5.899902e+000 6.345555e+000 4.774396e+003
<GCONST> 1.355664e+002
<TRANSP> 5
 0.000000e+000 1.000000e+000 0.000000e+000 0.000000e+000 0.000000e+000
 0.000000e+000 6.756058e-001 3.243941e-001 0.000000e+000 0.000000e+000
 0.000000e+000 0.000000e+000 9.494179e-001 5.058206e-002 0.000000e+000
 0.000000e+000 0.000000e+000 0.000000e+000 9.171355e-001 8.286443e-002
 0.000000e+000 0.000000e+000 0.000000e+000 0.000000e+000 0.000000e+000
<ENDHMM>
~h "SP"
<BEGINHMM>
<NUMSTATES> 5
<STATE> 2
<NUMMIXES> 2
<MIXTURE> 1 4.556313e-001
<MEAN> 23
 1.002935e+001 1.776339e+001 7.191030e+000 7.462754e+000 1.040252e+001 2.437165e+001 9.076338e+001 8.070600e+001 5.881995e+001 5.821962e+001 1.895439e+002 1.730726e+002 1.147877e+002 1.118913e+002 6.991746e+000 4.805024e+000 6.037518e+000 5.753124e+000 5.991837e+000 5.960855e+000 2.141242e+000 2.137052e+000 1.194791e+002
<VARIANCE> 23
 3.658176e+003 2.305324e+003 3.057664e+003 1.812603e+003 1.220118e+002 4.799877e+002 2.151450e+002 4.148356e+002 5.165426e+001 6.845966e+001 4.913906e+002 1.101638e+003 1.347628e+002 1.633100e+002 6.504287e-002 1.932451e-001 8.560476e-002 1.892273e-001 3.119362e-002 2.952206e-001 5.697134e+000 3.310244e+000 4.491539e+002
<GCONST> 1.233531e+002
<MIXTURE> 2 5.443684e-001
<MEAN> 23
 4.353280e+000 7.617041e+000 1.477142e+000 2.970117e+000 1.607913e+002 2.031154e+002 7.024733e+001 9.496622e+001 6.262019e+001 7.180924e+001 1.132363e+002 6.472255e+001 8.509267e+001 7.831611e+001 2.364876e+000 2.197524e+000 4.615216e+000 3.058583e+000 4.054396e+000 1.722673e+000 1.702267e+000 2.019145e+000 1.488301e+002
<VARIANCE> 23
 1.146465e+002 2.035266e+002 1.307413e+001 3.238255e+001 4.512143e+004 1.814447e+004 3.095399e+003 4.215245e+003 1.472045e+003 2.345835e+003 7.994729e+003 3.210063e+003 2.813896e+003 2.110691e+003 9.406856e+000 2.372448e+000 9.044332e+000 3.926302e+000 6.257214e+000 4.021961e+000 5.227217e+000 5.086103e+000 1.216212e+004
<GCONST> 1.655841e+002
<STATE> 3
<NUMMIXES> 2
<MIXTURE> 1 3.775001e-001
<MEAN> 23
 2.646149e+000 1.922693e+001 8.966078e-001 4.788767e+000 2.108892e+001 1.018338e+002 1.012120e+002 1.017757e+002 6.462061e+001 7.531179e+001 1.919588e+002 1.195875e+002 1.164578e+002 1.058113e+002 6.825961e+000 3.682105e+000 6.218711e+000 4.759233e+000 5.916271e+000 3.808460e+000 2.204577e+000 3.846247e+000 1.776423e+002
<VARIANCE> 23
 2.274832e+001 4.644303e+002 3.300596e+000 3.520642e+001 1.247021e+003 5.895371e+003 5.814000e+002 1.262530e+003 1.350196e+002 5.040924e+002 1.162490e+003 3.552914e+003 2.466990e+002 2.831930e+002 8.762346e-001 1.372734e+000 6.832545e-001 1.147376e+000 3.094622e-001 5.230111e+000 6.173010e+000 5.677780e+000 3.582903e+003
<GCONST> 1.352883e+002
<MIXTURE> 2 6.225010e-001
<MEAN> 23
 8.204100e-001 6.895685e+000 3.878001e-001 3.189104e+000 5.650005e+000 1.949250e+002 9.069193e+001 1.389866e+002 5.799691e+001 9.054794e+001 1.867844e+002 4.764658e+001 1.109987e+002 8.938768e+001 7.000000e+000 2.121116e+000 6.004579e+000 3.248188e+000 6.000000e+000 1.453288e+000 1.412023e+000 2.696618e+000 2.242466e+002
<VARIANCE> 23
 4.801632e+000 9.216077e+001 3.300596e+000 2.206620e+001 4.956259e+001 1.349699e+003 1.669719e+002 5.434578e+002 4.377573e+001 3.843527e+002 4.053670e+002 2.384975e+002 1.244593e+002 1.695319e+002 6.504287e-002 1.064515e-001 2.326111e-002 2.638763e-001 2.082488e-002 2.486420e-001 5.086901e+000 5.915221e+000 9.978901e+002
<GCONST> 1.013257e+002
<STATE> 4
<NUMMIXES> 2
<MIXTURE> 1 7.111688e-001
<MEAN> 23
 1.282324e+001 1.106184e+000 4.251007e+000 5.594610e-001 1.571058e+002 1.369184e+001 1.295919e+002 9.726101e+001 9.406933e+001 5.702159e+001 8.299970e+001 1.949494e+002 9.380649e+001 1.157688e+002 2.374656e+000 5.000000e+000 2.750484e+000 5.836693e+000 3.393780e+000 5.991526e+000 3.437891e+000 1.870716e+000 2.120858e+002
<VARIANCE> 23
 3.368163e+002 4.063125e+000 5.460818e+001 2.164982e+000 6.073050e+003 6.536234e+002 1.383302e+003 1.895403e+002 4.653426e+002 5.209190e+001 2.980358e+003 3.385070e+002 4.124085e+002 1.101164e+002 4.055426e+000 1.793315e-002 7.514188e+000 1.366359e-001 2.551732e+000 5.618803e-002 6.264363e+000 5.684084e+000 2.424944e+003
<GCONST> 1.234091e+002
<MIXTURE> 2 2.888319e-001
<MEAN> 23
 7.529746e+000 6.127906e+000 2.664902e+000 2.148369e+000 6.799761e+001 2.687049e+001 1.012277e+002 4.847287e+001 8.589601e+001 5.911419e+001 9.175851e+001 1.172384e+002 9.749771e+001 1.034417e+002 2.897135e+000 3.540639e+000 3.846517e+000 5.658222e+000 3.813693e+000 3.230010e+000 3.001683e+000 2.626966e+000 1.156381e+002
<VARIANCE> 23
 1.211317e+002 1.234760e+002 1.867810e+001 1.132710e+001 2.655186e+003 8.785134e+002 2.781500e+003 7.538707e+002 6.922810e+002 6.591945e+001 2.892467e+003 1.513871e+003 2.639746e+002 1.085426e+002 5.036049e+000 1.560084e+000 6.852511e+000 3.208765e-001 1.647963e+000 9.699423e+000 6.680029e+000 6.749759e+000 3.702426e+003
<GCONST> 1.403871e+002
<TRANSP> 5
 0.000000e+000 1.000000e+000 0.000000e+000 0.000000e+000 0.000000e+000
 0.000000e+000 7.188677e-001 2.811324e-001 0.000000e+000 0.000000e+000
 0.000000e+000 0.000000e+000 9.575468e-001 4.245318e-002 0.000000e+000
 0.000000e+000 0.000000e+000 0.000000e+000 9.215103e-001 7.848970e-002
 0.000000e+000 0.000000e+000 0.000000e+000 0.000000e+000 0.000000e+000
<ENDHMM>
~h "ST"
<BEGINHMM>
<NUMSTATES> 5
<STATE> 2
<NUMMIXES> 2
<MIXTURE> 1 1.813773e-001
<MEAN> 23
 1.575471e+001 2.532843e+001 1.111937e+001 8.511471e+000 1.887014e+002 2.128786e+002 1.318129e+002 9.248557e+001 7.994604e+001 8.123347e+001 2.265732e+002 1.262271e+002 1.377936e+002 1.247818e+002 6.327830e+000 3.325059e+000 6.718456e+000 5.858201e+000 5.704588e+000 3.131655e+000 2.189796e+000 2.980807e+000 1.818076e+002
<VARIANCE> 23
 3.351655e+003 3.421424e+003 3.002823e+003 1.805841e+003 5.743734e+004 2.272290e+004 1.632193e+003 8.278609e+002 2.483199e+002 2.665908e+002 5.517525e+003 5.841807e+003 1.257391e+003 3.848790e+002 3.196401e+000 2.598681e+000 2.829800e-001 5.480614e-001 5.771563e-001 7.494891e+000 6.554018e+000 6.254510e+000 2.302198e+003
<GCONST> 1.637899e+002
<MIXTURE> 2 8.186222e-001
<MEAN> 23
 5.361355e+000 7.444933e+000 1.303398e+000 2.127860e+000 7.174183e+001 8.534265e+001 7.549946e+001 7.574680e+001 6.756847e+001 7.084557e+001 1.365086e+002 1.094520e+002 1.031651e+002 1.056742e+002 4.116453e+000 3.350723e+000 5.812555e+000 5.487588e+000 4.806821e+000 3.102750e+000 2.725768e+000 2.654251e+000 1.127356e+002
<VARIANCE> 23
 7.885944e+001 1.066265e+002 4.518466e+000 8.254296e+000 1.155223e+004 6.489644e+003 1.046256e+003 1.022284e+003 3.864425e+002 5.754504e+002 3.184704e+003 4.688516e+003 7.890966e+002 6.389235e+002 9.077468e+000 2.407028e+000 2.677787e+000 1.466321e+000 3.072046e+000 7.704492e+000 6.257567e+000 5.612260e+000 2.587731e+003
<GCONST> 1.479376e+002
<STATE> 3
<NUMMIXES> 2
<MIXTURE> 1 4.821282e-001
<MEAN> 23
 2.267097e+000 1.461202e+001 8.094434e-001 3.279184e+000 1.602301e+001 9.227632e+001 9.883020e+001 7.519707e+001 6.253931e+001 7.875804e+001 1.990199e+002 1.090428e+002 1.191283e+002 1.125191e+002 6.929552e+000 3.535038e+000 6.156899e+000 5.691209e+000 5.967939e+000 3.540128e+000 1.924019e+000 3.253234e+000 1.464026e+002
<VARIANCE> 23
 1.721677e+001 2.110119e+002 3.300596e+000 1.434996e+001 7.259745e+002 4.136700e+003 3.153810e+002 7.970690e+002 7.106868e+001 4.712033e+002 7.263306e+002 4.160652e+003 1.778953e+002 1.327655e+002 3.355609e-001 1.918139e+000 1.431081e-001 4.512168e-001 7.451064e-002 8.350863e+000 5.671344e+000 5.455226e+000 1.578551e+003
<GCONST> 1.242281e+002
<MIXTURE> 2 5.178714e-001
<MEAN> 23
 7.190669e-001 7.261748e+000 3.292713e-001 1.245233e+000 5.588612e+000 1.301595e+002 8.653492e+001 6.292130e+001 5.543148e+001 8.015092e+001 1.826026e+002 4.871128e+001 1.097032e+002 9.951055e+001 6.999988e+000 2.054547e+000 6.000068e+000 5.965168e+000 6.000000e+000 3.676925e-001 1.231853e+000 2.771549e+000 1.409276e+002
<VARIANCE> 23
 4.801632e+000 8.353416e+001 3.300596e+000 2.248470e+000 4.956259e+001 6.980828e+002 8.113106e+001 3.997266e+002 2.394683e+001 1.703245e+002 1.579064e+002 3.421531e+002 4.602603e+001 5.837737e+001 6.504287e-002 9.072722e-002 2.326111e-002 2.578481e-001 2.082488e-002 2.342466e-001 4.515764e+000 6.002916e+000 4.935276e+002
<GCONST> 9.214454e+001
<STATE> 4
<NUMMIXES> 2
<MIXTURE> 1 7.644374e-001
<MEAN> 23
 1.059477e+001 1.352755e+000 2.395176e+000 5.929753e-001 1.071414e+002 1.779152e+001 7.888377e+001 9.945641e+001 8.552538e+001 5.738172e+001 8.875930e+001 2.002260e+002 1.100943e+002 1.190387e+002 2.940013e+000 5.000000e+000 6.020281e+000 5.908679e+000 4.138163e+000 5.994359e+000 3.294767e+000 1.945292e+000 1.569817e+002
<VARIANCE> 23
 1.462451e+002 4.541677e+000 1.003242e+001 2.164982e+000 3.820393e+003 7.421375e+002 7.122623e+002 1.790282e+002 3.849749e+002 4.754239e+001 4.571720e+003 3.459942e+002 2.792701e+002 1.189882e+002 5.424144e+000 1.793315e-002 1.446078e+000 8.297832e-002 1.497523e+000 5.618803e-002 6.131215e+000 5.724273e+000 9.174262e+002
<GCONST> 1.164156e+002
<MIXTURE> 2 2.355629e-001
<MEAN> 23
 6.879665e+000 7.993616e+000 1.379227e+000 2.659583e+000 3.502789e+001 3.014957e+001 6.446401e+001 5.060022e+001 6.923638e+001 5.906589e+001 1.039332e+002 1.287498e+002 1.040702e+002 1.032574e+002 3.390866e+000 4.119385e+000 6.125018e+000 5.775011e+000 4.449666e+000 5.210979e+000 2.736643e+000 2.927781e+000 8.665672e+001
<VARIANCE> 23
 7.527166e+001 1.146624e+002 3.300596e+000 1.426426e+001 9.493666e+002 9.641047e+002 8.299500e+002 7.671933e+002 1.414954e+002 8.347602e+001 3.944859e+003 1.483959e+003 1.329699e+002 9.562415e+001 7.378469e+000 1.246586e+000 2.577716e-001 2.384948e-001 1.617791e+000 6.350532e+000 5.973878e+000 6.365061e+000 1.691457e+003
<GCONST> 1.295183e+002
<TRANSP> 5
 0.000000e+000 1.000000e+000 0.000000e+000 0.000000e+000 0.000000e+000
 0.000000e+000 6.950817e-001 3.049183e-001 0.000000e+000 0.000000e+000
 0.000000e+000 0.000000e+000 9.574600e-001 4.253997e-002 0.000000e+000
 0.000000e+000 0.000000e+000 0.000000e+000 9.190751e-001 8.092486e-002
 0.000000e+000 0.000000e+000 0.000000e+000 0.000000e+000 0.000000e+000
<ENDHMM>
~h "TT"
<BEGINHMM>
<NUMSTATES> 5
<STATE> 2
<NUMMIXES> 2
<MIXTURE> 1 4.960227e-001
<MEAN> 23
 2.016196e+001 4.865931e+000 7.894144e+000 2.932153e+000 2.267988e+002 8.987605e+000 1.783477e+002 1.066308e+002 1.259445e+002 6.099695e+001 1.009748e+002 2.048932e+002 1.068200e+002 1.205012e+002 1.345472e+000 4.997562e+000 1.132651e+000 5.906446e+000 2.272460e+000 5.984555e+000 3.602663e+000 2.327523e+000 2.813479e+002
<VARIANCE> 23
 1.725439e+003 1.020405e+003 1.185716e+003 7.537630e+002 2.538657e+003 1.249202e+002 1.248465e+003 2.475914e+002 5.150032e+002 9.571642e+001 9.079598e+002 3.594325e+002 3.108713e+002 1.219087e+002 4.191878e-001 1.793315e-002 2.297776e+000 8.480105e-002 5.636131e-001 5.618803e-002 5.621269e+000 6.517643e+000 1.784790e+003
<GCONST> 1.308176e+002
<MIXTURE> 2 5.039781e-001
<MEAN> 23
 1.016454e+001 1.173353e+001 3.027504e+000 3.754154e+000 4.687948e+001 1.108067e+002 9.319967e+001 1.211859e+002 7.505300e+001 8.852122e+001 1.782206e+002 1.417024e+002 1.164230e+002 1.124701e+002 5.125597e+000 3.767415e+000 6.378964e+000 4.737157e+000 5.709761e+000 3.930180e+000 3.068843e+000 2.721621e+000 1.848414e+002
<VARIANCE> 23
 2.345588e+002 3.255585e+002 2.519088e+001 3.234498e+001 2.599605e+003 1.124437e+004 1.950764e+003 2.885056e+003 3.178957e+002 1.300185e+003 3.239660e+003 3.029956e+003 5.520693e+002 2.571133e+002 8.715530e+000 1.631024e+000 4.616653e-001 1.790316e+000 6.520085e-001 5.499268e+000 6.801585e+000 5.138869e+000 8.355146e+003
<GCONST> 1.501714e+002
<STATE> 3
<NUMMIXES> 2
<MIXTURE> 1 3.488123e-001
<MEAN> 23
 2.622905e+000 2.241917e+001 9.759907e-001 5.614964e+000 1.218827e+001 5.451017e+001 9.448392e+001 9.563972e+001 5.976350e+001 6.857333e+001 1.924302e+002 1.626413e+002 1.157598e+002 1.101941e+002 6.990344e+000 4.398102e+000 6.086174e+000 5.350577e+000 5.996821e+000 5.218585e+000 2.279618e+000 3.843409e+000 1.505543e+002
<VARIANCE> 23
 1.873586e+001 4.657951e+002 3.300596e+000 4.037462e+001 1.932823e+002 1.937155e+003 2.683874e+002 5.526593e+002 7.355862e+001 2.956656e+002 5.050381e+002 2.049804e+003 1.582017e+002 2.092337e+002 6.504287e-002 6.335886e-001 7.874925e-002 2.758531e-001 2.082488e-002 2.042478e+000 5.817948e+000 5.328518e+000 1.370074e+003
<GCONST> 1.157035e+002
<MIXTURE> 2 6.511878e-001
<MEAN> 23
 1.546740e+000 1.348520e+001 6.949556e-001 5.487861e+000 9.730515e+000 2.227577e+002 9.454910e+001 1.730781e+002 5.855025e+001 1.233618e+002 1.905248e+002 8.838126e+001 1.139971e+002 9.446085e+001 6.970301e+000 2.456902e+000 6.085009e+000 3.174218e+000 5.991237e+000 1.666755e+000 1.848240e+000 3.571462e+000 2.641575e+002
<VARIANCE> 23
 9.458173e+000 2.357607e+002 3.300596e+000 5.321258e+001 2.968184e+002 1.377664e+003 2.838606e+002 7.686016e+002 9.461080e+001 4.840871e+002 4.881826e+002 6.008843e+002 1.497389e+002 3.217588e+002 1.574787e-001 2.647669e-001 1.228191e-001 2.020264e-001 3.517800e-002 3.650629e-001 5.823800e+000 5.519318e+000 1.369591e+003
<GCONST> 1.139311e+002
<STATE> 4
<NUMMIXES> 2
<MIXTURE> 1 7.211846e-001
<MEAN> 23
 1.469243e+001 2.163064e+000 5.251751e+000 1.019641e+000 1.381805e+002 2.823981e+001 1.360208e+002 9.544274e+001 9.573581e+001 5.544175e+001 1.175446e+002 1.920546e+002 1.002219e+002 1.147869e+002 2.726866e+000 5.000064e+000 3.310428e+000 5.823455e+000 3.558715e+000 5.991115e+000 3.367687e+000 2.353344e+000 2.115762e+002
<VARIANCE> 23
 3.500378e+002 1.087358e+001 6.195586e+001 2.164982e+000 7.981289e+003 9.785466e+002 2.145799e+003 2.322298e+002 9.696910e+002 5.117766e+001 2.944460e+003 4.091174e+002 3.731650e+002 1.335747e+002 6.566266e+000 1.793315e-002 8.563107e+000 1.453780e-001 3.702068e+000 5.618803e-002 5.527894e+000 6.208899e+000 4.206895e+003
<GCONST> 1.284249e+002
<MIXTURE> 2 2.788154e-001
<MEAN> 23
 1.017260e+001 6.289528e+000 4.107432e+000 2.508154e+000 1.296882e+002 6.716270e+001 8.950797e+001 3.779704e+001 8.678657e+001 5.307512e+001 9.144793e+001 1.024212e+002 8.742191e+001 9.233746e+001 2.078612e+000 3.037870e+000 3.700848e+000 5.172886e+000 3.402474e+000 2.649484e+000 2.734915e+000 2.228081e+000 1.054634e+002
<VARIANCE> 23
 2.499448e+002 1.199652e+002 4.550719e+001 2.305684e+001 1.886120e+004 1.416701e+004 5.165246e+003 1.108299e+003 2.148057e+003 4.428088e+002 2.367886e+003 2.441691e+003 1.153932e+003 1.125938e+003 4.313117e+000 3.014284e+000 7.379967e+000 3.487852e+000 2.907119e+000 1.010076e+001 6.338154e+000 6.089545e+000 6.988511e+003
<GCONST> 1.596103e+002
<TRANSP> 5
 0.000000e+000 1.000000e+000 0.000000e+000 0.000000e+000 0.000000e+000
 0.000000e+000 8.486323e-001 1.513676e-001 0.000000e+000 0.000000e+000
 0.000000e+000 0.000000e+000 9.537938e-001 4.620621e-002 0.000000e+000
 0.000000e+000 0.000000e+000 0.000000e+000 9.142819e-001 8.571811e-002
 0.000000e+000 0.000000e+000 0.000000e+000 0.000000e+000 0.000000e+000
<ENDHMM>
~h "VA"
<BEGINHMM>
<NUMSTATES> 5
<STATE> 2
<NUMMIXES> 2
<MIXTURE> 1 5.204754e-001
<MEAN> 23
 1.756947e+001 1.027428e+001 7.542511e+000 4.427925e+000 1.247196e+002 4.082083e+001 1.378259e+002 9.942111e+001 9.822785e+001 6.194678e+001 1.555764e+002 1.964444e+002 1.123893e+002 1.186372e+002 3.711995e+000 4.885160e+000 4.332129e+000 5.713467e+000 4.178550e+000 5.924309e+000 3.215367e+000 2.488122e+000 2.069711e+002
<VARIANCE> 23
 1.501780e+003 1.230657e+003 1.008351e+003 6.284529e+002 1.503278e+004 4.955487e+003 4.796707e+003 5.467515e+002 1.355727e+003 1.260031e+002 5.241098e+003 1.027200e+003 5.015041e+002 1.822168e+002 8.602657e+000 1.628514e-001 8.083566e+000 2.141658e-001 4.425909e+000 2.790002e-001 5.896121e+000 5.356839e+000 9.177218e+003
<GCONST> 1.556103e+002
<MIXTURE> 2 4.795236e-001
<MEAN> 23
 8.529592e+000 1.207449e+001 3.893036e+000 4.383296e+000 1.685608e+002 2.319820e+002 7.894516e+001 1.183103e+002 6.531282e+001 9.135829e+001 1.132489e+002 6.636201e+001 8.225602e+001 7.721606e+001 3.030954e+000 2.013701e+000 4.383915e+000 3.167188e+000 3.989502e+000 1.253465e+000 2.448946e+000 2.615807e+000 1.407636e+002
<VARIANCE> 23
 3.709329e+002 2.209777e+002 8.702447e+001 3.299625e+001 3.629260e+004 9.281674e+003 3.260491e+003 6.080311e+003 1.373828e+003 2.433160e+003 6.465167e+003 2.000058e+003 2.361168e+003 1.547774e+003 8.905914e+000 1.106200e+000 7.485365e+000 3.103324e+000 4.968535e+000 1.383144e+000 6.200650e+000 5.063447e+000 9.611392e+003
<GCONST> 1.644723e+002
<STATE> 3
<NUMMIXES> 2
<MIXTURE> 1 5.050274e-001
<MEAN> 23
 1.924831e+000 1.936212e+001 8.079262e-001 6.695452e+000 8.710961e+000 7.408022e+001 9.130595e+001 8.250597e+001 5.746704e+001 7.659837e+001 1.885916e+002 1.268581e+002 1.130505e+002 1.016211e+002 6.995791e+000 3.931896e+000 6.043179e+000 5.408963e+000 5.999709e+000 4.413973e+000 2.084304e+000 3.717872e+000 1.437253e+002
<VARIANCE> 23
 9.592735e+000 3.626420e+002 3.300596e+000 4.687095e+001 8.932375e+001 2.847051e+003 2.217978e+002 5.898201e+002 6.896452e+001 3.797194e+002 4.169175e+002 3.790971e+003 1.236121e+002 4.027913e+002 6.504287e-002 1.283680e+000 4.131476e-002 3.785549e-001 2.082488e-002 6.449007e+000 6.052613e+000 5.289973e+000 1.081182e+003
<GCONST> 1.167604e+002
<MIXTURE> 2 4.949721e-001
<MEAN> 23
 2.618407e+000 1.151245e+001 1.380090e+000 4.677068e+000 1.365038e+001 2.173577e+002 9.111660e+001 1.639982e+002 5.628730e+001 1.142969e+002 1.863443e+002 7.783803e+001 1.124426e+002 8.040057e+001 6.867179e+000 2.365353e+000 6.055352e+000 3.215406e+000 5.925402e+000 1.699330e+000 2.241230e+000 3.338484e+000 2.498569e+002
<VARIANCE> 23
 2.161706e+001 1.861585e+002 9.943849e+000 3.186089e+001 7.099102e+002 2.555657e+003 4.041501e+002 1.433246e+003 1.189119e+002 5.160284e+002 9.315668e+002 1.092490e+003 2.158592e+002 3.640321e+002 7.118483e-001 3.271210e-001 2.583798e-001 6.674027e-001 1.678970e-001 6.060511e-001 6.195186e+000 5.365483e+000 2.011875e+003
<GCONST> 1.257502e+002
<STATE> 4
<NUMMIXES> 2
<MIXTURE> 1 7.161114e-001
<MEAN> 23
 1.460973e+001 2.249497e+000 5.223206e+000 1.078830e+000 1.389773e+002 1.757465e+001 1.324102e+002 9.774181e+001 9.873627e+001 5.529965e+001 1.190834e+002 1.952323e+002 9.610197e+001 1.155167e+002 3.066759e+000 5.000243e+000 3.698134e+000 5.854975e+000 3.788662e+000 5.986457e+000 3.341532e+000 2.400879e+000 2.069294e+002
<VARIANCE> 23
 2.865941e+002 1.249641e+001 4.235373e+001 2.272460e+000 8.164495e+003 5.952038e+002 2.487120e+003 2.084103e+002 8.038092e+002 8.043920e+001 4.207506e+003 3.217816e+002 4.999059e+002 1.209576e+002 6.921901e+000 1.793315e-002 8.644801e+000 1.239924e-001 3.536046e+000 5.618803e-002 5.928463e+000 6.264829e+000 4.433863e+003
<GCONST> 1.281604e+002
<MIXTURE> 2 2.838887e-001
<MEAN> 23
 6.778824e+000 7.002377e+000 2.939998e+000 2.988238e+000 7.362012e+001 3.688882e+001 9.396992e+001 4.839849e+001 8.427695e+001 5.705289e+001 7.972763e+001 1.063256e+002 9.291491e+001 1.019326e+002 2.476487e+000 3.150609e+000 3.929601e+000 5.537068e+000 3.524540e+000 2.922477e+000 2.924642e+000 2.786857e+000 1.043201e+002
<VARIANCE> 23
 1.035072e+002 1.768107e+002 2.489378e+001 2.314523e+001 3.032377e+003 1.215226e+003 3.552015e+003 5.455869e+002 3.972952e+002 1.179390e+002 1.871148e+003 9.881636e+002 4.307129e+002 1.097078e+002 2.876335e+000 1.531026e+000 6.693422e+000 3.068460e-001 1.287636e+000 8.237648e+000 6.350247e+000 6.430886e+000 3.993316e+003
<GCONST> 1.405532e+002
<TRANSP> 5
 0.000000e+000 1.000000e+000 0.000000e+000 0.000000e+000 0.000000e+000
 0.000000e+000 7.618975e-001 2.381025e-001 0.000000e+000 0.000000e+000
 0.000000e+000 0.000000e+000 9.445328e-001 5.546722e-002 0.000000e+000
 0.000000e+000 0.000000e+000 0.000000e+000 9.169992e-001 8.300085e-002
 0.000000e+000 0.000000e+000 0.000000e+000 0.000000e+000 0.000000e+000
<ENDHMM>
~h "VQ"
<BEGINHMM>
<NUMSTATES> 5
<STATE> 2
<NUMMIXES> 2
<MIXTURE> 1 1.834510e-001
<MEAN> 23
 2.184535e+001 3.076534e+001 1.481092e+001 1.621543e+001 9.098077e+001 1.471445e+002 7.917506e+001 9.823259e+001 6.625851e+001 6.612157e+001 1.438665e+002 6.885190e+001 9.922649e+001 9.311002e+001 4.510716e+000 2.823010e+000 5.695907e+000 4.474659e+000 5.198551e+000 2.355372e+000 2.745800e+000 3.313045e+000 1.502254e+002
<VARIANCE> 23
 6.137061e+003 4.555033e+003 4.844202e+003 3.106889e+003 2.449279e+004 8.432097e+003 1.319069e+003 1.208706e+003 2.695361e+002 2.543006e+002 3.130943e+003 1.626630e+003 6.762853e+002 3.592428e+002 8.893938e+000 8.455402e-001 3.014162e+000 9.811810e-001 1.983905e+000 2.798753e+000 6.567932e+000 4.674158e+000 3.741773e+003
<GCONST> 1.648190e+002
<MIXTURE> 2 8.165486e-001
<MEAN> 23
 1.147860e+001 3.525284e+000 3.753080e+000 1.431735e+000 9.772696e+001 2.500162e+001 9.766319e+001 6.912167e+001 7.726157e+001 5.536126e+001 8.702469e+001 1.539147e+002 9.788614e+001 1.091280e+002 2.534811e+000 4.108609e+000 3.773973e+000 5.685558e+000 3.403555e+000 4.713952e+000 3.441609e+000 2.554837e+000 1.445390e+002
<VARIANCE> 23
 2.021759e+002 2.966749e+001 2.459909e+001 5.592752e+000 5.599421e+003 5.537022e+002 2.602621e+003 1.042007e+003 2.963398e+002 6.570061e+001 3.209604e+003 2.274547e+003 3.682764e+002 1.285990e+002 4.475965e+000 1.796372e+000 8.688463e+000 2.177370e-001 2.504470e+000 5.905833e+000 6.029060e+000 5.919768e+000 6.183081e+003
<GCONST> 1.398208e+002
<STATE> 3
<NUMMIXES> 2
<MIXTURE> 1 5.361652e-001
<MEAN> 23
 2.594604e+000 1.929787e+001 8.586192e-001 5.744887e+000 8.763602e+000 1.067558e+002 9.865873e+001 9.757832e+001 5.985976e+001 7.269675e+001 1.998748e+002 1.168468e+002 1.194873e+002 1.042701e+002 6.997850e+000 3.677691e+000 6.115883e+000 4.983180e+000 5.998895e+000 3.914547e+000 2.181833e+000 3.817803e+000 1.722883e+002
<VARIANCE> 23
 2.182070e+001 3.200327e+002 3.300596e+000 5.292363e+001 1.006928e+002 7.370081e+003 4.191921e+002 2.078904e+003 8.638503e+001 3.741855e+002 7.673220e+002 3.196358e+003 2.514646e+002 2.802757e+002 6.504287e-002 1.361936e+000 1.024529e-001 1.133539e+000 2.082488e-002 5.496768e+000 6.198929e+000 4.939795e+000 4.425280e+003
<GCONST> 1.248124e+002
<MIXTURE> 2 4.638348e-001
<MEAN> 23
 1.108718e+000 5.835367e+000 7.021600e-001 2.903233e+000 1.062611e+001 1.618851e+002 8.355489e+001 1.133942e+002 5.266481e+001 7.355325e+001 1.780300e+002 4.521481e+001 1.068544e+002 8.162503e+001 6.927888e+000 2.405753e+000 6.043168e+000 4.117215e+000 5.951678e+000 1.771731e+000 1.641337e+000 3.477109e+000 1.933265e+002
<VARIANCE> 23
 4.801632e+000 3.451989e+001 3.300596e+000 1.257805e+001 7.367465e+002 1.414077e+003 1.792715e+002 6.116022e+002 6.177272e+001 1.818571e+002 4.320607e+002 4.607159e+002 8.504882e+001 2.471646e+002 3.864413e-001 3.070377e-001 2.155392e-001 6.444642e-001 1.531173e-001 4.010544e-001 5.278408e+000 6.205492e+000 9.639563e+002
<GCONST> 1.115149e+002
<STATE> 4
<NUMMIXES> 2
<MIXTURE> 1 9.256145e-001
<MEAN> 23
 1.057545e+001 3.011396e+000 4.085551e+000 1.239081e+000 1.009433e+002 2.263865e+001 1.065917e+002 9.432004e+001 7.598656e+001 5.369115e+001 1.040128e+002 1.924424e+002 9.951005e+001 1.141641e+002 3.116938e+000 4.997951e+000 4.091584e+000 5.856761e+000 3.794321e+000 5.997486e+000 3.563573e+000 2.460881e+000 1.774312e+002
<VARIANCE> 23
 1.695286e+002 2.963844e+001 3.359408e+001 4.579080e+000 5.324188e+003 9.356503e+002 9.910842e+002 2.054988e+002 4.547582e+002 6.581072e+001 4.684321e+003 3.239160e+002 4.080862e+002 1.200691e+002 7.415797e+000 1.793315e-002 9.040292e+000 1.227207e-001 3.479261e+000 5.618803e-002 5.837810e+000 6.174538e+000 2.515632e+003
<GCONST> 1.266824e+002
<MIXTURE> 2 7.438541e-002
<MEAN> 23
 2.916339e+000 2.225478e+000 1.260669e+000 9.955323e-001 4.245245e+002 3.359622e+002 2.571587e+001 2.807663e+001 1.840597e+001 1.856433e+001 2.468718e+001 2.085233e+001 2.599402e+001 2.687059e+001 7.580124e-001 7.903368e-001 1.289291e+000 1.302029e+000 8.953261e-001 5.475722e-001 6.700637e-001 1.001173e+000 3.294427e+001
<VARIANCE> 23
 7.370776e+001 4.948715e+001 1.061917e+001 7.657007e+000 4.163413e+004 1.804452e+004 2.180990e+003 2.522844e+003 9.030186e+002 9.296702e+002 2.241721e+003 1.391403e+003 1.828171e+003 1.916765e+003 2.839178e+000 1.754884e+000 6.531312e+000 4.543171e+000 2.954655e+000 1.168126e+000 2.503420e+000 3.978683e+000 3.516541e+003
<GCONST> 1.511911e+002
<TRANSP> 5
 0.000000e+000 1.000000e+000 0.000000e+000 0.000000e+000 0.000000e+000
 0.000000e+000 8.410224e-001 1.589776e-001 0.000000e+000 0.000000e+000
 0.000000e+000 0.000000e+000 9.445689e-001 5.543116e-002 0.000000e+000
 0.000000e+000 0.000000e+000 0.000000e+000 8.918336e-001 1.081663e-001
 0.000000e+000 0.000000e+000 0.000000e+000 0.000000e+000 0.000000e+000
<ENDHMM>
~h "SIL"
<BEGINHMM>
<NUMSTATES> 5
<STATE> 2
<NUMMIXES> 2
<MIXTURE> 1 1.633420e-001
<MEAN> 23
 4.882996e+002 4.122513e+002 4.441812e+002 3.560013e+002 9.228837e-001 1.295895e+000 3.980858e+001 3.909488e+001 2.813758e+001 2.662003e+001 7.791628e+001 7.489423e+001 4.946271e+001 4.873301e+001 2.763601e+000 1.999772e+000 2.647847e+000 2.535468e+000 2.489629e+000 2.341762e+000 4.659654e+000 4.656662e+000 5.333530e+001
<VARIANCE> 23
 7.025318e+003 4.361241e+003 4.957337e+003 3.528908e+003 6.700290e+001 1.573135e+002 2.350043e+003 2.295313e+003 1.091799e+003 1.015203e+003 8.574129e+003 8.155595e+003 3.233358e+003 3.134697e+003 1.121978e+001 5.751386e+000 9.256016e+000 8.413064e+000 8.304816e+000 8.454294e+000 4.045300e+000 4.078640e+000 4.684008e+003
<GCONST> 1.730920e+002
<MIXTURE> 2 8.366580e-001
<MEAN> 23
 0.000000e+000 0.000000e+000 0.000000e+000 0.000000e+000 3.661405e+001 2.963474e+001 0.000000e+000 0.000000e+000 0.000000e+000 0.000000e+000 0.000000e+000 0.000000e+000 0.000000e+000 0.000000e+000 0.000000e+000 0.000000e+000 0.000000e+000 0.000000e+000 0.000000e+000 0.000000e+000 0.000000e+000 0.000000e+000 0.000000e+000
<VARIANCE> 23
 4.801632e+000 4.063125e+000 3.300596e+000 2.164982e+000 1.817520e+004 1.195246e+004 9.838196e+000 1.115232e+001 2.936353e+000 3.516743e+000 3.745900e+001 4.440890e+001 4.184655e+000 3.870682e+000 6.504287e-002 1.793315e-002 2.326111e-002 1.170389e-002 2.082488e-002 5.618803e-002 6.153807e-002 6.060927e-002 3.735746e+001
<GCONST> 5.995512e+001
<STATE> 3
<NUMMIXES> 2
<MIXTURE> 1 7.625337e-001
<MEAN> 23
 1.431467e+000 1.852476e+000 6.082083e-001 7.665132e-001 7.910070e+000 9.854296e+000 1.005650e+002 9.762937e+001 6.338279e+001 5.931984e+001 1.977432e+002 1.958241e+002 1.181664e+002 1.171073e+002 6.999723e+000 5.000000e+000 6.112566e+000 5.904934e+000 6.001791e+000 5.999065e+000 2.009578e+000 2.026836e+000 1.303963e+002
<VARIANCE> 23
 4.972081e+000 7.195439e+000 3.300596e+000 2.164982e+000 6.766891e+001 1.201020e+002 2.811432e+002 2.046942e+002 9.052587e+001 7.451331e+001 4.468851e+002 3.565407e+002 1.576539e+002 1.186439e+002 6.504287e-002 1.793315e-002 9.990472e-002 8.614140e-002 2.082488e-002 5.618803e-002 5.643441e+000 5.625316e+000 4.285001e+002
<GCONST> 8.966850e+001
<MIXTURE> 2 2.374689e-001
<MEAN> 23
 8.424643e+000 1.072424e+001 2.150005e+000 2.710193e+000 5.149601e+001 5.844426e+001 8.631322e+001 8.200446e+001 7.072002e+001 6.474728e+001 1.530331e+002 1.478501e+002 1.120304e+002 1.113364e+002 4.735723e+000 4.136630e+000 5.967946e+000 5.551864e+000 5.116292e+000 4.642326e+000 2.400468e+000 2.430442e+000 1.337200e+002
<VARIANCE> 23
 1.722087e+002 2.081929e+002 1.400146e+001 1.540020e+001 2.769952e+003 2.797622e+003 1.671991e+003 1.335417e+003 2.801971e+002 2.038108e+002 4.383729e+003 4.095734e+003 5.699858e+002 3.085425e+002 8.267106e+000 1.619348e+000 2.077270e+000 4.791666e-001 1.951180e+000 5.840446e+000 5.256423e+000 4.793467e+000 4.032138e+003
<GCONST> 1.448989e+002
<STATE> 4
<NUMMIXES> 2
<MIXTURE> 1 2.331451e-001
<MEAN> 23
 5.718719e-001 1.105844e+000 2.796721e-001 6.309234e-001 4.004532e+000 4.122433e+000 1.063594e+002 1.138358e+002 6.400868e+001 6.617572e+001 2.298532e+002 2.341287e+002 1.356269e+002 1.380103e+002 7.000000e+000 5.000000e+000 6.000166e+000 5.997341e+000 6.000000e+000 6.000000e+000 9.859193e-001 1.469192e+000 1.303277e+002
<VARIANCE> 23
 4.801632e+000 5.127246e+000 3.300596e+000 2.197540e+000 4.956259e+001 5.429972e+001 1.160790e+001 1.299412e+001 3.886315e+000 7.075527e+000 3.745900e+001 4.440890e+001 6.526052e+000 7.630103e+000 6.504287e-002 1.793315e-002 2.326111e-002 1.170389e-002 2.082488e-002 5.618803e-002 3.574496e+000 4.661552e+000 3.735746e+001
<GCONST> 5.972920e+001
<MIXTURE> 2 7.668549e-001
<MEAN> 23
 1.018040e+000 1.591464e+000 3.936111e-001 6.193149e-001 4.908712e+000 6.072238e+000 8.623216e+001 8.579253e+001 5.591994e+001 5.458990e+001 1.813998e+002 1.811049e+002 1.100493e+002 1.094852e+002 6.989314e+000 4.994063e+000 6.006417e+000 5.977112e+000 5.996236e+000 5.992295e+000 1.755399e+000 1.892676e+000 1.103319e+002
<VARIANCE> 23
