~o
<STREAMINFO> 1 23
<VECSIZE> 23<NULLD><MFCC_0><DIAGC>
~h "BN"
<BEGINHMM>
<NUMSTATES> 5
<STATE> 2
<MEAN> 23
 6.257195e+000 1.202929e+001 2.583711e+000 3.818732e+000 9.199338e+001 1.061887e+002 8.140166e+001 7.824195e+001 6.705599e+001 6.617791e+001 1.360208e+002 1.084454e+002 1.020731e+002 1.000043e+002 4.474379e+000 3.355663e+000 5.073676e+000 4.773464e+000 4.712416e+000 3.482504e+000 2.273745e+000 2.226572e+000 1.240681e+002
<VARIANCE> 23
 7.505652e+002 6.951111e+002 5.506856e+002 3.565065e+002 2.378692e+004 1.434715e+004 1.695908e+003 1.817537e+003 6.680327e+002 7.194234e+002 5.816986e+003 4.419291e+003 1.224541e+003 9.459807e+002 8.560194e+000 2.554771e+000 5.592249e+000 2.709581e+000 3.134070e+000 7.430070e+000 5.959856e+000 4.590934e+000 4.484999e+003
<GCONST> 1.669893e+002
<STATE> 3
<MEAN> 23
 1.125181e+000 8.711514e+000 4.570886e-001 2.671055e+000 9.166633e+000 1.721307e+002 9.157479e+001 1.172444e+002 5.845370e+001 8.994937e+001 1.889894e+002 3.962784e+001 1.141368e+002 1.010941e+002 6.953665e+000 2.183590e+000 6.041699e+000 3.871186e+000 5.972916e+000 1.126240e+000 1.474557e+000 2.869991e+000 2.031332e+002
<VARIANCE> 23
 6.926730e+000 1.510770e+002 3.300596e+000 1.439166e+001 4.343346e+002 1.810601e+003 2.453829e+002 6.379970e+002 7.111358e+001 3.659084e+002 6.349363e+002 6.308222e+002 1.558330e+002 1.591106e+002 2.493438e-001 2.378886e-001 1.936313e-001 6.573144e-001 7.810947e-002 4.663191e-001 5.093488e+000 5.874296e+000 1.134709e+003
<GCONST> 1.140410e+002
<STATE> 4
<MEAN> 23
 8.565480e+000 6.468582e+000 2.507334e+000 1.717923e+000 1.035773e+002 2.390373e+001 1.070899e+002 8.850720e+001 8.000748e+001 5.949823e+001 9.964459e+001 1.825100e+002 1.068036e+002 1.148004e+002 3.700618e+000 4.831868e+000 3.582542e+000 5.784331e+000 4.140225e+000 5.923651e+000 3.116554e+000 2.661714e+000 1.701268e+002
<VARIANCE> 23
 1.788778e+002 1.714612e+002 1.727906e+001 9.374262e+000 6.887861e+003 8.825167e+002 8.879237e+002 6.510166e+002 4.206498e+002 9.512247e+001 5.899113e+003 1.317947e+003 2.986995e+002 1.612125e+002 6.756789e+000 2.657090e-001 8.578362e+000 1.932087e-001 2.441776e+000 9.863181e-001 6.315290e+000 6.792217e+000 2.730566e+003
<GCONST> 1.374633e+002
<TRANSP> 5
 0.000000e+000 1.000000e+000 0.000000e+000 0.000000e+000 0.000000e+000
 0.000000e+000 8.353093e-001 1.646907e-001 0.000000e+000 0.000000e+000
 0.000000e+000 0.000000e+000 9.500918e-001 4.990822e-002 0.000000e+000
 0.000000e+000 0.000000e+000 0.000000e+000 9.350615e-001 6.493858e-002
 0.000000e+000 0.000000e+000 0.000000e+000 0.000000e+000 0.000000e+000
<ENDHMM>
~h "BS"
<BEGINHMM>
<NUMSTATES> 5
<STATE> 2
<MEAN> 23
 1.701620e+001 1.715750e+001 3.963140e+000 3.794158e+000 6.517307e+001 6.313527e+001 5.677143e+001 5.545301e+001 6.328846e+001 5.981907e+001 1.436617e+002 1.403145e+002 1.063373e+002 1.063427e+002 5.294570e+000 4.349530e+000 6.013837e+000 5.850334e+000 5.212891e+000 5.173403e+000 2.780058e+000 2.106522e+000 7.557146e+001
<VARIANCE> 23
 7.646036e+002 6.458820e+002 5.251156e+002 3.505326e+002 6.232191e+003 4.828238e+003 1.086848e+003 9.886470e+002 1.240595e+002 1.225371e+002 1.950979e+003 1.971526e+003 2.836510e+002 2.530491e+002 6.232213e+000 2.220894e+000 4.945744e-001 4.300646e-001 1.048322e+000 6.241860e+000 3.341878e+000 3.994258e+000 2.337262e+003
<GCONST> 1.478908e+002
<STATE> 3
<MEAN> 23
 2.023984e+001 2.058447e+001 3.768002e+000 3.705393e+000 1.096934e+002 1.089421e+002 8.621774e+001 8.495510e+001 7.399973e+001 6.713213e+001 1.102817e+002 1.140683e+002 1.055237e+002 1.055578e+002 1.268900e+000 3.044501e+000 5.117064e+000 5.308451e+000 3.073746e+000 2.695444e+000 2.609573e+000 3.269952e+000 1.386375e+002
<VARIANCE> 23
 4.334731e+002 4.386483e+002 2.118097e+001 1.926710e+001 1.997490e+003 1.553188e+003 2.717813e+003 2.408969e+003 2.822872e+002 2.588461e+002 1.789079e+003 1.798987e+003 1.691076e+002 1.430371e+002 2.049158e+000 1.382816e+000 6.704251e+000 6.092118e-001 4.475144e+000 4.965502e+000 5.979388e+000 4.634110e+000 1.096080e+004
<GCONST> 1.455313e+002
<STATE> 4
<MEAN> 23
 7.410815e+000 7.170869e+000 2.076970e+000 1.862277e+000 7.400600e+001 7.135826e+001 1.140725e+002 1.130952e+002 6.902703e+001 6.385508e+001 1.744578e+002 1.729012e+002 1.110238e+002 1.103181e+002 2.791015e+000 4.386573e+000 6.767086e+000 5.204497e+000 4.466324e+000 4.952945e+000 3.448656e+000 3.755433e+000 2.029950e+002
<VARIANCE> 23
 7.292532e+001 6.644291e+001 6.703058e+000 5.158426e+000 3.767589e+003 2.324362e+003 8.071137e+002 7.026033e+002 1.428267e+002 1.448340e+002 9.494315e+002 8.557761e+002 1.648328e+002 1.384653e+002 1.158359e+001 2.876497e-001 1.941353e-001 1.890085e-001 8.782499e+000 8.760709e-001 5.741551e+000 7.886102e+000 4.410450e+003
<GCONST> 1.292579e+002
<TRANSP> 5
 0.000000e+000 1.000000e+000 0.000000e+000 0.000000e+000 0.000000e+000
 0.000000e+000 8.169512e-001 1.830488e-001 0.000000e+000 0.000000e+000
 0.000000e+000 0.000000e+000 9.034885e-001 9.651152e-002 0.000000e+000
 0.000000e+000 0.000000e+000 0.000000e+000 9.522904e-001 4.770964e-002
 0.000000e+000 0.000000e+000 0.000000e+000 0.000000e+000 0.000000e+000
<ENDHMM>
~h "CF"
<BEGINHMM>
<NUMSTATES> 5
<STATE> 2
<MEAN> 23
 8.815421e+000 9.849667e+000 3.608564e+000 3.436151e+000 7.324198e+001 6.669303e+001 8.759176e+001 7.464020e+001 7.435011e+001 6.429404e+001 1.189497e+002 1.282060e+002 1.016795e+002 1.063991e+002 4.096556e+000 3.763118e+000 4.882169e+000 5.278491e+000 4.496703e+000 4.229928e+000 2.775726e+000 2.495231e+000 1.270975e+002
<VARIANCE> 23
 5.980184e+002 4.689594e+002 3.992469e+002 2.425726e+002 8.211036e+003 5.893719e+003 1.727411e+003 1.448322e+003 6.250361e+002 4.175137e+002 5.063378e+003 4.028422e+003 5.772979e+002 4.418249e+002 7.237852e+000 2.314674e+000 4.950496e+000 1.526981e+000 2.552830e+000 7.004594e+000 6.427434e+000 4.790045e+000 4.591265e+003
<GCONST> 1.600601e+002
<STATE> 3
<MEAN> 23
 1.421300e+000 1.064504e+001 6.123971e-001 3.800950e+000 8.998067e+000 1.837506e+002 9.329897e+001 1.219600e+002 5.924953e+001 9.933919e+001 1.884965e+002 4.192488e+001 1.131993e+002 8.847369e+001 6.948341e+000 2.192403e+000 6.079522e+000 3.321369e+000 5.969367e+000 1.167160e+000 1.599400e+000 2.853022e+000 2.057955e+002
<VARIANCE> 23
 1.004778e+001 2.631652e+002 3.300596e+000 2.815477e+001 3.179598e+002 2.252073e+003 3.399249e+002 9.875062e+002 8.371729e+001 4.378181e+002 7.377238e+002 9.555278e+002 1.817770e+002 3.261415e+002 2.544342e-001 3.056056e-001 1.820179e-001 1.795014e+000 7.992482e-002 1.091989e+000 5.494246e+000 5.896601e+000 1.597508e+003
<GCONST> 1.205966e+002
<STATE> 4
<MEAN> 23
 8.791375e+000 5.981126e+000 3.027434e+000 1.896933e+000 9.819001e+001 2.810957e+001 1.066210e+002 9.192837e+001 8.119651e+001 6.040232e+001 1.093436e+002 1.865404e+002 1.000978e+002 1.136710e+002 4.051165e+000 4.922467e+000 4.306646e+000 5.687503e+000 4.387489e+000 6.012205e+000 3.090589e+000 2.747918e+000 1.687172e+002
<VARIANCE> 23
 1.742483e+002 1.265403e+002 2.101962e+001 9.545781e+000 7.247265e+003 9.488064e+002 1.132010e+003 5.295067e+002 5.505496e+002 1.247857e+002 6.215440e+003 7.849490e+002 5.577756e+002 1.319315e+002 6.898094e+000 1.213266e-001 5.920174e+000 2.262413e-001 2.242301e+000 2.449565e-001 6.258158e+000 6.502062e+000 2.634586e+003
<GCONST> 1.354627e+002
<TRANSP> 5
 0.000000e+000 1.000000e+000 0.000000e+000 0.000000e+000 0.000000e+000
 0.000000e+000 8.495971e-001 1.504029e-001 0.000000e+000 0.000000e+000
 0.000000e+000 0.000000e+000 9.445187e-001 5.548130e-002 0.000000e+000
 0.000000e+000 0.000000e+000 0.000000e+000 9.372729e-001 6.272712e-002
 0.000000e+000 0.000000e+000 0.000000e+000 0.000000e+000 0.000000e+000
<ENDHMM>
~h "CN"
<BEGINHMM>
<NUMSTATES> 5
<STATE> 2
<MEAN> 23
 1.499922e+001 1.441968e+001 2.783262e+000 2.903071e+000 5.914853e+001 6.043142e+001 6.798975e+001 6.614601e+001 6.469569e+001 6.165046e+001 1.435250e+002 1.375961e+002 1.096938e+002 1.092804e+002 4.947462e+000 4.064436e+000 6.048753e+000 5.906198e+000 5.117677e+000 4.486353e+000 2.739903e+000 2.051127e+000 8.663812e+001
<VARIANCE> 23
 4.585691e+002 3.851693e+002 1.683368e+002 1.254752e+002 3.123750e+003 2.836091e+003 1.155891e+003 9.452933e+002 1.123368e+002 1.417060e+002 3.010019e+003 3.363176e+003 3.246085e+002 2.218591e+002 7.180894e+000 1.920963e+000 2.799262e-001 3.148917e-001 1.107070e+000 7.328168e+000 2.920000e+000 3.732267e+000 2.050839e+003
<GCONST> 1.435059e+002
<STATE> 3
<MEAN> 23
 7.685236e+000 8.287730e+000 1.193745e+000 1.030061e+000 1.441869e+002 1.386026e+002 7.067935e+001 6.849274e+001 6.628430e+001 6.378010e+001 4.300084e+001 4.609568e+001 1.032927e+002 1.044352e+002 2.027307e+000 1.935446e+000 5.803961e+000 5.928007e+000 3.198378e+000 7.699344e-001 3.180755e+000 3.099171e+000 1.957268e+001
<VARIANCE> 23
 1.083648e+002 1.392529e+002 3.300596e+000 2.164982e+000 1.780559e+003 1.512002e+003 5.225796e+002 5.988347e+002 9.220465e+001 1.065933e+002 3.298938e+002 4.395610e+002 1.272606e+002 1.218237e+002 6.504287e-002 1.218951e-001 7.209297e-001 5.322737e-001 1.729604e-001 2.121013e-001 6.013427e+000 6.019403e+000 3.497755e+002
<GCONST> 1.123913e+002
<STATE> 4
<MEAN> 23
 1.469101e+001 1.365471e+001 2.631068e+000 2.604578e+000 7.597403e+001 6.968773e+001 7.460933e+001 7.189175e+001 6.738249e+001 6.420292e+001 1.499518e+002 1.466667e+002 1.117187e+002 1.115092e+002 5.008604e+000 4.064602e+000 6.121706e+000 5.874177e+000 5.076722e+000 4.420990e+000 4.052083e+000 3.957114e+000 9.793726e+001
<VARIANCE> 23
 3.085636e+002 2.635195e+002 9.298717e+000 1.267157e+001 6.093086e+003 4.839194e+003 1.431995e+003 1.354888e+003 2.017045e+002 1.343153e+002 2.774304e+003 2.822952e+003 2.845514e+002 1.701938e+002 6.265720e+000 2.880850e+000 4.431468e-001 3.116694e-001 1.551453e+000 7.296959e+000 7.316408e+000 4.896561e+000 4.214701e+003
<GCONST> 1.421579e+002
<TRANSP> 5
 0.000000e+000 1.000000e+000 0.000000e+000 0.000000e+000 0.000000e+000
 0.000000e+000 8.344918e-001 1.655082e-001 0.000000e+000 0.000000e+000
 0.000000e+000 0.000000e+000 9.646423e-001 3.535770e-002 0.000000e+000
 0.000000e+000 0.000000e+000 0.000000e+000 9.154329e-001 8.456708e-002
 0.000000e+000 0.000000e+000 0.000000e+000 0.000000e+000 0.000000e+000
<ENDHMM>
~h "CP"
<BEGINHMM>
<NUMSTATES> 5
<STATE> 2
<MEAN> 23
 1.223420e+001 1.035911e+001 3.366503e+000 3.024115e+000 1.101143e+002 9.274681e+001 9.632677e+001 9.509039e+001 6.691248e+001 6.229995e+001 1.559892e+002 1.610634e+002 1.086865e+002 1.060032e+002 3.125591e+000 3.938841e+000 5.574049e+000 4.850678e+000 4.542186e+000 4.636039e+000 2.867257e+000 2.807786e+000 1.612489e+002
<VARIANCE> 23
 6.255452e+002 3.764392e+002 3.594044e+002 2.079331e+002 1.907252e+004 1.062946e+004 2.342704e+003 2.404504e+003 7.231716e+002 6.473906e+002 5.480654e+003 4.734864e+003 1.805264e+003 1.553678e+003 1.103896e+001 2.429080e+000 6.115205e+000 3.071311e+000 6.755432e+000 4.320718e+000 5.806075e+000 5.800031e+000 8.402027e+003
<GCONST> 1.676575e+002
<STATE> 3
<MEAN> 23
 9.148899e+000 9.476426e+000 2.199306e+000 2.193612e+000 5.238030e+001 4.807112e+001 6.420905e+001 6.643631e+001 6.597567e+001 6.271137e+001 1.361187e+002 1.379882e+002 1.033884e+002 1.029682e+002 2.795871e+000 4.278739e+000 6.599845e+000 5.354857e+000 5.665115e+000 5.507403e+000 3.462969e+000 3.292553e+000 1.156670e+002
<VARIANCE> 23
 8.305685e+001 8.236313e+001 8.800177e+000 8.070199e+000 6.639442e+002 6.310862e+002 3.519477e+002 4.219159e+002 1.363912e+002 1.468270e+002 7.147370e+002 7.525353e+002 9.767413e+001 1.011712e+002 1.111926e+001 5.354387e-001 2.569168e-001 2.383182e-001 1.051415e+000 2.580692e+000 5.257406e+000 5.156214e+000 1.237715e+003
<GCONST> 1.229272e+002
<STATE> 4
<MEAN> 23
 8.138440e+000 7.639939e+000 2.156519e+000 2.240541e+000 3.788217e+001 3.298760e+001 9.059258e+001 9.227376e+001 6.727982e+001 6.358022e+001 1.841648e+002 1.856766e+002 1.173517e+002 1.170502e+002 6.642201e+000 4.913190e+000 6.319133e+000 5.576958e+000 5.986417e+000 5.904380e+000 3.784475e+000 3.571065e+000 1.368117e+002
<VARIANCE> 23
 6.974812e+001 6.438123e+001 6.267983e+000 6.653067e+000 1.154834e+003 6.631750e+002 4.539539e+002 3.662045e+002 1.061439e+002 1.054653e+002 6.182610e+002 5.390466e+002 1.574949e+002 1.259877e+002 2.298331e+000 1.024479e-001 2.518620e-001 2.551208e-001 1.021588e-001 2.043489e-001 5.602333e+000 5.730799e+000 1.064683e+003
<GCONST> 1.142960e+002
<TRANSP> 5
 0.000000e+000 1.000000e+000 0.000000e+000 0.000000e+000 0.000000e+000
 0.000000e+000 7.182009e-001 2.817991e-001 0.000000e+000 0.000000e+000
 0.000000e+000 0.000000e+000 9.414557e-001 5.854436e-002 0.000000e+000
 0.000000e+000 0.000000e+000 0.000000e+000 9.312185e-001 6.878151e-002
 0.000000e+000 0.000000e+000 0.000000e+000 0.000000e+000 0.000000e+000
<ENDHMM>
~h "CV"
<BEGINHMM>
<NUMSTATES> 5
<STATE> 2
<MEAN> 23
 1.444886e+001 1.458933e+001 3.424561e+000 3.348700e+000 7.145809e+001 6.609853e+001 7.851962e+001 7.656322e+001 6.533264e+001 5.950910e+001 1.418836e+002 1.421384e+002 1.112952e+002 1.103362e+002 4.442493e+000 4.217041e+000 5.955673e+000 5.565615e+000 4.940145e+000 4.828496e+000 2.802046e+000 2.491696e+000 1.118512e+002
<VARIANCE> 23
 5.234374e+002 4.338522e+002 2.386664e+002 1.536976e+002 7.391196e+003 5.358007e+003 1.015837e+003 8.838562e+002 1.694967e+002 1.128702e+002 3.438222e+003 2.868119e+003 3.286240e+002 2.867289e+002 9.181083e+000 1.232516e+000 2.329273e+000 5.849543e-001 2.262026e+000 4.765647e+000 3.778481e+000 3.998508e+000 2.057450e+003
<GCONST> 1.491908e+002
<STATE> 3
<MEAN> 23
 8.292574e+000 8.343514e+000 1.840998e+000 1.996282e+000 1.314946e+002 1.302244e+002 7.522725e+001 7.487018e+001 6.491011e+001 6.165797e+001 5.455510e+001 5.641363e+001 1.039024e+002 1.044905e+002 1.475492e+000 2.497126e+000 6.002934e+000 5.138294e+000 2.945873e+000 1.183066e+000 3.486238e+000 3.387022e+000 6.088556e+001
<VARIANCE> 23
 1.270234e+002 1.158348e+002 7.798895e+000 9.391614e+000 2.242468e+003 1.802168e+003 6.908230e+002 7.446821e+002 1.010256e+002 9.556138e+001 3.946493e+002 3.875507e+002 1.824384e+002 1.489798e+002 3.808486e-001 3.819927e-001 4.545570e+000 5.287604e-001 4.350575e-001 5.195798e-001 5.663825e+000 5.948498e+000 6.843522e+002
<GCONST> 1.233556e+002
<STATE> 4
<MEAN> 23
 1.308091e+001 1.277430e+001 3.022235e+000 2.844147e+000 4.024873e+001 3.547106e+001 7.755589e+001 8.003732e+001 6.584422e+001 5.924879e+001 1.645089e+002 1.717520e+002 1.127836e+002 1.118721e+002 5.537990e+000 4.743787e+000 6.202971e+000 5.791535e+000 5.544063e+000 5.853347e+000 4.334822e+000 4.188588e+000 1.145241e+002
<VARIANCE> 23
 1.892931e+002 2.076745e+002 1.296246e+001 1.125439e+001 1.258683e+003 9.450851e+002 1.070698e+003 8.615941e+002 1.145207e+002 7.572998e+001 2.192526e+003 1.489190e+003 1.989835e+002 1.524152e+002 6.830562e+000 5.965542e-001 1.815858e-001 1.693829e-001 8.012486e-001 1.577459e+000 6.291045e+000 5.045764e+000 2.133798e+003
<GCONST> 1.292245e+002
<TRANSP> 5
 0.000000e+000 1.000000e+000 0.000000e+000 0.000000e+000 0.000000e+000
 0.000000e+000 8.329628e-001 1.670372e-001 0.000000e+000 0.000000e+000
 0.000000e+000 0.000000e+000 9.544249e-001 4.557518e-002 0.000000e+000
 0.000000e+000 0.000000e+000 0.000000e+000 8.974801e-001 1.025200e-001
 0.000000e+000 0.000000e+000 0.000000e+000 0.000000e+000 0.000000e+000
<ENDHMM>
~h "DC"
<BEGINHMM>
<NUMSTATES> 5
<STATE> 2
<MEAN> 23
 1.296013e+001 1.286337e+001 3.757658e+000 3.848220e+000 8.493540e+001 8.047723e+001 6.968713e+001 6.899789e+001 6.598340e+001 6.171560e+001 1.391781e+002 1.402355e+002 1.099763e+002 1.083293e+002 4.241909e+000 4.046343e+000 6.016120e+000 5.604627e+000 5.021450e+000 4.778597e+000 2.565489e+000 2.103809e+000 9.370437e+001
<VARIANCE> 23
 5.022632e+002 4.170061e+002 3.695575e+002 2.432244e+002 1.221679e+004 8.426707e+003 1.195979e+003 1.042875e+003 2.228920e+002 1.768058e+002 3.211645e+003 2.939125e+003 5.537183e+002 4.717350e+002 9.469687e+000 1.947942e+000 1.276342e+000 9.457521e-001 1.957860e+000 6.233659e+000 3.191888e+000 3.452115e+000 2.415021e+003
<GCONST> 1.533251e+002
<STATE> 3
<MEAN> 23
 1.128065e+001 1.194424e+001 1.823201e+000 1.935575e+000 1.203975e+002 1.168388e+002 4.555843e+001 4.759469e+001 6.526517e+001 6.268269e+001 7.337057e+001 7.426081e+001 9.945404e+001 1.001029e+002 1.926071e+000 2.197360e+000 5.976440e+000 5.890015e+000 3.787185e+000 7.189258e-001 2.786700e+000 2.616369e+000 3.217412e+001
<VARIANCE> 23
 2.083465e+002 2.287419e+002 1.194684e+001 1.036604e+001 1.488906e+003 1.267257e+003 5.994532e+002 6.034199e+002 9.164807e+001 1.201373e+002 4.667773e+002 5.160135e+002 1.394125e+002 1.398541e+002 8.130531e-001 9.492387e-001 2.668919e-001 3.437481e-001 3.076888e-001 2.669824e+000 5.549985e+000 5.765924e+000 5.668049e+002
<GCONST> 1.236489e+002
<STATE> 4
<MEAN> 23
 1.353754e+001 1.295819e+001 3.078046e+000 2.811110e+000 3.803595e+001 3.468081e+001 7.761399e+001 7.726736e+001 6.488337e+001 6.016100e+001 1.694402e+002 1.706601e+002 1.107572e+002 1.107517e+002 5.962974e+000 4.888464e+000 6.241611e+000 5.750296e+000 5.679389e+000 6.085157e+000 4.260123e+000 4.094606e+000 1.080397e+002
<VARIANCE> 23
 2.097852e+002 2.148667e+002 1.221223e+001 1.093434e+001 1.156543e+003 9.071138e+002 1.027506e+003 8.590902e+002 1.066362e+002 9.865903e+001 1.396087e+003 1.268930e+003 1.709167e+002 1.478455e+002 5.327927e+000 4.146820e-001 2.141236e-001 2.077522e-001 4.404376e-001 8.121471e-001 7.152725e+000 4.305890e+000 2.120737e+003
<GCONST> 1.269607e+002
<TRANSP> 5
 0.000000e+000 1.000000e+000 0.000000e+000 0.000000e+000 0.000000e+000
 0.000000e+000 8.699291e-001 1.300709e-001 0.000000e+000 0.000000e+000
 0.000000e+000 0.000000e+000 9.578730e-001 4.212703e-002 0.000000e+000
 0.000000e+000 0.000000e+000 0.000000e+000 8.939699e-001 1.060301e-001
 0.000000e+000 0.000000e+000 0.000000e+000 0.000000e+000 0.000000e+000
<ENDHMM>
~h "FM"
<BEGINHMM>
<NUMSTATES> 5
<STATE> 2
<MEAN> 23
 7.992208e+000 3.411381e+000 2.666229e+000 1.463674e+000 6.071990e+001 1.665562e+001 6.395797e+001 8.986539e+001 9.226109e+001 5.985803e+001 1.392905e+002 1.846362e+002 1.122786e+002 1.154443e+002 2.235216e+000 4.811256e+000 6.515842e+000 5.829662e+000 5.291589e+000 6.025269e+000 3.060392e+000 2.023432e+000 1.318450e+002
<VARIANCE> 23
 3.276588e+002 2.978488e+002 2.260779e+002 1.456524e+002 1.016508e+003 5.385665e+002 7.694966e+002 6.992018e+002 4.998896e+002 1.330539e+002 1.235985e+003 1.374914e+003 2.153677e+002 1.795005e+002 1.005286e+001 2.360740e-001 3.240415e-001 1.650780e-001 4.309294e-001 5.206752e-001 6.422756e+000 5.660714e+000 1.041794e+003
<GCONST> 1.335677e+002
<STATE> 3
<MEAN> 23
 1.451716e+000 7.365250e+000 5.819818e-001 2.060954e+000 1.031945e+001 5.689929e+001 9.524319e+001 6.498585e+001 5.800522e+001 8.634946e+001 1.924931e+002 1.392047e+002 1.146936e+002 1.065155e+002 6.973206e+000 4.271698e+000 6.061254e+000 5.333769e+000 5.994155e+000 6.433889e+000 1.737065e+000 3.198282e+000 1.348626e+002
<VARIANCE> 23
 8.830050e+000 5.924314e+001 3.300596e+000 9.369704e+000 3.501856e+002 6.246071e+002 2.590840e+002 5.823364e+002 7.621149e+001 3.496091e+002 4.949897e+002 9.671315e+002 1.696918e+002 1.597628e+002 1.738946e-001 2.803552e-001 7.283507e-002 2.340391e-001 2.082488e-002 6.196100e-001 5.689168e+000 5.751178e+000 5.676072e+002
<GCONST> 1.080455e+002
<STATE> 4
<MEAN> 23
 4.481149e+000 5.862160e+000 1.180175e+000 1.846980e+000 8.652550e+001 8.430073e+001 6.269029e+001 5.379576e+001 6.522591e+001 6.361770e+001 1.403309e+002 1.191969e+002 9.975401e+001 9.629415e+001 4.093166e+000 3.447291e+000 5.731994e+000 5.096750e+000 4.941843e+000 4.021994e+000 2.200352e+000 2.634410e+000 9.493883e+001
<VARIANCE> 23
 7.156097e+001 7.702378e+001 5.446764e+000 1.081662e+001 2.252505e+004 1.215663e+004 1.626393e+003 1.298355e+003 7.549678e+002 6.721304e+002 3.772409e+003 3.176674e+003 1.225834e+003 1.081948e+003 1.032523e+001 2.762560e+000 3.375555e+000 2.625128e+000 2.827102e+000 9.151855e+000 5.897563e+000 6.571559e+000 3.164007e+003
<GCONST> 1.529895e+002
<TRANSP> 5
 0.000000e+000 1.000000e+000 0.000000e+000 0.000000e+000 0.000000e+000
 0.000000e+000 9.047377e-001 9.526238e-002 0.000000e+000 0.000000e+000
 0.000000e+000 0.000000e+000 9.541312e-001 4.586875e-002 0.000000e+000
 0.000000e+000 0.000000e+000 0.000000e+000 8.142315e-001 1.857685e-001
 0.000000e+000 0.000000e+000 0.000000e+000 0.000000e+000 0.000000e+000
<ENDHMM>
~h "FN"
<BEGINHMM>
<NUMSTATES> 5
<STATE> 2
<MEAN> 23
 7.898197e+000 1.334275e+001 3.342232e+000 3.981761e+000 8.475768e+001 1.009773e+002 8.851956e+001 8.229696e+001 6.492507e+001 6.206310e+001 1.556101e+002 1.237801e+002 1.063438e+002 1.047324e+002 5.152853e+000 3.696275e+000 5.507631e+000 5.123956e+000 5.124918e+000 4.074662e+000 2.422722e+000 2.376946e+000 1.280020e+002
<VARIANCE> 23
 1.015315e+003 7.658469e+002 7.755037e+002 4.575338e+002 2.190476e+004 1.301403e+004 1.466707e+003 1.348889e+003 4.154317e+002 2.966576e+002 4.722358e+003 5.683551e+003 1.026925e+003 7.082211e+002 7.088417e+000 2.556483e+000 3.511055e+000 2.353376e+000 2.422725e+000 7.007459e+000 6.191196e+000 4.665414e+000 4.099308e+003
<GCONST> 1.644275e+002
<STATE> 3
<MEAN> 23
 1.273420e+000 1.215675e+001 5.476384e-001 3.035534e+000 9.244740e+000 1.595870e+002 9.149085e+001 1.010381e+002 5.803251e+001 6.846050e+001 1.882129e+002 4.014536e+001 1.124171e+002 9.738642e+001 6.929799e+000 2.255559e+000 6.044461e+000 4.438015e+000 5.959760e+000 1.349016e+000 1.518428e+000 3.414852e+000 1.855370e+002
<VARIANCE> 23
 8.174322e+000 2.076652e+002 3.300596e+000 1.758233e+001 4.978148e+002 2.136527e+003 2.486988e+002 9.424109e+002 5.776733e+001 1.591100e+002 6.952677e+002 1.151208e+003 1.440525e+002 2.348196e+002 3.312932e-001 3.368323e-001 1.642971e-001 1.414622e+000 1.059026e-001 1.025745e+000 5.166061e+000 5.415675e+000 1.389038e+003
<GCONST> 1.178546e+002
<STATE> 4
<MEAN> 23
 8.067510e+000 6.373633e+000 2.201848e+000 1.630566e+000 7.844576e+001 2.743538e+001 9.343607e+001 8.223325e+001 6.911428e+001 5.895258e+001 1.164992e+002 1.732801e+002 1.064864e+002 1.131462e+002 4.103566e+000 4.619136e+000 4.993595e+000 5.788464e+000 4.442756e+000 5.492535e+000 3.109290e+000 2.735474e+000 1.434559e+002
<VARIANCE> 23
 1.420051e+002 1.418772e+002 1.122498e+001 6.223149e+000 5.724418e+003 9.034057e+002 1.311973e+003 9.565985e+002 1.955505e+002 9.119160e+001 6.017899e+003 1.953170e+003 3.264733e+002 1.672270e+002 7.164822e+000 9.663258e-001 5.563528e+000 1.848655e-001 2.495100e+000 3.323065e+000 6.590512e+000 6.744849e+000 3.745318e+003
<GCONST> 1.390069e+002
<TRANSP> 5
 0.000000e+000 1.000000e+000 0.000000e+000 0.000000e+000 0.000000e+000
 0.000000e+000 7.926277e-001 2.073723e-001 0.000000e+000 0.000000e+000
 0.000000e+000 0.000000e+000 9.391226e-001 6.087735e-002 0.000000e+000
 0.000000e+000 0.000000e+000 0.000000e+000 9.416990e-001 5.830102e-002
 0.000000e+000 0.000000e+000 0.000000e+000 0.000000e+000 0.000000e+000
<ENDHMM>
~h "FU"
<BEGINHMM>
<NUMSTATES> 5
<STATE> 2
<MEAN> 23
 9.211936e+000 3.391116e+000 2.370939e+000 1.066149e+000 1.132075e+002 2.520860e+001 1.008017e+002 8.939369e+001 6.460380e+001 5.553328e+001 7.513290e+001 1.816802e+002 1.013597e+002 1.115571e+002 3.230452e+000 4.841394e+000 3.859409e+000 5.797081e+000 3.701310e+000 5.834449e+000 3.107877e+000 2.076031e+000 1.675481e+002
<VARIANCE> 23
 2.180045e+002 4.839516e+001 1.337169e+001 3.105517e+000 6.249830e+003 1.296610e+003 9.429807e+002 4.049555e+002 1.811709e+002 6.446288e+001 5.415838e+003 1.244168e+003 2.669969e+002 1.532181e+002 5.390904e+000 3.502924e-001 7.658412e+000 2.170507e-001 2.243188e+000 9.644431e-001 6.313743e+000 5.455719e+000 2.243067e+003
<GCONST> 1.329006e+002
<STATE> 3
<MEAN> 23
 1.367587e+000 8.712497e+000 5.920846e-001 2.040253e+000 7.802539e+000 1.632869e+002 8.990829e+001 1.024778e+002 5.614819e+001 6.269842e+001 1.858648e+002 3.123544e+001 1.105786e+002 9.551506e+001 6.953956e+000 2.162315e+000 6.060561e+000 4.293746e+000 5.971700e+000 1.386529e+000 1.616593e+000 2.805948e+000 1.838842e+002
<VARIANCE> 23
 9.592085e+000 1.881873e+002 3.300596e+000 8.238693e+000 3.261175e+002 1.886698e+003 2.603330e+002 7.064043e+002 7.054548e+001 1.668777e+002 6.390280e+002 1.011342e+003 1.783369e+002 1.673073e+002 2.360317e-001 2.957225e-001 8.927426e-002 2.040828e+000 7.745155e-002 1.001410e+000 5.451152e+000 6.404929e+000 1.144260e+003
<GCONST> 1.152544e+002
<STATE> 4
<MEAN> 23
 4.578926e+000 1.352976e+001 1.600147e+000 3.421650e+000 7.196986e+001 7.730523e+001 8.524217e+001 7.175067e+001 5.810399e+001 5.809681e+001 1.611131e+002 1.419729e+002 1.065045e+002 1.005643e+002 5.632896e+000 4.163447e+000 5.614817e+000 5.328677e+000 5.199291e+000 4.954598e+000 2.566837e+000 3.525818e+000 1.114640e+002
<VARIANCE> 23
 1.912522e+002 3.906206e+002 9.529719e+001 8.038528e+001 2.000498e+004 1.164759e+004 1.320870e+003 1.349638e+003 3.407793e+002 3.939842e+002 5.106731e+003 3.998400e+003 1.092527e+003 9.774062e+002 5.878508e+000 2.542057e+000 2.720525e+000 2.285148e+000 2.648817e+000 5.696945e+000 6.761860e+000 6.024141e+000 3.327388e+003
<GCONST> 1.576798e+002
<TRANSP> 5
 0.000000e+000 1.000000e+000 0.000000e+000 0.000000e+000 0.000000e+000
 0.000000e+000 9.289712e-001 7.102881e-002 0.000000e+000 0.000000e+000
 0.000000e+000 0.000000e+000 9.404664e-001 5.953354e-002 0.000000e+000
 0.000000e+000 0.000000e+000 0.000000e+000 8.620558e-001 1.379441e-001
 0.000000e+000 0.000000e+000 0.000000e+000 0.000000e+000 0.000000e+000
<ENDHMM>
~h "MC"
<BEGINHMM>
<NUMSTATES> 5
<STATE> 2
<MEAN> 23
 1.005328e+001 1.044938e+001 4.188862e+000 3.044166e+000 6.956666e+001 4.916027e+001 7.897994e+001 8.428931e+001 7.806392e+001 6.560923e+001 1.431939e+002 1.620963e+002 1.167214e+002 1.170104e+002 3.971206e+000 4.262722e+000 6.365716e+000 5.819097e+000 4.907555e+000 4.725588e+000 2.987170e+000 2.418476e+000 1.327052e+002
<VARIANCE> 23
 5.989986e+002 9.381710e+002 4.972566e+002 2.929227e+002 3.502192e+003 3.215111e+003 1.525606e+003 1.125505e+003 4.187063e+002 1.766899e+002 4.949512e+003 3.633649e+003 5.709852e+002 2.734059e+002 8.677692e+000 1.513841e+000 3.988359e-001 2.309664e-001 1.443678e+000 6.097249e+000 6.168213e+000 5.298462e+000 2.959414e+003
<GCONST> 1.517125e+002
<STATE> 3
<MEAN> 23
 1.582314e+000 9.669541e+000 6.567755e-001 2.865166e+000 7.756564e+000 1.013704e+002 9.266309e+001 6.022549e+001 5.669802e+001 7.952903e+001 1.890801e+002 8.836533e+001 1.127250e+002 9.942834e+001 6.985196e+000 3.094531e+000 6.051927e+000 5.631853e+000 5.994078e+000 2.406914e+000 1.858994e+000 3.233331e+000 1.393245e+002
<VARIANCE> 23
 8.801416e+000 9.265218e+001 3.300596e+000 1.184479e+001 1.336636e+002 2.297462e+003 2.493963e+002 8.440403e+002 7.797981e+001 4.224720e+002 4.823626e+002 2.319336e+003 1.445433e+002 2.404409e+002 7.012852e-002 1.294145e+000 5.359685e-002 3.530087e-001 2.082488e-002 8.515802e+000 5.789570e+000 5.145267e+000 1.215386e+003
<GCONST> 1.147196e+002
<STATE> 4
<MEAN> 23
 7.450870e+000 4.724214e+000 2.219188e+000 1.615149e+000 7.836092e+001 3.964767e+001 5.987442e+001 7.334251e+001 7.342139e+001 6.005601e+001 1.093078e+002 1.527386e+002 1.039277e+002 1.073551e+002 3.038311e+000 4.212204e+000 6.152222e+000 5.698426e+000 4.514052e+000 4.973805e+000 3.054216e+000 2.736637e+000 1.121963e+002
<VARIANCE> 23
 8.181329e+001 6.146816e+001 1.016984e+001 7.565280e+000 6.170881e+003 3.842346e+003 8.225013e+002 1.051200e+003 3.842238e+002 2.056179e+002 3.053275e+003 3.003069e+003 3.123988e+002 2.511261e+002 7.233749e+000 1.544348e+000 5.643960e-001 4.549332e-001 1.440668e+000 5.803731e+000 6.100929e+000 6.194156e+000 2.000891e+003
<GCONST> 1.387782e+002
<TRANSP> 5
 0.000000e+000 1.000000e+000 0.000000e+000 0.000000e+000 0.000000e+000
 0.000000e+000 7.529746e-001 2.470254e-001 0.000000e+000 0.000000e+000
 0.000000e+000 0.000000e+000 9.609364e-001 3.906360e-002 0.000000e+000
 0.000000e+000 0.000000e+000 0.000000e+000 9.224993e-001 7.750073e-002
 0.000000e+000 0.000000e+000 0.000000e+000 0.000000e+000 0.000000e+000
<ENDHMM>
~h "NU"
<BEGINHMM>
<NUMSTATES> 5
<STATE> 2
<MEAN> 23
 6.334829e+000 9.043722e+000 2.331232e+000 2.127082e+000 1.944345e+002 1.577841e+002 7.176225e+001 6.345645e+001 5.628326e+001 4.955862e+001 1.252445e+002 1.143075e+002 8.811616e+001 9.072638e+001 3.844745e+000 3.232110e+000 4.538674e+000 4.399079e+000 3.986762e+000 3.345480e+000 2.006423e+000 1.921092e+000 1.090729e+002
<VARIANCE> 23
 5.607182e+002 1.003233e+003 3.974958e+002 2.515557e+002 5.109996e+004 2.954444e+004 2.569644e+003 1.772461e+003 1.071301e+003 7.972025e+002 8.069804e+003 6.564434e+003 2.993887e+003 2.520305e+003 1.007078e+001 3.947276e+000 7.939268e+000 5.696840e+000 5.961575e+000 7.912563e+000 6.010445e+000 5.128283e+000 6.570141e+003
<GCONST> 1.743373e+002
<STATE> 3
<MEAN> 23
 1.369930e+000 8.542288e+000 5.362815e-001 2.393281e+000 1.092738e+001 9.370641e+001 9.178438e+001 7.162616e+001 5.817476e+001 6.367315e+001 1.887435e+002 9.843687e+001 1.130157e+002 1.047668e+002 6.954867e+000 3.393373e+000 6.076860e+000 5.319448e+000 5.965520e+000 2.875884e+000 1.576232e+000 3.172204e+000 1.479201e+002
<VARIANCE> 23
 8.546556e+000 1.288699e+002 3.300596e+000 1.040847e+001 4.455477e+002 2.611686e+003 2.866611e+002 7.047682e+002 5.930249e+001 1.240955e+002 5.942685e+002 2.624885e+003 1.613988e+002 1.745902e+002 2.341389e-001 1.058599e+000 8.764534e-002 3.937866e-001 7.272545e-002 6.017170e+000 5.310504e+000 5.684702e+000 1.252217e+003
<GCONST> 1.173580e+002
<STATE> 4
<MEAN> 23
 7.025706e+000 4.589188e+000 2.053342e+000 1.529447e+000 7.238061e+001 3.941642e+001 7.399297e+001 7.937135e+001 6.993407e+001 5.684486e+001 1.132489e+002 1.522981e+002 1.087402e+002 1.095087e+002 2.823715e+000 4.138355e+000 6.279646e+000 5.692795e+000 4.181346e+000 4.477366e+000 3.045813e+000 2.634455e+000 1.246663e+002
<VARIANCE> 23
 8.808200e+001 5.545369e+001 7.841085e+000 5.999002e+000 3.078567e+003 2.237167e+003 1.187115e+003 1.096684e+003 2.025961e+002 6.474033e+001 3.575820e+003 3.344508e+003 2.376336e+002 2.075259e+002 7.278467e+000 1.524736e+000 1.836364e+000 2.758307e-001 2.497499e+000 5.978427e+000 6.297296e+000 6.264716e+000 3.888188e+003
<GCONST> 1.373958e+002
<TRANSP> 5
 0.000000e+000 1.000000e+000 0.000000e+000 0.000000e+000 0.000000e+000
 0.000000e+000 6.672634e-001 3.327366e-001 0.000000e+000 0.000000e+000
 0.000000e+000 0.000000e+000 9.517625e-001 4.823751e-002 0.000000e+000
 0.000000e+000 0.000000e+000 0.000000e+000 9.138059e-001 8.619417e-002
 0.000000e+000 0.000000e+000 0.000000e+000 0.000000e+000 0.000000e+000
<ENDHMM>
~h "OK"
<BEGINHMM>
<NUMSTATES> 5
<STATE> 2
<MEAN> 23
 1.390566e+001 4.305374e+000 4.026135e+000 1.663938e+000 1.027639e+002 3.193415e+001 1.002432e+002 8.841619e+001 7.709622e+001 5.611195e+001 9.265350e+001 1.787755e+002 1.088859e+002 1.154069e+002 2.769873e+000 4.649543e+000 4.605685e+000 5.785118e+000 3.697850e+000 5.576205e+000 3.478778e+000 2.367061e+000 1.684029e+002
<VARIANCE> 23
 4.604673e+002 2.268165e+002 2.162580e+002 1.257221e+002 4.783329e+003 1.946984e+003 1.104724e+003 6.904490e+002 2.194347e+002 7.477690e+001 4.372501e+003 2.281353e+003 3.211441e+002 1.574108e+002 6.268110e+000 7.118480e-001 8.721459e+000 2.640703e-001 2.664628e+000 2.361566e+000 6.097487e+000 5.988849e+000 2.871755e+003
<GCONST> 1.460113e+002
<STATE> 3
<MEAN> 23
 1.833927e+000 1.163381e+001 7.953122e-001 2.883613e+000 1.095537e+001 1.054043e+002 9.286428e+001 9.371801e+001 5.755827e+001 6.857601e+001 1.921191e+002 1.014492e+002 1.146720e+002 1.066997e+002 6.976792e+000 3.432772e+000 6.055140e+000 5.005514e+000 5.991808e+000 3.295837e+000 2.007372e+000 3.380701e+000 1.642496e+002
<VARIANCE> 23
 1.117502e+001 2.402202e+002 3.300596e+000 1.315683e+001 3.088101e+002 4.511817e+003 2.469576e+002 7.585082e+002 7.382711e+001 2.033348e+002 4.523006e+002 4.426680e+003 1.443533e+002 1.871363e+002 1.206593e-001 1.475716e+000 6.514822e-002 6.965103e-001 2.268878e-002 5.360316e+000 6.087277e+000 5.785498e+000 1.838522e+003
<GCONST> 1.187086e+002
<STATE> 4
<MEAN> 23
 7.325065e+000 5.104823e+000 1.951027e+000 1.452440e+000 9.941383e+001 5.704030e+001 7.623363e+001 6.753981e+001 6.163432e+001 5.239598e+001 1.118801e+002 1.409582e+002 9.645251e+001 9.966999e+001 3.482485e+000 3.989542e+000 5.058883e+000 5.387268e+000 4.061020e+000 4.604337e+000 2.639012e+000 2.482117e+000 1.146682e+002
<VARIANCE> 23
 1.372674e+002 9.831992e+001 1.281808e+001 7.446438e+000 1.608488e+004 1.055249e+004 1.711501e+003 1.162831e+003 4.328240e+002 3.161751e+002 5.478540e+003 3.890311e+003 1.187521e+003 9.283190e+002 8.226246e+000 2.719513e+000 6.811040e+000 2.439548e+000 3.912379e+000 6.793964e+000 6.193499e+000 6.452523e+000 4.015461e+003
<GCONST> 1.535921e+002
<TRANSP> 5
 0.000000e+000 1.000000e+000 0.000000e+000 0.000000e+000 0.000000e+000
 0.000000e+000 8.767864e-001 1.232136e-001 0.000000e+000 0.000000e+000
 0.000000e+000 0.000000e+000 9.428132e-001 5.718685e-002 0.000000e+000
 0.000000e+000 0.000000e+000 0.000000e+000 8.028093e-001 1.971907e-001
 0.000000e+000 0.000000e+000 0.000000e+000 0.000000e+000 0.000000e+000
<ENDHMM>
~h "PF"
<BEGINHMM>
<NUMSTATES> 5
<STATE> 2
<MEAN> 23
 8.758740e+000 1.192173e+001 4.022137e+000 4.295340e+000 1.206146e+002 1.446542e+002 8.681351e+001 1.060438e+002 6.901032e+001 7.154411e+001 1.505796e+002 1.163782e+002 1.045163e+002 1.011948e+002 4.459871e+000 3.416563e+000 5.563151e+000 4.734060e+000 5.088748e+000 3.482802e+000 2.546556e+000 2.719558e+000 1.528158e+002
<VARIANCE> 23
 1.073152e+003 9.603616e+002 8.497272e+002 5.583694e+002 3.093532e+004 1.776834e+004 1.555477e+003 2.654842e+003 4.394923e+002 6.349989e+002 4.691203e+003 5.288349e+003 8.980869e+002 6.499266e+002 9.069615e+000 2.324341e+000 3.682866e+000 2.327892e+000 2.356441e+000 6.097562e+000 6.219851e+000 5.154662e+000 6.152973e+003
<GCONST> 1.674427e+002
<STATE> 3
<MEAN> 23
 1.414657e+000 1.507229e+001 6.400975e-001 4.135643e+000 1.016614e+001 1.559911e+002 9.253884e+001 1.220492e+002 5.814105e+001 8.148309e+001 1.888478e+002 7.844324e+001 1.133608e+002 9.598378e+001 6.942927e+000 2.874077e+000 6.056368e+000 4.034007e+000 5.966179e+000 2.499309e+000 1.774552e+000 3.557636e+000 2.036010e+002
<VARIANCE> 23
 8.334905e+000 2.995216e+002 3.300596e+000 2.255565e+001 5.329933e+002 4.656700e+003 2.587427e+002 1.327344e+003 6.335544e+001 2.898321e+002 6.119454e+002 2.737014e+003 1.294612e+002 2.449152e+002 2.919094e-001 1.009874e+000 2.140271e-001 1.132299e+000 9.460966e-002 3.334749e+000 5.880652e+000 4.703701e+000 2.381063e+003
<GCONST> 1.236917e+002
<STATE> 4
<MEAN> 23
 9.350447e+000 3.548804e+000 2.920623e+000 1.374259e+000 9.914912e+001 2.402782e+001 1.158846e+002 8.810116e+001 7.827012e+001 5.700159e+001 1.224273e+002 1.814961e+002 1.053857e+002 1.147019e+002 3.560820e+000 4.705702e+000 3.875691e+000 5.774240e+000 3.929574e+000 5.516982e+000 3.174995e+000 2.522769e+000 1.724831e+002
<VARIANCE> 23
 1.809697e+002 4.038653e+001 1.875729e+001 4.986884e+000 6.925306e+003 8.544828e+002 2.128424e+003 7.505045e+002 4.256948e+002 6.601478e+001 4.631901e+003 1.560092e+003 3.560129e+002 1.467915e+002 7.641045e+000 7.492536e-001 7.792506e+000 1.870921e-001 3.620558e+000 2.807120e+000 6.763526e+000 6.240940e+000 5.500432e+003
<GCONST> 1.392804e+002
<TRANSP> 5
 0.000000e+000 1.000000e+000 0.000000e+000 0.000000e+000 0.000000e+000
 0.000000e+000 6.825723e-001 3.174278e-001 0.000000e+000 0.000000e+000
 0.000000e+000 0.000000e+000 9.489040e-001 5.109593e-002 0.000000e+000
 0.000000e+000 0.000000e+000 0.000000e+000 9.307266e-001 6.927333e-002
 0.000000e+000 0.000000e+000 0.000000e+000 0.000000e+000 0.000000e+000
<ENDHMM>
~h "PR"
<BEGINHMM>
<NUMSTATES> 5
<STATE> 2
<MEAN> 23
 8.746991e+000 8.956017e+000 3.690001e+000 3.613450e+000 9.993281e+001 9.788266e+001 7.685119e+001 7.515930e+001 6.566160e+001 5.771953e+001 1.321728e+002 1.216417e+002 9.887168e+001 9.634554e+001 3.397577e+000 3.361521e+000 5.270138e+000 4.818132e+000 4.324764e+000 3.327412e+000 2.277448e+000 2.423739e+000 1.313508e+002
<VARIANCE> 23
 9.785927e+002 7.741471e+002 7.066144e+002 4.654656e+002 2.254083e+004 1.402799e+004 2.031265e+003 2.139323e+003 7.530744e+002 5.512885e+002 5.624925e+003 4.224131e+003 1.626984e+003 1.431661e+003 9.826394e+000 2.746547e+000 6.326532e+000 3.284723e+000 4.646130e+000 7.039164e+000 5.980843e+000 6.061011e+000 6.244641e+003
<GCONST> 1.700970e+002
<STATE> 3
<MEAN> 23
 1.299975e+000 9.420637e+000 5.668302e-001 3.153897e+000 1.028670e+001 9.417483e+001 9.250632e+001 8.596053e+001 5.859475e+001 6.421651e+001 1.879899e+002 1.072342e+002 1.126740e+002 1.031782e+002 6.932965e+000 3.538802e+000 6.085263e+000 5.077671e+000 5.972068e+000 3.439459e+000 1.718525e+000 3.580046e+000 1.636992e+002
<VARIANCE> 23
 6.461017e+000 1.310184e+002 3.300596e+000 1.681174e+001 3.565914e+002 2.348566e+003 2.695874e+002 6.615051e+002 6.774519e+001 1.617294e+002 5.921527e+002 2.195699e+003 1.586371e+002 2.089508e+002 3.917437e-001 7.851740e-001 8.892385e-002 3.453627e-001 8.931436e-002 4.002900e+000 5.695932e+000 6.350344e+000 1.448223e+003
<GCONST> 1.177221e+002
<STATE> 4
<MEAN> 23
 9.136330e+000 3.026328e+000 2.575032e+000 1.126045e+000 6.820315e+001 1.984909e+001 8.340537e+001 8.576399e+001 7.136768e+001 5.652670e+001 1.167089e+002 1.785983e+002 1.073328e+002 1.116500e+002 2.823266e+000 4.745074e+000 6.256646e+000 5.777409e+000 3.944822e+000 5.847130e+000 3.328790e+000 2.332365e+000 1.473399e+002
<VARIANCE> 23
 1.302651e+002 3.021952e+001 1.189203e+001 3.598072e+000 2.520202e+003 5.136187e+002 9.151407e+002 7.136664e+002 2.095370e+002 6.434487e+001 3.122085e+003 1.329554e+003 2.469895e+002 1.511380e+002 8.155081e+000 3.756690e-001 2.452714e+000 1.895169e-001 3.664159e+000 1.152619e+000 6.013191e+000 6.146137e+000 2.171734e+003
<GCONST> 1.301313e+002
<TRANSP> 5
 0.000000e+000 1.000000e+000 0.000000e+000 0.000000e+000 0.000000e+000
 0.000000e+000 7.223486e-001 2.776515e-001 0.000000e+000 0.000000e+000
 0.000000e+000 0.000000e+000 9.509122e-001 4.908781e-002 0.000000e+000
 0.000000e+000 0.000000e+000 0.000000e+000 9.086519e-001 9.134806e-002
 0.000000e+000 0.000000e+000 0.000000e+000 0.000000e+000 0.000000e+000
<ENDHMM>
~h "SP"
<BEGINHMM>
<NUMSTATES> 5
<STATE> 2
<MEAN> 23
 7.798305e+000 1.509445e+001 4.437871e+000 5.666229e+000 9.696524e+001 1.019856e+002 7.869227e+001 7.411456e+001 5.662621e+001 5.653917e+001 1.449657e+002 1.244432e+002 9.666052e+001 9.270212e+001 5.076950e+000 3.634967e+000 5.018412e+000 4.605861e+000 4.794733e+000 4.320796e+000 1.961673e+000 1.974087e+000 1.195617e+002
<VARIANCE> 23
 1.811137e+003 1.311675e+003 1.461186e+003 8.874956e+002 3.146463e+004 1.696566e+004 1.822204e+003 1.696624e+003 6.828463e+002 6.789240e+002 5.777286e+003 5.420243e+003 1.705593e+003 1.639031e+003 8.637889e+000 3.129946e+000 5.636332e+000 4.026248e+000 4.503607e+000 6.552629e+000 5.619465e+000 3.698336e+000 4.671198e+003
<GCONST> 1.725043e+002
<STATE> 3
<MEAN> 23
 1.193610e+000 1.059714e+001 5.053833e-001 3.702308e+000 1.104607e+001 1.824950e+002 9.458652e+001 1.326592e+002 6.128113e+001 8.990983e+001 1.876773e+002 5.732487e+001 1.127877e+002 9.327859e+001 6.790714e+000 2.337953e+000 6.102822e+000 3.495364e+000 5.969503e+000 1.683003e+000 1.592485e+000 2.991957e+000 2.208777e+002
<VARIANCE> 23
 7.343148e+000 2.577959e+002 3.300596e+000 2.763643e+001 5.905552e+002 2.737925e+003 3.867887e+002 9.299017e+002 1.260588e+002 4.737243e+002 8.317129e+002 8.503896e+002 2.012620e+002 2.352543e+002 1.311615e+000 3.834917e-001 3.121301e-001 6.336952e-001 1.326276e-001 1.179158e+000 5.440021e+000 6.033355e+000 1.694850e+003
<GCONST> 1.234145e+002
<STATE> 4
<MEAN> 23
 9.618390e+000 4.959983e+000 3.201672e+000 1.554755e+000 1.077596e+002 2.033744e+001 1.162765e+002 8.430276e+001 8.543193e+001 5.822324e+001 1.077073e+002 1.737736e+002 9.914302e+001 1.120771e+002 3.435733e+000 4.640427e+000 3.689676e+000 5.747262e+000 4.022943e+000 5.346078e+000 3.136504e+000 2.487954e+000 1.731907e+002
<VARIANCE> 23
 2.379826e+002 9.927380e+001 3.688026e+001 7.680672e+000 7.534611e+003 7.198237e+002 1.713852e+003 7.740472e+002 5.981202e+002 6.937801e+001 4.369733e+003 1.710060e+003 3.986531e+002 1.418242e+002 6.728432e+000 7.523739e-001 7.542332e+000 2.110626e-001 2.851339e+000 3.646667e+000 6.503280e+000 6.752290e+000 4.347850e+003
<GCONST> 1.415828e+002
<TRANSP> 5
 0.000000e+000 1.000000e+000 0.000000e+000 0.000000e+000 0.000000e+000
 0.000000e+000 7.088709e-001 2.911291e-001 0.000000e+000 0.000000e+000
 0.000000e+000 0.000000e+000 9.512826e-001 4.871746e-002 0.000000e+000
 0.000000e+000 0.000000e+000 0.000000e+000 9.370734e-001 6.292660e-002
 0.000000e+000 0.000000e+000 0.000000e+000 0.000000e+000 0.000000e+000
<ENDHMM>
~h "ST"
<BEGINHMM>
<NUMSTATES> 5
<STATE> 2
<MEAN> 23
 7.186531e+000 9.691240e+000 2.668843e+000 2.952392e+000 8.212196e+001 9.150774e+001 8.401035e+001 7.825461e+001 7.164513e+001 7.114562e+001 1.470601e+002 1.180312e+002 1.110829e+002 1.107780e+002 4.467502e+000 3.430843e+000 6.126703e+000 5.610410e+000 4.890831e+000 3.297536e+000 2.781858e+000 2.705067e+000 1.251727e+002
<VARIANCE> 23
 4.972986e+002 5.628632e+002 3.899548e+002 2.387538e+002 1.619615e+004 9.815587e+003 1.452182e+003 1.094541e+003 3.455386e+002 4.266896e+002 5.111154e+003 4.899392e+003 8.056172e+002 4.998669e+002 8.270820e+000 2.339879e+000 1.451397e+000 1.011997e+000 2.489924e+000 7.857610e+000 6.473763e+000 5.885004e+000 3.263299e+003
<GCONST> 1.593129e+002
<STATE> 3
<MEAN> 23
 1.297926e+000 1.077253e+001 5.132746e-001 2.195555e+000 9.412802e+000 1.123503e+002 9.194018e+001 6.788106e+001 5.845882e+001 7.952026e+001 1.900100e+002 7.646948e+001 1.139171e+002 1.053568e+002 6.969354e+000 2.744761e+000 6.061718e+000 5.841440e+000 5.988432e+000 1.852743e+000 1.534341e+000 3.004835e+000 1.427046e+002
<VARIANCE> 23
 7.693619e+000 1.581210e+002 3.300596e+000 8.891198e+000 3.005852e+002 2.677650e+003 2.134136e+002 6.098275e+002 5.400140e+001 3.206393e+002 4.785212e+002 2.933004e+003 1.254049e+002 1.329296e+002 1.644596e-001 1.488400e+000 6.346473e-002 3.630780e-001 2.657126e-002 6.604208e+000 5.129030e+000 5.816730e+000 1.023594e+003
<GCONST> 1.151728e+002
<STATE> 4
<MEAN> 23
 9.956206e+000 2.814964e+000 2.217509e+000 1.054912e+000 9.243666e+001 2.037579e+001 7.682203e+001 9.023855e+001 8.203744e+001 5.758404e+001 9.318232e+001 1.872480e+002 1.088529e+002 1.157779e+002 3.079960e+000 4.882868e+000 6.021095e+000 5.876741e+000 4.233396e+000 5.959415e+000 3.145577e+000 2.153063e+000 1.442961e+002
<VARIANCE> 23
 1.351169e+002 3.540448e+001 8.881066e+000 4.467010e+000 4.066148e+003 8.155452e+002 7.949092e+002 6.399584e+002 3.734010e+002 5.549627e+001 4.642733e+003 1.193399e+003 2.630021e+002 1.526781e+002 5.988756e+000 1.835662e-001 1.356722e+000 1.243151e-001 1.543729e+000 6.983008e-001 6.106596e+000 5.976183e+000 1.734118e+003
<GCONST> 1.280912e+002
<TRANSP> 5
 0.000000e+000 1.000000e+000 0.000000e+000 0.000000e+000 0.000000e+000
 0.000000e+000 7.900100e-001 2.099900e-001 0.000000e+000 0.000000e+000
 0.000000e+000 0.000000e+000 9.563191e-001 4.368093e-002 0.000000e+000
 0.000000e+000 0.000000e+000 0.000000e+000 9.129572e-001 8.704279e-002
 0.000000e+000 0.000000e+000 0.000000e+000 0.000000e+000 0.000000e+000
<ENDHMM>
~h "TT"
<BEGINHMM>
<NUMSTATES> 5
<STATE> 2
<MEAN> 23
 9.906029e+000 1.401937e+001 4.295178e+000 5.397008e+000 3.763916e+001 5.615909e+001 8.867335e+001 9.480969e+001 6.730778e+001 6.870583e+001 1.705575e+002 1.600961e+002 1.127508e+002 1.110166e+002 5.505994e+000 4.411869e+000 5.943462e+000 5.366780e+000 5.578538e+000 5.114357e+000 2.584019e+000 2.778859e+000 1.411794e+002
<VARIANCE> 23
 1.390831e+003 1.089934e+003 1.022177e+003 6.758796e+002 3.002557e+003 4.494266e+003 1.205292e+003 1.435724e+003 2.800140e+002 5.336700e+002 2.167441e+003 2.290451e+003 2.448955e+002 2.074095e+002 7.217878e+000 1.114688e+000 1.667099e+000 9.072108e-001 1.103462e+000 3.638492e+000 6.484081e+000 4.293620e+000 3.617003e+003
<GCONST> 1.543068e+002
<STATE> 3
<MEAN> 23
 1.744825e+000 1.783345e+001 7.918466e-001 5.956944e+000 1.228781e+001 1.909626e+002 9.580460e+001 1.569493e+002 6.002929e+001 1.132442e+002 1.912234e+002 1.016292e+002 1.146626e+002 9.822854e+001 6.942142e+000 2.799884e+000 6.080523e+000 3.605439e+000 5.967139e+000 2.330392e+000 1.908282e+000 3.761996e+000 2.445988e+002
<VARIANCE> 23
 1.237325e+001 3.644948e+002 3.300596e+000 5.270851e+001 6.407819e+002 5.336735e+003 4.308759e+002 1.718206e+003 1.401760e+002 8.480436e+002 6.975714e+002 1.542724e+003 1.987192e+002 3.381638e+002 3.022698e-001 7.504991e-001 2.537519e-001 8.397340e-001 1.026270e-001 2.441929e+000 5.803599e+000 5.515006e+000 3.141308e+003
<GCONST> 1.281991e+002
<STATE> 4
<MEAN> 23
 1.341637e+001 3.413047e+000 4.677626e+000 1.410633e+000 1.377307e+002 3.111125e+001 1.299378e+002 8.670483e+001 9.560579e+001 5.645946e+001 1.200693e+002 1.776714e+002 1.014614e+002 1.117776e+002 2.842537e+000 4.621256e+000 3.388712e+000 5.701860e+000 3.635034e+000 5.345763e+000 3.311979e+000 2.383016e+000 1.941882e+002
<VARIANCE> 23
 3.209254e+002 3.978997e+001 5.159582e+001 6.825748e+000 1.128276e+004 3.693961e+003 3.234051e+003 1.004087e+003 1.323989e+003 1.488293e+002 3.140949e+003 2.189973e+003 5.746997e+002 4.221088e+002 6.865780e+000 1.176981e+000 8.071201e+000 8.630678e-001 3.621666e+000 3.690367e+000 5.802513e+000 6.243920e+000 7.364866e+003
<GCONST> 1.495808e+002
<TRANSP> 5
 0.000000e+000 1.000000e+000 0.000000e+000 0.000000e+000 0.000000e+000
 0.000000e+000 7.337362e-001 2.662639e-001 0.000000e+000 0.000000e+000
 0.000000e+000 0.000000e+000 9.479212e-001 5.207881e-002 0.000000e+000
 0.000000e+000 0.000000e+000 0.000000e+000 9.410285e-001 5.897152e-002
 0.000000e+000 0.000000e+000 0.000000e+000 0.000000e+000 0.000000e+000
<ENDHMM>
~h "VA"
<BEGINHMM>
<NUMSTATES> 5
<STATE> 2
<MEAN> 23
 1.186703e+001 1.198226e+001 5.386821e+000 4.555729e+000 1.395939e+002 1.459020e+002 9.237045e+001 1.061597e+002 7.485006e+001 7.796381e+001 1.232537e+002 1.172319e+002 9.378745e+001 9.410767e+001 3.381312e+000 3.221630e+000 4.612810e+000 4.346480e+000 4.223325e+000 3.231191e+000 2.696405e+000 2.581906e+000 1.535751e+002
<VARIANCE> 23
 9.949147e+002 8.115284e+002 6.101290e+002 3.700426e+002 2.651583e+004 1.577232e+004 3.601756e+003 3.708905e+003 1.265230e+003 1.512794e+003 5.813985e+003 5.243134e+003 1.621930e+003 1.289636e+003 8.819065e+000 2.643831e+000 6.932946e+000 3.335064e+000 4.058660e+000 6.387352e+000 6.120801e+000 5.316868e+000 8.959881e+003
<GCONST> 1.728383e+002
<STATE> 3
<MEAN> 23
 2.316840e+000 1.536291e+001 1.099969e+000 5.645437e+000 1.177515e+001 1.435035e+002 9.152721e+001 1.225840e+002 5.712464e+001 9.480802e+001 1.877941e+002 1.043061e+002 1.128799e+002 9.176696e+001 6.928925e+000 3.186944e+000 6.062521e+000 4.351952e+000 5.961483e+000 3.117241e+000 2.184567e+000 3.530400e+000 1.955512e+002
<VARIANCE> 23
 1.648907e+001 2.881688e+002 5.634336e+000 3.978144e+001 4.444632e+002 7.882185e+003 3.164402e+002 2.638817e+003 1.007866e+002 8.065974e+002 6.736367e+002 3.174202e+003 1.695452e+002 5.019494e+002 3.630416e-001 1.443607e+000 1.544638e-001 1.729742e+000 8.526925e-002 5.450605e+000 6.157045e+000 5.370440e+000 4.348994e+003
<GCONST> 1.312312e+002
<STATE> 4
<MEAN> 23
 1.297179e+001 3.450861e+000 4.790038e+000 1.638322e+000 1.242167e+002 2.128435e+001 1.268743e+002 8.471414e+001 9.715328e+001 5.558545e+001 1.104328e+002 1.732744e+002 9.606494e+001 1.122710e+002 2.838726e+000 4.523719e+000 3.631240e+000 5.765460e+000 3.637541e+000 5.196904e+000 3.249444e+000 2.480586e+000 1.854237e+002
<VARIANCE> 23
 2.627010e+002 5.743401e+001 3.952956e+001 8.967821e+000 7.894777e+003 6.758914e+002 3.366376e+003 7.811471e+002 7.930152e+002 9.065989e+001 4.106330e+003 1.956413e+003 5.035423e+002 1.484194e+002 5.758447e+000 1.042732e+000 8.197642e+000 1.905130e-001 3.085153e+000 3.925305e+000 6.073627e+000 6.268590e+000 6.878104e+003
<GCONST> 1.435477e+002
<TRANSP> 5
 0.000000e+000 1.000000e+000 0.000000e+000 0.000000e+000 0.000000e+000
 0.000000e+000 7.438772e-001 2.561228e-001 0.000000e+000 0.000000e+000
 0.000000e+000 0.000000e+000 9.452485e-001 5.475153e-002 0.000000e+000
 0.000000e+000 0.000000e+000 0.000000e+000 9.174092e-001 8.259077e-002
 0.000000e+000 0.000000e+000 0.000000e+000 0.000000e+000 0.000000e+000
<ENDHMM>
~h "VQ"
<BEGINHMM>
<NUMSTATES> 5
<STATE> 2
<MEAN> 23
 1.616375e+001 8.928201e+000 6.950765e+000 4.320075e+000 1.183981e+002 4.116666e+001 1.144363e+002 9.741340e+001 8.268658e+001 5.855827e+001 1.139182e+002 1.734406e+002 1.051700e+002 1.137524e+002 3.154264e+000 4.587878e+000 3.848134e+000 5.605728e+000 3.831072e+000 5.352952e+000 3.532869e+000 2.474400e+000 1.931252e+002
<VARIANCE> 23
 1.634913e+003 1.233476e+003 1.181047e+003 7.700660e+002 8.288315e+003 4.862617e+003 1.720949e+003 6.264240e+002 4.782495e+002 1.223597e+002 5.524325e+003 3.059705e+003 6.353262e+002 2.208216e+002 7.428474e+000 1.005700e+000 9.192902e+000 6.034546e-001 3.442478e+000 2.664344e+000 6.120584e+000 5.604936e+000 4.540873e+003
<GCONST> 1.592796e+002
<STATE> 3
<MEAN> 23
 2.045037e+000 1.252624e+001 8.200722e-001 4.259553e+000 1.021485e+001 1.260261e+002 9.087096e+001 1.041018e+002 5.642147e+001 7.218668e+001 1.889024e+002 8.883418e+001 1.131492e+002 9.434130e+001 6.965571e+000 3.179659e+000 6.082769e+000 4.645727e+000 5.981048e+000 3.066197e+000 1.993792e+000 3.588211e+000 1.779987e+002
<VARIANCE> 23
 1.423739e+001 2.237041e+002 3.300596e+000 3.500653e+001 3.761761e+002 5.556343e+003 2.948368e+002 1.380306e+003 7.771378e+001 2.918535e+002 5.771974e+002 3.586619e+003 1.682690e+002 3.879619e+002 1.827268e-001 1.369989e+000 1.037620e-001 1.123654e+000 5.131437e-002 4.501463e+000 5.927271e+000 5.652199e+000 2.798664e+003
<GCONST> 1.246642e+002
<STATE> 4
<MEAN> 23
 9.438588e+000 3.760638e+000 3.728249e+000 1.614192e+000 1.177917e+002 5.468418e+001 9.181665e+001 7.624148e+001 6.983380e+001 5.139090e+001 8.443647e+001 1.537984e+002 9.052266e+001 1.036588e+002 2.500538e+000 4.162044e+000 3.887176e+000 5.388427e+000 3.360845e+000 4.801735e+000 3.223016e+000 2.546007e+000 1.465906e+002
<VARIANCE> 23
 1.604545e+002 4.611721e+001 2.976755e+001 9.086243e+000 1.562501e+004 9.245585e+003 2.041875e+003 1.096866e+003 5.638174e+002 2.156359e+002 3.794861e+003 3.399324e+003 7.977304e+002 7.133945e+002 5.562820e+000 2.171977e+000 9.200848e+000 1.823229e+000 3.390278e+000 5.194352e+000 6.223711e+000 6.299121e+000 4.916288e+003
<GCONST> 1.518730e+002
<TRANSP> 5
 0.000000e+000 1.000000e+000 0.000000e+000 0.000000e+000 0.000000e+000
 0.000000e+000 7.966562e-001 2.033438e-001 0.000000e+000 0.000000e+000
 0.000000e+000 0.000000e+000 9.467847e-001 5.321533e-002 0.000000e+000
 0.000000e+000 0.000000e+000 0.000000e+000 8.986443e-001 1.013557e-001
 0.000000e+000 0.000000e+000 0.000000e+000 0.000000e+000 0.000000e+000
<ENDHMM>
~h "SIL"
<BEGINHMM>
<NUMSTATES> 5
<STATE> 2
<MEAN> 23
 7.946935e+001 6.725543e+001 7.211065e+001 5.783328e+001 3.173341e+001 2.591960e+001 7.030524e+000 6.927572e+000 4.995910e+000 4.790018e+000 1.362770e+001 1.291114e+001 8.777671e+000 8.641549e+000 4.841803e-001 3.493999e-001 4.716884e-001 4.486593e-001 4.385569e-001 4.041911e-001 7.746304e-001 7.765626e-001 9.460830e+000
<VARIANCE> 23
 3.352427e+004 2.379440e+004 2.760466e+004 1.778471e+004 1.570218e+004 1.033738e+004 6.418780e+002 6.264835e+002 3.075246e+002 2.896797e+002 2.360738e+003 2.182720e+003 9.264258e+002 8.978200e+002 3.045656e+000 1.560571e+000 2.669978e+000 2.408094e+000 2.341091e+000 2.230754e+000 3.653688e+000 3.663618e+000 1.247954e+003
<GCONST> 1.698696e+002
<STATE> 3
<MEAN> 23
 4.254878e+000 4.440926e+000 1.276541e+000 1.347081e+000 2.660979e+001 2.697532e+001 9.789837e+001 9.527229e+001 6.824673e+001 6.127821e+001 1.825143e+002 1.828565e+002 1.173486e+002 1.163317e+002 6.107976e+000 4.712979e+000 6.107318e+000 5.793265e+000 5.648078e+000 5.532097e+000 2.269727e+000 2.232272e+000 1.348451e+002
<VARIANCE> 23
 7.869392e+001 8.235116e+001 6.737686e+000 6.369761e+000 1.547872e+003 1.539189e+003 9.380456e+002 6.941819e+002 1.725732e+002 1.316565e+002 2.629672e+003 2.210964e+003 3.775903e+002 2.093816e+002 4.465609e+000 7.366000e-001 9.679046e-001 2.447532e-001 9.785874e-001 2.384086e+000 5.615127e+000 5.523359e+000 1.844999e+003
<GCONST> 1.313144e+002
<STATE> 4
<MEAN> 23
 1.240838e+000 2.453190e+000 4.742078e-001 8.594510e-001 5.952655e+000 1.005484e+001 9.377966e+001 9.221458e+001 5.950029e+001 5.859324e+001 1.930285e+002 1.897582e+002 1.159300e+002 1.154961e+002 6.961851e+000 4.946877e+000 6.023479e+000 5.915491e+000 5.989871e+000 5.928077e+000 1.738703e+000 1.891801e+000 1.210798e+002
<VARIANCE> 23
 9.181604e+000 3.108944e+001 3.300596e+000 2.852403e+000 1.057776e+002 3.668225e+002 1.994408e+002 2.340684e+002 5.903476e+001 7.222242e+001 5.038704e+002 7.883080e+002 1.256103e+002 1.460239e+002 2.346286e-001 1.186047e-001 2.686783e-002 8.927293e-002 2.736208e-002 4.331117e-001 5.278046e+000 5.469886e+000 3.846296e+002
<GCONST> 9.781704e+001
<TRANSP> 5
 0.000000e+000 1.000000e+000 0.000000e+000 0.000000e+000 0.000000e+000
 0.000000e+000 9.086289e-001 9.137105e-002 0.000000e+000 0.000000e+000
 0.000000e+000 0.000000e+000 9.952611e-001 4.738939e-003 0.000000e+000
 0.000000e+000 0.000000e+000 0.000000e+000 9.965910e-001 3.408953e-003
 0.000000e+000 0.000000e+000 0.000000e+000 0.000000e+000 0.000000e+000
<ENDHMM>
