~o
<STREAMINFO> 1 22
<VECSIZE> 22<NULLD><MFCC_0><DIAGC>
~h "BN"
<BEGINHMM>
<NUMSTATES> 5
<STATE> 2
<MEAN> 22
 6.277761e+000 1.286286e+001 2.645635e+000 4.117599e+000 9.420608e+001 1.140468e+002 8.035586e+001 8.194370e+001 6.528531e+001 6.686986e+001 1.454673e+002 1.095000e+002 1.025544e+002 9.965814e+001 4.724400e+000 3.398898e+000 5.298245e+000 4.678759e+000 4.870608e+000 3.670082e+000 2.164097e+000 2.240718e+000
<VARIANCE> 22
 8.203121e+002 7.508781e+002 6.066014e+002 3.923501e+002 2.600588e+004 1.512998e+004 1.684108e+003 1.833561e+003 6.683911e+002 7.872560e+002 5.425734e+003 4.787474e+003 1.344252e+003 1.035588e+003 8.682878e+000 2.684908e+000 4.768703e+000 2.870825e+000 3.152369e+000 7.126506e+000 5.784634e+000 4.468939e+000
<GCONST> 1.574002e+002
<STATE> 3
<MEAN> 22
 1.112861e+000 8.699530e+000 4.580927e-001 2.672108e+000 9.206628e+000 1.720791e+002 9.148341e+001 1.172020e+002 5.844528e+001 8.993429e+001 1.889184e+002 3.960161e+001 1.141064e+002 1.010773e+002 6.952653e+000 2.182106e+000 6.041317e+000 3.871711e+000 5.972267e+000 1.125116e+000 1.472862e+000 2.871014e+000
<VARIANCE> 22
 6.638690e+000 1.497860e+002 3.300596e+000 1.439196e+001 4.383136e+002 1.808228e+003 2.506823e+002 6.400455e+002 7.099945e+001 3.662492e+002 6.338810e+002 6.269882e+002 1.560521e+002 1.589476e+002 2.519745e-001 2.374852e-001 1.931972e-001 6.579036e-001 7.736136e-002 4.621347e-001 5.089839e+000 5.876153e+000
<GCONST> 1.051307e+002
<STATE> 4
<MEAN> 22
 8.497044e+000 6.393704e+000 2.489111e+000 1.688187e+000 1.024248e+002 2.409187e+001 1.066565e+002 8.689352e+001 8.018121e+001 5.949372e+001 9.771068e+001 1.796386e+002 1.065005e+002 1.144212e+002 3.640855e+000 4.768023e+000 3.557131e+000 5.781597e+000 4.105548e+000 5.776742e+000 3.127569e+000 2.639778e+000
<VARIANCE> 22
 1.757806e+002 1.703979e+002 1.712842e+001 9.156897e+000 6.751079e+003 8.751115e+002 9.156361e+002 7.097986e+002 4.180898e+002 9.214200e+001 5.822189e+003 1.523708e+003 2.932025e+002 1.620855e+002 6.643606e+000 4.053642e-001 8.590884e+000 1.939287e-001 2.402988e+000 1.791030e+000 6.316746e+000 6.763790e+000
<GCONST> 1.288141e+002
<TRANSP> 5
 0.000000e+000 1.000000e+000 0.000000e+000 0.000000e+000 0.000000e+000
 0.000000e+000 8.181726e-001 1.818274e-001 0.000000e+000 0.000000e+000
 0.000000e+000 0.000000e+000 9.501238e-001 4.987624e-002 0.000000e+000
 0.000000e+000 0.000000e+000 0.000000e+000 9.373378e-001 6.266219e-002
 0.000000e+000 0.000000e+000 0.000000e+000 0.000000e+000 0.000000e+000
<ENDHMM>
~h "BS"
<BEGINHMM>
<NUMSTATES> 5
<STATE> 2
<MEAN> 22
 1.606173e+001 1.585962e+001 3.921316e+000 3.844206e+000 7.971049e+001 7.044935e+001 6.457907e+001 6.216302e+001 6.335104e+001 5.994500e+001 1.529704e+002 1.485989e+002 1.083948e+002 1.081181e+002 5.577318e+000 4.565244e+000 6.033700e+000 5.814978e+000 5.209761e+000 5.407305e+000 2.700532e+000 1.998261e+000
<VARIANCE> 22
 8.876793e+002 7.094335e+002 6.205820e+002 4.165945e+002 1.586442e+004 8.492488e+003 1.218102e+003 1.092400e+003 1.306372e+002 1.332016e+002 1.854066e+003 1.881215e+003 3.080253e+002 2.752854e+002 5.921950e+000 1.727409e+000 5.655859e-001 4.927081e-001 1.745796e+000 4.721168e+000 3.308026e+000 3.936383e+000
<GCONST> 1.409696e+002
<STATE> 3
<MEAN> 22
 2.009820e+001 2.048218e+001 3.809104e+000 3.662980e+000 1.081201e+002 1.069038e+002 8.230531e+001 8.146964e+001 7.335848e+001 6.679372e+001 1.104404e+002 1.138918e+002 1.052581e+002 1.053094e+002 1.421921e+000 3.068061e+000 5.214293e+000 5.352992e+000 3.177530e+000 2.793577e+000 2.645969e+000 3.208236e+000
<VARIANCE> 22
 4.089768e+002 4.263108e+002 2.274347e+001 1.875300e+001 2.007628e+003 1.587367e+003 2.754920e+003 2.454642e+003 2.734344e+002 2.471168e+002 1.719455e+003 1.744439e+003 1.692717e+002 1.424949e+002 2.639891e+000 1.505036e+000 6.190515e+000 5.981133e-001 4.356413e+000 5.510415e+000 5.825898e+000 4.669692e+000
<GCONST> 1.345552e+002
<STATE> 4
<MEAN> 22
 7.445826e+000 7.245756e+000 2.056951e+000 1.862118e+000 6.943982e+001 6.856396e+001 1.134876e+002 1.125165e+002 6.886024e+001 6.366922e+001 1.743332e+002 1.728313e+002 1.108017e+002 1.101407e+002 2.831748e+000 4.394379e+000 6.762487e+000 5.210194e+000 4.514482e+000 4.974398e+000 3.460881e+000 3.767329e+000
<VARIANCE> 22
 7.169305e+001 6.668475e+001 6.431520e+000 5.113854e+000 1.829806e+003 1.666671e+003 8.262947e+002 7.254818e+002 1.417449e+002 1.435458e+002 9.535078e+002 8.626879e+002 1.652734e+002 1.391261e+002 1.165472e+001 2.893806e-001 1.967085e-001 1.908898e-001 8.660551e+000 8.696496e-001 5.707909e+000 7.869357e+000
<GCONST> 1.179746e+002
<TRANSP> 5
 0.000000e+000 1.000000e+000 0.000000e+000 0.000000e+000 0.000000e+000
 0.000000e+000 7.810243e-001 2.189756e-001 0.000000e+000 0.000000e+000
 0.000000e+000 0.000000e+000 9.126022e-001 8.739786e-002 0.000000e+000
 0.000000e+000 0.000000e+000 0.000000e+000 9.518674e-001 4.813261e-002
 0.000000e+000 0.000000e+000 0.000000e+000 0.000000e+000 0.000000e+000
<ENDHMM>
~h "CF"
<BEGINHMM>
<NUMSTATES> 5
<STATE> 2
<MEAN> 22
 9.306680e+000 9.528022e+000 3.718231e+000 3.322735e+000 7.943428e+001 6.481197e+001 9.018654e+001 7.600400e+001 7.636102e+001 6.454379e+001 1.164085e+002 1.320101e+002 1.021247e+002 1.073679e+002 3.985072e+000 3.815920e+000 4.765439e+000 5.307244e+000 4.440123e+000 4.333377e+000 2.825430e+000 2.522655e+000
<VARIANCE> 22
 5.920323e+002 4.498696e+002 3.816206e+002 2.309114e+002 8.716091e+003 5.718270e+003 1.790051e+003 1.458429e+003 6.827262e+002 3.997676e+002 5.100999e+003 4.141246e+003 5.688728e+002 4.391724e+002 7.185940e+000 2.259209e+000 5.313166e+000 1.472794e+000 2.559774e+000 6.823664e+000 6.513205e+000 4.922694e+000
<GCONST> 1.497957e+002
<STATE> 3
<MEAN> 22
 1.412554e+000 1.067273e+001 6.114383e-001 3.806185e+000 8.852846e+000 1.835951e+002 9.327705e+001 1.218702e+002 5.922877e+001 9.931052e+001 1.886173e+002 4.201320e+001 1.132167e+002 8.849152e+001 6.952119e+000 2.194605e+000 6.082345e+000 3.324158e+000 5.971490e+000 1.170873e+000 1.601612e+000 2.853961e+000
<VARIANCE> 22
 9.722264e+000 2.641076e+002 3.300596e+000 2.820083e+001 2.852212e+002 2.269927e+003 3.395991e+002 9.935659e+002 8.259106e+001 4.384085e+002 7.210119e+002 9.642084e+002 1.819484e+002 3.264509e+002 2.355648e-001 3.096938e-001 1.691017e-001 1.799581e+000 7.340148e-002 1.113164e+000 5.502645e+000 5.901313e+000
<GCONST> 1.110365e+002
<STATE> 4
<MEAN> 22
 8.589720e+000 5.999795e+000 2.969193e+000 1.904432e+000 9.625694e+001 2.805429e+001 1.059290e+002 9.177198e+001 8.050048e+001 6.018347e+001 1.100240e+002 1.862423e+002 9.982424e+001 1.134130e+002 4.092070e+000 4.926092e+000 4.340465e+000 5.683752e+000 4.405912e+000 6.008233e+000 3.074780e+000 2.740087e+000
<VARIANCE> 22
 1.675289e+002 1.264861e+002 2.030642e+001 9.491282e+000 7.108578e+003 9.470118e+002 1.123519e+003 5.150881e+002 5.321575e+002 1.243172e+002 6.237278e+003 7.680386e+002 5.598094e+002 1.303245e+002 6.905462e+000 1.188777e-001 5.831427e+000 2.279159e-001 2.234933e+000 2.467358e-001 6.222635e+000 6.480992e+000
<GCONST> 1.255153e+002
<TRANSP> 5
 0.000000e+000 1.000000e+000 0.000000e+000 0.000000e+000 0.000000e+000
 0.000000e+000 8.571897e-001 1.428103e-001 0.000000e+000 0.000000e+000
 0.000000e+000 0.000000e+000 9.445819e-001 5.541814e-002 0.000000e+000
 0.000000e+000 0.000000e+000 0.000000e+000 9.357659e-001 6.423412e-002
 0.000000e+000 0.000000e+000 0.000000e+000 0.000000e+000 0.000000e+000
<ENDHMM>
~h "CN"
<BEGINHMM>
<NUMSTATES> 5
<STATE> 2
<MEAN> 22
 1.551647e+001 1.502030e+001 2.818643e+000 2.947544e+000 5.579440e+001 5.380765e+001 6.759219e+001 6.622314e+001 6.516641e+001 6.107706e+001 1.479738e+002 1.470793e+002 1.124107e+002 1.110287e+002 5.052052e+000 4.310508e+000 6.098596e+000 5.883518e+000 5.193776e+000 4.903798e+000 2.731203e+000 1.956743e+000
<VARIANCE> 22
 4.702917e+002 4.030323e+002 1.834481e+002 1.376700e+002 2.961058e+003 2.477194e+003 1.164374e+003 9.873482e+002 1.089416e+002 8.844277e+001 2.987064e+003 2.711830e+003 2.457405e+002 1.945888e+002 7.395667e+000 1.459211e+000 1.448681e-001 2.547457e-001 1.037920e+000 6.252932e+000 2.628397e+000 3.386566e+000
<GCONST> 1.314772e+002
<STATE> 3
<MEAN> 22
 7.773334e+000 8.331246e+000 1.216746e+000 1.058932e+000 1.445905e+002 1.391954e+002 7.128835e+001 6.907131e+001 6.630962e+001 6.401377e+001 4.372704e+001 4.613519e+001 1.029207e+002 1.043529e+002 2.040304e+000 1.929250e+000 5.783590e+000 5.936778e+000 3.206054e+000 7.670051e-001 3.171524e+000 3.093871e+000
<VARIANCE> 22
 1.134055e+002 1.415472e+002 3.300596e+000 2.164982e+000 1.760394e+003 1.485114e+003 5.340383e+002 5.972128e+002 9.483520e+001 1.163262e+002 3.618031e+002 4.373827e+002 1.374631e+002 1.236567e+002 7.972889e-002 1.288994e-001 7.606870e-001 5.529928e-001 1.808645e-001 2.162770e-001 6.018780e+000 6.021646e+000
<GCONST> 1.054593e+002
<STATE> 4
<MEAN> 22
 1.456787e+001 1.355029e+001 2.630760e+000 2.599109e+000 7.266299e+001 6.775890e+001 7.316765e+001 7.032423e+001 6.702268e+001 6.379419e+001 1.506189e+002 1.462691e+002 1.116500e+002 1.111125e+002 5.059477e+000 4.061753e+000 6.158894e+000 5.862473e+000 5.109191e+000 4.402699e+000 4.053568e+000 3.958928e+000
<VARIANCE> 22
 3.077081e+002 2.604774e+002 1.033151e+001 1.271870e+001 5.868619e+003 4.632897e+003 1.435142e+003 1.361135e+003 1.987944e+002 1.357955e+002 2.710567e+003 2.868965e+003 2.882108e+002 1.801602e+002 6.226964e+000 2.858109e+000 3.524049e-001 2.770571e-001 1.509546e+000 7.345983e+000 7.282295e+000 4.895006e+000
<GCONST> 1.316664e+002
<TRANSP> 5
 0.000000e+000 1.000000e+000 0.000000e+000 0.000000e+000 0.000000e+000
 0.000000e+000 8.169649e-001 1.830351e-001 0.000000e+000 0.000000e+000
 0.000000e+000 0.000000e+000 9.652948e-001 3.470515e-002 0.000000e+000
 0.000000e+000 0.000000e+000 0.000000e+000 9.157667e-001 8.423336e-002
 0.000000e+000 0.000000e+000 0.000000e+000 0.000000e+000 0.000000e+000
<ENDHMM>
~h "CP"
<BEGINHMM>
<NUMSTATES> 5
<STATE> 2
<MEAN> 22
 1.237427e+001 1.038468e+001 3.409298e+000 3.054634e+000 1.155727e+002 9.567068e+001 9.438358e+001 9.339898e+001 6.568187e+001 6.107561e+001 1.521038e+002 1.582363e+002 1.065478e+002 1.042058e+002 3.142041e+000 3.893326e+000 5.437636e+000 4.805113e+000 4.409713e+000 4.582752e+000 2.768068e+000 2.754296e+000
<VARIANCE> 22
 6.716606e+002 4.037375e+002 3.939321e+002 2.278308e+002 2.062067e+004 1.155715e+004 2.403372e+003 2.512664e+003 7.656512e+002 6.800766e+002 5.603705e+003 4.963031e+003 1.885466e+003 1.652042e+003 1.102434e+001 2.595536e+000 6.525323e+000 3.339135e+000 6.930798e+000 4.562925e+000 5.689676e+000 5.827746e+000
<GCONST> 1.578975e+002
<STATE> 3
<MEAN> 22
 9.288059e+000 9.589304e+000 2.244977e+000 2.245317e+000 5.335717e+001 4.929804e+001 6.531950e+001 6.812061e+001 6.672872e+001 6.348370e+001 1.373412e+002 1.394740e+002 1.042473e+002 1.038957e+002 2.646866e+000 4.253400e+000 6.619236e+000 5.336408e+000 5.669734e+000 5.476701e+000 3.454577e+000 3.282382e+000
<VARIANCE> 22
 8.547343e+001 8.495009e+001 9.117737e+000 8.429347e+000 6.767667e+002 6.454506e+002 3.983110e+002 5.047988e+002 1.365222e+002 1.480144e+002 7.891639e+002 8.498539e+002 1.097822e+002 1.145783e+002 1.087556e+001 5.271060e-001 2.526984e-001 2.325338e-001 1.110790e+000 2.596064e+000 5.265245e+000 5.115644e+000
<GCONST> 1.148981e+002
<STATE> 4
<MEAN> 22
 8.025064e+000 7.543163e+000 2.120074e+000 2.191195e+000 3.699446e+001 3.207930e+001 9.012225e+001 9.100536e+001 6.667259e+001 6.292415e+001 1.834630e+002 1.845099e+002 1.167683e+002 1.162599e+002 6.775493e+000 4.937881e+000 6.306787e+000 5.594760e+000 5.981306e+000 5.928032e+000 3.799036e+000 3.580672e+000
<VARIANCE> 22
 6.876760e+001 6.170553e+001 6.156871e+000 6.334938e+000 1.103494e+003 6.175890e+002 4.938347e+002 3.817672e+002 1.108044e+002 1.079806e+002 6.886311e+002 5.854421e+002 1.803838e+002 1.409177e+002 1.445818e+000 8.079473e-002 2.468443e-001 2.519243e-001 9.311706e-002 1.734092e-001 5.595772e+000 5.766779e+000
<GCONST> 1.048925e+002
<TRANSP> 5
 0.000000e+000 1.000000e+000 0.000000e+000 0.000000e+000 0.000000e+000
 0.000000e+000 6.896078e-001 3.103922e-001 0.000000e+000 0.000000e+000
 0.000000e+000 0.000000e+000 9.419816e-001 5.801841e-002 0.000000e+000
 0.000000e+000 0.000000e+000 0.000000e+000 9.320229e-001 6.797706e-002
 0.000000e+000 0.000000e+000 0.000000e+000 0.000000e+000 0.000000e+000
<ENDHMM>
~h "CV"
<BEGINHMM>
<NUMSTATES> 5
<STATE> 2
<MEAN> 22
 1.477777e+001 1.488620e+001 3.484262e+000 3.350123e+000 6.872157e+001 6.257992e+001 7.746503e+001 7.476660e+001 6.454886e+001 5.901297e+001 1.435513e+002 1.436260e+002 1.106376e+002 1.100012e+002 4.581501e+000 4.263418e+000 5.999461e+000 5.599736e+000 5.026102e+000 4.903063e+000 2.779135e+000 2.453027e+000
<VARIANCE> 22
 5.404931e+002 4.460836e+002 2.476079e+002 1.589042e+002 7.355368e+003 5.204999e+003 9.756284e+002 8.338173e+002 1.572775e+002 1.083889e+002 3.475363e+003 2.887587e+003 3.220772e+002 2.892339e+002 9.015407e+000 1.218452e+000 1.986318e+000 5.722551e-001 2.091141e+000 4.791190e+000 3.620485e+000 3.887964e+000
<GCONST> 1.392571e+002
<STATE> 3
<MEAN> 22
 8.248628e+000 8.319115e+000 1.839515e+000 2.007221e+000 1.316608e+002 1.305769e+002 7.554689e+001 7.535064e+001 6.509782e+001 6.176055e+001 5.492242e+001 5.676685e+001 1.041338e+002 1.046257e+002 1.470733e+000 2.500314e+000 5.990242e+000 5.133256e+000 2.941675e+000 1.198380e+000 3.481474e+000 3.384895e+000
<VARIANCE> 22
 1.251971e+002 1.150806e+002 7.789110e+000 9.503443e+000 2.254149e+003 1.795640e+003 7.048254e+002 7.579768e+002 1.044351e+002 9.639630e+001 4.107411e+002 4.034258e+002 1.882222e+002 1.510892e+002 3.816546e-001 3.795025e-001 4.619938e+000 5.269729e-001 4.420159e-001 5.358535e-001 5.680336e+000 5.946961e+000
<GCONST> 1.152432e+002
<STATE> 4
<MEAN> 22
 1.310950e+001 1.278112e+001 3.022266e+000 2.846445e+000 4.047517e+001 3.565527e+001 7.752045e+001 8.002567e+001 6.588682e+001 5.926904e+001 1.642616e+002 1.715823e+002 1.127816e+002 1.118681e+002 5.518724e+000 4.739751e+000 6.203911e+000 5.790009e+000 5.538328e+000 5.839810e+000 4.339557e+000 4.191916e+000
<VARIANCE> 22
 1.903876e+002 2.077178e+002 1.301215e+001 1.131991e+001 1.269265e+003 9.554582e+002 1.072238e+003 8.649479e+002 1.154057e+002 7.572449e+001 2.204518e+003 1.496773e+003 1.994034e+002 1.521822e+002 6.897843e+000 5.997067e-001 1.823580e-001 1.702468e-001 8.145956e-001 1.639058e+000 6.280845e+000 5.041874e+000
<GCONST> 1.198568e+002
<TRANSP> 5
 0.000000e+000 1.000000e+000 0.000000e+000 0.000000e+000 0.000000e+000
 0.000000e+000 8.263590e-001 1.736410e-001 0.000000e+000 0.000000e+000
 0.000000e+000 0.000000e+000 9.548081e-001 4.519188e-002 0.000000e+000
 0.000000e+000 0.000000e+000 0.000000e+000 8.979154e-001 1.020846e-001
 0.000000e+000 0.000000e+000 0.000000e+000 0.000000e+000 0.000000e+000
<ENDHMM>
~h "DC"
<BEGINHMM>
<NUMSTATES> 5
<STATE> 2
<MEAN> 22
 1.294391e+001 1.265885e+001 3.616142e+000 3.756653e+000 8.572761e+001 8.046729e+001 6.607552e+001 6.567793e+001 6.586266e+001 6.167204e+001 1.359985e+002 1.373241e+002 1.094038e+002 1.077683e+002 4.032690e+000 3.992720e+000 6.021149e+000 5.624254e+000 4.970705e+000 4.801755e+000 2.575988e+000 2.093618e+000
<VARIANCE> 22
 4.793079e+002 3.887375e+002 3.427336e+002 2.273503e+002 1.128184e+004 7.766242e+003 1.246808e+003 1.092099e+003 2.121214e+002 1.671756e+002 3.091737e+003 2.818958e+003 5.309548e+002 4.474612e+002 9.451420e+000 1.943983e+000 1.174403e+000 8.856336e-001 1.862640e+000 6.505765e+000 3.173639e+000 3.451710e+000
<GCONST> 1.429184e+002
<STATE> 3
<MEAN> 22
 1.118305e+001 1.189703e+001 1.814077e+000 1.920333e+000 1.213857e+002 1.185961e+002 4.656224e+001 4.857306e+001 6.528127e+001 6.274725e+001 7.239763e+001 7.280708e+001 9.938249e+001 1.000918e+002 1.942594e+000 2.132044e+000 5.972080e+000 5.889370e+000 3.764301e+000 4.858540e-001 2.769681e+000 2.599830e+000
<VARIANCE> 22
 2.074395e+002 2.313763e+002 1.173145e+001 9.774470e+000 1.533333e+003 1.261833e+003 6.073575e+002 6.126482e+002 9.229950e+001 1.232847e+002 4.655679e+002 4.875469e+002 1.372355e+002 1.410121e+002 7.556627e-001 8.374959e-001 2.791767e-001 3.587053e-001 2.967600e-001 1.236133e+000 5.571922e+000 5.774266e+000
<GCONST> 1.145090e+002
<STATE> 4
<MEAN> 22
 1.357670e+001 1.313999e+001 3.043041e+000 2.764636e+000 4.071361e+001 3.631174e+001 7.549422e+001 7.523218e+001 6.491748e+001 6.021347e+001 1.662304e+002 1.683095e+002 1.102685e+002 1.102887e+002 5.788615e+000 4.856085e+000 6.234116e+000 5.759289e+000 5.618716e+000 6.123852e+000 4.245142e+000 4.114701e+000
<VARIANCE> 22
 2.116809e+002 2.208897e+002 1.250270e+001 1.076266e+001 1.287736e+003 9.289551e+002 1.096590e+003 9.174279e+002 1.052744e+002 9.661108e+001 1.581155e+003 1.352003e+003 1.755288e+002 1.521561e+002 5.886496e+000 4.473850e-001 2.094968e-001 1.961875e-001 5.192093e-001 8.027419e-001 7.161193e+000 4.321361e+000
<GCONST> 1.182332e+002
<TRANSP> 5
 0.000000e+000 1.000000e+000 0.000000e+000 0.000000e+000 0.000000e+000
 0.000000e+000 8.798645e-001 1.201356e-001 0.000000e+000 0.000000e+000
 0.000000e+000 0.000000e+000 9.559542e-001 4.404584e-002 0.000000e+000
 0.000000e+000 0.000000e+000 0.000000e+000 8.982665e-001 1.017335e-001
 0.000000e+000 0.000000e+000 0.000000e+000 0.000000e+000 0.000000e+000
<ENDHMM>
~h "FM"
<BEGINHMM>
<NUMSTATES> 5
<STATE> 2
<MEAN> 22
 8.162174e+000 4.486182e+000 2.928162e+000 1.873016e+000 5.755696e+001 1.905896e+001 7.309799e+001 9.711774e+001 9.501617e+001 6.451919e+001 1.527028e+002 1.930266e+002 1.179212e+002 1.202367e+002 2.834101e+000 4.838762e+000 6.552327e+000 5.788005e+000 5.384093e+000 5.934788e+000 3.081688e+000 2.101975e+000
<VARIANCE> 22
 4.206852e+002 4.127971e+002 3.029235e+002 1.966860e+002 1.322907e+003 7.837987e+002 1.054257e+003 5.353556e+002 5.356425e+002 2.680201e+002 1.818278e+003 1.260030e+003 3.180770e+002 1.916462e+002 1.126534e+001 2.649878e-001 3.476181e-001 1.998207e-001 4.483656e-001 7.460740e-001 6.720225e+000 5.647265e+000
<GCONST> 1.290934e+002
<STATE> 3
<MEAN> 22
 1.426526e+000 7.336130e+000 5.856979e-001 2.057308e+000 1.017646e+001 5.677190e+001 9.497721e+001 6.485683e+001 5.780961e+001 8.619844e+001 1.923083e+002 1.391042e+002 1.144987e+002 1.063734e+002 6.974612e+000 4.271751e+000 6.053779e+000 5.334261e+000 5.994448e+000 6.443878e+000 1.725921e+000 3.208065e+000
<VARIANCE> 22
 8.213905e+000 5.805609e+001 3.300596e+000 9.388388e+000 3.430466e+002 6.296689e+002 2.421726e+002 5.771632e+002 7.123424e+001 3.527419e+002 4.819621e+002 9.551601e+002 1.637927e+002 1.572194e+002 1.649096e-001 2.773060e-001 6.634295e-002 2.345509e-001 2.082488e-002 5.660107e-001 5.661642e+000 5.757311e+000
<GCONST> 9.928809e+001
<STATE> 4
<MEAN> 22
 5.478103e+000 4.155961e+000 1.401040e+000 1.351094e+000 7.974625e+001 5.953834e+001 5.592548e+001 5.943842e+001 7.189396e+001 5.888906e+001 1.290073e+002 1.335496e+002 9.941103e+001 9.868996e+001 2.978082e+000 3.887763e+000 5.982212e+000 5.380747e+000 4.991887e+000 4.791415e+000 2.482552e+000 2.346231e+000
<VARIANCE> 22
 7.056623e+001 4.781817e+001 5.742603e+000 7.211205e+000 1.478369e+004 9.034040e+003 1.014673e+003 1.119527e+003 6.788582e+002 3.768005e+002 2.193742e+003 2.801851e+003 6.988314e+002 6.915817e+002 1.070331e+001 2.220434e+000 2.395546e+000 1.883133e+000 1.958176e+000 7.116941e+000 5.964091e+000 6.353212e+000
<GCONST> 1.370497e+002
<TRANSP> 5
 0.000000e+000 1.000000e+000 0.000000e+000 0.000000e+000 0.000000e+000
 0.000000e+000 8.713132e-001 1.286867e-001 0.000000e+000 0.000000e+000
 0.000000e+000 0.000000e+000 9.537559e-001 4.624411e-002 0.000000e+000
 0.000000e+000 0.000000e+000 0.000000e+000 8.793221e-001 1.206780e-001
 0.000000e+000 0.000000e+000 0.000000e+000 0.000000e+000 0.000000e+000
<ENDHMM>
~h "FN"
<BEGINHMM>
<NUMSTATES> 5
<STATE> 2
<MEAN> 22
 1.082604e+001 1.119357e+001 4.423678e+000 4.021908e+000 1.269980e+002 1.179663e+002 8.866006e+001 8.892714e+001 6.873858e+001 6.239578e+001 1.278029e+002 1.145853e+002 1.021653e+002 1.036710e+002 4.086296e+000 3.372854e+000 4.877874e+000 4.910952e+000 4.551165e+000 3.415151e+000 2.704024e+000 2.515980e+000
<VARIANCE> 22
 1.324080e+003 9.589650e+002 9.954703e+002 5.864034e+002 2.541659e+004 1.551625e+004 1.962137e+003 1.415698e+003 5.499803e+002 3.642995e+002 6.180893e+003 6.825084e+003 1.274834e+003 9.005901e+002 7.811536e+000 2.769623e+000 6.071702e+000 2.825196e+000 3.032150e+000 6.950666e+000 6.487715e+000 5.548947e+000
<GCONST> 1.586620e+002
<STATE> 3
<MEAN> 22
 1.429618e+000 1.318099e+001 5.840907e-001 3.087086e+000 9.456374e+000 1.301721e+002 9.222136e+001 9.436036e+001 5.826460e+001 6.707248e+001 1.893268e+002 7.107478e+001 1.128945e+002 1.005936e+002 6.949055e+000 2.882931e+000 6.061145e+000 4.767648e+000 5.971143e+000 2.536704e+000 1.669260e+000 3.495644e+000
<VARIANCE> 22
 8.695551e+000 2.250706e+002 3.300596e+000 1.594434e+001 3.925498e+002 4.385382e+003 2.418213e+002 1.060827e+003 5.768159e+001 1.534146e+002 5.992512e+002 4.040190e+003 1.372262e+002 2.381672e+002 2.326512e-001 1.505082e+000 1.123743e-001 1.430733e+000 7.349533e-002 5.205630e+000 5.462437e+000 5.482153e+000
<GCONST> 1.125333e+002
<STATE> 4
<MEAN> 22
 9.818813e+000 3.377040e+000 2.622252e+000 1.130528e+000 9.567904e+001 2.271536e+001 9.256000e+001 8.371434e+001 7.196255e+001 5.744491e+001 9.551945e+001 1.755656e+002 1.043593e+002 1.139706e+002 3.268977e+000 4.569085e+000 4.745715e+000 5.805890e+000 4.003365e+000 5.298488e+000 3.388067e+000 2.237374e+000
<VARIANCE> 22
 1.596374e+002 4.621775e+001 1.291042e+001 3.430554e+000 5.498898e+003 8.183514e+002 1.647941e+003 9.609852e+002 1.882900e+002 7.076357e+001 5.546157e+003 2.148542e+003 3.669636e+002 1.711604e+002 6.156231e+000 1.192465e+000 6.530202e+000 1.794290e-001 2.322918e+000 4.049060e+000 6.326600e+000 6.154199e+000
<GCONST> 1.276189e+002
<TRANSP> 5
 0.000000e+000 1.000000e+000 0.000000e+000 0.000000e+000 0.000000e+000
 0.000000e+000 7.331444e-001 2.668557e-001 0.000000e+000 0.000000e+000
 0.000000e+000 0.000000e+000 9.542687e-001 4.573130e-002 0.000000e+000
 0.000000e+000 0.000000e+000 0.000000e+000 9.217948e-001 7.820517e-002
 0.000000e+000 0.000000e+000 0.000000e+000 0.000000e+000 0.000000e+000
<ENDHMM>
~h "FU"
<BEGINHMM>
<NUMSTATES> 5
<STATE> 2
<MEAN> 22
 9.191539e+000 3.309912e+000 2.368197e+000 1.049483e+000 1.132979e+002 2.517263e+001 1.005033e+002 8.907500e+001 6.456497e+001 5.553385e+001 7.497870e+001 1.813215e+002 1.011965e+002 1.114291e+002 3.224583e+000 4.841398e+000 3.863373e+000 5.798250e+000 3.698207e+000 5.835311e+000 3.111982e+000 2.072036e+000
<VARIANCE> 22
 2.175997e+002 4.616247e+001 1.332858e+001 3.006012e+000 6.209424e+003 1.288956e+003 9.552342e+002 4.268654e+002 1.806434e+002 6.408814e+001 5.363508e+003 1.267881e+003 2.676241e+002 1.558654e+002 5.345200e+000 3.528731e-001 7.640084e+000 2.161808e-001 2.226438e+000 9.880546e-001 6.301270e+000 5.467196e+000
<GCONST> 1.233445e+002
<STATE> 3
<MEAN> 22
 1.368306e+000 8.777441e+000 5.922760e-001 2.051832e+000 7.794440e+000 1.629435e+002 8.987509e+001 1.022551e+002 5.613529e+001 6.268584e+001 1.858215e+002 3.149894e+001 1.105539e+002 9.551124e+001 6.954260e+000 2.167721e+000 6.060504e+000 4.298878e+000 5.971964e+000 1.396623e+000 1.615434e+000 2.806797e+000
<VARIANCE> 22
 9.598590e+000 1.895815e+002 3.300596e+000 8.298068e+000 3.253719e+002 1.917124e+003 2.594025e+002 7.207195e+002 7.019445e+001 1.666001e+002 6.366166e+002 1.032302e+003 1.777899e+002 1.669911e+002 2.339086e-001 3.054962e-001 8.943877e-002 2.042709e+000 7.633594e-002 1.061747e+000 5.453413e+000 6.399626e+000
<GCONST> 1.064944e+002
<STATE> 4
<MEAN> 22
 4.612026e+000 1.363828e+001 1.607766e+000 3.452740e+000 7.202829e+001 7.787212e+001 8.577515e+001 7.256115e+001 5.818416e+001 5.810716e+001 1.618836e+002 1.426385e+002 1.068874e+002 1.007939e+002 5.649202e+000 4.161400e+000 5.614980e+000 5.319033e+000 5.208578e+000 4.950285e+000 2.565150e+000 3.546419e+000
<VARIANCE> 22
 1.933945e+002 3.927946e+002 9.660754e+001 8.135026e+001 2.026332e+004 1.178884e+004 1.326137e+003 1.327887e+003 3.462700e+002 3.992702e+002 5.147518e+003 4.032938e+003 1.101392e+003 9.886993e+002 5.912325e+000 2.562675e+000 2.751134e+000 2.310685e+000 2.668407e+000 5.639488e+000 6.770915e+000 5.977305e+000
<GCONST> 1.478792e+002
<TRANSP> 5
 0.000000e+000 1.000000e+000 0.000000e+000 0.000000e+000 0.000000e+000
 0.000000e+000 9.292011e-001 7.079887e-002 0.000000e+000 0.000000e+000
 0.000000e+000 0.000000e+000 9.406562e-001 5.934374e-002 0.000000e+000
 0.000000e+000 0.000000e+000 0.000000e+000 8.601371e-001 1.398629e-001
 0.000000e+000 0.000000e+000 0.000000e+000 0.000000e+000 0.000000e+000
<ENDHMM>
~h "MC"
<BEGINHMM>
<NUMSTATES> 5
<STATE> 2
<MEAN> 22
 9.740314e+000 1.075026e+001 4.066541e+000 3.082117e+000 6.662238e+001 5.128365e+001 7.928587e+001 7.984857e+001 7.675647e+001 6.592126e+001 1.427560e+002 1.545699e+002 1.153191e+002 1.152469e+002 4.100375e+000 4.130514e+000 6.343565e+000 5.821867e+000 4.914520e+000 4.547181e+000 2.950727e+000 2.456149e+000
<VARIANCE> 22
 5.934637e+002 9.156998e+002 4.862312e+002 2.853965e+002 3.523695e+003 3.277534e+003 1.539522e+003 1.160083e+003 3.967064e+002 1.914843e+002 4.917415e+003 3.630883e+003 5.886103e+002 2.742511e+002 8.482678e+000 1.780225e+000 4.196450e-001 2.270226e-001 1.403651e+000 6.812791e+000 6.157333e+000 5.326916e+000
<GCONST> 1.421767e+002
<STATE> 3
<MEAN> 22
 1.573953e+000 9.669729e+000 6.565154e-001 2.866879e+000 7.765352e+000 1.013952e+002 9.236807e+001 6.023887e+001 5.655190e+001 7.954410e+001 1.887217e+002 8.804965e+001 1.124868e+002 9.927190e+001 6.984774e+000 3.096956e+000 6.048992e+000 5.630091e+000 5.993968e+000 2.406117e+000 1.854260e+000 3.234113e+000
<VARIANCE> 22
 8.656833e+000 9.256000e+001 3.300596e+000 1.183522e+001 1.341189e+002 2.294726e+003 2.374309e+002 8.372664e+002 7.505215e+001 4.246312e+002 4.759220e+002 2.303000e+003 1.401571e+002 2.394849e+002 7.155456e-002 1.277849e+000 5.096939e-002 3.543316e-001 2.082488e-002 8.514291e+000 5.795152e+000 5.146384e+000
<GCONST> 1.055790e+002
<STATE> 4
<MEAN> 22
 7.492245e+000 4.618817e+000 2.227305e+000 1.597793e+000 7.874233e+001 3.937882e+001 6.047813e+001 7.453301e+001 7.394037e+001 6.004926e+001 1.105628e+002 1.551312e+002 1.048135e+002 1.080749e+002 3.024280e+000 4.239639e+000 6.162339e+000 5.699306e+000 4.521693e+000 5.012298e+000 3.065266e+000 2.730257e+000
<VARIANCE> 22
 7.907629e+001 5.997879e+001 9.349091e+000 7.411015e+000 6.159940e+003 3.832111e+003 8.703058e+002 1.075640e+003 3.897635e+002 1.995869e+002 3.203254e+003 3.001657e+003 3.290573e+002 2.566816e+002 7.271403e+000 1.508300e+000 5.610285e-001 4.539528e-001 1.457189e+000 5.608779e+000 6.077866e+000 6.188324e+000
<GCONST> 1.293025e+002
<TRANSP> 5
 0.000000e+000 1.000000e+000 0.000000e+000 0.000000e+000 0.000000e+000
 0.000000e+000 7.599274e-001 2.400726e-001 0.000000e+000 0.000000e+000
 0.000000e+000 0.000000e+000 9.607595e-001 3.924053e-002 0.000000e+000
 0.000000e+000 0.000000e+000 0.000000e+000 9.224885e-001 7.751159e-002
 0.000000e+000 0.000000e+000 0.000000e+000 0.000000e+000 0.000000e+000
<ENDHMM>
~h "NU"
<BEGINHMM>
<NUMSTATES> 5
<STATE> 2
<MEAN> 22
 6.227689e+000 8.975104e+000 2.325908e+000 2.127924e+000 1.971991e+002 1.592070e+002 7.190168e+001 6.328402e+001 5.618890e+001 4.926053e+001 1.244066e+002 1.138351e+002 8.771478e+001 9.043976e+001 3.799180e+000 3.198756e+000 4.511215e+000 4.376846e+000 3.959506e+000 3.300445e+000 1.975447e+000 1.900873e+000
<VARIANCE> 22
 5.684074e+002 1.018506e+003 4.048611e+002 2.561714e+002 5.163550e+004 2.988666e+004 2.584232e+003 1.754632e+003 1.089468e+003 7.973463e+002 8.149652e+003 6.645563e+003 3.037664e+003 2.562272e+003 1.013969e+001 3.939070e+000 8.049127e+000 5.765794e+000 6.029845e+000 7.886104e+000 5.947972e+000 5.102212e+000
<GCONST> 1.638851e+002
<STATE> 3
<MEAN> 22
 1.341400e+000 8.497390e+000 5.230384e-001 2.383437e+000 1.089162e+001 9.380396e+001 9.175333e+001 7.154893e+001 5.817026e+001 6.371597e+001 1.887151e+002 9.832142e+001 1.129997e+002 1.047611e+002 6.954891e+000 3.392759e+000 6.075616e+000 5.320291e+000 5.965251e+000 2.872444e+000 1.571384e+000 3.171506e+000
<VARIANCE> 22
 8.205683e+000 1.277264e+002 3.300596e+000 1.032331e+001 4.463944e+002 2.609012e+003 2.879197e+002 7.068266e+002 5.938713e+001 1.254661e+002 5.981041e+002 2.606365e+003 1.620215e+002 1.743597e+002 2.346230e-001 1.056756e+000 8.662606e-002 3.923011e-001 7.297164e-002 6.020090e+000 5.306053e+000 5.692636e+000
<GCONST> 1.083413e+002
<STATE> 4
<MEAN> 22
 7.073366e+000 4.725449e+000 2.072304e+000 1.553498e+000 7.204166e+001 3.970355e+001 7.408513e+001 7.943908e+001 6.984579e+001 5.684148e+001 1.139198e+002 1.521883e+002 1.087911e+002 1.094791e+002 2.859301e+000 4.140046e+000 6.279518e+000 5.688996e+000 4.196093e+000 4.481919e+000 3.050363e+000 2.639892e+000
<VARIANCE> 22
 8.816711e+001 5.941071e+001 7.889043e+000 6.212162e+000 3.067692e+003 2.264031e+003 1.187200e+003 1.096906e+003 2.020313e+002 6.437168e+001 3.595741e+003 3.358091e+003 2.364279e+002 2.071950e+002 7.346693e+000 1.528909e+000 1.820895e+000 2.825764e-001 2.498731e+000 5.962005e+000 6.288632e+000 6.246837e+000
<GCONST> 1.274275e+002
<TRANSP> 5
 0.000000e+000 1.000000e+000 0.000000e+000 0.000000e+000 0.000000e+000
 0.000000e+000 6.609661e-001 3.390339e-001 0.000000e+000 0.000000e+000
 0.000000e+000 0.000000e+000 9.516349e-001 4.836509e-002 0.000000e+000
 0.000000e+000 0.000000e+000 0.000000e+000 9.146191e-001 8.538087e-002
 0.000000e+000 0.000000e+000 0.000000e+000 0.000000e+000 0.000000e+000
<ENDHMM>
~h "OK"
<BEGINHMM>
<NUMSTATES> 5
<STATE> 2
<MEAN> 22
 1.391078e+001 4.293337e+000 3.992008e+000 1.674790e+000 1.028684e+002 3.011051e+001 9.946702e+001 8.705724e+001 7.673067e+001 5.589236e+001 9.087185e+001 1.770336e+002 1.083881e+002 1.147873e+002 2.724353e+000 4.623553e+000 4.588216e+000 5.787358e+000 3.667856e+000 5.545795e+000 3.486068e+000 2.345025e+000
<VARIANCE> 22
 4.575887e+002 2.255814e+002 2.141391e+002 1.249709e+002 4.728558e+003 1.807542e+003 1.116734e+003 7.312495e+002 2.220138e+002 7.641747e+001 4.242062e+003 2.332970e+003 3.186979e+002 1.627963e+002 6.100768e+000 7.568999e-001 8.747278e+000 2.613832e-001 2.624774e+000 2.562420e+000 6.097276e+000 5.979958e+000
<GCONST> 1.363091e+002
<STATE> 3
<MEAN> 22
 1.845247e+000 1.159347e+001 7.920476e-001 2.871558e+000 1.109023e+001 1.047571e+002 9.274387e+001 9.342911e+001 5.754675e+001 6.844635e+001 1.917944e+002 1.017579e+002 1.145072e+002 1.066129e+002 6.976972e+000 3.449321e+000 6.059168e+000 5.012748e+000 5.991873e+000 3.322040e+000 2.009590e+000 3.376346e+000
<VARIANCE> 22
 1.130392e+001 2.392352e+002 3.300596e+000 1.311889e+001 3.149901e+002 4.531558e+003 2.474222e+002 7.648656e+002 7.326568e+001 2.039456e+002 4.632978e+002 4.408159e+003 1.470236e+002 1.871491e+002 1.197278e-001 1.502587e+000 6.860477e-002 6.983477e-001 2.250922e-002 5.408950e+000 6.090832e+000 5.787223e+000
<GCONST> 1.094931e+002
<STATE> 4
<MEAN> 22
 7.326673e+000 5.098248e+000 2.020240e+000 1.433660e+000 1.012173e+002 6.149090e+001 7.712222e+001 6.980140e+001 6.216190e+001 5.271635e+001 1.140851e+002 1.432991e+002 9.717240e+001 1.005787e+002 3.470400e+000 3.978624e+000 5.052568e+000 5.361731e+000 4.062144e+000 4.582298e+000 2.623265e+000 2.511334e+000
<VARIANCE> 22
 1.388644e+002 9.855149e+001 1.360254e+001 6.852740e+000 1.664434e+004 1.099529e+004 1.799494e+003 1.205597e+003 4.580951e+002 3.283229e+002 5.693243e+003 4.113413e+003 1.255287e+003 9.831295e+002 8.300335e+000 2.720196e+000 6.828592e+000 2.531539e+000 3.963426e+000 6.669468e+000 6.151385e+000 6.482810e+000
<GCONST> 1.439507e+002
<TRANSP> 5
 0.000000e+000 1.000000e+000 0.000000e+000 0.000000e+000 0.000000e+000
 0.000000e+000 8.779544e-001 1.220456e-001 0.000000e+000 0.000000e+000
 0.000000e+000 0.000000e+000 9.432623e-001 5.673758e-002 0.000000e+000
 0.000000e+000 0.000000e+000 0.000000e+000 7.940307e-001 2.059693e-001
 0.000000e+000 0.000000e+000 0.000000e+000 0.000000e+000 0.000000e+000
<ENDHMM>
~h "PF"
<BEGINHMM>
<NUMSTATES> 5
<STATE> 2
<MEAN> 22
 9.443690e+000 1.184133e+001 4.406747e+000 4.419953e+000 1.330767e+002 1.542408e+002 8.817323e+001 1.085610e+002 7.059534e+001 7.264280e+001 1.456389e+002 1.119132e+002 1.028126e+002 9.979977e+001 4.170241e+000 3.320445e+000 5.424289e+000 4.629643e+000 4.956697e+000 3.335214e+000 2.514487e+000 2.741909e+000
<VARIANCE> 22
 1.184379e+003 1.030642e+003 9.283990e+002 6.078636e+002 3.277404e+004 1.814040e+004 1.807949e+003 2.745803e+003 5.161694e+002 6.729681e+002 4.867545e+003 5.264135e+003 9.474924e+002 6.681611e+002 9.291185e+000 2.309546e+000 4.383105e+000 2.389666e+000 2.630618e+000 5.946745e+000 6.269448e+000 5.317826e+000
<GCONST> 1.581600e+002
<STATE> 3
<MEAN> 22
 1.530155e+000 1.439765e+001 6.727315e-001 4.000324e+000 1.071633e+001 1.448777e+002 9.291557e+001 1.193272e+002 5.831157e+001 7.934997e+001 1.895329e+002 8.844150e+001 1.136717e+002 9.770208e+001 6.948107e+000 3.064667e+000 6.055295e+000 4.193081e+000 5.969638e+000 2.815928e+000 1.857063e+000 3.491503e+000
<VARIANCE> 22
 8.800319e+000 2.827940e+002 3.300596e+000 2.138737e+001 5.123962e+002 5.552261e+003 2.538450e+002 1.311329e+003 6.170511e+001 3.140443e+002 5.864871e+002 3.544690e+003 1.289911e+002 2.617442e+002 2.633525e-001 1.288057e+000 1.916253e-001 1.297275e+000 8.479566e-002 4.047195e+000 5.972806e+000 4.856500e+000
<GCONST> 1.147576e+002
<STATE> 4
<MEAN> 22
 1.021627e+001 3.096786e+000 3.153933e+000 1.207530e+000 1.096100e+002 2.271161e+001 1.179552e+002 8.724948e+001 8.054834e+001 5.687103e+001 1.126827e+002 1.802040e+002 1.039932e+002 1.147306e+002 3.112533e+000 4.662032e+000 3.606033e+000 5.776784e+000 3.662169e+000 5.440006e+000 3.246544e+000 2.473428e+000
<VARIANCE> 22
 1.927062e+002 3.809083e+001 1.980668e+001 4.437381e+000 6.709632e+003 8.248594e+002 2.332931e+003 8.126290e+002 4.189742e+002 6.654832e+001 4.399683e+003 1.716348e+003 3.701806e+002 1.537191e+002 6.890610e+000 8.484320e-001 8.119883e+000 1.871779e-001 3.450507e+000 3.213865e+000 6.791461e+000 6.215722e+000
<GCONST> 1.291474e+002
<TRANSP> 5
 0.000000e+000 1.000000e+000 0.000000e+000 0.000000e+000 0.000000e+000
 0.000000e+000 6.537715e-001 3.462285e-001 0.000000e+000 0.000000e+000
 0.000000e+000 0.000000e+000 9.535789e-001 4.642108e-002 0.000000e+000
 0.000000e+000 0.000000e+000 0.000000e+000 9.214252e-001 7.857477e-002
 0.000000e+000 0.000000e+000 0.000000e+000 0.000000e+000 0.000000e+000
<ENDHMM>
~h "PR"
<BEGINHMM>
<NUMSTATES> 5
<STATE> 2
<MEAN> 22
 8.634377e+000 9.033560e+000 3.688128e+000 3.643842e+000 1.006622e+002 9.885830e+001 7.688877e+001 7.565578e+001 6.553670e+001 5.770429e+001 1.329482e+002 1.220267e+002 9.908679e+001 9.637060e+001 3.411690e+000 3.362750e+000 5.278224e+000 4.808524e+000 4.332415e+000 3.337444e+000 2.278083e+000 2.421449e+000
<VARIANCE> 22
 9.813900e+002 7.817441e+002 7.131387e+002 4.699299e+002 2.270152e+004 1.407041e+004 2.036455e+003 2.144052e+003 7.577288e+002 5.568232e+002 5.642527e+003 4.273884e+003 1.627775e+003 1.447451e+003 9.878865e+000 2.768229e+000 6.292542e+000 3.304370e+000 4.665700e+000 6.994020e+000 5.999367e+000 6.064322e+000
<GCONST> 1.596235e+002
<STATE> 3
<MEAN> 22
 1.314304e+000 9.402535e+000 5.690964e-001 3.145227e+000 1.032512e+001 9.384895e+001 9.246617e+001 8.595031e+001 5.857866e+001 6.416385e+001 1.879704e+002 1.075274e+002 1.126625e+002 1.032043e+002 6.932446e+000 3.544959e+000 6.084736e+000 5.080795e+000 5.972307e+000 3.450351e+000 1.724921e+000 3.577033e+000
<VARIANCE> 22
 6.587620e+000 1.305477e+002 3.300596e+000 1.673101e+001 3.563982e+002 2.364237e+003 2.697253e+002 6.606791e+002 6.739409e+001 1.617225e+002 5.913356e+002 2.211415e+003 1.582298e+002 2.087044e+002 3.890910e-001 7.911884e-001 8.845214e-002 3.468620e-001 8.752620e-002 4.016079e+000 5.706683e+000 6.346788e+000
<GCONST> 1.086035e+002
<STATE> 4
<MEAN> 22
 9.203637e+000 3.005247e+000 2.589797e+000 1.124846e+000 6.842194e+001 1.982439e+001 8.338039e+001 8.558675e+001 7.151671e+001 5.657671e+001 1.160064e+002 1.782808e+002 1.072183e+002 1.116092e+002 2.790658e+000 4.737907e+000 6.253248e+000 5.776983e+000 3.927910e+000 5.833692e+000 3.325400e+000 2.329724e+000
<VARIANCE> 22
 1.325541e+002 3.007315e+001 1.196732e+001 3.605931e+000 2.516318e+003 5.157795e+002 9.224576e+002 7.221075e+002 2.090097e+002 6.439408e+001 3.103840e+003 1.350621e+003 2.537735e+002 1.511749e+002 8.082219e+000 3.852228e-001 2.501939e+000 1.898344e-001 3.656439e+000 1.230137e+000 6.011981e+000 6.153155e+000
<GCONST> 1.207907e+002
<TRANSP> 5
 0.000000e+000 1.000000e+000 0.000000e+000 0.000000e+000 0.000000e+000
 0.000000e+000 7.197554e-001 2.802445e-001 0.000000e+000 0.000000e+000
 0.000000e+000 0.000000e+000 9.511076e-001 4.889242e-002 0.000000e+000
 0.000000e+000 0.000000e+000 0.000000e+000 9.082490e-001 9.175108e-002
 0.000000e+000 0.000000e+000 0.000000e+000 0.000000e+000 0.000000e+000
<ENDHMM>
~h "SP"
<BEGINHMM>
<NUMSTATES> 5
<STATE> 2
<MEAN> 22
 8.110570e+000 1.155123e+001 4.569393e+000 5.130597e+000 1.029888e+002 1.297854e+002 8.268144e+001 9.213888e+001 6.398961e+001 6.720023e+001 1.443546e+002 1.127451e+002 9.927326e+001 9.446903e+001 4.105442e+000 3.295657e+000 5.163526e+000 4.186128e+000 4.758385e+000 3.404389e+000 1.998841e+000 2.159274e+000
<VARIANCE> 22
 1.862920e+003 1.310955e+003 1.502633e+003 9.104202e+002 3.164254e+004 1.858183e+004 2.367135e+003 2.693306e+003 9.414017e+002 1.444904e+003 6.941464e+003 5.767043e+003 2.053406e+003 1.679230e+003 1.071414e+001 3.192612e+000 6.322917e+000 4.139035e+000 4.644582e+000 6.930895e+000 5.739522e+000 4.886416e+000
<GCONST> 1.654150e+002
<STATE> 3
<MEAN> 22
 1.192326e+000 1.184772e+001 5.032298e-001 3.875391e+000 1.049591e+001 1.733963e+002 9.396851e+001 1.279216e+002 6.013567e+001 8.743864e+001 1.877011e+002 6.264085e+001 1.123993e+002 9.346738e+001 6.934746e+000 2.463369e+000 6.073319e+000 3.620072e+000 5.968256e+000 1.964134e+000 1.605770e+000 3.049898e+000
<VARIANCE> 22
 7.186150e+000 2.791241e+002 3.300596e+000 2.839283e+001 5.640073e+002 3.600336e+003 3.311842e+002 1.126173e+003 8.863535e+001 4.496624e+002 6.782023e+002 1.361632e+003 1.673316e+002 2.399613e+002 3.461176e-001 6.343703e-001 2.782700e-001 8.143105e-001 1.248319e-001 2.239801e+000 5.470413e+000 5.991875e+000
<GCONST> 1.140745e+002
<STATE> 4
<MEAN> 22
 9.973422e+000 3.759536e+000 3.322299e+000 1.345340e+000 1.121142e+002 1.916056e+001 1.171447e+002 8.443286e+001 8.648034e+001 5.770509e+001 1.039309e+002 1.745698e+002 9.839622e+001 1.122690e+002 3.285079e+000 4.651228e+000 3.583426e+000 5.773264e+000 3.937440e+000 5.335246e+000 3.181706e+000 2.336930e+000
<VARIANCE> 22
 2.450651e+002 5.768795e+001 3.817985e+001 5.769423e+000 7.412880e+003 6.965462e+002 1.749274e+003 7.782870e+002 5.946208e+002 5.990730e+001 4.190296e+003 1.714384e+003 3.941352e+002 1.394595e+002 6.441720e+000 7.668784e-001 7.608351e+000 1.985381e-001 2.802029e+000 3.717793e+000 6.443325e+000 6.480685e+000
<GCONST> 1.302336e+002
<TRANSP> 5
 0.000000e+000 1.000000e+000 0.000000e+000 0.000000e+000 0.000000e+000
 0.000000e+000 7.004948e-001 2.995052e-001 0.000000e+000 0.000000e+000
 0.000000e+000 0.000000e+000 9.530704e-001 4.692958e-002 0.000000e+000
 0.000000e+000 0.000000e+000 0.000000e+000 9.342347e-001 6.576525e-002
 0.000000e+000 0.000000e+000 0.000000e+000 0.000000e+000 0.000000e+000
<ENDHMM>
~h "ST"
<BEGINHMM>
<NUMSTATES> 5
<STATE> 2
<MEAN> 22
 7.289371e+000 9.768984e+000 2.733653e+000 2.965201e+000 8.606520e+001 9.199221e+001 8.499387e+001 8.045626e+001 7.177901e+001 7.109171e+001 1.477471e+002 1.205344e+002 1.112811e+002 1.113977e+002 4.459577e+000 3.454304e+000 6.136133e+000 5.600119e+000 4.897298e+000 3.324227e+000 2.818057e+000 2.678661e+000
<VARIANCE> 22
 5.090378e+002 5.732191e+002 3.978607e+002 2.433474e+002 1.645936e+004 1.000889e+004 1.440494e+003 1.039539e+003 3.522532e+002 4.197288e+002 5.191501e+003 5.076212e+003 8.170866e+002 5.004091e+002 8.314736e+000 2.381794e+000 1.482979e+000 1.027766e+000 2.507923e+000 7.678778e+000 6.586542e+000 5.850275e+000
<GCONST> 1.495658e+002
<STATE> 3
<MEAN> 22
 1.310329e+000 1.074814e+001 5.120893e-001 2.187584e+000 9.361928e+000 1.121893e+002 9.181584e+001 6.783041e+001 5.846308e+001 7.953549e+001 1.898973e+002 7.640869e+001 1.138703e+002 1.052943e+002 6.969933e+000 2.745129e+000 6.061712e+000 5.842537e+000 5.988134e+000 1.852995e+000 1.538682e+000 3.004447e+000
<VARIANCE> 22
 7.820333e+000 1.578636e+002 3.300596e+000 8.854323e+000 2.925830e+002 2.684720e+003 2.188153e+002 6.084827e+002 5.386316e+001 3.223203e+002 4.810855e+002 2.920930e+003 1.266977e+002 1.336144e+002 1.636029e-001 1.491811e+000 6.341651e-002 3.620736e-001 2.545693e-002 6.612145e+000 5.136653e+000 5.820899e+000
<GCONST> 1.063862e+002
<STATE> 4
<MEAN> 22
 9.911783e+000 2.846933e+000 2.206002e+000 1.075108e+000 9.128293e+001 2.060441e+001 7.665189e+001 8.946500e+001 8.201144e+001 5.757286e+001 9.306824e+001 1.863623e+002 1.088580e+002 1.156643e+002 3.073316e+000 4.871837e+000 6.017937e+000 5.876750e+000 4.227691e+000 5.947598e+000 3.127592e+000 2.164633e+000
<VARIANCE> 22
 1.340244e+002 3.575425e+001 8.809818e+000 4.591651e+000 4.067017e+003 8.149063e+002 7.977524e+002 6.816609e+002 3.719117e+002 5.489615e+001 4.618877e+003 1.253047e+003 2.613575e+002 1.533936e+002 5.958971e+000 1.945876e-001 1.350623e+000 1.242607e-001 1.540448e+000 8.152672e-001 6.078601e+000 5.993381e+000
<GCONST> 1.191089e+002
<TRANSP> 5
 0.000000e+000 1.000000e+000 0.000000e+000 0.000000e+000 0.000000e+000
 0.000000e+000 7.858120e-001 2.141881e-001 0.000000e+000 0.000000e+000
 0.000000e+000 0.000000e+000 9.564315e-001 4.356845e-002 0.000000e+000
 0.000000e+000 0.000000e+000 0.000000e+000 9.132159e-001 8.678411e-002
 0.000000e+000 0.000000e+000 0.000000e+000 0.000000e+000 0.000000e+000
<ENDHMM>
~h "TT"
<BEGINHMM>
<NUMSTATES> 5
<STATE> 2
<MEAN> 22
 1.300598e+001 1.444513e+001 5.817139e+000 6.096880e+000 5.694334e+001 8.306924e+001 8.999730e+001 1.050943e+002 7.234641e+001 7.663428e+001 1.632084e+002 1.481836e+002 1.117211e+002 1.111696e+002 4.895900e+000 4.065196e+000 5.867952e+000 5.084919e+000 5.379207e+000 4.420912e+000 2.773314e+000 2.823819e+000
<VARIANCE> 22
 1.807824e+003 1.405655e+003 1.342967e+003 8.871297e+002 4.635364e+003 7.727187e+003 1.791711e+003 2.117190e+003 3.913604e+002 8.187161e+002 2.668929e+003 2.935308e+003 3.364648e+002 2.442585e+002 8.801641e+000 1.500457e+000 2.535344e+000 1.452903e+000 1.525230e+000 5.151696e+000 6.627248e+000 4.976352e+000
<GCONST> 1.510249e+002
<STATE> 3
<MEAN> 22
 1.720553e+000 1.725764e+001 7.659001e-001 5.731511e+000 1.122836e+001 1.757265e+002 9.522495e+001 1.505217e+002 5.968698e+001 1.082568e+002 1.909995e+002 1.086573e+002 1.146860e+002 9.926042e+001 6.949997e+000 2.990849e+000 6.072410e+000 3.785680e+000 5.969712e+000 2.666552e+000 1.946030e+000 3.708655e+000
<VARIANCE> 22
 1.119120e+001 3.443376e+002 3.300596e+000 4.931321e+001 4.428350e+002 7.078940e+003 3.975327e+002 2.001072e+003 1.275370e+002 1.028294e+003 6.697014e+002 1.963677e+003 1.876877e+002 3.336223e+002 2.561480e-001 1.059802e+000 2.266502e-001 1.100795e+000 9.070180e-002 3.334241e+000 5.803121e+000 5.421365e+000
<GCONST> 1.188060e+002
<STATE> 4
<MEAN> 22
 1.392494e+001 3.166204e+000 4.827435e+000 1.325544e+000 1.432208e+002 3.073538e+001 1.317188e+002 8.630363e+001 9.729907e+001 5.625146e+001 1.170342e+002 1.776614e+002 1.008629e+002 1.117913e+002 2.660105e+000 4.614404e+000 3.273680e+000 5.719177e+000 3.531540e+000 5.336106e+000 3.335931e+000 2.321918e+000
<VARIANCE> 22
 3.284231e+002 3.865873e+001 5.280625e+001 6.699541e+000 1.105595e+004 3.736669e+003 3.290935e+003 1.020715e+003 1.309896e+003 1.395913e+002 3.055838e+003 2.236595e+003 5.853476e+002 4.339004e+002 6.381811e+000 1.210959e+000 8.129752e+000 8.679428e-001 3.535648e+000 3.783056e+000 5.816009e+000 6.197378e+000
<GCONST> 1.387908e+002
<TRANSP> 5
 0.000000e+000 1.000000e+000 0.000000e+000 0.000000e+000 0.000000e+000
 0.000000e+000 6.495401e-001 3.504599e-001 0.000000e+000 0.000000e+000
 0.000000e+000 0.000000e+000 9.521348e-001 4.786514e-002 0.000000e+000
 0.000000e+000 0.000000e+000 0.000000e+000 9.381543e-001 6.184569e-002
 0.000000e+000 0.000000e+000 0.000000e+000 0.000000e+000 0.000000e+000
<ENDHMM>
~h "VA"
<BEGINHMM>
<NUMSTATES> 5
<STATE> 2
<MEAN> 22
 1.196177e+001 1.191350e+001 5.450530e+000 4.566782e+000 1.411470e+002 1.447971e+002 9.381192e+001 1.070145e+002 7.561858e+001 7.811385e+001 1.238217e+002 1.190108e+002 9.355292e+001 9.417741e+001 3.387465e+000 3.245251e+000 4.538410e+000 4.347444e+000 4.214995e+000 3.286014e+000 2.704487e+000 2.559587e+000
<VARIANCE> 22
 1.003440e+003 8.168576e+002 6.151134e+002 3.730522e+002 2.677805e+004 1.611346e+004 3.669380e+003 3.698431e+003 1.301960e+003 1.523660e+003 5.820663e+003 5.322782e+003 1.632703e+003 1.306131e+003 8.830667e+000 2.693425e+000 7.052117e+000 3.375180e+000 4.121715e+000 6.426845e+000 6.189242e+000 5.290189e+000
<GCONST> 1.621261e+002
<STATE> 3
<MEAN> 22
 2.324044e+000 1.533335e+001 1.100949e+000 5.633447e+000 1.176581e+001 1.431602e+002 9.149626e+001 1.224727e+002 5.712927e+001 9.471391e+001 1.877644e+002 1.044916e+002 1.128440e+002 9.179560e+001 6.930086e+000 3.192595e+000 6.064901e+000 4.356408e+000 5.962323e+000 3.125999e+000 2.184631e+000 3.527294e+000
<VARIANCE> 22
 1.660201e+001 2.879253e+002 5.630326e+000 3.973956e+001 4.340951e+002 7.903698e+003 3.153905e+002 2.637995e+003 9.998394e+001 8.078149e+002 6.725301e+002 3.180418e+003 1.702250e+002 5.013867e+002 3.567245e-001 1.451937e+000 1.515406e-001 1.732324e+000 8.244726e-002 5.463632e+000 6.155706e+000 5.379391e+000
<GCONST> 1.209328e+002
<STATE> 4
<MEAN> 22
 1.296938e+001 3.493489e+000 4.784170e+000 1.644916e+000 1.242141e+002 2.200778e+001 1.265072e+002 8.451714e+001 9.699819e+001 5.558523e+001 1.100268e+002 1.725465e+002 9.612249e+001 1.122378e+002 2.820420e+000 4.509397e+000 3.644541e+000 5.760199e+000 3.631382e+000 5.169039e+000 3.249461e+000 2.488594e+000
<VARIANCE> 22
 2.625476e+002 5.825023e+001 3.950485e+001 8.979369e+000 7.836462e+003 7.421661e+002 3.384847e+003 7.824911e+002 7.927818e+002 9.057748e+001 4.102828e+003 2.015997e+003 5.036756e+002 1.474161e+002 5.711948e+000 1.056394e+000 8.198676e+000 1.932904e-001 3.060360e+000 4.009029e+000 6.052725e+000 6.271592e+000
<GCONST> 1.330322e+002
<TRANSP> 5
 0.000000e+000 1.000000e+000 0.000000e+000 0.000000e+000 0.000000e+000
 0.000000e+000 7.417741e-001 2.582258e-001 0.000000e+000 0.000000e+000
 0.000000e+000 0.000000e+000 9.453900e-001 5.460994e-002 0.000000e+000
 0.000000e+000 0.000000e+000 0.000000e+000 9.173031e-001 8.269684e-002
 0.000000e+000 0.000000e+000 0.000000e+000 0.000000e+000 0.000000e+000
<ENDHMM>
~h "VQ"
<BEGINHMM>
<NUMSTATES> 5
<STATE> 2
<MEAN> 22
 1.633847e+001 9.295242e+000 7.059774e+000 4.495225e+000 1.163861e+002 4.120833e+001 1.131241e+002 9.644963e+001 8.172601e+001 5.867613e+001 1.160848e+002 1.709964e+002 1.054632e+002 1.132476e+002 3.212622e+000 4.553598e+000 3.972677e+000 5.599841e+000 3.891514e+000 5.300059e+000 3.535734e+000 2.485040e+000
<VARIANCE> 22
 1.699772e+003 1.287086e+003 1.232176e+003 8.048911e+002 8.371718e+003 5.031848e+003 1.775748e+003 6.465815e+002 4.530982e+002 1.258932e+002 5.512724e+003 3.168126e+003 6.399321e+002 2.250603e+002 7.619265e+000 1.080007e+000 9.076382e+000 6.260529e-001 3.441890e+000 2.854345e+000 6.104610e+000 5.605501e+000
<GCONST> 1.495164e+002
<STATE> 3
<MEAN> 22
 2.037015e+000 1.253456e+001 8.158507e-001 4.258708e+000 1.022304e+001 1.260725e+002 9.086357e+001 1.040729e+002 5.640660e+001 7.219888e+001 1.888615e+002 8.874011e+001 1.131099e+002 9.430447e+001 6.965388e+000 3.178847e+000 6.081215e+000 4.645775e+000 5.980798e+000 3.064333e+000 1.990616e+000 3.588775e+000
<VARIANCE> 22
 1.413490e+001 2.237287e+002 3.300596e+000 3.477873e+001 3.817670e+002 5.553541e+003 2.950329e+002 1.381844e+003 7.711230e+001 2.915789e+002 5.760901e+002 3.573551e+003 1.683916e+002 3.870946e+002 1.839142e-001 1.367686e+000 1.108695e-001 1.124506e+000 5.265624e-002 4.499125e+000 5.918461e+000 5.651372e+000
<GCONST> 1.149715e+002
<STATE> 4
<MEAN> 22
 9.493196e+000 3.700720e+000 3.744792e+000 1.595929e+000 1.184763e+002 5.446577e+001 9.290585e+001 7.724534e+001 7.054276e+001 5.150929e+001 8.435237e+001 1.553662e+002 9.081313e+001 1.041488e+002 2.497522e+000 4.186017e+000 3.836286e+000 5.393836e+000 3.348909e+000 4.837162e+000 3.231083e+000 2.540945e+000
<VARIANCE> 22
 1.601303e+002 4.454892e+001 2.948266e+001 8.718214e+000 1.541816e+004 9.076838e+003 2.041478e+003 1.107193e+003 5.874323e+002 2.130695e+002 3.827862e+003 3.401071e+003 7.953257e+002 7.075449e+002 5.518549e+000 2.131326e+000 9.239316e+000 1.788055e+000 3.376020e+000 5.082313e+000 6.234423e+000 6.286022e+000
<GCONST> 1.413831e+002
<TRANSP> 5
 0.000000e+000 1.000000e+000 0.000000e+000 0.000000e+000 0.000000e+000
 0.000000e+000 7.876825e-001 2.123175e-001 0.000000e+000 0.000000e+000
 0.000000e+000 0.000000e+000 9.467179e-001 5.328207e-002 0.000000e+000
 0.000000e+000 0.000000e+000 0.000000e+000 9.009671e-001 9.903293e-002
 0.000000e+000 0.000000e+000 0.000000e+000 0.000000e+000 0.000000e+000
<ENDHMM>
~h "SIL"
<BEGINHMM>
<NUMSTATES> 5
<STATE> 2
<MEAN> 22
 7.932841e+001 6.712979e+001 7.196347e+001 5.771716e+001 3.258261e+001 2.662141e+001 7.228134e+000 7.144002e+000 5.128964e+000 4.924296e+000 1.402339e+001 1.331875e+001 9.003901e+000 8.883945e+000 4.970580e-001 3.594708e-001 4.841956e-001 4.598458e-001 4.503725e-001 4.166076e-001 7.758811e-001 7.788319e-001
<VARIANCE> 22
 3.346116e+004 2.375015e+004 2.755391e+004 1.775304e+004 1.612823e+004 1.061491e+004 6.604897e+002 6.482056e+002 3.150826e+002 2.978474e+002 2.430336e+003 2.254056e+003 9.483680e+002 9.234136e+002 3.122568e+000 1.603494e+000 2.736359e+000 2.461433e+000 2.400183e+000 2.295393e+000 3.654539e+000 3.671683e+000
<GCONST> 1.613303e+002
<STATE> 3
<MEAN> 22
 4.217767e+000 4.445081e+000 1.265093e+000 1.349119e+000 2.622112e+001 2.684105e+001 9.735181e+001 9.474768e+001 6.786886e+001 6.102578e+001 1.821092e+002 1.822048e+002 1.169993e+002 1.159448e+002 6.121847e+000 4.712708e+000 6.105327e+000 5.794031e+000 5.654990e+000 5.532801e+000 2.266158e+000 2.225772e+000
<VARIANCE> 22
 7.773088e+001 8.232479e+001 6.636251e+000 6.402951e+000 1.505701e+003 1.520404e+003 9.148422e+002 6.835970e+002 1.720143e+002 1.301423e+002 2.562973e+003 2.192290e+003 3.669632e+002 2.035851e+002 4.412752e+000 7.347018e-001 9.476352e-001 2.432913e-001 9.634818e-001 2.381420e+000 5.614852e+000 5.512465e+000
<GCONST> 1.216874e+002
<STATE> 4
<MEAN> 22
 1.220122e+000 2.419110e+000 4.698295e-001 8.500547e-001 5.886543e+000 9.867064e+000 9.412315e+001 9.255755e+001 5.964611e+001 5.873939e+001 1.934932e+002 1.903504e+002 1.161689e+002 1.157715e+002 6.964754e+000 4.950719e+000 6.023646e+000 5.916823e+000 5.990042e+000 5.933679e+000 1.733243e+000 1.891628e+000
<VARIANCE> 22
 8.776508e+000 3.018929e+001 3.300596e+000 2.761286e+000 1.005731e+002 3.489885e+002 2.080205e+002 2.367447e+002 6.131298e+001 7.323778e+001 5.122134e+002 7.722200e+002 1.301825e+002 1.496549e+002 2.162890e-001 1.092339e-001 2.634447e-002 8.747012e-002 2.500950e-002 4.022099e-001 5.280420e+000 5.480672e+000
<GCONST> 8.961578e+001
<TRANSP> 5
 0.000000e+000 1.000000e+000 0.000000e+000 0.000000e+000 0.000000e+000
 0.000000e+000 9.088275e-001 9.117239e-002 0.000000e+000 0.000000e+000
 0.000000e+000 0.000000e+000 9.953595e-001 4.640548e-003 0.000000e+000
 0.000000e+000 0.000000e+000 0.000000e+000 9.965380e-001 3.462036e-003
 0.000000e+000 0.000000e+000 0.000000e+000 0.000000e+000 0.000000e+000
<ENDHMM>
