~o
<STREAMINFO> 1 22
<VECSIZE> 22<NULLD><MFCC_0><DIAGC>
~h "BN_2"
<BEGINHMM>
<NUMSTATES> 5
<STATE> 2
<NUMMIXES> 2
<MIXTURE> 1 5.288072e-01
<MEAN> 22
 9.038220e+00 1.622329e+00 2.712939e+00 7.511069e-01 1.235841e+02 1.677210e+01 1.102171e+02 9.753995e+01 8.390657e+01 5.640130e+01 1.009450e+02 1.956000e+02 1.043136e+02 1.171671e+02 3.293196e+00 5.000000e+00 3.726271e+00 5.888327e+00 3.935318e+00 5.997644e+00 3.066798e+00 2.070990e+00
<VARIANCE> 22
 1.782529e+02 5.866113e+00 1.654735e+01 2.171579e+00 6.913616e+03 4.312133e+02 1.611243e+03 2.430477e+02 5.372657e+02 6.022834e+01 5.116053e+03 4.125477e+02 3.456206e+02 1.399445e+02 6.539961e+00 1.793070e-02 8.689018e+00 9.920271e-02 2.560265e+00 5.619852e-02 6.749819e+00 5.781908e+00
<GCONST> 1.139206e+02
<MIXTURE> 2 4.711931e-01
<MEAN> 22
 9.316132e+00 1.066785e+01 2.055722e+00 2.724891e+00 8.286969e+01 1.015721e+02 8.584886e+01 8.167403e+01 7.374865e+01 6.847820e+01 1.077588e+02 8.920878e+01 1.018929e+02 1.008172e+02 2.572371e+00 2.923457e+00 5.445039e+00 5.168850e+00 4.069763e+00 2.306784e+00 3.322886e+00 3.366582e+00
<VARIANCE> 22
 1.736245e+02 1.974868e+02 9.561766e+00 1.568486e+01 3.191566e+03 3.459723e+03 1.614611e+03 1.889696e+03 4.017066e+02 3.447197e+02 3.461856e+03 2.269749e+03 2.558432e+02 2.120479e+02 6.386594e+00 1.259179e+00 4.791560e+00 1.064475e+00 3.409641e+00 5.128841e+00 6.618571e+00 6.254990e+00
<GCONST> 1.359501e+02
<STATE> 3
<NUMMIXES> 2
<MIXTURE> 1 5.688746e-01
<MEAN> 22
 2.058840e+00 2.834816e+00 7.749841e-01 1.022743e+00 9.783138e+00 1.192260e+01 9.645673e+01 9.453588e+01 6.137399e+01 5.863381e+01 1.964269e+02 1.945025e+02 1.175913e+02 1.164704e+02 6.998736e+00 5.000000e+00 6.073468e+00 5.906209e+00 5.999991e+00 6.001275e+00 2.049539e+00 2.163387e+00
<VARIANCE> 22
 1.209798e+01 1.844540e+01 3.305619e+00 2.660528e+00 1.077779e+02 2.000179e+02 2.526873e+02 2.594508e+02 6.969945e+01 7.882199e+01 5.912615e+02 5.736839e+02 1.958594e+02 1.639919e+02 6.556320e-02 1.793070e-02 6.807026e-02 8.499390e-02 2.100767e-02 5.619852e-02 5.789063e+00 5.905213e+00
<GCONST> 8.569913e+01
<MIXTURE> 2 4.311247e-01
<MEAN> 22
 1.494841e+00 1.127836e+01 5.540221e-01 3.241405e+00 2.037892e+01 1.315359e+02 9.299802e+01 9.961837e+01 5.904404e+01 7.987172e+01 1.818635e+02 7.195716e+01 1.119286e+02 9.908225e+01 6.619858e+00 2.810039e+00 5.975708e+00 4.491156e+00 5.829395e+00 2.351769e+00 1.688191e+00 3.314553e+00
<VARIANCE> 22
 1.027657e+01 2.046628e+02 3.305619e+00 1.925901e+01 1.577012e+03 3.934847e+03 4.175947e+02 1.321165e+03 1.428067e+02 4.476662e+02 1.373629e+03 2.578350e+03 1.996581e+02 2.171217e+02 2.038006e+00 1.064198e+00 1.001319e+00 1.218378e+00 5.886989e-01 4.757245e+00 5.303945e+00 6.034437e+00
<GCONST> 1.233913e+02
<STATE> 4
<NUMMIXES> 2
<MIXTURE> 1 9.242641e-01
<MEAN> 22
 8.551982e+00 8.541547e+00 1.654351e+00 1.781332e+00 6.106878e+01 5.606648e+01 7.506102e+01 7.272516e+01 6.790042e+01 6.379980e+01 1.403901e+02 1.373021e+02 1.061172e+02 1.079632e+02 4.481978e+00 3.979096e+00 5.853404e+00 5.610601e+00 4.988179e+00 4.433869e+00 2.506676e+00 2.557967e+00
<VARIANCE> 22
 1.548306e+02 1.512736e+02 8.008560e+00 8.422437e+00 3.342616e+03 2.714998e+03 1.840366e+03 1.514186e+03 2.697003e+02 1.959943e+02 3.692503e+03 3.758610e+03 5.420994e+02 2.847172e+02 7.929393e+00 1.973597e+00 2.081849e+00 4.508499e-01 1.995792e+00 7.051737e+00 5.753566e+00 6.017361e+00
<GCONST> 1.337116e+02
<MIXTURE> 2 7.573581e-02
<MEAN> 22
 -2.910383e-11 -2.328306e-10 -2.328306e-10 3.637979e-12 4.470348e-08 -1.192093e-07 -2.086163e-07 4.470348e-08 -4.768372e-07 -1.490116e-07 -2.384186e-07 -2.980232e-07 -1.013279e-06 2.980232e-07 -1.396984e-08 -4.656613e-10 -2.235174e-08 -2.235174e-08 -1.862645e-09 -4.440892e-16 0.000000e+00 2.328306e-10
<VARIANCE> 22
 4.801967e+00 4.073976e+00 3.305619e+00 2.171579e+00 4.932809e+01 5.399630e+01 9.965595e+00 1.121768e+01 2.939380e+00 3.532339e+00 3.789023e+01 4.425340e+01 4.237021e+00 4.029697e+00 6.556320e-02 1.793070e-02 2.348518e-02 1.180012e-02 2.100767e-02 5.619852e-02 6.159949e-02 6.062591e-02
<GCONST> 4.331552e+01
<TRANSP> 5
 0.000000e+00 1.000000e+00 0.000000e+00 0.000000e+00 0.000000e+00
 0.000000e+00 7.517300e-01 2.482700e-01 0.000000e+00 0.000000e+00
 0.000000e+00 0.000000e+00 8.816786e-01 1.183214e-01 0.000000e+00
 0.000000e+00 0.000000e+00 0.000000e+00 6.440422e-01 3.559578e-01
 0.000000e+00 0.000000e+00 0.000000e+00 0.000000e+00 0.000000e+00
<ENDHMM>
~h "BS_2"
<BEGINHMM>
<NUMSTATES> 5
<STATE> 2
<NUMMIXES> 2
<MIXTURE> 1 6.424286e-01
<MEAN> 22
 8.699234e+00 2.069218e+00 2.398270e+00 8.246643e-01 8.151839e+01 1.968887e+01 9.378226e+01 9.810545e+01 7.714058e+01 5.812682e+01 1.266720e+02 1.973891e+02 1.084759e+02 1.174349e+02 3.626766e+00 5.000000e+00 5.246800e+00 5.819108e+00 4.519060e+00 5.997601e+00 2.949621e+00 2.087638e+00
<VARIANCE> 22
 1.757861e+02 1.202246e+01 1.413694e+01 2.171579e+00 5.033117e+03 5.288948e+02 1.763105e+03 2.289875e+02 4.289513e+02 6.825537e+01 4.904635e+03 5.603048e+02 5.413068e+02 1.637735e+02 8.327609e+00 1.793070e-02 5.243525e+00 1.481686e-01 2.755347e+00 5.619852e-02 6.458021e+00 6.002165e+00
<GCONST> 1.153582e+02
<MIXTURE> 2 3.575717e-01
<MEAN> 22
 1.022192e+01 1.209584e+01 2.009030e+00 3.623295e+00 1.146206e+02 1.243002e+02 7.842540e+01 7.039781e+01 6.586317e+01 6.194204e+01 9.827610e+01 8.045745e+01 9.188321e+01 9.229545e+01 2.956586e+00 2.629016e+00 4.836789e+00 4.786693e+00 3.661708e+00 2.326364e+00 2.822817e+00 3.044845e+00
<VARIANCE> 22
 2.523404e+02 2.908631e+02 1.031038e+01 3.432775e+01 1.648459e+04 7.959448e+03 2.197177e+03 1.946789e+03 7.732449e+02 6.496514e+02 4.570083e+03 2.341798e+03 1.443045e+03 1.032922e+03 7.076476e+00 2.098752e+00 6.470493e+00 3.135141e+00 4.409298e+00 5.745400e+00 6.600307e+00 6.342559e+00
<GCONST> 1.476694e+02
<STATE> 3
<NUMMIXES> 2
<MIXTURE> 1 4.977970e-01
<MEAN> 22
 9.244827e+00 1.298495e+01 2.636745e+00 2.776724e+00 4.354455e+01 4.472368e+01 8.089326e+01 7.179374e+01 6.400037e+01 6.102250e+01 1.539405e+02 1.472364e+02 1.067236e+02 1.055051e+02 4.444806e+00 4.418372e+00 6.267055e+00 5.529026e+00 5.509219e+00 5.550546e+00 2.732096e+00 3.202056e+00
<VARIANCE> 22
 2.508492e+02 2.513252e+02 3.341044e+01 1.511537e+01 1.878359e+03 1.272121e+03 8.394904e+02 8.929398e+02 2.074616e+02 1.438290e+02 2.276843e+03 1.641811e+03 2.151837e+02 1.668783e+02 9.984607e+00 6.767969e-01 7.914508e-01 2.979577e-01 1.829422e+00 2.791353e+00 6.932084e+00 5.720656e+00
<GCONST> 1.276266e+02
<MIXTURE> 2 5.022012e-01
<MEAN> 22
 1.591661e+00 9.515547e+00 6.979731e-01 3.285703e+00 2.866513e+01 1.424150e+02 7.773399e+01 9.513066e+01 5.888136e+01 7.805753e+01 1.635350e+02 5.913686e+01 1.091173e+02 9.637553e+01 5.963533e+00 2.309437e+00 6.003074e+00 4.609223e+00 5.545724e+00 1.106367e+00 1.858534e+00 2.963854e+00
<VARIANCE> 22
 6.205868e+00 1.575103e+02 3.305619e+00 1.849155e+01 2.360516e+03 3.218183e+03 7.395931e+02 1.995049e+03 5.812597e+01 4.430458e+02 2.512802e+03 8.457712e+02 1.288183e+02 2.534780e+02 4.208275e+00 4.584014e-01 2.348518e-02 1.666473e+00 8.398125e-01 6.321874e-01 5.994333e+00 5.332164e+00
<GCONST> 1.168461e+02
<STATE> 4
<NUMMIXES> 2
<MIXTURE> 1 6.835672e-01
<MEAN> 22
 2.069632e+00 3.074782e+00 7.916362e-01 1.086222e+00 1.041467e+01 1.370340e+01 9.567881e+01 9.500478e+01 6.109140e+01 5.898289e+01 1.940339e+02 1.930020e+02 1.156096e+02 1.156055e+02 7.000000e+00 4.999993e+00 6.092377e+00 5.873209e+00 6.004825e+00 5.999448e+00 2.121510e+00 2.366278e+00
<VARIANCE> 22
 9.972960e+00 1.934942e+01 3.305619e+00 2.533663e+00 1.376562e+02 2.711052e+02 2.063866e+02 1.929077e+02 6.930764e+01 6.335741e+01 4.101805e+02 3.719940e+02 1.386116e+02 1.046432e+02 6.556320e-02 1.793070e-02 8.384365e-02 1.107133e-01 2.100767e-02 5.619852e-02 5.628002e+00 5.978701e+00
<GCONST> 8.419403e+01
<MIXTURE> 2 3.164336e-01
<MEAN> 22
 9.000102e+00 1.118592e+01 1.951562e+00 2.709939e+00 6.947084e+01 8.736683e+01 9.221736e+01 8.309853e+01 6.718278e+01 6.755212e+01 1.370575e+02 1.193753e+02 1.078790e+02 1.053545e+02 3.353638e+00 3.536712e+00 5.862064e+00 5.257079e+00 4.206653e+00 3.454361e+00 2.623072e+00 2.755678e+00
<VARIANCE> 22
 1.538450e+02 1.882612e+02 7.591503e+00 1.521479e+01 3.146726e+03 3.405365e+03 1.615174e+03 1.697635e+03 2.286362e+02 3.051624e+02 4.117602e+03 3.301595e+03 2.894286e+02 2.448781e+02 9.218760e+00 1.400224e+00 3.181120e+00 6.824957e-01 4.999650e+00 6.315544e+00 5.712354e+00 5.320526e+00
<GCONST> 1.354143e+02
<TRANSP> 5
 0.000000e+00 1.000000e+00 0.000000e+00 0.000000e+00 0.000000e+00
 0.000000e+00 6.913944e-01 3.086056e-01 0.000000e+00 0.000000e+00
 0.000000e+00 0.000000e+00 7.431275e-01 2.568725e-01 0.000000e+00
 0.000000e+00 0.000000e+00 0.000000e+00 8.314876e-01 1.685124e-01
 0.000000e+00 0.000000e+00 0.000000e+00 0.000000e+00 0.000000e+00
<ENDHMM>
~h "SP_2"
<BEGINHMM>
<NUMSTATES> 5
<STATE> 2
<NUMMIXES> 2
<MIXTURE> 1 7.545039e-01
<MEAN> 22
 8.350879e+00 1.678604e+00 2.849475e+00 8.445779e-01 1.105468e+02 1.924781e+01 1.044195e+02 9.705849e+01 7.999737e+01 5.642796e+01 1.095308e+02 1.947071e+02 1.034147e+02 1.161751e+02 3.173034e+00 5.000000e+00 4.278816e+00 5.821944e+00 4.045027e+00 5.993458e+00 3.263148e+00 2.142365e+00
<VARIANCE> 22
 1.625173e+02 5.943041e+00 2.320988e+01 2.171579e+00 7.212454e+03 8.000818e+02 1.794234e+03 2.317085e+02 5.130336e+02 6.977001e+01 4.453556e+03 3.882023e+02 3.375807e+02 1.139409e+02 7.057828e+00 1.793070e-02 7.596906e+00 1.463512e-01 2.949891e+00 5.619852e-02 6.487567e+00 5.984236e+00
<GCONST> 1.150393e+02
<MIXTURE> 2 2.454959e-01
<MEAN> 22
 4.554703e+00 7.623609e+00 1.639018e+00 2.569975e+00 5.301092e+01 1.134814e+02 6.666001e+01 8.114359e+01 5.673725e+01 6.712944e+01 1.190992e+02 6.788746e+01 8.390199e+01 7.890678e+01 4.045797e+00 2.352987e+00 4.889125e+00 3.560068e+00 4.161920e+00 2.152760e+00 2.079529e+00 2.312655e+00
<VARIANCE> 22
 9.105192e+01 1.169138e+02 3.386771e+01 2.034391e+01 8.228439e+03 9.219798e+03 1.794574e+03 3.479364e+03 1.066286e+03 1.593315e+03 6.066584e+03 2.940188e+03 2.487570e+03 1.856899e+03 9.383254e+00 2.229711e+00 6.367618e+00 4.510829e+00 5.377445e+00 5.626842e+00 6.038437e+00 5.679725e+00
<GCONST> 1.497643e+02
<STATE> 3
<NUMMIXES> 2
<MIXTURE> 1 6.364591e-01
<MEAN> 22
 1.559148e+00 2.249443e+00 7.030169e-01 8.826250e-01 9.419518e+00 1.081960e+01 9.676723e+01 9.605835e+01 6.123999e+01 5.833098e+01 1.967481e+02 1.958685e+02 1.180848e+02 1.171132e+02 7.000000e+00 5.000000e+00 6.103418e+00 5.909254e+00 6.000630e+00 5.999140e+00 1.932739e+00 2.121978e+00
<VARIANCE> 22
 5.719813e+00 1.259803e+01 3.305619e+00 2.171579e+00 9.944221e+01 1.322966e+02 2.284894e+02 2.137389e+02 7.586650e+01 6.861842e+01 5.230477e+02 5.032659e+02 1.876960e+02 1.613536e+02 6.556320e-02 1.793070e-02 9.272281e-02 8.251307e-02 2.100767e-02 5.619852e-02 5.791200e+00 5.987332e+00
<GCONST> 8.350478e+01
<MIXTURE> 2 3.635407e-01
<MEAN> 22
 8.841579e+00 1.049669e+01 2.220287e+00 2.500725e+00 7.132527e+01 7.589388e+01 6.542545e+01 6.469378e+01 6.746587e+01 6.265466e+01 1.164135e+02 1.087825e+02 1.030342e+02 1.029829e+02 2.892888e+00 3.316366e+00 6.182532e+00 5.432006e+00 4.501868e+00 3.542714e+00 2.844699e+00 2.932978e+00
<VARIANCE> 22
 1.442817e+02 1.690196e+02 1.149689e+01 1.254345e+01 2.419797e+03 2.705990e+03 1.092339e+03 1.243833e+03 1.759759e+02 2.154615e+02 2.650926e+03 1.970928e+03 1.829507e+02 1.503031e+02 7.813244e+00 1.693753e+00 1.056696e+00 7.129198e-01 2.494730e+00 7.325261e+00 5.915470e+00 5.761419e+00
<GCONST> 1.302908e+02
<STATE> 4
<NUMMIXES> 2
<MIXTURE> 1 8.455960e-01
<MEAN> 22
 1.030229e+00 1.019739e+01 5.021154e-01 3.018656e+00 9.605436e+00 1.310587e+02 9.793770e+01 1.086998e+02 6.194133e+01 8.203556e+01 1.949663e+02 9.285106e+01 1.166489e+02 1.026465e+02 6.996593e+00 3.091416e+00 6.177895e+00 4.467283e+00 6.000000e+00 2.908569e+00 1.558943e+00 2.791915e+00
<VARIANCE> 22
 4.801967e+00 2.234437e+02 3.305619e+00 1.780334e+01 1.595886e+02 6.839265e+03 5.094304e+02 1.616076e+03 1.481406e+02 4.290370e+02 8.727843e+02 4.083757e+03 2.931602e+02 3.091220e+02 6.556320e-02 1.504865e+00 1.462470e-01 1.583639e+00 2.100767e-02 5.505272e+00 5.294100e+00 5.730306e+00
<GCONST> 1.140476e+02
<MIXTURE> 2 1.544039e-01
<MEAN> 22
 1.022066e+01 4.250461e+00 4.356548e+00 1.853281e+00 9.837997e+01 5.587421e+01 9.755857e+01 7.190916e+01 7.997899e+01 6.528989e+01 9.498488e+01 1.217877e+02 9.358985e+01 1.025525e+02 2.414539e+00 3.592484e+00 4.127969e+00 5.387893e+00 3.897533e+00 3.965281e+00 3.518097e+00 2.517390e+00
<VARIANCE> 22
 1.266771e+02 5.733397e+01 4.238243e+01 5.353273e+00 3.908893e+03 4.812055e+03 2.530860e+03 2.139742e+03 7.058248e+02 4.266359e+02 3.281510e+03 3.290854e+03 5.243067e+02 3.405533e+02 5.147159e+00 1.812865e+00 7.228879e+00 1.373831e+00 2.598755e+00 8.018359e+00 5.782520e+00 5.451299e+00
<GCONST> 1.389223e+02
<TRANSP> 5
 0.000000e+00 1.000000e+00 0.000000e+00 0.000000e+00 0.000000e+00
 0.000000e+00 6.530215e-01 3.469785e-01 0.000000e+00 0.000000e+00
 0.000000e+00 0.000000e+00 8.660433e-01 1.339567e-01 0.000000e+00
 0.000000e+00 0.000000e+00 0.000000e+00 7.636414e-01 2.363586e-01
 0.000000e+00 0.000000e+00 0.000000e+00 0.000000e+00 0.000000e+00
<ENDHMM>
~h "ST_2"
<BEGINHMM>
<NUMSTATES> 5
<STATE> 2
<NUMMIXES> 2
<MIXTURE> 1 7.165337e-01
<MEAN> 22
 2.087847e+00 2.065082e+00 8.379397e-01 9.888565e-01 9.755923e+00 9.252796e+00 9.732278e+01 9.722552e+01 6.221808e+01 5.838470e+01 1.974401e+02 1.978872e+02 1.185967e+02 1.178663e+02 7.000000e+00 5.000000e+00 6.150385e+00 5.926557e+00 6.000000e+00 5.997651e+00 2.043636e+00 2.072473e+00
<VARIANCE> 22
 1.224720e+01 8.187800e+00 3.305619e+00 2.171579e+00 1.120446e+02 8.177713e+01 2.296558e+02 2.243783e+02 8.101852e+01 7.815588e+01 5.106325e+02 5.004308e+02 1.683748e+02 1.583832e+02 6.556320e-02 1.793070e-02 1.277690e-01 6.804848e-02 2.100767e-02 5.619852e-02 5.903520e+00 5.632345e+00
<GCONST> 8.365212e+01
<MIXTURE> 2 2.834670e-01
<MEAN> 22
 8.967259e+00 1.134973e+01 2.212669e+00 3.424428e+00 6.277876e+01 9.205591e+01 8.319328e+01 8.705978e+01 6.969306e+01 7.031573e+01 1.473912e+02 1.192995e+02 1.120424e+02 1.064338e+02 4.285481e+00 3.539700e+00 6.126682e+00 5.263565e+00 4.882832e+00 3.616127e+00 2.770470e+00 2.959883e+00
<VARIANCE> 22
 1.850397e+02 2.171498e+02 1.679664e+01 2.554721e+01 4.038031e+03 5.527566e+03 1.483019e+03 1.609099e+03 3.354789e+02 5.383130e+02 4.338896e+03 4.024389e+03 4.697398e+02 2.675296e+02 8.831185e+00 1.912783e+00 1.513974e+00 1.184583e+00 2.695931e+00 6.693996e+00 6.475642e+00 5.598357e+00
<GCONST> 1.391178e+02
<STATE> 3
<NUMMIXES> 2
<MIXTURE> 1 6.801383e-01
<MEAN> 22
 1.089821e+00 9.327244e+00 5.319964e-01 2.963255e+00 6.815007e+00 1.228485e+02 9.126076e+01 9.345663e+01 5.650567e+01 7.958636e+01 1.893735e+02 8.175591e+01 1.130737e+02 9.860923e+01 6.999996e+00 2.959191e+00 6.009787e+00 4.964193e+00 6.000000e+00 2.687686e+00 1.552616e+00 2.943356e+00
<VARIANCE> 22
 4.801967e+00 1.765959e+02 3.305619e+00 2.130787e+01 5.033987e+01 4.870031e+03 1.851372e+02 1.551499e+03 5.221364e+01 4.249880e+02 3.721014e+02 3.446637e+03 1.359167e+02 3.149109e+02 6.556320e-02 1.454669e+00 2.348518e-02 1.636923e+00 2.100767e-02 6.309166e+00 5.221284e+00 5.794400e+00
<GCONST> 1.069249e+02
<MIXTURE> 2 3.198614e-01
<MEAN> 22
 7.307231e+00 7.544102e+00 1.808906e+00 1.069337e+00 1.300603e+02 1.088283e+02 6.480285e+01 6.023528e+01 6.855028e+01 5.915301e+01 6.526897e+01 8.524419e+01 9.661534e+01 9.902269e+01 2.163969e+00 2.573011e+00 5.137541e+00 5.579232e+00 3.496496e+00 2.083878e+00 3.020205e+00 2.760854e+00
<VARIANCE> 22
 9.977695e+01 2.081085e+02 1.163590e+01 2.513101e+00 1.255905e+04 9.159888e+03 1.538294e+03 1.145399e+03 3.364749e+02 2.342262e+02 2.136641e+03 3.017886e+03 4.806827e+02 5.152184e+02 2.147460e+00 1.916721e+00 4.430650e+00 1.639240e+00 1.256316e+00 6.541243e+00 6.394210e+00 6.143374e+00
<GCONST> 1.352413e+02
<STATE> 4
<NUMMIXES> 2
<MIXTURE> 1 4.029203e-01
<MEAN> 22
 1.244945e+01 7.413869e+00 4.351130e+00 1.786170e+00 1.528916e+02 2.424560e+01 1.130920e+02 1.020208e+02 1.028836e+02 5.700309e+01 6.568992e+01 2.010145e+02 1.029444e+02 1.197231e+02 1.563249e+00 4.992526e+00 3.895331e+00 5.878727e+00 3.020529e+00 5.966724e+00 3.272424e+00 2.388106e+00
<VARIANCE> 22
 8.213265e+02 1.330354e+03 5.228698e+02 3.101185e+02 3.411698e+03 1.280220e+03 3.104699e+03 2.402126e+02 6.355787e+02 4.895557e+01 2.188553e+03 5.217212e+02 3.290911e+02 1.075550e+02 5.674599e-01 5.271139e-02 9.112487e+00 1.230354e-01 1.388206e+00 1.351028e-01 5.930379e+00 5.613838e+00
<GCONST> 1.283500e+02
<MIXTURE> 2 5.970788e-01
<MEAN> 22
 7.401325e+00 6.990855e+00 1.686591e+00 1.665647e+00 4.622146e+01 5.561660e+01 7.061304e+01 7.055095e+01 6.728165e+01 6.317516e+01 1.401468e+02 1.352969e+02 1.074577e+02 1.053516e+02 4.156511e+00 4.160460e+00 6.229838e+00 5.630971e+00 5.126884e+00 4.972862e+00 2.947414e+00 2.902728e+00
<VARIANCE> 22
 1.346737e+02 1.339697e+02 6.787004e+00 7.465210e+00 1.815323e+03 3.008602e+03 8.991860e+02 1.061158e+03 1.843913e+02 1.974055e+02 2.958435e+03 2.857440e+03 1.674566e+02 1.767140e+02 9.325029e+00 1.413401e+00 3.367594e-01 5.249276e-01 1.528666e+00 5.482563e+00 6.816096e+00 6.117447e+00
<GCONST> 1.268908e+02
<TRANSP> 5
 0.000000e+00 1.000000e+00 0.000000e+00 0.000000e+00 0.000000e+00
 0.000000e+00 8.093342e-01 1.906657e-01 0.000000e+00 0.000000e+00
 0.000000e+00 0.000000e+00 8.186737e-01 1.813263e-01 0.000000e+00
 0.000000e+00 0.000000e+00 0.000000e+00 7.287610e-01 2.712389e-01
 0.000000e+00 0.000000e+00 0.000000e+00 0.000000e+00 0.000000e+00
<ENDHMM>
~h "TH_LD"
<BEGINHMM>
<NUMSTATES> 5
<STATE> 2
<NUMMIXES> 2
<MIXTURE> 1 6.801412e-01
<MEAN> 22
 2.196191e+00 2.566490e+00 8.510247e-01 9.543013e-01 1.005176e+01 1.335398e+01 9.675008e+01 9.451160e+01 6.200337e+01 5.905536e+01 1.947714e+02 1.927003e+02 1.166758e+02 1.158187e+02 6.999334e+00 5.000000e+00 6.099845e+00 5.888537e+00 6.005759e+00 6.009839e+00 2.289539e+00 2.205469e+00
<VARIANCE> 22
 1.137433e+01 1.448410e+01 3.305619e+00 2.171579e+00 1.139314e+02 2.987351e+02 2.549791e+02 2.539467e+02 6.914311e+01 6.704353e+01 4.873008e+02 4.699527e+02 1.543774e+02 1.204472e+02 6.556320e-02 1.793070e-02 8.987927e-02 9.904052e-02 2.100767e-02 5.619852e-02 5.984160e+00 5.970039e+00
<GCONST> 8.500253e+01
<MIXTURE> 2 3.198596e-01
<MEAN> 22
 8.826393e+00 9.611376e+00 2.043630e+00 2.431546e+00 7.335068e+01 8.377422e+01 8.656982e+01 8.165880e+01 6.882988e+01 6.517458e+01 1.249687e+02 1.175990e+02 1.047007e+02 1.036439e+02 2.661402e+00 3.513210e+00 5.827302e+00 5.208183e+00 4.038836e+00 3.507982e+00 3.021564e+00 3.328128e+00
<VARIANCE> 22
 1.626572e+02 1.558889e+02 9.538973e+00 1.388159e+01 3.593551e+03 3.253489e+03 1.697940e+03 1.722471e+03 2.314319e+02 2.392778e+02 3.083623e+03 2.691767e+03 3.009611e+02 2.195059e+02 8.010857e+00 1.315202e+00 3.691484e+00 7.958773e-01 4.879419e+00 6.127512e+00 6.721372e+00 6.639091e+00
<GCONST> 1.352038e+02
<STATE> 3
<NUMMIXES> 2
<MIXTURE> 1 4.675415e-01
<MEAN> 22
 8.865993e+00 1.483199e+01 2.687220e+00 3.795057e+00 3.297351e+01 4.393334e+01 8.941228e+01 7.783171e+01 6.431757e+01 6.666843e+01 1.732522e+02 1.591161e+02 1.128950e+02 1.104601e+02 5.956462e+00 4.562919e+00 6.064233e+00 5.608552e+00 5.595979e+00 5.859899e+00 2.524380e+00 3.187428e+00
<VARIANCE> 22
 4.272587e+02 4.483391e+02 2.181546e+02 1.548139e+02 2.697043e+03 1.908289e+03 8.721713e+02 9.376887e+02 1.939613e+02 2.787340e+02 2.434027e+03 2.067000e+03 3.952902e+02 2.670377e+02 5.097946e+00 7.833685e-01 9.565976e-01 4.312954e-01 1.271482e+00 1.983411e+00 5.969333e+00 6.186674e+00
<GCONST> 1.350214e+02
<MIXTURE> 2 5.324573e-01
<MEAN> 22
 1.057420e+00 1.049142e+01 5.427505e-01 3.511812e+00 8.240893e+00 1.577716e+02 9.014040e+01 1.088592e+02 5.604704e+01 8.298951e+01 1.868875e+02 5.360159e+01 1.106025e+02 9.396233e+01 6.999990e+00 2.357686e+00 6.046910e+00 4.164263e+00 6.000000e+00 1.281608e+00 1.633902e+00 3.135164e+00
<VARIANCE> 22
 4.801967e+00 1.834495e+02 3.305619e+00 2.199838e+01 1.638006e+02 2.649477e+03 1.597096e+02 1.645234e+03 3.983297e+01 5.072418e+02 3.560578e+02 6.874808e+02 1.206813e+02 2.523773e+02 6.556320e-02 2.700067e-01 4.470982e-02 1.517648e+00 2.100767e-02 6.293272e-01 5.454677e+00 5.704667e+00
<GCONST> 1.019938e+02
<STATE> 4
<NUMMIXES> 2
<MIXTURE> 1 5.718990e-01
<MEAN> 22
 8.432747e+00 2.778932e+00 2.589923e+00 1.067839e+00 7.096818e+01 2.295410e+01 9.806497e+01 9.766756e+01 7.492624e+01 5.803911e+01 1.398742e+02 1.965562e+02 1.126849e+02 1.182366e+02 4.444683e+00 5.000000e+00 5.322117e+00 5.802011e+00 4.769892e+00 5.982512e+00 3.000055e+00 2.420898e+00
<VARIANCE> 22
 1.480111e+02 1.766878e+01 1.468189e+01 2.171579e+00 4.634087e+03 6.693744e+02 1.277628e+03 2.796113e+02 3.053000e+02 6.837390e+01 5.715789e+03 5.685873e+02 4.576552e+02 1.868980e+02 8.219265e+00 1.793070e-02 5.215073e+00 1.587903e-01 2.506887e+00 5.619852e-02 5.987880e+00 6.090612e+00
<GCONST> 1.153285e+02
<MIXTURE> 2 4.281008e-01
<MEAN> 22
 5.574931e+00 9.048238e+00 1.192558e+00 2.081909e+00 9.197659e+01 1.253623e+02 6.858341e+01 7.143478e+01 6.544356e+01 6.689793e+01 1.014738e+02 7.071668e+01 1.008903e+02 9.696712e+01 2.902617e+00 2.199741e+00 5.514604e+00 4.908727e+00 3.847740e+00 1.386517e+00 2.374623e+00 2.588399e+00
<VARIANCE> 22
 9.411978e+01 1.803882e+02 3.757576e+00 9.830674e+00 1.277998e+04 8.109087e+03 1.798135e+03 2.322983e+03 5.352139e+02 7.659875e+02 4.627066e+03 1.718732e+03 1.030295e+03 9.213305e+02 6.304156e+00 1.295789e+00 3.844500e+00 3.019817e+00 2.819834e+00 3.529095e+00 6.100497e+00 5.807338e+00
<GCONST> 1.404774e+02
<TRANSP> 5
 0.000000e+00 1.000000e+00 0.000000e+00 0.000000e+00 0.000000e+00
 0.000000e+00 8.509231e-01 1.490768e-01 0.000000e+00 0.000000e+00
 0.000000e+00 0.000000e+00 7.153391e-01 2.846609e-01 0.000000e+00
 0.000000e+00 0.000000e+00 0.000000e+00 7.459115e-01 2.540886e-01
 0.000000e+00 0.000000e+00 0.000000e+00 0.000000e+00 0.000000e+00
<ENDHMM>
~h "TH_LU"
<BEGINHMM>
<NUMSTATES> 5
<STATE> 2
<NUMMIXES> 2
<MIXTURE> 1 7.193227e-01
<MEAN> 22
 1.976427e+01 1.935013e+01 1.552575e+01 1.343857e+01 6.271502e+01 7.354066e+01 9.214925e+01 9.039516e+01 6.645216e+01 6.467379e+01 1.625044e+02 1.487196e+02 1.124753e+02 1.102405e+02 5.454644e+00 4.178367e+00 5.860018e+00 5.516008e+00 5.316590e+00 4.647215e+00 2.543220e+00 2.960161e+00
<VARIANCE> 22
 6.325313e+03 4.902947e+03 5.936579e+03 3.786954e+03 1.411804e+04 1.030433e+04 9.882484e+02 9.706257e+02 2.476848e+02 2.619646e+02 3.465087e+03 4.063333e+03 2.449370e+02 2.295221e+02 6.648866e+00 1.507071e+00 1.838485e+00 7.358326e-01 1.756596e+00 5.157597e+00 6.437914e+00 6.546453e+00
<GCONST> 1.542102e+02
<MIXTURE> 2 2.806772e-01
<MEAN> 22
 3.604661e+01 3.058261e+01 3.349267e+01 2.682006e+01 3.086800e+02 2.341332e+02 0.000000e+00 0.000000e+00 0.000000e+00 0.000000e+00 0.000000e+00 0.000000e+00 0.000000e+00 0.000000e+00 0.000000e+00 0.000000e+00 0.000000e+00 0.000000e+00 0.000000e+00 0.000000e+00 2.266181e-01 2.266181e-01
<VARIANCE> 22
 1.615583e+04 1.163317e+04 1.381558e+04 8.893054e+03 6.365200e+04 3.618138e+04 9.965595e+00 1.121768e+01 2.939380e+00 3.532339e+00 3.789023e+01 4.425340e+01 4.237021e+00 4.029697e+00 6.556320e-02 1.793070e-02 2.348518e-02 1.180012e-02 2.100767e-02 5.619852e-02 6.284997e-01 6.284997e-01
<GCONST> 9.438041e+01
<STATE> 3
<NUMMIXES> 2
<MIXTURE> 1 5.795475e-01
<MEAN> 22
 2.686238e+00 1.130088e+01 1.077337e+00 3.350907e+00 9.841583e+00 1.016867e+02 9.157631e+01 9.299220e+01 5.876422e+01 7.395665e+01 1.887772e+02 1.073305e+02 1.127839e+02 1.025869e+02 6.998173e+00 3.524101e+00 6.072432e+00 4.988267e+00 6.000000e+00 3.638661e+00 1.867641e+00 3.043044e+00
<VARIANCE> 22
 1.635917e+02 2.858692e+02 1.051048e+02 8.048362e+01 1.466137e+02 6.149183e+03 2.512118e+02 1.496429e+03 6.640539e+01 4.767106e+02 5.035772e+02 4.138439e+03 1.611169e+02 2.555333e+02 6.556320e-02 1.597904e+00 6.718501e-02 1.211974e+00 2.100767e-02 6.331262e+00 5.676159e+00 5.697925e+00
<GCONST> 1.190111e+02
<MIXTURE> 2 4.204516e-01
<MEAN> 22
 8.559268e+00 8.480431e+00 1.573985e+00 1.603894e+00 9.180431e+01 9.048517e+01 6.039826e+01 6.474264e+01 6.676786e+01 6.325166e+01 8.505256e+01 8.811107e+01 9.970033e+01 9.876114e+01 2.108282e+00 2.951054e+00 5.997486e+00 5.397081e+00 3.905489e+00 2.598792e+00 2.920157e+00 2.772499e+00
<VARIANCE> 22
 1.288648e+02 1.391606e+02 4.913166e+00 5.223493e+00 4.072331e+03 4.268372e+03 1.077187e+03 1.590385e+03 2.027320e+02 2.842108e+02 2.093579e+03 1.993572e+03 1.917384e+02 2.872250e+02 4.175969e+00 1.795666e+00 1.831971e+00 1.057724e+00 1.719355e+00 7.217968e+00 5.863431e+00 5.982315e+00
<GCONST> 1.303722e+02
<STATE> 4
<NUMMIXES> 2
<MIXTURE> 1 6.009247e-01
<MEAN> 22
 2.507089e+00 2.787054e+00 9.411972e-01 1.073001e+00 1.301661e+01 1.619182e+01 9.577116e+01 9.434841e+01 6.195060e+01 5.883570e+01 1.928382e+02 1.917992e+02 1.163124e+02 1.157402e+02 6.998549e+00 5.000000e+00 6.140409e+00 5.877576e+00 6.003279e+00 5.998257e+00 2.295522e+00 2.290256e+00
<VARIANCE> 22
 1.512504e+01 1.636116e+01 3.305619e+00 2.311148e+00 2.738043e+02 4.017149e+02 2.769741e+02 2.459260e+02 7.512250e+01 6.743687e+01 4.915916e+02 4.525577e+02 1.601637e+02 1.350571e+02 6.556320e-02 1.793070e-02 1.206945e-01 1.074362e-01 2.100767e-02 5.619852e-02 5.793854e+00 5.839683e+00
<GCONST> 8.722821e+01
<MIXTURE> 2 3.990755e-01
<MEAN> 22
 1.160980e+01 7.162940e+00 3.223004e+00 2.004029e+00 9.652399e+01 5.033899e+01 9.951623e+01 8.843553e+01 8.227785e+01 6.255598e+01 1.178047e+02 1.632611e+02 1.091982e+02 1.137823e+02 2.832440e+00 4.334087e+00 5.000825e+00 5.506161e+00 4.116772e+00 4.998164e+00 3.075109e+00 2.508890e+00
<VARIANCE> 22
 2.426688e+02 1.492081e+02 2.192638e+01 1.127654e+01 5.337190e+03 3.300289e+03 2.494097e+03 1.133499e+03 5.882486e+02 1.917279e+02 4.524222e+03 3.612554e+03 5.218699e+02 3.428337e+02 7.601762e+00 1.180348e+00 6.830359e+00 6.087246e-01 3.331948e+00 4.284042e+00 6.306726e+00 5.777398e+00
<GCONST> 1.381902e+02
<TRANSP> 5
 0.000000e+00 1.000000e+00 0.000000e+00 0.000000e+00 0.000000e+00
 0.000000e+00 3.407120e-01 6.592880e-01 0.000000e+00 0.000000e+00
 0.000000e+00 0.000000e+00 7.892966e-01 2.107035e-01 0.000000e+00
 0.000000e+00 0.000000e+00 0.000000e+00 8.577465e-01 1.422535e-01
 0.000000e+00 0.000000e+00 0.000000e+00 0.000000e+00 0.000000e+00
<ENDHMM>
~h "CF_2"
<BEGINHMM>
<NUMSTATES> 5
<STATE> 2
<NUMMIXES> 2
<MIXTURE> 1 2.032781e-01
<MEAN> 22
 7.136080e+00 1.256350e+01 3.543784e+00 5.077178e+00 1.238251e+02 1.490475e+02 8.499599e+01 8.409935e+01 6.237186e+01 6.634788e+01 1.370499e+02 8.448357e+01 1.002656e+02 9.361061e+01 4.604142e+00 2.740861e+00 5.096066e+00 4.345410e+00 4.544084e+00 2.371411e+00 2.269028e+00 2.505795e+00
<VARIANCE> 22
 7.407805e+02 8.235597e+02 8.874390e+02 5.640075e+02 3.642014e+04 1.451215e+04 1.945081e+03 2.276920e+03 6.184301e+02 9.654643e+02 6.147867e+03 3.844860e+03 1.341527e+03 1.249447e+03 8.047126e+00 2.096112e+00 5.562512e+00 2.980104e+00 3.907381e+00 5.291378e+00 6.349959e+00 6.016680e+00
<GCONST> 1.591828e+02
<MIXTURE> 2 7.967212e-01
<MEAN> 22
 8.556709e+00 2.225178e+00 3.282790e+00 9.007380e-01 1.027528e+02 2.136671e+01 1.038792e+02 9.622232e+01 8.510949e+01 5.668842e+01 9.971787e+01 1.943242e+02 1.029501e+02 1.157918e+02 2.904776e+00 4.986919e+00 4.358251e+00 5.782888e+00 4.019927e+00 5.989325e+00 3.032361e+00 2.308227e+00
<VARIANCE> 22
 1.292952e+02 1.083434e+01 2.462888e+01 2.171579e+00 5.406693e+03 6.907990e+02 1.363175e+03 3.154996e+02 5.536081e+02 6.068441e+01 4.769319e+03 5.452566e+02 3.882615e+02 1.270580e+02 6.740553e+00 3.084392e-02 7.412124e+00 1.699748e-01 2.642876e+00 5.619852e-02 5.842532e+00 5.764644e+00
<GCONST> 1.160324e+02
<STATE> 3
<NUMMIXES> 2
<MIXTURE> 1 6.914670e-01
<MEAN> 22
 1.035245e+00 9.789344e+00 5.412499e-01 2.850262e+00 8.532541e+00 1.253350e+02 9.424065e+01 1.030809e+02 5.884924e+01 8.156168e+01 1.900145e+02 8.859555e+01 1.131635e+02 9.932781e+01 7.000000e+00 3.057084e+00 6.114157e+00 4.510199e+00 5.999815e+00 2.740736e+00 1.584724e+00 3.043668e+00
<VARIANCE> 22
 4.801967e+00 2.008161e+02 3.305619e+00 1.995114e+01 1.196618e+02 5.471232e+03 2.919744e+02 1.435705e+03 7.675006e+01 6.057416e+02 5.661833e+02 4.108694e+03 2.016240e+02 3.115999e+02 6.556320e-02 1.450258e+00 1.011244e-01 1.642569e+00 2.100767e-02 5.450230e+00 5.161551e+00 6.366314e+00
<GCONST> 1.114634e+02
<MIXTURE> 2 3.085323e-01
<MEAN> 22
 8.480293e+00 7.760163e+00 1.742302e+00 1.407321e+00 7.234530e+01 7.272474e+01 5.811016e+01 5.998897e+01 6.598273e+01 5.826006e+01 8.939668e+01 9.910537e+01 9.981821e+01 1.003885e+02 2.544708e+00 3.020471e+00 6.017628e+00 5.494646e+00 3.921360e+00 2.785090e+00 2.827717e+00 2.886378e+00
<VARIANCE> 22
 1.150702e+02 1.188991e+02 5.804291e+00 3.520513e+00 3.863297e+03 2.548715e+03 1.115990e+03 9.825182e+02 1.902337e+02 7.028593e+01 1.857766e+03 2.428734e+03 1.392972e+02 1.268158e+02 4.775628e+00 2.131234e+00 1.624723e+00 5.290099e-01 1.895255e+00 7.558491e+00 5.828698e+00 5.870155e+00
<GCONST> 1.259505e+02
<STATE> 4
<NUMMIXES> 2
<MIXTURE> 1 7.177348e-01
<MEAN> 22
 1.618395e+00 2.140393e+00 6.058568e-01 8.171396e-01 7.753786e+00 8.076176e+00 9.639886e+01 9.539969e+01 6.095594e+01 5.893389e+01 1.964043e+02 1.953499e+02 1.175898e+02 1.170718e+02 6.996485e+00 5.000000e+00 6.092199e+00 5.916241e+00 6.016859e+00 5.997382e+00 1.987091e+00 2.021977e+00
<VARIANCE> 22
 7.248369e+00 1.016676e+01 3.305619e+00 2.171579e+00 5.264899e+01 5.399630e+01 2.175016e+02 2.067674e+02 6.101242e+01 5.984316e+01 4.679592e+02 4.666077e+02 1.478837e+02 1.384226e+02 6.556320e-02 1.793070e-02 8.369905e-02 7.674287e-02 2.100767e-02 5.619852e-02 5.628619e+00 5.881125e+00
<GCONST> 8.075813e+01
<MIXTURE> 2 2.822650e-01
<MEAN> 22
 8.906095e+00 1.138765e+01 2.466216e+00 3.146071e+00 6.150197e+01 8.328423e+01 9.254625e+01 9.299909e+01 7.093078e+01 7.156709e+01 1.484842e+02 1.306114e+02 1.099965e+02 1.057037e+02 4.348523e+00 3.789252e+00 5.529932e+00 5.129118e+00 4.840829e+00 4.187928e+00 2.467797e+00 2.835454e+00
<VARIANCE> 22
 2.187110e+02 2.261860e+02 1.994997e+01 1.871671e+01 4.451772e+03 4.426428e+03 1.790416e+03 1.718273e+03 3.036795e+02 4.118876e+02 4.596140e+03 4.034497e+03 4.689489e+02 3.688564e+02 8.630386e+00 1.415360e+00 4.249399e+00 1.117535e+00 3.051315e+00 5.776156e+00 5.835242e+00 5.206197e+00
<GCONST> 1.397776e+02
<TRANSP> 5
 0.000000e+00 1.000000e+00 0.000000e+00 0.000000e+00 0.000000e+00
 0.000000e+00 7.257608e-01 2.742392e-01 0.000000e+00 0.000000e+00
 0.000000e+00 0.000000e+00 8.143911e-01 1.856089e-01 0.000000e+00
 0.000000e+00 0.000000e+00 0.000000e+00 8.389794e-01 1.610205e-01
 0.000000e+00 0.000000e+00 0.000000e+00 0.000000e+00 0.000000e+00
<ENDHMM>
~h "CN_2"
<BEGINHMM>
<NUMSTATES> 5
<STATE> 2
<NUMMIXES> 2
<MIXTURE> 1 2.062666e-01
<MEAN> 22
 1.161226e+01 1.853323e+01 4.574747e+00 5.986055e+00 3.987435e+01 1.116985e+02 9.230764e+01 9.538596e+01 6.564977e+01 6.986736e+01 1.587052e+02 1.031725e+02 1.110523e+02 1.012199e+02 5.063659e+00 2.920022e+00 5.526516e+00 4.758009e+00 4.851243e+00 2.578746e+00 1.960672e+00 3.061509e+00
<VARIANCE> 22
 1.464897e+03 1.285924e+03 1.052082e+03 7.215657e+02 4.222362e+03 6.560992e+03 2.430959e+03 2.157092e+03 4.446252e+02 9.060481e+02 8.643918e+03 6.091675e+03 1.809882e+03 1.554046e+03 6.847618e+00 2.017102e+00 3.169661e+00 2.608075e+00 2.765908e+00 5.396547e+00 5.992305e+00 5.573874e+00
<GCONST> 1.575164e+02
<MIXTURE> 2 7.937333e-01
<MEAN> 22
 7.905392e+00 3.830234e+00 2.218239e+00 1.030952e+00 8.683356e+01 3.137764e+01 9.137762e+01 7.376571e+01 7.388004e+01 5.795740e+01 1.089833e+02 1.590272e+02 9.845747e+01 1.075414e+02 3.306966e+00 4.565584e+00 4.885385e+00 5.728797e+00 4.147878e+00 5.614664e+00 3.135254e+00 2.421221e+00
<VARIANCE> 22
 1.172260e+02 3.244014e+01 1.214308e+01 2.171579e+00 4.448026e+03 1.138401e+03 1.928865e+03 9.375454e+02 4.415565e+02 7.960700e+01 3.599175e+03 2.010680e+03 3.958113e+02 1.766664e+02 7.074427e+00 9.064476e-01 5.778103e+00 2.013757e-01 2.887555e+00 2.718539e+00 6.445001e+00 5.985654e+00
<GCONST> 1.269348e+02
<STATE> 3
<NUMMIXES> 2
<MIXTURE> 1 5.997034e-01
<MEAN> 22
 2.082609e+00 3.120375e+00 8.074399e-01 1.028557e+00 9.191027e+00 1.344772e+01 9.672488e+01 9.526046e+01 6.165965e+01 5.984050e+01 1.946291e+02 1.931313e+02 1.162735e+02 1.160285e+02 7.000000e+00 5.000000e+00 6.102374e+00 5.883360e+00 6.000005e+00 6.001008e+00 2.109400e+00 2.294030e+00
<VARIANCE> 22
 1.337737e+01 2.396701e+01 3.305619e+00 2.580224e+00 1.142180e+02 2.512324e+02 2.411882e+02 2.427009e+02 7.951872e+01 6.917275e+01 4.575225e+02 4.413347e+02 1.666169e+02 1.258181e+02 6.556320e-02 1.793070e-02 9.189223e-02 1.030361e-01 2.100767e-02 5.619852e-02 5.772772e+00 5.949862e+00
<GCONST> 8.575670e+01
<MIXTURE> 2 4.002964e-01
<MEAN> 22
 1.373606e+00 1.298625e+01 5.864440e-01 3.710789e+00 1.821189e+01 1.341921e+02 8.737513e+01 9.509563e+01 5.728175e+01 7.886900e+01 1.766396e+02 6.946688e+01 1.096394e+02 9.603423e+01 6.570367e+00 2.680987e+00 6.020377e+00 4.556173e+00 5.784577e+00 2.172973e+00 1.747651e+00 3.389621e+00
<VARIANCE> 22
 7.005484e+00 2.487757e+02 3.305619e+00 2.299524e+01 1.750420e+03 3.943773e+03 3.560984e+02 1.823345e+03 9.506575e+01 5.748012e+02 1.503651e+03 1.779718e+03 1.735617e+02 2.690487e+02 2.145986e+00 9.385177e-01 3.326552e-01 1.583819e+00 6.231881e-01 4.417567e+00 5.696704e+00 5.603064e+00
<GCONST> 1.223537e+02
<STATE> 4
<NUMMIXES> 2
<MIXTURE> 1 4.291517e-01
<MEAN> 22
 1.186639e+01 1.031222e+01 3.220202e+00 2.833987e+00 8.103035e+01 7.417644e+01 8.531902e+01 8.515462e+01 6.884808e+01 6.402344e+01 1.444321e+02 1.497409e+02 1.121485e+02 1.114991e+02 3.967806e+00 4.255995e+00 6.020240e+00 5.494608e+00 4.775851e+00 4.735945e+00 2.629327e+00 2.790350e+00
<VARIANCE> 22
 2.486323e+02 1.702814e+02 3.259386e+01 1.406329e+01 1.138278e+04 7.698639e+03 1.067493e+03 1.157568e+03 1.899384e+02 1.974898e+02 3.410905e+03 2.977071e+03 2.832575e+02 2.086949e+02 9.595978e+00 1.162579e+00 2.386435e+00 4.923289e-01 3.325753e+00 4.749583e+00 5.817879e+00 5.448800e+00
<GCONST> 1.359725e+02
<MIXTURE> 2 5.708475e-01
<MEAN> 22
 6.592212e+00 7.255074e+00 1.274428e+00 1.060689e+00 1.141934e+02 1.108501e+02 5.531590e+01 4.895410e+01 6.575666e+01 5.858450e+01 5.518309e+01 6.053701e+01 9.930772e+01 9.964200e+01 1.864586e+00 1.888722e+00 5.447520e+00 5.538781e+00 3.201996e+00 5.836785e-01 2.943291e+00 2.938383e+00
<VARIANCE> 22
 9.596162e+01 1.166567e+02 3.305619e+00 2.171579e+00 4.487578e+03 3.540208e+03 9.254255e+02 7.377956e+02 4.431896e+02 2.694311e+02 8.139816e+02 7.946829e+02 8.490962e+02 7.752147e+02 6.826243e-01 7.145792e-01 3.302296e+00 2.247300e+00 9.918010e-01 3.815089e-01 6.096618e+00 6.080068e+00
<GCONST> 1.241374e+02
<TRANSP> 5
 0.000000e+00 1.000000e+00 0.000000e+00 0.000000e+00 0.000000e+00
 0.000000e+00 6.673562e-01 3.326438e-01 0.000000e+00 0.000000e+00
 0.000000e+00 0.000000e+00 8.843552e-01 1.156447e-01 0.000000e+00
 0.000000e+00 0.000000e+00 0.000000e+00 7.936704e-01 2.063297e-01
 0.000000e+00 0.000000e+00 0.000000e+00 0.000000e+00 0.000000e+00
<ENDHMM>
~h "TH_D"
<BEGINHMM>
<NUMSTATES> 5
<STATE> 2
<NUMMIXES> 2
<MIXTURE> 1 5.605287e-01
<MEAN> 22
 1.350331e+01 1.165726e+01 3.655792e+00 2.947880e+00 6.258048e+01 5.664899e+01 8.286430e+01 7.769419e+01 7.018332e+01 6.261322e+01 1.390598e+02 1.435481e+02 1.064684e+02 1.079721e+02 4.068935e+00 4.236301e+00 5.724180e+00 5.534879e+00 4.943910e+00 4.914161e+00 3.569976e+00 3.223487e+00
<VARIANCE> 22
 2.971760e+02 2.643743e+02 4.046745e+01 2.284080e+01 3.601198e+03 3.152835e+03 1.406778e+03 1.142857e+03 3.147744e+02 2.261624e+02 3.465136e+03 3.003481e+03 4.254011e+02 2.862288e+02 9.247788e+00 1.363163e+00 3.234880e+00 6.734083e-01 2.555406e+00 4.995524e+00 7.031376e+00 6.282575e+00
<GCONST> 1.377581e+02
<MIXTURE> 2 4.394720e-01
<MEAN> 22
 7.829069e+00 9.350768e+00 1.277743e+00 1.234891e+00 1.187569e+02 1.194207e+02 5.563419e+01 5.395048e+01 6.757472e+01 6.213426e+01 6.243064e+01 6.431477e+01 1.050626e+02 1.053947e+02 1.882435e+00 2.063089e+00 6.123355e+00 5.823955e+00 3.438617e+00 6.199911e-01 3.160990e+00 3.174228e+00
<VARIANCE> 22
 1.231776e+02 1.656364e+02 3.305619e+00 2.803382e+00 2.472593e+03 1.942497e+03 6.376931e+02 5.962100e+02 1.265343e+02 7.870132e+01 5.704918e+02 5.834720e+02 2.458722e+02 1.860452e+02 5.561723e-01 6.276037e-01 3.364633e-01 3.142184e-01 3.472919e-01 4.025905e-01 6.514968e+00 6.336686e+00
<GCONST> 1.119224e+02
<STATE> 3
<NUMMIXES> 2
<MIXTURE> 1 6.301242e-01
<MEAN> 22
 2.327025e+00 2.985899e+00 8.635058e-01 1.013926e+00 8.610210e+00 1.244396e+01 9.614789e+01 9.380827e+01 6.097520e+01 5.809099e+01 1.938938e+02 1.919879e+02 1.161556e+02 1.152026e+02 6.998703e+00 5.000000e+00 6.101058e+00 5.906270e+00 6.000175e+00 6.001430e+00 2.216191e+00 2.425061e+00
<VARIANCE> 22
 1.467281e+01 1.893995e+01 3.305619e+00 2.171579e+00 7.767413e+01 2.216571e+02 2.480504e+02 2.175403e+02 7.094182e+01 6.681371e+01 4.696345e+02 4.322020e+02 1.605199e+02 1.322043e+02 6.556320e-02 1.793070e-02 9.084554e-02 8.494561e-02 2.100767e-02 5.619852e-02 6.020216e+00 5.938754e+00
<GCONST> 8.455325e+01
<MIXTURE> 2 3.698760e-01
<MEAN> 22
 1.740121e+00 1.246548e+01 7.266496e-01 3.664460e+00 1.742520e+01 1.307081e+02 9.048556e+01 9.475560e+01 5.877533e+01 7.893269e+01 1.802589e+02 7.775319e+01 1.109404e+02 9.774292e+01 6.592072e+00 2.886125e+00 6.023366e+00 4.617944e+00 5.808263e+00 2.523106e+00 1.830988e+00 3.305918e+00
<VARIANCE> 22
 1.405186e+01 2.634090e+02 3.305619e+00 2.526060e+01 1.507274e+03 4.693560e+03 3.810336e+02 1.983555e+03 1.074953e+02 5.552260e+02 1.530446e+03 2.365019e+03 2.079375e+02 2.929338e+02 2.143238e+00 1.098265e+00 4.881343e-01 1.800345e+00 6.240099e-01 5.442345e+00 5.845426e+00 5.711233e+00
<GCONST> 1.249556e+02
<STATE> 4
<NUMMIXES> 2
<MIXTURE> 1 7.840166e-01
<MEAN> 22
 9.446790e+00 4.989890e+00 2.665408e+00 1.325683e+00 9.153378e+01 3.513652e+01 9.881208e+01 8.899049e+01 7.606770e+01 5.941024e+01 1.225406e+02 1.770843e+02 1.066574e+02 1.126893e+02 3.369911e+00 4.734890e+00 5.152843e+00 5.722329e+00 4.266271e+00 5.779051e+00 2.972756e+00 2.463545e+00
<VARIANCE> 22
 2.140951e+02 8.689108e+01 1.740441e+01 4.264666e+00 5.063790e+03 1.489617e+03 1.735645e+03 9.227631e+02 3.630961e+02 9.717786e+01 4.759962e+03 1.439642e+03 3.646887e+02 1.719623e+02 8.377427e+00 3.541199e-01 5.764736e+00 2.070960e-01 3.584434e+00 1.023940e+00 6.166279e+00 6.048424e+00
<GCONST> 1.281356e+02
<MIXTURE> 2 2.159828e-01
<MEAN> 22
 2.361783e+00 8.443772e+00 7.409743e-01 1.961774e+00 9.630625e+01 1.389757e+02 6.376540e+01 6.585141e+01 5.139370e+01 5.371619e+01 1.074068e+02 5.410972e+01 8.092506e+01 7.456223e+01 3.214057e+00 1.730718e+00 4.179877e+00 3.600343e+00 3.526520e+00 9.286425e-01 1.613982e+00 2.051072e+00
<VARIANCE> 22
 2.727257e+01 2.131006e+02 3.305619e+00 1.657462e+01 2.646938e+04 1.372857e+04 2.907728e+03 3.108068e+03 1.228528e+03 1.490205e+03 9.105005e+03 2.551092e+03 3.435649e+03 2.678216e+03 9.409919e+00 1.682184e+00 8.272190e+00 6.105057e+00 6.232978e+00 1.643762e+00 5.289188e+00 5.804976e+00
<GCONST> 1.486833e+02
<TRANSP> 5
 0.000000e+00 1.000000e+00 0.000000e+00 0.000000e+00 0.000000e+00
 0.000000e+00 7.661278e-01 2.338722e-01 0.000000e+00 0.000000e+00
 0.000000e+00 0.000000e+00 8.816978e-01 1.183022e-01 0.000000e+00
 0.000000e+00 0.000000e+00 0.000000e+00 7.078158e-01 2.921843e-01
 0.000000e+00 0.000000e+00 0.000000e+00 0.000000e+00 0.000000e+00
<ENDHMM>
~h "TH_U"
<BEGINHMM>
<NUMSTATES> 5
<STATE> 2
<NUMMIXES> 2
<MIXTURE> 1 7.348496e-01
<MEAN> 22
 3.022990e+01 2.863745e+01 2.397482e+01 2.015659e+01 4.361133e+01 6.713052e+01 8.488712e+01 8.955489e+01 6.428191e+01 6.496865e+01 1.541769e+02 1.354480e+02 1.075374e+02 1.040008e+02 5.115561e+00 3.804312e+00 5.699875e+00 5.178246e+00 5.139812e+00 4.114796e+00 2.511328e+00 2.833869e+00
<VARIANCE> 22
 1.079998e+04 7.668422e+03 9.170255e+03 5.822262e+03 3.685783e+03 5.675729e+03 1.178490e+03 1.556446e+03 3.483067e+02 5.994141e+02 4.166047e+03 4.466929e+03 7.060931e+02 6.648515e+02 7.562100e+00 2.221251e+00 2.637922e+00 1.900185e+00 2.384039e+00 6.232903e+00 6.288336e+00 6.193804e+00
<GCONST> 1.605785e+02
<MIXTURE> 2 2.651498e-01
<MEAN> 22
 0.000000e+00 0.000000e+00 0.000000e+00 0.000000e+00 2.239472e+02 1.711127e+02 0.000000e+00 0.000000e+00 0.000000e+00 0.000000e+00 0.000000e+00 0.000000e+00 0.000000e+00 0.000000e+00 0.000000e+00 0.000000e+00 0.000000e+00 0.000000e+00 0.000000e+00 0.000000e+00 0.000000e+00 0.000000e+00
<VARIANCE> 22
 4.801967e+00 4.073976e+00 3.305619e+00 2.171579e+00 6.656780e+04 3.880649e+04 9.965595e+00 1.121768e+01 2.939380e+00 3.532339e+00 3.789023e+01 4.425340e+01 4.237021e+00 4.029697e+00 6.556320e-02 1.793070e-02 2.348518e-02 1.180012e-02 2.100767e-02 5.619852e-02 6.159949e-02 6.062591e-02
<GCONST> 5.710044e+01
<STATE> 3
<NUMMIXES> 2
<MIXTURE> 1 6.400764e-01
<MEAN> 22
 1.716438e+00 1.055864e+01 7.747075e-01 3.114057e+00 6.990772e+00 1.096893e+02 9.141038e+01 9.179032e+01 5.769427e+01 7.562480e+01 1.879506e+02 9.435042e+01 1.119014e+02 1.004760e+02 6.999701e+00 3.247131e+00 6.059965e+00 4.899892e+00 5.999702e+00 3.136697e+00 1.657500e+00 2.963237e+00
<VARIANCE> 22
 7.916161e+01 2.509252e+02 6.730109e+01 6.129881e+01 6.361014e+01 5.521653e+03 2.065253e+02 1.561215e+03 6.060803e+01 4.812416e+02 4.220418e+02 3.662340e+03 1.412252e+02 2.466690e+02 6.556320e-02 1.499816e+00 5.636657e-02 1.362854e+00 2.100767e-02 6.357912e+00 5.452361e+00 5.756829e+00
<GCONST> 1.156454e+02
<MIXTURE> 2 3.599234e-01
<MEAN> 22
 9.069047e+00 8.263016e+00 1.455167e+00 1.484425e+00 9.159376e+01 8.801659e+01 5.519220e+01 5.382955e+01 6.721027e+01 5.924006e+01 7.723957e+01 8.704430e+01 1.017725e+02 1.009558e+02 1.992535e+00 2.692640e+00 5.868314e+00 5.655745e+00 3.682137e+00 2.199239e+00 2.985977e+00 2.776949e+00
<VARIANCE> 22
 1.500520e+02 1.285258e+02 3.869097e+00 3.667896e+00 3.835094e+03 3.155387e+03 1.012718e+03 8.967362e+02 2.359630e+02 1.362005e+02 1.578777e+03 2.023118e+03 2.721497e+02 2.502049e+02 2.726927e+00 1.849050e+00 1.961691e+00 8.239528e-01 1.183514e+00 7.075345e+00 5.738689e+00 5.880706e+00
<GCONST> 1.272063e+02
<STATE> 4
<NUMMIXES> 2
<MIXTURE> 1 6.457945e-01
<MEAN> 22
 3.182919e+00 3.512057e+00 1.110134e+00 1.282267e+00 1.181005e+01 1.356764e+01 9.776789e+01 9.517240e+01 6.278197e+01 5.878000e+01 1.958796e+02 1.941535e+02 1.177682e+02 1.166722e+02 6.999042e+00 5.000000e+00 6.139186e+00 5.900022e+00 6.002113e+00 5.998826e+00 2.256485e+00 2.262266e+00
<VARIANCE> 22
 7.652707e+01 6.084724e+01 3.726962e+01 2.355564e+01 1.915980e+02 2.405501e+02 4.070608e+02 2.893321e+02 1.097452e+02 7.299064e+01 7.031375e+02 5.933939e+02 2.452986e+02 1.687967e+02 6.556320e-02 1.793070e-02 1.198126e-01 8.997615e-02 2.100767e-02 5.619852e-02 5.887706e+00 5.865126e+00
<GCONST> 9.615692e+01
<MIXTURE> 2 3.542058e-01
<MEAN> 22
 1.255252e+01 8.179631e+00 3.314703e+00 1.966063e+00 1.102814e+02 6.519627e+01 9.374629e+01 8.140141e+01 7.859521e+01 6.238023e+01 1.041415e+02 1.427036e+02 1.032054e+02 1.086245e+02 2.642517e+00 4.084823e+00 4.827291e+00 5.526683e+00 3.973750e+00 4.573117e+00 3.083874e+00 2.562152e+00
<VARIANCE> 22
 2.350623e+02 1.846727e+02 2.379014e+01 1.038843e+01 5.909412e+03 4.015576e+03 2.184014e+03 1.193353e+03 5.164373e+02 2.170207e+02 3.544408e+03 3.528091e+03 4.306738e+02 2.618286e+02 6.725427e+00 1.518768e+00 6.692636e+00 6.827079e-01 3.039398e+00 5.791057e+00 5.455077e+00 5.535177e+00
<GCONST> 1.380977e+02
<TRANSP> 5
 0.000000e+00 1.000000e+00 0.000000e+00 0.000000e+00 0.000000e+00
 0.000000e+00 3.743228e-01 6.256772e-01 0.000000e+00 0.000000e+00
 0.000000e+00 0.000000e+00 8.124200e-01 1.875799e-01 0.000000e+00
 0.000000e+00 0.000000e+00 0.000000e+00 8.781657e-01 1.218343e-01
 0.000000e+00 0.000000e+00 0.000000e+00 0.000000e+00 0.000000e+00
<ENDHMM>
~h "CP_2"
<BEGINHMM>
<NUMSTATES> 5
<STATE> 2
<NUMMIXES> 2
<MIXTURE> 1 8.264872e-01
<MEAN> 22
 7.925707e+00 8.750751e+00 3.553394e+00 3.408721e+00 8.206494e+01 9.709491e+01 1.053085e+02 1.011292e+02 7.668689e+01 7.067652e+01 1.726129e+02 1.483260e+02 1.177395e+02 1.126118e+02 5.194980e+00 4.090277e+00 5.719015e+00 5.290840e+00 5.047579e+00 4.487818e+00 2.367377e+00 2.651640e+00
<VARIANCE> 22
 7.268411e+02 5.154981e+02 5.491669e+02 3.143289e+02 1.835127e+04 1.429596e+04 2.593003e+03 1.341764e+03 7.511318e+02 6.464360e+02 4.431355e+03 4.402363e+03 5.432794e+02 2.599972e+02 7.596082e+00 1.490122e+00 3.012473e+00 9.633840e-01 2.841176e+00 5.172102e+00 5.981031e+00 6.217301e+00
<GCONST> 1.513066e+02
<MIXTURE> 2 1.735128e-01
<MEAN> 22
 0.000000e+00 0.000000e+00 0.000000e+00 0.000000e+00 3.380433e+02 2.713042e+02 0.000000e+00 0.000000e+00 0.000000e+00 0.000000e+00 0.000000e+00 0.000000e+00 0.000000e+00 0.000000e+00 0.000000e+00 0.000000e+00 0.000000e+00 0.000000e+00 0.000000e+00 0.000000e+00 0.000000e+00 0.000000e+00
<VARIANCE> 22
 4.801967e+00 4.073976e+00 3.305619e+00 2.171579e+00 4.612826e+04 2.939715e+04 9.965595e+00 1.121768e+01 2.939380e+00 3.532339e+00 3.789023e+01 4.425340e+01 4.237021e+00 4.029697e+00 6.556320e-02 1.793070e-02 2.348518e-02 1.180012e-02 2.100767e-02 5.619852e-02 6.159949e-02 6.062591e-02
<GCONST> 5.645596e+01
<STATE> 3
<NUMMIXES> 2
<MIXTURE> 1 6.344464e-01
<MEAN> 22
 1.509674e+00 1.122140e+01 6.823370e-01 3.529965e+00 9.141853e+00 1.136263e+02 9.325363e+01 9.991282e+01 5.894673e+01 7.732023e+01 1.911833e+02 9.684340e+01 1.136750e+02 1.012777e+02 7.000000e+00 3.300097e+00 6.086539e+00 4.707606e+00 6.000029e+00 3.214229e+00 1.752868e+00 3.038832e+00
<VARIANCE> 22
 7.743388e+00 2.399252e+02 3.305619e+00 2.540971e+01 1.195590e+02 6.023592e+03 2.194917e+02 1.394651e+03 5.655417e+01 4.490332e+02 4.424168e+02 4.186724e+03 1.258288e+02 2.673717e+02 6.556320e-02 1.558231e+00 7.904965e-02 1.440867e+00 2.100767e-02 6.024776e+00 5.612059e+00 5.887108e+00
<GCONST> 1.104850e+02
<MIXTURE> 2 3.655543e-01
<MEAN> 22
 8.657639e+00 1.016372e+01 1.821863e+00 1.938081e+00 8.296177e+01 8.786266e+01 5.782195e+01 6.719244e+01 6.707318e+01 6.239998e+01 8.243638e+01 7.831385e+01 9.891038e+01 9.791817e+01 2.204435e+00 2.690997e+00 5.833904e+00 5.298133e+00 3.938783e+00 1.969521e+00 3.128068e+00 2.999487e+00
<VARIANCE> 22
 1.342050e+02 1.860602e+02 8.477567e+00 7.180752e+00 4.625484e+03 3.823386e+03 9.838782e+02 1.182813e+03 1.805486e+02 1.838149e+02 2.069255e+03 2.279755e+03 3.080017e+02 4.539955e+02 4.082157e+00 1.297752e+00 2.365633e+00 1.229050e+00 1.510435e+00 5.337623e+00 5.851099e+00 6.293158e+00
<GCONST> 1.313756e+02
<STATE> 4
<NUMMIXES> 2
<MIXTURE> 1 6.119468e-01
<MEAN> 22
 3.281317e+00 3.048393e+00 1.043907e+00 1.080058e+00 1.379716e+01 1.576188e+01 9.769619e+01 9.605945e+01 6.411443e+01 6.015919e+01 1.966065e+02 1.954937e+02 1.191525e+02 1.183948e+02 6.993486e+00 5.000000e+00 6.163318e+00 5.888379e+00 6.001211e+00 5.999279e+00 2.527926e+00 2.355872e+00
<VARIANCE> 22
 2.563895e+01 1.933117e+01 3.305619e+00 2.239543e+00 2.449393e+02 3.436453e+02 3.998836e+02 2.773402e+02 1.034429e+02 7.823601e+01 7.170347e+02 5.692182e+02 2.198050e+02 1.596890e+02 6.556320e-02 1.793070e-02 1.366455e-01 9.916290e-02 2.100767e-02 5.619852e-02 6.283119e+00 6.189519e+00
<GCONST> 8.985383e+01
<MIXTURE> 2 3.880520e-01
<MEAN> 22
 1.001362e+01 8.597296e+00 2.691560e+00 1.991012e+00 7.347430e+01 5.466013e+01 7.969059e+01 8.266866e+01 7.309541e+01 6.056158e+01 1.181400e+02 1.513221e+02 1.064603e+02 1.088569e+02 2.759957e+00 4.299536e+00 5.748793e+00 5.486151e+00 4.225696e+00 5.187664e+00 3.085702e+00 2.827914e+00
<VARIANCE> 22
 1.501384e+02 1.810663e+02 1.336268e+01 9.037471e+00 3.769651e+03 3.170061e+03 1.498489e+03 1.102881e+03 2.791013e+02 1.715185e+02 2.887460e+03 2.798116e+03 3.162034e+02 2.468439e+02 8.403413e+00 1.020903e+00 3.863604e+00 6.312144e-01 3.123902e+00 3.762074e+00 6.446711e+00 5.771329e+00
<GCONST> 1.331193e+02
<TRANSP> 5
 0.000000e+00 1.000000e+00 0.000000e+00 0.000000e+00 0.000000e+00
 0.000000e+00 4.096799e-01 5.903201e-01 0.000000e+00 0.000000e+00
 0.000000e+00 0.000000e+00 7.839753e-01 2.160247e-01 0.000000e+00
 0.000000e+00 0.000000e+00 0.000000e+00 8.613738e-01 1.386261e-01
 0.000000e+00 0.000000e+00 0.000000e+00 0.000000e+00 0.000000e+00
<ENDHMM>
~h "CV_2"
<BEGINHMM>
<NUMSTATES> 5
<STATE> 2
<NUMMIXES> 2
<MIXTURE> 1 7.143551e-01
<MEAN> 22
 1.099354e+01 5.754791e+00 3.624137e+00 2.483458e+00 9.635638e+01 2.556600e+01 1.067823e+02 9.166666e+01 8.009875e+01 5.763274e+01 1.184035e+02 1.862556e+02 1.067363e+02 1.139333e+02 3.749564e+00 4.902121e+00 4.697694e+00 5.751149e+00 4.283054e+00 5.925371e+00 2.889987e+00 2.359763e+00
<VARIANCE> 22
 6.531371e+02 4.249254e+02 3.778872e+02 2.227623e+02 7.825235e+03 8.880497e+02 2.065600e+03 4.729422e+02 5.354074e+02 7.733488e+01 5.527660e+03 9.829771e+02 3.194131e+02 1.435578e+02 7.585663e+00 1.887605e-01 6.560153e+00 1.902734e-01 2.867605e+00 4.555817e-01 5.818639e+00 6.069393e+00
<GCONST> 1.351388e+02
<MIXTURE> 2 2.856452e-01
<MEAN> 22
 2.287133e+00 4.720672e+00 6.269351e-01 1.238274e+00 1.428669e+02 1.627383e+02 5.424139e+01 6.274315e+01 4.545762e+01 4.833416e+01 8.684979e+01 4.246182e+01 7.460280e+01 6.668266e+01 2.710221e+00 1.632750e+00 3.875947e+00 3.208074e+00 3.118099e+00 8.965691e-01 1.546860e+00 2.319102e+00
<VARIANCE> 22
 2.637115e+01 6.448835e+01 3.305619e+00 3.746175e+00 4.114807e+04 1.812656e+04 2.196238e+03 3.123031e+03 1.216828e+03 1.462021e+03 6.542779e+03 1.411479e+03 3.087473e+03 2.521969e+03 9.023871e+00 1.517297e+00 8.760967e+00 5.928399e+00 6.146620e+00 9.686520e-01 5.241674e+00 6.440945e+00
<GCONST> 1.447278e+02
<STATE> 3
<NUMMIXES> 2
<MIXTURE> 1 6.184766e-01
<MEAN> 22
 1.629218e+00 1.198083e+01 6.538160e-01 3.242159e+00 1.166695e+01 9.996870e+01 9.311762e+01 9.153163e+01 5.923670e+01 7.290561e+01 1.897142e+02 1.044825e+02 1.136650e+02 1.030048e+02 6.999831e+00 3.426665e+00 6.147245e+00 4.974744e+00 5.999805e+00 3.337849e+00 1.949950e+00 3.161562e+00
<VARIANCE> 22
 7.733411e+00 2.277056e+02 3.305619e+00 2.022735e+01 2.912152e+02 4.861046e+03 2.909915e+02 1.360001e+03 7.781042e+01 4.134972e+02 5.420867e+02 3.914099e+03 1.658189e+02 2.431923e+02 6.556320e-02 1.482446e+00 1.255651e-01 1.347453e+00 2.100767e-02 6.211721e+00 5.873228e+00 5.768811e+00
<GCONST> 1.120913e+02
<MIXTURE> 2 3.815234e-01
<MEAN> 22
 7.459781e+00 7.285010e+00 1.271532e+00 1.112545e+00 1.258551e+02 1.158679e+02 6.686774e+01 6.179214e+01 6.675561e+01 5.970792e+01 5.890672e+01 6.715932e+01 1.074343e+02 1.070521e+02 1.644596e+00 2.432767e+00 6.180008e+00 5.560257e+00 3.208064e+00 1.340227e+00 2.831481e+00 3.030555e+00
<VARIANCE> 22
 1.301530e+02 9.643090e+01 3.860305e+00 2.472754e+00 3.763484e+03 3.226914e+03 9.139257e+02 8.686576e+02 1.763117e+02 8.995641e+01 7.254511e+02 1.511676e+03 2.995225e+02 2.892944e+02 5.497684e-01 8.604845e-01 1.678455e+00 6.585975e-01 6.305835e-01 2.832619e+00 5.924688e+00 5.773034e+00
<GCONST> 1.204371e+02
<STATE> 4
<NUMMIXES> 2
<MIXTURE> 1 5.897381e-01
<MEAN> 22
 1.934009e+00 2.332384e+00 6.805803e-01 8.619257e-01 7.939956e+00 9.436968e+00 9.750739e+01 9.493768e+01 6.183002e+01 5.863941e+01 1.967863e+02 1.950912e+02 1.180775e+02 1.168646e+02 7.000000e+00 5.000000e+00 6.112432e+00 5.937691e+00 6.000000e+00 5.999869e+00 2.132255e+00 2.092834e+00
<VARIANCE> 22
 1.060220e+01 1.232860e+01 3.305619e+00 2.171579e+00 6.620625e+01 1.248970e+02 3.469147e+02 2.335218e+02 8.797921e+01 7.209913e+01 7.029266e+02 5.542324e+02 2.351528e+02 1.652796e+02 6.556320e-02 1.793070e-02 9.979103e-02 5.842587e-02 2.100767e-02 5.619852e-02 5.640806e+00 5.738562e+00
<GCONST> 8.464066e+01
<MIXTURE> 2 4.102620e-01
<MEAN> 22
 1.063183e+01 1.002648e+01 2.965384e+00 2.807022e+00 7.853983e+01 7.372305e+01 8.318254e+01 7.026436e+01 7.138456e+01 6.277843e+01 1.118081e+02 1.175202e+02 1.033674e+02 1.046486e+02 2.899348e+00 3.689707e+00 5.316681e+00 5.418377e+00 4.343959e+00 3.942229e+00 2.808118e+00 2.871431e+00
<VARIANCE> 22
 1.870049e+02 1.686370e+02 2.028176e+01 1.294934e+01 3.830368e+03 3.490051e+03 1.536772e+03 1.481659e+03 3.264242e+02 2.175791e+02 3.502166e+03 2.848404e+03 3.083971e+02 2.213233e+02 7.833476e+00 1.143121e+00 5.311032e+00 6.630380e-01 2.928236e+00 7.178992e+00 5.781464e+00 5.420445e+00
<GCONST> 1.357686e+02
<TRANSP> 5
 0.000000e+00 1.000000e+00 0.000000e+00 0.000000e+00 0.000000e+00
 0.000000e+00 6.029037e-01 3.970963e-01 0.000000e+00 0.000000e+00
 0.000000e+00 0.000000e+00 7.923531e-01 2.076470e-01 0.000000e+00
 0.000000e+00 0.000000e+00 0.000000e+00 8.411532e-01 1.588468e-01
 0.000000e+00 0.000000e+00 0.000000e+00 0.000000e+00 0.000000e+00
<ENDHMM>
~h "SIL"
<BEGINHMM>
<NUMSTATES> 5
<STATE> 2
<NUMMIXES> 2
<MIXTURE> 1 4.118285e-01
<MEAN> 22
 7.130811e+01 6.754197e+01 6.264915e+01 5.192785e+01 1.708318e+01 4.233597e+01 5.347898e+01 1.054882e+02 6.165685e+01 5.155308e+01 9.726868e+01 1.179960e+02 8.268241e+01 5.465670e+01 4.204845e+00 3.270116e+00 5.131436e+00 3.847972e+00 4.014910e+00 3.757744e+00 3.064634e+00 2.840282e+00
<VARIANCE> 22
 2.810457e+04 2.006841e+04 2.398786e+04 1.532722e+04 9.794175e+02 1.960080e+03 1.084367e+03 7.575978e+02 1.229355e+02 7.167776e+02 3.319044e+03 2.306891e+03 1.054877e+03 1.566491e+03 3.981473e+00 1.032999e+00 1.351266e+00 1.659802e+00 1.720253e+00 2.241098e+00 7.804535e+00 8.074165e+00
<GCONST> 1.576631e+02
<MIXTURE> 2 5.881714e-01
<MEAN> 22
 5.532155e+01 4.672826e+01 5.011444e+01 4.040127e+01 2.289545e+02 1.807873e+02 0.000000e+00 0.000000e+00 0.000000e+00 0.000000e+00 0.000000e+00 0.000000e+00 0.000000e+00 0.000000e+00 0.000000e+00 0.000000e+00 0.000000e+00 0.000000e+00 0.000000e+00 0.000000e+00 3.263981e-01 3.269919e-01
<VARIANCE> 22
 2.540785e+04 1.811620e+04 2.079129e+04 1.357742e+04 6.433522e+04 4.031977e+04 9.965595e+00 1.121768e+01 2.939380e+00 3.532339e+00 3.789023e+01 4.425340e+01 4.237021e+00 4.029697e+00 6.556320e-02 1.793070e-02 2.348518e-02 1.180012e-02 2.100767e-02 5.619852e-02 8.726459e-01 8.764422e-01
<GCONST> 9.688771e+01
<STATE> 3
<NUMMIXES> 2
<MIXTURE> 1 4.794380e-01
<MEAN> 22
 2.414439e+00 2.522725e+00 9.067835e-01 9.443897e-01 1.205371e+01 1.146560e+01 1.131364e+02 1.086346e+02 7.061392e+01 6.510745e+01 2.158979e+02 2.129147e+02 1.285070e+02 1.271057e+02 6.998391e+00 5.000139e+00 6.209865e+00 5.879433e+00 6.002161e+00 5.995029e+00 2.234100e+00 2.035358e+00
<VARIANCE> 22
 1.524548e+01 1.649052e+01 3.305619e+00 2.171579e+00 2.135201e+02 1.715265e+02 2.278450e+02 1.330207e+02 6.224846e+01 5.350692e+01 3.302507e+02 2.580256e+02 1.244679e+02 8.075781e+01 6.556320e-02 1.793070e-02 1.657584e-01 1.059661e-01 2.100767e-02 5.619852e-02 5.886186e+00 5.648524e+00
<GCONST> 8.341286e+01
<MIXTURE> 2 5.205598e-01
<MEAN> 22
 8.901416e+00 1.037275e+01 2.308529e+00 2.718588e+00 7.941658e+01 9.446621e+01 9.809307e+01 9.554520e+01 7.706641e+01 7.443940e+01 1.397225e+02 1.302155e+02 1.141087e+02 1.134441e+02 3.959184e+00 3.686800e+00 5.423627e+00 5.214115e+00 4.607424e+00 3.824489e+00 2.832253e+00 2.884216e+00
<VARIANCE> 22
 1.955336e+02 2.465638e+02 1.689168e+01 1.968313e+01 5.889922e+03 6.568488e+03 1.598701e+03 1.594740e+03 3.606577e+02 4.930467e+02 5.517501e+03 4.464692e+03 3.760332e+02 1.908751e+02 8.392467e+00 1.759415e+00 4.501649e+00 1.014979e+00 2.763897e+00 6.407289e+00 6.363433e+00 5.981544e+00
<GCONST> 1.402601e+02
<STATE> 4
<NUMMIXES> 2
<MIXTURE> 1 5.005717e-01
<MEAN> 22
 1.537660e+00 2.784446e+00 5.713512e-01 9.680712e-01 5.848444e+00 9.606715e+00 8.711706e+01 8.593533e+01 5.578748e+01 5.432882e+01 1.817440e+02 1.804498e+02 1.097304e+02 1.090741e+02 6.999394e+00 5.000001e+00 6.008592e+00 5.934205e+00 6.000000e+00 6.000821e+00 1.945685e+00 2.232049e+00
<VARIANCE> 22
 7.088183e+00 1.853072e+01 3.305619e+00 2.238326e+00 4.932809e+01 1.262578e+02 5.722191e+01 8.303431e+01 2.022093e+01 4.279700e+01 1.048664e+02 1.313779e+02 3.525019e+01 4.248204e+01 6.556320e-02 1.793070e-02 2.348518e-02 6.141313e-02 2.100767e-02 5.619852e-02 5.682643e+00 5.942169e+00
<GCONST> 7.161128e+01
<MIXTURE> 2 4.994294e-01
<MEAN> 22
 5.109654e+00 1.082383e+01 1.253819e+00 2.780673e+00 4.165097e+01 1.075912e+02 7.874208e+01 8.307650e+01 5.798673e+01 6.924950e+01 1.469473e+02 8.775848e+01 1.032771e+02 9.525487e+01 5.358009e+00 3.143799e+00 5.927194e+00 5.020615e+00 5.281559e+00 2.955340e+00 2.225882e+00 3.067424e+00
<VARIANCE> 22
 9.733808e+01 1.827026e+02 6.992443e+00 1.680456e+01 3.150554e+03 4.097656e+03 5.807809e+02 1.504289e+03 1.047005e+02 4.025098e+02 2.727477e+03 2.803269e+03 1.050917e+02 1.372583e+02 6.783944e+00 1.592205e+00 1.263333e+00 1.353398e+00 1.853652e+00 6.478093e+00 6.173193e+00 5.813251e+00
<GCONST> 1.300970e+02
<TRANSP> 5
 0.000000e+00 1.000000e+00 0.000000e+00 0.000000e+00 0.000000e+00
 0.000000e+00 8.657207e-01 1.342793e-01 0.000000e+00 0.000000e+00
 0.000000e+00 0.000000e+00 9.958326e-01 4.167391e-03 0.000000e+00
 0.000000e+00 0.000000e+00 0.000000e+00 9.964874e-01 3.512545e-03
 0.000000e+00 0.000000e+00 0.000000e+00 0.000000e+00 0.000000e+00
<ENDHMM>
~h "TT_2"
<BEGINHMM>
<NUMSTATES> 5
<STATE> 2
<NUMMIXES> 2
<MIXTURE> 1 5.385525e-01
<MEAN> 22
 8.793750e+00 2.369680e+00 2.567159e+00 1.031324e+00 1.137074e+02 2.247576e+01 1.124335e+02 1.009386e+02 8.972527e+01 5.812479e+01 1.180540e+02 2.019165e+02 1.079971e+02 1.197682e+02 3.134275e+00 5.000331e+00 4.595089e+00 5.889932e+00 4.081489e+00 5.997176e+00 2.893240e+00 2.439362e+00
<VARIANCE> 22
 1.534042e+02 1.252816e+01 1.620285e+01 2.171579e+00 8.879941e+03 6.963600e+02 2.411497e+03 2.579825e+02 8.712328e+02 8.861980e+01 4.754006e+03 5.366512e+02 4.829849e+02 1.548763e+02 7.114728e+00 1.793070e-02 7.241496e+00 9.795335e-02 2.639898e+00 5.619852e-02 5.809263e+00 6.245762e+00
<GCONST> 1.170430e+02
<MIXTURE> 2 4.614472e-01
<MEAN> 22
 8.715590e+00 9.462347e+00 2.404752e+00 2.741091e+00 7.796651e+01 8.302823e+01 8.030326e+01 6.457522e+01 7.168449e+01 6.709014e+01 1.086637e+02 9.611740e+01 1.007398e+02 1.010684e+02 2.922812e+00 3.022386e+00 5.712425e+00 5.413941e+00 4.134674e+00 2.694614e+00 3.137183e+00 3.159036e+00
<VARIANCE> 22
 1.807610e+02 2.072117e+02 1.703629e+01 1.513277e+01 4.165117e+03 4.096060e+03 1.766674e+03 1.667111e+03 5.921932e+02 3.683243e+02 3.056603e+03 1.753626e+03 2.509746e+02 2.111807e+02 6.923204e+00 1.643862e+00 3.291404e+00 8.874596e-01 2.927550e+00 7.551276e+00 6.920484e+00 6.299993e+00
<GCONST> 1.371046e+02
<STATE> 3
<NUMMIXES> 2
<MIXTURE> 1 8.758661e-01
<MEAN> 22
 1.065404e+00 1.224581e+01 5.563702e-01 3.569938e+00 6.888046e+00 1.312702e+02 9.276450e+01 1.032394e+02 5.691183e+01 8.531203e+01 1.901445e+02 9.009693e+01 1.130771e+02 9.736958e+01 7.000000e+00 3.003960e+00 6.043269e+00 4.635586e+00 6.000000e+00 2.835023e+00 1.674872e+00 3.297716e+00
<VARIANCE> 22
 4.801967e+00 2.312856e+02 3.305619e+00 2.722766e+01 6.013716e+01 5.930601e+03 2.172932e+02 2.356440e+03 6.627658e+01 7.412933e+02 3.687903e+02 3.148541e+03 1.268737e+02 3.005007e+02 6.556320e-02 1.408659e+00 4.139622e-02 1.655342e+00 2.100767e-02 5.942519e+00 5.345649e+00 5.871066e+00
<GCONST> 1.094952e+02
<MIXTURE> 2 1.241345e-01
<MEAN> 22
 5.158392e+00 3.187418e+00 2.080122e+00 1.175029e+00 1.575184e+02 1.078646e+02 7.314266e+01 6.584377e+01 5.993399e+01 4.911188e+01 8.462710e+01 1.069306e+02 7.744214e+01 8.087048e+01 2.225174e+00 2.875293e+00 3.889854e+00 4.046781e+00 3.022365e+00 3.171824e+00 2.343804e+00 1.823996e+00
<VARIANCE> 22
 6.673601e+01 2.764876e+01 1.605369e+01 4.903370e+00 2.892280e+04 1.911975e+04 3.492364e+03 2.773981e+03 1.781636e+03 1.141627e+03 5.776576e+03 6.785516e+03 2.334691e+03 2.490892e+03 6.978558e+00 4.184787e+00 9.204799e+00 6.229340e+00 5.263969e+00 8.298946e+00 6.056655e+00 5.188821e+00
<GCONST> 1.507704e+02
<STATE> 4
<NUMMIXES> 2
<MIXTURE> 1 7.140924e-01
<MEAN> 22
 1.588141e+00 2.426115e+00 6.827302e-01 9.283426e-01 9.398469e+00 1.115819e+01 9.789762e+01 9.703281e+01 6.208202e+01 5.964505e+01 1.988767e+02 1.975100e+02 1.192691e+02 1.181675e+02 6.998563e+00 5.001204e+00 6.069350e+00 5.929259e+00 6.000000e+00 5.997736e+00 1.916037e+00 2.111732e+00
<VARIANCE> 22
 7.089705e+00 1.277608e+01 3.305619e+00 2.171579e+00 1.297386e+02 1.839892e+02 2.406431e+02 2.070711e+02 6.370347e+01 6.972818e+01 4.878499e+02 4.199924e+02 1.541253e+02 1.291158e+02 6.556320e-02 1.793070e-02 6.454079e-02 6.573624e-02 2.100767e-02 5.619852e-02 5.393972e+00 5.774777e+00
<GCONST> 8.282344e+01
<MIXTURE> 2 2.859072e-01
<MEAN> 22
 7.383963e+00 1.266388e+01 2.283508e+00 3.520113e+00 6.615525e+01 1.271791e+02 9.419223e+01 1.062907e+02 7.226506e+01 8.430604e+01 1.593323e+02 1.105068e+02 1.124039e+02 1.042608e+02 4.558024e+00 3.249562e+00 6.152802e+00 4.779798e+00 5.142157e+00 3.127577e+00 2.388958e+00 2.786907e+00
<VARIANCE> 22
 1.611348e+02 2.373261e+02 1.985217e+01 3.397102e+01 5.116048e+03 7.823149e+03 1.763749e+03 2.895364e+03 4.079975e+02 9.177763e+02 3.967757e+03 3.694775e+03 4.290361e+02 4.956296e+02 9.151137e+00 1.645244e+00 1.861893e+00 1.564949e+00 2.431126e+00 6.187906e+00 5.770857e+00 5.255928e+00
<GCONST> 1.419554e+02
<TRANSP> 5
 0.000000e+00 1.000000e+00 0.000000e+00 0.000000e+00 0.000000e+00
 0.000000e+00 7.858299e-01 2.141701e-01 0.000000e+00 0.000000e+00
 0.000000e+00 0.000000e+00 7.568382e-01 2.431618e-01 0.000000e+00
 0.000000e+00 0.000000e+00 0.000000e+00 8.270087e-01 1.729913e-01
 0.000000e+00 0.000000e+00 0.000000e+00 0.000000e+00 0.000000e+00
<ENDHMM>
~h "DC_2"
<BEGINHMM>
<NUMSTATES> 5
<STATE> 2
<NUMMIXES> 2
<MIXTURE> 1 5.589744e-01
<MEAN> 22
 1.950685e+00 2.987064e+00 7.492633e-01 1.105998e+00 9.673693e+00 1.393240e+01 9.594876e+01 9.459990e+01 6.127914e+01 5.788919e+01 1.940757e+02 1.925803e+02 1.165529e+02 1.151432e+02 6.999335e+00 5.000000e+00 6.081830e+00 5.887560e+00 5.999941e+00 5.996381e+00 2.169346e+00 2.297715e+00
<VARIANCE> 22
 9.838329e+00 1.757298e+01 3.305619e+00 2.175936e+00 1.040670e+02 2.625210e+02 2.494886e+02 2.332748e+02 7.813616e+01 7.197731e+01 4.964272e+02 4.676587e+02 1.642844e+02 1.349796e+02 6.556320e-02 1.793070e-02 7.513391e-02 9.979605e-02 2.100767e-02 5.619852e-02 5.861715e+00 5.751976e+00
<GCONST> 8.487988e+01
<MIXTURE> 2 4.410256e-01
<MEAN> 22
 4.008204e+00 1.180143e+01 1.178066e+00 3.342957e+00 3.115631e+01 1.094748e+02 8.709961e+01 8.565235e+01 6.052088e+01 7.372318e+01 1.697173e+02 8.894971e+01 1.085162e+02 9.865675e+01 6.037519e+00 3.085156e+00 6.019275e+00 4.891552e+00 5.604849e+00 2.945269e+00 2.161304e+00 3.138520e+00
<VARIANCE> 22
 7.819034e+01 2.121208e+02 6.934042e+00 2.083650e+01 2.520635e+03 4.136986e+03 5.328727e+02 1.560349e+03 1.599600e+02 4.410061e+02 2.012302e+03 3.233615e+03 2.162146e+02 3.007805e+02 4.840347e+00 1.386167e+00 7.313561e-01 1.517207e+00 1.231224e+00 6.584280e+00 6.420890e+00 5.639120e+00
<GCONST> 1.305382e+02
<STATE> 3
<NUMMIXES> 2
<MIXTURE> 1 4.832653e-01
<MEAN> 22
 1.041686e+01 1.207962e+01 3.485434e+00 4.447144e+00 5.635482e+01 6.098846e+01 6.983684e+01 7.244212e+01 6.478281e+01 6.309781e+01 1.500187e+02 1.406310e+02 1.089379e+02 1.065266e+02 4.582088e+00 4.058416e+00 6.200258e+00 5.607786e+00 5.376871e+00 4.941259e+00 2.720662e+00 2.741795e+00
<VARIANCE> 22
 1.932677e+02 2.478125e+02 5.575380e+01 6.687908e+01 2.427522e+03 2.588141e+03 9.323184e+02 1.028995e+03 1.107660e+02 1.692217e+02 2.417655e+03 2.889123e+03 2.466021e+02 2.336594e+02 9.198318e+00 1.740723e+00 2.199783e-01 5.616117e-01 1.097404e+00 5.614900e+00 5.341873e+00 5.470014e+00
<GCONST> 1.312961e+02
<MIXTURE> 2 5.167345e-01
<MEAN> 22
 8.167734e+00 8.734353e+00 1.328478e+00 1.486099e+00 1.339485e+02 1.279591e+02 6.078483e+01 5.889278e+01 6.739518e+01 6.227855e+01 6.039735e+01 6.294671e+01 9.661224e+01 9.794849e+01 1.873838e+00 2.133728e+00 5.644105e+00 5.634100e+00 3.482528e+00 7.067513e-01 2.597257e+00 2.582489e+00
<VARIANCE> 22
 1.324075e+02 2.082287e+02 3.305619e+00 5.303098e+00 2.166587e+03 1.746524e+03 1.082826e+03 7.407548e+02 1.775293e+02 1.092351e+02 6.496785e+02 1.035347e+03 3.325102e+02 2.459746e+02 6.654978e-01 8.488445e-01 2.199371e+00 8.459883e-01 5.285873e-01 1.031857e+00 4.942171e+00 5.375937e+00
<GCONST> 1.195899e+02
<STATE> 4
<NUMMIXES> 2
<MIXTURE> 1 8.898689e-01
<MEAN> 22
 1.020014e+01 5.110698e+00 3.062635e+00 1.455100e+00 9.245042e+01 4.783770e+01 1.075815e+02 9.414864e+01 8.116518e+01 6.198021e+01 1.253282e+02 1.699678e+02 1.077971e+02 1.135913e+02 3.412642e+00 4.478275e+00 5.110207e+00 5.648982e+00 4.133906e+00 5.183219e+00 2.852779e+00 2.310306e+00
<VARIANCE> 22
 2.537599e+02 1.058918e+02 3.570131e+01 8.719040e+00 5.791131e+03 3.299478e+03 1.761554e+03 9.143721e+02 5.488806e+02 1.652964e+02 6.127133e+03 3.410160e+03 7.178419e+02 3.169108e+02 7.976082e+00 1.037792e+00 5.948375e+00 4.968672e-01 3.493033e+00 3.406884e+00 6.287607e+00 5.717984e+00
<GCONST> 1.372921e+02
<MIXTURE> 2 1.101308e-01
<MEAN> 22
 -5.048710e-29 -4.038968e-28 0.000000e+00 4.038968e-28 1.533902e+02 1.127809e+02 0.000000e+00 -3.231174e-27 0.000000e+00 -3.231174e-27 -3.231174e-27 -3.231174e-27 -3.231174e-27 3.231174e-27 4.038968e-28 0.000000e+00 0.000000e+00 0.000000e+00 0.000000e+00 0.000000e+00 5.048710e-29 0.000000e+00
<VARIANCE> 22
 4.801967e+00 4.073976e+00 3.305619e+00 2.171579e+00 5.478088e+04 2.914678e+04 9.965595e+00 1.121768e+01 2.939380e+00 3.532339e+00 3.789023e+01 4.425340e+01 4.237021e+00 4.029697e+00 6.556320e-02 1.793070e-02 2.348518e-02 1.180012e-02 2.100767e-02 5.619852e-02 6.159949e-02 6.062591e-02
<GCONST> 5.661932e+01
<TRANSP> 5
 0.000000e+00 1.000000e+00 0.000000e+00 0.000000e+00 0.000000e+00
 0.000000e+00 8.841015e-01 1.158985e-01 0.000000e+00 0.000000e+00
 0.000000e+00 0.000000e+00 7.200733e-01 2.799266e-01 0.000000e+00
 0.000000e+00 0.000000e+00 0.000000e+00 6.727543e-01 3.272457e-01
 0.000000e+00 0.000000e+00 0.000000e+00 0.000000e+00 0.000000e+00
<ENDHMM>
~h "MC_2"
<BEGINHMM>
<NUMSTATES> 5
<STATE> 2
<NUMMIXES> 2
<MIXTURE> 1 7.500009e-01
<MEAN> 22
 9.225528e+00 2.955439e+00 2.866399e+00 1.172345e+00 9.676770e+01 1.668515e+01 9.610355e+01 9.708109e+01 8.000510e+01 5.601351e+01 1.153040e+02 1.962446e+02 1.073310e+02 1.160885e+02 3.453936e+00 5.000000e+00 5.116376e+00 5.827187e+00 4.292050e+00 5.987675e+00 3.035513e+00 2.372328e+00
<VARIANCE> 22
 1.451474e+02 2.110823e+01 2.061740e+01 3.023636e+00 4.973666e+03 3.427933e+02 1.412453e+03 2.864086e+02 3.959918e+02 7.467912e+01 5.623870e+03 5.769787e+02 5.392736e+02 1.758339e+02 7.805031e+00 1.793070e-02 6.121408e+00 1.429487e-01 2.475556e+00 5.619852e-02 6.265582e+00 6.240312e+00
<GCONST> 1.161935e+02
<MIXTURE> 2 2.499981e-01
<MEAN> 22
 5.665268e+00 7.618238e+00 1.302095e+00 2.347040e+00 1.121259e+02 1.192405e+02 8.779003e+01 7.061385e+01 6.188816e+01 6.068325e+01 1.071501e+02 9.621300e+01 8.750532e+01 8.574970e+01 3.429316e+00 2.977931e+00 4.068080e+00 4.292326e+00 3.770187e+00 3.277871e+00 2.417273e+00 2.646832e+00
<VARIANCE> 22
 1.425959e+02 1.425321e+02 5.509785e+00 1.989120e+01 2.604872e+04 1.559926e+04 2.778787e+03 2.568301e+03 1.062230e+03 8.882375e+02 5.855176e+03 3.647193e+03 1.582636e+03 1.674268e+03 8.431814e+00 2.469638e+00 7.708804e+00 3.977173e+00 5.078300e+00 7.431722e+00 6.433384e+00 6.179492e+00
<GCONST> 1.498497e+02
<STATE> 3
<NUMMIXES> 2
<MIXTURE> 1 7.580287e-01
<MEAN> 22
 1.052313e+00 9.177868e+00 4.936283e-01 2.656009e+00 7.157683e+00 1.044722e+02 9.229778e+01 8.117669e+01 5.753605e+01 7.386106e+01 1.879965e+02 9.840758e+01 1.126109e+02 1.016249e+02 7.000000e+00 3.420403e+00 6.087478e+00 5.108914e+00 6.000000e+00 3.329598e+00 1.595156e+00 2.958717e+00
<VARIANCE> 22
 4.801967e+00 1.402469e+02 3.305619e+00 1.713216e+01 5.442472e+01 4.677509e+03 2.586977e+02 1.746514e+03 7.100092e+01 4.311513e+02 4.888287e+02 3.029350e+03 1.615525e+02 2.004983e+02 6.556320e-02 1.552849e+00 7.982469e-02 1.173716e+00 2.100767e-02 7.272639e+00 5.189315e+00 5.703568e+00
<GCONST> 1.082301e+02
<MIXTURE> 2 2.419718e-01
<MEAN> 22
 7.210192e+00 7.131083e+00 1.625825e+00 1.079425e+00 8.533226e+01 6.798754e+01 5.593751e+01 5.283807e+01 6.790088e+01 5.985520e+01 7.951102e+01 9.968436e+01 1.013804e+02 1.026397e+02 2.275716e+00 3.092981e+00 5.801882e+00 5.749034e+00 3.812644e+00 2.908043e+00 3.306460e+00 2.555892e+00
<VARIANCE> 22
 6.797991e+01 8.654101e+01 6.467223e+00 2.420316e+00 4.065111e+03 3.358792e+03 1.254681e+03 1.031189e+03 1.714886e+02 1.044219e+02 2.175072e+03 2.520220e+03 2.215003e+02 2.064899e+02 3.263569e+00 2.117707e+00 2.240632e+00 5.303572e-01 1.091623e+00 9.157995e+00 6.074027e+00 5.810136e+00
<GCONST> 1.263786e+02
<STATE> 4
<NUMMIXES> 2
<MIXTURE> 1 6.524618e-01
<MEAN> 22
 1.487870e+00 1.701069e+00 5.329555e-01 7.304645e-01 7.900137e+00 7.733781e+00 9.631652e+01 9.487708e+01 6.111244e+01 5.789848e+01 1.959219e+02 1.947731e+02 1.173344e+02 1.164748e+02 7.000000e+00 5.000000e+00 6.055044e+00 5.926466e+00 6.000000e+00 6.000167e+00 2.049889e+00 1.902549e+00
<VARIANCE> 22
 5.821650e+00 7.005822e+00 3.305619e+00 2.171579e+00 6.790242e+01 5.399630e+01 2.003839e+02 1.600258e+02 6.395267e+01 6.218658e+01 4.550061e+02 4.114942e+02 1.503726e+02 1.315603e+02 6.556320e-02 1.793070e-02 5.201422e-02 6.812783e-02 2.100767e-02 5.619852e-02 5.928891e+00 5.639158e+00
<GCONST> 7.939548e+01
<MIXTURE> 2 3.475376e-01
<MEAN> 22
 9.879756e+00 1.349005e+01 2.353038e+00 3.067466e+00 6.960482e+01 8.989874e+01 7.948634e+01 8.306914e+01 6.847280e+01 6.737091e+01 1.323660e+02 1.085524e+02 1.068702e+02 1.052255e+02 3.734116e+00 3.518482e+00 6.029375e+00 5.181120e+00 5.126135e+00 3.562458e+00 2.859756e+00 3.095612e+00
<VARIANCE> 22
 2.297218e+02 5.617544e+02 1.138990e+01 1.424103e+01 4.160263e+03 4.191376e+03 9.062847e+02 1.173625e+03 2.241112e+02 3.353810e+02 3.473233e+03 3.082736e+03 2.714955e+02 2.786474e+02 9.538682e+00 1.368888e+00 2.275404e+00 8.207823e-01 2.216997e+00 6.136484e+00 5.536815e+00 5.364554e+00
<GCONST> 1.356848e+02
<TRANSP> 5
 0.000000e+00 1.000000e+00 0.000000e+00 0.000000e+00 0.000000e+00
 0.000000e+00 7.550046e-01 2.449954e-01 0.000000e+00 0.000000e+00
 0.000000e+00 0.000000e+00 8.096839e-01 1.903161e-01 0.000000e+00
 0.000000e+00 0.000000e+00 0.000000e+00 8.380019e-01 1.619981e-01
 0.000000e+00 0.000000e+00 0.000000e+00 0.000000e+00 0.000000e+00
<ENDHMM>
~h "VA_2"
<BEGINHMM>
<NUMSTATES> 5
<STATE> 2
<NUMMIXES> 2
<MIXTURE> 1 6.548489e-01
<MEAN> 22
 1.994762e+00 2.068421e+00 7.981737e-01 9.145424e-01 1.053392e+01 1.294471e+01 9.865383e+01 9.659448e+01 6.277666e+01 5.870656e+01 1.995246e+02 1.980648e+02 1.191992e+02 1.180531e+02 7.000000e+00 5.000000e+00 6.110489e+00 5.950010e+00 6.000000e+00 5.993293e+00 1.927807e+00 1.983499e+00
<VARIANCE> 22
 1.119845e+01 1.297156e+01 3.305619e+00 2.171579e+00 1.858288e+02 3.687627e+02 2.916796e+02 2.182890e+02 8.392733e+01 6.212309e+01 5.688600e+02 4.894303e+02 1.851519e+02 1.420554e+02 6.556320e-02 1.793070e-02 9.828147e-02 4.749185e-02 2.100767e-02 5.619852e-02 5.797141e+00 5.866637e+00
<GCONST> 8.552452e+01
<MIXTURE> 2 3.451514e-01
<MEAN> 22
 9.697393e+00 1.326357e+01 3.144885e+00 3.714771e+00 7.101829e+01 8.054206e+01 8.147963e+01 7.699996e+01 7.479121e+01 6.862354e+01 1.313094e+02 1.237800e+02 1.078846e+02 1.072414e+02 3.373034e+00 3.661396e+00 5.639903e+00 5.253133e+00 4.667181e+00 3.819293e+00 3.170263e+00 3.038829e+00
<VARIANCE> 22
 1.494907e+02 3.657148e+02 2.487785e+01 2.614357e+01 4.499556e+03 4.169446e+03 1.716675e+03 1.638355e+03 4.379215e+02 3.311816e+02 3.479584e+03 3.020623e+03 3.645839e+02 2.659478e+02 8.574496e+00 1.447676e+00 3.564729e+00 7.343991e-01 2.785819e+00 7.087062e+00 6.097073e+00 5.959319e+00
<GCONST> 1.390082e+02
<STATE> 3
<NUMMIXES> 2
<MIXTURE> 1 6.603888e-01
<MEAN> 22
 9.711705e+00 3.534907e+00 2.693584e+00 1.233261e+00 1.020970e+02 2.097961e+01 1.084671e+02 8.866090e+01 8.684467e+01 5.729470e+01 1.130890e+02 1.822582e+02 1.010612e+02 1.131269e+02 3.256873e+00 4.870903e+00 4.480423e+00 5.768363e+00 4.062054e+00 6.080011e+00 2.859532e+00 2.333628e+00
<VARIANCE> 22
 1.578625e+02 3.053050e+01 1.637003e+01 3.519482e+00 7.964560e+03 5.383491e+02 2.474900e+03 6.948018e+02 7.342878e+02 7.372282e+01 4.063359e+03 1.190642e+03 4.252036e+02 1.580981e+02 7.136105e+00 1.234961e-01 7.102110e+00 1.779825e-01 2.811032e+00 1.136198e-01 5.860392e+00 5.812874e+00
<GCONST> 1.224983e+02
<MIXTURE> 2 3.396112e-01
<MEAN> 22
 7.013825e+00 8.613464e+00 9.003975e-01 1.103796e+00 9.239065e+01 1.198254e+02 6.121880e+01 6.321327e+01 6.182434e+01 6.505179e+01 8.658844e+01 6.363735e+01 9.792257e+01 9.388976e+01 2.845934e+00 1.982454e+00 5.597080e+00 5.119884e+00 3.757787e+00 6.357421e-01 2.600853e+00 2.470363e+00
<VARIANCE> 22
 1.924044e+02 1.540726e+02 3.305619e+00 3.134549e+00 1.063095e+04 6.707341e+03 1.289505e+03 2.024160e+03 3.650952e+02 6.229632e+02 3.869305e+03 1.152333e+03 7.727236e+02 7.528046e+02 5.054667e+00 9.281822e-01 3.069683e+00 2.778314e+00 2.437255e+00 6.911694e-01 6.527392e+00 6.125545e+00
<GCONST> 1.347437e+02
<STATE> 4
<NUMMIXES> 2
<MIXTURE> 1 1.819435e-01
<MEAN> 22
 1.355749e+01 2.078748e+01 6.241050e+00 6.711360e+00 1.726584e+02 1.468635e+02 1.007032e+02 9.945151e+01 8.374130e+01 7.445381e+01 1.276441e+02 1.290583e+02 9.800288e+01 1.038681e+02 3.690547e+00 3.808641e+00 5.217706e+00 4.946653e+00 4.593576e+00 4.151386e+00 3.419658e+00 3.318107e+00
<VARIANCE> 22
 1.497365e+03 2.469487e+03 1.097667e+03 6.439550e+02 3.228659e+04 1.966891e+04 2.873948e+03 2.557365e+03 6.981870e+02 6.238219e+02 4.344379e+03 2.969223e+03 1.023509e+03 5.113609e+02 8.047163e+00 1.750490e+00 5.466099e+00 1.317571e+00 3.170178e+00 5.387275e+00 6.229817e+00 6.099926e+00
<GCONST> 1.587246e+02
<MIXTURE> 2 8.180567e-01
<MEAN> 22
 1.302590e+00 9.124711e+00 4.997236e-01 2.699864e+00 7.681207e+00 1.216840e+02 9.453706e+01 9.969124e+01 5.846647e+01 8.302692e+01 1.913609e+02 9.759186e+01 1.140324e+02 1.001607e+02 6.997639e+00 3.240437e+00 6.150108e+00 4.792048e+00 6.000988e+00 3.018692e+00 1.760207e+00 3.101324e+00
<VARIANCE> 22
 6.449012e+00 1.366377e+02 3.305619e+00 1.308259e+01 9.083955e+01 6.927057e+03 3.440668e+02 2.302112e+03 9.258676e+01 7.383889e+02 6.838148e+02 3.754179e+03 2.278465e+02 2.968665e+02 6.556320e-02 1.602186e+00 1.275765e-01 1.515865e+00 2.100767e-02 6.548851e+00 5.821978e+00 5.742770e+00
<GCONST> 1.125586e+02
<TRANSP> 5
 0.000000e+00 1.000000e+00 0.000000e+00 0.000000e+00 0.000000e+00
 0.000000e+00 8.154636e-01 1.845364e-01 0.000000e+00 0.000000e+00
 0.000000e+00 0.000000e+00 6.921414e-01 3.078586e-01 0.000000e+00
 0.000000e+00 0.000000e+00 0.000000e+00 7.267834e-01 2.732166e-01
 0.000000e+00 0.000000e+00 0.000000e+00 0.000000e+00 0.000000e+00
<ENDHMM>
~h "VQ_2"
<BEGINHMM>
<NUMSTATES> 5
<STATE> 2
<NUMMIXES> 2
<MIXTURE> 1 7.497231e-01
<MEAN> 22
 1.752034e+00 1.147256e+01 7.086160e-01 3.506522e+00 9.292527e+00 1.078256e+02 9.095207e+01 9.775851e+01 5.705397e+01 7.406390e+01 1.891504e+02 1.026178e+02 1.126696e+02 1.010197e+02 7.000000e+00 3.380345e+00 6.041018e+00 4.856158e+00 6.000000e+00 3.326531e+00 1.721038e+00 2.986488e+00
<VARIANCE> 22
 1.391287e+01 2.336420e+02 3.305619e+00 2.648084e+01 1.708015e+02 5.847758e+03 2.393991e+02 1.340491e+03 7.189336e+01 4.601003e+02 4.768153e+02 4.473571e+03 1.580546e+02 3.023828e+02 6.556320e-02 1.537446e+00 3.933563e-02 1.240142e+00 2.100767e-02 5.880523e+00 5.532118e+00 5.824929e+00
<GCONST> 1.113060e+02
<MIXTURE> 2 2.502767e-01
<MEAN> 22
 1.363138e+01 6.053212e+00 3.801800e+00 1.373599e+00 1.944487e+02 1.228384e+02 7.521481e+01 7.293864e+01 6.445509e+01 5.121529e+01 7.725092e+01 1.210733e+02 8.338183e+01 8.893499e+01 1.951347e+00 3.248939e+00 3.749143e+00 4.340072e+00 2.934119e+00 3.581342e+00 2.611704e+00 2.234465e+00
<VARIANCE> 22
 6.085735e+02 1.276719e+02 4.620173e+01 3.964012e+00 3.298588e+04 2.317074e+04 3.077537e+03 2.318831e+03 1.568432e+03 8.294743e+02 4.370775e+03 6.975169e+03 2.036011e+03 2.186948e+03 5.124440e+00 3.972619e+00 9.303874e+00 5.223331e+00 4.170102e+00 7.613840e+00 6.760379e+00 6.192348e+00
<GCONST> 1.538491e+02
<STATE> 3
<NUMMIXES> 2
<MIXTURE> 1 7.179750e-01
<MEAN> 22
 1.669386e+00 1.647266e+00 6.353427e-01 6.788290e-01 6.939822e+00 8.513888e+00 9.678662e+01 9.591104e+01 6.120653e+01 5.868844e+01 1.954878e+02 1.948152e+02 1.164418e+02 1.162601e+02 7.000000e+00 5.000000e+00 6.106978e+00 5.930932e+00 6.000000e+00 6.002971e+00 2.024660e+00 1.906510e+00
<VARIANCE> 22
 8.341267e+00 6.728554e+00 3.305619e+00 2.171579e+00 5.018478e+01 5.838918e+01 2.197389e+02 2.292621e+02 6.802738e+01 7.050985e+01 4.830044e+02 4.860838e+02 1.633480e+02 1.461194e+02 6.556320e-02 1.793070e-02 9.553321e-02 6.429786e-02 2.100767e-02 5.619852e-02 5.628593e+00 5.567398e+00
<GCONST> 8.102903e+01
<MIXTURE> 2 2.820239e-01
<MEAN> 22
 6.397340e+00 8.923788e+00 1.176655e+00 2.034180e+00 7.087000e+01 1.140244e+02 7.993679e+01 8.801339e+01 6.916933e+01 6.970989e+01 1.346225e+02 9.039368e+01 1.097146e+02 1.027037e+02 4.082225e+00 2.815694e+00 5.871018e+00 4.976128e+00 4.697844e+00 2.512085e+00 2.479952e+00 3.054349e+00
<VARIANCE> 22
 1.029310e+02 1.243028e+02 3.325224e+00 6.853257e+00 5.011559e+03 4.708678e+03 1.504837e+03 1.770984e+03 3.059865e+02 4.609703e+02 4.621013e+03 3.421741e+03 5.255944e+02 3.746022e+02 8.053226e+00 1.905322e+00 2.683497e+00 1.595139e+00 2.104410e+00 5.606154e+00 6.556757e+00 6.056355e+00
<GCONST> 1.357466e+02
<STATE> 4
<NUMMIXES> 2
<MIXTURE> 1 4.704306e-01
<MEAN> 22
 1.158360e+01 1.241305e+01 2.452640e+00 3.416027e+00 4.554795e+01 6.510509e+01 8.178098e+01 8.538547e+01 6.692745e+01 6.742949e+01 1.611418e+02 1.442136e+02 1.116185e+02 1.079922e+02 5.018985e+00 4.002142e+00 6.105302e+00 5.479777e+00 5.372013e+00 4.437880e+00 2.686228e+00 2.802598e+00
<VARIANCE> 22
 3.995436e+02 2.363590e+02 1.905204e+01 3.923706e+01 2.916805e+03 4.312779e+03 1.295866e+03 1.406694e+03 2.293307e+02 3.085392e+02 3.441728e+03 4.101982e+03 5.752056e+02 5.011565e+02 7.836604e+00 1.642448e+00 6.539675e-01 8.014508e-01 1.248712e+00 5.881858e+00 6.248944e+00 5.452961e+00
<GCONST> 1.369024e+02
<MIXTURE> 2 5.295686e-01
<MEAN> 22
 8.740884e+00 2.626357e+00 3.183744e+00 1.064967e+00 1.255144e+02 3.857434e+01 1.014905e+02 7.984950e+01 8.361417e+01 5.578226e+01 6.039725e+01 1.550811e+02 9.643217e+01 1.094044e+02 1.530432e+00 4.278584e+00 3.790283e+00 5.762475e+00 2.970732e+00 4.882868e+00 3.370081e+00 2.586324e+00
<VARIANCE> 22
 1.144272e+02 1.620180e+01 1.640080e+01 2.171579e+00 4.623319e+03 1.712218e+03 1.958602e+03 9.792773e+02 5.014087e+02 6.404301e+01 1.006771e+03 3.402458e+03 3.115624e+02 2.049073e+02 4.803472e-01 1.231210e+00 8.622031e+00 2.136672e-01 9.021456e-01 5.211530e+00 5.595159e+00 5.860281e+00
<GCONST> 1.234940e+02
<TRANSP> 5
 0.000000e+00 1.000000e+00 0.000000e+00 0.000000e+00 0.000000e+00
 0.000000e+00 6.893696e-01 3.106305e-01 0.000000e+00 0.000000e+00
 0.000000e+00 0.000000e+00 7.832214e-01 2.167786e-01 0.000000e+00
 0.000000e+00 0.000000e+00 0.000000e+00 7.637951e-01 2.362049e-01
 0.000000e+00 0.000000e+00 0.000000e+00 0.000000e+00 0.000000e+00
<ENDHMM>
~h "NU_2"
<BEGINHMM>
<NUMSTATES> 5
<STATE> 2
<NUMMIXES> 2
<MIXTURE> 1 5.843814e-01
<MEAN> 22
 3.376535e+00 1.300451e+01 8.746664e-01 3.226148e+00 1.309704e+01 7.097869e+01 9.888200e+01 8.395703e+01 6.275433e+01 7.060757e+01 1.973008e+02 1.380119e+02 1.199531e+02 1.126526e+02 6.774446e+00 4.017243e+00 6.209776e+00 5.412909e+00 5.969300e+00 4.426875e+00 2.266419e+00 3.204217e+00
<VARIANCE> 22
 5.128092e+01 4.454733e+02 4.210468e+00 2.253542e+01 3.506590e+02 4.196250e+03 8.550816e+02 1.289719e+03 1.491750e+02 3.298717e+02 1.399904e+03 3.941568e+03 4.314178e+02 3.592826e+02 1.425263e+00 1.352642e+00 1.695920e-01 6.866393e-01 6.370378e-02 5.861406e+00 6.929749e+00 6.338555e+00
<GCONST> 1.227195e+02
<MIXTURE> 2 4.156189e-01
<MEAN> 22
 1.035113e+01 4.264733e+00 2.368155e+00 9.840463e-01 1.173169e+02 6.806759e+01 7.288837e+01 7.139071e+01 7.061373e+01 5.122480e+01 6.605740e+01 1.194654e+02 8.380912e+01 9.456351e+01 1.341385e+00 3.367574e+00 4.298920e+00 4.821475e+00 3.125149e+00 3.576734e+00 2.949415e+00 2.546531e+00
<VARIANCE> 22
 2.200010e+02 6.423978e+01 1.270098e+01 2.587695e+00 8.919990e+03 6.383664e+03 2.528052e+03 1.692399e+03 1.377883e+03 4.672634e+02 1.999127e+03 5.686453e+03 1.450700e+03 1.416535e+03 1.261650e+00 2.932194e+00 8.567093e+00 3.710478e+00 3.250472e+00 7.507965e+00 6.270372e+00 6.768004e+00
<GCONST> 1.424760e+02
<STATE> 3
<NUMMIXES> 2
<MIXTURE> 1 5.929661e-01
<MEAN> 22
 1.756481e+00 2.185757e+00 7.234148e-01 8.560134e-01 1.025995e+01 1.205750e+01 9.683703e+01 9.389324e+01 6.117353e+01 5.721329e+01 1.951340e+02 1.929970e+02 1.167275e+02 1.158152e+02 6.993892e+00 5.000000e+00 6.130198e+00 5.919181e+00 5.999988e+00 6.005049e+00 1.957085e+00 2.113087e+00
<VARIANCE> 22
 8.622184e+00 1.201413e+01 3.305619e+00 2.171579e+00 1.672185e+02 2.910649e+02 2.725841e+02 2.221820e+02 8.238988e+01 6.379985e+01 5.211179e+02 4.648852e+02 1.798793e+02 1.299171e+02 6.556320e-02 1.793070e-02 1.132458e-01 7.428609e-02 2.100767e-02 5.619852e-02 5.484245e+00 5.623707e+00
<GCONST> 8.503638e+01
<MIXTURE> 2 4.070336e-01
<MEAN> 22
 1.391646e+00 7.338255e+00 4.743293e-01 2.703997e+00 2.170899e+01 1.387171e+02 8.735142e+01 9.552766e+01 5.912289e+01 7.644637e+01 1.720278e+02 7.173675e+01 1.092042e+02 9.587720e+01 6.193150e+00 2.730645e+00 6.019007e+00 4.631557e+00 5.724302e+00 1.905661e+00 1.399453e+00 2.905252e+00
<VARIANCE> 22
 8.961480e+00 1.046556e+02 3.305619e+00 1.946720e+01 2.502459e+03 4.159907e+03 5.134130e+02 2.094100e+03 1.847256e+02 5.883383e+02 1.828595e+03 2.050106e+03 1.921871e+02 2.677755e+02 4.239206e+00 9.346913e-01 6.585042e-01 1.535508e+00 8.528102e-01 3.624038e+00 4.829161e+00 5.615755e+00
<GCONST> 1.248858e+02
<STATE> 4
<NUMMIXES> 2
<MIXTURE> 1 3.034029e-01
<MEAN> 22
 1.478934e+01 1.528049e+01 4.370018e+00 3.879497e+00 1.194345e+02 1.245860e+02 9.496342e+01 8.858840e+01 7.121356e+01 6.859697e+01 1.328960e+02 1.207234e+02 1.089073e+02 1.099118e+02 3.738168e+00 3.530909e+00 5.502855e+00 5.263303e+00 4.366628e+00 3.564394e+00 2.684869e+00 2.847338e+00
<VARIANCE> 22
 2.855028e+02 3.543722e+02 5.435185e+01 2.072520e+01 2.350018e+04 1.398677e+04 1.425038e+03 1.636499e+03 2.861223e+02 3.176071e+02 5.100295e+03 4.393847e+03 6.070398e+02 3.840963e+02 8.099448e+00 1.633769e+00 4.362220e+00 1.004077e+00 3.635200e+00 6.250727e+00 5.745705e+00 5.592224e+00
<GCONST> 1.446123e+02
<MIXTURE> 2 6.965963e-01
<MEAN> 22
 6.102962e+00 2.635763e+00 1.663957e+00 8.378187e-01 7.155721e+01 2.846128e+01 7.455364e+01 7.584270e+01 7.125359e+01 5.653609e+01 1.066039e+02 1.616783e+02 1.047203e+02 1.095272e+02 2.947189e+00 4.456811e+00 5.456522e+00 5.730935e+00 4.207413e+00 5.179399e+00 2.810500e+00 2.300095e+00
<VARIANCE> 22
 6.845467e+01 1.537793e+01 4.487151e+00 2.171579e+00 3.377274e+03 9.463936e+02 1.462513e+03 1.049102e+03 2.755942e+02 6.517093e+01 3.448028e+03 2.245886e+03 2.437646e+02 1.717297e+02 7.394139e+00 1.320740e+00 4.448081e+00 1.969134e-01 2.314642e+00 4.582492e+00 6.437238e+00 6.245342e+00
<GCONST> 1.233924e+02
<TRANSP> 5
 0.000000e+00 1.000000e+00 0.000000e+00 0.000000e+00 0.000000e+00
 0.000000e+00 6.225427e-01 3.774574e-01 0.000000e+00 0.000000e+00
 0.000000e+00 0.000000e+00 8.254472e-01 1.745528e-01 0.000000e+00
 0.000000e+00 0.000000e+00 0.000000e+00 7.455124e-01 2.544876e-01
 0.000000e+00 0.000000e+00 0.000000e+00 0.000000e+00 0.000000e+00
<ENDHMM>
~h "FM_2"
<BEGINHMM>
<NUMSTATES> 5
<STATE> 2
<NUMMIXES> 2
<MIXTURE> 1 4.868909e-01
<MEAN> 22
 3.490082e+00 1.187114e+01 1.637706e+00 3.660512e+00 1.031089e+01 7.411275e+01 9.181230e+01 8.278860e+01 5.840814e+01 7.595602e+01 1.875475e+02 1.301775e+02 1.130368e+02 1.057494e+02 6.996009e+00 3.986857e+00 6.036786e+00 5.319411e+00 5.998572e+00 4.751822e+00 1.901586e+00 3.228423e+00
<VARIANCE> 22
 3.850076e+02 4.153899e+02 2.693888e+02 1.806591e+02 1.615801e+02 3.941525e+03 3.451358e+02 1.279996e+03 6.947257e+01 5.225522e+02 6.109315e+02 3.412879e+03 1.792125e+02 2.371688e+02 6.556320e-02 1.449275e+00 3.543267e-02 7.571032e-01 2.100767e-02 5.813898e+00 6.402406e+00 6.205261e+00
<GCONST> 1.208861e+02
<MIXTURE> 2 5.131099e-01
<MEAN> 22
 1.065546e+01 7.703556e+00 2.675832e+00 2.051866e+00 8.749005e+01 6.910955e+01 7.283454e+01 5.945687e+01 7.354652e+01 5.930175e+01 8.569273e+01 1.051912e+02 9.880472e+01 1.029155e+02 2.062695e+00 3.164480e+00 5.323638e+00 5.564889e+00 3.618175e+00 3.154249e+00 3.386755e+00 2.687343e+00
<VARIANCE> 22
 1.766476e+02 1.434812e+02 1.712277e+01 9.490566e+00 2.800220e+03 2.805254e+03 2.081186e+03 1.147787e+03 3.901762e+02 9.631848e+01 1.569927e+03 2.081753e+03 2.282966e+02 1.661917e+02 3.564432e+00 2.180361e+00 4.786211e+00 5.046338e-01 2.184148e+00 7.954458e+00 5.513626e+00 6.189965e+00
<GCONST> 1.316226e+02
<STATE> 3
<NUMMIXES> 2
<MIXTURE> 1 6.355996e-01
<MEAN> 22
 1.437547e+00 2.454544e+00 5.864429e-01 9.257621e-01 6.849276e+00 1.007826e+01 9.557037e+01 9.400772e+01 6.081091e+01 5.812154e+01 1.954653e+02 1.939290e+02 1.172451e+02 1.160425e+02 6.999989e+00 5.000000e+00 6.060363e+00 5.933946e+00 6.000356e+00 6.002616e+00 1.863281e+00 2.075796e+00
<VARIANCE> 22
 6.716856e+00 1.646947e+01 3.305619e+00 2.221644e+00 5.718591e+01 1.328988e+02 2.012414e+02 2.091938e+02 6.340615e+01 5.809527e+01 4.492430e+02 4.448202e+02 1.452840e+02 1.259993e+02 6.556320e-02 1.793070e-02 5.671930e-02 6.169014e-02 2.100767e-02 5.619852e-02 5.364611e+00 5.522190e+00
<GCONST> 8.119441e+01
<MIXTURE> 2 3.644006e-01
<MEAN> 22
 1.379522e+00 1.109013e+01 5.465987e-01 2.930773e+00 2.171475e+01 1.390149e+02 9.069250e+01 9.711435e+01 5.904327e+01 7.731499e+01 1.763535e+02 7.019476e+01 1.102067e+02 9.729200e+01 6.372938e+00 2.685563e+00 6.008679e+00 4.573571e+00 5.729937e+00 2.214695e+00 1.760201e+00 2.903075e+00
<VARIANCE> 22
 5.656035e+00 2.407135e+02 3.305619e+00 1.789644e+01 2.390615e+03 4.390374e+03 5.166391e+02 1.676620e+03 1.753464e+02 4.828051e+02 1.794449e+03 2.581907e+03 2.600229e+02 3.572503e+02 3.244364e+00 1.035744e+00 7.400461e-01 1.756512e+00 8.762078e-01 4.522255e+00 5.717858e+00 5.700325e+00
<GCONST> 1.260378e+02
<STATE> 4
<NUMMIXES> 2
<MIXTURE> 1 7.866550e-01
<MEAN> 22
 9.197494e+00 4.896008e+00 2.378297e+00 1.675404e+00 7.182294e+01 3.233644e+01 1.030319e+02 9.834634e+01 7.944309e+01 6.335883e+01 1.517064e+02 1.916240e+02 1.157407e+02 1.176007e+02 3.772839e+00 4.848062e+00 5.701944e+00 5.635512e+00 4.993989e+00 5.892537e+00 2.936059e+00 2.379363e+00
<VARIANCE> 22
 1.375456e+02 5.411494e+01 1.047664e+01 6.498857e+00 3.973369e+03 9.620273e+02 1.614746e+03 7.301208e+02 4.805727e+02 1.718532e+02 4.711875e+03 1.049982e+03 3.928558e+02 2.224605e+02 9.792347e+00 1.408769e-01 4.085881e+00 2.316353e-01 2.892583e+00 2.723090e-01 5.830177e+00 5.744368e+00
<GCONST> 1.243591e+02
<MIXTURE> 2 2.133451e-01
<MEAN> 22
 6.589345e+00 1.144847e+01 1.526056e+00 2.287899e+00 1.291275e+02 1.667484e+02 5.912515e+01 6.163591e+01 4.833866e+01 5.552304e+01 9.168875e+01 5.235756e+01 7.774715e+01 7.486087e+01 3.037257e+00 1.746726e+00 4.110819e+00 3.713892e+00 3.299040e+00 1.159856e+00 1.681189e+00 2.105559e+00
<VARIANCE> 22
 1.583732e+02 4.046392e+02 1.282320e+01 1.669803e+01 2.915863e+04 1.585974e+04 2.140472e+03 2.916166e+03 9.776809e+02 1.441511e+03 6.159199e+03 2.039672e+03 2.485566e+03 2.225922e+03 8.480767e+00 1.805267e+00 8.140409e+00 6.089317e+00 5.602279e+00 3.042840e+00 5.063952e+00 5.353894e+00
<GCONST> 1.512655e+02
<TRANSP> 5
 0.000000e+00 1.000000e+00 0.000000e+00 0.000000e+00 0.000000e+00
 0.000000e+00 7.622463e-01 2.377537e-01 0.000000e+00 0.000000e+00
 0.000000e+00 0.000000e+00 8.336352e-01 1.663648e-01 0.000000e+00
 0.000000e+00 0.000000e+00 0.000000e+00 6.779098e-01 3.220902e-01
 0.000000e+00 0.000000e+00 0.000000e+00 0.000000e+00 0.000000e+00
<ENDHMM>
~h "FN_2"
<BEGINHMM>
<NUMSTATES> 5
<STATE> 2
<NUMMIXES> 2
<MIXTURE> 1 5.728867e-01
<MEAN> 22
 1.012570e+01 6.414990e+00 2.904258e+00 1.629072e+00 6.579381e+01 2.349834e+01 8.078696e+01 8.215469e+01 7.141334e+01 5.877031e+01 1.292536e+02 1.785984e+02 1.093899e+02 1.139833e+02 4.201852e+00 4.945364e+00 5.762912e+00 5.805871e+00 4.725973e+00 6.099149e+00 3.115467e+00 2.518717e+00
<VARIANCE> 22
 2.496087e+02 1.184097e+02 2.096108e+01 6.166777e+00 3.553381e+03 6.113737e+02 1.323767e+03 8.964563e+02 2.548761e+02 8.421548e+01 4.122637e+03 1.369214e+03 2.087585e+02 1.737048e+02 8.238924e+00 2.836189e-01 3.215958e+00 1.564440e-01 2.261054e+00 4.148150e-01 6.088979e+00 6.092776e+00
<GCONST> 1.238975e+02
<MIXTURE> 2 4.271127e-01
<MEAN> 22
 6.529367e+00 9.058970e+00 1.332959e+00 2.454740e+00 9.163573e+01 1.111657e+02 6.357722e+01 6.537424e+01 6.355761e+01 6.334591e+01 8.142731e+01 6.166972e+01 9.869373e+01 9.833785e+01 2.669589e+00 2.047299e+00 5.718372e+00 5.443803e+00 3.817151e+00 7.359487e-01 2.561007e+00 2.716163e+00
<VARIANCE> 22
 1.206561e+02 1.790670e+02 5.101526e+00 2.026826e+01 4.128118e+03 3.550210e+03 1.115371e+03 1.234852e+03 1.094273e+02 2.109073e+02 2.522974e+03 7.694089e+02 3.498748e+02 3.094136e+02 3.855654e+00 7.586252e-01 2.044505e+00 1.394275e+00 1.333162e+00 5.454595e-01 6.584494e+00 6.338746e+00
<GCONST> 1.273400e+02
<STATE> 3
<NUMMIXES> 2
<MIXTURE> 1 5.811158e-01
<MEAN> 22
 1.852801e+00 2.633910e+00 6.950970e-01 9.927194e-01 9.412329e+00 1.172518e+01 9.636578e+01 9.452654e+01 6.130690e+01 5.898935e+01 1.957593e+02 1.939722e+02 1.174055e+02 1.164424e+02 7.000000e+00 5.000000e+00 6.100801e+00 5.911356e+00 6.000000e+00 6.015349e+00 2.108276e+00 2.239964e+00
<VARIANCE> 22
 7.845025e+00 1.622446e+01 3.305619e+00 2.467141e+00 9.648860e+01 2.529410e+02 2.760943e+02 2.874723e+02 7.816518e+01 8.648762e+01 6.177112e+02 6.141996e+02 2.001170e+02 1.664066e+02 6.556320e-02 1.793070e-02 9.063955e-02 8.078708e-02 2.100767e-02 5.619852e-02 5.566856e+00 5.853153e+00
<GCONST> 8.592062e+01
<MIXTURE> 2 4.188839e-01
<MEAN> 22
 1.781257e+00 1.273558e+01 7.193475e-01 3.575951e+00 2.078718e+01 1.335957e+02 9.188421e+01 9.432325e+01 5.983976e+01 7.564961e+01 1.775707e+02 7.306998e+01 1.117858e+02 9.789361e+01 6.440142e+00 2.831664e+00 5.924047e+00 4.681565e+00 5.707222e+00 2.511198e+00 1.960701e+00 3.190120e+00
<VARIANCE> 22
 1.104625e+01 2.272933e+02 3.305619e+00 2.177322e+01 2.022860e+03 4.123161e+03 5.087480e+02 1.760802e+03 1.442886e+02 4.198614e+02 2.018821e+03 2.472998e+03 2.376150e+02 3.699137e+02 2.882821e+00 1.068652e+00 9.045448e-01 1.443065e+00 9.238038e-01 5.095709e+00 5.809786e+00 5.379954e+00
<GCONST> 1.263821e+02
<STATE> 4
<NUMMIXES> 2
<MIXTURE> 1 8.797574e-01
<MEAN> 22
 9.627994e+00 6.000650e+00 2.672413e+00 1.728426e+00 9.941787e+01 4.241312e+01 1.071807e+02 8.888838e+01 7.413554e+01 6.162764e+01 1.068999e+02 1.640661e+02 1.049487e+02 1.116736e+02 3.039139e+00 4.427803e+00 4.226514e+00 5.602240e+00 3.877795e+00 5.335974e+00 2.908436e+00 2.543666e+00
<VARIANCE> 22
 2.080687e+02 1.071654e+02 1.512170e+01 9.425839e+00 5.837355e+03 2.393704e+03 1.471897e+03 1.019229e+03 4.638122e+02 1.512502e+02 5.493287e+03 2.589377e+03 3.722093e+02 2.474577e+02 7.072366e+00 8.106867e-01 7.951275e+00 4.020982e-01 3.681081e+00 2.882827e+00 5.872775e+00 6.040748e+00
<GCONST> 1.339778e+02
<MIXTURE> 2 1.202426e-01
<MEAN> 22
 2.505781e-01 8.523976e-01 7.982540e-02 3.731597e-01 1.500181e+02 1.666346e+02 2.526071e+01 3.301945e+01 1.737214e+01 2.432093e+01 4.920795e+01 1.171623e+01 3.297428e+01 2.730677e+01 1.834860e+00 6.002423e-01 1.791925e+00 1.260583e+00 1.667185e+00 3.307901e-01 2.146111e-01 5.044054e-01
<VARIANCE> 22
 4.801967e+00 7.237481e+00 3.305619e+00 2.171579e+00 4.937963e+04 2.807455e+04 1.672053e+03 3.032042e+03 7.378217e+02 1.578890e+03 6.518247e+03 5.488126e+02 2.600860e+03 1.859502e+03 8.941038e+00 8.809535e-01 7.552773e+00 4.392815e+00 6.780471e+00 3.759674e-01 7.535155e-01 2.092295e+00
<GCONST> 1.338482e+02
<TRANSP> 5
 0.000000e+00 1.000000e+00 0.000000e+00 0.000000e+00 0.000000e+00
 0.000000e+00 7.368968e-01 2.631032e-01 0.000000e+00 0.000000e+00
 0.000000e+00 0.000000e+00 8.623899e-01 1.376102e-01 0.000000e+00
 0.000000e+00 0.000000e+00 0.000000e+00 6.564868e-01 3.435132e-01
 0.000000e+00 0.000000e+00 0.000000e+00 0.000000e+00 0.000000e+00
<ENDHMM>
~h "FU_2"
<BEGINHMM>
<NUMSTATES> 5
<STATE> 2
<NUMMIXES> 2
<MIXTURE> 1 4.420025e-01
<MEAN> 22
 3.322063e+00 1.128842e+01 1.231306e+00 3.295333e+00 1.396945e+01 3.685446e+01 9.076379e+01 7.746476e+01 6.008075e+01 6.259737e+01 1.858334e+02 1.627385e+02 1.116385e+02 1.062931e+02 6.998476e+00 4.709914e+00 6.104337e+00 5.642195e+00 5.970346e+00 6.069418e+00 2.345467e+00 3.144249e+00
<VARIANCE> 22
 4.330297e+01 2.487480e+02 4.928051e+00 2.689691e+01 2.625007e+02 9.758518e+02 4.259895e+02 7.299349e+02 8.939504e+01 2.064793e+02 7.779997e+02 1.420720e+03 2.223887e+02 2.027446e+02 6.556320e-02 3.609904e-01 9.345111e-02 2.297824e-01 3.827308e-02 5.857803e-01 6.150093e+00 5.561297e+00
<GCONST> 1.063110e+02
<MIXTURE> 2 5.579967e-01
<MEAN> 22
 2.628604e+00 9.414147e+00 9.340150e-01 2.633157e+00 2.739531e+01 1.437502e+02 8.878822e+01 9.789605e+01 5.894896e+01 7.296997e+01 1.682123e+02 5.807619e+01 1.095885e+02 9.658367e+01 6.178185e+00 2.521404e+00 5.842729e+00 4.663755e+00 5.560442e+00 1.635487e+00 2.033879e+00 3.052928e+00
<VARIANCE> 22
 3.443701e+01 1.656936e+02 3.305619e+00 1.276355e+01 3.256909e+03 3.942193e+03 5.579589e+02 1.611854e+03 1.460433e+02 5.093245e+02 2.704581e+03 2.402607e+03 2.739395e+02 3.182688e+02 3.970429e+00 8.959578e-01 1.481497e+00 1.535075e+00 1.273711e+00 2.533423e+00 5.896143e+00 5.567012e+00
<GCONST> 1.279354e+02
<STATE> 3
<NUMMIXES> 2
<MIXTURE> 1 6.043968e-01
<MEAN> 22
 1.860422e+00 1.879479e+00 7.713714e-01 8.171563e-01 9.233148e+00 1.142951e+01 9.941175e+01 9.758322e+01 6.321783e+01 5.883708e+01 1.996436e+02 1.988314e+02 1.199086e+02 1.185310e+02 6.999204e+00 5.000000e+00 6.124863e+00 5.917041e+00 6.000695e+00 6.000004e+00 2.072363e+00 2.018733e+00
<VARIANCE> 22
 8.539771e+00 7.952242e+00 3.305619e+00 2.171579e+00 1.024530e+02 2.175505e+02 3.418738e+02 2.188060e+02 8.749834e+01 6.664950e+01 6.876523e+02 5.463572e+02 2.321415e+02 1.660248e+02 6.556320e-02 1.793070e-02 1.092714e-01 7.607649e-02 2.100767e-02 5.619852e-02 5.744280e+00 5.811492e+00
<GCONST> 8.515452e+01
<MIXTURE> 2 3.956028e-01
<MEAN> 22
 9.925936e+00 1.024651e+01 2.445237e+00 2.765594e+00 8.850552e+01 8.888593e+01 8.029548e+01 7.360749e+01 7.008069e+01 6.610413e+01 9.335130e+01 9.697683e+01 1.014182e+02 1.024963e+02 2.598843e+00 3.009166e+00 5.358876e+00 5.375317e+00 3.849789e+00 2.892571e+00 2.948918e+00 3.254014e+00
<VARIANCE> 22
 2.256123e+02 2.347630e+02 1.982427e+01 2.122439e+01 4.296860e+03 3.970599e+03 1.486953e+03 1.316145e+03 3.036031e+02 2.649024e+02 3.500211e+03 2.819060e+03 2.996290e+02 2.479807e+02 5.561015e+00 1.628752e+00 4.496936e+00 8.400349e-01 2.609513e+00 6.571209e+00 6.226767e+00 6.023973e+00
<GCONST> 1.371069e+02
<STATE> 4
<NUMMIXES> 2
<MIXTURE> 1 7.737088e-01
<MEAN> 22
 8.385579e+00 1.940940e+00 2.560828e+00 9.621053e-01 1.127900e+02 1.750425e+01 9.753900e+01 9.481148e+01 7.580716e+01 5.493995e+01 8.494392e+01 1.919940e+02 9.949535e+01 1.141137e+02 3.011110e+00 5.000000e+00 4.301680e+00 5.882344e+00 3.866517e+00 5.992320e+00 3.115644e+00 2.235742e+00
<VARIANCE> 22
 1.606553e+02 7.308869e+00 1.630476e+01 2.201010e+00 5.821600e+03 5.128825e+02 1.186032e+03 1.999602e+02 4.129969e+02 5.947072e+01 5.011672e+03 3.731287e+02 4.435695e+02 1.310920e+02 5.908848e+00 1.793070e-02 7.667270e+00 1.038124e-01 2.309144e+00 5.619852e-02 6.199683e+00 5.932204e+00
<GCONST> 1.129789e+02
<MIXTURE> 2 2.262912e-01
<MEAN> 22
 3.984792e+00 8.890102e+00 1.013013e+00 2.016984e+00 1.545633e+02 1.578998e+02 6.942237e+01 5.997074e+01 5.321072e+01 5.027986e+01 1.026036e+02 5.968639e+01 7.547208e+01 7.094691e+01 3.391728e+00 2.031425e+00 3.811959e+00 3.504514e+00 3.457111e+00 1.624130e+00 1.745219e+00 2.041806e+00
<VARIANCE> 22
 8.253654e+01 2.711936e+02 7.259329e+00 1.185672e+01 4.365018e+04 1.821596e+04 3.498375e+03 2.902138e+03 1.889062e+03 1.306114e+03 6.974095e+03 3.328399e+03 2.557309e+03 2.250200e+03 9.681673e+00 2.574836e+00 8.253539e+00 6.031552e+00 6.450642e+00 4.769464e+00 5.469796e+00 5.790780e+00
<GCONST> 1.527818e+02
<TRANSP> 5
 0.000000e+00 1.000000e+00 0.000000e+00 0.000000e+00 0.000000e+00
 0.000000e+00 7.520573e-01 2.479427e-01 0.000000e+00 0.000000e+00
 0.000000e+00 0.000000e+00 8.398642e-01 1.601358e-01 0.000000e+00
 0.000000e+00 0.000000e+00 0.000000e+00 7.115546e-01 2.884454e-01
 0.000000e+00 0.000000e+00 0.000000e+00 0.000000e+00 0.000000e+00
<ENDHMM>
~h "OH_D"
<BEGINHMM>
<NUMSTATES> 5
<STATE> 2
<NUMMIXES> 2
<MIXTURE> 1 7.145154e-01
<MEAN> 22
 1.038617e+01 2.595179e+00 3.227731e+00 1.190618e+00 1.032076e+02 1.967258e+01 1.047087e+02 9.853442e+01 8.138346e+01 5.709248e+01 1.164802e+02 1.980004e+02 1.071435e+02 1.177291e+02 3.448499e+00 4.999200e+00 4.614579e+00 5.836833e+00 4.188500e+00 5.988392e+00 3.200796e+00 2.230637e+00
<VARIANCE> 22
 2.825020e+02 5.602169e+01 7.787806e+01 3.779882e+01 6.381323e+03 5.927524e+02 1.835397e+03 2.658248e+02 5.354277e+02 7.499579e+01 5.576639e+03 5.324696e+02 5.216419e+02 1.711722e+02 7.557739e+00 1.793070e-02 7.105720e+00 1.365476e-01 2.906474e+00 5.619852e-02 6.494462e+00 5.920850e+00
<GCONST> 1.230466e+02
<MIXTURE> 2 2.854848e-01
<MEAN> 22
 5.130765e+00 1.108033e+01 1.421843e+00 2.886022e+00 1.000639e+02 1.508508e+02 8.473195e+01 9.128181e+01 6.382424e+01 7.145694e+01 1.339374e+02 7.736320e+01 9.855063e+01 9.020108e+01 4.047492e+00 2.542744e+00 5.048363e+00 4.099391e+00 4.311189e+00 2.214049e+00 2.045318e+00 2.688494e+00
<VARIANCE> 22
 1.293865e+02 4.363251e+02 9.467456e+00 2.298181e+01 2.306341e+04 1.206637e+04 2.551969e+03 3.217051e+03 8.805927e+02 1.212771e+03 6.385524e+03 3.102069e+03 1.792337e+03 1.456210e+03 9.308240e+00 1.841201e+00 6.179690e+00 3.452297e+00 4.866258e+00 4.904713e+00 5.863334e+00 6.167736e+00
<GCONST> 1.502420e+02
<STATE> 3
<NUMMIXES> 2
<MIXTURE> 1 6.926232e-01
<MEAN> 22
 1.531045e+00 1.149467e+01 6.957178e-01 3.348677e+00 7.384084e+00 1.117501e+02 9.207210e+01 9.351257e+01 5.746172e+01 7.708863e+01 1.885617e+02 9.589378e+01 1.124339e+02 1.003247e+02 6.999182e+00 3.275634e+00 6.062298e+00 4.868344e+00 5.999767e+00 3.216702e+00 1.766359e+00 3.277069e+00
<VARIANCE> 22
 2.180172e+01 2.270004e+02 1.382012e+01 2.969972e+01 6.818325e+01 5.514344e+03 2.495233e+02 1.658941e+03 6.358032e+01 5.072097e+02 4.820053e+02 3.734143e+03 1.555942e+02 2.604896e+02 6.556320e-02 1.564308e+00 5.840955e-02 1.395621e+00 2.100767e-02 6.446122e+00 5.802008e+00 5.913546e+00
<GCONST> 1.128744e+02
<MIXTURE> 2 3.073749e-01
<MEAN> 22
 8.343975e+00 6.488283e+00 1.914419e+00 1.334962e+00 8.853481e+01 7.011642e+01 6.459267e+01 5.256524e+01 7.080482e+01 5.964207e+01 7.358250e+01 9.345023e+01 1.002903e+02 1.021787e+02 1.876275e+00 2.880575e+00 5.484900e+00 5.725440e+00 3.578846e+00 2.588274e+00 3.090438e+00 2.654753e+00
<VARIANCE> 22
 1.401881e+02 1.026622e+02 8.673386e+00 4.285225e+00 3.444931e+03 3.211363e+03 1.561016e+03 8.701556e+02 2.696761e+02 1.059919e+02 1.410235e+03 1.942476e+03 1.974294e+02 1.557541e+02 1.995043e+00 1.823207e+00 3.943331e+00 4.732152e-01 1.229147e+00 8.179581e+00 6.158508e+00 6.091610e+00
<GCONST> 1.272293e+02
<STATE> 4
<NUMMIXES> 2
<MIXTURE> 1 7.234154e-01
<MEAN> 22
 1.768897e+00 2.432180e+00 6.701671e-01 9.116850e-01 8.569018e+00 1.178268e+01 9.674895e+01 9.543018e+01 6.127631e+01 5.862178e+01 1.960959e+02 1.948205e+02 1.174508e+02 1.167488e+02 6.998357e+00 5.000000e+00 6.085610e+00 5.898353e+00 6.000225e+00 5.998405e+00 2.015652e+00 2.164004e+00
<VARIANCE> 22
 8.274701e+00 1.297597e+01 3.305619e+00 2.171579e+00 8.855148e+01 2.359830e+02 2.433214e+02 2.221589e+02 7.099925e+01 6.734881e+01 5.006798e+02 4.785663e+02 1.650864e+02 1.419272e+02 6.556320e-02 1.793070e-02 7.827713e-02 9.132458e-02 2.100767e-02 5.619852e-02 5.646844e+00 5.876907e+00
<GCONST> 8.392047e+01
<MIXTURE> 2 2.765879e-01
<MEAN> 22
 1.080994e+01 1.354799e+01 2.563020e+00 3.240106e+00 6.326696e+01 8.067924e+01 8.190795e+01 8.102789e+01 6.867879e+01 6.768228e+01 1.477439e+02 1.274287e+02 1.087466e+02 1.066718e+02 4.169941e+00 3.848940e+00 6.121412e+00 5.294746e+00 5.040713e+00 4.223028e+00 2.976342e+00 3.193483e+00
<VARIANCE> 22
 2.301793e+02 2.763080e+02 1.918483e+01 1.985876e+01 3.471988e+03 3.568085e+03 1.438815e+03 1.549712e+03 2.556788e+02 2.918385e+02 2.964437e+03 3.155835e+03 3.192692e+02 2.513498e+02 9.704338e+00 1.666647e+00 1.682748e+00 7.722502e-01 2.820565e+00 6.120090e+00 6.247228e+00 5.855626e+00
<GCONST> 1.364440e+02
<TRANSP> 5
 0.000000e+00 1.000000e+00 0.000000e+00 0.000000e+00 0.000000e+00
 0.000000e+00 7.093537e-01 2.906462e-01 0.000000e+00 0.000000e+00
 0.000000e+00 0.000000e+00 7.985510e-01 2.014490e-01 0.000000e+00
 0.000000e+00 0.000000e+00 0.000000e+00 8.401253e-01 1.598746e-01
 0.000000e+00 0.000000e+00 0.000000e+00 0.000000e+00 0.000000e+00
<ENDHMM>
~h "OH_U"
<BEGINHMM>
<NUMSTATES> 5
<STATE> 2
<NUMMIXES> 2
<MIXTURE> 1 8.216289e-01
<MEAN> 22
 1.642102e+01 1.716556e+01 1.149993e+01 9.993936e+00 5.654240e+01 7.368747e+01 9.153587e+01 9.282639e+01 6.678008e+01 6.728265e+01 1.624415e+02 1.434677e+02 1.119204e+02 1.094906e+02 5.471901e+00 4.038888e+00 5.880386e+00 5.396941e+00 5.317969e+00 4.421278e+00 2.461923e+00 2.730526e+00
<VARIANCE> 22
