~o
<STREAMINFO> 1 23
<VECSIZE> 23<NULLD><MFCC_0><DIAGC>
~h "BN"
<BEGINHMM>
<NUMSTATES> 5
<STATE> 2
<NUMMIXES> 2
<MIXTURE> 1 3.667878e-001
<MEAN> 23
 8.486655e+000 1.479590e+001 5.305484e+000 6.028768e+000 1.133961e+001 2.248398e+001 9.136053e+001 7.929134e+001 5.943576e+001 5.755803e+001 1.896706e+002 1.749206e+002 1.146652e+002 1.114933e+002 6.987422e+000 4.919372e+000 6.070406e+000 5.859701e+000 5.998427e+000 6.037212e+000 2.173013e+000 2.128627e+000 1.170964e+002
<VARIANCE> 23
 2.414200e+003 1.640300e+003 1.951812e+003 1.231475e+003 2.042883e+002 4.192103e+002 2.087510e+002 4.546377e+002 7.158781e+001 6.438564e+001 4.482664e+002 9.256268e+002 1.365168e+002 1.581887e+002 7.845983e-002 1.118611e-001 6.544884e-002 1.206155e-001 2.082488e-002 1.766290e-001 5.422367e+000 3.296008e+000 5.113267e+002
<GCONST> 1.202635e+002
<MIXTURE> 2 6.332122e-001
<MEAN> 23
 6.474789e+000 8.364823e+000 1.683828e+000 2.844479e+000 1.661338e+002 1.747515e+002 6.801528e+001 8.812415e+001 6.634821e+001 7.101330e+001 1.098155e+002 7.038165e+001 8.826083e+001 8.853103e+001 3.199960e+000 2.547199e+000 4.752036e+000 3.790962e+000 4.075395e+000 2.295391e+000 2.240843e+000 2.294512e+000 1.274841e+002
<VARIANCE> 23
 1.420150e+002 2.381104e+002 1.113364e+001 1.727962e+001 3.788688e+004 1.804456e+004 2.075737e+003 2.472735e+003 1.083391e+003 1.301180e+003 5.222537e+003 3.803600e+003 1.844285e+003 1.546614e+003 9.031524e+000 2.429646e+000 7.126504e+000 3.462748e+000 4.141234e+000 5.554279e+000 5.982780e+000 5.469794e+000 6.370239e+003
<GCONST> 1.612579e+002
<STATE> 3
<NUMMIXES> 2
<MIXTURE> 1 4.110207e-001
<MEAN> 23
 1.554055e+000 1.955327e+001 5.248213e-001 4.979626e+000 7.865497e+000 1.320046e+002 1.016666e+002 1.031905e+002 6.267416e+001 8.424612e+001 2.051464e+002 9.049419e+001 1.226376e+002 1.114675e+002 6.999166e+000 3.136910e+000 6.117246e+000 4.680195e+000 5.999170e+000 2.744373e+000 1.841234e+000 3.646419e+000 1.878156e+002
<VARIANCE> 23
 9.610094e+000 3.646129e+002 3.300596e+000 2.757194e+001 9.668140e+001 6.484142e+003 3.579099e+002 1.573559e+003 7.732423e+001 6.113626e+002 7.002465e+002 3.505902e+003 2.408495e+002 1.657712e+002 6.504287e-002 1.396063e+000 1.040534e-001 9.407866e-001 2.082488e-002 5.930559e+000 5.647163e+000 5.398602e+000 3.424577e+003
<GCONST> 1.223473e+002
<MIXTURE> 2 5.889801e-001
<MEAN> 23
 9.041849e-001 4.986789e+000 4.383681e-001 1.655968e+000 1.010247e+001 1.719385e+002 8.656019e+001 1.186098e+002 5.620933e+001 8.845189e+001 1.804580e+002 3.178812e+001 1.096323e+002 9.629425e+001 6.933762e+000 2.062863e+000 6.000115e+000 3.676189e+000 5.962240e+000 1.103208e+000 1.381193e+000 2.648501e+000 1.990805e+002
<VARIANCE> 23
 4.801632e+000 4.470339e+001 3.300596e+000 4.207994e+000 5.962685e+002 9.492039e+002 1.295956e+002 1.984977e+002 5.644452e+001 2.630663e+002 3.926460e+002 3.271729e+002 5.840168e+001 8.094636e+001 3.545927e-001 1.172374e-001 2.245158e-001 4.748576e-001 1.119784e-001 2.953174e-001 4.918120e+000 5.949171e+000 4.118042e+002
<GCONST> 1.040717e+002
<STATE> 4
<NUMMIXES> 2
<MIXTURE> 1 7.787027e-001
<MEAN> 23
 1.095410e+001 1.820589e+000 3.125135e+000 7.452630e-001 1.345092e+002 1.866133e+001 1.116138e+002 9.804390e+001 8.440929e+001 5.782808e+001 7.918697e+001 1.977688e+002 1.054070e+002 1.179492e+002 2.902108e+000 5.000000e+000 3.046896e+000 5.852109e+000 3.698449e+000 5.998274e+000 3.413779e+000 2.113121e+000 1.902698e+002
<VARIANCE> 23
 2.229636e+002 9.615803e+000 2.137092e+001 2.164982e+000 5.937562e+003 6.467305e+002 8.953801e+002 2.417908e+002 3.587866e+002 6.092693e+001 4.874547e+003 4.358368e+002 3.346452e+002 1.424608e+002 5.226414e+000 1.793315e-002 8.865569e+000 1.260142e-001 2.116751e+000 5.618803e-002 6.215788e+000 6.051556e+000 1.996334e+003
<GCONST> 1.233967e+002
<MIXTURE> 2 2.212985e-001
<MEAN> 23
 5.148307e+000 7.743124e+000 1.775664e+000 2.163206e+000 6.314687e+001 3.330602e+001 9.321267e+001 4.746455e+001 8.286315e+001 6.118348e+001 7.720804e+001 1.189268e+002 1.013755e+002 1.046317e+002 3.197300e+000 3.775860e+000 3.283950e+000 5.752426e+000 3.885107e+000 4.280003e+000 2.757299e+000 2.694421e+000 1.088510e+002
<VARIANCE> 23
 7.093042e+001 1.642928e+002 1.046590e+001 1.274640e+001 2.612124e+003 1.583823e+003 1.623414e+003 6.853124e+002 5.205612e+002 8.712544e+001 3.713594e+003 1.142311e+003 1.332235e+002 9.990194e+001 5.351264e+000 1.518512e+000 8.670153e+000 2.995443e-001 1.580424e+000 9.382963e+000 5.950832e+000 6.590076e+000 2.509732e+003
<GCONST> 1.384077e+002
<TRANSP> 5
 0.000000e+000 1.000000e+000 0.000000e+000 0.000000e+000 0.000000e+000
 0.000000e+000 7.819893e-001 2.180107e-001 0.000000e+000 0.000000e+000
 0.000000e+000 0.000000e+000 9.570037e-001 4.299631e-002 0.000000e+000
 0.000000e+000 0.000000e+000 0.000000e+000 9.268106e-001 7.318944e-002
 0.000000e+000 0.000000e+000 0.000000e+000 0.000000e+000 0.000000e+000
<ENDHMM>
~h "BS"
<BEGINHMM>
<NUMSTATES> 5
<STATE> 2
<NUMMIXES> 2
<MIXTURE> 1 4.994184e-001
<MEAN> 23
 1.269674e+001 1.219467e+001 5.095236e+000 4.500823e+000 2.340925e+001 2.309073e+001 8.241343e+001 8.112792e+001 6.336748e+001 5.909500e+001 1.810547e+002 1.797285e+002 1.142541e+002 1.136034e+002 6.968558e+000 4.991475e+000 6.075231e+000 5.915611e+000 5.896918e+000 6.062101e+000 2.868307e+000 1.875363e+000 1.072111e+002
<VARIANCE> 23
 1.440593e+003 1.088428e+003 1.260228e+003 8.249894e+002 4.186382e+002 3.862056e+002 5.526562e+002 4.451883e+002 8.312157e+001 6.494584e+001 6.850038e+002 6.550372e+002 1.646841e+002 1.437469e+002 1.407519e-001 4.686862e-002 6.957130e-002 7.726807e-002 1.188321e-001 1.183857e-001 2.973809e+000 3.727932e+000 7.995517e+002
<GCONST> 1.210564e+002
<MIXTURE> 2 5.005809e-001
<MEAN> 23
 1.999704e+001 1.996558e+001 2.457021e+000 2.798879e+000 1.550845e+002 1.371137e+002 5.348523e+001 5.009850e+001 6.952039e+001 6.808979e+001 1.201707e+002 1.125596e+002 1.101921e+002 1.093238e+002 3.163970e+000 3.489855e+000 5.986605e+000 5.663946e+000 4.293921e+000 3.446705e+000 2.480031e+000 2.340771e+000 7.428834e+001
<VARIANCE> 23
 3.260326e+002 2.991088e+002 9.753181e+000 9.717155e+000 2.436518e+004 1.153997e+004 1.211194e+003 1.065209e+003 2.550746e+002 2.917089e+002 1.884930e+003 1.575390e+003 4.434834e+002 4.015405e+002 7.401791e+000 2.820063e+000 1.141373e+000 9.451110e-001 2.480769e+000 9.839984e+000 4.129192e+000 4.072860e+000 4.703016e+003
<GCONST> 1.476341e+002
<STATE> 3
<NUMMIXES> 2
<MIXTURE> 1 4.645631e-001
<MEAN> 23
 1.389560e+001 1.408632e+001 3.407818e+000 3.307025e+000 1.285400e+002 1.201142e+002 1.462524e+002 1.417445e+002 8.785412e+001 7.791250e+001 1.581664e+002 1.652770e+002 1.162456e+002 1.150104e+002 3.731578e-001 3.781525e+000 4.813126e+000 4.768789e+000 1.982433e+000 3.952337e+000 3.051775e+000 3.986478e+000 2.694652e+002
<VARIANCE> 23
 3.869986e+002 3.956690e+002 1.746091e+001 2.064691e+001 1.464425e+003 1.636385e+003 9.276414e+002 8.139476e+002 1.749161e+002 2.447062e+002 1.932536e+003 1.205137e+003 1.595466e+002 1.262822e+002 2.945174e-001 3.129046e-001 1.041208e+001 2.266986e-001 7.169964e+000 8.353973e-001 6.558124e+000 5.811954e+000 3.442937e+003
<GCONST> 1.356072e+002
<MIXTURE> 2 5.354360e-001
<MEAN> 23
 2.092173e+001 2.159826e+001 3.676470e+000 3.565398e+000 8.769141e+001 9.006213e+001 4.667281e+001 4.785118e+001 6.360791e+001 5.918919e+001 9.617181e+001 9.510195e+001 9.868318e+001 9.958498e+001 2.328527e+000 2.996497e+000 6.153725e+000 5.751962e+000 4.214669e+000 2.771198e+000 2.730051e+000 2.801196e+000 6.192983e+001
<VARIANCE> 23
 3.392687e+002 3.527088e+002 2.335750e+001 1.901000e+001 1.441290e+003 1.204816e+003 6.404818e+002 6.379992e+002 9.769137e+001 9.009756e+001 9.321548e+002 8.259875e+002 8.144791e+001 6.971812e+001 4.827099e+000 2.388504e+000 3.725518e-001 3.671297e-001 1.933448e+000 8.464037e+000 5.277323e+000 4.498654e+000 2.226141e+003
<GCONST> 1.327545e+002
<STATE> 4
<NUMMIXES> 2
<MIXTURE> 1 4.605294e-001
<MEAN> 23
 9.165483e+000 8.809354e+000 2.495848e+000 2.141065e+000 3.367877e+001 3.489842e+001 1.021775e+002 9.947912e+001 6.527616e+001 6.010333e+001 1.939052e+002 1.915549e+002 1.153485e+002 1.147019e+002 6.891353e+000 4.942664e+000 6.428608e+000 5.530879e+000 6.040442e+000 5.847829e+000 3.857699e+000 3.641966e+000 1.473242e+002
<VARIANCE> 23
 8.320662e+001 7.945158e+001 7.336419e+000 5.522039e+000 1.073638e+003 8.451403e+002 5.851771e+002 4.295233e+002 1.028219e+002 8.761237e+001 7.708408e+002 6.649627e+002 1.885972e+002 1.447882e+002 5.219976e-001 1.336181e-001 2.834256e-001 2.496816e-001 1.805407e-001 3.184762e-001 4.482024e+000 8.336194e+000 1.917854e+003
<GCONST> 1.164026e+002
<MIXTURE> 2 5.394710e-001
<MEAN> 23
 6.083342e+000 5.795583e+000 1.674752e+000 1.570229e+000 8.759811e+001 8.690413e+001 1.141292e+002 1.154369e+002 6.710946e+001 6.263669e+001 1.546478e+002 1.535946e+002 1.043786e+002 1.039417e+002 7.846673e-003 4.008595e+000 6.998407e+000 5.000000e+000 3.626334e+000 4.356519e+000 3.007554e+000 3.745860e+000 2.265218e+002
<VARIANCE> 23
 6.075542e+001 5.567394e+001 5.521714e+000 4.854705e+000 6.223619e+002 6.380962e+002 4.810119e+002 4.315535e+002 7.866300e+001 1.118785e+002 3.606508e+002 3.688039e+002 6.626485e+001 7.173869e+001 6.504287e-002 1.793315e-002 2.326111e-002 1.170389e-002 1.190558e+001 2.663145e-001 6.401017e+000 7.447769e+000 1.565547e+003
<GCONST> 1.055806e+002
<TRANSP> 5
 0.000000e+000 1.000000e+000 0.000000e+000 0.000000e+000 0.000000e+000
 0.000000e+000 7.748635e-001 2.251365e-001 0.000000e+000 0.000000e+000
 0.000000e+000 0.000000e+000 9.288462e-001 7.115384e-002 0.000000e+000
 0.000000e+000 0.000000e+000 0.000000e+000 9.453217e-001 5.467832e-002
 0.000000e+000 0.000000e+000 0.000000e+000 0.000000e+000 0.000000e+000
<ENDHMM>
~h "CF"
<BEGINHMM>
<NUMSTATES> 5
<STATE> 2
<NUMMIXES> 2
<MIXTURE> 1 4.129626e-001
<MEAN> 23
 1.600267e+001 3.890475e+000 6.993860e+000 2.461227e+000 1.660944e+002 2.149659e+001 1.198102e+002 1.088461e+002 1.029580e+002 6.318608e+001 5.345190e+001 2.059114e+002 1.013394e+002 1.217944e+002 1.966508e+000 4.996599e+000 2.891720e+000 5.664334e+000 3.338449e+000 5.988173e+000 3.655570e+000 2.508704e+000 2.156439e+002
<VARIANCE> 23
 1.146841e+003 6.569947e+002 8.338467e+002 4.801013e+002 5.324979e+003 6.773968e+002 1.058213e+003 1.803641e+002 5.199518e+002 5.871126e+001 2.243772e+003 2.756255e+002 3.410626e+002 8.494019e+001 1.616149e+000 1.793315e-002 7.040249e+000 2.229940e-001 1.036658e+000 5.618803e-002 6.592515e+000 5.944984e+000 1.363748e+003
<GCONST> 1.348501e+002
<MIXTURE> 2 5.870378e-001
<MEAN> 23
 7.274714e+000 7.966630e+000 2.420367e+000 2.681186e+000 7.014906e+001 8.611388e+001 7.735446e+001 6.561186e+001 7.258227e+001 6.593272e+001 1.084229e+002 9.715981e+001 9.773153e+001 1.011651e+002 3.588698e+000 3.141984e+000 5.030924e+000 5.018034e+000 4.260688e+000 3.275715e+000 2.840183e+000 2.592906e+000 1.074151e+002
<VARIANCE> 23
 1.762197e+002 1.364904e+002 1.477624e+001 1.848730e+001 7.934933e+003 7.316147e+003 2.026411e+003 1.632086e+003 5.514655e+002 5.710129e+002 4.046844e+003 2.812186e+003 6.331227e+002 5.336632e+002 6.860478e+000 2.327624e+000 4.523107e+000 2.119413e+000 2.573693e+000 7.866776e+000 6.031557e+000 5.403621e+000 3.930324e+003
<GCONST> 1.522951e+002
<STATE> 3
<NUMMIXES> 2
<MIXTURE> 1 4.342054e-001
<MEAN> 23
 2.504990e+000 2.162193e+001 9.131238e-001 5.808278e+000 1.255551e+001 1.280149e+002 1.002248e+002 9.698334e+001 6.313468e+001 8.786357e+001 1.980526e+002 9.410054e+001 1.187491e+002 1.040304e+002 6.933205e+000 3.239887e+000 6.219305e+000 4.659235e+000 5.962070e+000 3.018433e+000 2.061451e+000 3.631593e+000 1.781316e+002
<VARIANCE> 23
 2.171532e+001 4.500563e+002 3.300596e+000 4.272326e+001 3.599115e+002 6.960609e+003 4.850668e+002 2.122980e+003 1.057186e+002 6.369157e+002 9.950457e+002 3.418211e+003 2.617937e+002 2.647003e+002 3.384147e-001 1.563122e+000 2.403123e-001 1.917433e+000 9.783503e-002 7.141050e+000 6.129531e+000 5.186050e+000 4.263867e+003
<GCONST> 1.323362e+002
<MIXTURE> 2 5.657934e-001
<MEAN> 23
 8.996079e-001 5.519928e+000 4.449458e-001 2.696504e+000 5.757370e+000 1.921896e+002 8.850663e+001 1.280805e+002 5.632755e+001 1.007715e+002 1.832246e+002 2.999592e+001 1.096365e+002 8.180332e+001 7.000000e+000 2.000000e+000 6.002388e+000 2.881315e+000 5.999996e+000 9.937324e-001 1.375014e+000 2.485672e+000 2.068266e+002
<VARIANCE> 23
 4.801632e+000 6.992669e+001 3.300596e+000 1.372693e+001 4.956259e+001 7.079292e+002 1.401217e+002 3.045213e+002 3.987195e+001 3.537120e+002 2.605586e+002 1.286025e+002 8.008145e+001 2.053701e+002 6.504287e-002 1.793315e-002 2.326111e-002 1.127381e+000 2.082488e-002 5.618803e-002 5.041716e+000 5.790833e+000 5.459247e+002
<GCONST> 9.524039e+001
<STATE> 4
<NUMMIXES> 2
<MIXTURE> 1 4.858369e-001
<MEAN> 23
 7.876634e+000 5.853192e+000 2.422433e+000 2.147312e+000 2.799797e+001 2.481404e+001 8.879516e+001 9.616983e+001 6.452438e+001 6.026504e+001 1.851784e+002 1.935620e+002 1.161803e+002 1.158849e+002 6.347345e+000 5.001360e+000 6.163673e+000 5.711042e+000 5.833272e+000 5.992849e+000 3.239649e+000 3.065687e+000 1.301592e+002
<VARIANCE> 23
 1.332368e+002 6.196072e+001 1.121699e+001 7.462815e+000 7.606345e+002 5.979498e+002 7.153629e+002 3.168037e+002 1.136389e+002 9.378433e+001 1.225776e+003 5.035110e+002 1.912491e+002 1.297735e+002 3.660943e+000 1.793315e-002 1.368859e-001 2.054635e-001 2.127843e-001 5.618803e-002 6.263305e+000 6.296424e+000 8.257401e+002
<GCONST> 1.134722e+002
<MIXTURE> 2 5.141631e-001
<MEAN> 23
 9.901602e+000 1.491811e+000 3.633614e+000 7.627090e-001 1.653597e+002 2.822876e+001 1.225829e+002 9.084150e+001 9.473536e+001 5.554294e+001 3.682374e+001 1.846567e+002 8.037597e+001 1.101977e+002 1.917423e+000 4.936579e+000 2.495420e+000 5.687815e+000 2.989937e+000 5.949498e+000 2.941290e+000 1.926755e+000 2.024087e+002
<VARIANCE> 23
 1.956128e+002 8.040108e+000 2.587029e+001 2.164982e+000 3.282448e+003 1.308863e+003 1.046330e+003 2.860499e+002 3.808306e+002 7.519559e+001 4.561186e+002 5.279140e+002 4.106609e+002 1.014418e+002 2.510531e-001 1.185309e-001 4.411699e+000 2.438638e-001 1.981001e-001 3.116145e-001 5.882700e+000 5.467794e+000 1.329812e+003
<GCONST> 1.192683e+002
<TRANSP> 5
 0.000000e+000 1.000000e+000 0.000000e+000 0.000000e+000 0.000000e+000
 0.000000e+000 8.686818e-001 1.313182e-001 0.000000e+000 0.000000e+000
 0.000000e+000 0.000000e+000 9.520708e-001 4.792916e-002 0.000000e+000
 0.000000e+000 0.000000e+000 0.000000e+000 9.175989e-001 8.240104e-002
 0.000000e+000 0.000000e+000 0.000000e+000 0.000000e+000 0.000000e+000
<ENDHMM>
~h "CN"
<BEGINHMM>
<NUMSTATES> 5
<STATE> 2
<NUMMIXES> 2
<MIXTURE> 1 4.160312e-001
<MEAN> 23
 8.688597e+000 8.162321e+000 2.877423e+000 2.757053e+000 2.118833e+001 2.361600e+001 9.299151e+001 8.890958e+001 6.390561e+001 5.945239e+001 1.922270e+002 1.887598e+002 1.190072e+002 1.171144e+002 6.999179e+000 5.000000e+000 6.132849e+000 5.933951e+000 5.999148e+000 6.013775e+000 2.757468e+000 1.963210e+000 1.171302e+002
<VARIANCE> 23
 5.302501e+002 4.152132e+002 3.717717e+002 2.733885e+002 3.557408e+002 5.105488e+002 5.944249e+002 3.945724e+002 9.220835e+001 6.773594e+001 8.114610e+002 6.484702e+002 2.503202e+002 1.902400e+002 6.504287e-002 1.793315e-002 1.152003e-001 6.168536e-002 2.082488e-002 5.618803e-002 3.255451e+000 3.997677e+000 7.095703e+002
<GCONST> 1.139412e+002
<MIXTURE> 2 5.839685e-001
<MEAN> 23
 2.052126e+001 2.030638e+001 2.553303e+000 2.808723e+000 9.434651e+001 8.931602e+001 4.314791e+001 4.529083e+001 6.548862e+001 6.189022e+001 1.004573e+002 9.973144e+001 1.054465e+002 1.045444e+002 3.044767e+000 3.343613e+000 6.032456e+000 5.878382e+000 4.311131e+000 3.101770e+000 2.647772e+000 2.050797e+000 5.334307e+001
<VARIANCE> 23
 3.214745e+002 3.005098e+002 9.078795e+000 1.062603e+001 3.025422e+003 2.623010e+003 4.512298e+002 6.157936e+002 1.143339e+002 1.040836e+002 1.433950e+003 1.645932e+003 1.563040e+002 1.327745e+002 6.151688e+000 2.103348e+000 1.764872e-001 4.274264e-001 7.594507e-001 9.894531e+000 2.283850e+000 3.126588e+000 1.679380e+003
<GCONST> 1.321242e+002
<STATE> 3
<NUMMIXES> 2
<MIXTURE> 1 4.434683e-001
<MEAN> 23
 9.008424e+000 8.685123e+000 1.129935e+000 1.028034e+000 1.668201e+002 1.596989e+002 8.587187e+001 8.208126e+001 6.877480e+001 6.669148e+001 3.815672e+001 4.354196e+001 1.077106e+002 1.091252e+002 2.039835e+000 1.836274e+000 5.544444e+000 5.858916e+000 3.089928e+000 8.295782e-001 2.961476e+000 2.880124e+000 3.082567e+001
<VARIANCE> 23
 1.557512e+002 1.857098e+002 3.300596e+000 2.164982e+000 1.534072e+003 1.403848e+003 4.302726e+002 5.686851e+002 1.636263e+002 1.689335e+002 3.405206e+002 5.639662e+002 2.221646e+002 1.811775e+002 9.755625e-002 2.139015e-001 1.632297e+000 1.195077e+000 1.170667e-001 2.251836e-001 5.945225e+000 6.030408e+000 4.879457e+002
<GCONST> 1.174284e+002
<MIXTURE> 2 5.565320e-001
<MEAN> 23
 6.214929e+000 7.361923e+000 1.224282e+000 9.785090e-001 1.320703e+002 1.265565e+002 6.201338e+001 6.044009e+001 6.482930e+001 6.190701e+001 4.408075e+001 4.590296e+001 1.003458e+002 1.011557e+002 2.005777e+000 2.000000e+000 6.000007e+000 5.982820e+000 3.220451e+000 7.681231e-001 3.354682e+000 3.287561e+000 1.039801e+001
<VARIANCE> 23
 5.710861e+001 8.825977e+001 3.519212e+000 2.164982e+000 1.180128e+003 9.234045e+002 2.913748e+002 3.348105e+002 5.004760e+001 5.515193e+001 2.253460e+002 2.842946e+002 5.204093e+001 5.102128e+001 6.504287e-002 1.793315e-002 2.326111e-002 3.332494e-002 1.718559e-001 1.781219e-001 6.015953e+000 5.959549e+000 7.579415e+001
<GCONST> 9.559648e+001
<STATE> 4
<NUMMIXES> 2
<MIXTURE> 1 4.053918e-001
<MEAN> 23
 1.090636e+001 1.004103e+001 3.181206e+000 2.748125e+000 3.880509e+001 3.111435e+001 9.887111e+001 9.542882e+001 6.537695e+001 6.094939e+001 1.951950e+002 1.928409e+002 1.164756e+002 1.155634e+002 6.979596e+000 5.001952e+000 6.284550e+000 5.771543e+000 6.001389e+000 5.971217e+000 3.840744e+000 3.751534e+000 1.308457e+002
<VARIANCE> 23
 1.252543e+002 1.056073e+002 9.050500e+000 7.217122e+000 6.401397e+003 3.955685e+003 5.050776e+002 4.048262e+002 9.733502e+001 6.937446e+001 5.545511e+002 5.007125e+002 1.564404e+002 1.211988e+002 6.504287e-002 1.793315e-002 2.035841e-001 1.762652e-001 5.270447e-002 5.684644e-002 7.924944e+000 4.581007e+000 1.562114e+003
<GCONST> 1.114719e+002
<MIXTURE> 2 5.946081e-001
<MEAN> 23
 1.638055e+001 1.567988e+001 2.122015e+000 2.425774e+000 9.808237e+001 9.752156e+001 5.424110e+001 5.223597e+001 6.750126e+001 6.619161e+001 1.103979e+002 1.032450e+002 1.048275e+002 1.063015e+002 3.388653e+000 3.114223e+000 5.958621e+000 5.956691e+000 4.333885e+000 2.787455e+000 4.128592e+000 4.014510e+000 6.835798e+001
<VARIANCE> 23
 4.108739e+002 3.497347e+002 1.014478e+001 1.604633e+001 3.528383e+003 3.072747e+003 1.219827e+003 1.243750e+003 2.197243e+002 1.846947e+002 1.604222e+003 1.754006e+003 3.357826e+002 1.906364e+002 5.330453e+000 3.643600e+000 5.338730e-001 3.899544e-001 1.393243e+000 9.259131e+000 6.908406e+000 5.402833e+000 4.423306e+003
<GCONST> 1.421669e+002
<TRANSP> 5
 0.000000e+000 1.000000e+000 0.000000e+000 0.000000e+000 0.000000e+000
 0.000000e+000 8.410060e-001 1.589940e-001 0.000000e+000 0.000000e+000
 0.000000e+000 0.000000e+000 9.629158e-001 3.708414e-002 0.000000e+000
 0.000000e+000 0.000000e+000 0.000000e+000 9.224451e-001 7.755493e-002
 0.000000e+000 0.000000e+000 0.000000e+000 0.000000e+000 0.000000e+000
<ENDHMM>
~h "CP"
<BEGINHMM>
<NUMSTATES> 5
<STATE> 2
<NUMMIXES> 2
<MIXTURE> 1 8.626531e-001
<MEAN> 23
 1.315234e+001 1.143223e+001 3.675219e+000 3.332271e+000 5.735484e+001 5.282875e+001 1.047524e+002 1.082037e+002 7.539980e+001 6.987195e+001 1.862152e+002 1.903845e+002 1.251702e+002 1.222095e+002 4.225272e+000 4.597193e+000 6.682032e+000 5.390472e+000 5.638343e+000 5.462723e+000 3.323246e+000 3.239252e+000 1.798509e+002
<VARIANCE> 23
 4.642875e+002 3.111466e+002 2.820555e+002 1.639955e+002 1.561852e+003 1.296831e+003 1.017522e+003 9.857336e+002 1.462101e+002 1.574944e+002 1.763314e+003 1.027783e+003 3.257926e+002 1.982206e+002 1.134146e+001 3.039947e-001 2.192094e-001 2.379996e-001 3.013096e+000 7.602236e-001 5.341772e+000 5.313140e+000 3.894552e+003
<GCONST> 1.394903e+002
<MIXTURE> 2 1.373473e-001
<MEAN> 23
 6.899569e+000 3.942970e+000 1.031347e+000 1.031134e+000 3.209923e+002 2.347546e+002 5.749474e+001 4.807660e+001 3.478413e+001 3.222332e+001 4.862674e+001 6.360514e+001 5.138249e+001 5.323660e+001 9.444140e-001 1.628678e+000 1.252476e+000 2.565707e+000 1.164053e+000 1.495544e+000 1.478949e+000 1.525126e+000 8.433073e+001
<VARIANCE> 23
 4.092110e+002 7.173108e+001 4.302539e+000 4.769590e+000 3.066072e+004 2.037056e+004 4.870048e+003 3.713618e+003 1.501800e+003 1.243223e+003 4.113647e+003 5.707877e+003 3.086805e+003 3.148975e+003 2.199675e+000 3.602584e+000 5.492452e+000 7.466815e+000 2.558392e+000 4.978840e+000 5.558692e+000 5.582374e+000 1.360080e+004
<GCONST> 1.613255e+002
<STATE> 3
<NUMMIXES> 2
<MIXTURE> 1 5.596122e-001
<MEAN> 23
 9.577443e+000 9.986493e+000 2.066512e+000 2.239140e+000 4.846468e+001 4.681924e+001 7.366611e+001 7.792124e+001 6.877752e+001 6.665546e+001 1.525482e+002 1.556872e+002 1.073353e+002 1.072958e+002 3.419213e+000 4.439940e+000 6.654008e+000 5.258643e+000 6.009431e+000 5.799069e+000 3.747362e+000 3.635262e+000 1.344232e+002
<VARIANCE> 23
 7.367213e+001 8.447546e+001 5.491652e+000 6.785726e+000 5.385054e+002 4.246867e+002 2.405760e+002 2.757305e+002 1.566747e+002 1.573221e+002 4.719537e+002 4.768942e+002 1.140067e+002 1.127322e+002 1.222540e+001 2.483741e-001 2.262793e-001 1.917474e-001 2.212683e-001 2.526879e-001 5.313075e+000 5.086540e+000 7.541301e+002
<GCONST> 1.149773e+002
<MIXTURE> 2 4.403872e-001
<MEAN> 23
 1.017321e+001 1.042881e+001 2.835050e+000 2.649529e+000 6.499726e+001 5.529834e+001 5.133819e+001 5.290470e+001 6.792111e+001 6.342229e+001 1.122378e+002 1.125298e+002 1.011863e+002 1.004411e+002 8.836102e-001 3.809255e+000 6.615705e+000 5.363674e+000 5.093966e+000 4.914945e+000 3.126005e+000 2.854496e+000 9.571590e+001
<VARIANCE> 23
 1.149985e+002 1.032255e+002 1.492888e+001 1.246620e+001 7.298337e+002 9.419835e+002 2.580074e+002 3.014228e+002 1.087620e+002 1.357807e+002 3.111736e+002 3.052903e+002 8.760450e+001 9.118525e+001 3.759918e+000 6.726856e-001 3.020564e-001 2.569130e-001 1.834650e+000 6.097692e+000 4.998525e+000 4.935862e+000 1.114998e+003
<GCONST> 1.226380e+002
<STATE> 4
<NUMMIXES> 2
<MIXTURE> 1 5.202298e-001
<MEAN> 23
 8.449922e+000 7.749784e+000 2.422385e+000 2.531342e+000 3.507526e+001 3.137256e+001 9.871381e+001 9.923647e+001 6.836426e+001 6.387669e+001 1.951184e+002 1.961776e+002 1.206233e+002 1.206468e+002 6.997108e+000 4.998491e+000 6.295238e+000 5.595112e+000 6.002569e+000 5.956146e+000 3.890264e+000 3.658773e+000 1.419024e+002
<VARIANCE> 23
 6.859801e+001 6.607162e+001 6.880701e+000 7.418551e+000 1.156098e+003 6.913345e+002 3.153631e+002 2.023738e+002 8.833219e+001 7.802804e+001 3.774811e+002 3.174000e+002 1.194621e+002 7.937476e+001 6.504287e-002 1.793315e-002 2.080698e-001 2.409555e-001 2.082488e-002 6.202976e-002 5.764254e+000 5.849597e+000 5.831976e+002
<GCONST> 1.024552e+002
<MIXTURE> 2 4.797694e-001
<MEAN> 23
 5.860219e+000 6.194030e+000 1.247441e+000 1.298121e+000 3.476859e+001 3.225381e+001 6.994072e+001 7.008367e+001 5.901069e+001 5.671810e+001 1.554230e+002 1.562872e+002 1.037489e+002 1.032010e+002 6.124268e+000 4.856346e+000 6.296119e+000 5.631803e+000 5.957425e+000 5.983141e+000 3.599707e+000 3.413454e+000 1.105409e+002
<VARIANCE> 23
 3.271564e+001 3.268990e+001 3.300596e+000 2.164982e+000 6.083021e+002 3.947330e+002 1.627126e+002 2.001371e+002 5.955679e+001 8.890754e+001 2.655343e+002 2.930306e+002 5.842488e+001 6.173661e+001 5.249118e+000 1.896864e-001 2.606370e-001 2.540796e-001 1.335680e-001 1.954830e-001 5.292191e+000 5.459124e+000 5.666036e+002
<GCONST> 1.053583e+002
<TRANSP> 5
 0.000000e+000 1.000000e+000 0.000000e+000 0.000000e+000 0.000000e+000
 0.000000e+000 8.111080e-001 1.888919e-001 0.000000e+000 0.000000e+000
 0.000000e+000 0.000000e+000 9.300089e-001 6.999107e-002 0.000000e+000
 0.000000e+000 0.000000e+000 0.000000e+000 9.358436e-001 6.415636e-002
 0.000000e+000 0.000000e+000 0.000000e+000 0.000000e+000 0.000000e+000
<ENDHMM>
~h "CV"
<BEGINHMM>
<NUMSTATES> 5
<STATE> 2
<NUMMIXES> 2
<MIXTURE> 1 3.855028e-001
<MEAN> 23
 8.926078e+000 9.629658e+000 3.152200e+000 2.974681e+000 2.040774e+001 2.142313e+001 9.026812e+001 8.591872e+001 6.240441e+001 5.809370e+001 1.867866e+002 1.832623e+002 1.154861e+002 1.151122e+002 6.987730e+000 4.993864e+000 6.146098e+000 5.907024e+000 5.993848e+000 6.010921e+000 2.741305e+000 2.274157e+000 1.167597e+002
<VARIANCE> 23
 5.386829e+002 4.740480e+002 5.219065e+002 3.241526e+002 3.685560e+002 3.671330e+002 4.900627e+002 4.396062e+002 7.413543e+001 5.550635e+001 6.635391e+002 6.727922e+002 1.613719e+002 1.391926e+002 6.504287e-002 2.041357e-002 1.247530e-001 8.637589e-002 2.082488e-002 8.850736e-002 3.266066e+000 4.067858e+000 6.082732e+002
<GCONST> 1.137533e+002
<MIXTURE> 2 6.144983e-001
<MEAN> 23
 1.839307e+001 1.806779e+001 3.236362e+000 3.111566e+000 1.018551e+002 9.501228e+001 6.821848e+001 6.988802e+001 6.984628e+001 6.073314e+001 1.050872e+002 1.159875e+002 1.103893e+002 1.082011e+002 2.430138e+000 3.573863e+000 5.995866e+000 5.384165e+000 4.121566e+000 3.630277e+000 2.821133e+000 2.729416e+000 1.099244e+002
<VARIANCE> 23
 4.328586e+002 3.912911e+002 1.438514e+001 1.361390e+001 8.131708e+003 5.769308e+003 1.103744e+003 1.058968e+003 2.311355e+002 1.247557e+002 3.112228e+003 2.742340e+003 3.724091e+002 3.135821e+002 6.678069e+000 1.367229e+000 2.881504e+000 6.881557e-001 2.230757e+000 6.669825e+000 4.338375e+000 4.182972e+000 3.647478e+003
<GCONST> 1.458172e+002
<STATE> 3
<NUMMIXES> 2
<MIXTURE> 1 3.752459e-001
<MEAN> 23
 9.135890e+000 9.156159e+000 2.779341e+000 3.055625e+000 1.676998e+002 1.626083e+002 1.002279e+002 9.889979e+001 7.257419e+001 6.948666e+001 4.841895e+001 5.334613e+001 1.138047e+002 1.138294e+002 1.663993e+000 2.439688e+000 4.486117e+000 4.752871e+000 2.647884e+000 1.509530e+000 3.417727e+000 3.323525e+000 7.509267e+001
<VARIANCE> 23
 1.521133e+002 1.480889e+002 1.630633e+001 2.149515e+001 1.898992e+003 1.531624e+003 5.248151e+002 6.686046e+002 1.323579e+002 1.002079e+002 5.646841e+002 5.298935e+002 2.967856e+002 1.907809e+002 3.952672e-001 3.159558e-001 1.033320e+001 6.969146e-001 3.861295e-001 4.827126e-001 5.489283e+000 5.704477e+000 1.091845e+003
<GCONST> 1.275039e+002
<MIXTURE> 2 6.247540e-001
<MEAN> 23
 6.184653e+000 6.547513e+000 1.261540e+000 1.330039e+000 1.209996e+002 1.216066e+002 6.935828e+001 6.956045e+001 6.072195e+001 5.759067e+001 5.229982e+001 5.264213e+001 9.880867e+001 9.950565e+001 1.363891e+000 2.547736e+000 6.858345e+000 5.193230e+000 2.883429e+000 1.199467e+000 3.489253e+000 3.352049e+000 5.731364e+001
<VARIANCE> 23
 6.408002e+001 6.102493e+001 3.300596e+000 2.642297e+000 1.248359e+003 8.920543e+002 2.376273e+002 2.791077e+002 3.245457e+001 4.437346e+001 2.021196e+002 2.213424e+002 6.175637e+001 6.441762e+001 2.533107e-001 3.036945e-001 1.441376e-001 2.866197e-001 2.372909e-001 2.869378e-001 5.597872e+000 5.967314e+000 3.363675e+002
<GCONST> 1.048919e+002
<STATE> 4
<NUMMIXES> 2
<MIXTURE> 1 5.185472e-001
<MEAN> 23
 1.101682e+001 9.943792e+000 3.080281e+000 2.649354e+000 2.438041e+001 2.372340e+001 9.394979e+001 9.233635e+001 6.424342e+001 5.855192e+001 1.904571e+002 1.902608e+002 1.155175e+002 1.147068e+002 6.989808e+000 5.000956e+000 6.220989e+000 5.827845e+000 6.003369e+000 5.988373e+000 4.245672e+000 4.063120e+000 1.278431e+002
<VARIANCE> 23
 1.198995e+002 1.115048e+002 9.720510e+000 7.621572e+000 5.909495e+002 5.008250e+002 4.738225e+002 3.363420e+002 9.066316e+001 6.738208e+001 6.599951e+002 5.672968e+002 1.747761e+002 1.394011e+002 6.504287e-002 1.793315e-002 1.721555e-001 1.425197e-001 4.503888e-002 5.618803e-002 6.730910e+000 5.027262e+000 9.372267e+002
<GCONST> 1.062294e+002
<MIXTURE> 2 4.814530e-001
<MEAN> 23
 1.570687e+001 1.581309e+001 2.605778e+000 2.965351e+000 7.663374e+001 6.829930e+001 4.161505e+001 4.618647e+001 6.434934e+001 5.960331e+001 1.030690e+002 1.098550e+002 1.025356e+002 1.033842e+002 2.380766e+000 3.488982e+000 6.116586e+000 5.799953e+000 4.444831e+000 3.388160e+000 4.306992e+000 4.231338e+000 6.236314e+001
<VARIANCE> 23
 2.775189e+002 2.596250e+002 1.592559e+001 1.593822e+001 1.316439e+003 1.312419e+003 3.794582e+002 5.492286e+002 9.843897e+001 9.056525e+001 9.915135e+002 1.338064e+003 1.280686e+002 1.109343e+002 6.134721e+000 2.044151e+000 2.121787e-001 2.348252e-001 7.882549e-001 9.935405e+000 5.873941e+000 5.609824e+000 1.780475e+003
<GCONST> 1.309253e+002
<TRANSP> 5
 0.000000e+000 1.000000e+000 0.000000e+000 0.000000e+000 0.000000e+000
 0.000000e+000 8.521830e-001 1.478170e-001 0.000000e+000 0.000000e+000
 0.000000e+000 0.000000e+000 9.475747e-001 5.242525e-002 0.000000e+000
 0.000000e+000 0.000000e+000 0.000000e+000 9.155602e-001 8.443981e-002
 0.000000e+000 0.000000e+000 0.000000e+000 0.000000e+000 0.000000e+000
<ENDHMM>
~h "DC"
<BEGINHMM>
<NUMSTATES> 5
<STATE> 2
<NUMMIXES> 2
<MIXTURE> 1 4.226880e-001
<MEAN> 23
 9.702599e+000 9.233558e+000 3.792851e+000 3.339613e+000 4.233107e+001 4.009805e+001 9.038582e+001 8.695529e+001 6.354284e+001 5.946323e+001 1.884405e+002 1.856380e+002 1.179493e+002 1.169843e+002 6.976844e+000 4.993761e+000 6.180548e+000 5.861809e+000 5.967605e+000 6.006563e+000 2.481880e+000 2.110007e+000 1.195706e+002
<VARIANCE> 23
 9.041724e+002 6.544346e+002 8.422122e+002 5.189529e+002 1.064807e+004 6.674502e+003 6.728644e+002 4.619113e+002 9.931189e+001 6.117011e+001 8.599857e+002 7.377109e+002 2.297264e+002 1.783751e+002 1.308481e-001 1.793315e-002 1.479503e-001 1.190930e-001 7.811446e-002 1.082826e-001 3.105138e+000 3.495142e+000 9.170030e+002
<GCONST> 1.263085e+002
<MIXTURE> 2 5.773110e-001
<MEAN> 23
 1.409996e+001 1.344893e+001 2.826071e+000 2.862742e+000 1.071568e+002 9.918597e+001 4.627879e+001 4.693253e+001 6.518874e+001 6.146284e+001 1.112173e+002 1.144911e+002 1.050187e+002 1.029891e+002 2.084134e+000 3.515635e+000 6.065602e+000 5.549431e+000 4.503061e+000 4.334502e+000 2.523918e+000 2.019284e+000 7.522297e+001
<VARIANCE> 23
 1.616038e+002 1.383329e+002 1.350387e+001 1.321490e+001 1.094520e+004 7.473501e+003 6.848655e+002 7.480261e+002 2.871686e+002 2.223544e+002 1.303883e+003 1.392935e+003 6.521823e+002 5.368433e+002 7.217866e+000 2.127498e+000 1.507946e+000 1.248963e+000 2.078546e+000 9.085649e+000 2.871980e+000 3.199069e+000 2.648832e+003
<GCONST> 1.434821e+002
<STATE> 3
<NUMMIXES> 2
<MIXTURE> 1 4.615681e-001
<MEAN> 23
 1.413506e+001 1.579112e+001 2.955744e+000 3.360246e+000 1.376472e+002 1.353402e+002 6.807507e+001 6.933327e+001 6.907802e+001 6.603774e+001 5.980347e+001 6.025018e+001 9.891103e+001 9.952290e+001 1.937223e+000 2.246900e+000 5.866937e+000 5.694335e+000 3.413838e+000 9.237060e-001 2.729786e+000 2.684379e+000 3.956099e+001
<VARIANCE> 23
 2.782347e+002 3.578643e+002 2.789084e+001 3.238628e+001 2.404166e+003 1.727923e+003 5.998558e+002 6.290016e+002 1.037161e+002 1.536277e+002 5.423467e+002 5.988884e+002 2.027757e+002 2.125789e+002 5.143337e-001 5.101380e-001 8.313999e-001 7.278458e-001 3.330492e-001 1.270732e+000 5.420753e+000 5.445220e+000 7.830395e+002
<GCONST> 1.290529e+002
<MIXTURE> 2 5.384321e-001
<MEAN> 23
 8.878924e+000 9.003628e+000 1.083135e+000 1.164637e+000 1.106050e+002 1.073908e+002 3.125069e+001 3.386041e+001 6.273298e+001 6.036638e+001 7.977032e+001 8.072095e+001 9.924000e+001 9.988737e+001 1.955621e+000 1.989979e+000 6.000037e+000 6.013893e+000 3.993776e+000 2.792402e-002 2.779951e+000 2.470045e+000 2.502937e+001
<VARIANCE> 23
 1.361305e+002 1.242439e+002 3.300596e+000 2.285943e+000 4.892112e+002 5.262130e+002 1.238579e+002 1.369844e+002 7.153426e+001 9.006489e+001 1.915276e+002 1.891723e+002 9.690867e+001 9.558405e+001 6.670165e-001 9.068909e-001 2.326111e-002 1.042122e-001 6.074473e-002 5.618803e-002 5.493969e+000 5.890017e+000 2.895988e+002
<GCONST> 1.015679e+002
<STATE> 4
<NUMMIXES> 2
<MIXTURE> 1 5.576741e-001
<MEAN> 23
 9.829376e+000 9.038328e+000 3.183351e+000 2.826195e+000 2.236919e+001 2.204710e+001 9.661435e+001 9.413541e+001 6.428130e+001 5.981073e+001 1.915931e+002 1.908760e+002 1.148732e+002 1.148668e+002 6.996810e+000 5.001412e+000 6.309783e+000 5.718656e+000 6.013345e+000 5.995718e+000 4.072290e+000 3.891151e+000 1.321421e+002
<VARIANCE> 23
 8.275141e+001 7.853519e+001 8.459985e+000 7.147838e+000 3.619554e+002 3.735840e+002 3.680300e+002 3.250855e+002 9.063684e+001 7.859420e+001 4.933276e+002 4.521534e+002 1.497609e+002 1.227802e+002 6.504287e-002 1.793315e-002 2.138207e-001 2.021868e-001 2.082488e-002 5.618803e-002 7.161418e+000 4.428339e+000 8.872973e+002
<GCONST> 1.032647e+002
<MIXTURE> 2 4.423265e-001
<MEAN> 23
 1.870171e+001 1.865514e+001 2.909438e+000 2.706623e+000 7.383802e+001 6.466738e+001 4.063690e+001 4.438832e+001 6.624986e+001 6.155311e+001 1.240630e+002 1.290335e+002 1.038207e+002 1.039059e+002 3.705586e+000 4.364361e+000 6.111466e+000 5.809429e+000 4.926483e+000 5.807843e+000 4.344223e+000 4.252386e+000 6.105748e+001
<VARIANCE> 23
 3.669477e+002 3.619156e+002 2.154906e+001 1.746495e+001 1.444430e+003 1.151228e+003 4.959431e+002 4.730617e+002 1.239384e+002 1.261610e+002 7.663303e+002 8.228804e+002 1.536510e+002 1.237399e+002 8.951327e+000 1.742917e+000 1.655061e-001 2.097022e-001 7.084755e-001 4.866508e+000 7.223043e+000 4.570518e+000 1.447908e+003
<GCONST> 1.309518e+002
<TRANSP> 5
 0.000000e+000 1.000000e+000 0.000000e+000 0.000000e+000 0.000000e+000
 0.000000e+000 8.678401e-001 1.321599e-001 0.000000e+000 0.000000e+000
 0.000000e+000 0.000000e+000 9.558004e-001 4.419962e-002 0.000000e+000
 0.000000e+000 0.000000e+000 0.000000e+000 9.062436e-001 9.375638e-002
 0.000000e+000 0.000000e+000 0.000000e+000 0.000000e+000 0.000000e+000
<ENDHMM>
~h "FM"
<BEGINHMM>
<NUMSTATES> 5
<STATE> 2
<NUMMIXES> 2
<MIXTURE> 1 3.763329e-001
<MEAN> 23
 9.826991e+000 3.434343e+000 3.976513e+000 1.940388e+000 6.846445e+001 1.054237e+001 7.170161e+001 1.099243e+002 1.060044e+002 6.226629e+001 1.503614e+002 2.130953e+002 1.229972e+002 1.264873e+002 2.098366e+000 4.993867e+000 6.652308e+000 5.867488e+000 5.322566e+000 5.999628e+000 3.371247e+000 1.926896e+000 1.550802e+002
<VARIANCE> 23
 6.654883e+002 5.799631e+002 5.082397e+002 3.265953e+002 8.276971e+002 1.328612e+002 8.064193e+002 1.173937e+002 3.223915e+002 5.837788e+001 1.141290e+003 2.226133e+002 1.024535e+002 6.448505e+001 9.894911e+000 1.793315e-002 2.268010e-001 1.161096e-001 3.154881e-001 5.618803e-002 6.539113e+000 5.799859e+000 3.769211e+002
<GCONST> 1.214733e+002
<MIXTURE> 2 6.236660e-001
<MEAN> 23
 5.927962e+000 3.675610e+000 1.516111e+000 1.124963e+000 5.076849e+001 2.273917e+001 5.660969e+001 6.610658e+001 8.089120e+001 6.058209e+001 1.284865e+002 1.486556e+002 1.022973e+002 1.034400e+002 2.465659e+000 4.486127e+000 6.438997e+000 5.688076e+000 5.295651e+000 5.853817e+000 2.680068e+000 2.185687e+000 1.070977e+002
<VARIANCE> 23
 5.703075e+001 3.854945e+001 4.794100e+000 4.521651e+000 9.811462e+002 6.325176e+002 4.587417e+002 5.940048e+002 3.844264e+002 2.220416e+002 7.652133e+002 1.256673e+003 1.071661e+002 9.569824e+001 1.037025e+001 5.292701e-001 3.490621e-001 2.460922e-001 4.712138e-001 2.477325e+000 6.172586e+000 5.714231e+000 7.639643e+002
<GCONST> 1.228678e+002
<STATE> 3
<NUMMIXES> 2
<MIXTURE> 1 4.318980e-001
<MEAN> 23
 2.304736e+000 8.819333e+000 8.781647e-001 3.150017e+000 1.513593e+001 5.294206e+001 1.063520e+002 8.256417e+001 6.396130e+001 9.210041e+001 2.076022e+002 1.625254e+002 1.216733e+002 1.170383e+002 6.992914e+000 4.471375e+000 6.123044e+000 5.266276e+000 5.993529e+000 6.307038e+000 2.237216e+000 3.271918e+000 1.508032e+002
<VARIANCE> 23
 1.636241e+001 7.384289e+001 3.300596e+000 1.746314e+001 6.494816e+002 1.032236e+003 2.900357e+002 4.771949e+002 6.358097e+001 5.561877e+002 5.186319e+002 9.602136e+002 2.465181e+002 1.238602e+002 6.504287e-002 2.803217e-001 1.432624e-001 2.206235e-001 3.746081e-002 3.155569e-001 6.336460e+000 5.665514e+000 5.106339e+002
<GCONST> 1.105138e+002
<MIXTURE> 2 5.681010e-001
<MEAN> 23
 8.003537e-001 6.012971e+000 3.425846e-001 1.251578e+000 5.716222e+000 6.153594e+001 8.792065e+001 5.041238e+001 5.304824e+001 8.152101e+001 1.825367e+002 1.202046e+002 1.099984e+002 9.862413e+001 6.961908e+000 4.064667e+000 6.003023e+000 5.422137e+000 5.995186e+000 6.290662e+000 1.348810e+000 3.147000e+000 1.228378e+002
<VARIANCE> 23
 4.801632e+000 3.865289e+001 3.300596e+000 2.179756e+000 4.956259e+001 2.803555e+002 6.223796e+001 2.727454e+002 3.689922e+001 1.378885e+002 1.387486e+002 3.974985e+002 4.005685e+001 4.985242e+001 2.559352e-001 2.801339e-001 2.326111e-002 2.439406e-001 2.082488e-002 2.431973e+000 4.900446e+000 5.852435e+000 2.440677e+002
<GCONST> 9.386233e+001
<STATE> 4
<NUMMIXES> 2
<MIXTURE> 1 8.124751e-001
<MEAN> 23
 6.044697e+000 8.831426e+000 1.571823e+000 2.512833e+000 6.485410e+001 7.006106e+001 7.670873e+001 7.891712e+001 6.980965e+001 7.148415e+001 1.680563e+002 1.550674e+002 1.135549e+002 1.127257e+002 5.350656e+000 4.192008e+000 6.168100e+000 5.533734e+000 5.474446e+000 5.238306e+000 2.700964e+000 3.162632e+000 1.204825e+002
<VARIANCE> 23
 1.020706e+002 2.119434e+002 8.270744e+000 1.509469e+001 1.418001e+004 8.263624e+003 1.818497e+003 1.189891e+003 3.414494e+002 4.673422e+002 2.630621e+003 2.274742e+003 5.192453e+002 2.783234e+002 7.240985e+000 1.633642e+000 4.996847e-001 3.010378e-001 7.659341e-001 4.413897e+000 5.742772e+000 6.301380e+000 3.335819e+003
<GCONST> 1.432084e+002
<MIXTURE> 2 1.875244e-001
<MEAN> 23
 2.110702e-001 2.210811e-001 1.853971e-001 1.038778e-001 3.293784e+002 2.587810e+002 4.020989e+000 7.183353e+000 2.217876e+001 1.992357e+001 3.413850e+001 3.378553e+001 3.537444e+001 3.443387e+001 1.115576e+000 1.791402e-001 2.024364e+000 2.024363e+000 1.379760e+000 -5.238881e-014 2.781492e-001 5.258576e-001 6.629831e+000
<VARIANCE> 23
 4.801632e+000 4.063125e+000 3.300596e+000 2.164982e+000 4.606578e+004 2.260435e+004 5.855719e+001 1.157136e+002 9.793275e+002 7.841374e+002 2.340252e+003 2.279624e+003 2.466444e+003 2.335679e+003 3.277513e+000 1.584140e-001 8.048161e+000 8.048121e+000 3.766217e+000 5.618803e-002 1.171039e+000 2.115541e+000 1.157528e+002
<GCONST> 1.290224e+002
<TRANSP> 5
 0.000000e+000 1.000000e+000 0.000000e+000 0.000000e+000 0.000000e+000
 0.000000e+000 9.177958e-001 8.220419e-002 0.000000e+000 0.000000e+000
 0.000000e+000 0.000000e+000 9.543124e-001 4.568754e-002 0.000000e+000
 0.000000e+000 0.000000e+000 0.000000e+000 7.244467e-001 2.755533e-001
 0.000000e+000 0.000000e+000 0.000000e+000 0.000000e+000 0.000000e+000
<ENDHMM>
~h "FN"
<BEGINHMM>
<NUMSTATES> 5
<STATE> 2
<NUMMIXES> 2
<MIXTURE> 1 4.324119e-001
<MEAN> 23
 1.037523e+001 1.409654e+001 6.883978e+000 6.176123e+000 5.926104e+001 5.946585e+001 9.446152e+001 8.371622e+001 6.101168e+001 5.985806e+001 1.925871e+002 1.793130e+002 1.148933e+002 1.137350e+002 6.942657e+000 4.923765e+000 6.091336e+000 5.844411e+000 5.991735e+000 6.004676e+000 2.729604e+000 2.238587e+000 1.194882e+002
<VARIANCE> 23
 2.646760e+003 1.751041e+003 2.272446e+003 1.319655e+003 2.304565e+004 1.377707e+004 2.767398e+002 4.556461e+002 6.781641e+001 6.577591e+001 4.928036e+002 9.153396e+002 1.587726e+002 1.196796e+002 3.052501e-001 1.438486e-001 8.960417e-002 1.545169e-001 2.082488e-002 3.500377e-001 6.875970e+000 4.777359e+000 7.120522e+002
<GCONST> 1.328628e+002
<MIXTURE> 2 5.675876e-001
<MEAN> 23
 7.539322e+000 1.112308e+001 1.839077e+000 2.834032e+000 1.209693e+002 1.605545e+002 7.751849e+001 9.329279e+001 6.626787e+001 6.366249e+001 1.237624e+002 6.432477e+001 9.371400e+001 9.297863e+001 3.674901e+000 2.493875e+000 5.143110e+000 4.154096e+000 4.525599e+000 1.949132e+000 2.340130e+000 2.698018e+000 1.376130e+002
<VARIANCE> 23
 2.228754e+002 2.279940e+002 1.187159e+001 1.549044e+001 2.677945e+004 1.215069e+004 1.877516e+003 1.726179e+003 7.194821e+002 5.746051e+002 5.655763e+003 4.478469e+003 1.742569e+003 1.112396e+003 8.414680e+000 1.860024e+000 5.453472e+000 3.495393e+000 3.413462e+000 4.041707e+000 5.781230e+000 5.446108e+000 5.779505e+003
<GCONST> 1.578047e+002
<STATE> 3
<NUMMIXES> 2
<MIXTURE> 1 3.692207e-001
<MEAN> 23
 2.129902e+000 1.953279e+001 7.050473e-001 4.065738e+000 1.624959e+001 8.451039e+001 9.885255e+001 7.958375e+001 6.180206e+001 7.015514e+001 1.935871e+002 1.218917e+002 1.172547e+002 1.089201e+002 6.847099e+000 3.839770e+000 6.155693e+000 5.326833e+000 5.915308e+000 4.163425e+000 2.084336e+000 4.088845e+000 1.524087e+002
<VARIANCE> 23
 1.556576e+001 3.480919e+002 3.300596e+000 2.651811e+001 1.087420e+003 4.167662e+003 3.923052e+002 1.439165e+003 9.596512e+001 2.186495e+002 1.197261e+003 3.381097e+003 1.908035e+002 1.827915e+002 7.280045e-001 1.453777e+000 5.018454e-001 8.447322e-001 2.368813e-001 6.896761e+000 6.017806e+000 4.920406e+000 2.679067e+003
<GCONST> 1.305067e+002
<MIXTURE> 2 6.307790e-001
<MEAN> 23
 8.441416e-001 1.015934e+001 4.509208e-001 2.664763e+000 5.215510e+000 1.675794e+002 8.913060e+001 1.040363e+002 5.647612e+001 6.662692e+001 1.871845e+002 2.991507e+001 1.108727e+002 9.474452e+001 6.999852e+000 2.105070e+000 6.000005e+000 4.319469e+000 5.999996e+000 1.228371e+000 1.322924e+000 3.269576e+000 1.862818e+002
<VARIANCE> 23
 4.801632e+000 1.333347e+002 3.300596e+000 1.132724e+001 4.956259e+001 1.279498e+003 1.501076e+002 6.832780e+002 3.606909e+001 1.116281e+002 3.499764e+002 3.339950e+002 1.126093e+002 2.043720e+002 6.504287e-002 9.578132e-002 2.326111e-002 1.415022e+000 2.082488e-002 2.521988e-001 4.711483e+000 5.457020e+000 9.913047e+002
<GCONST> 1.013680e+002
<STATE> 4
<NUMMIXES> 2
<MIXTURE> 1 7.536622e-001
<MEAN> 23
 1.063919e+001 2.178879e+000 2.829448e+000 9.282771e-001 1.116920e+002 1.957545e+001 1.049582e+002 9.863661e+001 7.382853e+001 5.752153e+001 1.022784e+002 1.989138e+002 1.062825e+002 1.183893e+002 3.503693e+000 4.998734e+000 4.396170e+000 5.828898e+000 4.068990e+000 5.989148e+000 3.539024e+000 2.130330e+000 1.751207e+002
<VARIANCE> 23
 1.735955e+002 1.248206e+001 1.357784e+001 2.164982e+000 6.125917e+003 7.531532e+002 1.182374e+003 2.427408e+002 2.238658e+002 7.144923e+001 6.540659e+003 4.285442e+002 4.115150e+002 1.357739e+002 6.778533e+000 1.793315e-002 7.387772e+000 1.418251e-001 2.789146e+000 5.618803e-002 6.236348e+000 6.041621e+000 2.374900e+003
<GCONST> 1.241897e+002
<MIXTURE> 2 2.463375e-001
<MEAN> 23
 6.761895e+000 7.162022e+000 1.826434e+000 1.716792e+000 4.775577e+001 3.784871e+001 5.564867e+001 3.835806e+001 6.473081e+001 5.651543e+001 8.410223e+001 1.043453e+002 9.921897e+001 1.004458e+002 3.004971e+000 3.188624e+000 5.647720e+000 5.786618e+000 3.964352e+000 3.068632e+000 2.818785e+000 2.646295e+000 6.026520e+001
<VARIANCE> 23
 1.217052e+002 1.985664e+002 1.046317e+001 7.734722e+000 1.293338e+003 1.114929e+003 1.263584e+003 4.145475e+002 8.300082e+001 4.539711e+001 2.349227e+003 9.649248e+002 1.337554e+002 8.842963e+001 4.580831e+000 2.667394e+000 2.643082e+000 2.518708e-001 9.976500e-001 1.044581e+001 6.384858e+000 6.270208e+000 1.417537e+003
<GCONST> 1.317407e+002
<TRANSP> 5
 0.000000e+000 1.000000e+000 0.000000e+000 0.000000e+000 0.000000e+000
 0.000000e+000 7.327382e-001 2.672618e-001 0.000000e+000 0.000000e+000
 0.000000e+000 0.000000e+000 9.510978e-001 4.890223e-002 0.000000e+000
 0.000000e+000 0.000000e+000 0.000000e+000 9.296293e-001 7.037078e-002
 0.000000e+000 0.000000e+000 0.000000e+000 0.000000e+000 0.000000e+000
<ENDHMM>
~h "FU"
<BEGINHMM>
<NUMSTATES> 5
<STATE> 2
<NUMMIXES> 2
<MIXTURE> 1 7.975653e-001
<MEAN> 23
 9.858090e+000 1.331139e+000 2.400347e+000 6.975517e-001 1.372560e+002 1.894207e+001 1.029106e+002 9.435548e+001 6.516819e+001 5.471820e+001 5.268143e+001 1.918591e+002 9.910079e+001 1.127376e+002 2.575421e+000 5.000000e+000 3.314205e+000 5.846809e+000 3.259833e+000 5.996410e+000 3.228569e+000 1.954358e+000 1.807095e+002
<VARIANCE> 23
 2.430668e+002 4.063125e+000 1.113096e+001 2.164982e+000 4.931064e+003 7.335783e+002 9.619562e+002 1.751907e+002 1.990033e+002 5.454519e+001 3.335312e+003 3.215322e+002 2.238041e+002 1.353168e+002 3.331622e+000 1.793315e-002 7.858586e+000 1.297247e-001 1.491522e+000 5.618803e-002 6.254442e+000 5.689289e+000 1.675160e+003
<GCONST> 1.186988e+002
<MIXTURE> 2 2.024350e-001
<MEAN> 23
 8.417981e+000 9.610945e+000 2.578955e+000 2.434180e+000 5.410965e+001 5.590560e+001 7.787797e+001 5.789034e+001 6.197270e+001 5.681336e+001 9.236804e+001 1.141288e+002 9.879733e+001 1.000430e+002 3.546915e+000 3.693053e+000 5.296258e+000 5.532739e+000 4.166771e+000 4.163719e+000 2.916580e+000 2.826527e+000 1.028611e+002
<VARIANCE> 23
 1.839271e+002 1.617047e+002 2.459845e+001 1.368123e+001 2.867210e+003 2.881758e+003 1.361431e+003 8.879077e+002 1.245447e+002 9.248913e+001 4.171253e+003 2.268439e+003 2.420112e+002 1.397157e+002 6.015927e+000 2.179287e+000 3.933195e+000 6.170889e-001 1.977281e+000 7.616601e+000 5.922494e+000 5.072130e+000 3.491756e+003
<GCONST> 1.418986e+002
<STATE> 3
<NUMMIXES> 2
<MIXTURE> 1 4.224449e-001
<MEAN> 23
 2.122507e+000 1.813361e+001 7.010345e-001 3.325842e+000 7.521548e+000 1.440981e+002 1.034913e+002 9.401208e+001 6.268607e+001 7.011237e+001 2.060966e+002 6.867648e+001 1.220468e+002 1.073197e+002 6.997252e+000 2.793493e+000 6.153556e+000 4.774770e+000 5.998529e+000 2.384454e+000 2.004677e+000 3.133983e+000 1.832126e+002
<VARIANCE> 23
 2.250377e+001 3.599984e+002 3.300596e+000 1.447349e+001 9.849754e+001 5.528358e+003 3.890164e+002 1.675497e+003 8.652570e+001 1.749864e+002 7.657313e+002 3.109315e+003 2.675970e+002 1.891781e+002 6.504287e-002 1.309736e+000 1.299782e-001 1.630002e+000 2.082488e-002 5.192575e+000 6.225852e+000 5.609207e+000 3.029128e+003
<GCONST> 1.222029e+002
<MIXTURE> 2 5.775544e-001
<MEAN> 23
 9.809382e-001 3.808686e+000 5.252193e-001 1.310415e+000 7.617560e+000 1.624844e+002 8.234592e+001 1.031711e+002 5.240810e+001 5.780056e+001 1.744206e+002 2.025891e+001 1.042760e+002 8.942583e+001 6.933853e+000 2.035028e+000 6.015705e+000 4.160386e+000 5.962741e+000 1.305908e+000 1.379980e+000 2.639307e+000 1.770511e+002
<VARIANCE> 23
 4.801632e+000 3.264449e+001 3.300596e+000 2.614184e+000 4.375738e+002 7.523847e+002 8.380973e+001 2.182106e+002 3.472680e+001 9.355112e+001 3.014211e+002 3.274851e+002 5.913371e+001 6.937415e+001 3.622019e-001 9.258606e-002 6.469566e-002 2.209908e+000 1.087212e-001 4.193692e-001 4.870642e+000 6.676615e+000 3.499007e+002
<GCONST> 1.008159e+002
<STATE> 4
<NUMMIXES> 2
<MIXTURE> 1 7.222688e-001
<MEAN> 23
 4.272868e+000 1.292363e+001 1.872661e+000 3.392570e+000 1.448507e+001 2.632550e+001 9.738486e+001 8.658691e+001 6.022730e+001 5.857208e+001 1.953135e+002 1.835069e+002 1.162833e+002 1.126312e+002 6.992796e+000 4.983284e+000 6.111257e+000 5.836982e+000 5.999252e+000 6.055045e+000 2.823994e+000 3.798680e+000 1.224860e+002
<VARIANCE> 23
 2.132403e+002 3.668000e+002 1.489618e+002 1.003600e+002 1.625137e+002 5.172123e+002 2.494607e+002 4.400249e+002 7.493536e+001 9.047073e+001 4.157515e+002 6.774103e+002 1.415080e+002 1.296505e+002 6.504287e-002 4.308782e-002 9.887855e-002 1.364459e-001 2.082488e-002 6.693324e-002 6.711916e+000 5.439776e+000 4.872628e+002
<GCONST> 1.103113e+002
<MIXTURE> 2 2.777313e-001
<MEAN> 23
 5.990665e+000 7.089686e+000 1.466841e+000 2.853916e+000 2.391796e+002 1.962737e+002 6.292972e+001 6.339925e+001 5.067796e+001 5.166774e+001 1.145641e+002 9.066208e+001 8.106934e+001 7.253974e+001 3.644479e+000 2.854318e+000 4.343848e+000 3.868684e+000 3.891181e+000 3.286805e+000 2.198979e+000 2.134427e+000 9.966675e+001
<VARIANCE> 23
 1.497555e+002 2.019920e+002 8.636818e+000 6.026908e+001 4.529930e+004 2.430708e+004 2.400932e+003 2.602802e+003 1.041015e+003 1.212499e+003 7.840497e+003 6.427720e+003 2.710051e+003 2.474167e+003 9.478608e+000 4.608618e+000 7.411529e+000 6.050113e+000 6.094476e+000 8.232350e+000 6.876624e+000 6.389833e+000 6.880344e+003
<GCONST> 1.669278e+002
<TRANSP> 5
 0.000000e+000 1.000000e+000 0.000000e+000 0.000000e+000 0.000000e+000
 0.000000e+000 9.260930e-001 7.390705e-002 0.000000e+000 0.000000e+000
 0.000000e+000 0.000000e+000 9.455891e-001 5.441093e-002 0.000000e+000
 0.000000e+000 0.000000e+000 0.000000e+000 8.391296e-001 1.608704e-001
 0.000000e+000 0.000000e+000 0.000000e+000 0.000000e+000 0.000000e+000
<ENDHMM>
~h "MC"
<BEGINHMM>
<NUMSTATES> 5
<STATE> 2
<NUMMIXES> 2
<MIXTURE> 1 1.424032e-001
<MEAN> 23
 1.727234e+001 3.115195e+001 1.232229e+001 8.446314e+000 1.533706e+002 1.789060e+002 1.126945e+002 6.499031e+001 7.606725e+001 7.798814e+001 1.963584e+002 1.121355e+002 1.328017e+002 1.191128e+002 5.352077e+000 3.163307e+000 6.298492e+000 5.698493e+000 5.289625e+000 2.694666e+000 2.345793e+000 2.962983e+000 1.489648e+002
<VARIANCE> 23
 2.917956e+003 4.268316e+003 2.621256e+003 1.534078e+003 4.734256e+004 2.040321e+004 2.174798e+003 1.237291e+003 2.941314e+002 2.123338e+002 7.791388e+003 3.110413e+003 1.435369e+003 5.207300e+002 6.491014e+000 1.486461e+000 1.035107e+000 5.585666e-001 1.408835e+000 8.406274e+000 6.159917e+000 5.500083e+000 3.896260e+003
<GCONST> 1.668610e+002
<MIXTURE> 2 8.575970e-001
<MEAN> 23
 4.376302e+000 8.593416e+000 1.229308e+000 2.625645e+000 4.833138e+001 6.884290e+001 7.032676e+001 6.135194e+001 7.134512e+001 7.074637e+001 1.508006e+002 1.089006e+002 1.052685e+002 1.036576e+002 4.938167e+000 3.451568e+000 6.285390e+000 5.619637e+000 5.545766e+000 3.356571e+000 2.606086e+000 2.706767e+000 1.065905e+002
<VARIANCE> 23
 4.237425e+001 7.257024e+001 3.300596e+000 9.714307e+000 1.625956e+003 2.037411e+003 6.247462e+002 8.838428e+002 3.112578e+002 3.045190e+002 1.468220e+003 2.831198e+003 2.158527e+002 1.788962e+002 8.776036e+000 1.597028e+000 2.661079e-001 2.712789e-001 7.323326e-001 8.879600e+000 5.990686e+000 5.270805e+000 1.730951e+003
<GCONST> 1.320587e+002
<STATE> 3
<NUMMIXES> 2
<MIXTURE> 1 2.868311e-001
<MEAN> 23
 2.389853e+000 1.395374e+001 7.409521e-001 4.273715e+000 1.017412e+001 1.157496e+002 1.095463e+002 7.871374e+001 6.599957e+001 9.221934e+001 2.130109e+002 1.029707e+002 1.264602e+002 1.133299e+002 6.897297e+000 3.322031e+000 6.173124e+000 5.318223e+000 5.969074e+000 2.540507e+000 2.164571e+000 3.451766e+000 1.698005e+002
<VARIANCE> 23
 1.781587e+001 1.666295e+002 3.300596e+000 2.395290e+001 3.967920e+002 4.008752e+003 3.180711e+002 1.285514e+003 5.741154e+001 6.475411e+002 6.014747e+002 3.149687e+003 1.394509e+002 1.320286e+002 5.889065e-001 1.357856e+000 1.592814e-001 5.606554e-001 6.569940e-002 7.947141e+000 6.069171e+000 5.162301e+000 1.735350e+003
<GCONST> 1.242511e+002
<MIXTURE> 2 7.131699e-001
<MEAN> 23
 1.027777e+000 8.308575e+000 5.669268e-001 2.373389e+000 5.982957e+000 1.007620e+002 8.671084e+001 5.129348e+001 5.278659e+001 7.597227e+001 1.803871e+002 7.723822e+001 1.076753e+002 9.312376e+001 6.999998e+000 2.906924e+000 6.002747e+000 5.745468e+000 6.000000e+000 2.178796e+000 1.642672e+000 3.156082e+000 1.291960e+002
<VARIANCE> 23
 4.801632e+000 5.987787e+001 3.300596e+000 6.453162e+000 4.956259e+001 1.261472e+003 7.762920e+001 4.278500e+002 4.251216e+001 2.439793e+002 1.395657e+002 1.335989e+003 4.841741e+001 1.666104e+002 6.504287e-002 1.099997e+000 2.326111e-002 2.303022e-001 2.082488e-002 8.485829e+000 5.485347e+000 5.092368e+000 5.360654e+002
<GCONST> 1.028376e+002
<STATE> 4
<NUMMIXES> 2
<MIXTURE> 1 7.507017e-001
<MEAN> 23
 8.635386e+000 2.894476e+000 2.703779e+000 1.136452e+000 7.899706e+001 1.652387e+001 6.545293e+001 9.717244e+001 7.568460e+001 5.623972e+001 1.201338e+002 1.958339e+002 1.095240e+002 1.158958e+002 3.287161e+000 4.999998e+000 6.246586e+000 5.807016e+000 4.637474e+000 5.994927e+000 3.266767e+000 2.668102e+000 1.376671e+002
<VARIANCE> 23
 7.819344e+001 1.745460e+001 1.220489e+001 3.318237e+000 2.740927e+003 3.108938e+002 8.850151e+002 2.675338e+002 4.515980e+002 6.069751e+001 3.464990e+003 4.567077e+002 2.650021e+002 1.232864e+002 7.930781e+000 1.793315e-002 2.113395e-001 1.557372e-001 1.327437e+000 5.618803e-002 5.934886e+000 6.296499e+000 9.451249e+002
<GCONST> 1.166212e+002
<MIXTURE> 2 2.492983e-001
<MEAN> 23
 7.636532e+000 6.424706e+000 1.854712e+000 2.081934e+000 6.237330e+001 5.064628e+001 5.071446e+001 3.508381e+001 6.802611e+001 6.045458e+001 7.323554e+001 1.016669e+002 9.591895e+001 9.607451e+001 2.204508e+000 3.170825e+000 5.876034e+000 5.661823e+000 3.735983e+000 4.062388e+000 3.055087e+000 2.705657e+000 6.085561e+001
<VARIANCE> 23
 9.136478e+001 1.382413e+002 4.778563e+000 1.489489e+001 6.390810e+003 4.366218e+003 8.639259e+002 3.413636e+002 2.420473e+002 2.428821e+002 1.796495e+003 8.914275e+002 4.047489e+002 3.823780e+002 2.938114e+000 2.028793e+000 1.423823e+000 1.156678e+000 1.074210e+000 1.078095e+001 6.194859e+000 5.981704e+000 1.222648e+003
<GCONST> 1.383914e+002
<TRANSP> 5
 0.000000e+000 1.000000e+000 0.000000e+000 0.000000e+000 0.000000e+000
 0.000000e+000 8.069931e-001 1.930068e-001 0.000000e+000 0.000000e+000
 0.000000e+000 0.000000e+000 9.585834e-001 4.141653e-002 0.000000e+000
 0.000000e+000 0.000000e+000 0.000000e+000 9.243824e-001 7.561761e-002
 0.000000e+000 0.000000e+000 0.000000e+000 0.000000e+000 0.000000e+000
<ENDHMM>
~h "NU"
<BEGINHMM>
<NUMSTATES> 5
<STATE> 2
<NUMMIXES> 2
<MIXTURE> 1 7.983670e-001
<MEAN> 23
 7.629569e+000 1.237204e+001 2.926958e+000 3.025181e+000 9.083775e+001 9.661739e+001 9.414768e+001 8.003301e+001 6.932117e+001 6.343879e+001 1.744694e+002 1.391296e+002 1.135580e+002 1.140597e+002 5.304430e+000 4.007330e+000 6.284900e+000 5.525686e+000 5.448653e+000 4.036784e+000 2.523310e+000 2.624362e+000 1.415467e+002
<VARIANCE> 23
 6.275392e+002 1.162106e+003 4.581386e+002 2.910830e+002 2.134197e+004 1.287491e+004 1.490517e+003 1.007260e+003 1.757223e+002 1.300849e+002 3.587797e+003 3.421188e+003 9.459930e+002 2.668041e+002 7.131469e+000 1.282479e+000 3.346873e-001 3.925997e-001 1.567336e+000 6.212273e+000 5.882788e+000 4.951125e+000 4.489313e+003
<GCONST> 1.542648e+002
<MIXTURE> 2 2.016328e-001
<MEAN> 23
 5.158180e-042 1.887549e-042 -5.605194e-045 -6.624779e-041 5.315967e+002 4.080165e+002 -1.079227e-038 -1.543551e-038 4.177664e-039 -3.650102e-041 1.853405e-039 -5.869619e-041 2.132880e-039 4.728187e-039 4.753919e-040 4.803651e-042 3.527096e-040 -5.224041e-042 -5.555588e-041 1.026731e-041 -1.401298e-045 5.044674e-044 -1.841194e-039
<VARIANCE> 23
 4.801632e+000 4.063125e+000 3.300596e+000 2.164982e+000 3.309085e+003 2.711519e+003 9.838196e+000 1.115232e+001 2.936353e+000 3.516743e+000 3.745900e+001 4.440890e+001 4.184655e+000 3.870682e+000 6.504287e-002 1.793315e-002 2.326111e-002 1.170389e-002 2.082488e-002 5.618803e-002 6.153807e-002 6.060927e-002 3.735746e+001
<GCONST> 5.676830e+001
<STATE> 3
<NUMMIXES> 2
<MIXTURE> 1 5.480769e-001
<MEAN> 23
 1.514417e+000 1.330213e+001 5.585709e-001 3.350769e+000 8.076601e+000 8.599934e+001 9.931239e+001 7.478071e+001 6.073694e+001 6.681683e+001 1.997203e+002 1.179008e+002 1.186931e+002 1.102834e+002 6.998665e+000 3.806648e+000 6.106847e+000 5.394950e+000 5.999675e+000 3.981022e+000 1.765680e+000 3.474731e+000 1.507770e+002
<VARIANCE> 23
 9.116826e+000 1.721931e+002 3.300596e+000 1.450438e+001 9.001930e+001 3.504346e+003 2.803574e+002 9.387458e+002 6.624229e+001 1.597618e+002 5.402120e+002 2.711006e+003 1.973153e+002 1.686527e+002 6.504287e-002 1.120495e+000 9.543459e-002 4.315082e-001 2.082488e-002 6.494105e+000 5.698377e+000 5.092223e+000 1.856224e+003
<GCONST> 1.156023e+002
<MIXTURE> 2 4.519224e-001
<MEAN> 23
 7.767903e-001 2.964844e+000 3.939832e-001 1.181569e+000 1.118261e+001 1.109303e+002 8.543407e+001 6.632492e+001 5.509539e+001 6.114572e+001 1.777806e+002 6.753870e+001 1.070217e+002 9.784478e+001 6.892536e+000 2.772877e+000 6.051582e+000 5.195107e+000 5.942642e+000 1.243476e+000 1.196677e+000 2.864714e+000 1.497288e+002
<VARIANCE> 23
 4.801632e+000 1.282672e+001 3.300596e+000 2.164982e+000 7.825621e+002 8.928069e+002 1.357150e+002 4.319134e+002 4.383911e+001 6.684740e+001 3.951262e+002 6.151262e+002 6.164568e+001 9.805276e+001 6.101471e-001 2.666199e-001 1.009735e-001 3.169130e-001 1.671915e-001 9.808111e-001 4.381806e+000 6.075034e+000 4.986516e+002
<GCONST> 1.043123e+002
<STATE> 4
<NUMMIXES> 2
<MIXTURE> 1 5.846877e-001
<MEAN> 23
 8.328405e+000 3.459959e+000 2.506507e+000 1.238449e+000 8.231366e+001 1.320596e+001 8.504633e+001 9.811762e+001 7.151813e+001 5.604947e+001 1.292269e+002 1.976776e+002 1.126414e+002 1.171733e+002 3.682445e+000 5.000000e+000 6.094566e+000 5.915775e+000 4.454024e+000 5.996530e+000 3.307675e+000 2.522704e+000 1.524156e+002
<VARIANCE> 23
 1.020580e+002 2.871565e+001 9.905420e+000 3.143218e+000 3.589343e+003 1.965612e+002 7.840786e+002 2.378711e+002 2.509955e+002 6.215735e+001 4.069700e+003 4.033102e+002 2.550626e+002 1.210470e+002 8.951555e+000 1.793315e-002 2.821171e+000 7.713045e-002 2.871279e+000 5.618803e-002 6.253026e+000 6.365905e+000 1.624362e+003
<GCONST> 1.194975e+002
<MIXTURE> 2 4.153118e-001
<MEAN> 23
 4.784756e+000 6.021182e+000 1.244840e+000 2.014333e+000 5.299397e+001 6.872581e+001 5.579644e+001 5.419255e+001 6.619946e+001 5.702956e+001 9.477610e+001 9.223411e+001 1.021271e+002 9.871819e+001 2.287178e+000 3.020354e+000 6.259558e+000 5.403282e+000 3.958663e+000 2.596563e+000 2.638134e+000 2.740476e+000 8.031007e+001
<VARIANCE> 23
 5.772084e+001 9.536458e+001 3.594250e+000 1.137723e+001 1.980513e+003 2.757395e+003 9.392264e+002 8.999579e+002 1.301724e+002 5.433055e+001 1.834023e+003 1.044109e+003 9.937362e+001 1.343345e+002 4.988159e+000 1.323826e+000 1.253275e+000 4.042023e-001 1.658443e+000 7.013670e+000 6.232163e+000 6.334336e+000 2.915980e+003
<GCONST> 1.318993e+002
<TRANSP> 5
 0.000000e+000 1.000000e+000 0.000000e+000 0.000000e+000 0.000000e+000
 0.000000e+000 6.929870e-001 3.070130e-001 0.000000e+000 0.000000e+000
 0.000000e+000 0.000000e+000 9.488031e-001 5.119696e-002 0.000000e+000
 0.000000e+000 0.000000e+000 0.000000e+000 9.203076e-001 7.969240e-002
 0.000000e+000 0.000000e+000 0.000000e+000 0.000000e+000 0.000000e+000
<ENDHMM>
~h "OK"
<BEGINHMM>
<NUMSTATES> 5
<STATE> 2
<NUMMIXES> 2
<MIXTURE> 1 6.167391e-001
<MEAN> 23
 1.517423e+001 3.270782e+000 4.729124e+000 1.648829e+000 1.234595e+002 1.741801e+001 1.071276e+002 9.977811e+001 8.220387e+001 5.541484e+001 8.879504e+001 2.038397e+002 1.122880e+002 1.203741e+002 2.586662e+000 4.997504e+000 4.419923e+000 5.890597e+000 3.590161e+000 5.993639e+000 3.531620e+000 2.318691e+000 1.883440e+002
<VARIANCE> 23
 5.866589e+002 2.658085e+002 3.207956e+002 1.842883e+002 4.748510e+003 4.202066e+002 9.341123e+002 1.932732e+002 2.129815e+002 5.439212e+001 4.581035e+003 2.946119e+002 3.516903e+002 9.877413e+001 5.765961e+000 1.793315e-002 9.568967e+000 9.743430e-002 2.402337e+000 5.618803e-002 5.940812e+000 6.107759e+000 1.597676e+003
<GCONST> 1.323800e+002
<MIXTURE> 2 3.832611e-001
<MEAN> 23
 8.782168e+000 7.261316e+000 2.074142e+000 1.891660e+000 5.267388e+001 5.886435e+001 7.430653e+001 5.212378e+001 6.935988e+001 6.011048e+001 9.367852e+001 1.001447e+002 9.921423e+001 1.012736e+002 2.842072e+000 3.251880e+000 4.808846e+000 5.511343e+000 3.978756e+000 3.623267e+000 3.029161e+000 2.562737e+000 1.017558e+002
<VARIANCE> 23
 1.813813e+002 1.585697e+002 1.628095e+001 1.454190e+001 1.980686e+003 3.228731e+003 1.767667e+003 1.018515e+003 1.375230e+002 1.132480e+002 2.911917e+003 1.546522e+003 3.454713e+002 1.356247e+002 5.491846e+000 1.636498e+000 6.640174e+000 6.318185e-001 2.199466e+000 8.947565e+000 6.554789e+000 5.898485e+000 3.750758e+003
<GCONST> 1.423021e+002
<STATE> 3
<NUMMIXES> 2
<MIXTURE> 1 5.370016e-001
<MEAN> 23
 2.217475e+000 1.686479e+001 7.906139e-001 3.677725e+000 1.152293e+001 8.294520e+001 1.016006e+002 9.098659e+001 6.192390e+001 7.140215e+001 2.036728e+002 1.356538e+002 1.211880e+002 1.144728e+002 6.997573e+000 4.047964e+000 6.113073e+000 5.294606e+000 5.998800e+000 4.417645e+000 2.221323e+000 3.653979e+000 1.588931e+002
<VARIANCE> 23
 1.668003e+001 3.558522e+002 3.300596e+000 1.817475e+001 2.031460e+002 5.367870e+003 3.356213e+002 1.090268e+003 7.966637e+001 2.823736e+002 6.332933e+002 3.684979e+003 2.256027e+002 1.801650e+002 6.504287e-002 1.197607e+000 1.008965e-001 6.014554e-001 2.082488e-002 5.461698e+000 6.325962e+000 5.500553e+000 2.734248e+003
<GCONST> 1.209978e+002
<MIXTURE> 2 4.629987e-001
<MEAN> 23
 1.018493e+000 7.072531e+000 6.405794e-001 2.241416e+000 7.983017e+000 1.451699e+002 8.497589e+001 9.713008e+001 5.264259e+001 6.841505e+001 1.815016e+002 4.647884e+001 1.088628e+002 9.714199e+001 6.943005e+000 2.454612e+000 6.015107e+000 4.520331e+000 5.979599e+000 1.527996e+000 1.599770e+000 3.170663e+000 1.795795e+002
<VARIANCE> 23
 4.801632e+000 8.469329e+001 3.300596e+000 7.713555e+000 3.679180e+002 1.108572e+003 9.562331e+001 4.933708e+002 3.859007e+001 8.530421e+001 2.253873e+002 3.153842e+002 5.114655e+001 8.341830e+001 3.310090e-001 2.801391e-001 4.442912e-002 4.337851e-001 6.008893e-002 4.153581e-001 5.449647e+000 5.855052e+000 6.197272e+002
<GCONST> 1.027005e+002
<STATE> 4
<NUMMIXES> 2
<MIXTURE> 1 9.292071e-001
<MEAN> 23
 8.355751e+000 4.036209e+000 2.347442e+000 1.311269e+000 6.602193e+001 2.598620e+001 8.885909e+001 8.685181e+001 6.273882e+001 5.282972e+001 1.384512e+002 1.837165e+002 1.057724e+002 1.108919e+002 4.721418e+000 4.972353e+000 5.677954e+000 5.897387e+000 4.733812e+000 6.014930e+000 3.041775e+000 2.628019e+000 1.368160e+002
<VARIANCE> 23
 1.328567e+002 5.660302e+001 9.263590e+000 4.442590e+000 3.431268e+003 1.216425e+003 5.004868e+002 2.202590e+002 9.174461e+001 6.481366e+001 4.290770e+003 3.798340e+002 2.196426e+002 9.044405e+001 8.239682e+000 5.078491e-002 3.932373e+000 9.208491e-002 3.259231e+000 5.618803e-002 6.029871e+000 6.344885e+000 1.260999e+003
<GCONST> 1.218593e+002
<MIXTURE> 2 7.079254e-002
<MEAN> 23
 8.562028e-001 9.999951e-001 2.483649e-001 4.183010e-001 4.515296e+002 3.572615e+002 7.567963e+000 6.465835e+000 7.792168e+000 8.244376e+000 1.699268e+001 9.685963e+000 1.335127e+001 1.250936e+001 5.163389e-001 3.267959e-001 7.647029e-001 6.666644e-001 6.274490e-001 6.535954e-002 3.071884e-001 4.313715e-001 1.236786e+001
<VARIANCE> 23
 1.754784e+001 2.146393e+001 3.637638e+000 5.053813e+000 2.658253e+004 1.221723e+004 5.706832e+002 4.924043e+002 4.383198e+002 4.927151e+002 2.370886e+003 7.562440e+002 1.278243e+003 1.115700e+003 2.851030e+000 9.520223e-001 4.140706e+000 3.241818e+000 2.913485e+000 1.133757e-001 1.350074e+000 2.297571e+000 1.732333e+003
<GCONST> 1.351885e+002
<TRANSP> 5
 0.000000e+000 1.000000e+000 0.000000e+000 0.000000e+000 0.000000e+000
 0.000000e+000 8.844764e-001 1.155237e-001 0.000000e+000 0.000000e+000
 0.000000e+000 0.000000e+000 9.385929e-001 6.140709e-002 0.000000e+000
 0.000000e+000 0.000000e+000 0.000000e+000 8.255636e-001 1.744363e-001
 0.000000e+000 0.000000e+000 0.000000e+000 0.000000e+000 0.000000e+000
<ENDHMM>
~h "PF"
<BEGINHMM>
<NUMSTATES> 5
<STATE> 2
<NUMMIXES> 2
<MIXTURE> 1 1.606865e-001
<MEAN> 23
 2.257917e+001 3.057380e+001 1.708168e+001 1.604290e+001 3.820633e+002 3.198864e+002 1.072765e+002 1.061381e+002 6.670290e+001 7.595484e+001 1.989577e+002 1.357226e+002 1.140787e+002 1.131476e+002 6.621502e+000 3.926926e+000 6.215570e+000 4.968302e+000 5.796835e+000 4.220806e+000 3.037234e+000 3.105777e+000 1.716118e+002
<VARIANCE> 23
 6.228036e+003 5.090615e+003 5.300932e+003 3.462497e+003 5.999116e+004 2.352825e+004 7.771571e+002 1.264937e+003 7.129335e+001 2.110962e+002 2.489929e+003 5.764083e+003 4.758541e+002 3.394254e+002 1.669621e+000 1.901288e+000 8.017259e-001 1.086793e+000 6.061445e-001 5.787795e+000 6.320234e+000 6.486073e+000 3.196720e+003
<GCONST> 1.632815e+002
<MIXTURE> 2 8.393130e-001
<MEAN> 23
 6.236549e+000 7.977413e+000 1.447913e+000 2.199516e+000 7.908876e+001 1.269979e+002 8.290182e+001 1.099730e+002 6.996292e+001 7.231379e+001 1.368492e+002 1.034245e+002 1.014810e+002 9.691167e+001 3.938448e+000 3.168672e+000 5.354751e+000 4.516908e+000 4.895322e+000 3.110172e+000 2.403327e+000 2.611178e+000 1.582107e+002
<VARIANCE> 23
 1.124804e+002 1.232918e+002 8.004569e+000 7.654491e+000 1.183006e+004 9.920288e+003 1.658291e+003 2.905591e+003 5.254993e+002 7.268317e+002 4.726299e+003 4.996447e+003 9.584132e+002 6.725479e+002 9.502173e+000 2.147956e+000 4.619833e+000 2.553429e+000 2.674841e+000 5.594693e+000 6.163198e+000 4.924060e+000 6.396596e+003
<GCONST> 1.534650e+002
<STATE> 3
<NUMMIXES> 2
<MIXTURE> 1 4.283832e-001
<MEAN> 23
 2.397699e+000 2.236141e+001 9.383752e-001 4.967628e+000 1.091782e+001 7.085529e+001 9.404005e+001 9.144039e+001 5.906070e+001 6.835436e+001 1.934182e+002 1.431308e+002 1.153704e+002 1.093975e+002 6.995246e+000 4.128650e+000 6.043911e+000 5.319782e+000 5.999156e+000 4.583826e+000 2.319704e+000 3.802933e+000 1.503282e+002
<VARIANCE> 23
 1.466601e+001 4.177236e+002 3.300596e+000 2.777274e+001 1.431033e+002 3.444398e+003 2.104869e+002 8.735576e+002 4.476111e+001 2.468296e+002 3.907522e+002 3.367588e+003 1.229795e+002 1.593319e+002 6.504287e-002 1.103815e+000 4.198177e-002 5.031852e-001 2.082488e-002 4.599031e+000 6.240596e+000 5.436269e+000 1.721705e+003
<GCONST> 1.161610e+002
<MIXTURE> 2 5.716175e-001
<MEAN> 23
 1.104259e+000 7.860492e+000 5.613869e-001 3.139900e+000 1.055792e+001 1.916643e+002 9.244127e+001 1.388549e+002 5.786272e+001 8.612097e+001 1.873074e+002 5.515762e+001 1.127689e+002 9.035055e+001 6.913580e+000 2.404307e+000 6.061891e+000 3.459488e+000 5.951591e+000 1.716446e+000 1.612848e+000 3.253256e+000 2.265125e+002
<VARIANCE> 23
 4.801632e+000 8.137772e+001 3.300596e+000 1.430338e+001 7.323708e+002 1.577367e+003 2.662403e+002 6.335497e+002 7.221190e+001 2.479169e+002 6.914662e+002 9.077197e+002 1.265766e+002 1.994037e+002 4.470380e-001 3.203854e-001 3.039989e-001 5.118409e-001 1.426458e-001 5.014526e-001 5.687823e+000 4.366244e+000 1.137976e+003
<GCONST> 1.151758e+002
<STATE> 4
<NUMMIXES> 2
<MIXTURE> 1 7.552196e-001
<MEAN> 23
 1.187899e+001 1.641228e+000 3.542953e+000 7.745303e-001 1.360571e+002 2.114318e+001 1.311871e+002 9.929418e+001 8.362993e+001 5.658177e+001 1.111590e+002 1.988318e+002 1.041960e+002 1.180553e+002 2.833776e+000 5.000000e+000 3.158308e+000 5.818694e+000 3.406576e+000 5.999075e+000 3.384948e+000 2.313095e+000 2.084304e+002
<VARIANCE> 23
 2.238099e+002 6.005142e+000 2.297045e+001 2.164982e+000 6.458643e+003 8.937835e+002 1.672790e+003 2.070661e+002 4.303850e+002 6.925688e+001 4.575059e+003 3.908055e+002 4.118797e+002 1.287517e+002 6.630397e+000 1.793315e-002 8.501870e+000 1.484330e-001 3.729665e+000 5.618803e-002 6.892219e+000 6.113014e+000 3.821991e+003
<GCONST> 1.258127e+002
<MIXTURE> 2 2.447809e-001
<MEAN> 23
 6.824886e+000 7.291804e+000 2.586128e+000 2.351045e+000 5.657363e+001 2.779991e+001 8.392188e+001 4.681243e+001 7.742255e+001 5.796375e+001 9.355775e+001 1.169250e+002 9.874918e+001 1.031973e+002 2.805170e+000 3.482244e+000 4.275344e+000 5.625496e+000 3.748714e+000 3.482482e+000 2.741741e+000 2.787167e+000 9.831915e+001
<VARIANCE> 23
 1.368098e+002 1.333151e+002 2.260829e+001 1.270730e+001 2.092917e+003 7.454427e+002 3.304096e+003 7.855132e+002 3.725354e+002 6.755481e+001 2.479592e+003 1.154845e+003 2.640336e+002 8.249013e+001 4.905622e+000 2.065411e+000 6.417080e+000 2.943806e-001 1.769643e+000 9.520700e+000 6.562126e+000 6.318775e+000 4.347539e+003
<GCONST> 1.396404e+002
<TRANSP> 5
 0.000000e+000 1.000000e+000 0.000000e+000 0.000000e+000 0.000000e+000
 0.000000e+000 6.647843e-001 3.352158e-001 0.000000e+000 0.000000e+000
 0.000000e+000 0.000000e+000 9.550493e-001 4.495071e-002 0.000000e+000
 0.000000e+000 0.000000e+000 0.000000e+000 9.161578e-001 8.384218e-002
 0.000000e+000 0.000000e+000 0.000000e+000 0.000000e+000 0.000000e+000
<ENDHMM>
~h "PR"
<BEGINHMM>
<NUMSTATES> 5
<STATE> 2
<NUMMIXES> 2
<MIXTURE> 1 7.747917e-001
<MEAN> 23
 9.845145e+000 1.271696e+001 4.658179e+000 5.227012e+000 3.459484e+001 7.016718e+001 8.610789e+001 9.570586e+001 7.305659e+001 6.621275e+001 1.668806e+002 1.408937e+002 1.104814e+002 1.088368e+002 4.674226e+000 4.034252e+000 6.391098e+000 5.247612e+000 5.538056e+000 4.387375e+000 2.503404e+000 3.028808e+000 1.566157e+002
<VARIANCE> 23
 1.413317e+003 1.129220e+003 1.077077e+003 7.061254e+002 1.484028e+003 4.079378e+003 1.260550e+003 1.146020e+003 3.332084e+002 2.313531e+002 3.200091e+003 2.707967e+003 8.432010e+002 4.433170e+002 9.712084e+000 1.122585e+000 3.897990e-001 6.635005e-001 1.440776e+000 3.934726e+000 6.133625e+000 5.758197e+000 3.628193e+003
<GCONST> 1.544872e+002
<MIXTURE> 2 2.252081e-001
<MEAN> 23
 2.551074e+000 2.238920e+000 8.895179e-001 8.617160e-001 3.563989e+002 2.659370e+002 5.249032e+001 4.168333e+001 3.177040e+001 2.906674e+001 5.772041e+001 6.573858e+001 4.672952e+001 4.614786e+001 1.647602e+000 1.800880e+000 1.360518e+000 2.353259e+000 1.710940e+000 1.914284e+000 1.050951e+000 1.041253e+000 8.939045e+001
<VARIANCE> 23
 4.062445e+001 2.741319e+001 4.378309e+000 4.491984e+000 3.085510e+004 2.341146e+004 3.659169e+003 2.765642e+003 1.297004e+003 1.088345e+003 6.128947e+003 6.703958e+003 2.691953e+003 2.831131e+003 7.188529e+000 4.613831e+000 6.203448e+000 7.229342e+000 5.390781e+000 7.226467e+000 3.715303e+000 3.939164e+000 1.070585e+004
<GCONST> 1.592607e+002
<STATE> 3
<NUMMIXES> 2
<MIXTURE> 1 5.405676e-001
<MEAN> 23
 1.556014e+000 1.240264e+001 6.781128e-001 3.916811e+000 1.150090e+001 8.566676e+001 1.019209e+002 8.882741e+001 6.247523e+001 6.994041e+001 2.023219e+002 1.266633e+002 1.197331e+002 1.113036e+002 6.999071e+000 3.813720e+000 6.118631e+000 5.158577e+000 5.999647e+000 3.925633e+000 2.010623e+000 3.678102e+000 1.688556e+002
<VARIANCE> 23
 7.781338e+000 1.805427e+002 3.300596e+000 2.261348e+001 3.566949e+002 2.945537e+003 2.421634e+002 8.274622e+002 5.757880e+001 1.694693e+002 4.124367e+002 2.056877e+003 1.518304e+002 1.541991e+002 6.504287e-002 7.919481e-001 1.045583e-001 3.691462e-001 2.082488e-002 4.434342e+000 6.223012e+000 5.931541e+000 1.903588e+003
<GCONST> 1.153596e+002
<MIXTURE> 2 4.594325e-001
<MEAN> 23
 8.743361e-001 6.206026e+000 4.109783e-001 2.350917e+000 8.502533e+000 1.086856e+002 8.252129e+001 8.277522e+001 5.410307e+001 5.809871e+001 1.724742e+002 8.052671e+001 1.049955e+002 9.353334e+001 6.850225e+000 3.122315e+000 6.049142e+000 4.935409e+000 5.930459e+000 2.710160e+000 1.296944e+000 3.495874e+000 1.614348e+002
<VARIANCE> 23
 4.801632e+000 5.680567e+001 3.300596e+000 9.286987e+000 3.783607e+002 1.140864e+003 9.308341e+001 4.619839e+002 4.117235e+001 7.313844e+001 3.191528e+002 1.057675e+003 5.169925e+001 1.100480e+002 8.654180e-001 4.186223e-001 7.128960e-002 2.655394e-001 2.448820e-001 2.519150e+000 4.703290e+000 6.821921e+000 7.263330e+002
<GCONST> 1.089239e+002
<STATE> 4
<NUMMIXES> 2
<MIXTURE> 1 7.060454e-001
<MEAN> 23
 8.714882e+000 2.345593e+000 2.545020e+000 1.053763e+000 7.005661e+001 1.575203e+001 8.396659e+001 9.573653e+001 6.919398e+001 5.540562e+001 1.272516e+002 1.945708e+002 1.093082e+002 1.153703e+002 3.272149e+000 5.000300e+000 6.600248e+000 5.847486e+000 4.242122e+000 5.997894e+000 3.539492e+000 2.283974e+000 1.528057e+002
<VARIANCE> 23
 1.151537e+002 1.341136e+001 1.105481e+001 2.421678e+000 2.588509e+003 2.774718e+002 5.996152e+002 1.952993e+002 2.235953e+002 6.193206e+001 3.520125e+003 3.507326e+002 2.286795e+002 1.070962e+002 9.130251e+000 1.793315e-002 2.410078e-001 1.292510e-001 3.795618e+000 5.618803e-002 5.855358e+000 6.046670e+000 1.191786e+003
<GCONST> 1.155509e+002
<MIXTURE> 2 2.939544e-001
<MEAN> 23
 9.485241e+000 4.803382e+000 2.434897e+000 1.280782e+000 5.351147e+001 2.997933e+001 7.840258e+001 5.255974e+001 7.485102e+001 5.908838e+001 9.440147e+001 1.263340e+002 1.029062e+002 1.003605e+002 2.068259e+000 3.790025e+000 5.244956e+000 5.640059e+000 3.373702e+000 4.629839e+000 2.654277e+000 2.469994e+000 1.162784e+002
<VARIANCE> 23
 1.736667e+002 7.178657e+001 1.263738e+001 6.114526e+000 2.042256e+003 8.926774e+002 1.740589e+003 1.007775e+003 1.532754e+002 5.452391e+001 1.189053e+003 1.247967e+003 1.252147e+002 9.601424e+001 5.066518e+000 1.245168e+000 6.979309e+000 2.808912e-001 2.507891e+000 7.396630e+000 5.834746e+000 6.442824e+000 4.553950e+003
<GCONST> 1.349645e+002
<TRANSP> 5
 0.000000e+000 1.000000e+000 0.000000e+000 0.000000e+000 0.000000e+000
 0.000000e+000 6.697701e-001 3.302299e-001 0.000000e+000 0.000000e+000
 0.000000e+000 0.000000e+000 9.493503e-001 5.064974e-002 0.000000e+000
 0.000000e+000 0.000000e+000 0.000000e+000 9.176873e-001 8.231276e-002
 0.000000e+000 0.000000e+000 0.000000e+000 0.000000e+000 0.000000e+000
<ENDHMM>
~h "SP"
<BEGINHMM>
<NUMSTATES> 5
<STATE> 2
<NUMMIXES> 2
<MIXTURE> 1 5.347788e-001
<MEAN> 23
 8.583554e+000 1.756163e+001 5.926644e+000 6.578002e+000 1.198632e+001 2.898288e+001 9.463811e+001 8.114233e+001 6.092990e+001 5.906438e+001 1.929258e+002 1.720802e+002 1.169833e+002 1.128905e+002 6.993359e+000 4.767646e+000 6.100850e+000 5.690493e+000 5.993563e+000 5.975222e+000 2.157007e+000 2.115996e+000 1.245690e+002
<VARIANCE> 23
 2.956980e+003 1.912842e+003 2.467811e+003 1.464566e+003 1.997100e+002 5.768340e+002 3.491336e+002 4.865027e+002 9.064780e+001 7.212580e+001 6.344085e+002 1.332377e+003 2.001377e+002 1.943633e+002 6.504287e-002 2.120243e-001 1.305120e-001 2.163678e-001 2.498428e-002 3.154273e-001 5.814675e+000 3.227194e+000 5.964265e+002
<GCONST> 1.262473e+002
<MIXTURE> 2 4.652211e-001
<MEAN> 23
 5.001739e+000 7.839005e+000 1.648918e+000 3.022557e+000 1.774781e+002 1.930401e+002 5.820713e+001 8.424532e+001 5.844397e+001 6.269550e+001 9.259743e+001 6.335765e+001 7.487609e+001 7.289450e+001 1.839449e+000 2.221050e+000 4.354827e+000 3.061505e+000 3.834845e+000 1.796443e+000 1.777660e+000 1.974256e+000 1.262050e+002
<VARIANCE> 23
 1.347250e+002 2.033869e+002 1.513231e+001 3.254944e+001 4.698992e+004 1.893968e+004 2.094775e+003 3.555631e+003 1.461461e+003 1.736229e+003 4.783595e+003 3.301258e+003 2.089376e+003 2.027093e+003 7.748664e+000 2.639887e+000 9.296350e+000 4.340922e+000 6.435620e+000 4.414201e+000 5.267640e+000 5.010778e+000 8.667988e+003
<GCONST> 1.641032e+002
<STATE> 3
<NUMMIXES> 2
<MIXTURE> 1 4.048493e-001
<MEAN> 23
 1.925921e+000 1.950560e+001 7.120735e-001 5.175450e+000 1.801042e+001 1.525768e+002 1.055340e+002 1.206307e+002 6.646616e+001 8.883414e+001 1.994721e+002 9.231532e+001 1.204465e+002 1.045393e+002 6.832277e+000 3.030290e+000 6.213344e+000 4.178436e+000 5.921620e+000 2.737373e+000 1.979555e+000 3.830429e+000 2.140230e+002
<VARIANCE> 23
 1.625938e+001 4.813418e+002 3.300596e+000 4.103397e+001 1.232999e+003 7.475657e+003 6.313572e+002 2.107567e+003 1.481587e+002 7.128462e+002 1.435609e+003 2.322177e+003 3.240582e+002 2.651260e+002 8.835879e-001 1.108977e+000 6.968097e-001 1.160725e+000 3.109204e-001 4.252023e+000 5.999642e+000 5.768137e+000 4.341413e+003
<GCONST> 1.361976e+002
<MIXTURE> 2 5.951507e-001
<MEAN> 23
 8.031919e-001 6.470716e+000 3.819929e-001 3.049041e+000 5.684072e+000 1.878457e+002 8.788531e+001 1.346189e+002 5.670539e+001 8.749111e+001 1.817563e+002 4.476895e+001 1.081650e+002 8.682282e+001 7.000000e+000 2.111404e+000 6.002832e+000 3.251453e+000 6.000000e+000 1.444935e+000 1.357741e+000 2.660271e+000 2.169184e+002
<VARIANCE> 23
 4.801632e+000 8.115960e+001 3.300596e+000 1.994595e+001 4.956259e+001 9.325881e+002 1.083896e+002 3.381716e+002 3.270249e+001 3.331938e+002 2.310982e+002 1.656135e+002 6.877985e+001 1.252648e+002 6.504287e-002 9.899195e-002 2.326111e-002 2.681654e-001 2.082488e-002 2.478177e-001 4.967782e+000 5.916805e+000 5.830021e+002
<GCONST> 9.694392e+001
<STATE> 4
<NUMMIXES> 2
<MIXTURE> 1 7.802230e-001
<MEAN> 23
 1.123802e+001 2.761420e+000 3.702972e+000 1.038415e+000 1.304052e+002 1.630807e+001 1.230163e+002 9.641476e+001 8.773251e+001 5.716348e+001 1.040890e+002 1.936543e+002 9.807925e+001 1.153914e+002 3.231956e+000 5.000000e+000 3.390248e+000 5.812993e+000 3.881332e+000 5.988027e+000 3.298975e+000 2.220852e+000 1.955977e+002
<VARIANCE> 23
 2.905996e+002 2.670155e+001 4.605369e+001 3.359317e+000 7.967846e+003 6.380660e+002 1.366582e+003 2.120847e+002 5.574164e+002 5.409086e+001 4.395040e+003 3.660770e+002 4.344324e+002 1.110462e+002 6.517211e+000 1.793315e-002 7.807785e+000 1.520396e-001 3.091625e+000 5.618803e-002 6.363117e+000 6.216614e+000 3.229870e+003
<GCONST> 1.277095e+002
<MIXTURE> 2 2.197770e-001
<MEAN> 23
 7.523242e+000 4.420388e+000 2.731882e+000 1.700953e+000 7.327512e+001 2.783193e+001 1.017855e+002 4.107788e+001 8.896327e+001 5.915391e+001 7.953916e+001 1.058674e+002 9.530821e+001 1.019643e+002 2.460285e+000 3.323521e+000 3.576504e+000 5.668295e+000 3.563341e+000 2.822909e+000 3.067830e+000 2.264354e+000 1.110502e+002
<VARIANCE> 23
 1.162058e+002 1.086586e+002 1.940456e+001 9.381405e+000 2.303597e+003 9.707633e+002 3.081555e+003 4.584647e+002 6.790651e+002 6.172331e+001 1.787460e+003 7.419471e+002 2.288349e+002 9.118931e+001 3.485963e+000 1.462820e+000 6.999039e+000 3.325702e-001 1.186112e+000 9.993549e+000 6.572248e+000 6.303668e+000 3.887544e+003
<GCONST> 1.373236e+002
<TRANSP> 5
 0.000000e+000 1.000000e+000 0.000000e+000 0.000000e+000 0.000000e+000
 0.000000e+000 7.344343e-001 2.655657e-001 0.000000e+000 0.000000e+000
 0.000000e+000 0.000000e+000 9.537169e-001 4.628311e-002 0.000000e+000
 0.000000e+000 0.000000e+000 0.000000e+000 9.309452e-001 6.905485e-002
 0.000000e+000 0.000000e+000 0.000000e+000 0.000000e+000 0.000000e+000
<ENDHMM>
~h "ST"
<BEGINHMM>
<NUMSTATES> 5
<STATE> 2
<NUMMIXES> 2
<MIXTURE> 1 1.652308e-001
<MEAN> 23
 1.711541e+001 2.429725e+001 1.099974e+001 8.088152e+000 1.798292e+002 2.005703e+002 1.272454e+002 9.300737e+001 7.998886e+001 8.056224e+001 2.208426e+002 1.281202e+002 1.359022e+002 1.243839e+002 6.207227e+000 3.378200e+000 6.671365e+000 5.844667e+000 5.684319e+000 3.227817e+000 2.410901e+000 2.939372e+000 1.783052e+002
<VARIANCE> 23
 3.126995e+003 3.196177e+003 2.774547e+003 1.670390e+003 5.415436e+004 2.312143e+004 1.794678e+003 8.287866e+002 2.650191e+002 2.658100e+002 5.628671e+003 5.877506e+003 1.236186e+003 3.678817e+002 3.760440e+000 2.546210e+000 3.011864e-001 5.442805e-001 6.079030e-001 7.492808e+000 6.881954e+000 6.253547e+000 2.459477e+003
<GCONST> 1.639398e+002
<MIXTURE> 2 8.347694e-001
<MEAN> 23
 5.170825e+000 7.620952e+000 1.213805e+000 2.039732e+000 7.276286e+001 8.166451e+001 7.584087e+001 7.768378e+001 6.856909e+001 7.108338e+001 1.388941e+002 1.118460e+002 1.047672e+002 1.068056e+002 4.413193e+000 3.400145e+000 5.987152e+000 5.527334e+000 4.909685e+000 3.145273e+000 2.757952e+000 2.668056e+000 1.169330e+002
<VARIANCE> 23
 6.774323e+001 1.089215e+002 3.357972e+000 7.736501e+000 1.031669e+004 6.004571e+003 9.412120e+002 1.028970e+003 4.087342e+002 5.079336e+002 3.214156e+003 4.968755e+003 6.855669e+002 5.705058e+002 8.659288e+000 2.392784e+000 1.917675e+000 1.267317e+000 2.758389e+000 7.738341e+000 6.420175e+000 5.689631e+000 2.705260e+003
<GCONST> 1.463475e+002
<STATE> 3
<NUMMIXES> 2
<MIXTURE> 1 5.076775e-001
<MEAN> 23
 2.046959e+000 1.424549e+001 7.884391e-001 3.194309e+000 1.351072e+001 9.777385e+001 1.004591e+002 7.606627e+001 6.235139e+001 7.980086e+001 2.017777e+002 1.048861e+002 1.195869e+002 1.126546e+002 6.993736e+000 3.442228e+000 6.129332e+000 5.691707e+000 5.996074e+000 3.370934e+000 1.899297e+000 3.244277e+000 1.495286e+002
<VARIANCE> 23
 1.380105e+001 2.094657e+002 3.300596e+000 1.405817e+001 5.590441e+002 4.204688e+003 2.498831e+002 7.419235e+002 5.818882e+001 4.647017e+002 4.626193e+002 4.270468e+003 1.607689e+002 1.229790e+002 6.504287e-002 1.928826e+000 1.225639e-001 4.675141e-001 2.082488e-002 8.299891e+000 5.666874e+000 5.551047e+000 1.462086e+003
<GCONST> 1.195173e+002
<MIXTURE> 2 4.923223e-001
<MEAN> 23
 7.080601e-001 7.134079e+000 3.008420e-001 1.201100e+000 6.533878e+000 1.268876e+002 8.474410e+001 6.147905e+001 5.504107e+001 7.918253e+001 1.798366e+002 5.065074e+001 1.090046e+002 9.884916e+001 6.945946e+000 2.079170e+000 6.003939e+000 5.988057e+000 5.980247e+000 3.858820e-001 1.190737e+000 2.741934e+000 1.376602e+002
<VARIANCE> 23
 4.801632e+000 7.992810e+001 3.300596e+000 2.164982e+000 1.349730e+002 7.424774e+002 7.430356e+001 3.887423e+002 2.835189e+001 1.636717e+002 2.355185e+002 4.682054e+002 3.981731e+001 5.312727e+001 3.005886e-001 1.524488e-001 2.326111e-002 2.194495e-001 4.222113e-002 4.813525e-001 4.394022e+000 5.931052e+000 4.368346e+002
<GCONST> 9.676762e+001
<STATE> 4
<NUMMIXES> 2
<MIXTURE> 1 7.675970e-001
<MEAN> 23
 1.068657e+001 1.464443e+000 2.418799e+000 6.207588e-001 1.063455e+002 1.747413e+001 7.870583e+001 9.908734e+001 8.539585e+001 5.714305e+001 8.786962e+001 1.997937e+002 1.098856e+002 1.188189e+002 2.908972e+000 4.999943e+000 6.003873e+000 5.902892e+000 4.119959e+000 5.993141e+000 3.276581e+000 1.965944e+000 1.569993e+002
<VARIANCE> 23
 1.466422e+002 5.605030e+000 1.007492e+001 2.164982e+000 3.798763e+003 7.016143e+002 7.196663e+002 1.865002e+002 3.749858e+002 4.641236e+001 4.499428e+003 3.590346e+002 2.829941e+002 1.200880e+002 5.335810e+000 1.793315e-002 1.551373e+000 8.767778e-002 1.491628e+000 5.618803e-002 6.068376e+000 5.749063e+000 9.090849e+002
<GCONST> 1.167053e+002
<MIXTURE> 2 2.324027e-001
<MEAN> 23
 6.919722e+000 7.832929e+000 1.355725e+000 2.687812e+000 3.500275e+001 3.052723e+001 6.429434e+001 4.864564e+001 6.945866e+001 5.900610e+001 1.016313e+002 1.268547e+002 1.034178e+002 1.026333e+002 3.317515e+000 4.103899e+000 6.094433e+000 5.786423e+000 4.422157e+000 5.252498e+000 2.750668e+000 2.905456e+000 8.585281e+001
<VARIANCE> 23
 7.496873e+001 1.166466e+002 3.300596e+000 1.477633e+001 8.903311e+002 9.660287e+002 8.333367e+002 7.047372e+002 1.463293e+002 8.260261e+001 3.894957e+003 1.332981e+003 1.323283e+002 9.185124e+001 7.243369e+000 1.260355e+000 4.715743e-001 2.345871e-001 1.603275e+000 6.302892e+000 5.979896e+000 6.404912e+000 1.650079e+003
<GCONST> 1.298275e+002
<TRANSP> 5
 0.000000e+000 1.000000e+000 0.000000e+000 0.000000e+000 0.000000e+000
 0.000000e+000 7.435333e-001 2.564668e-001 0.000000e+000 0.000000e+000
 0.000000e+000 0.000000e+000 9.568762e-001 4.312380e-002 0.000000e+000
 0.000000e+000 0.000000e+000 0.000000e+000 9.170525e-001 8.294752e-002
 0.000000e+000 0.000000e+000 0.000000e+000 0.000000e+000 0.000000e+000
<ENDHMM>
~h "TT"
<BEGINHMM>
<NUMSTATES> 5
<STATE> 2
<NUMMIXES> 2
<MIXTURE> 1 5.178611e-001
<MEAN> 23
 2.158802e+001 5.069835e+000 8.296005e+000 3.032291e+000 2.229895e+002 9.015805e+000 1.736172e+002 1.065477e+002 1.239440e+002 6.125045e+001 1.019508e+002 2.043493e+002 1.061271e+002 1.205864e+002 1.338111e+000 4.997444e+000 1.436806e+000 5.904085e+000 2.484392e+000 5.988071e+000 3.693105e+000 2.339114e+000 2.754330e+002
<VARIANCE> 23
 1.829514e+003 1.068034e+003 1.239087e+003 7.889106e+002 3.210871e+003 1.307867e+002 1.445552e+003 2.624796e+002 5.316434e+002 1.036319e+002 1.122382e+003 3.815218e+002 3.163565e+002 1.325279e+002 5.902542e-001 1.793315e-002 3.732015e+000 8.671480e-002 1.267212e+000 5.618803e-002 5.635431e+000 6.540338e+000 2.116736e+003
<GCONST> 1.338174e+002
<MIXTURE> 2 4.821398e-001
<MEAN> 23
 8.657625e+000 1.061953e+001 2.532078e+000 3.417059e+000 4.786033e+001 8.424479e+001 8.046012e+001 1.062663e+002 6.941400e+001 7.811945e+001 1.649693e+002 1.447968e+002 1.108867e+002 1.095931e+002 5.169064e+000 3.994437e+000 6.263193e+000 5.008940e+000 5.627840e+000 4.274817e+000 2.993139e+000 2.668493e+000 1.509624e+002
<VARIANCE> 23
 1.388416e+002 2.414689e+002 1.634811e+001 2.555631e+001 2.703555e+003 7.316452e+003 1.286655e+003 2.260572e+003 2.017375e+002 9.226945e+002 2.252883e+003 2.892490e+003 2.703963e+002 2.162230e+002 8.281863e+000 1.546778e+000 4.684670e-001 1.482770e+000 6.859107e-001 5.381267e+000 6.922070e+000 4.965092e+000 5.152103e+003
<GCONST> 1.447860e+002
<STATE> 3
<NUMMIXES> 2
<MIXTURE> 1 5.081797e-001
<MEAN> 23
 2.131881e+000 2.433881e+001 8.539051e-001 7.240796e+000 1.043349e+001 1.230308e+002 1.024229e+002 1.269789e+002 6.333812e+001 9.131836e+001 2.020620e+002 1.392776e+002 1.208725e+002 1.106943e+002 6.994890e+000 3.739290e+000 6.153770e+000 4.610106e+000 5.998075e+000 3.952070e+000 2.185288e+000 3.851239e+000 2.044787e+002
<VARIANCE> 23
 1.483038e+001 4.923065e+002 3.300596e+000 6.764610e+001 1.581537e+002 9.750753e+003 4.991435e+002 2.586592e+003 1.368714e+002 1.285857e+003 7.743528e+002 2.412268e+003 2.469033e+002 2.472619e+002 6.504287e-002 1.120653e+000 1.301234e-001 1.107425e+000 2.082488e-002 4.061111e+000 5.987369e+000 5.053876e+000 6.397096e+003
<GCONST> 1.275802e+002
<MIXTURE> 2 4.918206e-001
<MEAN> 23
 1.450457e+000 9.534972e+000 6.861594e-001 4.039621e+000 1.017829e+001 2.193272e+002 8.919659e+001 1.708788e+002 5.581276e+001 1.220432e+002 1.829274e+002 8.375269e+001 1.096197e+002 8.907456e+001 6.961634e+000 2.371981e+000 6.041404e+000 3.091684e+000 5.987525e+000 1.600446e+000 1.776933e+000 3.523546e+000 2.562750e+002
<VARIANCE> 23
 7.953781e+000 8.533678e+001 3.300596e+000 2.646820e+001 3.576866e+002 9.290533e+002 1.445420e+002 5.132280e+002 6.715099e+001 3.742429e+002 2.602523e+002 4.353580e+002 7.239235e+001 2.179820e+002 2.055691e-001 2.553292e-001 9.928852e-002 1.519840e-001 4.760864e-002 3.233239e-001 5.605401e+000 5.754547e+000 7.655511e+002
<GCONST> 1.074254e+002
<STATE> 4
<NUMMIXES> 2
<MIXTURE> 1 7.386227e-001
<MEAN> 23
 1.455641e+001 2.157727e+000 5.095182e+000 1.030985e+000 1.348214e+002 2.703139e+001 1.361993e+002 9.610732e+001 9.552067e+001 5.569682e+001 1.218026e+002 1.933132e+002 1.018965e+002 1.152889e+002 2.868012e+000 5.000029e+000 3.371240e+000 5.833517e+000 3.630820e+000 5.990420e+000 3.351552e+000 2.355963e+000 2.107061e+002
<VARIANCE> 23
 3.440129e+002 1.106100e+001 5.882429e+001 2.164982e+000 8.148105e+003 9.340109e+002 2.187178e+003 2.221780e+002 1.006167e+003 4.953263e+001 3.054293e+003 4.031066e+002 3.809159e+002 1.289692e+002 6.978566e+000 1.793315e-002 8.526155e+000 1.387665e-001 3.795858e+000 5.618803e-002 5.533811e+000 6.219930e+000 4.488795e+003
<GCONST> 1.284361e+002
<MIXTURE> 2 2.613771e-001
<MEAN> 23
 1.034290e+001 6.212265e+000 4.345555e+000 2.474596e+000 1.293830e+002 6.958170e+001 8.988039e+001 3.910589e+001 8.674769e+001 5.409122e+001 9.152491e+001 1.016423e+002 8.661659e+001 9.177699e+001 2.106449e+000 3.015438e+000 3.695130e+000 5.128774e+000 3.415070e+000 2.628712e+000 2.753525e+000 2.214812e+000 1.082190e+002
<VARIANCE> 23
 2.527662e+002 1.199604e+002 5.068074e+001 2.280706e+001 1.895222e+004 1.466487e+004 5.145427e+003 1.326948e+003 2.155694e+003 5.247635e+002 2.372819e+003 2.387739e+003 1.148849e+003 1.113680e+003 4.513783e+000 3.021895e+000 7.406462e+000 3.618253e+000 2.969395e+000 1.008154e+001 6.321875e+000 6.044024e+000 7.123868e+003
<GCONST> 1.601882e+002
<TRANSP> 5
 0.000000e+000 1.000000e+000 0.000000e+000 0.000000e+000 0.000000e+000
 0.000000e+000 8.345325e-001 1.654675e-001 0.000000e+000 0.000000e+000
 0.000000e+000 0.000000e+000 9.534256e-001 4.657435e-002 0.000000e+000
 0.000000e+000 0.000000e+000 0.000000e+000 9.193558e-001 8.064421e-002
 0.000000e+000 0.000000e+000 0.000000e+000 0.000000e+000 0.000000e+000
<ENDHMM>
~h "VA"
<BEGINHMM>
<NUMSTATES> 5
<STATE> 2
<NUMMIXES> 2
<MIXTURE> 1 4.557304e-001
<MEAN> 23
 1.840053e+001 1.276427e+001 8.478469e+000 5.245236e+000 1.039222e+002 5.760601e+001 1.164848e+002 9.608049e+001 8.634138e+001 6.478336e+001 1.510835e+002 1.818536e+002 1.112722e+002 1.145378e+002 4.214489e+000 4.696283e+000 4.908412e+000 5.594551e+000 4.604630e+000 5.747763e+000 2.995236e+000 2.531799e+000 1.751945e+002
<VARIANCE> 23
 2.018770e+003 1.567262e+003 1.334606e+003 8.023927e+002 1.586914e+004 7.637831e+003 3.243464e+003 8.251447e+002 9.709209e+002 2.670429e+002 5.081176e+003 1.635845e+003 4.785450e+002 2.461302e+002 8.605355e+000 4.644391e-001 6.562017e+000 4.374689e-001 3.388312e+000 1.086158e+000 5.635232e+000 5.416514e+000 6.867709e+003
<GCONST> 1.606070e+002
<MIXTURE> 2 5.442702e-001
<MEAN> 23
 6.110898e+000 1.184913e+001 2.782617e+000 4.251678e+000 1.634360e+002 2.281216e+002 7.824995e+001 1.169909e+002 6.543523e+001 8.976521e+001 1.153630e+002 6.438226e+001 8.334533e+001 7.825169e+001 3.130048e+000 2.012665e+000 4.483136e+000 3.231640e+000 4.048921e+000 1.144051e+000 2.449979e+000 2.612341e+000 1.415228e+002
<VARIANCE> 23
 1.172438e+002 2.189017e+002 2.728740e+001 3.142561e+001 3.525459e+004 9.285394e+003 3.247306e+003 5.892113e+003 1.338998e+003 2.394636e+003 6.567181e+003 1.933207e+003 2.384062e+003 1.549281e+003 9.062091e+000 1.067223e+000 7.310082e+000 3.199446e+000 4.896631e+000 7.898805e-001 6.228396e+000 5.071505e+000 9.482539e+003
<GCONST> 1.613952e+002
<STATE> 3
<NUMMIXES> 2
<MIXTURE> 1 5.696394e-001
<MEAN> 23
 1.925883e+000 2.013752e+001 8.203238e-001 7.184110e+000 8.545732e+000 8.654266e+001 9.135103e+001 8.760111e+001 5.725791e+001 7.976822e+001 1.888501e+002 1.183695e+002 1.130869e+002 1.001379e+002 6.995914e+000 3.767693e+000 6.040596e+000 5.239787e+000 5.999306e+000 4.069771e+000 2.049990e+000 3.719619e+000 1.520450e+002
<VARIANCE> 23
 1.001885e+001 3.752678e+002 3.300596e+000 5.135790e+001 9.020129e+001 3.781272e+003 2.233445e+002 8.000833e+002 6.728783e+001 4.510642e+002 4.242505e+002 3.919737e+003 1.254322e+002 4.118104e+002 6.504287e-002 1.371029e+000 3.894760e-002 5.950919e-001 2.082488e-002 6.687220e+000 5.983237e+000 5.209706e+000 1.632409e+003
<GCONST> 1.186507e+002
<MIXTURE> 2 4.303595e-001
<MEAN> 23
 2.757055e+000 9.263358e+000 1.474595e+000 3.717857e+000 1.506194e+001 2.223399e+002 9.059144e+001 1.695271e+002 5.630700e+001 1.157490e+002 1.847236e+002 8.182775e+001 1.119317e+002 7.897940e+001 6.832534e+000 2.352279e+000 6.046284e+000 3.101784e+000 5.907954e+000 1.761342e+000 2.299239e+000 3.288241e+000 2.546154e+002
<VARIANCE> 23
 2.356382e+001 1.103466e+002 1.123717e+001 1.878188e+001 8.841452e+002 2.706106e+003 4.134086e+002 1.336446e+003 1.366257e+002 5.379922e+002 1.026390e+003 1.117250e+003 2.170311e+002 3.489854e+002 8.982890e-001 3.562811e-001 3.350364e-001 6.065855e-001 2.084869e-001 6.730638e-001 6.271988e+000 5.464639e+000 2.034974e+003
<GCONST> 1.262454e+002
<STATE> 4
<NUMMIXES> 2
<MIXTURE> 1 7.546141e-001
<MEAN> 23
 1.467525e+001 2.879890e+000 5.251402e+000 1.369441e+000 1.384166e+002 1.766550e+001 1.350621e+002 9.828233e+001 9.955125e+001 5.598837e+001 1.237867e+002 1.962675e+002 9.758952e+001 1.159755e+002 3.116477e+000 5.002709e+000 3.706674e+000 5.846020e+000 3.799305e+000 5.987090e+000 3.342704e+000 2.487392e+000 2.096883e+002
<VARIANCE> 23
 2.956746e+002 2.451743e+001 4.278250e+001 5.185394e+000 8.595614e+003 5.705096e+002 2.827488e+003 2.241755e+002 8.917802e+002 8.930886e+001 4.442862e+003 3.632065e+002 5.313445e+002 1.278178e+002 7.110857e+000 1.793315e-002 8.635058e+000 1.302716e-001 3.709265e+000 5.618803e-002 6.015588e+000 6.321051e+000 5.010065e+003
<GCONST> 1.306797e+002
<MIXTURE> 2 2.453860e-001
<MEAN> 23
 7.020055e+000 5.889679e+000 3.038232e+000 2.544643e+000 7.676654e+001 3.631668e+001 9.546294e+001 4.455166e+001 8.624690e+001 5.617391e+001 7.153906e+001 1.019438e+002 9.181863e+001 1.014420e+002 2.134676e+000 3.004845e+000 3.720421e+000 5.544683e+000 3.308655e+000 2.692842e+000 2.988152e+000 2.554139e+000 1.025268e+002
<VARIANCE> 23
 1.057342e+002 1.702434e+002 2.409360e+001 2.010696e+001 2.904950e+003 1.156642e+003 3.836924e+003 4.127630e+002 3.682794e+002 1.034217e+002 1.090456e+003 5.836146e+002 4.245036e+002 1.030626e+002 1.317462e+000 1.385335e+000 6.826813e+000 2.983075e-001 8.794863e-001 8.212543e+000 6.261125e+000 6.171016e+000 4.282044e+003
<GCONST> 1.374591e+002
<TRANSP> 5
 0.000000e+000 1.000000e+000 0.000000e+000 0.000000e+000 0.000000e+000
 0.000000e+000 7.336378e-001 2.663622e-001 0.000000e+000 0.000000e+000
 0.000000e+000 0.000000e+000 9.443293e-001 5.567076e-002 0.000000e+000
 0.000000e+000 0.000000e+000 0.000000e+000 9.203794e-001 7.962058e-002
 0.000000e+000 0.000000e+000 0.000000e+000 0.000000e+000 0.000000e+000
<ENDHMM>
~h "VQ"
<BEGINHMM>
<NUMSTATES> 5
<STATE> 2
<NUMMIXES> 2
<MIXTURE> 1 1.368755e-001
<MEAN> 23
 2.747375e+001 3.712208e+001 1.965961e+001 2.054645e+001 7.609789e+001 1.497542e+002 8.205026e+001 1.033928e+002 6.473222e+001 6.667576e+001 1.481658e+002 6.901981e+001 9.925616e+001 9.167983e+001 4.995311e+000 2.786030e+000 5.568453e+000 4.361489e+000 5.252097e+000 2.451519e+000 2.848654e+000 3.162897e+000 1.591537e+002
<VARIANCE> 23
 8.123491e+003 5.955175e+003 6.454540e+003 4.114196e+003 1.983952e+004 7.635440e+003 1.310031e+003 1.306556e+003 2.600136e+002 3.065339e+002 3.160627e+003 2.001352e+003 7.397895e+002 4.111046e+002 7.961071e+000 1.006224e+000 3.437141e+000 1.138456e+000 2.044468e+000 2.961551e+000 6.732579e+000 4.523289e+000 3.866382e+003
<GCONST> 1.667430e+002
<MIXTURE> 2 8.631237e-001
<MEAN> 23
 1.127046e+001 4.032613e+000 3.626433e+000 1.553935e+000 9.569698e+001 2.839419e+001 9.594878e+001 6.983422e+001 7.702214e+001 5.576592e+001 8.838197e+001 1.498785e+002 9.782979e+001 1.085299e+002 2.528170e+000 4.053027e+000 3.878756e+000 5.644907e+000 3.470628e+000 4.600020e+000 3.410734e+000 2.603241e+000 1.429528e+002
<VARIANCE> 23
 1.992474e+002 3.877683e+001 2.258767e+001 6.434266e+000 5.494831e+003 8.063757e+002 2.586764e+003 1.038416e+003 2.975550e+002 7.122335e+001 3.190376e+003 2.532288e+003 3.777751e+002 1.391015e+002 4.603935e+000 1.796909e+000 8.601257e+000 2.626370e-001 2.570214e+000 6.017687e+000 6.062115e+000 5.918808e+000 6.045243e+003
<GCONST> 1.409998e+002
<STATE> 3
<NUMMIXES> 2
<MIXTURE> 1 5.248663e-001
<MEAN> 23
 2.629268e+000 1.933822e+001 8.622949e-001 5.630680e+000 8.786596e+000 1.056511e+002 9.900858e+001 9.751134e+001 6.001971e+001 7.268369e+001 2.003134e+002 1.185079e+002 1.197383e+002 1.047069e+002 6.998239e+000 3.706611e+000 6.117691e+000 4.994045e+000 5.998929e+000 3.971954e+000 2.190738e+000 3.816545e+000 1.720231e+002
<VARIANCE> 23
 2.192043e+001 3.245096e+002 3.300596e+000 5.231511e+001 1.008216e+002 7.463369e+003 4.184395e+002 2.100066e+003 8.625372e+001 3.768166e+002 7.685986e+002 3.160413e+003 2.524618e+002 2.731707e+002 6.504287e-002 1.356696e+000 1.038406e-001 1.135775e+000 2.082488e-002 5.484285e+000 6.199776e+000 4.940323e+000 4.487254e+003
<GCONST> 1.248391e+002
<MIXTURE> 2 4.751332e-001
<MEAN> 23
 1.103700e+000 6.079254e+000 6.986308e-001 3.092069e+000 1.054298e+001 1.615840e+002 8.363953e+001 1.131428e+002 5.264339e+001 7.350674e+001 1.781640e+002 4.531078e+001 1.069217e+002 8.168706e+001 6.929429e+000 2.408188e+000 6.042928e+000 4.126150e+000 5.954051e+000 1.767845e+000 1.643982e+000 3.485435e+000 1.931784e+002
<VARIANCE> 23
 4.801632e+000 3.866570e+001 3.300596e+000 1.502479e+001 7.221049e+002 1.419581e+003 1.743422e+002 6.216982e+002 6.069992e+001 1.841261e+002 4.265688e+002 4.581988e+002 8.371461e+001 2.469063e+002 3.774740e-001 3.056146e-001 2.112627e-001 6.524374e-001 1.484631e-001 3.974500e-001 5.293630e+000 6.174692e+000 9.626874e+002
<GCONST> 1.116589e+002
<STATE> 4
<NUMMIXES> 2
<MIXTURE> 1 9.140592e-001
<MEAN> 23
 1.060825e+001 2.890136e+000 4.090032e+000 1.202364e+000 1.015047e+002 2.250036e+001 1.066995e+002 9.447544e+001 7.609985e+001 5.362460e+001 1.034915e+002 1.926566e+002 9.944188e+001 1.141858e+002 3.091379e+000 4.999718e+000 4.079374e+000 5.858421e+000 3.780926e+000 5.995382e+000 3.561013e+000 2.441310e+000 1.778574e+002
<VARIANCE> 23
 1.701626e+002 2.549479e+001 3.357172e+001 3.960259e+000 5.317072e+003 9.336035e+002 9.884851e+002 1.980140e+002 4.564498e+002 6.480952e+001 4.664610e+003 3.063279e+002 4.082715e+002 1.191846e+002 7.365964e+000 1.793315e-002 9.077866e+000 1.215363e-001 3.473234e+000 5.618803e-002 5.832261e+000 6.147856e+000 2.492927e+003
<GCONST> 1.262394e+002
<MIXTURE> 2 8.594080e-002
<MEAN> 23
 2.983750e+000 3.925336e+000 1.432594e+000 1.544314e+000 4.011975e+002 3.161887e+002 3.568668e+001 3.419462e+001 2.459430e+001 2.529783e+001 4.645784e+001 3.332569e+001 3.712772e+001 3.800662e+001 1.574744e+000 1.199952e+000 1.931334e+000 1.847467e+000 1.558551e+000 9.543562e-001 9.376004e-001 1.542888e+000 4.922881e+001
<VARIANCE> 23
 7.263036e+001 9.455462e+001 1.354273e+001 1.553047e+001 4.886498e+004 2.136695e+004 2.677315e+003 2.473717e+003 1.023526e+003 1.095820e+003 5.152685e+003 2.564568e+003 2.377163e+003 2.444274e+003 6.863505e+000 2.696844e+000 8.309569e+000 5.802279e+000 5.372987e+000 2.980782e+000 3.508581e+000 5.748541e+000 5.019229e+003
<GCONST> 1.599218e+002
<TRANSP> 5
 0.000000e+000 1.000000e+000 0.000000e+000 0.000000e+000 0.000000e+000
 0.000000e+000 8.399166e-001 1.600834e-001 0.000000e+000 0.000000e+000
 0.000000e+000 0.000000e+000 9.445765e-001 5.542353e-002 0.000000e+000
 0.000000e+000 0.000000e+000 0.000000e+000 8.923107e-001 1.076892e-001
 0.000000e+000 0.000000e+000 0.000000e+000 0.000000e+000 0.000000e+000
<ENDHMM>
~h "SIL"
<BEGINHMM>
<NUMSTATES> 5
<STATE> 2
<NUMMIXES> 2
<MIXTURE> 1 1.631061e-001
<MEAN> 23
 4.890919e+002 4.128711e+002 4.448874e+002 3.565467e+002 8.860675e-001 1.256639e+000 3.970890e+001 3.900675e+001 2.808521e+001 2.656508e+001 7.771635e+001 7.470239e+001 4.935131e+001 4.862338e+001 2.756277e+000 1.994585e+000 2.642052e+000 2.529478e+000 2.483561e+000 2.335438e+000 4.665786e+000 4.662820e+000 5.322678e+001
<VARIANCE> 23
 6.673690e+003 4.145612e+003 4.676923e+003 3.362670e+003 6.626282e+001 1.566165e+002 2.348346e+003 2.294724e+003 1.092088e+003 1.015200e+003 8.565790e+003 8.148275e+003 3.231710e+003 3.133120e+003 1.120805e+001 5.745724e+000 9.252542e+000 8.406826e+000 8.297828e+000 8.445799e+000 4.024276e+000 4.057819e+000 4.685259e+003
<GCONST> 1.728492e+002
<MIXTURE> 2 8.368940e-001
<MEAN> 23
 7.811558e-039 4.304733e-040 -1.948662e-037 -3.089622e-037 3.661409e+001 2.963471e+001 -8.407791e-045 1.050974e-043 1.135052e-043 -9.192518e-043 -4.498168e-043 5.605194e-045 1.513402e-043 -2.172013e-043 -2.900688e-043 0.000000e+000 -2.802597e-045 0.000000e+000 -4.273960e-043 3.643376e-044 1.450002e-039 -1.941807e-039 1.401298e-045
<VARIANCE> 23
 4.801632e+000 4.063125e+000 3.300596e+000 2.164982e+000 1.817519e+004 1.195246e+004 9.838196e+000 1.115232e+001 2.936353e+000 3.516743e+000 3.745900e+001 4.440890e+001 4.184655e+000 3.870682e+000 6.504287e-002 1.793315e-002 2.326111e-002 1.170389e-002 2.082488e-002 5.618803e-002 6.153807e-002 6.060927e-002 3.735746e+001
<GCONST> 5.995511e+001
<STATE> 3
<NUMMIXES> 2
<MIXTURE> 1 7.767599e-001
<MEAN> 23
 1.453477e+000 1.872614e+000 6.141137e-001 7.679182e-001 8.070687e+000 1.001034e+001 1.017019e+002 9.821318e+001 6.390774e+001 5.962927e+001 1.991915e+002 1.968611e+002 1.190223e+002 1.176925e+002 6.999687e+000 5.000010e+000 6.129001e+000 5.905230e+000 6.001875e+000 5.999315e+000 1.997313e+000 2.018156e+000 1.313987e+002
<VARIANCE> 23
 5.346583e+000 7.574419e+000 3.300596e+000 2.164982e+000 7.404762e+001 1.267442e+002 3.500742e+002 2.229246e+002 1.026994e+002 7.859943e+001 5.760732e+002 4.245029e+002 2.030445e+002 1.388054e+002 6.504287e-002 1.793315e-002 1.124170e-001 8.566041e-002 2.082488e-002 5.618803e-002 5.642686e+000 5.619277e+000 4.772645e+002
<GCONST> 9.147786e+001
<MIXTURE> 2 2.232434e-001
<MEAN> 23
 8.883100e+000 1.132552e+001 2.249807e+000 2.844136e+000 5.427573e+001 6.159319e+001 8.161951e+001 7.901452e+001 6.961574e+001 6.422076e+001 1.447466e+002 1.406912e+002 1.085988e+002 1.088749e+002 4.563215e+000 4.071219e+000 5.905115e+000 5.524654e+000 5.048508e+000 4.538668e+000 2.468605e+000 2.473228e+000 1.307316e+002
<VARIANCE> 23
 1.808040e+002 2.171153e+002 1.478136e+001 1.616781e+001 2.850804e+003 2.844331e+003 1.399370e+003 1.278289e+003 2.727201e+002 2.086880e+002 3.576799e+003 3.579229e+003 3.930384e+002 2.206743e+002 8.478796e+000 1.680230e+000 2.167310e+000 4.984472e-001 2.034500e+000 6.128626e+000 5.212242e+000 4.709578e+000 4.155160e+003
<GCONST> 1.441056e+002
<STATE> 4
<NUMMIXES> 2
<MIXTURE> 1 2.789188e-001
<MEAN> 23
 7.193698e-001 1.179109e+000 3.466842e-001 6.792924e-001 4.726748e+000 4.960847e+000 1.050140e+002 1.109612e+002 6.388294e+001 6.497469e+001 2.241965e+002 2.277609e+002 1.327019e+002 1.346441e+002 7.000000e+000 5.000000e+000 6.004683e+000 5.995674e+000 6.000000e+000 5.999984e+000 1.210252e+000 1.632511e+000 1.301534e+002
<VARIANCE> 23
 4.801632e+000 4.442410e+000 3.300596e+000 2.164982e+000 4.956259e+001 5.429972e+001 2.445145e+001 4.940098e+001 5.493960e+000 1.509179e+001 1.636810e+002 2.000130e+002 4.687692e+001 5.801778e+001 6.504287e-002 1.793315e-002 2.326111e-002 1.170389e-002 2.082488e-002 5.618803e-002 4.120641e+000 5.052382e+000 4.936674e+001
<GCONST> 7.023650e+001
<MIXTURE> 2 7.210875e-001
<MEAN> 23
 1.010299e+000 1.616001e+000 3.840220e-001 6.148517e-001 4.802454e+000 6.060334e+000 8.560340e+001 8.516143e+001 5.555994e+001 5.429483e+001 1.805980e+002 1.802180e+002 1.096366e+002 1.090061e+002 6.989113e+000 4.993562e+000 6.005352e+000 5.972589e+000 5.996172e+000 5.991506e+000 1.739426e+000 1.881172e+000 1.095850e+002
<VARIANCE> 23
