~o
<STREAMINFO> 1 22
<VECSIZE> 22<NULLD><MFCC_0><DIAGC>
~h "BN_2"
<BEGINHMM>
<NUMSTATES> 5
<STATE> 2
<NUMMIXES> 2
<MIXTURE> 1 5.166121e-01
<MEAN> 22
 8.961340e+00 1.575865e+00 2.661190e+00 6.903568e-01 1.251760e+02 1.669991e+01 1.106814e+02 9.744138e+01 8.414612e+01 5.641302e+01 9.962769e+01 1.954647e+02 1.040859e+02 1.170931e+02 3.265029e+00 5.000000e+00 3.698651e+00 5.888512e+00 3.902276e+00 5.998076e+00 3.078544e+00 2.078424e+00
<VARIANCE> 22
 1.756056e+02 5.434739e+00 1.631607e+01 2.171573e+00 6.929794e+03 4.295789e+02 1.628780e+03 2.441870e+02 5.476046e+02 6.011168e+01 5.035946e+03 4.142796e+02 3.448912e+02 1.402376e+02 6.440069e+00 1.793070e-02 8.668954e+00 9.905787e-02 2.521060e+00 5.619852e-02 6.694322e+00 5.762715e+00
<GCONST> 1.137886e+02
<MIXTURE> 2 4.833884e-01
<MEAN> 22
 9.284217e+00 1.071725e+01 2.028980e+00 2.694843e+00 8.282807e+01 1.012679e+02 8.642641e+01 8.239966e+01 7.314021e+01 6.810564e+01 1.092131e+02 9.150131e+01 1.018918e+02 1.008448e+02 2.524212e+00 2.966736e+00 5.487623e+00 5.173439e+00 4.072536e+00 2.381835e+00 3.307673e+00 3.375360e+00
<VARIANCE> 22
 1.718759e+02 2.000312e+02 9.403125e+00 1.523846e+01 3.121477e+03 3.382442e+03 1.589818e+03 1.882107e+03 3.936281e+02 3.361767e+02 3.431547e+03 2.340486e+03 2.526787e+02 2.096409e+02 6.423709e+00 1.295678e+00 4.700985e+00 1.019918e+00 3.622435e+00 5.168730e+00 6.613209e+00 6.280095e+00
<GCONST> 1.358395e+02
<STATE> 3
<NUMMIXES> 2
<MIXTURE> 1 5.623052e-01
<MEAN> 22
 2.006251e+00 2.784034e+00 7.659843e-01 9.882778e-01 9.798079e+00 1.199870e+01 9.636857e+01 9.451825e+01 6.132815e+01 5.864312e+01 1.962658e+02 1.943473e+02 1.174380e+02 1.163889e+02 6.998715e+00 5.000000e+00 6.071768e+00 5.902354e+00 5.999991e+00 6.001217e+00 2.049043e+00 2.162799e+00
<VARIANCE> 22
 1.153231e+01 1.737417e+01 3.305621e+00 2.338276e+00 1.082417e+02 2.048639e+02 2.565430e+02 2.610454e+02 6.912271e+01 8.024170e+01 5.989699e+02 5.764030e+02 1.986157e+02 1.640470e+02 6.556339e-02 1.793070e-02 6.661674e-02 8.811247e-02 2.100767e-02 5.619852e-02 5.816621e+00 5.874285e+00
<GCONST> 8.556729e+01
<MIXTURE> 2 4.376944e-01
<MEAN> 22
 1.476312e+00 1.122350e+01 5.765834e-01 3.258071e+00 2.017835e+01 1.307161e+02 9.295402e+01 9.926269e+01 5.909435e+01 7.993559e+01 1.818528e+02 7.255109e+01 1.118391e+02 9.920639e+01 6.626754e+00 2.823543e+00 5.976672e+00 4.502778e+00 5.824679e+00 2.373495e+00 1.682367e+00 3.321317e+00
<VARIANCE> 22
 1.009767e+01 2.018712e+02 3.305621e+00 1.928796e+01 1.553410e+03 3.970917e+03 4.172331e+02 1.330834e+03 1.409076e+02 4.449619e+02 1.372517e+03 2.617891e+03 2.015871e+02 2.164779e+02 1.996832e+00 1.084580e+00 9.900190e-01 1.220813e+00 6.036902e-01 4.856156e+00 5.318815e+00 6.011735e+00
<GCONST> 1.233976e+02
<STATE> 4
<NUMMIXES> 2
<MIXTURE> 1 8.494978e-01
<MEAN> 22
 9.265389e+00 9.306421e+00 1.703436e+00 1.854248e+00 6.288951e+01 4.923618e+01 7.540798e+01 7.112392e+01 6.846548e+01 6.298559e+01 1.411073e+02 1.440961e+02 1.072534e+02 1.093461e+02 4.601486e+00 4.162557e+00 5.799765e+00 5.696835e+00 5.026784e+00 4.765914e+00 2.614578e+00 2.547347e+00
<VARIANCE> 22
 1.622992e+02 1.629369e+02 7.850849e+00 8.583265e+00 3.527028e+03 2.205493e+03 1.881129e+03 1.405888e+03 2.888873e+02 1.667959e+02 3.869164e+03 3.537517e+03 5.246416e+02 2.910537e+02 7.728336e+00 1.739045e+00 2.300304e+00 2.935490e-01 1.713355e+00 6.483887e+00 5.740738e+00 5.893860e+00
<GCONST> 1.327673e+02
<MIXTURE> 2 1.505025e-01
<MEAN> 22
 4.274568e-01 5.016645e-01 2.019456e-01 3.468564e-01 2.101586e+01 5.794373e+01 2.933866e+01 3.764890e+01 3.098249e+01 3.429970e+01 5.810699e+01 2.795126e+01 4.720856e+01 4.601263e+01 1.953546e+00 8.818454e-01 2.845828e+00 2.285645e+00 2.256512e+00 3.571590e-01 5.772974e-01 1.174000e+00
<VARIANCE> 22
 4.801967e+00 4.073978e+00 3.305621e+00 2.171573e+00 1.598883e+03 5.762809e+03 1.614676e+03 2.707910e+03 1.114599e+03 1.511339e+03 5.372126e+03 1.291355e+03 2.835870e+03 2.362331e+03 7.055928e+00 1.089127e+00 9.178257e+00 6.513976e+00 6.271897e+00 3.707891e-01 2.211164e+00 5.166905e+00
<GCONST> 1.319218e+02
<TRANSP> 5
 0.000000e+00 1.000000e+00 0.000000e+00 0.000000e+00 0.000000e+00
 0.000000e+00 7.554528e-01 2.445471e-01 0.000000e+00 0.000000e+00
 0.000000e+00 0.000000e+00 8.811545e-01 1.188455e-01 0.000000e+00
 0.000000e+00 0.000000e+00 0.000000e+00 6.309000e-01 3.690999e-01
 0.000000e+00 0.000000e+00 0.000000e+00 0.000000e+00 0.000000e+00
<ENDHMM>
~h "BS_2"
<BEGINHMM>
<NUMSTATES> 5
<STATE> 2
<NUMMIXES> 2
<MIXTURE> 1 5.899611e-01
<MEAN> 22
 8.286170e+00 2.191609e+00 2.279819e+00 8.532561e-01 8.001217e+01 1.959988e+01 9.311070e+01 9.762521e+01 7.672060e+01 5.798817e+01 1.272599e+02 1.967159e+02 1.081471e+02 1.171482e+02 3.673202e+00 5.000000e+00 5.241788e+00 5.823376e+00 4.542125e+00 5.997858e+00 2.959281e+00 2.123982e+00
<VARIANCE> 22
 1.669415e+02 1.334683e+01 1.324390e+01 2.171573e+00 5.049710e+03 5.342865e+02 1.752026e+03 2.359519e+02 4.357128e+02 6.935417e+01 4.794253e+03 5.747744e+02 5.385781e+02 1.669163e+02 8.383723e+00 1.793070e-02 5.187194e+00 1.454283e-01 2.746618e+00 5.619852e-02 6.490650e+00 6.040287e+00
<GCONST> 1.154167e+02
<MIXTURE> 2 4.100391e-01
<MEAN> 22
 8.814097e+00 1.031411e+01 1.764498e+00 2.931218e+00 1.039817e+02 1.214049e+02 6.136655e+01 6.306640e+01 6.255197e+01 5.968154e+01 8.863071e+01 7.388921e+01 9.327207e+01 9.220706e+01 2.741681e+00 2.362053e+00 5.423435e+00 5.039058e+00 3.794463e+00 1.661529e+00 2.770600e+00 2.764887e+00
<VARIANCE> 22
 1.927829e+02 2.176334e+02 9.087227e+00 2.435748e+01 1.392449e+04 7.073308e+03 1.424215e+03 1.646354e+03 4.619355e+02 5.193865e+02 3.684439e+03 1.726859e+03 1.142972e+03 8.252778e+02 5.756742e+00 1.882324e+00 4.063608e+00 2.908185e+00 3.242161e+00 4.440678e+00 6.690477e+00 6.223037e+00
<GCONST> 1.426102e+02
<STATE> 3
<NUMMIXES> 2
<MIXTURE> 1 5.458997e-01
<MEAN> 22
 9.415939e+00 1.330209e+01 2.606046e+00 2.940762e+00 4.462564e+01 4.706792e+01 8.255041e+01 7.334933e+01 6.426469e+01 6.160170e+01 1.554142e+02 1.478657e+02 1.072242e+02 1.059366e+02 4.496885e+00 4.394469e+00 6.244677e+00 5.524301e+00 5.589962e+00 5.582375e+00 2.711364e+00 3.218741e+00
<VARIANCE> 22
 2.672294e+02 2.782069e+02 3.341110e+01 1.926883e+01 2.444961e+03 1.694835e+03 7.915878e+02 9.062993e+02 2.005784e+02 1.470585e+02 2.298033e+03 1.690566e+03 2.174895e+02 1.789180e+02 9.986693e+00 7.292967e-01 9.256420e-01 3.183053e-01 1.659966e+00 2.494563e+00 7.030590e+00 5.779231e+00
<GCONST> 1.287604e+02
<MIXTURE> 2 4.541003e-01
<MEAN> 22
 1.329102e+00 1.077665e+01 7.208084e-01 4.054555e+00 1.140117e+01 1.569217e+02 8.980150e+01 1.083811e+02 5.706170e+01 8.214128e+01 1.879469e+02 5.449245e+01 1.115685e+02 9.580027e+01 7.000000e+00 2.464985e+00 6.026533e+00 4.259050e+00 6.000000e+00 1.322735e+00 1.680960e+00 3.188898e+00
<VARIANCE> 22
 5.002938e+00 1.838735e+02 3.305621e+00 2.405570e+01 4.895623e+02 2.267819e+03 1.926730e+02 1.412322e+03 4.355281e+01 4.117405e+02 3.807525e+02 8.313267e+02 1.189929e+02 2.978816e+02 6.556339e-02 2.593548e-01 2.582913e-02 1.272643e+00 2.100767e-02 5.300347e-01 5.797800e+00 5.119590e+00
<GCONST> 1.024063e+02
<STATE> 4
<NUMMIXES> 2
<MIXTURE> 1 6.714621e-01
<MEAN> 22
 2.099262e+00 3.023864e+00 8.117404e-01 1.088401e+00 1.053170e+01 1.386648e+01 9.595547e+01 9.527322e+01 6.122298e+01 5.895652e+01 1.943521e+02 1.933144e+02 1.157559e+02 1.157145e+02 7.000000e+00 4.999986e+00 6.094393e+00 5.867715e+00 6.005077e+00 5.999472e+00 2.120262e+00 2.350065e+00
<VARIANCE> 22
 1.026165e+01 1.896905e+01 3.305621e+00 2.559071e+00 1.405608e+02 2.772648e+02 2.125338e+02 1.969060e+02 7.033038e+01 6.338398e+01 4.171778e+02 3.821629e+02 1.422645e+02 1.063416e+02 6.556339e-02 1.793070e-02 8.548428e-02 1.147858e-01 2.100767e-02 5.619852e-02 5.635597e+00 5.917473e+00
<GCONST> 8.445354e+01
<MIXTURE> 2 3.285379e-01
<MEAN> 22
 8.824582e+00 1.033103e+01 1.994195e+00 2.377799e+00 7.644450e+01 8.110382e+01 9.294566e+01 8.085361e+01 6.951977e+01 6.810844e+01 1.324373e+02 1.218612e+02 1.069382e+02 1.056666e+02 3.056730e+00 3.536492e+00 5.602942e+00 5.312320e+00 3.975048e+00 3.477041e+00 2.651560e+00 2.660608e+00
<VARIANCE> 22
 1.589443e+02 1.689229e+02 8.548142e+00 1.280448e+01 3.103392e+03 3.021323e+03 2.074003e+03 1.891349e+03 3.264919e+02 3.205962e+02 3.843391e+03 2.905681e+03 2.894738e+02 2.123769e+02 8.557112e+00 1.426554e+00 4.224783e+00 6.617063e-01 5.006069e+00 6.647426e+00 5.478464e+00 5.276067e+00
<GCONST> 1.357753e+02
<TRANSP> 5
 0.000000e+00 1.000000e+00 0.000000e+00 0.000000e+00 0.000000e+00
 0.000000e+00 7.162949e-01 2.837050e-01 0.000000e+00 0.000000e+00
 0.000000e+00 0.000000e+00 7.121063e-01 2.878937e-01 0.000000e+00
 0.000000e+00 0.000000e+00 0.000000e+00 8.305576e-01 1.694424e-01
 0.000000e+00 0.000000e+00 0.000000e+00 0.000000e+00 0.000000e+00
<ENDHMM>
~h "SP_2"
<BEGINHMM>
<NUMSTATES> 5
<STATE> 2
<NUMMIXES> 2
<MIXTURE> 1 7.494447e-01
<MEAN> 22
 7.938875e+00 1.652790e+00 2.763494e+00 8.302276e-01 1.090163e+02 1.807573e+01 1.050493e+02 9.761339e+01 8.007516e+01 5.672049e+01 1.133022e+02 1.954253e+02 1.041206e+02 1.165248e+02 3.291985e+00 5.000000e+00 4.348507e+00 5.819017e+00 4.123097e+00 5.990888e+00 3.164182e+00 2.091441e+00
<VARIANCE> 22
 1.553054e+02 5.903767e+00 2.253841e+01 2.171573e+00 7.242203e+03 6.162649e+02 1.787722e+03 2.490241e+02 5.139057e+02 7.452586e+01 4.796559e+03 4.444544e+02 3.891111e+02 1.300646e+02 7.282708e+00 1.793070e-02 7.476759e+00 1.482287e-01 2.946652e+00 5.619852e-02 6.585719e+00 5.866448e+00
<GCONST> 1.153432e+02
<MIXTURE> 2 2.505553e-01
<MEAN> 22
 4.719193e+00 7.474047e+00 1.729383e+00 2.608816e+00 5.841840e+01 1.188761e+02 6.549091e+01 8.247930e+01 5.668490e+01 6.789507e+01 1.180277e+02 6.895322e+01 8.382612e+01 7.918032e+01 3.944525e+00 2.374459e+00 4.886834e+00 3.540286e+00 4.135309e+00 2.202577e+00 2.006984e+00 2.273386e+00
<VARIANCE> 22
 9.463055e+01 1.011430e+02 3.495826e+01 2.018464e+01 9.481289e+03 9.909994e+03 1.816916e+03 3.680211e+03 1.060601e+03 1.646181e+03 5.973298e+03 2.956672e+03 2.469633e+03 1.873569e+03 9.605613e+00 2.254796e+00 6.376569e+00 4.478749e+00 5.358383e+00 5.760709e+00 5.733356e+00 5.688666e+00
<GCONST> 1.499819e+02
<STATE> 3
<NUMMIXES> 2
<MIXTURE> 1 6.314612e-01
<MEAN> 22
 1.542462e+00 2.281572e+00 6.965045e-01 8.849905e-01 9.200004e+00 9.771258e+00 9.683049e+01 9.573981e+01 6.122779e+01 5.842757e+01 1.967613e+02 1.956471e+02 1.181367e+02 1.170836e+02 7.000000e+00 5.000000e+00 6.109159e+00 5.915980e+00 6.000637e+00 6.004294e+00 1.924204e+00 2.139479e+00
<VARIANCE> 22
 5.680206e+00 1.278400e+01 3.305621e+00 2.171573e+00 9.752865e+01 7.553854e+01 2.227133e+02 2.225688e+02 7.370634e+01 6.749729e+01 5.276160e+02 5.215257e+02 1.870067e+02 1.629555e+02 6.556339e-02 1.793070e-02 9.724411e-02 7.695995e-02 2.100767e-02 5.619852e-02 5.813915e+00 6.003557e+00
<GCONST> 8.293729e+01
<MIXTURE> 2 3.685387e-01
<MEAN> 22
 8.780660e+00 1.052832e+01 2.194679e+00 2.499167e+00 7.089421e+01 7.563898e+01 6.537984e+01 6.471094e+01 6.739837e+01 6.271762e+01 1.167057e+02 1.093190e+02 1.031363e+02 1.030904e+02 2.918772e+00 3.341821e+00 6.193514e+00 5.432718e+00 4.510056e+00 3.585469e+00 2.837003e+00 2.912168e+00
<VARIANCE> 22
 1.441176e+02 1.705561e+02 1.088763e+01 1.254237e+01 2.422961e+03 2.757442e+03 1.087351e+03 1.270371e+03 1.726568e+02 2.210402e+02 2.654583e+03 1.966384e+03 1.839504e+02 1.491738e+02 7.859898e+00 1.723676e+00 1.010769e+00 7.137554e-01 2.486254e+00 7.360922e+00 5.901319e+00 5.779304e+00
<GCONST> 1.302667e+02
<STATE> 4
<NUMMIXES> 2
<MIXTURE> 1 8.489367e-01
<MEAN> 22
 1.072434e+00 1.015450e+01 5.099556e-01 3.032807e+00 9.815506e+00 1.332992e+02 9.759976e+01 1.091862e+02 6.172346e+01 8.215094e+01 1.947102e+02 9.179859e+01 1.163867e+02 1.023789e+02 6.996542e+00 3.067672e+00 6.159602e+00 4.444541e+00 6.000000e+00 2.865448e+00 1.583763e+00 2.760146e+00
<VARIANCE> 22
 4.801967e+00 2.247305e+02 3.305621e+00 1.781807e+01 1.608755e+02 6.647693e+03 4.904275e+02 1.590756e+03 1.439943e+02 4.356144e+02 8.128682e+02 3.979111e+03 2.708363e+02 2.931433e+02 6.556339e-02 1.474867e+00 1.341288e-01 1.583401e+00 2.100767e-02 5.420455e+00 5.313010e+00 5.707329e+00
<GCONST> 1.136147e+02
<MIXTURE> 2 1.510636e-01
<MEAN> 22
 1.049114e+01 4.011139e+00 4.369227e+00 1.743754e+00 1.007751e+02 4.609621e+01 9.944157e+01 6.726544e+01 8.045437e+01 6.192506e+01 9.087738e+01 1.269520e+02 9.357526e+01 1.027908e+02 2.327103e+00 3.702478e+00 3.953528e+00 5.540166e+00 3.754417e+00 4.147793e+00 3.502959e+00 2.639987e+00
<VARIANCE> 22
 1.393583e+02 5.349173e+01 4.411864e+01 5.212457e+00 4.218338e+03 3.003682e+03 2.529294e+03 1.597622e+03 7.783906e+02 2.772493e+02 3.098195e+03 3.400300e+03 5.348993e+02 3.539785e+02 4.562829e+00 1.872624e+00 7.530363e+00 1.064337e+00 2.661223e+00 7.964259e+00 5.746620e+00 5.731388e+00
<GCONST> 1.377331e+02
<TRANSP> 5
 0.000000e+00 1.000000e+00 0.000000e+00 0.000000e+00 0.000000e+00
 0.000000e+00 6.592255e-01 3.407746e-01 0.000000e+00 0.000000e+00
 0.000000e+00 0.000000e+00 8.649343e-01 1.350657e-01 0.000000e+00
 0.000000e+00 0.000000e+00 0.000000e+00 7.596258e-01 2.403742e-01
 0.000000e+00 0.000000e+00 0.000000e+00 0.000000e+00 0.000000e+00
<ENDHMM>
~h "ST_2"
<BEGINHMM>
<NUMSTATES> 5
<STATE> 2
<NUMMIXES> 2
<MIXTURE> 1 7.212392e-01
<MEAN> 22
 1.974441e+00 2.034393e+00 8.222972e-01 9.909109e-01 9.496646e+00 9.076482e+00 9.756310e+01 9.740575e+01 6.218952e+01 5.837357e+01 1.978227e+02 1.981693e+02 1.187144e+02 1.179487e+02 7.000000e+00 5.000000e+00 6.143029e+00 5.930312e+00 6.000000e+00 5.997598e+00 1.991731e+00 2.051963e+00
<VARIANCE> 22
 1.067666e+01 7.938718e+00 3.305621e+00 2.171573e+00 1.066258e+02 7.630325e+01 2.260268e+02 2.215723e+02 8.070643e+01 7.900179e+01 4.993496e+02 4.907376e+02 1.671768e+02 1.584931e+02 6.556339e-02 1.793070e-02 1.225722e-01 6.483213e-02 2.100767e-02 5.619852e-02 5.795444e+00 5.579954e+00
<GCONST> 8.317741e+01
<MIXTURE> 2 2.787609e-01
<MEAN> 22
 9.183938e+00 1.141397e+01 2.193820e+00 3.558308e+00 6.158046e+01 9.479414e+01 8.441260e+01 8.690365e+01 6.997121e+01 7.083119e+01 1.491094e+02 1.169855e+02 1.125102e+02 1.062443e+02 4.384509e+00 3.480541e+00 6.119269e+00 5.250879e+00 4.890311e+00 3.519346e+00 2.752105e+00 2.985458e+00
<VARIANCE> 22
 1.930788e+02 2.169623e+02 1.603154e+01 2.640326e+01 4.079883e+03 5.484260e+03 1.493315e+03 1.671843e+03 3.460118e+02 5.388738e+02 4.367239e+03 4.038822e+03 4.784870e+02 2.798075e+02 8.766770e+00 1.957306e+00 1.567846e+00 1.215845e+00 2.750395e+00 6.729986e+00 6.464324e+00 5.693839e+00
<GCONST> 1.394160e+02
<STATE> 3
<NUMMIXES> 2
<MIXTURE> 1 6.725433e-01
<MEAN> 22
 1.069373e+00 9.316802e+00 5.246048e-01 2.934436e+00 6.828427e+00 1.232197e+02 9.130273e+01 9.355415e+01 5.652729e+01 7.971409e+01 1.894437e+02 8.150730e+01 1.131207e+02 9.855614e+01 6.999991e+00 2.950580e+00 6.009864e+00 4.968027e+00 6.000000e+00 2.679678e+00 1.538380e+00 2.921021e+00
<VARIANCE> 22
 4.801967e+00 1.765930e+02 3.305621e+00 2.121353e+01 5.056932e+01 4.852262e+03 1.843119e+02 1.544861e+03 5.212112e+01 4.276714e+02 3.711059e+02 3.446952e+03 1.369346e+02 3.148864e+02 6.556339e-02 1.449908e+00 2.348461e-02 1.650530e+00 2.100767e-02 6.309386e+00 5.194051e+00 5.764108e+00
<GCONST> 1.069165e+02
<MIXTURE> 2 3.274571e-01
<MEAN> 22
 7.207981e+00 7.321735e+00 1.821843e+00 1.035398e+00 1.275698e+02 1.052987e+02 6.551216e+01 6.022517e+01 6.840800e+01 5.895097e+01 6.509227e+01 8.748506e+01 9.680351e+01 9.923098e+01 2.143556e+00 2.650216e+00 5.170593e+00 5.569549e+00 3.478703e+00 2.185406e+00 3.060379e+00 2.789475e+00
<VARIANCE> 22
 9.913259e+01 1.981263e+02 1.201781e+01 2.455044e+00 1.235049e+04 9.161639e+03 1.522596e+03 1.138225e+03 3.308764e+02 2.273556e+02 2.122988e+03 3.066048e+03 4.689656e+02 4.993938e+02 2.139695e+00 1.934015e+00 4.391689e+00 1.581057e+00 1.272599e+00 6.754017e+00 6.415868e+00 6.099095e+00
<GCONST> 1.350699e+02
<STATE> 4
<NUMMIXES> 2
<MIXTURE> 1 4.078653e-01
<MEAN> 22
 1.231658e+01 7.277433e+00 4.336384e+00 1.756909e+00 1.521793e+02 2.405632e+01 1.123809e+02 1.017714e+02 1.024642e+02 5.693435e+01 6.545773e+01 2.006028e+02 1.027580e+02 1.195042e+02 1.552439e+00 4.991856e+00 3.940158e+00 5.880296e+00 3.029965e+00 5.967201e+00 3.279932e+00 2.383122e+00
<VARIANCE> 22
 8.138501e+02 1.317647e+03 5.188815e+02 3.074640e+02 3.404684e+03 1.274414e+03 3.122966e+03 2.419629e+02 6.368324e+02 4.905736e+01 2.158063e+03 5.256995e+02 3.265262e+02 1.088491e+02 5.262209e-01 5.301352e-02 9.057392e+00 1.217134e-01 1.383497e+00 1.338431e-01 5.871196e+00 5.627993e+00
<GCONST> 1.282164e+02
<MIXTURE> 2 5.921340e-01
<MEAN> 22
 7.461218e+00 7.141913e+00 1.677523e+00 1.718647e+00 4.546841e+01 5.595906e+01 7.086849e+01 7.200421e+01 6.729356e+01 6.328058e+01 1.440815e+02 1.369052e+02 1.076668e+02 1.055312e+02 4.316517e+00 4.198395e+00 6.235212e+00 5.625273e+00 5.230654e+00 5.038991e+00 2.991082e+00 2.942796e+00
<VARIANCE> 22
 1.362872e+02 1.400879e+02 6.849838e+00 7.837317e+00 1.802816e+03 3.039123e+03 8.798864e+02 1.027772e+03 1.867901e+02 2.006051e+02 2.691965e+03 2.893080e+03 1.657932e+02 1.803499e+02 9.379535e+00 1.417966e+00 3.067480e-01 5.304914e-01 1.342770e+00 5.181189e+00 6.845882e+00 6.285492e+00
<GCONST> 1.266836e+02
<TRANSP> 5
 0.000000e+00 1.000000e+00 0.000000e+00 0.000000e+00 0.000000e+00
 0.000000e+00 8.044953e-01 1.955047e-01 0.000000e+00 0.000000e+00
 0.000000e+00 0.000000e+00 8.209165e-01 1.790835e-01 0.000000e+00
 0.000000e+00 0.000000e+00 0.000000e+00 7.276004e-01 2.723996e-01
 0.000000e+00 0.000000e+00 0.000000e+00 0.000000e+00 0.000000e+00
<ENDHMM>
~h "TH_LD"
<BEGINHMM>
<NUMSTATES> 5
<STATE> 2
<NUMMIXES> 2
<MIXTURE> 1 5.908766e-01
<MEAN> 22
 1.841914e+00 2.401384e+00 7.340931e-01 9.119374e-01 8.841519e+00 1.254108e+01 9.647478e+01 9.408865e+01 6.159211e+01 5.895540e+01 1.949329e+02 1.925997e+02 1.166977e+02 1.157246e+02 6.999276e+00 5.000000e+00 6.080523e+00 5.912500e+00 6.005708e+00 6.010660e+00 2.169419e+00 2.167531e+00
<VARIANCE> 22
 8.102195e+00 1.241002e+01 3.305621e+00 2.171573e+00 7.881018e+01 2.826582e+02 2.427222e+02 2.504269e+02 6.768923e+01 6.655882e+01 4.936678e+02 4.829749e+02 1.617898e+02 1.265655e+02 6.556339e-02 1.793070e-02 7.403956e-02 7.983977e-02 2.100767e-02 5.619852e-02 5.839613e+00 5.927213e+00
<GCONST> 8.368890e+01
<MIXTURE> 2 4.091225e-01
<MEAN> 22
 2.715273e+00 1.218382e+01 8.729554e-01 3.492556e+00 2.197445e+01 1.272127e+02 8.845665e+01 9.631712e+01 5.828446e+01 7.899228e+01 1.764561e+02 7.974986e+01 1.093581e+02 9.717545e+01 6.408240e+00 2.919939e+00 5.999871e+00 4.545017e+00 5.727721e+00 2.612524e+00 1.897023e+00 3.300505e+00
<VARIANCE> 22
 4.625515e+01 2.154549e+02 3.305621e+00 2.383917e+01 1.956841e+03 4.718892e+03 4.401392e+02 1.892371e+03 1.202033e+02 5.124677e+02 1.436253e+03 2.436587e+03 1.892644e+02 2.901906e+02 3.223656e+00 1.183465e+00 6.651968e-01 1.575988e+00 1.014841e+00 5.542381e+00 5.962954e+00 5.859555e+00
<GCONST> 1.273555e+02
<STATE> 3
<NUMMIXES> 2
<MIXTURE> 1 3.530678e-01
<MEAN> 22
 8.654089e+00 9.882481e+00 3.312613e+00 3.363158e+00 2.310407e+01 2.425992e+01 1.031871e+02 9.842332e+01 6.887257e+01 6.301702e+01 1.994288e+02 1.959191e+02 1.223218e+02 1.199438e+02 6.995163e+00 5.002844e+00 6.303961e+00 5.716284e+00 6.004110e+00 5.991019e+00 3.032954e+00 3.146588e+00
<VARIANCE> 22
 5.662704e+02 4.943403e+02 4.353010e+02 2.724009e+02 4.848885e+02 4.810155e+02 6.076592e+02 3.779112e+02 1.387126e+02 1.034521e+02 8.146308e+02 5.824117e+02 2.606404e+02 1.596542e+02 6.556339e-02 1.793070e-02 2.115688e-01 2.032217e-01 3.573306e-02 5.619852e-02 6.213943e+00 6.421215e+00
<GCONST> 1.102238e+02
<MIXTURE> 2 6.469306e-01
<MEAN> 22
 9.218575e+00 9.639146e+00 1.817645e+00 1.971642e+00 8.004464e+01 9.049242e+01 7.165991e+01 7.103238e+01 6.773882e+01 6.351031e+01 1.068406e+02 1.001318e+02 1.046985e+02 1.034623e+02 2.195664e+00 3.029516e+00 6.170518e+00 5.423952e+00 3.902508e+00 2.689543e+00 2.921360e+00 2.972548e+00
<VARIANCE> 22
 2.032644e+02 1.791908e+02 8.403032e+00 8.685892e+00 3.336043e+03 2.824755e+03 1.582143e+03 1.522381e+03 1.801467e+02 1.735425e+02 2.761641e+03 2.389566e+03 1.777831e+02 1.595768e+02 5.435513e+00 1.763216e+00 1.399884e+00 7.843847e-01 3.545358e+00 6.527065e+00 6.201622e+00 6.325253e+00
<GCONST> 1.314501e+02
<STATE> 4
<NUMMIXES> 2
<MIXTURE> 1 6.778322e-01
<MEAN> 22
 9.323203e+00 2.580894e+00 2.892833e+00 9.455237e-01 7.697131e+01 2.358778e+01 9.521441e+01 9.495625e+01 7.552406e+01 5.709144e+01 1.258309e+02 1.924420e+02 1.086544e+02 1.160430e+02 3.912206e+00 4.966974e+00 5.093165e+00 5.796745e+00 4.542976e+00 5.987156e+00 3.105389e+00 2.347638e+00
<VARIANCE> 22
 1.838697e+02 1.792917e+01 2.698357e+01 2.171573e+00 4.731543e+03 7.145427e+02 1.369386e+03 3.523815e+02 3.356428e+02 6.595701e+01 5.412260e+03 6.670033e+02 4.505103e+02 1.758782e+02 8.326409e+00 3.406282e-02 6.018836e+00 1.619436e-01 2.682283e+00 5.619852e-02 5.936554e+00 6.087285e+00
<GCONST> 1.175190e+02
<MIXTURE> 2 3.221675e-01
<MEAN> 22
 3.958318e+00 9.988693e+00 1.282967e+00 3.113002e+00 9.443623e+01 1.387162e+02 8.977821e+01 8.441853e+01 6.651025e+01 7.047940e+01 1.222089e+02 7.671874e+01 9.747868e+01 9.283318e+01 3.358157e+00 2.462295e+00 4.564009e+00 4.258755e+00 3.734574e+00 1.969784e+00 2.132462e+00 2.821771e+00
<VARIANCE> 22
 7.021688e+01 2.375389e+02 5.773659e+00 2.989798e+01 1.983144e+04 1.144205e+04 2.380495e+03 2.985315e+03 8.817949e+02 1.180328e+03 6.207866e+03 2.614657e+03 1.885628e+03 1.506880e+03 8.438313e+00 1.560760e+00 7.592300e+00 3.558677e+00 4.726915e+00 4.715812e+00 6.291698e+00 6.073308e+00
<GCONST> 1.482625e+02
<TRANSP> 5
 0.000000e+00 1.000000e+00 0.000000e+00 0.000000e+00 0.000000e+00
 0.000000e+00 8.589810e-01 1.410191e-01 0.000000e+00 0.000000e+00
 0.000000e+00 0.000000e+00 7.430976e-01 2.569024e-01 0.000000e+00
 0.000000e+00 0.000000e+00 0.000000e+00 6.640673e-01 3.359326e-01
 0.000000e+00 0.000000e+00 0.000000e+00 0.000000e+00 0.000000e+00
<ENDHMM>
~h "TH_LU"
<BEGINHMM>
<NUMSTATES> 5
<STATE> 2
<NUMMIXES> 2
<MIXTURE> 1 7.201762e-01
<MEAN> 22
 1.979071e+01 1.942484e+01 1.552828e+01 1.347179e+01 6.266286e+01 7.355914e+01 9.214174e+01 9.049860e+01 6.649036e+01 6.473817e+01 1.626189e+02 1.488707e+02 1.125142e+02 1.102332e+02 5.476038e+00 4.183866e+00 5.855631e+00 5.517215e+00 5.310243e+00 4.647690e+00 2.521703e+00 2.980770e+00
<VARIANCE> 22
 6.343659e+03 4.916698e+03 5.954473e+03 3.798156e+03 1.415209e+04 1.033809e+04 9.893976e+02 9.670530e+02 2.480385e+02 2.634450e+02 3.470602e+03 4.074390e+03 2.451308e+02 2.333819e+02 6.558748e+00 1.503947e+00 1.837969e+00 7.399157e-01 1.751050e+00 5.168437e+00 6.371688e+00 6.588405e+00
<GCONST> 1.542384e+02
<MIXTURE> 2 2.798238e-01
<MEAN> 22
 3.630808e+01 3.080446e+01 3.373563e+01 2.701458e+01 3.076666e+02 2.332500e+02 0.000000e+00 0.000000e+00 0.000000e+00 0.000000e+00 0.000000e+00 0.000000e+00 0.000000e+00 0.000000e+00 0.000000e+00 0.000000e+00 0.000000e+00 0.000000e+00 0.000000e+00 0.000000e+00 2.282616e-01 2.282616e-01
<VARIANCE> 22
 1.626352e+04 1.171073e+04 1.390760e+04 8.952284e+03 6.395809e+04 3.633252e+04 9.965449e+00 1.121763e+01 2.939336e+00 3.532397e+00 3.789059e+01 4.425213e+01 4.237011e+00 4.029980e+00 6.556339e-02 1.793070e-02 2.348461e-02 1.180012e-02 2.100767e-02 5.619852e-02 6.326810e-01 6.326810e-01
<GCONST> 9.442919e+01
<STATE> 3
<NUMMIXES> 2
<MIXTURE> 1 5.879479e-01
<MEAN> 22
 2.697855e+00 1.127511e+01 1.095258e+00 3.346380e+00 9.908531e+00 1.013504e+02 9.180386e+01 9.264561e+01 5.878133e+01 7.382370e+01 1.890292e+02 1.075318e+02 1.128608e+02 1.027847e+02 6.998143e+00 3.526995e+00 6.074896e+00 4.999516e+00 6.000000e+00 3.636029e+00 1.874690e+00 3.057886e+00
<VARIANCE> 22
 1.678351e+02 2.889187e+02 1.082072e+02 8.146214e+01 1.452379e+02 6.116162e+03 2.486927e+02 1.484434e+03 6.522945e+01 4.698759e+02 5.030932e+02 4.149773e+03 1.618717e+02 2.526614e+02 6.556339e-02 1.605137e+00 6.928784e-02 1.198000e+00 2.100767e-02 6.356676e+00 5.678089e+00 5.764813e+00
<GCONST> 1.190582e+02
<MIXTURE> 2 4.120529e-01
<MEAN> 22
 8.359422e+00 8.430925e+00 1.554284e+00 1.627172e+00 9.341281e+01 9.347050e+01 6.047960e+01 6.539610e+01 6.683179e+01 6.351752e+01 8.424886e+01 8.583862e+01 9.986237e+01 9.888294e+01 2.131269e+00 2.873917e+00 5.969272e+00 5.390886e+00 3.887839e+00 2.421258e+00 2.931368e+00 2.772917e+00
<VARIANCE> 22
 1.264994e+02 1.378804e+02 5.031314e+00 5.402236e+00 4.317279e+03 4.390401e+03 1.120315e+03 1.658322e+03 2.141487e+02 3.014457e+02 2.156274e+03 1.970659e+03 2.228645e+02 3.104736e+02 4.103598e+00 1.789471e+00 1.882180e+00 1.118810e+00 1.642060e+00 6.902918e+00 5.916017e+00 5.962981e+00
<GCONST> 1.309067e+02
<STATE> 4
<NUMMIXES> 2
<MIXTURE> 1 5.905412e-01
<MEAN> 22
 2.512838e+00 2.795205e+00 9.349038e-01 1.065048e+00 1.306674e+01 1.621361e+01 9.571273e+01 9.433154e+01 6.193074e+01 5.882812e+01 1.927792e+02 1.917907e+02 1.162851e+02 1.157457e+02 6.998524e+00 5.000000e+00 6.139804e+00 5.878176e+00 6.003287e+00 5.997715e+00 2.297949e+00 2.281730e+00
<VARIANCE> 22
 1.523598e+01 1.645215e+01 3.305621e+00 2.250407e+00 2.772790e+02 4.036603e+02 2.776238e+02 2.463555e+02 7.487273e+01 6.718398e+01 4.910569e+02 4.505632e+02 1.596058e+02 1.346116e+02 6.556339e-02 1.793070e-02 1.202595e-01 1.069820e-01 2.100767e-02 5.619852e-02 5.788463e+00 5.810249e+00
<GCONST> 8.720274e+01
<MIXTURE> 2 4.094588e-01
<MEAN> 22
 1.158127e+01 7.348744e+00 3.172701e+00 2.013693e+00 9.482614e+01 4.949867e+01 9.792892e+01 8.709400e+01 8.161799e+01 6.243983e+01 1.171451e+02 1.622600e+02 1.086679e+02 1.130987e+02 2.795807e+00 4.338158e+00 5.051487e+00 5.496831e+00 4.122389e+00 5.031870e+00 3.036137e+00 2.513049e+00
<VARIANCE> 22
 2.396525e+02 1.538674e+02 2.146826e+01 1.144066e+01 5.154020e+03 3.130242e+03 2.488476e+03 1.152978e+03 5.823618e+02 1.885236e+02 4.376516e+03 3.492128e+03 4.938901e+02 3.385088e+02 7.574426e+00 1.117972e+00 6.699082e+00 5.975709e-01 3.310815e+00 4.230212e+00 6.292404e+00 5.741767e+00
<GCONST> 1.378437e+02
<TRANSP> 5
 0.000000e+00 1.000000e+00 0.000000e+00 0.000000e+00 0.000000e+00
 0.000000e+00 3.379535e-01 6.620464e-01 0.000000e+00 0.000000e+00
 0.000000e+00 0.000000e+00 7.798581e-01 2.201418e-01 0.000000e+00
 0.000000e+00 0.000000e+00 0.000000e+00 8.577155e-01 1.422845e-01
 0.000000e+00 0.000000e+00 0.000000e+00 0.000000e+00 0.000000e+00
<ENDHMM>
~h "CF_2"
<BEGINHMM>
<NUMSTATES> 5
<STATE> 2
<NUMMIXES> 2
<MIXTURE> 1 2.931950e-01
<MEAN> 22
 6.301689e+00 8.326666e+00 3.836115e+00 3.626181e+00 6.062717e+01 5.405899e+01 1.046956e+02 9.801167e+01 6.763443e+01 6.239950e+01 1.989168e+02 1.919664e+02 1.222487e+02 1.192376e+02 6.482953e+00 4.808038e+00 6.269412e+00 5.754339e+00 5.927032e+00 5.800367e+00 2.324769e+00 2.412481e+00
<VARIANCE> 22
 6.775303e+02 7.538039e+02 9.165167e+02 5.723644e+02 1.939895e+04 1.051772e+04 9.198619e+02 5.611938e+02 1.604683e+02 1.327139e+02 2.105044e+03 1.523953e+03 4.163913e+02 2.591999e+02 3.118829e+00 2.404561e-01 5.644526e-01 2.039999e-01 3.858922e-01 7.421581e-01 6.070642e+00 6.123333e+00
<GCONST> 1.354879e+02
<MIXTURE> 2 7.068053e-01
<MEAN> 22
 7.285542e+00 7.459018e+00 1.352418e+00 1.737784e+00 7.004662e+01 8.725874e+01 5.948243e+01 6.312352e+01 6.351080e+01 5.946372e+01 9.206878e+01 8.434136e+01 9.738742e+01 9.566970e+01 2.987156e+00 2.641662e+00 5.694003e+00 5.120225e+00 3.910379e+00 2.181184e+00 2.417623e+00 2.545428e+00
<VARIANCE> 22
 1.423994e+02 1.259687e+02 3.820487e+00 7.418319e+00 5.264832e+03 4.459446e+03 1.370398e+03 1.454961e+03 3.559341e+02 4.165640e+02 2.979249e+03 2.412678e+03 5.460723e+02 5.348458e+02 5.751717e+00 2.177240e+00 2.820926e+00 1.880859e+00 2.225570e+00 6.236707e+00 5.825304e+00 5.999857e+00
<GCONST> 1.357097e+02
<STATE> 3
<NUMMIXES> 2
<MIXTURE> 1 7.624880e-01
<MEAN> 22
 9.894931e-01 1.032273e+01 5.172021e-01 2.894119e+00 8.144155e+00 1.148961e+02 9.149675e+01 9.998972e+01 5.713613e+01 7.906506e+01 1.874746e+02 9.646266e+01 1.113391e+02 9.976753e+01 7.000000e+00 3.222044e+00 6.000133e+00 4.661672e+00 6.000000e+00 3.029950e+00 1.534779e+00 3.044957e+00
<VARIANCE> 22
 4.801967e+00 2.256182e+02 3.305621e+00 2.057224e+01 1.123910e+02 5.422569e+03 1.756712e+02 1.346712e+03 4.525534e+01 6.156549e+02 4.239625e+02 4.362975e+03 1.357047e+02 3.031725e+02 6.556339e-02 1.582412e+00 2.348461e-02 1.643436e+00 2.100767e-02 5.870455e+00 5.083702e+00 6.247805e+00
<GCONST> 1.084704e+02
<MIXTURE> 2 2.375121e-01
<MEAN> 22
 6.076614e+00 8.970564e+00 2.094147e+00 2.747813e+00 8.011510e+01 1.271132e+02 9.665545e+01 1.031229e+02 7.283482e+01 7.593588e+01 1.565309e+02 9.623599e+01 1.121510e+02 1.014905e+02 4.863098e+00 3.155579e+00 6.113835e+00 4.636233e+00 5.173533e+00 2.781757e+00 2.553766e+00 2.696121e+00
<VARIANCE> 22
 8.324142e+01 1.658829e+02 1.168822e+01 1.862572e+01 1.550274e+04 8.478967e+03 1.459334e+03 1.795474e+03 2.896135e+02 4.181071e+02 4.747926e+03 4.148611e+03 4.683429e+02 3.131280e+02 7.991793e+00 1.531790e+00 3.175313e+00 1.539569e+00 1.951581e+00 5.520093e+00 5.751506e+00 5.404175e+00
<GCONST> 1.391238e+02
<STATE> 4
<NUMMIXES> 2
<MIXTURE> 1 5.455042e-01
<MEAN> 22
 1.810502e+00 2.085753e+00 6.504682e-01 8.135889e-01 8.256933e+00 7.980382e+00 9.644758e+01 9.576498e+01 6.125771e+01 5.906297e+01 1.965700e+02 1.958996e+02 1.178976e+02 1.173076e+02 6.996418e+00 5.000000e+00 6.101596e+00 5.914751e+00 6.017835e+00 5.997808e+00 2.017566e+00 2.007673e+00
<VARIANCE> 22
 9.431586e+00 9.695992e+00 3.305621e+00 2.171573e+00 6.439685e+01 5.399630e+01 2.320012e+02 2.128037e+02 6.459435e+01 6.316748e+01 4.997680e+02 4.803630e+02 1.541377e+02 1.423358e+02 6.556339e-02 1.793070e-02 9.127337e-02 7.798183e-02 2.100767e-02 5.619852e-02 5.636065e+00 5.909480e+00
<GCONST> 8.165274e+01
<MIXTURE> 2 4.544958e-01
<MEAN> 22
 9.660817e+00 5.271909e+00 3.241568e+00 1.636335e+00 9.931554e+01 4.246492e+01 9.938412e+01 9.154750e+01 8.238184e+01 6.106543e+01 1.000511e+02 1.697110e+02 1.024716e+02 1.116580e+02 2.654958e+00 4.558227e+00 4.461793e+00 5.537728e+00 3.903532e+00 5.380261e+00 3.050953e+00 2.635534e+00
<VARIANCE> 22
 1.792661e+02 8.696647e+01 2.485024e+01 7.551294e+00 5.201086e+03 2.620231e+03 1.730784e+03 8.673330e+02 5.321500e+02 2.305680e+02 4.277094e+03 2.524231e+03 3.975665e+02 2.025383e+02 6.240976e+00 8.092592e-01 7.452232e+00 5.398538e-01 2.899953e+00 2.807368e+00 5.844520e+00 5.789985e+00
<GCONST> 1.338103e+02
<TRANSP> 5
 0.000000e+00 1.000000e+00 0.000000e+00 0.000000e+00 0.000000e+00
 0.000000e+00 5.922601e-01 4.077399e-01 0.000000e+00 0.000000e+00
 0.000000e+00 0.000000e+00 7.876994e-01 2.123006e-01 0.000000e+00
 0.000000e+00 0.000000e+00 0.000000e+00 8.750515e-01 1.249485e-01
 0.000000e+00 0.000000e+00 0.000000e+00 0.000000e+00 0.000000e+00
<ENDHMM>
~h "CN_2"
<BEGINHMM>
<NUMSTATES> 5
<STATE> 2
<NUMMIXES> 2
<MIXTURE> 1 2.084304e-01
<MEAN> 22
 9.760024e+00 1.451652e+01 4.581193e+00 4.951056e+00 4.810949e+01 9.985522e+01 6.952853e+01 7.318244e+01 4.947060e+01 5.103899e+01 1.126191e+02 7.397291e+01 7.905740e+01 7.196415e+01 3.670327e+00 2.210371e+00 3.962839e+00 3.414682e+00 3.551239e+00 2.005583e+00 1.497731e+00 2.341025e+00
<VARIANCE> 22
 1.402236e+03 1.187943e+03 1.018527e+03 6.872250e+02 1.122025e+04 1.025911e+04 3.460376e+03 3.307895e+03 1.185511e+03 1.584692e+03 1.074066e+04 5.964526e+03 3.488530e+03 2.954757e+03 9.734158e+00 3.035245e+00 8.206888e+00 5.852932e+00 6.410015e+00 5.159424e+00 5.286123e+00 5.849606e+00
<GCONST> 1.657903e+02
<MIXTURE> 2 7.915688e-01
<MEAN> 22
 7.933313e+00 4.108863e+00 2.099272e+00 1.020442e+00 8.660575e+01 3.484464e+01 9.008192e+01 7.268515e+01 7.335857e+01 5.836351e+01 1.102114e+02 1.554170e+02 9.894185e+01 1.073836e+02 3.354053e+00 4.464177e+00 4.936742e+00 5.736691e+00 4.184072e+00 5.456068e+00 3.099063e+00 2.490570e+00
<VARIANCE> 22
 1.200791e+02 3.834278e+01 1.046973e+01 2.171573e+00 4.459991e+03 1.422958e+03 1.921645e+03 9.424827e+02 4.325409e+02 8.751104e+01 3.636087e+03 2.235185e+03 3.928249e+02 1.700999e+02 7.191935e+00 1.163650e+00 5.579734e+00 2.080099e-01 2.866372e+00 3.478737e+00 6.538606e+00 6.023647e+00
<GCONST> 1.278734e+02
<STATE> 3
<NUMMIXES> 2
<MIXTURE> 1 5.954564e-01
<MEAN> 22
 2.075662e+00 3.020516e+00 7.909861e-01 1.003529e+00 9.197276e+00 1.334612e+01 9.678200e+01 9.539557e+01 6.170210e+01 5.986620e+01 1.946735e+02 1.933042e+02 1.163290e+02 1.160961e+02 7.000000e+00 5.000000e+00 6.104484e+00 5.883616e+00 6.000017e+00 6.000913e+00 2.115454e+00 2.266025e+00
<VARIANCE> 22
 1.323871e+01 2.230591e+01 3.305621e+00 2.480491e+00 1.131093e+02 2.495330e+02 2.406716e+02 2.412592e+02 7.930396e+01 6.879680e+01 4.568430e+02 4.366104e+02 1.661261e+02 1.257827e+02 6.556339e-02 1.793070e-02 9.356593e-02 1.028370e-01 2.100767e-02 5.619852e-02 5.779810e+00 5.890489e+00
<GCONST> 8.559405e+01
<MIXTURE> 2 4.045434e-01
<MEAN> 22
 1.378719e+00 1.329114e+01 5.921379e-01 3.826150e+00 1.786628e+01 1.339805e+02 8.783509e+01 9.565226e+01 5.729660e+01 7.906429e+01 1.771277e+02 7.035548e+01 1.097910e+02 9.632233e+01 6.580110e+00 2.702473e+00 6.020002e+00 4.558780e+00 5.787788e+00 2.195819e+00 1.762266e+00 3.405551e+00
<VARIANCE> 22
 7.153741e+00 2.638308e+02 3.305621e+00 2.512405e+01 1.721413e+03 4.049298e+03 3.470113e+02 1.823551e+03 9.417365e+01 5.843406e+02 1.517352e+03 1.870676e+03 1.774335e+02 2.769928e+02 2.083933e+00 9.513336e-01 3.298787e-01 1.590015e+00 6.221312e-01 4.443174e+00 5.674210e+00 5.583158e+00
<GCONST> 1.225993e+02
<STATE> 4
<NUMMIXES> 2
<MIXTURE> 1 4.468358e-01
<MEAN> 22
 1.142769e+01 1.001224e+01 3.186033e+00 2.891582e+00 7.875867e+01 7.171680e+01 8.716549e+01 8.653524e+01 6.938770e+01 6.410304e+01 1.475435e+02 1.531303e+02 1.133170e+02 1.122894e+02 4.044560e+00 4.310246e+00 6.016385e+00 5.500772e+00 4.810068e+00 4.820351e+00 2.600134e+00 2.773677e+00
<VARIANCE> 22
 2.369613e+02 1.610292e+02 3.264592e+01 1.573762e+01 1.132815e+04 7.654160e+03 1.147458e+03 1.152101e+03 2.021906e+02 1.965213e+02 3.645440e+03 3.087409e+03 3.357477e+02 2.375442e+02 9.622219e+00 1.091646e+00 2.462260e+00 4.888081e-01 3.309515e+00 4.504674e+00 5.933847e+00 5.594055e+00
<GCONST> 1.364516e+02
<MIXTURE> 2 5.531639e-01
<MEAN> 22
 7.272460e+00 7.799950e+00 1.385942e+00 1.134298e+00 1.160790e+02 1.136637e+02 5.851184e+01 5.154910e+01 6.968517e+01 6.215803e+01 5.831623e+01 6.419817e+01 1.053086e+02 1.057451e+02 1.975285e+00 2.004665e+00 5.775583e+00 5.878981e+00 3.385433e+00 6.093079e-01 3.152291e+00 3.094972e+00
<VARIANCE> 22
 1.099233e+02 1.227165e+02 3.305621e+00 2.171573e+00 2.751805e+03 2.445964e+03 7.709696e+02 5.999402e+02 1.937470e+02 6.551376e+01 6.516628e+02 6.015721e+02 2.721885e+02 1.867719e+02 4.881841e-01 5.211395e-01 1.601814e+00 4.209755e-01 3.771191e-01 3.701473e-01 5.955322e+00 5.962121e+00
<GCONST> 1.136828e+02
<TRANSP> 5
 0.000000e+00 1.000000e+00 0.000000e+00 0.000000e+00 0.000000e+00
 0.000000e+00 6.762978e-01 3.237022e-01 0.000000e+00 0.000000e+00
 0.000000e+00 0.000000e+00 8.840305e-01 1.159695e-01 0.000000e+00
 0.000000e+00 0.000000e+00 0.000000e+00 7.877449e-01 2.122551e-01
 0.000000e+00 0.000000e+00 0.000000e+00 0.000000e+00 0.000000e+00
<ENDHMM>
~h "TH_D"
<BEGINHMM>
<NUMSTATES> 5
<STATE> 2
<NUMMIXES> 2
<MIXTURE> 1 3.906929e-01
<MEAN> 22
 1.391508e+01 1.265411e+01 3.749046e+00 3.007880e+00 7.951029e+01 7.101608e+01 8.932718e+01 7.691552e+01 7.351908e+01 6.378917e+01 1.312390e+02 1.356901e+02 1.112464e+02 1.119745e+02 3.599137e+00 3.782824e+00 5.653439e+00 5.654543e+00 4.349436e+00 3.913695e+00 3.229802e+00 3.118116e+00
<VARIANCE> 22
 3.290629e+02 3.264579e+02 4.438435e+01 3.062450e+01 4.476392e+03 3.906858e+03 1.682221e+03 1.312062e+03 3.436433e+02 2.085696e+02 4.954071e+03 3.620894e+03 6.635541e+02 3.509713e+02 8.200747e+00 2.103875e+00 3.551099e+00 5.393463e-01 3.342896e+00 7.004006e+00 6.677303e+00 6.182512e+00
<GCONST> 1.411291e+02
<MIXTURE> 2 6.093075e-01
<MEAN> 22
 2.130970e+00 7.282447e+00 7.362384e-01 2.127688e+00 5.639125e+01 1.451412e+02 7.640475e+01 8.635073e+01 6.202295e+01 7.341384e+01 1.327588e+02 5.344500e+01 1.076330e+02 9.802375e+01 4.753747e+00 2.206161e+00 6.119057e+00 4.873613e+00 4.903981e+00 9.865031e-01 2.166418e+00 3.142607e+00
<VARIANCE> 22
 1.098672e+01 9.297353e+01 3.305621e+00 9.840500e+00 4.238662e+03 2.611375e+03 6.577448e+02 1.799971e+03 1.208920e+02 4.562608e+02 4.429750e+03 5.942537e+02 1.826469e+02 2.502395e+02 6.779058e+00 3.594174e-01 1.824581e-01 1.898407e+00 1.810536e+00 5.038152e-01 6.431706e+00 6.203763e+00
<GCONST> 1.209046e+02
<STATE> 3
<NUMMIXES> 2
<MIXTURE> 1 6.580970e-01
<MEAN> 22
 2.125693e+00 2.819256e+00 7.991797e-01 9.686378e-01 8.461481e+00 1.225536e+01 9.598260e+01 9.383816e+01 6.087926e+01 5.799554e+01 1.937166e+02 1.919850e+02 1.160745e+02 1.151663e+02 6.998843e+00 5.000000e+00 6.098046e+00 5.909630e+00 6.000173e+00 5.999212e+00 2.184836e+00 2.401987e+00
<VARIANCE> 22
 1.103792e+01 1.577577e+01 3.305621e+00 2.171573e+00 7.501857e+01 2.135706e+02 2.462523e+02 2.114393e+02 7.019622e+01 6.669309e+01 4.650725e+02 4.231365e+02 1.590248e+02 1.315266e+02 6.556339e-02 1.793070e-02 8.843379e-02 8.220781e-02 2.100767e-02 5.619852e-02 5.891143e+00 5.915738e+00
<GCONST> 8.383509e+01
<MIXTURE> 2 3.419029e-01
<MEAN> 22
 8.672532e+00 1.577972e+01 1.711607e+00 3.297954e+00 4.610823e+01 7.021828e+01 7.361762e+01 6.535652e+01 6.316508e+01 6.643702e+01 1.476370e+02 1.228960e+02 1.073677e+02 1.038552e+02 4.629444e+00 3.853791e+00 6.129276e+00 5.468358e+00 5.304977e+00 4.496537e+00 2.961157e+00 3.470564e+00
<VARIANCE> 22
 1.476948e+02 2.912945e+02 7.437031e+00 1.872701e+01 2.511173e+03 2.306758e+03 9.955827e+02 1.113204e+03 1.431501e+02 2.481290e+02 2.739119e+03 1.960207e+03 2.300735e+02 1.879235e+02 8.847489e+00 1.356499e+00 7.468594e-01 5.150652e-01 1.548717e+00 6.677087e+00 6.853258e+00 5.533150e+00
<GCONST> 1.296794e+02
<STATE> 4
<NUMMIXES> 2
<MIXTURE> 1 7.353290e-01
<MEAN> 22
 9.235082e+00 3.223232e+00 2.775216e+00 1.058137e+00 9.778856e+01 2.627365e+01 1.029585e+02 9.177452e+01 7.779430e+01 5.772063e+01 1.171686e+02 1.862211e+02 1.058037e+02 1.142889e+02 3.517420e+00 4.880107e+00 4.863528e+00 5.800206e+00 4.202396e+00 5.928485e+00 3.096581e+00 2.308989e+00
<VARIANCE> 22
 2.166224e+02 4.289275e+01 1.856672e+01 2.812625e+00 5.719660e+03 1.119505e+03 1.555877e+03 5.978999e+02 3.998893e+02 6.364051e+01 5.174810e+03 1.064994e+03 3.790857e+02 1.551208e+02 7.896644e+00 1.631273e-01 6.456376e+00 1.616939e-01 3.208258e+00 3.854459e-01 6.450983e+00 6.140056e+00
<GCONST> 1.237775e+02
<MIXTURE> 2 2.646710e-01
<MEAN> 22
 1.648721e+00 8.734928e+00 7.174692e-01 2.636949e+00 7.929653e+01 1.526596e+02 6.920418e+01 8.537906e+01 4.770660e+01 6.166914e+01 1.185874e+02 5.390227e+01 8.212317e+01 7.257875e+01 4.064418e+00 1.798411e+00 4.265173e+00 3.272018e+00 3.836022e+00 1.173326e+00 1.665438e+00 2.126121e+00
<VARIANCE> 22
 1.370510e+01 2.494368e+02 3.305621e+00 2.284649e+01 2.486417e+04 1.387925e+04 2.465378e+03 4.317023e+03 9.127501e+02 1.908996e+03 8.714415e+03 2.459649e+03 2.868286e+03 2.240646e+03 9.718796e+00 1.603098e+00 7.496228e+00 5.070551e+00 6.405245e+00 1.907724e+00 5.723645e+00 5.675174e+00
<GCONST> 1.480293e+02
<TRANSP> 5
 0.000000e+00 1.000000e+00 0.000000e+00 0.000000e+00 0.000000e+00
 0.000000e+00 8.016126e-01 1.983874e-01 0.000000e+00 0.000000e+00
 0.000000e+00 0.000000e+00 8.736711e-01 1.263289e-01 0.000000e+00
 0.000000e+00 0.000000e+00 0.000000e+00 6.736111e-01 3.263890e-01
 0.000000e+00 0.000000e+00 0.000000e+00 0.000000e+00 0.000000e+00
<ENDHMM>
~h "TH_U"
<BEGINHMM>
<NUMSTATES> 5
<STATE> 2
<NUMMIXES> 2
<MIXTURE> 1 7.089884e-01
<MEAN> 22
 1.783161e+01 1.860063e+01 1.260263e+01 1.121865e+01 3.946269e+01 6.716638e+01 8.890887e+01 9.002625e+01 6.572433e+01 6.663002e+01 1.613149e+02 1.402802e+02 1.115550e+02 1.079774e+02 5.392226e+00 3.943174e+00 5.870533e+00 5.420278e+00 5.311596e+00 4.266842e+00 2.474879e+00 2.850879e+00
<VARIANCE> 22
 5.174856e+03 3.772373e+03 4.493777e+03 2.827824e+03 3.366759e+03 5.559967e+03 1.030875e+03 1.278741e+03 2.349581e+02 3.728451e+02 3.502157e+03 4.178145e+03 3.239925e+02 2.719695e+02 6.775146e+00 1.870677e+00 1.815705e+00 9.538169e-01 1.684339e+00 5.992835e+00 6.461646e+00 6.327100e+00
<GCONST> 1.527920e+02
<MIXTURE> 2 2.910114e-01
<MEAN> 22
 3.378413e+01 2.864031e+01 3.069432e+01 2.460661e+01 2.076651e+02 1.585732e+02 0.000000e+00 0.000000e+00 0.000000e+00 0.000000e+00 0.000000e+00 0.000000e+00 0.000000e+00 0.000000e+00 0.000000e+00 0.000000e+00 0.000000e+00 0.000000e+00 0.000000e+00 0.000000e+00 2.089883e-01 2.067410e-01
<VARIANCE> 22
 1.536078e+04 1.100295e+04 1.263842e+04 8.144624e+03 6.515404e+04 3.794226e+04 9.965449e+00 1.121763e+01 2.939336e+00 3.532397e+00 3.789059e+01 4.425213e+01 4.237011e+00 4.029980e+00 6.556339e-02 1.793070e-02 2.348461e-02 1.180012e-02 2.100767e-02 5.619852e-02 5.832897e-01 5.729849e-01
<GCONST> 9.400100e+01
<STATE> 3
<NUMMIXES> 2
<MIXTURE> 1 4.172514e-01
<MEAN> 22
 1.248232e+01 4.582468e+00 4.258533e+00 1.878995e+00 9.794284e+01 2.335315e+01 1.149539e+02 9.738459e+01 8.487582e+01 6.018327e+01 1.296650e+02 1.949885e+02 1.106436e+02 1.187177e+02 3.637415e+00 4.899190e+00 4.542282e+00 5.793900e+00 4.287691e+00 5.881998e+00 3.190380e+00 2.271676e+00
<VARIANCE> 22
 3.589573e+02 1.863157e+02 1.405686e+02 8.430275e+01 6.510561e+03 7.849056e+02 1.791141e+03 5.028647e+02 5.044724e+02 1.035494e+02 6.327730e+03 1.191647e+03 6.933838e+02 2.247832e+02 8.085152e+00 1.440863e-01 7.593264e+00 1.646964e-01 3.220731e+00 6.353779e-01 6.278786e+00 5.866490e+00
<GCONST> 1.334366e+02
<MIXTURE> 2 5.827452e-01
<MEAN> 22
 8.409536e+00 8.606834e+00 1.387421e+00 1.624021e+00 8.183892e+01 8.901046e+01 6.391047e+01 6.100952e+01 6.569414e+01 6.108121e+01 9.683327e+01 9.510754e+01 1.031951e+02 1.016451e+02 2.862390e+00 3.045911e+00 5.882525e+00 5.545474e+00 4.067581e+00 2.781336e+00 2.894816e+00 2.814103e+00
<VARIANCE> 22
 1.374501e+02 1.393848e+02 3.638004e+00 4.315621e+00 4.680118e+03 3.936230e+03 1.091823e+03 1.128015e+03 1.829493e+02 1.886202e+02 2.841481e+03 2.182048e+03 2.763437e+02 2.195160e+02 6.217284e+00 1.979041e+00 1.959395e+00 8.059444e-01 2.173760e+00 7.549498e+00 5.737215e+00 5.804740e+00
<GCONST> 1.301729e+02
<STATE> 4
<NUMMIXES> 2
<MIXTURE> 1 5.733244e-01
<MEAN> 22
 2.311813e+00 3.115600e+00 8.229936e-01 1.072579e+00 9.995454e+00 1.313670e+01 9.556784e+01 9.346128e+01 6.121615e+01 5.803252e+01 1.932424e+02 1.915735e+02 1.159003e+02 1.152948e+02 6.999200e+00 5.000000e+00 6.091518e+00 5.906123e+00 6.001355e+00 6.000496e+00 2.159215e+00 2.212128e+00
<VARIANCE> 22
 1.430479e+01 2.158262e+01 3.305621e+00 2.370189e+00 1.203894e+02 2.403967e+02 2.769256e+02 2.629431e+02 7.751324e+01 6.513364e+01 4.954089e+02 4.977624e+02 1.713788e+02 1.387336e+02 6.556339e-02 1.793070e-02 8.314361e-02 8.506695e-02 2.100767e-02 5.619852e-02 5.744455e+00 5.721547e+00
<GCONST> 8.576517e+01
<MIXTURE> 2 4.266755e-01
<MEAN> 22
 4.286584e+00 1.201228e+01 1.045984e+00 3.180567e+00 3.074907e+01 1.198953e+02 8.512108e+01 8.727228e+01 6.086511e+01 7.586425e+01 1.679457e+02 8.403650e+01 1.096075e+02 9.904453e+01 5.877409e+00 2.996105e+00 6.001235e+00 4.842723e+00 5.583616e+00 2.762395e+00 1.889779e+00 3.034078e+00
<VARIANCE> 22
 8.661806e+01 2.281364e+02 5.009712e+00 1.889696e+01 2.847954e+03 4.435796e+03 6.443435e+02 1.902460e+03 1.831855e+02 5.184622e+02 2.278920e+03 2.683276e+03 2.453618e+02 3.018623e+02 5.492679e+00 1.318687e+00 7.757251e-01 1.491253e+00 1.063430e+00 6.326490e+00 5.372596e+00 5.528863e+00
<GCONST> 1.309697e+02
<TRANSP> 5
 0.000000e+00 1.000000e+00 0.000000e+00 0.000000e+00 0.000000e+00
 0.000000e+00 3.565059e-01 6.434941e-01 0.000000e+00 0.000000e+00
 0.000000e+00 0.000000e+00 7.917014e-01 2.082986e-01 0.000000e+00
 0.000000e+00 0.000000e+00 0.000000e+00 8.846404e-01 1.153596e-01
 0.000000e+00 0.000000e+00 0.000000e+00 0.000000e+00 0.000000e+00
<ENDHMM>
~h "CP_2"
<BEGINHMM>
<NUMSTATES> 5
<STATE> 2
<NUMMIXES> 2
<MIXTURE> 1 8.386018e-01
<MEAN> 22
 8.940223e+00 9.298763e+00 3.649168e+00 3.365299e+00 8.005062e+01 9.343748e+01 1.045962e+02 1.003919e+02 7.690040e+01 7.046751e+01 1.726302e+02 1.501959e+02 1.182879e+02 1.132381e+02 5.088132e+00 4.109470e+00 5.762200e+00 5.325438e+00 5.050390e+00 4.469463e+00 2.435469e+00 2.717167e+00
<VARIANCE> 22
 7.275900e+02 5.006083e+02 5.159383e+02 2.945441e+02 1.734803e+04 1.363733e+04 2.604963e+03 1.392574e+03 7.066019e+02 6.164941e+02 4.494562e+03 4.514210e+03 5.643229e+02 2.853784e+02 7.991033e+00 1.483499e+00 2.989108e+00 9.256331e-01 2.829831e+00 5.297154e+00 5.989937e+00 6.179803e+00
<GCONST> 1.511649e+02
<MIXTURE> 2 1.613980e-01
<MEAN> 22
 0.000000e+00 0.000000e+00 0.000000e+00 0.000000e+00 3.355891e+02 2.694223e+02 0.000000e+00 0.000000e+00 0.000000e+00 0.000000e+00 0.000000e+00 0.000000e+00 0.000000e+00 0.000000e+00 0.000000e+00 0.000000e+00 0.000000e+00 0.000000e+00 0.000000e+00 0.000000e+00 0.000000e+00 0.000000e+00
<VARIANCE> 22
 4.801967e+00 4.073978e+00 3.305621e+00 2.171573e+00 4.683787e+04 2.987940e+04 9.965449e+00 1.121763e+01 2.939336e+00 3.532397e+00 3.789059e+01 4.425213e+01 4.237011e+00 4.029980e+00 6.556339e-02 1.793070e-02 2.348461e-02 1.180012e-02 2.100767e-02 5.619852e-02 6.159949e-02 6.062591e-02
<GCONST> 5.648749e+01
<STATE> 3
<NUMMIXES> 2
<MIXTURE> 1 6.687647e-01
<MEAN> 22
 1.522220e+00 1.050093e+01 6.878195e-01 3.415625e+00 9.036619e+00 1.124129e+02 9.349760e+01 1.004022e+02 5.915584e+01 7.710046e+01 1.914339e+02 9.812552e+01 1.139050e+02 1.018258e+02 7.000000e+00 3.324742e+00 6.091837e+00 4.719059e+00 5.999999e+00 3.268208e+00 1.751636e+00 2.965600e+00
<VARIANCE> 22
 8.206403e+00 2.230995e+02 3.305621e+00 2.532372e+01 1.111419e+02 6.057763e+03 2.285648e+02 1.329437e+03 5.908257e+01 4.437329e+02 4.552151e+02 4.349571e+03 1.323730e+02 2.707650e+02 6.556339e-02 1.567955e+00 8.340300e-02 1.377800e+00 2.100767e-02 6.025398e+00 5.528398e+00 5.921757e+00
<GCONST> 1.105602e+02
<MIXTURE> 2 3.312355e-01
<MEAN> 22
 7.650538e+00 9.509407e+00 1.295184e+00 1.584100e+00 8.293565e+01 8.774812e+01 5.600851e+01 6.678070e+01 6.698581e+01 6.188523e+01 7.981814e+01 7.825648e+01 9.850505e+01 9.752328e+01 2.108602e+00 2.627715e+00 5.764271e+00 5.326724e+00 3.882760e+00 1.882981e+00 3.090197e+00 2.954302e+00
<VARIANCE> 22
 1.144156e+02 1.729234e+02 3.490181e+00 4.064291e+00 5.025826e+03 4.063038e+03 9.712274e+02 1.211429e+03 1.879935e+02 1.930235e+02 1.779275e+03 2.281340e+03 3.120945e+02 4.948931e+02 3.591627e+00 1.332681e+00 2.461567e+00 1.310023e+00 1.421523e+00 5.128848e+00 5.972227e+00 6.423614e+00
<GCONST> 1.298220e+02
<STATE> 4
<NUMMIXES> 2
<MIXTURE> 1 5.940938e-01
<MEAN> 22
 3.247760e+00 3.040864e+00 1.027355e+00 1.081469e+00 1.378709e+01 1.583633e+01 9.726198e+01 9.568395e+01 6.382438e+01 6.001738e+01 1.960232e+02 1.948597e+02 1.186940e+02 1.180660e+02 6.993234e+00 5.000000e+00 6.151585e+00 5.885174e+00 6.001476e+00 5.998427e+00 2.504791e+00 2.348536e+00
<VARIANCE> 22
 2.513296e+01 2.017741e+01 3.305621e+00 2.355109e+00 2.538308e+02 3.500277e+02 3.675767e+02 2.727925e+02 9.528293e+01 7.688349e+01 6.661196e+02 5.469867e+02 2.001846e+02 1.536097e+02 6.556339e-02 1.793070e-02 1.286084e-01 1.016415e-01 2.100767e-02 5.619852e-02 6.178237e+00 6.272134e+00
<GCONST> 8.949542e+01
<MIXTURE> 2 4.059048e-01
<MEAN> 22
 1.025468e+01 9.213264e+00 2.837246e+00 2.156899e+00 7.324667e+01 5.544001e+01 7.869794e+01 8.165043e+01 7.256470e+01 6.071407e+01 1.169059e+02 1.474785e+02 1.061659e+02 1.084152e+02 2.785204e+00 4.245939e+00 5.790081e+00 5.466227e+00 4.244360e+00 5.071599e+00 3.127655e+00 2.884077e+00
<VARIANCE> 22
 1.507096e+02 1.943108e+02 1.428493e+01 9.993962e+00 3.483229e+03 3.048026e+03 1.441520e+03 1.084018e+03 2.635356e+02 1.637790e+02 2.935528e+03 2.992578e+03 3.051570e+02 2.351379e+02 8.342525e+00 1.063439e+00 3.659920e+00 6.286780e-01 3.002019e+00 4.191203e+00 6.415268e+00 5.762534e+00
<GCONST> 1.331199e+02
<TRANSP> 5
 0.000000e+00 1.000000e+00 0.000000e+00 0.000000e+00 0.000000e+00
 0.000000e+00 4.386940e-01 5.613059e-01 0.000000e+00 0.000000e+00
 0.000000e+00 0.000000e+00 7.697579e-01 2.302421e-01 0.000000e+00
 0.000000e+00 0.000000e+00 0.000000e+00 8.602014e-01 1.397987e-01
 0.000000e+00 0.000000e+00 0.000000e+00 0.000000e+00 0.000000e+00
<ENDHMM>
~h "CV_2"
<BEGINHMM>
<NUMSTATES> 5
<STATE> 2
<NUMMIXES> 2
<MIXTURE> 1 7.167554e-01
<MEAN> 22
 1.093951e+01 5.571046e+00 3.601080e+00 2.456032e+00 9.675128e+01 2.565330e+01 1.061886e+02 9.115478e+01 7.957194e+01 5.718501e+01 1.156449e+02 1.858022e+02 1.061441e+02 1.135163e+02 3.699353e+00 4.906860e+00 4.701828e+00 5.760066e+00 4.222221e+00 5.921675e+00 2.883174e+00 2.371105e+00
<VARIANCE> 22
 6.385285e+02 4.193088e+02 3.698542e+02 2.181285e+02 7.686860e+03 8.931384e+02 2.039956e+03 4.518153e+02 5.432155e+02 7.556406e+01 5.535230e+03 9.689835e+02 3.185067e+02 1.462740e+02 7.471172e+00 1.858520e-01 6.588712e+00 1.856414e-01 2.900627e+00 4.591812e-01 5.767663e+00 6.097002e+00
<GCONST> 1.349483e+02
<MIXTURE> 2 2.832444e-01
<MEAN> 22
 2.552198e+00 4.959178e+00 6.477783e-01 1.263498e+00 1.447498e+02 1.636602e+02 5.454886e+01 6.250906e+01 4.545533e+01 4.802869e+01 8.642278e+01 4.226508e+01 7.455347e+01 6.673235e+01 2.729261e+00 1.638427e+00 3.831492e+00 3.204109e+00 3.109417e+00 8.982683e-01 1.538520e+00 2.299540e+00
<VARIANCE> 22
 3.533501e+01 7.347329e+01 3.305621e+00 3.821195e+00 4.153394e+04 1.830239e+04 2.200599e+03 3.078366e+03 1.223092e+03 1.440418e+03 6.552616e+03 1.404172e+03 3.086792e+03 2.533342e+03 9.009012e+00 1.532246e+00 8.905568e+00 5.921919e+00 6.148548e+00 9.687476e-01 5.188743e+00 6.286942e+00
<GCONST> 1.451575e+02
<STATE> 3
<NUMMIXES> 2
<MIXTURE> 1 6.166710e-01
<MEAN> 22
 1.582117e+00 1.207067e+01 6.442651e-01 3.152499e+00 1.160871e+01 9.855035e+01 9.298704e+01 9.095925e+01 5.924195e+01 7.288017e+01 1.894985e+02 1.056398e+02 1.135477e+02 1.030678e+02 6.999783e+00 3.450481e+00 6.145631e+00 5.001046e+00 5.999745e+00 3.393535e+00 1.923743e+00 3.141363e+00
<VARIANCE> 22
 7.529830e+00 2.308422e+02 3.305621e+00 1.899603e+01 2.961552e+02 4.852282e+03 2.890372e+02 1.360429e+03 7.751887e+01 4.153069e+02 5.372770e+02 3.871075e+03 1.626343e+02 2.374698e+02 6.556339e-02 1.480134e+00 1.244207e-01 1.327242e+00 2.100767e-02 6.247713e+00 5.858245e+00 5.704094e+00
<GCONST> 1.119276e+02
<MIXTURE> 2 3.833284e-01
<MEAN> 22
 7.379862e+00 7.204702e+00 1.301697e+00 1.089311e+00 1.265926e+02 1.164684e+02 6.732669e+01 6.221911e+01 6.686275e+01 5.958754e+01 5.830739e+01 6.686938e+01 1.076141e+02 1.073339e+02 1.659051e+00 2.431389e+00 6.153480e+00 5.548364e+00 3.193887e+00 1.321961e+00 2.901130e+00 3.058156e+00
<VARIANCE> 22
 1.265869e+02 9.595940e+01 4.113227e+00 2.176544e+00 3.790586e+03 3.253216e+03 9.056689e+02 8.488377e+02 1.774020e+02 8.849223e+01 7.053937e+02 1.482947e+03 3.011241e+02 2.918715e+02 5.390558e-01 8.523057e-01 1.854318e+00 6.582473e-01 6.286336e-01 2.634667e+00 6.186009e+00 5.891945e+00
<GCONST> 1.203380e+02
<STATE> 4
<NUMMIXES> 2
<MIXTURE> 1 5.934727e-01
<MEAN> 22
 1.966193e+00 2.347061e+00 6.858042e-01 8.514538e-01 8.073116e+00 9.599739e+00 9.759728e+01 9.497237e+01 6.186312e+01 5.867601e+01 1.970712e+02 1.952530e+02 1.182859e+02 1.169465e+02 7.000000e+00 5.000000e+00 6.116169e+00 5.934515e+00 6.000000e+00 5.999864e+00 2.143114e+00 2.079913e+00
<VARIANCE> 22
 1.088025e+01 1.269642e+01 3.305621e+00 2.171573e+00 6.788989e+01 1.315592e+02 3.509866e+02 2.325480e+02 8.876958e+01 7.332071e+01 7.191340e+02 5.598208e+02 2.413233e+02 1.674186e+02 6.556339e-02 1.793070e-02 1.026741e-01 6.119662e-02 2.100767e-02 5.619852e-02 5.644943e+00 5.779101e+00
<GCONST> 8.496046e+01
<MIXTURE> 2 4.065274e-01
<MEAN> 22
 1.067591e+01 1.009641e+01 2.978746e+00 2.869612e+00 7.760836e+01 7.451180e+01 8.248382e+01 6.975305e+01 7.137160e+01 6.303894e+01 1.132532e+02 1.163546e+02 1.032971e+02 1.044955e+02 2.879132e+00 3.654229e+00 5.379668e+00 5.425821e+00 4.368562e+00 3.888704e+00 2.851725e+00 2.964619e+00
<VARIANCE> 22
 1.915476e+02 1.706121e+02 2.088027e+01 1.347985e+01 3.714436e+03 3.484938e+03 1.574460e+03 1.551679e+03 3.277919e+02 2.178989e+02 3.402249e+03 2.772897e+03 3.093184e+02 2.202156e+02 7.902696e+00 1.140326e+00 5.002093e+00 6.648039e-01 2.921418e+00 7.304334e+00 5.853653e+00 5.496870e+00
<GCONST> 1.358499e+02
<TRANSP> 5
 0.000000e+00 1.000000e+00 0.000000e+00 0.000000e+00 0.000000e+00
 0.000000e+00 6.100806e-01 3.899195e-01 0.000000e+00 0.000000e+00
 0.000000e+00 0.000000e+00 7.920514e-01 2.079486e-01 0.000000e+00
 0.000000e+00 0.000000e+00 0.000000e+00 8.369347e-01 1.630653e-01
 0.000000e+00 0.000000e+00 0.000000e+00 0.000000e+00 0.000000e+00
<ENDHMM>
~h "SIL"
<BEGINHMM>
<NUMSTATES> 5
<STATE> 2
<NUMMIXES> 2
<MIXTURE> 1 4.096705e-01
<MEAN> 22
 7.337491e+01 6.890258e+01 6.444880e+01 5.332567e+01 1.704953e+01 4.214348e+01 5.359281e+01 1.055171e+02 6.164824e+01 5.166284e+01 9.747759e+01 1.180249e+02 8.284595e+01 5.472341e+01 4.205194e+00 3.273964e+00 5.123347e+00 3.849135e+00 4.021967e+00 3.762551e+00 3.078456e+00 2.847228e+00
<VARIANCE> 22
 2.880090e+04 2.040664e+04 2.450001e+04 1.564397e+04 9.840577e+02 1.943176e+03 1.089593e+03 7.547385e+02 1.225495e+02 7.176295e+02 3.331246e+03 2.315760e+03 1.056255e+03 1.569486e+03 3.994925e+00 1.032294e+00 1.376019e+00 1.658346e+00 1.726953e+00 2.248988e+00 7.814688e+00 8.138809e+00
<GCONST> 1.577884e+02
<MIXTURE> 2 5.903295e-01
<MEAN> 22
 5.454243e+01 4.607104e+01 4.940872e+01 3.983290e+01 2.284812e+02 1.803227e+02 0.000000e+00 0.000000e+00 0.000000e+00 0.000000e+00 0.000000e+00 0.000000e+00 0.000000e+00 0.000000e+00 0.000000e+00 0.000000e+00 0.000000e+00 0.000000e+00 0.000000e+00 0.000000e+00 3.218026e-01 3.223906e-01
<VARIANCE> 22
 2.509290e+04 1.789140e+04 2.053361e+04 1.340907e+04 6.420593e+04 4.019248e+04 9.965449e+00 1.121763e+01 2.939336e+00 3.532397e+00 3.789059e+01 4.425213e+01 4.237011e+00 4.029980e+00 6.556339e-02 1.793070e-02 2.348461e-02 1.180012e-02 2.100767e-02 5.619852e-02 8.618617e-01 8.655806e-01
<GCONST> 9.680772e+01
<STATE> 3
<NUMMIXES> 2
<MIXTURE> 1 4.773360e-01
<MEAN> 22
 2.421418e+00 2.517363e+00 9.096130e-01 9.455042e-01 1.205838e+01 1.150229e+01 1.130622e+02 1.086072e+02 7.057297e+01 6.506314e+01 2.157788e+02 2.128386e+02 1.284338e+02 1.270524e+02 6.998414e+00 5.000134e+00 6.210001e+00 5.879862e+00 6.002267e+00 5.995115e+00 2.237964e+00 2.038428e+00
<VARIANCE> 22
 1.532696e+01 1.641545e+01 3.305621e+00 2.171573e+00 2.112655e+02 1.732279e+02 2.201430e+02 1.310383e+02 6.124139e+01 5.310511e+01 3.165405e+02 2.514606e+02 1.201752e+02 7.901900e+01 6.556339e-02 1.793070e-02 1.659139e-01 1.056815e-01 2.100767e-02 5.619852e-02 5.896476e+00 5.656525e+00
<GCONST> 8.321601e+01
<MIXTURE> 2 5.226650e-01
<MEAN> 22
 8.893048e+00 1.033303e+01 2.314910e+00 2.710084e+00 7.931612e+01 9.410532e+01 9.814910e+01 9.554652e+01 7.705879e+01 7.438786e+01 1.399736e+02 1.305766e+02 1.142105e+02 1.135097e+02 3.964433e+00 3.690450e+00 5.429937e+00 5.218578e+00 4.609762e+00 3.831246e+00 2.829140e+00 2.881475e+00
<VARIANCE> 22
 1.953349e+02 2.453463e+02 1.712593e+01 1.953192e+01 5.872766e+03 6.542472e+03 1.606944e+03 1.590648e+03 3.593404e+02 4.906711e+02 5.546955e+03 4.495647e+03 3.835421e+02 1.949457e+02 8.391361e+00 1.761115e+00 4.483890e+00 1.012753e+00 2.762359e+00 6.410086e+00 6.370290e+00 5.987681e+00
<GCONST> 1.402971e+02
<STATE> 4
<NUMMIXES> 2
<MIXTURE> 1 4.989264e-01
<MEAN> 22
 1.539067e+00 2.765108e+00 5.725842e-01 9.619603e-01 5.864471e+00 9.580727e+00 8.711748e+01 8.595583e+01 5.579443e+01 5.432759e+01 1.817516e+02 1.804841e+02 1.097317e+02 1.090915e+02 6.999402e+00 5.000001e+00 6.008608e+00 5.934366e+00 6.000000e+00 6.000754e+00 1.947286e+00 2.230149e+00
<VARIANCE> 22
 7.074825e+00 1.812172e+01 3.305621e+00 2.194240e+00 4.932808e+01 1.252779e+02 5.731026e+01 8.244356e+01 2.021604e+01 4.271089e+01 1.050480e+02 1.308382e+02 3.539228e+01 4.249648e+01 6.556339e-02 1.793070e-02 2.348461e-02 6.131972e-02 2.100767e-02 5.619852e-02 5.685803e+00 5.937690e+00
<GCONST> 7.155177e+01
<MIXTURE> 2 5.010762e-01
<MEAN> 22
 5.121629e+00 1.082615e+01 1.259616e+00 2.787123e+00 4.161884e+01 1.073309e+02 7.868504e+01 8.307874e+01 5.799664e+01 6.923043e+01 1.469549e+02 8.795955e+01 1.032522e+02 9.528131e+01 5.359775e+00 3.147491e+00 5.928616e+00 5.021267e+00 5.283309e+00 2.962711e+00 2.227763e+00 3.067869e+00
<VARIANCE> 22
 9.785145e+01 1.826909e+02 7.035428e+00 1.682207e+01 3.139200e+03 4.104617e+03 5.794960e+02 1.503925e+03 1.042641e+02 4.026786e+02 2.721387e+03 2.810688e+03 1.054516e+02 1.377492e+02 6.782129e+00 1.595182e+00 1.256433e+00 1.351637e+00 1.847111e+00 6.478820e+00 6.177581e+00 5.814437e+00
<GCONST> 1.301009e+02
<TRANSP> 5
 0.000000e+00 1.000000e+00 0.000000e+00 0.000000e+00 0.000000e+00
 0.000000e+00 8.671240e-01 1.328760e-01 0.000000e+00 0.000000e+00
 0.000000e+00 0.000000e+00 9.958830e-01 4.116955e-03 0.000000e+00
 0.000000e+00 0.000000e+00 0.000000e+00 9.965249e-01 3.475046e-03
 0.000000e+00 0.000000e+00 0.000000e+00 0.000000e+00 0.000000e+00
<ENDHMM>
~h "TT_2"
<BEGINHMM>
<NUMSTATES> 5
<STATE> 2
<NUMMIXES> 2
<MIXTURE> 1 5.388563e-01
<MEAN> 22
 8.785886e+00 2.390309e+00 2.571474e+00 1.033262e+00 1.137294e+02 2.264086e+01 1.124204e+02 1.009974e+02 8.980216e+01 5.823967e+01 1.179162e+02 2.019857e+02 1.080561e+02 1.198531e+02 3.120474e+00 5.000422e+00 4.584322e+00 5.889832e+00 4.072831e+00 5.998074e+00 2.901194e+00 2.431431e+00
<VARIANCE> 22
 1.524656e+02 1.267584e+01 1.624422e+01 2.171573e+00 8.884058e+03 6.980195e+02 2.399510e+03 2.594166e+02 8.671345e+02 8.907916e+01 4.744350e+03 5.370629e+02 4.846840e+02 1.546461e+02 7.093949e+00 1.793070e-02 7.257715e+00 9.803226e-02 2.637515e+00 5.619852e-02 5.856290e+00 6.133367e+00
<GCONST> 1.170449e+02
<MIXTURE> 2 4.611430e-01
<MEAN> 22
 8.446207e+00 9.497694e+00 2.391077e+00 2.811432e+00 7.775896e+01 8.316771e+01 7.942464e+01 6.421149e+01 7.149684e+01 6.702890e+01 1.079231e+02 9.519040e+01 1.004289e+02 1.007831e+02 2.941898e+00 2.998343e+00 5.707180e+00 5.417111e+00 4.146055e+00 2.660170e+00 3.102886e+00 3.126094e+00
<VARIANCE> 22
 1.734267e+02 2.164016e+02 1.700530e+01 1.719394e+01 4.174913e+03 4.111033e+03 1.772510e+03 1.664355e+03 5.930881e+02 3.691958e+02 2.998850e+03 1.726539e+03 2.451820e+02 2.099156e+02 6.923030e+00 1.664248e+00 3.283969e+00 8.920366e-01 2.856837e+00 7.528872e+00 6.955420e+00 6.309369e+00
<GCONST> 1.371742e+02
<STATE> 3
<NUMMIXES> 2
<MIXTURE> 1 8.735195e-01
<MEAN> 22
 1.070180e+00 1.221132e+01 5.555801e-01 3.563500e+00 6.847951e+00 1.313680e+02 9.266425e+01 1.032185e+02 5.682354e+01 8.526875e+01 1.900382e+02 9.003590e+01 1.130143e+02 9.726598e+01 7.000000e+00 3.000273e+00 6.039611e+00 4.634572e+00 6.000000e+00 2.833826e+00 1.683527e+00 3.325054e+00
<VARIANCE> 22
 4.801967e+00 2.317495e+02 3.305621e+00 2.710756e+01 5.798994e+01 5.933999e+03 2.072873e+02 2.373472e+03 6.548792e+01 7.422825e+02 3.599243e+02 3.151756e+03 1.243330e+02 3.002405e+02 6.556339e-02 1.408107e+00 3.804219e-02 1.664635e+00 2.100767e-02 5.937318e+00 5.375622e+00 5.892790e+00
<GCONST> 1.092912e+02
<MIXTURE> 2 1.264802e-01
<MEAN> 22
 5.318111e+00 3.276626e+00 2.090036e+00 1.168201e+00 1.584212e+02 1.087762e+02 7.308260e+01 6.556873e+01 5.966798e+01 4.886388e+01 8.484058e+01 1.065340e+02 7.725797e+01 8.054199e+01 2.162935e+00 2.861845e+00 3.880172e+00 4.030766e+00 3.023930e+00 3.125917e+00 2.281231e+00 1.827785e+00
<VARIANCE> 22
 6.507812e+01 2.865360e+01 1.579080e+01 4.920822e+00 2.902175e+04 1.923006e+04 3.503964e+03 2.765376e+03 1.782731e+03 1.142485e+03 5.838655e+03 6.821841e+03 2.361090e+03 2.507603e+03 6.860395e+00 4.197964e+00 9.226807e+00 6.256227e+00 5.328956e+00 8.263977e+00 6.028805e+00 5.175239e+00
<GCONST> 1.508062e+02
<STATE> 4
<NUMMIXES> 2
<MIXTURE> 1 7.126176e-01
<MEAN> 22
 1.591280e+00 2.450102e+00 6.740723e-01 9.392416e-01 9.602863e+00 1.114299e+01 9.778763e+01 9.683254e+01 6.206423e+01 5.955454e+01 1.987315e+02 1.973057e+02 1.191833e+02 1.180688e+02 6.998534e+00 5.001263e+00 6.071002e+00 5.930017e+00 6.000000e+00 5.997719e+00 1.914067e+00 2.112622e+00
<VARIANCE> 22
 7.094938e+00 1.302674e+01 3.305621e+00 2.171573e+00 1.401862e+02 1.807941e+02 2.419216e+02 2.065996e+02 6.420414e+01 6.978812e+01 4.892768e+02 4.203739e+02 1.540991e+02 1.292138e+02 6.556339e-02 1.793070e-02 6.596100e-02 6.508614e-02 2.100767e-02 5.619852e-02 5.376359e+00 5.738229e+00
<GCONST> 8.292188e+01
<MIXTURE> 2 2.873822e-01
<MEAN> 22
 7.355844e+00 1.256113e+01 2.214011e+00 3.555307e+00 6.645660e+01 1.283053e+02 9.500532e+01 1.069122e+02 7.245760e+01 8.448092e+01 1.602254e+02 1.106893e+02 1.128673e+02 1.044874e+02 4.621898e+00 3.248636e+00 6.153504e+00 4.776357e+00 5.152812e+00 3.091460e+00 2.363671e+00 2.793431e+00
<VARIANCE> 22
 1.648123e+02 2.393676e+02 1.917688e+01 3.458155e+01 5.136495e+03 7.878640e+03 1.762891e+03 2.883595e+03 4.065191e+02 9.303793e+02 4.002757e+03 3.742860e+03 4.262943e+02 4.898854e+02 8.993534e+00 1.661141e+00 1.867034e+00 1.583145e+00 2.419806e+00 6.158122e+00 5.689877e+00 5.278445e+00
<GCONST> 1.419771e+02
<TRANSP> 5
 0.000000e+00 1.000000e+00 0.000000e+00 0.000000e+00 0.000000e+00
 0.000000e+00 7.856381e-01 2.143619e-01 0.000000e+00 0.000000e+00
 0.000000e+00 0.000000e+00 7.550692e-01 2.449308e-01 0.000000e+00
 0.000000e+00 0.000000e+00 0.000000e+00 8.256470e-01 1.743531e-01
 0.000000e+00 0.000000e+00 0.000000e+00 0.000000e+00 0.000000e+00
<ENDHMM>
~h "DC_2"
<BEGINHMM>
<NUMSTATES> 5
<STATE> 2
<NUMMIXES> 2
<MIXTURE> 1 4.604523e-01
<MEAN> 22
 1.440867e+01 1.075295e+01 5.629037e+00 3.339622e+00 7.246516e+01 4.218912e+01 9.336447e+01 8.471382e+01 7.432789e+01 6.077375e+01 1.434319e+02 1.703130e+02 1.067762e+02 1.118071e+02 4.215712e+00 4.671145e+00 5.464477e+00 5.731636e+00 4.807990e+00 5.744484e+00 3.271363e+00 2.754323e+00
<VARIANCE> 22
 6.738595e+02 4.809812e+02 4.012492e+02 2.189549e+02 4.584632e+03 1.517555e+03 1.641217e+03 8.987686e+02 4.491276e+02 1.225976e+02 3.631984e+03 1.713972e+03 3.848598e+02 1.801127e+02 9.088225e+00 5.447328e-01 4.007215e+00 2.148156e-01 2.945134e+00 1.689191e+00 6.323942e+00 5.695745e+00
<GCONST> 1.388100e+02
<MIXTURE> 2 5.395481e-01
<MEAN> 22
 8.270796e+00 1.013741e+01 1.431383e+00 2.944562e+00 1.128887e+02 1.238547e+02 5.562519e+01 5.648123e+01 6.691982e+01 6.337844e+01 7.824290e+01 6.460620e+01 9.914787e+01 9.653793e+01 2.338863e+00 2.121405e+00 5.982127e+00 5.610703e+00 3.914805e+00 7.968068e-01 2.581095e+00 2.521744e+00
<VARIANCE> 22
 1.514848e+02 2.160987e+02 4.051332e+00 3.424416e+01 3.084598e+03 1.783973e+03 7.400491e+02 8.672713e+02 1.536238e+02 1.847188e+02 1.856910e+03 6.709449e+02 2.602709e+02 2.519343e+02 3.380079e+00 8.182855e-01 7.902977e-01 8.871542e-01 9.845573e-01 1.927529e+00 5.082875e+00 5.211307e+00
<GCONST> 1.246142e+02
<STATE> 3
<NUMMIXES> 2
<MIXTURE> 1 6.005296e-01
<MEAN> 22
 1.968882e+00 2.967691e+00 7.606568e-01 1.129127e+00 9.199559e+00 1.362815e+01 9.568884e+01 9.434409e+01 6.106570e+01 5.785019e+01 1.941635e+02 1.925505e+02 1.165553e+02 1.150409e+02 7.000000e+00 5.000000e+00 6.081934e+00 5.886759e+00 5.999478e+00 5.996237e+00 2.202992e+00 2.263266e+00
<VARIANCE> 22
 1.002267e+01 1.792591e+01 3.305621e+00 2.297777e+00 9.393519e+01 2.461532e+02 2.339738e+02 2.285049e+02 7.520791e+01 7.030308e+01 5.021439e+02 4.749516e+02 1.613260e+02 1.323767e+02 6.556339e-02 1.793070e-02 7.522093e-02 1.004179e-01 2.100767e-02 5.619852e-02 5.975295e+00 5.749096e+00
<GCONST> 8.467477e+01
<MIXTURE> 2 3.994704e-01
<MEAN> 22
 1.561266e+00 1.193205e+01 6.291210e-01 3.517624e+00 2.361017e+01 1.187209e+02 8.856344e+01 8.594596e+01 5.888596e+01 7.593630e+01 1.755790e+02 7.756657e+01 1.088904e+02 9.752697e+01 6.468934e+00 2.883917e+00 5.999251e+00 4.756161e+00 5.734385e+00 2.627653e+00 1.792727e+00 3.183773e+00
<VARIANCE> 22
 9.126052e+00 2.286235e+02 3.305621e+00 2.536027e+01 2.172720e+03 3.935519e+03 4.231238e+02 1.642031e+03 1.385434e+02 4.445842e+02 1.666480e+03 2.572762e+03 2.352753e+02 3.013353e+02 2.721140e+00 1.141852e+00 4.862967e-01 1.613700e+00 8.447171e-01 6.141791e+00 5.633151e+00 5.573471e+00
<GCONST> 1.253710e+02
<STATE> 4
<NUMMIXES> 2
<MIXTURE> 1 7.443212e-01
<MEAN> 22
 1.066527e+01 6.186852e+00 2.733099e+00 1.508906e+00 8.490240e+01 3.859965e+01 9.834113e+01 8.965639e+01 7.605758e+01 6.069866e+01 1.341698e+02 1.770599e+02 1.103626e+02 1.143411e+02 3.679606e+00 4.691734e+00 5.469793e+00 5.734187e+00 4.486073e+00 5.678126e+00 2.822553e+00 2.468748e+00
<VARIANCE> 22
 2.287306e+02 1.320655e+02 1.751008e+01 6.145083e+00 4.863414e+03 1.944804e+03 1.801849e+03 8.190629e+02 4.396245e+02 1.157657e+02 5.493733e+03 2.039768e+03 6.211960e+02 2.766445e+02 8.828846e+00 4.729783e-01 4.746124e+00 2.282405e-01 3.267576e+00 1.597075e+00 5.720809e+00 6.017375e+00
<GCONST> 1.315188e+02
<MIXTURE> 2 2.556774e-01
<MEAN> 22
 3.833048e+00 4.016990e+00 7.554348e-01 8.566301e-01 1.312493e+02 1.359507e+02 5.047985e+01 5.147742e+01 4.021345e+01 4.295596e+01 4.901732e+01 3.006063e+01 5.907300e+01 5.808500e+01 1.731131e+00 1.275479e+00 3.228714e+00 3.093292e+00 2.297025e+00 5.181805e-01 1.650784e+00 1.712970e+00
<VARIANCE> 22
 5.064542e+01 5.501923e+01 3.305621e+00 2.887781e+00 2.451213e+04 1.279346e+04 2.325963e+03 2.688047e+03 1.118536e+03 1.354057e+03 3.692216e+03 9.750549e+02 2.499671e+03 2.297893e+03 4.715672e+00 1.240420e+00 8.776037e+00 7.287930e+00 4.485385e+00 3.889442e-01 5.211240e+00 4.926570e+00
<GCONST> 1.404514e+02
<TRANSP> 5
 0.000000e+00 1.000000e+00 0.000000e+00 0.000000e+00 0.000000e+00
 0.000000e+00 7.384705e-01 2.615295e-01 0.000000e+00 0.000000e+00
 0.000000e+00 0.000000e+00 8.731701e-01 1.268299e-01 0.000000e+00
 0.000000e+00 0.000000e+00 0.000000e+00 7.062230e-01 2.937771e-01
 0.000000e+00 0.000000e+00 0.000000e+00 0.000000e+00 0.000000e+00
<ENDHMM>
~h "MC_2"
<BEGINHMM>
<NUMSTATES> 5
<STATE> 2
<NUMMIXES> 2
<MIXTURE> 1 5.894232e-01
<MEAN> 22
 9.824509e+00 3.469808e+00 2.765567e+00 1.406737e+00 6.920261e+01 1.792172e+01 8.359276e+01 9.952642e+01 7.661767e+01 5.735738e+01 1.407713e+02 1.997378e+02 1.145805e+02 1.182078e+02 4.193022e+00 5.000000e+00 6.444808e+00 5.837325e+00 4.922613e+00 5.983768e+00 3.018670e+00 2.487699e+00
<VARIANCE> 22
 1.528878e+02 2.702180e+01 2.005763e+01 3.880994e+00 3.253554e+03 3.543011e+02 9.369328e+02 2.947019e+02 3.643864e+02 7.578744e+01 5.119429e+03 6.080665e+02 4.017356e+02 1.696617e+02 8.909139e+00 1.793070e-02 2.685433e-01 1.362127e-01 1.786940e+00 5.619852e-02 6.240715e+00 6.188964e+00
<GCONST> 1.121205e+02
<MIXTURE> 2 4.105761e-01
<MEAN> 22
 6.174664e+00 4.878719e+00 2.051520e+00 1.664475e+00 1.399495e+02 7.526865e+01 1.091179e+02 7.808080e+01 7.315397e+01 5.715232e+01 8.091789e+01 1.324832e+02 8.612131e+01 9.513383e+01 2.648287e+00 3.814076e+00 2.655273e+00 4.888600e+00 3.216943e+00 4.440337e+00 2.761498e+00 2.285574e+00
<VARIANCE> 22
 1.268520e+02 9.027136e+01 1.239970e+01 1.308009e+01 1.709116e+04 1.202585e+04 2.509700e+03 1.631525e+03 9.450805e+02 5.608265e+02 4.474501e+03 4.086099e+03 1.037140e+03 1.145158e+03 5.615711e+00 2.415269e+00 7.249578e+00 2.933551e+00 3.501585e+00 6.024045e+00 6.575034e+00 6.139194e+00
<GCONST> 1.455354e+02
<STATE> 3
<NUMMIXES> 2
<MIXTURE> 1 7.310098e-01
<MEAN> 22
 1.105047e+00 9.169936e+00 5.069387e-01 2.650538e+00 7.268815e+00 1.041988e+02 9.230434e+01 8.123858e+01 5.762756e+01 7.381915e+01 1.880372e+02 9.865228e+01 1.126713e+02 1.017130e+02 7.000000e+00 3.423606e+00 6.087465e+00 5.112473e+00 6.000000e+00 3.335484e+00 1.636713e+00 2.945685e+00
<VARIANCE> 22
 4.801967e+00 1.408171e+02 3.305621e+00 1.707112e+01 5.682734e+01 4.707042e+03 2.698806e+02 1.740012e+03 7.340728e+01 4.311153e+02 5.048286e+02 3.076360e+03 1.664940e+02 2.061903e+02 6.556339e-02 1.559596e+00 7.981469e-02 1.168819e+00 2.100767e-02 7.271545e+00 5.293932e+00 5.762145e+00
<GCONST> 1.084877e+02
<MIXTURE> 2 2.689899e-01
<MEAN> 22
 8.131151e+00 8.135176e+00 1.700212e+00 1.213512e+00 9.857375e+01 8.002136e+01 5.855826e+01 5.665754e+01 6.809777e+01 6.052717e+01 7.092304e+01 9.136034e+01 1.023609e+02 1.036494e+02 2.008942e+00 2.970365e+00 5.773345e+00 5.709625e+00 3.632860e+00 2.712336e+00 3.193080e+00 2.658381e+00
<VARIANCE> 22
 9.878384e+01 1.100699e+02 6.458230e+00 2.757485e+00 4.418547e+03 4.074993e+03 1.192385e+03 1.124162e+03 1.538836e+02 9.309877e+01 1.572921e+03 2.357048e+03 2.122256e+02 1.849892e+02 1.981330e+00 1.868202e+00 2.461122e+00 5.219112e-01 8.786045e-01 8.320286e+00 5.890353e+00 5.579856e+00
<GCONST> 1.257362e+02
<STATE> 4
<NUMMIXES> 2
<MIXTURE> 1 6.703861e-01
<MEAN> 22
 1.379248e+00 1.652701e+00 5.059096e-01 7.143283e-01 7.439178e+00 7.606165e+00 9.641866e+01 9.502206e+01 6.104110e+01 5.797091e+01 1.960611e+02 1.949444e+02 1.173988e+02 1.165400e+02 7.000000e+00 5.000000e+00 6.054026e+00 5.931635e+00 6.000000e+00 6.000383e+00 2.025506e+00 1.918309e+00
<VARIANCE> 22
 4.801967e+00 6.559163e+00 3.305621e+00 2.171573e+00 5.918472e+01 5.399630e+01 2.002517e+02 1.579789e+02 6.460706e+01 6.329252e+01 4.526469e+02 4.106967e+02 1.482252e+02 1.343212e+02 6.556339e-02 1.793070e-02 5.110712e-02 6.369165e-02 2.100767e-02 5.619852e-02 5.902441e+00 5.690631e+00
<GCONST> 7.893285e+01
<MIXTURE> 2 3.296131e-01
<MEAN> 22
 9.196851e+00 1.361174e+01 2.312274e+00 3.196278e+00 5.816031e+01 8.283379e+01 8.028242e+01 8.296957e+01 6.841962e+01 6.770956e+01 1.425136e+02 1.144768e+02 1.060523e+02 1.043189e+02 3.989230e+00 3.650539e+00 6.070498e+00 5.149795e+00 5.387671e+00 3.773014e+00 2.888883e+00 3.190333e+00
<VARIANCE> 22
 2.234264e+02 6.094601e+02 1.186505e+01 1.570373e+01 3.396481e+03 3.976699e+03 9.356446e+02 1.211020e+03 2.561624e+02 3.760594e+02 2.971439e+03 2.942229e+03 2.869349e+02 2.981917e+02 1.019187e+01 1.324766e+00 2.154805e+00 8.540836e-01 1.868721e+00 6.181600e+00 5.733787e+00 5.481552e+00
<GCONST> 1.357653e+02
<TRANSP> 5
 0.000000e+00 1.000000e+00 0.000000e+00 0.000000e+00 0.000000e+00
 0.000000e+00 7.624537e-01 2.375463e-01 0.000000e+00 0.000000e+00
 0.000000e+00 0.000000e+00 8.158735e-01 1.841265e-01 0.000000e+00
 0.000000e+00 0.000000e+00 0.000000e+00 8.261114e-01 1.738885e-01
 0.000000e+00 0.000000e+00 0.000000e+00 0.000000e+00 0.000000e+00
<ENDHMM>
~h "VA_2"
<BEGINHMM>
<NUMSTATES> 5
<STATE> 2
<NUMMIXES> 2
<MIXTURE> 1 6.087739e-01
<MEAN> 22
 1.931941e+00 1.842294e+00 7.780435e-01 8.526812e-01 9.923594e+00 1.282879e+01 9.856653e+01 9.666431e+01 6.260334e+01 5.864355e+01 1.997111e+02 1.983835e+02 1.193254e+02 1.182567e+02 7.000000e+00 5.000000e+00 6.106197e+00 5.958657e+00 5.999999e+00 5.994574e+00 1.917011e+00 1.923348e+00
<VARIANCE> 22
 1.069384e+01 1.039373e+01 3.305621e+00 2.171573e+00 1.616357e+02 3.759173e+02 2.900191e+02 2.161832e+02 8.089676e+01 6.246825e+01 5.704277e+02 4.917495e+02 1.826237e+02 1.446782e+02 6.556339e-02 1.793070e-02 9.492026e-02 3.963322e-02 2.100767e-02 5.619852e-02 5.783592e+00 5.769121e+00
<GCONST> 8.486718e+01
<MIXTURE> 2 3.912254e-01
<MEAN> 22
 1.056711e+01 1.207186e+01 3.040343e+00 3.425059e+00 7.078366e+01 7.493223e+01 8.134553e+01 7.327874e+01 7.553342e+01 6.771506e+01 1.222181e+02 1.221314e+02 1.070764e+02 1.062330e+02 3.125738e+00 3.680080e+00 5.570649e+00 5.286402e+00 4.487040e+00 3.946105e+00 3.205133e+00 2.971093e+00
<VARIANCE> 22
 2.066602e+02 3.189585e+02 2.307333e+01 2.559352e+01 4.297294e+03 4.231522e+03 1.728457e+03 1.677367e+03 4.286004e+02 3.145907e+02 3.627671e+03 2.742970e+03 3.691412e+02 2.650846e+02 7.949745e+00 1.332057e+00 4.141894e+00 7.295665e-01 2.745132e+00 7.325753e+00 6.129942e+00 5.830882e+00
<GCONST> 1.389659e+02
<STATE> 3
<NUMMIXES> 2
<MIXTURE> 1 6.396428e-01
<MEAN> 22
 9.637556e+00 3.154199e+00 2.801877e+00 1.222232e+00 1.093586e+02 2.032671e+01 1.120141e+02 9.462996e+01 8.848512e+01 5.697050e+01 1.184303e+02 1.896570e+02 1.010064e+02 1.146389e+02 3.439214e+00 4.945643e+00 4.379607e+00 5.774055e+00 4.131722e+00 6.010098e+00 2.741881e+00 2.322187e+00
<VARIANCE> 22
 1.539519e+02 2.425258e+01 1.755371e+01 3.335974e+00 8.240264e+03 5.595695e+02 2.504319e+03 4.174016e+02 7.676284e+02 7.225871e+01 4.119902e+03 7.687700e+02 4.618321e+02 1.468729e+02 7.340387e+00 5.445065e-02 7.082950e+00 1.748936e-01 2.894161e+00 5.619852e-02 5.541846e+00 5.781878e+00
<GCONST> 1.198969e+02
<MIXTURE> 2 3.603567e-01
<MEAN> 22
 5.325341e+00 8.739413e+00 8.130456e-01 1.118801e+00 9.396817e+01 1.332612e+02 6.770437e+01 7.217060e+01 6.332825e+01 6.907971e+01 9.513608e+01 6.413638e+01 9.942914e+01 9.364985e+01 3.036729e+00 1.982681e+00 5.561009e+00 4.965289e+00 3.834284e+00 8.440074e-01 2.491289e+00 2.484638e+00
<VARIANCE> 22
 8.196830e+01 1.442675e+02 3.305621e+00 2.740616e+00 1.167999e+04 7.127523e+03 1.854237e+03 2.739890e+03 4.596808e+02 8.205412e+02 4.979082e+03 1.261938e+03 9.227260e+02 7.583648e+02 5.786675e+00 9.589083e-01 3.261324e+00 2.950288e+00 2.783330e+00 1.290819e+00 6.400506e+00 6.049232e+00
<GCONST> 1.365586e+02
<STATE> 4
<NUMMIXES> 2
<MIXTURE> 1 1.755966e-01
<MEAN> 22
 1.382504e+01 1.997980e+01 6.221562e+00 5.794354e+00 1.657469e+02 1.337882e+02 9.366529e+01 9.077615e+01 8.035098e+01 6.958938e+01 1.310484e+02 1.343546e+02 9.745757e+01 1.056216e+02 3.856077e+00 3.959347e+00 5.565359e+00 5.149076e+00 4.776215e+00 4.451776e+00 3.613933e+00 3.476036e+00
<VARIANCE> 22
 1.569139e+03 2.578095e+03 1.156684e+03 6.590474e+02 3.346558e+04 2.053229e+04 2.669729e+03 2.131826e+03 6.005138e+02 4.530361e+02 4.504061e+03 3.059410e+03 1.085104e+03 4.389686e+02 8.332267e+00 1.813947e+00 4.167220e+00 1.090990e+00 2.888129e+00 5.331633e+00 6.497909e+00 6.515857e+00
<GCONST> 1.578293e+02
<MIXTURE> 2 8.244030e-01
<MEAN> 22
 1.208010e+00 9.759017e+00 4.739278e-01 2.911771e+00 7.112376e+00 1.192390e+02 9.400797e+01 9.896150e+01 5.794448e+01 8.242393e+01 1.905177e+02 9.878132e+01 1.135003e+02 1.001340e+02 6.996912e+00 3.266199e+00 6.132982e+00 4.819444e+00 6.000000e+00 3.021435e+00 1.723310e+00 3.074847e+00
<VARIANCE> 22
 5.114598e+00 1.611496e+02 3.305621e+00 1.747380e+01 6.634776e+01 6.849572e+03 2.855101e+02 2.294868e+03 7.587059e+01 7.164388e+02 5.437054e+02 3.784821e+03 1.780941e+02 2.939520e+02 6.556339e-02 1.608819e+00 1.152993e-01 1.515094e+00 2.100767e-02 6.582357e+00 5.739653e+00 5.718555e+00
<GCONST> 1.114485e+02
<TRANSP> 5
 0.000000e+00 1.000000e+00 0.000000e+00 0.000000e+00 0.000000e+00
 0.000000e+00 8.218881e-01 1.781118e-01 0.000000e+00 0.000000e+00
 0.000000e+00 0.000000e+00 6.681206e-01 3.318794e-01 0.000000e+00
 0.000000e+00 0.000000e+00 0.000000e+00 7.218074e-01 2.781926e-01
 0.000000e+00 0.000000e+00 0.000000e+00 0.000000e+00 0.000000e+00
<ENDHMM>
~h "VQ_2"
<BEGINHMM>
<NUMSTATES> 5
<STATE> 2
<NUMMIXES> 2
<MIXTURE> 1 8.067883e-01
<MEAN> 22
 1.228929e+00 1.094702e+01 5.952402e-01 3.231679e+00 6.887799e+00 1.097034e+02 9.390626e+01 1.010028e+02 5.812211e+01 7.486180e+01 1.927351e+02 1.039687e+02 1.148769e+02 1.028130e+02 7.000000e+00 3.373571e+00 6.102210e+00 4.788853e+00 6.000000e+00 3.325400e+00 1.561839e+00 2.966888e+00
<VARIANCE> 22
 6.259059e+00 2.248957e+02 3.305621e+00 2.140269e+01 6.127703e+01 6.025354e+03 2.839734e+02 1.294077e+03 7.347739e+01 4.803159e+02 5.876034e+02 4.737723e+03 2.152553e+02 3.230361e+02 6.556339e-02 1.572494e+00 9.176290e-02 1.259005e+00 2.100767e-02 5.708190e+00 5.159025e+00 5.874721e+00
<GCONST> 1.108962e+02
<MIXTURE> 2 1.932115e-01
<MEAN> 22
 9.065976e+00 6.005039e+00 2.440614e+00 1.305923e+00 1.971760e+02 1.417876e+02 6.844409e+01 6.543714e+01 5.630611e+01 4.752132e+01 7.803871e+01 1.018165e+02 7.709965e+01 8.016448e+01 2.166264e+00 2.885802e+00 3.609262e+00 4.050630e+00 2.880266e+00 3.032701e+00 2.178713e+00 2.049184e+00
<VARIANCE> 22
 3.779956e+02 1.136288e+02 3.116745e+01 3.797727e+00 3.945402e+04 2.578997e+04 2.877516e+03 2.247114e+03 1.314847e+03 8.987982e+02 4.901975e+03 6.379644e+03 2.144084e+03 2.259978e+03 6.274750e+00 3.980500e+00 9.520491e+00 5.887516e+00 4.688975e+00 7.576818e+00 5.987804e+00 5.958355e+00
<GCONST> 1.533210e+02
<STATE> 3
<NUMMIXES> 2
<MIXTURE> 1 5.874165e-01
<MEAN> 22
 1.675828e+00 1.717893e+00 5.951461e-01 6.819315e-01 6.749616e+00 8.177431e+00 9.631869e+01 9.527900e+01 6.076942e+01 5.848438e+01 1.947094e+02 1.939201e+02 1.160023e+02 1.157642e+02 7.000000e+00 5.000000e+00 6.099301e+00 5.958300e+00 6.000000e+00 6.003027e+00 2.052887e+00 1.924232e+00
<VARIANCE> 22
 7.908898e+00 7.264692e+00 3.305621e+00 2.171573e+00 4.932808e+01 5.399630e+01 2.223810e+02 2.356022e+02 6.537061e+01 7.197617e+01 4.350043e+02 4.499243e+02 1.415249e+02 1.349779e+02 6.556339e-02 1.793070e-02 8.943921e-02 3.996109e-02 2.100767e-02 5.619852e-02 5.705256e+00 5.509027e+00
<GCONST> 8.003378e+01
<MIXTURE> 2 4.125834e-01
<MEAN> 22
 1.061792e+01 9.377827e+00 2.071443e+00 1.952355e+00 7.727829e+01 7.938906e+01 6.591393e+01 6.360966e+01 7.042017e+01 6.392346e+01 1.026248e+02 9.957553e+01 1.042038e+02 1.029540e+02 2.706052e+00 3.137274e+00 5.929943e+00 5.521781e+00 4.228234e+00 3.039322e+00 2.984300e+00 2.790437e+00
<VARIANCE> 22
 1.597876e+02 1.267471e+02 8.836821e+00 6.406705e+00 3.577906e+03 3.439264e+03 1.098244e+03 1.240670e+03 2.855342e+02 2.103299e+02 2.793121e+03 2.529457e+03 2.148950e+02 1.993129e+02 6.487744e+00 1.797817e+00 2.233264e+00 7.913616e-01 1.894784e+00 8.036111e+00 6.121899e+00 5.516522e+00
<GCONST> 1.315434e+02
<STATE> 4
<NUMMIXES> 2
<MIXTURE> 1 3.015821e-01
<MEAN> 22
 1.242089e+01 1.605714e+01 2.623808e+00 5.031502e+00 6.627385e+01 1.142010e+02 8.827002e+01 9.074062e+01 6.795178e+01 7.340015e+01 1.405277e+02 9.924209e+01 1.054698e+02 9.776753e+01 4.252757e+00 3.085936e+00 5.756047e+00 4.994891e+00 4.786086e+00 3.114696e+00 2.789365e+00 3.290602e+00
<VARIANCE> 22
 6.609799e+02 3.117934e+02 1.869617e+01 7.145266e+01 4.533447e+03 5.053578e+03 1.361484e+03 2.145576e+03 3.969168e+02 4.622181e+02 4.369885e+03 3.431537e+03 7.060124e+02 6.131526e+02 7.911201e+00 1.542710e+00 2.145899e+00 1.390303e+00 2.527489e+00 5.799580e+00 6.216612e+00 5.036547e+00
<GCONST> 1.430464e+02
<MIXTURE> 2 6.984177e-01
<MEAN> 22
 8.589122e+00 1.796277e+00 3.420211e+00 9.934922e-01 1.090303e+02 2.070456e+01 1.112626e+02 9.800751e+01 8.252724e+01 5.648546e+01 1.068296e+02 1.977078e+02 1.045676e+02 1.173236e+02 3.375828e+00 4.999998e+00 3.908357e+00 5.794670e+00 3.902812e+00 5.989216e+00 3.197877e+00 2.379609e+00
<VARIANCE> 22
 1.559457e+02 6.218128e+00 2.483256e+01 2.171573e+00 6.769265e+03 5.164600e+02 1.534093e+03 3.445550e+02 5.631335e+02 9.301731e+01 5.905667e+03 6.978615e+02 6.459577e+02 2.307935e+02 6.896523e+00 1.793070e-02 8.170888e+00 1.631695e-01 2.789998e+00 5.619852e-02 6.147928e+00 6.028513e+00
<GCONST> 1.175104e+02
<TRANSP> 5
 0.000000e+00 1.000000e+00 0.000000e+00 0.000000e+00 0.000000e+00
 0.000000e+00 6.971150e-01 3.028850e-01 0.000000e+00 0.000000e+00
 0.000000e+00 0.000000e+00 8.086342e-01 1.913659e-01 0.000000e+00
 0.000000e+00 0.000000e+00 0.000000e+00 7.092931e-01 2.907069e-01
 0.000000e+00 0.000000e+00 0.000000e+00 0.000000e+00 0.000000e+00
<ENDHMM>
~h "NU_2"
<BEGINHMM>
<NUMSTATES> 5
<STATE> 2
<NUMMIXES> 2
<MIXTURE> 1 6.390848e-01
<MEAN> 22
 4.708494e+00 1.277310e+01 1.143051e+00 3.132941e+00 1.864116e+01 6.776122e+01 9.696735e+01 8.385033e+01 6.356277e+01 6.966579e+01 1.925506e+02 1.410365e+02 1.188576e+02 1.124001e+02 6.382615e+00 4.068403e+00 6.252768e+00 5.423441e+00 5.944868e+00 4.528871e+00 2.406441e+00 3.207119e+00
<VARIANCE> 22
 8.989713e+01 4.197891e+02 6.664134e+00 2.183236e+01 7.140734e+02 3.923696e+03 9.520145e+02 1.326825e+03 1.567521e+02 3.155719e+02 1.643694e+03 3.774314e+03 4.129954e+02 3.443596e+02 3.726637e+00 1.375963e+00 1.923768e-01 6.579015e-01 1.682707e-01 5.678743e+00 7.160546e+00 6.545232e+00
<GCONST> 1.265311e+02
<MIXTURE> 2 3.609145e-01
<MEAN> 22
 9.365166e+00 1.288317e+00 2.260175e+00 7.860824e-01 1.273372e+02 5.374474e+01 8.180599e+01 7.753315e+01 7.294376e+01 4.882973e+01 5.495578e+01 1.363867e+02 8.018534e+01 9.604738e+01 1.342828e+00 3.687526e+00 3.673410e+00 4.766699e+00 2.808095e+00 4.187895e+00 2.764151e+00 2.161473e+00
<VARIANCE> 22
 1.915502e+02 4.073978e+00 1.161077e+01 2.171573e+00 1.011686e+04 6.838371e+03 2.877477e+03 1.528341e+03 1.593350e+03 4.484072e+02 1.525235e+03 6.373231e+03 1.563897e+03 1.654056e+03 8.540170e-01 3.307505e+00 9.033289e+00 4.050774e+00 2.789349e+00 6.750192e+00 6.227547e+00 6.406829e+00
<GCONST> 1.392643e+02
<STATE> 3
<NUMMIXES> 2
<MIXTURE> 1 5.933306e-01
<MEAN> 22
 1.787699e+00 2.110320e+00 7.010279e-01 8.268931e-01 1.062165e+01 1.208942e+01 9.663078e+01 9.396975e+01 6.112511e+01 5.721986e+01 1.949140e+02 1.930304e+02 1.166476e+02 1.157738e+02 6.993785e+00 5.000000e+00 6.128483e+00 5.918450e+00 6.000351e+00 6.004830e+00 1.944435e+00 2.100768e+00
<VARIANCE> 22
 8.953117e+00 1.035372e+01 3.305621e+00 2.171573e+00 1.981202e+02 2.924391e+02 2.829668e+02 2.202745e+02 8.095687e+01 6.404961e+01 5.271054e+02 4.593076e+02 1.775836e+02 1.283266e+02 6.556339e-02 1.793070e-02 1.119745e-01 7.490104e-02 2.100767e-02 5.619852e-02 5.395022e+00 5.628399e+00
<GCONST> 8.507028e+01
<MIXTURE> 2 4.066692e-01
<MEAN> 22
 1.455208e+00 7.080324e+00 5.113878e-01 2.619760e+00 2.170107e+01 1.400786e+02 8.718019e+01 9.599113e+01 5.910820e+01 7.688083e+01 1.719437e+02 7.055546e+01 1.093105e+02 9.571618e+01 6.184500e+00 2.712533e+00 6.003694e+00 4.623712e+00 5.697481e+00 1.862768e+00 1.398472e+00 2.881419e+00
<VARIANCE> 22
 1.099426e+01 9.344518e+01 3.305621e+00 1.844959e+01 2.530833e+03 4.155202e+03 5.012423e+02 2.119662e+03 1.870682e+02 5.942435e+02 1.836308e+03 2.000658e+03 1.979093e+02 2.718076e+02 4.284390e+00 9.145849e-01 7.577352e-01 1.573085e+00 9.502411e-01 3.577897e+00 4.867443e+00 5.593927e+00
<GCONST> 1.252209e+02
<STATE> 4
<NUMMIXES> 2
<MIXTURE> 1 3.058044e-01
<MEAN> 22
 1.336425e+01 1.526778e+01 4.130141e+00 3.927068e+00 1.137768e+02 1.205515e+02 9.775418e+01 9.299603e+01 7.130367e+01 6.859662e+01 1.468826e+02 1.311699e+02 1.124755e+02 1.121409e+02 4.197633e+00 3.716352e+00 5.624650e+00 5.232380e+00 4.590726e+00 3.848507e+00 2.630093e+00 2.896791e+00
<VARIANCE> 22
 2.828109e+02 3.902840e+02 5.325717e+01 2.268066e+01 2.376354e+04 1.436695e+04 1.365926e+03 1.576141e+03 2.937550e+02 3.174073e+02 5.234236e+03 4.828251e+03 6.517097e+02 4.105050e+02 8.247228e+00 1.599259e+00 3.740072e+00 1.028275e+00 3.546518e+00 5.861418e+00 5.955564e+00 5.657309e+00
<GCONST> 1.448357e+02
<MIXTURE> 2 6.941934e-01
<MEAN> 22
 6.590831e+00 3.371568e+00 1.693127e+00 9.129622e-01 7.198637e+01 3.610317e+01 7.009099e+01 7.117152e+01 7.034255e+01 5.653568e+01 1.010537e+02 1.502442e+02 1.034819e+02 1.074548e+02 2.738922e+00 4.226615e+00 5.524441e+00 5.732441e+00 4.129099e+00 4.783603e+00 2.849890e+00 2.401503e+00
<VARIANCE> 22
 8.482046e+01 2.443793e+01 4.771863e+00 2.171573e+00 3.164546e+03 1.477507e+03 1.322637e+03 1.040708e+03 2.507718e+02 6.433714e+01 2.900191e+03 2.609623e+03 1.890691e+02 1.527567e+02 6.738564e+00 1.576874e+00 4.139987e+00 2.069076e-01 2.136886e+00 5.923986e+00 6.386263e+00 6.284668e+00
<GCONST> 1.241393e+02
<TRANSP> 5
 0.000000e+00 1.000000e+00 0.000000e+00 0.000000e+00 0.000000e+00
 0.000000e+00 6.219683e-01 3.780317e-01 0.000000e+00 0.000000e+00
 0.000000e+00 0.000000e+00 8.225634e-01 1.774366e-01 0.000000e+00
 0.000000e+00 0.000000e+00 0.000000e+00 7.458628e-01 2.541372e-01
 0.000000e+00 0.000000e+00 0.000000e+00 0.000000e+00 0.000000e+00
<ENDHMM>
~h "FM_2"
<BEGINHMM>
<NUMSTATES> 5
<STATE> 2
<NUMMIXES> 2
<MIXTURE> 1 5.636715e-01
<MEAN> 22
 9.699894e-01 3.462132e+00 4.261657e-01 1.058278e+00 5.388654e+00 1.409580e+01 9.252370e+01 8.931293e+01 5.833943e+01 6.045000e+01 1.917563e+02 1.858537e+02 1.150761e+02 1.136325e+02 7.000000e+00 4.919320e+00 6.008189e+00 5.882111e+00 6.000000e+00 6.034317e+00 1.584118e+00 2.197855e+00
<VARIANCE> 22
 4.801967e+00 3.247241e+01 3.305621e+00 3.312494e+00 4.932808e+01 2.872362e+02 1.361611e+02 2.866973e+02 4.202263e+01 1.370786e+02 3.521436e+02 6.503671e+02 1.117956e+02 1.227192e+02 6.556339e-02 7.685269e-02 2.348461e-02 1.039900e-01 2.100767e-02 5.619852e-02 4.981267e+00 5.816982e+00
<GCONST> 8.385326e+01
<MIXTURE> 2 4.363277e-01
<MEAN> 22
 2.264726e+00 1.202668e+01 8.511545e-01 3.359497e+00 1.935422e+01 1.319682e+02 9.152054e+01 9.372636e+01 5.917947e+01 7.847150e+01 1.791764e+02 7.763329e+01 1.111040e+02 9.849016e+01 6.497794e+00 2.819167e+00 5.991273e+00 4.715683e+00 5.770780e+00 2.533176e+00 1.782278e+00 3.119199e+00
<VARIANCE> 22
 3.159096e+01 2.516769e+02 4.048279e+00 2.697482e+01 1.850506e+03 4.303868e+03 5.112287e+02 1.720807e+03 1.543841e+02 5.527020e+02 1.692689e+03 3.031996e+03 2.464192e+02 3.561297e+02 2.690408e+00 1.228654e+00 7.091851e-01 1.626959e+00 7.517506e-01 5.710038e+00 5.836926e+00 6.025867e+00
<GCONST> 1.282288e+02
<STATE> 3
<NUMMIXES> 2
<MIXTURE> 1 4.700061e-01
<MEAN> 22
 5.514157e+00 3.824604e+00 1.609121e+00 1.405239e+00 2.835425e+01 1.857079e+01 9.728024e+01 1.005112e+02 7.507384e+01 6.088686e+01 1.918220e+02 2.010864e+02 1.226760e+02 1.207721e+02 5.895499e+00 5.000000e+00 6.383829e+00 5.844253e+00 5.907240e+00 5.965100e+00 2.860477e+00 2.171138e+00
<VARIANCE> 22
 4.958858e+01 2.889000e+01 4.328887e+00 3.288687e+00 7.408820e+02 4.261070e+02 8.419979e+02 3.537631e+02 3.461120e+02 1.357046e+02 1.572408e+03 6.097257e+02 3.027144e+02 1.796184e+02 6.316091e+00 1.793070e-02 2.365045e-01 1.314892e-01 1.252001e-01 5.619852e-02 6.052331e+00 5.328838e+00
<GCONST> 1.039256e+02
<MIXTURE> 2 5.299937e-01
<MEAN> 22
 1.012211e+01 1.108005e+01 2.167478e+00 2.510731e+00 7.495509e+01 8.870789e+01 6.287886e+01 6.219511e+01 6.447282e+01 6.354359e+01 1.040497e+02 9.670055e+01 1.009143e+02 1.006809e+02 3.329500e+00 3.073718e+00 5.856536e+00 5.451575e+00 4.320400e+00 3.000683e+00 3.259295e+00 2.901380e+00
<VARIANCE> 22
 1.847658e+02 2.402177e+02 1.168793e+01 1.600139e+01 3.676363e+03 3.578503e+03 1.195704e+03 1.380782e+03 1.580257e+02 2.591539e+02 2.866434e+03 2.276112e+03 2.962755e+02 2.145378e+02 6.693726e+00 2.549889e+00 1.821608e+00 8.480963e-01 1.993958e+00 7.879150e+00 6.194634e+00 5.836632e+00
<GCONST> 1.340598e+02
<STATE> 4
<NUMMIXES> 2
<MIXTURE> 1 9.349629e-01
<MEAN> 22
 8.268790e+00 5.580572e+00 2.487769e+00 1.796480e+00 8.391434e+01 5.866257e+01 1.083825e+02 8.969350e+01 7.866520e+01 6.533494e+01 1.275677e+02 1.540356e+02 1.078690e+02 1.116538e+02 3.132895e+00 4.178872e+00 5.012616e+00 5.425210e+00 4.250746e+00 4.796123e+00 2.810440e+00 2.640553e+00
<VARIANCE> 22
 1.453406e+02 9.991364e+01 1.666715e+01 8.366402e+00 6.393126e+03 5.064480e+03 1.646504e+03 1.332858e+03 4.963060e+02 2.145117e+02 4.661645e+03 3.043638e+03 3.048870e+02 1.816965e+02 8.137553e+00 1.064899e+00 6.175474e+00 4.870642e-01 3.957853e+00 4.703383e+00 5.782696e+00 6.147973e+00
<GCONST> 1.355701e+02
<MIXTURE> 2 6.503746e-02
<MEAN> 22
 2.019484e-28 0.000000e+00 0.000000e+00 5.048710e-29 2.117000e+02 1.643666e+02 5.169879e-26 -6.462349e-27 0.000000e+00 0.000000e+00 0.000000e+00 0.000000e+00 6.462349e-27 1.615587e-27 0.000000e+00 -5.048710e-29 2.019484e-28 0.000000e+00 0.000000e+00 0.000000e+00 0.000000e+00 0.000000e+00
<VARIANCE> 22
 4.801967e+00 4.073978e+00 3.305621e+00 2.171573e+00 5.947103e+04 3.556184e+04 9.965449e+00 1.121763e+01 2.939336e+00 3.532397e+00 3.789059e+01 4.425213e+01 4.237011e+00 4.029980e+00 6.556339e-02 1.793070e-02 2.348461e-02 1.180012e-02 2.100767e-02 5.619852e-02 6.159949e-02 6.062591e-02
<GCONST> 5.690039e+01
<TRANSP> 5
 0.000000e+00 1.000000e+00 0.000000e+00 0.000000e+00 0.000000e+00
 0.000000e+00 8.456239e-01 1.543761e-01 0.000000e+00 0.000000e+00
 0.000000e+00 0.000000e+00 7.526411e-01 2.473589e-01 0.000000e+00
 0.000000e+00 0.000000e+00 0.000000e+00 6.303704e-01 3.696296e-01
 0.000000e+00 0.000000e+00 0.000000e+00 0.000000e+00 0.000000e+00
<ENDHMM>
~h "FN_2"
<BEGINHMM>
<NUMSTATES> 5
<STATE> 2
<NUMMIXES> 2
<MIXTURE> 1 5.642529e-01
<MEAN> 22
 1.135460e+01 7.733864e+00 3.181915e+00 1.840703e+00 5.954701e+01 2.858592e+01 8.182104e+01 7.947623e+01 6.967326e+01 5.967612e+01 1.368748e+02 1.730214e+02 1.092411e+02 1.130037e+02 4.440023e+00 4.876545e+00 5.761948e+00 5.767648e+00 4.804403e+00 6.075548e+00 3.073024e+00 2.646682e+00
<VARIANCE> 22
 3.138892e+02 1.536403e+02 2.465321e+01 7.688612e+00 3.037648e+03 8.285175e+02 1.399038e+03 1.040417e+03 2.291015e+02 8.404831e+01 3.694896e+03 1.546030e+03 2.098101e+02 1.765571e+02 8.235785e+00 3.616721e-01 3.109485e+00 1.811489e-01 2.592602e+00 5.956635e-01 6.179163e+00 5.854002e+00
<GCONST> 1.258749e+02
<MIXTURE> 2 4.357468e-01
<MEAN> 22
 6.489302e+00 9.389514e+00 1.431238e+00 2.440686e+00 8.950462e+01 1.094134e+02 6.281959e+01 6.405841e+01 6.367870e+01 6.356205e+01 8.332977e+01 6.269837e+01 9.896071e+01 9.914057e+01 2.769528e+00 2.049260e+00 5.730190e+00 5.471388e+00 3.826576e+00 7.100624e-01 2.536149e+00 2.767918e+00
<VARIANCE> 22
 1.185074e+02 1.938545e+02 5.928017e+00 1.925204e+01 4.174589e+03 3.537964e+03 1.116876e+03 1.253414e+03 1.077873e+02 2.064273e+02 2.532822e+03 7.674365e+02 3.386614e+02 2.705305e+02 4.214504e+00 7.715228e-01 1.946721e+00 1.341288e+00 1.382455e+00 5.172002e-01 6.443535e+00 6.308975e+00
<GCONST> 1.272968e+02
<STATE> 3
<NUMMIXES> 2
<MIXTURE> 1 5.883191e-01
<MEAN> 22
 1.878179e+00 2.606207e+00 6.972826e-01 9.861822e-01 9.268754e+00 1.164548e+01 9.641706e+01 9.473660e+01 6.129273e+01 5.893700e+01 1.959291e+02 1.942895e+02 1.174723e+02 1.165166e+02 7.000000e+00 5.000000e+00 6.099439e+00 5.912752e+00 6.000033e+00 6.013651e+00 2.120219e+00 2.256156e+00
<VARIANCE> 22
 8.241119e+00 1.562138e+01 3.305621e+00 2.389081e+00 9.399616e+01 2.512663e+02 2.724821e+02 2.821543e+02 7.811610e+01 8.536914e+01 6.128150e+02 6.061249e+02 2.007495e+02 1.665054e+02 6.556339e-02 1.793070e-02 8.955235e-02 7.963771e-02 2.100767e-02 5.619852e-02 5.599458e+00 5.911947e+00
<GCONST> 8.579355e+01
<MIXTURE> 2 4.116804e-01
<MEAN> 22
 1.912331e+00 1.273888e+01 7.447118e-01 3.649978e+00 2.114689e+01 1.350074e+02 9.286464e+01 9.602097e+01 5.999545e+01 7.584016e+01 1.776483e+02 7.292238e+01 1.119036e+02 9.751575e+01 6.391766e+00 2.824901e+00 5.912361e+00 4.654050e+00 5.694663e+00 2.493494e+00 1.931250e+00 3.153195e+00
<VARIANCE> 22
 1.356030e+01 2.336776e+02 3.305621e+00 2.278030e+01 2.083220e+03 4.150883e+03 5.083355e+02 1.686458e+03 1.517652e+02 4.331433e+02 2.097557e+03 2.543209e+03 2.429532e+02 3.966927e+02 3.119396e+00 1.059294e+00 9.986516e-01 1.437121e+00 1.005266e+00 4.964623e+00 5.782628e+00 5.450994e+00
<GCONST> 1.271241e+02
<STATE> 4
<NUMMIXES> 2
<MIXTURE> 1 8.109030e-01
<MEAN> 22
 8.551532e+00 3.977360e+00 2.291345e+00 1.112556e+00 1.077036e+02 2.898862e+01 1.072970e+02 9.022196e+01 7.601314e+01 5.963950e+01 9.884063e+01 1.785249e+02 1.047737e+02 1.133291e+02 2.840050e+00 4.709736e+00 4.128091e+00 5.725306e+00 3.813116e+00 5.841044e+00 2.964438e+00 2.216853e+00
<VARIANCE> 22
 1.527133e+02 5.311176e+01 1.029795e+01 3.135368e+00 5.937018e+03 1.296571e+03 1.429967e+03 7.936534e+02 4.906492e+02 1.245869e+02 5.434626e+03 1.504634e+03 3.809533e+02 2.299661e+02 6.453156e+00 3.397974e-01 8.222314e+00 2.433709e-01 3.298642e+00 8.701429e-01 5.770571e+00 6.023120e+00
<GCONST> 1.271073e+02
<MIXTURE> 2 1.890971e-01
<MEAN> 22
 1.154100e+00 5.686276e+00 4.471736e-01 1.844376e+00 1.134423e+02 1.566980e+02 4.919074e+01 5.482840e+01 3.467358e+01 4.205592e+01 8.458600e+01 3.000707e+01 6.112576e+01 5.399329e+01 2.920973e+00 1.262899e+00 3.194081e+00 2.571408e+00 2.810602e+00 7.432520e-01 1.077952e+00 1.684820e+00
<VARIANCE> 22
 8.643866e+00 1.105484e+02 3.305621e+00 1.441481e+01 3.519172e+04 1.883708e+04 2.409731e+03 3.342426e+03 1.065411e+03 1.671041e+03 8.013944e+03 1.312297e+03 3.138727e+03 2.577752e+03 1.050254e+01 1.518903e+00 9.294779e+00 6.035482e+00 7.558914e+00 8.926532e-01 4.050099e+00 5.512473e+00
<GCONST> 1.456520e+02
<TRANSP> 5
 0.000000e+00 1.000000e+00 0.000000e+00 0.000000e+00 0.000000e+00
 0.000000e+00 7.407938e-01 2.592062e-01 0.000000e+00 0.000000e+00
 0.000000e+00 0.000000e+00 8.598148e-01 1.401853e-01 0.000000e+00
 0.000000e+00 0.000000e+00 0.000000e+00 6.547598e-01 3.452402e-01
 0.000000e+00 0.000000e+00 0.000000e+00 0.000000e+00 0.000000e+00
<ENDHMM>
~h "FU_2"
<BEGINHMM>
<NUMSTATES> 5
<STATE> 2
<NUMMIXES> 2
<MIXTURE> 1 6.486890e-01
<MEAN> 22
 1.866635e+00 1.230556e+01 7.674698e-01 3.307944e+00 9.412127e+00 8.272704e+01 9.005836e+01 8.027753e+01 5.710890e+01 6.535699e+01 1.856420e+02 1.095612e+02 1.110040e+02 1.009226e+02 7.000000e+00 3.647709e+00 6.065955e+00 5.395228e+00 5.998842e+00 3.907552e+00 1.961024e+00 3.258923e+00
<VARIANCE> 22
 1.263161e+01 2.606979e+02 3.305621e+00 2.373158e+01 1.417376e+02 3.667150e+03 2.679966e+02 8.144258e+02 5.841464e+01 2.068176e+02 5.230283e+02 4.384202e+03 1.703089e+02 2.245624e+02 6.556339e-02 1.643409e+00 6.160437e-02 5.150197e-01 2.100767e-02 6.604428e+00 5.675485e+00 5.465455e+00
<GCONST> 1.087274e+02
<MIXTURE> 2 3.513114e-01
<MEAN> 22
 3.908031e+00 5.986150e+00 1.286894e+00 1.892072e+00 5.698191e+01 1.358180e+02 8.341398e+01 9.889073e+01 6.315417e+01 7.558261e+01 1.354740e+02 7.382930e+01 1.072278e+02 9.773106e+01 4.819842e+00 2.636409e+00 5.759122e+00 4.554487e+00 4.804482e+00 2.103408e+00 2.478159e+00 2.751829e+00
<VARIANCE> 22
 5.447944e+01 7.836827e+01 4.759266e+00 7.794358e+00 5.466315e+03 6.073413e+03 1.077700e+03 2.216086e+03 1.842360e+02 6.900278e+02 5.252594e+03 3.512167e+03 3.737426e+02 4.539648e+02 6.958989e+00 1.553908e+00 2.379858e+00 1.989101e+00 2.335638e+00 4.160364e+00 6.457893e+00 5.705856e+00
<GCONST> 1.347513e+02
<STATE> 3
<NUMMIXES> 2
<MIXTURE> 1 6.280351e-01
<MEAN> 22
 1.965676e+00 1.966856e+00 8.069070e-01 8.625898e-01 1.011730e+01 1.229571e+01 9.945564e+01 9.726213e+01 6.340537e+01 5.868225e+01 1.993573e+02 1.982244e+02 1.197212e+02 1.181114e+02 6.999231e+00 5.000000e+00 6.125030e+00 5.907456e+00 6.001342e+00 5.996177e+00 2.091112e+00 2.070230e+00
<VARIANCE> 22
 9.584686e+00 8.399036e+00 3.305621e+00 2.171573e+00 1.288581e+02 2.472817e+02 3.540822e+02 2.337603e+02 9.196886e+01 6.824810e+01 7.028357e+02 5.569153e+02 2.358109e+02 1.675493e+02 6.556339e-02 1.793070e-02 1.093980e-01 8.398054e-02 2.100767e-02 5.619852e-02 5.880078e+00 5.918539e+00
<GCONST> 8.606417e+01
<MIXTURE> 2 3.719645e-01
<MEAN> 22
 1.087090e+01 1.092610e+01 2.737617e+00 2.979129e+00 8.424483e+01 8.451714e+01 8.226431e+01 7.596230e+01 7.069484e+01 6.599436e+01 1.001401e+02 1.032269e+02 1.020458e+02 1.037103e+02 2.832664e+00 3.213755e+00 5.311984e+00 5.342346e+00 3.971618e+00 3.207422e+00 3.016199e+00 3.256739e+00
<VARIANCE> 22
 2.411154e+02 2.493748e+02 2.235594e+01 2.345902e+01 4.411692e+03 4.278108e+03 1.475705e+03 1.328934e+03 3.283778e+02 2.697859e+02 3.686088e+03 2.988177e+03 3.189731e+02 2.165155e+02 6.602688e+00 1.679406e+00 4.759407e+00 8.709943e-01 2.802060e+00 6.899446e+00 6.103750e+00 6.060419e+00
<GCONST> 1.380918e+02
<STATE> 4
<NUMMIXES> 2
<MIXTURE> 1 7.714970e-01
<MEAN> 22
 8.487872e+00 1.923133e+00 2.609882e+00 9.743050e-01 1.133361e+02 1.738321e+01 9.771381e+01 9.486396e+01 7.598801e+01 5.492261e+01 8.454576e+01 1.920479e+02 9.940638e+01 1.141286e+02 2.995067e+00 5.000000e+00 4.284628e+00 5.883107e+00 3.864797e+00 5.991074e+00 3.101871e+00 2.241804e+00
<VARIANCE> 22
 1.631262e+02 6.826457e+00 1.680022e+01 2.386759e+00 5.835223e+03 5.035682e+02 1.206879e+03 1.967559e+02 4.147492e+02 5.898307e+01 4.960890e+03 3.703419e+02 4.434949e+02 1.306046e+02 5.854402e+00 1.793070e-02 7.698387e+00 1.032295e-01 2.289587e+00 5.619852e-02 6.181842e+00 5.867272e+00
<GCONST> 1.129633e+02
<MIXTURE> 2 2.285027e-01
<MEAN> 22
 3.769798e+00 9.022947e+00 8.386587e-01 1.909722e+00 1.544728e+02 1.583269e+02 6.871272e+01 6.003743e+01 5.260061e+01 5.028643e+01 1.032265e+02 5.982388e+01 7.541826e+01 7.055206e+01 3.450366e+00 2.042908e+00 3.828103e+00 3.491108e+00 3.473456e+00 1.790998e+00 1.698002e+00 2.101894e+00
<VARIANCE> 22
 8.493141e+01 2.897047e+02 3.876925e+00 1.105558e+01 4.398412e+04 1.832412e+04 3.409769e+03 2.917591e+03 1.848983e+03 1.325106e+03 7.048056e+03 3.396413e+03 2.567479e+03 2.238009e+03 9.730420e+00 2.618511e+00 8.225389e+00 6.035960e+00 6.509542e+00 5.376213e+00 5.262439e+00 5.833069e+00
<GCONST> 1.523113e+02
<TRANSP> 5
 0.000000e+00 1.000000e+00 0.000000e+00 0.000000e+00 0.000000e+00
 0.000000e+00 7.499549e-01 2.500451e-01 0.000000e+00 0.000000e+00
 0.000000e+00 0.000000e+00 8.391135e-01 1.608865e-01 0.000000e+00
 0.000000e+00 0.000000e+00 0.000000e+00 7.110523e-01 2.889477e-01
 0.000000e+00 0.000000e+00 0.000000e+00 0.000000e+00 0.000000e+00
<ENDHMM>
~h "OH_D"
<BEGINHMM>
<NUMSTATES> 5
<STATE> 2
<NUMMIXES> 2
<MIXTURE> 1 7.193535e-01
<MEAN> 22
 1.033075e+01 2.601399e+00 3.214281e+00 1.199327e+00 1.032342e+02 1.984359e+01 1.048087e+02 9.843073e+01 8.140218e+01 5.711851e+01 1.163055e+02 1.978917e+02 1.070681e+02 1.176838e+02 3.444498e+00 4.999294e+00 4.604521e+00 5.835096e+00 4.184129e+00 5.988641e+00 3.204066e+00 2.221322e+00
<VARIANCE> 22
 2.802170e+02 5.676140e+01 7.825474e+01 3.822495e+01 6.402782e+03 6.034235e+02 1.831619e+03 2.664719e+02 5.392033e+02 7.524436e+01 5.589486e+03 5.321639e+02 5.201205e+02 1.712312e+02 7.538132e+00 1.793070e-02 7.115241e+00 1.377140e-01 2.903887e+00 5.619852e-02 6.483502e+00 5.888154e+00
<GCONST> 1.230978e+02
<MIXTURE> 2 2.806488e-01
<MEAN> 22
 4.634981e+00 1.016183e+01 1.233075e+00 2.855075e+00 9.874812e+01 1.527609e+02 8.372448e+01 9.057040e+01 6.268431e+01 7.139970e+01 1.349621e+02 7.512568e+01 9.836409e+01 8.935487e+01 4.164752e+00 2.505020e+00 5.103285e+00 4.064129e+00 4.387984e+00 2.151491e+00 2.005238e+00 2.684363e+00
<VARIANCE> 22
 1.149448e+02 2.860943e+02 6.743218e+00 2.313348e+01 2.377224e+04 1.223371e+04 2.459794e+03 3.230200e+03 8.503641e+02 1.235689e+03 6.530260e+03 2.985515e+03 1.835176e+03 1.477445e+03 9.270993e+00 1.833659e+00 5.993012e+00 3.504795e+00 4.776643e+00 4.838099e+00 5.816670e+00 6.187826e+00
<GCONST> 1.493255e+02
<STATE> 3
<NUMMIXES> 2
<MIXTURE> 1 6.867112e-01
<MEAN> 22
 1.507008e+00 1.146738e+01 6.931045e-01 3.334326e+00 7.340683e+00 1.116221e+02 9.199389e+01 9.343421e+01 5.740725e+01 7.703901e+01 1.884886e+02 9.599498e+01 1.124013e+02 1.003235e+02 6.999186e+00 3.278799e+00 6.059970e+00 4.870288e+00 5.999754e+00 3.218828e+00 1.751223e+00 3.268827e+00
<VARIANCE> 22
 2.145134e+01 2.251261e+02 1.390214e+01 2.956625e+01 6.712496e+01 5.522793e+03 2.461220e+02 1.659827e+03 6.277523e+01 5.094635e+02 4.788244e+02 3.727803e+03 1.540133e+02 2.588352e+02 6.556339e-02 1.563972e+00 5.636974e-02 1.395252e+00 2.100767e-02 6.447283e+00 5.764232e+00 5.904427e+00
<GCONST> 1.127469e+02
<MIXTURE> 2 3.132862e-01
<MEAN> 22
 8.651972e+00 6.611650e+00 2.038554e+00 1.383197e+00 8.769702e+01 6.912121e+01 6.428930e+01 5.238544e+01 7.078645e+01 5.958719e+01 7.460800e+01 9.399400e+01 1.001558e+02 1.020360e+02 1.915717e+00 2.925087e+00 5.509157e+00 5.726553e+00 3.624476e+00 2.657393e+00 3.110369e+00 2.653029e+00
<VARIANCE> 22
 1.494002e+02 1.041033e+02 1.060929e+01 4.637888e+00 3.386490e+03 3.172673e+03 1.555452e+03 8.588286e+02 2.789121e+02 1.045896e+02 1.444009e+03 1.953013e+03 1.966321e+02 1.564416e+02 2.236101e+00 1.876871e+00 3.846590e+00 4.682866e-01 1.259047e+00 8.305449e+00 6.123730e+00 6.026541e+00
<GCONST> 1.277220e+02
<STATE> 4
<NUMMIXES> 2
<MIXTURE> 1 7.237772e-01
<MEAN> 22
 1.775803e+00 2.429066e+00 6.725689e-01 9.127111e-01 8.592800e+00 1.178087e+01 9.670553e+01 9.543495e+01 6.126543e+01 5.861107e+01 1.960448e+02 1.948055e+02 1.174049e+02 1.167467e+02 6.998326e+00 5.000000e+00 6.084052e+00 5.897252e+00 6.000183e+00 5.998300e+00 2.015664e+00 2.162833e+00
<VARIANCE> 22
 8.378470e+00 1.293719e+01 3.305621e+00 2.171573e+00 9.103488e+01 2.353655e+02 2.422038e+02 2.216157e+02 7.077419e+01 6.723726e+01 4.985208e+02 4.767711e+02 1.644509e+02 1.415689e+02 6.556339e-02 1.793070e-02 7.699527e-02 9.220933e-02 2.100767e-02 5.619852e-02 5.653325e+00 5.881599e+00
<GCONST> 8.392371e+01
<MIXTURE> 2 2.762255e-01
<MEAN> 22
 1.084518e+01 1.405548e+01 2.555490e+00 3.276724e+00 6.448788e+01 8.185553e+01 8.346609e+01 8.278574e+01 6.924471e+01 6.799930e+01 1.478905e+02 1.280631e+02 1.091158e+02 1.070775e+02 4.129337e+00 3.833589e+00 6.065450e+00 5.276929e+00 4.978785e+00 4.205240e+00 2.966128e+00 3.215295e+00
<VARIANCE> 22
 2.304544e+02 3.553723e+02 1.862812e+01 2.049084e+01 3.585482e+03 3.660675e+03 1.492299e+03 1.570163e+03 2.671734e+02 2.964329e+02 3.006458e+03 3.208718e+03 3.234784e+02 2.542722e+02 9.740177e+00 1.639898e+00 2.040288e+00 7.833202e-01 3.049358e+00 6.007030e+00 6.272929e+00 5.866614e+00
<GCONST> 1.371807e+02
<TRANSP> 5
 0.000000e+00 1.000000e+00 0.000000e+00 0.000000e+00 0.000000e+00
 0.000000e+00 7.042676e-01 2.957323e-01 0.000000e+00 0.000000e+00
 0.000000e+00 0.000000e+00 7.991008e-01 2.008992e-01 0.000000e+00
 0.000000e+00 0.000000e+00 0.000000e+00 8.384907e-01 1.615093e-01
 0.000000e+00 0.000000e+00 0.000000e+00 0.000000e+00 0.000000e+00
<ENDHMM>
~h "OH_U"
<BEGINHMM>
<NUMSTATES> 5
<STATE> 2
<NUMMIXES> 2
<MIXTURE> 1 8.225660e-01
<MEAN> 22
 1.624154e+01 1.696445e+01 1.134266e+01 9.859097e+00 5.673805e+01 7.360001e+01 9.126614e+01 9.277718e+01 6.670592e+01 6.723569e+01 1.620955e+02 1.434921e+02 1.117420e+02 1.094068e+02 5.461866e+00 4.039588e+00 5.876782e+00 5.396397e+00 5.315446e+00 4.427516e+00 2.459274e+00 2.742014e+00
<VARIANCE> 22
