~o
<STREAMINFO> 1 22
<VECSIZE> 22<NULLD><MFCC_0><DIAGC>
~h "SIL"
<BEGINHMM>
<NUMSTATES> 5
<STATE> 2
<MEAN> 22
 5.626247e+00 7.396932e+00 2.097200e+00 2.472937e+00 4.240775e+01 6.026446e+01 9.090754e+01 8.949604e+01 6.477496e+01 6.448850e+01 1.612133e+02 1.456602e+02 1.107074e+02 1.084495e+02 5.481471e+00 4.070344e+00 5.756289e+00 5.424155e+00 5.274922e+00 4.502147e+00 2.326887e+00 2.587141e+00
<VARIANCE> 22
 4.801635e+02 4.063120e+02 3.300595e+02 2.164982e+02 4.956268e+03 5.429985e+03 9.837579e+02 1.115179e+03 2.936362e+02 3.515820e+02 3.745738e+03 4.440754e+03 4.183320e+02 3.870127e+02 6.504288e+00 1.793316e+00 2.326111e+00 1.170389e+00 2.082489e+00 5.618803e+00 6.153808e+00 6.060927e+00
<GCONST> 1.445108e+02
<STATE> 3
<MEAN> 22
 5.626247e+00 7.396932e+00 2.097200e+00 2.472937e+00 4.240775e+01 6.026446e+01 9.090754e+01 8.949604e+01 6.477496e+01 6.448850e+01 1.612133e+02 1.456602e+02 1.107074e+02 1.084495e+02 5.481471e+00 4.070344e+00 5.756289e+00 5.424155e+00 5.274922e+00 4.502147e+00 2.326887e+00 2.587141e+00
<VARIANCE> 22
 4.801635e+02 4.063120e+02 3.300595e+02 2.164982e+02 4.956268e+03 5.429985e+03 9.837579e+02 1.115179e+03 2.936362e+02 3.515820e+02 3.745738e+03 4.440754e+03 4.183320e+02 3.870127e+02 6.504288e+00 1.793316e+00 2.326111e+00 1.170389e+00 2.082489e+00 5.618803e+00 6.153808e+00 6.060927e+00
<GCONST> 1.445108e+02
<STATE> 4
<MEAN> 22
 5.626247e+00 7.396932e+00 2.097200e+00 2.472937e+00 4.240775e+01 6.026446e+01 9.090754e+01 8.949604e+01 6.477496e+01 6.448850e+01 1.612133e+02 1.456602e+02 1.107074e+02 1.084495e+02 5.481471e+00 4.070344e+00 5.756289e+00 5.424155e+00 5.274922e+00 4.502147e+00 2.326887e+00 2.587141e+00
<VARIANCE> 22
 4.801635e+02 4.063120e+02 3.300595e+02 2.164982e+02 4.956268e+03 5.429985e+03 9.837579e+02 1.115179e+03 2.936362e+02 3.515820e+02 3.745738e+03 4.440754e+03 4.183320e+02 3.870127e+02 6.504288e+00 1.793316e+00 2.326111e+00 1.170389e+00 2.082489e+00 5.618803e+00 6.153808e+00 6.060927e+00
<GCONST> 1.445108e+02
<TRANSP> 5
 0.000000e+00 1.000000e+00 0.000000e+00 0.000000e+00 0.000000e+00
 0.000000e+00 4.800000e-01 3.200000e-01 2.000000e-01 0.000000e+00
 0.000000e+00 0.000000e+00 6.000000e-01 4.000000e-01 0.000000e+00
 0.000000e+00 2.000000e-01 0.000000e+00 5.600000e-01 2.400000e-01
 0.000000e+00 0.000000e+00 0.000000e+00 0.000000e+00 0.000000e+00
<ENDHMM>
~h "oov"
<BEGINHMM>
<NUMSTATES> 5
<STATE> 2
<MEAN> 22
 1.777242e+01 1.728559e+01 1.230333e+01 1.042590e+01 1.000206e+02 1.092731e+02 7.963287e+01 7.803058e+01 5.861546e+01 5.881902e+01 1.216588e+02 1.018411e+02 9.063265e+01 8.845882e+01 3.889385e+00 3.004744e+00 4.560273e+00 4.302974e+00 4.060507e+00 3.071635e+00 2.184578e+00 2.386366e+00
<VARIANCE> 22
 5.467223e+03 3.961784e+03 4.455560e+03 2.857060e+03 2.316515e+04 1.453621e+04 2.547886e+03 2.499856e+03 1.113989e+03 1.118449e+03 6.694789e+03 5.993083e+03 2.030945e+03 1.866125e+03 9.679994e+00 3.373045e+00 7.356608e+00 4.817252e+00 5.567658e+00 7.218529e+00 6.143579e+00 6.001215e+00
<GCONST> 1.700310e+02
<STATE> 3
<MEAN> 22
 6.930509e+00 9.062311e+00 1.813878e+00 2.466883e+00 6.600407e+01 9.839327e+01 8.669926e+01 8.819434e+01 6.870638e+01 6.990358e+01 1.311039e+02 1.068239e+02 1.067884e+02 1.038878e+02 4.173689e+00 3.316487e+00 5.539575e+00 5.152951e+00 4.689178e+00 3.150774e+00 2.590491e+00 2.881293e+00
<VARIANCE> 22
 1.394035e+02 1.860201e+02 1.063606e+01 1.524444e+01 4.816465e+03 5.384492e+03 1.330070e+03 1.647357e+03 3.489414e+02 4.415320e+02 4.332760e+03 4.196279e+03 2.827885e+02 2.539908e+02 8.195039e+00 1.829338e+00 3.536237e+00 1.251512e+00 2.619466e+00 6.598587e+00 6.371871e+00 5.961450e+00
<GCONST> 1.378810e+02
<STATE> 4
<MEAN> 22
 3.057991e+00 4.860823e+00 9.531696e-01 1.423349e+00 1.746891e+01 2.579445e+01 9.546413e+01 9.193698e+01 6.268964e+01 6.122880e+01 1.885260e+02 1.799544e+02 1.162146e+02 1.144176e+02 6.652749e+00 4.764818e+00 6.073350e+00 5.771344e+00 5.865604e+00 5.684191e+00 2.151689e+00 2.396972e+00
<VARIANCE> 22
 4.291975e+01 7.644951e+01 3.648591e+00 6.005469e+00 1.192621e+03 1.691917e+03 4.718347e+02 5.167410e+02 1.235791e+02 1.484026e+02 1.313276e+03 1.881511e+03 2.104049e+02 1.886148e+02 1.951995e+00 5.071971e-01 4.536466e-01 2.903515e-01 4.309804e-01 1.678584e+00 5.913200e+00 6.042828e+00
<GCONST> 1.148789e+02
<TRANSP> 5
 0.000000e+00 1.000000e+00 0.000000e+00 0.000000e+00 0.000000e+00
 0.000000e+00 3.286536e-01 6.713464e-01 0.000000e+00 0.000000e+00
 0.000000e+00 0.000000e+00 8.794134e-01 1.205866e-01 0.000000e+00
 0.000000e+00 0.000000e+00 0.000000e+00 9.113900e-01 8.860996e-02
 0.000000e+00 0.000000e+00 0.000000e+00 0.000000e+00 0.000000e+00
<ENDHMM>
