~o
<STREAMINFO> 1 22
<VECSIZE> 22<NULLD><MFCC_0><DIAGC>
~h "BN"
<BEGINHMM>
<NUMSTATES> 5
<STATE> 2
<MEAN> 22
 6.343931e+000 1.310686e+001 2.665564e+000 4.147764e+000 9.507172e+001 1.143833e+002 8.152450e+001 8.187930e+001 6.515350e+001 6.632695e+001 1.469766e+002 1.106244e+002 1.026198e+002 9.940136e+001 4.753108e+000 3.422245e+000 5.309219e+000 4.680194e+000 4.884450e+000 3.748453e+000 2.150137e+000 2.226740e+000
<VARIANCE> 22
 8.456269e+002 7.718466e+002 6.261230e+002 4.045669e+002 2.678743e+004 1.548028e+004 1.646897e+003 1.795881e+003 6.768133e+002 7.830085e+002 5.479617e+003 4.880395e+003 1.387418e+003 1.066205e+003 8.673313e+000 2.715580e+000 4.744357e+000 2.904998e+000 3.222864e+000 7.064304e+000 5.752697e+000 4.369216e+000
<GCONST> 1.576290e+002
<STATE> 3
<MEAN> 22
 1.119969e+000 8.682850e+000 4.628854e-001 2.677441e+000 9.491125e+000 1.720723e+002 9.126497e+001 1.173073e+002 5.844497e+001 9.001710e+001 1.887130e+002 3.963201e+001 1.140522e+002 1.010967e+002 6.953609e+000 2.184475e+000 6.041331e+000 3.868914e+000 5.969384e+000 1.126502e+000 1.477982e+000 2.870516e+000
<VARIANCE> 22
 6.689022e+000 1.493517e+002 3.300596e+000 1.440979e+001 4.586421e+002 1.801072e+003 2.630817e+002 6.390197e+002 7.077612e+001 3.666024e+002 6.435122e+002 6.249393e+002 1.563347e+002 1.585600e+002 2.462773e-001 2.382254e-001 1.926542e-001 6.570687e-001 7.981121e-002 4.616974e-001 5.105439e+000 5.878983e+000
<GCONST> 1.052435e+002
<STATE> 4
<MEAN> 22
 8.475769e+000 6.392836e+000 2.487380e+000 1.693164e+000 1.021140e+002 2.428541e+001 1.063284e+002 8.659221e+001 8.016361e+001 5.951135e+001 9.756763e+001 1.791080e+002 1.064697e+002 1.143837e+002 3.626786e+000 4.754311e+000 3.560916e+000 5.781421e+000 4.104333e+000 5.747435e+000 3.122930e+000 2.639689e+000
<VARIANCE> 22
 1.750666e+002 1.697833e+002 1.705757e+001 9.176909e+000 6.734175e+003 8.870839e+002 9.415911e+002 7.237769e+002 4.187607e+002 9.196033e+001 5.796611e+003 1.560906e+003 2.915656e+002 1.614755e+002 6.638973e+000 4.455485e-001 8.588641e+000 1.945243e-001 2.391941e+000 1.948424e+000 6.317266e+000 6.770958e+000
<GCONST> 1.290503e+002
<TRANSP> 5
 0.000000e+000 1.000000e+000 0.000000e+000 0.000000e+000 0.000000e+000
 0.000000e+000 8.122748e-001 1.877252e-001 0.000000e+000 0.000000e+000
 0.000000e+000 0.000000e+000 9.503043e-001 4.969568e-002 0.000000e+000
 0.000000e+000 0.000000e+000 0.000000e+000 9.377279e-001 6.227209e-002
 0.000000e+000 0.000000e+000 0.000000e+000 0.000000e+000 0.000000e+000
<ENDHMM>
~h "BS"
<BEGINHMM>
<NUMSTATES> 5
<STATE> 2
<MEAN> 22
 1.604697e+001 1.584939e+001 3.925148e+000 3.846673e+000 7.970821e+001 7.046584e+001 6.466088e+001 6.223674e+001 6.335620e+001 5.994766e+001 1.530600e+002 1.486540e+002 1.084092e+002 1.081339e+002 5.582455e+000 4.565191e+000 6.033691e+000 5.814703e+000 5.211170e+000 5.406078e+000 2.700359e+000 1.997762e+000
<VARIANCE> 22
 8.889436e+002 7.104063e+002 6.218942e+002 4.174436e+002 1.589590e+004 8.509765e+003 1.216916e+003 1.091879e+003 1.308002e+002 1.333378e+002 1.853480e+003 1.883269e+003 3.084352e+002 2.755273e+002 5.910072e+000 1.726835e+000 5.666404e-001 4.936073e-001 1.747345e+000 4.718982e+000 3.310496e+000 3.937428e+000
<GCONST> 1.409872e+002
<STATE> 3
<MEAN> 22
 2.011235e+001 2.049560e+001 3.806181e+000 3.661662e+000 1.080382e+002 1.068250e+002 8.215000e+001 8.130745e+001 7.332262e+001 6.675764e+001 1.103417e+002 1.137969e+002 1.052250e+002 1.052804e+002 1.425025e+000 3.068089e+000 5.212614e+000 5.354370e+000 3.181340e+000 2.794716e+000 2.645157e+000 3.206156e+000
<VARIANCE> 22
 4.090662e+002 4.264256e+002 2.271359e+001 1.875098e+001 2.006757e+003 1.587079e+003 2.750003e+003 2.448384e+003 2.731200e+002 2.463939e+002 1.711821e+003 1.737289e+003 1.687010e+002 1.422090e+002 2.645978e+000 1.508189e+000 6.189931e+000 5.979160e-001 4.348103e+000 5.524226e+000 5.822683e+000 4.665439e+000
<GCONST> 1.345343e+002
<STATE> 4
<MEAN> 22
 7.448595e+000 7.248097e+000 2.059040e+000 1.863699e+000 6.950046e+001 6.861485e+001 1.135243e+002 1.125581e+002 6.887750e+001 6.368761e+001 1.743409e+002 1.728444e+002 1.108141e+002 1.101509e+002 2.829808e+000 4.394096e+000 6.762670e+000 5.209814e+000 4.512057e+000 4.973656e+000 3.460802e+000 3.767625e+000
<VARIANCE> 22
 7.176646e+001 6.672364e+001 6.451591e+000 5.124325e+000 1.833931e+003 1.669857e+003 8.277318e+002 7.271686e+002 1.421198e+002 1.440741e+002 9.536570e+002 8.625107e+002 1.653876e+002 1.391626e+002 1.165120e+001 2.893359e-001 1.966029e-001 1.910892e-001 8.666469e+000 8.699008e-001 5.707955e+000 7.868424e+000
<GCONST> 1.179977e+002
<TRANSP> 5
 0.000000e+000 1.000000e+000 0.000000e+000 0.000000e+000 0.000000e+000
 0.000000e+000 7.805651e-001 2.194348e-001 0.000000e+000 0.000000e+000
 0.000000e+000 0.000000e+000 9.125596e-001 8.744037e-002 0.000000e+000
 0.000000e+000 0.000000e+000 0.000000e+000 9.519024e-001 4.809756e-002
 0.000000e+000 0.000000e+000 0.000000e+000 0.000000e+000 0.000000e+000
<ENDHMM>
~h "CF"
<BEGINHMM>
<NUMSTATES> 5
<STATE> 2
<MEAN> 22
 8.837023e+000 9.955490e+000 3.615143e+000 3.451910e+000 7.326417e+001 6.683127e+001 8.778294e+001 7.484888e+001 7.439301e+001 6.432378e+001 1.190280e+002 1.282815e+002 1.017396e+002 1.064725e+002 4.094284e+000 3.762383e+000 4.881521e+000 5.275264e+000 4.496103e+000 4.230373e+000 2.771659e+000 2.491672e+000
<VARIANCE> 22
 5.990059e+002 4.825186e+002 3.998337e+002 2.432672e+002 8.238314e+003 5.916777e+003 1.726554e+003 1.452667e+003 6.255751e+002 4.184253e+002 5.084724e+003 4.051751e+003 5.799943e+002 4.429694e+002 7.241416e+000 2.312672e+000 4.956001e+000 1.533475e+000 2.556572e+000 7.000190e+000 6.435736e+000 4.783099e+000
<GCONST> 1.498604e+002
<STATE> 3
<MEAN> 22
 1.413300e+000 1.043478e+001 6.098584e-001 3.761310e+000 8.969928e+000 1.841692e+002 9.325651e+001 1.221547e+002 5.924257e+001 9.940025e+001 1.884388e+002 4.152539e+001 1.131711e+002 8.838200e+001 6.948007e+000 2.184746e+000 6.079472e+000 3.313207e+000 5.968901e+000 1.143968e+000 1.595750e+000 2.841632e+000
<VARIANCE> 22
 9.956143e+000 2.497541e+002 3.300596e+000 2.750769e+001 3.173291e+002 2.213644e+003 3.410010e+002 9.749082e+002 8.367695e+001 4.374124e+002 7.382711e+002 9.144698e+002 1.817797e+002 3.245268e+002 2.559783e-001 2.930464e-001 1.822751e-001 1.784658e+000 8.142246e-002 9.774221e-001 5.492915e+000 5.885135e+000
<GCONST> 1.110846e+002
<STATE> 4
<MEAN> 22
 8.755226e+000 6.197860e+000 3.016028e+000 1.945006e+000 9.776015e+001 2.836884e+001 1.065133e+002 9.176161e+001 8.107497e+001 6.051489e+001 1.097696e+002 1.862138e+002 1.001697e+002 1.136155e+002 4.066731e+000 4.917295e+000 4.315979e+000 5.686137e+000 4.396076e+000 6.013204e+000 3.088865e+000 2.762512e+000
<VARIANCE> 22
 1.735098e+002 1.386802e+002 2.091404e+001 1.036932e+001 7.237208e+003 9.605520e+002 1.130402e+003 5.389780e+002 5.504000e+002 1.285767e+002 6.218667e+003 8.024635e+002 5.564069e+002 1.327922e+002 6.905977e+000 1.280459e-001 5.904973e+000 2.266929e-001 2.242528e+000 2.483969e-001 6.250240e+000 6.516434e+000
<GCONST> 1.260664e+002
<TRANSP> 5
 0.000000e+000 1.000000e+000 0.000000e+000 0.000000e+000 0.000000e+000
 0.000000e+000 8.493924e-001 1.506076e-001 0.000000e+000 0.000000e+000
 0.000000e+000 0.000000e+000 9.442756e-001 5.572446e-002 0.000000e+000
 0.000000e+000 0.000000e+000 0.000000e+000 9.376161e-001 6.238394e-002
 0.000000e+000 0.000000e+000 0.000000e+000 0.000000e+000 0.000000e+000
<ENDHMM>
~h "CN"
<BEGINHMM>
<NUMSTATES> 5
<STATE> 2
<MEAN> 22
 1.550417e+001 1.500865e+001 2.819181e+000 2.948168e+000 5.573248e+001 5.375358e+001 6.762349e+001 6.625837e+001 6.516556e+001 6.107494e+001 1.480511e+002 1.471511e+002 1.124164e+002 1.110339e+002 5.055912e+000 4.312697e+000 6.098582e+000 5.883431e+000 5.195295e+000 4.909050e+000 2.731558e+000 1.957236e+000
<VARIANCE> 22
 4.703819e+002 4.030845e+002 1.836458e+002 1.378196e+002 2.959393e+003 2.476089e+003 1.164418e+003 9.870797e+002 1.089302e+002 8.842250e+001 2.984708e+003 2.709961e+003 2.458122e+002 1.946603e+002 7.389912e+000 1.455962e+000 1.448490e-001 2.549424e-001 1.036813e+000 6.234697e+000 2.630621e+000 3.388880e+000
<GCONST> 1.314725e+002
<STATE> 3
<MEAN> 22
 7.778903e+000 8.337132e+000 1.217260e+000 1.059722e+000 1.445492e+002 1.391598e+002 7.126402e+001 6.904576e+001 6.630560e+001 6.401148e+001 4.376249e+001 4.616235e+001 1.029181e+002 1.043524e+002 2.040429e+000 1.929184e+000 5.783638e+000 5.936947e+000 3.206668e+000 7.665098e-001 3.171824e+000 3.094255e+000
<VARIANCE> 22
 1.135669e+002 1.417009e+002 3.300596e+000 2.164982e+000 1.762558e+003 1.486537e+003 5.348421e+002 5.978750e+002 9.489886e+001 1.163136e+002 3.630563e+002 4.380884e+002 1.375001e+002 1.236216e+002 8.017454e-002 1.293606e-001 7.602094e-001 5.527554e-001 1.812236e-001 2.165258e-001 6.017853e+000 6.021367e+000
<GCONST> 1.054832e+002
<STATE> 4
<MEAN> 22
 1.457534e+001 1.355359e+001 2.632442e+000 2.600434e+000 7.262694e+001 6.770795e+001 7.321370e+001 7.037086e+001 6.703345e+001 6.379887e+001 1.507292e+002 1.463890e+002 1.116731e+002 1.111260e+002 5.063979e+000 4.065685e+000 6.159571e+000 5.861959e+000 5.111199e+000 4.409666e+000 4.053921e+000 3.958635e+000
<VARIANCE> 22
 3.078751e+002 2.605131e+002 1.033906e+001 1.273162e+001 5.873992e+003 4.636464e+003 1.434943e+003 1.361108e+003 1.988109e+002 1.358580e+002 2.707544e+003 2.864589e+003 2.881148e+002 1.802276e+002 6.224502e+000 2.852602e+000 3.521884e-001 2.768973e-001 1.509412e+000 7.328898e+000 7.283941e+000 4.894644e+000
<GCONST> 1.316625e+002
<TRANSP> 5
 0.000000e+000 1.000000e+000 0.000000e+000 0.000000e+000 0.000000e+000
 0.000000e+000 8.167628e-001 1.832372e-001 0.000000e+000 0.000000e+000
 0.000000e+000 0.000000e+000 9.653260e-001 3.467399e-002 0.000000e+000
 0.000000e+000 0.000000e+000 0.000000e+000 9.156254e-001 8.437463e-002
 0.000000e+000 0.000000e+000 0.000000e+000 0.000000e+000 0.000000e+000
<ENDHMM>
~h "CP"
<BEGINHMM>
<NUMSTATES> 5
<STATE> 2
<MEAN> 22
 1.229417e+001 1.030457e+001 3.399664e+000 3.042046e+000 1.157864e+002 9.624193e+001 9.399199e+001 9.304542e+001 6.551891e+001 6.100426e+001 1.506940e+002 1.569779e+002 1.060445e+002 1.037522e+002 3.087635e+000 3.875063e+000 5.436321e+000 4.797489e+000 4.380267e+000 4.552881e+000 2.776392e+000 2.751396e+000
<VARIANCE> 22
 6.737380e+002 4.037559e+002 3.956012e+002 2.287132e+002 2.066327e+004 1.155730e+004 2.407574e+003 2.529455e+003 7.651279e+002 6.848619e+002 5.583270e+003 4.951789e+003 1.872863e+003 1.640526e+003 1.095806e+001 2.599190e+000 6.551740e+000 3.342424e+000 6.976332e+000 4.629525e+000 5.695609e+000 5.835222e+000
<GCONST> 1.579297e+002
<STATE> 3
<MEAN> 22
 9.214066e+000 9.539442e+000 2.222342e+000 2.223640e+000 5.297245e+001 4.874831e+001 6.496011e+001 6.742490e+001 6.644102e+001 6.312857e+001 1.369158e+002 1.388691e+002 1.038794e+002 1.034869e+002 2.714845e+000 4.267406e+000 6.612896e+000 5.342381e+000 5.671092e+000 5.493055e+000 3.463632e+000 3.290876e+000
<VARIANCE> 22
 8.417009e+001 8.402802e+001 8.976649e+000 8.328572e+000 6.697149e+002 6.346904e+002 3.839126e+002 4.685662e+002 1.375794e+002 1.478255e+002 7.553779e+002 8.031591e+002 1.045638e+002 1.089987e+002 1.099169e+001 5.312394e-001 2.540868e-001 2.344672e-001 1.089179e+000 2.578037e+000 5.280630e+000 5.148271e+000
<GCONST> 1.145281e+002
<STATE> 4
<MEAN> 22
 8.134217e+000 7.623726e+000 2.149874e+000 2.220039e+000 3.748333e+001 3.267137e+001 9.060135e+001 9.186973e+001 6.704334e+001 6.335359e+001 1.841853e+002 1.854145e+002 1.172840e+002 1.168112e+002 6.699939e+000 4.923786e+000 6.314114e+000 5.588464e+000 5.984425e+000 5.913745e+000 3.785361e+000 3.570322e+000
<VARIANCE> 22
 7.073819e+001 6.343914e+001 6.303386e+000 6.458008e+000 1.131084e+003 6.487585e+002 4.914845e+002 3.848531e+002 1.099990e+002 1.077696e+002 6.739526e+002 5.698401e+002 1.773838e+002 1.367674e+002 1.933447e+000 9.289414e-002 2.495444e-001 2.530687e-001 9.834041e-002 1.873615e-001 5.587915e+000 5.731432e+000
<GCONST> 1.055340e+002
<TRANSP> 5
 0.000000e+000 1.000000e+000 0.000000e+000 0.000000e+000 0.000000e+000
 0.000000e+000 6.883966e-001 3.116034e-001 0.000000e+000 0.000000e+000
 0.000000e+000 0.000000e+000 9.419224e-001 5.807762e-002 0.000000e+000
 0.000000e+000 0.000000e+000 0.000000e+000 9.321616e-001 6.783837e-002
 0.000000e+000 0.000000e+000 0.000000e+000 0.000000e+000 0.000000e+000
<ENDHMM>
~h "CV"
<BEGINHMM>
<NUMSTATES> 5
<STATE> 2
<MEAN> 22
 1.482150e+001 1.488274e+001 3.495957e+000 3.361476e+000 6.870303e+001 6.275278e+001 7.763626e+001 7.489734e+001 6.456635e+001 5.904576e+001 1.437587e+002 1.437204e+002 1.107209e+002 1.100771e+002 4.584314e+000 4.263383e+000 5.999156e+000 5.598760e+000 5.027556e+000 4.905115e+000 2.770804e+000 2.451488e+000
<VARIANCE> 22
 5.419326e+002 4.463724e+002 2.482657e+002 1.593461e+002 7.378059e+003 5.218306e+003 9.697421e+002 8.305634e+002 1.576482e+002 1.085147e+002 3.464479e+003 2.889785e+003 3.209747e+002 2.880694e+002 9.031406e+000 1.217784e+000 1.996257e+000 5.735878e-001 2.096741e+000 4.770261e+000 3.602140e+000 3.888381e+000
<GCONST> 1.392570e+002
<STATE> 3
<MEAN> 22
 8.211907e+000 8.297793e+000 1.834896e+000 2.000075e+000 1.317019e+002 1.306111e+002 7.557788e+001 7.537625e+001 6.509267e+001 6.175838e+001 5.485339e+001 5.670996e+001 1.041246e+002 1.046142e+002 1.472056e+000 2.499328e+000 5.990098e+000 5.132956e+000 2.940327e+000 1.198589e+000 3.480350e+000 3.382614e+000
<VARIANCE> 22
 1.236643e+002 1.145111e+002 7.736028e+000 9.412277e+000 2.254110e+003 1.795820e+003 7.039604e+002 7.577846e+002 1.044314e+002 9.639289e+001 4.073224e+002 4.013057e+002 1.880701e+002 1.509698e+002 3.802696e-001 3.790513e-001 4.624542e+000 5.272747e-001 4.388727e-001 5.331299e-001 5.679373e+000 5.947230e+000
<GCONST> 1.151771e+002
<STATE> 4
<MEAN> 22
 1.315490e+001 1.282150e+001 3.023111e+000 2.854203e+000 4.070470e+001 3.579855e+001 7.734515e+001 7.986975e+001 6.588376e+001 5.926163e+001 1.639435e+002 1.712753e+002 1.127250e+002 1.118255e+002 5.500803e+000 4.734693e+000 6.203465e+000 5.789036e+000 5.532112e+000 5.823113e+000 4.341922e+000 4.192792e+000
<VARIANCE> 22
 1.925474e+002 2.085827e+002 1.308245e+001 1.146738e+001 1.277953e+003 9.641982e+002 1.076636e+003 8.683246e+002 1.152446e+002 7.582230e+001 2.221884e+003 1.512626e+003 2.006238e+002 1.532925e+002 6.951684e+000 6.064480e-001 1.821731e-001 1.707995e-001 8.245267e-001 1.729758e+000 6.274273e+000 5.037143e+000
<GCONST> 1.200313e+002
<TRANSP> 5
 0.000000e+000 1.000000e+000 0.000000e+000 0.000000e+000 0.000000e+000
 0.000000e+000 8.258804e-001 1.741195e-001 0.000000e+000 0.000000e+000
 0.000000e+000 0.000000e+000 9.547495e-001 4.525053e-002 0.000000e+000
 0.000000e+000 0.000000e+000 0.000000e+000 8.983772e-001 1.016227e-001
 0.000000e+000 0.000000e+000 0.000000e+000 0.000000e+000 0.000000e+000
<ENDHMM>
~h "DC"
<BEGINHMM>
<NUMSTATES> 5
<STATE> 2
<MEAN> 22
 1.294368e+001 1.264920e+001 3.608394e+000 3.746353e+000 8.561135e+001 8.034811e+001 6.615417e+001 6.573596e+001 6.585180e+001 6.167180e+001 1.362097e+002 1.375316e+002 1.094607e+002 1.078233e+002 4.040789e+000 3.999782e+000 6.021240e+000 5.623599e+000 4.973982e+000 4.814570e+000 2.577732e+000 2.095457e+000
<VARIANCE> 22
 4.802833e+002 3.890433e+002 3.435764e+002 2.276719e+002 1.131364e+004 7.785078e+003 1.247313e+003 1.093168e+003 2.125961e+002 1.674291e+002 3.088224e+003 2.814391e+003 5.307136e+002 4.476901e+002 9.468338e+000 1.933310e+000 1.177655e+000 8.871207e-001 1.864852e+000 6.463094e+000 3.170663e+000 3.451359e+000
<GCONST> 1.429270e+002
<STATE> 3
<MEAN> 22
 1.118702e+001 1.190481e+001 1.820736e+000 1.927235e+000 1.213778e+002 1.185847e+002 4.655164e+001 4.856881e+001 6.528754e+001 6.274929e+001 7.240774e+001 7.282426e+001 9.937606e+001 1.000816e+002 1.942355e+000 2.132167e+000 5.972160e+000 5.889196e+000 3.764625e+000 4.891508e-001 2.768888e+000 2.599287e+000
<VARIANCE> 22
 2.074918e+002 2.315588e+002 1.186845e+001 9.941569e+000 1.531821e+003 1.261225e+003 6.072701e+002 6.123702e+002 9.228819e+001 1.232831e+002 4.654283e+002 4.879347e+002 1.376192e+002 1.410901e+002 7.545628e-001 8.375169e-001 2.790365e-001 3.587491e-001 2.966675e-001 1.257516e+000 5.570895e+000 5.772185e+000
<GCONST> 1.145547e+002
<STATE> 4
<MEAN> 22
 1.357481e+001 1.313336e+001 3.040237e+000 2.763287e+000 4.066053e+001 3.626022e+001 7.553223e+001 7.526414e+001 6.491348e+001 6.020375e+001 1.662887e+002 1.683586e+002 1.102731e+002 1.102964e+002 5.791522e+000 4.857428e+000 6.234214e+000 5.759377e+000 5.620184e+000 6.122412e+000 4.246212e+000 4.114229e+000
<VARIANCE> 22
 2.115647e+002 2.206775e+002 1.245522e+001 1.076024e+001 1.285297e+003 9.262922e+002 1.095593e+003 9.168409e+002 1.052595e+002 9.646104e+001 1.578122e+003 1.349851e+003 1.753124e+002 1.520423e+002 5.877398e+000 4.456198e-001 2.095694e-001 1.961496e-001 5.170732e-001 8.064728e-001 7.159601e+000 4.324490e+000
<GCONST> 1.182098e+002
<TRANSP> 5
 0.000000e+000 1.000000e+000 0.000000e+000 0.000000e+000 0.000000e+000
 0.000000e+000 8.794613e-001 1.205386e-001 0.000000e+000 0.000000e+000
 0.000000e+000 0.000000e+000 9.560243e-001 4.397576e-002 0.000000e+000
 0.000000e+000 0.000000e+000 0.000000e+000 8.981799e-001 1.018201e-001
 0.000000e+000 0.000000e+000 0.000000e+000 0.000000e+000 0.000000e+000
<ENDHMM>
~h "FM"
<BEGINHMM>
<NUMSTATES> 5
<STATE> 2
<MEAN> 22
 8.631132e+000 6.269992e+000 3.321004e+000 2.468918e+000 5.101599e+001 2.412939e+001 7.608639e+001 9.374687e+001 9.062240e+001 6.792378e+001 1.579548e+002 1.859975e+002 1.182322e+002 1.194978e+002 3.344033e+000 4.733796e+000 6.507624e+000 5.717629e+000 5.449002e+000 5.853224e+000 3.007530e+000 2.238347e+000
<VARIANCE> 22
 5.944112e+002 6.036103e+002 4.426214e+002 2.890110e+002 1.486749e+003 1.110971e+003 1.229940e+003 7.125500e+002 5.754063e+002 3.472550e+002 2.154471e+003 1.732461e+003 4.381678e+002 2.461423e+002 1.153893e+001 4.162684e-001 3.981995e-001 2.510572e-001 5.185006e-001 1.407808e+000 6.938744e+000 5.717687e+000
<GCONST> 1.345425e+002
<STATE> 3
<MEAN> 22
 1.428741e+000 7.317283e+000 5.849111e-001 2.052810e+000 1.024310e+001 5.666341e+001 9.495682e+001 6.499249e+001 5.788772e+001 8.625496e+001 1.922746e+002 1.392809e+002 1.145319e+002 1.064334e+002 6.970433e+000 4.274912e+000 6.052985e+000 5.332472e+000 5.993834e+000 6.453974e+000 1.724184e+000 3.213002e+000
<VARIANCE> 22
 8.194699e+000 5.770827e+001 3.300596e+000 9.382752e+000 3.464692e+002 6.316569e+002 2.427236e+002 5.755742e+002 7.296753e+001 3.518537e+002 4.874184e+002 9.539988e+002 1.638057e+002 1.572787e+002 1.929108e-001 2.734823e-001 6.566533e-002 2.339706e-001 2.082488e-002 4.995879e-001 5.652566e+000 5.753467e+000
<GCONST> 9.932685e+001
<STATE> 4
<MEAN> 22
 5.848670e+000 3.419754e+000 1.561775e+000 1.195168e+000 7.732549e+001 4.791180e+001 5.867365e+001 6.954943e+001 7.915522e+001 5.855621e+001 1.323071e+002 1.503987e+002 1.035488e+002 1.039520e+002 2.724422e+000 4.154264e+000 6.137757e+000 5.512476e+000 5.057076e+000 5.083214e+000 2.657102e+000 2.217771e+000
<VARIANCE> 22
 6.742783e+001 3.815285e+001 6.728933e+000 5.885179e+000 1.150212e+004 7.352250e+003 9.508307e+002 1.240238e+003 7.856249e+002 2.952047e+002 1.937148e+003 3.122146e+003 6.055715e+002 6.402145e+002 1.062275e+001 1.918662e+000 1.962552e+000 1.508291e+000 1.577592e+000 5.674183e+000 6.139854e+000 6.167344e+000
<GCONST> 1.349614e+002
<TRANSP> 5
 0.000000e+000 1.000000e+000 0.000000e+000 0.000000e+000 0.000000e+000
 0.000000e+000 8.098866e-001 1.901134e-001 0.000000e+000 0.000000e+000
 0.000000e+000 0.000000e+000 9.536476e-001 4.635243e-002 0.000000e+000
 0.000000e+000 0.000000e+000 0.000000e+000 9.078159e-001 9.218410e-002
 0.000000e+000 0.000000e+000 0.000000e+000 0.000000e+000 0.000000e+000
<ENDHMM>
~h "FN"
<BEGINHMM>
<NUMSTATES> 5
<STATE> 2
<MEAN> 22
 1.053341e+001 1.164442e+001 4.447315e+000 4.270951e+000 1.219009e+002 1.244921e+002 8.731214e+001 8.831179e+001 6.796868e+001 6.292900e+001 1.348452e+002 1.102418e+002 1.025182e+002 1.028133e+002 4.267575e+000 3.292533e+000 5.104402e+000 4.851145e+000 4.669799e+000 3.288773e+000 2.639755e+000 2.567933e+000
<VARIANCE> 22
 1.364150e+003 9.423284e+002 1.046543e+003 6.163638e+002 2.664860e+004 1.546099e+004 1.996241e+003 1.473494e+003 5.653287e+002 3.786816e+002 5.946622e+003 6.761506e+003 1.310085e+003 9.210156e+002 7.943935e+000 2.783628e+000 5.330241e+000 2.904896e+000 3.009058e+000 6.972227e+000 6.475894e+000 5.463740e+000
<GCONST> 1.588407e+002
<STATE> 3
<MEAN> 22
 1.326334e+000 1.357538e+001 5.516853e-001 3.149856e+000 9.006463e+000 1.359457e+002 9.191782e+001 9.441365e+001 5.806347e+001 6.746717e+001 1.889429e+002 6.404951e+001 1.127835e+002 9.967149e+001 6.945539e+000 2.756624e+000 6.054049e+000 4.707922e+000 5.968473e+000 2.329216e+000 1.611302e+000 3.524114e+000
<VARIANCE> 22
 7.994621e+000 2.310970e+002 3.300596e+000 1.647053e+001 4.002662e+002 4.015688e+003 2.424832e+002 1.097988e+003 5.721587e+001 1.540287e+002 6.213848e+002 3.375575e+003 1.383189e+002 2.326380e+002 2.523567e-001 1.310027e+000 1.260264e-001 1.441959e+000 8.013664e-002 4.740973e+000 5.349057e+000 5.420768e+000
<GCONST> 1.123394e+002
<STATE> 4
<MEAN> 22
 9.324890e+000 3.647661e+000 2.509544e+000 1.185252e+000 9.051321e+001 2.330344e+001 9.325779e+001 8.478647e+001 7.121256e+001 5.764148e+001 1.029028e+002 1.769555e+002 1.051463e+002 1.142245e+002 3.559803e+000 4.610075e+000 4.815505e+000 5.805461e+000 4.156038e+000 5.366210e+000 3.329695e+000 2.296221e+000
<VARIANCE> 22
 1.562410e+002 6.501283e+001 1.231169e+001 3.593485e+000 5.589611e+003 8.242726e+002 1.516332e+003 9.161415e+002 1.849521e+002 7.301388e+001 5.853649e+003 2.012291e+003 3.573206e+002 1.647135e+002 6.658973e+000 1.093622e+000 6.276709e+000 1.781480e-001 2.429474e+000 3.713388e+000 6.363442e+000 6.220310e+000
<GCONST> 1.276870e+002
<TRANSP> 5
 0.000000e+000 1.000000e+000 0.000000e+000 0.000000e+000 0.000000e+000
 0.000000e+000 7.191811e-001 2.808189e-001 0.000000e+000 0.000000e+000
 0.000000e+000 0.000000e+000 9.515259e-001 4.847408e-002 0.000000e+000
 0.000000e+000 0.000000e+000 0.000000e+000 9.296294e-001 7.037066e-002
 0.000000e+000 0.000000e+000 0.000000e+000 0.000000e+000 0.000000e+000
<ENDHMM>
~h "FU"
<BEGINHMM>
<NUMSTATES> 5
<STATE> 2
<MEAN> 22
 9.179110e+000 3.359769e+000 2.363659e+000 1.059331e+000 1.130586e+002 2.522231e+001 1.004569e+002 8.897242e+001 6.454841e+001 5.554740e+001 7.519218e+001 1.811913e+002 1.012172e+002 1.114069e+002 3.231561e+000 4.839749e+000 3.868264e+000 5.798395e+000 3.702689e+000 5.834563e+000 3.109441e+000 2.073714e+000
<VARIANCE> 22
 2.174002e+002 4.753258e+001 1.330847e+001 3.071057e+000 6.220781e+003 1.288782e+003 9.549365e+002 4.312498e+002 1.804082e+002 6.414989e+001 5.374755e+003 1.274125e+003 2.673696e+002 1.558764e+002 5.361261e+000 3.542821e-001 7.633166e+000 2.159689e-001 2.231696e+000 9.995666e-001 6.305446e+000 5.463286e+000
<GCONST> 1.234291e+002
<STATE> 3
<MEAN> 22
 1.368894e+000 8.739519e+000 5.926747e-001 2.044863e+000 7.800069e+000 1.631363e+002 8.987663e+001 1.023558e+002 5.613470e+001 6.268561e+001 1.858239e+002 3.132860e+001 1.105523e+002 9.549911e+001 6.954218e+000 2.164094e+000 6.060605e+000 4.296086e+000 5.971959e+000 1.388841e+000 1.615131e+000 2.806129e+000
<VARIANCE> 22
 9.613883e+000 1.887867e+002 3.300596e+000 8.266309e+000 3.258232e+002 1.898473e+003 2.597679e+002 7.157919e+002 7.027872e+001 1.667561e+002 6.369656e+002 1.016664e+003 1.779265e+002 1.670353e+002 2.338879e-001 2.981265e-001 8.958982e-002 2.041981e+000 7.626092e-002 1.021091e+000 5.451221e+000 6.404108e+000
<GCONST> 1.063996e+002
<STATE> 4
<MEAN> 22
 4.600943e+000 1.365491e+001 1.608114e+000 3.454591e+000 7.203358e+001 7.791607e+001 8.581436e+001 7.257771e+001 5.818100e+001 5.811173e+001 1.619480e+002 1.426553e+002 1.068911e+002 1.007962e+002 5.651900e+000 4.161744e+000 5.614862e+000 5.318844e+000 5.209738e+000 4.951152e+000 2.564436e+000 3.548198e+000
<VARIANCE> 22
 1.930612e+002 3.934554e+002 9.663252e+001 8.137408e+001 2.027007e+004 1.178996e+004 1.324822e+003 1.327384e+003 3.463690e+002 3.995147e+002 5.145935e+003 4.033163e+003 1.101861e+003 9.891156e+002 5.906575e+000 2.562741e+000 2.751848e+000 2.310989e+000 2.668114e+000 5.635844e+000 6.771448e+000 5.978356e+000
<GCONST> 1.478792e+002
<TRANSP> 5
 0.000000e+000 1.000000e+000 0.000000e+000 0.000000e+000 0.000000e+000
 0.000000e+000 9.293625e-001 7.063753e-002 0.000000e+000 0.000000e+000
 0.000000e+000 0.000000e+000 9.405501e-001 5.944978e-002 0.000000e+000
 0.000000e+000 0.000000e+000 0.000000e+000 8.600939e-001 1.399061e-001
 0.000000e+000 0.000000e+000 0.000000e+000 0.000000e+000 0.000000e+000
<ENDHMM>
~h "MC"
<BEGINHMM>
<NUMSTATES> 5
<STATE> 2
<MEAN> 22
 9.764057e+000 1.079383e+001 4.083455e+000 3.095404e+000 6.672339e+001 5.144342e+001 7.951428e+001 7.976720e+001 7.676053e+001 6.604084e+001 1.428707e+002 1.543215e+002 1.153338e+002 1.152159e+002 4.117214e+000 4.125072e+000 6.343767e+000 5.824911e+000 4.915089e+000 4.541391e+000 2.952088e+000 2.462365e+000
<VARIANCE> 22
 5.955479e+002 9.178412e+002 4.876453e+002 2.861481e+002 3.534131e+003 3.282112e+003 1.533197e+003 1.163905e+003 3.980449e+002 1.919526e+002 4.932707e+003 3.646382e+003 5.920171e+002 2.761159e+002 8.448327e+000 1.785941e+000 4.224826e-001 2.252909e-001 1.407415e+000 6.836425e+000 6.161011e+000 5.328630e+000
<GCONST> 1.422226e+002
<STATE> 3
<MEAN> 22
 1.572942e+000 9.668447e+000 6.564097e-001 2.866781e+000 7.769975e+000 1.014023e+002 9.236347e+001 6.023531e+001 5.655067e+001 7.954411e+001 1.887186e+002 8.803774e+001 1.124840e+002 9.926952e+001 6.984610e+000 3.096766e+000 6.048919e+000 5.630053e+000 5.994027e+000 2.405668e+000 1.854294e+000 3.233684e+000
<VARIANCE> 22
 8.644290e+000 9.251058e+001 3.300596e+000 1.183308e+001 1.344025e+002 2.294283e+003 2.374011e+002 8.371487e+002 7.504088e+001 4.246710e+002 4.753947e+002 2.301890e+003 1.400819e+002 2.394403e+002 7.328880e-002 1.277267e+000 5.091283e-002 3.543484e-001 2.082488e-002 8.512577e+000 5.795552e+000 5.146781e+000
<GCONST> 1.055985e+002
<STATE> 4
<MEAN> 22
 7.487492e+000 4.613531e+000 2.223318e+000 1.595213e+000 7.867783e+001 3.933476e+001 6.043541e+001 7.456810e+001 7.394072e+001 6.001926e+001 1.105734e+002 1.552221e+002 1.048246e+002 1.080940e+002 3.020830e+000 4.241464e+000 6.162542e+000 5.698508e+000 4.521986e+000 5.014160e+000 3.064428e+000 2.728962e+000
<VARIANCE> 22
 7.880798e+001 6.001126e+001 9.281290e+000 7.399549e+000 6.155814e+003 3.828630e+003 8.711300e+002 1.074810e+003 3.892746e+002 1.990276e+002 3.200887e+003 2.996798e+003 3.283875e+002 2.563005e+002 7.273185e+000 1.506564e+000 5.600174e-001 4.540274e-001 1.456052e+000 5.599342e+000 6.076692e+000 6.188495e+000
<GCONST> 1.292743e+002
<TRANSP> 5
 0.000000e+000 1.000000e+000 0.000000e+000 0.000000e+000 0.000000e+000
 0.000000e+000 7.592946e-001 2.407054e-001 0.000000e+000 0.000000e+000
 0.000000e+000 0.000000e+000 9.607558e-001 3.924415e-002 0.000000e+000
 0.000000e+000 0.000000e+000 0.000000e+000 9.225681e-001 7.743186e-002
 0.000000e+000 0.000000e+000 0.000000e+000 0.000000e+000 0.000000e+000
<ENDHMM>
~h "NU"
<BEGINHMM>
<NUMSTATES> 5
<STATE> 2
<MEAN> 22
 6.203757e+000 8.977142e+000 2.320707e+000 2.127943e+000 1.975844e+002 1.595325e+002 7.187405e+001 6.323391e+001 5.616444e+001 4.924172e+001 1.243069e+002 1.136852e+002 8.765627e+001 9.038708e+001 3.794061e+000 3.194411e+000 4.507339e+000 4.373007e+000 3.956070e+000 3.295290e+000 1.969680e+000 1.897062e+000
<VARIANCE> 22
 5.694617e+002 1.020841e+003 4.058287e+002 2.567879e+002 5.169950e+004 2.991519e+004 2.588644e+003 1.756337e+003 1.091349e+003 7.990925e+002 8.160772e+003 6.647675e+003 3.043348e+003 2.567255e+003 1.014232e+001 3.938864e+000 8.061028e+000 5.773990e+000 6.036119e+000 7.885753e+000 5.933777e+000 5.094006e+000
<GCONST> 1.639084e+002
<STATE> 3
<MEAN> 22
 1.349419e+000 8.497719e+000 5.252169e-001 2.383564e+000 1.091493e+001 9.375562e+001 9.174749e+001 7.155653e+001 5.817270e+001 6.370903e+001 1.887076e+002 9.837553e+001 1.129976e+002 1.047634e+002 6.954882e+000 3.393886e+000 6.075816e+000 5.320611e+000 5.965196e+000 2.874659e+000 1.572449e+000 3.171409e+000
<VARIANCE> 22
 8.321194e+000 1.277084e+002 3.300596e+000 1.032033e+001 4.471743e+002 2.610655e+003 2.882354e+002 7.066974e+002 5.938244e+001 1.254395e+002 5.981100e+002 2.609178e+003 1.619661e+002 1.743194e+002 2.345106e-001 1.058107e+000 8.677706e-002 3.922580e-001 7.317849e-002 6.022524e+000 5.308323e+000 5.693980e+000
<GCONST> 1.083647e+002
<STATE> 4
<MEAN> 22
 7.073940e+000 4.720917e+000 2.072399e+000 1.552281e+000 7.208010e+001 3.969505e+001 7.407253e+001 7.944096e+001 6.985801e+001 5.684267e+001 1.138438e+002 1.521933e+002 1.087896e+002 1.094842e+002 2.854584e+000 4.139767e+000 6.279362e+000 5.689176e+000 4.194050e+000 4.481170e+000 3.051642e+000 2.639702e+000
<VARIANCE> 22
 8.822586e+001 5.932724e+001 7.893729e+000 6.210658e+000 3.069206e+003 2.264507e+003 1.187683e+003 1.097612e+003 2.021788e+002 6.439326e+001 3.594135e+003 3.359477e+003 2.366234e+002 2.072547e+002 7.335675e+000 1.529370e+000 1.822887e+000 2.825924e-001 2.497772e+000 5.964975e+000 6.289351e+000 6.245469e+000
<GCONST> 1.274310e+002
<TRANSP> 5
 0.000000e+000 1.000000e+000 0.000000e+000 0.000000e+000 0.000000e+000
 0.000000e+000 6.601263e-001 3.398737e-001 0.000000e+000 0.000000e+000
 0.000000e+000 0.000000e+000 9.516791e-001 4.832094e-002 0.000000e+000
 0.000000e+000 0.000000e+000 0.000000e+000 9.145346e-001 8.546547e-002
 0.000000e+000 0.000000e+000 0.000000e+000 0.000000e+000 0.000000e+000
<ENDHMM>
~h "OK"
<BEGINHMM>
<NUMSTATES> 5
<STATE> 2
<MEAN> 22
 1.380166e+001 4.912121e+000 4.043024e+000 1.875182e+000 1.009898e+002 3.336627e+001 9.934432e+001 8.542279e+001 7.705709e+001 5.649819e+001 9.064622e+001 1.716945e+002 1.070844e+002 1.137513e+002 2.769501e+000 4.529116e+000 4.460443e+000 5.746171e+000 3.698504e+000 5.403310e+000 3.512706e+000 2.407901e+000
<VARIANCE> 22
 4.852996e+002 2.617863e+002 2.410338e+002 1.418592e+002 4.949600e+003 2.044359e+003 1.198812e+003 7.677255e+002 2.293804e+002 8.841097e+001 4.170990e+003 2.789474e+003 3.683308e+002 1.838971e+002 6.008601e+000 9.192048e-001 8.749095e+000 3.348631e-001 2.539944e+000 3.157421e+000 6.133167e+000 6.004686e+000
<GCONST> 1.382701e+002
<STATE> 3
<MEAN> 22
 1.838920e+000 1.161653e+001 7.856608e-001 2.875872e+000 1.096104e+001 1.050312e+002 9.271411e+001 9.346968e+001 5.751792e+001 6.849464e+001 1.918065e+002 1.015376e+002 1.145179e+002 1.066072e+002 6.977038e+000 3.444567e+000 6.058029e+000 5.010637e+000 5.991532e+000 3.312108e+000 1.999426e+000 3.380403e+000
<VARIANCE> 22
 1.111971e+001 2.393467e+002 3.300596e+000 1.313315e+001 3.048890e+002 4.520017e+003 2.460025e+002 7.651455e+002 7.275549e+001 2.034689e+002 4.595637e+002 4.402108e+003 1.449926e+002 1.869630e+002 1.190601e-001 1.499988e+000 6.734211e-002 6.975315e-001 2.258369e-002 5.400299e+000 6.058557e+000 5.778198e+000
<GCONST> 1.093718e+002
<STATE> 4
<MEAN> 22
 8.500712e+000 4.190967e+000 2.285473e+000 1.224853e+000 1.033959e+002 5.193421e+001 8.112868e+001 7.471101e+001 6.416862e+001 5.247744e+001 1.112489e+002 1.556683e+002 1.007266e+002 1.042363e+002 3.324383e+000 4.209640e+000 5.147525e+000 5.485017e+000 3.978390e+000 4.933483e+000 2.755418e+000 2.402108e+000
<VARIANCE> 22
 1.632348e+002 7.482491e+001 1.315574e+001 4.929800e+000 1.432356e+004 9.441720e+003 1.654380e+003 1.168623e+003 4.267057e+002 2.669305e+002 5.624684e+003 3.682923e+003 1.081557e+003 8.723718e+002 8.244293e+000 2.338915e+000 6.956393e+000 2.110349e+000 3.899880e+000 5.562810e+000 6.205805e+000 6.390455e+000
<GCONST> 1.418630e+002
<TRANSP> 5
 0.000000e+000 1.000000e+000 0.000000e+000 0.000000e+000 0.000000e+000
 0.000000e+000 8.619325e-001 1.380675e-001 0.000000e+000 0.000000e+000
 0.000000e+000 0.000000e+000 9.430947e-001 5.690536e-002 0.000000e+000
 0.000000e+000 0.000000e+000 0.000000e+000 8.292893e-001 1.707107e-001
 0.000000e+000 0.000000e+000 0.000000e+000 0.000000e+000 0.000000e+000
<ENDHMM>
~h "PF"
<BEGINHMM>
<NUMSTATES> 5
<STATE> 2
<MEAN> 22
 9.308043e+000 1.180863e+001 4.340381e+000 4.410103e+000 1.311168e+002 1.532440e+002 8.769401e+001 1.082262e+002 7.026766e+001 7.251075e+001 1.463629e+002 1.124199e+002 1.030663e+002 9.997706e+001 4.213745e+000 3.327585e+000 5.465113e+000 4.643436e+000 4.982328e+000 3.340461e+000 2.506933e+000 2.743974e+000
<VARIANCE> 22
 1.171803e+003 1.024998e+003 9.214304e+002 6.038188e+002 3.261020e+004 1.815329e+004 1.736207e+003 2.749379e+003 4.959081e+002 6.698997e+002 4.867857e+003 5.259458e+003 9.422690e+002 6.659967e+002 9.253196e+000 2.310693e+000 4.216077e+000 2.389105e+000 2.563921e+000 5.981412e+000 6.228468e+000 5.312642e+000
<GCONST> 1.579619e+002
<STATE> 3
<MEAN> 22
 1.470417e+000 1.477085e+001 6.544462e-001 4.081950e+000 1.028447e+001 1.501552e+002 9.272543e+001 1.205412e+002 5.825227e+001 8.036774e+001 1.891870e+002 8.377722e+001 1.134788e+002 9.689028e+001 6.946076e+000 2.976449e+000 6.055533e+000 4.118848e+000 5.967968e+000 2.670682e+000 1.808350e+000 3.515080e+000
<VARIANCE> 22
 8.651320e+000 2.906725e+002 3.300596e+000 2.197164e+001 5.182943e+002 5.132538e+003 2.577234e+002 1.324449e+003 6.279377e+001 3.020009e+002 5.989786e+002 3.190755e+003 1.299625e+002 2.542212e+002 2.758880e-001 1.168501e+000 2.008744e-001 1.223298e+000 8.924025e-002 3.748083e+000 5.919621e+000 4.799324e+000
<GCONST> 1.145166e+002
<STATE> 4
<MEAN> 22
 9.741324e+000 3.301713e+000 3.023859e+000 1.273006e+000 1.038704e+002 2.313315e+001 1.166721e+002 8.765401e+001 7.919850e+001 5.687915e+001 1.182689e+002 1.809533e+002 1.048954e+002 1.147739e+002 3.367610e+000 4.686257e+000 3.762185e+000 5.779127e+000 3.815470e+000 5.481548e+000 3.227595e+000 2.506740e+000
<VARIANCE> 22
 1.848932e+002 3.848220e+001 1.902337e+001 4.529274e+000 6.798902e+003 8.183187e+002 2.220111e+003 7.762135e+002 4.235401e+002 6.593385e+001 4.560501e+003 1.630516e+003 3.637582e+002 1.501037e+002 7.367370e+000 7.950245e-001 7.951712e+000 1.849503e-001 3.564807e+000 2.997241e+000 6.746490e+000 6.207965e+000
<GCONST> 1.288750e+002
<TRANSP> 5
 0.000000e+000 1.000000e+000 0.000000e+000 0.000000e+000 0.000000e+000
 0.000000e+000 6.561373e-001 3.438626e-001 0.000000e+000 0.000000e+000
 0.000000e+000 0.000000e+000 9.514732e-001 4.852684e-002 0.000000e+000
 0.000000e+000 0.000000e+000 0.000000e+000 9.266950e-001 7.330497e-002
 0.000000e+000 0.000000e+000 0.000000e+000 0.000000e+000 0.000000e+000
<ENDHMM>
~h "PR"
<BEGINHMM>
<NUMSTATES> 5
<STATE> 2
<MEAN> 22
 8.634330e+000 9.035392e+000 3.687700e+000 3.644427e+000 1.006551e+002 9.887581e+001 7.688345e+001 7.565152e+001 6.553159e+001 5.770451e+001 1.329554e+002 1.220078e+002 9.908043e+001 9.636409e+001 3.412355e+000 3.362428e+000 5.277843e+000 4.808256e+000 4.333013e+000 3.336899e+000 2.277740e+000 2.421837e+000
<VARIANCE> 22
 9.815717e+002 7.819058e+002 7.132902e+002 4.700257e+002 2.270625e+004 1.407211e+004 2.036727e+003 2.144319e+003 7.577918e+002 5.569408e+002 5.643491e+003 4.272992e+003 1.627886e+003 1.447569e+003 9.879722e+000 2.768329e+000 6.293209e+000 3.304793e+000 4.665391e+000 6.993799e+000 5.999310e+000 6.064828e+000
<GCONST> 1.596257e+002
<STATE> 3
<MEAN> 22
 1.314102e+000 9.402671e+000 5.691245e-001 3.145276e+000 1.032491e+001 9.385158e+001 9.246612e+001 8.595019e+001 5.857862e+001 6.416414e+001 1.879702e+002 1.075247e+002 1.126624e+002 1.032040e+002 6.932450e+000 3.544906e+000 6.084738e+000 5.080769e+000 5.972274e+000 3.450279e+000 1.724852e+000 3.577044e+000
<VARIANCE> 22
 6.585756e+000 1.305486e+002 3.300596e+000 1.673069e+001 3.564076e+002 2.364122e+003 2.697193e+002 6.606820e+002 6.739426e+001 1.617234e+002 5.913199e+002 2.211235e+003 1.582292e+002 2.087017e+002 3.890374e-001 7.911850e-001 8.845332e-002 3.468598e-001 8.764894e-002 4.015656e+000 5.705995e+000 6.346818e+000
<GCONST> 1.086041e+002
<STATE> 4
<MEAN> 22
 9.203454e+000 3.005297e+000 2.589822e+000 1.124859e+000 6.842271e+001 1.982441e+001 8.338239e+001 8.558768e+001 7.151717e+001 5.657668e+001 1.160105e+002 1.782834e+002 1.072204e+002 1.116104e+002 2.790759e+000 4.737934e+000 6.253291e+000 5.777006e+000 3.927946e+000 5.833685e+000 3.325450e+000 2.329678e+000
<VARIANCE> 22
 1.325505e+002 3.007124e+001 1.196787e+001 3.605721e+000 2.516490e+003 5.157329e+002 9.224045e+002 7.220897e+002 2.090092e+002 6.439073e+001 3.103910e+003 1.350650e+003 2.538040e+002 1.511818e+002 8.082303e+000 3.852104e-001 2.501671e+000 1.898088e-001 3.656605e+000 1.230195e+000 6.011871e+000 6.152904e+000
<GCONST> 1.207904e+002
<TRANSP> 5
 0.000000e+000 1.000000e+000 0.000000e+000 0.000000e+000 0.000000e+000
 0.000000e+000 7.196953e-001 2.803048e-001 0.000000e+000 0.000000e+000
 0.000000e+000 0.000000e+000 9.511058e-001 4.889423e-002 0.000000e+000
 0.000000e+000 0.000000e+000 0.000000e+000 9.082615e-001 9.173840e-002
 0.000000e+000 0.000000e+000 0.000000e+000 0.000000e+000 0.000000e+000
<ENDHMM>
~h "SP"
<BEGINHMM>
<NUMSTATES> 5
<STATE> 2
<MEAN> 22
 7.708545e+000 1.232815e+001 4.346568e+000 5.199738e+000 9.748231e+001 1.173084e+002 7.987469e+001 8.707357e+001 6.194120e+001 6.420801e+001 1.429271e+002 1.165646e+002 9.745920e+001 9.336180e+001 4.314605e+000 3.447624e+000 5.180287e+000 4.333184e+000 4.837942e+000 3.709597e+000 2.031749e+000 2.124091e+000
<VARIANCE> 22
 1.764391e+003 1.251424e+003 1.422762e+003 8.648012e+002 3.042186e+004 1.740231e+004 1.983526e+003 2.355619e+003 8.450472e+002 1.162962e+003 6.004659e+003 5.563701e+003 1.772545e+003 1.609716e+003 1.051685e+001 3.145874e+000 5.896164e+000 4.038002e+000 4.457743e+000 6.896514e+000 5.782306e+000 4.497466e+000
<GCONST> 1.638477e+002
<STATE> 3
<MEAN> 22
 1.182948e+000 1.157606e+001 5.024049e-001 3.835778e+000 1.052300e+001 1.772490e+002 9.453697e+001 1.295460e+002 6.039181e+001 8.831062e+001 1.883746e+002 6.056165e+001 1.127767e+002 9.347628e+001 6.931907e+000 2.410782e+000 6.079171e+000 3.573525e+000 5.968561e+000 1.868393e+000 1.589760e+000 3.038748e+000
<VARIANCE> 22
 7.182826e+000 2.776613e+002 3.300596e+000 2.810643e+001 5.708878e+002 3.265152e+003 3.567093e+002 1.069902e+003 9.771436e+001 4.617159e+002 7.256437e+002 1.159401e+003 1.859025e+002 2.362758e+002 3.633187e-001 5.240745e-001 2.886900e-001 7.418770e-001 1.275733e-001 1.893711e+000 5.431546e+000 6.020678e+000
<GCONST> 1.137693e+002
<STATE> 4
<MEAN> 22
 9.877083e+000 4.061102e+000 3.287188e+000 1.401258e+000 1.108583e+002 1.936244e+001 1.168484e+002 8.440270e+001 8.620618e+001 5.784856e+001 1.049837e+002 1.744219e+002 9.864588e+001 1.122497e+002 3.324018e+000 4.648669e+000 3.615754e+000 5.767358e+000 3.960526e+000 5.333037e+000 3.170238e+000 2.380501e+000
<VARIANCE> 22
 2.429699e+002 6.731684e+001 3.778000e+001 6.182667e+000 7.448498e+003 6.950709e+002 1.746912e+003 7.814771e+002 5.947653e+002 6.198862e+001 4.246954e+003 1.716383e+003 3.974047e+002 1.402718e+002 6.524885e+000 7.665016e-001 7.595263e+000 2.014321e-001 2.813332e+000 3.721685e+000 6.464776e+000 6.566864e+000
<GCONST> 1.305532e+002
<TRANSP> 5
 0.000000e+000 1.000000e+000 0.000000e+000 0.000000e+000 0.000000e+000
 0.000000e+000 7.165871e-001 2.834129e-001 0.000000e+000 0.000000e+000
 0.000000e+000 0.000000e+000 9.521881e-001 4.781186e-002 0.000000e+000
 0.000000e+000 0.000000e+000 0.000000e+000 9.351037e-001 6.489630e-002
 0.000000e+000 0.000000e+000 0.000000e+000 0.000000e+000 0.000000e+000
<ENDHMM>
~h "ST"
<BEGINHMM>
<NUMSTATES> 5
<STATE> 2
<MEAN> 22
 7.379558e+000 9.507771e+000 2.718471e+000 2.888262e+000 8.837988e+001 8.978963e+001 8.544255e+001 8.122075e+001 7.247794e+001 7.078270e+001 1.454817e+002 1.230782e+002 1.115782e+002 1.117787e+002 4.393570e+000 3.493899e+000 6.122658e+000 5.611670e+000 4.850920e+000 3.396556e+000 2.832903e+000 2.663236e+000
<VARIANCE> 22
 5.035589e+002 5.620886e+002 3.900136e+002 2.384563e+002 1.634750e+004 9.977160e+003 1.431880e+003 1.040307e+003 3.703190e+002 4.099770e+002 5.303980e+003 5.177169e+003 8.040153e+002 4.962440e+002 8.309811e+000 2.384899e+000 1.634310e+000 1.009424e+000 2.549029e+000 7.652920e+000 6.615658e+000 5.871442e+000
<GCONST> 1.496238e+002
<STATE> 3
<MEAN> 22
 1.325521e+000 1.074856e+001 5.187088e-001 2.190990e+000 9.354512e+000 1.120395e+002 9.182879e+001 6.787657e+001 5.846479e+001 7.951147e+001 1.899305e+002 7.658969e+001 1.138690e+002 1.053167e+002 6.970917e+000 2.748760e+000 6.061634e+000 5.842044e+000 5.988857e+000 1.859120e+000 1.544564e+000 3.003477e+000
<VARIANCE> 22
 8.015370e+000 1.578541e+002 3.300596e+000 8.877538e+000 2.891187e+002 2.694942e+003 2.185705e+002 6.086777e+002 5.400548e+001 3.229729e+002 4.790522e+002 2.938039e+003 1.267363e+002 1.335786e+002 1.579578e-001 1.497055e+000 6.325691e-002 3.619053e-001 2.330756e-002 6.628448e+000 5.148284e+000 5.817883e+000
<GCONST> 1.062922e+002
<STATE> 4
<MEAN> 22
 9.907166e+000 2.858844e+000 2.202803e+000 1.079179e+000 9.077016e+001 2.078444e+001 7.629377e+001 8.923233e+001 8.191579e+001 5.753039e+001 9.301929e+001 1.860188e+002 1.086914e+002 1.155457e+002 3.068352e+000 4.870166e+000 6.022531e+000 5.875395e+000 4.231464e+000 5.946887e+000 3.119794e+000 2.164647e+000
<VARIANCE> 22
 1.336922e+002 3.608752e+001 8.761952e+000 4.632844e+000 4.007246e+003 8.226682e+002 7.934188e+002 6.848392e+002 3.681316e+002 5.500008e+001 4.609085e+003 1.258552e+003 2.619268e+002 1.539398e+002 5.950015e+000 1.969196e-001 1.293796e+000 1.254971e-001 1.527817e+000 8.260494e-001 6.072099e+000 5.997002e+000
<GCONST> 1.190945e+002
<TRANSP> 5
 0.000000e+000 1.000000e+000 0.000000e+000 0.000000e+000 0.000000e+000
 0.000000e+000 7.901084e-001 2.098915e-001 0.000000e+000 0.000000e+000
 0.000000e+000 0.000000e+000 9.565364e-001 4.346368e-002 0.000000e+000
 0.000000e+000 0.000000e+000 0.000000e+000 9.120640e-001 8.793599e-002
 0.000000e+000 0.000000e+000 0.000000e+000 0.000000e+000 0.000000e+000
<ENDHMM>
~h "TT"
<BEGINHMM>
<NUMSTATES> 5
<STATE> 2
<MEAN> 22
 1.122736e+001 1.363929e+001 5.064238e+000 5.615265e+000 4.832768e+001 7.179782e+001 8.944208e+001 1.009610e+002 6.964451e+001 7.288213e+001 1.678234e+002 1.535641e+002 1.120915e+002 1.112320e+002 5.256661e+000 4.221710e+000 5.931958e+000 5.220190e+000 5.496941e+000 4.699140e+000 2.686453e+000 2.838100e+000
<VARIANCE> 22
 1.575292e+003 1.228479e+003 1.166229e+003 7.707176e+002 3.990132e+003 6.729926e+003 1.452055e+003 1.764526e+003 3.163535e+002 7.140154e+002 2.439528e+003 2.693254e+003 3.056996e+002 2.223852e+002 7.920576e+000 1.383512e+000 1.964031e+000 1.281783e+000 1.262009e+000 4.640225e+000 6.510699e+000 4.675417e+000
<GCONST> 1.481336e+002
<STATE> 3
<MEAN> 22
 1.708745e+000 1.770001e+001 7.598156e-001 5.883012e+000 1.127446e+001 1.831129e+002 9.538783e+001 1.535515e+002 5.977408e+001 1.107500e+002 1.910012e+002 1.050901e+002 1.146648e+002 9.865346e+001 6.944383e+000 2.896056e+000 6.075212e+000 3.690371e+000 5.968596e+000 2.507572e+000 1.914411e+000 3.735096e+000
<VARIANCE> 22
 1.164141e+001 3.532898e+002 3.300596e+000 5.081767e+001 4.654643e+002 6.237854e+003 4.115741e+002 1.894329e+003 1.323695e+002 9.395664e+002 6.814920e+002 1.743714e+003 1.904393e+002 3.334921e+002 2.906134e-001 9.086775e-001 2.417024e-001 9.480263e-001 9.843648e-002 2.937500e+000 5.788075e+000 5.465372e+000
<GCONST> 1.185121e+002
<STATE> 4
<MEAN> 22
 1.365842e+001 3.254374e+000 4.738938e+000 1.349890e+000 1.400445e+002 3.050886e+001 1.307708e+002 8.644019e+001 9.636360e+001 5.625796e+001 1.188807e+002 1.779492e+002 1.012722e+002 1.118505e+002 2.767325e+000 4.624495e+000 3.339759e+000 5.719653e+000 3.592013e+000 5.352632e+000 3.331188e+000 2.348726e+000
<VARIANCE> 22
 3.240248e+002 3.884795e+001 5.188088e+001 6.630200e+000 1.119159e+004 3.646963e+003 3.254954e+003 1.003846e+003 1.318120e+003 1.397749e+002 3.114755e+003 2.198983e+003 5.793866e+002 4.277228e+002 6.681305e+000 1.182062e+000 8.101069e+000 8.494032e-001 3.590111e+000 3.696609e+000 5.803294e+000 6.199502e+000
<GCONST> 1.386864e+002
<TRANSP> 5
 0.000000e+000 1.000000e+000 0.000000e+000 0.000000e+000 0.000000e+000
 0.000000e+000 6.963421e-001 3.036580e-001 0.000000e+000 0.000000e+000
 0.000000e+000 0.000000e+000 9.499913e-001 5.000873e-002 0.000000e+000
 0.000000e+000 0.000000e+000 0.000000e+000 9.398496e-001 6.015043e-002
 0.000000e+000 0.000000e+000 0.000000e+000 0.000000e+000 0.000000e+000
<ENDHMM>
~h "VA"
<BEGINHMM>
<NUMSTATES> 5
<STATE> 2
<MEAN> 22
 1.189455e+001 1.212928e+001 5.471222e+000 4.657464e+000 1.400650e+002 1.478826e+002 9.288336e+001 1.069977e+002 7.491950e+001 7.840218e+001 1.245444e+002 1.172035e+002 9.359079e+001 9.360356e+001 3.422151e+000 3.205341e+000 4.572888e+000 4.314788e+000 4.237590e+000 3.223477e+000 2.666947e+000 2.562444e+000
<VARIANCE> 22
 1.020558e+003 8.326966e+002 6.279793e+002 3.809657e+002 2.720443e+004 1.602328e+004 3.673375e+003 3.777919e+003 1.300158e+003 1.551864e+003 5.879979e+003 5.291987e+003 1.661153e+003 1.319478e+003 8.888862e+000 2.684870e+000 7.003670e+000 3.396530e+000 4.139238e+000 6.403804e+000 6.109417e+000 5.258085e+000
<GCONST> 1.622696e+002
<STATE> 3
<MEAN> 22
 2.300660e+000 1.544823e+001 1.098034e+000 5.678196e+000 1.163217e+001 1.442788e+002 9.141359e+001 1.226956e+002 5.703397e+001 9.503046e+001 1.876868e+002 1.035653e+002 1.128511e+002 9.154912e+001 6.927828e+000 3.173271e+000 6.057589e+000 4.339869e+000 5.960899e+000 3.095480e+000 2.177690e+000 3.537842e+000
<VARIANCE> 22
 1.644031e+001 2.891913e+002 5.661240e+000 3.991483e+001 4.420839e+002 7.847695e+003 3.145288e+002 2.654986e+003 1.000029e+002 8.056203e+002 6.766557e+002 3.121673e+003 1.688685e+002 4.984218e+002 3.689716e-001 1.429545e+000 1.523324e-001 1.723007e+000 8.681863e-002 5.428320e+000 6.150031e+000 5.355542e+000
<GCONST> 1.209809e+002
<STATE> 4
<MEAN> 22
 1.285909e+001 3.492501e+000 4.731914e+000 1.630809e+000 1.231852e+002 2.206157e+001 1.261689e+002 8.491354e+001 9.661324e+001 5.576840e+001 1.111691e+002 1.730809e+002 9.633153e+001 1.123478e+002 2.878066e+000 4.521765e+000 3.686783e+000 5.763929e+000 3.665196e+000 5.189690e+000 3.251588e+000 2.488169e+000
<VARIANCE> 22
 2.598535e+002 5.757368e+001 3.911156e+001 8.848979e+000 7.869226e+003 7.502056e+002 3.339244e+003 7.808121e+002 7.926309e+002 9.133174e+001 4.140600e+003 1.993245e+003 5.035815e+002 1.479690e+002 5.882466e+000 1.038930e+000 8.208096e+000 1.911062e-001 3.095050e+000 3.934969e+000 6.072408e+000 6.280211e+000
<GCONST> 1.329940e+002
<TRANSP> 5
 0.000000e+000 1.000000e+000 0.000000e+000 0.000000e+000 0.000000e+000
 0.000000e+000 7.360116e-001 2.639884e-001 0.000000e+000 0.000000e+000
 0.000000e+000 0.000000e+000 9.448364e-001 5.516355e-002 0.000000e+000
 0.000000e+000 0.000000e+000 0.000000e+000 9.190981e-001 8.090183e-002
 0.000000e+000 0.000000e+000 0.000000e+000 0.000000e+000 0.000000e+000
<ENDHMM>
~h "VQ"
<BEGINHMM>
<NUMSTATES> 5
<STATE> 2
<MEAN> 22
 1.682851e+001 1.043044e+001 7.295874e+000 5.025938e+000 1.173561e+002 4.802831e+001 1.124587e+002 9.768653e+001 8.107899e+001 5.967075e+001 1.227186e+002 1.664916e+002 1.069742e+002 1.131396e+002 3.465209e+000 4.457630e+000 4.158048e+000 5.538684e+000 4.055211e+000 5.148913e+000 3.439990e+000 2.541483e+000
<VARIANCE> 22
 1.890909e+003 1.443591e+003 1.379757e+003 9.054885e+002 1.058659e+004 6.461585e+003 1.799268e+003 7.145825e+002 4.557071e+002 1.315930e+002 5.617380e+003 3.657728e+003 6.253152e+002 2.414895e+002 7.967225e+000 1.256051e+000 8.660324e+000 7.254077e-001 3.460994e+000 3.322071e+000 6.206482e+000 5.588690e+000
<GCONST> 1.512933e+002
<STATE> 3
<MEAN> 22
 2.029134e+000 1.254294e+001 8.133458e-001 4.257569e+000 1.026636e+001 1.262134e+002 9.086320e+001 1.040485e+002 5.636657e+001 7.223053e+001 1.887800e+002 8.858486e+001 1.130839e+002 9.426965e+001 6.961318e+000 3.177029e+000 6.080733e+000 4.644450e+000 5.979169e+000 3.060922e+000 1.986492e+000 3.591614e+000
<VARIANCE> 22
 1.411544e+001 2.232423e+002 3.300596e+000 3.433604e+001 3.898676e+002 5.538163e+003 2.952220e+002 1.384688e+003 7.649904e+001 2.908566e+002 5.807521e+002 3.556191e+003 1.675241e+002 3.870692e+002 2.053866e-001 1.364990e+000 1.209754e-001 1.122249e+000 5.992578e-002 4.494520e+000 5.911139e+000 5.640731e+000
<GCONST> 1.152824e+002
<STATE> 4
<MEAN> 22
 9.618561e+000 3.550922e+000 3.806514e+000 1.542516e+000 1.174657e+002 5.119027e+001 9.414886e+001 7.785428e+001 7.135558e+001 5.150019e+001 8.387911e+001 1.578949e+002 9.107550e+001 1.046566e+002 2.459108e+000 4.240690e+000 3.780367e+000 5.427146e+000 3.325022e+000 4.917773e+000 3.285677e+000 2.515436e+000
<VARIANCE> 22
 1.594273e+002 4.158762e+001 3.025122e+001 8.202108e+000 1.419227e+004 8.366294e+003 2.040493e+003 1.057824e+003 5.886053e+002 2.041701e+002 3.789347e+003 3.263642e+003 7.886308e+002 6.799471e+002 5.428523e+000 2.037719e+000 9.328188e+000 1.701620e+000 3.322464e+000 4.837593e+000 6.209641e+000 6.270053e+000
<GCONST> 1.407507e+002
<TRANSP> 5
 0.000000e+000 1.000000e+000 0.000000e+000 0.000000e+000 0.000000e+000
 0.000000e+000 7.612209e-001 2.387792e-001 0.000000e+000 0.000000e+000
 0.000000e+000 0.000000e+000 9.465914e-001 5.340866e-002 0.000000e+000
 0.000000e+000 0.000000e+000 0.000000e+000 9.062272e-001 9.377282e-002
 0.000000e+000 0.000000e+000 0.000000e+000 0.000000e+000 0.000000e+000
<ENDHMM>
~h "SIL"
<BEGINHMM>
<NUMSTATES> 5
<STATE> 2
<MEAN> 22
 7.947718e+001 6.726488e+001 7.211880e+001 5.784178e+001 3.170961e+001 2.589538e+001 7.016536e+000 6.912199e+000 4.983161e+000 4.776894e+000 1.362152e+001 1.290534e+001 8.757874e+000 8.620901e+000 4.838620e-001 3.490513e-001 4.706530e-001 4.476118e-001 4.380452e-001 4.039897e-001 7.740530e-001 7.759761e-001
<VARIANCE> 22
 3.352979e+004 2.379907e+004 2.760905e+004 1.778840e+004 1.570238e+004 1.033582e+004 6.408955e+002 6.253246e+002 3.067218e+002 2.888084e+002 2.360903e+003 2.182913e+003 9.245010e+002 8.957277e+002 3.045614e+000 1.560117e+000 2.664694e+000 2.402762e+000 2.340102e+000 2.230398e+000 3.652490e+000 3.662652e+000
<GCONST> 1.608841e+002
<STATE> 3
<MEAN> 22
 4.357878e+000 4.453476e+000 1.308604e+000 1.354212e+000 2.738937e+001 2.744649e+001 9.738702e+001 9.505099e+001 6.830457e+001 6.122564e+001 1.814678e+002 1.822979e+002 1.170279e+002 1.161099e+002 6.071961e+000 4.705395e+000 6.106908e+000 5.790823e+000 5.633388e+000 5.518952e+000 2.283101e+000 2.235707e+000
<VARIANCE> 22
 8.094179e+001 8.224715e+001 6.964332e+000 6.430632e+000 1.593356e+003 1.565856e+003 9.474450e+002 7.010142e+002 1.749070e+002 1.295050e+002 2.680758e+003 2.243738e+003 3.827081e+002 2.068378e+002 4.613264e+000 7.569243e-001 1.003404e+000 2.486979e-001 1.013673e+000 2.440680e+000 5.620742e+000 5.521736e+000
<GCONST> 1.222950e+002
<STATE> 4
<MEAN> 22
 1.261398e+000 2.504245e+000 4.765117e-001 8.691360e-001 6.042233e+000 1.024368e+001 9.424316e+001 9.245323e+001 5.972123e+001 5.870810e+001 1.934154e+002 1.899258e+002 1.161863e+002 1.156692e+002 6.960551e+000 4.944990e+000 6.026244e+000 5.913476e+000 5.989536e+000 5.925074e+000 1.745661e+000 1.899813e+000
<VARIANCE> 22
 9.599334e+000 3.279510e+001 3.300596e+000 2.918349e+000 1.085330e+002 3.812602e+002 2.180039e+002 2.442546e+002 6.238543e+001 7.581134e+001 5.205723e+002 8.047391e+002 1.301998e+002 1.498140e+002 2.432139e-001 1.229731e-001 3.009288e-002 9.108543e-002 2.844912e-002 4.508483e-001 5.288049e+000 5.474463e+000
<GCONST> 9.084940e+001
<TRANSP> 5
 0.000000e+000 1.000000e+000 0.000000e+000 0.000000e+000 0.000000e+000
 0.000000e+000 9.086118e-001 9.138823e-002 0.000000e+000 0.000000e+000
 0.000000e+000 0.000000e+000 9.950508e-001 4.949166e-003 0.000000e+000
 0.000000e+000 0.000000e+000 0.000000e+000 9.966921e-001 3.307860e-003
 0.000000e+000 0.000000e+000 0.000000e+000 0.000000e+000 0.000000e+000
<ENDHMM>
