~o
<STREAMINFO> 1 39
<VECSIZE> 39<NULLD><MFCC_D_A_C_K_0><DIAGC>
~s "silst"
<NUMMIXES> 12
<MIXTURE> 1 2.097669e-02
<MEAN> 39
 -1.581205e+01 -8.034947e+00 -9.034542e+00 -1.396087e+01 -7.873245e+00 -1.721651e+01 -9.222148e+00 -8.330201e+00 -3.089620e+00 -3.655013e+00 -3.696712e+00 -9.920091e-01 6.680959e+01 -5.463385e-01 -2.911202e-01 9.519931e-02 -6.967591e-01 5.102134e-01 3.174722e-02 7.720339e-01 7.296847e-01 7.882918e-01 -3.623603e-02 6.886148e-01 2.266758e-01 1.886692e+00 1.179944e-01 -6.583849e-02 -1.302952e-01 6.869347e-02 -4.140449e-02 1.030469e-01 1.723059e-02 -5.507362e-02 -1.078645e-01 -2.807466e-02 -1.028960e-01 -3.686927e-02 -1.681270e-01
<VARIANCE> 39
 5.762407e+01 4.054034e+01 5.458163e+01 4.881429e+01 6.860038e+01 6.108794e+01 6.368545e+01 6.247284e+01 5.691187e+01 5.426854e+01 5.082264e+01 3.838079e+01 6.691124e+01 5.060320e+00 3.735420e+00 4.870344e+00 4.764987e+00 6.547443e+00 5.630375e+00 6.162166e+00 6.022893e+00 5.442704e+00 5.216370e+00 4.940604e+00 3.870358e+00 4.218911e+00 6.913487e-01 5.106361e-01 6.592293e-01 7.408233e-01 9.077122e-01 8.616358e-01 9.818777e-01 1.035872e+00 9.325923e-01 8.423097e-01 8.434806e-01 6.555201e-01 9.242948e-01
<GCONST> 1.419073e+02
<MIXTURE> 2 5.309827e-02
<MEAN> 39
 -1.476074e+01 -9.797609e+00 -1.281036e+01 -1.253848e+01 -1.123281e+01 -1.716255e+01 -1.199586e+01 -1.128179e+01 -6.856966e+00 -4.739977e+00 -7.661089e+00 -2.476912e+00 5.746774e+01 -1.235190e-02 -4.760135e-02 -2.957484e-02 8.450674e-02 2.438182e-01 4.991046e-01 7.075444e-01 8.895794e-01 9.610338e-01 9.233360e-01 7.382314e-01 4.936971e-01 -3.255006e-02 6.955196e-02 1.251382e-01 1.772264e-01 1.881140e-01 1.559844e-01 8.710549e-02 4.737563e-02 4.818546e-02 9.225450e-02 1.396313e-01 1.457426e-01 1.073925e-01 5.029120e-02
<VARIANCE> 39
 5.947955e+00 5.668577e+00 7.493962e+00 1.012035e+01 1.430001e+01 1.552432e+01 1.629725e+01 1.620398e+01 1.704380e+01 1.529557e+01 1.690335e+01 1.710900e+01 4.076145e+00 2.104984e-01 3.393828e-01 5.404832e-01 7.913837e-01 1.040458e+00 1.270617e+00 1.428154e+00 1.562618e+00 1.640824e+00 1.626850e+00 1.617063e+00 1.592144e+00 7.694703e-02 4.023148e-02 6.798748e-02 1.039201e-01 1.516727e-01 2.186232e-01 2.708838e-01 3.009438e-01 3.217682e-01 3.271984e-01 3.211336e-01 3.320166e-01 3.320485e-01 1.482923e-02
<GCONST> 7.621281e+01
<MIXTURE> 3 1.032010e-01
<MEAN> 39
 -1.278024e+01 -8.508297e+00 -1.044419e+01 -8.946264e+00 -9.905120e+00 -1.707794e+01 -1.403438e+01 -1.402061e+01 -9.689514e+00 -5.637079e+00 -9.528197e+00 -3.481416e+00 5.712347e+01 1.501702e-02 5.637595e-02 1.168823e-01 1.800772e-01 2.738574e-01 3.512317e-01 4.063928e-01 4.714225e-01 5.463451e-01 5.999683e-01 5.298433e-01 3.447771e-01 1.041721e-03 -5.621664e-02 -6.827441e-02 -1.256754e-01 -1.724539e-01 -8.358121e-02 -1.463390e-02 9.914799e-02 1.565656e-01 1.588086e-01 1.053890e-01 9.593764e-02 3.750546e-02 9.033877e-03
<VARIANCE> 39
 2.354130e+00 3.431533e+00 4.621209e+00 6.574565e+00 1.017679e+01 1.291646e+01 1.329787e+01 1.320050e+01 1.420537e+01 1.484259e+01 1.428931e+01 1.447126e+01 1.161267e+00 1.920994e-01 3.272047e-01 5.162827e-01 7.535034e-01 9.849482e-01 1.209527e+00 1.407544e+00 1.606420e+00 1.678649e+00 1.627649e+00 1.555021e+00 1.522913e+00 6.061124e-02 3.463197e-02 5.791506e-02 8.869509e-02 1.331119e-01 1.968105e-01 2.473168e-01 2.757654e-01 2.935538e-01 3.089185e-01 3.179477e-01 3.195723e-01 3.175284e-01 1.209873e-02
<GCONST> 6.919234e+01
<MIXTURE> 4 9.474279e-02
<MEAN> 39
 -1.521615e+01 -7.722518e+00 -1.084529e+01 -1.211920e+01 -1.008331e+01 -1.840147e+01 -1.296774e+01 -1.262265e+01 -7.333014e+00 -5.710106e+00 -6.615029e+00 -2.505867e+00 6.021317e+01 -2.083260e-01 3.776655e-02 -2.292314e-03 -1.445770e-01 2.016349e-01 1.047042e-01 3.275512e-01 3.764982e-01 4.579117e-01 2.683512e-01 4.123261e-01 1.652988e-01 1.688584e-01 6.560706e-03 -4.899804e-02 -2.405401e-02 2.716185e-03 7.020590e-02 1.274039e-01 1.882154e-01 1.839508e-01 1.460923e-01 9.836720e-02 8.392195e-02 5.678086e-02 4.818499e-02
<VARIANCE> 39
 1.745043e+01 1.289912e+01 1.731858e+01 1.869768e+01 2.462738e+01 2.401679e+01 2.653739e+01 2.878702e+01 3.152179e+01 2.996430e+01 2.804127e+01 2.437393e+01 8.289756e+00 9.352152e-01 8.424104e-01 1.183526e+00 1.505030e+00 1.848939e+00 2.008687e+00 2.210478e+00 2.344212e+00 2.367905e+00 2.475426e+00 2.243267e+00 2.030953e+00 4.990742e-01 1.681848e-01 1.569824e-01 2.294075e-01 3.003661e-01 3.648733e-01 3.956720e-01 4.443947e-01 4.978119e-01 5.193429e-01 5.245775e-01 4.944996e-01 4.296908e-01 1.033181e-01
<GCONST> 1.024014e+02
<MIXTURE> 5 9.231873e-02
<MEAN> 39
 -1.278619e+01 -9.002412e+00 -1.138493e+01 -1.004031e+01 -1.082270e+01 -1.737677e+01 -1.369055e+01 -1.285404e+01 -8.359350e+00 -4.413348e+00 -8.919666e+00 -3.164845e+00 5.700902e+01 1.907243e-01 2.959427e-01 3.421969e-01 2.883812e-01 1.167997e-01 -7.007034e-02 -2.829739e-01 -4.116863e-01 -4.542588e-01 -3.868443e-01 -2.590309e-01 -6.568281e-02 6.426983e-02 -6.058538e-03 3.582773e-02 5.461338e-02 5.251005e-02 1.039969e-01 9.319612e-02 1.005851e-01 6.850275e-02 5.143582e-02 2.754984e-02 8.646588e-02 7.230871e-02 2.669712e-02
<VARIANCE> 39
 1.976172e+00 3.195007e+00 4.605666e+00 6.687252e+00 9.854015e+00 1.229502e+01 1.225140e+01 1.204492e+01 1.296075e+01 1.375935e+01 1.346988e+01 1.388059e+01 9.368867e-01 1.623036e-01 2.984897e-01 4.926707e-01 7.282795e-01 9.667438e-01 1.168959e+00 1.325989e+00 1.482670e+00 1.536778e+00 1.518961e+00 1.511217e+00 1.524018e+00 4.942186e-02 2.968486e-02 5.580210e-02 8.798392e-02 1.322010e-01 1.878929e-01 2.383224e-01 2.594742e-01 2.739983e-01 2.875967e-01 3.007647e-01 3.022607e-01 3.059524e-01 9.430878e-03
<GCONST> 6.640981e+01
<MIXTURE> 6 1.081311e-01
<MEAN> 39
 -1.468069e+01 -1.018505e+01 -1.282923e+01 -1.183835e+01 -1.072044e+01 -1.551970e+01 -1.004170e+01 -8.509855e+00 -3.620724e+00 -1.053693e+00 -5.203070e+00 -7.453519e-01 5.673589e+01 8.303375e-02 1.371297e-01 1.819253e-01 2.136613e-01 1.953380e-01 1.826783e-01 1.517008e-01 1.614414e-01 1.797767e-01 2.192612e-01 2.115348e-01 1.592960e-01 1.126256e-02 5.138900e-02 1.038546e-01 1.026240e-01 4.804181e-02 -1.889420e-02 -1.557038e-01 -2.772614e-01 -3.943490e-01 -4.546655e-01 -4.439441e-01 -3.177387e-01 -1.870403e-01 3.822186e-02
<VARIANCE> 39
 5.502442e+00 4.689826e+00 6.903597e+00 1.086497e+01 1.250256e+01 1.392393e+01 1.657584e+01 1.660517e+01 1.790247e+01 1.457449e+01 1.712053e+01 1.674500e+01 3.202546e+00 1.739300e-01 3.094163e-01 4.966559e-01 7.246626e-01 9.784223e-01 1.230649e+00 1.427337e+00 1.631515e+00 1.710376e+00 1.678442e+00 1.624786e+00 1.571545e+00 5.809226e-02 3.456771e-02 6.406607e-02 1.027098e-01 1.508330e-01 1.994321e-01 2.487354e-01 2.907173e-01 3.146968e-01 3.256980e-01 3.150699e-01 3.223454e-01 3.201429e-01 1.079641e-02
<GCONST> 7.389068e+01
<MIXTURE> 7 1.249836e-01
<MEAN> 39
 -1.631491e+01 -8.590297e+00 -1.122597e+01 -1.265817e+01 -8.852913e+00 -1.674999e+01 -1.037086e+01 -1.005237e+01 -5.229392e+00 -4.901485e+00 -5.052836e+00 -1.260878e+00 6.056779e+01 1.180855e-01 3.531101e-02 6.216609e-02 1.668003e-01 -1.528101e-01 -1.954855e-01 -4.444096e-01 -5.387670e-01 -5.945380e-01 -4.506620e-01 -4.931082e-01 -2.531207e-01 -1.909835e-01 3.132787e-02 -2.707417e-02 -2.534147e-02 -2.294271e-02 -8.048902e-02 -4.382165e-02 -6.612734e-02 -3.817639e-02 -1.547636e-02 3.181757e-02 -4.936128e-02 -3.067230e-02 -7.803955e-03
<VARIANCE> 39
 1.662397e+01 1.298879e+01 1.635792e+01 1.681960e+01 2.416903e+01 2.452752e+01 2.664744e+01 3.030997e+01 3.266727e+01 2.744055e+01 2.638137e+01 2.378819e+01 7.025389e+00 4.147015e-01 5.177653e-01 7.890861e-01 1.028549e+00 1.360478e+00 1.571506e+00 1.790212e+00 1.940961e+00 2.006244e+00 1.994620e+00 1.879663e+00 1.769030e+00 2.158433e-01 5.800174e-02 8.590823e-02 1.352858e-01 1.897075e-01 2.513649e-01 3.048352e-01 3.567142e-01 3.973337e-01 4.207580e-01 4.120127e-01 3.963450e-01 3.640586e-01 2.482567e-02
<GCONST> 9.138028e+01
<MIXTURE> 8 3.860226e-02
<MEAN> 39
 -1.563624e+01 -9.910802e+00 -1.064404e+01 -1.528023e+01 -6.556427e+00 -1.474142e+01 -6.160704e+00 -6.102804e+00 -1.843234e+00 -3.324629e+00 -2.250090e+00 -3.941499e-01 6.928726e+01 1.418099e-01 1.085206e-01 -1.414607e-01 2.078638e-01 -4.326005e-02 -3.848968e-02 -1.907545e-01 -3.427667e-01 -2.986727e-01 -1.157857e-01 -2.275386e-01 -9.220520e-02 -4.879540e-01 7.700723e-02 5.138768e-02 4.613265e-02 1.282772e-01 -1.468384e-01 -1.327491e-01 -2.602354e-01 -2.203391e-01 -1.916105e-01 -7.120705e-02 -1.720981e-01 -7.507189e-02 -2.185529e-01
<VARIANCE> 39
 7.187488e+01 5.732773e+01 7.284180e+01 6.124556e+01 1.010692e+02 7.610616e+01 7.425974e+01 7.216584e+01 6.585670e+01 6.539125e+01 5.716040e+01 4.882984e+01 4.504675e+01 9.646182e-01 1.245399e+00 1.724909e+00 2.089878e+00 2.629323e+00 2.819450e+00 3.274588e+00 3.412703e+00 3.254875e+00 3.061154e+00 2.856184e+00 2.577760e+00 1.061049e+00 2.283987e-01 2.500021e-01 3.708611e-01 4.535449e-01 5.567569e-01 5.875180e-01 6.619200e-01 7.000418e-01 6.823258e-01 6.626262e-01 6.034406e-01 5.416468e-01 1.625780e-01
<GCONST> 1.260247e+02
<MIXTURE> 9 1.308222e-01
<MEAN> 39
 -1.257939e+01 -8.070526e+00 -1.007754e+01 -8.961470e+00 -1.015043e+01 -1.765622e+01 -1.499083e+01 -1.570483e+01 -1.176950e+01 -7.646459e+00 -1.081806e+01 -4.149819e+00 5.730617e+01 -8.426583e-02 -1.681726e-01 -2.015397e-01 -1.743281e-01 -1.511234e-01 -3.252987e-02 4.744878e-02 1.053057e-01 1.030890e-01 6.991677e-02 -3.598189e-02 -5.677349e-02 -6.524795e-02 -8.918718e-02 -1.277569e-01 -1.698439e-01 -1.680290e-01 -4.948251e-02 7.158180e-02 2.425157e-01 3.902676e-01 4.485738e-01 3.822795e-01 2.849134e-01 1.314352e-01 -1.160477e-02
<VARIANCE> 39
 2.827471e+00 4.042699e+00 5.715703e+00 8.040801e+00 1.092374e+01 1.368735e+01 1.478566e+01 1.498737e+01 1.573141e+01 1.575409e+01 1.535080e+01 1.507342e+01 1.243267e+00 1.865571e-01 3.260724e-01 5.190538e-01 7.450216e-01 9.657393e-01 1.197329e+00 1.418991e+00 1.624308e+00 1.741263e+00 1.670895e+00 1.568681e+00 1.501209e+00 5.911760e-02 3.539884e-02 6.442872e-02 1.017543e-01 1.520442e-01 2.061807e-01 2.579274e-01 2.991291e-01 3.227509e-01 3.329869e-01 3.330905e-01 3.354443e-01 3.247853e-01 1.103430e-02
<GCONST> 7.140439e+01
<MIXTURE> 10 8.843338e-02
<MEAN> 39
 -1.408072e+01 -9.851363e+00 -1.252105e+01 -1.130153e+01 -1.062303e+01 -1.571755e+01 -1.058703e+01 -9.293953e+00 -4.825689e+00 -1.938249e+00 -6.209221e+00 -1.412664e+00 5.672653e+01 -8.667313e-02 -1.693555e-01 -2.326426e-01 -2.665356e-01 -3.197051e-01 -3.024184e-01 -3.183060e-01 -3.291607e-01 -3.736554e-01 -3.826245e-01 -3.798319e-01 -2.573759e-01 -7.300514e-02 2.623624e-02 7.216211e-02 8.374804e-02 3.859907e-02 -1.602087e-02 -1.443602e-01 -2.556140e-01 -3.430665e-01 -3.562840e-01 -3.328918e-01 -2.334968e-01 -1.387402e-01 2.884318e-02
<VARIANCE> 39
 4.180129e+00 4.082437e+00 6.112512e+00 9.639216e+00 1.179865e+01 1.310401e+01 1.406927e+01 1.400242e+01 1.502458e+01 1.396640e+01 1.553673e+01 1.568649e+01 2.264720e+00 1.645840e-01 2.964624e-01 4.729818e-01 7.023493e-01 9.408445e-01 1.199943e+00 1.410515e+00 1.614817e+00 1.711980e+00 1.677542e+00 1.611541e+00 1.553625e+00 5.341135e-02 3.246512e-02 6.189031e-02 1.005533e-01 1.504610e-01 2.024112e-01 2.461047e-01 2.735311e-01 2.996955e-01 3.125659e-01 3.108925e-01 3.215997e-01 3.191851e-01 1.003493e-02
<GCONST> 7.132843e+01
<MIXTURE> 11 8.037655e-02
<MEAN> 39
 -1.293790e+01 -9.262657e+00 -1.167873e+01 -1.035857e+01 -1.116719e+01 -1.784468e+01 -1.422877e+01 -1.355425e+01 -9.184528e+00 -5.065267e+00 -9.657617e+00 -3.720951e+00 5.686049e+01 4.631405e-02 6.979528e-02 5.396251e-02 -4.236782e-02 -2.477802e-01 -4.469959e-01 -6.697835e-01 -8.144685e-01 -8.831282e-01 -8.281981e-01 -7.123310e-01 -4.536222e-01 -8.261772e-03 -3.448935e-02 -6.331395e-03 2.941005e-03 -2.048004e-03 4.000405e-02 3.302266e-02 4.018097e-02 5.208127e-03 -2.010176e-02 -4.449171e-02 8.140560e-03 1.117018e-02 6.162452e-03
<VARIANCE> 39
 1.988902e+00 3.236959e+00 4.680451e+00 6.853769e+00 9.932332e+00 1.236556e+01 1.246599e+01 1.223285e+01 1.323277e+01 1.390325e+01 1.363261e+01 1.389814e+01 9.181344e-01 1.615276e-01 3.013997e-01 4.925443e-01 7.249922e-01 9.670092e-01 1.160638e+00 1.334729e+00 1.478366e+00 1.553162e+00 1.538386e+00 1.514229e+00 1.503467e+00 4.887061e-02 2.982658e-02 5.714934e-02 9.034151e-02 1.365411e-01 1.927574e-01 2.406172e-01 2.616882e-01 2.762237e-01 2.887304e-01 3.024470e-01 3.043032e-01 3.087475e-01 9.114326e-03
<GCONST> 6.666843e+01
<MIXTURE> 12 6.404119e-02
<MEAN> 39
 -1.470914e+01 -9.972221e+00 -1.319130e+01 -1.280311e+01 -1.177384e+01 -1.778584e+01 -1.277881e+01 -1.220038e+01 -7.928629e+00 -5.594707e+00 -8.657581e+00 -3.215810e+00 5.708795e+01 -1.600793e-01 -2.906534e-01 -3.356718e-01 -2.626853e-01 -1.567723e-01 8.381362e-02 2.712645e-01 4.271149e-01 4.787613e-01 4.341966e-01 2.369932e-01 6.711194e-02 -1.165126e-01 4.517453e-02 9.416565e-02 1.507104e-01 1.664504e-01 1.154376e-01 4.307016e-02 -2.107067e-02 -3.281331e-02 -4.567116e-03 5.385732e-02 5.218834e-02 3.987240e-02 2.459055e-02
<VARIANCE> 39
 5.178962e+00 5.400728e+00 7.100794e+00 9.613195e+00 1.357967e+01 1.504013e+01 1.579240e+01 1.543296e+01 1.585020e+01 1.449152e+01 1.621304e+01 1.652631e+01 3.559319e+00 2.036510e-01 3.306338e-01 5.263571e-01 7.729506e-01 1.012683e+00 1.230468e+00 1.398465e+00 1.541687e+00 1.596334e+00 1.595713e+00 1.582498e+00 1.563959e+00 7.182142e-02 3.934531e-02 6.843176e-02 1.039528e-01 1.531264e-01 2.188463e-01 2.711240e-01 3.020446e-01 3.174329e-01 3.253973e-01 3.182722e-01 3.325155e-01 3.328789e-01 1.352886e-02
<GCONST> 7.494426e+01
~h "sp"
<BEGINHMM>
<NUMSTATES> 3
<STATE> 2
~s "silst"
<TRANSP> 3
 0.000000e+00 5.420290e-01 4.579711e-01
 0.000000e+00 9.871482e-01 1.285180e-02
 0.000000e+00 0.000000e+00 0.000000e+00
<ENDHMM>
~h "oov"
<BEGINHMM>
<NUMSTATES> 3
<STATE> 2
<NUMMIXES> 12
<MIXTURE> 1 7.612983e-02
<MEAN> 39
 -1.640951e+01 -4.756650e+00 -9.597146e+00 -1.251036e+01 -6.241113e+00 -1.810257e+01 -8.161571e+00 -6.663147e+00 -1.116684e+00 -2.775893e+00 -1.384660e+00 -6.573030e-01 6.750311e+01 3.209053e-01 -2.275414e-01 4.437675e-01 -1.005283e+00 -2.467714e-01 -4.879563e-01 4.387884e-01 1.373883e+00 1.320264e+00 5.262104e-01 1.162626e+00 4.300710e-01 1.979050e+00 4.217100e-01 -3.698875e-01 -5.983171e-02 -3.168031e-01 -4.030333e-01 -1.855108e-02 -1.596727e-01 -6.087825e-02 -1.530298e-01 -6.604021e-02 -1.567120e-01 -8.611003e-02 2.857258e-01
<VARIANCE> 39
 6.670172e+01 5.197126e+01 4.814976e+01 3.770171e+01 6.859165e+01 6.219087e+01 5.960977e+01 4.729843e+01 4.824355e+01 5.023086e+01 4.169024e+01 3.334651e+01 2.281486e+01 8.582469e+00 5.235731e+00 6.598269e+00 5.942212e+00 9.844726e+00 8.097260e+00 7.714955e+00 7.367654e+00 6.445733e+00 6.542855e+00 5.879886e+00 5.047106e+00 3.046882e+00 6.644692e-01 5.182209e-01 5.892593e-01 6.101457e-01 8.680354e-01 9.395627e-01 9.053276e-01 8.845107e-01 8.223457e-01 8.393700e-01 8.114331e-01 6.793419e-01 3.584907e-01
<GCONST> 1.414242e+02
<MIXTURE> 2 1.181236e-01
<MEAN> 39
 -1.513152e+01 -6.362695e+00 -1.008206e+01 -1.568130e+01 -6.827469e+00 -1.392829e+01 -7.594689e+00 -7.656490e+00 -2.236487e+00 -3.691180e+00 -3.755504e-01 -5.270745e-01 7.064749e+01 -5.486464e-02 -5.914480e-02 -2.030553e-03 7.961385e-02 1.398849e-01 2.154318e-01 1.845012e-01 3.037085e-01 2.480192e-01 1.267330e-01 4.804956e-02 -1.143674e-02 -1.501397e-01 7.079613e-02 -5.770902e-02 -9.780612e-03 2.074461e-02 -8.825191e-02 -8.566422e-02 -3.369250e-02 -8.414989e-03 7.290386e-03 4.767046e-02 -5.394956e-02 -1.868196e-02 -4.305750e-02
<VARIANCE> 39
 1.150313e+02 8.688650e+01 8.920062e+01 9.023186e+01 1.153018e+02 9.129772e+01 9.228355e+01 8.004868e+01 7.524268e+01 7.182551e+01 7.504530e+01 5.708458e+01 3.637833e+01 3.863393e-01 7.045559e-01 9.878607e-01 1.326986e+00 1.738212e+00 2.046525e+00 2.257974e+00 2.285508e+00 2.317229e+00 2.298478e+00 2.180295e+00 1.997710e+00 2.659620e-01 8.750346e-02 1.282572e-01 1.780874e-01 2.625458e-01 3.221357e-01 3.788208e-01 4.288667e-01 4.378217e-01 4.460365e-01 4.479734e-01 4.260130e-01 3.852010e-01 3.069523e-02
<GCONST> 1.140703e+02
<MIXTURE> 3 7.361915e-02
<MEAN> 39
 -3.894568e+00 -9.015775e+00 -1.317185e+01 -1.805858e+01 -1.205288e+01 -1.741543e+01 -1.215565e+01 -1.131303e+01 -4.409378e+00 3.404054e-01 -2.956641e+00 -6.958190e-01 7.049571e+01 8.430471e-02 3.755515e-01 -1.830030e-03 2.747817e-01 -1.092677e-01 1.730307e-01 -4.806739e-02 -2.907449e-01 5.323139e-02 5.359102e-01 2.309710e-01 3.408155e-01 -6.149871e-01 -3.118622e-01 -1.002455e-01 2.151645e-01 6.776828e-02 1.601634e-01 6.509066e-02 1.453347e-01 4.405294e-01 1.772580e-01 -1.542970e-01 1.007842e-01 4.141370e-02 3.520746e-02
<VARIANCE> 39
 1.700998e+01 3.714643e+01 6.228020e+01 5.870969e+01 6.943376e+01 8.450450e+01 7.491289e+01 8.328452e+01 9.032364e+01 9.038143e+01 9.243824e+01 8.614777e+01 2.196232e+01 7.785721e-01 1.466242e+00 1.950881e+00 2.776471e+00 2.735160e+00 3.794606e+00 3.822482e+00 4.772556e+00 4.243201e+00 3.837851e+00 3.864673e+00 3.292955e+00 1.235140e+00 1.301598e-01 2.048263e-01 3.124801e-01 5.045233e-01 4.846692e-01 6.094361e-01 6.534042e-01 7.673919e-01 8.251022e-01 8.114853e-01 7.561859e-01 6.942253e-01 1.376368e-01
<GCONST> 1.270253e+02
<MIXTURE> 4 7.595609e-02
<MEAN> 39
 -5.983459e+00 -1.456615e+01 -9.404532e+00 -1.941170e+01 -1.223223e+01 -1.764544e+01 -1.011113e+01 -1.221222e+00 8.040645e-01 -1.143355e+00 -6.519718e-01 -7.456585e-01 7.659202e+01 3.110039e-01 -7.843906e-01 -1.391809e-01 -3.001135e-01 4.250609e-01 7.751778e-01 9.156004e-01 1.027191e+00 4.080465e-01 1.967978e-01 2.155462e-01 2.237707e-01 7.860995e-01 -3.107862e-01 4.222234e-01 -1.164714e-02 3.917642e-01 2.788140e-01 9.981503e-02 1.328025e-01 -4.315853e-01 -2.082552e-01 4.502425e-02 -1.474515e-02 8.714952e-02 -4.248391e-01
<VARIANCE> 39
 2.003658e+01 4.429810e+01 9.126592e+01 6.876464e+01 1.144300e+02 1.417901e+02 1.223678e+02 9.765842e+01 9.744794e+01 9.469944e+01 1.032497e+02 9.586406e+01 3.412059e+01 2.030573e+00 3.318169e+00 4.038420e+00 4.749073e+00 5.502277e+00 6.140526e+00 6.049985e+00 7.088303e+00 6.138447e+00 5.575284e+00 5.137686e+00 4.739979e+00 2.899027e+00 3.179293e-01 3.966423e-01 6.318404e-01 7.268927e-01 9.026573e-01 1.059032e+00 1.139503e+00 1.149459e+00 1.106580e+00 1.028903e+00 1.001871e+00 8.853318e-01 2.966174e-01
<GCONST> 1.442536e+02
<MIXTURE> 5 8.671691e-02
<MEAN> 39
 -7.343407e+00 -1.691311e+01 -8.973600e+00 -1.944351e+01 -1.132598e+01 -1.519593e+01 -5.799926e+00 -1.328505e-01 -8.833225e-01 -2.852155e+00 -2.073034e+00 -1.631602e+00 7.742632e+01 9.509455e-02 2.790398e-01 -7.091384e-02 2.574573e-01 -2.920620e-02 -3.889518e-02 -3.271235e-02 -2.148064e-01 -9.843072e-02 1.311764e-01 4.106620e-02 1.807054e-01 -4.291958e-01 1.568355e-02 2.516147e-01 -2.170698e-02 1.614733e-01 -2.612712e-02 -1.180393e-01 -2.051648e-01 -2.746466e-01 -3.745487e-02 5.697449e-02 -7.763663e-03 3.901095e-02 -2.282707e-01
<VARIANCE> 39
 2.377250e+01 3.758548e+01 1.046908e+02 6.810719e+01 1.555535e+02 1.473823e+02 1.274106e+02 1.030976e+02 9.820680e+01 8.504977e+01 9.111420e+01 9.732285e+01 3.293169e+01 4.715892e-01 1.042556e+00 1.569960e+00 1.723973e+00 2.512434e+00 2.719815e+00 3.302186e+00 3.192489e+00 3.174789e+00 2.921912e+00 2.777603e+00 2.561167e+00 5.336877e-01 7.984866e-02 1.556167e-01 2.571103e-01 2.993180e-01 4.286083e-01 4.958303e-01 5.868652e-01 5.894025e-01 5.950906e-01 5.396760e-01 5.206065e-01 4.879547e-01 7.781361e-02
<GCONST> 1.219845e+02
<MIXTURE> 6 1.298852e-01
<MEAN> 39
 -8.870675e+00 -8.916575e+00 -1.426849e+01 -1.485685e+01 -1.129570e+01 -1.578282e+01 -9.841950e+00 -7.807858e+00 -3.337583e+00 -1.879585e+00 -5.255659e+00 -6.563405e-01 6.344674e+01 -6.766280e-01 1.492609e-01 2.027441e-01 5.479946e-01 1.687570e-01 -5.094852e-03 -4.228559e-01 -7.205123e-01 -7.435018e-01 -5.251921e-01 -5.645086e-01 -3.012074e-01 -8.632949e-01 -3.752614e-02 -2.576340e-02 1.681928e-01 -1.419589e-03 -6.747805e-03 -1.382808e-01 -1.084319e-01 -4.656992e-02 -7.823532e-02 -6.920384e-02 8.254777e-02 -1.329307e-02 1.660590e-01
<VARIANCE> 39
 1.946576e+01 1.850590e+01 3.538707e+01 2.783924e+01 4.373830e+01 5.163986e+01 4.080435e+01 4.713259e+01 5.128518e+01 4.735574e+01 4.814479e+01 3.737741e+01 1.133675e+01 7.090203e-01 9.186454e-01 1.552888e+00 1.659766e+00 2.239172e+00 2.756715e+00 2.891726e+00 3.244982e+00 3.181693e+00 3.123312e+00 2.895277e+00 2.599386e+00 5.467075e-01 9.385776e-02 1.183629e-01 1.837078e-01 2.389390e-01 3.090287e-01 3.799573e-01 4.263669e-01 4.763547e-01 5.062337e-01 5.121565e-01 4.799122e-01 4.274991e-01 5.220922e-02
<GCONST> 1.084991e+02
<MIXTURE> 7 1.065342e-01
<MEAN> 39
 -1.600054e+01 -4.248708e+00 -6.074983e+00 -1.647090e+01 -1.005869e+01 -2.062550e+01 -7.988893e+00 -8.646313e+00 -1.715941e+00 -2.183651e+00 5.678277e-01 9.037154e-01 7.315729e+01 3.401124e-01 1.747390e-01 9.500120e-03 -6.099135e-02 -5.817940e-01 -4.878808e-01 -2.610738e-01 -3.770415e-01 -1.143513e-01 -4.518859e-02 -1.453999e-02 -4.129301e-02 2.872379e-01 2.380832e-01 -2.181801e-01 -1.857539e-01 1.009415e-01 1.780653e-03 2.201397e-01 -8.133733e-02 9.538102e-02 -6.295130e-02 -6.729103e-02 -2.342713e-01 -1.642067e-01 -2.006859e-01
<VARIANCE> 39
 7.441272e+01 5.972401e+01 1.121823e+02 7.973896e+01 1.394266e+02 1.177795e+02 9.621162e+01 8.526362e+01 8.317758e+01 9.141402e+01 6.654912e+01 5.811893e+01 3.138653e+01 5.447407e+00 3.519188e+00 4.166085e+00 4.691770e+00 6.792568e+00 6.123208e+00 6.108114e+00 5.534842e+00 5.143224e+00 5.248529e+00 4.749386e+00 3.969486e+00 1.794149e+00 7.361245e-01 4.940204e-01 7.830239e-01 7.694153e-01 1.326314e+00 1.255827e+00 1.144521e+00 1.093011e+00 1.053142e+00 1.080483e+00 8.672289e-01 7.489089e-01 2.677044e-01
<GCONST> 1.461244e+02
<MIXTURE> 8 5.876724e-02
<MEAN> 39
 -1.323524e+01 -6.509052e+00 -1.094689e+01 -1.106070e+01 -1.006275e+01 -1.793007e+01 -1.245971e+01 -1.197211e+01 -6.302168e+00 -4.470294e+00 -5.865977e+00 -1.890218e+00 6.187755e+01 5.105725e-02 2.494445e-01 4.887797e-01 -2.849647e-01 2.739477e-01 8.414109e-02 4.309081e-01 9.288928e-01 9.165281e-01 6.660943e-01 1.075281e+00 5.642813e-01 8.223373e-01 1.654252e-01 -1.002496e-01 6.323855e-02 -4.057232e-01 1.897196e-02 3.519760e-02 3.284945e-01 5.731714e-01 4.852370e-01 3.025784e-01 4.251017e-01 2.353784e-01 6.223003e-01
<VARIANCE> 39
 3.002417e+01 1.790302e+01 2.169883e+01 1.979982e+01 2.647388e+01 2.921589e+01 2.937182e+01 3.031142e+01 3.376222e+01 3.398170e+01 3.259438e+01 2.684897e+01 1.387424e+01 3.860038e+00 2.004878e+00 3.043810e+00 3.045067e+00 4.262579e+00 3.766772e+00 4.058121e+00 4.461400e+00 4.161155e+00 4.118280e+00 3.816241e+00 3.167883e+00 1.390888e+00 4.528573e-01 3.720074e-01 5.077522e-01 4.900586e-01 7.138953e-01 6.919794e-01 6.882783e-01 7.575418e-01 7.408091e-01 7.409967e-01 6.968535e-01 5.990525e-01 2.577568e-01
<GCONST> 1.221702e+02
<MIXTURE> 9 5.560704e-02
<MEAN> 39
 -1.099919e+01 -1.376728e+01 -1.397857e+01 -1.539802e+01 -3.998119e+00 -1.143486e+01 -4.472618e+00 -2.275064e+00 7.665778e-01 -3.660955e+00 -2.248273e+00 -1.921985e+00 7.425555e+01 6.247655e-02 3.291646e-01 -3.419935e-01 2.130944e-01 -3.569351e-01 -5.034679e-01 -6.696286e-01 -1.036774e+00 -7.754126e-01 -4.190854e-01 -6.486542e-01 -1.487127e-01 -8.752839e-01 3.024921e-02 1.172926e-01 8.223213e-02 -7.450237e-02 -3.271652e-01 -3.310743e-01 -3.955399e-01 -4.058568e-01 -2.582403e-01 -4.750534e-02 -1.199063e-01 -9.554313e-03 -1.630683e-01
<VARIANCE> 39
 7.909240e+01 6.668591e+01 7.899229e+01 6.410086e+01 1.156558e+02 1.126432e+02 9.527216e+01 8.280546e+01 7.518266e+01 6.955067e+01 7.082100e+01 6.677350e+01 4.061766e+01 7.663546e-01 1.322852e+00 1.475725e+00 1.863510e+00 2.629579e+00 2.897520e+00 3.219182e+00 3.283518e+00 3.179766e+00 3.081658e+00 2.881104e+00 2.558879e+00 8.470113e-01 1.470249e-01 1.981477e-01 2.697478e-01 3.314640e-01 4.437232e-01 5.239997e-01 5.889375e-01 6.144895e-01 6.091191e-01 5.741062e-01 5.363933e-01 4.937851e-01 8.052243e-02
<GCONST> 1.241573e+02
<MIXTURE> 10 7.953438e-02
<MEAN> 39
 -7.005052e+00 -6.911829e+00 -4.879605e+00 -1.366517e+01 -1.677962e+01 -2.257593e+01 -1.354519e+01 -1.152052e+01 -7.667081e+00 -1.587562e+00 -1.838758e+00 7.522581e-01 6.818146e+01 -1.425000e-01 2.709577e-01 -3.923041e-01 3.789213e-01 2.937144e-01 3.311404e-01 -1.340480e-01 -5.593908e-01 -3.032896e-01 -1.469774e-01 -4.914518e-01 -1.914551e-01 -8.336683e-01 -1.982157e-01 -1.637472e-01 -1.885917e-01 -1.240028e-01 2.042416e-01 2.441639e-01 2.247530e-01 3.289791e-01 2.311516e-01 -8.372097e-02 -7.542691e-02 -1.026804e-01 1.508667e-02
<VARIANCE> 39
 1.738396e+01 2.781310e+01 6.680373e+01 5.193690e+01 6.404385e+01 6.871440e+01 6.405206e+01 8.349137e+01 8.195264e+01 7.473380e+01 7.790872e+01 6.243967e+01 2.223068e+01 6.588864e-01 1.065425e+00 2.248263e+00 2.228510e+00 2.502877e+00 2.794203e+00 3.170858e+00 3.818263e+00 3.645449e+00 3.413529e+00 3.229316e+00 2.896621e+00 1.026775e+00 1.030333e-01 1.419906e-01 2.708251e-01 3.366197e-01 3.907875e-01 4.422278e-01 5.125718e-01 6.035600e-01 6.707305e-01 6.581680e-01 6.329463e-01 5.681725e-01 7.135540e-02
<GCONST> 1.197462e+02
<MIXTURE> 11 7.719605e-02
<MEAN> 39
 -6.241758e+00 -1.416612e+01 -9.233585e+00 -1.928687e+01 -1.230983e+01 -1.824907e+01 -1.062946e+01 -1.417187e+00 -3.008903e-01 -2.067143e+00 -1.544414e+00 -1.441761e+00 7.536884e+01 2.468757e-01 -8.266285e-01 -4.626932e-01 -5.329079e-01 3.781727e-02 2.117884e-01 2.510823e-01 2.595506e-01 -3.763955e-01 -5.541825e-01 -4.998196e-01 -4.458572e-01 5.421759e-01 -3.467632e-01 3.912503e-01 -7.608016e-02 3.843542e-01 1.864386e-01 7.662073e-03 -2.766475e-03 -6.441389e-01 -3.721815e-01 -1.045806e-01 -1.697492e-01 -3.485088e-02 -5.012975e-01
<VARIANCE> 39
 1.892594e+01 4.027171e+01 9.531018e+01 6.568487e+01 1.116306e+02 1.313724e+02 1.198636e+02 9.790105e+01 9.762830e+01 9.368942e+01 1.045615e+02 9.251868e+01 3.544600e+01 1.941395e+00 3.342607e+00 3.915095e+00 4.739320e+00 5.133856e+00 5.767408e+00 5.799383e+00 7.115919e+00 6.010071e+00 5.484111e+00 5.044283e+00 4.595669e+00 3.223722e+00 3.088321e-01 3.836672e-01 6.592849e-01 7.112091e-01 8.986461e-01 1.073365e+00 1.138897e+00 1.122300e+00 1.106362e+00 1.057911e+00 1.014438e+00 8.931438e-01 2.741567e-01
<GCONST> 1.436773e+02
<MIXTURE> 12 6.014316e-02
<MEAN> 39
 -1.316846e+01 -6.305380e+00 -1.113046e+01 -1.100136e+01 -1.049514e+01 -1.861207e+01 -1.341188e+01 -1.315653e+01 -7.413390e+00 -5.554328e+00 -6.768532e+00 -2.690295e+00 6.165859e+01 6.552485e-02 -6.794998e-02 7.420027e-02 -4.096253e-01 -2.400402e-01 -3.624017e-01 -3.610949e-01 5.209885e-02 -5.782279e-02 -1.503831e-01 5.327325e-02 -1.820600e-01 3.313733e-01 9.505798e-02 -1.198236e-01 8.051075e-03 -3.761503e-01 -3.240706e-02 -3.692478e-03 2.216796e-01 4.426857e-01 3.027183e-01 1.668077e-01 2.472935e-01 1.138031e-01 4.176849e-01
<VARIANCE> 39
 2.896310e+01 1.768955e+01 2.225531e+01 2.017875e+01 2.648871e+01 2.904129e+01 2.954333e+01 3.067853e+01 3.407165e+01 3.272509e+01 3.251132e+01 2.621783e+01 1.217722e+01 3.250434e+00 1.738295e+00 2.679734e+00 2.790627e+00 3.625609e+00 3.361281e+00 3.787125e+00 4.284571e+00 3.898618e+00 3.787542e+00 3.610503e+00 2.948019e+00 1.326510e+00 3.567233e-01 2.970186e-01 4.278672e-01 4.189059e-01 5.945836e-01 6.062266e-01 6.172050e-01 6.883925e-01 6.888051e-01 6.757237e-01 6.303020e-01 5.508056e-01 1.874857e-01
<GCONST> 1.187761e+02
<TRANSP> 3
 0.000000e+00 1.000000e+00 0.000000e+00
 0.000000e+00 9.878422e-01 1.215778e-02
 0.000000e+00 0.000000e+00 0.000000e+00
<ENDHMM>
~h "sil"
<BEGINHMM>
<NUMSTATES> 3
<STATE> 2
~s "silst"
<TRANSP> 3
 0.000000e+00 1.000000e+00 0.000000e+00
 0.000000e+00 9.958051e-01 4.194925e-03
 0.000000e+00 0.000000e+00 0.000000e+00
<ENDHMM>
~h "noise"
<BEGINHMM>
<NUMSTATES> 3
<STATE> 2
~s "silst"
<TRANSP> 3
 0.000000e+00 1.000000e+00 0.000000e+00
 0.000000e+00 9.876714e-01 1.232867e-02
 0.000000e+00 0.000000e+00 0.000000e+00
<ENDHMM>
