~o
<STREAMINFO> 1 39
<VECSIZE> 39<NULLD><MFCC_D_A_C_K_0><DIAGC>
~s "silst"
<NUMMIXES> 14
<MIXTURE> 1 2.022652e-02
<MEAN> 39
 -1.617605e+01 -8.249479e+00 -8.769488e+00 -1.433376e+01 -7.449073e+00 -1.708500e+01 -8.845578e+00 -7.820107e+00 -2.574109e+00 -3.573970e+00 -3.206036e+00 -7.901911e-01 6.805328e+01 -5.015545e-01 -2.995816e-01 3.610351e-02 -5.504276e-01 4.527938e-01 3.764367e-02 6.595227e-01 5.903063e-01 6.620616e-01 -8.134347e-02 5.861319e-01 1.545234e-01 1.688556e+00 1.837169e-01 -5.338360e-02 -1.254602e-01 1.042380e-01 -1.005651e-01 8.445808e-02 -4.226913e-02 -8.993071e-02 -1.471189e-01 -1.708555e-02 -1.348726e-01 -5.555650e-02 -2.628635e-01
<VARIANCE> 39
 6.347500e+01 4.702739e+01 6.021749e+01 5.393075e+01 7.689434e+01 6.699603e+01 7.004815e+01 6.824623e+01 5.990273e+01 5.862179e+01 5.471888e+01 4.155516e+01 7.076555e+01 4.767325e+00 3.617118e+00 4.733564e+00 4.679599e+00 6.398137e+00 5.505198e+00 6.097942e+00 6.135382e+00 5.518514e+00 5.112930e+00 4.963205e+00 3.852632e+00 4.714460e+00 6.982306e-01 5.400222e-01 6.851960e-01 7.656008e-01 9.536853e-01 9.027824e-01 1.027411e+00 1.075557e+00 9.580918e-01 8.765640e-01 8.569335e-01 6.760123e-01 9.199199e-01
<GCONST> 1.434321e+02
<MIXTURE> 2 4.966908e-02
<MEAN> 39
 -1.533882e+01 -1.002927e+01 -1.327607e+01 -1.339894e+01 -1.165560e+01 -1.709027e+01 -1.165227e+01 -1.107804e+01 -6.965328e+00 -5.487852e+00 -7.849722e+00 -2.423977e+00 5.729393e+01 3.594630e-03 5.125617e-03 4.091110e-02 1.426353e-01 2.686484e-01 4.746893e-01 6.507477e-01 8.049791e-01 8.751433e-01 8.470185e-01 6.727780e-01 4.297217e-01 -3.251812e-02 4.997474e-02 9.139712e-02 1.407323e-01 1.722051e-01 1.321590e-01 5.713820e-02 2.645611e-02 5.499452e-02 1.391404e-01 2.184710e-01 1.796655e-01 1.017092e-01 3.321831e-02
<VARIANCE> 39
 6.616072e+00 6.094312e+00 7.948717e+00 9.985145e+00 1.451324e+01 1.595805e+01 1.712596e+01 1.772112e+01 1.815335e+01 1.517780e+01 1.682431e+01 1.735461e+01 5.471168e+00 1.973199e-01 3.165587e-01 5.061012e-01 7.510931e-01 1.000635e+00 1.269811e+00 1.435404e+00 1.580429e+00 1.659561e+00 1.643245e+00 1.613868e+00 1.579410e+00 7.330596e-02 3.941935e-02 6.731625e-02 1.002421e-01 1.425674e-01 2.087753e-01 2.687104e-01 3.109281e-01 3.376970e-01 3.284535e-01 3.060082e-01 3.224335e-01 3.281548e-01 1.422099e-02
<GCONST> 7.643641e+01
<MIXTURE> 3 1.308116e-01
<MEAN> 39
 -1.272616e+01 -8.538258e+00 -1.026100e+01 -8.448526e+00 -9.368761e+00 -1.636500e+01 -1.329908e+01 -1.321981e+01 -8.810088e+00 -4.657246e+00 -8.896401e+00 -3.126723e+00 5.703717e+01 -8.541852e-02 -1.341282e-01 -1.257807e-01 -5.021716e-02 7.991139e-02 2.550600e-01 4.078625e-01 5.433179e-01 6.161420e-01 6.097639e-01 4.548749e-01 2.580920e-01 -4.808884e-02 -5.027737e-02 -6.709509e-02 -1.453979e-01 -2.210216e-01 -1.598009e-01 -9.915055e-02 -1.959781e-03 3.888457e-02 1.926687e-02 -3.338789e-02 -8.872399e-03 -1.488512e-02 5.738128e-03
<VARIANCE> 39
 2.138192e+00 3.138839e+00 4.151958e+00 5.747419e+00 9.362798e+00 1.210896e+01 1.270794e+01 1.244147e+01 1.334949e+01 1.366320e+01 1.404865e+01 1.432693e+01 1.014460e+00 1.752447e-01 3.148451e-01 5.058427e-01 7.463445e-01 9.954867e-01 1.201029e+00 1.373404e+00 1.529463e+00 1.594246e+00 1.566337e+00 1.545967e+00 1.530383e+00 5.473876e-02 3.082214e-02 5.396372e-02 8.083533e-02 1.189665e-01 1.801129e-01 2.338058e-01 2.617646e-01 2.720538e-01 2.812004e-01 2.889737e-01 3.056702e-01 3.121363e-01 1.009216e-02
<GCONST> 6.668478e+01
<MIXTURE> 4 8.878612e-02
<MEAN> 39
 -1.521740e+01 -7.583777e+00 -1.076672e+01 -1.152681e+01 -9.627117e+00 -1.836971e+01 -1.322452e+01 -1.321236e+01 -7.905689e+00 -6.063102e+00 -7.321510e+00 -3.137810e+00 5.963221e+01 -2.100422e-01 7.092793e-02 3.940619e-02 -1.427835e-01 1.947371e-01 2.897631e-02 2.025149e-01 1.860670e-01 2.740172e-01 8.752336e-02 2.900944e-01 8.814256e-02 1.925566e-01 3.975610e-03 -6.467331e-02 -3.806182e-02 -2.916478e-02 3.928127e-02 1.187431e-01 1.908993e-01 1.934999e-01 1.488151e-01 9.527947e-02 9.744173e-02 8.048681e-02 5.628887e-02
<VARIANCE> 39
 1.315534e+01 1.072834e+01 1.422948e+01 1.603110e+01 2.046935e+01 2.105995e+01 2.287587e+01 2.363219e+01 2.569556e+01 2.628026e+01 2.293690e+01 2.094968e+01 5.535804e+00 1.027545e+00 9.060499e-01 1.236743e+00 1.583518e+00 1.939435e+00 2.039520e+00 2.340048e+00 2.493500e+00 2.567720e+00 2.567391e+00 2.351465e+00 2.054016e+00 5.496203e-01 1.741315e-01 1.580139e-01 2.254761e-01 2.966968e-01 3.625123e-01 3.859876e-01 4.300839e-01 4.713282e-01 4.915048e-01 5.035576e-01 4.651490e-01 4.118136e-01 1.088563e-01
<GCONST> 1.002920e+02
<MIXTURE> 5 9.664375e-02
<MEAN> 39
 -1.289780e+01 -9.226142e+00 -1.166992e+01 -1.036616e+01 -1.123852e+01 -1.772218e+01 -1.389531e+01 -1.289185e+01 -8.372987e+00 -4.418760e+00 -9.059590e+00 -3.263290e+00 5.688669e+01 2.383199e-01 4.007309e-01 4.895371e-01 4.329211e-01 2.291243e-01 -1.707107e-02 -2.812556e-01 -4.362778e-01 -4.513172e-01 -3.341378e-01 -1.877508e-01 -3.885823e-02 8.367044e-02 -7.851461e-03 3.626314e-02 5.671260e-02 5.728526e-02 1.056823e-01 7.515325e-02 5.039551e-02 -1.677898e-02 -4.842356e-02 -5.953337e-02 1.010780e-02 1.653922e-02 2.261234e-02
<VARIANCE> 39
 1.917965e+00 3.169129e+00 4.420726e+00 6.102881e+00 9.226709e+00 1.189950e+01 1.237420e+01 1.270211e+01 1.375197e+01 1.423269e+01 1.380694e+01 1.394123e+01 9.139124e-01 1.515415e-01 2.658758e-01 4.377730e-01 6.790897e-01 9.465682e-01 1.179680e+00 1.322104e+00 1.455008e+00 1.493176e+00 1.491140e+00 1.511810e+00 1.532268e+00 4.646358e-02 3.015066e-02 5.617732e-02 8.573676e-02 1.229335e-01 1.774173e-01 2.322738e-01 2.619057e-01 2.824003e-01 2.973064e-01 3.067565e-01 3.060002e-01 3.060808e-01 9.520569e-03
<GCONST> 6.574730e+01
<MIXTURE> 6 9.600857e-02
<MEAN> 39
 -1.517460e+01 -1.028228e+01 -1.325889e+01 -1.270984e+01 -1.111950e+01 -1.556300e+01 -9.644156e+00 -7.913289e+00 -2.704600e+00 -5.119723e-01 -4.200760e+00 -1.938245e-02 5.678745e+01 5.229384e-02 9.434971e-02 1.307885e-01 1.586512e-01 1.506160e-01 1.454695e-01 1.262907e-01 1.434140e-01 1.639371e-01 1.938192e-01 1.765756e-01 1.232700e-01 -1.480459e-03 4.726300e-02 9.931258e-02 1.166037e-01 8.145320e-02 1.545261e-02 -1.232927e-01 -2.508590e-01 -3.837395e-01 -4.770013e-01 -4.872362e-01 -3.694092e-01 -2.244802e-01 3.502796e-02
<VARIANCE> 39
 6.102911e+00 5.384718e+00 7.469709e+00 1.063251e+01 1.334812e+01 1.507389e+01 1.792363e+01 1.732292e+01 1.762994e+01 1.454103e+01 1.642268e+01 1.672798e+01 4.261255e+00 1.911693e-01 3.328381e-01 5.283616e-01 7.628618e-01 1.024326e+00 1.298114e+00 1.511382e+00 1.734732e+00 1.825409e+00 1.789747e+00 1.711739e+00 1.609401e+00 6.629793e-02 3.904113e-02 7.030822e-02 1.097645e-01 1.565314e-01 2.061594e-01 2.621235e-01 3.132546e-01 3.388652e-01 3.404044e-01 3.200768e-01 3.284075e-01 3.263800e-01 1.234900e-02
<GCONST> 7.630076e+01
<MIXTURE> 7 6.015849e-02
<MEAN> 39
 -1.702033e+01 -8.898163e+00 -1.108675e+01 -1.317074e+01 -8.808427e+00 -1.647987e+01 -9.578223e+00 -8.977283e+00 -4.040325e+00 -4.200355e+00 -3.936399e+00 -3.056844e-01 6.115117e+01 1.474586e-01 1.111365e-01 1.530735e-01 2.645369e-01 7.129355e-02 8.705832e-02 -3.534976e-02 -4.937115e-02 -7.804121e-02 1.219219e-02 -3.666130e-02 7.374203e-02 -1.152962e-01 4.356176e-02 5.710727e-03 3.305376e-04 2.055762e-02 -2.448935e-02 -2.605535e-03 -2.825144e-02 -8.221649e-03 2.695186e-02 7.509278e-02 -1.375289e-02 -1.221164e-02 -1.891691e-03
<VARIANCE> 39
 1.801748e+01 1.374041e+01 1.691789e+01 1.668463e+01 2.630255e+01 2.550170e+01 2.646969e+01 2.916615e+01 3.168823e+01 2.673178e+01 2.519413e+01 2.366065e+01 8.354367e+00 3.224677e-01 4.459284e-01 6.990703e-01 9.350306e-01 1.242782e+00 1.494445e+00 1.727549e+00 1.925994e+00 2.003748e+00 1.962537e+00 1.851822e+00 1.717265e+00 1.716424e-01 4.857057e-02 7.759307e-02 1.247938e-01 1.780697e-01 2.431601e-01 2.966247e-01 3.428655e-01 3.781177e-01 3.955325e-01 3.840880e-01 3.779385e-01 3.549187e-01 1.961891e-02
<GCONST> 8.958022e+01
<MIXTURE> 8 3.691284e-02
<MEAN> 39
 -1.554015e+01 -1.007314e+01 -1.051949e+01 -1.528461e+01 -6.969212e+00 -1.495253e+01 -6.917130e+00 -6.459374e+00 -2.194677e+00 -3.361676e+00 -2.421589e+00 -5.633623e-01 6.842571e+01 1.272939e-01 9.358739e-02 -1.245335e-01 1.767326e-01 -4.750283e-02 -3.435371e-02 -1.627245e-01 -2.821738e-01 -2.619360e-01 -8.145584e-02 -2.138457e-01 -8.314877e-02 -4.583595e-01 5.788403e-02 5.089856e-02 4.720994e-02 1.222081e-01 -1.207600e-01 -1.207572e-01 -2.250919e-01 -1.990322e-01 -1.716439e-01 -6.892724e-02 -1.631625e-01 -6.368455e-02 -1.828630e-01
<VARIANCE> 39
 6.519254e+01 4.960168e+01 6.625507e+01 5.528802e+01 9.056605e+01 7.262515e+01 7.077948e+01 6.954814e+01 6.580104e+01 6.400651e+01 5.491525e+01 4.713782e+01 4.544033e+01 8.303229e-01 1.108018e+00 1.604306e+00 1.969015e+00 2.459595e+00 2.692012e+00 3.149268e+00 3.347344e+00 3.206559e+00 3.006366e+00 2.810526e+00 2.506544e+00 1.000937e+00 1.835826e-01 2.174002e-01 3.375188e-01 4.151055e-01 5.109817e-01 5.515844e-01 6.352143e-01 6.774855e-01 6.670941e-01 6.462496e-01 5.921952e-01 5.260696e-01 1.320646e-01
<GCONST> 1.234820e+02
<MIXTURE> 9 6.181446e-02
<MEAN> 39
 -1.259213e+01 -7.791101e+00 -9.874938e+00 -9.052879e+00 -1.016858e+01 -1.784119e+01 -1.516598e+01 -1.600301e+01 -1.209523e+01 -8.182332e+00 -1.073850e+01 -4.000129e+00 5.757421e+01 6.256722e-02 7.451301e-02 1.035541e-01 1.398494e-01 1.285334e-01 1.749595e-01 1.795833e-01 1.891854e-01 1.932402e-01 2.100320e-01 1.686682e-01 1.508939e-01 1.188451e-03 -8.532850e-02 -1.268394e-01 -1.597689e-01 -1.350166e-01 1.207119e-02 1.502487e-01 3.460242e-01 5.259809e-01 6.162687e-01 5.412189e-01 3.928934e-01 1.842331e-01 -3.332355e-03
<VARIANCE> 39
 3.400420e+00 4.349778e+00 5.979172e+00 8.259393e+00 1.144071e+01 1.370513e+01 1.457695e+01 1.420395e+01 1.457185e+01 1.429911e+01 1.530812e+01 1.543061e+01 1.503290e+00 2.039969e-01 3.422200e-01 5.440125e-01 7.816172e-01 1.004137e+00 1.237246e+00 1.459032e+00 1.675577e+00 1.799463e+00 1.738154e+00 1.627444e+00 1.532402e+00 6.744073e-02 3.803886e-02 6.512139e-02 1.021560e-01 1.529718e-01 2.087952e-01 2.553229e-01 2.885872e-01 2.968889e-01 2.919405e-01 2.950325e-01 3.240561e-01 3.263770e-01 1.272838e-02
<GCONST> 7.221139e+01
<MIXTURE> 10 8.941077e-02
<MEAN> 39
 -1.370220e+01 -9.744010e+00 -1.208289e+01 -1.039341e+01 -9.995646e+00 -1.545814e+01 -1.066942e+01 -9.533285e+00 -5.254578e+00 -2.137225e+00 -6.989605e+00 -2.128578e+00 5.675261e+01 -7.614137e-02 -1.555619e-01 -2.190783e-01 -2.440786e-01 -2.711008e-01 -2.238085e-01 -2.076027e-01 -2.005229e-01 -2.438428e-01 -2.624520e-01 -2.725191e-01 -1.832672e-01 -6.128283e-02 3.338832e-02 7.830149e-02 6.688055e-02 -1.039157e-02 -7.734407e-02 -2.096098e-01 -3.208379e-01 -4.026490e-01 -3.945474e-01 -3.437978e-01 -2.044095e-01 -1.017448e-01 3.447503e-02
<VARIANCE> 39
 2.888555e+00 3.490359e+00 4.946080e+00 7.372740e+00 1.039168e+01 1.181490e+01 1.192885e+01 1.188682e+01 1.278051e+01 1.298482e+01 1.369233e+01 1.440309e+01 1.487504e+00 1.665074e-01 2.945522e-01 4.673035e-01 7.037923e-01 9.538601e-01 1.206304e+00 1.419110e+00 1.620949e+00 1.729338e+00 1.699262e+00 1.635952e+00 1.583452e+00 5.292070e-02 3.151970e-02 5.847553e-02 9.230448e-02 1.381610e-01 1.910126e-01 2.290817e-01 2.488668e-01 2.721901e-01 2.864971e-01 2.886442e-01 3.041024e-01 3.110709e-01 9.912193e-03
<GCONST> 6.813512e+01
<MIXTURE> 11 7.215004e-02
<MEAN> 39
 -1.279442e+01 -9.073811e+00 -1.141050e+01 -1.002307e+01 -1.082283e+01 -1.755011e+01 -1.412266e+01 -1.350802e+01 -9.022258e+00 -4.785504e+00 -9.330771e+00 -3.462618e+00 5.694574e+01 5.631715e-02 7.292360e-02 5.197775e-02 -4.192878e-02 -2.472628e-01 -4.531632e-01 -7.021273e-01 -8.864170e-01 -9.871703e-01 -9.381057e-01 -7.772426e-01 -4.520031e-01 -2.804643e-03 -3.346622e-02 -5.113301e-03 1.531797e-03 -7.075781e-03 4.486185e-02 6.139123e-02 1.040123e-01 9.061787e-02 5.496939e-02 2.879291e-03 5.340198e-02 4.494914e-02 1.008448e-02
<VARIANCE> 39
 1.997050e+00 3.263127e+00 4.689951e+00 6.750953e+00 9.860406e+00 1.228903e+01 1.256491e+01 1.236434e+01 1.332779e+01 1.379245e+01 1.418107e+01 1.428007e+01 9.047192e-01 1.521783e-01 2.730654e-01 4.495434e-01 6.887240e-01 9.505738e-01 1.158202e+00 1.326517e+00 1.446664e+00 1.513687e+00 1.503291e+00 1.495541e+00 1.495616e+00 4.735444e-02 2.963774e-02 5.655783e-02 8.796780e-02 1.332521e-01 1.894279e-01 2.387836e-01 2.615035e-01 2.753151e-01 2.841785e-01 3.004999e-01 3.123378e-01 3.136528e-01 9.132724e-03
<GCONST> 6.620211e+01
<MIXTURE> 12 8.194254e-02
<MEAN> 39
 -1.414546e+01 -1.006327e+01 -1.333103e+01 -1.276544e+01 -1.228718e+01 -1.837177e+01 -1.365735e+01 -1.298673e+01 -8.784677e+00 -5.858554e+00 -9.396009e+00 -3.645427e+00 5.701528e+01 -1.283329e-01 -2.641360e-01 -3.201199e-01 -2.643508e-01 -1.994217e-01 -4.942090e-03 1.245774e-01 2.416575e-01 2.579233e-01 2.203493e-01 7.065542e-02 9.734454e-04 -9.923180e-02 6.146726e-02 1.448869e-01 2.395961e-01 2.741278e-01 2.432177e-01 1.564116e-01 9.026638e-02 7.779802e-02 1.161275e-01 1.541049e-01 1.637151e-01 1.201168e-01 4.229227e-02
<VARIANCE> 39
 4.043108e+00 4.559366e+00 5.607675e+00 7.632399e+00 1.130907e+01 1.382534e+01 1.518100e+01 1.532814e+01 1.596317e+01 1.464284e+01 1.608872e+01 1.589299e+01 2.325621e+00 1.854913e-01 3.021190e-01 4.858174e-01 7.350078e-01 9.803662e-01 1.213462e+00 1.401293e+00 1.568027e+00 1.630695e+00 1.626298e+00 1.608992e+00 1.565722e+00 6.301028e-02 3.638465e-02 6.240991e-02 8.883311e-02 1.302094e-01 1.933735e-01 2.556029e-01 2.965020e-01 3.191615e-01 3.258438e-01 3.144533e-01 3.310061e-01 3.307151e-01 1.214693e-02
<GCONST> 7.206287e+01
<MIXTURE> 13 5.905347e-02
<MEAN> 39
 -1.633165e+01 -8.719067e+00 -1.125668e+01 -1.286535e+01 -9.104614e+00 -1.684116e+01 -1.046183e+01 -1.000181e+01 -5.296640e+00 -5.046293e+00 -5.164116e+00 -1.254286e+00 6.011784e+01 5.800169e-02 -9.505739e-02 -1.299703e-01 -4.689454e-02 -3.640381e-01 -3.772054e-01 -5.931977e-01 -6.737378e-01 -7.299170e-01 -6.108814e-01 -6.698117e-01 -4.232878e-01 -2.130270e-01 1.102340e-02 -5.792192e-02 -6.632735e-02 -4.061336e-02 -1.184106e-01 -8.656336e-02 -1.359788e-01 -1.262611e-01 -1.014702e-01 -3.529947e-02 -1.396391e-01 -1.042484e-01 -3.510152e-02
<VARIANCE> 39
 1.349123e+01 1.196317e+01 1.561222e+01 1.574783e+01 2.354894e+01 2.352920e+01 2.499916e+01 2.771701e+01 3.000924e+01 2.561927e+01 2.448785e+01 2.280629e+01 7.018734e+00 3.466188e-01 4.557048e-01 7.140483e-01 9.592699e-01 1.247869e+00 1.481312e+00 1.726509e+00 1.901767e+00 1.986944e+00 1.948157e+00 1.827674e+00 1.709929e+00 1.720033e-01 5.358715e-02 8.062898e-02 1.294049e-01 1.855941e-01 2.490708e-01 3.014843e-01 3.483639e-01 3.813640e-01 4.035615e-01 3.949989e-01 3.896895e-01 3.623092e-01 2.060958e-02
<GCONST> 8.889799e+01
<MIXTURE> 14 5.632025e-02
<MEAN> 39
 -1.267464e+01 -8.029108e+00 -1.017204e+01 -9.315405e+00 -1.051523e+01 -1.827989e+01 -1.562594e+01 -1.654148e+01 -1.274546e+01 -8.628382e+00 -1.142330e+01 -4.512682e+00 5.735596e+01 -6.497207e-02 -1.373082e-01 -1.714346e-01 -1.805550e-01 -2.448153e-01 -2.209134e-01 -2.396201e-01 -2.437202e-01 -2.690887e-01 -2.705367e-01 -3.234570e-01 -2.524311e-01 -6.880292e-02 -1.121879e-01 -1.646913e-01 -2.019014e-01 -1.796103e-01 -4.801227e-02 8.845337e-02 2.679850e-01 4.338813e-01 5.072924e-01 4.387714e-01 2.950439e-01 1.169692e-01 -2.623518e-02
<VARIANCE> 39
 3.145171e+00 4.140212e+00 5.826209e+00 8.210838e+00 1.110219e+01 1.365887e+01 1.451990e+01 1.392543e+01 1.430925e+01 1.420914e+01 1.512172e+01 1.515526e+01 1.344721e+00 1.988569e-01 3.403966e-01 5.404749e-01 7.685131e-01 9.866329e-01 1.218887e+00 1.442850e+00 1.629852e+00 1.751366e+00 1.687426e+00 1.590893e+00 1.504671e+00 6.406598e-02 3.678721e-02 6.384737e-02 1.001763e-01 1.512850e-01 2.069115e-01 2.565705e-01 2.897098e-01 2.989500e-01 2.970174e-01 3.017003e-01 3.243757e-01 3.259019e-01 1.147308e-02
<GCONST> 7.141216e+01
~h "sp"
<BEGINHMM>
<NUMSTATES> 3
<STATE> 2
~s "silst"
<TRANSP> 3
 0.000000e+00 5.687014e-01 4.312987e-01
 0.000000e+00 9.856626e-01 1.433747e-02
 0.000000e+00 0.000000e+00 0.000000e+00
<ENDHMM>
~h "oov"
<BEGINHMM>
<NUMSTATES> 3
<STATE> 2
<NUMMIXES> 14
<MIXTURE> 1 7.678895e-02
<MEAN> 39
 -1.594473e+01 -4.636945e+00 -9.619560e+00 -1.234461e+01 -7.087038e+00 -1.882732e+01 -8.590569e+00 -6.636706e+00 -7.110205e-01 -2.214540e+00 -9.334911e-01 -2.082146e-01 6.728471e+01 7.109764e-01 -2.847941e-01 3.368897e-01 -1.055823e+00 -5.885035e-01 -5.870261e-01 1.849189e-01 1.116490e+00 1.090757e+00 4.757078e-01 9.343821e-01 3.421443e-01 1.783273e+00 3.703890e-01 -3.575350e-01 -6.879839e-02 -3.227796e-01 -3.394733e-01 6.576212e-02 -1.043151e-01 -8.024742e-02 -2.272024e-01 -1.368179e-01 -2.234874e-01 -1.301686e-01 2.454996e-01
<VARIANCE> 39
 6.488755e+01 4.625501e+01 4.451538e+01 3.615435e+01 6.890135e+01 6.138787e+01 5.917723e+01 4.700070e+01 4.610650e+01 4.965722e+01 3.849528e+01 3.289598e+01 1.872802e+01 8.002311e+00 4.710688e+00 6.236997e+00 5.668707e+00 9.321334e+00 7.826674e+00 7.660185e+00 7.630739e+00 6.550783e+00 6.494997e+00 5.941690e+00 5.010838e+00 2.996882e+00 6.029903e-01 4.563105e-01 5.265755e-01 5.563474e-01 8.127111e-01 8.777356e-01 8.669989e-01 8.477917e-01 7.646461e-01 7.909678e-01 7.529259e-01 6.420469e-01 2.975362e-01
<GCONST> 1.393474e+02
<MIXTURE> 2 4.809352e-02
<MEAN> 39
 -1.799335e+01 -5.463903e+00 -9.781673e+00 -1.436950e+01 -5.633820e+00 -1.424827e+01 -6.240808e+00 -7.288234e+00 -1.270445e+00 -3.546484e+00 5.081012e-01 -1.812161e-01 7.066806e+01 2.754807e-02 1.186401e-01 1.626395e-01 2.414626e-01 2.874047e-01 3.522092e-01 3.447738e-01 4.423959e-01 4.368692e-01 3.543592e-01 2.808713e-01 2.204846e-01 -1.241676e-01 1.088198e-01 -3.241605e-02 4.490886e-02 3.736216e-02 -2.886217e-02 4.218210e-03 2.385088e-02 4.433903e-02 4.237111e-02 7.991277e-02 5.540494e-03 2.682626e-02 -1.133562e-02
<VARIANCE> 39
 1.185992e+02 9.171942e+01 8.103262e+01 8.468479e+01 1.086336e+02 7.941003e+01 8.699126e+01 8.149291e+01 7.165194e+01 6.875439e+01 7.017618e+01 5.138960e+01 3.442931e+01 3.644648e-01 6.475461e-01 9.010914e-01 1.197070e+00 1.595663e+00 1.871912e+00 2.101760e+00 2.171500e+00 2.184023e+00 2.161842e+00 2.052423e+00 1.848719e+00 2.444046e-01 8.072679e-02 1.181792e-01 1.608708e-01 2.351952e-01 2.998785e-01 3.558791e-01 4.121672e-01 4.358720e-01 4.298062e-01 4.248852e-01 3.979305e-01 3.583614e-01 2.691660e-02
<GCONST> 1.115431e+02
<MIXTURE> 3 1.022847e-01
<MEAN> 39
 -2.885596e+00 -8.743316e+00 -1.580972e+01 -2.026262e+01 -1.002625e+01 -1.389807e+01 -1.171819e+01 -1.099526e+01 -3.446708e+00 1.732386e+00 -1.266733e+00 -1.466928e-01 7.034215e+01 -2.328239e-02 1.771023e-01 -1.314387e-01 2.975270e-01 1.229186e-02 2.002389e-01 1.070854e-02 -3.044526e-01 -1.435197e-01 1.455882e-01 -1.575193e-01 -3.335526e-02 -5.224139e-01 -3.943916e-01 -1.070364e-01 3.115047e-01 2.095895e-01 5.819328e-02 -1.592997e-01 7.103015e-02 3.548851e-01 9.874475e-02 -2.682360e-01 -6.243033e-02 -1.861395e-02 2.847943e-03
<VARIANCE> 39
 1.326597e+01 3.433450e+01 4.309426e+01 6.268716e+01 6.294041e+01 8.704490e+01 7.322622e+01 7.109668e+01 8.784290e+01 8.602286e+01 9.724465e+01 8.424966e+01 1.975787e+01 1.120809e+00 1.751761e+00 1.988433e+00 3.380788e+00 3.078254e+00 4.420676e+00 4.117113e+00 4.887743e+00 4.821054e+00 4.383046e+00 4.353821e+00 3.720677e+00 1.472440e+00 1.544108e-01 2.156904e-01 2.956206e-01 5.672389e-01 5.186722e-01 6.454382e-01 6.929309e-01 7.612994e-01 8.426129e-01 8.023086e-01 8.082363e-01 7.111195e-01 1.541284e-01
<GCONST> 1.284695e+02
<MIXTURE> 4 6.408536e-02
<MEAN> 39
 -6.562261e+00 -1.477026e+01 -9.799736e+00 -1.908443e+01 -1.150759e+01 -1.673986e+01 -1.105002e+01 -2.814859e+00 1.023404e+00 -1.565955e+00 -9.208324e-01 -1.948287e+00 7.665047e+01 2.816593e-01 -1.382998e+00 -9.751055e-02 -8.354707e-01 1.967637e-01 6.927299e-01 8.086112e-01 1.418731e+00 4.950063e-01 -1.197651e-01 2.109448e-01 7.095753e-02 1.465018e+00 -3.623758e-01 4.110133e-01 5.999796e-03 3.576055e-01 2.321836e-01 3.232835e-02 1.878669e-01 -3.719776e-01 -3.691477e-01 -5.678310e-02 -9.415902e-02 9.421803e-02 -4.739811e-01
<VARIANCE> 39
 2.370501e+01 4.459341e+01 8.233239e+01 7.282777e+01 1.113921e+02 1.433623e+02 1.197521e+02 9.336607e+01 9.349361e+01 8.743124e+01 1.000254e+02 8.791656e+01 3.571821e+01 2.680860e+00 3.496222e+00 4.708270e+00 5.360658e+00 6.552053e+00 7.048990e+00 6.801826e+00 7.039464e+00 6.536492e+00 6.045239e+00 5.536229e+00 5.384391e+00 3.044437e+00 3.889888e-01 4.665719e-01 6.701739e-01 8.598644e-01 1.007967e+00 1.213853e+00 1.215069e+00 1.196922e+00 1.161661e+00 1.052679e+00 1.054491e+00 9.159244e-01 3.796261e-01
<GCONST> 1.468748e+02
<MIXTURE> 5 1.032619e-01
<MEAN> 39
 -6.889826e+00 -1.705755e+01 -7.765755e+00 -1.934018e+01 -1.211219e+01 -1.630268e+01 -6.979916e+00 1.916407e-01 -2.235962e+00 -3.881238e+00 -1.988008e+00 -1.628747e+00 7.732961e+01 6.780544e-02 2.453806e-01 -9.579112e-02 1.931633e-01 -5.616384e-02 -3.848795e-02 2.144765e-02 -2.242972e-01 -1.898736e-01 4.451021e-02 -5.005137e-02 9.346755e-02 -4.094344e-01 1.099679e-03 2.660746e-01 -8.372936e-02 1.718326e-01 8.213765e-03 -7.335577e-02 -1.382615e-01 -2.696290e-01 4.904174e-02 1.177398e-01 -2.489214e-02 2.932262e-02 -2.340887e-01
<VARIANCE> 39
 1.895486e+01 3.526296e+01 9.339442e+01 6.806026e+01 1.507329e+02 1.388434e+02 1.365814e+02 1.020947e+02 1.037155e+02 8.573542e+01 9.587354e+01 9.942535e+01 2.893882e+01 4.650815e-01 1.094476e+00 1.660970e+00 1.757343e+00 2.566101e+00 2.759128e+00 3.385564e+00 3.511547e+00 3.393053e+00 3.079115e+00 2.885703e+00 2.652707e+00 6.001379e-01 7.402334e-02 1.589364e-01 2.506458e-01 2.985226e-01 4.357640e-01 4.910107e-01 6.098911e-01 6.230362e-01 6.156912e-01 5.625446e-01 5.419489e-01 5.064392e-01 7.936866e-02
<GCONST> 1.223198e+02
<MIXTURE> 6 5.459874e-02
<MEAN> 39
 -9.256378e+00 -8.742007e+00 -1.429642e+01 -1.512102e+01 -1.168789e+01 -1.593787e+01 -1.027603e+01 -8.174229e+00 -3.546686e+00 -1.847128e+00 -5.113029e+00 -5.745313e-01 6.304128e+01 -4.734415e-01 2.215856e-01 4.125699e-01 6.073558e-01 2.704816e-01 1.226815e-01 -1.100731e-01 -2.613672e-01 -2.869151e-01 -8.780484e-02 -8.416934e-02 4.372005e-02 -6.025524e-01 1.791781e-02 3.755558e-02 1.878275e-01 8.106707e-02 8.086252e-02 -4.523611e-02 -2.823134e-02 2.245239e-02 2.575754e-02 4.458626e-02 1.798343e-01 7.418506e-02 1.620003e-01
<VARIANCE> 39
 1.925374e+01 1.623920e+01 2.765703e+01 2.431873e+01 3.571412e+01 4.324990e+01 3.680749e+01 4.305843e+01 4.770032e+01 4.305871e+01 4.376307e+01 3.429520e+01 9.572972e+00 5.965423e-01 7.437211e-01 1.257510e+00 1.398653e+00 1.870032e+00 2.347647e+00 2.527265e+00 2.858075e+00 2.799165e+00 2.779755e+00 2.588354e+00 2.333770e+00 4.001961e-01 7.530738e-02 1.043558e-01 1.616601e-01 2.104960e-01 2.798513e-01 3.437213e-01 3.925175e-01 4.449424e-01 4.717606e-01 4.778705e-01 4.458461e-01 4.039066e-01 4.500956e-02
<GCONST> 1.033695e+02
<MIXTURE> 7 9.027561e-02
<MEAN> 39
 -1.778816e+01 -3.068980e+00 -5.029216e+00 -1.628669e+01 -9.807432e+00 -2.059109e+01 -8.262012e+00 -9.538837e+00 -2.338544e+00 -3.244895e+00 1.344076e-01 2.404313e-01 7.281073e+01 9.663080e-02 2.851280e-01 9.348918e-02 -2.411273e-02 -4.406776e-01 -4.705982e-01 -7.429175e-02 -2.214213e-01 -1.484538e-02 -5.597196e-02 9.345391e-02 2.388120e-02 3.611360e-01 3.431175e-01 -2.646530e-01 -2.459244e-01 1.154785e-01 -2.784972e-02 1.957561e-01 -4.576873e-02 1.747836e-01 1.632368e-03 2.827858e-02 -1.775687e-01 -9.622784e-02 -1.935079e-01
<VARIANCE> 39
 6.817125e+01 5.654143e+01 1.032172e+02 8.003188e+01 1.324872e+02 1.069671e+02 9.474426e+01 8.453733e+01 8.013861e+01 8.584371e+01 6.724869e+01 5.558575e+01 3.021605e+01 5.823247e+00 3.533173e+00 4.002324e+00 4.473733e+00 6.678746e+00 5.820205e+00 5.985253e+00 5.340664e+00 4.893049e+00 4.927678e+00 4.561771e+00 3.801012e+00 1.565391e+00 7.626521e-01 4.991767e-01 7.530538e-01 7.577520e-01 1.311558e+00 1.220955e+00 1.143615e+00 1.085847e+00 1.031886e+00 1.046837e+00 8.827263e-01 7.487964e-01 2.716943e-01
<GCONST> 1.450104e+02
<MIXTURE> 8 5.255049e-02
<MEAN> 39
 -1.254402e+01 -7.682450e+00 -1.109586e+01 -1.116883e+01 -9.841157e+00 -1.727361e+01 -1.247852e+01 -1.181071e+01 -7.058819e+00 -4.421270e+00 -7.141027e+00 -2.399184e+00 6.037315e+01 -1.179026e-01 1.188249e-01 5.269125e-01 -7.282513e-01 4.472645e-01 -5.734697e-02 6.020702e-01 1.287846e+00 1.184116e+00 7.132133e-01 1.391261e+00 6.125882e-01 1.362479e+00 1.048875e-01 -1.138942e-01 4.161521e-02 -4.928591e-01 2.113079e-02 -1.104014e-01 2.559273e-01 5.201398e-01 4.810883e-01 2.179276e-01 4.143510e-01 1.845698e-01 7.988977e-01
<VARIANCE> 39
 1.750683e+01 1.198511e+01 1.803736e+01 1.665119e+01 2.292055e+01 2.465023e+01 2.605109e+01 2.764553e+01 2.904255e+01 2.960304e+01 2.736890e+01 2.411631e+01 9.331206e+00 4.274793e+00 2.339102e+00 4.140711e+00 3.458412e+00 5.132041e+00 4.626177e+00 4.738573e+00 4.853652e+00 4.580848e+00 4.793283e+00 4.054674e+00 3.485937e+00 1.601261e+00 4.795457e-01 4.546698e-01 6.156378e-01 5.521163e-01 8.380299e-01 7.832565e-01 7.787297e-01 8.533123e-01 7.851384e-01 8.012637e-01 7.417879e-01 6.572073e-01 2.467038e-01
<GCONST> 1.225890e+02
<MIXTURE> 9 6.544200e-02
<MEAN> 39
 -1.189279e+01 -1.403973e+01 -1.757643e+01 -1.386477e+01 -1.042029e+00 -9.861494e+00 -3.384835e+00 -3.409899e+00 1.785658e+00 -4.004673e+00 -4.645282e+00 -2.939944e+00 7.354023e+01 -1.027683e-01 4.628914e-01 -1.124894e-01 4.123619e-01 -1.548813e-01 -2.649120e-01 -5.109801e-01 -8.368059e-01 -5.455304e-01 -2.264694e-01 -4.299566e-01 9.435926e-03 -9.319549e-01 7.775435e-02 1.135042e-01 2.619137e-01 -1.463224e-01 -4.253269e-01 -3.684179e-01 -4.458863e-01 -3.244109e-01 -2.867195e-01 -8.405931e-05 6.363460e-02 6.368002e-02 -1.128676e-01
<VARIANCE> 39
 7.061364e+01 6.009369e+01 5.388234e+01 4.800827e+01 7.483734e+01 9.721306e+01 7.357068e+01 6.640833e+01 6.307335e+01 5.964745e+01 5.981181e+01 5.945940e+01 4.958342e+01 1.271232e+00 1.612793e+00 1.801855e+00 2.039338e+00 3.164082e+00 3.507000e+00 3.607528e+00 3.839107e+00 3.539063e+00 3.343062e+00 3.218701e+00 2.790920e+00 1.068401e+00 2.022393e-01 2.389327e-01 2.929821e-01 3.378292e-01 4.451887e-01 5.834274e-01 5.905623e-01 6.468033e-01 6.261957e-01 5.990632e-01 5.622376e-01 5.120490e-01 1.239100e-01
<GCONST> 1.254072e+02
<MIXTURE> 10 8.825003e-02
<MEAN> 39
 -8.132266e+00 -6.416988e+00 -3.401575e+00 -1.373651e+01 -1.877036e+01 -2.375204e+01 -1.255772e+01 -1.019065e+01 -6.447076e+00 -8.127575e-01 -1.206531e+00 1.675709e+00 6.756482e+01 -1.164929e-01 1.532158e-01 -4.438116e-01 2.792582e-01 4.057854e-01 4.106957e-01 -1.937027e-01 -3.917266e-01 -9.663481e-02 9.651626e-03 -2.732253e-01 -7.378781e-02 -7.064980e-01 -1.583710e-01 -1.712322e-01 -2.326009e-01 -1.150705e-01 2.754626e-01 2.992079e-01 1.796714e-01 1.868506e-01 8.988175e-02 -1.523880e-01 -1.327378e-01 -1.634115e-01 2.309890e-02
<VARIANCE> 39
 1.588717e+01 2.431106e+01 5.265878e+01 5.284140e+01 5.014645e+01 6.321457e+01 6.614308e+01 8.685693e+01 8.065945e+01 6.992245e+01 6.562444e+01 5.556007e+01 2.022080e+01 7.155133e-01 1.060883e+00 2.362229e+00 2.322898e+00 2.628380e+00 2.801675e+00 3.392730e+00 3.986773e+00 3.685103e+00 3.567509e+00 3.377463e+00 2.954546e+00 1.044898e+00 9.189317e-02 1.346299e-01 2.513933e-01 3.268767e-01 3.822637e-01 4.310554e-01 5.276282e-01 6.302544e-01 6.674809e-01 6.130369e-01 5.732237e-01 5.342590e-01 7.158896e-02
<GCONST> 1.185674e+02
<MIXTURE> 11 6.367490e-02
<MEAN> 39
 -6.932796e+00 -1.403629e+01 -7.005034e+00 -1.853983e+01 -1.410873e+01 -2.174618e+01 -9.255930e+00 1.097950e+00 -7.544236e-02 -2.302631e+00 -1.573499e+00 2.597504e-01 7.579775e+01 3.684900e-01 -4.328663e-01 -4.795360e-01 -1.787729e-01 1.957918e-01 2.836472e-01 3.884445e-01 1.934868e-02 -4.094205e-01 -2.907531e-01 -4.293026e-01 -2.614452e-01 1.896466e-01 -2.684158e-01 4.650975e-01 -1.840608e-01 3.773994e-01 3.198703e-01 2.764246e-01 -7.863836e-02 -8.449912e-01 -2.987695e-01 3.826371e-02 -7.180482e-02 -8.266852e-02 -5.392205e-01
<VARIANCE> 39
 1.805160e+01 3.667043e+01 9.924855e+01 6.137636e+01 1.169960e+02 1.145449e+02 1.279103e+02 8.700627e+01 1.006996e+02 1.005849e+02 1.044800e+02 9.417902e+01 3.485251e+01 1.768960e+00 3.079695e+00 3.942335e+00 4.112803e+00 4.944391e+00 5.142496e+00 5.662313e+00 6.800241e+00 5.561986e+00 5.501767e+00 4.749859e+00 4.204403e+00 2.648436e+00 3.057083e-01 3.467753e-01 7.080338e-01 6.639889e-01 9.627125e-01 1.025332e+00 1.184450e+00 1.013192e+00 1.130734e+00 1.121413e+00 1.036153e+00 9.031097e-01 2.240496e-01
<GCONST> 1.422785e+02
<MIXTURE> 12 8.182281e-02
<MEAN> 39
 -1.387239e+01 -5.905480e+00 -1.106548e+01 -1.052113e+01 -1.026239e+01 -1.844753e+01 -1.335723e+01 -1.352494e+01 -7.809717e+00 -6.340585e+00 -6.899856e+00 -2.756956e+00 6.171173e+01 3.122739e-03 3.392501e-02 1.054199e-01 8.655485e-02 -1.173803e-01 -1.095400e-01 -3.390579e-01 -2.030127e-01 -2.104174e-01 -1.202004e-01 -1.359611e-01 -1.786687e-01 -1.271194e-01 1.140653e-01 -6.253850e-02 1.685631e-02 -2.736811e-01 -3.385475e-02 5.797013e-02 2.627978e-01 4.577280e-01 3.776859e-01 3.065627e-01 3.307208e-01 1.963084e-01 2.835813e-01
<VARIANCE> 39
 3.092079e+01 1.771812e+01 2.053696e+01 1.837943e+01 2.398919e+01 2.611318e+01 2.754570e+01 2.797997e+01 3.135640e+01 2.854324e+01 3.041329e+01 2.450758e+01 1.032818e+01 2.040103e+00 1.275702e+00 1.629541e+00 1.842323e+00 2.379850e+00 2.379633e+00 2.723644e+00 2.999257e+00 2.945312e+00 2.883559e+00 2.725160e+00 2.352086e+00 7.167653e-01 2.552078e-01 2.007648e-01 2.950822e-01 3.098292e-01 4.321100e-01 4.560526e-01 4.844132e-01 5.352156e-01 5.457850e-01 5.417159e-01 5.102992e-01 4.528111e-01 1.077246e-01
<GCONST> 1.090544e+02
<MIXTURE> 13 5.306822e-02
<MEAN> 39
 -9.577561e+00 -8.996453e+00 -1.419451e+01 -1.445054e+01 -1.127261e+01 -1.584613e+01 -1.040142e+01 -8.569069e+00 -4.509079e+00 -2.789403e+00 -6.108142e+00 -1.150513e+00 6.214621e+01 -7.351174e-01 -8.666109e-03 1.767277e-01 4.148152e-01 -3.825472e-02 -2.416332e-01 -6.582322e-01 -9.663613e-01 -1.048221e+00 -8.145267e-01 -8.331102e-01 -5.435131e-01 -8.553499e-01 -2.407713e-02 -3.075438e-02 1.030297e-01 -1.324670e-02 -3.050706e-02 -1.705955e-01 -1.426661e-01 -9.646928e-02 -1.026026e-01 -1.050621e-01 1.375868e-02 -5.545844e-02 1.445886e-01
<VARIANCE> 39
 1.534728e+01 1.428613e+01 2.604886e+01 2.310824e+01 3.348904e+01 4.106351e+01 3.492144e+01 4.093575e+01 4.607334e+01 4.214293e+01 4.277058e+01 3.223956e+01 8.421479e+00 6.107171e-01 7.650082e-01 1.350043e+00 1.471761e+00 1.982553e+00 2.469071e+00 2.581216e+00 2.953044e+00 2.953825e+00 2.891597e+00 2.648496e+00 2.390767e+00 4.048268e-01 7.515498e-02 1.035896e-01 1.583328e-01 2.163263e-01 2.758219e-01 3.441344e-01 3.878407e-01 4.468781e-01 4.735725e-01 4.756054e-01 4.452985e-01 4.027236e-01 4.243057e-02
<GCONST> 1.028154e+02
<MIXTURE> 14 5.414209e-02
<MEAN> 39
 -1.549214e+01 -5.535545e+00 -1.000753e+01 -1.424886e+01 -6.922622e+00 -1.466026e+01 -8.179771e+00 -8.668139e+00 -2.922476e+00 -4.020155e+00 -1.060319e+00 -6.969999e-01 6.886418e+01 -8.767103e-02 -1.654703e-01 -1.954153e-01 -1.341523e-01 -2.186252e-01 -1.588966e-01 -2.008105e-01 -1.192798e-01 -1.590863e-01 -1.947184e-01 -2.914387e-01 -2.146458e-01 -3.053968e-01 4.817066e-02 -1.105330e-01 -8.190738e-02 -7.911448e-02 -1.800831e-01 -1.668617e-01 -1.401528e-01 -1.155264e-01 -1.202686e-01 -7.603389e-02 -1.632455e-01 -9.816252e-02 -5.590574e-02
<VARIANCE> 39
 9.946698e+01 7.015432e+01 7.451974e+01 7.248195e+01 9.723863e+01 7.280022e+01 8.589066e+01 7.715408e+01 7.023266e+01 6.194155e+01 6.454506e+01 4.604926e+01 3.474388e+01 3.614793e-01 6.037399e-01 8.640286e-01 1.141248e+00 1.540748e+00 1.816574e+00 2.037917e+00 2.131599e+00 2.124107e+00 2.111580e+00 1.989550e+00 1.804000e+00 2.453195e-01 8.119027e-02 1.121706e-01 1.557403e-01 2.324042e-01 2.884507e-01 3.409796e-01 4.046874e-01 4.314699e-01 4.274606e-01 4.260379e-01 3.992701e-01 3.600738e-01 2.591646e-02
<GCONST> 1.096669e+02
<TRANSP> 3
 0.000000e+00 1.000000e+00 0.000000e+00
 0.000000e+00 9.886181e-01 1.138196e-02
 0.000000e+00 0.000000e+00 0.000000e+00
<ENDHMM>
~h "sil"
<BEGINHMM>
<NUMSTATES> 3
<STATE> 2
~s "silst"
<TRANSP> 3
 0.000000e+00 1.000000e+00 0.000000e+00
 0.000000e+00 9.956242e-01 4.375796e-03
 0.000000e+00 0.000000e+00 0.000000e+00
<ENDHMM>
~h "noise"
<BEGINHMM>
<NUMSTATES> 3
<STATE> 2
~s "silst"
<TRANSP> 3
 0.000000e+00 1.000000e+00 0.000000e+00
 0.000000e+00 9.875165e-01 1.248346e-02
 0.000000e+00 0.000000e+00 0.000000e+00
<ENDHMM>
