~o
<STREAMINFO> 1 22
<VECSIZE> 22<NULLD><MFCC_0><DIAGC>
~h "BN_2"
<BEGINHMM>
<NUMSTATES> 5
<STATE> 2
<MEAN> 22
 9.008773e+00 5.819986e+00 2.463643e+00 1.846689e+00 1.015089e+02 5.025397e+01 1.027740e+02 9.208169e+01 8.060554e+01 6.267904e+01 1.107495e+02 1.540963e+02 1.045641e+02 1.110403e+02 3.007224e+00 4.257027e+00 4.382159e+00 5.518566e+00 4.097289e+00 4.751052e+00 3.321895e+00 2.640280e+00
<VARIANCE> 22
 1.718586e+02 1.310627e+02 1.491006e+01 1.225676e+01 6.119738e+03 3.455498e+03 1.756146e+03 1.020585e+03 5.205724e+02 2.359869e+02 4.523017e+03 3.523002e+03 3.240664e+02 2.307509e+02 7.175183e+00 1.171569e+00 8.000115e+00 6.308939e-01 3.205225e+00 4.595784e+00 6.745667e+00 6.649791e+00
<GCONST> 1.366960e+02
<STATE> 3
<MEAN> 22
 1.920341e+00 5.807956e+00 7.132111e-01 1.679542e+00 1.543957e+01 5.174001e+01 9.327658e+01 9.192712e+01 6.048014e+01 6.493033e+01 1.882262e+02 1.493284e+02 1.143716e+02 1.100822e+02 6.838761e+00 4.240360e+00 6.032305e+00 5.464882e+00 5.924416e+00 4.750560e+00 1.909944e+00 2.591527e+00
<VARIANCE> 22
 1.313909e+01 8.625350e+01 3.305619e+00 7.169637e+00 7.897841e+02 4.047339e+03 3.513269e+02 6.173102e+02 9.808635e+01 2.508077e+02 1.001199e+03 4.597102e+03 1.987121e+02 2.240725e+02 8.495964e-01 1.438578e+00 4.370561e-01 7.704320e-01 2.252254e-01 4.851723e+00 5.651406e+00 6.286962e+00
<GCONST> 1.168240e+02
<STATE> 4
<MEAN> 22
 7.469942e+00 9.044205e+00 1.443698e+00 2.190650e+00 5.983390e+01 8.608395e+01 7.558878e+01 8.177810e+01 6.315231e+01 6.600530e+01 1.293745e+02 1.053077e+02 1.006798e+02 9.793716e+01 4.152200e+00 3.118172e+00 5.489028e+00 4.898468e+00 4.548986e+00 2.950730e+00 2.235258e+00 2.626780e+00
<VARIANCE> 22
 1.468151e+02 1.853453e+02 5.973762e+00 1.386928e+01 3.786836e+03 5.285024e+03 1.924222e+03 2.304901e+03 4.997191e+02 6.854766e+02 5.387919e+03 5.046351e+03 1.117875e+03 9.192449e+02 8.249858e+00 2.679026e+00 3.972404e+00 2.732742e+00 3.375341e+00 7.202453e+00 5.649955e+00 5.933891e+00
<GCONST> 1.430675e+02
<TRANSP> 5
 0.000000e+00 1.000000e+00 0.000000e+00 0.000000e+00 0.000000e+00
 0.000000e+00 7.158573e-01 2.841427e-01 0.000000e+00 0.000000e+00
 0.000000e+00 0.000000e+00 8.770542e-01 1.229459e-01 0.000000e+00
 0.000000e+00 0.000000e+00 0.000000e+00 7.249534e-01 2.750466e-01
 0.000000e+00 0.000000e+00 0.000000e+00 0.000000e+00 0.000000e+00
<ENDHMM>
~h "BS_2"
<BEGINHMM>
<NUMSTATES> 5
<STATE> 2
<MEAN> 22
 7.228327e+00 4.617097e+00 1.819142e+00 1.598987e+00 9.415987e+01 6.523706e+01 9.060238e+01 8.472472e+01 7.230489e+01 5.979855e+01 1.088639e+02 1.398116e+02 9.978313e+01 1.049269e+02 2.980456e+00 3.849514e+00 4.930753e+00 5.340659e+00 3.814775e+00 4.193309e+00 2.686021e+00 2.436787e+00
<VARIANCE> 22
 1.442269e+02 7.789965e+01 9.221940e+00 9.673890e+00 9.255275e+03 6.124242e+03 2.163317e+03 1.384234e+03 5.835518e+02 3.180542e+02 4.749354e+03 4.303793e+03 8.613588e+02 5.903599e+02 7.330674e+00 2.168180e+00 6.235712e+00 1.677852e+00 3.881110e+00 6.132192e+00 6.501660e+00 6.042808e+00
<GCONST> 1.410744e+02
<STATE> 3
<MEAN> 22
 8.400275e+00 1.248369e+01 2.169287e+00 3.257671e+00 4.447285e+01 9.415559e+01 8.064029e+01 8.672642e+01 6.321117e+01 6.867783e+01 1.551510e+02 1.098025e+02 1.094280e+02 1.037018e+02 4.841445e+00 3.427722e+00 6.145419e+00 5.136442e+00 5.294539e+00 3.241572e+00 2.487202e+00 3.018433e+00
<VARIANCE> 22
 2.191890e+02 2.530470e+02 2.116756e+01 2.111335e+01 2.749356e+03 4.456678e+03 9.060173e+02 1.464815e+03 1.647592e+02 3.198514e+02 2.880011e+03 3.945232e+03 1.917145e+02 2.646778e+02 8.536760e+00 1.755531e+00 6.098383e-01 1.017455e+00 2.094222e+00 6.352654e+00 6.737092e+00 5.541255e+00
<GCONST> 1.342695e+02
<STATE> 4
<MEAN> 22
 3.112803e+00 5.074775e+00 1.005700e+00 1.497419e+00 2.122243e+01 2.901751e+01 9.301907e+01 9.130907e+01 6.211351e+01 6.184279e+01 1.847977e+02 1.772691e+02 1.140663e+02 1.129645e+02 6.420492e+00 4.725103e+00 6.118484e+00 5.722898e+00 5.855920e+00 5.636004e+00 2.256804e+00 2.506145e+00
<VARIANCE> 22
 3.495668e+01 6.667127e+01 3.305619e+00 5.987813e+00 1.057699e+03 1.689559e+03 4.624988e+02 5.326222e+02 1.095654e+02 1.638972e+02 1.218721e+03 1.830703e+03 1.832067e+02 1.668074e+02 3.257361e+00 5.460659e-01 3.691430e-01 3.284667e-01 6.569117e-01 1.848106e+00 5.693684e+00 6.016838e+00
<GCONST> 1.149182e+02
<TRANSP> 5
 0.000000e+00 1.000000e+00 0.000000e+00 0.000000e+00 0.000000e+00
 0.000000e+00 6.982889e-01 3.017111e-01 0.000000e+00 0.000000e+00
 0.000000e+00 0.000000e+00 7.592102e-01 2.407898e-01 0.000000e+00
 0.000000e+00 0.000000e+00 0.000000e+00 8.214356e-01 1.785643e-01
 0.000000e+00 0.000000e+00 0.000000e+00 0.000000e+00 0.000000e+00
<ENDHMM>
~h "SP_2"
<BEGINHMM>
<NUMSTATES> 5
<STATE> 2
<MEAN> 22
 7.943199e+00 5.812851e+00 2.634212e+00 1.797827e+00 9.594180e+01 5.850317e+01 8.846394e+01 7.614433e+01 7.248643e+01 6.074336e+01 1.027794e+02 1.319174e+02 9.787761e+01 1.041417e+02 2.980726e+00 3.679822e+00 4.687742e+00 5.361367e+00 3.847430e+00 3.935842e+00 2.883722e+00 2.410035e+00
<VARIANCE> 22
 1.472376e+02 1.010706e+02 2.649482e+01 1.007403e+01 6.549254e+03 4.117606e+03 2.137809e+03 1.517524e+03 6.417253e+02 3.814022e+02 4.070319e+03 4.191910e+03 7.245536e+02 6.136711e+02 6.718670e+00 2.307527e+00 6.583884e+00 1.757928e+00 3.233067e+00 7.199016e+00 6.286120e+00 5.920224e+00
<GCONST> 1.417499e+02
<STATE> 3
<MEAN> 22
 3.807888e+00 4.119251e+00 1.196878e+00 1.189031e+00 2.651567e+01 2.564821e+01 8.592235e+01 8.670242e+01 6.268012e+01 5.830252e+01 1.707863e+02 1.726671e+02 1.106479e+02 1.104809e+02 5.828673e+00 4.718982e+00 6.096880e+00 5.740986e+00 5.689628e+00 5.733509e+00 2.288859e+00 2.364295e+00
<VARIANCE> 22
 6.055156e+01 5.202533e+01 5.198288e+00 3.416370e+00 1.496214e+03 1.457554e+03 5.850432e+02 5.788492e+02 1.569685e+02 1.293627e+02 1.827100e+03 1.575458e+03 1.857301e+02 1.535042e+02 5.922388e+00 5.602362e-01 6.784937e-01 3.585816e-01 7.915459e-01 1.501344e+00 6.224803e+00 6.091669e+00
<GCONST> 1.173368e+02
<STATE> 4
<MEAN> 22
 1.967064e+00 8.713452e+00 8.348066e-01 2.720012e+00 1.764437e+01 1.101357e+02 9.984261e+01 1.116149e+02 6.495025e+01 7.902253e+01 1.941431e+02 1.175400e+02 1.193971e+02 1.088356e+02 6.605238e+00 3.382499e+00 6.077321e+00 4.701109e+00 5.835816e+00 3.321734e+00 1.777617e+00 2.656089e+00
<VARIANCE> 22
 2.200653e+01 2.009538e+02 4.006968e+00 1.640107e+01 1.141325e+03 7.948056e+03 7.095759e+02 1.255504e+03 1.759868e+02 4.220589e+02 1.905365e+03 6.206540e+03 3.753578e+02 4.344757e+02 2.184257e+00 1.808961e+00 6.676766e-01 1.667249e+00 5.145340e-01 5.711684e+00 5.687005e+00 5.778116e+00
<GCONST> 1.282886e+02
<TRANSP> 5
 0.000000e+00 1.000000e+00 0.000000e+00 0.000000e+00 0.000000e+00
 0.000000e+00 7.415330e-01 2.584671e-01 0.000000e+00 0.000000e+00
 0.000000e+00 0.000000e+00 8.378048e-01 1.621952e-01 0.000000e+00
 0.000000e+00 0.000000e+00 0.000000e+00 7.799107e-01 2.200893e-01
 0.000000e+00 0.000000e+00 0.000000e+00 0.000000e+00 0.000000e+00
<ENDHMM>
~h "ST_2"
<BEGINHMM>
<NUMSTATES> 5
<STATE> 2
<MEAN> 22
 3.571317e+00 4.416923e+00 1.101253e+00 1.458287e+00 2.536181e+01 3.065369e+01 8.675417e+01 8.493072e+01 6.376859e+01 6.066144e+01 1.741025e+02 1.701720e+02 1.134677e+02 1.121800e+02 5.924689e+00 4.621269e+00 6.128188e+00 5.798430e+00 5.649836e+00 5.570241e+00 2.284295e+00 2.331703e+00
<VARIANCE> 22
 5.099499e+01 6.978111e+01 4.921956e+00 6.586953e+00 1.554033e+03 1.797693e+03 6.243397e+02 7.089962e+02 1.776649e+02 1.498556e+02 2.173920e+03 2.445792e+03 1.964543e+02 1.992034e+02 5.378540e+00 7.159649e-01 4.387306e-01 2.568584e-01 7.942943e-01 2.645908e+00 6.262647e+00 5.714684e+00
<GCONST> 1.196689e+02
<STATE> 3
<MEAN> 22
 3.601265e+00 8.943411e+00 9.399782e-01 2.409546e+00 5.148707e+01 1.309317e+02 8.051606e+01 8.706825e+01 6.176487e+01 7.548566e+01 1.491969e+02 7.341205e+01 1.094062e+02 9.863531e+01 5.234691e+00 2.559365e+00 5.910213e+00 5.046029e+00 5.147434e+00 1.888694e+00 2.104159e+00 2.920344e+00
<VARIANCE> 22
 5.851873e+01 1.904740e+02 4.802193e+00 1.556142e+01 7.918412e+03 6.362323e+03 9.372286e+02 1.882080e+03 2.002988e+02 5.276057e+02 4.465958e+03 2.845086e+03 3.778195e+02 4.137555e+02 6.440064e+00 1.351670e+00 9.730604e-01 1.971426e+00 1.829416e+00 4.679935e+00 6.180024e+00 5.945901e+00
<GCONST> 1.346362e+02
<STATE> 4
<MEAN> 22
 1.038596e+01 8.622623e+00 3.252122e+00 2.212398e+00 9.542377e+01 4.445698e+01 1.019001e+02 9.165654e+01 8.303680e+01 6.089898e+01 1.101206e+02 1.688031e+02 1.061456e+02 1.128317e+02 3.370083e+00 4.533057e+00 4.802876e+00 5.686156e+00 4.082469e+00 5.332942e+00 2.989072e+00 2.792631e+00
<VARIANCE> 22
 4.884184e+02 7.509568e+02 2.572018e+02 1.597850e+02 6.028666e+03 3.039242e+03 2.089773e+03 8.246818e+02 7.203426e+02 1.566039e+02 5.258051e+03 3.192815e+03 3.276555e+02 2.421810e+02 7.122998e+00 1.034604e+00 6.670972e+00 4.450153e-01 3.043850e+00 3.211245e+00 6.478693e+00 6.060179e+00
<GCONST> 1.435397e+02
<TRANSP> 5
 0.000000e+00 1.000000e+00 0.000000e+00 0.000000e+00 0.000000e+00
 0.000000e+00 8.432254e-01 1.567747e-01 0.000000e+00 0.000000e+00
 0.000000e+00 0.000000e+00 7.982606e-01 2.017394e-01 0.000000e+00
 0.000000e+00 0.000000e+00 0.000000e+00 6.785619e-01 3.214381e-01
 0.000000e+00 0.000000e+00 0.000000e+00 0.000000e+00 0.000000e+00
<ENDHMM>
~h "TH_LD"
<BEGINHMM>
<NUMSTATES> 5
<STATE> 2
<MEAN> 22
 2.782073e+00 5.781991e+00 9.332910e-01 1.644717e+00 1.656989e+01 4.468562e+01 9.434006e+01 9.125092e+01 6.158851e+01 6.391169e+01 1.882450e+02 1.592719e+02 1.147223e+02 1.109555e+02 6.757525e+00 4.406279e+00 6.080362e+00 5.567482e+00 5.896429e+00 5.033907e+00 2.206675e+00 2.615323e+00
<VARIANCE> 22
 3.228585e+01 8.952981e+01 3.305619e+00 6.812403e+00 1.017046e+03 3.296190e+03 3.923366e+02 6.398134e+02 1.054379e+02 2.012634e+02 9.855721e+02 3.711547e+03 2.023909e+02 2.332435e+02 1.396119e+00 1.197127e+00 3.365663e-01 6.424791e-01 4.281157e-01 4.142342e+00 6.048034e+00 6.169374e+00
<GCONST> 1.179873e+02
<STATE> 3
<MEAN> 22
 9.809344e+00 1.337534e+01 2.907181e+00 4.537314e+00 4.572959e+01 9.140421e+01 8.735879e+01 9.762859e+01 6.617980e+01 7.312894e+01 1.608349e+02 1.261990e+02 1.107988e+02 1.063053e+02 5.041453e+00 3.690882e+00 5.998982e+00 5.032769e+00 5.213333e+00 3.802817e+00 2.472707e+00 3.030614e+00
<VARIANCE> 22
 4.270653e+02 4.325379e+02 1.792276e+02 1.374474e+02 3.491157e+03 6.680565e+03 1.074647e+03 1.739139e+03 2.466616e+02 5.684183e+02 3.174453e+03 4.255174e+03 4.636819e+02 3.765948e+02 8.079967e+00 1.798504e+00 1.571847e+00 1.585739e+00 2.333622e+00 6.057766e+00 6.078840e+00 6.046018e+00
<GCONST> 1.442603e+02
<STATE> 4
<MEAN> 22
 6.973964e+00 5.844722e+00 1.824720e+00 1.442086e+00 7.796805e+01 7.443268e+01 8.548309e+01 8.560799e+01 6.968113e+01 6.256245e+01 1.186920e+02 1.316184e+02 1.056855e+02 1.059884e+02 3.253813e+00 3.632995e+00 5.443898e+00 5.285985e+00 4.142337e+00 3.785337e+00 2.856079e+00 2.663947e+00
<VARIANCE> 22
 1.110111e+02 9.429395e+01 8.483579e+00 4.856154e+00 7.228414e+03 6.010645e+03 1.731167e+03 1.547799e+03 3.702206e+02 3.641505e+02 4.799374e+03 4.395390e+03 5.730336e+02 5.176765e+02 7.902253e+00 2.226314e+00 4.722953e+00 1.571716e+00 3.553722e+00 6.597574e+00 6.330265e+00 6.450706e+00
<GCONST> 1.388088e+02
<TRANSP> 5
 0.000000e+00 1.000000e+00 0.000000e+00 0.000000e+00 0.000000e+00
 0.000000e+00 8.634804e-01 1.365195e-01 0.000000e+00 0.000000e+00
 0.000000e+00 0.000000e+00 5.152348e-01 4.847652e-01 0.000000e+00
 0.000000e+00 0.000000e+00 0.000000e+00 7.903008e-01 2.096992e-01
 0.000000e+00 0.000000e+00 0.000000e+00 0.000000e+00 0.000000e+00
<ENDHMM>
~h "TH_LU"
<BEGINHMM>
<NUMSTATES> 5
<STATE> 2
<MEAN> 22
 2.402920e+01 2.176785e+01 2.027203e+01 1.665443e+01 1.372212e+02 1.162687e+02 7.108076e+01 6.612027e+01 5.025831e+01 4.705516e+01 1.163898e+02 1.095230e+02 8.152937e+01 8.037277e+01 3.818776e+00 3.034188e+00 4.045377e+00 3.993593e+00 3.722544e+00 3.365372e+00 1.956528e+00 2.212247e+00
<VARIANCE> 22
 8.987373e+03 6.707068e+03 8.075646e+03 5.171327e+03 3.986678e+04 2.274384e+04 3.068794e+03 2.434209e+03 1.318033e+03 1.034910e+03 7.945271e+03 7.416102e+03 2.746212e+03 2.625795e+03 1.065820e+01 4.580285e+00 8.526205e+00 6.625299e+00 6.964644e+00 8.073287e+00 6.125373e+00 6.529705e+00
<GCONST> 1.757962e+02
<STATE> 3
<MEAN> 22
 6.398540e+00 1.182897e+01 1.711450e+00 3.247697e+00 4.382371e+01 1.075874e+02 8.079988e+01 8.930434e+01 6.293013e+01 7.142721e+01 1.539827e+02 9.983641e+01 1.090577e+02 1.019907e+02 5.248757e+00 3.204604e+00 6.034704e+00 5.064688e+00 5.304117e+00 3.009982e+00 2.279384e+00 2.869409e+00
<VARIANCE> 22
 2.409985e+02 2.918930e+02 8.298077e+01 6.406036e+01 3.649837e+03 5.708158e+03 8.250112e+02 1.718334e+03 1.583176e+02 4.798677e+02 3.486131e+03 4.019747e+03 2.536548e+02 3.453204e+02 7.092992e+00 1.887709e+00 7.250611e-01 1.366492e+00 1.500904e+00 6.401586e+00 5.910016e+00 5.623345e+00
<GCONST> 1.386150e+02
<STATE> 4
<MEAN> 22
 5.421369e+00 4.424526e+00 1.574770e+00 1.324492e+00 4.498285e+01 3.253302e+01 9.314645e+01 8.664485e+01 6.835995e+01 6.035480e+01 1.568367e+02 1.705658e+02 1.118909e+02 1.127751e+02 5.167308e+00 4.606156e+00 5.767564e+00 5.711318e+00 5.170447e+00 5.420199e+00 2.577589e+00 2.466737e+00
<VARIANCE> 22
 8.866373e+01 5.492176e+01 7.529928e+00 4.432105e+00 3.534235e+03 1.842889e+03 1.116172e+03 7.680745e+02 3.201370e+02 1.167991e+02 3.698165e+03 2.469582e+03 2.906074e+02 2.214242e+02 7.486594e+00 7.642182e-01 2.716537e+00 3.254920e-01 2.203012e+00 2.949558e+00 6.156549e+00 5.960188e+00
<GCONST> 1.265066e+02
<TRANSP> 5
 0.000000e+00 1.000000e+00 0.000000e+00 0.000000e+00 0.000000e+00
 0.000000e+00 3.522049e-01 6.477950e-01 0.000000e+00 0.000000e+00
 0.000000e+00 0.000000e+00 7.394676e-01 2.605324e-01 0.000000e+00
 0.000000e+00 0.000000e+00 0.000000e+00 8.735859e-01 1.264141e-01
 0.000000e+00 0.000000e+00 0.000000e+00 0.000000e+00 0.000000e+00
<ENDHMM>
~h "CF_2"
<BEGINHMM>
<NUMSTATES> 5
<STATE> 2
<MEAN> 22
 9.375688e+00 8.227930e+00 3.362792e+00 2.513762e+00 1.020880e+02 7.910841e+01 9.338772e+01 8.672081e+01 7.271468e+01 6.147257e+01 1.194957e+02 1.344425e+02 1.029025e+02 1.056260e+02 3.776567e+00 3.771500e+00 4.937465e+00 5.262376e+00 4.188196e+00 3.977530e+00 2.672181e+00 2.493332e+00
<VARIANCE> 22
 3.595846e+02 3.426526e+02 2.872511e+02 1.764706e+02 1.476678e+04 8.141118e+03 1.918069e+03 1.310025e+03 6.297391e+02 3.719575e+02 5.037609e+03 4.577404e+03 5.805192e+02 5.359315e+02 7.715782e+00 2.107678e+00 5.919674e+00 1.504530e+00 3.360037e+00 6.202135e+00 6.034577e+00 5.753094e+00
<GCONST> 1.498555e+02
<STATE> 3
<MEAN> 22
 2.185399e+00 9.541467e+00 7.943491e-01 2.692064e+00 2.165938e+01 1.122212e+02 8.636434e+01 9.478336e+01 6.061423e+01 7.647098e+01 1.695384e+02 9.149339e+01 1.101028e+02 9.917487e+01 6.100641e+00 3.028699e+00 6.086220e+00 4.724667e+00 5.591309e+00 2.680787e+00 1.859123e+00 2.995201e+00
<VARIANCE> 22
 2.050380e+01 1.942537e+02 3.305619e+00 1.775525e+01 1.651281e+03 5.495923e+03 7.355131e+02 1.708967e+03 1.241243e+02 5.688497e+02 2.312231e+03 3.780957e+03 2.130580e+02 2.824336e+02 4.144294e+00 1.640700e+00 4.840968e-01 1.589508e+00 1.003386e+00 5.755939e+00 5.545546e+00 6.102549e+00
<GCONST> 1.279444e+02
<STATE> 4
<MEAN> 22
 4.768918e+00 3.357647e+00 1.529368e+00 1.118463e+00 4.195261e+01 2.294567e+01 9.552755e+01 9.333340e+01 6.900848e+01 6.008441e+01 1.594569e+02 1.852210e+02 1.123371e+02 1.150410e+02 5.281786e+00 4.829969e+00 5.582027e+00 5.760538e+00 5.259489e+00 5.801651e+00 2.370251e+00 2.249124e+00
<VARIANCE> 22
 8.614849e+01 4.105122e+01 9.193512e+00 3.925334e+00 3.776706e+03 1.477762e+03 8.033357e+02 4.923701e+02 3.090327e+02 1.426150e+02 4.391951e+03 1.551047e+03 3.360909e+02 1.902097e+02 7.066825e+00 3.573328e-01 3.150426e+00 3.084639e-01 1.961730e+00 1.075921e+00 5.963621e+00 5.946085e+00
<GCONST> 1.233195e+02
<TRANSP> 5
 0.000000e+00 1.000000e+00 0.000000e+00 0.000000e+00 0.000000e+00
 0.000000e+00 5.946977e-01 4.053023e-01 0.000000e+00 0.000000e+00
 0.000000e+00 0.000000e+00 8.033558e-01 1.966441e-01 0.000000e+00
 0.000000e+00 0.000000e+00 0.000000e+00 8.699930e-01 1.300070e-01
 0.000000e+00 0.000000e+00 0.000000e+00 0.000000e+00 0.000000e+00
<ENDHMM>
~h "CN_2"
<BEGINHMM>
<NUMSTATES> 5
<STATE> 2
<MEAN> 22
 1.036412e+01 9.492457e+00 3.119804e+00 3.244826e+00 7.016934e+01 6.293565e+01 9.580433e+01 8.363033e+01 7.262194e+01 6.499627e+01 1.326257e+02 1.427487e+02 1.092309e+02 1.117950e+02 4.171548e+00 4.004382e+00 5.299054e+00 5.499273e+00 4.579711e+00 4.369280e+00 2.957446e+00 2.848525e+00
<VARIANCE> 22
 5.300468e+02 4.397706e+02 3.115452e+02 2.227595e+02 5.129433e+03 4.467365e+03 1.890505e+03 1.365416e+03 4.804197e+02 3.021047e+02 5.619107e+03 4.475129e+03 5.358779e+02 3.803630e+02 7.910218e+00 1.703561e+00 4.549820e+00 8.021554e-01 2.706477e+00 6.123005e+00 6.820338e+00 5.994528e+00
<GCONST> 1.472159e+02
<STATE> 3
<MEAN> 22
 1.869782e+00 6.869971e+00 7.073052e-01 2.018695e+00 1.263672e+01 6.053322e+01 9.237881e+01 9.460354e+01 5.985590e+01 6.696996e+01 1.869674e+02 1.446478e+02 1.134230e+02 1.078553e+02 6.832676e+00 4.100973e+00 6.076116e+00 5.359488e+00 5.909746e+00 4.539108e+00 1.990185e+00 2.748360e+00
<VARIANCE> 22
 1.184803e+01 1.283059e+02 3.305619e+00 1.102050e+01 6.030788e+02 5.121009e+03 3.283123e+02 8.902512e+02 8.992766e+01 3.535259e+02 9.461459e+02 4.527876e+03 1.844883e+02 2.795553e+02 8.535120e-01 1.678596e+00 1.837463e-01 1.114197e+00 2.562806e-01 5.183343e+00 5.819413e+00 6.108792e+00
<GCONST> 1.180004e+02
<STATE> 4
<MEAN> 22
 8.216955e+00 7.641779e+00 2.090304e+00 1.526464e+00 1.012061e+02 8.473740e+01 7.060993e+01 6.482279e+01 6.793681e+01 5.971267e+01 9.107976e+01 1.056290e+02 1.012267e+02 1.030332e+02 2.621301e+00 3.123454e+00 5.462785e+00 5.524349e+00 3.795170e+00 2.853544e+00 2.774732e+00 2.690420e+00
<VARIANCE> 22
 1.541984e+02 1.406756e+02 1.716705e+01 5.757188e+00 7.288649e+03 5.564346e+03 1.405955e+03 1.186849e+03 3.496150e+02 2.454684e+02 3.627226e+03 3.676083e+03 7.186790e+02 5.705807e+02 5.177797e+00 2.408496e+00 3.829132e+00 1.432292e+00 2.635538e+00 7.256749e+00 5.976378e+00 5.834467e+00
<GCONST> 1.382750e+02
<TRANSP> 5
 0.000000e+00 1.000000e+00 0.000000e+00 0.000000e+00 0.000000e+00
 0.000000e+00 5.328030e-01 4.671970e-01 0.000000e+00 0.000000e+00
 0.000000e+00 0.000000e+00 8.859190e-01 1.140810e-01 0.000000e+00
 0.000000e+00 0.000000e+00 0.000000e+00 8.212331e-01 1.787669e-01
 0.000000e+00 0.000000e+00 0.000000e+00 0.000000e+00 0.000000e+00
<ENDHMM>
~h "TH_D"
<BEGINHMM>
<NUMSTATES> 5
<STATE> 2
<MEAN> 22
 1.002963e+01 9.813602e+00 2.402857e+00 2.104843e+00 9.013106e+01 8.610078e+01 7.076440e+01 6.937398e+01 6.927383e+01 6.248138e+01 1.047380e+02 1.110889e+02 1.055850e+02 1.065280e+02 2.945187e+00 3.334797e+00 5.936209e+00 5.645142e+00 4.271056e+00 3.167209e+00 3.422465e+00 3.168377e+00
<VARIANCE> 22
 2.061802e+02 2.105341e+02 2.146633e+01 1.577262e+01 4.880501e+03 4.110625e+03 1.237175e+03 1.111238e+03 2.144064e+02 1.727958e+02 3.541120e+03 3.541042e+03 3.134579e+02 2.425788e+02 6.591047e+00 2.158194e+00 1.887076e+00 5.800865e-01 2.262983e+00 7.449992e+00 6.933414e+00 6.465472e+00
<GCONST> 1.353611e+02
<STATE> 3
<MEAN> 22
 2.342238e+00 6.358496e+00 8.399652e-01 1.944367e+00 1.316492e+01 5.423681e+01 9.384360e+01 9.363486e+01 6.030549e+01 6.540044e+01 1.890073e+02 1.518143e+02 1.142131e+02 1.089983e+02 6.870211e+00 4.273299e+00 6.083958e+00 5.447269e+00 5.940663e+00 4.809220e+00 2.106140e+00 2.743286e+00
<VARIANCE> 22
 1.762668e+01 1.132174e+02 3.305619e+00 1.089749e+01 6.918619e+02 4.890309e+03 3.144092e+02 8.521531e+02 8.606409e+01 3.353997e+02 8.514146e+02 4.026254e+03 1.834948e+02 2.531676e+02 7.023072e-01 1.391477e+00 2.161549e-01 1.050286e+00 1.925579e-01 4.628388e+00 6.013675e+00 6.034592e+00
<GCONST> 1.171839e+02
<STATE> 4
<MEAN> 22
 9.068133e+00 7.030763e+00 2.593174e+00 1.655226e+00 9.229874e+01 5.923069e+01 9.285226e+01 8.231731e+01 7.103629e+01 5.830366e+01 1.140430e+02 1.432028e+02 1.000683e+02 1.036534e+02 3.199890e+00 3.875253e+00 4.699852e+00 5.201637e+00 3.911607e+00 4.338436e+00 2.555941e+00 2.368201e+00
<VARIANCE> 22
 2.299460e+02 1.852785e+02 2.150191e+01 8.989347e+00 9.191033e+03 5.885626e+03 2.384669e+03 1.618635e+03 7.541624e+02 4.532013e+02 6.020584e+03 4.814188e+03 1.308830e+03 1.083889e+03 8.065192e+00 2.457762e+00 7.103874e+00 2.522943e+00 4.225650e+00 6.121165e+00 6.056243e+00 5.824571e+00
<GCONST> 1.461080e+02
<TRANSP> 5
 0.000000e+00 1.000000e+00 0.000000e+00 0.000000e+00 0.000000e+00
 0.000000e+00 7.743486e-01 2.256514e-01 0.000000e+00 0.000000e+00
 0.000000e+00 0.000000e+00 8.854541e-01 1.145458e-01 0.000000e+00
 0.000000e+00 0.000000e+00 0.000000e+00 6.654991e-01 3.345009e-01
 0.000000e+00 0.000000e+00 0.000000e+00 0.000000e+00 0.000000e+00
<ENDHMM>
~h "TH_U"
<BEGINHMM>
<NUMSTATES> 5
<STATE> 2
<MEAN> 22
 2.180120e+01 1.961216e+01 1.670535e+01 1.366400e+01 1.054409e+02 8.980276e+01 7.316290e+01 6.667850e+01 5.309174e+01 4.679821e+01 1.073632e+02 1.056145e+02 8.006468e+01 7.924121e+01 3.457426e+00 2.907906e+00 3.706703e+00 3.982596e+00 3.509287e+00 3.148711e+00 1.928032e+00 2.050233e+00
<VARIANCE> 22
 7.614121e+03 5.449317e+03 6.419185e+03 4.086986e+03 2.749599e+04 1.617374e+04 3.299706e+03 2.465776e+03 1.443318e+03 1.037752e+03 7.116696e+03 7.092884e+03 2.667568e+03 2.553894e+03 1.001888e+01 4.397212e+00 8.723488e+00 6.508964e+00 6.528148e+00 7.746179e+00 6.050381e+00 6.033268e+00
<GCONST> 1.739179e+02
<STATE> 3
<MEAN> 22
 3.987365e+00 1.111337e+01 1.304374e+00 3.294673e+00 2.938840e+01 1.178590e+02 8.717378e+01 9.367187e+01 6.147839e+01 7.563260e+01 1.687334e+02 8.998885e+01 1.105191e+02 1.001456e+02 5.931703e+00 3.010093e+00 5.992388e+00 4.869185e+00 5.556476e+00 2.718682e+00 2.000619e+00 2.997851e+00
<VARIANCE> 22
 1.433211e+02 2.869282e+02 7.091119e+01 6.324956e+01 2.862882e+03 5.497631e+03 5.905499e+02 1.687315e+03 1.842591e+02 5.453462e+02 2.615711e+03 3.802904e+03 2.882780e+02 3.381038e+02 5.045390e+00 1.659982e+00 7.919703e-01 1.609368e+00 1.161134e+00 5.997793e+00 5.876499e+00 5.788105e+00
<GCONST> 1.368031e+02
<STATE> 4
<MEAN> 22
 6.164752e+00 5.516832e+00 1.616185e+00 1.464695e+00 4.512026e+01 3.823449e+01 8.846655e+01 8.254693e+01 6.620693e+01 5.984857e+01 1.546873e+02 1.617598e+02 1.112126e+02 1.116526e+02 5.210729e+00 4.408772e+00 5.829685e+00 5.767778e+00 5.181953e+00 5.062209e+00 2.521311e+00 2.431230e+00
<VARIANCE> 22
 1.338851e+02 9.660644e+01 2.648144e+01 1.546884e+01 3.542062e+03 2.222448e+03 1.059028e+03 8.499667e+02 2.307740e+02 1.122508e+02 3.984691e+03 3.036187e+03 3.026851e+02 2.091551e+02 7.096692e+00 1.253020e+00 2.000906e+00 3.005556e-01 1.944235e+00 4.480993e+00 5.894887e+00 5.790868e+00
<GCONST> 1.304036e+02
<TRANSP> 5
 0.000000e+00 1.000000e+00 0.000000e+00 0.000000e+00 0.000000e+00
 0.000000e+00 4.147509e-01 5.852492e-01 0.000000e+00 0.000000e+00
 0.000000e+00 0.000000e+00 7.245907e-01 2.754093e-01 0.000000e+00
 0.000000e+00 0.000000e+00 0.000000e+00 8.979338e-01 1.020661e-01
 0.000000e+00 0.000000e+00 0.000000e+00 0.000000e+00 0.000000e+00
<ENDHMM>
~h "CP_2"
<BEGINHMM>
<NUMSTATES> 5
<STATE> 2
<MEAN> 22
 7.429426e+00 6.339411e+00 3.011933e+00 2.240672e+00 1.276313e+02 1.142519e+02 9.269466e+01 8.461555e+01 6.570604e+01 5.848475e+01 1.257922e+02 1.223996e+02 9.586623e+01 9.270754e+01 3.791689e+00 3.443667e+00 4.258337e+00 4.486240e+00 3.871297e+00 3.857607e+00 2.118143e+00 2.239252e+00
<VARIANCE> 22
 5.406762e+02 3.751594e+02 3.775318e+02 2.123306e+02 2.769362e+04 1.920573e+04 3.457381e+03 2.311642e+03 1.298235e+03 1.060657e+03 7.998646e+03 6.299486e+03 2.062861e+03 1.859014e+03 9.211331e+00 3.236125e+00 8.059308e+00 4.243044e+00 5.405228e+00 6.729657e+00 5.771503e+00 5.987309e+00
<GCONST> 1.610248e+02
<STATE> 3
<MEAN> 22
 4.788810e+00 1.138810e+01 1.195529e+00 3.121223e+00 3.675459e+01 1.023397e+02 7.879967e+01 8.747388e+01 6.256378e+01 7.140668e+01 1.526134e+02 9.269725e+01 1.087853e+02 1.016780e+02 5.191206e+00 3.127290e+00 6.078837e+00 4.983934e+00 5.261079e+00 2.801073e+00 2.422606e+00 3.011902e+00
<VARIANCE> 22
 8.339134e+01 2.305964e+02 4.730214e+00 2.109340e+01 2.694608e+03 5.345585e+03 8.576780e+02 1.559105e+03 1.305232e+02 3.974909e+02 3.452706e+03 3.709591e+03 2.105226e+02 2.703364e+02 7.257313e+00 1.605644e+00 5.630111e-01 1.397589e+00 1.524333e+00 6.205759e+00 6.488853e+00 6.005041e+00
<GCONST> 1.317867e+02
<STATE> 4
<MEAN> 22
 5.143240e+00 4.946481e+00 1.528535e+00 1.404414e+00 3.124444e+01 3.034915e+01 9.028565e+01 9.129623e+01 6.671523e+01 6.064283e+01 1.718645e+02 1.802232e+02 1.152869e+02 1.149676e+02 5.600612e+00 4.759181e+00 6.157192e+00 5.736144e+00 5.456926e+00 5.737295e+00 2.626860e+00 2.549313e+00
<VARIANCE> 22
 6.496070e+01 7.720239e+01 6.243558e+00 4.479392e+00 1.972601e+03 1.706551e+03 7.637368e+02 6.116541e+02 1.694941e+02 1.182524e+02 2.582138e+03 1.755854e+03 2.852855e+02 2.128206e+02 6.835457e+00 4.597239e-01 7.581526e-01 3.446456e-01 1.604691e+00 1.434949e+00 6.323923e+00 6.155972e+00
<GCONST> 1.209137e+02
<TRANSP> 5
 0.000000e+00 1.000000e+00 0.000000e+00 0.000000e+00 0.000000e+00
 0.000000e+00 5.165860e-01 4.834140e-01 0.000000e+00 0.000000e+00
 0.000000e+00 0.000000e+00 7.859151e-01 2.140849e-01 0.000000e+00
 0.000000e+00 0.000000e+00 0.000000e+00 8.528779e-01 1.471221e-01
 0.000000e+00 0.000000e+00 0.000000e+00 0.000000e+00 0.000000e+00
<ENDHMM>
~h "CV_2"
<BEGINHMM>
<NUMSTATES> 5
<STATE> 2
<MEAN> 22
 8.144823e+00 5.524663e+00 3.350247e+00 2.404963e+00 1.199191e+02 7.413282e+01 1.003695e+02 7.561497e+01 7.068636e+01 5.498476e+01 1.071931e+02 1.239535e+02 9.377589e+01 9.618485e+01 3.296103e+00 3.571900e+00 3.661144e+00 4.845114e+00 3.627915e+00 3.870730e+00 2.427714e+00 2.323248e+00
<VARIANCE> 22
 5.498873e+02 3.547043e+02 3.292929e+02 1.927873e+02 1.976919e+04 1.115451e+04 3.239514e+03 1.739177e+03 1.162061e+03 5.457492e+02 5.733244e+03 5.474802e+03 1.497631e+03 1.408967e+03 7.884051e+00 2.817107e+00 8.130156e+00 3.514242e+00 4.430391e+00 7.094060e+00 6.164389e+00 6.126932e+00
<GCONST> 1.571452e+02
<STATE> 3
<MEAN> 22
 6.340222e+00 1.061874e+01 1.385272e+00 2.654763e+00 6.024166e+01 1.007900e+02 7.833015e+01 7.940384e+01 6.351874e+01 6.695644e+01 1.332017e+02 9.502861e+01 1.092748e+02 1.046688e+02 4.400739e+00 3.154311e+00 6.216115e+00 5.239343e+00 4.835899e+00 2.768155e+00 2.428109e+00 3.101069e+00
<VARIANCE> 22
 1.312313e+02 1.941653e+02 5.851446e+00 1.446982e+01 4.249479e+03 4.274534e+03 7.612133e+02 1.413086e+03 1.487926e+02 3.271701e+02 4.221504e+03 3.417645e+03 2.070672e+02 2.405574e+02 8.139952e+00 1.522030e+00 6.307458e-01 1.082613e+00 2.136075e+00 6.179776e+00 5.984304e+00 5.635118e+00
<GCONST> 1.319486e+02
<STATE> 4
<MEAN> 22
 3.729323e+00 4.517087e+00 1.115034e+00 1.294480e+00 3.126000e+01 3.097969e+01 9.398611e+01 8.875169e+01 6.499505e+01 5.994247e+01 1.679390e+02 1.737667e+02 1.143792e+02 1.133594e+02 5.805682e+00 4.638131e+00 5.888154e+00 5.766243e+00 5.481481e+00 5.456503e+00 2.327519e+00 2.344616e+00
<VARIANCE> 22
 4.619450e+01 6.573744e+01 4.777805e+00 4.262551e+00 2.797170e+03 2.134297e+03 6.189672e+02 6.649028e+02 1.877477e+02 1.273898e+02 3.825024e+03 2.401979e+03 3.064496e+02 2.254065e+02 5.529363e+00 6.963846e-01 1.770619e+00 3.431572e-01 1.459033e+00 2.713312e+00 5.834764e+00 5.876352e+00
<GCONST> 1.230150e+02
<TRANSP> 5
 0.000000e+00 1.000000e+00 0.000000e+00 0.000000e+00 0.000000e+00
 0.000000e+00 5.295637e-01 4.704362e-01 0.000000e+00 0.000000e+00
 0.000000e+00 0.000000e+00 8.187590e-01 1.812410e-01 0.000000e+00
 0.000000e+00 0.000000e+00 0.000000e+00 8.329524e-01 1.670476e-01
 0.000000e+00 0.000000e+00 0.000000e+00 0.000000e+00 0.000000e+00
<ENDHMM>
~h "SIL"
<BEGINHMM>
<NUMSTATES> 5
<STATE> 2
<MEAN> 22
 8.176810e+01 7.032404e+01 7.386804e+01 5.988507e+01 1.876157e+02 1.531961e+02 1.787690e+01 1.941335e+01 1.352155e+01 1.338935e+01 3.169921e+01 2.835998e+01 2.261649e+01 2.009294e+01 1.157441e+00 8.287708e-01 1.252697e+00 1.077877e+00 1.073610e+00 9.335090e-01 1.135786e+00 1.129506e+00
<VARIANCE> 22
 3.409339e+04 2.445193e+04 2.836215e+04 1.837250e+04 5.769233e+04 3.551523e+04 1.418713e+03 1.579880e+03 7.313935e+02 7.324098e+02 4.508301e+03 3.952207e+03 1.971907e+03 1.754003e+03 6.152886e+00 2.937712e+00 6.138513e+00 4.709169e+00 4.773467e+00 4.276413e+00 4.885541e+00 4.796467e+00
<GCONST> 1.744817e+02
<STATE> 3
<MEAN> 22
 6.995178e+00 5.280065e+00 2.006759e+00 1.479171e+00 6.172509e+01 4.624311e+01 9.674905e+01 9.165968e+01 7.277077e+01 6.258206e+01 1.485142e+02 1.607570e+02 1.114237e+02 1.121638e+02 4.677252e+00 4.296176e+00 5.588032e+00 5.615550e+00 4.902559e+00 4.844231e+00 2.739054e+00 2.419219e+00
<VARIANCE> 22
 1.441241e+02 1.096828e+02 1.409816e+01 8.164435e+00 4.989781e+03 3.631121e+03 1.436165e+03 9.153323e+02 3.552637e+02 2.198788e+02 4.880887e+03 3.737192e+03 4.340041e+02 3.080195e+02 7.973926e+00 1.417026e+00 3.695582e+00 5.884715e-01 2.511202e+00 4.651751e+00 6.205489e+00 6.105484e+00
<GCONST> 1.347315e+02
<STATE> 4
<MEAN> 22
 3.041608e+00 7.529493e+00 8.196521e-01 2.088516e+00 1.919863e+01 6.248497e+01 9.085605e+01 9.296851e+01 6.021577e+01 6.703013e+01 1.809699e+02 1.445750e+02 1.138347e+02 1.088543e+02 6.454305e+00 4.115143e+00 6.052008e+00 5.427493e+00 5.778156e+00 4.544772e+00 2.051743e+00 2.651216e+00
<VARIANCE> 22
 4.872748e+01 1.461856e+02 3.305619e+00 1.268436e+01 1.461537e+03 5.390855e+03 3.946504e+02 9.443306e+02 7.483524e+01 3.529704e+02 1.656600e+03 4.318539e+03 1.407063e+02 2.313128e+02 2.866714e+00 1.582621e+00 2.632954e-01 9.537080e-01 6.656113e-01 5.324470e+00 5.914892e+00 5.977325e+00
<GCONST> 1.230650e+02
<TRANSP> 5
 0.000000e+00 1.000000e+00 0.000000e+00 0.000000e+00 0.000000e+00
 0.000000e+00 8.197859e-01 1.802142e-01 0.000000e+00 0.000000e+00
 0.000000e+00 0.000000e+00 9.946638e-01 5.336151e-03 0.000000e+00
 0.000000e+00 0.000000e+00 0.000000e+00 9.970514e-01 2.948607e-03
 0.000000e+00 0.000000e+00 0.000000e+00 0.000000e+00 0.000000e+00
<ENDHMM>
~h "TT_2"
<BEGINHMM>
<NUMSTATES> 5
<STATE> 2
<MEAN> 22
 9.625587e+00 6.527058e+00 2.687040e+00 1.930923e+00 1.010861e+02 5.571739e+01 9.938903e+01 8.585024e+01 8.125847e+01 6.323699e+01 1.128340e+02 1.526496e+02 1.044734e+02 1.111052e+02 2.999163e+00 4.119708e+00 5.092063e+00 5.640582e+00 4.030877e+00 4.488760e+00 3.005772e+00 2.712283e+00
<VARIANCE> 22
 1.963941e+02 1.498652e+02 1.891409e+01 1.001577e+01 8.369969e+03 4.263565e+03 2.234468e+03 1.311482e+03 8.356360e+02 2.570121e+02 3.883930e+03 3.741871e+03 3.174368e+02 2.596046e+02 7.005821e+00 1.552925e+00 5.808551e+00 5.672939e-01 2.931093e+00 6.074236e+00 6.175627e+00 6.246276e+00
<GCONST> 1.384483e+02
<STATE> 3
<MEAN> 22
 1.669339e+00 1.063900e+01 8.363258e-01 3.301592e+00 3.038243e+01 1.419585e+02 8.892457e+01 1.048459e+02 5.980494e+01 8.393779e+01 1.722057e+02 8.251070e+01 1.081726e+02 9.431087e+01 6.059216e+00 2.681217e+00 5.864324e+00 4.419648e+00 5.542832e+00 2.247470e+00 1.825044e+00 3.018439e+00
<VARIANCE> 22
 1.199952e+01 2.155486e+02 3.560386e+00 3.021472e+01 4.840917e+03 7.169105e+03 9.745009e+02 2.924472e+03 3.476926e+02 1.053477e+03 2.667003e+03 3.112830e+03 5.868356e+02 6.277285e+02 4.846529e+00 1.520022e+00 1.753699e+00 2.302358e+00 1.697123e+00 4.842638e+00 5.646315e+00 5.915334e+00
<GCONST> 1.357624e+02
<STATE> 4
<MEAN> 22
 2.592669e+00 4.889145e+00 9.449292e-01 1.529369e+00 2.000938e+01 2.847625e+01 9.659106e+01 9.353344e+01 6.363969e+01 6.327292e+01 1.910180e+02 1.814667e+02 1.177973e+02 1.153014e+02 6.538988e+00 4.725366e+00 6.035657e+00 5.751468e+00 5.858563e+00 5.664622e+00 2.021198e+00 2.413105e+00
<VARIANCE> 22
 2.908253e+01 6.984404e+01 4.859371e+00 7.227164e+00 1.628022e+03 2.221923e+03 5.637439e+02 6.236727e+02 1.592001e+02 2.383796e+02 1.469038e+03 1.959774e+03 2.510024e+02 2.169406e+02 2.669567e+00 5.820652e-01 5.285402e-01 3.857189e-01 4.750755e-01 1.824043e+00 5.603916e+00 6.051715e+00
<GCONST> 1.180330e+02
<TRANSP> 5
 0.000000e+00 1.000000e+00 0.000000e+00 0.000000e+00 0.000000e+00
 0.000000e+00 7.820652e-01 2.179349e-01 0.000000e+00 0.000000e+00
 0.000000e+00 0.000000e+00 7.635211e-01 2.364789e-01 0.000000e+00
 0.000000e+00 0.000000e+00 0.000000e+00 8.259379e-01 1.740622e-01
 0.000000e+00 0.000000e+00 0.000000e+00 0.000000e+00 0.000000e+00
<ENDHMM>
~h "DC_2"
<BEGINHMM>
<NUMSTATES> 5
<STATE> 2
<MEAN> 22
 2.536153e+00 6.410561e+00 8.804093e-01 1.866441e+00 1.753010e+01 5.039441e+01 9.285191e+01 8.955524e+01 6.099247e+01 6.410497e+01 1.862517e+02 1.522565e+02 1.138682e+02 1.091420e+02 6.722756e+00 4.269394e+00 6.052059e+00 5.517295e+00 5.875681e+00 4.857830e+00 2.084365e+00 2.643466e+00
<VARIANCE> 22
 2.919810e+01 1.042643e+02 3.577616e+00 8.167522e+00 1.110434e+03 3.662561e+03 3.686304e+02 7.116158e+02 1.108510e+02 2.267928e+02 1.041184e+03 4.011234e+03 1.929737e+02 2.314139e+02 1.570628e+00 1.339162e+00 3.478127e-01 7.649434e-01 4.298996e-01 4.715368e+00 5.884584e+00 5.848676e+00
<GCONST> 1.192736e+02
<STATE> 3
<MEAN> 22
 9.092858e+00 9.801396e+00 2.218429e+00 2.963437e+00 8.599358e+01 8.747199e+01 6.671715e+01 6.877795e+01 6.597266e+01 6.137442e+01 1.077311e+02 1.073902e+02 1.028585e+02 1.015096e+02 3.208398e+00 3.254586e+00 6.056677e+00 5.617623e+00 4.407063e+00 3.062746e+00 2.763122e+00 2.626669e+00
<VARIANCE> 22
 1.652751e+02 2.211000e+02 1.968870e+01 3.687542e+01 3.831223e+03 3.409308e+03 9.094351e+02 9.736318e+02 1.699073e+02 1.610588e+02 3.438066e+03 3.721478e+03 2.518431e+02 2.733276e+02 7.203482e+00 2.255786e+00 9.365426e-01 6.924002e-01 2.086264e+00 7.719240e+00 5.503999e+00 5.535410e+00
<GCONST> 1.338779e+02
<STATE> 4
<MEAN> 22
 8.462615e+00 5.544645e+00 2.729126e+00 1.569666e+00 9.841167e+01 7.058765e+01 9.899165e+01 8.872591e+01 7.107733e+01 5.951635e+01 1.191575e+02 1.402153e+02 9.589202e+01 1.001352e+02 3.507053e+00 3.711981e+00 4.353991e+00 4.795783e+00 3.898912e+00 4.150886e+00 2.462904e+00 2.161075e+00
<VARIANCE> 22
 2.318906e+02 1.319016e+02 4.138408e+01 1.021941e+01 1.218880e+04 8.242067e+03 2.687470e+03 2.026478e+03 1.140414e+03 7.746634e+02 7.523430e+03 6.739486e+03 1.890782e+03 1.629349e+03 8.638570e+00 3.126096e+00 7.774083e+00 3.984216e+00 4.806984e+00 6.452794e+00 6.515813e+00 5.767723e+00
<GCONST> 1.509085e+02
<TRANSP> 5
 0.000000e+00 1.000000e+00 0.000000e+00 0.000000e+00 0.000000e+00
 0.000000e+00 8.723739e-01 1.276260e-01 0.000000e+00 0.000000e+00
 0.000000e+00 0.000000e+00 7.737326e-01 2.262674e-01 0.000000e+00
 0.000000e+00 0.000000e+00 0.000000e+00 6.668304e-01 3.331695e-01
 0.000000e+00 0.000000e+00 0.000000e+00 0.000000e+00 0.000000e+00
<ENDHMM>
~h "MC_2"
<BEGINHMM>
<NUMSTATES> 5
<STATE> 2
<MEAN> 22
 9.162358e+00 5.452155e+00 2.550238e+00 1.618123e+00 1.046948e+02 5.522468e+01 8.792744e+01 8.394437e+01 7.474966e+01 5.791754e+01 9.873954e+01 1.495532e+02 1.011757e+02 1.064378e+02 2.868813e+00 4.143461e+00 4.931114e+00 5.425009e+00 3.930546e+00 4.792062e+00 2.911159e+00 2.489029e+00
<VARIANCE> 22
 1.728760e+02 8.837290e+01 1.792984e+01 8.091106e+00 9.322203e+03 6.557527e+03 1.860908e+03 1.170673e+03 5.574772e+02 2.636704e+02 4.861832e+03 4.211738e+03 7.487201e+02 6.388563e+02 6.596847e+00 1.790758e+00 6.322962e+00 1.427158e+00 2.784003e+00 5.130824e+00 6.011376e+00 6.094392e+00
<GCONST> 1.403076e+02
<STATE> 3
<MEAN> 22
 3.088880e+00 9.699084e+00 8.828781e-01 2.543776e+00 2.717838e+01 1.034765e+02 8.477043e+01 8.019966e+01 6.118022e+01 7.353426e+01 1.680582e+02 9.399537e+01 1.108443e+02 1.023982e+02 5.815200e+00 3.174376e+00 6.066087e+00 5.110910e+00 5.650758e+00 2.816225e+00 2.020539e+00 2.867654e+00
<VARIANCE> 22
 6.217207e+01 3.027566e+02 3.305619e+00 1.630289e+01 2.060778e+03 4.774326e+03 7.065922e+02 1.831026e+03 1.550135e+02 4.345325e+02 2.321063e+03 2.937002e+03 1.994422e+02 2.387484e+02 5.654790e+00 1.433810e+00 6.326144e-01 1.206911e+00 8.849400e-01 6.861514e+00 5.867110e+00 5.660257e+00
<GCONST> 1.291912e+02
<STATE> 4
<MEAN> 22
 2.806917e+00 4.440364e+00 8.573097e-01 1.296955e+00 1.820781e+01 2.542130e+01 9.314754e+01 8.975736e+01 6.188077e+01 5.954331e+01 1.848024e+02 1.781567e+02 1.146265e+02 1.131366e+02 6.569780e+00 4.772374e+00 6.063904e+00 5.782257e+00 5.862174e+00 5.667083e+00 2.216857e+00 2.314152e+00
<VARIANCE> 22
 3.302237e+01 7.605290e+01 3.305619e+00 4.982147e+00 1.301402e+03 1.614121e+03 3.787921e+02 4.968585e+02 1.054589e+02 1.228383e+02 1.481274e+03 1.802829e+03 2.183149e+02 1.982496e+02 2.443474e+00 5.403535e-01 5.272021e-01 2.898687e-01 4.479643e-01 1.811178e+00 6.181612e+00 6.015747e+00
<GCONST> 1.145152e+02
<TRANSP> 5
 0.000000e+00 1.000000e+00 0.000000e+00 0.000000e+00 0.000000e+00
 0.000000e+00 7.861248e-01 2.138752e-01 0.000000e+00 0.000000e+00
 0.000000e+00 0.000000e+00 7.865640e-01 2.134360e-01 0.000000e+00
 0.000000e+00 0.000000e+00 0.000000e+00 8.373500e-01 1.626501e-01
 0.000000e+00 0.000000e+00 0.000000e+00 0.000000e+00 0.000000e+00
<ENDHMM>
~h "VA_2"
<BEGINHMM>
<NUMSTATES> 5
<STATE> 2
<MEAN> 22
 3.319607e+00 5.710231e+00 1.050317e+00 1.813314e+00 2.227565e+01 3.889450e+01 9.249030e+01 8.840244e+01 6.423070e+01 6.315086e+01 1.829336e+02 1.681281e+02 1.154919e+02 1.128998e+02 6.289790e+00 4.535643e+00 6.085055e+00 5.707056e+00 5.765783e+00 5.255867e+00 2.098677e+00 2.449958e+00
<VARIANCE> 22
 4.550938e+01 9.895022e+01 3.984231e+00 1.017694e+01 1.808129e+03 2.607387e+03 6.274375e+02 6.995021e+02 1.607494e+02 1.873978e+02 1.806113e+03 3.117861e+03 2.178871e+02 2.171824e+02 3.794902e+00 9.073448e-01 6.201851e-01 3.529641e-01 6.301213e-01 3.673588e+00 6.091778e+00 6.253191e+00
<GCONST> 1.217248e+02
<STATE> 3
<MEAN> 22
 6.919566e+00 7.019010e+00 1.812549e+00 1.880791e+00 8.079733e+01 9.645880e+01 9.413536e+01 8.923202e+01 7.392683e+01 7.136115e+01 1.223687e+02 1.107284e+02 1.033634e+02 1.020527e+02 3.809185e+00 3.290240e+00 5.016441e+00 5.062013e+00 4.322285e+00 3.138636e+00 2.534093e+00 2.611813e+00
<VARIANCE> 22
 1.355158e+02 1.240120e+02 1.034777e+01 1.036966e+01 8.506547e+03 7.727485e+03 2.158451e+03 2.221189e+03 7.019109e+02 7.018646e+02 4.678344e+03 4.139979e+03 5.207098e+02 4.464599e+02 7.555057e+00 2.079517e+00 5.325221e+00 1.753615e+00 2.947627e+00 7.074056e+00 6.006131e+00 5.864404e+00
<GCONST> 1.420533e+02
<STATE> 4
<MEAN> 22
 8.759931e+00 1.376019e+01 3.761665e+00 4.070949e+00 7.370442e+01 9.389664e+01 9.547009e+01 9.864117e+01 7.129047e+01 7.110990e+01 1.648606e+02 1.455879e+02 1.082883e+02 1.083802e+02 5.352877e+00 4.068321e+00 5.927574e+00 5.230729e+00 5.397007e+00 4.534040e+00 2.945579e+00 3.030444e+00
<VARIANCE> 22
 6.599816e+02 1.198492e+03 4.402680e+02 2.553168e+02 1.706784e+04 1.276440e+04 1.361292e+03 1.908045e+03 4.862425e+02 6.057374e+02 3.502281e+03 3.597409e+03 6.813837e+02 3.385948e+02 7.039896e+00 1.527480e+00 1.886428e+00 1.107471e+00 1.974054e+00 4.956583e+00 7.110883e+00 6.044178e+00
<GCONST> 1.500583e+02
<TRANSP> 5
 0.000000e+00 1.000000e+00 0.000000e+00 0.000000e+00 0.000000e+00
 0.000000e+00 8.349103e-01 1.650897e-01 0.000000e+00 0.000000e+00
 0.000000e+00 0.000000e+00 7.787519e-01 2.212481e-01 0.000000e+00
 0.000000e+00 0.000000e+00 0.000000e+00 4.286385e-01 5.713615e-01
 0.000000e+00 0.000000e+00 0.000000e+00 0.000000e+00 0.000000e+00
<ENDHMM>
~h "VQ_2"
<BEGINHMM>
<NUMSTATES> 5
<STATE> 2
<MEAN> 22
 5.201890e+00 8.527539e+00 1.599719e+00 2.490968e+00 8.231125e+01 1.090634e+02 9.205797e+01 9.381923e+01 6.658734e+01 6.682410e+01 1.385611e+02 1.079276e+02 1.039730e+02 1.000268e+02 4.638159e+00 3.231312e+00 4.999306e+00 4.793391e+00 4.638711e+00 3.187942e+00 2.222279e+00 2.832966e+00
<VARIANCE> 22
 1.355169e+02 1.803847e+02 1.311775e+01 1.595153e+01 1.465419e+04 9.787960e+03 1.781361e+03 1.677403e+03 7.190563e+02 6.307872e+02 5.402939e+03 5.717463e+03 9.091667e+02 7.927880e+02 7.827453e+00 2.397196e+00 5.469125e+00 2.274074e+00 3.282209e+00 6.165588e+00 6.104414e+00 6.175741e+00
<GCONST> 1.454213e+02
<STATE> 3
<MEAN> 22
 3.008819e+00 2.973590e+00 8.449845e-01 9.426636e-01 1.910482e+01 2.427685e+01 9.280800e+01 9.075888e+01 6.251653e+01 5.995022e+01 1.831276e+02 1.780730e+02 1.142045e+02 1.131187e+02 6.456738e+00 4.742003e+00 6.026127e+00 5.777373e+00 5.781993e+00 5.632616e+00 2.183662e+00 2.168443e+00
<VARIANCE> 22
 3.882913e+01 2.739276e+01 3.305619e+00 2.171579e+00 1.566319e+03 1.745159e+03 4.814144e+02 5.411181e+02 1.385457e+02 1.351633e+02 1.690714e+03 2.069597e+03 2.360351e+02 2.192334e+02 2.947668e+00 5.613887e-01 6.616458e-01 3.430308e-01 6.097520e-01 1.967108e+00 6.046721e+00 5.878667e+00
<GCONST> 1.151985e+02
<STATE> 4
<MEAN> 22
 1.042600e+01 9.435460e+00 2.866093e+00 2.720762e+00 7.389899e+01 6.362289e+01 8.684755e+01 8.248007e+01 7.167133e+01 6.419555e+01 1.160886e+02 1.384801e+02 1.049523e+02 1.071797e+02 3.528359e+00 3.911755e+00 5.270024e+00 5.534108e+00 4.331211e+00 4.259567e+00 2.891392e+00 2.725464e+00
<VARIANCE> 22
 3.176762e+02 1.915018e+02 2.016500e+01 2.798930e+01 4.924679e+03 3.943603e+03 1.267550e+03 1.338231e+03 3.080655e+02 2.664374e+02 4.613780e+03 3.847673e+03 3.939130e+02 3.460873e+02 7.765117e+00 1.578366e+00 4.920357e+00 6.876540e-01 2.551480e+00 6.342897e+00 6.171751e+00 5.502330e+00
<GCONST> 1.387752e+02
<TRANSP> 5
 0.000000e+00 1.000000e+00 0.000000e+00 0.000000e+00 0.000000e+00
 0.000000e+00 7.301178e-01 2.698822e-01 0.000000e+00 0.000000e+00
 0.000000e+00 0.000000e+00 7.863175e-01 2.136825e-01 0.000000e+00
 0.000000e+00 0.000000e+00 0.000000e+00 7.283133e-01 2.716867e-01
 0.000000e+00 0.000000e+00 0.000000e+00 0.000000e+00 0.000000e+00
<ENDHMM>
~h "NU_2"
<BEGINHMM>
<NUMSTATES> 5
<STATE> 2
<MEAN> 22
 4.536948e+00 9.027391e+00 1.009805e+00 2.741629e+00 4.041925e+01 1.015854e+02 8.060497e+01 8.877762e+01 6.156364e+01 6.963059e+01 1.514618e+02 9.989339e+01 1.064846e+02 9.910548e+01 4.946759e+00 3.102206e+00 5.800532e+00 4.751676e+00 5.102867e+00 2.896042e+00 2.117694e+00 2.853018e+00
<VARIANCE> 22
 9.306742e+01 2.651010e+02 5.048104e+00 2.067090e+01 4.289614e+03 6.750320e+03 1.408025e+03 2.195088e+03 3.405546e+02 6.809241e+02 4.655694e+03 4.611007e+03 8.335140e+02 7.506360e+02 7.977703e+00 2.101904e+00 2.398761e+00 2.271850e+00 2.512052e+00 6.421946e+00 6.423801e+00 6.306984e+00
<GCONST> 1.408999e+02
<STATE> 3
<MEAN> 22
 1.885798e+00 3.553732e+00 6.970845e-01 1.007106e+00 1.614053e+01 3.849284e+01 9.259606e+01 8.431284e+01 6.054672e+01 5.990241e+01 1.846122e+02 1.617252e+02 1.137035e+02 1.108606e+02 6.692008e+00 4.502823e+00 6.069356e+00 5.747808e+00 5.857085e+00 5.075402e+00 1.915479e+00 2.357855e+00
<VARIANCE> 22
 1.171793e+01 3.152704e+01 3.305619e+00 2.228680e+00 1.336250e+03 2.737274e+03 4.491751e+02 6.934836e+02 1.142883e+02 1.540043e+02 1.274564e+03 3.000932e+03 2.084533e+02 2.093749e+02 1.648551e+00 1.090487e+00 4.535116e-01 3.272216e-01 4.102425e-01 4.232578e+00 5.672617e+00 5.888802e+00
<GCONST> 1.144595e+02
<STATE> 4
<MEAN> 22
 9.136922e+00 6.574215e+00 2.701082e+00 1.956932e+00 9.205724e+01 5.850249e+01 8.906549e+01 8.690710e+01 7.419579e+01 6.062605e+01 1.157348e+02 1.579718e+02 1.063391e+02 1.119377e+02 3.149078e+00 4.315562e+00 5.268761e+00 5.586152e+00 4.207441e+00 4.919096e+00 2.776845e+00 2.519852e+00
<VARIANCE> 22
 1.621170e+02 1.602330e+02 2.247181e+01 1.118047e+01 1.075214e+04 7.259397e+03 1.483341e+03 1.040250e+03 4.316638e+02 1.776842e+02 4.581763e+03 3.183550e+03 4.429573e+02 2.101833e+02 7.768139e+00 1.072677e+00 5.381211e+00 4.507373e-01 3.011966e+00 4.493159e+00 6.047949e+00 6.051737e+00
<GCONST> 1.369430e+02
<TRANSP> 5
 0.000000e+00 1.000000e+00 0.000000e+00 0.000000e+00 0.000000e+00
 0.000000e+00 7.210383e-01 2.789617e-01 0.000000e+00 0.000000e+00
 0.000000e+00 0.000000e+00 7.973997e-01 2.026003e-01 0.000000e+00
 0.000000e+00 0.000000e+00 0.000000e+00 7.359487e-01 2.640513e-01
 0.000000e+00 0.000000e+00 0.000000e+00 0.000000e+00 0.000000e+00
<ENDHMM>
~h "FM_2"
<BEGINHMM>
<NUMSTATES> 5
<STATE> 2
<MEAN> 22
 1.022318e+01 1.051462e+01 3.202002e+00 3.473558e+00 5.862197e+01 7.567365e+01 8.152106e+01 8.461668e+01 6.694617e+01 6.641755e+01 1.426372e+02 1.372983e+02 1.075197e+02 1.070092e+02 4.592806e+00 3.855220e+00 5.844157e+00 5.405103e+00 4.943766e+00 4.152306e+00 3.058567e+00 2.885440e+00
<VARIANCE> 22
 5.013961e+02 4.435673e+02 2.826102e+02 1.820540e+02 5.911700e+03 6.333371e+03 1.184351e+03 1.464329e+03 2.638957e+02 4.358360e+02 3.716191e+03 4.104473e+03 3.326531e+02 3.231923e+02 8.358404e+00 1.961009e+00 2.053529e+00 9.899771e-01 2.225997e+00 6.518856e+00 6.838663e+00 6.186734e+00
<GCONST> 1.451028e+02
<STATE> 3
<MEAN> 22
 1.665792e+00 6.292574e+00 6.283164e-01 1.766844e+00 1.218853e+01 5.787889e+01 9.360084e+01 9.101047e+01 5.996583e+01 6.684114e+01 1.891677e+02 1.475363e+02 1.149943e+02 1.089633e+02 6.837763e+00 4.181943e+00 6.055633e+00 5.448359e+00 5.933323e+00 4.763871e+00 1.831509e+00 2.533604e+00
<VARIANCE> 22
 9.466598e+00 1.113573e+02 3.305619e+00 8.506043e+00 7.113942e+02 4.744625e+03 3.478998e+02 8.468353e+02 1.031926e+02 3.325134e+02 9.222986e+02 4.379723e+03 1.985274e+02 2.723347e+02 8.934858e-01 1.521229e+00 2.354346e-01 9.445749e-01 2.259075e-01 4.942438e+00 5.603476e+00 5.893914e+00
<GCONST> 1.173196e+02
<STATE> 4
<MEAN> 22
 8.223639e+00 6.708596e+00 2.088593e+00 1.878794e+00 8.538960e+01 6.443686e+01 8.791541e+01 7.862737e+01 7.345561e+01 6.094087e+01 1.148781e+02 1.339024e+02 1.026608e+02 1.049739e+02 2.812944e+00 3.655604e+00 5.182368e+00 5.275682e+00 4.131940e+00 4.068970e+00 2.734891e+00 2.388196e+00
<VARIANCE> 22
 1.440671e+02 1.479366e+02 9.093912e+00 9.001292e+00 7.233185e+03 5.565241e+03 2.301917e+03 1.652227e+03 7.000049e+02 3.557680e+02 4.781362e+03 4.530223e+03 8.425336e+02 7.487180e+02 7.431848e+00 2.489515e+00 5.757786e+00 1.772706e+00 3.800499e+00 6.813869e+00 5.700461e+00 5.916336e+00
<GCONST> 1.421518e+02
<TRANSP> 5
 0.000000e+00 1.000000e+00 0.000000e+00 0.000000e+00 0.000000e+00
 0.000000e+00 5.141196e-01 4.858804e-01 0.000000e+00 0.000000e+00
 0.000000e+00 0.000000e+00 8.638949e-01 1.361051e-01 0.000000e+00
 0.000000e+00 0.000000e+00 0.000000e+00 7.446541e-01 2.553459e-01
 0.000000e+00 0.000000e+00 0.000000e+00 0.000000e+00 0.000000e+00
<ENDHMM>
~h "FN_2"
<BEGINHMM>
<NUMSTATES> 5
<STATE> 2
<MEAN> 22
 9.004607e+00 8.485331e+00 2.408137e+00 2.175146e+00 7.657751e+01 5.935356e+01 7.525848e+01 7.335989e+01 6.814024e+01 6.069711e+01 1.079392e+02 1.296509e+02 1.047550e+02 1.071935e+02 3.352992e+00 3.720609e+00 5.656015e+00 5.665382e+00 4.252586e+00 3.853725e+00 3.015162e+00 2.754040e+00
<VARIANCE> 22
 1.976870e+02 1.810193e+02 1.531111e+01 1.601153e+01 3.900948e+03 3.309057e+03 1.343197e+03 1.137626e+03 2.197293e+02 1.567035e+02 4.024235e+03 4.127026e+03 2.854333e+02 2.536287e+02 6.870948e+00 2.409181e+00 3.319855e+00 5.903598e-01 2.386956e+00 7.466954e+00 6.360906e+00 6.266863e+00
<GCONST> 1.353408e+02
<STATE> 3
<MEAN> 22
 1.772748e+00 6.523610e+00 6.901362e-01 1.923399e+00 1.469413e+01 6.031953e+01 9.449638e+01 9.335702e+01 6.061030e+01 6.515219e+01 1.882805e+02 1.449746e+02 1.148759e+02 1.091769e+02 6.804068e+00 4.139705e+00 6.048401e+00 5.435641e+00 5.894379e+00 4.633144e+00 2.007503e+00 2.574931e+00
<VARIANCE> 22
 9.400893e+00 1.139083e+02 3.305619e+00 9.448959e+00 9.394828e+02 5.243232e+03 3.733976e+02 8.171630e+02 9.770345e+01 2.581234e+02 1.229423e+03 4.884791e+03 2.252657e+02 2.999487e+02 1.081324e+00 1.565689e+00 3.627665e-01 9.556107e-01 3.604735e-01 5.031430e+00 5.640304e+00 5.895697e+00
<GCONST> 1.193206e+02
<STATE> 4
<MEAN> 22
 8.290353e+00 5.038833e+00 2.218890e+00 1.694799e+00 1.065690e+02 6.556918e+01 9.450611e+01 8.651088e+01 6.762448e+01 5.907228e+01 9.835052e+01 1.399642e+02 9.646365e+01 1.003033e+02 2.947894e+00 3.819179e+00 3.970961e+00 4.965022e+00 3.628234e+00 4.442672e+00 2.529577e+00 2.260404e+00
<VARIANCE> 22
 1.942056e+02 8.826366e+01 1.373014e+01 1.084381e+01 1.154569e+04 8.275357e+03 2.318946e+03 1.796533e+03 8.475385e+02 5.708748e+02 5.898330e+03 5.412977e+03 1.216634e+03 1.319013e+03 7.307486e+00 2.585505e+00 8.165327e+00 3.111823e+00 4.158076e+00 5.697465e+00 5.899947e+00 5.831537e+00
<GCONST> 1.463375e+02
<TRANSP> 5
 0.000000e+00 1.000000e+00 0.000000e+00 0.000000e+00 0.000000e+00
 0.000000e+00 7.323580e-01 2.676420e-01 0.000000e+00 0.000000e+00
 0.000000e+00 0.000000e+00 8.639853e-01 1.360147e-01 0.000000e+00
 0.000000e+00 0.000000e+00 0.000000e+00 6.540161e-01 3.459839e-01
 0.000000e+00 0.000000e+00 0.000000e+00 0.000000e+00 0.000000e+00
<ENDHMM>
~h "FU_2"
<BEGINHMM>
<NUMSTATES> 5
<STATE> 2
<MEAN> 22
 5.049432e+00 1.094290e+01 1.357843e+00 2.919305e+00 3.249159e+01 1.018423e+02 8.653402e+01 9.032523e+01 6.180472e+01 6.966782e+01 1.627714e+02 9.816471e+01 1.100629e+02 1.020595e+02 5.596551e+00 3.273186e+00 6.017458e+00 5.053308e+00 5.406179e+00 3.164755e+00 2.448349e+00 3.259249e+00
<VARIANCE> 22
 9.970766e+01 2.378443e+02 6.454373e+00 1.993582e+01 2.769354e+03 5.379178e+03 6.317628e+02 1.386823e+03 1.555504e+02 4.035950e+02 2.897204e+03 4.529797e+03 2.336767e+02 2.905208e+02 6.520302e+00 1.666350e+00 1.065891e+00 1.061767e+00 1.745734e+00 6.223858e+00 6.500535e+00 5.869792e+00
<GCONST> 1.326639e+02
<STATE> 3
<MEAN> 22
 2.354602e+00 3.033535e+00 9.063823e-01 1.139868e+00 1.788803e+01 2.381711e+01 9.635720e+01 9.313761e+01 6.301535e+01 5.964731e+01 1.882819e+02 1.839448e+02 1.164001e+02 1.144087e+02 6.724279e+00 4.815334e+00 6.029025e+00 5.786045e+00 5.841308e+00 5.789032e+00 2.158932e+00 2.263214e+00
<VARIANCE> 22
 1.604856e+01 2.204317e+01 3.305619e+00 3.140745e+00 1.504041e+03 1.531877e+03 5.079442e+02 4.753353e+02 1.201067e+02 1.280388e+02 1.804339e+03 1.891077e+03 3.071457e+02 2.431483e+02 1.441176e+00 4.520573e-01 7.232757e-01 3.010812e-01 5.110270e-01 1.196548e+00 5.817703e+00 5.903880e+00
<GCONST> 1.126829e+02
<STATE> 4
<MEAN> 22
 7.988705e+00 6.018883e+00 2.346107e+00 1.868858e+00 1.167766e+02 6.596634e+01 8.875108e+01 8.041132e+01 7.052324e+01 5.747170e+01 8.385725e+01 1.352555e+02 9.483001e+01 1.024025e+02 2.839335e+00 3.765571e+00 4.336991e+00 5.351344e+00 3.653609e+00 4.100296e+00 2.760373e+00 2.437786e+00
<VARIANCE> 22
 1.802427e+02 1.560302e+02 1.827661e+01 1.366387e+01 1.183491e+04 7.411097e+03 1.843270e+03 1.200462e+03 7.177776e+02 3.491360e+02 4.644391e+03 4.787486e+03 8.171412e+02 7.530903e+02 5.790168e+00 2.553665e+00 7.254965e+00 2.165814e+00 2.827392e+00 6.543030e+00 6.221744e+00 5.954891e+00
<GCONST> 1.437543e+02
<TRANSP> 5
 0.000000e+00 1.000000e+00 0.000000e+00 0.000000e+00 0.000000e+00
 0.000000e+00 7.385473e-01 2.614526e-01 0.000000e+00 0.000000e+00
 0.000000e+00 0.000000e+00 8.094054e-01 1.905946e-01 0.000000e+00
 0.000000e+00 0.000000e+00 0.000000e+00 7.860151e-01 2.139849e-01
 0.000000e+00 0.000000e+00 0.000000e+00 0.000000e+00 0.000000e+00
<ENDHMM>
~h "OH_D"
<BEGINHMM>
<NUMSTATES> 5
<STATE> 2
<MEAN> 22
 9.391309e+00 4.956627e+00 2.850096e+00 1.658435e+00 1.084116e+02 5.658632e+01 1.015065e+02 9.055256e+01 7.743349e+01 6.033702e+01 1.080599e+02 1.569761e+02 1.026521e+02 1.089746e+02 3.066193e+00 4.191001e+00 4.487227e+00 5.386375e+00 3.808929e+00 4.787780e+00 2.877291e+00 2.386781e+00
<VARIANCE> 22
 2.659667e+02 1.295396e+02 6.177679e+01 3.319091e+01 1.100594e+04 6.869565e+03 2.104686e+03 1.263269e+03 7.216015e+02 3.560205e+02 5.571756e+03 4.166545e+03 8.641848e+02 6.703699e+02 7.167836e+00 1.756407e+00 7.508668e+00 1.546684e+00 3.590366e+00 4.804161e+00 6.458999e+00 6.005227e+00
<GCONST> 1.456182e+02
<STATE> 3
<MEAN> 22
 4.769267e+00 1.107185e+01 1.252269e+00 2.947356e+00 3.466643e+01 1.057660e+02 8.043229e+01 8.547665e+01 6.213074e+01 7.277778e+01 1.567660e+02 9.384066e+01 1.095933e+02 1.013656e+02 5.361825e+00 3.086777e+00 6.084747e+00 5.054864e+00 5.372455e+00 2.792259e+00 2.304075e+00 3.047732e+00
<VARIANCE> 22
 1.034014e+02 2.690142e+02 1.414942e+01 2.571814e+01 2.399057e+03 5.270178e+03 9.067822e+02 1.894087e+03 1.435505e+02 4.875974e+02 3.167318e+03 3.399563e+03 2.217560e+02 2.552352e+02 6.705436e+00 1.715979e+00 5.585908e-01 1.369001e+00 1.318541e+00 6.494640e+00 6.409333e+00 6.004450e+00
<GCONST> 1.335370e+02
<STATE> 4
<MEAN> 22
 3.095735e+00 4.661283e+00 9.768187e-01 1.393827e+00 1.864985e+01 2.585618e+01 9.380257e+01 9.108076e+01 6.231347e+01 6.077503e+01 1.871198e+02 1.807117e+02 1.154296e+02 1.140596e+02 6.563163e+00 4.791299e+00 6.072380e+00 5.766070e+00 5.866294e+00 5.754117e+00 2.175378e+00 2.465372e+00
<VARIANCE> 22
 4.265005e+01 6.915540e+01 3.929749e+00 5.656481e+00 1.206023e+03 1.548198e+03 4.804243e+02 5.311950e+02 1.221071e+02 1.440066e+02 1.296224e+03 1.703010e+03 2.089988e+02 1.901143e+02 2.494971e+00 4.715389e-01 4.243837e-01 2.995531e-01 4.306862e-01 1.424265e+00 5.964649e+00 6.175797e+00
<GCONST> 1.146036e+02
<TRANSP> 5
 0.000000e+00 1.000000e+00 0.000000e+00 0.000000e+00 0.000000e+00
 0.000000e+00 7.084695e-01 2.915305e-01 0.000000e+00 0.000000e+00
 0.000000e+00 0.000000e+00 7.983029e-01 2.016971e-01 0.000000e+00
 0.000000e+00 0.000000e+00 0.000000e+00 8.405465e-01 1.594534e-01
 0.000000e+00 0.000000e+00 0.000000e+00 0.000000e+00 0.000000e+00
<ENDHMM>
~h "OH_U"
<BEGINHMM>
<NUMSTATES> 5
<STATE> 2
<MEAN> 22
 2.221713e+01 1.988020e+01 1.682356e+01 1.367074e+01 8.940838e+01 7.886998e+01 8.250442e+01 7.595335e+01 5.980596e+01 5.410989e+01 1.254093e+02 1.216167e+02 8.950510e+01 9.056034e+01 4.090339e+00 3.392588e+00 4.411573e+00 4.514734e+00 4.090016e+00 3.731067e+00 2.198208e+00 2.266186e+00
<VARIANCE> 22
 8.064774e+03 5.686660e+03 6.580229e+03 4.189971e+03 2.192777e+04 1.337263e+04 2.778107e+03 2.132493e+03 1.217677e+03 8.610181e+02 6.474381e+03 6.475239e+03 2.021491e+03 1.924948e+03 9.618014e+00 3.667779e+00 7.435038e+00 4.873112e+00 5.694067e+00 7.393170e+00 6.295499e+00 6.072303e+00
<GCONST> 1.714229e+02
<STATE> 3
<MEAN> 22
 3.337163e+00 1.108694e+01 1.250349e+00 3.351730e+00 2.388936e+01 1.171576e+02 9.077842e+01 9.794930e+01 6.127531e+01 7.686800e+01 1.769352e+02 9.451622e+01 1.124777e+02 1.019186e+02 6.283790e+00 3.125358e+00 6.016874e+00 4.816730e+00 5.692896e+00 2.854952e+00 1.903905e+00 2.970108e+00
<VARIANCE> 22
 1.943049e+02 3.133180e+02 1.158871e+02 9.000734e+01 2.253118e+03 5.993428e+03 6.040137e+02 1.649071e+03 1.724437e+02 5.797884e+02 2.148867e+03 4.148826e+03 2.840279e+02 3.768772e+02 3.599985e+00 1.629388e+00 6.966702e-01 1.554990e+00 8.674794e-01 5.889749e+00 5.762618e+00 5.794599e+00
<GCONST> 1.370180e+02
<STATE> 4
<MEAN> 22
 6.008961e+00 5.080742e+00 1.776379e+00 1.523609e+00 4.754948e+01 3.459570e+01 8.959248e+01 8.477436e+01 6.742175e+01 5.986557e+01 1.505816e+02 1.660744e+02 1.107427e+02 1.119523e+02 5.021721e+00 4.477435e+00 5.721894e+00 5.742037e+00 5.095786e+00 5.184447e+00 2.482919e+00 2.447588e+00
<VARIANCE> 22
 1.513949e+02 1.041436e+02 4.443763e+01 2.793320e+01 3.668233e+03 2.044726e+03 1.035728e+03 8.294545e+02 2.477565e+02 1.282300e+02 4.242415e+03 2.771783e+03 2.971020e+02 2.004469e+02 7.429918e+00 1.137576e+00 2.712904e+00 3.151435e-01 2.128712e+00 3.996833e+00 5.936422e+00 5.983324e+00
<GCONST> 1.320468e+02
<TRANSP> 5
 0.000000e+00 1.000000e+00 0.000000e+00 0.000000e+00 0.000000e+00
 0.000000e+00 3.289986e-01 6.710014e-01 0.000000e+00 0.000000e+00
 0.000000e+00 0.000000e+00 7.082118e-01 2.917883e-01 0.000000e+00
 0.000000e+00 0.000000e+00 0.000000e+00 8.850532e-01 1.149468e-01
 0.000000e+00 0.000000e+00 0.000000e+00 0.000000e+00 0.000000e+00
<ENDHMM>
~h "OK_2"
<BEGINHMM>
<NUMSTATES> 5
<STATE> 2
<MEAN> 22
 2.857051e+00 6.906930e+00 8.167585e-01 1.941887e+00 1.937470e+01 4.096552e+01 9.427854e+01 8.993838e+01 6.212479e+01 6.364175e+01 1.869707e+02 1.639832e+02 1.161177e+02 1.124913e+02 6.636345e+00 4.480546e+00 6.034715e+00 5.611049e+00 5.835094e+00 5.225980e+00 1.998487e+00 2.535725e+00
<VARIANCE> 22
 4.541059e+01 1.700216e+02 3.305619e+00 1.319215e+01 1.649410e+03 3.515083e+03 4.678022e+02 6.600120e+02 1.282314e+02 2.357577e+02 1.605142e+03 3.165839e+03 2.500728e+02 2.400170e+02 1.952336e+00 9.841984e-01 5.002928e-01 5.125975e-01 5.350469e-01 3.495702e+00 5.607686e+00 6.044198e+00
<GCONST> 1.215754e+02
<STATE> 3
<MEAN> 22
 4.598670e+00 6.735555e+00 1.139419e+00 1.678498e+00 3.982328e+01 1.008056e+02 7.466239e+01 8.901711e+01 6.170256e+01 6.992725e+01 1.386191e+02 9.956557e+01 1.065014e+02 1.006777e+02 4.649870e+00 3.119048e+00 6.039971e+00 5.001411e+00 5.021863e+00 2.831852e+00 2.243376e+00 2.725530e+00
<VARIANCE> 22
 8.468424e+01 9.650405e+01 4.575464e+00 5.820381e+00 3.003147e+03 5.935156e+03 9.366148e+02 1.993830e+03 1.695291e+02 5.065707e+02 3.529255e+03 4.079307e+03 1.930105e+02 2.418338e+02 7.824028e+00 2.105398e+00 7.986640e-01 1.736651e+00 1.916101e+00 6.587064e+00 5.939361e+00 5.952924e+00
<GCONST> 1.316840e+02
<STATE> 4
<MEAN> 22
 1.094746e+01 7.503232e+00 3.483468e+00 2.238381e+00 1.127300e+02 6.788685e+01 1.015179e+02 9.368999e+01 7.560992e+01 6.369994e+01 1.216281e+02 1.587354e+02 1.073344e+02 1.128454e+02 3.488806e+00 4.180707e+00 4.861410e+00 5.435172e+00 4.116019e+00 4.652663e+00 2.933360e+00 2.712485e+00
<VARIANCE> 22
 2.605863e+02 1.902618e+02 4.121474e+01 2.181032e+01 1.280271e+04 9.391770e+03 1.518449e+03 1.161548e+03 4.945937e+02 3.155451e+02 5.857156e+03 4.470090e+03 8.456249e+02 4.359463e+02 7.862139e+00 1.575959e+00 6.734468e+00 9.587241e-01 3.642641e+00 5.020324e+00 6.124325e+00 6.385373e+00
<GCONST> 1.438445e+02
<TRANSP> 5
 0.000000e+00 1.000000e+00 0.000000e+00 0.000000e+00 0.000000e+00
 0.000000e+00 7.851642e-01 2.148359e-01 0.000000e+00 0.000000e+00
 0.000000e+00 0.000000e+00 6.824634e-01 3.175366e-01 0.000000e+00
 0.000000e+00 0.000000e+00 0.000000e+00 6.847646e-01 3.152354e-01
 0.000000e+00 0.000000e+00 0.000000e+00 0.000000e+00 0.000000e+00
<ENDHMM>
~h "PF_2"
<BEGINHMM>
<NUMSTATES> 5
<STATE> 2
<MEAN> 22
 3.766880e+00 9.540814e+00 9.132024e-01 2.521947e+00 4.538149e+01 1.131331e+02 8.148240e+01 8.542510e+01 5.846113e+01 6.694097e+01 1.442864e+02 8.676627e+01 1.045785e+02 9.608427e+01 5.348347e+00 2.952869e+00 5.880757e+00 4.880801e+00 5.074077e+00 2.723611e+00 2.121780e+00 2.773697e+00
<VARIANCE> 22
 5.744875e+01 2.202101e+02 3.305619e+00 1.595747e+01 7.249493e+03 6.465041e+03 7.220795e+02 1.470791e+03 2.248297e+02 4.266405e+02 4.020600e+03 4.182365e+03 5.054703e+02 6.046727e+02 6.613320e+00 2.029595e+00 1.703299e+00 2.155885e+00 2.566005e+00 6.186574e+00 6.094388e+00 5.804214e+00
<GCONST> 1.363505e+02
<STATE> 3
<MEAN> 22
 7.334127e+00 5.961018e+00 2.478482e+00 2.181906e+00 8.580621e+01 8.700906e+01 1.077676e+02 1.035686e+02 7.621884e+01 7.364381e+01 1.232725e+02 1.311351e+02 1.063954e+02 1.084473e+02 3.982269e+00 3.697816e+00 4.274924e+00 5.016263e+00 4.172668e+00 3.738967e+00 2.683050e+00 2.789839e+00
<VARIANCE> 22
 1.722852e+02 1.042442e+02 2.031921e+01 1.317861e+01 7.060079e+03 7.502305e+03 1.465796e+03 2.034322e+03 4.846156e+02 7.238307e+02 5.299224e+03 4.192731e+03 3.382784e+02 2.446621e+02 7.816158e+00 1.736285e+00 7.391153e+00 1.437901e+00 3.503246e+00 6.263436e+00 6.722035e+00 5.742298e+00
<GCONST> 1.412338e+02
<STATE> 4
<MEAN> 22
 5.063413e+00 5.712367e+00 1.365492e+00 1.674596e+00 2.870427e+01 3.069830e+01 9.066733e+01 8.993296e+01 6.467097e+01 6.110703e+01 1.762964e+02 1.763956e+02 1.143062e+02 1.127509e+02 5.968682e+00 4.718463e+00 6.146307e+00 5.703555e+00 5.635159e+00 5.672463e+00 2.602603e+00 2.700832e+00
<VARIANCE> 22
 8.486116e+01 9.102246e+01 5.535232e+00 8.279973e+00 1.717098e+03 1.838783e+03 7.164044e+02 6.126254e+02 1.590412e+02 1.675183e+02 2.278392e+03 1.922338e+03 2.212988e+02 1.926131e+02 5.301622e+00 5.575507e-01 6.181469e-01 4.155476e-01 1.102651e+00 1.744507e+00 6.436251e+00 6.292283e+00
<GCONST> 1.213907e+02
<TRANSP> 5
 0.000000e+00 1.000000e+00 0.000000e+00 0.000000e+00 0.000000e+00
 0.000000e+00 7.723074e-01 2.276926e-01 0.000000e+00 0.000000e+00
 0.000000e+00 0.000000e+00 6.796586e-01 3.203414e-01 0.000000e+00
 0.000000e+00 0.000000e+00 0.000000e+00 8.294591e-01 1.705410e-01
 0.000000e+00 0.000000e+00 0.000000e+00 0.000000e+00 0.000000e+00
<ENDHMM>
~h "PR_2"
<BEGINHMM>
<NUMSTATES> 5
<STATE> 2
<MEAN> 22
 8.422956e+00 8.727332e+00 2.567348e+00 2.450834e+00 5.677751e+01 9.402760e+01 7.585063e+01 8.595681e+01 6.584633e+01 7.135789e+01 1.294277e+02 1.067141e+02 1.061909e+02 1.011552e+02 4.087221e+00 3.223445e+00 5.902791e+00 5.103220e+00 4.801225e+00 2.940727e+00 2.896301e+00 2.787846e+00
<VARIANCE> 22
 1.792575e+02 1.734197e+02 3.321381e+01 1.829191e+01 3.384104e+03 5.539280e+03 9.887408e+02 1.832159e+03 2.321763e+02 5.714628e+02 3.583250e+03 3.762156e+03 2.446537e+02 3.304160e+02 8.140674e+00 1.860758e+00 1.842097e+00 1.556153e+00 2.165946e+00 6.915573e+00 6.624938e+00 6.270965e+00
<GCONST> 1.380605e+02
<STATE> 3
<MEAN> 22
 1.907324e+00 5.859164e+00 7.330694e-01 1.732511e+00 1.612537e+01 4.846280e+01 9.490726e+01 8.873399e+01 6.103664e+01 6.266393e+01 1.883874e+02 1.548123e+02 1.153035e+02 1.115026e+02 6.750735e+00 4.318409e+00 6.059088e+00 5.621909e+00 5.873671e+00 4.829587e+00 2.013248e+00 2.632619e+00
<VARIANCE> 22
 1.179674e+01 1.010243e+02 3.305619e+00 6.976936e+00 1.054196e+03 3.447168e+03 4.157199e+02 6.243599e+02 9.809935e+01 1.708463e+02 1.257365e+03 4.022187e+03 1.978798e+02 2.307233e+02 1.298769e+00 1.219772e+00 3.948377e-01 4.280360e-01 3.967485e-01 4.686538e+00 5.885126e+00 6.310761e+00
<GCONST> 1.170364e+02
<STATE> 4
<MEAN> 22
 8.316650e+00 4.891439e+00 2.349983e+00 1.447008e+00 9.516080e+01 4.988189e+01 1.021905e+02 8.915540e+01 7.436174e+01 5.928399e+01 1.158560e+02 1.594456e+02 1.018766e+02 1.091756e+02 3.253236e+00 4.197147e+00 4.616955e+00 5.299389e+00 3.858488e+00 4.801471e+00 2.784984e+00 2.392713e+00
<VARIANCE> 22
 1.698665e+02 1.102459e+02 1.407313e+01 7.319121e+00 9.679046e+03 5.912093e+03 2.552187e+03 1.269969e+03 6.717828e+02 3.324236e+02 6.329039e+03 5.113439e+03 1.217889e+03 8.327650e+02 7.705029e+00 1.858354e+00 7.316910e+00 1.773351e+00 3.739823e+00 4.894827e+00 6.183012e+00 6.096899e+00
<GCONST> 1.429596e+02
<TRANSP> 5
 0.000000e+00 1.000000e+00 0.000000e+00 0.000000e+00 0.000000e+00
 0.000000e+00 7.307411e-01 2.692589e-01 0.000000e+00 0.000000e+00
 0.000000e+00 0.000000e+00 8.284283e-01 1.715717e-01 0.000000e+00
 0.000000e+00 0.000000e+00 0.000000e+00 6.806493e-01 3.193507e-01
 0.000000e+00 0.000000e+00 0.000000e+00 0.000000e+00 0.000000e+00
<ENDHMM>
