~o
<STREAMINFO> 1 23
<VECSIZE> 23<NULLD><MFCC_0><DIAGC>
~h "BN"
<BEGINHMM>
<NUMSTATES> 5
<STATE> 2
<MEAN> 23
 6.292913e+000 1.299660e+001 2.653903e+000 4.114753e+000 9.467277e+001 1.132724e+002 8.133621e+001 8.103872e+001 6.542706e+001 6.620683e+001 1.458519e+002 1.105417e+002 1.025995e+002 9.950730e+001 4.722489e+000 3.413467e+000 5.283645e+000 4.697767e+000 4.867362e+000 3.716933e+000 2.157810e+000 2.222200e+000 1.265886e+002
<VARIANCE> 23
 8.366879e+002 7.638010e+002 6.194537e+002 4.004143e+002 2.653076e+004 1.539770e+004 1.661381e+003 1.810909e+003 6.809677e+002 7.739523e+002 5.511969e+003 4.812925e+003 1.370771e+003 1.055796e+003 8.654984e+000 2.722160e+000 4.849611e+000 2.892370e+000 3.213420e+000 7.151013e+000 5.767524e+000 4.376222e+000 4.696328e+003
<GCONST> 1.678773e+002
<STATE> 3
<MEAN> 23
 1.122551e+000 8.669369e+000 4.625131e-001 2.674146e+000 9.490975e+000 1.721567e+002 9.128039e+001 1.173756e+002 5.844793e+001 9.003878e+001 1.887453e+002 3.960048e+001 1.140644e+002 1.011020e+002 6.953646e+000 2.183555e+000 6.041309e+000 3.867499e+000 5.969515e+000 1.126795e+000 1.477770e+000 2.869342e+000 2.029922e+002
<VARIANCE> 23
 6.767813e+000 1.493636e+002 3.300596e+000 1.436666e+001 4.588786e+002 1.793151e+003 2.630340e+002 6.338381e+002 7.075456e+001 3.660473e+002 6.426145e+002 6.236017e+002 1.563036e+002 1.586431e+002 2.462191e-001 2.373739e-001 1.927099e-001 6.551585e-001 7.953542e-002 4.596591e-001 5.106911e+000 5.879106e+000 1.137233e+003
<GCONST> 1.140953e+002
<STATE> 4
<MEAN> 23
 8.493162e+000 6.424035e+000 2.489982e+000 1.700086e+000 1.022204e+002 2.431179e+001 1.064535e+002 8.682384e+001 8.010975e+001 5.951740e+001 9.777891e+001 1.793432e+002 1.064794e+002 1.143881e+002 3.634870e+000 4.761764e+000 3.564674e+000 5.780176e+000 4.108167e+000 5.762249e+000 3.123187e+000 2.644320e+000 1.673219e+002
<VARIANCE> 23
 1.754295e+002 1.706975e+002 1.709299e+001 9.241010e+000 6.746767e+003 8.912472e+002 9.291471e+002 7.135264e+002 4.186083e+002 9.261124e+001 5.810507e+003 1.552018e+003 2.928506e+002 1.621209e+002 6.658108e+000 4.195406e-001 8.584358e+000 1.954737e-001 2.399066e+000 1.860508e+000 6.314610e+000 6.775172e+000 2.904832e+003
<GCONST> 1.387737e+002
<TRANSP> 5
 0.000000e+000 1.000000e+000 0.000000e+000 0.000000e+000 0.000000e+000
 0.000000e+000 8.142960e-001 1.857040e-001 0.000000e+000 0.000000e+000
 0.000000e+000 0.000000e+000 9.502814e-001 4.971850e-002 0.000000e+000
 0.000000e+000 0.000000e+000 0.000000e+000 9.375382e-001 6.246183e-002
 0.000000e+000 0.000000e+000 0.000000e+000 0.000000e+000 0.000000e+000
<ENDHMM>
~h "BS"
<BEGINHMM>
<NUMSTATES> 5
<STATE> 2
<MEAN> 23
 1.715940e+001 1.733063e+001 3.990205e+000 3.798786e+000 6.586308e+001 6.380478e+001 5.648209e+001 5.522393e+001 6.332381e+001 5.982049e+001 1.430754e+002 1.396650e+002 1.063534e+002 1.063294e+002 5.261935e+000 4.316384e+000 6.013078e+000 5.851657e+000 5.198812e+000 5.109397e+000 2.782956e+000 2.107604e+000 7.510361e+001
<VARIANCE> 23
 7.738538e+002 6.486972e+002 5.195132e+002 3.464738e+002 6.213925e+003 4.820653e+003 1.091869e+003 9.858687e+002 1.259954e+002 1.223900e+002 1.970801e+003 1.985175e+003 2.864543e+002 2.537311e+002 6.262614e+000 2.300057e+000 4.918182e-001 4.274323e-001 1.053277e+000 6.473342e+000 3.361694e+000 3.991679e+000 2.353426e+003
<GCONST> 1.480074e+002
<STATE> 3
<MEAN> 23
 2.020360e+001 2.053291e+001 3.754313e+000 3.698334e+000 1.094654e+002 1.087109e+002 8.632596e+001 8.501875e+001 7.395527e+001 6.706134e+001 1.101688e+002 1.140502e+002 1.054198e+002 1.054789e+002 1.259794e+000 3.053013e+000 5.110915e+000 5.305491e+000 3.074162e+000 2.714799e+000 2.601314e+000 3.276860e+000 1.388247e+002
<VARIANCE> 23
 4.264519e+002 4.361898e+002 2.083354e+001 1.921671e+001 1.997508e+003 1.548799e+003 2.692919e+003 2.382735e+003 2.806387e+002 2.568352e+002 1.767555e+003 1.784167e+003 1.645473e+002 1.406422e+002 2.036962e+000 1.368826e+000 6.742563e+000 6.073307e-001 4.497532e+000 4.967072e+000 5.990119e+000 4.626601e+000 1.085083e+004
<GCONST> 1.453708e+002
<STATE> 4
<MEAN> 23
 7.402761e+000 7.163186e+000 2.076097e+000 1.864435e+000 7.408463e+001 7.144872e+001 1.141885e+002 1.132173e+002 6.907499e+001 6.391365e+001 1.745519e+002 1.729893e+002 1.110672e+002 1.103572e+002 2.790807e+000 4.386734e+000 6.767198e+000 5.203846e+000 4.462714e+000 4.952001e+000 3.451292e+000 3.755491e+000 2.032247e+002
<VARIANCE> 23
 7.287150e+001 6.631169e+001 6.704478e+000 5.184128e+000 3.773499e+003 2.333587e+003 8.096270e+002 7.076435e+002 1.439536e+002 1.465242e+002 9.483823e+002 8.548754e+002 1.654604e+002 1.387262e+002 1.158342e+001 2.873735e-001 1.940871e-001 1.897811e-001 8.791750e+000 8.765513e-001 5.734480e+000 7.887844e+000 4.430298e+003
<GCONST> 1.293070e+002
<TRANSP> 5
 0.000000e+000 1.000000e+000 0.000000e+000 0.000000e+000 0.000000e+000
 0.000000e+000 8.192114e-001 1.807885e-001 0.000000e+000 0.000000e+000
 0.000000e+000 0.000000e+000 9.028257e-001 9.717431e-002 0.000000e+000
 0.000000e+000 0.000000e+000 0.000000e+000 9.522958e-001 4.770424e-002
 0.000000e+000 0.000000e+000 0.000000e+000 0.000000e+000 0.000000e+000
<ENDHMM>
~h "CF"
<BEGINHMM>
<NUMSTATES> 5
<STATE> 2
<MEAN> 23
 7.476899e+000 1.149191e+001 3.274886e+000 3.796700e+000 5.788189e+001 7.366491e+001 8.110928e+001 7.019682e+001 6.827733e+001 6.365344e+001 1.284033e+002 1.182624e+002 1.016015e+002 1.044373e+002 4.406682e+000 3.602072e+000 5.242595e+000 5.249819e+000 4.691257e+000 3.954829e+000 2.599106e+000 2.436927e+000 1.146475e+002
<VARIANCE> 23
 6.242963e+002 5.756774e+002 4.731301e+002 2.898585e+002 7.251364e+003 6.553775e+003 1.458594e+003 1.432349e+003 4.203729e+002 4.403439e+002 4.831499e+003 3.661259e+003 6.003163e+002 4.639903e+002 7.337249e+000 2.494225e+000 3.779371e+000 1.748760e+000 2.554826e+000 7.593416e+000 6.263848e+000 4.523829e+000 3.783149e+003
<GCONST> 1.598188e+002
<STATE> 3
<MEAN> 23
 1.408461e+000 1.007614e+001 6.220948e-001 3.707602e+000 9.281764e+000 1.851819e+002 9.313472e+001 1.229899e+002 5.936721e+001 9.969685e+001 1.879036e+002 4.052225e+001 1.130362e+002 8.817827e+001 6.938483e+000 2.169235e+000 6.070591e+000 3.286370e+000 5.960097e+000 1.090833e+000 1.585366e+000 2.824791e+000 2.068431e+002
<VARIANCE> 23
 1.015258e+001 2.308317e+002 3.300596e+000 2.706813e+001 3.976396e+002 2.126017e+003 3.546788e+002 9.119948e+002 8.983486e+001 4.321854e+002 7.899866e+002 8.248098e+002 1.838515e+002 3.228752e+002 3.032724e-001 2.619467e-001 2.277581e-001 1.745148e+000 1.025002e-001 6.883700e-001 5.478830e+000 5.872447e+000 1.522580e+003
<GCONST> 1.204955e+002
<STATE> 4
<MEAN> 23
 9.119866e+000 6.361022e+000 3.124276e+000 2.006035e+000 9.982124e+001 2.930208e+001 1.074276e+002 9.164046e+001 8.223545e+001 6.109131e+001 1.087718e+002 1.851644e+002 1.005937e+002 1.137432e+002 4.009821e+000 4.880836e+000 4.265116e+000 5.669699e+000 4.366277e+000 5.988724e+000 3.118090e+000 2.780800e+000 1.695084e+002
<VARIANCE> 23
 1.905109e+002 1.511366e+002 2.153644e+001 1.102240e+001 7.319097e+003 1.027887e+003 1.157596e+003 5.915015e+002 5.835541e+002 1.436162e+002 6.188705e+003 9.678033e+002 5.507510e+002 1.386675e+002 6.882699e+000 1.949777e-001 6.022762e+000 2.326303e-001 2.248364e+000 3.840207e-001 6.276686e+000 6.490293e+000 2.750582e+003
<GCONST> 1.375754e+002
<TRANSP> 5
 0.000000e+000 1.000000e+000 0.000000e+000 0.000000e+000 0.000000e+000
 0.000000e+000 8.192421e-001 1.807579e-001 0.000000e+000 0.000000e+000
 0.000000e+000 0.000000e+000 9.436842e-001 5.631577e-002 0.000000e+000
 0.000000e+000 0.000000e+000 0.000000e+000 9.422823e-001 5.771767e-002
 0.000000e+000 0.000000e+000 0.000000e+000 0.000000e+000 0.000000e+000
<ENDHMM>
~h "CN"
<BEGINHMM>
<NUMSTATES> 5
<STATE> 2
<MEAN> 23
 1.483059e+001 1.443836e+001 2.800082e+000 2.974072e+000 6.087659e+001 6.287032e+001 6.909497e+001 6.633279e+001 6.444199e+001 6.260199e+001 1.421048e+002 1.355781e+002 1.088497e+002 1.091300e+002 4.909823e+000 3.979944e+000 6.003839e+000 5.912657e+000 5.079782e+000 4.373287e+000 2.757374e+000 2.107183e+000 8.713553e+001
<VARIANCE> 23
 4.517153e+002 3.956125e+002 1.639538e+002 1.240595e+002 3.170766e+003 2.988140e+003 1.153397e+003 9.522509e+002 1.174938e+002 1.728034e+002 3.032688e+003 3.436589e+003 3.506494e+002 2.302305e+002 7.030417e+000 2.127813e+000 3.457665e-001 3.392595e-001 1.133466e+000 7.584346e+000 3.065912e+000 3.919527e+000 1.994867e+003
<GCONST> 1.444337e+002
<STATE> 3
<MEAN> 23
 7.721011e+000 8.319491e+000 1.194726e+000 1.031193e+000 1.439798e+002 1.383815e+002 7.052666e+001 6.836590e+001 6.630101e+001 6.380106e+001 4.326988e+001 4.622427e+001 1.032758e+002 1.044549e+002 2.028689e+000 1.936967e+000 5.804945e+000 5.929874e+000 3.203098e+000 7.666305e-001 3.186436e+000 3.106371e+000 1.971321e+001
<VARIANCE> 23
 1.094147e+002 1.395135e+002 3.300596e+000 2.164982e+000 1.791571e+003 1.519443e+003 5.283736e+002 6.019227e+002 9.301221e+001 1.072919e+002 3.380535e+002 4.439081e+002 1.282989e+002 1.211129e+002 6.504287e-002 1.231740e-001 7.157057e-001 5.284649e-001 1.757247e-001 2.137772e-001 6.014361e+000 6.019754e+000 3.572749e+002
<GCONST> 1.125230e+002
<STATE> 4
<MEAN> 23
 1.478702e+001 1.362979e+001 2.637423e+000 2.581007e+000 7.484859e+001 6.808928e+001 7.454350e+001 7.223813e+001 6.753381e+001 6.368061e+001 1.516477e+002 1.489835e+002 1.123651e+002 1.116740e+002 5.068201e+000 4.136349e+000 6.149102e+000 5.864839e+000 5.111218e+000 4.540434e+000 4.060341e+000 3.949448e+000 9.858696e+001
<VARIANCE> 23
 3.108224e+002 2.575453e+002 9.366390e+000 1.187029e+001 6.174254e+003 4.841262e+003 1.439212e+003 1.358380e+003 1.989567e+002 1.178579e+002 2.740155e+003 2.691531e+003 2.650930e+002 1.668456e+002 6.299160e+000 2.762274e+000 4.135149e-001 3.038635e-001 1.550339e+000 6.993435e+000 7.331910e+000 4.875921e+000 4.284878e+003
<GCONST> 1.416501e+002
<TRANSP> 5
 0.000000e+000 1.000000e+000 0.000000e+000 0.000000e+000 0.000000e+000
 0.000000e+000 8.390616e-001 1.609384e-001 0.000000e+000 0.000000e+000
 0.000000e+000 0.000000e+000 9.648424e-001 3.515759e-002 0.000000e+000
 0.000000e+000 0.000000e+000 0.000000e+000 9.129859e-001 8.701409e-002
 0.000000e+000 0.000000e+000 0.000000e+000 0.000000e+000 0.000000e+000
<ENDHMM>
~h "CP"
<BEGINHMM>
<NUMSTATES> 5
<STATE> 2
<MEAN> 23
 1.241863e+001 1.062022e+001 3.427434e+000 3.038961e+000 1.075582e+002 8.982288e+001 8.723529e+001 8.732236e+001 6.657934e+001 6.187979e+001 1.441685e+002 1.500059e+002 1.064737e+002 1.043300e+002 2.856114e+000 3.755051e+000 5.622209e+000 4.901339e+000 4.362157e+000 4.294058e+000 2.871590e+000 2.816244e+000 1.462568e+002
<VARIANCE> 23
 5.924323e+002 3.598854e+002 3.310851e+002 1.913555e+002 1.759420e+004 9.943349e+003 2.372331e+003 2.448623e+003 6.527787e+002 5.961804e+002 4.995220e+003 4.558289e+003 1.541577e+003 1.357185e+003 1.011306e+001 2.516900e+000 5.623779e+000 2.854307e+000 6.233075e+000 5.568051e+000 5.717588e+000 5.856073e+000 8.548898e+003
<GCONST> 1.666432e+002
<STATE> 3
<MEAN> 23
 8.825290e+000 9.205110e+000 2.103302e+000 2.130159e+000 5.044711e+001 4.643977e+001 6.493399e+001 6.709721e+001 6.540784e+001 6.236097e+001 1.382737e+002 1.401243e+002 1.032298e+002 1.028611e+002 3.072452e+000 4.360036e+000 6.580854e+000 5.370512e+000 5.733787e+000 5.626142e+000 3.495625e+000 3.321073e+000 1.164751e+002
<VARIANCE> 23
 7.555341e+001 7.749446e+001 7.947775e+000 7.565610e+000 6.436090e+002 6.104888e+002 3.165588e+002 3.924050e+002 1.347006e+002 1.422768e+002 6.581967e+002 7.009609e+002 9.418494e+001 9.825132e+001 1.161281e+001 4.358660e-001 2.593516e-001 2.423947e-001 8.811312e-001 1.978465e+000 5.238248e+000 5.181530e+000 1.101443e+003
<GCONST> 1.214056e+002
<STATE> 4
<MEAN> 23
 8.366052e+000 7.786153e+000 2.230715e+000 2.299576e+000 3.883541e+001 3.394606e+001 9.294802e+001 9.439067e+001 6.814823e+001 6.420445e+001 1.869962e+002 1.882180e+002 1.188409e+002 1.183833e+002 6.575941e+000 4.905793e+000 6.338848e+000 5.567616e+000 5.995383e+000 5.893459e+000 3.774414e+000 3.559970e+000 1.401015e+002
<VARIANCE> 23
 7.443204e+001 6.750677e+001 6.566769e+000 6.981103e+000 1.210858e+003 7.011472e+002 4.732056e+002 3.518374e+002 1.089304e+002 1.094221e+002 6.339990e+002 5.161595e+002 1.698824e+002 1.249082e+002 2.705993e+000 1.098268e-001 2.605648e-001 2.570907e-001 1.135194e-001 2.219186e-001 5.661347e+000 5.705666e+000 1.158467e+003
<GCONST> 1.152722e+002
<TRANSP> 5
 0.000000e+000 1.000000e+000 0.000000e+000 0.000000e+000 0.000000e+000
 0.000000e+000 7.425542e-001 2.574458e-001 0.000000e+000 0.000000e+000
 0.000000e+000 0.000000e+000 9.429399e-001 5.706013e-002 0.000000e+000
 0.000000e+000 0.000000e+000 0.000000e+000 9.273191e-001 7.268089e-002
 0.000000e+000 0.000000e+000 0.000000e+000 0.000000e+000 0.000000e+000
<ENDHMM>
~h "CV"
<BEGINHMM>
<NUMSTATES> 5
<STATE> 2
<MEAN> 23
 1.455090e+001 1.465091e+001 3.447109e+000 3.363625e+000 7.080312e+001 6.568218e+001 7.840217e+001 7.638653e+001 6.515914e+001 5.947534e+001 1.424197e+002 1.424684e+002 1.112660e+002 1.103227e+002 4.468512e+000 4.224298e+000 5.958218e+000 5.569291e+000 4.960119e+000 4.838312e+000 2.782115e+000 2.483373e+000 1.115722e+002
<VARIANCE> 23
 5.280566e+002 4.365707e+002 2.408935e+002 1.549927e+002 7.401924e+003 5.341072e+003 1.003827e+003 8.711417e+002 1.660676e+002 1.126045e+002 3.423898e+003 2.873952e+003 3.260956e+002 2.850619e+002 9.179910e+000 1.229571e+000 2.298261e+000 5.851809e-001 2.220399e+000 4.759126e+000 3.717514e+000 3.986620e+000 2.020932e+003
<GCONST> 1.490843e+002
<STATE> 3
<MEAN> 23
 8.203431e+000 8.276857e+000 1.830051e+000 1.978526e+000 1.317414e+002 1.304723e+002 7.543555e+001 7.506449e+001 6.494480e+001 6.166772e+001 5.436161e+001 5.625099e+001 1.039280e+002 1.045046e+002 1.478989e+000 2.493681e+000 6.000887e+000 5.136295e+000 2.938813e+000 1.184671e+000 3.482132e+000 3.379113e+000 6.092781e+001
<VARIANCE> 23
 1.235168e+002 1.142217e+002 7.683108e+000 9.212714e+000 2.243258e+003 1.800560e+003 6.889249e+002 7.443815e+002 1.019441e+002 9.566146e+001 3.849605e+002 3.809106e+002 1.830607e+002 1.493250e+002 3.763464e-001 3.793755e-001 4.574912e+000 5.292637e-001 4.245325e-001 5.023401e-001 5.662334e+000 5.946347e+000 6.919777e+002
<GCONST> 1.231902e+002
<STATE> 4
<MEAN> 23
 1.318735e+001 1.286075e+001 3.026037e+000 2.870797e+000 4.099851e+001 3.609933e+001 7.715329e+001 7.965242e+001 6.586109e+001 5.926794e+001 1.636170e+002 1.708315e+002 1.126660e+002 1.117819e+002 5.476231e+000 4.726266e+000 6.202923e+000 5.787272e+000 5.523693e+000 5.801123e+000 4.340050e+000 4.194655e+000 1.141607e+002
<VARIANCE> 23
 1.938665e+002 2.089495e+002 1.313155e+001 1.163919e+001 1.289961e+003 9.786947e+002 1.080841e+003 8.728209e+002 1.147914e+002 7.599652e+001 2.233259e+003 1.537435e+003 2.013320e+002 1.542946e+002 7.033947e+000 6.175396e-001 1.819836e-001 1.723262e-001 8.431112e-001 1.850163e+000 6.278188e+000 5.035732e+000 2.158569e+003
<GCONST> 1.297643e+002
<TRANSP> 5
 0.000000e+000 1.000000e+000 0.000000e+000 0.000000e+000 0.000000e+000
 0.000000e+000 8.313019e-001 1.686981e-001 0.000000e+000 0.000000e+000
 0.000000e+000 0.000000e+000 9.542630e-001 4.573705e-002 0.000000e+000
 0.000000e+000 0.000000e+000 0.000000e+000 8.988962e-001 1.011038e-001
 0.000000e+000 0.000000e+000 0.000000e+000 0.000000e+000 0.000000e+000
<ENDHMM>
~h "DC"
<BEGINHMM>
<NUMSTATES> 5
<STATE> 2
<MEAN> 23
 1.292185e+001 1.268495e+001 3.730600e+000 3.810320e+000 8.400742e+001 7.896104e+001 6.860175e+001 6.795255e+001 6.574459e+001 6.151565e+001 1.408632e+002 1.418527e+002 1.103763e+002 1.086818e+002 4.248310e+000 4.082165e+000 6.028430e+000 5.620834e+000 5.055477e+000 4.878767e+000 2.556255e+000 2.097147e+000 9.426177e+001
<VARIANCE> 23
 5.039133e+002 4.123724e+002 3.721402e+002 2.444727e+002 1.222566e+004 8.382861e+003 1.204706e+003 1.045820e+003 2.218193e+002 1.729772e+002 3.020943e+003 2.759189e+003 5.417642e+002 4.622914e+002 9.604161e+000 1.891412e+000 1.215747e+000 9.127155e-001 1.898903e+000 6.061072e+000 3.159534e+000 3.415028e+000 2.387814e+003
<GCONST> 1.529512e+002
<STATE> 3
<MEAN> 23
 1.127124e+001 1.195993e+001 1.840010e+000 1.953792e+000 1.208259e+002 1.174575e+002 4.607732e+001 4.809548e+001 6.533032e+001 6.273100e+001 7.276983e+001 7.368632e+001 9.935246e+001 1.000045e+002 1.926425e+000 2.176967e+000 5.971704e+000 5.885079e+000 3.773190e+000 6.573373e-001 2.778683e+000 2.604741e+000 3.199215e+001
<VARIANCE> 23
 2.079434e+002 2.295294e+002 1.213976e+001 1.067077e+001 1.497319e+003 1.264402e+003 6.174282e+002 6.190340e+002 9.267133e+001 1.215122e+002 4.688777e+002 5.153500e+002 1.420014e+002 1.422207e+002 7.521195e-001 9.083171e-001 2.900437e-001 3.597084e-001 3.011145e-001 2.277923e+000 5.517636e+000 5.759386e+000 5.613735e+002
<GCONST> 1.236244e+002
<STATE> 4
<MEAN> 23
 1.355866e+001 1.304781e+001 3.046850e+000 2.792087e+000 3.906552e+001 3.569962e+001 7.674396e+001 7.643777e+001 6.492480e+001 6.024290e+001 1.681692e+002 1.693732e+002 1.105418e+002 1.105636e+002 5.894825e+000 4.870674e+000 6.238658e+000 5.750375e+000 5.658590e+000 6.080739e+000 4.257432e+000 4.096733e+000 1.069938e+002
<VARIANCE> 23
 2.112942e+002 2.181684e+002 1.218868e+001 1.086977e+001 1.199051e+003 9.582081e+002 1.051213e+003 8.850547e+002 1.057936e+002 9.904893e+001 1.457378e+003 1.339453e+003 1.724242e+002 1.490645e+002 5.586123e+000 4.487035e-001 2.122330e-001 2.085801e-001 4.632098e-001 9.117561e-001 7.174529e+000 4.312238e+000 2.155344e+003
<GCONST> 1.275369e+002
<TRANSP> 5
 0.000000e+000 1.000000e+000 0.000000e+000 0.000000e+000 0.000000e+000
 0.000000e+000 8.688522e-001 1.311477e-001 0.000000e+000 0.000000e+000
 0.000000e+000 0.000000e+000 9.576567e-001 4.234328e-002 0.000000e+000
 0.000000e+000 0.000000e+000 0.000000e+000 8.960032e-001 1.039967e-001
 0.000000e+000 0.000000e+000 0.000000e+000 0.000000e+000 0.000000e+000
<ENDHMM>
~h "FM"
<BEGINHMM>
<NUMSTATES> 5
<STATE> 2
<MEAN> 23
 8.150316e+000 3.488422e+000 2.739723e+000 1.511435e+000 6.058850e+001 1.698730e+001 6.517084e+001 9.175613e+001 9.339806e+001 6.046007e+001 1.413296e+002 1.871879e+002 1.133461e+002 1.164549e+002 2.291449e+000 4.823684e+000 6.523327e+000 5.823327e+000 5.308063e+000 6.010294e+000 3.074154e+000 2.021277e+000 1.340241e+002
<VARIANCE> 23
 3.458977e+002 3.167558e+002 2.409019e+002 1.552376e+002 1.048708e+003 5.644290e+002 7.682416e+002 6.525504e+002 4.922976e+002 1.282261e+002 1.219420e+003 1.311370e+003 2.096398e+002 1.734556e+002 1.025778e+001 2.334383e-001 3.287281e-001 1.707999e-001 4.245185e-001 5.014261e-001 6.466322e+000 5.603149e+000 1.013864e+003
<GCONST> 1.336178e+002
<STATE> 3
<MEAN> 23
 1.469556e+000 7.361581e+000 5.906953e-001 2.070151e+000 1.030196e+001 5.674411e+001 9.530730e+001 6.501485e+001 5.802594e+001 8.636079e+001 1.925921e+002 1.393676e+002 1.147359e+002 1.065753e+002 6.972918e+000 4.273064e+000 6.060271e+000 5.334444e+000 5.994879e+000 6.437409e+000 1.740391e+000 3.202942e+000 1.348593e+002
<VARIANCE> 23
 9.087609e+000 5.856384e+001 3.300596e+000 9.451632e+000 3.496718e+002 6.205527e+002 2.562556e+002 5.779628e+002 7.648443e+001 3.500762e+002 4.893032e+002 9.681857e+002 1.692369e+002 1.591089e+002 1.756842e-001 2.766456e-001 7.197187e-002 2.337979e-001 2.082488e-002 6.021774e-001 5.699199e+000 5.752011e+000 5.585762e+002
<GCONST> 1.079739e+002
<STATE> 4
<MEAN> 23
 4.538748e+000 5.484824e+000 1.190427e+000 1.694684e+000 8.390694e+001 7.692178e+001 6.066045e+001 5.455682e+001 6.623851e+001 6.221326e+001 1.366016e+002 1.216092e+002 9.924570e+001 9.653175e+001 3.803512e+000 3.571647e+000 5.809106e+000 5.184714e+000 4.951697e+000 4.254532e+000 2.259159e+000 2.555195e+000 9.547012e+001
<VARIANCE> 23
 6.867419e+001 7.392661e+001 5.030080e+000 9.653401e+000 2.015847e+004 1.133791e+004 1.518553e+003 1.235183e+003 7.154192e+002 6.242825e+002 3.492040e+003 2.961217e+003 1.092718e+003 9.657808e+002 1.058564e+001 2.626673e+000 3.079419e+000 2.410862e+000 2.565702e+000 8.721851e+000 5.896628e+000 6.573566e+000 2.889397e+003
<GCONST> 1.514728e+002
<TRANSP> 5
 0.000000e+000 1.000000e+000 0.000000e+000 0.000000e+000 0.000000e+000
 0.000000e+000 8.983588e-001 1.016412e-001 0.000000e+000 0.000000e+000
 0.000000e+000 0.000000e+000 9.541172e-001 4.588279e-002 0.000000e+000
 0.000000e+000 0.000000e+000 0.000000e+000 8.346702e-001 1.653298e-001
 0.000000e+000 0.000000e+000 0.000000e+000 0.000000e+000 0.000000e+000
<ENDHMM>
~h "FN"
<BEGINHMM>
<NUMSTATES> 5
<STATE> 2
<MEAN> 23
 7.701762e+000 1.358050e+001 3.363850e+000 4.063812e+000 8.379163e+001 1.020359e+002 8.690952e+001 8.153343e+001 6.411825e+001 6.189557e+001 1.559584e+002 1.224470e+002 1.054980e+002 1.039647e+002 5.252570e+000 3.691453e+000 5.543778e+000 5.119691e+000 5.174540e+000 4.072285e+000 2.393265e+000 2.372256e+000 1.248490e+002
<VARIANCE> 23
 1.044132e+003 7.863491e+002 8.038102e+002 4.740576e+002 2.241209e+004 1.316506e+004 1.321205e+003 1.313535e+003 4.055454e+002 3.052835e+002 4.559995e+003 5.556979e+003 1.028067e+003 7.089389e+002 6.843669e+000 2.572547e+000 3.288157e+000 2.384567e+000 2.287909e+000 7.010662e+000 6.158762e+000 4.645139e+000 3.568835e+003
<GCONST> 1.641196e+002
<STATE> 3
<MEAN> 23
 1.275614e+000 1.225268e+001 5.476674e-001 3.043598e+000 9.281995e+000 1.594809e+002 9.164124e+001 1.010126e+002 5.809273e+001 6.848669e+001 1.883550e+002 4.046289e+001 1.125023e+002 9.745569e+001 6.928472e+000 2.260551e+000 6.043180e+000 4.438700e+000 5.958760e+000 1.362941e+000 1.515296e+000 3.421036e+000 1.856278e+002
<VARIANCE> 23
 8.238986e+000 2.115774e+002 3.300596e+000 1.759897e+001 5.077696e+002 2.170624e+003 2.594927e+002 9.505505e+002 5.911035e+001 1.591057e+002 7.128038e+002 1.183221e+003 1.465845e+002 2.353989e+002 3.385837e-001 3.447574e-001 1.773307e-001 1.417631e+000 1.081969e-001 1.091805e+000 5.155912e+000 5.413707e+000 1.411827e+003
<GCONST> 1.182853e+002
<STATE> 4
<MEAN> 23
 8.150943e+000 6.257801e+000 2.215665e+000 1.617045e+000 7.908310e+001 2.731827e+001 9.368723e+001 8.236971e+001 6.928835e+001 5.895580e+001 1.162975e+002 1.735129e+002 1.066017e+002 1.132826e+002 4.074184e+000 4.618362e+000 4.984878e+000 5.789139e+000 4.429518e+000 5.486594e+000 3.121433e+000 2.723818e+000 1.438539e+002
<VARIANCE> 23
 1.432928e+002 1.367953e+002 1.125877e+001 6.101536e+000 5.749304e+003 8.948542e+002 1.343510e+003 9.613037e+002 1.986153e+002 9.000913e+001 6.021176e+003 1.977753e+003 3.302084e+002 1.694034e+002 7.175724e+000 9.739076e-001 5.606736e+000 1.843923e-001 2.517431e+000 3.349211e+000 6.583306e+000 6.727870e+000 3.839005e+003
<GCONST> 1.390784e+002
<TRANSP> 5
 0.000000e+000 1.000000e+000 0.000000e+000 0.000000e+000 0.000000e+000
 0.000000e+000 7.849748e-001 2.150253e-001 0.000000e+000 0.000000e+000
 0.000000e+000 0.000000e+000 9.394425e-001 6.055748e-002 0.000000e+000
 0.000000e+000 0.000000e+000 0.000000e+000 9.419861e-001 5.801394e-002
 0.000000e+000 0.000000e+000 0.000000e+000 0.000000e+000 0.000000e+000
<ENDHMM>
~h "FU"
<BEGINHMM>
<NUMSTATES> 5
<STATE> 2
<MEAN> 23
 9.167438e+000 3.556604e+000 2.358522e+000 1.095201e+000 1.125222e+002 2.542248e+001 1.007137e+002 8.909135e+001 6.456667e+001 5.558851e+001 7.583556e+001 1.812458e+002 1.014414e+002 1.115081e+002 3.252173e+000 4.835724e+000 3.874139e+000 5.795525e+000 3.714912e+000 5.835209e+000 3.103140e+000 2.074972e+000 1.672033e+002
<VARIANCE> 23
 2.172667e+002 5.376543e+001 1.330928e+001 3.314811e+000 6.278912e+003 1.299252e+003 9.402349e+002 4.166847e+002 1.802687e+002 6.514022e+001 5.466486e+003 1.265220e+003 2.674483e+002 1.533740e+002 5.439778e+000 3.550801e-001 7.638678e+000 2.175851e-001 2.260477e+000 9.833572e-001 6.313221e+000 5.433163e+000 2.254667e+003
<GCONST> 1.331800e+002
<STATE> 3
<MEAN> 23
 1.368047e+000 8.565715e+000 5.926421e-001 2.018732e+000 7.805806e+000 1.638393e+002 8.986269e+001 1.027977e+002 5.612702e+001 6.267727e+001 1.857929e+002 3.072418e+001 1.105345e+002 9.544533e+001 6.953665e+000 2.152300e+000 6.060731e+000 4.286566e+000 5.971567e+000 1.362354e+000 1.614198e+000 2.807133e+000 1.841750e+002
<VARIANCE> 23
 9.628118e+000 1.839858e+002 3.300596e+000 8.123669e+000 3.270367e+002 1.839810e+003 2.607190e+002 6.911002e+002 7.060474e+001 1.671409e+002 6.377758e+002 9.688221e+002 1.780504e+002 1.665231e+002 2.372126e-001 2.789735e-001 8.961431e-002 2.042246e+000 7.722054e-002 8.749038e-001 5.450147e+000 6.423698e+000 1.134576e+003
<GCONST> 1.149373e+002
<STATE> 4
<MEAN> 23
 4.559427e+000 1.361762e+001 1.599303e+000 3.427951e+000 7.189063e+001 7.746370e+001 8.537051e+001 7.177439e+001 5.811132e+001 5.813347e+001 1.613987e+002 1.419895e+002 1.065703e+002 1.006049e+002 5.641188e+000 4.161808e+000 5.615341e+000 5.328137e+000 5.203566e+000 4.949448e+000 2.561642e+000 3.535233e+000 1.116718e+002
<VARIANCE> 23
 1.905032e+002 3.938563e+002 9.531635e+001 8.040962e+001 2.001306e+004 1.164642e+004 1.319665e+003 1.349684e+003 3.412027e+002 3.946846e+002 5.098398e+003 4.000110e+003 1.093644e+003 9.784669e+002 5.861749e+000 2.540632e+000 2.717188e+000 2.285311e+000 2.644553e+000 5.710228e+000 6.760166e+000 6.013713e+000 3.317942e+003
<GCONST> 1.576793e+002
<TRANSP> 5
 0.000000e+000 1.000000e+000 0.000000e+000 0.000000e+000 0.000000e+000
 0.000000e+000 9.294632e-001 7.053678e-002 0.000000e+000 0.000000e+000
 0.000000e+000 0.000000e+000 9.401227e-001 5.987729e-002 0.000000e+000
 0.000000e+000 0.000000e+000 0.000000e+000 8.620217e-001 1.379783e-001
 0.000000e+000 0.000000e+000 0.000000e+000 0.000000e+000 0.000000e+000
<ENDHMM>
~h "MC"
<BEGINHMM>
<NUMSTATES> 5
<STATE> 2
<MEAN> 23
 1.006964e+001 1.094242e+001 4.208911e+000 3.173752e+000 6.901806e+001 5.045508e+001 7.812521e+001 8.130917e+001 7.668903e+001 6.609119e+001 1.408543e+002 1.558257e+002 1.145189e+002 1.152628e+002 4.063892e+000 4.189739e+000 6.328265e+000 5.820186e+000 4.891528e+000 4.641223e+000 2.959578e+000 2.433300e+000 1.284514e+002
<VARIANCE> 23
 6.181733e+002 9.532597e+002 5.079980e+002 2.980395e+002 3.550253e+003 3.284755e+003 1.464304e+003 1.109767e+003 4.136273e+002 1.994377e+002 4.839360e+003 3.655775e+003 5.869341e+002 2.849689e+002 8.445603e+000 1.609617e+000 4.260950e-001 2.316328e-001 1.421132e+000 6.485974e+000 6.243404e+000 5.336313e+000 2.948873e+003
<GCONST> 1.521050e+002
<STATE> 3
<MEAN> 23
 1.570287e+000 9.647240e+000 6.548187e-001 2.860205e+000 8.003952e+000 1.014737e+002 9.251642e+001 6.019095e+001 5.670900e+001 7.943291e+001 1.888855e+002 8.799066e+001 1.126480e+002 9.936448e+001 6.984355e+000 3.087360e+000 6.052312e+000 5.632071e+000 5.994093e+000 2.392980e+000 1.862101e+000 3.232390e+000 1.392314e+002
<VARIANCE> 23
 8.550838e+000 9.213020e+001 3.300596e+000 1.180034e+001 1.498367e+002 2.282040e+003 2.464486e+002 8.394535e+002 7.777257e+001 4.235858e+002 4.787998e+002 2.299453e+003 1.436069e+002 2.393506e+002 7.661806e-002 1.285643e+000 5.392639e-002 3.529363e-001 2.082488e-002 8.476207e+000 5.802147e+000 5.148126e+000 1.211276e+003
<GCONST> 1.148269e+002
<STATE> 4
<MEAN> 23
 7.512894e+000 4.619093e+000 2.234683e+000 1.585706e+000 7.835925e+001 3.877099e+001 6.035538e+001 7.445343e+001 7.393348e+001 6.002535e+001 1.101731e+002 1.557992e+002 1.047790e+002 1.081105e+002 2.995592e+000 4.255038e+000 6.164602e+000 5.698597e+000 4.513275e+000 5.039619e+000 3.062410e+000 2.729800e+000 1.136568e+002
<VARIANCE> 23
 7.886008e+001 6.065713e+001 9.303239e+000 7.366784e+000 6.182732e+003 3.802860e+003 8.787100e+002 1.080695e+003 3.904437e+002 1.990177e+002 3.198066e+003 2.939954e+003 3.297563e+002 2.569102e+002 7.216034e+000 1.493178e+000 5.617764e-001 4.542436e-001 1.448285e+000 5.554583e+000 6.062203e+000 6.181335e+000 2.075586e+003
<GCONST> 1.387305e+002
<TRANSP> 5
 0.000000e+000 1.000000e+000 0.000000e+000 0.000000e+000 0.000000e+000
 0.000000e+000 7.490257e-001 2.509743e-001 0.000000e+000 0.000000e+000
 0.000000e+000 0.000000e+000 9.610377e-001 3.896232e-002 0.000000e+000
 0.000000e+000 0.000000e+000 0.000000e+000 9.224821e-001 7.751795e-002
 0.000000e+000 0.000000e+000 0.000000e+000 0.000000e+000 0.000000e+000
<ENDHMM>
~h "NU"
<BEGINHMM>
<NUMSTATES> 5
<STATE> 2
<MEAN> 23
 6.028562e+000 9.378034e+000 2.289643e+000 2.190977e+000 1.968877e+002 1.635073e+002 6.971860e+001 6.162356e+001 5.459254e+001 4.888074e+001 1.257901e+002 1.107979e+002 8.685065e+001 8.935649e+001 3.896428e+000 3.165076e+000 4.569177e+000 4.337893e+000 4.008908e+000 3.249906e+000 1.925064e+000 1.911131e+000 1.046701e+002
<VARIANCE> 23
 5.753345e+002 1.043132e+003 4.140307e+002 2.622198e+002 5.288689e+004 2.985171e+004 2.539115e+003 1.745712e+003 1.036042e+003 8.100423e+002 8.184923e+003 6.463986e+003 3.075587e+003 2.579548e+003 1.017562e+001 3.990785e+000 7.800552e+000 5.837541e+000 6.042695e+000 7.948216e+000 5.815516e+000 5.106322e+000 6.244846e+003
<GCONST> 1.744913e+002
<STATE> 3
<MEAN> 23
 1.376058e+000 8.534902e+000 5.387849e-001 2.391583e+000 1.101222e+001 9.372005e+001 9.175748e+001 7.166288e+001 5.818962e+001 6.368476e+001 1.886881e+002 9.846491e+001 1.130118e+002 1.047651e+002 6.953314e+000 3.394227e+000 6.076936e+000 5.319128e+000 5.964335e+000 2.877830e+000 1.577169e+000 3.170340e+000 1.479388e+002
<VARIANCE> 23
 8.663791e+000 1.288264e+002 3.300596e+000 1.040187e+001 4.534330e+002 2.621245e+003 2.880904e+002 7.080351e+002 5.976327e+001 1.251953e+002 5.996317e+002 2.623814e+003 1.613878e+002 1.743783e+002 2.418468e-001 1.059104e+000 8.767459e-002 3.944779e-001 7.576489e-002 6.018075e+000 5.314033e+000 5.686429e+000 1.266402e+003
<GCONST> 1.175136e+002
<STATE> 4
<MEAN> 23
 7.099355e+000 4.555731e+000 2.066476e+000 1.520540e+000 7.309794e+001 3.908056e+001 7.446914e+001 7.961143e+001 7.021358e+001 5.689419e+001 1.131212e+002 1.528662e+002 1.088277e+002 1.096636e+002 2.812599e+000 4.145900e+000 6.254118e+000 5.695798e+000 4.170757e+000 4.490108e+000 3.057428e+000 2.631099e+000 1.254853e+002
<VARIANCE> 23
 8.941924e+001 5.504982e+001 7.903482e+000 5.961655e+000 3.157414e+003 2.228538e+003 1.206708e+003 1.094042e+003 2.101390e+002 6.481711e+001 3.590781e+003 3.350589e+003 2.382331e+002 2.084183e+002 7.246975e+000 1.518421e+000 1.997699e+000 2.740822e-001 2.516296e+000 5.950429e+000 6.305660e+000 6.261327e+000 3.939423e+003
<GCONST> 1.375773e+002
<TRANSP> 5
 0.000000e+000 1.000000e+000 0.000000e+000 0.000000e+000 0.000000e+000
 0.000000e+000 6.529385e-001 3.470615e-001 0.000000e+000 0.000000e+000
 0.000000e+000 0.000000e+000 9.518412e-001 4.815880e-002 0.000000e+000
 0.000000e+000 0.000000e+000 0.000000e+000 9.144705e-001 8.552950e-002
 0.000000e+000 0.000000e+000 0.000000e+000 0.000000e+000 0.000000e+000
<ENDHMM>
~h "OK"
<BEGINHMM>
<NUMSTATES> 5
<STATE> 2
<MEAN> 23
 1.289365e+001 6.729738e+000 4.021185e+000 2.375733e+000 9.461794e+001 4.800944e+001 1.003637e+002 8.613627e+001 7.832555e+001 5.784616e+001 1.049549e+002 1.598565e+002 1.084490e+002 1.126796e+002 3.131202e+000 4.290460e+000 4.600809e+000 5.639307e+000 4.027422e+000 4.902690e+000 3.441860e+000 2.579397e+000 1.635035e+002
<VARIANCE> 23
 5.596657e+002 4.246458e+002 3.361522e+002 2.008613e+002 5.511831e+003 3.394664e+003 1.489585e+003 6.844425e+002 2.779755e+002 1.283792e+002 5.348334e+003 3.879132e+003 5.962506e+002 2.251607e+002 6.932929e+000 1.371124e+000 8.102573e+000 4.745008e-001 2.633516e+000 4.661315e+000 6.362404e+000 6.053076e+000 4.019772e+003
<GCONST> 1.535435e+002
<STATE> 3
<MEAN> 23
 1.774467e+000 1.172564e+001 7.604901e-001 2.930867e+000 1.072462e+001 1.066981e+002 9.241451e+001 9.365171e+001 5.733821e+001 6.876906e+001 1.915005e+002 9.960928e+001 1.143427e+002 1.062268e+002 6.973068e+000 3.406116e+000 6.051327e+000 4.985276e+000 5.986703e+000 3.249120e+000 1.959415e+000 3.407340e+000 1.646108e+002
<VARIANCE> 23
 1.073370e+001 2.294981e+002 3.300596e+000 1.345688e+001 3.028478e+002 4.441931e+003 2.357721e+002 7.708367e+002 7.099281e+001 2.042225e+002 4.585527e+002 4.314754e+003 1.398453e+002 1.868331e+002 1.409082e-001 1.451853e+000 6.199457e-002 6.902393e-001 3.102124e-002 5.314286e+000 5.988790e+000 5.739825e+000 1.835219e+003
<GCONST> 1.188582e+002
<STATE> 4
<MEAN> 23
 1.020429e+001 3.435060e+000 2.725896e+000 1.062313e+000 1.024586e+002 3.764991e+001 8.638138e+001 7.760220e+001 6.674825e+001 5.294506e+001 1.020209e+002 1.680951e+002 1.025853e+002 1.082134e+002 3.155590e+000 4.474707e+000 4.946002e+000 5.643961e+000 3.819597e+000 5.401366e+000 3.035764e+000 2.294909e+000 1.381986e+002
<VARIANCE> 23
 2.045187e+002 4.873537e+001 1.480087e+001 3.722721e+000 1.117842e+004 6.502444e+003 1.368447e+003 1.099245e+003 3.454311e+002 1.835706e+002 4.967697e+003 2.783169e+003 7.398318e+002 6.594263e+002 7.603908e+000 1.678826e+000 7.721674e+000 1.494818e+000 3.566099e+000 3.887423e+000 6.216592e+000 6.218682e+000 3.647087e+003
<GCONST> 1.478886e+002
<TRANSP> 5
 0.000000e+000 1.000000e+000 0.000000e+000 0.000000e+000 0.000000e+000
 0.000000e+000 8.028837e-001 1.971163e-001 0.000000e+000 0.000000e+000
 0.000000e+000 0.000000e+000 9.416916e-001 5.830833e-002 0.000000e+000
 0.000000e+000 0.000000e+000 0.000000e+000 8.816622e-001 1.183377e-001
 0.000000e+000 0.000000e+000 0.000000e+000 0.000000e+000 0.000000e+000
<ENDHMM>
~h "PF"
<BEGINHMM>
<NUMSTATES> 5
<STATE> 2
<MEAN> 23
 6.965106e+000 1.358933e+001 3.115689e+000 4.168805e+000 8.934521e+001 1.077322e+002 8.643336e+001 9.243153e+001 6.482783e+001 6.749327e+001 1.600483e+002 1.313790e+002 1.060215e+002 1.035090e+002 5.223439e+000 3.862766e+000 5.699851e+000 5.107991e+000 5.369455e+000 4.372677e+000 2.408206e+000 2.526875e+000 1.369586e+002
<VARIANCE> 23
 7.944083e+002 7.466386e+002 6.217092e+002 4.100714e+002 2.506621e+004 1.491831e+004 9.064045e+002 2.176881e+003 3.343873e+002 4.913717e+002 3.312755e+003 4.369609e+003 5.737794e+002 5.136006e+002 7.685583e+000 2.062787e+000 2.553632e+000 1.906349e+000 1.796709e+000 5.914398e+000 5.920493e+000 4.239817e+000 3.738046e+003
<GCONST> 1.614978e+002
<STATE> 3
<MEAN> 23
 1.360909e+000 1.418400e+001 6.263985e-001 3.968301e+000 1.027937e+001 1.744673e+002 9.284709e+001 1.284731e+002 5.831620e+001 8.393944e+001 1.889098e+002 6.464951e+001 1.134920e+002 9.380874e+001 6.926421e+000 2.586570e+000 6.062484e+000 3.802957e+000 5.960923e+000 1.968071e+000 1.736238e+000 3.540579e+000 2.155901e+002
<VARIANCE> 23
 8.080040e+000 3.064985e+002 3.300596e+000 2.291806e+001 5.882201e+002 2.891979e+003 3.187818e+002 1.133987e+003 7.361907e+001 2.679776e+002 7.309560e+002 1.525219e+003 1.569537e+002 2.248757e+002 3.934124e-001 5.028547e-001 2.436448e-001 8.607463e-001 1.070274e-001 1.580579e+000 5.902337e+000 4.577062e+000 1.779259e+003
<GCONST> 1.216633e+002
<STATE> 4
<MEAN> 23
 8.722055e+000 5.215394e+000 2.750977e+000 1.800539e+000 9.229684e+001 2.537953e+001 1.142155e+002 8.873089e+001 7.681306e+001 5.812739e+001 1.279079e+002 1.813884e+002 1.061239e+002 1.145594e+002 3.823721e+000 4.710453e+000 4.042200e+000 5.732730e+000 4.086034e+000 5.538394e+000 3.085617e+000 2.739577e+000 1.700148e+002
<VARIANCE> 23
 1.717269e+002 8.858383e+001 1.772600e+001 8.418219e+000 6.967628e+003 8.704138e+002 2.023435e+003 7.556882e+002 4.220161e+002 8.694077e+001 4.667817e+003 1.525204e+003 3.468785e+002 1.459042e+002 7.889533e+000 7.125580e-001 7.540075e+000 2.097391e-001 3.649167e+000 2.674110e+000 6.820107e+000 6.639198e+000 5.193826e+003
<GCONST> 1.407164e+002
<TRANSP> 5
 0.000000e+000 1.000000e+000 0.000000e+000 0.000000e+000 0.000000e+000
 0.000000e+000 7.685193e-001 2.314806e-001 0.000000e+000 0.000000e+000
 0.000000e+000 0.000000e+000 9.416873e-001 5.831262e-002 0.000000e+000
 0.000000e+000 0.000000e+000 0.000000e+000 9.362568e-001 6.374319e-002
 0.000000e+000 0.000000e+000 0.000000e+000 0.000000e+000 0.000000e+000
<ENDHMM>
~h "PR"
<BEGINHMM>
<NUMSTATES> 5
<STATE> 2
<MEAN> 23
 8.721416e+000 8.977889e+000 3.695424e+000 3.621384e+000 1.003408e+002 9.836081e+001 7.675639e+001 7.533698e+001 6.555261e+001 5.767698e+001 1.324677e+002 1.217014e+002 9.880103e+001 9.628042e+001 3.406508e+000 3.362463e+000 5.266216e+000 4.812096e+000 4.330843e+000 3.326651e+000 2.269064e+000 2.417510e+000 1.314782e+002
<VARIANCE> 23
 9.826834e+002 7.781881e+002 7.107132e+002 4.680196e+002 2.263848e+004 1.406379e+004 2.036807e+003 2.140754e+003 7.555306e+002 5.538899e+002 5.626131e+003 4.240065e+003 1.635203e+003 1.438603e+003 9.845746e+000 2.760447e+000 6.327283e+000 3.296910e+000 4.656984e+000 7.015973e+000 5.974590e+000 6.061744e+000 6.263318e+003
<GCONST> 1.701617e+002
<STATE> 3
<MEAN> 23
 1.296014e+000 9.435796e+000 5.675595e-001 3.164790e+000 1.028825e+001 9.444606e+001 9.255025e+001 8.605167e+001 5.859402e+001 6.425531e+001 1.880680e+002 1.070533e+002 1.127012e+002 1.031811e+002 6.932782e+000 3.531539e+000 6.085566e+000 5.074098e+000 5.972078e+000 3.429100e+000 1.716859e+000 3.582542e+000 1.640077e+002
<VARIANCE> 23
 6.437698e+000 1.312773e+002 3.300596e+000 1.686893e+001 3.580637e+002 2.337913e+003 2.677856e+002 6.577633e+002 6.788567e+001 1.617625e+002 5.865185e+002 2.188117e+003 1.574542e+002 2.087669e+002 3.924694e-001 7.733248e-001 8.922300e-002 3.433499e-001 8.964666e-002 3.981970e+000 5.696331e+000 6.346794e+000 1.424747e+003
<GCONST> 1.176577e+002
<STATE> 4
<MEAN> 23
 9.096864e+000 3.046909e+000 2.560134e+000 1.122244e+000 6.772737e+001 1.985792e+001 8.340598e+001 8.552014e+001 7.130504e+001 5.652471e+001 1.169928e+002 1.783089e+002 1.073268e+002 1.115781e+002 2.850239e+000 4.747135e+000 6.254298e+000 5.779264e+000 3.957603e+000 5.844973e+000 3.321433e+000 2.338622e+000 1.468148e+002
<VARIANCE> 23
 1.300381e+002 3.044991e+001 1.182996e+001 3.579803e+000 2.525727e+003 5.111784e+002 9.130793e+002 7.237122e+002 2.092790e+002 6.438480e+001 3.131371e+003 1.345879e+003 2.479157e+002 1.524362e+002 8.213217e+000 3.825145e-001 2.442707e+000 1.883506e-001 3.664067e+000 1.188018e+000 6.016031e+000 6.153354e+000 2.196197e+003
<GCONST> 1.302208e+002
<TRANSP> 5
 0.000000e+000 1.000000e+000 0.000000e+000 0.000000e+000 0.000000e+000
 0.000000e+000 7.207223e-001 2.792777e-001 0.000000e+000 0.000000e+000
 0.000000e+000 0.000000e+000 9.507272e-001 4.927287e-002 0.000000e+000
 0.000000e+000 0.000000e+000 0.000000e+000 9.094580e-001 9.054199e-002
 0.000000e+000 0.000000e+000 0.000000e+000 0.000000e+000 0.000000e+000
<ENDHMM>
~h "SP"
<BEGINHMM>
<NUMSTATES> 5
<STATE> 2
<MEAN> 23
 7.652382e+000 1.573495e+001 4.359009e+000 5.680067e+000 9.512212e+001 1.017112e+002 7.905098e+001 7.417459e+001 5.669005e+001 5.670232e+001 1.460824e+002 1.243724e+002 9.712435e+001 9.299224e+001 5.119605e+000 3.637057e+000 5.038089e+000 4.613006e+000 4.818501e+000 4.326635e+000 1.946111e+000 1.971661e+000 1.204446e+002
<VARIANCE> 23
 1.774958e+003 1.327101e+003 1.431585e+003 8.700850e+002 3.098675e+004 1.666381e+004 1.796367e+003 1.679867e+003 6.698464e+002 6.687392e+002 5.731204e+003 5.320947e+003 1.683900e+003 1.612315e+003 8.519391e+000 3.072007e+000 5.541291e+000 3.949588e+000 4.440204e+000 6.473712e+000 5.591459e+000 3.615041e+000 4.655416e+003
<GCONST> 1.721818e+002
<STATE> 3
<MEAN> 23
 1.198357e+000 1.015067e+001 5.061857e-001 3.650740e+000 1.110876e+001 1.840142e+002 9.457413e+001 1.334195e+002 6.129678e+001 9.016422e+001 1.875924e+002 5.629781e+001 1.127509e+002 9.310962e+001 6.787497e+000 2.315965e+000 6.103619e+000 3.475034e+000 5.969173e+000 1.631501e+000 1.590078e+000 2.966793e+000 2.217792e+002
<VARIANCE> 23
 7.410256e+000 2.381547e+002 3.300596e+000 2.733404e+001 5.973162e+002 2.586339e+003 3.880688e+002 8.913149e+002 1.269056e+002 4.728604e+002 8.359384e+002 7.707922e+002 2.019176e+002 2.341572e+002 1.331871e+000 3.491756e-001 3.156947e-001 6.098015e-001 1.344755e-001 9.695901e-001 5.432549e+000 6.020898e+000 1.644149e+003
<GCONST> 1.228378e+002
<STATE> 4
<MEAN> 23
 9.510841e+000 5.432049e+000 3.167034e+000 1.634406e+000 1.065050e+002 2.084622e+001 1.160169e+002 8.419071e+001 8.512078e+001 5.840751e+001 1.087489e+002 1.733447e+002 9.932869e+001 1.119970e+002 3.479564e+000 4.633428e+000 3.718994e+000 5.738537e+000 4.047444e+000 5.352654e+000 3.122199e+000 2.530922e+000 1.729039e+002
<VARIANCE> 23
 2.360307e+002 1.209132e+002 3.652569e+001 8.520340e+000 7.567767e+003 7.364620e+002 1.701802e+003 7.705785e+002 5.993344e+002 7.333290e+001 4.407619e+003 1.713815e+003 3.981969e+002 1.425817e+002 6.800937e+000 7.487319e-001 7.518357e+000 2.150328e-001 2.863623e+000 3.618282e+000 6.520729e+000 6.819424e+000 4.305611e+003
<GCONST> 1.419746e+002
<TRANSP> 5
 0.000000e+000 1.000000e+000 0.000000e+000 0.000000e+000 0.000000e+000
 0.000000e+000 7.148255e-001 2.851745e-001 0.000000e+000 0.000000e+000
 0.000000e+000 0.000000e+000 9.506321e-001 4.936788e-002 0.000000e+000
 0.000000e+000 0.000000e+000 0.000000e+000 9.378505e-001 6.214945e-002
 0.000000e+000 0.000000e+000 0.000000e+000 0.000000e+000 0.000000e+000
<ENDHMM>
~h "ST"
<BEGINHMM>
<NUMSTATES> 5
<STATE> 2
<MEAN> 23
 8.317455e+000 9.129336e+000 2.804255e+000 2.769446e+000 8.321076e+001 7.637946e+001 8.611890e+001 8.315740e+001 7.529650e+001 7.044662e+001 1.416042e+002 1.295888e+002 1.120191e+002 1.128328e+002 4.319569e+000 3.615677e+000 6.064909e+000 5.664864e+000 4.820220e+000 3.619652e+000 2.944863e+000 2.553780e+000 1.348281e+002
<VARIANCE> 23
 5.095599e+002 5.446436e+002 3.768050e+002 2.303470e+002 1.161541e+004 7.317076e+003 1.391514e+003 9.757187e+002 4.772533e+002 3.958325e+002 5.548755e+003 5.367915e+003 7.842567e+002 4.894717e+002 8.232755e+000 2.419433e+000 1.941044e+000 9.603438e-001 2.486290e+000 7.610859e+000 6.642255e+000 5.866279e+000 3.302158e+003
<GCONST> 1.590919e+002
<STATE> 3
<MEAN> 23
 1.319062e+000 1.072503e+001 5.196168e-001 2.185012e+000 9.316165e+000 1.118574e+002 9.184497e+001 6.795181e+001 5.842136e+001 7.945597e+001 1.900315e+002 7.687921e+001 1.138582e+002 1.053276e+002 6.975721e+000 2.752883e+000 6.061274e+000 5.843612e+000 5.990279e+000 1.866430e+000 1.545686e+000 2.999419e+000 1.423819e+002
<VARIANCE> 23
 8.005260e+000 1.579003e+002 3.300596e+000 8.827353e+000 2.771171e+002 2.699361e+003 2.168383e+002 6.078771e+002 5.242831e+001 3.232602e+002 4.598829e+002 2.963268e+003 1.246839e+002 1.325827e+002 1.270364e-001 1.501434e+000 6.262246e-002 3.602558e-001 2.082488e-002 6.643314e+000 5.146432e+000 5.820071e+000 1.028259e+003
<GCONST> 1.145843e+002
<STATE> 4
<MEAN> 23
 9.572807e+000 2.943946e+000 2.160055e+000 1.111765e+000 9.343683e+001 2.570934e+001 7.576543e+001 8.841496e+001 8.098229e+001 5.751252e+001 9.338284e+001 1.838895e+002 1.084558e+002 1.151489e+002 3.057654e+000 4.836406e+000 6.047131e+000 5.852909e+000 4.226646e+000 5.886679e+000 3.077495e+000 2.210887e+000 1.410161e+002
<VARIANCE> 23
 1.265946e+002 3.697463e+001 8.423553e+000 4.740757e+000 5.879167e+003 2.521806e+003 7.974226e+002 7.252327e+002 3.367823e+002 5.874387e+001 4.601487e+003 1.423194e+003 2.654476e+002 1.563731e+002 5.959363e+000 2.659469e-001 1.160683e+000 1.455316e-001 1.540894e+000 1.130745e+000 6.077012e+000 6.045654e+000 1.795378e+003
<GCONST> 1.307447e+002
<TRANSP> 5
 0.000000e+000 1.000000e+000 0.000000e+000 0.000000e+000 0.000000e+000
 0.000000e+000 7.976639e-001 2.023360e-001 0.000000e+000 0.000000e+000
 0.000000e+000 0.000000e+000 9.566035e-001 4.339656e-002 0.000000e+000
 0.000000e+000 0.000000e+000 0.000000e+000 9.103818e-001 8.961821e-002
 0.000000e+000 0.000000e+000 0.000000e+000 0.000000e+000 0.000000e+000
<ENDHMM>
~h "TT"
<BEGINHMM>
<NUMSTATES> 5
<STATE> 2
<MEAN> 23
 9.356808e+000 1.529660e+001 4.095643e+000 5.446472e+000 3.291093e+001 4.568482e+001 9.066869e+001 8.905552e+001 6.535082e+001 6.453917e+001 1.751183e+002 1.644137e+002 1.134982e+002 1.109483e+002 5.947330e+000 4.524885e+000 5.939261e+000 5.496640e+000 5.636431e+000 5.390595e+000 2.485245e+000 2.723388e+000 1.369064e+002
<VARIANCE> 23
 1.359897e+003 1.083230e+003 1.000861e+003 6.620157e+002 2.832860e+003 2.607333e+003 1.065443e+003 9.940986e+002 2.411040e+002 2.717614e+002 2.010229e+003 1.941486e+003 2.382648e+002 2.057140e+002 5.301032e+000 8.139158e-001 1.510983e+000 5.301852e-001 1.002792e+000 2.586752e+000 6.422831e+000 3.880850e+000 3.048577e+003
<GCONST> 1.500651e+002
<STATE> 3
<MEAN> 23
 1.818578e+000 1.767340e+001 8.181152e-001 5.967782e+000 1.298875e+001 1.962517e+002 9.559364e+001 1.593029e+002 6.035623e+001 1.150604e+002 1.907838e+002 9.923740e+001 1.146141e+002 9.800212e+001 6.888256e+000 2.737721e+000 6.087003e+000 3.547633e+000 5.963070e+000 2.210210e+000 1.929253e+000 3.751592e+000 2.476996e+002
<VARIANCE> 23
 1.394516e+001 3.701686e+002 3.443993e+000 5.379288e+001 6.948185e+002 4.714012e+003 4.470344e+002 1.612246e+003 1.509842e+002 7.916960e+002 7.319614e+002 1.378432e+003 2.015226e+002 3.398026e+002 6.693290e-001 6.573415e-001 2.585526e-001 7.758009e-001 1.119148e-001 2.125726e+000 5.864320e+000 5.545635e+000 2.890750e+003
<GCONST> 1.287698e+002
<STATE> 4
<MEAN> 23
 1.317327e+001 3.628098e+000 4.595110e+000 1.487404e+000 1.352302e+002 3.170109e+001 1.290282e+002 8.719969e+001 9.489395e+001 5.682093e+001 1.211447e+002 1.774279e+002 1.016386e+002 1.116928e+002 2.897008e+000 4.617645e+000 3.440633e+000 5.683298e+000 3.678084e+000 5.338287e+000 3.278234e+000 2.440263e+000 1.933043e+002
<VARIANCE> 23
 3.177798e+002 4.230696e+001 5.093856e+001 7.231817e+000 1.135447e+004 3.708658e+003 3.225859e+003 1.008590e+003 1.323281e+003 1.580106e+002 3.158848e+003 2.204626e+003 5.663297e+002 4.174796e+002 7.032463e+000 1.177132e+000 8.049729e+000 8.763416e-001 3.645996e+000 3.678205e+000 5.824085e+000 6.376728e+000 7.268831e+003
<GCONST> 1.497872e+002
<TRANSP> 5
 0.000000e+000 1.000000e+000 0.000000e+000 0.000000e+000 0.000000e+000
 0.000000e+000 7.390064e-001 2.609936e-001 0.000000e+000 0.000000e+000
 0.000000e+000 0.000000e+000 9.466844e-001 5.331558e-002 0.000000e+000
 0.000000e+000 0.000000e+000 0.000000e+000 9.422863e-001 5.771368e-002
 0.000000e+000 0.000000e+000 0.000000e+000 0.000000e+000 0.000000e+000
<ENDHMM>
~h "VA"
<BEGINHMM>
<NUMSTATES> 5
<STATE> 2
<MEAN> 23
 1.108775e+001 1.250978e+001 5.175784e+000 4.635602e+000 1.283371e+002 1.471939e+002 8.703742e+001 1.044706e+002 7.044011e+001 7.744385e+001 1.268236e+002 1.154172e+002 9.411617e+001 9.322540e+001 3.651841e+000 3.187871e+000 4.858532e+000 4.336010e+000 4.400623e+000 3.198299e+000 2.618294e+000 2.526742e+000 1.406766e+002
<VARIANCE> 23
 1.016681e+003 8.410302e+002 6.384900e+002 3.851655e+002 2.751219e+004 1.592625e+004 2.927305e+003 3.886013e+003 1.089623e+003 1.557991e+003 5.647504e+003 5.032081e+003 1.636260e+003 1.337505e+003 9.148433e+000 2.683662e+000 6.236682e+000 3.474193e+000 3.965327e+000 6.441824e+000 6.022882e+000 5.105930e+000 7.623324e+003
<GCONST> 1.724759e+002
<STATE> 3
<MEAN> 23
 2.206110e+000 1.681488e+001 1.101762e+000 6.104733e+000 1.140034e+001 1.645348e+002 9.109567e+001 1.281717e+002 5.660326e+001 1.011641e+002 1.870076e+002 8.852287e+001 1.127643e+002 8.770830e+001 6.911636e+000 2.850272e+000 6.050421e+000 4.088833e+000 5.948868e+000 2.566151e+000 2.084387e+000 3.581592e+000 2.087848e+002
<VARIANCE> 23
 1.667710e+001 3.178027e+002 6.321667e+000 4.361844e+001 5.342126e+002 6.467346e+003 3.516376e+002 2.840963e+003 1.079968e+002 6.767733e+002 7.693011e+002 2.112835e+003 1.824628e+002 4.575628e+002 4.698754e-001 9.921439e-001 1.983088e-001 1.573280e+000 1.161737e-001 4.579502e+000 6.120780e+000 5.258081e+000 4.006112e+003
<GCONST> 1.313771e+002
<STATE> 4
<MEAN> 23
 1.130247e+001 4.130392e+000 4.168688e+000 1.921469e+000 1.068774e+002 2.344314e+001 1.216843e+002 8.663209e+001 9.112289e+001 5.668693e+001 1.247631e+002 1.765296e+002 9.916816e+001 1.126529e+002 3.549573e+000 4.615307e+000 4.043169e+000 5.760110e+000 4.042017e+000 5.363346e+000 3.168560e+000 2.636055e+000 1.764579e+002
<VARIANCE> 23
 2.363166e+002 5.841414e+001 3.508915e+001 1.045788e+001 8.420635e+003 7.377109e+002 3.027056e+003 7.254796e+002 8.759713e+002 1.030115e+002 4.436002e+003 1.726196e+003 4.863707e+002 1.473173e+002 7.245554e+000 8.698679e-001 7.684768e+000 1.911639e-001 3.372604e+000 3.237947e+000 6.104918e+000 6.326327e+000 6.373500e+003
<GCONST> 1.434242e+002
<TRANSP> 5
 0.000000e+000 1.000000e+000 0.000000e+000 0.000000e+000 0.000000e+000
 0.000000e+000 7.305730e-001 2.694270e-001 0.000000e+000 0.000000e+000
 0.000000e+000 0.000000e+000 9.354423e-001 6.455775e-002 0.000000e+000
 0.000000e+000 0.000000e+000 0.000000e+000 9.336651e-001 6.633492e-002
 0.000000e+000 0.000000e+000 0.000000e+000 0.000000e+000 0.000000e+000
<ENDHMM>
~h "VQ"
<BEGINHMM>
<NUMSTATES> 5
<STATE> 2
<MEAN> 23
 1.831888e+001 1.591020e+001 8.696531e+000 7.592023e+000 8.451331e+001 6.334748e+001 1.007225e+002 9.344448e+001 7.319567e+001 6.052527e+001 1.405158e+002 1.475625e+002 1.081537e+002 1.099864e+002 4.380787e+000 4.171971e+000 4.917371e+000 5.412344e+000 4.617185e+000 4.693574e+000 3.162996e+000 2.681002e+000 1.667962e+002
<VARIANCE> 23
 2.997099e+003 2.332915e+003 2.271016e+003 1.495004e+003 9.744396e+003 7.327843e+003 1.703155e+003 1.008308e+003 3.671045e+002 1.789814e+002 5.546447e+003 4.265665e+003 6.744286e+002 3.163610e+002 8.220544e+000 1.708214e+000 6.563438e+000 9.372029e-001 3.132328e+000 4.629237e+000 6.608137e+000 5.424485e+000 5.551253e+003
<GCONST> 1.651863e+002
<STATE> 3
<MEAN> 23
 1.991179e+000 1.272467e+001 8.041950e-001 4.309175e+000 1.043867e+001 1.283594e+002 9.113631e+001 1.043768e+002 5.639212e+001 7.254533e+001 1.887124e+002 8.671293e+001 1.131798e+002 9.404240e+001 6.944967e+000 3.144494e+000 6.072099e+000 4.620471e+000 5.971062e+000 3.011706e+000 1.959746e+000 3.621518e+000 1.796987e+002
<VARIANCE> 23
 1.401284e+001 2.238289e+002 3.300596e+000 3.458523e+001 4.714572e+002 5.493671e+003 3.214094e+002 1.409943e+003 7.972284e+001 2.879112e+002 6.661760e+002 3.426075e+003 1.828697e+002 3.880339e+002 3.015588e-001 1.332417e+000 1.927928e-001 1.112493e+000 9.673514e-002 4.417025e+000 5.832303e+000 5.567095e+000 2.847397e+003
<GCONST> 1.268354e+002
<STATE> 4
<MEAN> 23
 1.020627e+001 3.274714e+000 3.954322e+000 1.470624e+000 1.218122e+002 4.590769e+001 9.847718e+001 8.134258e+001 7.392058e+001 5.233350e+001 8.751964e+001 1.643241e+002 9.322363e+001 1.065680e+002 2.516441e+000 4.355371e+000 3.733736e+000 5.488432e+000 3.370475e+000 5.078415e+000 3.377497e+000 2.466497e+000 1.590001e+002
<VARIANCE> 23
 1.705004e+002 3.638752e+001 3.226600e+001 7.465069e+000 1.353491e+004 7.519928e+003 2.044477e+003 9.793752e+002 6.039141e+002 1.846042e+002 3.933808e+003 3.053485e+003 7.471985e+002 6.092288e+002 5.661632e+000 1.797373e+000 9.326543e+000 1.487894e+000 3.326659e+000 4.252879e+000 6.163619e+000 6.225738e+000 4.995101e+003
<GCONST> 1.501515e+002
<TRANSP> 5
 0.000000e+000 1.000000e+000 0.000000e+000 0.000000e+000 0.000000e+000
 0.000000e+000 6.007371e-001 3.992629e-001 0.000000e+000 0.000000e+000
 0.000000e+000 0.000000e+000 9.459385e-001 5.406147e-002 0.000000e+000
 0.000000e+000 0.000000e+000 0.000000e+000 9.204679e-001 7.953216e-002
 0.000000e+000 0.000000e+000 0.000000e+000 0.000000e+000 0.000000e+000
<ENDHMM>
~h "SIL"
<BEGINHMM>
<NUMSTATES> 5
<STATE> 2
<MEAN> 23
 7.965147e+001 6.740201e+001 7.235426e+001 5.802816e+001 3.088375e+001 2.520465e+001 6.757378e+000 6.654431e+000 4.793854e+000 4.570886e+000 1.313190e+001 1.255146e+001 8.416738e+000 8.295170e+000 4.661632e-001 3.369772e-001 4.511978e-001 4.305130e-001 4.215735e-001 3.909780e-001 7.691008e-001 7.690582e-001 9.083535e+000
<VARIANCE> 23
 3.363096e+004 2.386929e+004 2.769189e+004 1.784137e+004 1.535900e+004 1.013045e+004 6.205623e+002 6.054998e+002 2.973833e+002 2.775410e+002 2.290065e+003 2.136789e+003 8.942183e+002 8.681143e+002 2.950996e+000 1.518173e+000 2.566072e+000 2.326193e+000 2.267231e+000 2.164832e+000 3.646572e+000 3.649306e+000 1.200857e+003
<GCONST> 1.693353e+002
<STATE> 3
<MEAN> 23
 4.930009e+000 4.569075e+000 1.494670e+000 1.413863e+000 3.253979e+001 3.042839e+001 9.817609e+001 9.604864e+001 7.055753e+001 6.241337e+001 1.788151e+002 1.818472e+002 1.175817e+002 1.169315e+002 5.825675e+000 4.655074e+000 6.101979e+000 5.767634e+000 5.530010e+000 5.427675e+000 2.381849e+000 2.286020e+000 1.373604e+002
<VARIANCE> 23
 9.444176e+001 8.830058e+001 8.360826e+000 6.913558e+000 1.885284e+003 1.747328e+003 1.154564e+003 8.001882e+002 1.853090e+002 1.306573e+002 3.298522e+003 2.525184e+003 4.641138e+002 2.224296e+002 5.518565e+000 8.951022e-001 1.287579e+000 2.759672e-001 1.249909e+000 2.836894e+000 5.646204e+000 5.594561e+000 2.265793e+003
<GCONST> 1.346824e+002
<STATE> 4
<MEAN> 23
 1.487631e+000 2.749436e+000 5.237339e-001 9.171972e-001 7.105578e+000 1.158639e+001 9.438097e+001 9.242222e+001 6.005997e+001 5.858729e+001 1.927365e+002 1.889661e+002 1.160792e+002 1.153896e+002 6.930782e+000 4.930121e+000 6.040342e+000 5.904801e+000 5.979492e+000 5.902472e+000 1.784570e+000 1.928874e+000 1.224290e+002
<VARIANCE> 23
 1.469070e+001 3.818552e+001 3.300596e+000 3.255843e+000 1.854764e+002 4.860182e+002 2.394782e+002 2.694785e+002 6.741134e+001 8.119346e+001 5.764266e+002 9.078441e+002 1.334253e+002 1.511975e+002 4.252166e-001 1.570737e-001 5.806154e-002 1.029462e-001 6.098007e-002 5.729071e-001 5.316571e+000 5.456161e+000 4.633803e+002
<GCONST> 1.034731e+002
<TRANSP> 5
 0.000000e+000 1.000000e+000 0.000000e+000 0.000000e+000 0.000000e+000
 0.000000e+000 9.082877e-001 9.171232e-002 0.000000e+000 0.000000e+000
 0.000000e+000 0.000000e+000 9.932854e-001 6.714588e-003 0.000000e+000
 0.000000e+000 0.000000e+000 0.000000e+000 9.971868e-001 2.813136e-003
 0.000000e+000 0.000000e+000 0.000000e+000 0.000000e+000 0.000000e+000
<ENDHMM>
