~o
<STREAMINFO> 1 22
<VECSIZE> 22<NULLD><MFCC_0><DIAGC>
~h "BN_2"
<BEGINHMM>
<NUMSTATES> 5
<STATE> 2
<NUMMIXES> 2
<MIXTURE> 1 5.324552e-01
<MEAN> 22
 9.030081e+00 1.726741e+00 2.709442e+00 7.660760e-01 1.233240e+02 1.684643e+01 1.099334e+02 9.748829e+01 8.386049e+01 5.641959e+01 1.011307e+02 1.955570e+02 1.043976e+02 1.171769e+02 3.291564e+00 5.000000e+00 3.732897e+00 5.885535e+00 3.940333e+00 5.997563e+00 3.069078e+00 2.089293e+00
<VARIANCE> 22
 1.772160e+02 7.351151e+00 1.645789e+01 2.171579e+00 6.921823e+03 4.293989e+02 1.622373e+03 2.438737e+02 5.353797e+02 6.022726e+01 5.112137e+03 4.130988e+02 3.443599e+02 1.395187e+02 6.553703e+00 1.793070e-02 8.684606e+00 1.013623e-01 2.556356e+00 5.619852e-02 6.758673e+00 5.826325e+00
<GCONST> 1.141632e+02
<MIXTURE> 2 4.675449e-01
<MEAN> 22
 9.217532e+00 1.057492e+01 2.044407e+00 2.725145e+00 8.278254e+01 1.023589e+02 8.637238e+01 8.210605e+01 7.381821e+01 6.869563e+01 1.081228e+02 8.881734e+01 1.018512e+02 1.007483e+02 2.559722e+00 2.915744e+00 5.458876e+00 5.162022e+00 4.070763e+00 2.293924e+00 3.326926e+00 3.360389e+00
<VARIANCE> 22
 1.665972e+02 1.973291e+02 9.561385e+00 1.575538e+01 3.156126e+03 3.434527e+03 1.612517e+03 1.908121e+03 4.004625e+02 3.443333e+02 3.467830e+03 2.231479e+03 2.555680e+02 2.101046e+02 6.404398e+00 1.234564e+00 4.765286e+00 1.067599e+00 3.470066e+00 5.056606e+00 6.595306e+00 6.263330e+00
<GCONST> 1.358542e+02
<STATE> 3
<NUMMIXES> 2
<MIXTURE> 1 5.751405e-01
<MEAN> 22
 2.057020e+00 2.981833e+00 7.754824e-01 1.085357e+00 9.818128e+00 1.223278e+01 9.638668e+01 9.433720e+01 6.137329e+01 5.881161e+01 1.963172e+02 1.942001e+02 1.175147e+02 1.164163e+02 6.998751e+00 5.000000e+00 6.074012e+00 5.902814e+00 5.999979e+00 6.002518e+00 2.051353e+00 2.179683e+00
<VARIANCE> 22
 1.210781e+01 2.120676e+01 3.305619e+00 3.189389e+00 1.087335e+02 2.100368e+02 2.552986e+02 2.659231e+02 6.943758e+01 8.413277e+01 5.972440e+02 5.843875e+02 1.986786e+02 1.642495e+02 6.556320e-02 1.793070e-02 6.853436e-02 8.774246e-02 2.100767e-02 5.619852e-02 5.790059e+00 5.924675e+00
<GCONST> 8.626132e+01
<MIXTURE> 2 4.248595e-01
<MEAN> 22
 1.483114e+00 1.111977e+01 5.492817e-01 3.173357e+00 2.059176e+01 1.327524e+02 9.284390e+01 9.999827e+01 5.900372e+01 8.005218e+01 1.815101e+02 7.062510e+01 1.117566e+02 9.889808e+01 6.615874e+00 2.778453e+00 5.974526e+00 4.472343e+00 5.826006e+00 2.303813e+00 1.685182e+00 3.320266e+00
<VARIANCE> 22
 1.011633e+01 2.047176e+02 3.305619e+00 1.895457e+01 1.596434e+03 3.872060e+03 4.228493e+02 1.314734e+03 1.438833e+02 4.485382e+02 1.387257e+03 2.467165e+03 2.019359e+02 2.148596e+02 2.051716e+00 1.007817e+00 1.013238e+00 1.207136e+00 5.974230e-01 4.621778e+00 5.300444e+00 6.047117e+00
<GCONST> 1.232820e+02
<STATE> 4
<NUMMIXES> 2
<MIXTURE> 1 9.026916e-01
<MEAN> 22
 8.843981e+00 8.877965e+00 1.692933e+00 1.834871e+00 6.172284e+01 5.596440e+01 7.618970e+01 7.321736e+01 6.796226e+01 6.370465e+01 1.415789e+02 1.381849e+02 1.064063e+02 1.081753e+02 4.533790e+00 4.035796e+00 5.842414e+00 5.612703e+00 5.007858e+00 4.515219e+00 2.521164e+00 2.524354e+00
<VARIANCE> 22
 1.634858e+02 1.570908e+02 8.241572e+00 8.808744e+00 3.405040e+03 2.755730e+03 1.808818e+03 1.499501e+03 2.762961e+02 1.949274e+02 3.732909e+03 3.792970e+03 5.506373e+02 2.892882e+02 7.932304e+00 1.852179e+00 2.136949e+00 4.441029e-01 1.986345e+00 6.848985e+00 5.750340e+00 5.891811e+00
<GCONST> 1.338462e+02
<MIXTURE> 2 9.730816e-02
<MEAN> 22
 1.799229e-01 2.428127e-01 1.064341e-01 8.709200e-02 7.344765e+00 1.325991e+01 5.185341e+00 6.690812e+00 1.385241e+01 1.234782e+01 1.883123e+01 1.815677e+01 2.237854e+01 2.118136e+01 4.891487e-01 2.754892e-01 1.320832e+00 1.282677e+00 8.648770e-01 9.178057e-03 3.313746e-01 6.949087e-01
<VARIANCE> 22
 4.801967e+00 4.073976e+00 3.305619e+00 2.171579e+00 3.478214e+02 8.383267e+02 1.864848e+02 2.399238e+02 6.895192e+02 5.489169e+02 1.373701e+03 1.218847e+03 1.794700e+03 1.611579e+03 1.073608e+00 3.427057e-01 6.224177e+00 6.002587e+00 2.712005e+00 5.619852e-02 1.471908e+00 3.650227e+00
<GCONST> 1.131432e+02
<TRANSP> 5
 0.000000e+00 1.000000e+00 0.000000e+00 0.000000e+00 0.000000e+00
 0.000000e+00 7.518491e-01 2.481510e-01 0.000000e+00 0.000000e+00
 0.000000e+00 0.000000e+00 8.817810e-01 1.182190e-01 0.000000e+00
 0.000000e+00 0.000000e+00 0.000000e+00 6.428669e-01 3.571331e-01
 0.000000e+00 0.000000e+00 0.000000e+00 0.000000e+00 0.000000e+00
<ENDHMM>
~h "BS_2"
<BEGINHMM>
<NUMSTATES> 5
<STATE> 2
<NUMMIXES> 2
<MIXTURE> 1 6.634180e-01
<MEAN> 22
 8.829649e+00 2.121302e+00 2.404587e+00 8.221058e-01 8.217685e+01 1.984267e+01 9.307535e+01 9.726140e+01 7.726744e+01 5.805730e+01 1.247884e+02 1.960848e+02 1.078029e+02 1.169394e+02 3.581497e+00 4.999993e+00 5.222977e+00 5.817538e+00 4.499427e+00 6.003032e+00 2.988323e+00 2.121057e+00
<VARIANCE> 22
 1.781215e+02 1.265846e+01 1.405680e+01 2.171579e+00 4.995298e+03 5.285834e+02 1.794747e+03 2.634492e+02 4.413638e+02 6.779080e+01 4.772184e+03 6.080906e+02 5.394328e+02 1.662586e+02 8.281804e+00 1.793070e-02 5.310139e+00 1.491702e-01 2.737597e+00 5.619852e-02 6.412700e+00 6.039969e+00
<GCONST> 1.156615e+02
<MIXTURE> 2 3.365819e-01
<MEAN> 22
 9.286115e+00 1.177874e+01 1.913162e+00 3.660394e+00 1.145470e+02 1.273999e+02 8.153029e+01 7.411657e+01 6.604541e+01 6.315203e+01 1.035984e+02 8.313557e+01 9.223712e+01 9.228297e+01 3.030708e+00 2.638594e+00 4.755458e+00 4.680117e+00 3.620976e+00 2.419114e+00 2.667877e+00 2.953728e+00
<VARIANCE> 22
 2.207403e+02 2.610844e+02 9.890532e+00 3.120257e+01 1.797563e+04 8.437990e+03 2.482035e+03 2.285366e+03 8.066627e+02 7.065944e+02 5.111887e+03 2.679395e+03 1.598428e+03 1.142766e+03 7.568201e+00 2.070915e+00 6.787309e+00 3.289588e+00 4.799311e+00 5.682804e+00 6.453187e+00 6.295926e+00
<GCONST> 1.484878e+02
<STATE> 3
<NUMMIXES> 2
<MIXTURE> 1 4.831444e-01
<MEAN> 22
 1.041973e+01 1.406177e+01 2.779564e+00 2.937833e+00 4.435416e+01 4.561417e+01 8.010767e+01 7.073988e+01 6.404483e+01 6.101305e+01 1.520523e+02 1.452158e+02 1.065455e+02 1.054761e+02 4.363308e+00 4.364721e+00 6.272124e+00 5.529827e+00 5.476321e+00 5.392996e+00 2.744963e+00 3.249428e+00
<VARIANCE> 22
 2.822787e+02 2.899086e+02 3.361440e+01 1.980515e+01 1.893098e+03 1.275029e+03 8.406019e+02 9.024619e+02 2.036006e+02 1.395542e+02 2.372240e+03 1.721074e+03 2.102706e+02 1.661293e+02 1.003166e+01 7.983044e-01 7.770208e-01 2.968663e-01 1.868617e+00 3.533013e+00 6.972092e+00 5.705242e+00
<GCONST> 1.286050e+02
<MIXTURE> 2 5.168544e-01
<MEAN> 22
 2.008028e+00 8.669020e+00 7.122984e-01 2.917558e+00 3.507482e+01 1.391792e+02 7.573006e+01 9.038996e+01 5.912425e+01 7.568649e+01 1.550386e+02 5.887565e+01 1.077453e+02 9.601035e+01 5.635859e+00 2.289616e+00 6.024374e+00 4.724813e+00 5.385092e+00 1.052678e+00 2.048600e+00 2.988334e+00
<VARIANCE> 22
 1.098890e+01 1.286353e+02 3.305619e+00 1.523547e+01 2.817398e+03 3.049405e+03 7.907468e+02 1.983561e+03 6.418695e+01 4.247993e+02 3.086706e+03 8.054786e+02 1.284734e+02 2.273931e+02 5.120594e+00 4.647654e-01 4.394157e-02 1.673125e+00 1.093431e+00 6.087307e-01 6.267798e+00 5.514800e+00
<GCONST> 1.184531e+02
<STATE> 4
<NUMMIXES> 2
<MIXTURE> 1 7.003887e-01
<MEAN> 22
 2.066448e+00 3.114133e+00 7.949807e-01 1.100481e+00 1.044549e+01 1.373095e+01 9.579929e+01 9.506722e+01 6.116324e+01 5.902156e+01 1.942755e+02 1.931738e+02 1.157507e+02 1.157039e+02 7.000000e+00 4.999997e+00 6.092689e+00 5.872613e+00 6.004600e+00 5.999427e+00 2.108834e+00 2.364302e+00
<VARIANCE> 22
 1.002043e+01 2.005453e+01 3.305619e+00 2.601229e+00 1.374659e+02 2.708699e+02 2.075715e+02 1.924624e+02 6.955327e+01 6.344177e+01 4.150483e+02 3.740990e+02 1.405036e+02 1.055091e+02 6.556320e-02 1.793070e-02 8.409855e-02 1.111592e-01 2.100767e-02 5.619852e-02 5.619259e+00 5.976053e+00
<GCONST> 8.431123e+01
<MIXTURE> 2 2.996109e-01
<MEAN> 22
 8.457480e+00 1.135152e+01 1.939600e+00 2.950985e+00 6.802741e+01 8.765343e+01 9.490138e+01 8.681249e+01 6.726927e+01 6.871436e+01 1.418029e+02 1.226815e+02 1.088264e+02 1.060473e+02 3.497563e+00 3.626573e+00 5.821524e+00 5.197720e+00 4.270350e+00 3.687524e+00 2.544154e+00 2.688243e+00
<VARIANCE> 22
 1.482799e+02 1.971694e+02 7.569987e+00 1.691756e+01 3.166037e+03 3.761664e+03 1.428797e+03 1.624304e+03 2.381912e+02 3.624697e+02 3.993203e+03 3.268339e+03 3.019630e+02 2.566989e+02 9.590438e+00 1.341175e+00 3.368489e+00 7.167619e-01 5.267350e+00 6.016001e+00 5.703993e+00 5.144681e+00
<GCONST> 1.357988e+02
<TRANSP> 5
 0.000000e+00 1.000000e+00 0.000000e+00 0.000000e+00 0.000000e+00
 0.000000e+00 6.813786e-01 3.186213e-01 0.000000e+00 0.000000e+00
 0.000000e+00 0.000000e+00 7.555063e-01 2.444937e-01 0.000000e+00
 0.000000e+00 0.000000e+00 0.000000e+00 8.287390e-01 1.712610e-01
 0.000000e+00 0.000000e+00 0.000000e+00 0.000000e+00 0.000000e+00
<ENDHMM>
~h "SP_2"
<BEGINHMM>
<NUMSTATES> 5
<STATE> 2
<NUMMIXES> 2
<MIXTURE> 1 7.893708e-01
<MEAN> 22
 8.359757e+00 2.026568e+00 2.890638e+00 9.435326e-01 1.079100e+02 2.016187e+01 1.035759e+02 9.505750e+01 7.996882e+01 5.683626e+01 1.106139e+02 1.918062e+02 1.032845e+02 1.156017e+02 3.211860e+00 4.972022e+00 4.328641e+00 5.809405e+00 4.085033e+00 6.006726e+00 3.256522e+00 2.183566e+00
<VARIANCE> 22
 1.637466e+02 1.161326e+01 3.062315e+01 2.261858e+00 7.102021e+03 8.055989e+02 1.825237e+03 3.374283e+02 5.425273e+02 7.708791e+01 4.387391e+03 5.960973e+02 3.420822e+02 1.208015e+02 7.149570e+00 3.712847e-02 7.478379e+00 1.542687e-01 2.927313e+00 6.815515e-02 6.432455e+00 5.934929e+00
<GCONST> 1.180065e+02
<MIXTURE> 2 2.106292e-01
<MEAN> 22
 3.904548e+00 7.341759e+00 1.238409e+00 2.484601e+00 5.413878e+01 1.249559e+02 6.492633e+01 8.425304e+01 5.455303e+01 6.726962e+01 1.157563e+02 5.638063e+01 8.070187e+01 7.455523e+01 4.018020e+00 2.033814e+00 4.749123e+00 3.255049e+00 4.007075e+00 1.509553e+00 1.903827e+00 2.222227e+00
<VARIANCE> 22
 6.996507e+01 1.223115e+02 6.342108e+00 2.117858e+01 9.317800e+03 9.622469e+03 1.862376e+03 3.831035e+03 1.134856e+03 1.820418e+03 6.526196e+03 2.244120e+03 2.742361e+03 1.998824e+03 9.444731e+00 1.776498e+00 6.746638e+00 4.512224e+00 5.811444e+00 3.338602e+00 5.876107e+00 5.710729e+00
<GCONST> 1.477523e+02
<STATE> 3
<NUMMIXES> 2
<MIXTURE> 1 6.372440e-01
<MEAN> 22
 1.554877e+00 2.225544e+00 7.045043e-01 8.773360e-01 9.447769e+00 1.080580e+01 9.679599e+01 9.606418e+01 6.126215e+01 5.832762e+01 1.967800e+02 1.958852e+02 1.181057e+02 1.171240e+02 7.000000e+00 5.000000e+00 6.104178e+00 5.909221e+00 6.000643e+00 5.999100e+00 1.933146e+00 2.120673e+00
<VARIANCE> 22
 5.643909e+00 1.219104e+01 3.305619e+00 2.171579e+00 1.003550e+02 1.320629e+02 2.291486e+02 2.131158e+02 7.623129e+01 6.849112e+01 5.231475e+02 5.025054e+02 1.876711e+02 1.612513e+02 6.556320e-02 1.793070e-02 9.332400e-02 8.253831e-02 2.100767e-02 5.619852e-02 5.789739e+00 5.991221e+00
<GCONST> 8.347395e+01
<MIXTURE> 2 3.627554e-01
<MEAN> 22
 8.824009e+00 1.052882e+01 2.225749e+00 2.507224e+00 7.123187e+01 7.542893e+01 6.556552e+01 6.451872e+01 6.746986e+01 6.253136e+01 1.165969e+02 1.091038e+02 1.031098e+02 1.030412e+02 2.900150e+00 3.321656e+00 6.182144e+00 5.438585e+00 4.501632e+00 3.554288e+00 2.841284e+00 2.930166e+00
<VARIANCE> 22
 1.442050e+02 1.696148e+02 1.153216e+01 1.261083e+01 2.425803e+03 2.669566e+03 1.099209e+03 1.235073e+03 1.757116e+02 2.102577e+02 2.663996e+03 1.977263e+03 1.841420e+02 1.511344e+02 7.819860e+00 1.693286e+00 1.061106e+00 6.982107e-01 2.495025e+00 7.329910e+00 5.924012e+00 5.767708e+00
<GCONST> 1.302717e+02
<STATE> 4
<NUMMIXES> 2
<MIXTURE> 1 8.447918e-01
<MEAN> 22
 1.017455e+00 1.020420e+01 4.976219e-01 3.018744e+00 9.585568e+00 1.310515e+02 9.790514e+01 1.086698e+02 6.191763e+01 8.203153e+01 1.949392e+02 9.280517e+01 1.166269e+02 1.026266e+02 6.996601e+00 3.090944e+00 6.177008e+00 4.467749e+00 6.000000e+00 2.908556e+00 1.557804e+00 2.790931e+00
<VARIANCE> 22
 4.801967e+00 2.236873e+02 3.305619e+00 1.781712e+01 1.589663e+02 6.836958e+03 5.078795e+02 1.617419e+03 1.475257e+02 4.291731e+02 8.704068e+02 4.075219e+03 2.920853e+02 3.082495e+02 6.556320e-02 1.504758e+00 1.456752e-01 1.583653e+00 2.100767e-02 5.507936e+00 5.292687e+00 5.729268e+00
<GCONST> 1.140239e+02
<MIXTURE> 2 1.552078e-01
<MEAN> 22
 1.032661e+01 4.380777e+00 4.356197e+00 1.893761e+00 9.665881e+01 5.966637e+01 9.524979e+01 7.417668e+01 7.822166e+01 6.614679e+01 9.596528e+01 1.207432e+02 9.395358e+01 1.025981e+02 2.443760e+00 3.539206e+00 4.225597e+00 5.334729e+00 3.948295e+00 3.845624e+00 3.521436e+00 2.525177e+00
<VARIANCE> 22
 1.271971e+02 5.841225e+01 4.226284e+01 5.407048e+00 3.933322e+03 5.151715e+03 2.424543e+03 2.165455e+03 5.994393e+02 4.523718e+02 3.359491e+03 3.380247e+03 5.270601e+02 3.412234e+02 5.398527e+00 1.816383e+00 7.215011e+00 1.454864e+00 2.661264e+00 7.960479e+00 5.821170e+00 5.547987e+00
<GCONST> 1.390942e+02
<TRANSP> 5
 0.000000e+00 1.000000e+00 0.000000e+00 0.000000e+00 0.000000e+00
 0.000000e+00 6.546759e-01 3.453241e-01 0.000000e+00 0.000000e+00
 0.000000e+00 0.000000e+00 8.658348e-01 1.341651e-01 0.000000e+00
 0.000000e+00 0.000000e+00 0.000000e+00 7.635183e-01 2.364817e-01
 0.000000e+00 0.000000e+00 0.000000e+00 0.000000e+00 0.000000e+00
<ENDHMM>
~h "ST_2"
<BEGINHMM>
<NUMSTATES> 5
<STATE> 2
<NUMMIXES> 2
<MIXTURE> 1 7.121948e-01
<MEAN> 22
 2.133824e+00 2.086394e+00 8.507269e-01 9.930719e-01 9.763962e+00 9.298435e+00 9.726618e+01 9.715324e+01 6.220010e+01 5.838200e+01 1.973147e+02 1.977497e+02 1.185297e+02 1.178029e+02 7.000000e+00 5.000000e+00 6.150751e+00 5.925947e+00 6.000000e+00 5.997633e+00 2.056240e+00 2.078181e+00
<VARIANCE> 22
 1.298218e+01 8.393412e+00 3.305619e+00 2.171579e+00 1.123371e+02 8.446472e+01 2.318654e+02 2.249243e+02 8.105308e+01 7.793198e+01 5.148339e+02 5.027315e+02 1.693755e+02 1.585525e+02 6.556320e-02 1.793070e-02 1.280250e-01 6.856921e-02 2.100767e-02 5.619852e-02 5.927945e+00 5.642905e+00
<GCONST> 8.381512e+01
<MIXTURE> 2 2.878056e-01
<MEAN> 22
 9.180166e+00 1.122342e+01 2.312572e+00 3.363038e+00 6.359890e+01 9.079199e+01 8.269234e+01 8.687305e+01 6.967021e+01 7.003852e+01 1.456797e+02 1.197892e+02 1.114282e+02 1.062788e+02 4.200823e+00 3.557478e+00 6.103288e+00 5.256838e+00 4.869510e+00 3.654277e+00 2.832950e+00 3.002034e+00
<VARIANCE> 22
 1.885755e+02 2.144610e+02 1.736252e+01 2.497496e+01 4.028377e+03 5.488796e+03 1.459327e+03 1.582225e+03 3.274402e+02 5.317581e+02 4.316225e+03 3.948831e+03 4.638458e+02 2.585658e+02 8.956590e+00 1.894779e+00 1.704429e+00 1.166216e+00 2.713506e+00 6.638988e+00 6.511230e+00 5.569371e+00
<GCONST> 1.390910e+02
<STATE> 3
<NUMMIXES> 2
<MIXTURE> 1 6.970018e-01
<MEAN> 22
 1.108812e+00 9.325066e+00 5.424555e-01 2.962135e+00 6.834151e+00 1.226207e+02 9.126994e+01 9.341515e+01 5.652236e+01 7.953167e+01 1.893887e+02 8.194682e+01 1.130868e+02 9.863675e+01 6.999977e+00 2.962668e+00 6.010406e+00 4.967096e+00 6.000000e+00 2.692635e+00 1.559861e+00 2.940845e+00
<VARIANCE> 22
 4.801967e+00 1.764462e+02 3.305619e+00 2.128270e+01 5.046538e+01 4.885497e+03 1.861595e+02 1.549491e+03 5.254253e+01 4.246395e+02 3.738604e+02 3.463265e+03 1.365154e+02 3.157917e+02 6.556320e-02 1.459069e+00 2.348518e-02 1.634350e+00 2.100767e-02 6.316303e+00 5.236338e+00 5.792147e+00
<GCONST> 1.069600e+02
<MIXTURE> 2 3.029979e-01
<MEAN> 22
 7.234660e+00 8.005507e+00 1.671312e+00 1.130767e+00 1.340200e+02 1.135579e+02 6.024448e+01 5.965590e+01 6.763760e+01 5.951496e+01 6.741621e+01 8.070011e+01 9.736275e+01 9.855857e+01 2.153501e+00 2.443630e+00 5.388948e+00 5.580213e+00 3.530859e+00 1.764055e+00 2.976236e+00 2.792434e+00
<VARIANCE> 22
 1.009774e+02 2.212144e+02 1.078097e+01 2.757527e+00 1.323522e+04 9.400845e+03 1.373981e+03 1.143967e+03 3.364919e+02 2.432708e+02 2.090900e+03 2.808461e+03 4.960158e+02 5.474135e+02 2.170465e+00 1.801086e+00 3.402530e+00 1.740796e+00 1.287256e+00 5.497646e+00 6.436140e+00 6.201829e+00
<GCONST> 1.349424e+02
<STATE> 4
<NUMMIXES> 2
<MIXTURE> 1 3.985677e-01
<MEAN> 22
 1.268401e+01 7.759108e+00 4.415605e+00 1.786608e+00 1.520472e+02 2.684828e+01 1.148487e+02 1.025431e+02 1.035527e+02 5.696637e+01 6.674900e+01 2.017745e+02 1.028893e+02 1.201385e+02 1.610169e+00 4.993825e+00 3.810673e+00 5.861475e+00 3.037055e+00 5.966650e+00 3.302528e+00 2.417888e+00
<VARIANCE> 22
 8.248873e+02 1.350668e+03 5.224959e+02 3.097202e+02 3.460233e+03 1.405513e+03 3.106305e+03 2.289770e+02 6.105010e+02 5.280830e+01 2.298964e+03 4.920532e+02 3.469841e+02 9.862591e+01 7.500257e-01 5.136066e-02 9.017143e+00 1.357799e-01 1.416440e+00 1.356900e-01 5.984585e+00 5.749640e+00
<GCONST> 1.288186e+02
<MIXTURE> 2 6.014312e-01
<MEAN> 22
 7.101242e+00 6.478412e+00 1.647341e+00 1.591257e+00 4.832687e+01 5.426391e+01 7.213139e+01 6.955242e+01 6.762705e+01 6.284127e+01 1.339063e+02 1.345085e+02 1.065841e+02 1.050544e+02 4.026742e+00 4.150998e+00 6.060853e+00 5.645738e+00 4.997994e+00 5.028920e+00 2.908950e+00 2.827518e+00
<VARIANCE> 22
 1.243791e+02 1.149050e+02 6.289750e+00 7.199001e+00 1.864497e+03 3.006215e+03 9.054057e+02 1.063989e+03 1.804469e+02 1.953329e+02 3.488337e+03 2.796546e+03 1.785666e+02 1.716359e+02 9.073436e+00 1.378283e+00 1.343061e+00 5.137964e-01 1.703179e+00 5.464343e+00 6.713931e+00 6.034002e+00
<GCONST> 1.281123e+02
<TRANSP> 5
 0.000000e+00 1.000000e+00 0.000000e+00 0.000000e+00 0.000000e+00
 0.000000e+00 8.119242e-01 1.880758e-01 0.000000e+00 0.000000e+00
 0.000000e+00 0.000000e+00 8.147042e-01 1.852958e-01 0.000000e+00
 0.000000e+00 0.000000e+00 0.000000e+00 7.320977e-01 2.679023e-01
 0.000000e+00 0.000000e+00 0.000000e+00 0.000000e+00 0.000000e+00
<ENDHMM>
~h "TH_LD"
<BEGINHMM>
<NUMSTATES> 5
<STATE> 2
<NUMMIXES> 2
<MIXTURE> 1 6.825153e-01
<MEAN> 22
 2.232116e+00 2.615040e+00 8.716435e-01 9.627599e-01 1.012045e+01 1.357398e+01 9.686417e+01 9.452039e+01 6.206264e+01 5.913560e+01 1.948676e+02 1.926349e+02 1.167402e+02 1.158091e+02 6.999340e+00 5.000000e+00 6.100306e+00 5.887027e+00 6.005437e+00 6.010543e+00 2.304293e+00 2.209508e+00
<VARIANCE> 22
 1.182512e+01 1.513131e+01 3.305619e+00 2.171579e+00 1.150764e+02 3.068983e+02 2.590410e+02 2.568380e+02 6.956700e+01 6.888811e+01 4.919258e+02 4.708559e+02 1.569315e+02 1.208518e+02 6.556320e-02 1.793070e-02 9.024718e-02 1.002096e-01 2.100767e-02 5.619852e-02 5.996165e+00 5.967321e+00
<GCONST> 8.523095e+01
<MIXTURE> 2 3.174843e-01
<MEAN> 22
 8.880396e+00 1.030738e+01 2.075013e+00 2.531015e+00 7.097039e+01 8.114664e+01 8.609512e+01 8.079868e+01 6.842496e+01 6.556426e+01 1.306106e+02 1.208925e+02 1.054486e+02 1.037627e+02 2.898472e+00 3.609779e+00 5.993868e+00 5.243583e+00 4.229925e+00 3.773975e+00 3.044282e+00 3.344386e+00
<VARIANCE> 22
 1.580907e+02 1.645698e+02 9.418262e+00 1.402459e+01 3.632080e+03 3.179454e+03 1.663127e+03 1.696031e+03 2.366844e+02 2.497681e+02 3.034006e+03 2.693972e+03 3.112858e+02 2.300634e+02 8.769446e+00 1.372954e+00 2.802440e+00 7.694413e-01 4.855477e+00 6.248842e+00 6.743474e+00 6.571058e+00
<GCONST> 1.351409e+02
<STATE> 3
<NUMMIXES> 2
<MIXTURE> 1 4.394611e-01
<MEAN> 22
 9.270662e+00 1.475458e+01 2.829627e+00 3.916811e+00 3.408519e+01 4.367749e+01 8.955283e+01 7.875062e+01 6.436488e+01 6.646500e+01 1.718426e+02 1.595109e+02 1.125333e+02 1.108861e+02 5.857703e+00 4.536454e+00 6.038960e+00 5.610146e+00 5.554586e+00 5.782485e+00 2.449737e+00 3.169628e+00
<VARIANCE> 22
 4.755978e+02 4.818644e+02 2.416565e+02 1.708936e+02 2.936759e+03 2.074945e+03 8.571953e+02 9.336909e+02 2.018471e+02 2.816291e+02 2.581518e+03 2.195949e+03 4.041316e+02 2.772818e+02 5.485046e+00 8.400174e-01 1.088343e+00 4.488207e-01 1.442563e+00 2.251096e+00 5.820686e+00 6.247629e+00
<GCONST> 1.363277e+02
<MIXTURE> 2 5.605397e-01
<MEAN> 22
 1.069929e+00 1.045282e+01 5.523214e-01 3.509256e+00 8.703409e+00 1.575714e+02 9.005168e+01 1.089963e+02 5.611657e+01 8.305017e+01 1.867686e+02 5.374447e+01 1.105333e+02 9.394284e+01 6.999967e+00 2.361761e+00 6.051764e+00 4.161397e+00 6.000000e+00 1.287734e+00 1.649841e+00 3.140805e+00
<VARIANCE> 22
 4.801967e+00 1.825400e+02 3.305619e+00 2.193261e+01 1.913858e+02 2.641829e+03 1.601806e+02 1.641305e+03 4.141669e+01 5.083667e+02 3.572198e+02 6.868597e+02 1.213956e+02 2.510973e+02 6.556320e-02 2.723206e-01 4.908473e-02 1.509078e+00 2.100767e-02 6.380112e-01 5.475286e+00 5.683033e+00
<GCONST> 1.022935e+02
<STATE> 4
<NUMMIXES> 2
<MIXTURE> 1 5.625855e-01
<MEAN> 22
 8.454011e+00 3.055140e+00 2.566611e+00 1.123544e+00 7.050998e+01 2.303240e+01 9.769548e+01 9.693307e+01 7.473661e+01 5.808683e+01 1.400233e+02 1.958874e+02 1.126276e+02 1.179502e+02 4.491913e+00 4.998853e+00 5.323858e+00 5.805067e+00 4.769997e+00 5.991712e+00 3.016662e+00 2.449735e+00
<VARIANCE> 22
 1.477987e+02 2.205589e+01 1.453488e+01 2.295043e+00 4.644929e+03 6.641949e+02 1.276083e+03 2.967031e+02 3.068849e+02 6.931144e+01 5.689297e+03 5.977685e+02 4.549457e+02 1.880934e+02 8.146350e+00 1.793070e-02 5.187116e+00 1.569348e-01 2.481507e+00 5.619852e-02 5.996898e+00 6.138647e+00
<GCONST> 1.156846e+02
<MIXTURE> 2 4.374137e-01
<MEAN> 22
 5.428849e+00 8.589961e+00 1.135738e+00 1.954561e+00 9.135654e+01 1.244446e+02 7.000158e+01 7.183914e+01 6.584904e+01 6.639289e+01 9.866071e+01 7.108064e+01 1.007573e+02 9.742972e+01 2.762706e+00 2.216794e+00 5.360945e+00 4.904356e+00 3.729830e+00 1.354809e+00 2.348251e+00 2.593076e+00
<VARIANCE> 22
 8.938358e+01 1.728772e+02 3.533402e+00 9.300264e+00 1.223799e+04 7.827210e+03 1.851116e+03 2.302626e+03 5.118660e+02 7.244473e+02 4.444485e+03 1.628399e+03 9.853459e+02 8.787179e+02 5.862252e+00 1.197870e+00 4.528611e+00 2.897918e+00 2.792027e+00 3.225881e+00 6.105992e+00 5.865551e+00
<GCONST> 1.398036e+02
<TRANSP> 5
 0.000000e+00 1.000000e+00 0.000000e+00 0.000000e+00 0.000000e+00
 0.000000e+00 8.517441e-01 1.482559e-01 0.000000e+00 0.000000e+00
 0.000000e+00 0.000000e+00 7.029580e-01 2.970419e-01 0.000000e+00
 0.000000e+00 0.000000e+00 0.000000e+00 7.527761e-01 2.472238e-01
 0.000000e+00 0.000000e+00 0.000000e+00 0.000000e+00 0.000000e+00
<ENDHMM>
~h "TH_LU"
<BEGINHMM>
<NUMSTATES> 5
<STATE> 2
<NUMMIXES> 2
<MIXTURE> 1 7.193727e-01
<MEAN> 22
 1.976640e+01 1.935116e+01 1.552239e+01 1.343627e+01 6.272129e+01 7.354522e+01 9.214505e+01 9.039122e+01 6.645437e+01 6.467243e+01 1.625034e+02 1.487228e+02 1.124770e+02 1.102419e+02 5.454273e+00 4.178448e+00 5.860077e+00 5.516089e+00 5.316573e+00 4.647252e+00 2.543290e+00 2.959601e+00
<VARIANCE> 22
 6.323865e+03 4.901797e+03 5.935144e+03 3.786026e+03 1.411502e+04 1.030208e+04 9.882194e+02 9.704656e+02 2.476572e+02 2.619084e+02 3.464758e+03 4.062685e+03 2.449112e+02 2.294910e+02 6.650507e+00 1.506919e+00 1.838105e+00 7.356463e-01 1.756321e+00 5.157705e+00 6.436726e+00 6.545310e+00
<GCONST> 1.542070e+02
<MIXTURE> 2 2.806272e-01
<MEAN> 22
 3.604678e+01 3.058271e+01 3.349283e+01 2.682015e+01 3.086798e+02 2.341331e+02 0.000000e+00 0.000000e+00 0.000000e+00 0.000000e+00 0.000000e+00 0.000000e+00 0.000000e+00 0.000000e+00 0.000000e+00 0.000000e+00 0.000000e+00 0.000000e+00 0.000000e+00 0.000000e+00 2.266189e-01 2.266189e-01
<VARIANCE> 22
 1.615586e+04 1.163319e+04 1.381561e+04 8.893069e+03 6.365191e+04 3.618133e+04 9.965595e+00 1.121768e+01 2.939380e+00 3.532339e+00 3.789023e+01 4.425340e+01 4.237021e+00 4.029697e+00 6.556320e-02 1.793070e-02 2.348518e-02 1.180012e-02 2.100767e-02 5.619852e-02 6.285009e-01 6.285009e-01
<GCONST> 9.438041e+01
<STATE> 3
<NUMMIXES> 2
<MIXTURE> 1 5.889496e-01
<MEAN> 22
 2.625087e+00 1.129457e+01 1.067332e+00 3.351844e+00 9.746418e+00 1.017466e+02 9.156889e+01 9.300479e+01 5.872546e+01 7.396128e+01 1.887731e+02 1.072510e+02 1.127747e+02 1.025618e+02 6.998106e+00 3.522300e+00 6.071364e+00 4.986936e+00 6.000000e+00 3.635323e+00 1.856234e+00 3.038336e+00
<VARIANCE> 22
 1.622385e+02 2.857380e+02 1.049409e+02 8.040514e+01 1.446878e+02 6.146235e+03 2.501342e+02 1.493189e+03 6.570044e+01 4.759689e+02 5.011549e+02 4.133900e+03 1.604626e+02 2.546217e+02 6.556320e-02 1.596515e+00 6.627120e-02 1.211173e+00 2.100767e-02 6.324555e+00 5.663659e+00 5.697138e+00
<GCONST> 1.189352e+02
<MIXTURE> 2 4.110512e-01
<MEAN> 22
 8.403611e+00 8.512300e+00 1.545754e+00 1.618532e+00 9.280581e+01 9.260941e+01 6.017438e+01 6.512233e+01 6.652357e+01 6.335102e+01 8.492843e+01 8.629782e+01 9.959856e+01 9.875116e+01 2.147652e+00 2.901352e+00 5.979598e+00 5.391736e+00 3.917397e+00 2.478165e+00 2.917893e+00 2.787642e+00
<VARIANCE> 22
 1.275342e+02 1.399846e+02 4.868793e+00 5.265588e+00 4.162474e+03 4.292818e+03 1.092157e+03 1.632018e+03 1.972875e+02 2.926988e+02 2.141925e+03 1.963098e+03 1.972035e+02 2.966454e+02 4.228574e+00 1.783406e+00 1.821890e+00 1.089259e+00 1.692132e+00 6.988404e+00 5.871759e+00 5.989404e+00
<GCONST> 1.304877e+02
<STATE> 4
<NUMMIXES> 2
<MIXTURE> 1 5.991925e-01
<MEAN> 22
 2.595365e+00 2.821340e+00 9.611615e-01 1.088051e+00 1.314415e+01 1.625904e+01 9.596493e+01 9.445439e+01 6.210147e+01 5.891845e+01 1.930488e+02 1.919764e+02 1.164926e+02 1.158718e+02 6.998560e+00 5.000000e+00 6.145302e+00 5.876394e+00 6.003416e+00 5.998749e+00 2.300161e+00 2.291934e+00
<VARIANCE> 22
 1.665804e+01 1.663716e+01 3.305619e+00 2.393892e+00 2.766274e+02 4.014088e+02 2.882495e+02 2.520425e+02 7.840064e+01 6.875146e+01 5.109166e+02 4.669830e+02 1.676455e+02 1.388669e+02 6.556320e-02 1.793070e-02 1.241886e-01 1.083274e-01 2.100767e-02 5.619852e-02 5.787588e+00 5.827926e+00
<GCONST> 8.768976e+01
<MIXTURE> 2 4.008064e-01
<MEAN> 22
 1.166717e+01 7.169436e+00 3.205762e+00 1.968300e+00 9.660012e+01 5.007339e+01 9.842625e+01 8.733144e+01 8.209473e+01 6.240436e+01 1.158633e+02 1.621273e+02 1.086821e+02 1.132215e+02 2.738790e+00 4.327707e+00 5.019104e+00 5.506719e+00 4.081091e+00 5.011416e+00 3.086313e+00 2.509339e+00
<VARIANCE> 22
 2.420229e+02 1.495502e+02 2.168423e+01 1.109517e+01 5.241172e+03 3.247929e+03 2.485686e+03 1.142994e+03 5.871953e+02 1.885108e+02 4.356185e+03 3.528935e+03 4.997206e+02 3.362910e+02 7.406849e+00 1.164301e+00 6.802050e+00 6.007516e-01 3.308440e+00 4.286759e+00 6.293578e+00 5.797494e+00
<GCONST> 1.379286e+02
<TRANSP> 5
 0.000000e+00 1.000000e+00 0.000000e+00 0.000000e+00 0.000000e+00
 0.000000e+00 3.408291e-01 6.591709e-01 0.000000e+00 0.000000e+00
 0.000000e+00 0.000000e+00 7.861382e-01 2.138619e-01 0.000000e+00
 0.000000e+00 0.000000e+00 0.000000e+00 8.591455e-01 1.408544e-01
 0.000000e+00 0.000000e+00 0.000000e+00 0.000000e+00 0.000000e+00
<ENDHMM>
~h "CF_2"
<BEGINHMM>
<NUMSTATES> 5
<STATE> 2
<NUMMIXES> 2
<MIXTURE> 1 2.032881e-01
<MEAN> 22
 8.423242e+00 1.334132e+01 3.942455e+00 5.159880e+00 1.247627e+02 1.486792e+02 8.500323e+01 8.615474e+01 6.181622e+01 6.667487e+01 1.373739e+02 8.669701e+01 1.007405e+02 9.480965e+01 4.517015e+00 2.699687e+00 5.101112e+00 4.401723e+00 4.429751e+00 2.346122e+00 2.145979e+00 2.594345e+00
<VARIANCE> 22
 7.988920e+02 8.296876e+02 8.812477e+02 5.530880e+02 3.580531e+04 1.419383e+04 1.989387e+03 2.187501e+03 5.600692e+02 9.456779e+02 6.260270e+03 4.277390e+03 1.386257e+03 1.274352e+03 7.998509e+00 2.115224e+00 5.462199e+00 3.035248e+00 4.065741e+00 5.189466e+00 5.865566e+00 5.919024e+00
<GCONST> 1.591676e+02
<MIXTURE> 2 7.967119e-01
<MEAN> 22
 8.126169e+00 2.104555e+00 3.108726e+00 8.745236e-01 1.043625e+02 2.423612e+01 1.065007e+02 9.727457e+01 8.583825e+01 5.700742e+01 9.915436e+01 1.914020e+02 1.031934e+02 1.154775e+02 2.653632e+00 4.894538e+00 4.301309e+00 5.714343e+00 3.852025e+00 5.855743e+00 2.996420e+00 2.355152e+00
<VARIANCE> 22
 1.250909e+02 9.717733e+00 2.111402e+01 2.171579e+00 5.186119e+03 8.600226e+02 1.460079e+03 4.465378e+02 5.472169e+02 6.812126e+01 4.773050e+03 8.148945e+02 4.143922e+02 1.503801e+02 6.291790e+00 1.704710e-01 7.800834e+00 2.194993e-01 2.956251e+00 4.114888e-01 5.812133e+00 5.954090e+00
<GCONST> 1.211479e+02
<STATE> 3
<NUMMIXES> 2
<MIXTURE> 1 7.075746e-01
<MEAN> 22
 1.081838e+00 9.804206e+00 6.129638e-01 2.843573e+00 9.016095e+00 1.245872e+02 9.414308e+01 1.031275e+02 5.899688e+01 8.121654e+01 1.899241e+02 8.987403e+01 1.131006e+02 9.951466e+01 7.000000e+00 3.079089e+00 6.113862e+00 4.527958e+00 5.999821e+00 2.781536e+00 1.606730e+00 3.037718e+00
<VARIANCE> 22
 4.801967e+00 2.085850e+02 3.305619e+00 1.985882e+01 1.330603e+02 5.442142e+03 2.947191e+02 1.418090e+03 7.827091e+01 6.082327e+02 5.678058e+02 4.211427e+03 2.014921e+02 3.136922e+02 6.556320e-02 1.481733e+00 1.008981e-01 1.652568e+00 2.100767e-02 5.499264e+00 5.209276e+00 6.361712e+00
<GCONST> 1.116946e+02
<MIXTURE> 2 2.924248e-01
<MEAN> 22
 8.075533e+00 7.953327e+00 1.643629e+00 1.379386e+00 7.336871e+01 7.227866e+01 5.569756e+01 5.817450e+01 6.598813e+01 5.848742e+01 8.622874e+01 9.709269e+01 9.966730e+01 9.992810e+01 2.511001e+00 2.996318e+00 5.980518e+00 5.515692e+00 3.907551e+00 2.686200e+00 2.917713e+00 2.880049e+00
<VARIANCE> 22
 9.591097e+01 1.250497e+02 4.921124e+00 3.329846e+00 4.005490e+03 2.656284e+03 1.085063e+03 9.485178e+02 1.935689e+02 6.822572e+01 1.653549e+03 2.358090e+03 1.341446e+02 1.312236e+02 4.366396e+00 2.145420e+00 1.672746e+00 5.456161e-01 1.540463e+00 7.664821e+00 6.002618e+00 5.943209e+00
<GCONST> 1.252759e+02
<STATE> 4
<NUMMIXES> 2
<MIXTURE> 1 7.312911e-01
<MEAN> 22
 1.727084e+00 2.161218e+00 6.319586e-01 8.218269e-01 7.926153e+00 8.172638e+00 9.647376e+01 9.543761e+01 6.107756e+01 5.896342e+01 1.964463e+02 1.953844e+02 1.176292e+02 1.170606e+02 6.996531e+00 5.000000e+00 6.093460e+00 5.916120e+00 6.016599e+00 5.997689e+00 2.011336e+00 2.030401e+00
<VARIANCE> 22
 8.748733e+00 1.028187e+01 3.305619e+00 2.171579e+00 5.708213e+01 5.462379e+01 2.217438e+02 2.075909e+02 6.240492e+01 5.971179e+01 4.731624e+02 4.669565e+02 1.496237e+02 1.377554e+02 6.556320e-02 1.793070e-02 8.472410e-02 7.684521e-02 2.100767e-02 5.619852e-02 5.680224e+00 5.874452e+00
<GCONST> 8.113374e+01
<MIXTURE> 2 2.687085e-01
<MEAN> 22
 9.603394e+00 1.145574e+01 2.503530e+00 3.234834e+00 5.792315e+01 8.221605e+01 8.758327e+01 8.925372e+01 6.924952e+01 7.121249e+01 1.477235e+02 1.293040e+02 1.089037e+02 1.050369e+02 4.628262e+00 3.852342e+00 5.697498e+00 5.166915e+00 5.104217e+00 4.297783e+00 2.437681e+00 2.752936e+00
<VARIANCE> 22
 2.216255e+02 1.977412e+02 2.057333e+01 1.878812e+01 4.430062e+03 4.655359e+03 1.447753e+03 1.585732e+03 2.831184e+02 4.309772e+02 4.340433e+03 3.868845e+03 4.044406e+02 3.200852e+02 8.328601e+00 1.480938e+00 3.257650e+00 1.139551e+00 2.162200e+00 5.988212e+00 5.803450e+00 4.926910e+00
<GCONST> 1.384245e+02
<TRANSP> 5
 0.000000e+00 1.000000e+00 0.000000e+00 0.000000e+00 0.000000e+00
 0.000000e+00 7.313963e-01 2.686037e-01 0.000000e+00 0.000000e+00
 0.000000e+00 0.000000e+00 8.130903e-01 1.869097e-01 0.000000e+00
 0.000000e+00 0.000000e+00 0.000000e+00 8.379618e-01 1.620382e-01
 0.000000e+00 0.000000e+00 0.000000e+00 0.000000e+00 0.000000e+00
<ENDHMM>
~h "CN_2"
<BEGINHMM>
<NUMSTATES> 5
<STATE> 2
<NUMMIXES> 2
<MIXTURE> 1 1.909632e-01
<MEAN> 22
 1.107639e+01 1.943528e+01 4.740945e+00 6.397555e+00 3.531684e+01 1.138916e+02 9.650031e+01 1.003230e+02 6.715153e+01 7.213673e+01 1.692366e+02 1.081387e+02 1.146756e+02 1.038350e+02 5.387917e+00 3.051189e+00 5.706980e+00 4.825535e+00 5.069929e+00 2.741488e+00 1.969005e+00 3.120858e+00
<VARIANCE> 22
 1.544524e+03 1.369552e+03 1.134713e+03 7.775772e+02 3.864739e+03 6.726830e+03 2.309745e+03 1.948483e+03 3.551242e+02 8.445645e+02 8.101788e+03 6.271246e+03 1.623888e+03 1.413174e+03 5.952970e+00 1.841663e+00 2.355264e+00 2.158748e+00 2.166401e+00 5.359048e+00 6.030579e+00 5.485369e+00
<GCONST> 1.560541e+02
<MIXTURE> 2 8.090370e-01
<MEAN> 22
 8.103097e+00 3.914877e+00 2.227643e+00 1.035094e+00 8.727418e+01 3.272935e+01 9.065573e+01 7.315524e+01 7.373422e+01 5.800045e+01 1.083290e+02 1.575562e+02 9.845374e+01 1.074123e+02 3.296804e+00 4.515261e+00 4.894836e+00 5.728337e+00 4.143474e+00 5.556711e+00 3.121997e+00 2.431315e+00
<VARIANCE> 22
 1.241599e+02 3.368586e+01 1.232184e+01 2.171579e+00 4.431941e+03 1.244505e+03 1.929146e+03 9.477441e+02 4.378221e+02 7.981700e+01 3.536529e+03 2.078461e+03 3.868685e+02 1.735430e+02 7.060122e+00 1.056618e+00 5.735382e+00 2.040981e-01 2.863340e+00 3.007636e+00 6.434479e+00 5.980042e+00
<GCONST> 1.273574e+02
<STATE> 3
<NUMMIXES> 2
<MIXTURE> 1 6.017269e-01
<MEAN> 22
 2.087082e+00 3.167816e+00 8.094629e-01 1.040603e+00 9.195335e+00 1.348849e+01 9.671155e+01 9.521223e+01 6.164762e+01 5.984738e+01 1.946157e+02 1.930768e+02 1.162682e+02 1.160119e+02 7.000000e+00 5.000000e+00 6.102198e+00 5.883291e+00 6.000007e+00 6.001201e+00 2.110740e+00 2.300049e+00
<VARIANCE> 22
 1.343837e+01 2.512955e+01 3.305619e+00 2.668254e+00 1.143235e+02 2.522491e+02 2.411385e+02 2.440878e+02 7.950499e+01 6.943851e+01 4.573718e+02 4.429829e+02 1.664552e+02 1.258236e+02 6.556320e-02 1.793070e-02 9.175280e-02 1.030868e-01 2.100767e-02 5.619852e-02 5.777775e+00 5.960270e+00
<GCONST> 8.586032e+01
<MIXTURE> 2 3.982729e-01
<MEAN> 22
 1.366435e+00 1.298592e+01 5.842915e-01 3.705113e+00 1.768449e+01 1.343362e+02 8.741842e+01 9.533897e+01 5.722104e+01 7.891473e+01 1.765006e+02 6.896526e+01 1.095588e+02 9.590253e+01 6.561596e+00 2.676682e+00 6.015297e+00 4.543644e+00 5.780286e+00 2.147249e+00 1.742502e+00 3.386749e+00
<VARIANCE> 22
 6.980854e+00 2.495456e+02 3.305619e+00 2.294420e+01 1.514530e+03 3.874583e+03 3.538202e+02 1.818028e+03 9.821642e+01 5.797917e+02 1.533797e+03 1.758747e+03 1.834121e+02 2.776638e+02 2.195713e+00 9.179970e-01 3.663160e-01 1.598550e+00 6.550686e-01 4.332661e+00 5.695854e+00 5.608118e+00
<GCONST> 1.224529e+02
<STATE> 4
<NUMMIXES> 2
<MIXTURE> 1 4.305436e-01
<MEAN> 22
 1.203786e+01 1.030138e+01 3.214572e+00 2.832010e+00 8.195781e+01 7.493690e+01 8.521690e+01 8.493105e+01 6.891350e+01 6.404956e+01 1.441669e+02 1.492275e+02 1.121817e+02 1.115154e+02 3.962428e+00 4.241050e+00 6.017089e+00 5.497764e+00 4.767794e+00 4.700774e+00 2.639114e+00 2.787505e+00
<VARIANCE> 22
 2.551221e+02 1.701320e+02 3.248185e+01 1.409723e+01 1.164446e+04 7.823106e+03 1.070808e+03 1.163841e+03 1.902473e+02 1.969247e+02 3.421713e+03 3.002056e+03 2.830380e+02 2.075425e+02 9.565924e+00 1.193420e+00 2.386141e+00 4.917222e-01 3.313594e+00 4.860275e+00 5.823156e+00 5.442579e+00
<GCONST> 1.360884e+02
<MIXTURE> 2 5.694556e-01
<MEAN> 22
 6.419630e+00 7.206352e+00 1.263134e+00 1.053682e+00 1.137374e+02 1.104279e+02 5.510894e+01 4.880759e+01 6.542631e+01 5.831424e+01 5.481008e+01 6.016369e+01 9.881037e+01 9.914735e+01 1.857331e+00 1.879243e+00 5.420621e+00 5.513492e+00 3.185794e+00 5.827261e-01 2.925691e+00 2.928911e+00
<VARIANCE> 22
 8.943735e+01 1.162561e+02 3.305619e+00 2.171579e+00 4.534072e+03 3.581385e+03 9.365807e+02 7.473042e+02 4.599856e+02 2.838537e+02 8.198792e+02 8.035036e+02 8.895384e+02 8.166035e+02 6.903718e-01 7.212291e-01 3.419616e+00 2.377177e+00 1.030912e+00 3.819855e-01 6.101811e+00 6.092595e+00
<GCONST> 1.244708e+02
<TRANSP> 5
 0.000000e+00 1.000000e+00 0.000000e+00 0.000000e+00 0.000000e+00
 0.000000e+00 6.672403e-01 3.327598e-01 0.000000e+00 0.000000e+00
 0.000000e+00 0.000000e+00 8.842239e-01 1.157762e-01 0.000000e+00
 0.000000e+00 0.000000e+00 0.000000e+00 7.941317e-01 2.058683e-01
 0.000000e+00 0.000000e+00 0.000000e+00 0.000000e+00 0.000000e+00
<ENDHMM>
~h "TH_D"
<BEGINHMM>
<NUMSTATES> 5
<STATE> 2
<NUMMIXES> 2
<MIXTURE> 1 5.609940e-01
<MEAN> 22
 1.333026e+01 1.172619e+01 3.599580e+00 2.922326e+00 6.256256e+01 5.625321e+01 8.317872e+01 7.802209e+01 7.029487e+01 6.253204e+01 1.393111e+02 1.441544e+02 1.065864e+02 1.081276e+02 4.087403e+00 4.248239e+00 5.726701e+00 5.534870e+00 4.950867e+00 4.947490e+00 3.605197e+00 3.228385e+00
<VARIANCE> 22
 2.890047e+02 2.762487e+02 3.969597e+01 2.295331e+01 3.615533e+03 3.182568e+03 1.419360e+03 1.131314e+03 3.196551e+02 2.258681e+02 3.537619e+03 3.021715e+03 4.379682e+02 2.914401e+02 9.258821e+00 1.366027e+00 3.217941e+00 6.788345e-01 2.541270e+00 4.897669e+00 7.076104e+00 6.301007e+00
<GCONST> 1.378500e+02
<MIXTURE> 2 4.390064e-01
<MEAN> 22
 7.714403e+00 9.172875e+00 1.259198e+00 1.209242e+00 1.183602e+02 1.193883e+02 5.564652e+01 5.414694e+01 6.755343e+01 6.211117e+01 6.248832e+01 6.440304e+01 1.051088e+02 1.053763e+02 1.877382e+00 2.067858e+00 6.125983e+00 5.821603e+00 3.435503e+00 6.292564e-01 3.153891e+00 3.174210e+00
<VARIANCE> 22
 1.204855e+02 1.560533e+02 3.305619e+00 2.645365e+00 2.502133e+03 1.938017e+03 6.352311e+02 6.028496e+02 1.264454e+02 7.860087e+01 5.723926e+02 5.897690e+02 2.456496e+02 1.860978e+02 5.530906e-01 6.304199e-01 3.356228e-01 3.145309e-01 3.526716e-01 4.231974e-01 6.553517e+00 6.344073e+00
<GCONST> 1.118807e+02
<STATE> 3
<NUMMIXES> 2
<MIXTURE> 1 6.334941e-01
<MEAN> 22
 2.353498e+00 3.030815e+00 8.704036e-01 1.025476e+00 8.707273e+00 1.251839e+01 9.612454e+01 9.377155e+01 6.100101e+01 5.812108e+01 1.938402e+02 1.919087e+02 1.161161e+02 1.151844e+02 6.998687e+00 5.000000e+00 6.102583e+00 5.904382e+00 6.000174e+00 6.001753e+00 2.215526e+00 2.428375e+00
<VARIANCE> 22
 1.500477e+01 1.978937e+01 3.305619e+00 2.193363e+00 8.092220e+01 2.229172e+02 2.487952e+02 2.196347e+02 7.110538e+01 6.689103e+01 4.715031e+02 4.355682e+02 1.608120e+02 1.325216e+02 6.556320e-02 1.793070e-02 9.206163e-02 8.647213e-02 2.100767e-02 5.619852e-02 6.016673e+00 5.935016e+00
<GCONST> 8.473801e+01
<MIXTURE> 2 3.665055e-01
<MEAN> 22
 1.623236e+00 1.230843e+01 6.944536e-01 3.625522e+00 1.726434e+01 1.311255e+02 9.039307e+01 9.488438e+01 5.869384e+01 7.901640e+01 1.803151e+02 7.734120e+01 1.109511e+02 9.764522e+01 6.597625e+00 2.876642e+00 6.024601e+00 4.609079e+00 5.809811e+00 2.502906e+00 1.826585e+00 3.304882e+00
<VARIANCE> 22
 1.055229e+01 2.557697e+02 3.305619e+00 2.468895e+01 1.488927e+03 4.679830e+03 3.780234e+02 1.991521e+03 1.045862e+02 5.570596e+02 1.525678e+03 2.337386e+03 2.075314e+02 2.925350e+02 2.108818e+00 1.076555e+00 4.803391e-01 1.797584e+00 6.158328e-01 5.403337e+00 5.836594e+00 5.717851e+00
<GCONST> 1.244809e+02
<STATE> 4
<NUMMIXES> 2
<MIXTURE> 1 7.939904e-01
<MEAN> 22
 9.877957e+00 5.398391e+00 2.752528e+00 1.429989e+00 9.445009e+01 3.903111e+01 9.832314e+01 8.825887e+01 7.591138e+01 5.970543e+01 1.220436e+02 1.748491e+02 1.066748e+02 1.125492e+02 3.340488e+00 4.683317e+00 5.158056e+00 5.723673e+00 4.254489e+00 5.674701e+00 2.955868e+00 2.459009e+00
<VARIANCE> 22
 2.263058e+02 1.000722e+02 1.848669e+01 5.535416e+00 5.961378e+03 2.396053e+03 1.752684e+03 9.555732e+02 3.592574e+02 1.022404e+02 4.745261e+03 1.639512e+03 3.637805e+02 1.727035e+02 8.284402e+00 4.773084e-01 5.715271e+00 2.105645e-01 3.556194e+00 1.536774e+00 6.054723e+00 6.014108e+00
<GCONST> 1.301750e+02
<MIXTURE> 2 2.060090e-01
<MEAN> 22
 1.753420e+00 8.165710e+00 6.709124e-01 1.945900e+00 8.839102e+01 1.339918e+02 6.231733e+01 6.477171e+01 5.070708e+01 5.287877e+01 1.049977e+02 5.052246e+01 7.903167e+01 7.263470e+01 3.141602e+00 1.648538e+00 4.090297e+00 3.512115e+00 3.470258e+00 8.295370e-01 1.560429e+00 2.070020e+00
<VARIANCE> 22
 1.384903e+01 2.113776e+02 3.305619e+00 1.672279e+01 2.386611e+04 1.255439e+04 2.896404e+03 3.173861e+03 1.268713e+03 1.536168e+03 8.994962e+03 2.129582e+03 3.469690e+03 2.692723e+03 9.416870e+00 1.508239e+00 8.447031e+00 6.185582e+00 6.353505e+00 1.168785e+00 5.274325e+00 5.898787e+00
<GCONST> 1.473326e+02
<TRANSP> 5
 0.000000e+00 1.000000e+00 0.000000e+00 0.000000e+00 0.000000e+00
 0.000000e+00 7.646686e-01 2.353313e-01 0.000000e+00 0.000000e+00
 0.000000e+00 0.000000e+00 8.819064e-01 1.180936e-01 0.000000e+00
 0.000000e+00 0.000000e+00 0.000000e+00 7.088016e-01 2.911984e-01
 0.000000e+00 0.000000e+00 0.000000e+00 0.000000e+00 0.000000e+00
<ENDHMM>
~h "TH_U"
<BEGINHMM>
<NUMSTATES> 5
<STATE> 2
<NUMMIXES> 2
<MIXTURE> 1 7.357840e-01
<MEAN> 22
 3.008163e+01 2.861297e+01 2.386736e+01 2.008250e+01 4.720692e+01 6.965939e+01 8.522914e+01 8.957861e+01 6.430254e+01 6.510052e+01 1.547732e+02 1.357700e+02 1.077501e+02 1.042455e+02 5.127754e+00 3.813112e+00 5.702802e+00 5.182084e+00 5.147369e+00 4.127683e+00 2.501673e+00 2.821124e+00
<VARIANCE> 22
 1.075299e+04 7.632998e+03 9.128791e+03 5.795628e+03 5.509419e+03 6.522683e+03 1.179231e+03 1.551888e+03 3.469520e+02 5.951779e+02 4.169292e+03 4.469826e+03 7.000712e+02 6.568698e+02 7.546333e+00 2.208713e+00 2.622338e+00 1.885341e+00 2.371891e+00 6.225486e+00 6.293242e+00 6.177280e+00
<GCONST> 1.610393e+02
<MIXTURE> 2 2.642163e-01
<MEAN> 22
 0.000000e+00 0.000000e+00 0.000000e+00 0.000000e+00 2.239472e+02 1.711127e+02 0.000000e+00 0.000000e+00 0.000000e+00 0.000000e+00 0.000000e+00 0.000000e+00 0.000000e+00 0.000000e+00 0.000000e+00 0.000000e+00 0.000000e+00 0.000000e+00 0.000000e+00 0.000000e+00 0.000000e+00 0.000000e+00
<VARIANCE> 22
 4.801967e+00 4.073976e+00 3.305619e+00 2.171579e+00 6.656780e+04 3.880650e+04 9.965595e+00 1.121768e+01 2.939380e+00 3.532339e+00 3.789023e+01 4.425340e+01 4.237021e+00 4.029697e+00 6.556320e-02 1.793070e-02 2.348518e-02 1.180012e-02 2.100767e-02 5.619852e-02 6.159949e-02 6.062591e-02
<GCONST> 5.710044e+01
<STATE> 3
<NUMMIXES> 2
<MIXTURE> 1 6.407938e-01
<MEAN> 22
 1.717742e+00 1.056216e+01 7.749401e-01 3.115668e+00 6.993349e+00 1.097118e+02 9.141463e+01 9.179424e+01 5.769530e+01 7.562817e+01 1.879522e+02 9.432841e+01 1.119001e+02 1.004726e+02 6.999700e+00 3.246539e+00 6.060082e+00 4.899692e+00 5.999702e+00 3.135718e+00 1.656666e+00 2.963798e+00
<VARIANCE> 22
 7.926772e+01 2.511359e+02 6.731647e+01 6.134970e+01 6.387646e+01 5.520718e+03 2.065546e+02 1.561539e+03 6.064091e+01 4.813225e+02 4.222544e+02 3.661318e+03 1.412993e+02 2.467058e+02 6.556320e-02 1.499492e+00 5.647222e-02 1.363003e+00 2.100767e-02 6.357759e+00 5.451803e+00 5.757798e+00
<GCONST> 1.156565e+02
<MIXTURE> 2 3.592068e-01
<MEAN> 22
 9.052551e+00 8.263402e+00 1.456345e+00 1.494576e+00 9.117947e+01 8.833965e+01 5.525358e+01 5.401740e+01 6.737836e+01 5.939640e+01 7.748038e+01 8.633527e+01 1.017683e+02 1.007753e+02 1.984219e+00 2.673182e+00 5.867380e+00 5.645476e+00 3.688867e+00 2.168448e+00 2.990381e+00 2.785952e+00
<VARIANCE> 22
 1.497499e+02 1.289357e+02 3.872284e+00 3.716388e+00 3.861105e+03 3.114583e+03 1.014234e+03 9.134013e+02 2.409436e+02 1.417884e+02 1.587456e+03 1.983069e+03 2.756861e+02 2.562328e+02 2.725882e+00 1.814684e+00 1.972408e+00 8.418356e-01 1.194704e+00 6.972731e+00 5.731453e+00 5.872555e+00
<GCONST> 1.273183e+02
<STATE> 4
<NUMMIXES> 2
<MIXTURE> 1 6.458725e-01
<MEAN> 22
 3.183069e+00 3.513373e+00 1.110008e+00 1.282656e+00 1.180753e+01 1.356694e+01 9.776980e+01 9.517230e+01 6.278492e+01 5.878438e+01 1.958858e+02 1.941586e+02 1.177751e+02 1.166775e+02 6.999042e+00 5.000000e+00 6.139209e+00 5.900046e+00 6.002099e+00 5.998827e+00 2.257003e+00 2.262057e+00
<VARIANCE> 22
 7.653030e+01 6.085987e+01 3.727309e+01 2.355873e+01 1.913478e+02 2.403857e+02 4.075739e+02 2.894868e+02 1.098103e+02 7.304178e+01 7.039760e+02 5.937336e+02 2.455393e+02 1.688838e+02 6.556320e-02 1.793070e-02 1.198313e-01 8.995723e-02 2.100767e-02 5.619852e-02 5.887199e+00 5.863658e+00
<GCONST> 9.616136e+01
<MIXTURE> 2 3.541273e-01
<MEAN> 22
 1.258221e+01 8.146331e+00 3.313869e+00 1.951127e+00 1.092122e+02 6.401712e+01 9.348862e+01 8.118273e+01 7.847594e+01 6.220526e+01 1.035428e+02 1.429081e+02 1.030934e+02 1.086241e+02 2.635537e+00 4.091539e+00 4.826726e+00 5.532675e+00 3.962782e+00 4.583855e+00 3.085920e+00 2.561334e+00
<VARIANCE> 22
 2.350444e+02 1.835109e+02 2.378432e+01 1.029078e+01 5.320767e+03 3.677279e+03 2.190148e+03 1.190766e+03 5.161765e+02 2.144143e+02 3.506125e+03 3.502281e+03 4.281516e+02 2.590401e+02 6.675884e+00 1.515717e+00 6.690345e+00 6.774765e-01 3.026712e+00 5.782951e+00 5.452035e+00 5.547765e+00
<GCONST> 1.378207e+02
<TRANSP> 5
 0.000000e+00 1.000000e+00 0.000000e+00 0.000000e+00 0.000000e+00
 0.000000e+00 3.765261e-01 6.234739e-01 0.000000e+00 0.000000e+00
 0.000000e+00 0.000000e+00 8.121701e-01 1.878299e-01 0.000000e+00
 0.000000e+00 0.000000e+00 0.000000e+00 8.781871e-01 1.218129e-01
 0.000000e+00 0.000000e+00 0.000000e+00 0.000000e+00 0.000000e+00
<ENDHMM>
~h "CP_2"
<BEGINHMM>
<NUMSTATES> 5
<STATE> 2
<NUMMIXES> 2
<MIXTURE> 1 8.281896e-01
<MEAN> 22
 8.099842e+00 8.834887e+00 3.541141e+00 3.410377e+00 8.284515e+01 9.690824e+01 1.059657e+02 1.012503e+02 7.698338e+01 7.057876e+01 1.722027e+02 1.484453e+02 1.178296e+02 1.126762e+02 5.146800e+00 4.088042e+00 5.689320e+00 5.291023e+00 5.011002e+00 4.481704e+00 2.360158e+00 2.647888e+00
<VARIANCE> 22
 7.257012e+02 5.128622e+02 5.427745e+02 3.107962e+02 1.819669e+04 1.417663e+04 2.630290e+03 1.338926e+03 7.580814e+02 6.403290e+02 4.440050e+03 4.405744e+03 5.427672e+02 2.602646e+02 7.731863e+00 1.481121e+00 3.168789e+00 9.557023e-01 2.953447e+00 5.163465e+00 5.910784e+00 6.192965e+00
<GCONST> 1.513503e+02
<MIXTURE> 2 1.718103e-01
<MEAN> 22
 0.000000e+00 0.000000e+00 0.000000e+00 0.000000e+00 3.380436e+02 2.713044e+02 1.232595e-32 0.000000e+00 0.000000e+00 -9.244464e-33 0.000000e+00 0.000000e+00 0.000000e+00 -9.244464e-33 0.000000e+00 0.000000e+00 0.000000e+00 0.000000e+00 -9.629650e-34 0.000000e+00 0.000000e+00 0.000000e+00
<VARIANCE> 22
 4.801967e+00 4.073976e+00 3.305619e+00 2.171579e+00 4.612821e+04 2.939711e+04 9.965595e+00 1.121768e+01 2.939380e+00 3.532339e+00 3.789023e+01 4.425340e+01 4.237021e+00 4.029697e+00 6.556320e-02 1.793070e-02 2.348518e-02 1.180012e-02 2.100767e-02 5.619852e-02 6.159949e-02 6.062591e-02
<GCONST> 5.645594e+01
<STATE> 3
<NUMMIXES> 2
<MIXTURE> 1 6.405554e-01
<MEAN> 22
 1.598705e+00 1.130340e+01 7.026743e-01 3.540165e+00 9.174416e+00 1.131738e+02 9.340794e+01 9.996941e+01 5.904571e+01 7.723614e+01 1.913587e+02 9.742113e+01 1.138120e+02 1.014031e+02 7.000000e+00 3.308021e+00 6.088966e+00 4.711637e+00 6.000081e+00 3.227699e+00 1.762975e+00 3.044371e+00
<VARIANCE> 22
 9.136921e+00 2.461487e+02 3.305619e+00 2.534893e+01 1.201640e+02 6.043454e+03 2.316720e+02 1.389741e+03 5.968438e+01 4.475477e+02 4.599570e+02 4.249138e+03 1.338535e+02 2.738599e+02 6.556320e-02 1.565486e+00 8.105019e-02 1.445858e+00 2.100767e-02 6.031643e+00 5.624743e+00 5.885129e+00
<GCONST> 1.109587e+02
<MIXTURE> 2 3.594448e-01
<MEAN> 22
 8.399074e+00 9.899801e+00 1.776953e+00 1.891328e+00 8.374284e+01 8.863291e+01 5.708845e+01 6.687083e+01 6.694828e+01 6.238292e+01 8.108843e+01 7.705775e+01 9.855757e+01 9.765798e+01 2.156882e+00 2.663155e+00 5.821410e+00 5.295493e+00 3.919217e+00 1.910146e+00 3.123740e+00 2.987780e+00
<VARIANCE> 22
 1.282052e+02 1.701887e+02 8.285873e+00 6.966338e+00 4.655009e+03 3.803251e+03 9.379446e+02 1.173250e+03 1.777588e+02 1.861115e+02 1.860592e+03 2.123996e+03 2.867188e+02 4.460843e+02 3.885542e+00 1.263636e+00 2.413465e+00 1.228482e+00 1.475654e+00 5.147013e+00 5.864458e+00 6.319916e+00
<GCONST> 1.307537e+02
<STATE> 4
<NUMMIXES> 2
<MIXTURE> 1 6.128055e-01
<MEAN> 22
 3.304516e+00 3.055393e+00 1.047902e+00 1.083932e+00 1.381624e+01 1.577095e+01 9.765942e+01 9.602942e+01 6.410571e+01 6.015059e+01 1.965478e+02 1.954418e+02 1.191204e+02 1.183676e+02 6.993492e+00 5.000000e+00 6.163443e+00 5.888293e+00 6.001248e+00 5.999258e+00 2.530452e+00 2.358145e+00
<VARIANCE> 22
 2.618076e+01 1.945579e+01 3.305619e+00 2.271806e+00 2.453402e+02 3.438569e+02 3.980503e+02 2.762984e+02 1.031221e+02 7.819361e+01 7.136697e+02 5.660618e+02 2.183804e+02 1.590240e+02 6.556320e-02 1.793070e-02 1.367280e-01 9.922933e-02 2.100767e-02 5.619852e-02 6.283372e+00 6.195568e+00
<GCONST> 8.986707e+01
<MIXTURE> 2 3.871941e-01
<MEAN> 22
 1.001474e+01 8.619572e+00 2.697856e+00 1.982014e+00 7.315242e+01 5.452512e+01 7.915448e+01 8.235059e+01 7.294948e+01 6.056470e+01 1.176777e+02 1.509699e+02 1.063042e+02 1.087794e+02 2.755289e+00 4.297405e+00 5.766718e+00 5.487522e+00 4.232306e+00 5.191263e+00 3.092396e+00 2.829507e+00
<VARIANCE> 22
 1.508878e+02 1.829223e+02 1.341426e+01 8.945373e+00 3.740354e+03 3.154988e+03 1.455483e+03 1.104600e+03 2.717206e+02 1.717127e+02 2.897428e+03 2.807692e+03 3.170945e+02 2.478456e+02 8.376696e+00 1.020871e+00 3.769945e+00 6.317623e-01 3.089367e+00 3.783864e+00 6.474111e+00 5.764442e+00
<GCONST> 1.330468e+02
<TRANSP> 5
 0.000000e+00 1.000000e+00 0.000000e+00 0.000000e+00 0.000000e+00
 0.000000e+00 4.154723e-01 5.845277e-01 0.000000e+00 0.000000e+00
 0.000000e+00 0.000000e+00 7.833777e-01 2.166223e-01 0.000000e+00
 0.000000e+00 0.000000e+00 0.000000e+00 8.612967e-01 1.387033e-01
 0.000000e+00 0.000000e+00 0.000000e+00 0.000000e+00 0.000000e+00
<ENDHMM>
~h "CV_2"
<BEGINHMM>
<NUMSTATES> 5
<STATE> 2
<NUMMIXES> 2
<MIXTURE> 1 7.125683e-01
<MEAN> 22
 1.101224e+01 5.775789e+00 3.630235e+00 2.494905e+00 9.663149e+01 2.536654e+01 1.068856e+02 9.177981e+01 8.029221e+01 5.770957e+01 1.190648e+02 1.863995e+02 1.068759e+02 1.140633e+02 3.764913e+00 4.901348e+00 4.699012e+00 5.752459e+00 4.292777e+00 5.924832e+00 2.883582e+00 2.360863e+00
<VARIANCE> 22
 6.580901e+02 4.284984e+02 3.811716e+02 2.247021e+02 7.879323e+03 8.838820e+02 2.080093e+03 4.747394e+02 5.354205e+02 7.717329e+01 5.502079e+03 9.878502e+02 3.195263e+02 1.426196e+02 7.606488e+00 1.902725e-01 6.548791e+00 1.896439e-01 2.862593e+00 4.594430e-01 5.824052e+00 6.097178e+00
<GCONST> 1.351949e+02
<MIXTURE> 2 2.874319e-01
<MEAN> 22
 2.286916e+00 4.721014e+00 6.272546e-01 1.238418e+00 1.428754e+02 1.627197e+02 5.424903e+01 6.272907e+01 4.546678e+01 4.833149e+01 8.685243e+01 4.246804e+01 7.459699e+01 6.668496e+01 2.709626e+00 1.632831e+00 3.875485e+00 3.208248e+00 3.117679e+00 8.962957e-01 1.546656e+00 2.318851e+00
<VARIANCE> 22
 2.637159e+01 6.449550e+01 3.305619e+00 3.746664e+00 4.114959e+04 1.813053e+04 2.197690e+03 3.122813e+03 1.218112e+03 1.462104e+03 6.542567e+03 1.411923e+03 3.087557e+03 2.522037e+03 9.022386e+00 1.517647e+00 8.761808e+00 5.929349e+00 6.146213e+00 9.685851e-01 5.241472e+00 6.439465e+00
<GCONST> 1.447302e+02
<STATE> 3
<NUMMIXES> 2
<MIXTURE> 1 6.185154e-01
<MEAN> 22
 1.632131e+00 1.199874e+01 6.539703e-01 3.242125e+00 1.163375e+01 1.001659e+02 9.311639e+01 9.156393e+01 5.924975e+01 7.297080e+01 1.897249e+02 1.042433e+02 1.136730e+02 1.029963e+02 6.999839e+00 3.420931e+00 6.147661e+00 4.973076e+00 5.999811e+00 3.328181e+00 1.940814e+00 3.159369e+00
<VARIANCE> 22
 7.777772e+00 2.283363e+02 3.305619e+00 2.028415e+01 2.918454e+02 4.867458e+03 2.919357e+02 1.364202e+03 7.798228e+01 4.136537e+02 5.438438e+02 3.911863e+03 1.662653e+02 2.440541e+02 6.556320e-02 1.478812e+00 1.258578e-01 1.350802e+00 2.100767e-02 6.208177e+00 5.848239e+00 5.781983e+00
<GCONST> 1.121237e+02
<MIXTURE> 2 3.814839e-01
<MEAN> 22
 7.453084e+00 7.281783e+00 1.273955e+00 1.110346e+00 1.260261e+02 1.160477e+02 6.697009e+01 6.189703e+01 6.675538e+01 5.972290e+01 5.876875e+01 6.703164e+01 1.074542e+02 1.070669e+02 1.647895e+00 2.428432e+00 6.180016e+00 5.558623e+00 3.204615e+00 1.329226e+00 2.827405e+00 3.031559e+00
<VARIANCE> 22
 1.305016e+02 9.666872e+01 3.868609e+00 2.467551e+00 3.765433e+03 3.228174e+03 9.150377e+02 8.693545e+02 1.770346e+02 9.013661e+01 7.245439e+02 1.513970e+03 3.005685e+02 2.903656e+02 5.470554e-01 8.580206e-01 1.683556e+00 6.604102e-01 6.261131e-01 2.770546e+00 5.927342e+00 5.777069e+00
<GCONST> 1.204286e+02
<STATE> 4
<NUMMIXES> 2
<MIXTURE> 1 5.896717e-01
<MEAN> 22
 1.944044e+00 2.371954e+00 6.830597e-01 8.713022e-01 7.997507e+00 9.587013e+00 9.748961e+01 9.488776e+01 6.182331e+01 5.862840e+01 1.967435e+02 1.950074e+02 1.180635e+02 1.168269e+02 7.000000e+00 5.000000e+00 6.112885e+00 5.935956e+00 6.000000e+00 6.000079e+00 2.140049e+00 2.101896e+00
<VARIANCE> 22
 1.074965e+01 1.285242e+01 3.305619e+00 2.171579e+00 6.726875e+01 1.306911e+02 3.477008e+02 2.348821e+02 8.840804e+01 7.214999e+01 7.043572e+02 5.576439e+02 2.357788e+02 1.659332e+02 6.556320e-02 1.793070e-02 1.001424e-01 5.994287e-02 2.100767e-02 5.619852e-02 5.662680e+00 5.742205e+00
<GCONST> 8.481944e+01
<MIXTURE> 2 4.103286e-01
<MEAN> 22
 1.062731e+01 9.968429e+00 2.962608e+00 2.796911e+00 7.866870e+01 7.370054e+01 8.309888e+01 7.016338e+01 7.130554e+01 6.268926e+01 1.110881e+02 1.175600e+02 1.032335e+02 1.045768e+02 2.874858e+00 3.693067e+00 5.310722e+00 5.419663e+00 4.330910e+00 3.948623e+00 2.816717e+00 2.863756e+00
<VARIANCE> 22
 1.864072e+02 1.679058e+02 2.018935e+01 1.290166e+01 3.805226e+03 3.473716e+03 1.531638e+03 1.474398e+03 3.248206e+02 2.174240e+02 3.500534e+03 2.828186e+03 3.047202e+02 2.186469e+02 7.766507e+00 1.142162e+00 5.331147e+00 6.609575e-01 2.927463e+00 7.178336e+00 5.772458e+00 5.402303e+00
<GCONST> 1.356818e+02
<TRANSP> 5
 0.000000e+00 1.000000e+00 0.000000e+00 0.000000e+00 0.000000e+00
 0.000000e+00 6.003790e-01 3.996211e-01 0.000000e+00 0.000000e+00
 0.000000e+00 0.000000e+00 7.915989e-01 2.084012e-01 0.000000e+00
 0.000000e+00 0.000000e+00 0.000000e+00 8.419899e-01 1.580101e-01
 0.000000e+00 0.000000e+00 0.000000e+00 0.000000e+00 0.000000e+00
<ENDHMM>
~h "SIL"
<BEGINHMM>
<NUMSTATES> 5
<STATE> 2
<NUMMIXES> 2
<MIXTURE> 1 4.118799e-01
<MEAN> 22
 7.129525e+01 6.754263e+01 6.263623e+01 5.192265e+01 1.707236e+01 4.233264e+01 5.349818e+01 1.054827e+02 6.165845e+01 5.155959e+01 9.730753e+01 1.180180e+02 8.269616e+01 5.467732e+01 4.205784e+00 3.270566e+00 5.131649e+00 3.848652e+00 4.015560e+00 3.758336e+00 3.064499e+00 2.840923e+00
<VARIANCE> 22
 2.809969e+04 2.006423e+04 2.398359e+04 1.532413e+04 9.784226e+02 1.959943e+03 1.085089e+03 7.577904e+02 1.229182e+02 7.168129e+02 3.322732e+03 2.307497e+03 1.055376e+03 1.567575e+03 3.982608e+00 1.033310e+00 1.351219e+00 1.660092e+00 1.721004e+00 2.242155e+00 7.805298e+00 8.073899e+00
<GCONST> 1.576664e+02
<MIXTURE> 2 5.881203e-01
<MEAN> 22
 5.532112e+01 4.672831e+01 5.011448e+01 4.040134e+01 2.289548e+02 1.807871e+02 0.000000e+00 0.000000e+00 0.000000e+00 0.000000e+00 0.000000e+00 0.000000e+00 0.000000e+00 0.000000e+00 0.000000e+00 0.000000e+00 0.000000e+00 0.000000e+00 0.000000e+00 0.000000e+00 3.263966e-01 3.269931e-01
<VARIANCE> 22
 2.540784e+04 1.811620e+04 2.079130e+04 1.357742e+04 6.433522e+04 4.031972e+04 9.965595e+00 1.121768e+01 2.939380e+00 3.532339e+00 3.789023e+01 4.425340e+01 4.237021e+00 4.029697e+00 6.556320e-02 1.793070e-02 2.348518e-02 1.180012e-02 2.100767e-02 5.619852e-02 8.726460e-01 8.764421e-01
<GCONST> 9.688771e+01
<STATE> 3
<NUMMIXES> 2
<MIXTURE> 1 4.821796e-01
<MEAN> 22
 2.395016e+00 2.493385e+00 8.976623e-01 9.304079e-01 1.210690e+01 1.146481e+01 1.134929e+02 1.088637e+02 7.084238e+01 6.527642e+01 2.163637e+02 2.133103e+02 1.288083e+02 1.273417e+02 6.998381e+00 5.000146e+00 6.214030e+00 5.880544e+00 6.002184e+00 5.995002e+00 2.217540e+00 2.022971e+00
<VARIANCE> 22
 1.538003e+01 1.653397e+01 3.305619e+00 2.171579e+00 2.216445e+02 1.746110e+02 2.401817e+02 1.338831e+02 6.324976e+01 5.369982e+01 3.534102e+02 2.661014e+02 1.319467e+02 8.306812e+01 6.556320e-02 1.793070e-02 1.682720e-01 1.052088e-01 2.100767e-02 5.619852e-02 5.884488e+00 5.642974e+00
<GCONST> 8.374995e+01
<MIXTURE> 2 5.178210e-01
<MEAN> 22
 8.914062e+00 1.027628e+01 2.314217e+00 2.687083e+00 8.015080e+01 9.454032e+01 9.797923e+01 9.544009e+01 7.730921e+01 7.450360e+01 1.387944e+02 1.300248e+02 1.139088e+02 1.134704e+02 3.915885e+00 3.683773e+00 5.409127e+00 5.215663e+00 4.590604e+00 3.814668e+00 2.827575e+00 2.878430e+00
<VARIANCE> 22
 1.968057e+02 2.448585e+02 1.710608e+01 1.871044e+01 5.918623e+03 6.581289e+03 1.602060e+03 1.597001e+03 3.609345e+02 4.957690e+02 5.473449e+03 4.419846e+03 3.700932e+02 1.832277e+02 8.389231e+00 1.758905e+00 4.562762e+00 1.006024e+00 2.775080e+00 6.423858e+00 6.360363e+00 5.986348e+00
<GCONST> 1.401741e+02
<STATE> 4
<NUMMIXES> 2
<MIXTURE> 1 5.038294e-01
<MEAN> 22
 1.593258e+00 2.930519e+00 5.889776e-01 1.012389e+00 5.961552e+00 9.791506e+00 8.722099e+01 8.594123e+01 5.583242e+01 5.439622e+01 1.819188e+02 1.804898e+02 1.098144e+02 1.091309e+02 6.999332e+00 5.000005e+00 6.008977e+00 5.932391e+00 6.000000e+00 6.001366e+00 1.965075e+00 2.254966e+00
<VARIANCE> 22
 7.682484e+00 2.107532e+01 3.305619e+00 2.497299e+00 4.932809e+01 1.292312e+02 5.954388e+01 8.852590e+01 2.043191e+01 4.320050e+01 1.087065e+02 1.387479e+02 3.587650e+01 4.332246e+01 6.556320e-02 1.793070e-02 2.348518e-02 6.309782e-02 2.100767e-02 5.619852e-02 5.710732e+00 5.955453e+00
<GCONST> 7.223878e+01
<MIXTURE> 2 4.961684e-01
<MEAN> 22
 5.173783e+00 1.086482e+01 1.267660e+00 2.793372e+00 4.200754e+01 1.082608e+02 7.890058e+01 8.334428e+01 5.803352e+01 6.934186e+01 1.469236e+02 8.749880e+01 1.033871e+02 9.529113e+01 5.350919e+00 3.134516e+00 5.927486e+00 5.012634e+00 5.275484e+00 2.943295e+00 2.239792e+00 3.063943e+00
<VARIANCE> 22
 9.873462e+01 1.857157e+02 7.021848e+00 1.770008e+01 3.174798e+03 4.098187e+03 5.882107e+02 1.515077e+03 1.045756e+02 4.043470e+02 2.763466e+03 2.803963e+03 1.065188e+02 1.391254e+02 6.793605e+00 1.582660e+00 1.272899e+00 1.360315e+00 1.865456e+00 6.454402e+00 6.187734e+00 5.805910e+00
<GCONST> 1.302669e+02
<TRANSP> 5
 0.000000e+00 1.000000e+00 0.000000e+00 0.000000e+00 0.000000e+00
 0.000000e+00 8.657323e-01 1.342677e-01 0.000000e+00 0.000000e+00
 0.000000e+00 0.000000e+00 9.957678e-01 4.232152e-03 0.000000e+00
 0.000000e+00 0.000000e+00 0.000000e+00 9.965322e-01 3.467819e-03
 0.000000e+00 0.000000e+00 0.000000e+00 0.000000e+00 0.000000e+00
<ENDHMM>
~h "TT_2"
<BEGINHMM>
<NUMSTATES> 5
<STATE> 2
<NUMMIXES> 2
<MIXTURE> 1 5.402576e-01
<MEAN> 22
 8.779561e+00 2.369840e+00 2.567687e+00 1.030957e+00 1.136796e+02 2.248062e+01 1.124432e+02 1.009309e+02 8.971345e+01 5.812529e+01 1.180626e+02 2.019025e+02 1.079872e+02 1.197620e+02 3.136764e+00 5.000316e+00 4.594428e+00 5.889986e+00 4.081521e+00 5.997121e+00 2.892637e+00 2.440238e+00
<VARIANCE> 22
 1.528980e+02 1.255299e+01 1.623974e+01 2.171579e+00 8.884780e+03 6.963821e+02 2.411831e+03 2.580083e+02 8.715098e+02 8.866320e+01 4.756130e+03 5.368047e+02 4.828662e+02 1.549289e+02 7.115361e+00 1.793070e-02 7.241263e+00 9.791193e-02 2.641172e+00 5.619852e-02 5.808390e+00 6.248831e+00
<GCONST> 1.170469e+02
<MIXTURE> 2 4.597417e-01
<MEAN> 22
 8.698942e+00 9.394353e+00 2.417190e+00 2.737072e+00 7.830431e+01 8.334926e+01 8.056109e+01 6.468198e+01 7.178393e+01 6.719719e+01 1.085732e+02 9.620901e+01 1.008413e+02 1.011825e+02 2.899593e+00 3.016778e+00 5.710006e+00 5.413435e+00 4.124329e+00 2.682966e+00 3.139254e+00 3.157372e+00
<VARIANCE> 22
 1.810028e+02 2.061468e+02 1.714794e+01 1.513866e+01 4.177669e+03 4.117462e+03 1.765763e+03 1.673487e+03 5.948667e+02 3.693957e+02 3.068909e+03 1.757569e+03 2.505310e+02 2.104121e+02 6.867674e+00 1.632550e+00 3.313441e+00 8.922508e-01 2.932016e+00 7.529274e+00 6.922408e+00 6.308672e+00
<GCONST> 1.371248e+02
<STATE> 3
<NUMMIXES> 2
<MIXTURE> 1 8.781435e-01
<MEAN> 22
 1.074465e+00 1.224997e+01 5.584667e-01 3.564426e+00 7.144296e+00 1.312269e+02 9.265780e+01 1.031588e+02 5.698382e+01 8.525890e+01 1.899906e+02 8.975340e+01 1.129550e+02 9.716863e+01 7.000000e+00 3.001461e+00 6.049274e+00 4.639921e+00 6.000000e+00 2.825145e+00 1.682530e+00 3.293955e+00
<VARIANCE> 22
 4.801967e+00 2.308282e+02 3.305619e+00 2.713043e+01 6.902881e+01 5.907717e+03 2.225063e+02 2.343737e+03 6.644697e+01 7.388412e+02 3.752711e+02 3.147322e+03 1.298103e+02 3.056187e+02 6.556320e-02 1.408598e+00 4.684656e-02 1.650061e+00 2.100767e-02 5.931284e+00 5.339567e+00 5.865302e+00
<GCONST> 1.098145e+02
<MIXTURE> 2 1.218567e-01
<MEAN> 22
 4.997197e+00 3.154263e+00 2.060734e+00 1.165533e+00 1.591053e+02 1.082456e+02 7.293481e+01 6.543082e+01 5.986298e+01 4.888814e+01 8.340967e+01 1.066755e+02 7.700533e+01 8.062877e+01 2.160871e+00 2.864869e+00 3.860218e+00 4.034932e+00 2.990965e+00 3.167935e+00 2.342341e+00 1.792394e+00
<VARIANCE> 22
 5.910729e+01 2.713617e+01 1.591623e+01 4.855693e+00 2.904280e+04 1.926279e+04 3.509379e+03 2.769975e+03 1.800219e+03 1.143599e+03 5.678258e+03 6.784008e+03 2.338767e+03 2.506207e+03 6.789566e+00 4.204218e+00 9.233579e+00 6.279260e+00 5.227090e+00 8.321568e+00 6.075419e+00 5.072329e+00
<GCONST> 1.505938e+02
<STATE> 4
<NUMMIXES> 2
<MIXTURE> 1 7.162623e-01
<MEAN> 22
 1.589932e+00 2.434379e+00 6.832422e-01 9.309842e-01 9.399033e+00 1.116434e+01 9.789334e+01 9.702847e+01 6.207988e+01 5.964911e+01 1.988723e+02 1.974994e+02 1.192682e+02 1.181647e+02 6.998555e+00 5.001207e+00 6.069159e+00 5.928764e+00 6.000000e+00 5.997738e+00 1.916092e+00 2.112293e+00
<VARIANCE> 22
 7.107145e+00 1.289513e+01 3.305619e+00 2.171579e+00 1.297497e+02 1.840748e+02 2.406455e+02 2.074240e+02 6.371283e+01 6.975733e+01 4.878330e+02 4.204528e+02 1.541343e+02 1.291332e+02 6.556320e-02 1.793070e-02 6.437661e-02 6.616148e-02 2.100767e-02 5.619852e-02 5.392775e+00 5.776013e+00
<GCONST> 8.284315e+01
<MIXTURE> 2 2.837375e-01
<MEAN> 22
 7.603852e+00 1.269219e+01 2.306970e+00 3.521387e+00 6.652287e+01 1.263092e+02 9.397971e+01 1.060276e+02 7.232668e+01 8.406840e+01 1.586799e+02 1.114526e+02 1.124338e+02 1.046668e+02 4.523496e+00 3.265131e+00 6.143033e+00 4.780497e+00 5.128030e+00 3.164529e+00 2.393693e+00 2.794562e+00
<VARIANCE> 22
 1.665490e+02 2.389041e+02 2.001627e+01 3.410374e+01 5.150818e+03 7.904532e+03 1.798730e+03 2.940412e+03 4.130869e+02 9.286721e+02 4.021346e+03 3.662548e+03 4.334034e+02 4.817828e+02 9.186973e+00 1.657222e+00 1.872335e+00 1.568521e+00 2.445836e+00 6.229905e+00 5.817323e+00 5.273299e+00
<GCONST> 1.421132e+02
<TRANSP> 5
 0.000000e+00 1.000000e+00 0.000000e+00 0.000000e+00 0.000000e+00
 0.000000e+00 7.850965e-01 2.149035e-01 0.000000e+00 0.000000e+00
 0.000000e+00 0.000000e+00 7.585655e-01 2.414344e-01 0.000000e+00
 0.000000e+00 0.000000e+00 0.000000e+00 8.266041e-01 1.733959e-01
 0.000000e+00 0.000000e+00 0.000000e+00 0.000000e+00 0.000000e+00
<ENDHMM>
~h "DC_2"
<BEGINHMM>
<NUMSTATES> 5
<STATE> 2
<NUMMIXES> 2
<MIXTURE> 1 5.611198e-01
<MEAN> 22
 1.982110e+00 3.045291e+00 7.562003e-01 1.122563e+00 9.697984e+00 1.397526e+01 9.596527e+01 9.460769e+01 6.129655e+01 5.791371e+01 1.940940e+02 1.925845e+02 1.165736e+02 1.151562e+02 6.999338e+00 5.000000e+00 6.082115e+00 5.886826e+00 5.999931e+00 5.996298e+00 2.173435e+00 2.305335e+00
<VARIANCE> 22
 1.045836e+01 1.882204e+01 3.305619e+00 2.282081e+00 1.045475e+02 2.627519e+02 2.502560e+02 2.345460e+02 7.825313e+01 7.213174e+01 4.972715e+02 4.689926e+02 1.644941e+02 1.350997e+02 6.556320e-02 1.793070e-02 7.537207e-02 1.003668e-01 2.100767e-02 5.619852e-02 5.864083e+00 5.763786e+00
<GCONST> 8.509296e+01
<MIXTURE> 2 4.388802e-01
<MEAN> 22
 3.976544e+00 1.178228e+01 1.170659e+00 3.341500e+00 3.116814e+01 1.098445e+02 8.704038e+01 8.560412e+01 6.050297e+01 7.376554e+01 1.696120e+02 8.848583e+01 1.084556e+02 9.858526e+01 6.031160e+00 3.076838e+00 6.019028e+00 4.887490e+00 5.604005e+00 2.928890e+00 2.156774e+00 3.136560e+00
<VARIANCE> 22
 7.781583e+01 2.124184e+02 6.916122e+00 2.093873e+01 2.524135e+03 4.119237e+03 5.323267e+02 1.564414e+03 1.607458e+02 4.422408e+02 2.011807e+03 3.196188e+03 2.154873e+02 2.993943e+02 4.871999e+00 1.375750e+00 7.337682e-01 1.519518e+00 1.234562e+00 6.567824e+00 6.418157e+00 5.635492e+00
<GCONST> 1.305266e+02
<STATE> 3
<NUMMIXES> 2
<MIXTURE> 1 4.795747e-01
<MEAN> 22
 1.036976e+01 1.205453e+01 3.494507e+00 4.439440e+00 5.633736e+01 6.105956e+01 6.980199e+01 7.233736e+01 6.476983e+01 6.312133e+01 1.498968e+02 1.403596e+02 1.088943e+02 1.064376e+02 4.583395e+00 4.055787e+00 6.200705e+00 5.607294e+00 5.375017e+00 4.942943e+00 2.718899e+00 2.738689e+00
<VARIANCE> 22
 1.899392e+02 2.469427e+02 5.604431e+01 6.705702e+01 2.425437e+03 2.591258e+03 9.302342e+02 1.029226e+03 1.105208e+02 1.695704e+02 2.419484e+03 2.887559e+03 2.463971e+02 2.340500e+02 9.193654e+00 1.736609e+00 2.205415e-01 5.634137e-01 1.100634e+00 5.619052e+00 5.343229e+00 5.465878e+00
<GCONST> 1.312884e+02
<MIXTURE> 2 5.204257e-01
<MEAN> 22
 8.212808e+00 8.732277e+00 1.351159e+00 1.495833e+00 1.339794e+02 1.282294e+02 6.142172e+01 5.958242e+01 6.744274e+01 6.244268e+01 6.052639e+01 6.315604e+01 9.648432e+01 9.783305e+01 1.872288e+00 2.139048e+00 5.612923e+00 5.619029e+00 3.473369e+00 7.187222e-01 2.607754e+00 2.590683e+00
<VARIANCE> 22
 1.342062e+02 2.081098e+02 3.305619e+00 5.324232e+00 2.152597e+03 1.743432e+03 1.138344e+03 8.116393e+02 1.770183e+02 1.121417e+02 6.483778e+02 1.033109e+03 3.336507e+02 2.469583e+02 6.654547e-01 8.495139e-01 2.331207e+00 8.747416e-01 5.422757e-01 1.054100e+00 4.992730e+00 5.353185e+00
<GCONST> 1.199118e+02
<STATE> 4
<NUMMIXES> 2
<MIXTURE> 1 8.895249e-01
<MEAN> 22
 1.022441e+01 5.113731e+00 3.057143e+00 1.451458e+00 9.224345e+01 4.722792e+01 1.073141e+02 9.386490e+01 8.117685e+01 6.185617e+01 1.256655e+02 1.704860e+02 1.079693e+02 1.137651e+02 3.424436e+00 4.487643e+00 5.130452e+00 5.660047e+00 4.146170e+00 5.202630e+00 2.847628e+00 2.301046e+00
<VARIANCE> 22
 2.555106e+02 1.065248e+02 3.573827e+01 8.741219e+00 5.800468e+03 3.246052e+03 1.759092e+03 8.920423e+02 5.501438e+02 1.634106e+02 6.138905e+03 3.382639e+03 7.156106e+02 3.128115e+02 8.001565e+00 1.029426e+00 5.887846e+00 4.737724e-01 3.486270e+00 3.357625e+00 6.263355e+00 5.728336e+00
<GCONST> 1.371549e+02
<MIXTURE> 2 1.104750e-01
<MEAN> 22
 7.105427e-15 1.421085e-14 0.000000e+00 -1.421085e-14 1.533905e+02 1.127810e+02 0.000000e+00 -4.547474e-13 0.000000e+00 -4.547474e-13 2.273737e-13 2.273737e-13 -4.547474e-13 -2.273737e-13 -1.421085e-14 0.000000e+00 0.000000e+00 0.000000e+00 2.842171e-14 0.000000e+00 -7.105427e-15 -8.881784e-16
<VARIANCE> 22
 4.801967e+00 4.073976e+00 3.305619e+00 2.171579e+00 5.478088e+04 2.914679e+04 9.965595e+00 1.121768e+01 2.939380e+00 3.532339e+00 3.789023e+01 4.425340e+01 4.237021e+00 4.029697e+00 6.556320e-02 1.793070e-02 2.348518e-02 1.180012e-02 2.100767e-02 5.619852e-02 6.159949e-02 6.062591e-02
<GCONST> 5.661932e+01
<TRANSP> 5
 0.000000e+00 1.000000e+00 0.000000e+00 0.000000e+00 0.000000e+00
 0.000000e+00 8.841527e-01 1.158473e-01 0.000000e+00 0.000000e+00
 0.000000e+00 0.000000e+00 7.205201e-01 2.794799e-01 0.000000e+00
 0.000000e+00 0.000000e+00 0.000000e+00 6.717317e-01 3.282683e-01
 0.000000e+00 0.000000e+00 0.000000e+00 0.000000e+00 0.000000e+00
<ENDHMM>
~h "MC_2"
<BEGINHMM>
<NUMSTATES> 5
<STATE> 2
<NUMMIXES> 2
<MIXTURE> 1 6.007307e-01
<MEAN> 22
 1.029100e+01 3.457808e+00 3.074029e+00 1.406458e+00 7.650455e+01 1.770875e+01 8.543236e+01 9.926638e+01 7.758250e+01 5.711904e+01 1.325485e+02 1.991945e+02 1.127241e+02 1.179085e+02 3.921113e+00 5.000000e+00 6.221083e+00 5.838574e+00 4.760084e+00 5.984804e+00 2.997838e+00 2.513325e+00
<VARIANCE> 22
 1.666724e+02 2.790851e+01 2.411471e+01 4.787236e+00 3.782789e+03 3.654292e+02 1.037667e+03 3.067393e+02 3.790321e+02 7.775670e+01 5.426248e+03 6.251390e+02 4.584923e+02 1.767452e+02 8.727603e+00 1.793070e-02 1.480637e+00 1.353689e-01 1.943176e+00 5.619852e-02 6.165739e+00 6.294224e+00
<GCONST> 1.150499e+02
<MIXTURE> 2 3.992677e-01
<MEAN> 22
 5.763775e+00 5.309254e+00 1.596804e+00 1.534243e+00 1.358302e+02 7.899191e+01 1.059802e+02 7.634097e+01 7.191594e+01 5.717583e+01 8.483315e+01 1.286084e+02 8.666162e+01 9.410220e+01 2.740103e+00 3.725035e+00 2.843047e+00 4.863846e+00 3.288567e+00 4.299215e+00 2.714792e+00 2.362527e+00
<VARIANCE> 22
 1.090062e+02 9.770974e+01 5.779936e+00 1.122026e+01 1.792932e+04 1.242027e+04 2.646936e+03 1.736918e+03 9.711873e+02 5.874700e+02 4.675254e+03 4.131724e+03 1.080531e+03 1.201753e+03 5.988924e+00 2.494456e+00 7.618259e+00 3.077483e+00 3.718761e+00 6.462455e+00 6.639486e+00 6.188704e+00
<GCONST> 1.453025e+02
<STATE> 3
<NUMMIXES> 2
<MIXTURE> 1 7.902531e-01
<MEAN> 22
 1.075074e+00 9.219828e+00 5.089388e-01 2.668399e+00 7.152924e+00 1.047546e+02 9.235293e+01 8.117067e+01 5.752628e+01 7.397172e+01 1.881080e+02 9.808786e+01 1.126503e+02 1.016237e+02 7.000000e+00 3.413762e+00 6.084445e+00 5.105869e+00 6.000000e+00 3.316445e+00 1.599710e+00 2.958959e+00
<VARIANCE> 22
 4.801967e+00 1.415037e+02 3.305619e+00 1.722184e+01 5.358655e+01 4.674607e+03 2.561059e+02 1.753084e+03 7.080724e+01 4.321541e+02 4.793309e+02 3.012708e+03 1.583987e+02 1.991428e+02 6.556320e-02 1.544798e+00 7.731494e-02 1.177182e+00 2.100767e-02 7.274648e+00 5.199509e+00 5.704036e+00
<GCONST> 1.081379e+02
<MIXTURE> 2 2.097455e-01
<MEAN> 22
 5.234920e+00 5.055946e+00 1.412294e+00 9.930517e-01 8.339667e+01 6.430256e+01 5.888396e+01 5.719674e+01 6.887990e+01 5.891562e+01 8.324776e+01 1.066051e+02 1.010678e+02 1.022899e+02 2.232331e+00 3.242811e+00 5.818036e+00 5.661965e+00 3.903688e+00 3.217070e+00 3.094438e+00 2.434262e+00
<VARIANCE> 22
 3.523716e+01 5.075841e+01 5.405784e+00 2.212540e+00 4.203561e+03 3.730248e+03 1.402188e+03 1.265092e+03 2.035709e+02 1.096972e+02 2.461665e+03 2.726110e+03 2.679178e+02 2.471667e+02 3.549248e+00 2.255823e+00 2.731677e+00 6.541223e-01 1.438543e+00 8.990058e+00 6.290516e+00 5.942475e+00
<GCONST> 1.270360e+02
<STATE> 4
<NUMMIXES> 2
<MIXTURE> 1 6.367289e-01
<MEAN> 22
 1.505570e+00 1.754444e+00 5.339599e-01 7.405320e-01 8.009448e+00 7.977430e+00 9.615858e+01 9.471815e+01 6.109334e+01 5.788815e+01 1.955814e+02 1.944138e+02 1.171850e+02 1.163198e+02 7.000000e+00 5.000000e+00 6.060261e+00 5.920786e+00 6.000010e+00 6.000172e+00 2.052204e+00 1.918516e+00
<VARIANCE> 22
 6.021577e+00 7.523250e+00 3.305619e+00 2.171579e+00 7.083473e+01 5.667798e+01 2.034833e+02 1.635333e+02 6.390877e+01 6.264941e+01 4.693038e+02 4.270231e+02 1.534995e+02 1.344206e+02 6.556320e-02 1.793070e-02 5.662897e-02 7.293860e-02 2.100767e-02 5.619852e-02 5.922872e+00 5.661942e+00
<GCONST> 7.990133e+01
<MIXTURE> 2 3.632716e-01
<MEAN> 22
 1.029601e+01 1.378211e+01 2.358048e+00 2.947194e+00 7.306084e+01 9.085415e+01 7.648698e+01 7.886298e+01 6.831932e+01 6.728160e+01 1.249832e+02 1.040206e+02 1.066525e+02 1.053219e+02 3.576171e+00 3.392592e+00 5.971416e+00 5.262070e+00 4.936829e+00 3.320723e+00 2.985056e+00 3.076086e+00
<VARIANCE> 22
 2.238524e+02 5.307216e+02 1.118448e+01 1.370695e+01 4.174032e+03 3.953165e+03 9.730041e+02 1.226634e+03 2.089891e+02 3.089769e+02 3.668022e+03 2.989524e+03 2.538505e+02 2.569081e+02 8.919914e+00 1.425978e+00 2.217452e+00 8.082619e-01 2.238954e+00 6.558919e+00 5.570817e+00 5.290801e+00
<GCONST> 1.353306e+02
<TRANSP> 5
 0.000000e+00 1.000000e+00 0.000000e+00 0.000000e+00 0.000000e+00
 0.000000e+00 7.557876e-01 2.442125e-01 0.000000e+00 0.000000e+00
 0.000000e+00 0.000000e+00 8.006707e-01 1.993293e-01 0.000000e+00
 0.000000e+00 0.000000e+00 0.000000e+00 8.436869e-01 1.563132e-01
 0.000000e+00 0.000000e+00 0.000000e+00 0.000000e+00 0.000000e+00
<ENDHMM>
~h "VA_2"
<BEGINHMM>
<NUMSTATES> 5
<STATE> 2
<NUMMIXES> 2
<MIXTURE> 1 6.657397e-01
<MEAN> 22
 2.018142e+00 2.409799e+00 8.038791e-01 9.905221e-01 1.062314e+01 1.368748e+01 9.820590e+01 9.587392e+01 6.257563e+01 5.887886e+01 1.987785e+02 1.968865e+02 1.187379e+02 1.176217e+02 7.000000e+00 5.000000e+00 6.110479e+00 5.939975e+00 6.000000e+00 5.993840e+00 1.916726e+00 2.052109e+00
<VARIANCE> 22
 1.169803e+01 1.743204e+01 3.305619e+00 2.332635e+00 1.868849e+02 3.797401e+02 2.933360e+02 2.373260e+02 8.371731e+01 6.405079e+01 5.763135e+02 5.249586e+02 1.850020e+02 1.440668e+02 6.556320e-02 1.793070e-02 9.827344e-02 5.642245e-02 2.100767e-02 5.619852e-02 5.760006e+00 5.962623e+00
<GCONST> 8.636597e+01
<MIXTURE> 2 3.342593e-01
<MEAN> 22
 8.444109e+00 1.490965e+01 2.700065e+00 4.145854e+00 6.191489e+01 8.960630e+01 8.294648e+01 8.046212e+01 7.235567e+01 7.190140e+01 1.427591e+02 1.180725e+02 1.090108e+02 1.062366e+02 4.059349e+00 3.580100e+00 5.723648e+00 5.158627e+00 4.988685e+00 3.676184e+00 2.976963e+00 3.168620e+00
<VARIANCE> 22
 1.584892e+02 4.412728e+02 2.337989e+01 2.978592e+01 4.894492e+03 4.368444e+03 1.462751e+03 1.550430e+03 4.595476e+02 3.713628e+02 3.211684e+03 3.302102e+03 3.562955e+02 3.065390e+02 8.968163e+00 1.527327e+00 2.977774e+00 8.394164e-01 2.333963e+00 7.050762e+00 6.439592e+00 5.896994e+00
<GCONST> 1.394433e+02
<STATE> 3
<NUMMIXES> 2
<MIXTURE> 1 6.521320e-01
<MEAN> 22
 9.964649e+00 4.031910e+00 2.882756e+00 1.436921e+00 1.014486e+02 2.309326e+01 1.066559e+02 8.643179e+01 8.637783e+01 5.712276e+01 1.106574e+02 1.781967e+02 1.008917e+02 1.125344e+02 3.063525e+00 4.805397e+00 4.493879e+00 5.745409e+00 3.960313e+00 6.053833e+00 2.982563e+00 2.456204e+00
<VARIANCE> 22
 1.584478e+02 3.992046e+01 1.793745e+01 5.131641e+00 7.579973e+03 6.675995e+02 2.580779e+03 8.443792e+02 7.251135e+02 6.799754e+01 3.867590e+03 1.330536e+03 4.030080e+02 1.538273e+02 6.949308e+00 1.868137e-01 7.016074e+00 1.897748e-01 2.911657e+00 2.900919e-01 5.947965e+00 5.954675e+00
<GCONST> 1.249793e+02
<MIXTURE> 2 3.478682e-01
<MEAN> 22
 7.426936e+00 9.267121e+00 1.188820e+00 1.115832e+00 9.428574e+01 1.176973e+02 6.525978e+01 6.447778e+01 6.474528e+01 6.645447e+01 8.579771e+01 6.742924e+01 9.815310e+01 9.504319e+01 2.755325e+00 2.068592e+00 5.401323e+00 5.118072e+00 3.723172e+00 6.571887e-01 2.608938e+00 2.433385e+00
<VARIANCE> 22
 1.659645e+02 1.808868e+02 4.137664e+00 2.898309e+00 1.057821e+04 7.144745e+03 1.722780e+03 2.346015e+03 4.681819e+02 6.537372e+02 3.669720e+03 1.139137e+03 7.373787e+02 6.926885e+02 4.799089e+00 9.521474e-01 3.903112e+00 2.654260e+00 2.282313e+00 8.062403e-01 6.114674e+00 5.842837e+00
<GCONST> 1.356442e+02
<STATE> 4
<NUMMIXES> 2
<MIXTURE> 1 1.377813e-01
<MEAN> 22
 1.677428e+01 2.778432e+01 8.093507e+00 9.204879e+00 1.970672e+02 1.696059e+02 1.029466e+02 1.023089e+02 8.178474e+01 7.432552e+01 1.446792e+02 1.344574e+02 9.994944e+01 1.036501e+02 4.066663e+00 3.993629e+00 5.738215e+00 4.925093e+00 4.924971e+00 4.455948e+00 3.510432e+00 3.265887e+00
<VARIANCE> 22
 2.195567e+03 3.369802e+03 1.655295e+03 9.573763e+02 4.318256e+04 2.439044e+04 2.331111e+03 2.171619e+03 7.086125e+02 6.631964e+02 4.714080e+03 3.049195e+03 1.075094e+03 5.974225e+02 9.001734e+00 1.537791e+00 3.737960e+00 1.321993e+00 3.151691e+00 4.588345e+00 6.516356e+00 5.748654e+00
<GCONST> 1.601728e+02
<MIXTURE> 2 8.622183e-01
<MEAN> 22
 1.452518e+00 7.513399e+00 5.242531e-01 2.340277e+00 1.420140e+01 1.262880e+02 9.448489e+01 1.016861e+02 5.985196e+01 8.348753e+01 1.872546e+02 9.559254e+01 1.132934e+02 9.991240e+01 6.790555e+00 3.158714e+00 6.126222e+00 4.747837e+00 5.917579e+00 2.878442e+00 1.810011e+00 3.013367e+00
<VARIANCE> 22
 7.813289e+00 9.309900e+01 3.305619e+00 1.037325e+01 9.735095e+02 6.990155e+03 4.945620e+02 2.430665e+03 1.243906e+02 7.714271e+02 1.305097e+03 3.805072e+03 3.177821e+02 3.146732e+02 1.071739e+00 1.603939e+00 4.376785e-01 1.558693e+00 2.673627e-01 6.348286e+00 5.883369e+00 5.897036e+00
<GCONST> 1.229280e+02
<TRANSP> 5
 0.000000e+00 1.000000e+00 0.000000e+00 0.000000e+00 0.000000e+00
 0.000000e+00 8.230481e-01 1.769519e-01 0.000000e+00 0.000000e+00
 0.000000e+00 0.000000e+00 7.152656e-01 2.847344e-01 0.000000e+00
 0.000000e+00 0.000000e+00 0.000000e+00 6.839478e-01 3.160522e-01
 0.000000e+00 0.000000e+00 0.000000e+00 0.000000e+00 0.000000e+00
<ENDHMM>
~h "VQ_2"
<BEGINHMM>
<NUMSTATES> 5
<STATE> 2
<NUMMIXES> 2
<MIXTURE> 1 7.526637e-01
<MEAN> 22
 3.384473e+00 1.269179e+01 1.018485e+00 3.615911e+00 1.536685e+01 9.018228e+01 8.932825e+01 9.067233e+01 5.871889e+01 7.018753e+01 1.871027e+02 1.163956e+02 1.129312e+02 1.051085e+02 6.832956e+00 3.663825e+00 6.061445e+00 5.124629e+00 5.946571e+00 3.782895e+00 1.968187e+00 3.065131e+00
<VARIANCE> 22
 5.804632e+01 2.652526e+02 3.782726e+00 2.493699e+01 6.499218e+02 4.966015e+03 3.326365e+02 1.224941e+03 8.419376e+01 3.360553e+02 6.909282e+02 4.465615e+03 1.607222e+02 2.232694e+02 9.646016e-01 1.482123e+00 5.766896e-02 9.150400e-01 8.810872e-02 6.133105e+00 6.198231e+00 5.994213e+00
<GCONST> 1.186228e+02
<MIXTURE> 2 2.473360e-01
<MEAN> 22
 1.113670e+01 3.289026e+00 3.677355e+00 1.239238e+00 2.074176e+02 1.236859e+02 7.457930e+01 7.110961e+01 6.426190e+01 4.929967e+01 7.112231e+01 1.241900e+02 7.999768e+01 8.660046e+01 1.722576e+00 3.254547e+00 3.436558e+00 4.245999e+00 2.777908e+00 3.689235e+00 2.569406e+00 2.174071e+00
<VARIANCE> 22
 4.295923e+02 2.938518e+01 4.892282e+01 3.603862e+00 3.527430e+04 2.574008e+04 3.273441e+03 2.384499e+03 1.761494e+03 8.816730e+02 4.109933e+03 7.318476e+03 2.162937e+03 2.405143e+03 4.282125e+00 4.242836e+00 9.491247e+00 5.639309e+00 3.990048e+00 7.786179e+00 6.886317e+00 6.344843e+00
<GCONST> 1.525787e+02
<STATE> 3
<NUMMIXES> 2
<MIXTURE> 1 7.067398e-01
<MEAN> 22
 1.673787e+00 1.732375e+00 6.422204e-01 7.124648e-01 7.154921e+00 8.736247e+00 9.668731e+01 9.555214e+01 6.121067e+01 5.868533e+01 1.953436e+02 1.943355e+02 1.163667e+02 1.160853e+02 6.999999e+00 5.000000e+00 6.106597e+00 5.928207e+00 6.000000e+00 6.004399e+00 2.038377e+00 1.915401e+00
<VARIANCE> 22
 8.142326e+00 7.719445e+00 3.305619e+00 2.171579e+00 5.414355e+01 6.296459e+01 2.208331e+02 2.384906e+02 6.779816e+01 7.066886e+01 4.861505e+02 4.996714e+02 1.633963e+02 1.473496e+02 6.556320e-02 1.793070e-02 9.523626e-02 6.663863e-02 2.100767e-02 5.619852e-02 5.633990e+00 5.526071e+00
<GCONST> 8.140585e+01
<MIXTURE> 2 2.932600e-01
<MEAN> 22
 3.807870e+00 7.897055e+00 9.142748e-01 2.066275e+00 4.728977e+01 1.369928e+02 8.786008e+01 1.045555e+02 6.559163e+01 7.703082e+01 1.571723e+02 7.518595e+01 1.111307e+02 9.748704e+01 5.204788e+00 2.638155e+00 5.816072e+00 4.387225e+00 5.178252e+00 2.225182e+00 2.009688e+00 2.912106e+00
<VARIANCE> 22
 5.868995e+01 1.091464e+02 3.305619e+00 6.119057e+00 4.691449e+03 5.301636e+03 1.221883e+03 1.557175e+03 3.092520e+02 6.259227e+02 4.006272e+03 3.237903e+03 4.912296e+02 4.308293e+02 6.962772e+00 1.508436e+00 2.442794e+00 1.641276e+00 1.851772e+00 4.050682e+00 5.925435e+00 5.726484e+00
<GCONST> 1.337873e+02
<STATE> 4
<NUMMIXES> 2
<MIXTURE> 1 4.344457e-01
<MEAN> 22
 1.238016e+01 1.288168e+01 2.557997e+00 3.605332e+00 4.414668e+01 6.918329e+01 8.319788e+01 8.867646e+01 6.662200e+01 6.802354e+01 1.609789e+02 1.442308e+02 1.115462e+02 1.073281e+02 5.025557e+00 3.972286e+00 6.089070e+00 5.448483e+00 5.327553e+00 4.433425e+00 2.624923e+00 2.818335e+00
<VARIANCE> 22
 5.018298e+02 2.546272e+02 2.108831e+01 4.522862e+01 3.026528e+03 4.750289e+03 1.315604e+03 1.521849e+03 2.499597e+02 3.446070e+02 3.430251e+03 4.166041e+03 5.894477e+02 5.655099e+02 7.917195e+00 1.665654e+00 7.938062e-01 8.773834e-01 1.546385e+00 5.596382e+00 6.218245e+00 5.483597e+00
<GCONST> 1.385032e+02
<MIXTURE> 2 5.655537e-01
<MEAN> 22
 8.680507e+00 3.478332e+00 2.896687e+00 1.080167e+00 1.239661e+02 4.556377e+01 9.609599e+01 7.626344e+01 8.173190e+01 5.649410e+01 6.198819e+01 1.464575e+02 9.716139e+01 1.087135e+02 1.542458e+00 4.062778e+00 4.061391e+00 5.792798e+00 3.059641e+00 4.476132e+00 3.314024e+00 2.617283e+00
<VARIANCE> 22
 1.055003e+02 2.804510e+01 1.446514e+01 2.171579e+00 4.298966e+03 2.109673e+03 2.025144e+03 1.016624e+03 4.907153e+02 7.247620e+01 1.000173e+03 3.672566e+03 3.016771e+02 1.951387e+02 5.280347e-01 1.580277e+00 8.314101e+00 2.235843e-01 9.193621e-01 6.498069e+00 5.619024e+00 5.883634e+00
<GCONST> 1.247346e+02
<TRANSP> 5
 0.000000e+00 1.000000e+00 0.000000e+00 0.000000e+00 0.000000e+00
 0.000000e+00 6.543582e-01 3.456418e-01 0.000000e+00 0.000000e+00
 0.000000e+00 0.000000e+00 7.896502e-01 2.103498e-01 0.000000e+00
 0.000000e+00 0.000000e+00 0.000000e+00 7.736900e-01 2.263100e-01
 0.000000e+00 0.000000e+00 0.000000e+00 0.000000e+00 0.000000e+00
<ENDHMM>
~h "NU_2"
<BEGINHMM>
<NUMSTATES> 5
<STATE> 2
<NUMMIXES> 2
<MIXTURE> 1 6.102529e-01
<MEAN> 22
 4.058109e+00 1.310521e+01 9.766471e-01 3.278031e+00 1.670016e+01 7.163889e+01 9.851263e+01 8.503213e+01 6.338511e+01 7.080399e+01 1.958894e+02 1.388305e+02 1.197622e+02 1.126712e+02 6.510158e+00 4.009161e+00 6.232926e+00 5.393683e+00 5.974192e+00 4.440268e+00 2.356691e+00 3.257445e+00
<VARIANCE> 22
 6.873322e+01 4.326672e+02 4.493541e+00 2.310472e+01 5.822343e+02 4.147607e+03 9.199805e+02 1.322736e+03 1.527977e+02 3.229287e+02 1.480746e+03 3.893878e+03 4.173088e+02 3.454691e+02 3.032071e+00 1.304649e+00 1.822980e-01 6.770212e-01 1.130428e-01 5.709835e+00 6.988654e+00 6.395990e+00
<GCONST> 1.249831e+02
<MIXTURE> 2 3.897477e-01
<MEAN> 22
 1.008404e+01 3.223137e+00 2.400451e+00 8.630095e-01 1.238865e+02 6.491777e+01 7.610532e+01 7.331010e+01 7.164723e+01 5.042797e+01 6.022813e+01 1.228296e+02 8.303808e+01 9.502985e+01 1.396402e+00 3.427995e+00 3.997484e+00 4.773765e+00 2.950554e+00 3.674063e+00 2.825442e+00 2.414310e+00
<VARIANCE> 22
 2.208606e+02 4.265423e+01 1.321804e+01 2.171579e+00 9.487963e+03 6.780445e+03 2.703121e+03 1.671547e+03 1.464489e+03 4.671061e+02 1.608750e+03 6.171603e+03 1.533830e+03 1.516864e+03 1.124474e+00 3.113791e+00 8.884372e+00 3.884319e+00 2.817038e+00 7.466656e+00 6.164958e+00 6.574819e+00
<GCONST> 1.419935e+02
<STATE> 3
<NUMMIXES> 2
<MIXTURE> 1 5.961157e-01
<MEAN> 22
 1.798070e+00 2.202856e+00 7.287923e-01 8.602585e-01 1.068950e+01 1.211837e+01 9.667384e+01 9.386871e+01 6.119261e+01 5.721148e+01 1.949697e+02 1.929283e+02 1.166613e+02 1.157833e+02 6.993949e+00 5.000000e+00 6.130387e+00 5.916412e+00 6.000020e+00 6.004793e+00 1.971768e+00 2.118378e+00
<VARIANCE> 22
 9.158269e+00 1.213096e+01 3.305619e+00 2.171579e+00 1.973399e+02 2.907745e+02 2.796413e+02 2.220738e+02 8.228587e+01 6.443134e+01 5.246827e+02 4.637468e+02 1.799409e+02 1.291618e+02 6.556320e-02 1.793070e-02 1.133868e-01 7.660047e-02 2.100767e-02 5.619852e-02 5.489522e+00 5.640613e+00
<GCONST> 8.533944e+01
<MIXTURE> 2 4.038843e-01
<MEAN> 22
 1.417465e+00 7.332165e+00 4.796987e-01 2.637961e+00 2.157242e+01 1.386283e+02 8.731306e+01 9.516793e+01 5.906232e+01 7.635382e+01 1.718351e+02 7.157173e+01 1.090921e+02 9.576118e+01 6.195629e+00 2.727719e+00 6.015209e+00 4.634633e+00 5.710650e+00 1.902567e+00 1.395570e+00 2.897340e+00
<VARIANCE> 22
 9.550640e+00 1.044188e+02 3.305619e+00 1.845444e+01 2.514438e+03 4.120525e+03 5.041928e+02 2.098430e+03 1.855100e+02 5.873176e+02 1.804172e+03 2.020209e+03 1.883604e+02 2.649852e+02 4.231135e+00 9.299048e-01 6.692244e-01 1.538052e+00 9.115766e-01 3.641899e+00 4.816504e+00 5.600482e+00
<GCONST> 1.248937e+02
<STATE> 4
<NUMMIXES> 2
<MIXTURE> 1 2.957441e-01
<MEAN> 22
 1.453212e+01 1.518243e+01 4.543575e+00 3.899604e+00 1.206693e+02 1.228523e+02 9.786858e+01 9.131757e+01 7.270355e+01 6.880177e+01 1.385117e+02 1.275128e+02 1.102235e+02 1.115408e+02 3.828251e+00 3.638716e+00 5.510799e+00 5.265811e+00 4.416486e+00 3.749375e+00 2.699952e+00 2.788651e+00
<VARIANCE> 22
 2.806481e+02 3.679129e+02 5.594872e+01 2.140456e+01 2.425765e+04 1.471217e+04 1.468797e+03 1.608249e+03 3.479497e+02 3.232567e+02 5.204344e+03 4.616135e+03 6.583325e+02 3.987740e+02 8.283013e+00 1.599073e+00 4.372232e+00 1.005736e+00 3.731889e+00 6.064878e+00 5.793460e+00 5.595258e+00
<GCONST> 1.452002e+02
<MIXTURE> 2 7.042553e-01
<MEAN> 22
 6.179690e+00 2.939684e+00 1.595958e+00 8.803639e-01 7.003143e+01 3.164890e+01 7.190338e+01 7.338141e+01 7.020411e+01 5.642574e+01 1.036696e+02 1.557802e+02 1.037828e+02 1.082634e+02 2.869986e+00 4.358925e+00 5.504232e+00 5.737147e+00 4.171770e+00 5.001710e+00 2.804996e+00 2.334104e+00
<VARIANCE> 22
 7.284197e+01 1.935880e+01 4.190389e+00 2.171579e+00 3.167434e+03 1.168457e+03 1.332869e+03 1.041798e+03 2.442845e+02 6.594868e+01 3.197856e+03 2.449893e+03 2.174174e+02 1.686703e+02 7.167930e+00 1.496713e+00 4.247320e+00 1.987841e-01 2.253373e+00 5.274312e+00 6.476404e+00 6.254062e+00
<GCONST> 1.236122e+02
<TRANSP> 5
 0.000000e+00 1.000000e+00 0.000000e+00 0.000000e+00 0.000000e+00
 0.000000e+00 6.259964e-01 3.740036e-01 0.000000e+00 0.000000e+00
 0.000000e+00 0.000000e+00 8.261123e-01 1.738877e-01 0.000000e+00
 0.000000e+00 0.000000e+00 0.000000e+00 7.424726e-01 2.575273e-01
 0.000000e+00 0.000000e+00 0.000000e+00 0.000000e+00 0.000000e+00
<ENDHMM>
~h "FM_2"
<BEGINHMM>
<NUMSTATES> 5
<STATE> 2
<NUMMIXES> 2
<MIXTURE> 1 4.488525e-01
<MEAN> 22
 4.142832e+00 1.113940e+01 1.913875e+00 3.478869e+00 1.291803e+01 6.834584e+01 9.290740e+01 8.477739e+01 5.965872e+01 7.685007e+01 1.889031e+02 1.394288e+02 1.139319e+02 1.071624e+02 6.994897e+00 4.148418e+00 6.050733e+00 5.332811e+00 5.998262e+00 5.093950e+00 2.000286e+00 3.146882e+00
<VARIANCE> 22
 4.665942e+02 4.596387e+02 3.275351e+02 2.138949e+02 2.818501e+02 3.933405e+03 3.958263e+02 1.290963e+03 7.709313e+01 5.429072e+02 6.964347e+02 3.083918e+03 2.047276e+02 2.498979e+02 6.556320e-02 1.330420e+00 4.815912e-02 7.684296e-01 2.100767e-02 4.806413e+00 6.445723e+00 6.302915e+00
<GCONST> 1.226693e+02
<MIXTURE> 2 5.511481e-01
<MEAN> 22
 1.061419e+01 7.511308e+00 2.661242e+00 2.091766e+00 8.788190e+01 6.893533e+01 7.287698e+01 5.878898e+01 7.406562e+01 5.937683e+01 8.378094e+01 1.041338e+02 9.899982e+01 1.034133e+02 2.063508e+00 3.138708e+00 5.260992e+00 5.574676e+00 3.577468e+00 3.088126e+00 3.420554e+00 2.680304e+00
<VARIANCE> 22
 1.758544e+02 1.403101e+02 1.723603e+01 9.810132e+00 2.905133e+03 2.922495e+03 2.141681e+03 1.162421e+03 3.999691e+02 9.776527e+01 1.520301e+03 2.104827e+03 2.330111e+02 1.629150e+02 3.327746e+00 2.203618e+00 4.901569e+00 5.148021e-01 1.923439e+00 8.069710e+00 5.493985e+00 6.251701e+00
<GCONST> 1.316529e+02
<STATE> 3
<NUMMIXES> 2
<MIXTURE> 1 6.328859e-01
<MEAN> 22
 1.437259e+00 2.887784e+00 5.778565e-01 1.005308e+00 6.786553e+00 1.234341e+01 9.552486e+01 9.281947e+01 6.056899e+01 5.896684e+01 1.951726e+02 1.918309e+02 1.171894e+02 1.155981e+02 6.999987e+00 4.974179e+00 6.063077e+00 5.912720e+00 6.000372e+00 6.007969e+00 1.867340e+00 2.161123e+00
<VARIANCE> 22
 6.909322e+00 2.281104e+01 3.305619e+00 2.531033e+00 5.295938e+01 2.320656e+02 2.150868e+02 2.605250e+02 6.577076e+01 7.612136e+01 4.595964e+02 5.551160e+02 1.472454e+02 1.339321e+02 6.556320e-02 2.522006e-02 5.909889e-02 7.966208e-02 2.100767e-02 5.619852e-02 5.424536e+00 5.609131e+00
<GCONST> 8.373564e+01
<MIXTURE> 2 3.671139e-01
<MEAN> 22
 1.311786e+00 1.174873e+01 5.435519e-01 3.222224e+00 2.000723e+01 1.410434e+02 8.995244e+01 9.597012e+01 5.854317e+01 7.677330e+01 1.761839e+02 6.633955e+01 1.097137e+02 9.700627e+01 6.440700e+00 2.624484e+00 6.000238e+00 4.604785e+00 5.747452e+00 2.040264e+00 1.717646e+00 2.935211e+00
<VARIANCE> 22
 5.173125e+00 2.500906e+02 3.305619e+00 2.061914e+01 2.232431e+03 4.001382e+03 4.726211e+02 1.701824e+03 1.629797e+02 5.024411e+02 1.645385e+03 2.282509e+03 2.369479e+02 3.368629e+02 2.902632e+00 9.312401e-01 6.798260e-01 1.724227e+00 8.155982e-01 4.204752e+00 5.721806e+00 5.765277e+00
<GCONST> 1.250446e+02
<STATE> 4
<NUMMIXES> 2
<MIXTURE> 1 7.864607e-01
<MEAN> 22
 9.310019e+00 5.210380e+00 2.419057e+00 1.691471e+00 7.244278e+01 3.300134e+01 1.022438e+02 9.765141e+01 7.903277e+01 6.319672e+01 1.505386e+02 1.896465e+02 1.149627e+02 1.166791e+02 3.662085e+00 4.821604e+00 5.722901e+00 5.618078e+00 4.963889e+00 5.871097e+00 2.922197e+00 2.397014e+00
<VARIANCE> 22
 1.384083e+02 6.387375e+01 1.062221e+01 6.711600e+00 3.875116e+03 9.711476e+02 1.608854e+03 7.360085e+02 4.817413e+02 1.691285e+02 4.598140e+03 1.133419e+03 3.924697e+02 2.359560e+02 9.875408e+00 1.608308e-01 4.051691e+00 2.360589e-01 3.079732e+00 3.012564e-01 5.826148e+00 5.739252e+00
<GCONST> 1.249760e+02
<MIXTURE> 2 2.135393e-01
<MEAN> 22
 6.802629e+00 1.120011e+01 1.548710e+00 2.138119e+00 1.293139e+02 1.656357e+02 5.825972e+01 6.114551e+01 4.841822e+01 5.528208e+01 9.022842e+01 5.225918e+01 7.747896e+01 7.471351e+01 2.920781e+00 1.722080e+00 4.153232e+00 3.737899e+00 3.310610e+00 1.118999e+00 1.706527e+00 2.125267e+00
<VARIANCE> 22
 1.697909e+02 3.937024e+02 1.304677e+01 1.512449e+01 2.861345e+04 1.568360e+04 2.093427e+03 2.869407e+03 9.603615e+02 1.412473e+03 5.925893e+03 1.939560e+03 2.429902e+03 2.178808e+03 8.249921e+00 1.744064e+00 8.127899e+00 6.034426e+00 5.621674e+00 2.773214e+00 5.101712e+00 5.395675e+00
<GCONST> 1.508396e+02
<TRANSP> 5
 0.000000e+00 1.000000e+00 0.000000e+00 0.000000e+00 0.000000e+00
 0.000000e+00 7.332430e-01 2.667570e-01 0.000000e+00 0.000000e+00
 0.000000e+00 0.000000e+00 8.442775e-01 1.557225e-01 0.000000e+00
 0.000000e+00 0.000000e+00 0.000000e+00 6.826636e-01 3.173364e-01
 0.000000e+00 0.000000e+00 0.000000e+00 0.000000e+00 0.000000e+00
<ENDHMM>
~h "FN_2"
<BEGINHMM>
<NUMSTATES> 5
<STATE> 2
<NUMMIXES> 2
<MIXTURE> 1 5.723188e-01
<MEAN> 22
 1.055742e+01 6.696843e+00 3.037887e+00 1.725451e+00 6.443193e+01 2.403497e+01 8.032203e+01 8.127670e+01 7.154075e+01 5.889553e+01 1.305898e+02 1.774048e+02 1.092659e+02 1.137099e+02 4.228594e+00 4.931015e+00 5.763807e+00 5.802605e+00 4.749207e+00 6.105786e+00 3.108554e+00 2.532677e+00
<VARIANCE> 22
 2.633905e+02 1.266551e+02 2.300748e+01 7.481467e+00 3.378985e+03 6.290116e+02 1.352015e+03 9.274954e+02 2.595018e+02 8.387076e+01 3.930141e+03 1.422521e+03 2.111354e+02 1.762466e+02 8.298312e+00 3.070417e-01 3.170841e+00 1.584289e-01 2.270073e+00 4.375510e-01 6.008897e+00 6.038567e+00
<GCONST> 1.244885e+02
<MIXTURE> 2 4.276820e-01
<MEAN> 22
 6.565066e+00 9.082630e+00 1.384647e+00 2.429089e+00 9.158828e+01 1.115031e+02 6.357950e+01 6.530170e+01 6.357513e+01 6.342294e+01 8.184666e+01 6.176503e+01 9.874389e+01 9.844645e+01 2.690277e+00 2.044904e+00 5.726830e+00 5.444947e+00 3.809125e+00 7.316847e-01 2.557363e+00 2.713350e+00
<VARIANCE> 22
 1.199503e+02 1.790345e+02 5.556016e+00 1.975480e+01 4.107812e+03 3.530541e+03 1.119241e+03 1.241730e+03 1.090816e+02 2.104065e+02 2.529004e+03 7.642648e+02 3.479442e+02 3.069052e+02 3.948612e+00 7.544204e-01 2.011509e+00 1.388208e+00 1.356776e+00 5.325273e-01 6.576088e+00 6.300985e+00
<GCONST> 1.273526e+02
<STATE> 3
<NUMMIXES> 2
<MIXTURE> 1 5.893432e-01
<MEAN> 22
 1.832195e+00 2.838625e+00 6.895096e-01 1.041544e+00 9.298375e+00 1.219125e+01 9.647109e+01 9.412268e+01 6.128949e+01 5.918356e+01 1.958344e+02 1.934499e+02 1.173959e+02 1.163466e+02 7.000000e+00 5.000000e+00 6.100034e+00 5.909368e+00 6.000000e+00 6.021307e+00 2.089252e+00 2.268155e+00
<VARIANCE> 22
 7.777796e+00 2.063181e+01 3.305619e+00 2.847669e+00 9.389097e+01 2.695728e+02 2.739254e+02 3.060669e+02 7.822831e+01 9.138373e+01 6.108192e+02 6.398404e+02 1.987063e+02 1.668473e+02 6.556320e-02 1.793070e-02 9.002661e-02 8.241928e-02 2.100767e-02 5.619852e-02 5.561872e+00 5.888539e+00
<GCONST> 8.648643e+01
<MIXTURE> 2 4.106570e-01
<MEAN> 22
 1.713626e+00 1.256073e+01 7.328179e-01 3.524410e+00 2.107453e+01 1.354134e+02 9.207477e+01 9.511817e+01 5.986683e+01 7.572520e+01 1.773101e+02 7.137317e+01 1.117378e+02 9.764568e+01 6.425282e+00 2.785268e+00 5.914719e+00 4.654706e+00 5.699027e+00 2.430073e+00 1.968931e+00 3.182508e+00
<VARIANCE> 22
 9.237668e+00 2.266014e+02 3.305619e+00 2.137042e+01 2.077960e+03 4.048294e+03 5.230609e+02 1.759378e+03 1.507816e+02 4.239813e+02 2.060769e+03 2.376177e+03 2.418416e+02 3.742577e+02 2.943887e+00 9.769685e-01 9.640955e-01 1.441986e+00 9.535065e-01 4.852464e+00 5.845083e+00 5.387626e+00
<GCONST> 1.262653e+02
<STATE> 4
<NUMMIXES> 2
<MIXTURE> 1 8.680945e-01
<MEAN> 22
 9.408200e+00 5.833267e+00 2.535435e+00 1.700269e+00 1.012409e+02 4.019072e+01 1.076012e+02 8.953085e+01 7.410652e+01 6.136065e+01 1.052084e+02 1.668669e+02 1.049602e+02 1.120696e+02 2.998956e+00 4.483480e+00 4.201611e+00 5.622789e+00 3.858594e+00 5.403536e+00 2.947208e+00 2.508415e+00
<VARIANCE> 22
 1.976602e+02 1.044597e+02 1.287251e+01 9.405609e+00 5.896959e+03 2.201317e+03 1.414949e+03 9.594564e+02 4.598437e+02 1.488838e+02 5.578542e+03 2.384833e+03 3.720666e+02 2.437234e+02 6.935140e+00 7.170660e-01 8.018671e+00 3.632533e-01 3.641997e+00 2.585042e+00 5.894713e+00 6.106147e+00
<GCONST> 1.331167e+02
<MIXTURE> 2 1.319053e-01
<MEAN> 22
 3.537481e-01 1.273130e+00 1.272378e-01 4.900199e-01 1.395917e+02 1.649682e+02 3.041883e+01 3.845032e+01 2.122400e+01 2.835003e+01 5.827806e+01 1.491861e+01 3.979802e+01 3.344678e+01 2.145287e+00 7.251261e-01 2.174283e+00 1.545303e+00 1.977300e+00 4.042601e-01 3.380491e-01 7.384923e-01
<VARIANCE> 22
 4.801967e+00 1.161372e+01 3.305619e+00 2.171579e+00 4.636968e+04 2.592959e+04 1.875244e+03 3.244694e+03 8.343749e+02 1.636908e+03 7.200526e+03 6.790826e+02 2.878064e+03 2.112513e+03 9.687325e+00 9.883018e-01 8.445724e+00 5.023654e+00 7.323534e+00 4.508235e-01 1.190066e+00 2.773813e+00
<GCONST> 1.365003e+02
<TRANSP> 5
 0.000000e+00 1.000000e+00 0.000000e+00 0.000000e+00 0.000000e+00
 0.000000e+00 7.384694e-01 2.615306e-01 0.000000e+00 0.000000e+00
 0.000000e+00 0.000000e+00 8.620471e-01 1.379530e-01 0.000000e+00
 0.000000e+00 0.000000e+00 0.000000e+00 6.559197e-01 3.440803e-01
 0.000000e+00 0.000000e+00 0.000000e+00 0.000000e+00 0.000000e+00
<ENDHMM>
~h "FU_2"
<BEGINHMM>
<NUMSTATES> 5
<STATE> 2
<NUMMIXES> 2
<MIXTURE> 1 4.034499e-01
<MEAN> 22
 3.712668e+00 1.305052e+01 1.306347e+00 3.551323e+00 1.465298e+01 3.624058e+01 9.003300e+01 7.617268e+01 6.026002e+01 6.373889e+01 1.856057e+02 1.588747e+02 1.123761e+02 1.065000e+02 6.997711e+00 4.637980e+00 6.113773e+00 5.633978e+00 5.949590e+00 5.940058e+00 2.420029e+00 3.186895e+00
<VARIANCE> 22
 5.395628e+01 3.092684e+02 5.510559e+00 3.048721e+01 2.910906e+02 1.079134e+03 4.853905e+02 8.158428e+02 9.351625e+01 2.143351e+02 8.363412e+02 1.638789e+03 2.063079e+02 2.195498e+02 6.556320e-02 4.465692e-01 1.008316e-01 2.359935e-01 5.892109e-02 1.342323e+00 6.236525e+00 5.647953e+00
<GCONST> 1.093391e+02
<MIXTURE> 2 5.965484e-01
<MEAN> 22
 2.628400e+00 8.246558e+00 9.051907e-01 2.352186e+00 3.417726e+01 1.412114e+02 8.558768e+01 9.438602e+01 5.933929e+01 7.191096e+01 1.579040e+02 5.719091e+01 1.084469e+02 9.652312e+01 5.794310e+00 2.438559e+00 5.860433e+00 4.755588e+00 5.348942e+00 1.553586e+00 2.105119e+00 3.071627e+00
<VARIANCE> 22
 3.311533e+01 1.247362e+02 3.305619e+00 1.033541e+01 3.652672e+03 3.813748e+03 6.798490e+02 1.671548e+03 1.393226e+02 4.858069e+02 3.573429e+03 2.261308e+03 2.720861e+02 2.952995e+02 5.043118e+00 8.982292e-01 1.409710e+00 1.540154e+00 1.633869e+00 2.356732e+00 6.118555e+00 5.678514e+00
<GCONST> 1.281876e+02
<STATE> 3
<NUMMIXES> 2
<MIXTURE> 1 6.372483e-01
<MEAN> 22
 1.891407e+00 1.980279e+00 7.839928e-01 8.766669e-01 9.422670e+00 1.356908e+01 9.890894e+01 9.708282e+01 6.303524e+01 5.855582e+01 1.987468e+02 1.979259e+02 1.191287e+02 1.178914e+02 6.999246e+00 5.000000e+00 6.118458e+00 5.902729e+00 6.000752e+00 6.000000e+00 2.086682e+00 2.060204e+00
<VARIANCE> 22
 8.764410e+00 8.657698e+00 3.305619e+00 2.171579e+00 1.054643e+02 3.519239e+02 3.416246e+02 2.248651e+02 8.594800e+01 6.790685e+01 6.952479e+02 5.533250e+02 2.461738e+02 1.702606e+02 6.556320e-02 1.793070e-02 1.044272e-01 8.781076e-02 2.100767e-02 5.619852e-02 5.783695e+00 5.805749e+00
<GCONST> 8.601433e+01
<MIXTURE> 2 3.627515e-01
<MEAN> 22
 1.040580e+01 1.102511e+01 2.556902e+00 3.003443e+00 8.686059e+01 8.760984e+01 8.329008e+01 7.561289e+01 7.060216e+01 6.672710e+01 9.744252e+01 1.007628e+02 1.019179e+02 1.028810e+02 2.673716e+00 3.128136e+00 5.287328e+00 5.328081e+00 3.910917e+00 3.112973e+00 2.898887e+00 3.230108e+00
<VARIANCE> 22
 2.370731e+02 2.554886e+02 2.101482e+01 2.322654e+01 4.555372e+03 4.194144e+03 1.462666e+03 1.335723e+03 3.230883e+02 2.798708e+02 3.666739e+03 2.796102e+03 3.177965e+02 2.610855e+02 6.121561e+00 1.574822e+00 4.832682e+00 8.981353e-01 2.810851e+00 6.699168e+00 6.074779e+00 5.918053e+00
<GCONST> 1.380192e+02
<STATE> 4
<NUMMIXES> 2
<MIXTURE> 1 7.828071e-01
<MEAN> 22
 8.351838e+00 2.104122e+00 2.584588e+00 1.017966e+00 1.120534e+02 1.771544e+01 9.792117e+01 9.466389e+01 7.565834e+01 5.508772e+01 8.595663e+01 1.918039e+02 9.967381e+01 1.140752e+02 3.036717e+00 4.999989e+00 4.315270e+00 5.878818e+00 3.885502e+00 5.993329e+00 3.122269e+00 2.268856e+00
<VARIANCE> 22
 1.595275e+02 9.716553e+00 1.650960e+01 2.601576e+00 5.853425e+03 5.161609e+02 1.183925e+03 2.190749e+02 4.148573e+02 6.279259e+01 5.129051e+03 4.000723e+02 4.510409e+02 1.353721e+02 5.972959e+00 1.793070e-02 7.650641e+00 1.064959e-01 2.347244e+00 5.619852e-02 6.180298e+00 5.967700e+00
<GCONST> 1.137915e+02
<MIXTURE> 2 2.171931e-01
<MEAN> 22
 3.864192e+00 8.234100e+00 9.219912e-01 1.824032e+00 1.598985e+02 1.635794e+02 6.755094e+01 5.889934e+01 5.279356e+01 4.974357e+01 9.913472e+01 5.387921e+01 7.364221e+01 6.888307e+01 3.247356e+00 1.888575e+00 3.735573e+00 3.414860e+00 3.382587e+00 1.401099e+00 1.660582e+00 1.960459e+00
<VARIANCE> 22
 8.314114e+01 2.530280e+02 6.642507e+00 1.058883e+01 4.474904e+04 1.825289e+04 3.515834e+03 2.935749e+03 1.967576e+03 1.359103e+03 6.793158e+03 2.691475e+03 2.565421e+03 2.236666e+03 9.584298e+00 2.245229e+00 8.354771e+00 6.071492e+00 6.481102e+00 3.973479e+00 5.281661e+00 5.735307e+00
<GCONST> 1.520493e+02
<TRANSP> 5
 0.000000e+00 1.000000e+00 0.000000e+00 0.000000e+00 0.000000e+00
 0.000000e+00 7.525053e-01 2.474947e-01 0.000000e+00 0.000000e+00
 0.000000e+00 0.000000e+00 8.399488e-01 1.600512e-01 0.000000e+00
 0.000000e+00 0.000000e+00 0.000000e+00 7.106692e-01 2.893308e-01
 0.000000e+00 0.000000e+00 0.000000e+00 0.000000e+00 0.000000e+00
<ENDHMM>
~h "OH_D"
<BEGINHMM>
<NUMSTATES> 5
<STATE> 2
<NUMMIXES> 2
<MIXTURE> 1 7.146505e-01
<MEAN> 22
 1.035519e+01 2.609338e+00 3.219404e+00 1.195237e+00 1.032262e+02 1.990357e+01 1.047709e+02 9.857328e+01 8.137059e+01 5.712370e+01 1.166834e+02 1.980484e+02 1.071773e+02 1.177409e+02 3.457300e+00 4.999300e+00 4.617512e+00 5.835404e+00 4.191788e+00 5.988116e+00 3.203541e+00 2.233879e+00
<VARIANCE> 22
 2.801658e+02 5.629081e+01 7.777626e+01 3.785354e+01 6.371099e+03 6.089828e+02 1.834043e+03 2.645203e+02 5.353859e+02 7.519303e+01 5.590822e+03 5.311166e+02 5.227590e+02 1.713312e+02 7.562991e+00 1.793070e-02 7.095019e+00 1.374933e-01 2.907491e+00 5.619852e-02 6.492188e+00 5.921168e+00
<GCONST> 1.230747e+02
<MIXTURE> 2 2.853500e-01
<MEAN> 22
 5.306942e+00 1.115818e+01 1.512158e+00 2.933621e+00 1.009327e+02 1.495166e+02 8.418430e+01 9.053205e+01 6.369604e+01 7.110426e+01 1.323987e+02 7.782103e+01 9.805721e+01 9.013751e+01 3.988311e+00 2.550733e+00 5.029330e+00 4.113975e+00 4.284435e+00 2.220699e+00 2.059044e+00 2.692201e+00
<VARIANCE> 22
 1.367159e+02 4.361989e+02 1.103358e+01 2.303797e+01 2.303184e+04 1.207301e+04 2.534855e+03 3.195964e+03 8.713840e+02 1.204354e+03 6.354857e+03 3.112282e+03 1.783343e+03 1.453114e+03 9.305310e+00 1.861695e+00 6.223035e+00 3.459922e+00 4.870947e+00 4.945966e+00 5.873602e+00 6.168753e+00
<GCONST> 1.504433e+02
<STATE> 3
<NUMMIXES> 2
<MIXTURE> 1 6.996733e-01
<MEAN> 22
 1.536330e+00 1.153249e+01 6.975629e-01 3.349643e+00 7.453337e+00 1.120588e+02 9.230146e+01 9.360788e+01 5.759224e+01 7.713223e+01 1.888001e+02 9.578934e+01 1.126030e+02 1.004050e+02 6.999188e+00 3.272731e+00 6.068421e+00 4.866686e+00 5.999771e+00 3.211210e+00 1.768930e+00 3.275415e+00
<VARIANCE> 22
 2.185396e+01 2.289577e+02 1.377518e+01 2.969495e+01 7.029605e+01 5.525753e+03 2.599647e+02 1.664356e+03 6.564686e+01 5.075324e+02 4.936033e+02 3.732528e+03 1.608418e+02 2.621042e+02 6.556320e-02 1.562841e+00 6.374610e-02 1.395853e+00 2.100767e-02 6.434167e+00 5.807886e+00 5.917019e+00
<GCONST> 1.131405e+02
<MIXTURE> 2 3.003268e-01
<MEAN> 22
 8.164138e+00 6.347713e+00 1.783212e+00 1.238367e+00 8.846252e+01 7.025826e+01 6.399022e+01 5.240431e+01 7.056841e+01 5.971018e+01 7.367863e+01 9.337021e+01 1.004712e+02 1.022089e+02 1.882423e+00 2.876851e+00 5.517970e+00 5.733447e+00 3.586097e+00 2.589615e+00 3.093366e+00 2.657513e+00
<VARIANCE> 22
 1.330795e+02 9.818639e+01 6.927777e+00 3.465438e+00 3.503297e+03 3.241865e+03 1.527634e+03 8.658798e+02 2.634632e+02 1.070557e+02 1.413830e+03 1.944170e+03 1.937352e+02 1.578547e+02 2.034868e+00 1.843553e+00 3.808288e+00 4.699408e-01 1.230216e+00 8.233167e+00 6.178177e+00 6.120738e+00
<GCONST> 1.266844e+02
<STATE> 4
<NUMMIXES> 2
<MIXTURE> 1 7.230788e-01
<MEAN> 22
 1.779793e+00 2.446753e+00 6.731153e-01 9.156736e-01 8.599648e+00 1.180565e+01 9.673656e+01 9.541341e+01 6.127700e+01 5.861718e+01 1.960648e+02 1.947826e+02 1.174315e+02 1.167314e+02 6.998337e+00 5.000000e+00 6.085750e+00 5.897970e+00 6.000231e+00 5.998299e+00 2.017176e+00 2.165469e+00
<VARIANCE> 22
 8.410172e+00 1.320227e+01 3.305619e+00 2.171579e+00 8.987692e+01 2.364470e+02 2.435054e+02 2.226001e+02 7.108359e+01 6.739973e+01 5.003992e+02 4.787814e+02 1.650437e+02 1.418359e+02 6.556320e-02 1.793070e-02 7.838609e-02 9.163162e-02 2.100767e-02 5.619852e-02 5.648353e+00 5.880696e+00
<GCONST> 8.398015e+01
<MIXTURE> 2 2.769226e-01
<MEAN> 22
 1.099761e+01 1.341292e+01 2.648454e+00 3.243674e+00 6.437421e+01 8.000643e+01 8.162224e+01 8.050824e+01 6.897532e+01 6.742911e+01 1.452548e+02 1.268220e+02 1.082305e+02 1.064826e+02 4.075237e+00 3.833423e+00 6.071354e+00 5.298053e+00 4.990874e+00 4.197748e+00 2.978502e+00 3.175124e+00
<VARIANCE> 22
 2.367007e+02 2.741822e+02 1.997360e+01 1.987766e+01 3.476433e+03 3.563059e+03 1.461550e+03 1.555910e+03 2.713807e+02 2.902804e+02 3.012027e+03 3.133834e+03 3.136026e+02 2.485379e+02 9.664765e+00 1.663161e+00 1.907841e+00 7.725407e-01 2.871105e+00 6.175787e+00 6.227623e+00 5.841361e+00
<GCONST> 1.367000e+02
<TRANSP> 5
 0.000000e+00 1.000000e+00 0.000000e+00 0.000000e+00 0.000000e+00
 0.000000e+00 7.090722e-01 2.909278e-01 0.000000e+00 0.000000e+00
 0.000000e+00 0.000000e+00 7.979992e-01 2.020008e-01 0.000000e+00
 0.000000e+00 0.000000e+00 0.000000e+00 8.405553e-01 1.594448e-01
 0.000000e+00 0.000000e+00 0.000000e+00 0.000000e+00 0.000000e+00
<ENDHMM>
~h "OH_U"
<BEGINHMM>
<NUMSTATES> 5
<STATE> 2
<NUMMIXES> 2
<MIXTURE> 1 8.211835e-01
<MEAN> 22
 1.648884e+01 1.722787e+01 1.155299e+01 1.002581e+01 5.608034e+01 7.289692e+01 9.183730e+01 9.252788e+01 6.683946e+01 6.701384e+01 1.626835e+02 1.439429e+02 1.120703e+02 1.095943e+02 5.471636e+00 4.051977e+00 5.881912e+00 5.410117e+00 5.319047e+00 4.439720e+00 2.466852e+00 2.726876e+00
<VARIANCE> 22
