~o
<STREAMINFO> 1 22
<VECSIZE> 22<NULLD><MFCC_0><DIAGC>
~h "SIL"
<BEGINHMM>
<NUMSTATES> 5
<STATE> 2
<NUMMIXES> 12
<MIXTURE> 1 6.250000e-02
<MEAN> 22
 2.315636e+01 2.352269e+01 1.663123e+01 1.424404e+01 9.872836e+01 1.192152e+02 1.159995e+02 1.162116e+02 7.848363e+01 7.948894e+01 2.101753e+02 1.989714e+02 1.270698e+02 1.241875e+02 7.521752e+00 5.141660e+00 6.976417e+00 6.289631e+00 6.429389e+00 6.398467e+00 4.311436e+00 4.556657e+00
<VARIANCE> 22
 4.801635e+02 4.063120e+02 3.300595e+02 2.164982e+02 4.956268e+03 5.429985e+03 9.837579e+02 1.115179e+03 2.936362e+02 3.515820e+02 3.745738e+03 4.440754e+03 4.183320e+02 3.870127e+02 6.504288e+00 1.793316e+00 2.326111e+00 1.170389e+00 2.082489e+00 5.618803e+00 6.153808e+00 6.060927e+00
<GCONST> 1.445108e+02
<MIXTURE> 2 6.250000e-02
<MEAN> 22
 1.439130e+01 1.545981e+01 9.364216e+00 8.358487e+00 7.056805e+01 8.973984e+01 1.034535e+02 1.028537e+02 7.162930e+01 7.198872e+01 1.856943e+02 1.723158e+02 1.188886e+02 1.163185e+02 6.501612e+00 4.606002e+00 6.366353e+00 5.856893e+00 5.852156e+00 5.450307e+00 3.319161e+00 3.571899e+00
<VARIANCE> 22
 4.801635e+02 4.063120e+02 3.300595e+02 2.164982e+02 4.956268e+03 5.429985e+03 9.837579e+02 1.115179e+03 2.936362e+02 3.515820e+02 3.745738e+03 4.440754e+03 4.183320e+02 3.870127e+02 6.504288e+00 1.793316e+00 2.326111e+00 1.170389e+00 2.082489e+00 5.618803e+00 6.153808e+00 6.060927e+00
<GCONST> 1.445108e+02
<MIXTURE> 3 6.250000e-02
<MEAN> 22
 1.439130e+01 1.545981e+01 9.364216e+00 8.358486e+00 7.056805e+01 8.973984e+01 1.034535e+02 1.028538e+02 7.162930e+01 7.198872e+01 1.856943e+02 1.723158e+02 1.188886e+02 1.163185e+02 6.501611e+00 4.606001e+00 6.366353e+00 5.856893e+00 5.852156e+00 5.450307e+00 3.319161e+00 3.571899e+00
<VARIANCE> 22
 4.801635e+02 4.063120e+02 3.300595e+02 2.164982e+02 4.956268e+03 5.429985e+03 9.837579e+02 1.115179e+03 2.936362e+02 3.515820e+02 3.745738e+03 4.440754e+03 4.183320e+02 3.870127e+02 6.504288e+00 1.793316e+00 2.326111e+00 1.170389e+00 2.082489e+00 5.618803e+00 6.153808e+00 6.060927e+00
<GCONST> 1.445108e+02
<MIXTURE> 4 6.250000e-02
<MEAN> 22
 5.626247e+00 7.396933e+00 2.097200e+00 2.472937e+00 4.240775e+01 6.026447e+01 9.090754e+01 8.949603e+01 6.477496e+01 6.448850e+01 1.612133e+02 1.456602e+02 1.107074e+02 1.084495e+02 5.481472e+00 4.070345e+00 5.756289e+00 5.424155e+00 5.274923e+00 4.502147e+00 2.326887e+00 2.587141e+00
<VARIANCE> 22
 4.801635e+02 4.063120e+02 3.300595e+02 2.164982e+02 4.956268e+03 5.429985e+03 9.837579e+02 1.115179e+03 2.936362e+02 3.515820e+02 3.745738e+03 4.440754e+03 4.183320e+02 3.870127e+02 6.504288e+00 1.793316e+00 2.326111e+00 1.170389e+00 2.082489e+00 5.618803e+00 6.153808e+00 6.060927e+00
<GCONST> 1.445108e+02
<MIXTURE> 5 1.250000e-01
<MEAN> 22
 1.000877e+01 1.142837e+01 5.730708e+00 5.415711e+00 5.648789e+01 7.500215e+01 9.718052e+01 9.617494e+01 6.820214e+01 6.823862e+01 1.734538e+02 1.589880e+02 1.147980e+02 1.123840e+02 5.991541e+00 4.338172e+00 6.061321e+00 5.640524e+00 5.563540e+00 4.976227e+00 2.823024e+00 3.079520e+00
<VARIANCE> 22
 4.801635e+02 4.063120e+02 3.300595e+02 2.164982e+02 4.956268e+03 5.429985e+03 9.837579e+02 1.115179e+03 2.936362e+02 3.515820e+02 3.745738e+03 4.440754e+03 4.183320e+02 3.870127e+02 6.504288e+00 1.793316e+00 2.326111e+00 1.170389e+00 2.082489e+00 5.618803e+00 6.153808e+00 6.060927e+00
<GCONST> 1.445108e+02
<MIXTURE> 6 1.250000e-01
<MEAN> 22
 1.243720e+00 3.365497e+00 -1.536308e+00 -4.698384e-01 2.832759e+01 4.552678e+01 8.463456e+01 8.281718e+01 6.134780e+01 6.073840e+01 1.489728e+02 1.323324e+02 1.066168e+02 1.045150e+02 4.971402e+00 3.802515e+00 5.451257e+00 5.207786e+00 4.986305e+00 4.028067e+00 1.830750e+00 2.094762e+00
<VARIANCE> 22
 4.801635e+02 4.063120e+02 3.300595e+02 2.164982e+02 4.956268e+03 5.429985e+03 9.837579e+02 1.115179e+03 2.936362e+02 3.515820e+02 3.745738e+03 4.440754e+03 4.183320e+02 3.870127e+02 6.504288e+00 1.793316e+00 2.326111e+00 1.170389e+00 2.082489e+00 5.618803e+00 6.153808e+00 6.060927e+00
<GCONST> 1.445108e+02
<MIXTURE> 7 1.250000e-01
<MEAN> 22
 1.243716e+00 3.365498e+00 -1.536308e+00 -4.698396e-01 2.832759e+01 4.552678e+01 8.463456e+01 8.281718e+01 6.134781e+01 6.073840e+01 1.489728e+02 1.323324e+02 1.066168e+02 1.045150e+02 4.971401e+00 3.802514e+00 5.451257e+00 5.207786e+00 4.986305e+00 4.028067e+00 1.830750e+00 2.094762e+00
<VARIANCE> 22
 4.801635e+02 4.063120e+02 3.300595e+02 2.164982e+02 4.956268e+03 5.429985e+03 9.837579e+02 1.115179e+03 2.936362e+02 3.515820e+02 3.745738e+03 4.440754e+03 4.183320e+02 3.870127e+02 6.504288e+00 1.793316e+00 2.326111e+00 1.170389e+00 2.082489e+00 5.618803e+00 6.153808e+00 6.060927e+00
<GCONST> 1.445108e+02
<MIXTURE> 8 1.250000e-01
<MEAN> 22
 -7.521334e+00 -4.697377e+00 -8.803324e+00 -6.355390e+00 1.672869e-01 1.605140e+01 7.208860e+01 6.945947e+01 5.449348e+01 5.323820e+01 1.244918e+02 1.056768e+02 9.843556e+01 9.664597e+01 3.951261e+00 3.266857e+00 4.841193e+00 4.775048e+00 4.409072e+00 3.079907e+00 8.384756e-01 1.110004e+00
<VARIANCE> 22
 4.801635e+02 4.063120e+02 3.300595e+02 2.164982e+02 4.956268e+03 5.429985e+03 9.837579e+02 1.115179e+03 2.936362e+02 3.515820e+02 3.745738e+03 4.440754e+03 4.183320e+02 3.870127e+02 6.504288e+00 1.793316e+00 2.326111e+00 1.170389e+00 2.082489e+00 5.618803e+00 6.153808e+00 6.060927e+00
<GCONST> 1.445108e+02
<MIXTURE> 9 6.250000e-02
<MEAN> 22
 1.439130e+01 1.545981e+01 9.364212e+00 8.358484e+00 7.056805e+01 8.973981e+01 1.034535e+02 1.028538e+02 7.162931e+01 7.198872e+01 1.856943e+02 1.723158e+02 1.188886e+02 1.163185e+02 6.501612e+00 4.606001e+00 6.366353e+00 5.856893e+00 5.852156e+00 5.450307e+00 3.319161e+00 3.571899e+00
<VARIANCE> 22
 4.801635e+02 4.063120e+02 3.300595e+02 2.164982e+02 4.956268e+03 5.429985e+03 9.837579e+02 1.115179e+03 2.936362e+02 3.515820e+02 3.745738e+03 4.440754e+03 4.183320e+02 3.870127e+02 6.504288e+00 1.793316e+00 2.326111e+00 1.170389e+00 2.082489e+00 5.618803e+00 6.153808e+00 6.060927e+00
<GCONST> 1.445108e+02
<MIXTURE> 10 6.250000e-02
<MEAN> 22
 5.626243e+00 7.396934e+00 2.097200e+00 2.472936e+00 4.240775e+01 6.026447e+01 9.090754e+01 8.949603e+01 6.477497e+01 6.448850e+01 1.612133e+02 1.456602e+02 1.107074e+02 1.084495e+02 5.481472e+00 4.070343e+00 5.756289e+00 5.424155e+00 5.274922e+00 4.502147e+00 2.326887e+00 2.587141e+00
<VARIANCE> 22
 4.801635e+02 4.063120e+02 3.300595e+02 2.164982e+02 4.956268e+03 5.429985e+03 9.837579e+02 1.115179e+03 2.936362e+02 3.515820e+02 3.745738e+03 4.440754e+03 4.183320e+02 3.870127e+02 6.504288e+00 1.793316e+00 2.326111e+00 1.170389e+00 2.082489e+00 5.618803e+00 6.153808e+00 6.060927e+00
<GCONST> 1.445108e+02
<MIXTURE> 11 6.250000e-02
<MEAN> 22
 5.626243e+00 7.396934e+00 2.097200e+00 2.472935e+00 4.240775e+01 6.026447e+01 9.090754e+01 8.949604e+01 6.477497e+01 6.448850e+01 1.612133e+02 1.456602e+02 1.107074e+02 1.084495e+02 5.481471e+00 4.070343e+00 5.756289e+00 5.424155e+00 5.274922e+00 4.502147e+00 2.326887e+00 2.587141e+00
<VARIANCE> 22
 4.801635e+02 4.063120e+02 3.300595e+02 2.164982e+02 4.956268e+03 5.429985e+03 9.837579e+02 1.115179e+03 2.936362e+02 3.515820e+02 3.745738e+03 4.440754e+03 4.183320e+02 3.870127e+02 6.504288e+00 1.793316e+00 2.326111e+00 1.170389e+00 2.082489e+00 5.618803e+00 6.153808e+00 6.060927e+00
<GCONST> 1.445108e+02
<MIXTURE> 12 6.250000e-02
<MEAN> 22
 -3.138807e+00 -6.659405e-01 -5.169816e+00 -3.412614e+00 1.424744e+01 3.078909e+01 7.836158e+01 7.613832e+01 5.792064e+01 5.698830e+01 1.367323e+02 1.190046e+02 1.025262e+02 1.005805e+02 4.461331e+00 3.534687e+00 5.146225e+00 4.991417e+00 4.697690e+00 3.553987e+00 1.334613e+00 1.602383e+00
<VARIANCE> 22
 4.801635e+02 4.063120e+02 3.300595e+02 2.164982e+02 4.956268e+03 5.429985e+03 9.837579e+02 1.115179e+03 2.936362e+02 3.515820e+02 3.745738e+03 4.440754e+03 4.183320e+02 3.870127e+02 6.504288e+00 1.793316e+00 2.326111e+00 1.170389e+00 2.082489e+00 5.618803e+00 6.153808e+00 6.060927e+00
<GCONST> 1.445108e+02
<STATE> 3
<NUMMIXES> 12
<MIXTURE> 1 6.250000e-02
<MEAN> 22
 2.315636e+01 2.352269e+01 1.663123e+01 1.424404e+01 9.872836e+01 1.192152e+02 1.159995e+02 1.162116e+02 7.848363e+01 7.948894e+01 2.101753e+02 1.989714e+02 1.270698e+02 1.241875e+02 7.521752e+00 5.141660e+00 6.976417e+00 6.289631e+00 6.429389e+00 6.398467e+00 4.311436e+00 4.556657e+00
<VARIANCE> 22
 4.801635e+02 4.063120e+02 3.300595e+02 2.164982e+02 4.956268e+03 5.429985e+03 9.837579e+02 1.115179e+03 2.936362e+02 3.515820e+02 3.745738e+03 4.440754e+03 4.183320e+02 3.870127e+02 6.504288e+00 1.793316e+00 2.326111e+00 1.170389e+00 2.082489e+00 5.618803e+00 6.153808e+00 6.060927e+00
<GCONST> 1.445108e+02
<MIXTURE> 2 6.250000e-02
<MEAN> 22
 1.439130e+01 1.545981e+01 9.364216e+00 8.358487e+00 7.056805e+01 8.973984e+01 1.034535e+02 1.028537e+02 7.162930e+01 7.198872e+01 1.856943e+02 1.723158e+02 1.188886e+02 1.163185e+02 6.501612e+00 4.606002e+00 6.366353e+00 5.856893e+00 5.852156e+00 5.450307e+00 3.319161e+00 3.571899e+00
<VARIANCE> 22
 4.801635e+02 4.063120e+02 3.300595e+02 2.164982e+02 4.956268e+03 5.429985e+03 9.837579e+02 1.115179e+03 2.936362e+02 3.515820e+02 3.745738e+03 4.440754e+03 4.183320e+02 3.870127e+02 6.504288e+00 1.793316e+00 2.326111e+00 1.170389e+00 2.082489e+00 5.618803e+00 6.153808e+00 6.060927e+00
<GCONST> 1.445108e+02
<MIXTURE> 3 6.250000e-02
<MEAN> 22
 1.439130e+01 1.545981e+01 9.364216e+00 8.358486e+00 7.056805e+01 8.973984e+01 1.034535e+02 1.028538e+02 7.162930e+01 7.198872e+01 1.856943e+02 1.723158e+02 1.188886e+02 1.163185e+02 6.501611e+00 4.606001e+00 6.366353e+00 5.856893e+00 5.852156e+00 5.450307e+00 3.319161e+00 3.571899e+00
<VARIANCE> 22
 4.801635e+02 4.063120e+02 3.300595e+02 2.164982e+02 4.956268e+03 5.429985e+03 9.837579e+02 1.115179e+03 2.936362e+02 3.515820e+02 3.745738e+03 4.440754e+03 4.183320e+02 3.870127e+02 6.504288e+00 1.793316e+00 2.326111e+00 1.170389e+00 2.082489e+00 5.618803e+00 6.153808e+00 6.060927e+00
<GCONST> 1.445108e+02
<MIXTURE> 4 6.250000e-02
<MEAN> 22
 5.626247e+00 7.396933e+00 2.097200e+00 2.472937e+00 4.240775e+01 6.026447e+01 9.090754e+01 8.949603e+01 6.477496e+01 6.448850e+01 1.612133e+02 1.456602e+02 1.107074e+02 1.084495e+02 5.481472e+00 4.070345e+00 5.756289e+00 5.424155e+00 5.274923e+00 4.502147e+00 2.326887e+00 2.587141e+00
<VARIANCE> 22
 4.801635e+02 4.063120e+02 3.300595e+02 2.164982e+02 4.956268e+03 5.429985e+03 9.837579e+02 1.115179e+03 2.936362e+02 3.515820e+02 3.745738e+03 4.440754e+03 4.183320e+02 3.870127e+02 6.504288e+00 1.793316e+00 2.326111e+00 1.170389e+00 2.082489e+00 5.618803e+00 6.153808e+00 6.060927e+00
<GCONST> 1.445108e+02
<MIXTURE> 5 1.250000e-01
<MEAN> 22
 1.000877e+01 1.142837e+01 5.730708e+00 5.415711e+00 5.648789e+01 7.500215e+01 9.718052e+01 9.617494e+01 6.820214e+01 6.823862e+01 1.734538e+02 1.589880e+02 1.147980e+02 1.123840e+02 5.991541e+00 4.338172e+00 6.061321e+00 5.640524e+00 5.563540e+00 4.976227e+00 2.823024e+00 3.079520e+00
<VARIANCE> 22
 4.801635e+02 4.063120e+02 3.300595e+02 2.164982e+02 4.956268e+03 5.429985e+03 9.837579e+02 1.115179e+03 2.936362e+02 3.515820e+02 3.745738e+03 4.440754e+03 4.183320e+02 3.870127e+02 6.504288e+00 1.793316e+00 2.326111e+00 1.170389e+00 2.082489e+00 5.618803e+00 6.153808e+00 6.060927e+00
<GCONST> 1.445108e+02
<MIXTURE> 6 1.250000e-01
<MEAN> 22
 1.243720e+00 3.365497e+00 -1.536308e+00 -4.698384e-01 2.832759e+01 4.552678e+01 8.463456e+01 8.281718e+01 6.134780e+01 6.073840e+01 1.489728e+02 1.323324e+02 1.066168e+02 1.045150e+02 4.971402e+00 3.802515e+00 5.451257e+00 5.207786e+00 4.986305e+00 4.028067e+00 1.830750e+00 2.094762e+00
<VARIANCE> 22
 4.801635e+02 4.063120e+02 3.300595e+02 2.164982e+02 4.956268e+03 5.429985e+03 9.837579e+02 1.115179e+03 2.936362e+02 3.515820e+02 3.745738e+03 4.440754e+03 4.183320e+02 3.870127e+02 6.504288e+00 1.793316e+00 2.326111e+00 1.170389e+00 2.082489e+00 5.618803e+00 6.153808e+00 6.060927e+00
<GCONST> 1.445108e+02
<MIXTURE> 7 1.250000e-01
<MEAN> 22
 1.243716e+00 3.365498e+00 -1.536308e+00 -4.698396e-01 2.832759e+01 4.552678e+01 8.463456e+01 8.281718e+01 6.134781e+01 6.073840e+01 1.489728e+02 1.323324e+02 1.066168e+02 1.045150e+02 4.971401e+00 3.802514e+00 5.451257e+00 5.207786e+00 4.986305e+00 4.028067e+00 1.830750e+00 2.094762e+00
<VARIANCE> 22
 4.801635e+02 4.063120e+02 3.300595e+02 2.164982e+02 4.956268e+03 5.429985e+03 9.837579e+02 1.115179e+03 2.936362e+02 3.515820e+02 3.745738e+03 4.440754e+03 4.183320e+02 3.870127e+02 6.504288e+00 1.793316e+00 2.326111e+00 1.170389e+00 2.082489e+00 5.618803e+00 6.153808e+00 6.060927e+00
<GCONST> 1.445108e+02
<MIXTURE> 8 1.250000e-01
<MEAN> 22
 -7.521334e+00 -4.697377e+00 -8.803324e+00 -6.355390e+00 1.672869e-01 1.605140e+01 7.208860e+01 6.945947e+01 5.449348e+01 5.323820e+01 1.244918e+02 1.056768e+02 9.843556e+01 9.664597e+01 3.951261e+00 3.266857e+00 4.841193e+00 4.775048e+00 4.409072e+00 3.079907e+00 8.384756e-01 1.110004e+00
<VARIANCE> 22
 4.801635e+02 4.063120e+02 3.300595e+02 2.164982e+02 4.956268e+03 5.429985e+03 9.837579e+02 1.115179e+03 2.936362e+02 3.515820e+02 3.745738e+03 4.440754e+03 4.183320e+02 3.870127e+02 6.504288e+00 1.793316e+00 2.326111e+00 1.170389e+00 2.082489e+00 5.618803e+00 6.153808e+00 6.060927e+00
<GCONST> 1.445108e+02
<MIXTURE> 9 6.250000e-02
<MEAN> 22
 1.439130e+01 1.545981e+01 9.364212e+00 8.358484e+00 7.056805e+01 8.973981e+01 1.034535e+02 1.028538e+02 7.162931e+01 7.198872e+01 1.856943e+02 1.723158e+02 1.188886e+02 1.163185e+02 6.501612e+00 4.606001e+00 6.366353e+00 5.856893e+00 5.852156e+00 5.450307e+00 3.319161e+00 3.571899e+00
<VARIANCE> 22
 4.801635e+02 4.063120e+02 3.300595e+02 2.164982e+02 4.956268e+03 5.429985e+03 9.837579e+02 1.115179e+03 2.936362e+02 3.515820e+02 3.745738e+03 4.440754e+03 4.183320e+02 3.870127e+02 6.504288e+00 1.793316e+00 2.326111e+00 1.170389e+00 2.082489e+00 5.618803e+00 6.153808e+00 6.060927e+00
<GCONST> 1.445108e+02
<MIXTURE> 10 6.250000e-02
<MEAN> 22
 5.626243e+00 7.396934e+00 2.097200e+00 2.472936e+00 4.240775e+01 6.026447e+01 9.090754e+01 8.949603e+01 6.477497e+01 6.448850e+01 1.612133e+02 1.456602e+02 1.107074e+02 1.084495e+02 5.481472e+00 4.070343e+00 5.756289e+00 5.424155e+00 5.274922e+00 4.502147e+00 2.326887e+00 2.587141e+00
<VARIANCE> 22
 4.801635e+02 4.063120e+02 3.300595e+02 2.164982e+02 4.956268e+03 5.429985e+03 9.837579e+02 1.115179e+03 2.936362e+02 3.515820e+02 3.745738e+03 4.440754e+03 4.183320e+02 3.870127e+02 6.504288e+00 1.793316e+00 2.326111e+00 1.170389e+00 2.082489e+00 5.618803e+00 6.153808e+00 6.060927e+00
<GCONST> 1.445108e+02
<MIXTURE> 11 6.250000e-02
<MEAN> 22
 5.626243e+00 7.396934e+00 2.097200e+00 2.472935e+00 4.240775e+01 6.026447e+01 9.090754e+01 8.949604e+01 6.477497e+01 6.448850e+01 1.612133e+02 1.456602e+02 1.107074e+02 1.084495e+02 5.481471e+00 4.070343e+00 5.756289e+00 5.424155e+00 5.274922e+00 4.502147e+00 2.326887e+00 2.587141e+00
<VARIANCE> 22
 4.801635e+02 4.063120e+02 3.300595e+02 2.164982e+02 4.956268e+03 5.429985e+03 9.837579e+02 1.115179e+03 2.936362e+02 3.515820e+02 3.745738e+03 4.440754e+03 4.183320e+02 3.870127e+02 6.504288e+00 1.793316e+00 2.326111e+00 1.170389e+00 2.082489e+00 5.618803e+00 6.153808e+00 6.060927e+00
<GCONST> 1.445108e+02
<MIXTURE> 12 6.250000e-02
<MEAN> 22
 -3.138807e+00 -6.659405e-01 -5.169816e+00 -3.412614e+00 1.424744e+01 3.078909e+01 7.836158e+01 7.613832e+01 5.792064e+01 5.698830e+01 1.367323e+02 1.190046e+02 1.025262e+02 1.005805e+02 4.461331e+00 3.534687e+00 5.146225e+00 4.991417e+00 4.697690e+00 3.553987e+00 1.334613e+00 1.602383e+00
<VARIANCE> 22
 4.801635e+02 4.063120e+02 3.300595e+02 2.164982e+02 4.956268e+03 5.429985e+03 9.837579e+02 1.115179e+03 2.936362e+02 3.515820e+02 3.745738e+03 4.440754e+03 4.183320e+02 3.870127e+02 6.504288e+00 1.793316e+00 2.326111e+00 1.170389e+00 2.082489e+00 5.618803e+00 6.153808e+00 6.060927e+00
<GCONST> 1.445108e+02
<STATE> 4
<NUMMIXES> 12
<MIXTURE> 1 6.250000e-02
<MEAN> 22
 2.315636e+01 2.352269e+01 1.663123e+01 1.424404e+01 9.872836e+01 1.192152e+02 1.159995e+02 1.162116e+02 7.848363e+01 7.948894e+01 2.101753e+02 1.989714e+02 1.270698e+02 1.241875e+02 7.521752e+00 5.141660e+00 6.976417e+00 6.289631e+00 6.429389e+00 6.398467e+00 4.311436e+00 4.556657e+00
<VARIANCE> 22
 4.801635e+02 4.063120e+02 3.300595e+02 2.164982e+02 4.956268e+03 5.429985e+03 9.837579e+02 1.115179e+03 2.936362e+02 3.515820e+02 3.745738e+03 4.440754e+03 4.183320e+02 3.870127e+02 6.504288e+00 1.793316e+00 2.326111e+00 1.170389e+00 2.082489e+00 5.618803e+00 6.153808e+00 6.060927e+00
<GCONST> 1.445108e+02
<MIXTURE> 2 6.250000e-02
<MEAN> 22
 1.439130e+01 1.545981e+01 9.364216e+00 8.358487e+00 7.056805e+01 8.973984e+01 1.034535e+02 1.028537e+02 7.162930e+01 7.198872e+01 1.856943e+02 1.723158e+02 1.188886e+02 1.163185e+02 6.501612e+00 4.606002e+00 6.366353e+00 5.856893e+00 5.852156e+00 5.450307e+00 3.319161e+00 3.571899e+00
<VARIANCE> 22
 4.801635e+02 4.063120e+02 3.300595e+02 2.164982e+02 4.956268e+03 5.429985e+03 9.837579e+02 1.115179e+03 2.936362e+02 3.515820e+02 3.745738e+03 4.440754e+03 4.183320e+02 3.870127e+02 6.504288e+00 1.793316e+00 2.326111e+00 1.170389e+00 2.082489e+00 5.618803e+00 6.153808e+00 6.060927e+00
<GCONST> 1.445108e+02
<MIXTURE> 3 6.250000e-02
<MEAN> 22
 1.439130e+01 1.545981e+01 9.364216e+00 8.358486e+00 7.056805e+01 8.973984e+01 1.034535e+02 1.028538e+02 7.162930e+01 7.198872e+01 1.856943e+02 1.723158e+02 1.188886e+02 1.163185e+02 6.501611e+00 4.606001e+00 6.366353e+00 5.856893e+00 5.852156e+00 5.450307e+00 3.319161e+00 3.571899e+00
<VARIANCE> 22
 4.801635e+02 4.063120e+02 3.300595e+02 2.164982e+02 4.956268e+03 5.429985e+03 9.837579e+02 1.115179e+03 2.936362e+02 3.515820e+02 3.745738e+03 4.440754e+03 4.183320e+02 3.870127e+02 6.504288e+00 1.793316e+00 2.326111e+00 1.170389e+00 2.082489e+00 5.618803e+00 6.153808e+00 6.060927e+00
<GCONST> 1.445108e+02
<MIXTURE> 4 6.250000e-02
<MEAN> 22
 5.626247e+00 7.396933e+00 2.097200e+00 2.472937e+00 4.240775e+01 6.026447e+01 9.090754e+01 8.949603e+01 6.477496e+01 6.448850e+01 1.612133e+02 1.456602e+02 1.107074e+02 1.084495e+02 5.481472e+00 4.070345e+00 5.756289e+00 5.424155e+00 5.274923e+00 4.502147e+00 2.326887e+00 2.587141e+00
<VARIANCE> 22
 4.801635e+02 4.063120e+02 3.300595e+02 2.164982e+02 4.956268e+03 5.429985e+03 9.837579e+02 1.115179e+03 2.936362e+02 3.515820e+02 3.745738e+03 4.440754e+03 4.183320e+02 3.870127e+02 6.504288e+00 1.793316e+00 2.326111e+00 1.170389e+00 2.082489e+00 5.618803e+00 6.153808e+00 6.060927e+00
<GCONST> 1.445108e+02
<MIXTURE> 5 1.250000e-01
<MEAN> 22
 1.000877e+01 1.142837e+01 5.730708e+00 5.415711e+00 5.648789e+01 7.500215e+01 9.718052e+01 9.617494e+01 6.820214e+01 6.823862e+01 1.734538e+02 1.589880e+02 1.147980e+02 1.123840e+02 5.991541e+00 4.338172e+00 6.061321e+00 5.640524e+00 5.563540e+00 4.976227e+00 2.823024e+00 3.079520e+00
<VARIANCE> 22
 4.801635e+02 4.063120e+02 3.300595e+02 2.164982e+02 4.956268e+03 5.429985e+03 9.837579e+02 1.115179e+03 2.936362e+02 3.515820e+02 3.745738e+03 4.440754e+03 4.183320e+02 3.870127e+02 6.504288e+00 1.793316e+00 2.326111e+00 1.170389e+00 2.082489e+00 5.618803e+00 6.153808e+00 6.060927e+00
<GCONST> 1.445108e+02
<MIXTURE> 6 1.250000e-01
<MEAN> 22
 1.243720e+00 3.365497e+00 -1.536308e+00 -4.698384e-01 2.832759e+01 4.552678e+01 8.463456e+01 8.281718e+01 6.134780e+01 6.073840e+01 1.489728e+02 1.323324e+02 1.066168e+02 1.045150e+02 4.971402e+00 3.802515e+00 5.451257e+00 5.207786e+00 4.986305e+00 4.028067e+00 1.830750e+00 2.094762e+00
<VARIANCE> 22
 4.801635e+02 4.063120e+02 3.300595e+02 2.164982e+02 4.956268e+03 5.429985e+03 9.837579e+02 1.115179e+03 2.936362e+02 3.515820e+02 3.745738e+03 4.440754e+03 4.183320e+02 3.870127e+02 6.504288e+00 1.793316e+00 2.326111e+00 1.170389e+00 2.082489e+00 5.618803e+00 6.153808e+00 6.060927e+00
<GCONST> 1.445108e+02
<MIXTURE> 7 1.250000e-01
<MEAN> 22
 1.243716e+00 3.365498e+00 -1.536308e+00 -4.698396e-01 2.832759e+01 4.552678e+01 8.463456e+01 8.281718e+01 6.134781e+01 6.073840e+01 1.489728e+02 1.323324e+02 1.066168e+02 1.045150e+02 4.971401e+00 3.802514e+00 5.451257e+00 5.207786e+00 4.986305e+00 4.028067e+00 1.830750e+00 2.094762e+00
<VARIANCE> 22
 4.801635e+02 4.063120e+02 3.300595e+02 2.164982e+02 4.956268e+03 5.429985e+03 9.837579e+02 1.115179e+03 2.936362e+02 3.515820e+02 3.745738e+03 4.440754e+03 4.183320e+02 3.870127e+02 6.504288e+00 1.793316e+00 2.326111e+00 1.170389e+00 2.082489e+00 5.618803e+00 6.153808e+00 6.060927e+00
<GCONST> 1.445108e+02
<MIXTURE> 8 1.250000e-01
<MEAN> 22
 -7.521334e+00 -4.697377e+00 -8.803324e+00 -6.355390e+00 1.672869e-01 1.605140e+01 7.208860e+01 6.945947e+01 5.449348e+01 5.323820e+01 1.244918e+02 1.056768e+02 9.843556e+01 9.664597e+01 3.951261e+00 3.266857e+00 4.841193e+00 4.775048e+00 4.409072e+00 3.079907e+00 8.384756e-01 1.110004e+00
<VARIANCE> 22
 4.801635e+02 4.063120e+02 3.300595e+02 2.164982e+02 4.956268e+03 5.429985e+03 9.837579e+02 1.115179e+03 2.936362e+02 3.515820e+02 3.745738e+03 4.440754e+03 4.183320e+02 3.870127e+02 6.504288e+00 1.793316e+00 2.326111e+00 1.170389e+00 2.082489e+00 5.618803e+00 6.153808e+00 6.060927e+00
<GCONST> 1.445108e+02
<MIXTURE> 9 6.250000e-02
<MEAN> 22
 1.439130e+01 1.545981e+01 9.364212e+00 8.358484e+00 7.056805e+01 8.973981e+01 1.034535e+02 1.028538e+02 7.162931e+01 7.198872e+01 1.856943e+02 1.723158e+02 1.188886e+02 1.163185e+02 6.501612e+00 4.606001e+00 6.366353e+00 5.856893e+00 5.852156e+00 5.450307e+00 3.319161e+00 3.571899e+00
<VARIANCE> 22
 4.801635e+02 4.063120e+02 3.300595e+02 2.164982e+02 4.956268e+03 5.429985e+03 9.837579e+02 1.115179e+03 2.936362e+02 3.515820e+02 3.745738e+03 4.440754e+03 4.183320e+02 3.870127e+02 6.504288e+00 1.793316e+00 2.326111e+00 1.170389e+00 2.082489e+00 5.618803e+00 6.153808e+00 6.060927e+00
<GCONST> 1.445108e+02
<MIXTURE> 10 6.250000e-02
<MEAN> 22
 5.626243e+00 7.396934e+00 2.097200e+00 2.472936e+00 4.240775e+01 6.026447e+01 9.090754e+01 8.949603e+01 6.477497e+01 6.448850e+01 1.612133e+02 1.456602e+02 1.107074e+02 1.084495e+02 5.481472e+00 4.070343e+00 5.756289e+00 5.424155e+00 5.274922e+00 4.502147e+00 2.326887e+00 2.587141e+00
<VARIANCE> 22
 4.801635e+02 4.063120e+02 3.300595e+02 2.164982e+02 4.956268e+03 5.429985e+03 9.837579e+02 1.115179e+03 2.936362e+02 3.515820e+02 3.745738e+03 4.440754e+03 4.183320e+02 3.870127e+02 6.504288e+00 1.793316e+00 2.326111e+00 1.170389e+00 2.082489e+00 5.618803e+00 6.153808e+00 6.060927e+00
<GCONST> 1.445108e+02
<MIXTURE> 11 6.250000e-02
<MEAN> 22
 5.626243e+00 7.396934e+00 2.097200e+00 2.472935e+00 4.240775e+01 6.026447e+01 9.090754e+01 8.949604e+01 6.477497e+01 6.448850e+01 1.612133e+02 1.456602e+02 1.107074e+02 1.084495e+02 5.481471e+00 4.070343e+00 5.756289e+00 5.424155e+00 5.274922e+00 4.502147e+00 2.326887e+00 2.587141e+00
<VARIANCE> 22
 4.801635e+02 4.063120e+02 3.300595e+02 2.164982e+02 4.956268e+03 5.429985e+03 9.837579e+02 1.115179e+03 2.936362e+02 3.515820e+02 3.745738e+03 4.440754e+03 4.183320e+02 3.870127e+02 6.504288e+00 1.793316e+00 2.326111e+00 1.170389e+00 2.082489e+00 5.618803e+00 6.153808e+00 6.060927e+00
<GCONST> 1.445108e+02
<MIXTURE> 12 6.250000e-02
<MEAN> 22
 -3.138807e+00 -6.659405e-01 -5.169816e+00 -3.412614e+00 1.424744e+01 3.078909e+01 7.836158e+01 7.613832e+01 5.792064e+01 5.698830e+01 1.367323e+02 1.190046e+02 1.025262e+02 1.005805e+02 4.461331e+00 3.534687e+00 5.146225e+00 4.991417e+00 4.697690e+00 3.553987e+00 1.334613e+00 1.602383e+00
<VARIANCE> 22
 4.801635e+02 4.063120e+02 3.300595e+02 2.164982e+02 4.956268e+03 5.429985e+03 9.837579e+02 1.115179e+03 2.936362e+02 3.515820e+02 3.745738e+03 4.440754e+03 4.183320e+02 3.870127e+02 6.504288e+00 1.793316e+00 2.326111e+00 1.170389e+00 2.082489e+00 5.618803e+00 6.153808e+00 6.060927e+00
<GCONST> 1.445108e+02
<TRANSP> 5
 0.000000e+00 1.000000e+00 0.000000e+00 0.000000e+00 0.000000e+00
 0.000000e+00 4.800000e-01 3.200000e-01 2.000000e-01 0.000000e+00
 0.000000e+00 0.000000e+00 6.000000e-01 4.000000e-01 0.000000e+00
 0.000000e+00 2.000000e-01 0.000000e+00 5.600000e-01 2.400000e-01
 0.000000e+00 0.000000e+00 0.000000e+00 0.000000e+00 0.000000e+00
<ENDHMM>
~h "oov"
<BEGINHMM>
<NUMSTATES> 5
<STATE> 2
<NUMMIXES> 12
<MIXTURE> 1 1.559612e-02
<MEAN> 22
 1.200538e+02 1.080702e+02 1.046125e+02 8.631418e+01 3.273031e+02 2.613209e+02 1.063138e+02 9.710547e+01 6.408756e+01 7.199157e+01 2.046754e+02 1.459845e+02 1.170201e+02 1.122815e+02 6.990819e+00 4.063454e+00 6.206643e+00 5.296262e+00 5.997789e+00 4.385116e+00 3.515199e+00 3.772580e+00
<VARIANCE> 22
 4.390451e+04 2.873897e+04 3.556384e+04 2.235201e+04 7.191255e+04 3.507857e+04 2.943715e+02 9.710049e+02 5.190723e+01 2.608100e+02 4.274473e+02 4.550635e+03 1.502674e+02 2.423177e+02 6.504288e-02 1.538915e+00 1.639430e-01 8.532991e-01 2.082489e-02 5.782052e+00 8.773762e+00 7.752021e+00
<GCONST> 1.484257e+02
<MIXTURE> 2 8.497901e-02
<MEAN> 22
 1.361418e+01 1.453480e+01 2.310122e+00 2.574227e+00 1.592708e+02 1.593781e+02 8.836746e+01 8.853268e+01 7.186231e+01 7.052522e+01 4.998124e+01 5.070233e+01 1.063800e+02 1.087247e+02 1.895832e+00 2.173889e+00 5.072254e+00 5.300339e+00 3.053989e+00 1.083083e+00 3.083198e+00 3.001551e+00
<VARIANCE> 22
 2.693519e+02 3.248301e+02 9.893323e+00 1.248906e+01 2.392420e+03 1.590702e+03 7.499662e+02 8.095317e+02 1.443066e+02 1.585239e+02 5.418528e+02 5.278787e+02 3.326128e+02 2.461371e+02 3.488324e-01 3.350944e-01 4.943356e+00 1.350062e+00 4.360502e-01 4.382921e-01 5.343283e+00 5.613680e+00
<GCONST> 1.205103e+02
<MIXTURE> 3 1.731545e-01
<MEAN> 22
 1.144845e+01 7.589017e+00 2.893546e+00 1.818642e+00 9.839405e+01 5.727259e+01 9.140238e+01 8.796507e+01 7.724499e+01 6.275454e+01 1.170922e+02 1.574490e+02 1.044343e+02 1.084560e+02 1.495740e+00 4.362968e+00 5.615022e+00 5.428601e+00 3.987349e+00 5.353470e+00 3.178343e+00 2.914669e+00
<VARIANCE> 22
 1.774602e+02 1.021525e+02 1.525382e+01 6.373309e+00 3.120081e+03 1.729307e+03 2.011903e+03 1.357654e+03 3.588103e+02 1.606059e+02 2.528814e+03 1.410156e+03 2.166924e+02 1.428588e+02 4.884484e+00 4.990675e-01 5.384128e+00 2.826082e-01 5.159249e+00 1.943680e+00 5.468472e+00 6.335819e+00
<GCONST> 1.286874e+02
<MIXTURE> 4 2.547543e-02
<MEAN> 22
 0.000000e+00 0.000000e+00 0.000000e+00 0.000000e+00 5.109983e+02 3.967704e+02 0.000000e+00 0.000000e+00 0.000000e+00 0.000000e+00 0.000000e+00 0.000000e+00 0.000000e+00 0.000000e+00 0.000000e+00 0.000000e+00 0.000000e+00 0.000000e+00 0.000000e+00 0.000000e+00 0.000000e+00 0.000000e+00
<VARIANCE> 22
 4.801635e+00 4.063120e+00 3.300595e+00 2.164982e+00 2.672961e+03 1.681280e+03 9.837578e+00 1.115179e+01 2.936362e+00 3.515820e+00 3.745738e+01 4.440754e+01 4.183320e+00 3.870127e+00 6.504288e-02 1.793316e-02 2.326111e-02 1.170389e-02 2.082489e-02 5.618803e-02 6.153808e-02 6.060927e-02
<GCONST> 5.061755e+01
<MIXTURE> 5 7.341578e-02
<MEAN> 22
 6.347992e+00 6.738732e+00 1.112065e+00 9.921948e-01 1.476788e+02 1.437244e+02 7.540648e+01 7.526945e+01 6.331264e+01 6.104123e+01 3.767832e+01 3.844400e+01 9.993886e+01 1.010524e+02 1.854775e+00 2.125425e+00 6.261760e+00 5.691571e+00 2.977809e+00 1.047575e+00 3.244263e+00 3.036294e+00
<VARIANCE> 22
 5.706334e+01 7.362047e+01 3.300595e+00 2.164982e+00 6.099485e+02 4.912645e+02 2.057802e+02 2.125477e+02 3.701921e+01 5.117651e+01 1.561273e+02 1.677376e+02 5.257779e+01 5.465817e+01 1.268726e-01 1.195004e-01 3.472046e-01 3.558598e-01 2.861624e-02 6.661093e-02 5.724264e+00 5.832888e+00
<GCONST> 9.068791e+01
<MIXTURE> 6 5.971061e-03
<MEAN> 22
 4.487582e+02 3.837063e+02 4.134222e+02 3.305544e+02 1.279229e+01 1.026477e+01 1.830084e+01 1.730046e+01 1.891226e+01 1.648144e+01 2.321523e+01 2.974868e+01 2.347057e+01 2.514983e+01 5.354283e-01 8.517330e-01 1.342558e+00 1.343156e+00 9.828880e-01 9.670755e-01 3.554167e+00 3.625894e+00
<VARIANCE> 22
 1.920168e+04 1.372895e+04 1.584826e+04 1.108869e+04 2.017590e+03 1.497131e+03 1.544727e+03 1.273403e+03 1.224133e+03 9.058386e+02 2.088833e+03 3.363549e+03 1.847249e+03 1.999781e+03 1.890251e+00 2.997576e+00 6.576748e+00 5.721869e+00 3.512394e+00 4.758452e+00 2.622284e+00 2.613338e+00
<GCONST> 1.631303e+02
<MIXTURE> 7 8.983964e-02
<MEAN> 22
 4.203259e+00 1.044269e+01 1.393267e+00 2.892315e+00 3.835660e+01 7.936237e+01 1.099893e+02 1.010387e+02 6.907876e+01 7.696362e+01 2.109645e+02 1.668722e+02 1.255636e+02 1.201013e+02 6.998632e+00 4.383015e+00 6.316529e+00 5.318050e+00 6.000134e+00 5.173480e+00 2.723126e+00 3.114943e+00
<VARIANCE> 22
 3.663338e+01 1.792128e+02 3.826848e+00 1.474182e+01 2.293648e+03 4.471949e+03 2.969196e+02 1.014022e+03 6.940321e+01 5.150929e+02 4.624532e+02 2.811788e+03 1.730521e+02 1.101695e+02 6.504288e-02 9.231232e-01 2.163375e-01 6.019956e-01 2.082489e-02 3.431820e+00 6.465096e+00 5.864712e+00
<GCONST> 1.125779e+02
<MIXTURE> 8 3.836703e-02
<MEAN> 22
 0.000000e+00 0.000000e+00 0.000000e+00 0.000000e+00 0.000000e+00 2.350989e-38 0.000000e+00 0.000000e+00 0.000000e+00 0.000000e+00 0.000000e+00 0.000000e+00 0.000000e+00 0.000000e+00 0.000000e+00 0.000000e+00 0.000000e+00 0.000000e+00 0.000000e+00 0.000000e+00 0.000000e+00 0.000000e+00
<VARIANCE> 22
 4.801635e+00 4.063120e+00 3.300595e+00 2.164982e+00 4.956268e+01 5.429985e+01 9.837578e+00 1.115179e+01 2.936362e+00 3.515820e+00 3.745738e+01 4.440754e+01 4.183320e+00 3.870127e+00 6.504288e-02 1.793316e-02 2.326111e-02 1.170389e-02 2.082489e-02 5.618803e-02 6.153808e-02 6.060927e-02
<GCONST> 4.319706e+01
<MIXTURE> 9 1.721057e-01
<MEAN> 22
 1.217133e+00 1.012301e+01 5.281187e-01 2.343235e+00 6.624301e+00 5.414454e+01 8.828826e+01 6.488780e+01 5.560209e+01 6.713260e+01 1.840182e+02 1.361625e+02 1.096675e+02 1.041105e+02 6.999489e+00 4.283722e+00 6.000000e+00 5.596313e+00 6.000000e+00 5.456725e+00 1.854130e+00 2.796696e+00
<VARIANCE> 22
 4.801635e+00 1.023219e+02 3.300595e+00 6.664403e+00 5.076610e+01 1.338193e+03 5.896694e+01 5.869470e+02 2.531866e+01 2.200635e+02 8.900665e+01 1.397934e+03 4.045699e+01 5.695046e+01 6.504288e-02 6.525469e-01 2.326111e-02 2.718642e-01 2.082489e-02 3.871565e+00 5.592429e+00 4.769998e+00
<GCONST> 9.194163e+01
<MIXTURE> 10 6.740373e-02
<MEAN> 22
 4.086452e+00 4.569363e+00 1.003156e+00 9.803135e-01 1.040617e+02 1.039914e+02 5.367741e+01 5.306136e+01 6.093394e+01 5.647687e+01 6.020981e+01 6.290247e+01 9.599793e+01 9.592683e+01 1.764452e+00 2.130995e+00 6.240841e+00 5.824565e+00 3.365735e+00 6.442703e-01 3.080561e+00 3.017606e+00
<VARIANCE> 22
 2.498475e+01 3.380419e+01 3.300595e+00 2.164982e+00 1.585682e+03 1.106552e+03 2.944373e+02 2.895856e+02 6.729532e+01 7.705080e+01 3.397445e+02 3.105177e+02 6.518143e+01 7.766578e+01 4.948249e-01 6.087865e-01 3.308297e-01 4.335730e-01 4.185184e-01 4.469337e-01 6.293142e+00 6.467327e+00
<GCONST> 1.024077e+02
<MIXTURE> 11 1.513854e-01
<MEAN> 22
 7.437485e-01 6.744462e+00 3.627791e-01 1.625607e+00 6.188815e+00 1.055898e+02 8.041432e+01 6.946058e+01 5.226594e+01 6.799870e+01 1.708622e+02 7.521362e+01 1.034833e+02 9.180999e+01 6.999983e+00 3.003205e+00 6.000002e+00 5.130289e+00 5.999778e+00 2.464751e+00 1.178050e+00 2.986208e+00
<VARIANCE> 22
 4.801635e+00 6.343249e+01 3.300595e+00 3.651788e+00 4.956268e+01 2.805591e+03 8.669205e+01 1.326023e+03 2.552203e+01 3.127395e+02 2.215600e+02 1.322733e+03 5.373951e+01 9.825445e+01 6.504288e-02 1.209433e+00 2.326111e-02 1.095972e+00 2.082489e-02 6.609704e+00 4.055149e+00 5.856802e+00
<GCONST> 9.725387e+01
<MIXTURE> 12 1.022989e-01
<MEAN> 22
 4.307909e+00 9.523149e+00 1.100341e+00 3.309117e+00 3.386615e+01 9.835224e+01 8.612489e+01 8.625780e+01 6.133416e+01 7.363538e+01 1.774928e+02 9.921542e+01 1.072669e+02 1.005011e+02 6.997035e+00 3.454010e+00 6.314845e+00 4.997245e+00 5.996928e+00 3.395710e+00 2.426247e+00 2.920171e+00
<VARIANCE> 22
 3.466757e+01 1.288294e+02 3.300595e+00 2.099767e+01 1.059669e+03 5.016639e+03 3.370652e+02 1.655346e+03 6.424364e+01 5.142722e+02 6.288032e+02 2.711255e+03 1.572263e+02 1.706570e+02 6.504288e-02 1.609691e+00 2.157133e-01 1.129068e+00 2.082489e-02 6.490017e+00 5.850604e+00 5.627191e+00
<GCONST> 1.145699e+02
<STATE> 3
<NUMMIXES> 12
<MIXTURE> 1 8.005589e-02
<MEAN> 22
 8.032115e+00 4.563515e+00 2.325826e+00 1.314807e+00 3.523311e+01 2.391723e+01 1.144308e+02 1.075004e+02 7.671217e+01 6.514775e+01 2.158091e+02 2.131414e+02 1.321452e+02 1.283663e+02 6.995377e+00 5.000246e+00 6.501505e+00 5.828764e+00 5.978493e+00 5.988312e+00 2.761969e+00 2.416679e+00
<VARIANCE> 22
 1.130481e+02 4.398531e+01 1.099872e+01 3.138204e+00 1.376585e+03 5.397522e+02 1.489941e+03 3.973116e+02 2.203304e+02 1.292358e+02 2.313309e+03 9.845437e+02 7.215601e+02 2.904520e+02 6.504288e-02 1.793316e-02 2.499928e-01 1.419214e-01 8.119409e-02 5.618803e-02 6.064793e+00 6.012953e+00
<GCONST> 1.045581e+02
<MIXTURE> 2 1.127565e-01
<MEAN> 22
 1.134690e+00 1.424046e+01 4.692624e-01 4.212125e+00 6.758887e+00 1.931517e+02 1.176125e+02 1.249222e+02 6.915985e+01 1.000719e+02 2.251248e+02 6.789420e+01 1.331763e+02 1.139432e+02 6.999999e+00 2.504493e+00 6.276240e+00 4.211872e+00 6.000000e+00 1.590390e+00 1.723470e+00 3.255699e+00
<VARIANCE> 22
 4.801635e+00 3.248219e+02 3.300595e+00 3.354900e+01 4.956268e+01 3.115428e+03 2.823131e+02 2.099101e+03 6.314217e+01 6.141497e+02 3.946380e+02 1.445216e+03 1.682293e+02 2.002766e+02 6.504288e-02 4.966529e-01 1.999398e-01 1.261006e+00 2.082489e-02 1.984581e+00 5.664736e+00 5.512703e+00
<GCONST> 1.074216e+02
<MIXTURE> 3 5.232855e-02
<MEAN> 22
 1.349554e+01 1.282616e+01 1.989326e+00 2.327845e+00 1.019873e+02 1.056748e+02 5.564173e+01 5.499313e+01 6.718884e+01 6.305508e+01 7.167528e+01 6.972666e+01 1.033773e+02 1.045078e+02 1.797354e+00 2.218817e+00 6.102416e+00 5.796047e+00 3.607595e+00 5.971651e-01 3.070428e+00 3.094272e+00
<VARIANCE> 22
 2.571033e+02 2.188277e+02 6.069864e+00 8.949419e+00 2.469591e+03 1.761885e+03 3.763471e+02 3.865986e+02 1.299471e+02 1.125362e+02 6.662106e+02 5.073215e+02 1.885922e+02 1.371240e+02 9.735904e-01 7.231598e-01 4.350358e-01 4.234547e-01 5.313581e-01 3.984829e-01 5.789776e+00 5.700387e+00
<GCONST> 1.149231e+02
<MIXTURE> 4 1.218341e-01
<MEAN> 22
 1.480399e+01 1.795435e+00 4.538937e+00 9.189793e-01 1.545876e+02 1.964548e+01 1.147658e+02 1.078097e+02 9.944823e+01 6.076255e+01 7.910828e+01 2.104268e+02 1.090433e+02 1.242383e+02 1.283065e+00 5.000070e+00 3.725704e+00 5.804289e+00 3.224801e+00 5.992522e+00 3.513244e+00 2.306064e+00
<VARIANCE> 22
 2.976268e+02 7.276656e+00 3.607782e+01 2.164982e+00 5.000459e+03 6.849523e+02 2.642909e+03 1.175359e+02 5.390272e+02 4.568671e+01 2.005499e+03 1.704347e+02 2.920021e+02 6.652933e+01 5.869331e-01 1.793316e-02 9.111215e+00 1.573910e-01 1.773162e+00 5.618803e-02 5.991645e+00 6.108723e+00
<GCONST> 1.099932e+02
<MIXTURE> 5 1.112075e-01
<MEAN> 22
 1.382207e+00 1.506068e+01 6.794262e-01 5.381524e+00 6.331887e+00 1.718936e+02 8.876131e+01 1.190229e+02 5.474403e+01 8.849964e+01 1.850072e+02 6.001304e+01 1.101573e+02 9.058687e+01 6.999243e+00 2.424349e+00 6.000070e+00 4.063776e+00 6.000000e+00 1.362500e+00 1.981130e+00 3.448754e+00
<VARIANCE> 22
 5.519490e+00 1.929054e+02 3.300595e+00 3.210054e+01 4.956268e+01 2.216462e+03 6.795110e+01 2.066345e+03 3.268857e+01 5.747221e+02 1.086312e+02 6.673967e+02 3.821835e+01 1.995886e+02 6.504288e-02 2.476262e-01 2.326111e-02 1.486315e+00 2.082489e-02 5.091553e-01 6.309038e+00 5.075116e+00
<GCONST> 9.692432e+01
<MIXTURE> 6 4.972262e-02
<MEAN> 22
 7.716452e+00 2.028669e+00 2.860103e+00 1.107726e+00 6.425500e+01 2.021809e+01 9.520969e+01 3.709711e+01 8.530174e+01 5.773512e+01 5.930111e+01 1.098459e+02 9.608131e+01 1.016762e+02 1.577963e+00 3.722188e+00 4.100709e+00 5.695184e+00 3.167238e+00 4.520227e+00 3.271832e+00 2.191602e+00
<VARIANCE> 22
 8.474487e+01 7.761583e+00 1.460882e+01 2.903968e+00 1.505823e+03 2.033606e+02 2.146004e+03 1.464072e+02 4.703669e+02 2.999490e+01 9.177496e+02 2.893384e+02 1.854183e+02 5.336415e+01 5.531367e-01 4.139181e-01 8.167159e+00 2.118977e-01 7.017875e-01 9.206932e+00 6.188261e+00 5.622094e+00
<GCONST> 1.116929e+02
<MIXTURE> 7 5.186489e-02
<MEAN> 22
 1.973145e+01 2.078645e+01 6.484165e+00 6.108351e+00 9.552069e+01 1.067823e+02 7.828201e+01 8.551696e+01 7.415442e+01 7.159492e+01 1.185076e+02 1.128263e+02 9.946711e+01 1.029878e+02 2.819582e+00 3.396517e+00 5.634192e+00 4.988128e+00 4.335460e+00 3.666547e+00 3.295645e+00 3.390140e+00
<VARIANCE> 22
 6.618397e+02 8.402750e+02 1.037041e+02 6.936328e+01 7.444510e+03 6.264271e+03 1.916554e+03 2.346910e+03 4.308267e+02 5.529683e+02 3.007030e+03 2.983589e+03 1.003133e+03 5.344648e+02 7.485542e+00 1.878148e+00 3.861777e+00 1.509295e+00 3.503580e+00 6.477192e+00 6.163861e+00 5.579434e+00
<GCONST> 1.481685e+02
<MIXTURE> 8 5.738459e-02
<MEAN> 22
 6.764993e+00 7.858175e+00 1.109606e+00 9.839202e-01 7.336228e+01 7.441701e+01 2.503547e+01 2.689620e+01 6.501591e+01 6.013262e+01 8.739890e+01 8.798540e+01 1.028259e+02 1.018979e+02 2.136614e+00 1.795836e+00 5.999999e+00 6.000000e+00 4.039440e+00 3.205842e-03 2.738995e+00 2.507365e+00
<VARIANCE> 22
 9.045882e+01 1.113262e+02 3.300595e+00 2.164982e+00 1.765843e+03 1.436908e+03 1.342377e+02 8.747513e+01 4.800014e+01 4.354388e+01 1.708062e+02 1.514947e+02 6.495959e+01 5.599818e+01 1.173568e+00 1.176784e+00 2.326111e-02 1.170389e-02 5.230434e-02 5.618803e-02 6.051636e+00 6.200339e+00
<GCONST> 9.164915e+01
<MIXTURE> 9 8.296658e-02
<MEAN> 22
 8.042814e-01 4.706057e+00 3.762547e-01 1.554268e+00 4.857746e+00 1.747534e+02 8.630482e+01 1.165267e+02 5.483152e+01 8.417893e+01 1.818965e+02 3.613991e+01 1.089450e+02 8.997491e+01 6.999831e+00 2.135023e+00 6.000553e+00 3.839831e+00 6.000000e+00 1.225316e+00 1.398780e+00 2.894723e+00
<VARIANCE> 22
 4.801635e+00 3.220279e+01 3.300595e+00 2.720009e+00 4.956268e+01 6.699617e+02 3.338997e+01 5.492947e+02 2.139764e+01 3.733095e+02 5.181910e+01 2.357751e+02 2.522334e+01 1.121626e+02 6.504288e-02 1.183781e-01 2.326111e-02 1.224197e+00 2.082489e-02 2.580932e-01 5.118063e+00 5.977684e+00
<GCONST> 8.400993e+01
<MIXTURE> 10 8.928555e-02
<MEAN> 22
 1.092319e+00 2.786010e+01 5.703173e-01 6.267417e+00 6.719211e+00 6.638988e+01 9.559972e+01 6.909503e+01 5.839809e+01 7.346719e+01 1.944513e+02 1.320797e+02 1.149362e+02 1.066644e+02 6.999569e+00 4.054870e+00 6.011721e+00 5.424953e+00 6.000000e+00 4.918239e+00 1.839187e+00 4.717930e+00
<VARIANCE> 22
 4.801635e+00 4.202577e+02 3.300595e+00 3.557428e+01 4.956268e+01 1.250180e+03 1.628065e+02 7.194974e+02 4.753605e+01 2.103335e+02 3.373947e+02 1.776128e+03 1.068209e+02 1.410845e+02 6.504288e-02 7.628055e-01 2.326111e-02 2.648120e-01 2.082489e-02 5.508396e+00 5.757086e+00 3.865251e+00
<GCONST> 1.004923e+02
<MIXTURE> 11 1.221195e-01
<MEAN> 22
 7.943114e+00 1.166999e+00 2.490279e+00 6.407013e-01 1.384800e+02 1.740589e+01 1.030467e+02 8.707007e+01 7.858702e+01 5.099232e+01 5.274432e+01 1.816747e+02 8.856632e+01 1.076735e+02 1.576889e+00 5.000004e+00 3.482487e+00 5.827400e+00 2.907215e+00 5.992627e+00 3.154016e+00 1.890931e+00
<VARIANCE> 22
 1.041025e+02 4.063120e+00 9.805125e+00 2.164982e+00 3.412991e+03 5.349008e+02 1.781374e+03 9.556767e+01 4.499795e+02 3.806516e+01 9.006993e+02 1.780749e+02 2.592376e+02 6.948975e+01 4.084671e-01 1.793316e-02 8.172588e+00 1.428070e-01 9.501347e-01 5.618803e-02 6.055065e+00 5.528568e+00
<GCONST> 1.033498e+02
<MIXTURE> 12 6.846061e-02
<MEAN> 22
 6.507353e-01 3.133382e+00 3.158555e-01 1.245663e+00 5.415974e+00 1.567141e+02 8.028321e+01 1.000269e+02 5.146207e+01 7.091186e+01 1.726757e+02 2.896787e+01 1.037759e+02 8.392614e+01 6.999952e+00 2.003158e+00 6.001720e+00 4.328731e+00 6.000000e+00 1.098966e+00 8.414831e-01 2.461821e+00
<VARIANCE> 22
 4.801635e+00 1.828761e+01 3.300595e+00 2.164982e+00 4.956268e+01 7.218760e+02 3.445091e+01 5.896342e+02 2.011058e+01 2.836445e+02 7.426617e+01 1.702220e+02 3.175336e+01 1.622737e+02 6.504288e-02 1.793316e-02 2.326111e-02 1.924564e+00 2.082489e-02 3.283352e-01 2.946696e+00 6.021614e+00
<GCONST> 8.195075e+01
<STATE> 4
<NUMMIXES> 12
<MIXTURE> 1 7.752639e-02
<MEAN> 22
 4.100983e+00 4.294079e+00 1.586672e+00 1.788400e+00 2.066406e+01 1.787999e+01 1.218443e+02 1.136847e+02 7.518176e+01 6.527999e+01 2.241189e+02 2.179939e+02 1.349084e+02 1.293716e+02 6.998430e+00 5.000807e+00 6.439967e+00 5.726616e+00 6.000757e+00 5.978480e+00 2.832187e+00 2.898988e+00
<VARIANCE> 22
 2.130150e+01 2.510578e+01 3.566389e+00 4.807505e+00 2.767253e+02 2.059793e+02 1.921226e+02 1.100643e+02 5.159373e+01 6.014525e+01 1.856114e+02 1.501152e+02 8.398417e+01 5.755544e+01 6.504288e-02 1.793316e-02 2.464016e-01 1.986377e-01 2.082489e-02 5.618803e-02 6.040658e+00 6.224704e+00
<GCONST> 8.433101e+01
<MIXTURE> 2 8.969597e-02
<MEAN> 22
 1.307058e+01 8.957656e+00 3.375504e+00 2.719217e+00 3.728433e+01 2.316380e+01 8.055539e+01 8.863762e+01 6.726052e+01 5.850418e+01 1.710510e+02 1.841802e+02 1.108075e+02 1.128030e+02 6.004250e+00 5.000008e+00 6.343423e+00 5.749538e+00 5.879231e+00 5.991172e+00 3.644803e+00 3.081291e+00
<VARIANCE> 22
 1.735032e+02 1.187677e+02 1.510212e+01 1.295488e+01 6.852316e+02 4.068520e+02 6.190191e+02 2.838534e+02 1.454797e+02 8.480245e+01 8.618741e+02 4.279919e+02 1.434083e+02 9.224659e+01 5.583541e+00 1.793316e-02 2.255933e-01 1.877345e-01 2.557613e-01 5.618803e-02 5.923839e+00 5.979904e+00
<GCONST> 1.058483e+02
<MIXTURE> 3 7.787650e-02
<MEAN> 22
 3.157781e+00 3.870245e+00 1.115537e+00 1.337947e+00 9.563835e+00 1.124924e+01 9.755709e+01 9.656430e+01 6.064381e+01 5.646822e+01 1.964636e+02 1.961953e+02 1.166212e+02 1.175167e+02 6.998510e+00 5.000000e+00 6.000243e+00 6.000000e+00 6.000000e+00 6.000000e+00 2.867357e+00 2.882995e+00
<VARIANCE> 22
 1.521054e+01 1.970303e+01 3.300595e+00 2.679628e+00 5.655920e+01 5.847810e+01 4.457752e+01 5.178421e+01 2.068087e+01 3.161627e+01 4.284871e+01 5.518851e+01 2.367716e+01 1.337788e+01 6.504288e-02 1.793316e-02 2.326111e-02 1.170389e-02 2.082489e-02 5.618803e-02 6.411846e+00 6.317452e+00
<GCONST> 6.616171e+01
<MIXTURE> 4 4.675462e-02
<MEAN> 22
 1.300819e+01 6.659891e+00 3.629107e+00 2.037459e+00 1.483758e+02 8.396637e+01 1.104196e+02 1.033627e+02 8.236992e+01 6.620747e+01 9.315522e+01 1.503914e+02 1.049092e+02 1.115072e+02 1.433113e+00 3.966060e+00 4.540959e+00 5.292832e+00 2.839161e+00 4.287866e+00 2.939727e+00 2.802786e+00
<VARIANCE> 22
 2.675757e+02 1.108865e+02 2.678002e+01 1.210523e+01 6.952429e+03 7.052220e+03 1.988899e+03 1.418454e+03 5.273196e+02 3.404100e+02 3.849642e+03 3.816622e+03 5.146688e+02 3.159406e+02 2.160382e+00 1.402524e+00 8.690358e+00 8.600758e-01 3.449770e+00 4.299930e+00 5.415222e+00 5.939172e+00
<GCONST> 1.389607e+02
<MIXTURE> 5 6.999639e-02
<MEAN> 22
 1.523312e+00 6.664663e+00 6.417426e-01 2.199975e+00 6.628064e+00 2.131180e+01 8.557089e+01 8.320689e+01 5.452429e+01 5.690240e+01 1.798498e+02 1.745220e+02 1.084796e+02 1.064848e+02 6.999481e+00 4.999979e+00 6.000328e+00 5.641096e+00 6.000000e+00 5.999659e+00 2.088755e+00 3.538972e+00
<VARIANCE> 22
 4.974730e+00 4.051144e+01 3.300595e+00 5.064389e+00 4.956268e+01 3.811107e+02 3.044703e+01 1.300062e+02 1.954377e+01 6.602592e+01 4.545805e+01 1.196656e+02 1.587110e+01 2.395703e+01 6.504288e-02 1.793316e-02 2.326111e-02 2.300669e-01 2.082489e-02 5.618803e-02 6.014016e+00 5.797367e+00
<GCONST> 7.320710e+01
<MIXTURE> 6 1.202775e-01
<MEAN> 22
 1.015954e+00 1.035071e+00 4.524020e-01 5.169333e-01 5.918038e+00 6.552239e+00 1.133373e+02 1.115331e+02 6.960561e+01 6.652667e+01 2.248297e+02 2.231953e+02 1.331565e+02 1.326674e+02 6.999998e+00 5.000000e+00 6.068081e+00 5.998182e+00 6.000001e+00 5.999989e+00 1.870154e+00 1.686222e+00
<VARIANCE> 22
 4.801635e+00 4.063120e+00 3.300595e+00 2.164982e+00 4.956268e+01 9.723521e+01 6.990262e+01 3.945178e+01 3.317661e+01 1.762036e+01 7.695121e+01 1.235899e+02 3.396599e+01 3.926430e+01 6.504288e-02 1.793316e-02 6.344771e-02 1.170389e-02 2.082489e-02 5.618803e-02 5.662865e+00 5.234112e+00
<GCONST> 6.717928e+01
<MIXTURE> 7 5.772616e-02
<MEAN> 22
 1.324140e+00 9.798463e+00 6.398740e-01 2.877896e+00 2.550308e+01 1.586515e+02 8.388020e+01 1.063789e+02 6.256934e+01 8.254507e+01 1.703116e+02 5.388458e+01 1.093675e+02 9.617613e+01 5.971437e+00 2.347847e+00 6.201076e+00 4.338681e+00 5.753721e+00 1.236141e+00 1.860402e+00 2.845761e+00
<VARIANCE> 22
 4.801635e+00 1.459464e+02 3.300595e+00 1.335438e+01 1.392528e+03 2.269312e+03 5.195509e+02 1.795079e+03 1.990275e+02 5.958588e+02 1.731073e+03 7.411390e+02 1.815309e+02 2.707801e+02 5.357878e+00 2.597095e-01 1.742736e-01 1.476848e+00 5.119517e-01 5.286838e-01 5.707504e+00 5.205013e+00
<GCONST> 1.170918e+02
<MIXTURE> 8 7.796109e-02
<MEAN> 22
 9.852941e+00 1.623758e+01 1.479547e+00 3.007762e+00 4.786031e+01 6.039376e+01 5.766016e+01 5.036597e+01 6.257943e+01 6.312569e+01 1.396313e+02 1.219033e+02 1.035637e+02 1.011107e+02 4.214126e+00 4.149408e+00 6.227698e+00 5.584219e+00 5.403017e+00 5.376222e+00 2.913863e+00 2.924563e+00
<VARIANCE> 22
 1.537230e+02 2.738014e+02 3.643281e+00 1.658214e+01 1.154535e+03 8.881964e+02 7.909965e+02 5.530042e+02 9.415025e+01 1.672482e+02 1.301265e+03 6.471172e+02 1.055516e+02 8.268584e+01 9.753914e+00 1.386326e+00 1.819576e-01 2.590313e-01 7.183747e-01 5.475552e+00 5.998603e+00 4.961404e+00
<GCONST> 1.187059e+02
<MIXTURE> 9 9.951500e-02
<MEAN> 22
 1.083514e+00 1.243215e+00 4.769999e-01 5.289999e-01 5.193963e+00 5.753000e+00 9.116783e+01 9.071563e+01 5.819042e+01 5.625170e+01 1.888703e+02 1.888917e+02 1.130478e+02 1.141909e+02 6.999947e+00 5.000000e+00 6.001123e+00 6.000000e+00 6.000000e+00 6.000000e+00 2.074169e+00 1.977156e+00
<VARIANCE> 22
 4.801635e+00 4.063120e+00 3.300595e+00 2.164982e+00 4.956268e+01 5.429985e+01 2.075404e+01 1.706884e+01 8.022512e+00 1.678692e+01 3.745738e+01 4.440754e+01 2.394254e+01 7.491596e+00 6.504288e-02 1.793316e-02 2.326111e-02 1.170389e-02 2.082489e-02 5.618803e-02 5.785903e+00 5.865259e+00
<GCONST> 5.845858e+01
<MIXTURE> 10 9.198796e-02
<MEAN> 22
 1.343859e+00 1.462650e+00 4.739229e-01 5.884630e-01 6.456611e+00 6.839818e+00 8.036703e+01 7.949760e+01 5.120361e+01 4.769422e+01 1.694105e+02 1.696340e+02 1.028296e+02 1.010125e+02 6.999839e+00 5.000011e+00 6.004611e+00 6.000000e+00 6.000000e+00 6.000003e+00 1.982128e+00 2.074627e+00
<VARIANCE> 22
 4.801635e+00 4.063120e+00 3.300595e+00 2.164982e+00 4.956268e+01 5.429985e+01 3.055633e+01 2.837510e+01 1.365022e+01 2.852874e+01 4.472072e+01 4.440754e+01 1.489939e+01 1.742658e+01 6.504288e-02 1.793316e-02 2.326111e-02 1.170389e-02 2.082489e-02 5.618803e-02 5.784761e+00 5.920812e+00
<GCONST> 6.097181e+01
<MIXTURE> 11 8.398136e-02
<MEAN> 22
 1.083521e+00 1.161016e+00 4.945057e-01 5.368388e-01 7.771610e+00 8.453886e+00 1.092821e+02 1.075158e+02 6.802576e+01 6.461490e+01 2.081765e+02 2.071584e+02 1.229433e+02 1.223484e+02 6.999950e+00 5.000000e+00 6.215790e+00 5.813288e+00 6.000001e+00 5.996333e+00 1.629856e+00 1.460427e+00
<VARIANCE> 22
 4.801635e+00 4.063120e+00 3.300595e+00 2.164982e+00 4.956268e+01 6.964393e+01 4.535210e+01 8.663797e+01 2.311659e+01 4.599736e+01 1.117196e+02 8.215405e+01 4.859366e+01 3.418605e+01 6.504288e-02 1.793316e-02 1.692138e-01 1.518408e-01 2.082489e-02 5.618803e-02 4.639154e+00 4.306304e+00
<GCONST> 7.113120e+01
<MIXTURE> 12 1.066718e-01
<MEAN> 22
 6.835009e-01 9.706574e-01 2.941510e-01 4.360389e-01 3.831184e+00 5.751044e+00 8.513104e+01 8.547691e+01 5.588579e+01 5.523352e+01 1.800227e+02 1.805043e+02 1.093902e+02 1.090184e+02 6.999917e+00 5.000000e+00 6.000974e+00 6.000000e+00 6.000000e+00 6.000000e+00 1.147560e+00 1.307785e+00
<VARIANCE> 22
 4.801635e+00 4.063120e+00 3.300595e+00 2.164982e+00 4.956268e+01 5.429985e+01 1.709457e+01 1.788764e+01 6.567164e+00 2.394292e+01 3.745738e+01 4.440754e+01 1.338941e+01 8.104356e+00 6.504288e-02 1.793316e-02 2.326111e-02 1.170389e-02 2.082489e-02 5.618803e-02 3.665252e+00 4.040952e+00
<GCONST> 5.713469e+01
<TRANSP> 5
 0.000000e+00 1.000000e+00 0.000000e+00 0.000000e+00 0.000000e+00
 0.000000e+00 7.296169e-01 2.703832e-01 0.000000e+00 0.000000e+00
 0.000000e+00 0.000000e+00 8.458221e-01 1.541779e-01 0.000000e+00
 0.000000e+00 0.000000e+00 0.000000e+00 9.081160e-01 9.188405e-02
 0.000000e+00 0.000000e+00 0.000000e+00 0.000000e+00 0.000000e+00
<ENDHMM>
