~o
<STREAMINFO> 1 22
<VECSIZE> 22<NULLD><MFCC_0><DIAGC>
~h "BN"
<BEGINHMM>
<NUMSTATES> 5
<STATE> 2
<NUMMIXES> 2
<MIXTURE> 1 3.243469e-001
<MEAN> 22
 8.986727e+000 1.368123e+001 5.222713e+000 5.472493e+000 1.826234e+001 2.195421e+001 8.117554e+001 7.367205e+001 5.905171e+001 5.578608e+001 1.774121e+002 1.681151e+002 1.102576e+002 1.081749e+002 6.886939e+000 5.026640e+000 6.066760e+000 5.903969e+000 5.814124e+000 6.123461e+000 2.413560e+000 2.219903e+000
<VARIANCE> 22
 2.350370e+003 1.588306e+003 1.892219e+003 1.196126e+003 4.116069e+002 4.100487e+002 6.010015e+002 5.679795e+002 6.503860e+001 5.885234e+001 8.898975e+002 1.013647e+003 1.617998e+002 1.629653e+002 1.642809e-001 1.542892e-001 6.230257e-002 8.680840e-002 1.573717e-001 2.382300e-001 5.716979e+000 3.990756e+000
<GCONST> 1.180666e+002
<MIXTURE> 2 6.756530e-001
<MEAN> 22
 5.999707e+000 8.120800e+000 1.639998e+000 2.699887e+000 1.446700e+002 1.578014e+002 7.178832e+001 8.489503e+001 7.007231e+001 7.181497e+001 1.079875e+002 7.295092e+001 9.330157e+001 9.216458e+001 3.039174e+000 2.481266e+000 4.678339e+000 4.062782e+000 4.064003e+000 2.080467e+000 2.288053e+000 2.373629e+000
<VARIANCE> 22
 1.252384e+002 2.308566e+002 1.018747e+001 1.635184e+001 3.283703e+004 1.701070e+004 2.332829e+003 2.680789e+003 9.722478e+002 1.148101e+003 5.845388e+003 3.367993e+003 1.734310e+003 1.335414e+003 8.176518e+000 2.129415e+000 7.474751e+000 3.323792e+000 3.673987e+000 5.332723e+000 6.090108e+000 5.746809e+000
<GCONST> 1.495869e+002
<STATE> 3
<NUMMIXES> 2
<MIXTURE> 1 3.965607e-001
<MEAN> 22
 1.493294e+000 2.084641e+001 4.982917e-001 5.301887e+000 7.515179e+000 1.381385e+002 1.005443e+002 1.023653e+002 6.228174e+001 8.590738e+001 2.038795e+002 8.262844e+001 1.219495e+002 1.107032e+002 6.998808e+000 3.005033e+000 6.105175e+000 4.608036e+000 5.998222e+000 2.524731e+000 1.744852e+000 3.624958e+000
<VARIANCE> 22
 9.926738e+000 3.740884e+002 3.300596e+000 2.865391e+001 9.932691e+001 5.735040e+003 3.275939e+002 1.652851e+003 6.857569e+001 5.715896e+002 6.660976e+002 2.858245e+003 2.271115e+002 1.771272e+002 6.504287e-002 1.219507e+000 9.470551e-002 8.802369e-001 2.082488e-002 5.622934e+000 5.518469e+000 5.336946e+000
<GCONST> 1.115145e+002
<MIXTURE> 2 6.034393e-001
<MEAN> 22
 8.922172e-001 4.833517e+000 4.305624e-001 1.551902e+000 9.865421e+000 1.724417e+002 8.679971e+001 1.186706e+002 5.622919e+001 8.846354e+001 1.806383e+002 3.177897e+001 1.097633e+002 9.645601e+001 6.932525e+000 2.061138e+000 6.004811e+000 3.674358e+000 5.960410e+000 1.102517e+000 1.363522e+000 2.641248e+000
<VARIANCE> 22
 4.801632e+000 4.246318e+001 3.300596e+000 3.485832e+000 5.833728e+002 9.723055e+002 1.353711e+002 2.001756e+002 5.547201e+001 2.623617e+002 4.133407e+002 3.313451e+002 6.175558e+001 8.198525e+001 3.656849e-001 1.162019e-001 2.313806e-001 4.739059e-001 1.160515e-001 3.014630e-001 4.859415e+000 5.964551e+000
<GCONST> 9.623724e+001
<STATE> 4
<NUMMIXES> 2
<MIXTURE> 1 4.297248e-001
<MEAN> 22
 1.391883e+001 5.114156e+000 3.112622e+000 1.667923e+000 5.219630e+001 2.392429e+001 8.760768e+001 9.487045e+001 7.142180e+001 5.804852e+001 1.547501e+002 1.940329e+002 1.144768e+002 1.168451e+002 4.886950e+000 4.992522e+000 6.400963e+000 5.851466e+000 5.205811e+000 6.011080e+000 3.648725e+000 2.786527e+000
<VARIANCE> 22
 3.026852e+002 6.869743e+001 2.004393e+001 6.361053e+000 2.833424e+003 8.689960e+002 6.182972e+002 3.247518e+002 2.770764e+002 6.511089e+001 3.814141e+003 5.122189e+002 2.721256e+002 1.199265e+002 8.422833e+000 2.182949e-002 2.428187e-001 1.264712e-001 1.747528e+000 5.618803e-002 5.915690e+000 6.567764e+000
<GCONST> 1.129914e+002
<MIXTURE> 2 5.702755e-001
<MEAN> 22
 6.147151e+000 1.616768e+000 2.550228e+000 7.406250e-001 1.634799e+002 1.815124e+001 1.268248e+002 8.621726e+001 9.191561e+001 5.856580e+001 3.475805e+001 1.794554e+002 9.920805e+001 1.150906e+002 1.971910e+000 4.712209e+000 7.792864e-001 5.818117e+000 2.863757e+000 5.641138e+000 2.998924e+000 1.930290e+000
<VARIANCE> 22
 8.375217e+001 1.232548e+001 1.790200e+001 2.164982e+000 3.854500e+003 7.586659e+002 3.771318e+002 7.986797e+002 3.250807e+002 6.821505e+001 3.765789e+002 1.721475e+003 2.201665e+002 1.706315e+002 3.706809e-001 4.324084e-001 1.630539e+000 1.847647e-001 2.658008e-001 2.620469e+000 6.209509e+000 5.669585e+000
<GCONST> 1.126259e+002
<TRANSP> 5
 0.000000e+000 1.000000e+000 0.000000e+000 0.000000e+000 0.000000e+000
 0.000000e+000 8.131626e-001 1.868374e-001 0.000000e+000 0.000000e+000
 0.000000e+000 0.000000e+000 9.555191e-001 4.448096e-002 0.000000e+000
 0.000000e+000 0.000000e+000 0.000000e+000 9.268694e-001 7.313060e-002
 0.000000e+000 0.000000e+000 0.000000e+000 0.000000e+000 0.000000e+000
<ENDHMM>
~h "BS"
<BEGINHMM>
<NUMSTATES> 5
<STATE> 2
<NUMMIXES> 2
<MIXTURE> 1 7.019894e-002
<MEAN> 22
 3.625611e+001 3.415514e+001 2.238020e+001 1.941665e+001 4.428158e+002 3.207327e+002 1.036477e+002 9.486848e+001 6.818316e+001 6.613246e+001 1.602922e+002 1.472953e+002 1.129510e+002 1.129205e+002 1.542819e+000 3.840277e+000 6.707686e+000 5.317892e+000 3.310609e+000 4.118175e+000 1.842334e+000 2.430830e+000
<VARIANCE> 22
 9.817244e+003 7.304203e+003 8.616966e+003 5.661268e+003 3.453443e+004 1.468152e+004 1.747734e+003 1.432423e+003 3.416336e+001 2.157799e+001 1.305806e+003 8.849675e+002 1.214923e+002 7.789563e+001 6.922071e+000 1.451292e+000 2.068666e-001 2.339237e-001 8.713915e+000 3.372772e+000 5.756896e+000 6.073854e+000
<GCONST> 1.469335e+002
<MIXTURE> 2 9.298009e-001
<MEAN> 22
 1.355874e+001 1.332458e+001 2.286141e+000 2.329868e+000 5.198487e+001 5.098483e+001 6.379751e+001 6.171784e+001 6.345397e+001 6.026262e+001 1.544287e+002 1.507608e+002 1.089919e+002 1.084583e+002 5.734299e+000 4.623002e+000 5.995662e+000 5.828407e+000 5.396069e+000 5.590024e+000 2.757535e+000 1.974558e+000
<VARIANCE> 22
 1.684151e+002 1.531040e+002 5.911762e+000 6.337973e+000 4.256745e+003 3.179798e+003 1.022348e+003 9.418091e+002 1.484995e+002 1.501585e+002 1.848314e+003 1.911762e+003 3.257125e+002 2.905807e+002 5.439976e+000 1.382237e+000 5.786722e-001 5.082940e-001 9.736289e-001 4.145550e+000 3.115588e+000 3.816455e+000
<GCONST> 1.256256e+002
<STATE> 3
<NUMMIXES> 2
<MIXTURE> 1 4.236237e-001
<MEAN> 22
 1.457907e+001 1.486180e+001 3.548163e+000 3.456107e+000 1.315077e+002 1.238608e+002 1.462385e+002 1.414327e+002 8.897510e+001 7.868874e+001 1.534552e+002 1.608057e+002 1.164447e+002 1.149306e+002 4.456165e-001 3.717970e+000 4.413822e+000 4.723873e+000 1.802680e+000 3.837572e+000 2.926887e+000 3.878715e+000
<VARIANCE> 22
 4.211876e+002 4.367237e+002 1.891127e+001 2.092863e+001 1.498885e+003 1.696057e+003 9.956674e+002 8.828882e+002 1.818333e+002 2.642030e+002 2.129446e+003 1.290143e+003 1.774027e+002 1.375856e+002 3.207367e-001 3.391771e-001 1.127500e+001 2.560987e-001 6.073341e+000 9.177508e-001 6.451334e+000 5.583445e+000
<GCONST> 1.268245e+002
<MIXTURE> 2 5.763767e-001
<MEAN> 22
 2.171385e+001 2.243209e+001 3.719014e+000 3.640656e+000 9.326626e+001 9.578194e+001 4.778802e+001 4.901719e+001 6.504755e+001 6.076717e+001 9.419379e+001 9.303120e+001 1.003886e+002 1.011439e+002 2.116513e+000 2.808437e+000 6.147108e+000 5.753123e+000 4.123590e+000 2.348529e+000 2.704649e+000 2.843775e+000
<VARIANCE> 22
 3.510115e+002 3.654703e+002 2.349714e+001 1.819815e+001 1.590524e+003 1.265759e+003 6.492326e+002 6.556090e+002 1.180291e+002 1.235454e+002 9.078989e+002 8.153428e+002 1.173471e+002 9.973022e+001 3.948430e+000 2.151863e+000 3.743252e-001 3.750538e-001 1.906856e+000 7.686106e+000 5.378716e+000 4.382033e+000
<GCONST> 1.242212e+002
<STATE> 4
<NUMMIXES> 2
<MIXTURE> 1 4.468026e-001
<MEAN> 22
 9.206400e+000 8.845982e+000 2.483742e+000 2.144010e+000 3.442698e+001 3.514314e+001 1.024386e+002 9.969611e+001 6.544988e+001 6.012114e+001 1.934871e+002 1.913727e+002 1.153012e+002 1.146534e+002 6.725096e+000 4.942601e+000 6.440751e+000 5.518857e+000 6.059121e+000 5.833866e+000 3.869624e+000 3.684451e+000
<VARIANCE> 22
 8.309792e+001 7.903747e+001 7.268563e+000 5.495699e+000 1.081758e+003 8.340515e+002 5.910054e+002 4.295081e+002 1.053497e+002 8.693909e+001 7.746935e+002 6.611670e+002 1.879158e+002 1.458883e+002 1.622926e+000 1.312260e-001 2.841268e-001 2.502609e-001 1.951868e-001 3.229197e-001 4.477058e+000 8.364353e+000
<GCONST> 1.082243e+002
<MIXTURE> 2 5.531970e-001
<MEAN> 22
 6.316958e+000 6.042690e+000 1.762546e+000 1.640560e+000 9.047442e+001 8.906011e+001 1.168888e+002 1.179670e+002 6.845348e+001 6.379879e+001 1.566436e+002 1.560644e+002 1.052485e+002 1.048810e+002 7.464018e-003 3.999266e+000 6.999487e+000 5.000000e+000 3.506437e+000 4.354998e+000 3.060591e+000 3.802942e+000
<VARIANCE> 22
 6.463091e+001 5.839669e+001 5.955080e+000 5.046164e+000 7.147938e+002 6.523375e+002 5.861070e+002 5.125693e+002 9.795638e+001 1.271875e+002 4.211973e+002 4.573912e+002 7.304424e+001 7.977514e+001 6.504287e-002 1.793315e-002 2.326111e-002 1.170389e-002 1.191336e+001 2.649465e-001 6.494907e+000 7.382661e+000
<GCONST> 9.806368e+001
<TRANSP> 5
 0.000000e+000 1.000000e+000 0.000000e+000 0.000000e+000 0.000000e+000
 0.000000e+000 7.744997e-001 2.255003e-001 0.000000e+000 0.000000e+000
 0.000000e+000 0.000000e+000 9.234011e-001 7.659889e-002 0.000000e+000
 0.000000e+000 0.000000e+000 0.000000e+000 9.481730e-001 5.182695e-002
 0.000000e+000 0.000000e+000 0.000000e+000 0.000000e+000 0.000000e+000
<ENDHMM>
~h "CF"
<BEGINHMM>
<NUMSTATES> 5
<STATE> 2
<NUMMIXES> 2
<MIXTURE> 1 1.582426e-001
<MEAN> 22
 2.410618e+001 1.452349e+001 1.155475e+001 8.176118e+000 3.776033e+001 2.722034e+001 9.464952e+001 8.465529e+001 7.049876e+001 6.049644e+001 1.611116e+002 1.784658e+002 1.128888e+002 1.153048e+002 5.547471e+000 4.787656e+000 5.821073e+000 5.825285e+000 5.332290e+000 5.923859e+000 2.829099e+000 2.481182e+000
<VARIANCE> 22
 3.642936e+003 2.421768e+003 2.975737e+003 1.773319e+003 2.521528e+003 1.140282e+003 8.734695e+002 7.677286e+002 3.705884e+002 1.382366e+002 3.920023e+003 1.463320e+003 2.844501e+002 1.715575e+002 6.097428e+000 4.090284e-001 1.949374e+000 1.695307e-001 1.584900e+000 1.043659e+000 5.814384e+000 4.927898e+000
<GCONST> 1.410595e+002
<MIXTURE> 2 8.417569e-001
<MEAN> 22
 6.389593e+000 6.779850e+000 2.581845e+000 2.336542e+000 8.422668e+001 8.775220e+001 8.367104e+001 6.815686e+001 7.912823e+001 6.549189e+001 8.677079e+001 1.015741e+002 9.476987e+001 1.022413e+002 2.776781e+000 3.168472e+000 4.518265e+000 5.003543e+000 3.797616e+000 3.344592e+000 2.855213e+000 2.635748e+000
<VARIANCE> 22
 9.277174e+001 1.174170e+002 1.475249e+001 1.373777e+001 8.445277e+003 7.082651e+003 2.337906e+003 1.757437e+003 6.767558e+002 5.600966e+002 3.365823e+003 3.315978e+003 6.438930e+002 5.437302e+002 5.085298e+000 2.287045e+000 6.078153e+000 2.054583e+000 2.288653e+000 7.793331e+000 6.069130e+000 5.568241e+000
<GCONST> 1.413954e+002
<STATE> 3
<NUMMIXES> 2
<MIXTURE> 1 3.753859e-001
<MEAN> 22
 2.636986e+000 2.261749e+001 9.728937e-001 5.660295e+000 1.648640e+001 1.120823e+002 9.903568e+001 8.934728e+001 6.297004e+001 8.314498e+001 1.929439e+002 1.028367e+002 1.172935e+002 1.043555e+002 6.851715e+000 3.463492e+000 6.184296e+000 4.870944e+000 5.910026e+000 3.391577e+000 2.072275e+000 3.734271e+000
<VARIANCE> 22
 2.378814e+001 4.721923e+002 3.300596e+000 3.902494e+001 9.330286e+002 6.142198e+003 5.282676e+002 1.891607e+003 1.245536e+002 5.069359e+002 1.395728e+003 3.379148e+003 2.830188e+002 2.633909e+002 7.210645e-001 1.538185e+000 5.456512e-001 1.605885e+000 2.380647e-001 7.546997e+000 5.975196e+000 5.089465e+000
<GCONST> 1.256054e+002
<MIXTURE> 2 6.246139e-001
<MEAN> 22
 9.476299e-001 6.494764e+000 4.624148e-001 3.075279e+000 5.916066e+000 1.946091e+002 9.023801e+001 1.289951e+002 5.719592e+001 1.020600e+002 1.860402e+002 3.126596e+001 1.110722e+002 8.363744e+001 7.000000e+000 2.000000e+000 6.008935e+000 2.939826e+000 5.999989e+000 9.939042e-001 1.420445e+000 2.541477e+000
<VARIANCE> 22
 4.801632e+000 9.508414e+001 3.300596e+000 1.937484e+001 4.956259e+001 9.295028e+002 1.853050e+002 4.357524e+002 5.013125e+001 3.957614e+002 3.662724e+002 1.500674e+002 1.045882e+002 2.393141e+002 6.504287e-002 1.793315e-002 2.326111e-002 1.254570e+000 2.082488e-002 5.618803e-002 5.142111e+000 5.751328e+000
<GCONST> 9.003802e+001
<STATE> 4
<NUMMIXES> 2
<MIXTURE> 1 4.239220e-001
<MEAN> 22
 9.099012e+000 5.566172e+000 2.717887e+000 2.079015e+000 2.923693e+001 2.388900e+001 9.043520e+001 9.736366e+001 6.579787e+001 6.071358e+001 1.867534e+002 1.947150e+002 1.164632e+002 1.164796e+002 6.331678e+000 5.000444e+000 6.198458e+000 5.714252e+000 5.884165e+000 5.989813e+000 3.382761e+000 3.024532e+000
<VARIANCE> 22
 1.793859e+002 5.723514e+001 1.419638e+001 7.445573e+000 7.973387e+002 5.788525e+002 6.445601e+002 3.201287e+002 1.555762e+002 9.062664e+001 1.050891e+003 5.054719e+002 2.012877e+002 1.279754e+002 4.014987e+000 1.793315e-002 1.590740e-001 2.049805e-001 1.249785e-001 5.618803e-002 6.402969e+000 6.398376e+000
<GCONST> 1.052034e+002
<MIXTURE> 2 5.760776e-001
<MEAN> 22
 1.058474e+001 1.553585e+000 3.861884e+000 8.078930e-001 1.726466e+002 2.492196e+001 1.211173e+002 9.683834e+001 9.688252e+001 5.760653e+001 3.812729e+001 1.915952e+002 8.565001e+001 1.134177e+002 1.912251e+000 4.976928e+000 2.478486e+000 5.676932e+000 3.034300e+000 5.952875e+000 3.148894e+000 2.042715e+000
<VARIANCE> 22
 2.124678e+002 8.443675e+000 2.884202e+001 2.164982e+000 3.403142e+003 1.101420e+003 1.186495e+003 2.391970e+002 4.560798e+002 8.354898e+001 5.090021e+002 4.442115e+002 4.437226e+002 1.193655e+002 2.203474e-001 6.675597e-002 4.621859e+000 2.401486e-001 2.152978e-001 2.204886e-001 6.220966e+000 5.598283e+000
<GCONST> 1.098946e+002
<TRANSP> 5
 0.000000e+000 1.000000e+000 0.000000e+000 0.000000e+000 0.000000e+000
 0.000000e+000 8.125362e-001 1.874639e-001 0.000000e+000 0.000000e+000
 0.000000e+000 0.000000e+000 9.523909e-001 4.760909e-002 0.000000e+000
 0.000000e+000 0.000000e+000 0.000000e+000 9.299535e-001 7.004649e-002
 0.000000e+000 0.000000e+000 0.000000e+000 0.000000e+000 0.000000e+000
<ENDHMM>
~h "CN"
<BEGINHMM>
<NUMSTATES> 5
<STATE> 2
<NUMMIXES> 2
<MIXTURE> 1 4.180813e-001
<MEAN> 22
 8.700509e+000 8.182419e+000 2.877715e+000 2.753288e+000 2.115400e+001 2.358892e+001 9.285367e+001 8.873906e+001 6.386774e+001 5.942805e+001 1.920664e+002 1.885809e+002 1.189346e+002 1.170494e+002 6.999015e+000 5.000000e+000 6.131793e+000 5.935071e+000 5.999424e+000 6.016286e+000 2.756854e+000 1.962884e+000
<VARIANCE> 22
 5.289562e+002 4.141924e+002 3.707210e+002 2.726014e+002 3.517445e+002 5.059935e+002 5.984401e+002 4.011496e+002 9.205937e+001 6.773002e+001 8.176703e+002 6.562551e+002 2.511209e+002 1.908707e+002 6.504287e-002 1.793315e-002 1.144242e-001 6.071248e-002 2.082488e-002 5.618803e-002 3.245547e+000 3.991975e+000
<GCONST> 1.055282e+002
<MIXTURE> 2 5.819189e-001
<MEAN> 22
 2.081937e+001 2.062823e+001 2.608380e+000 2.903923e+000 9.216976e+001 8.798138e+001 4.349373e+001 4.549998e+001 6.554671e+001 6.210513e+001 9.968990e+001 9.902286e+001 1.054196e+002 1.046082e+002 3.024591e+000 3.332301e+000 6.018659e+000 5.874806e+000 4.292518e+000 3.085063e+000 2.630736e+000 2.041088e+000
<VARIANCE> 22
 3.266010e+002 3.056987e+002 9.529617e+000 1.169175e+001 2.102385e+003 2.061763e+003 4.795173e+002 6.300773e+002 1.158408e+002 1.090074e+002 1.444164e+003 1.663747e+003 1.641509e+002 1.348082e+002 6.085591e+000 2.085006e+000 1.919446e-001 4.295056e-001 7.592051e-001 9.844601e+000 2.247195e+000 3.095749e+000
<GCONST> 1.226953e+002
<STATE> 3
<NUMMIXES> 2
<MIXTURE> 1 4.711306e-001
<MEAN> 22
 8.829128e+000 8.459208e+000 1.143815e+000 1.044830e+000 1.649344e+002 1.588774e+002 8.568006e+001 8.255076e+001 6.856625e+001 6.678553e+001 3.951340e+001 4.332303e+001 1.062957e+002 1.082680e+002 2.066915e+000 1.834015e+000 5.532120e+000 5.869753e+000 3.111191e+000 8.267385e-001 2.967828e+000 2.893226e+000
<VARIANCE> 22
 1.555759e+002 1.775562e+002 3.300596e+000 2.164982e+000 1.631763e+003 1.411686e+003 4.311191e+002 5.326534e+002 1.593243e+002 1.760126e+002 4.086673e+002 5.469428e+002 2.448004e+002 1.863038e+002 1.279266e-001 2.196706e-001 1.588694e+000 1.186979e+000 1.388989e-001 2.308118e-001 5.989847e+000 6.029244e+000
<GCONST> 1.101159e+002
<MIXTURE> 2 5.288702e-001
<MEAN> 22
 6.353873e+000 7.504550e+000 1.235617e+000 9.927594e-001 1.319784e+002 1.260386e+002 6.148887e+001 5.954181e+001 6.481153e+001 6.191494e+001 4.468766e+001 4.669253e+001 1.005244e+002 1.012452e+002 2.006682e+000 2.000000e+000 6.000000e+000 6.000000e+000 3.229363e+000 7.551858e-001 3.371036e+000 3.299421e+000
<VARIANCE> 22
 6.003468e+001 9.307024e+001 3.553027e+000 2.164982e+000 1.160486e+003 9.042637e+002 2.933217e+002 3.345451e+002 5.060631e+001 5.527355e+001 2.314303e+002 2.882962e+002 5.160067e+001 5.114711e+001 6.504287e-002 1.793315e-002 2.326111e-002 1.170389e-002 1.767554e-001 1.848728e-001 6.007713e+000 5.985593e+000
<GCONST> 8.858112e+001
<STATE> 4
<NUMMIXES> 2
<MIXTURE> 1 3.994694e-001
<MEAN> 22
 1.057053e+001 9.611979e+000 3.177777e+000 2.752394e+000 3.901657e+001 3.142638e+001 9.931494e+001 9.545562e+001 6.505623e+001 6.061619e+001 1.954108e+002 1.929639e+002 1.163692e+002 1.154731e+002 6.989952e+000 5.000000e+000 6.281419e+000 5.778800e+000 6.013014e+000 5.978749e+000 3.789010e+000 3.697489e+000
<VARIANCE> 22
 1.181529e+002 9.680605e+001 8.597276e+000 7.190339e+000 7.100761e+003 4.430605e+003 4.348104e+002 3.485711e+002 9.380959e+001 6.487640e+001 5.076741e+002 4.674320e+002 1.502129e+002 1.186265e+002 6.504287e-002 1.793315e-002 2.022228e-001 1.722710e-001 2.082488e-002 5.618803e-002 7.951084e+000 4.567269e+000
<GCONST> 1.007047e+002
<MIXTURE> 2 6.005310e-001
<MEAN> 22
 1.667766e+001 1.615475e+001 2.172758e+000 2.435020e+000 9.296992e+001 9.119211e+001 5.305990e+001 5.121409e+001 6.767714e+001 6.559492e+001 1.161277e+002 1.104579e+002 1.068422e+002 1.073281e+002 3.578583e+000 3.303833e+000 6.061086e+000 5.907952e+000 4.445627e+000 3.086044e+000 4.225669e+000 4.105218e+000
<VARIANCE> 22
 4.066423e+002 3.475522e+002 1.068757e+001 1.584989e+001 3.628793e+003 3.095804e+003 1.228283e+003 1.274320e+003 2.201470e+002 1.623825e+002 1.821409e+003 1.907982e+003 3.051229e+002 1.852177e+002 5.902187e+000 3.700676e+000 3.630610e-001 3.327893e-001 1.481271e+000 9.467532e+000 6.835592e+000 5.194809e+000
<GCONST> 1.315910e+002
<TRANSP> 5
 0.000000e+000 1.000000e+000 0.000000e+000 0.000000e+000 0.000000e+000
 0.000000e+000 8.406838e-001 1.593162e-001 0.000000e+000 0.000000e+000
 0.000000e+000 0.000000e+000 9.636633e-001 3.633666e-002 0.000000e+000
 0.000000e+000 0.000000e+000 0.000000e+000 9.190422e-001 8.095788e-002
 0.000000e+000 0.000000e+000 0.000000e+000 0.000000e+000 0.000000e+000
<ENDHMM>
~h "CP"
<BEGINHMM>
<NUMSTATES> 5
<STATE> 2
<NUMMIXES> 2
<MIXTURE> 1 7.863359e-001
<MEAN> 22
 1.356412e+001 1.183992e+001 4.058271e+000 3.489507e+000 5.281486e+001 5.375734e+001 1.073933e+002 1.066744e+002 7.586976e+001 6.992027e+001 1.858281e+002 1.893537e+002 1.249601e+002 1.208368e+002 3.984258e+000 4.617887e+000 6.679450e+000 5.477870e+000 5.412490e+000 5.540169e+000 3.259458e+000 3.147722e+000
<VARIANCE> 22
 6.772231e+002 4.509427e+002 4.645440e+002 2.661252e+002 1.422974e+003 1.574279e+003 1.334885e+003 1.385772e+003 1.992393e+002 1.987507e+002 2.282376e+003 1.285056e+003 4.595753e+002 2.529176e+002 1.148738e+001 3.180548e-001 2.217214e-001 2.495313e-001 3.904175e+000 8.145706e-001 5.443012e+000 5.477178e+000
<GCONST> 1.339349e+002
<MIXTURE> 2 2.136650e-001
<MEAN> 22
 6.854086e+000 4.258766e+000 9.981529e-001 1.058978e+000 3.138640e+002 2.301027e+002 5.908127e+001 4.724280e+001 3.477703e+001 3.227486e+001 5.079993e+001 6.288809e+001 5.158912e+001 5.297663e+001 1.092132e+000 1.656234e+000 1.354611e+000 2.629209e+000 1.285280e+000 1.480250e+000 1.439476e+000 1.708429e+000
<VARIANCE> 22
 4.038247e+002 7.933744e+001 4.334927e+000 4.707501e+000 3.267583e+004 2.108004e+004 4.802820e+003 3.681978e+003 1.469681e+003 1.209424e+003 4.329998e+003 5.543883e+003 3.005189e+003 3.020808e+003 3.283686e+000 3.706348e+000 5.983773e+000 7.553062e+000 3.200236e+000 4.929997e+000 5.195707e+000 6.119902e+000
<GCONST> 1.507963e+002
<STATE> 3
<NUMMIXES> 2
<MIXTURE> 1 5.105017e-001
<MEAN> 22
 1.176218e+001 1.118125e+001 2.823256e+000 2.955490e+000 5.228160e+001 4.282528e+001 8.997199e+001 9.435130e+001 7.301424e+001 6.825203e+001 1.807850e+002 1.835872e+002 1.212347e+002 1.202084e+002 5.550598e+000 4.712380e+000 6.487846e+000 5.394904e+000 5.996892e+000 5.752710e+000 3.621612e+000 3.445024e+000
<VARIANCE> 22
 1.107434e+002 1.086849e+002 9.539499e+000 1.082509e+001 1.473029e+003 7.379167e+002 5.976103e+002 5.410881e+002 1.274018e+002 1.182709e+002 7.763588e+002 7.068535e+002 1.677113e+002 1.389883e+002 7.977135e+000 2.393187e-001 3.083331e-001 2.629882e-001 2.571803e-001 4.386759e-001 5.161184e+000 5.088411e+000
<GCONST> 1.131647e+002
<MIXTURE> 2 4.894962e-001
<MEAN> 22
 1.069809e+001 1.117692e+001 3.059694e+000 2.938750e+000 6.765953e+001 6.033667e+001 5.817049e+001 6.203835e+001 7.203775e+001 6.817849e+001 1.155252e+002 1.178443e+002 1.031841e+002 1.031961e+002 2.834813e-001 3.739208e+000 6.797301e+000 5.190431e+000 5.154149e+000 4.774278e+000 3.383699e+000 3.122849e+000
<VARIANCE> 22
 1.174291e+002 1.074623e+002 1.519747e+001 1.294209e+001 5.862523e+002 7.941439e+002 2.766471e+002 3.589493e+002 1.293118e+002 1.724898e+002 3.818267e+002 4.489774e+002 9.643167e+001 9.431071e+001 4.475088e-001 4.747954e-001 1.632807e-001 1.541679e-001 2.124521e+000 5.492517e+000 5.232157e+000 5.076126e+000
<GCONST> 1.114001e+002
<STATE> 4
<NUMMIXES> 2
<MIXTURE> 1 6.527076e-001
<MEAN> 22
 6.898369e+000 6.810884e+000 1.868379e+000 2.016254e+000 3.030334e+001 2.897004e+001 8.640485e+001 8.701241e+001 6.309422e+001 6.017927e+001 1.792446e+002 1.801600e+002 1.123438e+002 1.123797e+002 6.995638e+000 4.999516e+000 6.239223e+000 5.667475e+000 6.001559e+000 5.984151e+000 3.895078e+000 3.721042e+000
<VARIANCE> 22
 4.454124e+001 4.438630e+001 4.013782e+000 4.708007e+000 6.674778e+002 5.057812e+002 3.335732e+002 2.974521e+002 7.557999e+001 8.334628e+001 4.985430e+002 4.731040e+002 1.077506e+002 1.028299e+002 6.504287e-002 1.793315e-002 1.820000e-001 2.219510e-001 2.082488e-002 5.618803e-002 5.595781e+000 5.780151e+000
<GCONST> 9.239139e+001
<MIXTURE> 2 3.472913e-001
<MEAN> 22
 6.974687e+000 7.003801e+000 1.225053e+000 1.148859e+000 4.783984e+001 4.463288e+001 6.119534e+001 6.234666e+001 6.098037e+001 5.851929e+001 1.370562e+002 1.383990e+002 9.947538e+001 9.877361e+001 3.065020e+000 4.407053e+000 6.571043e+000 5.371336e+000 5.909663e+000 5.944754e+000 3.278604e+000 3.100075e+000
<VARIANCE> 22
 4.863089e+001 4.498286e+001 3.300596e+000 2.164982e+000 4.259267e+002 3.401103e+002 2.913333e+002 3.695082e+002 6.547512e+001 9.139236e+001 2.666790e+002 3.141249e+002 4.952183e+001 5.978063e+001 1.176503e+001 3.582697e-001 3.052909e-001 2.582443e-001 3.862202e-001 5.154231e-001 5.274485e+000 5.104049e+000
<GCONST> 1.021634e+002
<TRANSP> 5
 0.000000e+000 1.000000e+000 0.000000e+000 0.000000e+000 0.000000e+000
 0.000000e+000 7.113898e-001 2.886102e-001 0.000000e+000 0.000000e+000
 0.000000e+000 0.000000e+000 9.235176e-001 7.648233e-002 0.000000e+000
 0.000000e+000 0.000000e+000 0.000000e+000 9.463194e-001 5.368062e-002
 0.000000e+000 0.000000e+000 0.000000e+000 0.000000e+000 0.000000e+000
<ENDHMM>
~h "CV"
<BEGINHMM>
<NUMSTATES> 5
<STATE> 2
<NUMMIXES> 2
<MIXTURE> 1 4.078143e-001
<MEAN> 22
 8.919853e+000 9.624456e+000 3.133864e+000 2.970516e+000 2.048770e+001 2.145496e+001 9.072525e+001 8.608877e+001 6.259389e+001 5.822038e+001 1.874011e+002 1.836503e+002 1.158558e+002 1.153486e+002 6.987841e+000 4.993921e+000 6.151774e+000 5.907855e+000 5.993914e+000 6.011595e+000 2.737579e+000 2.272058e+000
<VARIANCE> 22
 5.345497e+002 4.703378e+002 5.172212e+002 3.212585e+002 3.772114e+002 3.684261e+002 5.280223e+002 4.476284e+002 7.953909e+001 5.784523e+001 7.318430e+002 7.030521e+002 1.832729e+002 1.482865e+002 6.504287e-002 2.022880e-002 1.287387e-001 8.568051e-002 2.082488e-002 8.846519e-002 3.263218e+000 4.063897e+000
<GCONST> 1.060468e+002
<MIXTURE> 2 5.921859e-001
<MEAN> 22
 1.972593e+001 1.937553e+001 3.383536e+000 3.223565e+000 1.030154e+002 9.670767e+001 6.530211e+001 6.612049e+001 6.873322e+001 6.036818e+001 1.011860e+002 1.113331e+002 1.089580e+002 1.076790e+002 2.339145e+000 3.523476e+000 6.009349e+000 5.396442e+000 4.084090e+000 3.494121e+000 2.689959e+000 2.582620e+000
<VARIANCE> 22
 4.546507e+002 4.140585e+002 1.524715e+001 1.346983e+001 8.560792e+003 5.900104e+003 9.614608e+002 9.837297e+002 2.277440e+002 1.300430e+002 2.787687e+003 2.509314e+003 3.650687e+002 3.269669e+002 6.467828e+000 1.393612e+000 2.757509e+000 7.208599e-001 2.089336e+000 7.035465e+000 3.853601e+000 3.789979e+000
<GCONST> 1.354029e+002
<STATE> 3
<NUMMIXES> 2
<MIXTURE> 1 3.911630e-001
<MEAN> 22
 8.644349e+000 8.683969e+000 2.661142e+000 2.909115e+000 1.681539e+002 1.632769e+002 9.986278e+001 9.872678e+001 7.231643e+001 6.913588e+001 4.733839e+001 5.224740e+001 1.131607e+002 1.131960e+002 1.680748e+000 2.413731e+000 4.493733e+000 4.771695e+000 2.648411e+000 1.493841e+000 3.396622e+000 3.287702e+000
<VARIANCE> 22
 1.376985e+002 1.345041e+002 1.538074e+001 2.031363e+001 1.817827e+003 1.426148e+003 5.243664e+002 6.586723e+002 1.362271e+002 1.013109e+002 4.623720e+002 4.710800e+002 2.948318e+002 1.951934e+002 3.509596e-001 3.018860e-001 1.017250e+001 7.260231e-001 3.446288e-001 4.464257e-001 5.512969e+000 5.717590e+000
<GCONST> 1.176428e+002
<MIXTURE> 2 6.088375e-001
<MEAN> 22
 6.012698e+000 6.422541e+000 1.253931e+000 1.322852e+000 1.203268e+002 1.213190e+002 6.944923e+001 6.970832e+001 6.074274e+001 5.751116e+001 5.251708e+001 5.286595e+001 9.881135e+001 9.950050e+001 1.339469e+000 2.563117e+000 6.888463e+000 5.181627e+000 2.870536e+000 1.215249e+000 3.496691e+000 3.363853e+000
<VARIANCE> 22
 5.954779e+001 5.847355e+001 3.300596e+000 2.612359e+000 1.221502e+003 8.527653e+002 2.324853e+002 2.748813e+002 3.290807e+001 4.363114e+001 1.967393e+002 2.145913e+002 6.034629e+001 6.275291e+001 2.379896e-001 2.994996e-001 9.954029e-002 2.651964e-001 2.318608e-001 2.880203e-001 5.631985e+000 5.967451e+000
<GCONST> 9.635669e+001
<STATE> 4
<NUMMIXES> 2
<MIXTURE> 1 4.825720e-001
<MEAN> 22
 1.066030e+001 9.600470e+000 3.055055e+000 2.608078e+000 2.313736e+001 2.307226e+001 9.478230e+001 9.246699e+001 6.403116e+001 5.839381e+001 1.911320e+002 1.903936e+002 1.154863e+002 1.146575e+002 6.993743e+000 5.000481e+000 6.223347e+000 5.832386e+000 6.021916e+000 5.989758e+000 4.228630e+000 4.051195e+000
<VARIANCE> 22
 1.082926e+002 9.968979e+001 9.445959e+000 7.312860e+000 4.958088e+002 4.522837e+002 4.504440e+002 3.446345e+002 8.916545e+001 6.615000e+001 6.591059e+002 5.806649e+002 1.769173e+002 1.416118e+002 6.504287e-002 1.793315e-002 1.734666e-001 1.395191e-001 2.154335e-002 5.618803e-002 6.772428e+000 5.024171e+000
<GCONST> 9.623013e+001
<MIXTURE> 2 5.174282e-001
<MEAN> 22
 1.574606e+001 1.571105e+001 2.646364e+000 3.006284e+000 7.768674e+001 6.830419e+001 4.513062e+001 5.028170e+001 6.515743e+001 6.002195e+001 1.060305e+002 1.135683e+002 1.040824e+002 1.042795e+002 2.523625e+000 3.534967e+000 6.144045e+000 5.761160e+000 4.449424e+000 3.449384e+000 4.315718e+000 4.247285e+000
<VARIANCE> 22
 2.777785e+002 2.565354e+002 1.571037e+001 1.642327e+001 1.399743e+003 1.416777e+003 5.568945e+002 6.965489e+002 1.068979e+002 8.979871e+001 1.344153e+003 1.673656e+003 1.565055e+002 1.173742e+002 6.465640e+000 1.978877e+000 2.256897e-001 2.520633e-001 9.625146e-001 9.467673e+000 5.836802e+000 5.574467e+000
<GCONST> 1.235177e+002
<TRANSP> 5
 0.000000e+000 1.000000e+000 0.000000e+000 0.000000e+000 0.000000e+000
 0.000000e+000 8.450398e-001 1.549602e-001 0.000000e+000 0.000000e+000
 0.000000e+000 0.000000e+000 9.469938e-001 5.300615e-002 0.000000e+000
 0.000000e+000 0.000000e+000 0.000000e+000 9.191177e-001 8.088231e-002
 0.000000e+000 0.000000e+000 0.000000e+000 0.000000e+000 0.000000e+000
<ENDHMM>
~h "DC"
<BEGINHMM>
<NUMSTATES> 5
<STATE> 2
<NUMMIXES> 2
<MIXTURE> 1 4.207949e-001
<MEAN> 22
 9.774537e+000 9.278912e+000 3.799939e+000 3.332708e+000 4.242206e+001 4.007574e+001 8.997675e+001 8.656398e+001 6.349055e+001 5.941034e+001 1.879644e+002 1.851728e+002 1.177561e+002 1.168162e+002 6.975573e+000 4.993258e+000 6.178973e+000 5.862870e+000 5.962273e+000 6.008676e+000 2.484601e+000 2.113724e+000
<VARIANCE> 22
 8.955860e+002 6.477398e+002 8.327096e+002 5.129246e+002 1.056189e+004 6.623862e+003 6.839707e+002 4.727922e+002 9.912435e+001 6.141895e+001 8.734900e+002 7.511838e+002 2.312982e+002 1.799653e+002 1.307828e-001 1.793315e-002 1.469414e-001 1.183262e-001 8.376040e-002 1.103768e-001 3.092387e+000 3.479327e+000
<GCONST> 1.177486e+002
<MIXTURE> 2 5.792048e-001
<MEAN> 22
 1.388549e+001 1.344940e+001 2.698822e+000 2.819505e+000 1.078724e+002 9.945744e+001 4.508758e+001 4.573972e+001 6.519175e+001 6.153664e+001 1.106049e+002 1.136842e+002 1.049066e+002 1.029342e+002 2.004827e+000 3.476539e+000 6.057110e+000 5.565134e+000 4.511431e+000 4.256567e+000 2.526471e+000 1.994450e+000
<VARIANCE> 22
 1.603576e+002 1.393933e+002 1.261392e+001 1.346538e+001 1.064340e+004 7.274557e+003 6.744526e+002 7.313896e+002 2.827271e+002 2.179653e+002 1.251908e+003 1.360264e+003 6.417222e+002 5.278742e+002 6.921038e+000 2.161018e+000 1.464582e+000 1.227015e+000 1.984940e+000 9.355936e+000 2.855493e+000 3.190624e+000
<GCONST> 1.333887e+002
<STATE> 3
<NUMMIXES> 2
<MIXTURE> 1 4.900354e-001
<MEAN> 22
 1.381983e+001 1.534417e+001 2.864693e+000 3.243545e+000 1.366272e+002 1.344077e+002 6.709868e+001 6.834552e+001 6.833849e+001 6.544502e+001 5.985221e+001 6.037036e+001 9.863680e+001 9.915603e+001 1.915793e+000 2.220129e+000 5.874242e+000 5.716820e+000 3.406446e+000 8.432487e-001 2.729873e+000 2.678291e+000
<VARIANCE> 22
 2.700056e+002 3.476751e+002 2.643873e+001 3.096253e+001 2.342791e+003 1.697057e+003 6.008171e+002 6.297769e+002 1.129333e+002 1.592423e+002 5.264119e+002 5.739667e+002 1.983304e+002 2.084032e+002 5.146858e-001 5.047250e-001 8.010530e-001 7.173791e-001 3.547526e-001 1.025731e+000 5.481786e+000 5.476122e+000
<GCONST> 1.201643e+002
<MIXTURE> 2 5.099649e-001
<MEAN> 22
 8.817208e+000 9.011773e+000 1.083623e+000 1.161147e+000 1.112684e+002 1.075675e+002 3.099307e+001 3.375845e+001 6.316233e+001 6.069935e+001 7.998172e+001 8.096841e+001 9.957582e+001 1.002521e+002 2.000612e+000 2.006776e+000 6.000124e+000 6.005714e+000 4.000214e+000 2.795352e-002 2.759516e+000 2.441611e+000
<VARIANCE> 22
 1.369311e+002 1.263182e+002 3.300596e+000 2.310848e+000 4.739771e+002 5.204232e+002 1.173845e+002 1.329110e+002 6.828643e+001 8.810076e+001 1.693692e+002 1.787930e+002 9.727805e+001 9.494547e+001 6.027512e-001 8.891519e-001 2.326111e-002 1.016429e-001 2.082488e-002 5.618803e-002 5.405177e+000 5.825307e+000
<GCONST> 9.247352e+001
<STATE> 4
<NUMMIXES> 2
<MIXTURE> 1 5.528415e-001
<MEAN> 22
 9.983137e+000 9.214921e+000 3.176590e+000 2.826103e+000 2.253841e+001 2.219954e+001 9.600030e+001 9.354752e+001 6.417527e+001 5.972412e+001 1.909474e+002 1.902466e+002 1.146004e+002 1.145982e+002 6.996800e+000 5.001566e+000 6.305255e+000 5.722625e+000 6.012827e+000 5.997356e+000 4.103217e+000 3.914046e+000
<VARIANCE> 22
 8.502426e+001 8.124361e+001 8.454544e+000 7.126482e+000 3.602433e+002 3.714004e+002 3.894688e+002 3.454650e+002 9.094345e+001 7.883041e+001 5.171274e+002 4.750836e+002 1.535372e+002 1.269426e+002 6.504287e-002 1.793315e-002 2.120788e-001 2.004419e-001 2.082488e-002 5.618803e-002 7.136653e+000 4.408648e+000
<GCONST> 9.493925e+001
<MIXTURE> 2 4.471591e-001
<MEAN> 22
 1.856749e+001 1.834157e+001 2.904635e+000 2.684352e+000 7.447369e+001 6.687864e+001 3.986309e+001 4.349646e+001 6.627301e+001 6.160007e+001 1.221669e+002 1.269750e+002 1.035743e+002 1.038190e+002 3.535117e+000 4.213883e+000 6.110155e+000 5.809902e+000 4.888187e+000 5.549575e+000 4.285816e+000 4.230045e+000
<VARIANCE> 22
 3.658296e+002 3.575753e+002 2.254325e+001 1.737704e+001 1.403882e+003 1.181642e+003 5.053495e+002 4.917136e+002 1.207494e+002 1.230075e+002 7.965841e+002 8.577708e+002 1.522663e+002 1.220878e+002 8.842987e+000 2.138943e+000 1.650617e-001 2.078156e-001 6.922129e-001 6.091392e+000 7.299646e+000 4.705008e+000
<GCONST> 1.223441e+002
<TRANSP> 5
 0.000000e+000 1.000000e+000 0.000000e+000 0.000000e+000 0.000000e+000
 0.000000e+000 8.699821e-001 1.300179e-001 0.000000e+000 0.000000e+000
 0.000000e+000 0.000000e+000 9.550585e-001 4.494154e-002 0.000000e+000
 0.000000e+000 0.000000e+000 0.000000e+000 9.083810e-001 9.161899e-002
 0.000000e+000 0.000000e+000 0.000000e+000 0.000000e+000 0.000000e+000
<ENDHMM>
~h "FM"
<BEGINHMM>
<NUMSTATES> 5
<STATE> 2
<NUMMIXES> 2
<MIXTURE> 1 1.318062e-001
<MEAN> 22
 1.293275e+001 1.755082e+001 7.740328e+000 7.769946e+000 4.839700e+001 6.826432e+001 6.970133e+001 7.331705e+001 7.148217e+001 7.548771e+001 1.519976e+002 1.309477e+002 1.077769e+002 1.096634e+002 4.626219e+000 3.967019e+000 5.997135e+000 5.351229e+000 5.213014e+000 5.284321e+000 2.695449e+000 3.096297e+000
<VARIANCE> 22
 2.381958e+003 2.388411e+003 1.908510e+003 1.234004e+003 3.652212e+003 3.718353e+003 1.127350e+003 1.223803e+003 4.738290e+002 3.753904e+002 2.159046e+003 2.257318e+003 7.174091e+002 3.388345e+002 9.205396e+000 1.140543e+000 1.496953e+000 5.492599e-001 1.517433e+000 4.864065e+000 7.079930e+000 5.337873e+000
<GCONST> 1.488968e+002
<MIXTURE> 2 8.681937e-001
<MEAN> 22
 7.135715e+000 1.292884e+000 2.006041e+000 6.288881e-001 6.410892e+001 8.921779e+000 6.346990e+001 1.009485e+002 9.514107e+001 5.728835e+001 1.408066e+002 2.011190e+002 1.144449e+002 1.192527e+002 2.260321e+000 5.000000e+000 6.523440e+000 5.904314e+000 5.281972e+000 5.998955e+000 3.142685e+000 1.831369e+000
<VARIANCE> 22
 6.426563e+001 4.063125e+000 7.817967e+000 2.164982e+000 7.999352e+002 7.039262e+001 7.995992e+002 2.056464e+002 4.993741e+002 7.209319e+001 1.169679e+003 3.740502e+002 1.766929e+002 1.307359e+002 1.023514e+001 1.793315e-002 2.494505e-001 8.653019e-002 3.492681e-001 5.618803e-002 6.393405e+000 5.542599e+000
<GCONST> 9.940951e+001
<STATE> 3
<NUMMIXES> 2
<MIXTURE> 1 4.383028e-001
<MEAN> 22
 2.340091e+000 9.210406e+000 8.698503e-001 3.182105e+000 1.566450e+001 5.262285e+001 1.048557e+002 8.151331e+001 6.419920e+001 9.157832e+001 2.058522e+002 1.618759e+002 1.213817e+002 1.165532e+002 6.991040e+000 4.482027e+000 6.139990e+000 5.269935e+000 5.992495e+000 6.297150e+000 2.213000e+000 3.326776e+000
<VARIANCE> 22
 1.759102e+001 8.220287e+001 3.300596e+000 1.692120e+001 6.620694e+002 1.025599e+003 4.521296e+002 4.988403e+002 8.310674e+001 5.883217e+002 8.127279e+002 9.741235e+002 3.299908e+002 1.641981e+002 6.504287e-002 2.820670e-001 1.542260e-001 2.212425e-001 3.753494e-002 3.254004e-001 6.285358e+000 5.625196e+000
<GCONST> 1.045508e+002
<MIXTURE> 2 5.616975e-001
<MEAN> 22
 8.115067e-001 5.915971e+000 3.602139e-001 1.204389e+000 5.707873e+000 6.203034e+001 8.840028e+001 5.094886e+001 5.314278e+001 8.198216e+001 1.830073e+002 1.202328e+002 1.100866e+002 9.870725e+001 6.962919e+000 4.055707e+000 6.002519e+000 5.408161e+000 5.994464e+000 6.291746e+000 1.359075e+000 3.126598e+000
<VARIANCE> 22
 4.801632e+000 3.688400e+001 3.300596e+000 2.164982e+000 4.956259e+001 2.719390e+002 7.066719e+001 2.912893e+002 3.650528e+001 1.430940e+002 1.510985e+002 3.803961e+002 4.137299e+001 5.045714e+001 2.457502e-001 2.796155e-001 2.326111e-002 2.422983e-001 2.082488e-002 2.382664e+000 4.936256e+000 5.828895e+000
<GCONST> 8.668122e+001
<STATE> 4
<NUMMIXES> 2
<MIXTURE> 1 9.018112e-001
<MEAN> 22
 6.316006e+000 5.418780e+000 1.616930e+000 1.648524e+000 4.386380e+001 3.382455e+001 6.035793e+001 5.577466e+001 7.928770e+001 6.525475e+001 1.357846e+002 1.335594e+002 1.055161e+002 1.033606e+002 2.911455e+000 3.988956e+000 6.441385e+000 5.612106e+000 5.303103e+000 5.282597e+000 2.681165e+000 2.561146e+000
<VARIANCE> 22
 7.586565e+001 6.072778e+001 6.332155e+000 8.718063e+000 7.495974e+002 6.935150e+002 8.023247e+002 8.270578e+002 3.801780e+002 1.853799e+002 1.173139e+003 1.364470e+003 1.143605e+002 1.234719e+002 1.030347e+001 1.535100e+000 2.571153e-001 2.386279e-001 5.018747e-001 5.892670e+000 5.831561e+000 6.276030e+000
<GCONST> 1.191051e+002
<MIXTURE> 2 9.818866e-002
<MEAN> 22
 2.114536e-001 1.916298e+000 5.726871e-002 4.889863e-001 4.969781e+002 3.758194e+002 2.887146e+001 2.326001e+001 1.550594e+001 2.032274e+001 5.165446e+001 4.249532e+001 2.734258e+001 2.745013e+001 1.757708e+000 1.127753e+000 1.612337e+000 1.334801e+000 1.506609e+000 1.475772e+000 2.511010e-001 8.986775e-001
<VARIANCE> 22
 4.801632e+000 2.215610e+001 3.300596e+000 2.164982e+000 3.248373e+003 8.365344e+002 2.487269e+003 1.708872e+003 7.176973e+002 1.294393e+003 7.958764e+003 5.511314e+003 2.230314e+003 2.248537e+003 9.214439e+000 3.855944e+000 7.814468e+000 5.368104e+000 6.769805e+000 6.522509e+000 1.007431e+000 3.844357e+000
<GCONST> 1.363595e+002
<TRANSP> 5
 0.000000e+000 1.000000e+000 0.000000e+000 0.000000e+000 0.000000e+000
 0.000000e+000 8.890955e-001 1.109045e-001 0.000000e+000 0.000000e+000
 0.000000e+000 0.000000e+000 9.556200e-001 4.438004e-002 0.000000e+000
 0.000000e+000 0.000000e+000 0.000000e+000 8.369288e-001 1.630712e-001
 0.000000e+000 0.000000e+000 0.000000e+000 0.000000e+000 0.000000e+000
<ENDHMM>
~h "FN"
<BEGINHMM>
<NUMSTATES> 5
<STATE> 2
<NUMMIXES> 2
<MIXTURE> 1 5.548155e-001
<MEAN> 22
 1.754389e+001 4.111471e+000 6.523263e+000 3.083741e+000 1.690491e+002 1.382201e+001 1.127627e+002 1.023953e+002 8.321983e+001 6.045842e+001 5.150954e+001 2.032615e+002 1.036442e+002 1.207984e+002 1.940394e+000 4.978095e+000 3.109284e+000 5.856339e+000 3.101431e+000 5.961082e+000 3.875103e+000 2.075652e+000
<VARIANCE> 22
 1.596562e+003 9.110938e+002 1.210758e+003 7.054947e+002 3.158769e+003 3.291859e+002 1.172596e+003 2.502429e+002 1.964363e+002 6.555450e+001 2.349069e+003 6.185729e+002 3.828211e+002 1.168976e+002 1.367539e+000 5.817045e-002 8.363713e+000 1.370202e-001 1.012391e+000 1.817920e-001 6.151524e+000 6.057383e+000
<GCONST> 1.286170e+002
<MIXTURE> 2 4.451848e-001
<MEAN> 22
 4.607944e+000 1.089554e+001 1.387626e+000 2.728182e+000 1.225368e+002 1.532574e+002 8.466135e+001 9.083604e+001 6.625986e+001 6.479850e+001 1.548197e+002 9.287588e+001 1.011004e+002 9.888781e+001 4.632711e+000 3.047632e+000 5.535831e+000 4.562204e+000 5.076257e+000 2.888225e+000 2.336792e+000 2.642234e+000
<VARIANCE> 22
 7.266438e+001 2.243786e+002 7.647099e+000 1.428257e+001 3.552471e+004 1.801299e+004 1.835515e+003 1.594226e+003 6.122769e+002 5.145751e+002 5.215500e+003 6.044040e+003 1.708072e+003 1.083491e+003 8.819493e+000 2.557482e+000 3.875733e+000 3.010484e+000 2.988940e+000 6.246338e+000 6.213188e+000 5.407401e+000
<GCONST> 1.463639e+002
<STATE> 3
<NUMMIXES> 2
<MIXTURE> 1 4.970300e-001
<MEAN> 22
 2.221955e+000 1.745523e+001 7.586625e-001 3.693899e+000 1.031814e+001 8.695734e+001 9.730317e+001 8.152650e+001 6.051758e+001 6.792250e+001 1.964962e+002 1.203411e+002 1.168588e+002 1.089518e+002 6.993128e+000 3.800651e+000 6.143326e+000 5.352222e+000 5.995724e+000 3.942775e+000 2.138235e+000 3.847495e+000
<VARIANCE> 22
 1.673812e+001 3.074870e+002 3.300596e+000 2.250385e+001 2.037188e+002 4.501383e+003 3.006346e+002 1.302706e+003 6.998164e+001 2.047801e+002 5.108010e+002 3.722714e+003 1.570193e+002 1.654379e+002 6.504287e-002 1.523178e+000 1.324439e-001 7.914504e-001 2.082488e-002 6.812150e+000 6.305611e+000 5.258651e+000
<GCONST> 1.110685e+002
<MIXTURE> 2 5.029696e-001
<MEAN> 22
 8.734646e-001 8.829737e+000 4.588705e-001 2.473536e+000 7.194016e+000 1.698861e+002 8.735081e+001 1.069946e+002 5.620597e+001 6.602798e+001 1.838562e+002 2.599472e+001 1.093853e+002 9.298666e+001 6.950132e+000 2.044403e+000 6.000957e+000 4.225965e+000 5.971644e+000 1.261091e+000 1.300584e+000 3.114354e+000
<VARIANCE> 22
 4.801632e+000 1.039552e+002 3.300596e+000 9.998007e+000 3.140473e+002 1.091305e+003 1.550407e+002 4.780129e+002 3.784760e+001 1.000057e+002 4.163183e+002 3.004955e+002 9.845293e+001 1.964227e+002 2.344715e-001 7.059305e-002 2.326111e-002 1.457466e+000 7.242940e-002 2.967263e-001 4.562941e+000 5.473056e+000
<GCONST> 9.583842e+001
<STATE> 4
<NUMMIXES> 2
<MIXTURE> 1 6.713067e-001
<MEAN> 22
 1.030904e+001 2.414354e+000 2.741786e+000 8.942227e-001 1.002197e+002 2.078306e+001 1.020707e+002 9.680590e+001 7.143841e+001 5.639749e+001 1.102473e+002 1.966119e+002 1.062688e+002 1.172415e+002 3.720327e+000 4.998132e+000 4.720693e+000 5.807358e+000 4.218966e+000 5.988145e+000 3.399640e+000 2.110786e+000
<VARIANCE> 22
 1.640289e+002 1.510800e+001 1.337449e+001 2.164982e+000 5.455983e+003 9.025228e+002 1.246458e+003 2.549978e+002 1.949072e+002 7.363159e+001 6.744072e+003 4.575076e+002 4.454462e+002 1.513963e+002 7.183955e+000 1.793315e-002 6.759377e+000 1.555344e-001 2.921962e+000 5.618803e-002 6.052402e+000 5.995019e+000
<GCONST> 1.151115e+002
<MIXTURE> 2 3.286935e-001
<MEAN> 22
 7.036819e+000 7.087176e+000 1.847484e+000 1.703445e+000 5.140831e+001 4.218502e+001 5.636894e+001 4.014523e+001 6.476693e+001 5.664093e+001 8.096192e+001 1.014597e+002 9.872466e+001 1.003034e+002 2.861805e+000 3.094805e+000 5.596862e+000 5.676053e+000 3.880394e+000 2.934926e+000 2.836627e+000 2.614735e+000
<VARIANCE> 22
 1.340630e+002 2.018600e+002 1.065976e+001 7.750290e+000 1.538378e+003 1.623018e+003 1.306653e+003 5.553351e+002 8.621381e+001 4.540601e+001 2.302409e+003 1.073904e+003 1.513561e+002 9.075743e+001 4.179660e+000 2.559840e+000 2.927557e+000 7.579719e-001 9.385135e-001 1.020416e+001 6.389323e+000 6.253150e+000
<GCONST> 1.249141e+002
<TRANSP> 5
 0.000000e+000 1.000000e+000 0.000000e+000 0.000000e+000 0.000000e+000
 0.000000e+000 8.184608e-001 1.815391e-001 0.000000e+000 0.000000e+000
 0.000000e+000 0.000000e+000 9.550958e-001 4.490426e-002 0.000000e+000
 0.000000e+000 0.000000e+000 0.000000e+000 9.058648e-001 9.413517e-002
 0.000000e+000 0.000000e+000 0.000000e+000 0.000000e+000 0.000000e+000
<ENDHMM>
~h "FU"
<BEGINHMM>
<NUMSTATES> 5
<STATE> 2
<NUMMIXES> 2
<MIXTURE> 1 8.055130e-001
<MEAN> 22
 9.847863e+000 1.312399e+000 2.366291e+000 6.944985e-001 1.380163e+002 1.889627e+001 1.027331e+002 9.420448e+001 6.509870e+001 5.468069e+001 5.158622e+001 1.916819e+002 9.893542e+001 1.126434e+002 2.544522e+000 5.000000e+000 3.295347e+000 5.848844e+000 3.241716e+000 5.996481e+000 3.226352e+000 1.949197e+000
<VARIANCE> 22
 2.438521e+002 4.063125e+000 1.032967e+001 2.164982e+000 4.880108e+003 7.361408e+002 9.696451e+002 1.754467e+002 1.994243e+002 5.460807e+001 3.169450e+003 3.220578e+002 2.182638e+002 1.352057e+002 3.220596e+000 1.793315e-002 7.840964e+000 1.283109e-001 1.449701e+000 5.618803e-002 6.258818e+000 5.676875e+000
<GCONST> 1.092192e+002
<MIXTURE> 2 1.944867e-001
<MEAN> 22
 8.588274e+000 9.198707e+000 2.820978e+000 2.328869e+000 5.543792e+001 5.629439e+001 7.908387e+001 5.820277e+001 6.250624e+001 5.719507e+001 8.921665e+001 1.143980e+002 9.883502e+001 1.003710e+002 3.400079e+000 3.627370e+000 5.213824e+000 5.526305e+000 4.080750e+000 4.096232e+000 2.909783e+000 2.835292e+000
<VARIANCE> 22
 1.898725e+002 1.466446e+002 2.920551e+001 1.271057e+001 3.002021e+003 2.939397e+003 1.451244e+003 9.137145e+002 1.318986e+002 9.411649e+001 4.191891e+003 2.304085e+003 2.618048e+002 1.446966e+002 5.779199e+000 2.078188e+000 4.277641e+000 6.019450e-001 1.952414e+000 7.690735e+000 5.921981e+000 5.166609e+000
<GCONST> 1.322888e+002
<STATE> 3
<NUMMIXES> 2
<MIXTURE> 1 4.333587e-001
<MEAN> 22
 2.142886e+000 1.883407e+001 7.015993e-001 3.382439e+000 7.664404e+000 1.378923e+002 1.025713e+002 9.138880e+001 6.229660e+001 6.955649e+001 2.046627e+002 7.294786e+001 1.213033e+002 1.072671e+002 6.998035e+000 2.909328e+000 6.153258e+000 4.869368e+000 5.998920e+000 2.615703e+000 2.036111e+000 3.231852e+000
<VARIANCE> 22
 2.235395e+001 3.702390e+002 3.300596e+000 1.477484e+001 9.902341e+001 5.760792e+003 3.932624e+002 1.684251e+003 8.813397e+001 1.779400e+002 7.863629e+002 3.262414e+003 2.720815e+002 1.809180e+002 6.504287e-002 1.471973e+000 1.297688e-001 1.526298e+000 2.082488e-002 5.820552e+000 6.279637e+000 5.634659e+000
<GCONST> 1.127121e+002
<MIXTURE> 2 5.666415e-001
<MEAN> 22
 9.757780e-001 3.755432e+000 5.251517e-001 1.284875e+000 7.636994e+000 1.627001e+002 8.247442e+001 1.033379e+002 5.246204e+001 5.790662e+001 1.745563e+002 2.029794e+001 1.043424e+002 8.944382e+001 6.933608e+000 2.034195e+000 6.015274e+000 4.149948e+000 5.961662e+000 1.305228e+000 1.381802e+000 2.628997e+000
<VARIANCE> 22
 4.801632e+000 3.191827e+001 3.300596e+000 2.434196e+000 4.402853e+002 7.643536e+002 8.809766e+001 2.249770e+002 3.534617e+001 9.515240e+001 3.107047e+002 3.277277e+002 6.011128e+001 7.090627e+001 3.574983e-001 9.163089e-002 6.462769e-002 2.211319e+000 1.104981e-001 4.188632e-001 4.875288e+000 6.680031e+000
<GCONST> 9.322550e+001
<STATE> 4
<NUMMIXES> 2
<MIXTURE> 1 6.881883e-001
<MEAN> 22
 4.560229e+000 1.120166e+001 2.006449e+000 3.292035e+000 1.523092e+001 2.408221e+001 9.818503e+001 9.043942e+001 6.073303e+001 5.801662e+001 1.963012e+002 1.881033e+002 1.168354e+002 1.136414e+002 6.992822e+000 5.001050e+000 6.119370e+000 5.832653e+000 5.998915e+000 6.003739e+000 2.880942e+000 3.657994e+000
<VARIANCE> 22
 2.290846e+002 3.222041e+002 1.603432e+002 1.057686e+002 1.686143e+002 4.763104e+002 2.547548e+002 3.032684e+002 7.669785e+001 8.446772e+001 4.115042e+002 4.890176e+002 1.400501e+002 1.224060e+002 6.504287e-002 1.793315e-002 1.051212e-001 1.393399e-001 2.082488e-002 5.618803e-002 6.683367e+000 5.500298e+000
<GCONST> 1.005440e+002
<MIXTURE> 2 3.118115e-001
<MEAN> 22
 6.097038e+000 7.581307e+000 1.410954e+000 3.013770e+000 2.224804e+002 1.879171e+002 6.443225e+001 6.392818e+001 5.146722e+001 5.233037e+001 1.175247e+002 9.106209e+001 8.331066e+001 7.440430e+001 3.791654e+000 2.977941e+000 4.482085e+000 3.913754e+000 4.004817e+000 3.396198e+000 2.221314e+000 2.219150e+000
<VARIANCE> 22
 1.499409e+002 2.188806e+002 7.620286e+000 5.890348e+001 4.453510e+004 2.338936e+004 2.258251e+003 2.530435e+003 9.584184e+002 1.118991e+003 7.663317e+003 6.135687e+003 2.549794e+003 2.315848e+003 9.350251e+000 4.677299e+000 6.979233e+000 5.903510e+000 5.818784e+000 8.264620e+000 6.767859e+000 6.346500e+000
<GCONST> 1.555340e+002
<TRANSP> 5
 0.000000e+000 1.000000e+000 0.000000e+000 0.000000e+000 0.000000e+000
 0.000000e+000 9.246739e-001 7.532610e-002 0.000000e+000 0.000000e+000
 0.000000e+000 0.000000e+000 9.467815e-001 5.321847e-002 0.000000e+000
 0.000000e+000 0.000000e+000 0.000000e+000 8.349633e-001 1.650367e-001
 0.000000e+000 0.000000e+000 0.000000e+000 0.000000e+000 0.000000e+000
<ENDHMM>
~h "MC"
<BEGINHMM>
<NUMSTATES> 5
<STATE> 2
<NUMMIXES> 2
<MIXTURE> 1 9.546661e-002
<MEAN> 22
 1.827556e+001 2.193538e+001 1.141509e+001 9.663062e+000 1.491227e+002 1.684153e+002 1.122091e+002 6.041167e+001 7.434206e+001 7.813531e+001 1.907977e+002 1.128503e+002 1.289379e+002 1.163308e+002 5.437222e+000 3.196871e+000 6.136530e+000 5.748866e+000 5.291212e+000 2.898778e+000 2.283125e+000 2.937110e+000
<VARIANCE> 22
 2.879782e+003 2.210277e+003 2.549086e+003 1.493411e+003 4.617735e+004 2.039897e+004 2.068209e+003 1.004073e+003 2.682519e+002 2.018938e+002 8.319709e+003 2.813780e+003 1.553465e+003 5.399601e+002 5.443239e+000 1.426289e+000 1.211428e+000 4.467785e-001 1.278197e+000 8.917338e+000 6.010806e+000 5.288761e+000
<GCONST> 1.552979e+002
<MIXTURE> 2 9.045337e-001
<MEAN> 22
 5.670506e+000 6.996644e+000 1.542381e+000 2.097245e+000 4.840981e+001 5.657582e+001 6.100808e+001 5.027511e+001 7.111051e+001 6.622508e+001 1.139390e+002 1.084743e+002 1.015278e+002 1.012594e+002 3.641246e+000 3.415752e+000 6.185311e+000 5.726633e+000 4.756209e+000 3.782240e+000 2.887609e+000 2.728158e+000
<VARIANCE> 22
 5.424049e+001 7.411502e+001 3.882867e+000 7.607499e+000 1.241990e+003 1.706619e+003 7.217252e+002 7.451905e+002 2.136272e+002 2.416858e+002 2.845879e+003 1.860608e+003 1.477606e+002 1.244679e+002 7.832076e+000 1.689678e+000 2.598083e-001 2.133785e-001 1.404101e+000 9.691308e+000 6.083661e+000 5.592824e+000
<GCONST> 1.218619e+002
<STATE> 3
<NUMMIXES> 2
<MIXTURE> 1 2.842317e-001
<MEAN> 22
 2.627118e+000 1.399222e+001 7.837022e-001 4.336480e+000 1.063612e+001 1.134408e+002 1.089684e+002 7.899689e+001 6.589960e+001 9.164742e+001 2.123963e+002 1.057241e+002 1.262174e+002 1.134891e+002 6.885036e+000 3.367678e+000 6.184180e+000 5.340914e+000 5.967226e+000 2.652393e+000 2.184030e+000 3.455457e+000
<VARIANCE> 22
 2.141975e+001 1.646932e+002 3.300596e+000 2.418665e+001 4.116688e+002 4.158359e+003 3.547602e+002 1.291182e+003 5.962786e+001 6.674754e+002 6.640502e+002 3.268469e+003 1.554939e+002 1.364592e+002 6.338114e-001 1.418794e+000 1.663102e-001 5.503610e-001 7.604217e-002 8.109397e+000 6.084137e+000 5.185009e+000
<GCONST> 1.159849e+002
<MIXTURE> 2 7.157694e-001
<MEAN> 22
 1.044092e+000 8.265908e+000 5.909975e-001 2.367665e+000 6.061938e+000 1.012165e+002 8.695069e+001 5.140873e+001 5.295801e+001 7.622717e+001 1.806313e+002 7.702820e+001 1.077537e+002 9.332194e+001 6.999999e+000 2.902757e+000 6.002093e+000 5.739520e+000 6.000000e+000 2.152186e+000 1.660721e+000 3.161300e+000
<VARIANCE> 22
 4.801632e+000 5.924716e+001 3.300596e+000 6.388528e+000 4.956259e+001 1.253870e+003 8.356344e+001 4.281173e+002 4.404652e+001 2.449615e+002 1.473315e+002 1.320556e+003 5.065238e+001 1.674988e+002 6.504287e-002 1.090101e+000 2.326111e-002 2.345259e-001 2.082488e-002 8.420338e+000 5.542214e+000 5.085801e+000
<GCONST> 9.490590e+001
<STATE> 4
<NUMMIXES> 2
<MIXTURE> 1 9.410016e-001
<MEAN> 22
 8.769175e+000 2.701874e+000 2.744971e+000 1.014501e+000 8.164449e+001 1.431454e+001 6.497109e+001 9.771255e+001 7.602568e+001 5.608971e+001 1.202587e+002 1.962492e+002 1.098350e+002 1.161635e+002 3.249246e+000 5.000000e+000 6.262650e+000 5.804354e+000 4.631035e+000 5.994592e+000 3.273120e+000 2.594662e+000
<VARIANCE> 22
 7.993543e+001 1.467933e+001 1.250452e+001 2.164982e+000 2.712743e+003 1.951311e+002 8.695198e+002 2.512983e+002 4.631678e+002 5.677057e+001 3.331092e+003 4.320095e+002 2.687400e+002 1.255117e+002 7.972774e+000 1.793315e-002 2.154829e-001 1.573689e-001 1.321367e+000 5.618803e-002 5.905859e+000 6.243904e+000
<GCONST> 1.067342e+002
<MIXTURE> 2 5.899822e-002
<MEAN> 22
 4.401495e+000 2.650269e+001 1.169701e+000 4.595540e+000 1.216044e+002 1.188471e+002 6.711142e+001 6.998756e+001 6.125948e+001 5.555809e+001 1.310496e+002 1.183114e+002 9.890604e+001 9.519353e+001 3.814852e+000 3.268906e+000 5.193218e+000 4.528763e+000 4.323725e+000 3.865332e+000 1.892925e+000 3.145673e+000
<VARIANCE> 22
 8.233051e+001 2.986937e+003 4.896602e+000 3.798372e+001 2.825577e+004 1.659609e+004 2.033909e+003 2.247036e+003 1.073628e+003 7.279564e+002 6.583910e+003 6.512620e+003 2.244472e+003 2.073453e+003 1.014538e+001 3.592261e+000 6.039802e+000 4.787368e+000 4.822149e+000 7.865650e+000 5.506847e+000 6.461450e+000
<GCONST> 1.540366e+002
<TRANSP> 5
 0.000000e+000 1.000000e+000 0.000000e+000 0.000000e+000 0.000000e+000
 0.000000e+000 8.745549e-001 1.254451e-001 0.000000e+000 0.000000e+000
 0.000000e+000 0.000000e+000 9.591464e-001 4.085360e-002 0.000000e+000
 0.000000e+000 0.000000e+000 0.000000e+000 9.010026e-001 9.899737e-002
 0.000000e+000 0.000000e+000 0.000000e+000 0.000000e+000 0.000000e+000
<ENDHMM>
~h "NU"
<BEGINHMM>
<NUMSTATES> 5
<STATE> 2
<NUMMIXES> 2
<MIXTURE> 1 8.052065e-001
<MEAN> 22
 8.165819e+000 1.181521e+001 2.995632e+000 2.925158e+000 9.668060e+001 8.856139e+001 9.536079e+001 8.257852e+001 7.167145e+001 6.363842e+001 1.651679e+002 1.460430e+002 1.135639e+002 1.156272e+002 5.077620e+000 4.085786e+000 5.905587e+000 5.570791e+000 5.142819e+000 4.224761e+000 2.676355e+000 2.524668e+000
<VARIANCE> 22
 6.176474e+002 1.121396e+003 4.399490e+002 2.793640e+002 2.103299e+004 1.302782e+004 1.428891e+003 9.457417e+002 2.250746e+002 1.247333e+002 4.334081e+003 3.695680e+003 9.190986e+002 2.535165e+002 7.445662e+000 1.297490e+000 2.506994e+000 3.831697e-001 2.221400e+000 6.027670e+000 6.113768e+000 5.067901e+000
<GCONST> 1.465925e+002
<MIXTURE> 2 1.947934e-001
<MEAN> 22
 0.000000e+000 0.000000e+000 0.000000e+000 0.000000e+000 5.315967e+002 4.080165e+002 0.000000e+000 0.000000e+000 0.000000e+000 0.000000e+000 0.000000e+000 0.000000e+000 0.000000e+000 0.000000e+000 0.000000e+000 0.000000e+000 0.000000e+000 0.000000e+000 0.000000e+000 0.000000e+000 0.000000e+000 0.000000e+000
<VARIANCE> 22
 4.801632e+000 4.063125e+000 3.300596e+000 2.164982e+000 3.309077e+003 2.711514e+003 9.838196e+000 1.115232e+001 2.936353e+000 3.516743e+000 3.745900e+001 4.440890e+001 4.184655e+000 3.870682e+000 6.504287e-002 1.793315e-002 2.326111e-002 1.170389e-002 2.082488e-002 5.618803e-002 6.153807e-002 6.060927e-002
<GCONST> 5.130989e+001
<STATE> 3
<NUMMIXES> 2
<MIXTURE> 1 5.604257e-001
<MEAN> 22
 1.402006e+000 1.343211e+001 5.104793e-001 3.333527e+000 7.066582e+000 8.725891e+001 9.859644e+001 7.312930e+001 6.034217e+001 6.668069e+001 1.988417e+002 1.153431e+002 1.182075e+002 1.097419e+002 6.998997e+000 3.760605e+000 6.084428e+000 5.397895e+000 6.000000e+000 3.831627e+000 1.694664e+000 3.477863e+000
<VARIANCE> 22
 8.266680e+000 1.681861e+002 3.300596e+000 1.399260e+001 5.480884e+001 3.351841e+003 2.764384e+002 9.341086e+002 6.614549e+001 1.586236e+002 5.491853e+002 2.576354e+003 2.003316e+002 1.721177e+002 6.504287e-002 1.100933e+000 7.729603e-002 4.254162e-001 2.082488e-002 6.739505e+000 5.575671e+000 5.032564e+000
<GCONST> 1.052744e+002
<MIXTURE> 2 4.395741e-001
<MEAN> 22
 7.925366e-001 2.435361e+000 3.991346e-001 1.097703e+000 1.137455e+001 1.122561e+002 8.553191e+001 6.720879e+001 5.521809e+001 6.126679e+001 1.778944e+002 6.661164e+001 1.070298e+002 9.779675e+001 6.894634e+000 2.760409e+000 6.069762e+000 5.178165e+000 5.939488e+000 1.268493e+000 1.213290e+000 2.822536e+000
<VARIANCE> 22
 4.801632e+000 7.214213e+000 3.300596e+000 2.164982e+000 7.706213e+002 9.141736e+002 1.611474e+002 4.323882e+002 4.484245e+001 6.880853e+001 4.082253e+002 6.063306e+002 6.402698e+001 9.773332e+001 5.982665e-001 2.696386e-001 1.057911e-001 3.194720e-001 1.652001e-001 9.550741e-001 4.431722e+000 6.165609e+000
<GCONST> 9.600640e+001
<STATE> 4
<NUMMIXES> 2
<MIXTURE> 1 5.489163e-001
<MEAN> 22
 8.236649e+000 3.692685e+000 2.446733e+000 1.276384e+000 7.413837e+001 1.368758e+001 8.272112e+001 9.779719e+001 6.978903e+001 5.620175e+001 1.367153e+002 1.971019e+002 1.137747e+002 1.170132e+002 3.953417e+000 5.000000e+000 6.512738e+000 5.908244e+000 4.642730e+000 5.996287e+000 3.296764e+000 2.566269e+000
<VARIANCE> 22
 9.925845e+001 2.929013e+001 9.625751e+000 3.226140e+000 3.054438e+003 2.085910e+002 7.091730e+002 2.550609e+002 2.318866e+002 6.243166e+001 3.813799e+003 4.195815e+002 2.322826e+002 1.238496e+002 9.206211e+000 1.793315e-002 2.536917e-001 8.333378e-002 2.693276e+000 5.618803e-002 6.224160e+000 6.364549e+000
<GCONST> 1.075804e+002
<MIXTURE> 2 4.510836e-001
<MEAN> 22
 4.780823e+000 5.956329e+000 1.367054e+000 2.031649e+000 6.078868e+001 6.611965e+001 6.158635e+001 5.786123e+001 6.738213e+001 5.676711e+001 9.594483e+001 9.945786e+001 1.021496e+002 9.987427e+001 2.316636e+000 3.163626e+000 5.923587e+000 5.426444e+000 3.977416e+000 2.826575e+000 2.651214e+000 2.777583e+000
<VARIANCE> 22
 5.538018e+001 9.328159e+001 4.074512e+000 1.155881e+001 2.699614e+003 2.708262e+003 1.208191e+003 9.970403e+002 1.430956e+002 5.560420e+001 2.300156e+003 1.625388e+003 1.205593e+002 1.441569e+002 5.106014e+000 1.446787e+000 3.218230e+000 3.934090e-001 1.870183e+000 7.153949e+000 6.213040e+000 6.293681e+000
<GCONST> 1.250166e+002
<TRANSP> 5
 0.000000e+000 1.000000e+000 0.000000e+000 0.000000e+000 0.000000e+000
 0.000000e+000 7.034011e-001 2.965989e-001 0.000000e+000 0.000000e+000
 0.000000e+000 0.000000e+000 9.480363e-001 5.196369e-002 0.000000e+000
 0.000000e+000 0.000000e+000 0.000000e+000 9.213966e-001 7.860343e-002
 0.000000e+000 0.000000e+000 0.000000e+000 0.000000e+000 0.000000e+000
<ENDHMM>
~h "OK"
<BEGINHMM>
<NUMSTATES> 5
<STATE> 2
<NUMMIXES> 2
<MIXTURE> 1 6.516278e-001
<MEAN> 22
 1.503148e+001 3.062256e+000 4.494835e+000 1.507035e+000 1.241145e+002 1.742426e+001 1.039201e+002 9.746786e+001 7.943241e+001 5.433807e+001 8.240599e+001 2.003566e+002 1.091992e+002 1.184134e+002 2.396490e+000 4.997785e+000 4.385227e+000 5.901977e+000 3.438642e+000 5.994421e+000 3.523312e+000 2.237323e+000
<VARIANCE> 22
 5.512087e+002 2.367109e+002 2.841382e+002 1.624236e+002 4.424433e+003 4.717198e+002 9.337030e+002 2.124678e+002 2.391356e+002 5.844856e+001 3.793942e+003 3.539875e+002 3.626157e+002 1.172399e+002 5.209050e+000 1.793315e-002 9.648764e+000 8.841316e-002 2.322175e+000 5.618803e-002 5.930373e+000 5.997140e+000
<GCONST> 1.230195e+002
<MIXTURE> 2 3.483725e-001
<MEAN> 22
 8.673800e+000 7.191660e+000 2.021716e+000 1.925116e+000 5.327715e+001 5.901129e+001 7.419428e+001 5.173155e+001 6.949329e+001 6.022059e+001 9.261607e+001 9.935415e+001 9.910445e+001 1.010647e+002 2.772652e+000 3.223598e+000 4.796729e+000 5.502662e+000 3.955019e+000 3.604089e+000 3.018589e+000 2.581087e+000
<VARIANCE> 22
 1.776944e+002 1.562892e+002 1.578526e+001 1.495518e+001 2.001573e+003 3.199100e+003 1.792046e+003 1.027340e+003 1.370592e+002 1.127505e+002 2.845295e+003 1.472032e+003 3.584356e+002 1.373223e+002 5.323477e+000 1.592654e+000 6.688473e+000 6.359133e-001 2.181202e+000 8.983684e+000 6.538675e+000 5.976656e+000
<GCONST> 1.321510e+002
<STATE> 3
<NUMMIXES> 2
<MIXTURE> 1 4.993387e-001
<MEAN> 22
 2.208112e+000 1.993962e+001 7.556368e-001 4.185284e+000 1.010397e+001 9.792128e+001 1.010388e+002 8.912154e+001 6.162240e+001 7.440293e+001 2.025906e+002 1.170990e+002 1.204196e+002 1.125168e+002 6.998158e+000 3.767546e+000 6.128056e+000 5.133482e+000 5.999244e+000 3.924540e+000 2.123595e+000 3.788600e+000
<VARIANCE> 22
 1.970028e+001 3.886985e+002 3.300596e+000 2.084078e+001 2.140625e+002 5.572953e+003 3.793506e+002 1.271982e+003 8.594221e+001 2.906449e+002 7.218510e+002 3.237372e+003 2.572802e+002 1.926608e+002 6.504287e-002 1.232505e+000 1.123868e-001 6.279128e-001 2.082488e-002 6.098721e+000 6.395061e+000 5.197543e+000
<GCONST> 1.125531e+002
<MIXTURE> 2 5.006613e-001
<MEAN> 22
 9.915931e-001 6.527365e+000 6.348305e-001 2.128372e+000 7.880300e+000 1.453458e+002 8.472359e+001 9.728012e+001 5.249168e+001 6.822834e+001 1.812130e+002 4.623672e+001 1.087993e+002 9.708311e+001 6.937488e+000 2.450278e+000 6.014715e+000 4.520443e+000 5.978189e+000 1.535112e+000 1.578800e+000 3.145319e+000
<VARIANCE> 22
 4.801632e+000 6.993968e+001 3.300596e+000 6.690654e+000 3.706951e+002 1.090615e+003 8.975504e+001 4.847642e+002 3.754253e+001 8.250304e+001 2.251668e+002 3.218266e+002 5.102246e+001 8.180537e+001 3.625186e-001 2.853289e-001 4.503836e-002 4.354026e-001 6.569118e-002 4.254769e-001 5.398846e+000 5.884504e+000
<GCONST> 9.418176e+001
<STATE> 4
<NUMMIXES> 2
<MIXTURE> 1 8.837255e-001
<MEAN> 22
 6.210271e+000 4.653721e+000 1.930297e+000 1.548423e+000 4.191636e+001 2.769298e+001 9.279917e+001 9.255021e+001 6.286806e+001 5.544387e+001 1.755863e+002 1.916737e+002 1.140166e+002 1.150527e+002 6.002886e+000 4.999070e+000 6.242085e+000 5.880949e+000 5.520298e+000 6.000026e+000 2.886968e+000 2.875646e+000
<VARIANCE> 22
 8.701050e+001 5.324593e+001 7.296950e+000 4.578282e+000 2.274777e+003 1.075823e+003 4.164490e+002 1.866931e+002 9.319286e+001 6.311330e+001 2.534140e+003 3.380068e+002 1.738429e+002 1.007444e+002 5.088042e+000 1.793315e-002 1.834795e-001 1.048787e-001 1.645160e+000 5.618803e-002 6.062796e+000 6.418638e+000
<GCONST> 1.054011e+002
<MIXTURE> 2 1.162742e-001
<MEAN> 22
 2.792384e+000 2.180059e+000 1.195265e+000 8.023440e-001 2.805215e+002 1.966714e+002 5.405755e+001 3.305188e+001 3.655971e+001 2.962120e+001 3.565729e+001 7.872723e+001 5.045787e+001 5.598058e+001 1.308041e+000 2.435693e+000 1.032967e+000 3.190287e+000 1.629692e+000 3.055825e+000 1.593375e+000 1.513340e+000
<VARIANCE> 22
 3.284938e+001 3.398825e+001 7.319379e+000 5.315255e+000 4.547584e+004 3.400597e+004 3.024087e+003 1.230751e+003 1.148340e+003 7.596970e+002 2.580287e+003 5.806115e+003 2.200236e+003 2.602071e+003 3.241284e+000 5.461356e+000 4.899117e+000 8.450156e+000 3.294862e+000 9.582970e+000 5.026413e+000 5.045131e+000
<GCONST> 1.464454e+002
<TRANSP> 5
 0.000000e+000 1.000000e+000 0.000000e+000 0.000000e+000 0.000000e+000
 0.000000e+000 8.925411e-001 1.074589e-001 0.000000e+000 0.000000e+000
 0.000000e+000 0.000000e+000 9.313756e-001 6.862434e-002 0.000000e+000
 0.000000e+000 0.000000e+000 0.000000e+000 8.528499e-001 1.471501e-001
 0.000000e+000 0.000000e+000 0.000000e+000 0.000000e+000 0.000000e+000
<ENDHMM>
~h "PF"
<BEGINHMM>
<NUMSTATES> 5
<STATE> 2
<NUMMIXES> 2
<MIXTURE> 1 3.208662e-001
<MEAN> 22
 1.044283e+001 1.306932e+001 7.158843e+000 7.246357e+000 1.710864e+002 1.404683e+002 1.010410e+002 9.224097e+001 6.315462e+001 6.310202e+001 1.987449e+002 1.867805e+002 1.153869e+002 1.162550e+002 6.986702e+000 4.949317e+000 6.134486e+000 5.791255e+000 5.983020e+000 6.016399e+000 2.443251e+000 2.440478e+000
<VARIANCE> 22
 2.968613e+003 2.412163e+003 2.574716e+003 1.711272e+003 4.944775e+004 3.052918e+004 2.890282e+002 5.881304e+002 4.476618e+001 1.107099e+002 5.108472e+002 9.735454e+002 1.118390e+002 1.378202e+002 6.631219e-002 1.504995e-001 1.163991e-001 1.970852e-001 5.214150e-002 3.122001e-001 6.366848e+000 5.757932e+000
<GCONST> 1.270646e+002
<MIXTURE> 2 6.791338e-001
<MEAN> 22
 7.093252e+000 1.058318e+001 2.136748e+000 2.875360e+000 1.101786e+002 1.620848e+002 8.286344e+001 1.175626e+002 7.166332e+001 7.739962e+001 1.333722e+002 7.896141e+001 9.984074e+001 9.325442e+001 3.459845e+000 2.642154e+000 5.352657e+000 4.124438e+000 4.751271e+000 2.204778e+000 2.467202e+000 2.887401e+000
<VARIANCE> 22
 1.861165e+002 2.592034e+002 3.156876e+001 1.605156e+001 2.044600e+004 9.722561e+003 1.967433e+003 3.183046e+003 5.796506e+002 8.039916e+002 5.208564e+003 3.804085e+003 1.156060e+003 7.026189e+002 9.364324e+000 1.541549e+000 4.993926e+000 2.410617e+000 2.893528e+000 3.846156e+000 6.202979e+000 5.067689e+000
<GCONST> 1.466798e+002
<STATE> 3
<NUMMIXES> 2
<MIXTURE> 1 3.595564e-001
<MEAN> 22
 2.267940e+000 2.167459e+001 9.087391e-001 4.540219e+000 1.136938e+001 5.274312e+001 9.389975e+001 8.610117e+001 5.904004e+001 6.554968e+001 1.931952e+002 1.585851e+002 1.153968e+002 1.108988e+002 6.994319e+000 4.431819e+000 6.039733e+000 5.505331e+000 5.999004e+000 5.146836e+000 2.311076e+000 3.767250e+000
<VARIANCE> 22
 1.218056e+001 4.411751e+002 3.300596e+000 2.232199e+001 1.579253e+002 1.692818e+003 2.076282e+002 6.115290e+002 4.306409e+001 1.786431e+002 3.860714e+002 2.259406e+003 1.206267e+002 1.397786e+002 6.504287e-002 6.889997e-001 3.815251e-002 2.656654e-001 2.082488e-002 3.409158e+000 6.171381e+000 5.723028e+000
<GCONST> 1.031523e+002
<MIXTURE> 2 6.404436e-001
<MEAN> 22
 1.350513e+000 9.788427e+000 6.228034e-001 3.576311e+000 1.007991e+001 1.892613e+002 9.244966e+001 1.366404e+002 5.799102e+001 8.569273e+001 1.878630e+002 5.588516e+001 1.129780e+002 9.150909e+001 6.922797e+000 2.420217e+000 6.060058e+000 3.554436e+000 5.956708e+000 1.709113e+000 1.692151e+000 3.318782e+000
<VARIANCE> 22
 8.196018e+000 1.340616e+002 3.300596e+000 1.975313e+001 6.282631e+002 1.615543e+003 2.705021e+002 7.546141e+002 7.062679e+001 2.610429e+002 6.804003e+002 9.473278e+002 1.318699e+002 2.099306e+002 3.975414e-001 3.159354e-001 2.810144e-001 6.002102e-001 1.253215e-001 5.002162e-001 5.839952e+000 4.371755e+000
<GCONST> 1.077123e+002
<STATE> 4
<NUMMIXES> 2
<MIXTURE> 1 7.483718e-001
<MEAN> 22
 1.215044e+001 1.535638e+000 3.606377e+000 7.527881e-001 1.364096e+002 1.916842e+001 1.315506e+002 9.923457e+001 8.414418e+001 5.645368e+001 1.083289e+002 1.988320e+002 1.038559e+002 1.180641e+002 2.715002e+000 5.000000e+000 3.084756e+000 5.817281e+000 3.337260e+000 5.999062e+000 3.420804e+000 2.301286e+000
<VARIANCE> 22
 2.264448e+002 4.846946e+000 2.320626e+001 2.164982e+000 6.470551e+003 6.884727e+002 1.716962e+003 2.124688e+002 4.304417e+002 6.916497e+001 4.420886e+003 4.026833e+002 4.091823e+002 1.310860e+002 6.304438e+000 1.793315e-002 8.503540e+000 1.493375e-001 3.624132e+000 5.618803e-002 6.850463e+000 6.096396e+000
<GCONST> 1.152508e+002
<MIXTURE> 2 2.516282e-001
<MEAN> 22
 6.878019e+000 7.286916e+000 2.618970e+000 2.355591e+000 5.731573e+001 2.740198e+001 8.502328e+001 4.758590e+001 7.742798e+001 5.794316e+001 9.311436e+001 1.180954e+002 9.865986e+001 1.034307e+002 2.820979e+000 3.495969e+000 4.242818e+000 5.631645e+000 3.742844e+000 3.516999e+000 2.751792e+000 2.797733e+000
<VARIANCE> 22
 1.367494e+002 1.292320e+002 2.297364e+001 1.234492e+001 2.239407e+003 7.280654e+002 3.278455e+003 8.244086e+002 3.716426e+002 6.615406e+001 2.578815e+003 1.241726e+003 2.686539e+002 8.713363e+001 4.917993e+000 2.053569e+000 6.496298e+000 2.919551e-001 1.793564e+000 9.481144e+000 6.551675e+000 6.320904e+000
<GCONST> 1.296346e+002
<TRANSP> 5
 0.000000e+000 1.000000e+000 0.000000e+000 0.000000e+000 0.000000e+000
 0.000000e+000 6.791262e-001 3.208738e-001 0.000000e+000 0.000000e+000
 0.000000e+000 0.000000e+000 9.551009e-001 4.489909e-002 0.000000e+000
 0.000000e+000 0.000000e+000 0.000000e+000 9.150258e-001 8.497426e-002
 0.000000e+000 0.000000e+000 0.000000e+000 0.000000e+000 0.000000e+000
<ENDHMM>
~h "PR"
<BEGINHMM>
<NUMSTATES> 5
<STATE> 2
<NUMMIXES> 2
<MIXTURE> 1 8.151770e-001
<MEAN> 22
 9.297827e+000 1.147547e+001 4.317931e+000 4.853921e+000 3.563924e+001 6.395687e+001 8.875107e+001 9.424367e+001 7.363112e+001 6.619259e+001 1.715360e+002 1.474162e+002 1.126876e+002 1.122721e+002 4.886508e+000 4.132633e+000 6.428096e+000 5.332087e+000 5.598176e+000 4.533251e+000 2.465349e+000 2.949214e+000
<VARIANCE> 22
 1.287065e+003 9.961985e+002 9.827943e+002 6.404383e+002 1.445841e+003 3.317594e+003 1.313722e+003 1.031666e+003 2.909799e+002 2.125016e+002 3.233954e+003 2.507213e+003 8.626713e+002 3.021551e+002 9.244238e+000 9.898106e-001 3.009056e-001 4.871852e-001 1.247855e+000 3.762895e+000 5.979472e+000 5.766856e+000
<GCONST> 1.421452e+002
<MIXTURE> 2 1.848226e-001
<MEAN> 22
 2.634513e+000 2.054862e+000 8.047379e-001 6.595482e-001 3.994485e+002 2.953848e+002 4.348409e+001 2.811154e+001 2.585382e+001 2.273655e+001 5.048346e+001 5.260204e+001 3.817207e+001 3.937255e+001 1.395224e+000 1.459329e+000 1.241894e+000 2.039204e+000 1.403681e+000 1.515757e+000 8.991928e-001 8.557874e-001
<VARIANCE> 22
 5.522229e+001 3.019600e+001 5.745796e+000 4.293741e+000 2.210371e+004 1.969874e+004 3.605691e+003 1.710826e+003 1.237978e+003 9.292629e+002 6.211266e+003 6.018270e+003 2.617604e+003 2.755166e+003 6.595790e+000 4.221739e+000 5.829085e+000 7.366121e+000 5.011157e+000 6.574440e+000 3.137814e+000 3.392884e+000
<GCONST> 1.467148e+002
<STATE> 3
<NUMMIXES> 2
<MIXTURE> 1 7.675539e-001
<MEAN> 22
 1.313872e+000 1.182152e+001 5.879730e-001 3.796012e+000 7.707989e+000 9.175159e+001 9.550901e+001 8.566380e+001 5.916702e+001 6.621335e+001 1.929347e+002 1.144406e+002 1.146277e+002 1.050526e+002 6.999309e+000 3.663294e+000 6.060576e+000 5.089868e+000 5.999669e+000 3.742977e+000 1.863191e+000 3.798229e+000
<VARIANCE> 22
 5.938545e+000 1.578323e+002 3.300596e+000 2.093259e+001 7.253452e+001 2.490321e+003 2.488158e+002 7.838704e+002 5.998292e+001 1.718624e+002 4.864332e+002 1.866148e+003 1.562066e+002 2.235319e+002 6.504287e-002 7.524985e-001 5.690771e-002 3.764918e-001 2.082488e-002 4.126862e+000 6.029584e+000 5.876087e+000
<GCONST> 1.034703e+002
<MIXTURE> 2 2.324478e-001
<MEAN> 22
 8.763883e-001 2.413040e+000 4.152584e-001 1.211892e+000 1.637400e+001 1.131427e+002 8.161316e+001 8.662347e+001 5.538591e+001 5.830611e+001 1.701748e+002 7.129417e+001 1.050755e+002 9.355629e+001 6.701302e+000 2.928649e+000 6.130436e+000 4.903342e+000 5.859309e+000 2.123739e+000 1.083414e+000 2.986449e+000
<VARIANCE> 22
 4.801632e+000 8.094649e+000 3.300596e+000 2.164982e+000 1.186625e+003 1.479027e+003 1.352246e+002 4.037965e+002 6.644871e+001 8.597074e+001 5.143635e+002 1.177511e+003 6.916714e+001 1.298769e+002 1.694065e+000 3.816006e-001 2.103545e-001 3.030294e-001 4.880466e-001 1.316220e+000 3.934362e+000 7.433994e+000
<GCONST> 1.021576e+002
<STATE> 4
<NUMMIXES> 2
<MIXTURE> 1 7.051619e-001
<MEAN> 22
 8.817584e+000 2.233220e+000 2.561876e+000 1.002531e+000 7.095771e+001 1.582439e+001 8.417366e+001 9.607198e+001 6.948483e+001 5.545151e+001 1.269216e+002 1.950364e+002 1.094364e+002 1.155963e+002 3.225962e+000 5.000257e+000 6.609087e+000 5.844674e+000 4.221756e+000 5.997990e+000 3.559875e+000 2.258647e+000
<VARIANCE> 22
 1.166337e+002 1.185857e+001 1.109255e+001 2.164982e+000 2.561094e+003 2.804234e+002 6.139647e+002 1.914681e+002 2.217022e+002 6.181273e+001 3.564601e+003 3.447379e+002 2.348297e+002 1.065550e+002 9.076927e+000 1.793315e-002 2.387701e-001 1.311978e-001 3.806246e+000 5.618803e-002 5.835925e+000 6.021975e+000
<GCONST> 1.064161e+002
<MIXTURE> 2 2.948382e-001
<MEAN> 22
 9.648088e+000 4.837798e+000 2.538779e+000 1.423404e+000 5.651366e+001 2.945440e+001 8.037009e+001 5.408717e+001 7.551804e+001 5.924162e+001 9.282112e+001 1.286972e+002 1.035796e+002 1.011552e+002 1.877386e+000 3.771813e+000 5.130119e+000 5.638713e+000 3.249965e+000 4.598021e+000 2.672057e+000 2.438425e+000
<VARIANCE> 22
 1.765878e+002 7.201817e+001 1.299800e+001 7.079804e+000 2.252807e+003 8.865224e+002 1.788423e+003 1.075558e+003 1.468958e+002 5.547117e+001 1.270160e+003 1.414889e+003 1.216000e+002 1.018305e+002 4.280897e+000 1.199357e+000 7.528955e+000 2.818351e-001 2.332399e+000 7.397068e+000 5.913855e+000 6.280178e+000
<GCONST> 1.250653e+002
<TRANSP> 5
 0.000000e+000 1.000000e+000 0.000000e+000 0.000000e+000 0.000000e+000
 0.000000e+000 6.832565e-001 3.167435e-001 0.000000e+000 0.000000e+000
 0.000000e+000 0.000000e+000 9.494564e-001 5.054358e-002 0.000000e+000
 0.000000e+000 0.000000e+000 0.000000e+000 9.165164e-001 8.348363e-002
 0.000000e+000 0.000000e+000 0.000000e+000 0.000000e+000 0.000000e+000
<ENDHMM>
~h "SP"
<BEGINHMM>
<NUMSTATES> 5
<STATE> 2
<NUMMIXES> 2
<MIXTURE> 1 8.353704e-001
<MEAN> 22
 1.061462e+001 1.438724e+001 6.246543e+000 7.057786e+000 4.408344e+001 1.180526e+002 9.433254e+001 1.170763e+002 7.624717e+001 8.664917e+001 1.641006e+002 1.084497e+002 1.144166e+002 1.071805e+002 4.445827e+000 3.365588e+000 6.039855e+000 4.433250e+000 5.488263e+000 3.095911e+000 2.374544e+000 2.653625e+000
<VARIANCE> 22
 2.677050e+003 1.821148e+003 2.173016e+003 1.311674e+003 3.137985e+003 8.998592e+003 1.667430e+003 1.862670e+003 3.678562e+002 1.071475e+003 4.465976e+003 3.787341e+003 6.131061e+002 3.331536e+002 9.901123e+000 1.622004e+000 2.334165e+000 1.659038e+000 1.226734e+000 5.600744e+000 5.869394e+000 4.940269e+000
<GCONST> 1.539808e+002
<MIXTURE> 2 1.646295e-001
<MEAN> 22
 6.683341e-009 1.021084e-008 3.580869e-008 7.697385e-009 5.310355e+002 3.993491e+002 -1.098080e-006 5.111192e-006 -2.358039e-006 -8.579189e-007 2.607455e-007 -8.495395e-007 -4.150141e-006 4.109987e-006 -3.625923e-018 1.644728e-008 5.096478e-007 -9.805346e-008 7.446258e-008 -6.502312e-008 1.166115e-008 4.122819e-008
<VARIANCE> 22
 4.801632e+000 4.063125e+000 3.300596e+000 2.164982e+000 3.435574e+003 2.506367e+003 9.838196e+000 1.115232e+001 2.936353e+000 3.516743e+000 3.745900e+001 4.440890e+001 4.184655e+000 3.870682e+000 6.504287e-002 1.793315e-002 2.326111e-002 1.170389e-002 2.082488e-002 5.618803e-002 6.153807e-002 6.060927e-002
<GCONST> 5.126873e+001
<STATE> 3
<NUMMIXES> 2
<MIXTURE> 1 5.034221e-001
<MEAN> 22
 1.613248e+000 1.930969e+001 6.240832e-001 5.494493e+000 9.150960e+000 1.264988e+002 1.002507e+002 1.115973e+002 6.253294e+001 7.972108e+001 1.995820e+002 1.065653e+002 1.189347e+002 1.051382e+002 6.998432e+000 3.402493e+000 6.127405e+000 4.533896e+000 5.999588e+000 3.404456e+000 2.026514e+000 3.665494e+000
<VARIANCE> 22
 8.369546e+000 3.704115e+002 3.300596e+000 3.869743e+001 1.184792e+002 7.734447e+003 3.453727e+002 1.742909e+003 7.713445e+001 5.659199e+002 5.890299e+002 3.441313e+003 1.930736e+002 2.135310e+002 6.504287e-002 1.461204e+000 1.111712e-001 1.227747e+000 2.082488e-002 5.006452e+000 6.160848e+000 5.417595e+000
<GCONST> 1.130935e+002
<MIXTURE> 2 4.965779e-001
<MEAN> 22
 1.122659e+000 3.906285e+000 4.677508e-001 1.988791e+000 1.102282e+001 1.853981e+002 8.845695e+001 1.349946e+002 5.777801e+001 8.794798e+001 1.776497e+002 4.715144e+001 1.069523e+002 8.615942e+001 6.884408e+000 2.115503e+000 6.022855e+000 3.197765e+000 5.943742e+000 1.488016e+000 1.362471e+000 2.497063e+000
<VARIANCE> 22
 7.498350e+000 2.993893e+001 3.300596e+000 7.644613e+000 7.420733e+002 1.410931e+003 2.245882e+002 3.491555e+002 7.477556e+001 3.580318e+002 5.023640e+002 4.950523e+002 7.422629e+001 1.461390e+002 6.168287e-001 1.871350e-001 4.123443e-001 3.006779e-001 2.333756e-001 5.628595e-001 4.852597e+000 5.987761e+000
<GCONST> 1.032100e+002
<STATE> 4
<NUMMIXES> 2
<MIXTURE> 1 7.123079e-001
<MEAN> 22
 1.262408e+001 1.207168e+000 4.147844e+000 5.814321e-001 1.526960e+002 1.404938e+001 1.281432e+002 9.716051e+001 9.293723e+001 5.698343e+001 8.673266e+001 1.948587e+002 9.454688e+001 1.157622e+002 2.534802e+000 5.000000e+000 2.879135e+000 5.833109e+000 3.485983e+000 5.991535e+000 3.393187e+000 1.889985e+000
<VARIANCE> 22
 3.275791e+002 4.063125e+000 5.295546e+001 2.164982e+000 6.397649e+003 6.540707e+002 1.406127e+003 1.891498e+002 4.855737e+002 5.202815e+001 3.275366e+003 3.354882e+002 4.199924e+002 1.093789e+002 4.620991e+000 1.793315e-002 7.671065e+000 1.390356e-001 2.687208e+000 5.618803e-002 6.260686e+000 5.725375e+000
<GCONST> 1.141514e+002
<MIXTURE> 2 2.876922e-001
<MEAN> 22
 7.546870e+000 6.528546e+000 2.688008e+000 2.288543e+000 6.798112e+001 2.854416e+001 1.007209e+002 4.956511e+001 8.524362e+001 5.953203e+001 9.370245e+001 1.172802e+002 9.731985e+001 1.032629e+002 2.976362e+000 3.549154e+000 3.918057e+000 5.639162e+000 3.877000e+000 3.253140e+000 3.002835e+000 2.655468e+000
<VARIANCE> 22
 1.175608e+002 1.307347e+002 1.842315e+001 1.197039e+001 2.560548e+003 9.357873e+002 2.732133e+003 8.045973e+002 6.898251e+002 7.338943e+001 2.924473e+003 1.594908e+003 2.586796e+002 1.153703e+002 5.272730e+000 1.552157e+000 6.905846e+000 3.350856e-001 1.729732e+000 9.595280e+000 6.636354e+000 6.713326e+000
<GCONST> 1.308005e+002
<TRANSP> 5
 0.000000e+000 1.000000e+000 0.000000e+000 0.000000e+000 0.000000e+000
 0.000000e+000 6.356720e-001 3.643280e-001 0.000000e+000 0.000000e+000
 0.000000e+000 0.000000e+000 9.582271e-001 4.177292e-002 0.000000e+000
 0.000000e+000 0.000000e+000 0.000000e+000 9.240654e-001 7.593466e-002
 0.000000e+000 0.000000e+000 0.000000e+000 0.000000e+000 0.000000e+000
<ENDHMM>
~h "ST"
<BEGINHMM>
<NUMSTATES> 5
<STATE> 2
<NUMMIXES> 2
<MIXTURE> 1 1.800237e-001
<MEAN> 22
 1.728631e+001 2.565862e+001 1.159852e+001 8.754624e+000 1.907631e+002 2.039126e+002 1.250913e+002 9.158241e+001 7.881645e+001 8.007624e+001 2.162871e+002 1.270928e+002 1.335022e+002 1.229316e+002 6.127344e+000 3.393193e+000 6.656755e+000 5.816748e+000 5.641137e+000 3.237049e+000 2.404399e+000 2.926517e+000
<VARIANCE> 22
 3.295868e+003 3.360885e+003 2.946569e+003 1.776142e+003 5.556970e+004 2.376685e+004 1.830350e+003 8.720331e+002 2.593757e+002 2.731626e+002 5.836069e+003 5.788702e+003 1.252922e+003 3.802760e+002 4.033000e+000 2.527841e+000 3.150374e-001 5.448796e-001 6.672315e-001 7.577000e+000 6.775298e+000 6.225445e+000
<GCONST> 1.549088e+002
<MIXTURE> 2 8.199759e-001
<MEAN> 22
 4.624352e+000 7.513769e+000 1.111373e+000 2.128825e+000 7.024382e+001 8.969699e+001 7.585991e+001 7.707255e+001 6.759722e+001 7.224754e+001 1.420584e+002 1.050926e+002 1.053054e+002 1.066364e+002 4.295312e+000 3.201941e+000 5.902537e+000 5.472602e+000 4.858841e+000 2.826208e+000 2.706497e+000 2.695793e+000
<VARIANCE> 22
 5.978398e+001 1.095555e+002 3.300596e+000 8.062063e+000 1.135409e+004 6.551109e+003 1.129533e+003 1.067410e+003 3.683506e+002 5.686514e+002 3.329196e+003 4.674789e+003 8.122135e+002 6.357365e+002 9.025063e+000 2.347052e+000 2.167179e+000 1.458355e+000 2.990365e+000 7.387469e+000 6.386934e+000 5.724920e+000
<GCONST> 1.374944e+002
<STATE> 3
<NUMMIXES> 2
<MIXTURE> 1 4.314381e-001
<MEAN> 22
 2.324764e+000 1.578287e+001 7.840478e-001 3.547886e+000 1.622249e+001 8.464872e+001 9.797507e+001 7.185047e+001 6.205715e+001 7.661356e+001 1.970442e+002 1.156738e+002 1.184272e+002 1.120255e+002 6.918097e+000 3.693219e+000 6.180261e+000 5.725898e+000 5.966761e+000 3.834225e+000 1.929763e+000 3.336409e+000
<VARIANCE> 22
 1.745330e+001 2.173573e+002 3.300596e+000 1.550386e+001 7.735812e+002 3.901689e+003 3.402031e+002 8.093506e+002 7.604082e+001 4.503647e+002 7.899763e+002 3.847309e+003 1.949026e+002 1.497455e+002 4.033051e-001 1.871448e+000 1.604595e-001 3.836095e-001 7.649577e-002 8.370397e+000 5.635044e+000 5.302349e+000
<GCONST> 1.155876e+002
<MIXTURE> 2 5.685629e-001
<MEAN> 22
 7.482405e-001 7.188993e+000 3.665284e-001 1.246588e+000 5.865115e+000 1.328926e+002 8.820045e+001 6.550719e+001 5.630643e+001 8.178005e+001 1.851889e+002 4.758009e+001 1.108827e+002 1.006915e+002 6.999962e+000 2.051663e+000 6.000039e+000 5.920084e+000 6.000000e+000 3.928397e-001 1.264679e+000 2.781758e+000
<VARIANCE> 22
 4.801632e+000 8.274826e+001 3.300596e+000 2.183079e+000 4.956259e+001 7.963327e+002 1.097856e+002 4.639713e+002 3.176688e+001 2.012860e+002 2.274120e+002 3.432156e+002 6.331891e+001 7.309891e+001 6.504287e-002 8.519375e-002 2.326111e-002 3.394113e-001 2.082488e-002 2.405374e-001 4.610940e+000 6.035522e+000
<GCONST> 8.627533e+001
<STATE> 4
<NUMMIXES> 2
<MIXTURE> 1 7.684612e-001
<MEAN> 22
 1.034672e+001 1.472531e+000 2.335708e+000 6.278049e-001 1.005122e+002 1.828969e+001 7.754150e+001 9.857301e+001 8.321372e+001 5.705670e+001 9.409231e+001 1.990143e+002 1.100667e+002 1.183759e+002 3.143356e+000 5.000000e+000 6.206327e+000 5.906890e+000 4.250566e+000 5.995285e+000 3.286696e+000 1.984632e+000
<VARIANCE> 22
 1.441303e+002 5.115735e+000 9.654778e+000 2.164982e+000 3.752606e+003 7.145878e+002 6.612620e+002 1.880070e+002 3.747685e+002 4.910658e+001 4.728364e+003 3.672898e+002 2.774716e+002 1.253903e+002 5.950277e+000 1.793315e-002 3.056904e-001 8.444021e-002 1.557522e+000 5.618803e-002 6.128309e+000 5.803649e+000
<GCONST> 1.064946e+002
<MIXTURE> 2 2.315391e-001
<MEAN> 22
 7.745803e+000 7.282146e+000 1.617458e+000 2.458301e+000 5.284192e+001 2.996622e+001 7.124638e+001 5.516195e+001 7.593864e+001 5.983029e+001 9.134769e+001 1.358607e+002 1.042745e+002 1.057125e+002 2.880934e+000 4.178642e+000 5.425420e+000 5.781761e+000 4.158103e+000 5.357527e+000 2.726284e+000 2.698557e+000
<VARIANCE> 22
 9.015324e+001 1.125169e+002 5.118905e+000 1.330888e+001 3.401211e+003 1.099606e+003 1.123469e+003 1.004642e+003 3.392616e+002 7.273780e+001 4.099729e+003 1.891702e+003 1.482280e+002 1.214108e+002 6.128940e+000 1.075214e+000 3.946792e+000 2.350718e-001 1.595549e+000 5.591007e+000 5.879538e+000 6.167208e+000
<GCONST> 1.263156e+002
<TRANSP> 5
 0.000000e+000 1.000000e+000 0.000000e+000 0.000000e+000 0.000000e+000
 0.000000e+000 7.024457e-001 2.975543e-001 0.000000e+000 0.000000e+000
 0.000000e+000 0.000000e+000 9.570388e-001 4.296124e-002 0.000000e+000
 0.000000e+000 0.000000e+000 0.000000e+000 9.200416e-001 7.995842e-002
 0.000000e+000 0.000000e+000 0.000000e+000 0.000000e+000 0.000000e+000
<ENDHMM>
~h "TT"
<BEGINHMM>
<NUMSTATES> 5
<STATE> 2
<NUMMIXES> 2
<MIXTURE> 1 4.649620e-001
<MEAN> 22
 1.997655e+001 5.449144e+000 8.459566e+000 3.313799e+000 2.253853e+002 8.456005e+000 1.727072e+002 1.041186e+002 1.226013e+002 6.044278e+001 9.630070e+001 2.014229e+002 1.039813e+002 1.189847e+002 1.377200e+000 4.997136e+000 1.218138e+000 5.917737e+000 2.311874e+000 5.991387e+000 3.684354e+000 2.315704e+000
<VARIANCE> 22
 1.931219e+003 1.199314e+003 1.383657e+003 8.872391e+002 2.517470e+003 1.344173e+002 1.301072e+003 2.692321e+002 5.370163e+002 1.116467e+002 8.661371e+002 3.928434e+002 3.198521e+002 1.381851e+002 4.520652e-001 1.793315e-002 2.676119e+000 7.549690e-002 5.877249e-001 5.618803e-002 5.679016e+000 6.452596e+000
<GCONST> 1.228194e+002
<MIXTURE> 2 5.350382e-001
<MEAN> 22
 9.358342e+000 1.207986e+001 2.879504e+000 3.886747e+000 4.613567e+001 1.114239e+002 9.154036e+001 1.202591e+002 7.443559e+001 8.781802e+001 1.774602e+002 1.397067e+002 1.158439e+002 1.119114e+002 5.191198e+000 3.747091e+000 6.369029e+000 4.723630e+000 5.709152e+000 3.866325e+000 3.046913e+000 2.792745e+000
<VARIANCE> 22
 1.989560e+002 3.159690e+002 2.368876e+001 3.430317e+001 2.580113e+003 1.099085e+004 1.948029e+003 2.850922e+003 3.141597e+002 1.217119e+003 3.101741e+003 2.986300e+003 5.616560e+002 2.589820e+002 8.504850e+000 1.629359e+000 4.709179e-001 1.790268e+000 5.992357e-001 5.519192e+000 6.797296e+000 5.107171e+000
<GCONST> 1.388574e+002
<STATE> 3
<NUMMIXES> 2
<MIXTURE> 1 3.881747e-001
<MEAN> 22
 2.306699e+000 2.535303e+001 8.914076e-001 6.757368e+000 1.101690e+001 7.006287e+001 9.447105e+001 1.010287e+002 5.951176e+001 7.236369e+001 1.923278e+002 1.534302e+002 1.155037e+002 1.091547e+002 6.990926e+000 4.208524e+000 6.075667e+000 5.166605e+000 5.997166e+000 4.861119e+000 2.234917e+000 3.863423e+000
<VARIANCE> 22
 1.515018e+001 5.437806e+002 3.300596e+000 6.034960e+001 1.577218e+002 3.350437e+003 2.658514e+002 8.138698e+002 7.198584e+001 4.285349e+002 5.017669e+002 2.375540e+003 1.535513e+002 2.147861e+002 6.504287e-002 7.888151e-001 6.994286e-002 4.591235e-001 2.082488e-002 2.772946e+000 5.853994e+000 5.129382e+000
<GCONST> 1.090801e+002
<MIXTURE> 2 6.118253e-001
<MEAN> 22
 1.577798e+000 1.124299e+001 6.924519e-001 4.799641e+000 9.872154e+000 2.265289e+002 9.461893e+001 1.755800e+002 5.856600e+001 1.254942e+002 1.904917e+002 8.802377e+001 1.139769e+002 9.385505e+001 6.968489e+000 2.420075e+000 6.088324e+000 3.116484e+000 5.991417e+000 1.618353e+000 1.835883e+000 3.552777e+000
<VARIANCE> 22
 1.072414e+001 1.297596e+002 3.300596e+000 4.000235e+001 3.060019e+002 1.231004e+003 2.900724e+002 6.987536e+002 9.755183e+001 4.294718e+002 4.921150e+002 5.792816e+002 1.506700e+002 3.233988e+002 1.711427e-001 2.610976e-001 1.227126e-001 1.603052e-001 3.451669e-002 3.118323e-001 5.809515e+000 5.627995e+000
<GCONST> 1.035295e+002
<STATE> 4
<NUMMIXES> 2
<MIXTURE> 1 7.386916e-001
<MEAN> 22
 1.514031e+001 2.138122e+000 5.208110e+000 1.019690e+000 1.403627e+002 2.686110e+001 1.389253e+002 9.710034e+001 9.761889e+001 5.607470e+001 1.206312e+002 1.943917e+002 1.022990e+002 1.158484e+002 2.736972e+000 5.000016e+000 3.279270e+000 5.827523e+000 3.557078e+000 5.987927e+000 3.349514e+000 2.347521e+000
<VARIANCE> 22
 3.663322e+002 1.066325e+001 6.117466e+001 2.164982e+000 8.228820e+003 9.237000e+002 2.287367e+003 2.451471e+002 1.032176e+003 5.246978e+001 2.985762e+003 4.261242e+002 3.887586e+002 1.345900e+002 6.652574e+000 1.793315e-002 8.542390e+000 1.427316e-001 3.729239e+000 5.618803e-002 5.512903e+000 6.233068e+000
<GCONST> 1.185380e+002
<MIXTURE> 2 2.613086e-001
<MEAN> 22
 1.026045e+001 6.277251e+000 4.132305e+000 2.504455e+000 1.305297e+002 6.689964e+001 9.016367e+001 3.780116e+001 8.708286e+001 5.306470e+001 9.110051e+001 1.025080e+002 8.723767e+001 9.224020e+001 2.064799e+000 3.044348e+000 3.672514e+000 5.176182e+000 3.386897e+000 2.664539e+000 2.744314e+000 2.217139e+000
<VARIANCE> 22
 2.513457e+002 1.199705e+002 4.581654e+001 2.306021e+001 1.882377e+004 1.415412e+004 5.191120e+003 1.105754e+003 2.151454e+003 4.416739e+002 2.334250e+003 2.437302e+003 1.147124e+003 1.120464e+003 4.252473e+000 3.023758e+000 7.386741e+000 3.486178e+000 2.894822e+000 1.014679e+001 6.337680e+000 6.066143e+000
<GCONST> 1.488906e+002
<TRANSP> 5
 0.000000e+000 1.000000e+000 0.000000e+000 0.000000e+000 0.000000e+000
 0.000000e+000 8.327338e-001 1.672662e-001 0.000000e+000 0.000000e+000
 0.000000e+000 0.000000e+000 9.534320e-001 4.656804e-002 0.000000e+000
 0.000000e+000 0.000000e+000 0.000000e+000 9.197575e-001 8.024246e-002
 0.000000e+000 0.000000e+000 0.000000e+000 0.000000e+000 0.000000e+000
<ENDHMM>
~h "VA"
<BEGINHMM>
<NUMSTATES> 5
<STATE> 2
<NUMMIXES> 2
<MIXTURE> 1 4.466280e-001
<MEAN> 22
 1.678138e+001 1.222329e+001 7.616821e+000 4.994260e+000 8.587366e+001 3.536868e+001 1.213503e+002 9.601230e+001 8.855180e+001 6.265203e+001 1.567008e+002 1.894115e+002 1.139524e+002 1.170271e+002 4.214046e+000 4.827214e+000 4.909071e+000 5.686576e+000 4.562407e+000 5.903331e+000 2.989991e+000 2.492164e+000
<VARIANCE> 22
 1.791849e+003 1.552189e+003 1.269779e+003 7.940879e+002 9.163978e+003 1.519593e+003 3.647093e+003 6.390674e+002 1.043049e+003 1.363100e+002 5.186093e+003 1.106233e+003 4.654182e+002 1.898721e+002 8.742976e+000 1.905103e-001 6.865590e+000 2.275871e-001 3.772294e+000 3.723023e-001 5.670749e+000 5.274213e+000
<GCONST> 1.437173e+002
<MIXTURE> 2 5.533696e-001
<MEAN> 22
 8.231992e+000 1.208814e+001 3.772087e+000 4.436875e+000 1.744535e+002 2.340656e+002 8.021665e+001 1.170714e+002 6.566663e+001 9.041920e+001 1.167799e+002 6.887613e+001 8.380764e+001 7.872986e+001 3.176839e+000 2.097895e+000 4.479329e+000 3.281558e+000 4.076146e+000 1.349206e+000 2.491910e+000 2.655549e+000
<VARIANCE> 22
 3.525751e+002 2.180777e+002 8.462589e+001 3.591879e+001 3.818592e+004 9.996704e+003 3.188603e+003 5.825472e+003 1.312181e+003 2.332274e+003 6.562764e+003 2.297769e+003 2.315212e+003 1.515126e+003 9.092120e+000 1.269199e+000 7.268263e+000 3.210233e+000 4.852602e+000 1.784721e+000 6.205782e+000 5.102953e+000
<GCONST> 1.539436e+002
<STATE> 3
<NUMMIXES> 2
<MIXTURE> 1 5.582397e-001
<MEAN> 22
 1.768531e+000 1.991061e+001 7.527246e-001 7.069847e+000 8.075573e+000 8.658397e+001 9.114992e+001 8.769704e+001 5.700120e+001 7.981798e+001 1.887854e+002 1.179082e+002 1.130553e+002 9.990076e+001 6.995983e+000 3.762806e+000 6.020865e+000 5.233450e+000 6.000000e+000 4.072192e+000 2.014128e+000 3.716400e+000
<VARIANCE> 22
 8.117785e+000 3.728315e+002 3.300596e+000 5.044902e+001 7.562183e+001 3.729012e+003 2.107640e+002 7.794143e+002 6.417612e+001 4.426854e+002 4.114535e+002 3.903354e+003 1.199923e+002 4.108580e+002 6.504287e-002 1.355427e+000 2.326111e-002 5.744643e-001 2.082488e-002 6.652565e+000 5.961297e+000 5.232263e+000
<GCONST> 1.081916e+002
<MIXTURE> 2 4.417593e-001
<MEAN> 22
 2.848814e+000 9.937063e+000 1.500555e+000 3.985180e+000 1.529504e+001 2.212926e+002 9.072638e+001 1.681190e+002 5.645694e+001 1.154203e+002 1.849259e+002 8.147980e+001 1.120150e+002 7.930862e+001 6.836298e+000 2.352656e+000 6.062086e+000 3.134554e+000 5.908810e+000 1.746493e+000 2.335103e+000 3.297282e+000
<VARIANCE> 22
 2.433518e+001 1.336129e+002 1.115634e+001 2.214550e+001 8.737983e+002 2.788468e+003 4.253727e+002 1.462210e+003 1.367289e+002 5.500425e+002 1.028841e+003 1.128894e+003 2.222517e+002 3.573528e+002 8.739401e-001 3.591268e-001 3.427114e-001 7.011414e-001 2.048103e-001 7.070698e-001 6.285001e+000 5.432650e+000
<GCONST> 1.175658e+002
<STATE> 4
<NUMMIXES> 2
<MIXTURE> 1 7.407159e-001
<MEAN> 22
 1.463917e+001 2.629015e+000 5.230002e+000 1.247016e+000 1.390105e+002 1.792575e+001 1.345874e+002 9.822576e+001 9.951460e+001 5.584341e+001 1.228931e+002 1.962032e+002 9.732054e+001 1.159727e+002 3.113169e+000 5.001669e+000 3.703372e+000 5.848956e+000 3.802302e+000 5.987011e+000 3.338743e+000 2.460309e+000
<VARIANCE> 22
 2.924808e+002 1.905425e+001 4.247229e+001 3.718725e+000 8.532218e+003 6.367797e+002 2.768199e+003 2.165723e+002 8.778416e+002 8.663078e+001 4.380908e+003 3.513119e+002 5.205768e+002 1.258600e+002 7.079133e+000 1.793315e-002 8.635312e+000 1.282310e-001 3.663983e+000 5.618803e-002 5.999449e+000 6.308628e+000
<GCONST> 1.196001e+002
<MIXTURE> 2 2.592844e-001
<MEAN> 22
 6.899450e+000 6.624436e+000 3.010408e+000 2.871343e+000 7.513889e+001 3.655713e+001 9.511632e+001 4.645236e+001 8.526496e+001 5.656475e+001 7.622686e+001 1.043931e+002 9.219440e+001 1.017600e+002 2.340383e+000 3.095129e+000 3.835877e+000 5.544562e+000 3.423735e+000 2.833613e+000 2.972864e+000 2.678848e+000
<VARIANCE> 22
 1.038503e+002 1.778845e+002 2.463956e+001 2.361682e+001 2.882559e+003 1.099905e+003 3.728967e+003 4.819220e+002 3.885899e+002 1.121778e+002 1.501039e+003 8.051612e+002 4.202211e+002 1.070186e+002 2.262361e+000 1.492838e+000 6.787668e+000 3.000689e-001 1.130552e+000 8.281780e+000 6.303339e+000 6.302955e+000
<GCONST> 1.292434e+002
<TRANSP> 5
 0.000000e+000 1.000000e+000 0.000000e+000 0.000000e+000 0.000000e+000
 0.000000e+000 7.397656e-001 2.602344e-001 0.000000e+000 0.000000e+000
 0.000000e+000 0.000000e+000 9.438708e-001 5.612914e-002 0.000000e+000
 0.000000e+000 0.000000e+000 0.000000e+000 9.207472e-001 7.925277e-002
 0.000000e+000 0.000000e+000 0.000000e+000 0.000000e+000 0.000000e+000
<ENDHMM>
~h "VQ"
<BEGINHMM>
<NUMSTATES> 5
<STATE> 2
<NUMMIXES> 2
<MIXTURE> 1 1.781293e-001
<MEAN> 22
 2.166467e+001 3.018698e+001 1.417180e+001 1.552200e+001 5.317145e+001 1.222985e+002 7.526445e+001 9.475291e+001 6.708251e+001 6.521289e+001 1.365033e+002 7.301244e+001 9.815357e+001 9.363870e+001 4.213670e+000 2.888771e+000 5.678198e+000 4.585755e+000 5.075357e+000 2.514409e+000 2.831908e+000 3.240976e+000
<VARIANCE> 22
 5.793938e+003 4.296959e+003 4.567181e+003 2.932668e+003 7.015046e+003 5.120109e+003 1.246013e+003 1.283736e+003 2.830629e+002 2.524625e+002 3.046861e+003 1.850203e+003 7.191257e+002 3.505097e+002 8.962553e+000 9.769571e-001 3.234201e+000 1.006234e+000 2.152240e+000 3.379934e+000 6.548346e+000 4.756966e+000
<GCONST> 1.534880e+002
<MIXTURE> 2 8.218706e-001
<MEAN> 22
 1.165837e+001 2.992592e+000 4.089186e+000 1.316418e+000 1.065659e+002 2.207459e+001 1.012290e+002 7.224215e+001 7.852396e+001 5.486201e+001 8.254024e+001 1.596943e+002 9.693110e+001 1.098064e+002 2.363173e+000 4.237529e+000 3.480131e+000 5.711606e+000 3.267399e+000 4.911705e+000 3.533690e+000 2.492974e+000
<VARIANCE> 22
 2.031619e+002 2.057868e+001 3.027921e+001 4.682131e+000 5.683076e+003 4.455531e+002 2.461702e+003 1.013336e+003 3.437928e+002 6.400913e+001 2.969695e+003 2.069156e+003 3.678342e+002 1.306575e+002 3.974081e+000 1.653355e+000 8.923572e+000 2.053188e-001 2.342818e+000 5.280493e+000 5.923678e+000 5.935848e+000
<GCONST> 1.281738e+002
<STATE> 3
<NUMMIXES> 2
<MIXTURE> 1 5.109612e-001
<MEAN> 22
 2.633275e+000 1.979300e+001 8.504632e-001 5.768335e+000 9.079912e+000 1.024537e+002 9.882697e+001 9.545364e+001 6.013741e+001 7.198760e+001 2.001302e+002 1.194386e+002 1.197071e+002 1.054093e+002 6.997581e+000 3.748117e+000 6.122442e+000 5.042799e+000 5.998555e+000 4.023305e+000 2.170759e+000 3.841042e+000
<VARIANCE> 22
 2.277010e+001 3.278852e+002 3.300596e+000 5.384205e+001 1.278904e+002 7.161169e+003 4.297767e+002 1.990930e+003 8.828484e+001 3.616114e+002 7.894896e+002 3.172351e+003 2.593252e+002 2.576522e+002 6.504287e-002 1.309018e+000 1.074478e-001 1.055013e+000 2.082488e-002 5.495726e+000 6.171561e+000 4.880176e+000
<GCONST> 1.147301e+002
<MIXTURE> 2 4.890382e-001
<MEAN> 22
 1.137094e+000 6.077844e+000 7.137255e-001 3.041780e+000 1.003576e+001 1.642048e+002 8.414978e+001 1.149028e+002 5.274523e+001 7.436552e+001 1.791789e+002 4.565715e+001 1.073529e+002 8.147691e+001 6.943727e+000 2.387642e+000 6.050700e+000 4.091027e+000 5.961876e+000 1.754589e+000 1.686147e+000 3.483485e+000
<VARIANCE> 22
 4.801632e+000 3.792256e+001 3.300596e+000 1.412111e+001 6.348858e+002 1.482511e+003 1.827201e+002 7.210104e+002 5.976064e+001 2.017755e+002 4.159467e+002 4.142057e+002 8.775193e+001 2.410736e+002 2.958173e-001 2.821153e-001 1.501235e-001 6.689522e-001 1.169100e-001 3.432009e-001 5.436976e+000 6.168670e+000
<GCONST> 1.019523e+002
<STATE> 4
<NUMMIXES> 2
<MIXTURE> 1 9.047827e-001
<MEAN> 22
 1.039623e+001 3.026750e+000 3.884067e+000 1.217039e+000 9.582981e+001 2.348705e+001 1.054241e+002 9.443085e+001 7.504472e+001 5.372143e+001 1.079521e+002 1.928682e+002 1.003642e+002 1.143064e+002 3.263131e+000 4.999553e+000 4.282001e+000 5.860821e+000 3.897706e+000 5.995306e+000 3.501152e+000 2.456507e+000
<VARIANCE> 22
 1.649830e+002 2.832772e+001 3.040370e+001 4.129031e+000 5.258334e+003 9.913510e+002 9.813908e+002 2.028946e+002 4.318309e+002 6.464717e+001 4.819119e+003 3.127528e+002 3.998465e+002 1.147221e+002 7.742067e+000 1.793315e-002 8.725501e+000 1.198065e-001 3.560209e+000 5.618803e-002 5.860538e+000 6.147691e+000
<GCONST> 1.166252e+002
<MIXTURE> 2 9.521743e-002
<MEAN> 22
 2.852268e+000 4.046374e+000 1.393574e+000 1.708866e+000 4.108283e+002 3.199050e+002 3.905590e+001 3.740240e+001 2.596778e+001 2.719022e+001 5.297261e+001 3.289529e+001 3.988488e+001 3.981724e+001 1.793746e+000 1.226027e+000 2.088691e+000 1.922287e+000 1.731713e+000 9.504606e-001 9.697177e-001 1.641779e+000
<VARIANCE> 22
 6.931731e+001 9.168298e+001 1.298203e+001 1.725303e+001 4.691470e+004 1.995870e+004 2.845318e+003 2.646742e+003 1.030667e+003 1.141896e+003 5.986241e+003 2.344552e+003 2.474331e+003 2.433455e+003 7.723633e+000 2.566477e+000 8.603333e+000 5.723374e+000 5.909213e+000 2.711134e+000 3.638562e+000 5.942734e+000
<GCONST> 1.498713e+002
<TRANSP> 5
 0.000000e+000 1.000000e+000 0.000000e+000 0.000000e+000 0.000000e+000
 0.000000e+000 8.546782e-001 1.453218e-001 0.000000e+000 0.000000e+000
 0.000000e+000 0.000000e+000 9.443725e-001 5.562755e-002 0.000000e+000
 0.000000e+000 0.000000e+000 0.000000e+000 8.852898e-001 1.147102e-001
 0.000000e+000 0.000000e+000 0.000000e+000 0.000000e+000 0.000000e+000
<ENDHMM>
~h "SIL"
<BEGINHMM>
<NUMSTATES> 5
<STATE> 2
<NUMMIXES> 2
<MIXTURE> 1 1.629990e-001
<MEAN> 22
 4.894458e+002 4.131615e+002 4.452058e+002 3.567976e+002 8.739728e-001 1.242305e+000 3.966651e+001 3.896394e+001 2.806314e+001 2.654129e+001 7.763227e+001 7.461507e+001 4.931003e+001 4.857257e+001 2.752944e+000 1.992225e+000 2.639415e+000 2.526753e+000 2.480799e+000 2.332560e+000 4.667042e+000 4.664057e+000
<VARIANCE> 22
 6.519303e+003 4.041198e+003 4.551318e+003 3.285080e+003 6.610287e+001 1.564548e+002 2.347882e+003 2.294176e+003 1.092313e+003 1.015270e+003 8.563406e+003 8.144933e+003 3.232000e+003 3.132264e+003 1.120266e+001 5.743145e+000 9.250929e+000 8.403933e+000 8.294614e+000 8.441859e+000 4.023090e+000 4.056654e+000
<GCONST> 1.624523e+002
<MIXTURE> 2 8.370011e-001
<MEAN> 22
 0.000000e+000 0.000000e+000 0.000000e+000 0.000000e+000 3.661401e+001 2.963471e+001 0.000000e+000 0.000000e+000 0.000000e+000 0.000000e+000 0.000000e+000 0.000000e+000 0.000000e+000 0.000000e+000 0.000000e+000 0.000000e+000 0.000000e+000 0.000000e+000 0.000000e+000 0.000000e+000 0.000000e+000 0.000000e+000
<VARIANCE> 22
 4.801632e+000 4.063125e+000 3.300596e+000 2.164982e+000 1.817516e+004 1.195248e+004 9.838196e+000 1.115232e+001 2.936353e+000 3.516743e+000 3.745900e+001 4.440890e+001 4.184655e+000 3.870682e+000 6.504287e-002 1.793315e-002 2.326111e-002 1.170389e-002 2.082488e-002 5.618803e-002 6.153807e-002 6.060927e-002
<GCONST> 5.449670e+001
<STATE> 3
<NUMMIXES> 2
<MIXTURE> 1 7.784476e-001
<MEAN> 22
 1.417111e+000 1.830346e+000 6.012096e-001 7.575622e-001 7.958869e+000 9.862755e+000 1.013046e+002 9.785599e+001 6.364895e+001 5.940611e+001 1.986971e+002 1.964015e+002 1.187756e+002 1.174087e+002 6.999702e+000 5.000002e+000 6.125591e+000 5.906627e+000 6.001798e+000 6.000611e+000 1.986449e+000 2.013154e+000
<VARIANCE> 22
 4.948247e+000 7.087790e+000 3.300596e+000 2.164982e+000 6.984247e+001 1.200205e+002 3.562878e+002 2.293465e+002 1.045295e+002 8.031038e+001 5.958987e+002 4.435735e+002 2.075400e+002 1.454019e+002 6.504287e-002 1.793315e-002 1.097158e-001 8.470041e-002 2.082488e-002 5.618803e-002 5.625180e+000 5.625124e+000
<GCONST> 8.340875e+001
<MIXTURE> 2 2.215580e-001
<MEAN> 22
 8.902485e+000 1.133889e+001 2.259796e+000 2.854284e+000 5.407840e+001 6.141865e+001 8.179230e+001 7.936147e+001 6.959377e+001 6.418655e+001 1.453002e+002 1.414025e+002 1.086901e+002 1.090112e+002 4.589602e+000 4.081193e+000 5.908789e+000 5.526368e+000 5.058969e+000 4.549354e+000 2.479520e+000 2.487320e+000
<VARIANCE> 22
 1.791953e+002 2.151698e+002 1.471327e+001 1.608437e+001 2.827671e+003 2.821467e+003 1.375833e+003 1.261162e+003 2.697989e+002 2.063994e+002 3.537930e+003 3.560544e+003 3.830965e+002 2.145018e+002 8.450228e+000 1.672685e+000 2.146466e+000 4.959786e-001 2.022344e+000 6.065647e+000 5.213532e+000 4.716280e+000
<GCONST> 1.337321e+002
<STATE> 4
<NUMMIXES> 2
<MIXTURE> 1 2.365742e-001
<MEAN> 22
 5.715675e-001 1.103765e+000 2.789601e-001 6.301848e-001 3.986011e+000 4.111739e+000 1.063355e+002 1.138262e+002 6.400096e+001 6.617416e+001 2.298196e+002 2.341063e+002 1.356083e+002 1.379985e+002 7.000000e+000 5.000000e+000 6.000167e+000 5.997325e+000 6.000000e+000 6.000000e+000 9.851761e-001 1.466109e+000
<VARIANCE> 22
 4.801632e+000 5.072751e+000 3.300596e+000 2.196788e+000 4.956259e+001 5.429972e+001 1.149875e+001 1.305711e+001 3.890900e+000 7.101089e+000 3.745900e+001 4.440890e+001 6.502032e+000 7.676440e+000 6.504287e-002 1.793315e-002 2.326111e-002 1.170389e-002 2.082488e-002 5.618803e-002 3.574092e+000 4.653248e+000
<GCONST> 5.426041e+001
<MIXTURE> 2 7.634261e-001
<MEAN> 22
 1.023726e+000 1.611106e+000 4.000829e-001 6.269469e-001 4.851451e+000 6.054394e+000 8.671067e+001 8.621533e+001 5.627168e+001 5.497480e+001 1.822941e+002 1.819083e+002 1.105376e+002 1.100634e+002 6.990262e+000 4.994121e+000 6.006905e+000 5.976624e+000 5.996633e+000 5.992774e+000 1.769556e+000 1.903315e+000
<VARIANCE> 22
 4.801632e+000 1.133263e+001 3.300596e+000 2.164982e+000 7.009666e+001 8.370650e+001 5.061239e+001 5.365533e+001 2.204903e+001 4.098757e+001 1.101365e+002 1.286566e+002 3.358629e+001 3.759293e+001 6.504287e-002 1.793315e-002 2.326111e-002 2.464317e-002 2.082488e-002 5.618803e-002 5.365757e+000 5.872036e+000
<GCONST> 6.896830e+001
<TRANSP> 5
 0.000000e+000 1.000000e+000 0.000000e+000 0.000000e+000 0.000000e+000
 0.000000e+000 9.079396e-001 9.206044e-002 0.000000e+000 0.000000e+000
 0.000000e+000 0.000000e+000 9.973096e-001 2.690368e-003 0.000000e+000
 0.000000e+000 0.000000e+000 0.000000e+000 9.924670e-001 7.533039e-003
 0.000000e+000 0.000000e+000 0.000000e+000 0.000000e+000 0.000000e+000
<ENDHMM>
