~h "sp" 
    <BEGINHMM>
    <NUMSTATES> 3
    <STATE> 2
    <MEAN> 39
     -1.319772e+01 -9.038961e+00 -1.108351e+01 -1.243040e+01 -1.022873e+01 -1.706827e+01 -1.152987e+01 -1.049043e+01 -6.034304e+00 -4.089308e+00 -6.139764e+00 -2.022363e+00 6.129137e+01 -4.271566e-04 -8.457809e-04 -1.033551e-03 -1.155566e-03 -2.890874e-04 -1.493181e-04 -3.226257e-04 -2.625964e-04 -2.271144e-04 -3.901320e-04 -9.017265e-04 -4.327024e-04 2.725322e-03 1.152926e-04 2.155173e-04 2.128626e-04 2.850422e-04 1.364733e-04 2.698462e-04 1.695745e-04 2.361714e-04 1.695366e-04 2.514447e-04 2.044179e-04 1.883628e-04 -9.818382e-04
    <VARIANCE> 39
     2.783794e+01 2.297376e+01 3.076931e+01 3.271989e+01 4.105012e+01 4.059427e+01 4.282089e+01 4.862239e+01 4.669256e+01 3.767962e+01 4.368436e+01 3.209296e+01 7.211475e+01 9.491405e-01 9.680762e-01 1.318852e+00 1.609726e+00 2.065146e+00 2.252783e+00 2.523872e+00 2.860586e+00 2.797861e+00 2.643950e+00 2.519855e+00 2.190225e+00 7.992324e-01 1.414735e-01 1.569663e-01 2.209095e-01 2.846440e-01 3.650068e-01 4.139646e-01 4.690615e-01 5.366086e-01 5.340066e-01 5.102930e-01 4.816671e-01 4.270204e-01 1.024738e-01
    <GCONST> 1.117733e+02
    <TRANSP> 3
     0.000000e+00 1.000000e+00 0.000000e+00
     0.000000e+00 9.000000e-01 9.999999e-02
     0.000000e+00 0.000000e+00 0.000000e+00
    <ENDHMM>
~h "noise" 
    <BEGINHMM>
    <NUMSTATES> 3
    <STATE> 2
    <MEAN> 39
     -1.319772e+01 -9.038961e+00 -1.108351e+01 -1.243040e+01 -1.022873e+01 -1.706827e+01 -1.152987e+01 -1.049043e+01 -6.034304e+00 -4.089308e+00 -6.139764e+00 -2.022363e+00 6.129137e+01 -4.271566e-04 -8.457809e-04 -1.033551e-03 -1.155566e-03 -2.890874e-04 -1.493181e-04 -3.226257e-04 -2.625964e-04 -2.271144e-04 -3.901320e-04 -9.017265e-04 -4.327024e-04 2.725322e-03 1.152926e-04 2.155173e-04 2.128626e-04 2.850422e-04 1.364733e-04 2.698462e-04 1.695745e-04 2.361714e-04 1.695366e-04 2.514447e-04 2.044179e-04 1.883628e-04 -9.818382e-04
    <VARIANCE> 39
     2.783794e+01 2.297376e+01 3.076931e+01 3.271989e+01 4.105012e+01 4.059427e+01 4.282089e+01 4.862239e+01 4.669256e+01 3.767962e+01 4.368436e+01 3.209296e+01 7.211475e+01 9.491405e-01 9.680762e-01 1.318852e+00 1.609726e+00 2.065146e+00 2.252783e+00 2.523872e+00 2.860586e+00 2.797861e+00 2.643950e+00 2.519855e+00 2.190225e+00 7.992324e-01 1.414735e-01 1.569663e-01 2.209095e-01 2.846440e-01 3.650068e-01 4.139646e-01 4.690615e-01 5.366086e-01 5.340066e-01 5.102930e-01 4.816671e-01 4.270204e-01 1.024738e-01
    <GCONST> 1.117733e+02
    <TRANSP> 3
     0.000000e+00 1.000000e+00 0.000000e+00
     0.000000e+00 9.000000e-01 9.999999e-02
     0.000000e+00 0.000000e+00 0.000000e+00
    <ENDHMM>
~h "sil" 
    <BEGINHMM>
    <NUMSTATES> 3
    <STATE> 2
    <MEAN> 39
     -1.319772e+01 -9.038961e+00 -1.108351e+01 -1.243040e+01 -1.022873e+01 -1.706827e+01 -1.152987e+01 -1.049043e+01 -6.034304e+00 -4.089308e+00 -6.139764e+00 -2.022363e+00 6.129137e+01 -4.271566e-04 -8.457809e-04 -1.033551e-03 -1.155566e-03 -2.890874e-04 -1.493181e-04 -3.226257e-04 -2.625964e-04 -2.271144e-04 -3.901320e-04 -9.017265e-04 -4.327024e-04 2.725322e-03 1.152926e-04 2.155173e-04 2.128626e-04 2.850422e-04 1.364733e-04 2.698462e-04 1.695745e-04 2.361714e-04 1.695366e-04 2.514447e-04 2.044179e-04 1.883628e-04 -9.818382e-04
    <VARIANCE> 39
     2.783794e+01 2.297376e+01 3.076931e+01 3.271989e+01 4.105012e+01 4.059427e+01 4.282089e+01 4.862239e+01 4.669256e+01 3.767962e+01 4.368436e+01 3.209296e+01 7.211475e+01 9.491405e-01 9.680762e-01 1.318852e+00 1.609726e+00 2.065146e+00 2.252783e+00 2.523872e+00 2.860586e+00 2.797861e+00 2.643950e+00 2.519855e+00 2.190225e+00 7.992324e-01 1.414735e-01 1.569663e-01 2.209095e-01 2.846440e-01 3.650068e-01 4.139646e-01 4.690615e-01 5.366086e-01 5.340066e-01 5.102930e-01 4.816671e-01 4.270204e-01 1.024738e-01
    <GCONST> 1.117733e+02
    <TRANSP> 3
     0.000000e+00 1.000000e+00 0.000000e+00
     0.000000e+00 9.000000e-01 9.999999e-02
     0.000000e+00 0.000000e+00 0.000000e+00
    <ENDHMM>
~h "oov" 
    <BEGINHMM>
    <NUMSTATES> 3
    <STATE> 2
    <MEAN> 39
     -1.319772e+01 -9.038961e+00 -1.108351e+01 -1.243040e+01 -1.022873e+01 -1.706827e+01 -1.152987e+01 -1.049043e+01 -6.034304e+00 -4.089308e+00 -6.139764e+00 -2.022363e+00 6.129137e+01 -4.271566e-04 -8.457809e-04 -1.033551e-03 -1.155566e-03 -2.890874e-04 -1.493181e-04 -3.226257e-04 -2.625964e-04 -2.271144e-04 -3.901320e-04 -9.017265e-04 -4.327024e-04 2.725322e-03 1.152926e-04 2.155173e-04 2.128626e-04 2.850422e-04 1.364733e-04 2.698462e-04 1.695745e-04 2.361714e-04 1.695366e-04 2.514447e-04 2.044179e-04 1.883628e-04 -9.818382e-04
    <VARIANCE> 39
     2.783794e+01 2.297376e+01 3.076931e+01 3.271989e+01 4.105012e+01 4.059427e+01 4.282089e+01 4.862239e+01 4.669256e+01 3.767962e+01 4.368436e+01 3.209296e+01 7.211475e+01 9.491405e-01 9.680762e-01 1.318852e+00 1.609726e+00 2.065146e+00 2.252783e+00 2.523872e+00 2.860586e+00 2.797861e+00 2.643950e+00 2.519855e+00 2.190225e+00 7.992324e-01 1.414735e-01 1.569663e-01 2.209095e-01 2.846440e-01 3.650068e-01 4.139646e-01 4.690615e-01 5.366086e-01 5.340066e-01 5.102930e-01 4.816671e-01 4.270204e-01 1.024738e-01
    <GCONST> 1.117733e+02
    <TRANSP> 3
     0.000000e+00 1.000000e+00 0.000000e+00
     0.000000e+00 9.000000e-01 9.999999e-02
     0.000000e+00 0.000000e+00 0.000000e+00
    <ENDHMM>
