~o
<STREAMINFO> 1 22
<VECSIZE> 22<NULLD><MFCC_0><DIAGC>
~h "BN"
<BEGINHMM>
<NUMSTATES> 5
<STATE> 2
<NUMMIXES> 2
<MIXTURE> 1 3.222153e-001
<MEAN> 22
 9.058552e+000 1.369069e+001 5.268274e+000 5.497150e+000 1.839249e+001 2.195365e+001 8.100348e+001 7.352605e+001 5.903452e+001 5.571828e+001 1.771452e+002 1.679133e+002 1.101433e+002 1.080633e+002 6.885662e+000 5.027277e+000 6.066915e+000 5.906243e+000 5.812046e+000 6.124480e+000 2.423545e+000 2.224284e+000
<VARIANCE> 22
 2.371468e+003 1.601935e+003 1.909427e+003 1.207008e+003 4.138281e+002 4.118802e+002 6.029294e+002 5.678773e+002 6.506356e+001 5.867000e+001 8.862418e+002 1.009530e+003 1.600325e+002 1.608979e+002 1.658591e-001 1.557311e-001 6.243721e-002 8.496656e-002 1.587176e-001 2.401403e-001 5.722518e+000 4.020852e+000
<GCONST> 1.181050e+002
<MIXTURE> 2 6.777846e-001
<MEAN> 22
 5.999059e+000 8.117882e+000 1.640116e+000 2.699882e+000 1.445949e+002 1.577371e+002 7.180713e+001 8.489186e+001 7.007872e+001 7.181458e+001 1.080106e+002 7.299161e+001 9.332639e+001 9.218365e+001 3.038805e+000 2.481423e+000 4.679658e+000 4.063779e+000 4.063997e+000 2.080385e+000 2.288273e+000 2.373209e+000
<VARIANCE> 22
 1.251771e+002 2.308021e+002 1.018232e+001 1.636670e+001 3.282789e+004 1.701069e+004 2.333204e+003 2.679826e+003 9.717787e+002 1.147498e+003 5.848071e+003 3.371226e+003 1.734550e+003 1.335390e+003 8.175845e+000 2.128777e+000 7.473416e+000 3.323580e+000 3.673495e+000 5.332768e+000 6.089504e+000 5.744893e+000
<GCONST> 1.495855e+002
<STATE> 3
<NUMMIXES> 2
<MIXTURE> 1 3.951273e-001
<MEAN> 22
 1.495961e+000 2.090090e+001 4.973976e-001 5.308612e+000 7.514223e+000 1.375007e+002 1.005060e+002 1.021886e+002 6.225383e+001 8.577182e+001 2.038625e+002 8.323103e+001 1.219415e+002 1.107290e+002 6.998806e+000 3.016201e+000 6.103713e+000 4.616043e+000 5.998216e+000 2.544437e+000 1.744833e+000 3.628160e+000
<VARIANCE> 22
 9.949867e+000 3.739353e+002 3.300596e+000 2.866307e+001 9.944174e+001 5.770782e+003 3.279220e+002 1.654917e+003 6.847890e+001 5.734711e+002 6.677593e+002 2.890056e+003 2.275769e+002 1.777811e+002 6.504287e-002 1.230698e+000 9.355198e-002 8.813857e-001 2.082488e-002 5.664480e+000 5.515434e+000 5.332530e+000
<GCONST> 1.115517e+002
<MIXTURE> 2 6.048736e-001
<MEAN> 22
 8.935049e-001 4.840450e+000 4.311470e-001 1.557238e+000 9.857950e+000 1.724858e+002 8.686313e+001 1.186943e+002 5.626272e+001 8.848958e+001 1.807193e+002 3.179387e+001 1.098038e+002 9.650065e+001 6.932817e+000 2.061653e+000 6.005929e+000 3.674828e+000 5.960532e+000 1.102482e+000 1.364896e+000 2.641881e+000
<VARIANCE> 22
 4.801632e+000 4.253975e+001 3.300596e+000 3.524592e+000 5.815161e+002 9.745775e+002 1.364465e+002 2.004839e+002 5.582156e+001 2.622597e+002 4.148055e+002 3.304581e+002 6.233529e+001 8.255672e+001 3.639515e-001 1.163630e-001 2.316434e-001 4.732563e-001 1.157439e-001 3.006534e-001 4.862489e+000 5.962239e+000
<GCONST> 9.627304e+001
<STATE> 4
<NUMMIXES> 2
<MIXTURE> 1 4.299849e-001
<MEAN> 22
 1.393893e+001 5.087317e+000 3.118931e+000 1.659988e+000 5.256216e+001 2.392040e+001 8.763026e+001 9.489578e+001 7.148236e+001 5.804126e+001 1.544286e+002 1.940916e+002 1.144827e+002 1.168718e+002 4.876454e+000 4.992383e+000 6.402226e+000 5.852180e+000 5.200029e+000 6.011220e+000 3.653234e+000 2.779006e+000
<VARIANCE> 22
 3.026331e+002 6.847910e+001 2.007550e+001 6.320996e+000 2.873789e+003 8.693224e+002 6.200593e+002 3.242825e+002 2.774346e+002 6.500981e+001 3.841811e+003 5.124230e+002 2.725088e+002 1.198346e+002 8.433780e+000 2.197251e-002 2.431050e-001 1.259686e-001 1.755513e+000 5.618803e-002 5.908288e+000 6.561604e+000
<GCONST> 1.130146e+002
<MIXTURE> 2 5.700150e-001
<MEAN> 22
 6.141470e+000 1.616461e+000 2.549418e+000 7.405106e-001 1.634615e+002 1.813597e+001 1.268630e+002 8.620525e+001 9.192522e+001 5.856691e+001 3.475786e+001 1.794249e+002 9.917844e+001 1.150795e+002 1.972159e+000 4.712277e+000 7.699631e-001 5.817852e+000 2.863435e+000 5.641350e+000 2.997263e+000 1.931174e+000
<VARIANCE> 22
 8.374674e+001 1.231783e+001 1.790117e+001 2.164982e+000 3.851655e+003 7.591642e+002 3.753904e+002 7.984734e+002 3.252845e+002 6.827063e+001 3.759771e+002 1.720001e+003 2.196093e+002 1.705970e+002 3.707033e-001 4.321820e-001 1.578289e+000 1.849844e-001 2.658547e-001 2.619578e+000 6.211843e+000 5.672259e+000
<GCONST> 1.125854e+002
<TRANSP> 5
 0.000000e+000 1.000000e+000 0.000000e+000 0.000000e+000 0.000000e+000
 0.000000e+000 8.126811e-001 1.873188e-001 0.000000e+000 0.000000e+000
 0.000000e+000 0.000000e+000 9.555770e-001 4.442303e-002 0.000000e+000
 0.000000e+000 0.000000e+000 0.000000e+000 9.267861e-001 7.321398e-002
 0.000000e+000 0.000000e+000 0.000000e+000 0.000000e+000 0.000000e+000
<ENDHMM>
~h "BS"
<BEGINHMM>
<NUMSTATES> 5
<STATE> 2
<NUMMIXES> 2
<MIXTURE> 1 7.178141e-002
<MEAN> 22
 3.623659e+001 3.409732e+001 2.237200e+001 1.941913e+001 4.427773e+002 3.206560e+002 1.035969e+002 9.482438e+001 6.817529e+001 6.613392e+001 1.602777e+002 1.473222e+002 1.129496e+002 1.129297e+002 1.545233e+000 3.840715e+000 6.706860e+000 5.318790e+000 3.311329e+000 4.119639e+000 1.844846e+000 2.428158e+000
<VARIANCE> 22
 9.814375e+003 7.296979e+003 8.615814e+003 5.660324e+003 3.453821e+004 1.470672e+004 1.749245e+003 1.433738e+003 3.405376e+001 2.161806e+001 1.305186e+003 8.861052e+002 1.214540e+002 7.798920e+001 6.924234e+000 1.453483e+000 2.072093e-001 2.342474e-001 8.709498e+000 3.379974e+000 5.755061e+000 6.072960e+000
<GCONST> 1.469419e+002
<MIXTURE> 2 9.282181e-001
<MEAN> 22
 1.341603e+001 1.323301e+001 2.281548e+000 2.319267e+000 5.144331e+001 5.055249e+001 6.430743e+001 6.219817e+001 6.351038e+001 6.026550e+001 1.551652e+002 1.513810e+002 1.091354e+002 1.085643e+002 5.804168e+000 4.626359e+000 5.990018e+000 5.830292e+000 5.400435e+000 5.594015e+000 2.755142e+000 1.972906e+000
<VARIANCE> 22
 1.670158e+002 1.525024e+002 5.826671e+000 6.241072e+000 4.326288e+003 3.240599e+003 1.015291e+003 9.381993e+002 1.504136e+002 1.522831e+002 1.857683e+003 1.932716e+003 3.309371e+002 2.955631e+002 5.168293e+000 1.390674e+000 5.863436e-001 5.159209e-001 9.685869e-001 4.093881e+000 3.090132e+000 3.815916e+000
<GCONST> 1.256404e+002
<STATE> 3
<NUMMIXES> 2
<MIXTURE> 1 4.216591e-001
<MEAN> 22
 1.461668e+001 1.489797e+001 3.551365e+000 3.461378e+000 1.313838e+002 1.237766e+002 1.460626e+002 1.412767e+002 8.889454e+001 7.862885e+001 1.533435e+002 1.606652e+002 1.164051e+002 1.148981e+002 4.455954e-001 3.717294e+000 4.420188e+000 4.724350e+000 1.809381e+000 3.837217e+000 2.919947e+000 3.873318e+000
<VARIANCE> 22
 4.226727e+002 4.384373e+002 1.895763e+001 2.097256e+001 1.503510e+003 1.696714e+003 1.001965e+003 8.866290e+002 1.838418e+002 2.648430e+002 2.128440e+003 1.291681e+003 1.775456e+002 1.377006e+002 3.208911e-001 3.389673e-001 1.126261e+001 2.555490e-001 6.095071e+000 9.207934e-001 6.452796e+000 5.581733e+000
<GCONST> 1.268697e+002
<MIXTURE> 2 5.783403e-001
<MEAN> 22
 2.167849e+001 2.236030e+001 3.702226e+000 3.626480e+000 9.301561e+001 9.542608e+001 4.760528e+001 4.880214e+001 6.499601e+001 6.075270e+001 9.449557e+001 9.335982e+001 1.004090e+002 1.011671e+002 2.131155e+000 2.828219e+000 6.146228e+000 5.755056e+000 4.138139e+000 2.384951e+000 2.709800e+000 2.834397e+000
<VARIANCE> 22
 3.482169e+002 3.624896e+002 2.332353e+001 1.807121e+001 1.586944e+003 1.263872e+003 6.474654e+002 6.516843e+002 1.174051e+002 1.226802e+002 9.102195e+002 8.195403e+002 1.168564e+002 9.933939e+001 4.013501e+000 2.175970e+000 3.712687e-001 3.718701e-001 1.894809e+000 7.797755e+000 5.361369e+000 4.384287e+000
<GCONST> 1.241815e+002
<STATE> 4
<NUMMIXES> 2
<MIXTURE> 1 4.466764e-001
<MEAN> 22
 9.205324e+000 8.844130e+000 2.483764e+000 2.143961e+000 3.442860e+001 3.514241e+001 1.024519e+002 9.970881e+001 6.545358e+001 6.012410e+001 1.934989e+002 1.913874e+002 1.153054e+002 1.146575e+002 6.724585e+000 4.942700e+000 6.440867e+000 5.518786e+000 6.059242e+000 5.833780e+000 3.869973e+000 3.684440e+000
<VARIANCE> 22
 8.307663e+001 7.902167e+001 7.269310e+000 5.496552e+000 1.081941e+003 8.341141e+002 5.906677e+002 4.288690e+002 1.053762e+002 8.694095e+001 7.743482e+002 6.604016e+002 1.879073e+002 1.458459e+002 1.626383e+000 1.311517e-001 2.841508e-001 2.502677e-001 1.951952e-001 3.228774e-001 4.475817e+000 8.365356e+000
<GCONST> 1.082220e+002
<MIXTURE> 2 5.533237e-001
<MEAN> 22
 6.317393e+000 6.044448e+000 1.762485e+000 1.640717e+000 9.048798e+001 8.907349e+001 1.169043e+002 1.179841e+002 6.846062e+001 6.380717e+001 1.566570e+002 1.560797e+002 1.052539e+002 1.048861e+002 7.469088e-003 3.999265e+000 6.999494e+000 5.000000e+000 3.505939e+000 4.354918e+000 3.061260e+000 3.803594e+000
<VARIANCE> 22
 6.462270e+001 5.840511e+001 5.952271e+000 5.045810e+000 7.152335e+002 6.527576e+002 5.865214e+002 5.132124e+002 9.809216e+001 1.273577e+002 4.215626e+002 4.578993e+002 7.311034e+001 7.983530e+001 6.504287e-002 1.793315e-002 2.326111e-002 1.170389e-002 1.191352e+001 2.649008e-001 6.494905e+000 7.382481e+000
<GCONST> 9.807256e+001
<TRANSP> 5
 0.000000e+000 1.000000e+000 0.000000e+000 0.000000e+000 0.000000e+000
 0.000000e+000 7.694520e-001 2.305480e-001 0.000000e+000 0.000000e+000
 0.000000e+000 0.000000e+000 9.239506e-001 7.604944e-002 0.000000e+000
 0.000000e+000 0.000000e+000 0.000000e+000 9.481805e-001 5.181948e-002
 0.000000e+000 0.000000e+000 0.000000e+000 0.000000e+000 0.000000e+000
<ENDHMM>
~h "CF"
<BEGINHMM>
<NUMSTATES> 5
<STATE> 2
<NUMMIXES> 2
<MIXTURE> 1 1.519315e-001
<MEAN> 22
 2.123837e+001 1.527467e+001 1.077944e+001 8.364128e+000 2.710230e+001 2.573762e+001 9.120631e+001 8.358343e+001 6.636698e+001 5.948240e+001 1.730937e+002 1.784995e+002 1.131610e+002 1.142303e+002 6.035845e+000 4.850244e+000 6.077513e+000 5.863048e+000 5.603514e+000 6.004057e+000 2.696182e+000 2.401035e+000
<VARIANCE> 22
 3.698615e+003 2.499277e+003 3.087206e+003 1.836834e+003 1.289577e+003 9.901668e+002 7.661204e+002 6.929046e+002 2.608816e+002 1.173881e+002 2.528946e+003 1.266345e+003 2.539427e+002 1.660087e+002 4.601830e+000 3.772535e-001 4.980050e-001 1.444541e-001 9.536004e-001 7.886777e-001 5.736597e+000 4.743232e+000
<GCONST> 1.361623e+002
<MIXTURE> 2 8.480690e-001
<MEAN> 22
 7.013977e+000 6.748569e+000 2.770515e+000 2.347843e+000 8.548435e+001 8.735073e+001 8.429922e+001 6.849551e+001 7.963269e+001 6.555968e+001 8.566470e+001 1.024505e+002 9.491897e+001 1.025448e+002 2.730406e+000 3.178385e+000 4.488515e+000 5.008035e+000 3.770280e+000 3.360750e+000 2.880179e+000 2.643406e+000
<VARIANCE> 22
 1.242074e+002 1.178097e+002 1.742463e+001 1.408944e+001 8.425951e+003 7.044638e+003 2.343228e+003 1.761183e+003 6.780709e+002 5.574376e+002 3.333424e+003 3.383977e+003 6.444771e+002 5.447353e+002 4.944561e+000 2.273159e+000 6.167802e+000 2.033543e+000 2.259272e+000 7.763412e+000 6.066017e+000 5.580857e+000
<GCONST> 1.418447e+002
<STATE> 3
<NUMMIXES> 2
<MIXTURE> 1 3.743634e-001
<MEAN> 22
 2.610240e+000 2.264622e+001 9.660440e-001 5.663872e+000 1.645542e+001 1.123475e+002 9.907841e+001 8.938661e+001 6.299206e+001 8.324473e+001 1.929664e+002 1.025852e+002 1.173049e+002 1.043262e+002 6.852289e+000 3.457634e+000 6.185335e+000 4.866832e+000 5.910791e+000 3.382263e+000 2.068539e+000 3.741856e+000
<VARIANCE> 22
 2.362187e+001 4.730187e+002 3.300596e+000 3.898373e+001 9.350847e+002 6.137543e+003 5.286219e+002 1.896015e+003 1.246758e+002 5.053968e+002 1.397818e+003 3.368201e+003 2.833972e+002 2.639907e+002 7.218487e-001 1.531117e+000 5.462301e-001 1.607694e+000 2.380581e-001 7.543988e+000 5.980525e+000 5.083514e+000
<GCONST> 1.256012e+002
<MIXTURE> 2 6.256365e-001
<MEAN> 22
 9.479611e-001 6.503567e+000 4.624972e-001 3.078670e+000 5.916559e+000 1.946056e+002 9.023920e+001 1.289902e+002 5.719651e+001 1.020583e+002 1.860435e+002 3.126818e+001 1.110741e+002 8.364164e+001 7.000000e+000 2.000000e+000 6.008933e+000 2.940280e+000 5.999990e+000 9.938748e-001 1.420534e+000 2.541698e+000
<VARIANCE> 22
 4.801632e+000 9.541015e+001 3.300596e+000 1.944062e+001 4.956259e+001 9.300711e+002 1.853251e+002 4.362175e+002 5.013257e+001 3.958251e+002 3.664025e+002 1.501097e+002 1.046230e+002 2.393719e+002 6.504287e-002 1.793315e-002 2.326111e-002 1.255467e+000 2.082488e-002 5.618803e-002 5.142061e+000 5.751369e+000
<GCONST> 9.004874e+001
<STATE> 4
<NUMMIXES> 2
<MIXTURE> 1 4.239208e-001
<MEAN> 22
 9.108802e+000 5.560354e+000 2.722142e+000 2.077565e+000 2.926179e+001 2.389224e+001 9.047587e+001 9.739178e+001 6.582235e+001 6.072329e+001 1.867964e+002 1.947559e+002 1.164889e+002 1.164998e+002 6.331585e+000 5.000443e+000 6.198952e+000 5.713771e+000 5.884145e+000 5.989811e+000 3.383908e+000 3.023970e+000
<VARIANCE> 22
 1.794420e+002 5.713461e+001 1.421772e+001 7.438896e+000 7.978304e+002 5.785522e+002 6.475794e+002 3.208911e+002 1.563621e+002 9.074371e+001 1.054733e+003 5.072617e+002 2.022522e+002 1.284402e+002 4.015065e+000 1.793315e-002 1.593695e-001 2.051863e-001 1.250618e-001 5.618803e-002 6.400640e+000 6.394726e+000
<GCONST> 1.052343e+002
<MIXTURE> 2 5.760794e-001
<MEAN> 22
 1.059205e+001 1.552971e+000 3.865045e+000 8.104126e-001 1.725937e+002 2.491580e+001 1.211137e+002 9.679528e+001 9.688426e+001 5.760795e+001 3.812271e+001 1.915566e+002 8.565140e+001 1.134174e+002 1.912264e+000 4.976943e+000 2.479211e+000 5.677180e+000 3.034302e+000 5.953489e+000 3.148034e+000 2.043139e+000
<VARIANCE> 22
 2.125027e+002 8.439734e+000 2.886261e+001 2.164982e+000 3.406783e+003 1.100915e+003 1.186656e+003 2.419935e+002 4.559226e+002 8.351012e+001 5.087681e+002 4.462072e+002 4.435471e+002 1.193115e+002 2.202251e-001 6.671958e-002 4.622363e+000 2.400500e-001 2.151034e-001 2.210229e-001 6.218616e+000 5.599889e+000
<GCONST> 1.099098e+002
<TRANSP> 5
 0.000000e+000 1.000000e+000 0.000000e+000 0.000000e+000 0.000000e+000
 0.000000e+000 8.132577e-001 1.867423e-001 0.000000e+000 0.000000e+000
 0.000000e+000 0.000000e+000 9.523274e-001 4.767263e-002 0.000000e+000
 0.000000e+000 0.000000e+000 0.000000e+000 9.299897e-001 7.001028e-002
 0.000000e+000 0.000000e+000 0.000000e+000 0.000000e+000 0.000000e+000
<ENDHMM>
~h "CN"
<BEGINHMM>
<NUMSTATES> 5
<STATE> 2
<NUMMIXES> 2
<MIXTURE> 1 4.179437e-001
<MEAN> 22
 8.700377e+000 8.182377e+000 2.877724e+000 2.753261e+000 2.115378e+001 2.358902e+001 9.285307e+001 8.873825e+001 6.386736e+001 5.942786e+001 1.920656e+002 1.885800e+002 1.189341e+002 1.170489e+002 6.999014e+000 5.000000e+000 6.131792e+000 5.935071e+000 5.999434e+000 6.016298e+000 2.756849e+000 1.962850e+000
<VARIANCE> 22
 5.289379e+002 4.141787e+002 3.707095e+002 2.725930e+002 3.517335e+002 5.059842e+002 5.984637e+002 4.011787e+002 9.205408e+001 6.772821e+001 8.177039e+002 6.562966e+002 2.511235e+002 1.908731e+002 6.504287e-002 1.793315e-002 1.144230e-001 6.071262e-002 2.082488e-002 5.618803e-002 3.245526e+000 3.991890e+000
<GCONST> 1.055282e+002
<MIXTURE> 2 5.820559e-001
<MEAN> 22
 2.081802e+001 2.063283e+001 2.607674e+000 2.903406e+000 9.223267e+001 8.801523e+001 4.351031e+001 4.550323e+001 6.556394e+001 6.211581e+001 9.966798e+001 9.901429e+001 1.054396e+002 1.046198e+002 3.023794e+000 3.331521e+000 6.018778e+000 5.874989e+000 4.291989e+000 3.083550e+000 2.631085e+000 2.041235e+000
<VARIANCE> 22
 3.269913e+002 3.063359e+002 9.523901e+000 1.168647e+001 2.105137e+003 2.062735e+003 4.795294e+002 6.299252e+002 1.162782e+002 1.091446e+002 1.444429e+003 1.663372e+003 1.646685e+002 1.349248e+002 6.083282e+000 2.085613e+000 1.920896e-001 4.294868e-001 7.593421e-001 9.842979e+000 2.248804e+000 3.096570e+000
<GCONST> 1.227097e+002
<STATE> 3
<NUMMIXES> 2
<MIXTURE> 1 4.698643e-001
<MEAN> 22
 8.782802e+000 8.404124e+000 1.135685e+000 1.035560e+000 1.649137e+002 1.589485e+002 8.567644e+001 8.254697e+001 6.858302e+001 6.672227e+001 3.929577e+001 4.325236e+001 1.063679e+002 1.083060e+002 2.064080e+000 1.835098e+000 5.534940e+000 5.867650e+000 3.108509e+000 8.280994e-001 2.963150e+000 2.885078e+000
<VARIANCE> 22
 1.538601e+002 1.757856e+002 3.300596e+000 2.164982e+000 1.652028e+003 1.418059e+003 4.300434e+002 5.325713e+002 1.592576e+002 1.754462e+002 3.983400e+002 5.457006e+002 2.425673e+002 1.858230e+002 1.248551e-001 2.199374e-001 1.586728e+000 1.188781e+000 1.354742e-001 2.286478e-001 6.000233e+000 6.034926e+000
<GCONST> 1.100112e+002
<MIXTURE> 2 5.301358e-001
<MEAN> 22
 6.370840e+000 7.521605e+000 1.236578e+000 9.935827e-001 1.319778e+002 1.260375e+002 6.147158e+001 5.952949e+001 6.481872e+001 6.192484e+001 4.471276e+001 4.671173e+001 1.005341e+002 1.012543e+002 2.006724e+000 2.000000e+000 6.000000e+000 6.000000e+000 3.229811e+000 7.549251e-001 3.371853e+000 3.300113e+000
<VARIANCE> 22
 6.052205e+001 9.355812e+001 3.558375e+000 2.164982e+000 1.160154e+003 9.042274e+002 2.932168e+002 3.343791e+002 5.074329e+001 5.546163e+001 2.317913e+002 2.884357e+002 5.177842e+001 5.129735e+001 6.504287e-002 1.793315e-002 2.326111e-002 1.170389e-002 1.769995e-001 1.850154e-001 6.007011e+000 5.983986e+000
<GCONST> 8.861104e+001
<STATE> 4
<NUMMIXES> 2
<MIXTURE> 1 3.982873e-001
<MEAN> 22
 1.057503e+001 9.614735e+000 3.177884e+000 2.752145e+000 3.901305e+001 3.142826e+001 9.929974e+001 9.544218e+001 6.505263e+001 6.061416e+001 1.953943e+002 1.929486e+002 1.163616e+002 1.154669e+002 6.989939e+000 5.000000e+000 6.281285e+000 5.778844e+000 6.012970e+000 5.978836e+000 3.789292e+000 3.697790e+000
<VARIANCE> 22
 1.182488e+002 9.684486e+001 8.597986e+000 7.187665e+000 7.099497e+003 4.429900e+003 4.348396e+002 3.488718e+002 9.375806e+001 6.486426e+001 5.075628e+002 4.675916e+002 1.500999e+002 1.185997e+002 6.504287e-002 1.793315e-002 2.021657e-001 1.722451e-001 2.082488e-002 5.618803e-002 7.951153e+000 4.567317e+000
<GCONST> 1.007042e+002
<MIXTURE> 2 6.017127e-001
<MEAN> 22
 1.668353e+001 1.617190e+001 2.179221e+000 2.442232e+000 9.343546e+001 9.148826e+001 5.332103e+001 5.146124e+001 6.764050e+001 6.569801e+001 1.160466e+002 1.101798e+002 1.067003e+002 1.072607e+002 3.575473e+000 3.293833e+000 6.052505e+000 5.911054e+000 4.442070e+000 3.072386e+000 4.224732e+000 4.111001e+000
<VARIANCE> 22
 4.069738e+002 3.479759e+002 1.066023e+001 1.579145e+001 3.623158e+003 3.090979e+003 1.235847e+003 1.279587e+003 2.197581e+002 1.636385e+002 1.814599e+003 1.917695e+003 3.089281e+002 1.861029e+002 5.873634e+000 3.699814e+000 3.831898e-001 3.361634e-001 1.479440e+000 9.456490e+000 6.807264e+000 5.169644e+000
<GCONST> 1.316659e+002
<TRANSP> 5
 0.000000e+000 1.000000e+000 0.000000e+000 0.000000e+000 0.000000e+000
 0.000000e+000 8.407370e-001 1.592630e-001 0.000000e+000 0.000000e+000
 0.000000e+000 0.000000e+000 9.636096e-001 3.639044e-002 0.000000e+000
 0.000000e+000 0.000000e+000 0.000000e+000 9.192942e-001 8.070581e-002
 0.000000e+000 0.000000e+000 0.000000e+000 0.000000e+000 0.000000e+000
<ENDHMM>
~h "CP"
<BEGINHMM>
<NUMSTATES> 5
<STATE> 2
<NUMMIXES> 2
<MIXTURE> 1 7.679435e-001
<MEAN> 22
 1.378880e+001 1.212025e+001 4.060270e+000 3.476491e+000 5.374434e+001 5.564418e+001 1.046302e+002 1.045639e+002 7.469826e+001 6.955727e+001 1.814803e+002 1.856435e+002 1.232256e+002 1.194208e+002 3.816098e+000 4.595136e+000 6.656614e+000 5.482610e+000 5.307166e+000 5.524763e+000 3.224159e+000 3.141581e+000
<VARIANCE> 22
 7.440814e+002 4.948396e+002 5.166018e+002 2.963665e+002 1.453404e+003 1.663180e+003 1.342658e+003 1.461156e+003 2.008916e+002 2.133798e+002 2.306660e+003 1.291734e+003 4.660282e+002 2.567584e+002 1.154602e+001 3.358397e-001 2.298855e-001 2.498653e-001 4.268794e+000 8.976585e-001 5.336471e+000 5.336128e+000
<GCONST> 1.348322e+002
<MIXTURE> 2 2.320561e-001
<MEAN> 22
 6.814198e+000 4.248904e+000 9.963782e-001 1.046916e+000 3.151407e+002 2.308395e+002 5.869537e+001 4.694681e+001 3.454974e+001 3.207501e+001 5.050162e+001 6.258655e+001 5.124095e+001 5.265938e+001 1.087170e+000 1.645579e+000 1.321120e+000 2.614578e+000 1.280428e+000 1.473851e+000 1.433118e+000 1.704801e+000
<VARIANCE> 22
 4.052120e+002 7.956931e+001 4.351840e+000 4.670033e+000 3.258479e+004 2.109960e+004 4.812753e+003 3.680882e+003 1.468667e+003 1.208887e+003 4.325745e+003 5.556517e+003 3.001510e+003 3.020844e+003 3.269485e+000 3.713400e+000 5.827254e+000 7.559747e+000 3.200178e+000 4.944041e+000 5.200059e+000 6.139259e+000
<GCONST> 1.507762e+002
<STATE> 3
<NUMMIXES> 2
<MIXTURE> 1 5.176917e-001
<MEAN> 22
 1.174332e+001 1.105852e+001 2.924266e+000 2.997218e+000 5.017181e+001 4.099900e+001 9.323724e+001 9.707564e+001 7.337188e+001 6.821468e+001 1.848969e+002 1.874190e+002 1.227957e+002 1.212846e+002 5.747964e+000 4.742569e+000 6.495248e+000 5.409180e+000 6.015851e+000 5.745727e+000 3.614368e+000 3.421482e+000
<VARIANCE> 22
 1.109233e+002 1.076631e+002 1.044339e+001 1.089081e+001 1.489301e+003 7.186974e+002 6.723732e+002 5.664131e+002 1.272111e+002 1.126975e+002 8.319807e+002 7.309877e+002 1.775981e+002 1.434502e+002 7.129590e+000 2.250446e-001 3.077554e-001 2.654932e-001 2.444518e-001 4.250377e-001 5.265721e+000 5.147320e+000
<GCONST> 1.133265e+002
<MIXTURE> 2 4.823086e-001
<MEAN> 22
 1.076569e+001 1.125494e+001 3.108479e+000 3.006028e+000 6.872851e+001 6.101896e+001 5.879575e+001 6.256339e+001 7.257558e+001 6.833994e+001 1.162508e+002 1.185890e+002 1.038649e+002 1.037851e+002 2.873960e-001 3.731201e+000 6.798790e+000 5.186919e+000 5.143859e+000 4.744611e+000 3.391692e+000 3.117915e+000
<VARIANCE> 22
 1.191096e+002 1.096425e+002 1.544224e+001 1.323723e+001 5.741884e+002 7.977722e+002 2.880299e+002 3.748165e+002 1.373236e+002 1.764535e+002 4.224860e+002 4.893082e+002 1.041563e+002 1.022881e+002 4.565102e-001 4.727021e-001 1.624221e-001 1.519758e-001 2.148398e+000 5.511479e+000 5.255074e+000 5.065589e+000
<GCONST> 1.119814e+002
<STATE> 4
<NUMMIXES> 2
<MIXTURE> 1 6.584230e-001
<MEAN> 22
 6.834701e+000 6.800201e+000 1.815734e+000 1.973884e+000 3.077502e+001 2.937203e+001 8.525157e+001 8.585184e+001 6.270536e+001 5.984851e+001 1.775655e+002 1.784884e+002 1.115561e+002 1.116481e+002 6.995741e+000 4.999555e+000 6.240471e+000 5.663707e+000 6.001243e+000 5.985252e+000 3.879737e+000 3.711390e+000
<VARIANCE> 22
 4.373433e+001 4.399062e+001 3.819356e+000 4.621767e+000 6.613151e+002 5.030732e+002 3.304929e+002 2.984139e+002 7.349690e+001 8.266075e+001 5.068780e+002 4.806170e+002 1.075857e+002 1.038755e+002 6.504287e-002 1.793315e-002 1.826454e-001 2.232015e-001 2.082488e-002 5.618803e-002 5.555347e+000 5.775096e+000
<GCONST> 9.228106e+001
<MIXTURE> 2 3.415779e-001
<MEAN> 22
 7.268970e+000 7.210567e+000 1.277667e+000 1.196232e+000 4.911702e+001 4.587832e+001 6.090577e+001 6.241507e+001 6.187162e+001 5.964244e+001 1.361278e+002 1.376132e+002 9.965841e+001 9.914909e+001 2.690642e+000 4.357055e+000 6.594083e+000 5.352269e+000 5.897542e+000 5.945761e+000 3.287265e+000 3.117778e+000
<VARIANCE> 22
 5.219531e+001 4.694782e+001 3.300596e+000 2.249177e+000 4.358969e+002 3.534668e+002 2.999365e+002 3.772758e+002 7.071451e+001 1.027976e+002 2.792531e+002 3.308575e+002 5.075283e+001 6.245127e+001 1.129326e+001 3.485495e-001 3.014668e-001 2.529682e-001 4.135408e-001 5.620356e-001 5.271435e+000 5.117143e+000
<GCONST> 1.028427e+002
<TRANSP> 5
 0.000000e+000 1.000000e+000 0.000000e+000 0.000000e+000 0.000000e+000
 0.000000e+000 6.847059e-001 3.152941e-001 0.000000e+000 0.000000e+000
 0.000000e+000 0.000000e+000 9.233822e-001 7.661784e-002 0.000000e+000
 0.000000e+000 0.000000e+000 0.000000e+000 9.472157e-001 5.278430e-002
 0.000000e+000 0.000000e+000 0.000000e+000 0.000000e+000 0.000000e+000
<ENDHMM>
~h "CV"
<BEGINHMM>
<NUMSTATES> 5
<STATE> 2
<NUMMIXES> 2
<MIXTURE> 1 4.074146e-001
<MEAN> 22
 8.919680e+000 9.624392e+000 3.133788e+000 2.970398e+000 2.048966e+001 2.145588e+001 9.072352e+001 8.608717e+001 6.259409e+001 5.822026e+001 1.873994e+002 1.836491e+002 1.158557e+002 1.153484e+002 6.987842e+000 4.993921e+000 6.151772e+000 5.907860e+000 5.993914e+000 6.011592e+000 2.737736e+000 2.272315e+000
<VARIANCE> 22
 5.345230e+002 4.703115e+002 5.171978e+002 3.212437e+002 3.772817e+002 3.684275e+002 5.281279e+002 4.476732e+002 7.953968e+001 5.784538e+001 7.319835e+002 7.030920e+002 1.832881e+002 1.482912e+002 6.504287e-002 2.022771e-002 1.287363e-001 8.567725e-002 2.082488e-002 8.845919e-002 3.263519e+000 4.064879e+000
<GCONST> 1.060476e+002
<MIXTURE> 2 5.925856e-001
<MEAN> 22
 1.972239e+001 1.936684e+001 3.380771e+000 3.219014e+000 1.029744e+002 9.669360e+001 6.526015e+001 6.608223e+001 6.871292e+001 6.035828e+001 1.011478e+002 1.112769e+002 1.089331e+002 1.076551e+002 2.337624e+000 3.522671e+000 6.009594e+000 5.396753e+000 4.083432e+000 3.489591e+000 2.689711e+000 2.581733e+000
<VARIANCE> 22
 4.540932e+002 4.134878e+002 1.524005e+001 1.344499e+001 8.547484e+003 5.890242e+003 9.608874e+002 9.829375e+002 2.276331e+002 1.299263e+002 2.784050e+003 2.507558e+003 3.647139e+002 3.266780e+002 6.460931e+000 1.392104e+000 2.753470e+000 7.200650e-001 2.086590e+000 7.039330e+000 3.852936e+000 3.786275e+000
<GCONST> 1.353814e+002
<STATE> 3
<NUMMIXES> 2
<MIXTURE> 1 3.920795e-001
<MEAN> 22
 8.695695e+000 8.709383e+000 2.654383e+000 2.910538e+000 1.680922e+002 1.632078e+002 9.980138e+001 9.866302e+001 7.230232e+001 6.912054e+001 4.736331e+001 5.226906e+001 1.131548e+002 1.131791e+002 1.681059e+000 2.413511e+000 4.493464e+000 4.773911e+000 2.649287e+000 1.492480e+000 3.396573e+000 3.288252e+000
<VARIANCE> 22
 1.391564e+002 1.350191e+002 1.523194e+001 2.031276e+001 1.820153e+003 1.428624e+003 5.274095e+002 6.613816e+002 1.363927e+002 1.015191e+002 4.627439e+002 4.714642e+002 2.948884e+002 1.955650e+002 3.507957e-001 3.023668e-001 1.016449e+001 7.286648e-001 3.447609e-001 4.473287e-001 5.513005e+000 5.717220e+000
<GCONST> 1.176736e+002
<MIXTURE> 2 6.079208e-001
<MEAN> 22
 5.957383e+000 6.389854e+000 1.253062e+000 1.320302e+000 1.203962e+002 1.214617e+002 6.954572e+001 6.981316e+001 6.075897e+001 5.752560e+001 5.245698e+001 5.280207e+001 9.882027e+001 9.951258e+001 1.338679e+000 2.563097e+000 6.891195e+000 5.178748e+000 2.868131e+000 1.218023e+000 3.495482e+000 3.362545e+000
<VARIANCE> 22
 5.798556e+001 5.782935e+001 3.300596e+000 2.601270e+000 1.223613e+003 8.499638e+002 2.315633e+002 2.740016e+002 3.294896e+001 4.369781e+001 1.958239e+002 2.133765e+002 6.032616e+001 6.277715e+001 2.367711e-001 2.987935e-001 9.714470e-002 2.637014e-001 2.305230e-001 2.867201e-001 5.632675e+000 5.969955e+000
<GCONST> 9.625124e+001
<STATE> 4
<NUMMIXES> 2
<MIXTURE> 1 4.816251e-001
<MEAN> 22
 1.066846e+001 9.607789e+000 3.055848e+000 2.608574e+000 2.314394e+001 2.307582e+001 9.477985e+001 9.246153e+001 6.403254e+001 5.839501e+001 1.911278e+002 1.903865e+002 1.154864e+002 1.146566e+002 6.993744e+000 5.000486e+000 6.223379e+000 5.832350e+000 6.021975e+000 5.989766e+000 4.228953e+000 4.051612e+000
<VARIANCE> 22
 1.085845e+002 9.994090e+001 9.453677e+000 7.315184e+000 4.960145e+002 4.522763e+002 4.508776e+002 3.449242e+002 8.920033e+001 6.615867e+001 6.595743e+002 5.810179e+002 1.770121e+002 1.416512e+002 6.504287e-002 1.793315e-002 1.734842e-001 1.395466e-001 2.161017e-002 5.618803e-002 6.772046e+000 5.023855e+000
<GCONST> 9.624460e+001
<MIXTURE> 2 5.183744e-001
<MEAN> 22
 1.572362e+001 1.568512e+001 2.647423e+000 3.001388e+000 7.784480e+001 6.838123e+001 4.513561e+001 5.025615e+001 6.512169e+001 5.999860e+001 1.058296e+002 1.133495e+002 1.040430e+002 1.042522e+002 2.517828e+000 3.530138e+000 6.144824e+000 5.761045e+000 4.444542e+000 3.435652e+000 4.315076e+000 4.246104e+000
<VARIANCE> 22
 2.771119e+002 2.558820e+002 1.581218e+001 1.638133e+001 1.401463e+003 1.416216e+003 5.539347e+002 6.936351e+002 1.067388e+002 8.963182e+001 1.344763e+003 1.675727e+003 1.562085e+002 1.171563e+002 6.439059e+000 1.976189e+000 2.259864e-001 2.520514e-001 9.631816e-001 9.463817e+000 5.833958e+000 5.573955e+000
<GCONST> 1.234980e+002
<TRANSP> 5
 0.000000e+000 1.000000e+000 0.000000e+000 0.000000e+000 0.000000e+000
 0.000000e+000 8.452019e-001 1.547981e-001 0.000000e+000 0.000000e+000
 0.000000e+000 0.000000e+000 9.468962e-001 5.310383e-002 0.000000e+000
 0.000000e+000 0.000000e+000 0.000000e+000 9.193001e-001 8.069985e-002
 0.000000e+000 0.000000e+000 0.000000e+000 0.000000e+000 0.000000e+000
<ENDHMM>
~h "DC"
<BEGINHMM>
<NUMSTATES> 5
<STATE> 2
<NUMMIXES> 2
<MIXTURE> 1 4.209085e-001
<MEAN> 22
 9.775161e+000 9.279222e+000 3.799659e+000 3.332224e+000 4.242514e+001 4.007758e+001 8.997010e+001 8.655621e+001 6.348937e+001 5.940939e+001 1.879552e+002 1.851630e+002 1.177527e+002 1.168127e+002 6.975571e+000 4.993259e+000 6.178954e+000 5.862896e+000 5.962213e+000 6.008753e+000 2.484641e+000 2.113824e+000
<VARIANCE> 22
 8.954279e+002 6.476223e+002 8.325409e+002 5.128203e+002 1.056179e+004 6.624001e+003 6.840787e+002 4.730020e+002 9.912781e+001 6.142570e+001 8.737596e+002 7.515414e+002 2.313504e+002 1.800195e+002 1.307635e-001 1.793315e-002 1.469291e-001 1.183046e-001 8.380615e-002 1.104307e-001 3.092280e+000 3.479078e+000
<GCONST> 1.177504e+002
<MIXTURE> 2 5.790909e-001
<MEAN> 22
 1.389226e+001 1.345559e+001 2.699906e+000 2.838864e+000 1.079396e+002 9.950960e+001 4.509017e+001 4.576426e+001 6.522771e+001 6.154923e+001 1.105588e+002 1.137115e+002 1.049305e+002 1.029150e+002 2.000427e+000 3.476894e+000 6.056787e+000 5.564381e+000 4.510019e+000 4.260499e+000 2.527062e+000 1.994502e+000
<VARIANCE> 22
 1.602561e+002 1.393126e+002 1.261458e+001 1.405102e+001 1.064205e+004 7.275287e+003 6.746273e+002 7.318226e+002 2.841669e+002 2.181357e+002 1.253310e+003 1.358832e+003 6.419896e+002 5.282556e+002 6.904153e+000 2.160501e+000 1.464723e+000 1.227360e+000 1.984041e+000 9.346922e+000 2.850488e+000 3.186616e+000
<GCONST> 1.334312e+002
<STATE> 3
<NUMMIXES> 2
<MIXTURE> 1 4.900515e-001
<MEAN> 22
 1.381995e+001 1.534077e+001 2.864106e+000 3.236246e+000 1.366341e+002 1.344256e+002 6.710385e+001 6.835032e+001 6.832579e+001 6.544106e+001 5.984663e+001 6.034938e+001 9.862816e+001 9.916238e+001 1.916142e+000 2.219603e+000 5.874065e+000 5.717106e+000 3.406252e+000 8.404254e-001 2.729488e+000 2.677978e+000
<VARIANCE> 22
 2.700395e+002 3.477333e+002 2.643100e+001 3.073669e+001 2.343155e+003 1.695492e+003 6.008550e+002 6.298070e+002 1.124550e+002 1.592882e+002 5.264766e+002 5.732048e+002 1.981384e+002 2.084104e+002 5.145805e-001 5.042405e-001 8.011400e-001 7.175404e-001 3.547342e-001 1.010985e+000 5.482038e+000 5.477167e+000
<GCONST> 1.201351e+002
<MIXTURE> 2 5.099486e-001
<MEAN> 22
 8.815581e+000 9.010604e+000 1.083062e+000 1.159898e+000 1.112746e+002 1.075807e+002 3.099617e+001 3.376046e+001 6.316452e+001 6.070300e+001 7.997745e+001 8.096505e+001 9.957682e+001 1.002529e+002 2.000607e+000 2.006885e+000 6.000122e+000 6.005708e+000 4.000203e+000 2.790425e-002 2.759190e+000 2.441496e+000
<VARIANCE> 22
 1.369482e+002 1.263267e+002 3.300596e+000 2.302498e+000 4.740734e+002 5.199111e+002 1.173999e+002 1.328884e+002 6.829926e+001 8.809070e+001 1.693506e+002 1.787868e+002 9.731364e+001 9.495789e+001 6.024073e-001 8.889319e-001 2.326111e-002 1.015857e-001 2.082488e-002 5.618803e-002 5.405710e+000 5.824193e+000
<GCONST> 9.246822e+001
<STATE> 4
<NUMMIXES> 2
<MIXTURE> 1 5.526234e-001
<MEAN> 22
 9.992073e+000 9.224742e+000 3.177092e+000 2.826510e+000 2.254581e+001 2.220480e+001 9.598141e+001 9.352905e+001 6.417300e+001 5.972218e+001 1.909276e+002 1.902268e+002 1.145924e+002 1.145905e+002 6.996800e+000 5.001582e+000 6.305125e+000 5.722747e+000 6.012836e+000 5.997423e+000 4.104341e+000 3.914871e+000
<VARIANCE> 22
 8.525485e+001 8.148152e+001 8.460275e+000 7.128351e+000 3.602159e+002 3.713184e+002 3.900783e+002 3.460573e+002 9.095358e+001 7.884605e+001 5.177947e+002 4.757719e+002 1.536383e+002 1.270506e+002 6.504287e-002 1.793315e-002 2.120265e-001 2.003871e-001 2.082488e-002 5.618803e-002 7.135658e+000 4.407964e+000
<GCONST> 9.495255e+001
<MIXTURE> 2 4.473767e-001
<MEAN> 22
 1.854430e+001 1.832718e+001 2.903404e+000 2.684381e+000 7.451667e+001 6.690145e+001 3.984097e+001 4.345917e+001 6.626711e+001 6.159606e+001 1.220999e+002 1.268700e+002 1.035637e+002 1.038150e+002 3.532001e+000 4.209389e+000 6.110537e+000 5.809916e+000 4.886630e+000 5.541220e+000 4.282328e+000 4.226469e+000
<VARIANCE> 22
 3.656137e+002 3.573401e+002 2.255177e+001 1.737490e+001 1.402968e+003 1.181141e+003 5.048145e+002 4.912119e+002 1.206684e+002 1.228874e+002 7.960754e+002 8.598659e+002 1.522744e+002 1.219682e+002 8.835372e+000 2.145365e+000 1.653482e-001 2.077934e-001 6.924432e-001 6.129241e+000 7.301884e+000 4.716178e+000
<GCONST> 1.223521e+002
<TRANSP> 5
 0.000000e+000 1.000000e+000 0.000000e+000 0.000000e+000 0.000000e+000
 0.000000e+000 8.699738e-001 1.300262e-001 0.000000e+000 0.000000e+000
 0.000000e+000 0.000000e+000 9.550386e-001 4.496141e-002 0.000000e+000
 0.000000e+000 0.000000e+000 0.000000e+000 9.084678e-001 9.153222e-002
 0.000000e+000 0.000000e+000 0.000000e+000 0.000000e+000 0.000000e+000
<ENDHMM>
~h "FM"
<BEGINHMM>
<NUMSTATES> 5
<STATE> 2
<NUMMIXES> 2
<MIXTURE> 1 1.318013e-001
<MEAN> 22
 1.293278e+001 1.755123e+001 7.740220e+000 7.770109e+000 4.839721e+001 6.826514e+001 6.970044e+001 7.331590e+001 7.148182e+001 7.548789e+001 1.519963e+002 1.309457e+002 1.077763e+002 1.096629e+002 4.626176e+000 3.966992e+000 5.997127e+000 5.351217e+000 5.213000e+000 5.284293e+000 2.695435e+000 3.096306e+000
<VARIANCE> 22
 2.381979e+003 2.388440e+003 1.908528e+003 1.234017e+003 3.652231e+003 3.718355e+003 1.127304e+003 1.223793e+003 4.738239e+002 3.753951e+002 2.158993e+003 2.257182e+003 7.173980e+002 3.388243e+002 9.205479e+000 1.140544e+000 1.496969e+000 5.492591e-001 1.517447e+000 4.864229e+000 7.079938e+000 5.337810e+000
<GCONST> 1.488967e+002
<MIXTURE> 2 8.681988e-001
<MEAN> 22
 7.135765e+000 1.292882e+000 2.006047e+000 6.288882e-001 6.410751e+001 8.922015e+000 6.347165e+001 1.009489e+002 9.514051e+001 5.728859e+001 1.408089e+002 2.011196e+002 1.144455e+002 1.192531e+002 2.260445e+000 5.000000e+000 6.523438e+000 5.904313e+000 5.281993e+000 5.998956e+000 3.142694e+000 1.831352e+000
<VARIANCE> 22
 6.426522e+001 4.063125e+000 7.818311e+000 2.164982e+000 7.999864e+002 7.039259e+001 7.996977e+002 2.056516e+002 4.993755e+002 7.209402e+001 1.169853e+003 3.740585e+002 1.767058e+002 1.307404e+002 1.023554e+001 1.793315e-002 2.494506e-001 8.653033e-002 3.492846e-001 5.618803e-002 6.393432e+000 5.542635e+000
<GCONST> 9.941015e+001
<STATE> 3
<NUMMIXES> 2
<MIXTURE> 1 4.383924e-001
<MEAN> 22
 2.339738e+000 9.210430e+000 8.697774e-001 3.181942e+000 1.566285e+001 5.262175e+001 1.048523e+002 8.151065e+001 6.419759e+001 9.157681e+001 2.058473e+002 1.618713e+002 1.213787e+002 1.165503e+002 6.991042e+000 4.482010e+000 6.139954e+000 5.269928e+000 5.992496e+000 6.297135e+000 2.212897e+000 3.326839e+000
<VARIANCE> 22
 1.758810e+001 8.219734e+001 3.300596e+000 1.691892e+001 6.619722e+002 1.025497e+003 4.521068e+002 4.987847e+002 8.310503e+001 5.882837e+002 8.127200e+002 9.739931e+002 3.299727e+002 1.642012e+002 6.504287e-002 2.820786e-001 1.542017e-001 2.212410e-001 3.752832e-002 3.253897e-001 6.285198e+000 5.625174e+000
<GCONST> 1.045494e+002
<MIXTURE> 2 5.616077e-001
<MEAN> 22
 8.114316e-001 5.915499e+000 3.601852e-001 1.204221e+000 5.707513e+000 6.203294e+001 8.839989e+001 5.094501e+001 5.314211e+001 8.198215e+001 1.830071e+002 1.202286e+002 1.100868e+002 9.870632e+001 6.962912e+000 4.055648e+000 6.002519e+000 5.408187e+000 5.994463e+000 6.291777e+000 1.358991e+000 3.126550e+000
<VARIANCE> 22
 4.801632e+000 3.687912e+001 3.300596e+000 2.164982e+000 4.956259e+001 2.718409e+002 7.064382e+001 2.912045e+002 3.650269e+001 1.430636e+002 1.510654e+002 3.802933e+002 4.136395e+001 5.045119e+001 2.457946e-001 2.795912e-001 2.326111e-002 2.423076e-001 2.082488e-002 2.382976e+000 4.936046e+000 5.828949e+000
<GCONST> 8.667923e+001
<STATE> 4
<NUMMIXES> 2
<MIXTURE> 1 9.018121e-001
<MEAN> 22
 6.315964e+000 5.418812e+000 1.616912e+000 1.648520e+000 4.386346e+001 3.382562e+001 6.035797e+001 5.577538e+001 7.928740e+001 6.525485e+001 1.357848e+002 1.335592e+002 1.055161e+002 1.033605e+002 2.911488e+000 3.988941e+000 6.441380e+000 5.612094e+000 5.303110e+000 5.282568e+000 2.681164e+000 2.561151e+000
<VARIANCE> 22
 7.586530e+001 6.072838e+001 6.332059e+000 8.718085e+000 7.496024e+002 6.936046e+002 8.023177e+002 8.270885e+002 3.801852e+002 1.853778e+002 1.173131e+003 1.364466e+003 1.143600e+002 1.234735e+002 1.030341e+001 1.535147e+000 2.571155e-001 2.386325e-001 5.018803e-001 5.892614e+000 5.831530e+000 6.275956e+000
<GCONST> 1.191053e+002
<MIXTURE> 2 9.818801e-002
<MEAN> 22
 2.114534e-001 1.916302e+000 5.726851e-002 4.889865e-001 4.969781e+002 3.758194e+002 2.887148e+001 2.326001e+001 1.550595e+001 2.032274e+001 5.165442e+001 4.249536e+001 2.734256e+001 2.745016e+001 1.757707e+000 1.127752e+000 1.612336e+000 1.334802e+000 1.506610e+000 1.475771e+000 2.511011e-001 8.986782e-001
<VARIANCE> 22
 4.801632e+000 2.215611e+001 3.300596e+000 2.164982e+000 3.248369e+003 8.365344e+002 2.487265e+003 1.708870e+003 7.176962e+002 1.294392e+003 7.958767e+003 5.511309e+003 2.230313e+003 2.248533e+003 9.214432e+000 3.855943e+000 7.814463e+000 5.368096e+000 6.769805e+000 6.522506e+000 1.007431e+000 3.844355e+000
<GCONST> 1.363595e+002
<TRANSP> 5
 0.000000e+000 1.000000e+000 0.000000e+000 0.000000e+000 0.000000e+000
 0.000000e+000 8.890979e-001 1.109022e-001 0.000000e+000 0.000000e+000
 0.000000e+000 0.000000e+000 9.556195e-001 4.438050e-002 0.000000e+000
 0.000000e+000 0.000000e+000 0.000000e+000 8.369300e-001 1.630699e-001
 0.000000e+000 0.000000e+000 0.000000e+000 0.000000e+000 0.000000e+000
<ENDHMM>
~h "FN"
<BEGINHMM>
<NUMSTATES> 5
<STATE> 2
<NUMMIXES> 2
<MIXTURE> 1 5.567782e-001
<MEAN> 22
 1.738373e+001 4.032423e+000 6.430748e+000 3.073817e+000 1.703443e+002 1.345296e+001 1.128286e+002 1.024092e+002 8.333418e+001 6.041919e+001 4.971434e+001 2.034272e+002 1.034710e+002 1.208056e+002 1.892292e+000 4.980736e+000 3.071664e+000 5.856145e+000 3.066814e+000 5.964228e+000 3.859363e+000 2.062635e+000
<VARIANCE> 22
 1.613252e+003 9.131647e+002 1.224174e+003 7.137955e+002 3.026859e+003 3.003123e+002 1.167093e+003 2.485659e+002 1.935619e+002 6.517232e+001 2.105029e+003 5.930886e+002 3.818470e+002 1.161380e+002 1.112090e+000 5.079192e-002 8.327892e+000 1.373380e-001 9.114458e-001 1.612542e-001 6.180095e+000 6.037070e+000
<GCONST> 1.277571e+002
<MIXTURE> 2 4.432213e-001
<MEAN> 22
 4.676136e+000 1.088209e+001 1.606836e+000 2.784591e+000 1.245158e+002 1.532725e+002 8.550010e+001 9.024909e+001 6.617323e+001 6.443620e+001 1.555714e+002 9.507565e+001 1.010742e+002 9.910374e+001 4.603691e+000 3.076297e+000 5.518385e+000 4.591507e+000 5.074439e+000 2.926518e+000 2.325929e+000 2.650924e+000
<VARIANCE> 22
 7.569740e+001 2.342463e+002 1.262865e+001 1.522081e+001 3.613996e+004 1.842143e+004 1.878998e+003 1.644174e+003 6.334889e+002 5.193867e+002 5.278826e+003 6.126400e+003 1.749768e+003 1.107508e+003 8.911254e+000 2.642298e+000 3.987420e+000 3.059746e+000 3.049311e+000 6.338276e+000 6.181463e+000 5.469088e+000
<GCONST> 1.473504e+002
<STATE> 3
<NUMMIXES> 2
<MIXTURE> 1 4.643948e-001
<MEAN> 22
 2.377137e+000 1.763794e+001 7.829785e-001 3.641376e+000 1.097178e+001 7.584679e+001 9.528429e+001 7.695043e+001 5.984669e+001 6.645040e+001 1.929695e+002 1.276331e+002 1.150287e+002 1.079098e+002 6.991563e+000 3.962534e+000 6.154302e+000 5.462523e+000 5.994257e+000 4.143748e+000 2.157557e+000 3.906018e+000
<VARIANCE> 22
 1.952740e+001 3.144900e+002 3.300596e+000 2.232674e+001 2.245512e+002 3.252973e+003 2.917010e+002 1.122188e+003 7.102954e+001 1.882608e+002 4.602795e+002 3.300265e+003 1.374393e+002 1.660845e+002 6.504287e-002 1.324373e+000 1.407752e-001 6.164069e-001 2.082488e-002 6.795745e+000 6.300488e+000 5.289986e+000
<GCONST> 1.100813e+002
<MIXTURE> 2 5.356054e-001
<MEAN> 22
 8.881346e-001 9.161196e+000 4.648519e-001 2.577594e+000 7.155425e+000 1.738123e+002 8.958804e+001 1.092818e+002 5.712800e+001 6.740240e+001 1.875110e+002 2.606976e+001 1.113915e+002 9.494813e+001 6.956024e+000 2.025752e+000 6.001174e+000 4.203839e+000 5.974710e+000 1.273102e+000 1.347689e+000 3.102328e+000
<VARIANCE> 22
 4.801632e+000 1.112765e+002 3.300596e+000 1.099049e+001 3.031449e+002 1.159915e+003 2.042583e+002 5.025868e+002 4.515059e+001 1.231023e+002 5.256682e+002 2.706595e+002 1.378108e+002 2.322210e+002 2.108758e-001 4.974354e-002 2.326111e-002 1.424063e+000 6.577815e-002 2.884564e-001 4.716597e+000 5.387161e+000
<GCONST> 9.678260e+001
<STATE> 4
<NUMMIXES> 2
<MIXTURE> 1 6.691611e-001
<MEAN> 22
 1.038556e+001 2.416599e+000 2.763989e+000 8.925016e-001 1.005616e+002 2.062001e+001 1.022169e+002 9.687285e+001 7.149635e+001 5.642747e+001 1.099662e+002 1.967188e+002 1.062692e+002 1.172992e+002 3.702428e+000 4.998129e+000 4.712467e+000 5.808789e+000 4.209580e+000 5.988367e+000 3.414825e+000 2.107722e+000
<VARIANCE> 22
 1.652779e+002 1.517624e+001 1.352094e+001 2.164982e+000 5.462787e+003 8.986148e+002 1.250876e+003 2.562204e+002 1.946834e+002 7.341790e+001 6.767836e+003 4.585527e+002 4.485809e+002 1.524002e+002 7.167511e+000 1.793315e-002 6.784701e+000 1.546522e-001 2.920109e+000 5.618803e-002 6.053639e+000 5.992092e+000
<GCONST> 1.151499e+002
<MIXTURE> 2 3.308385e-001
<MEAN> 22
 7.044725e+000 7.049796e+000 1.798334e+000 1.705967e+000 5.138700e+001 4.322941e+001 5.622336e+001 4.112203e+001 6.486005e+001 5.673644e+001 8.061768e+001 1.004278e+002 9.871527e+001 1.001239e+002 2.842102e+000 3.070765e+000 5.599977e+000 5.653538e+000 3.872255e+000 2.906904e+000 2.830947e+000 2.606550e+000
<VARIANCE> 22
 1.340803e+002 2.002082e+002 9.885670e+000 7.802782e+000 1.518071e+003 1.700078e+003 1.299079e+003 6.003428e+002 8.338256e+001 4.575029e+001 2.273354e+003 1.157173e+003 1.489300e+002 9.604050e+001 4.098399e+000 2.502964e+000 2.914789e+000 7.892452e-001 9.195240e-001 1.010031e+001 6.392533e+000 6.227682e+000
<GCONST> 1.249788e+002
<TRANSP> 5
 0.000000e+000 1.000000e+000 0.000000e+000 0.000000e+000 0.000000e+000
 0.000000e+000 8.154829e-001 1.845170e-001 0.000000e+000 0.000000e+000
 0.000000e+000 0.000000e+000 9.553282e-001 4.467178e-002 0.000000e+000
 0.000000e+000 0.000000e+000 0.000000e+000 9.056251e-001 9.437490e-002
 0.000000e+000 0.000000e+000 0.000000e+000 0.000000e+000 0.000000e+000
<ENDHMM>
~h "FU"
<BEGINHMM>
<NUMSTATES> 5
<STATE> 2
<NUMMIXES> 2
<MIXTURE> 1 8.054395e-001
<MEAN> 22
 9.845130e+000 1.312129e+000 2.364593e+000 6.944965e-001 1.380193e+002 1.889553e+001 1.027326e+002 9.420379e+001 6.509816e+001 5.468075e+001 5.158083e+001 1.916807e+002 9.893501e+001 1.126427e+002 2.544379e+000 5.000000e+000 3.295271e+000 5.848840e+000 3.241637e+000 5.996479e+000 3.226221e+000 1.949059e+000
<VARIANCE> 22
 2.437452e+002 4.063125e+000 1.029506e+001 2.164982e+000 4.879999e+003 7.360715e+002 9.696279e+002 1.754407e+002 1.994263e+002 5.460295e+001 3.168747e+003 3.220296e+002 2.182125e+002 1.351876e+002 3.220156e+000 1.793315e-002 7.840877e+000 1.283116e-001 1.449516e+000 5.618803e-002 6.258760e+000 5.676567e+000
<GCONST> 1.092142e+002
<MIXTURE> 2 1.945607e-001
<MEAN> 22
 8.599896e+000 9.196307e+000 2.827763e+000 2.328236e+000 5.546500e+001 5.628402e+001 7.909626e+001 5.821966e+001 6.250972e+001 5.719413e+001 8.921313e+001 1.144332e+002 9.883559e+001 1.003787e+002 3.399935e+000 3.627881e+000 5.213171e+000 5.526446e+000 4.080507e+000 4.096957e+000 2.910399e+000 2.835519e+000
<VARIANCE> 22
 1.903724e+002 1.466039e+002 2.933360e+001 1.270713e+001 3.004523e+003 2.939209e+003 1.451559e+003 9.141595e+002 1.319378e+002 9.412881e+001 4.192867e+003 2.306493e+003 2.619967e+002 1.448888e+002 5.778652e+000 2.078114e+000 4.279903e+000 6.017963e-001 1.952737e+000 7.689212e+000 5.922372e+000 5.167865e+000
<GCONST> 1.323010e+002
<STATE> 3
<NUMMIXES> 2
<MIXTURE> 1 4.332547e-001
<MEAN> 22
 2.143141e+000 1.883490e+001 7.015824e-001 3.382006e+000 7.665248e+000 1.378851e+002 1.025751e+002 9.138788e+001 6.229872e+001 6.955888e+001 2.046682e+002 7.296099e+001 1.213066e+002 1.072708e+002 6.998035e+000 2.909591e+000 6.153292e+000 4.869433e+000 5.998918e+000 2.616129e+000 2.036181e+000 3.231661e+000
<VARIANCE> 22
 2.235984e+001 3.703078e+002 3.300596e+000 1.477535e+001 9.905846e+001 5.762097e+003 3.932863e+002 1.684536e+003 8.813333e+001 1.779332e+002 7.863902e+002 3.262846e+003 2.720920e+002 1.808897e+002 6.504287e-002 1.472206e+000 1.297959e-001 1.526217e+000 2.082488e-002 5.821627e+000 6.279642e+000 5.634588e+000
<GCONST> 1.127139e+002
<MIXTURE> 2 5.667454e-001
<MEAN> 22
 9.758794e-001 3.757693e+000 5.252171e-001 1.285595e+000 7.636846e+000 1.626992e+002 8.247518e+001 1.033360e+002 5.246235e+001 5.790683e+001 1.745575e+002 2.029957e+001 1.043430e+002 8.944442e+001 6.933621e+000 2.034198e+000 6.015277e+000 4.150051e+000 5.961668e+000 1.305212e+000 1.381911e+000 2.629261e+000
<VARIANCE> 22
 4.801632e+000 3.195598e+001 3.300596e+000 2.438356e+000 4.402237e+002 7.643874e+002 8.810422e+001 2.250441e+002 3.534523e+001 9.515549e+001 3.106945e+002 3.277048e+002 6.011415e+001 7.091131e+001 3.574305e-001 9.162209e-002 6.462219e-002 2.211319e+000 1.104778e-001 4.188161e-001 4.875679e+000 6.680150e+000
<GCONST> 9.322812e+001
<STATE> 4
<NUMMIXES> 2
<MIXTURE> 1 6.881959e-001
<MEAN> 22
 4.560607e+000 1.120141e+001 2.006608e+000 3.292037e+000 1.523105e+001 2.408183e+001 9.818502e+001 9.043963e+001 6.073310e+001 5.801649e+001 1.963013e+002 1.881037e+002 1.168354e+002 1.136416e+002 6.992821e+000 5.001050e+000 6.119368e+000 5.832657e+000 5.998914e+000 6.003738e+000 2.880944e+000 3.657935e+000
<VARIANCE> 22
 2.291408e+002 3.222299e+002 1.603815e+002 1.057920e+002 1.686154e+002 4.763114e+002 2.547543e+002 3.032660e+002 7.669793e+001 8.446495e+001 4.115078e+002 4.890246e+002 1.400515e+002 1.224097e+002 6.504287e-002 1.793315e-002 1.051201e-001 1.393382e-001 2.082488e-002 5.618803e-002 6.683430e+000 5.500404e+000
<GCONST> 1.005448e+002
<MIXTURE> 2 3.118037e-001
<MEAN> 22
 6.097075e+000 7.580944e+000 1.410970e+000 3.013729e+000 2.224833e+002 1.879195e+002 6.443042e+001 6.392789e+001 5.146670e+001 5.232977e+001 1.175230e+002 9.106014e+001 8.330973e+001 7.440330e+001 3.791616e+000 2.977908e+000 4.482062e+000 3.913717e+000 4.004800e+000 3.396140e+000 2.221294e+000 2.219087e+000
<VARIANCE> 22
 1.499429e+002 2.188661e+002 7.620384e+000 5.890419e+001 4.453519e+004 2.338938e+004 2.258121e+003 2.530466e+003 9.584165e+002 1.118993e+003 7.663101e+003 6.135611e+003 2.549756e+003 2.315833e+003 9.350241e+000 4.677331e+000 6.979232e+000 5.903557e+000 5.818801e+000 8.264573e+000 6.767822e+000 6.346412e+000
<GCONST> 1.555338e+002
<TRANSP> 5
 0.000000e+000 1.000000e+000 0.000000e+000 0.000000e+000 0.000000e+000
 0.000000e+000 9.246726e-001 7.532741e-002 0.000000e+000 0.000000e+000
 0.000000e+000 0.000000e+000 9.467821e-001 5.321788e-002 0.000000e+000
 0.000000e+000 0.000000e+000 0.000000e+000 8.349644e-001 1.650356e-001
 0.000000e+000 0.000000e+000 0.000000e+000 0.000000e+000 0.000000e+000
<ENDHMM>
~h "MC"
<BEGINHMM>
<NUMSTATES> 5
<STATE> 2
<NUMMIXES> 2
<MIXTURE> 1 9.549387e-002
<MEAN> 22
 1.831108e+001 2.194154e+001 1.141707e+001 9.663065e+000 1.491763e+002 1.682276e+002 1.120800e+002 6.038120e+001 7.432176e+001 7.812379e+001 1.905334e+002 1.128810e+002 1.288396e+002 1.162849e+002 5.431695e+000 3.198528e+000 6.134636e+000 5.748650e+000 5.288797e+000 2.903219e+000 2.284609e+000 2.937636e+000
<VARIANCE> 22
 2.879476e+003 2.210138e+003 2.548496e+003 1.493105e+003 4.615470e+004 2.041467e+004 2.068486e+003 1.005248e+003 2.682926e+002 2.023170e+002 8.323540e+003 2.813635e+003 1.553200e+003 5.400630e+002 5.455405e+000 1.426333e+000 1.212096e+000 4.468386e-001 1.280346e+000 8.926830e+000 6.012811e+000 5.293030e+000
<GCONST> 1.553084e+002
<MIXTURE> 2 9.045068e-001
<MEAN> 22
 5.668174e+000 6.995407e+000 1.542415e+000 2.097217e+000 4.840747e+001 5.658009e+001 6.100892e+001 5.027733e+001 7.111063e+001 6.622569e+001 1.139471e+002 1.084749e+002 1.015297e+002 1.012606e+002 3.641475e+000 3.415664e+000 6.185406e+000 5.726625e+000 4.756334e+000 3.781915e+000 2.887924e+000 2.728055e+000
<VARIANCE> 22
 5.412016e+001 7.406061e+001 3.881527e+000 7.605605e+000 1.241866e+003 1.706716e+003 7.217038e+002 7.451887e+002 2.136282e+002 2.416853e+002 2.846080e+003 1.860777e+003 1.477039e+002 1.244507e+002 7.832509e+000 1.689717e+000 2.596447e-001 2.133867e-001 1.404112e+000 9.691595e+000 6.084306e+000 5.592873e+000
<GCONST> 1.218575e+002
<STATE> 3
<NUMMIXES> 2
<MIXTURE> 1 2.827126e-001
<MEAN> 22
 2.627152e+000 1.399642e+001 7.813712e-001 4.336323e+000 1.063606e+001 1.136893e+002 1.090313e+002 7.911344e+001 6.593375e+001 9.173343e+001 2.124984e+002 1.056563e+002 1.262887e+002 1.135282e+002 6.884430e+000 3.365007e+000 6.185153e+000 5.339001e+000 5.967049e+000 2.645393e+000 2.181325e+000 3.454795e+000
<VARIANCE> 22
 2.146300e+001 1.649811e+002 3.300596e+000 2.422118e+001 4.134532e+002 4.159640e+003 3.556835e+002 1.292246e+003 5.955448e+001 6.683550e+002 6.656573e+002 3.272560e+003 1.554153e+002 1.365506e+002 6.371219e-001 1.417899e+000 1.670142e-001 5.513640e-001 7.644281e-002 8.093476e+000 6.080217e+000 5.184042e+000
<GCONST> 1.160151e+002
<MIXTURE> 2 7.172878e-001
<MEAN> 22
 1.046939e+000 8.276183e+000 5.921851e-001 2.371705e+000 6.070996e+000 1.011436e+002 8.697484e+001 5.142191e+001 5.297279e+001 7.622401e+001 1.806615e+002 7.711906e+001 1.077670e+002 9.335070e+001 6.999999e+000 2.904876e+000 6.002135e+000 5.739453e+000 6.000000e+000 2.156206e+000 1.662823e+000 3.162213e+000
<VARIANCE> 22
 4.801632e+000 5.940291e+001 3.300596e+000 6.419958e+000 4.956259e+001 1.258061e+003 8.402547e+001 4.285125e+002 4.415528e+001 2.449659e+002 1.479913e+002 1.326399e+003 5.077953e+001 1.676896e+002 6.504287e-002 1.092797e+000 2.326111e-002 2.345071e-001 2.082488e-002 8.429343e+000 5.546117e+000 5.086477e+000
<GCONST> 9.494251e+001
<STATE> 4
<NUMMIXES> 2
<MIXTURE> 1 9.409239e-001
<MEAN> 22
 8.769415e+000 2.700456e+000 2.745153e+000 1.014230e+000 8.165456e+001 1.431309e+001 6.496828e+001 9.771535e+001 7.602824e+001 5.608968e+001 1.202499e+002 1.962532e+002 1.098348e+002 1.161651e+002 3.248700e+000 5.000000e+000 6.262685e+000 5.804384e+000 4.630823e+000 5.994591e+000 3.273234e+000 2.594446e+000
<VARIANCE> 22
 7.992352e+001 1.465461e+001 1.250581e+001 2.164982e+000 2.712404e+003 1.950825e+002 8.694976e+002 2.512679e+002 4.631327e+002 5.676131e+001 3.331008e+003 4.319528e+002 2.687437e+002 1.254999e+002 7.971603e+000 1.793315e-002 2.154974e-001 1.573513e-001 1.321335e+000 5.618803e-002 5.905674e+000 6.244082e+000
<GCONST> 1.067313e+002
<MIXTURE> 2 5.907612e-002
<MEAN> 22
 4.412707e+000 2.649077e+001 1.171032e+000 4.595459e+000 1.215056e+002 1.187302e+002 6.714694e+001 7.001948e+001 6.128193e+001 5.556554e+001 1.311108e+002 1.184004e+002 9.893278e+001 9.522042e+001 3.817251e+000 3.271199e+000 5.194579e+000 4.529956e+000 4.325414e+000 3.868085e+000 1.892909e+000 3.146492e+000
<VARIANCE> 22
 8.263848e+001 2.983487e+003 4.900970e+000 3.794991e+001 2.823172e+004 1.658729e+004 2.034194e+003 2.245951e+003 1.073383e+003 7.272224e+002 6.582786e+003 6.512707e+003 2.242987e+003 2.071841e+003 1.014592e+001 3.592098e+000 6.034172e+000 4.782948e+000 4.819088e+000 7.862141e+000 5.505137e+000 6.459702e+000
<GCONST> 1.540311e+002
<TRANSP> 5
 0.000000e+000 1.000000e+000 0.000000e+000 0.000000e+000 0.000000e+000
 0.000000e+000 8.745456e-001 1.254544e-001 0.000000e+000 0.000000e+000
 0.000000e+000 0.000000e+000 9.591490e-001 4.085100e-002 0.000000e+000
 0.000000e+000 0.000000e+000 0.000000e+000 9.009930e-001 9.900689e-002
 0.000000e+000 0.000000e+000 0.000000e+000 0.000000e+000 0.000000e+000
<ENDHMM>
~h "NU"
<BEGINHMM>
<NUMSTATES> 5
<STATE> 2
<NUMMIXES> 2
<MIXTURE> 1 8.053265e-001
<MEAN> 22
 8.167410e+000 1.181736e+001 2.996213e+000 2.926762e+000 9.663434e+001 8.855956e+001 9.535862e+001 8.257893e+001 7.165914e+001 6.363324e+001 1.651926e+002 1.460140e+002 1.135663e+002 1.156237e+002 5.080193e+000 4.085281e+000 5.905714e+000 5.570621e+000 5.143330e+000 4.224093e+000 2.677389e+000 2.525384e+000
<VARIANCE> 22
 6.172054e+002 1.120705e+003 4.396157e+002 2.791763e+002 2.101995e+004 1.302033e+004 1.428598e+003 9.456003e+002 2.249001e+002 1.246871e+002 4.332109e+003 3.697508e+003 9.185106e+002 2.534568e+002 7.439324e+000 1.298062e+000 2.505141e+000 3.830455e-001 2.220049e+000 6.027117e+000 6.116762e+000 5.068334e+000
<GCONST> 1.465846e+002
<MIXTURE> 2 1.946735e-001
<MEAN> 22
 0.000000e+000 0.000000e+000 0.000000e+000 0.000000e+000 5.315967e+002 4.080165e+002 0.000000e+000 0.000000e+000 0.000000e+000 0.000000e+000 0.000000e+000 0.000000e+000 0.000000e+000 0.000000e+000 0.000000e+000 0.000000e+000 0.000000e+000 0.000000e+000 0.000000e+000 0.000000e+000 0.000000e+000 0.000000e+000
<VARIANCE> 22
 4.801632e+000 4.063125e+000 3.300596e+000 2.164982e+000 3.309078e+003 2.711515e+003 9.838196e+000 1.115232e+001 2.936353e+000 3.516743e+000 3.745900e+001 4.440890e+001 4.184655e+000 3.870682e+000 6.504287e-002 1.793315e-002 2.326111e-002 1.170389e-002 2.082488e-002 5.618803e-002 6.153807e-002 6.060927e-002
<GCONST> 5.130989e+001
<STATE> 3
<NUMMIXES> 2
<MIXTURE> 1 5.635635e-001
<MEAN> 22
 1.394272e+000 1.341051e+001 5.082327e-001 3.319583e+000 7.033031e+000 8.736801e+001 9.851471e+001 7.301531e+001 6.030458e+001 6.664674e+001 1.987278e+002 1.150928e+002 1.181456e+002 1.096750e+002 6.999002e+000 3.755388e+000 6.083248e+000 5.398071e+000 6.000000e+000 3.814009e+000 1.690111e+000 3.478576e+000
<VARIANCE> 22
 8.193106e+000 1.674162e+002 3.300596e+000 1.384133e+001 5.393816e+001 3.335700e+003 2.762429e+002 9.328102e+002 6.605774e+001 1.581619e+002 5.490674e+002 2.570147e+003 2.000822e+002 1.721488e+002 6.504287e-002 1.099609e+000 7.631581e-002 4.244291e-001 2.082488e-002 6.755877e+000 5.567685e+000 5.029157e+000
<GCONST> 1.052032e+002
<MIXTURE> 2 4.364356e-001
<MEAN> 22
 7.948597e-001 2.379288e+000 3.997334e-001 1.092088e+000 1.141423e+001 1.123544e+002 8.553188e+001 6.729293e+001 5.522142e+001 6.127015e+001 1.778734e+002 6.653928e+001 1.070211e+002 9.778618e+001 6.893826e+000 2.759407e+000 6.070635e+000 5.176425e+000 5.939066e+000 1.270959e+000 1.212887e+000 2.815088e+000
<VARIANCE> 22
 4.801632e+000 6.754798e+000 3.300596e+000 2.164982e+000 7.754742e+002 9.165417e+002 1.618330e+002 4.317834e+002 4.505845e+001 6.901771e+001 4.101067e+002 6.082509e+002 6.421219e+001 9.798479e+001 6.027340e-001 2.705945e-001 1.068578e-001 3.198059e-001 1.664524e-001 9.541177e-001 4.429893e+000 6.172488e+000
<GCONST> 9.600268e+001
<STATE> 4
<NUMMIXES> 2
<MIXTURE> 1 5.484493e-001
<MEAN> 22
 8.232180e+000 3.678015e+000 2.446191e+000 1.271763e+000 7.414883e+001 1.368848e+001 8.273348e+001 9.781310e+001 6.979450e+001 5.620123e+001 1.367243e+002 1.971242e+002 1.137839e+002 1.170264e+002 3.952835e+000 5.000000e+000 6.512829e+000 5.908067e+000 4.642467e+000 5.996281e+000 3.297301e+000 2.564971e+000
<VARIANCE> 22
 9.917382e+001 2.891690e+001 9.620872e+000 3.184516e+000 3.054290e+003 2.087084e+002 7.093816e+002 2.547686e+002 2.317939e+002 6.240464e+001 3.816094e+003 4.191365e+002 2.323448e+002 1.237948e+002 9.206381e+000 1.793315e-002 2.536856e-001 8.348021e-002 2.693614e+000 5.618803e-002 6.223786e+000 6.361406e+000
<GCONST> 1.075528e+002
<MIXTURE> 2 4.515499e-001
<MEAN> 22
 4.783794e+000 5.982051e+000 1.367790e+000 2.047529e+000 6.075007e+001 6.606439e+001 6.163698e+001 5.789600e+001 6.737671e+001 5.678275e+001 9.609542e+001 9.951231e+001 1.021679e+002 9.988326e+001 2.323634e+000 3.165130e+000 5.924655e+000 5.426512e+000 3.980675e+000 2.829818e+000 2.652365e+000 2.782203e+000
<VARIANCE> 22
 5.547747e+001 9.363606e+001 4.079134e+000 1.180622e+001 2.697174e+003 2.706315e+003 1.208258e+003 9.965242e+002 1.430876e+002 5.589560e+001 2.310906e+003 1.627949e+003 1.206908e+002 1.440251e+002 5.131523e+000 1.447321e+000 3.214064e+000 3.931827e-001 1.873618e+000 7.155487e+000 6.211548e+000 6.298741e+000
<GCONST> 1.250600e+002
<TRANSP> 5
 0.000000e+000 1.000000e+000 0.000000e+000 0.000000e+000 0.000000e+000
 0.000000e+000 7.035837e-001 2.964163e-001 0.000000e+000 0.000000e+000
 0.000000e+000 0.000000e+000 9.480096e-001 5.199041e-002 0.000000e+000
 0.000000e+000 0.000000e+000 0.000000e+000 9.214448e-001 7.855526e-002
 0.000000e+000 0.000000e+000 0.000000e+000 0.000000e+000 0.000000e+000
<ENDHMM>
~h "OK"
<BEGINHMM>
<NUMSTATES> 5
<STATE> 2
<NUMMIXES> 2
<MIXTURE> 1 6.705196e-001
<MEAN> 22
 1.495186e+001 2.993370e+000 4.411362e+000 1.442571e+000 1.228619e+002 1.654227e+001 1.021054e+002 9.635838e+001 7.807777e+001 5.392556e+001 8.207358e+001 1.987339e+002 1.083329e+002 1.174942e+002 2.345011e+000 4.997898e+000 4.506385e+000 5.907963e+000 3.420950e+000 5.994816e+000 3.497611e+000 2.217631e+000
<VARIANCE> 22
 5.276066e+002 2.220125e+002 2.662455e+002 1.517757e+002 4.307754e+003 4.531393e+002 9.302153e+002 2.166742e+002 2.524872e+002 5.913232e+001 3.609162e+003 3.734575e+002 3.536041e+002 1.243654e+002 5.175909e+000 1.793315e-002 9.464157e+000 8.356557e-002 2.385370e+000 5.618803e-002 5.847692e+000 5.966566e+000
<GCONST> 1.227568e+002
<MIXTURE> 2 3.294797e-001
<MEAN> 22
 8.572530e+000 7.207714e+000 2.002361e+000 1.930342e+000 5.322840e+001 5.953191e+001 7.413664e+001 5.148024e+001 6.957380e+001 6.037778e+001 9.243471e+001 9.848422e+001 9.925220e+001 1.010735e+002 2.755294e+000 3.196943e+000 4.788867e+000 5.497530e+000 3.946359e+000 3.568331e+000 3.012597e+000 2.585593e+000
<VARIANCE> 22
 1.763304e+002 1.575120e+002 1.569073e+001 1.512294e+001 2.004183e+003 3.221174e+003 1.805349e+003 1.036649e+003 1.359674e+002 1.120042e+002 2.842123e+003 1.438957e+003 3.540636e+002 1.389658e+002 5.266436e+000 1.568290e+000 6.716194e+000 6.414196e-001 2.172059e+000 9.032959e+000 6.554545e+000 5.975840e+000
<GCONST> 1.321320e+002
<STATE> 3
<NUMMIXES> 2
<MIXTURE> 1 4.987900e-001
<MEAN> 22
 2.289683e+000 2.012164e+001 7.687804e-001 4.206131e+000 1.014807e+001 9.883498e+001 1.008314e+002 8.878934e+001 6.157030e+001 7.446210e+001 2.023689e+002 1.155218e+002 1.203288e+002 1.122841e+002 6.998135e+000 3.743851e+000 6.128915e+000 5.124383e+000 5.999331e+000 3.878702e+000 2.139993e+000 3.779102e+000
<VARIANCE> 22
 2.224183e+001 3.910743e+002 3.300596e+000 2.096700e+001 2.143164e+002 5.580182e+003 3.812562e+002 1.280839e+003 8.611906e+001 2.930139e+002 7.304236e+002 3.166416e+003 2.565971e+002 1.929792e+002 6.504287e-002 1.227767e+000 1.130302e-001 6.300608e-001 2.082488e-002 6.133099e+000 6.451409e+000 5.198096e+000
<GCONST> 1.127195e+002
<MIXTURE> 2 5.012099e-001
<MEAN> 22
 9.878606e-001 6.415541e+000 6.337566e-001 2.113570e+000 7.875549e+000 1.454668e+002 8.471429e+001 9.736974e+001 5.247897e+001 6.822048e+001 1.812003e+002 4.612527e+001 1.087942e+002 9.707460e+001 6.937131e+000 2.448362e+000 6.014755e+000 4.518938e+000 5.978065e+000 1.536865e+000 1.575032e+000 3.141306e+000
<VARIANCE> 22
 4.801632e+000 6.696925e+001 3.300596e+000 6.585917e+000 3.716123e+002 1.084228e+003 8.962946e+001 4.802075e+002 3.754451e+001 8.230406e+001 2.255118e+002 3.191359e+002 5.104058e+001 8.162010e+001 3.645979e-001 2.853324e-001 4.525783e-002 4.346898e-001 6.606854e-002 4.235218e-001 5.387225e+000 5.891232e+000
<GCONST> 9.410625e+001
<STATE> 4
<NUMMIXES> 2
<MIXTURE> 1 8.831383e-001
<MEAN> 22
 5.522434e+000 4.921862e+000 1.808200e+000 1.641712e+000 3.726223e+001 2.959879e+001 9.423306e+001 9.346362e+001 6.312755e+001 5.611487e+001 1.822496e+002 1.927319e+002 1.151813e+002 1.157948e+002 6.304447e+000 4.999177e+000 6.199899e+000 5.868423e+000 5.677224e+000 6.000018e+000 2.831069e+000 2.964578e+000
<VARIANCE> 22
 7.246077e+001 5.574126e+001 6.694957e+000 4.850932e+000 1.986790e+003 1.102493e+003 4.172686e+002 1.977402e+002 9.543384e+001 6.350785e+001 1.983555e+003 3.461873e+002 1.692277e+002 9.894095e+001 3.716852e+000 1.793315e-002 1.599412e-001 1.142656e-001 1.136908e+000 5.618803e-002 6.137300e+000 6.425074e+000
<GCONST> 1.042263e+002
<MIXTURE> 2 1.168616e-001
<MEAN> 22
 2.807606e+000 2.262982e+000 1.162985e+000 8.228724e-001 2.851334e+002 2.039732e+002 5.219150e+001 3.122873e+001 3.584253e+001 2.905985e+001 3.539192e+001 7.510622e+001 4.887622e+001 5.421289e+001 1.320012e+000 2.338220e+000 1.079238e+000 3.084704e+000 1.619827e+000 2.945248e+000 1.609586e+000 1.493486e+000
<VARIANCE> 22
 3.350602e+001 3.576040e+001 7.399397e+000 5.508178e+000 4.660746e+004 3.381318e+004 3.043502e+003 1.183450e+003 1.176832e+003 7.788417e+002 2.680933e+003 5.657828e+003 2.213395e+003 2.611940e+003 3.396041e+000 5.405521e+000 5.070366e+000 8.459883e+000 3.429965e+000 9.605564e+000 5.147557e+000 5.000931e+000
<GCONST> 1.467496e+002
<TRANSP> 5
 0.000000e+000 1.000000e+000 0.000000e+000 0.000000e+000 0.000000e+000
 0.000000e+000 8.967550e-001 1.032450e-001 0.000000e+000 0.000000e+000
 0.000000e+000 0.000000e+000 9.308978e-001 6.910215e-002 0.000000e+000
 0.000000e+000 0.000000e+000 0.000000e+000 8.465486e-001 1.534514e-001
 0.000000e+000 0.000000e+000 0.000000e+000 0.000000e+000 0.000000e+000
<ENDHMM>
~h "PF"
<BEGINHMM>
<NUMSTATES> 5
<STATE> 2
<NUMMIXES> 2
<MIXTURE> 1 3.186488e-001
<MEAN> 22
 1.054884e+001 1.316392e+001 7.231433e+000 7.314014e+000 1.726524e+002 1.416413e+002 1.009339e+002 9.222530e+001 6.318770e+001 6.308719e+001 1.987213e+002 1.868223e+002 1.154146e+002 1.163257e+002 6.986545e+000 4.948966e+000 6.125609e+000 5.789769e+000 5.982646e+000 6.015821e+000 2.456438e+000 2.456421e+000
<VARIANCE> 22
 3.002670e+003 2.439462e+003 2.604702e+003 1.731072e+003 4.977800e+004 3.075412e+004 2.907511e+002 5.905247e+002 4.492681e+001 1.116449e+002 5.163106e+002 9.802365e+002 1.126614e+002 1.386482e+002 6.709625e-002 1.520406e-001 1.098319e-001 1.983280e-001 5.263554e-002 3.148575e-001 6.362419e+000 5.767826e+000
<GCONST> 1.271663e+002
<MIXTURE> 2 6.813511e-001
<MEAN> 22
 7.073296e+000 1.060422e+001 2.137873e+000 2.876323e+000 1.101804e+002 1.622498e+002 8.282497e+001 1.175786e+002 7.164759e+001 7.742072e+001 1.334621e+002 7.888301e+001 9.983327e+001 9.323284e+001 3.458903e+000 2.640591e+000 5.355993e+000 4.123254e+000 4.752620e+000 2.202115e+000 2.465541e+000 2.887065e+000
<VARIANCE> 22
 1.857823e+002 2.599495e+002 3.161469e+001 1.606190e+001 2.047460e+004 9.720412e+003 1.964972e+003 3.187670e+003 5.788566e+002 8.047944e+002 5.208306e+003 3.788090e+003 1.157451e+003 7.024641e+002 9.369918e+000 1.538706e+000 4.982795e+000 2.412802e+000 2.895334e+000 3.840000e+000 6.208618e+000 5.066201e+000
<GCONST> 1.466778e+002
<STATE> 3
<NUMMIXES> 2
<MIXTURE> 1 3.498224e-001
<MEAN> 22
 2.297248e+000 2.135126e+001 9.132735e-001 4.517622e+000 1.150904e+001 5.036581e+001 9.397715e+001 8.608012e+001 5.906047e+001 6.523685e+001 1.932699e+002 1.615519e+002 1.154719e+002 1.111093e+002 6.994127e+000 4.485556e+000 6.041970e+000 5.519359e+000 5.998977e+000 5.259370e+000 2.327341e+000 3.760545e+000
<VARIANCE> 22
 1.222890e+001 4.372831e+002 3.300596e+000 2.215059e+001 1.599959e+002 1.521662e+003 2.082670e+002 6.167981e+002 4.243476e+001 1.744834e+002 3.869613e+002 2.009251e+003 1.206400e+002 1.369809e+002 6.504287e-002 6.044373e-001 4.021013e-002 2.581378e-001 2.082488e-002 3.058670e+000 6.172417e+000 5.768322e+000
<GCONST> 1.026768e+002
<MIXTURE> 2 6.501771e-001
<MEAN> 22
 1.352145e+000 1.012808e+001 6.248656e-001 3.599976e+000 1.004380e+001 1.883608e+002 9.243764e+001 1.358592e+002 5.799887e+001 8.553749e+001 1.879055e+002 5.593224e+001 1.129725e+002 9.170086e+001 6.923974e+000 2.423597e+000 6.059334e+000 3.578183e+000 5.957305e+000 1.703687e+000 1.692879e+000 3.325922e+000
<VARIANCE> 22
 8.286236e+000 1.464653e+002 3.300596e+000 1.990296e+001 6.190201e+002 1.655068e+003 2.692578e+002 7.872148e+002 7.049606e+001 2.615831e+002 6.759828e+002 9.413061e+002 1.316550e+002 2.117638e+002 3.913675e-001 3.153904e-001 2.774907e-001 6.307608e-001 1.234418e-001 5.016973e-001 5.839281e+000 4.377495e+000
<GCONST> 1.078694e+002
<STATE> 4
<NUMMIXES> 2
<MIXTURE> 1 7.473133e-001
<MEAN> 22
 1.216493e+001 1.519399e+000 3.607589e+000 7.492980e-001 1.366062e+002 1.916493e+001 1.316270e+002 9.924286e+001 8.418583e+001 5.645100e+001 1.082175e+002 1.988472e+002 1.038450e+002 1.180677e+002 2.709198e+000 5.000000e+000 3.079873e+000 5.817351e+000 3.333538e+000 5.999063e+000 3.422695e+000 2.299867e+000
<VARIANCE> 22
 2.267226e+002 4.672532e+000 2.317726e+001 2.164982e+000 6.460682e+003 6.891848e+002 1.716848e+003 2.123046e+002 4.304526e+002 6.906126e+001 4.415092e+003 4.026982e+002 4.088065e+002 1.310524e+002 6.288454e+000 1.793315e-002 8.500493e+000 1.492873e-001 3.619419e+000 5.618803e-002 6.852183e+000 6.093741e+000
<GCONST> 1.152042e+002
<MIXTURE> 2 2.526863e-001
<MEAN> 22
 6.873289e+000 7.299035e+000 2.624587e+000 2.357792e+000 5.735925e+001 2.737014e+001 8.507969e+001 4.779115e+001 7.738970e+001 5.794617e+001 9.327440e+001 1.184047e+002 9.868845e+001 1.034906e+002 2.827988e+000 3.501782e+000 4.244462e+000 5.631667e+000 3.746239e+000 3.526746e+000 2.749576e+000 2.803877e+000
<VARIANCE> 22
 1.365271e+002 1.286987e+002 2.308947e+001 1.232002e+001 2.254490e+003 7.265747e+002 3.269451e+003 8.325618e+002 3.714806e+002 6.647195e+001 2.598712e+003 1.262036e+003 2.701382e+002 8.822158e+001 4.940108e+000 2.054408e+000 6.494531e+000 2.917222e-001 1.801269e+000 9.467971e+000 6.543192e+000 6.328342e+000
<GCONST> 1.296964e+002
<TRANSP> 5
 0.000000e+000 1.000000e+000 0.000000e+000 0.000000e+000 0.000000e+000
 0.000000e+000 6.775715e-001 3.224285e-001 0.000000e+000 0.000000e+000
 0.000000e+000 0.000000e+000 9.551407e-001 4.485934e-002 0.000000e+000
 0.000000e+000 0.000000e+000 0.000000e+000 9.149917e-001 8.500834e-002
 0.000000e+000 0.000000e+000 0.000000e+000 0.000000e+000 0.000000e+000
<ENDHMM>
~h "PR"
<BEGINHMM>
<NUMSTATES> 5
<STATE> 2
<NUMMIXES> 2
<MIXTURE> 1 8.325170e-001
<MEAN> 22
 9.150889e+000 1.154154e+001 4.283967e+000 4.842029e+000 3.594395e+001 6.403515e+001 8.899793e+001 9.410481e+001 7.356664e+001 6.619279e+001 1.717724e+002 1.472799e+002 1.128785e+002 1.123677e+002 4.886508e+000 4.122926e+000 6.423272e+000 5.330110e+000 5.578961e+000 4.506220e+000 2.445655e+000 2.935227e+000
<VARIANCE> 22
 1.273931e+003 9.904139e+002 9.747165e+002 6.352924e+002 1.483556e+003 3.308233e+003 1.329451e+003 1.036241e+003 2.905856e+002 2.122009e+002 3.227535e+003 2.514847e+003 8.580544e+002 3.029048e+002 9.227870e+000 1.016283e+000 3.422027e-001 4.845378e-001 1.354396e+000 3.826746e+000 5.934444e+000 5.724261e+000
<GCONST> 1.423790e+002
<MIXTURE> 2 1.674830e-001
<MEAN> 22
 1.517167e+000 2.102864e+000 4.275480e-001 6.652672e-001 4.320965e+002 3.273678e+002 3.333918e+001 2.120071e+001 1.971396e+001 1.839813e+001 4.634267e+001 3.730915e+001 3.076379e+001 3.042541e+001 1.446226e+000 1.087584e+000 1.194467e+000 1.606871e+000 1.363711e+000 9.916942e-001 6.807258e-001 8.430173e-001
<VARIANCE> 22
 3.378988e+001 3.296076e+001 3.300596e+000 4.692080e+000 1.440530e+004 1.219390e+004 2.810108e+003 1.331335e+003 9.966241e+002 8.496307e+002 6.747969e+003 4.307229e+003 2.392975e+003 2.293656e+003 7.306832e+000 3.309376e+000 5.577630e+000 6.424628e+000 5.499157e+000 4.546815e+000 2.645034e+000 3.483068e+000
<GCONST> 1.428642e+002
<STATE> 3
<NUMMIXES> 2
<MIXTURE> 1 8.108314e-001
<MEAN> 22
 1.273886e+000 1.138898e+001 5.703362e-001 3.677770e+000 7.560483e+000 9.354945e+001 9.477197e+001 8.597489e+001 5.888041e+001 6.587708e+001 1.920105e+002 1.120353e+002 1.141703e+002 1.044844e+002 6.999465e+000 3.623634e+000 6.055194e+000 5.073508e+000 5.999779e+000 3.650418e+000 1.833369e+000 3.794566e+000
<VARIANCE> 22
 5.700523e+000 1.530732e+002 3.300596e+000 2.014418e+001 7.135180e+001 2.435453e+003 2.421380e+002 7.626172e+002 5.868762e+001 1.680941e+002 4.738619e+002 1.878110e+003 1.508593e+002 2.189499e+002 6.504287e-002 7.422422e-001 5.214674e-002 3.726039e-001 2.082488e-002 4.072488e+000 5.981227e+000 5.917973e+000
<GCONST> 1.030220e+002
<MIXTURE> 2 1.891704e-001
<MEAN> 22
 9.389906e-001 2.059785e+000 4.515886e-001 1.100785e+000 1.909101e+001 1.105712e+002 8.160010e+001 8.555671e+001 5.568205e+001 5.794120e+001 1.687670e+002 7.151778e+001 1.047126e+002 9.322493e+001 6.634063e+000 2.927920e+000 6.147825e+000 4.927474e+000 5.823087e+000 2.148101e+000 1.023037e+000 2.819373e+000
<VARIANCE> 22
 5.193532e+000 6.064600e+000 3.300596e+000 2.164982e+000 1.430095e+003 1.674183e+003 1.741193e+002 4.103174e+002 7.817755e+001 9.101509e+001 6.071290e+002 1.368507e+003 8.052444e+001 1.464812e+002 2.049907e+000 4.523998e-001 3.648848e-001 3.179247e-001 6.215154e-001 1.537930e+000 3.672990e+000 7.451866e+000
<GCONST> 1.046254e+002
<STATE> 4
<NUMMIXES> 2
<MIXTURE> 1 7.024401e-001
<MEAN> 22
 8.826856e+000 2.224692e+000 2.564459e+000 1.000927e+000 7.096509e+001 1.583706e+001 8.421212e+001 9.610222e+001 6.950779e+001 5.545844e+001 1.268678e+002 1.950817e+002 1.094306e+002 1.156190e+002 3.223358e+000 5.000224e+000 6.609469e+000 5.845273e+000 4.220099e+000 5.998025e+000 3.563407e+000 2.257788e+000
<VARIANCE> 22
 1.167645e+002 1.166066e+001 1.108743e+001 2.164982e+000 2.559800e+003 2.807756e+002 6.151576e+002 1.910394e+002 2.214660e+002 6.187411e+001 3.572354e+003 3.441828e+002 2.362598e+002 1.066102e+002 9.072139e+000 1.793315e-002 2.386750e-001 1.307814e-001 3.804656e+000 5.618803e-002 5.830942e+000 6.028656e+000
<GCONST> 1.064032e+002
<MIXTURE> 2 2.975594e-001
<MEAN> 22
 9.718719e+000 4.823621e+000 2.554136e+000 1.445274e+000 5.693876e+001 2.941803e+001 8.097309e+001 5.446110e+001 7.551891e+001 5.924791e+001 9.298721e+001 1.292195e+002 1.035527e+002 1.012984e+002 1.884313e+000 3.786187e+000 5.089074e+000 5.639642e+000 3.249930e+000 4.626858e+000 2.678628e+000 2.429926e+000
<VARIANCE> 22
 1.775128e+002 7.160250e+001 1.300360e+001 7.272203e+000 2.280149e+003 8.867181e+002 1.817428e+003 1.080348e+003 1.483025e+002 5.514081e+001 1.276338e+003 1.454916e+003 1.214789e+002 1.051188e+002 4.325089e+000 1.190068e+000 7.654647e+000 2.808179e-001 2.339837e+000 7.317016e+000 5.909337e+000 6.297393e+000
<GCONST> 1.252016e+002
<TRANSP> 5
 0.000000e+000 1.000000e+000 0.000000e+000 0.000000e+000 0.000000e+000
 0.000000e+000 6.793170e-001 3.206831e-001 0.000000e+000 0.000000e+000
 0.000000e+000 0.000000e+000 9.493784e-001 5.062168e-002 0.000000e+000
 0.000000e+000 0.000000e+000 0.000000e+000 9.169967e-001 8.300336e-002
 0.000000e+000 0.000000e+000 0.000000e+000 0.000000e+000 0.000000e+000
<ENDHMM>
~h "SP"
<BEGINHMM>
<NUMSTATES> 5
<STATE> 2
<NUMMIXES> 2
<MIXTURE> 1 8.356122e-001
<MEAN> 22
 1.060003e+001 1.438317e+001 6.241683e+000 7.062119e+000 4.410663e+001 1.182125e+002 9.436682e+001 1.171384e+002 7.625998e+001 8.668264e+001 1.641483e+002 1.083680e+002 1.144267e+002 1.071764e+002 4.449242e+000 3.364004e+000 6.041097e+000 4.431554e+000 5.488616e+000 3.093395e+000 2.374624e+000 2.653952e+000
<VARIANCE> 22
 2.672451e+003 1.818081e+003 2.169237e+003 1.309453e+003 3.133134e+003 8.995492e+003 1.667796e+003 1.861356e+003 3.674151e+002 1.069968e+003 4.463902e+003 3.782605e+003 6.124393e+002 3.329388e+002 9.896282e+000 1.619473e+000 2.329884e+000 1.656661e+000 1.226067e+000 5.591405e+000 5.860804e+000 4.938454e+000
<GCONST> 1.539562e+002
<MIXTURE> 2 1.643879e-001
<MEAN> 22
 1.545989e-021 2.382868e-022 -4.244254e-020 -3.537672e-021 5.310355e+002 3.993491e+002 -2.650314e-019 -9.146853e-018 8.117863e-019 3.759057e-019 6.322432e-019 -1.254704e-018 1.523841e-019 -2.617593e-018 -2.141881e-029 1.930058e-020 -1.661301e-018 7.315034e-021 1.710366e-019 5.032757e-021 1.529399e-021 5.844178e-020
<VARIANCE> 22
 4.801632e+000 4.063125e+000 3.300596e+000 2.164982e+000 3.435536e+003 2.506351e+003 9.838196e+000 1.115232e+001 2.936353e+000 3.516743e+000 3.745900e+001 4.440890e+001 4.184655e+000 3.870682e+000 6.504287e-002 1.793315e-002 2.326111e-002 1.170389e-002 2.082488e-002 5.618803e-002 6.153807e-002 6.060927e-002
<GCONST> 5.126871e+001
<STATE> 3
<NUMMIXES> 2
<MIXTURE> 1 4.934393e-001
<MEAN> 22
 1.626029e+000 1.973448e+001 6.249083e-001 5.665108e+000 9.130211e+000 1.236595e+002 9.954485e+001 1.104180e+002 6.217639e+001 7.877946e+001 1.987653e+002 1.075727e+002 1.184892e+002 1.049642e+002 6.998395e+000 3.429600e+000 6.118809e+000 4.568966e+000 5.999552e+000 3.453486e+000 2.027238e+000 3.684093e+000
<VARIANCE> 22
 8.485160e+000 3.701896e+002 3.300596e+000 3.934671e+001 1.179851e+002 7.569708e+003 3.422409e+002 1.719177e+003 7.559588e+001 5.465074e+002 5.961882e+002 3.472055e+003 1.951919e+002 2.215044e+002 6.504287e-002 1.456239e+000 1.046920e-001 1.199400e+000 2.082488e-002 4.999044e+000 6.157637e+000 5.366888e+000
<GCONST> 1.129900e+002
<MIXTURE> 2 5.065604e-001
<MEAN> 22
 1.124366e+000 3.788836e+000 4.700952e-001 1.887378e+000 1.099343e+001 1.868937e+002 8.936698e+001 1.356544e+002 5.820764e+001 8.867696e+001 1.788795e+002 4.742485e+001 1.076240e+002 8.671599e+001 6.886711e+000 2.115937e+000 6.033000e+000 3.191382e+000 5.944897e+000 1.480506e+000 1.375036e+000 2.500409e+000
<VARIANCE> 22
 7.444111e+000 2.839421e+001 3.300596e+000 6.615073e+000 7.289142e+002 1.445941e+003 2.467524e+002 3.555141e+002 7.940420e+001 3.664237e+002 5.388971e+002 4.892414e+002 8.702635e+001 1.533963e+002 6.048473e-001 1.857661e-001 4.141849e-001 2.937027e-001 2.288032e-001 5.563327e-001 4.886270e+000 6.008733e+000
<GCONST> 1.034060e+002
<STATE> 4
<NUMMIXES> 2
<MIXTURE> 1 7.068430e-001
<MEAN> 22
 1.266588e+001 1.139921e+000 4.160241e+000 5.694182e-001 1.535615e+002 1.401653e+001 1.283627e+002 9.717353e+001 9.311965e+001 5.697815e+001 8.606679e+001 1.948654e+002 9.441183e+001 1.157580e+002 2.509586e+000 5.000000e+000 2.857380e+000 5.833461e+000 3.470803e+000 5.991875e+000 3.401206e+000 1.874574e+000
<VARIANCE> 22
 3.290463e+002 4.063125e+000 5.323582e+001 2.164982e+000 6.324485e+003 6.567675e+002 1.405575e+003 1.888815e+002 4.819593e+002 5.184517e+001 3.220494e+003 3.348831e+002 4.178441e+002 1.093469e+002 4.530542e+000 1.793315e-002 7.648460e+000 1.388084e-001 2.664845e+000 5.618803e-002 6.260924e+000 5.691716e+000
<GCONST> 1.140783e+002
<MIXTURE> 2 2.931573e-001
<MEAN> 22
 7.545240e+000 6.596069e+000 2.688464e+000 2.287833e+000 6.770055e+001 2.836755e+001 1.007654e+002 5.039844e+001 8.501965e+001 5.950439e+001 9.496947e+001 1.186534e+002 9.754596e+001 1.034885e+002 3.020891e+000 3.575522e+000 3.945548e+000 5.641603e+000 3.901809e+000 3.301873e+000 2.992619e+000 2.681594e+000
<VARIANCE> 22
 1.179224e+002 1.289593e+002 1.842651e+001 1.185362e+001 2.603423e+003 9.269926e+002 2.698272e+003 8.323205e+002 6.885132e+002 7.350397e+001 3.024057e+003 1.676721e+003 2.648223e+002 1.181918e+002 5.403737e+000 1.561873e+000 6.892403e+000 3.325097e-001 1.771029e+000 9.552237e+000 6.630999e+000 6.734879e+000
<GCONST> 1.309823e+002
<TRANSP> 5
 0.000000e+000 1.000000e+000 0.000000e+000 0.000000e+000 0.000000e+000
 0.000000e+000 6.362069e-001 3.637931e-001 0.000000e+000 0.000000e+000
 0.000000e+000 0.000000e+000 9.582335e-001 4.176650e-002 0.000000e+000
 0.000000e+000 0.000000e+000 0.000000e+000 9.240208e-001 7.597917e-002
 0.000000e+000 0.000000e+000 0.000000e+000 0.000000e+000 0.000000e+000
<ENDHMM>
~h "ST"
<BEGINHMM>
<NUMSTATES> 5
<STATE> 2
<NUMMIXES> 2
<MIXTURE> 1 1.733533e-001
<MEAN> 22
 1.794064e+001 2.629662e+001 1.190053e+001 9.061407e+000 1.994816e+002 2.068213e+002 1.237707e+002 9.167863e+001 7.864076e+001 7.968987e+001 2.137722e+002 1.280095e+002 1.326853e+002 1.225592e+002 6.070481e+000 3.426257e+000 6.655180e+000 5.810095e+000 5.618259e+000 3.281498e+000 2.393241e+000 2.953992e+000
<VARIANCE> 22
 3.445511e+003 3.503274e+003 3.082627e+003 1.858397e+003 5.653561e+004 2.436490e+004 1.861783e+003 8.874682e+002 2.635685e+002 2.785162e+002 5.944769e+003 5.835595e+003 1.244454e+003 3.826418e+002 4.245518e+000 2.514118e+000 3.205727e-001 5.441620e-001 7.006283e-001 7.587396e+000 6.783881e+000 6.304242e+000
<GCONST> 1.553492e+002
<MIXTURE> 2 8.266466e-001
<MEAN> 22
 4.550214e+000 7.480329e+000 1.099522e+000 2.127919e+000 7.019315e+001 9.081216e+001 7.648628e+001 7.719844e+001 6.780646e+001 7.253570e+001 1.429515e+002 1.043713e+002 1.058875e+002 1.068613e+002 4.294557e+000 3.174711e+000 5.908958e+000 5.475329e+000 4.858629e+000 2.786060e+000 2.685843e+000 2.684379e+000
<VARIANCE> 22
 5.846912e+001 1.090448e+002 3.300596e+000 8.031963e+000 1.137257e+004 6.639802e+003 1.190614e+003 1.073961e+003 3.719019e+002 5.703751e+002 3.489696e+003 4.667123e+003 8.436274e+002 6.439330e+002 9.029213e+000 2.337984e+000 2.176105e+000 1.466404e+000 2.990269e+000 7.339363e+000 6.358006e+000 5.724314e+000
<GCONST> 1.376415e+002
<STATE> 3
<NUMMIXES> 2
<MIXTURE> 1 3.939946e-001
<MEAN> 22
 2.528863e+000 1.631419e+001 8.283554e-001 3.702059e+000 1.731275e+001 7.362732e+001 9.658945e+001 7.018217e+001 6.148579e+001 7.249467e+001 1.939491e+002 1.251112e+002 1.167422e+002 1.109269e+002 6.910771e+000 3.903237e+000 6.196664e+000 5.746541e+000 5.963959e+000 4.242594e+000 1.975441e+000 3.336677e+000
<VARIANCE> 22
 1.923008e+001 2.224166e+002 3.300596e+000 1.627859e+001 8.221469e+002 3.193712e+003 3.506864e+002 8.116186e+002 8.027042e+001 3.341438e+002 7.775214e+002 3.591245e+003 1.872854e+002 1.476708e+002 4.377544e-001 1.720736e+000 1.717595e-001 2.916046e-001 8.375038e-002 7.788551e+000 5.658182e+000 5.197036e+000
<GCONST> 1.150616e+002
<MIXTURE> 2 6.060055e-001
<MEAN> 22
 7.605176e-001 7.299298e+000 3.825271e-001 1.275193e+000 5.844076e+000 1.359984e+002 8.966191e+001 6.726449e+001 5.700370e+001 8.374563e+001 1.878483e+002 4.719727e+001 1.123727e+002 1.021751e+002 6.999915e+000 2.048978e+000 6.000048e+000 5.895959e+000 6.000000e+000 3.988085e-001 1.292763e+000 2.803727e+000
<VARIANCE> 22
 4.801632e+000 8.458222e+001 3.300596e+000 2.242919e+000 4.956259e+001 9.049415e+002 1.365755e+002 4.957695e+002 3.685859e+001 2.599650e+002 3.095508e+002 3.365923e+002 9.141350e+001 1.001676e+002 6.504287e-002 8.049693e-002 2.326111e-002 4.037861e-001 2.082488e-002 2.416774e-001 4.682203e+000 6.078194e+000
<GCONST> 8.825645e+001
<STATE> 4
<NUMMIXES> 2
<MIXTURE> 1 7.617173e-001
<MEAN> 22
 1.047759e+001 1.383971e+000 2.353480e+000 6.082827e-001 1.024032e+002 1.787741e+001 7.727740e+001 9.872991e+001 8.377025e+001 5.716047e+001 9.207965e+001 1.992650e+002 1.100179e+002 1.185371e+002 3.059631e+000 5.000000e+000 6.208842e+000 5.907271e+000 4.212520e+000 5.995739e+000 3.305921e+000 1.972055e+000
<VARIANCE> 22
 1.456357e+002 4.387064e+000 9.702276e+000 2.164982e+000 3.668383e+003 7.052468e+002 6.662415e+002 1.875679e+002 3.665417e+002 4.837074e+001 4.636688e+003 3.683271e+002 2.821219e+002 1.254157e+002 5.748728e+000 1.793315e-002 3.105703e-001 8.412913e-002 1.522426e+000 5.618803e-002 6.128731e+000 5.788015e+000
<GCONST> 1.062405e+002
<MIXTURE> 2 2.382838e-001
<MEAN> 22
 7.760347e+000 7.322847e+000 1.641656e+000 2.463758e+000 5.271624e+001 2.994654e+001 7.146759e+001 5.583188e+001 7.590294e+001 5.982023e+001 9.233788e+001 1.367837e+002 1.044080e+002 1.058383e+002 2.924521e+000 4.192930e+000 5.438184e+000 5.778670e+000 4.176705e+000 5.369327e+000 2.726321e+000 2.729280e+000
<VARIANCE> 22
 9.077561e+001 1.110562e+002 5.419085e+000 1.315188e+001 3.382990e+003 1.096091e+003 1.120370e+003 1.020915e+003 3.398124e+002 7.297486e+001 4.152545e+003 1.916146e+003 1.494752e+002 1.228076e+002 6.241930e+000 1.061310e+000 3.903736e+000 2.358762e-001 1.614450e+000 5.495319e+000 5.891500e+000 6.175236e+000
<GCONST> 1.264051e+002
<TRANSP> 5
 0.000000e+000 1.000000e+000 0.000000e+000 0.000000e+000 0.000000e+000
 0.000000e+000 6.998361e-001 3.001639e-001 0.000000e+000 0.000000e+000
 0.000000e+000 0.000000e+000 9.574144e-001 4.258548e-002 0.000000e+000
 0.000000e+000 0.000000e+000 0.000000e+000 9.188991e-001 8.110084e-002
 0.000000e+000 0.000000e+000 0.000000e+000 0.000000e+000 0.000000e+000
<ENDHMM>
~h "TT"
<BEGINHMM>
<NUMSTATES> 5
<STATE> 2
<NUMMIXES> 2
<MIXTURE> 1 4.625981e-001
<MEAN> 22
 1.996555e+001 5.449307e+000 8.461303e+000 3.315479e+000 2.254594e+002 8.455053e+000 1.727845e+002 1.041265e+002 1.226322e+002 6.044222e+001 9.631165e+001 2.014294e+002 1.039784e+002 1.189871e+002 1.376957e+000 4.997140e+000 1.214178e+000 5.917785e+000 2.310645e+000 5.991395e+000 3.683137e+000 2.316899e+000
<VARIANCE> 22
 1.932077e+003 1.200314e+003 1.384804e+003 8.880074e+002 2.511452e+003 1.344218e+002 1.293833e+003 2.689433e+002 5.358766e+002 1.116311e+002 8.645779e+002 3.924451e+002 3.199153e+002 1.381292e+002 4.509702e-001 1.793315e-002 2.657185e+000 7.545601e-002 5.854393e-001 5.618803e-002 5.679512e+000 6.455143e+000
<GCONST> 1.227946e+002
<MIXTURE> 2 5.374029e-001
<MEAN> 22
 9.224484e+000 1.233140e+001 2.841039e+000 3.875876e+000 4.569139e+001 1.139702e+002 9.217635e+001 1.212000e+002 7.456602e+001 8.926935e+001 1.783607e+002 1.391631e+002 1.161930e+002 1.121186e+002 5.202896e+000 3.723251e+000 6.361975e+000 4.701495e+000 5.709877e+000 3.858730e+000 3.047061e+000 2.777483e+000
<VARIANCE> 22
 1.986843e+002 3.391176e+002 2.335847e+001 3.350427e+001 2.574741e+003 1.111849e+004 1.957423e+003 2.930726e+003 3.104718e+002 1.296150e+003 3.146611e+003 2.948975e+003 5.605401e+002 2.594649e+002 8.467301e+000 1.627772e+000 4.673525e-001 1.789444e+000 5.981984e-001 5.514073e+000 6.861375e+000 5.076878e+000
<GCONST> 1.389710e+002
<STATE> 3
<NUMMIXES> 2
<MIXTURE> 1 3.695913e-001
<MEAN> 22
 2.420180e+000 2.466892e+001 9.151940e-001 6.379190e+000 1.135653e+001 6.349091e+001 9.444250e+001 9.879945e+001 5.957788e+001 7.066734e+001 1.922882e+002 1.573817e+002 1.155606e+002 1.095224e+002 6.991147e+000 4.285949e+000 6.081402e+000 5.242433e+000 5.997365e+000 5.013062e+000 2.253797e+000 3.852340e+000
<VARIANCE> 22
 1.629719e+001 5.365620e+002 3.300596e+000 5.512183e+001 1.668782e+002 2.763146e+003 2.656758e+002 7.115048e+002 7.165960e+001 3.628811e+002 4.987764e+002 2.211913e+003 1.555422e+002 2.107610e+002 6.504287e-002 7.288002e-001 7.477427e-002 3.788446e-001 2.082488e-002 2.455351e+000 5.820087e+000 5.212741e+000
<GCONST> 1.082077e+002
<MIXTURE> 2 6.304092e-001
<MEAN> 22
 1.567499e+000 1.197828e+001 6.930857e-001 5.076177e+000 9.785813e+000 2.249359e+002 9.450012e+001 1.744163e+002 5.851958e+001 1.245149e+002 1.903956e+002 8.792604e+001 1.139266e+002 9.407257e+001 6.968947e+000 2.436084e+000 6.086825e+000 3.140760e+000 5.991483e+000 1.631767e+000 1.836697e+000 3.569937e+000
<VARIANCE> 22
 1.055031e+001 1.563866e+002 3.300596e+000 4.462047e+001 2.997476e+002 1.281408e+003 2.857269e+002 7.325178e+002 9.619998e+001 4.528937e+002 4.863110e+002 5.853925e+002 1.491197e+002 3.219520e+002 1.671100e-001 2.630830e-001 1.202079e-001 1.799332e-001 3.388173e-002 3.193646e-001 5.811371e+000 5.578417e+000
<GCONST> 1.039590e+002
<STATE> 4
<NUMMIXES> 2
<MIXTURE> 1 7.380519e-001
<MEAN> 22
 1.516355e+001 2.133651e+000 5.218025e+000 1.017012e+000 1.407461e+002 2.688457e+001 1.390383e+002 9.707671e+001 9.770926e+001 5.605018e+001 1.203523e+002 1.943433e+002 1.022213e+002 1.158192e+002 2.723238e+000 5.000016e+000 3.268514e+000 5.827168e+000 3.549146e+000 5.987919e+000 3.351350e+000 2.348239e+000
<VARIANCE> 22
 3.672558e+002 1.061432e+001 6.132619e+001 2.164982e+000 8.209530e+003 9.246036e+002 2.288786e+003 2.453671e+002 1.032768e+003 5.229619e+001 2.969630e+003 4.260430e+002 3.874135e+002 1.343721e+002 6.615493e+000 1.793315e-002 8.533337e+000 1.429626e-001 3.721875e+000 5.618803e-002 5.508189e+000 6.233370e+000
<GCONST> 1.185173e+002
<MIXTURE> 2 2.619478e-001
<MEAN> 22
 1.026038e+001 6.281385e+000 4.131991e+000 2.505463e+000 1.305063e+002 6.688507e+001 9.017767e+001 3.782343e+001 8.707973e+001 5.307029e+001 9.112907e+001 1.025389e+002 8.724435e+001 9.224548e+001 2.065938e+000 3.044862e+000 3.672912e+000 5.176241e+000 3.387601e+000 2.665270e+000 2.743896e+000 2.217711e+000
<VARIANCE> 22
 2.513314e+002 1.199994e+002 4.580973e+001 2.306241e+001 1.882579e+004 1.415287e+004 5.190573e+003 1.107474e+003 2.151408e+003 4.417068e+002 2.337897e+003 2.440588e+003 1.147363e+003 1.120580e+003 4.258509e+000 3.024456e+000 7.387203e+000 3.485893e+000 2.896492e+000 1.014713e+001 6.337449e+000 6.067765e+000
<GCONST> 1.488980e+002
<TRANSP> 5
 0.000000e+000 1.000000e+000 0.000000e+000 0.000000e+000 0.000000e+000
 0.000000e+000 8.334450e-001 1.665550e-001 0.000000e+000 0.000000e+000
 0.000000e+000 0.000000e+000 9.534396e-001 4.656041e-002 0.000000e+000
 0.000000e+000 0.000000e+000 0.000000e+000 9.195700e-001 8.042996e-002
 0.000000e+000 0.000000e+000 0.000000e+000 0.000000e+000 0.000000e+000
<ENDHMM>
~h "VA"
<BEGINHMM>
<NUMSTATES> 5
<STATE> 2
<NUMMIXES> 2
<MIXTURE> 1 4.726024e-001
<MEAN> 22
 1.738187e+001 1.155578e+001 7.718396e+000 4.819129e+000 9.367210e+001 3.360447e+001 1.265734e+002 9.702700e+001 9.165709e+001 6.264909e+001 1.581329e+002 1.916360e+002 1.139036e+002 1.174398e+002 4.065266e+000 4.846827e+000 4.759199e+000 5.696615e+000 4.459314e+000 5.911866e+000 3.040714e+000 2.521640e+000
<VARIANCE> 22
 1.678271e+003 1.432534e+003 1.170313e+003 7.312233e+002 9.812362e+003 1.460835e+003 3.887428e+003 6.035432e+002 1.107483e+003 1.278497e+002 5.194142e+003 1.057182e+003 4.659383e+002 1.904779e+002 8.873838e+000 1.717604e-001 7.423444e+000 2.227257e-001 4.122690e+000 3.345942e-001 5.821515e+000 5.234063e+000
<GCONST> 1.433679e+002
<MIXTURE> 2 5.273967e-001
<MEAN> 22
 8.355367e+000 1.209459e+001 3.788585e+000 4.408973e+000 1.764937e+002 2.358783e+002 8.025695e+001 1.174773e+002 6.535759e+001 9.073382e+001 1.162751e+002 6.938182e+001 8.337290e+001 7.829197e+001 3.154643e+000 2.090914e+000 4.442515e+000 3.248946e+000 4.050943e+000 1.360111e+000 2.488149e+000 2.642566e+000
<VARIANCE> 22
 3.601197e+002 2.202444e+002 8.438149e+001 3.597248e+001 3.866959e+004 9.987603e+003 3.204146e+003 5.927862e+003 1.328385e+003 2.366540e+003 6.555703e+003 2.337618e+003 2.325790e+003 1.532866e+003 9.076625e+000 1.290757e+000 7.334440e+000 3.200960e+000 4.918749e+000 1.873142e+000 6.198049e+000 5.110868e+000
<GCONST> 1.541499e+002
<STATE> 3
<NUMMIXES> 2
<MIXTURE> 1 5.505110e-001
<MEAN> 22
 1.771899e+000 1.979848e+001 7.550714e-001 7.008679e+000 8.107714e+000 8.501141e+001 9.111228e+001 8.702004e+001 5.701869e+001 7.936917e+001 1.886976e+002 1.188660e+002 1.130173e+002 1.000930e+002 6.995931e+000 3.782961e+000 6.020961e+000 5.255415e+000 6.000000e+000 4.112543e+000 2.018121e+000 3.718370e+000
<VARIANCE> 22
 8.158090e+000 3.701943e+002 3.300596e+000 4.991957e+001 7.626627e+001 3.601258e+003 2.092980e+002 7.432540e+002 6.426270e+001 4.303330e+002 4.083571e+002 3.899825e+003 1.187808e+002 4.085429e+002 6.504287e-002 1.345099e+000 2.326111e-002 5.434079e-001 2.082488e-002 6.631066e+000 5.970762e+000 5.244297e+000
<GCONST> 1.079842e+002
<MIXTURE> 2 4.494877e-001
<MEAN> 22
 2.817747e+000 1.024166e+001 1.479339e+000 4.117746e+000 1.494522e+001 2.209813e+002 9.085416e+001 1.675311e+002 5.644008e+001 1.153678e+002 1.853528e+002 8.082904e+001 1.121684e+002 7.945667e+001 6.843765e+000 2.350101e+000 6.064896e+000 3.145757e+000 5.912479e+000 1.733087e+000 2.326013e+000 3.300032e+000
<VARIANCE> 22
 2.396252e+001 1.442536e+002 1.092978e+001 2.388236e+001 8.261933e+002 2.727989e+003 4.278596e+002 1.470819e+003 1.322221e+002 5.431604e+002 1.009423e+003 1.117309e+003 2.245303e+002 3.591768e+002 8.353546e-001 3.496833e-001 3.278127e-001 7.049826e-001 1.966743e-001 6.877269e-001 6.269973e+000 5.412423e+000
<GCONST> 1.173704e+002
<STATE> 4
<NUMMIXES> 2
<MIXTURE> 1 7.305465e-001
<MEAN> 22
 1.457266e+001 2.490511e+000 5.201119e+000 1.177816e+000 1.390934e+002 1.782523e+001 1.339339e+002 9.809757e+001 9.932662e+001 5.566132e+001 1.215814e+002 1.959771e+002 9.695621e+001 1.159012e+002 3.101731e+000 5.000893e+000 3.699357e+000 5.852292e+000 3.797829e+000 5.986861e+000 3.340801e+000 2.436344e+000
<VARIANCE> 22
 2.907676e+002 1.646054e+001 4.225061e+001 3.065830e+000 8.423037e+003 6.103258e+002 2.725188e+003 2.144156e+002 8.673132e+002 8.511052e+001 4.322779e+003 3.457149e+002 5.170424e+002 1.242670e+002 7.020740e+000 1.793315e-002 8.616078e+000 1.258897e-001 3.605444e+000 5.618803e-002 5.965378e+000 6.304748e+000
<GCONST> 1.190385e+002
<MIXTURE> 2 2.694534e-001
<MEAN> 22
 6.792328e+000 6.880336e+000 2.991709e+000 2.963569e+000 7.501997e+001 3.716374e+001 9.504381e+001 4.770975e+001 8.495098e+001 5.673217e+001 7.806626e+001 1.054975e+002 9.241434e+001 1.019488e+002 2.409894e+000 3.130809e+000 3.883435e+000 5.537827e+000 3.472278e+000 2.882095e+000 2.959978e+000 2.729835e+000
<VARIANCE> 22
 1.014272e+002 1.799654e+002 2.538585e+001 2.380768e+001 3.030047e+003 1.194854e+003 3.690913e+003 5.338851e+002 3.969843e+002 1.142790e+002 1.676499e+003 9.382535e+002 4.227742e+002 1.088225e+002 2.578063e+000 1.526875e+000 6.749283e+000 3.042596e-001 1.212809e+000 8.243524e+000 6.334694e+000 6.351412e+000
<GCONST> 1.300600e+002
<TRANSP> 5
 0.000000e+000 1.000000e+000 0.000000e+000 0.000000e+000 0.000000e+000
 0.000000e+000 7.471327e-001 2.528673e-001 0.000000e+000 0.000000e+000
 0.000000e+000 0.000000e+000 9.439240e-001 5.607602e-002 0.000000e+000
 0.000000e+000 0.000000e+000 0.000000e+000 9.199299e-001 8.007015e-002
 0.000000e+000 0.000000e+000 0.000000e+000 0.000000e+000 0.000000e+000
<ENDHMM>
~h "VQ"
<BEGINHMM>
<NUMSTATES> 5
<STATE> 2
<NUMMIXES> 2
<MIXTURE> 1 1.804097e-001
<MEAN> 22
 2.154436e+001 2.989258e+001 1.405000e+001 1.533792e+001 5.152657e+001 1.205913e+002 7.504899e+001 9.414819e+001 6.716515e+001 6.505525e+001 1.358741e+002 7.365855e+001 9.814672e+001 9.380358e+001 4.180662e+000 2.900239e+000 5.683442e+000 4.604731e+000 5.059110e+000 2.534771e+000 2.831791e+000 3.247756e+000
<VARIANCE> 22
 5.726410e+003 4.248638e+003 4.512625e+003 2.898861e+003 6.094848e+003 4.926342e+003 1.240890e+003 1.281542e+003 2.828490e+002 2.507406e+002 3.048878e+003 1.878502e+003 7.172048e+002 3.490034e+002 8.962330e+000 9.905781e-001 3.241419e+000 9.953358e-001 2.176266e+000 3.430099e+000 6.529809e+000 4.783752e+000
<GCONST> 1.532914e+002
<MIXTURE> 2 8.195891e-001
<MEAN> 22
 1.166647e+001 2.959114e+000 4.092644e+000 1.312266e+000 1.067562e+002 2.190407e+001 1.013441e+002 7.227243e+001 7.855274e+001 5.484471e+001 8.244221e+001 1.598905e+002 9.692070e+001 1.098377e+002 2.362198e+000 4.240810e+000 3.470789e+000 5.712785e+000 3.264188e+000 4.917286e+000 3.534620e+000 2.489643e+000
<VARIANCE> 22
 2.032390e+002 1.989196e+001 3.029178e+001 4.656076e+000 5.689286e+003 4.344472e+002 2.462906e+003 1.014290e+003 3.439693e+002 6.366464e+001 2.968461e+003 2.058531e+003 3.675425e+002 1.302558e+002 3.965008e+000 1.650705e+000 8.920128e+000 2.047857e-001 2.337910e+000 5.270931e+000 5.924663e+000 5.934434e+000
<GCONST> 1.280872e+002
<STATE> 3
<NUMMIXES> 2
<MIXTURE> 1 5.111922e-001
<MEAN> 22
 2.628984e+000 1.979684e+001 8.501619e-001 5.777061e+000 9.079428e+000 1.025388e+002 9.882156e+001 9.546265e+001 6.013328e+001 7.199803e+001 2.001213e+002 1.193474e+002 1.197004e+002 1.053859e+002 6.997585e+000 3.746518e+000 6.122479e+000 5.041842e+000 5.998556e+000 4.020517e+000 2.169865e+000 3.841813e+000
<VARIANCE> 22
 2.267536e+001 3.277525e+002 3.300596e+000 5.390608e+001 1.279033e+002 7.158567e+003 4.298359e+002 1.991372e+003 8.831345e+001 3.615393e+002 7.896578e+002 3.172561e+003 2.594063e+002 2.581036e+002 6.504287e-002 1.309280e+000 1.074773e-001 1.055256e+000 2.082488e-002 5.496893e+000 6.170472e+000 4.878673e+000
<GCONST> 1.147297e+002
<MIXTURE> 2 4.888073e-001
<MEAN> 22
 1.136869e+000 6.075004e+000 7.132946e-001 3.032139e+000 1.003514e+001 1.642210e+002 8.415074e+001 1.149008e+002 5.274577e+001 7.436597e+001 1.791796e+002 4.565129e+001 1.073538e+002 8.147949e+001 6.943700e+000 2.387533e+000 6.050708e+000 4.091217e+000 5.961864e+000 1.754667e+000 1.685367e+000 3.482431e+000
<VARIANCE> 22
 4.801632e+000 3.785638e+001 3.300596e+000 1.399697e+001 6.345106e+002 1.482731e+003 1.827402e+002 7.203610e+002 5.981202e+001 2.017079e+002 4.159580e+002 4.143004e+002 8.777793e+001 2.410768e+002 2.960256e-001 2.821233e-001 1.499192e-001 6.676339e-001 1.169810e-001 3.432119e-001 5.431304e+000 6.169539e+000
<GCONST> 1.019387e+002
<STATE> 4
<NUMMIXES> 2
<MIXTURE> 1 9.036378e-001
<MEAN> 22
 1.039755e+001 3.003175e+000 3.883277e+000 1.209355e+000 9.580260e+001 2.348285e+001 1.054122e+002 9.443778e+001 7.504202e+001 5.371769e+001 1.079896e+002 1.928829e+002 1.003686e+002 1.143149e+002 3.264425e+000 4.999703e+000 4.282963e+000 5.860900e+000 3.898390e+000 5.995496e+000 3.500106e+000 2.455230e+000
<VARIANCE> 22
 1.649748e+002 2.725381e+001 3.040693e+001 4.035147e+000 5.257207e+003 9.918849e+002 9.802678e+002 2.026082e+002 4.319888e+002 6.461275e+001 4.819877e+003 3.120734e+002 3.999334e+002 1.146243e+002 7.744824e+000 1.793315e-002 8.725107e+000 1.197497e-001 3.561146e+000 5.618803e-002 5.862615e+000 6.144076e+000
<GCONST> 1.165585e+002
<MIXTURE> 2 9.636213e-002
<MEAN> 22
 2.873321e+000 4.400160e+000 1.395946e+000 1.827952e+000 4.087379e+002 3.178636e+002 3.991183e+001 3.835892e+001 2.641446e+001 2.773455e+001 5.432318e+001 3.404690e+001 4.074122e+001 4.050103e+001 1.841193e+000 1.256495e+000 2.130008e+000 1.951904e+000 1.775936e+000 9.859796e-001 1.024782e+000 1.670911e+000
<VARIANCE> 22
 6.953166e+001 1.085033e+002 1.293746e+001 1.892130e+001 4.748873e+004 2.035482e+004 2.882989e+003 2.705390e+003 1.033497e+003 1.153107e+003 6.100481e+003 2.469270e+003 2.500425e+003 2.442480e+003 7.881180e+000 2.631546e+000 8.666711e+000 5.763768e+000 6.013522e+000 2.846063e+000 3.876454e+000 5.995252e+000
<GCONST> 1.504939e+002
<TRANSP> 5
 0.000000e+000 1.000000e+000 0.000000e+000 0.000000e+000 0.000000e+000
 0.000000e+000 8.546255e-001 1.453744e-001 0.000000e+000 0.000000e+000
 0.000000e+000 0.000000e+000 9.443572e-001 5.564284e-002 0.000000e+000
 0.000000e+000 0.000000e+000 0.000000e+000 8.853875e-001 1.146125e-001
 0.000000e+000 0.000000e+000 0.000000e+000 0.000000e+000 0.000000e+000
<ENDHMM>
~h "SIL"
<BEGINHMM>
<NUMSTATES> 5
<STATE> 2
<NUMMIXES> 2
<MIXTURE> 1 1.630264e-001
<MEAN> 22
 4.893555e+002 4.130860e+002 4.451244e+002 3.567330e+002 8.765272e-001 1.245510e+000 3.967714e+001 3.897525e+001 2.806861e+001 2.654730e+001 7.765326e+001 7.463754e+001 4.931982e+001 4.858564e+001 2.753799e+000 1.992830e+000 2.640091e+000 2.527452e+000 2.481507e+000 2.333298e+000 4.666891e+000 4.663913e+000
<VARIANCE> 22
 6.558446e+003 4.068716e+003 4.583379e+003 3.305175e+003 6.612370e+001 1.564772e+002 2.347981e+003 2.294359e+003 1.092248e+003 1.015245e+003 8.563918e+003 8.145823e+003 3.231831e+003 3.132490e+003 1.120414e+001 5.743744e+000 9.251407e+000 8.404707e+000 8.295395e+000 8.442851e+000 4.022472e+000 4.056015e+000
<GCONST> 1.624792e+002
<MIXTURE> 2 8.369737e-001
<MEAN> 22
 0.000000e+000 0.000000e+000 0.000000e+000 0.000000e+000 3.661411e+001 2.963424e+001 0.000000e+000 0.000000e+000 0.000000e+000 0.000000e+000 0.000000e+000 0.000000e+000 0.000000e+000 0.000000e+000 0.000000e+000 0.000000e+000 0.000000e+000 0.000000e+000 0.000000e+000 0.000000e+000 0.000000e+000 0.000000e+000
<VARIANCE> 22
 4.801632e+000 4.063125e+000 3.300596e+000 2.164982e+000 1.817520e+004 1.195243e+004 9.838196e+000 1.115232e+001 2.936353e+000 3.516743e+000 3.745900e+001 4.440890e+001 4.184655e+000 3.870682e+000 6.504287e-002 1.793315e-002 2.326111e-002 1.170389e-002 2.082488e-002 5.618803e-002 6.153807e-002 6.060927e-002
<GCONST> 5.449670e+001
<STATE> 3
<NUMMIXES> 2
<MIXTURE> 1 7.778217e-001
<MEAN> 22
 1.416234e+000 1.829195e+000 6.010320e-001 7.572265e-001 7.956475e+000 9.856466e+000 1.012621e+002 9.783421e+001 6.363065e+001 5.939437e+001 1.986395e+002 1.963597e+002 1.187423e+002 1.173850e+002 6.999704e+000 5.000002e+000 6.125041e+000 5.906620e+000 6.001796e+000 6.000592e+000 1.986711e+000 2.012918e+000
<VARIANCE> 22
 4.936177e+000 7.074891e+000 3.300596e+000 2.164982e+000 6.965236e+001 1.197953e+002 3.533403e+002 2.285278e+002 1.040962e+002 8.012800e+001 5.903370e+002 4.405849e+002 2.057729e+002 1.444982e+002 6.504287e-002 1.793315e-002 1.093412e-001 8.471230e-002 2.082488e-002 5.618803e-002 5.623627e+000 5.625122e+000
<GCONST> 8.334709e+001
<MIXTURE> 2 2.221869e-001
<MEAN> 22
 8.883287e+000 1.131576e+001 2.255685e+000 2.849262e+000 5.396484e+001 6.129187e+001 8.199451e+001 7.948856e+001 6.963960e+001 6.421265e+001 1.456511e+002 1.417027e+002 1.088340e+002 1.091174e+002 4.596504e+000 4.083834e+000 5.911320e+000 5.527503e+000 5.061681e+000 4.553565e+000 2.477116e+000 2.486503e+000
<VARIANCE> 22
 1.788424e+002 2.148050e+002 1.467690e+001 1.605113e+001 2.824671e+003 2.820075e+003 1.390012e+003 1.264762e+003 2.702001e+002 2.063666e+002 3.578198e+003 3.586354e+003 3.913889e+002 2.189668e+002 8.442809e+000 1.670375e+000 2.142855e+000 4.951755e-001 2.019443e+000 6.055583e+000 5.215373e+000 4.719642e+000
<GCONST> 1.337897e+002
<STATE> 4
<NUMMIXES> 2
<MIXTURE> 1 2.365999e-001
<MEAN> 22
 5.715805e-001 1.104915e+000 2.789386e-001 6.305390e-001 3.985595e+000 4.111779e+000 1.063354e+002 1.138265e+002 6.400082e+001 6.617450e+001 2.298199e+002 2.341068e+002 1.356084e+002 1.379986e+002 7.000000e+000 5.000000e+000 6.000167e+000 5.997325e+000 6.000000e+000 6.000000e+000 9.852623e-001 1.466254e+000
<VARIANCE> 22
 4.801632e+000 5.108053e+000 3.300596e+000 2.200505e+000 4.956259e+001 5.429972e+001 1.149824e+001 1.305659e+001 3.890661e+000 7.101074e+000 3.745900e+001 4.440890e+001 6.501649e+000 7.675519e+000 6.504287e-002 1.793315e-002 2.326111e-002 1.170389e-002 2.082488e-002 5.618803e-002 3.574459e+000 4.653147e+000
<GCONST> 5.426879e+001
<MIXTURE> 2 7.634016e-001
<MEAN> 22
 1.023699e+000 1.610725e+000 4.000882e-001 6.268644e-001 4.851030e+000 6.054175e+000 8.671123e+001 8.621531e+001 5.627218e+001 5.497523e+001 1.822950e+002 1.819088e+002 1.105382e+002 1.100639e+002 6.990262e+000 4.994120e+000 6.006884e+000 5.976638e+000 5.996633e+000 5.992773e+000 1.769423e+000 1.903231e+000
<VARIANCE> 22
 4.801632e+000 1.132355e+001 3.300596e+000 2.164982e+000 7.010529e+001 8.371725e+001 5.060021e+001 5.364321e+001 2.204683e+001 4.098471e+001 1.100896e+002 1.286151e+002 3.357104e+001 3.758144e+001 6.504287e-002 1.793315e-002 2.326111e-002 2.463206e-002 2.082488e-002 5.618803e-002 5.365758e+000 5.872154e+000
<GCONST> 6.896517e+001
<TRANSP> 5
 0.000000e+000 1.000000e+000 0.000000e+000 0.000000e+000 0.000000e+000
 0.000000e+000 9.079425e-001 9.205743e-002 0.000000e+000 0.000000e+000
 0.000000e+000 0.000000e+000 9.973097e-001 2.690274e-003 0.000000e+000
 0.000000e+000 0.000000e+000 0.000000e+000 9.924662e-001 7.533811e-003
 0.000000e+000 0.000000e+000 0.000000e+000 0.000000e+000 0.000000e+000
<ENDHMM>
